svm_type c_svc
kernel_type rbf
gamma 8
nr_class 2
total_sv 1523
rho -0.6035
label 1 0
probA -3.69217
probB -1.37774
nr_sv 724 799
SV
0.1453910256653176 1:1 4:0.25 5:0.349367 7:1 9:1 12:1 13:1 15:1 17:1 19:1 21:1 24:1 26:1 30:1 31:1 33:1 35:1 37:1 
128 1:1 4:0.0104167 6:1 8:0.0377358 9:1 11:1 13:1 15:1 17:1 19:1 21:1 24:1 26:1 30:1 31:1 33:1 35:1 37:1 
128 1:1 4:0.0416667 6:1 8:0.0377358 9:1 11:1 13:1 15:1 17:1 19:1 21:1 24:1 26:1 30:1 31:1 33:1 35:1 37:1 
0.3636587386602557 1:1 6:1 8:0.0566038 9:1 11:1 13:1 15:1 17:1 19:1 21:1 25:1 26:1 30:1 32:1 33:1 35:1 37:1 
128 1:1 4:0.328125 5:0.298734 6:1 8:0.0566038 9:1 11:1 13:1 15:1 17:1 19:1 21:1 25:1 26:1 30:1 31:1 33:1 35:1 37:1 
0.258912163806563 1:1 4:0.703125 5:0.524051 7:1 9:1 12:1 13:1 15:1 17:1 19:1 21:1 24:1 26:1 30:1 31:1 33:1 35:1 37:1 
128 1:1 4:0.00520833 5:0.00759494 6:1 8:0.132075 9:1 11:1 13:1 15:1 17:1 19:1 21:1 24:1 26:1 29:1 31:1 33:1 35:1 37:1 
128 1:1 6:1 8:0.188679 9:1 11:1 13:1 15:1 17:1 19:1 21:1 25:1 26:1 30:1 31:1 33:1 35:1 37:1 
128 1:1 4:0.375 5:0.605063 6:1 8:0.188679 9:1 11:1 13:1 15:1 17:1 19:1 21:1 25:1 26:1 30:1 31:1 33:1 35:1 37:1 
128 1:1 6:1 8:0.150943 9:1 11:1 13:1 15:1 17:1 19:1 21:1 25:1 26:1 30:1 31:1 33:1 35:1 37:1 
128 1:1 4:0.00520833 6:1 8:0.0566038 9:1 11:1 13:1 15:1 17:1 19:1 21:1 24:1 26:1 30:1 31:1 33:1 35:1 37:1 
128 1:1 4:0.00520833 6:1 8:0.339623 9:1 11:1 13:1 15:1 17:1 19:1 21:1 24:1 26:1 30:1 31:1 33:1 35:1 37:1 
128 1:1 4:0.0104167 5:0.043038 6:1 8:0.0754717 9:1 11:1 13:1 15:1 17:1 19:1 21:1 25:1 26:1 30:1 31:1 33:1 35:1 37:1 
128 1:1 6:1 8:0.245283 10:1 11:1 13:1 15:1 17:1 19:1 21:1 24:1 26:1 30:1 31:1 33:1 35:1 37:1 
128 1:1 6:1 8:0.132075 10:1 11:1 13:1 15:1 17:1 19:1 21:1 24:1 26:1 30:1 31:1 33:1 35:1 37:1 
128 1:1 4:0.0989583 5:0.151899 6:1 8:0.0754717 9:1 11:1 13:1 15:1 17:1 19:1 21:1 25:1 26:1 30:1 31:1 33:1 35:1 37:1 
128 1:1 4:0.161458 5:0.0708861 6:1 8:0.264151 9:1 11:1 13:1 15:1 17:1 19:1 21:1 24:1 26:1 30:1 31:1 33:1 35:1 37:1 
0.3581677573954664 1:1 4:0.015625 5:0.00759494 6:1 8:0.584906 9:1 11:1 13:1 15:1 17:1 19:1 21:1 24:1 26:1 29:1 31:1 33:1 35:1 38:1 
128 1:1 4:0.0260417 5:0.0253165 6:1 8:0.0754717 9:1 11:1 13:1 15:1 17:1 19:1 21:1 24:1 26:1 29:1 31:1 33:1 35:1 37:1 
128 1:1 4:0.166667 5:0.126582 6:1 8:0.0754717 9:1 11:1 13:1 15:1 17:1 19:1 21:1 24:1 26:1 29:1 31:1 33:1 35:1 37:1 
0.3966319974364923 2:1 4:0.0104167 5:0.00759494 7:1 9:1 11:1 13:1 15:1 17:1 19:1 21:1 24:1 26:1 30:1 31:1 34:1 35:1 38:1 
0.1980660710986452 2:1 4:0.0104167 5:0.00759494 7:1 9:1 11:1 13:1 15:1 17:1 19:1 21:1 24:1 26:1 30:1 31:1 34:1 35:1 37:1 
0.1987497713108734 2:1 4:0.0260417 5:0.0101266 7:1 9:1 11:1 13:1 15:1 17:1 19:1 21:1 25:1 26:1 29:1 31:1 34:1 35:1 37:1 
128 1:1 6:1 8:0.188679 9:1 11:1 13:1 15:1 17:1 19:1 21:1 25:1 26:1 30:1 31:1 33:1 35:1 37:1 
128 1:1 6:1 8:0.207547 9:1 11:1 13:1 15:1 17:1 19:1 21:1 24:1 26:1 29:1 31:1 33:1 35:1 37:1 
128 1:1 5:0.00506329 6:1 8:0.0943396 9:1 11:1 13:1 15:1 17:1 19:1 21:1 24:1 26:1 30:1 31:1 33:1 35:1 37:1 
128 1:1 4:0.00520833 5:0.00253165 6:1 8:0.0943396 9:1 11:1 13:1 15:1 17:1 19:1 21:1 24:1 26:1 30:1 31:1 33:1 35:1 37:1 
128 1:1 5:0.00253165 6:1 8:0.0943396 9:1 11:1 13:1 15:1 17:1 19:1 21:1 24:1 26:1 30:1 31:1 33:1 35:1 37:1 
128 1:1 4:0.109375 5:0.0177215 6:1 8:0.226415 9:1 11:1 13:1 15:1 17:1 19:1 21:1 24:1 26:1 30:1 31:1 33:1 35:1 37:1 
128 1:1 4:0.078125 5:0.0253165 6:1 8:0.45283 9:1 11:1 13:1 15:1 17:1 19:1 21:1 24:1 26:1 30:1 31:1 33:1 35:1 37:1 
128 1:1 4:0.00520833 5:0.00253165 6:1 8:0.207547 9:1 11:1 13:1 15:1 17:1 19:1 21:1 24:1 26:1 30:1 31:1 33:1 35:1 37:1 
128 1:1 4:0.00520833 6:1 8:0.0566038 9:1 11:1 13:1 15:1 17:1 19:1 21:1 24:1 26:1 30:1 31:1 33:1 35:1 37:1 
128 1:1 4:0.00520833 6:1 8:0.320755 9:1 11:1 13:1 15:1 17:1 19:1 21:1 24:1 26:1 30:1 31:1 33:1 35:1 37:1 
128 1:1 4:0.015625 5:0.00759494 6:1 8:0.396226 9:1 11:1 13:1 15:1 17:1 19:1 21:1 24:1 26:1 30:1 31:1 33:1 35:1 37:1 
128 1:1 4:0.0416667 5:0.00253165 6:1 8:0.169811 9:1 11:1 13:1 15:1 17:1 19:1 21:1 24:1 26:1 30:1 31:1 33:1 35:1 37:1 
0.3367130912896749 1:1 5:0.0151899 7:1 9:1 11:1 13:1 15:1 17:1 19:1 22:1 24:1 26:1 29:1 31:1 33:1 36:1 37:1 
128 1:1 5:0.00506329 6:1 8:0.169811 9:1 11:1 13:1 15:1 17:1 19:1 21:1 24:1 26:1 30:1 31:1 33:1 35:1 37:1 
128 1:1 4:0.229167 5:0.101266 6:1 8:0.0566038 9:1 11:1 13:1 15:1 17:1 19:1 21:1 24:1 26:1 30:1 31:1 33:1 35:1 37:1 
0.1970249296014805 1:1 4:0.03125 5:0.0227848 7:1 9:1 11:1 13:1 16:1 17:1 19:1 21:1 24:1 26:1 30:1 31:1 33:1 36:1 37:1 
128 1:1 4:0.0104167 6:1 8:0.0754717 9:1 11:1 13:1 15:1 17:1 19:1 21:1 24:1 26:1 29:1 31:1 33:1 35:1 37:1 
128 1:1 6:1 8:0.283019 9:1 11:1 13:1 15:1 17:1 19:1 21:1 25:1 26:1 30:1 31:1 33:1 35:1 37:1 
128 1:1 4:0.00520833 6:1 8:0.377358 9:1 11:1 13:1 15:1 17:1 19:1 21:1 24:1 26:1 30:1 31:1 33:1 35:1 37:1 
0.3009558030521863 2:1 4:0.911458 5:0.792405 6:1 8:0.132075 9:1 11:1 13:1 15:1 17:1 19:1 21:1 25:1 26:1 30:1 31:1 33:1 35:1 37:1 
0.2886986564727672 1:1 4:0.234375 5:0.273418 7:1 9:1 11:1 13:1 15:1 18:1 19:1 21:1 24:1 26:1 30:1 31:1 33:1 35:1 37:1 
0.2919404647769028 1:1 4:0.489583 5:0.837975 7:1 9:1 12:1 13:1 15:1 17:1 19:1 21:1 24:1 26:1 30:1 31:1 33:1 35:1 37:1 
0.5656116228665692 1:1 4:0.0208333 5:0.0481013 7:1 9:1 11:1 13:1 15:1 18:1 19:1 21:1 24:1 26:1 30:1 31:1 33:1 36:1 37:1 
4.156169449838985 1:1 5:0.0177215 7:1 9:1 11:1 13:1 15:1 18:1 19:1 21:1 24:1 26:1 30:1 31:1 33:1 36:1 37:1 
50.86652855252436 1:1 4:0.0416667 5:0.0734177 7:1 9:1 11:1 13:1 15:1 18:1 19:1 21:1 24:1 26:1 30:1 31:1 33:1 36:1 37:1 
0.3968638509997253 1:1 4:0.03125 5:0.0531646 7:1 9:1 12:1 14:1 15:1 17:1 19:1 21:1 24:1 27:1 30:1 31:1 33:1 35:1 37:1 
0.1984906070563505 2:1 4:0.00520833 5:0.0101266 7:1 9:1 12:1 13:1 15:1 17:1 19:1 21:1 24:1 26:1 29:1 31:1 33:1 36:1 37:1 
128 1:1 6:1 8:0.377358 9:1 11:1 13:1 15:1 17:1 19:1 21:1 24:1 26:1 30:1 31:1 33:1 35:1 37:1 
128 1:1 4:0.046875 5:0.00253165 6:1 8:0.433962 9:1 11:1 13:1 15:1 17:1 19:1 21:1 24:1 26:1 30:1 31:1 33:1 35:1 37:1 
128 1:1 4:0.00520833 5:0.00506329 6:1 8:0.0754717 9:1 11:1 13:1 15:1 17:1 19:1 21:1 24:1 26:1 29:1 31:1 33:1 35:1 37:1 
128 1:1 4:0.130208 5:0.0506329 6:1 8:0.226415 9:1 11:1 13:1 15:1 17:1 19:1 21:1 24:1 26:1 30:1 31:1 33:1 35:1 37:1 
128 1:1 4:0.0208333 5:0.0126582 6:1 8:0.396226 9:1 11:1 13:1 15:1 17:1 19:1 21:1 24:1 26:1 30:1 31:1 33:1 35:1 37:1 
0.3962962636118197 2:1 4:0.00520833 5:0.00759494 6:1 8:0.0188679 9:1 11:1 13:1 15:1 17:1 19:1 21:1 24:1 26:1 28:1 31:1 33:1 36:1 37:1 
128 1:1 5:0.00253165 6:1 8:0.264151 9:1 11:1 13:1 15:1 17:1 19:1 21:1 24:1 26:1 28:1 31:1 33:1 35:1 37:1 
128 1:1 4:0.119792 5:0.0556962 6:1 8:0.264151 9:1 11:1 13:1 15:1 17:1 19:1 21:1 24:1 26:1 30:1 31:1 33:1 35:1 37:1 
128 1:1 4:0.0729167 5:0.0177215 6:1 8:0.188679 9:1 11:1 13:1 15:1 17:1 19:1 21:1 24:1 26:1 30:1 31:1 33:1 35:1 37:1 
0.1982307905519727 1:1 4:0.00520833 5:0.0177215 7:1 9:1 11:1 13:1 16:1 17:1 19:1 22:1 24:1 26:1 30:1 31:1 33:1 36:1 37:1 
128 1:1 4:0.00520833 6:1 8:0.188679 9:1 11:1 13:1 15:1 17:1 19:1 21:1 24:1 26:1 30:1 31:1 33:1 35:1 37:1 
128 1:1 4:0.00520833 6:1 8:0.301887 9:1 11:1 13:1 15:1 17:1 19:1 21:1 24:1 26:1 30:1 31:1 33:1 35:1 37:1 
128 1:1 4:0.00520833 5:0.00253165 6:1 8:0.301887 9:1 11:1 13:1 15:1 17:1 19:1 21:1 25:1 26:1 30:1 31:1 33:1 35:1 37:1 
128 1:1 4:0.00520833 5:0.0101266 6:1 8:0.0377358 9:1 11:1 13:1 15:1 17:1 19:1 21:1 24:1 26:1 29:1 31:1 33:1 35:1 37:1 
128 1:1 4:0.00520833 6:1 8:0.113208 9:1 11:1 13:1 15:1 17:1 19:1 21:1 24:1 26:1 30:1 31:1 33:1 35:1 37:1 
128 1:1 5:0.00506329 6:1 8:0.0754717 9:1 11:1 13:1 15:1 17:1 19:1 21:1 24:1 26:1 30:1 31:1 33:1 35:1 37:1 
19.26396315592523 1:1 4:1 5:0.658228 6:1 8:0.188679 9:1 11:1 13:1 15:1 17:1 19:1 21:1 25:1 26:1 30:1 31:1 33:1 35:1 37:1 
0.3961799405191963 2:1 4:0.994792 5:0.698734 7:1 9:1 11:1 13:1 15:1 17:1 19:1 21:1 24:1 26:1 29:1 31:1 33:1 35:1 37:1 
128 1:1 5:0.00253165 6:1 8:0.113208 9:1 11:1 13:1 15:1 17:1 19:1 21:1 25:1 26:1 30:1 31:1 33:1 35:1 37:1 
128 1:1 4:0.0208333 5:0.0151899 6:1 8:0.188679 9:1 11:1 13:1 15:1 17:1 19:1 21:1 25:1 26:1 30:1 31:1 33:1 35:1 37:1 
128 1:1 4:0.0104167 5:0.0227848 6:1 8:0.0566038 9:1 11:1 13:1 15:1 17:1 19:1 21:1 24:1 26:1 30:1 31:1 33:1 35:1 37:1 
128 1:1 4:0.00520833 5:0.00506329 6:1 8:0.226415 9:1 11:1 13:1 15:1 17:1 19:1 21:1 24:1 26:1 30:1 31:1 33:1 35:1 37:1 
128 1:1 4:0.00520833 5:0.0177215 6:1 8:0.226415 9:1 11:1 13:1 15:1 17:1 19:1 21:1 24:1 26:1 30:1 31:1 33:1 35:1 37:1 
128 1:1 4:0.00520833 5:0.00759494 6:1 8:0.0566038 9:1 11:1 13:1 15:1 17:1 19:1 21:1 24:1 26:1 30:1 31:1 33:1 35:1 37:1 
128 1:1 4:0.00520833 6:1 8:0.169811 9:1 11:1 13:1 15:1 17:1 19:1 21:1 24:1 26:1 30:1 31:1 33:1 35:1 37:1 
128 1:1 4:0.015625 5:0.00253165 6:1 8:0.0566038 9:1 11:1 13:1 15:1 17:1 19:1 21:1 24:1 26:1 30:1 31:1 33:1 35:1 37:1 
128 1:1 5:0.00759494 6:1 8:0.0943396 9:1 11:1 13:1 15:1 17:1 19:1 21:1 24:1 26:1 30:1 31:1 33:1 35:1 37:1 
128 1:1 4:0.00520833 6:1 8:0.113208 9:1 11:1 13:1 15:1 17:1 19:1 21:1 24:1 26:1 30:1 31:1 33:1 35:1 37:1 
128 1:1 4:0.00520833 5:0.00506329 6:1 8:0.113208 9:1 11:1 13:1 15:1 17:1 19:1 21:1 24:1 26:1 30:1 31:1 33:1 35:1 37:1 
0.261153745731235 2:1 4:0.197917 5:0.210127 7:1 9:1 11:1 13:1 15:1 17:1 19:1 21:1 24:1 26:1 29:1 31:1 33:1 35:1 37:1 
128 1:1 6:1 8:0.113208 9:1 11:1 13:1 15:1 17:1 19:1 21:1 24:1 26:1 30:1 31:1 33:1 35:1 37:1 
128 1:1 4:0.0104167 5:0.0101266 6:1 8:0.169811 9:1 11:1 13:1 15:1 17:1 19:1 21:1 24:1 26:1 30:1 31:1 33:1 35:1 37:1 
128 1:1 4:0.00520833 5:0.00253165 6:1 8:0.169811 9:1 11:1 13:1 15:1 17:1 19:1 21:1 24:1 26:1 30:1 31:1 33:1 35:1 37:1 
128 1:1 4:0.0260417 5:0.0151899 6:1 8:0.169811 9:1 11:1 13:1 15:1 17:1 19:1 21:1 24:1 26:1 30:1 31:1 33:1 35:1 37:1 
128 1:1 5:0.00506329 6:1 8:0.169811 9:1 11:1 13:1 15:1 17:1 19:1 21:1 24:1 26:1 30:1 31:1 33:1 35:1 37:1 
128 1:1 4:0.00520833 5:0.0101266 6:1 8:0.169811 9:1 11:1 13:1 15:1 17:1 19:1 21:1 24:1 26:1 30:1 31:1 33:1 35:1 37:1 
128 1:1 4:0.00520833 6:1 8:0.622642 9:1 11:1 13:1 15:1 17:1 19:1 21:1 25:1 26:1 28:1 31:1 33:1 35:1 37:1 
128 1:1 4:0.109375 5:0.106329 6:1 8:0.169811 9:1 11:1 13:1 15:1 17:1 19:1 21:1 25:1 26:1 30:1 31:1 33:1 35:1 37:1 
128 1:1 6:1 8:0.169811 9:1 11:1 13:1 15:1 17:1 19:1 21:1 24:1 26:1 30:1 31:1 33:1 35:1 37:1 
128 1:1 4:0.0104167 5:0.00506329 6:1 8:0.113208 9:1 11:1 13:1 15:1 17:1 19:1 21:1 24:1 26:1 30:1 31:1 33:1 35:1 37:1 
128 1:1 4:0.0260417 5:0.00759494 6:1 8:0.113208 9:1 11:1 13:1 15:1 17:1 19:1 21:1 24:1 26:1 30:1 31:1 33:1 35:1 37:1 
128 1:1 4:0.0520833 5:0.0278481 6:1 8:0.169811 9:1 11:1 13:1 15:1 17:1 19:1 21:1 24:1 26:1 30:1 31:1 33:1 35:1 37:1 
128 1:1 5:0.00253165 6:1 8:0.207547 9:1 11:1 13:1 15:1 17:1 19:1 21:1 25:1 26:1 30:1 31:1 33:1 35:1 37:1 
128 1:1 4:0.00520833 5:0.00253165 6:1 8:0.169811 9:1 11:1 13:1 15:1 17:1 19:1 21:1 24:1 26:1 30:1 31:1 33:1 35:1 37:1 
128 1:1 4:0.130208 5:0.0734177 6:1 8:0.0566038 9:1 11:1 13:1 15:1 17:1 19:1 21:1 24:1 26:1 30:1 31:1 33:1 35:1 37:1 
0.1987523020546743 1:1 5:0.00759494 7:1 9:1 11:1 13:1 16:1 17:1 19:1 21:1 24:1 26:1 30:1 31:1 33:1 35:1 37:1 
0.2018534239433266 1:1 5:0.00253165 7:1 9:1 11:1 13:1 16:1 17:1 19:1 21:1 24:1 26:1 30:1 31:1 33:1 36:1 37:1 
128 1:1 4:0.015625 5:0.0303797 6:1 8:0.301887 9:1 11:1 13:1 15:1 17:1 19:1 21:1 24:1 26:1 30:1 31:1 33:1 35:1 37:1 
0.3590629496306807 2:1 4:0.0260417 5:0.0405063 6:1 8:0.584906 9:1 11:1 13:1 15:1 17:1 19:1 21:1 25:1 26:1 30:1 31:1 33:1 35:1 37:1 
0.3962495802657496 1:1 4:0.00520833 5:0.00506329 7:1 9:1 11:1 13:1 15:1 17:1 19:1 21:1 24:1 26:1 30:1 31:1 34:1 35:1 38:1 
128 1:1 4:0.125 5:0.0607595 6:1 8:0.0943396 9:1 11:1 13:1 15:1 17:1 19:1 21:1 23:1 26:1 30:1 31:1 33:1 35:1 37:1 
128 1:1 4:0.00520833 5:0.00253165 6:1 8:0.113208 9:1 11:1 13:1 15:1 17:1 19:1 21:1 23:1 26:1 30:1 31:1 33:1 35:1 37:1 
128 1:1 4:0.0104167 5:0.00759494 6:1 8:0.113208 9:1 11:1 13:1 15:1 17:1 19:1 21:1 24:1 26:1 30:1 31:1 33:1 35:1 37:1 
128 1:1 4:0.0416667 5:0.0126582 6:1 8:0.113208 9:1 11:1 13:1 15:1 17:1 19:1 21:1 24:1 26:1 30:1 31:1 33:1 35:1 37:1 
128 1:1 4:0.00520833 5:0.00253165 6:1 8:0.113208 9:1 11:1 13:1 15:1 17:1 19:1 21:1 24:1 26:1 30:1 31:1 33:1 35:1 37:1 
102.1666004434659 1:1 4:0.00520833 5:0.00253165 6:1 8:0.0377358 9:1 11:1 13:1 15:1 17:1 19:1 21:1 24:1 26:1 29:1 31:1 33:1 35:1 37:1 
128 1:1 4:0.0104167 5:0.00506329 6:1 8:0.113208 9:1 11:1 13:1 15:1 17:1 19:1 21:1 24:1 26:1 30:1 31:1 33:1 35:1 37:1 
128 1:1 4:0.0208333 5:0.0101266 6:1 8:0.113208 9:1 11:1 13:1 15:1 17:1 19:1 21:1 24:1 26:1 30:1 31:1 33:1 35:1 37:1 
128 1:1 4:0.0833333 5:0.0253165 6:1 8:0.113208 9:1 11:1 13:1 15:1 17:1 19:1 21:1 24:1 26:1 30:1 31:1 33:1 35:1 37:1 
128 1:1 4:0.114583 5:0.111392 6:1 8:0.0754717 9:1 11:1 13:1 15:1 17:1 19:1 21:1 25:1 26:1 30:1 31:1 33:1 35:1 37:1 
128 1:1 4:0.109375 5:0.177215 6:1 8:0.0754717 9:1 11:1 13:1 15:1 17:1 19:1 21:1 24:1 26:1 29:1 31:1 33:1 35:1 37:1 
0.06935123505477864 2:1 4:0.255208 5:0.23038 6:1 8:0.0377358 9:1 11:1 13:1 15:1 17:1 19:1 21:1 25:1 26:1 30:1 31:1 33:1 35:1 37:1 
128 1:1 6:1 8:0.245283 9:1 11:1 13:1 15:1 17:1 19:1 21:1 24:1 26:1 28:1 31:1 33:1 35:1 37:1 
0.4421059428411203 1:1 4:0.614583 5:1 6:1 8:0.245283 9:1 11:1 13:1 15:1 17:1 19:1 21:1 24:1 26:1 28:1 31:1 33:1 35:1 37:1 
0.3667499005558466 1:1 4:0.260417 5:0.526582 7:1 9:1 11:1 13:1 15:1 17:1 19:1 21:1 25:1 26:1 30:1 31:1 33:1 35:1 37:1 
128 1:1 6:1 8:0.339623 9:1 11:1 13:1 15:1 17:1 19:1 21:1 24:1 26:1 30:1 31:1 33:1 35:1 37:1 
128 1:1 6:1 8:0.377358 9:1 11:1 13:1 15:1 17:1 19:1 21:1 24:1 26:1 30:1 31:1 33:1 35:1 37:1 
128 1:1 4:0.00520833 6:1 8:0.396226 9:1 11:1 13:1 15:1 17:1 19:1 21:1 24:1 26:1 30:1 31:1 33:1 35:1 37:1 
128 1:1 6:1 8:0.0754717 9:1 11:1 13:1 15:1 17:1 19:1 21:1 24:1 26:1 28:1 31:1 33:1 35:1 37:1 
128 1:1 4:0.00520833 5:0.0101266 6:1 8:0.0754717 9:1 11:1 13:1 15:1 17:1 19:1 21:1 24:1 26:1 28:1 31:1 33:1 35:1 37:1 
128 1:1 4:0.00520833 5:0.00759494 6:1 8:0.0754717 9:1 11:1 13:1 15:1 17:1 19:1 21:1 24:1 26:1 28:1 31:1 33:1 35:1 37:1 
0.3962422803902893 1:1 4:0.0729167 5:0.146835 7:1 9:1 11:1 13:1 15:1 18:1 19:1 21:1 23:1 26:1 30:1 31:1 33:1 35:1 37:1 
0.3966668477923862 1:1 4:0.03125 5:0.0708861 7:1 9:1 11:1 13:1 15:1 18:1 19:1 21:1 23:1 26:1 30:1 31:1 33:1 36:1 37:1 
128 1:1 6:1 8:0.264151 9:1 11:1 13:1 15:1 17:1 19:1 21:1 24:1 26:1 28:1 31:1 33:1 35:1 37:1 
0.3636628658257802 1:1 4:0.00520833 6:1 8:0.603774 9:1 11:1 13:1 15:1 17:1 19:1 21:1 25:1 26:1 30:1 32:1 33:1 35:1 37:1 
0.0001898167917765703 1:1 4:0.00520833 5:0.00253165 7:1 9:1 11:1 13:1 16:1 17:1 19:1 22:1 24:1 26:1 30:1 31:1 33:1 36:1 37:1 
0.01204603096573918 2:1 4:0.296875 5:0.210127 6:1 8:0.207547 9:1 11:1 13:1 15:1 17:1 19:1 21:1 25:1 26:1 30:1 31:1 33:1 35:1 37:1 
128 1:1 4:0.161458 5:0.0708861 6:1 8:0.245283 9:1 11:1 13:1 15:1 17:1 19:1 21:1 24:1 26:1 30:1 31:1 33:1 35:1 37:1 
128 1:1 6:1 8:0.396226 9:1 11:1 13:1 15:1 17:1 19:1 21:1 25:1 26:1 30:1 31:1 33:1 35:1 37:1 
128 1:1 4:0.00520833 6:1 8:0.320755 9:1 11:1 13:1 15:1 17:1 19:1 21:1 24:1 26:1 28:1 31:1 33:1 35:1 37:1 
128 1:1 4:0.00520833 5:0.00253165 6:1 8:0.150943 9:1 11:1 13:1 15:1 17:1 19:1 21:1 24:1 26:1 29:1 31:1 33:1 35:1 37:1 
128 1:1 5:0.0126582 6:1 8:0.169811 9:1 11:1 13:1 15:1 17:1 19:1 21:1 24:1 26:1 29:1 31:1 33:1 35:1 37:1 
128 1:1 4:0.00520833 5:0.00253165 6:1 8:0.113208 9:1 11:1 13:1 15:1 17:1 19:1 21:1 24:1 26:1 29:1 31:1 33:1 35:1 37:1 
0.1989103557545179 2:1 4:0.0104167 5:0.00759494 7:1 9:1 11:1 13:1 15:1 17:1 19:1 21:1 25:1 26:1 29:1 31:1 33:1 36:1 37:1 
128 1:1 4:0.0364583 5:0.0582278 6:1 8:0.0566038 9:1 11:1 13:1 15:1 17:1 19:1 21:1 24:1 26:1 29:1 31:1 33:1 36:1 37:1 
0.2590377929093948 2:1 4:0.401042 5:0.463291 6:1 8:0.0566038 9:1 11:1 13:1 15:1 17:1 19:1 21:1 24:1 26:1 30:1 31:1 33:1 35:1 37:1 
8.89224500060903 1:1 4:0.0729167 5:0.0278481 6:1 8:0.339623 9:1 11:1 13:1 15:1 17:1 19:1 21:1 24:1 26:1 30:1 31:1 33:1 36:1 37:1 
0.3965796136934153 1:1 4:0.0104167 5:0.0177215 6:1 8:0.150943 9:1 11:1 13:1 16:1 17:1 19:1 22:1 24:1 26:1 30:1 31:1 33:1 36:1 37:1 
0.1986751981516756 2:1 5:0.0101266 6:1 8:0.0943396 9:1 11:1 13:1 16:1 17:1 19:1 21:1 25:1 26:1 30:1 31:1 33:1 35:1 37:1 
0.3968377453687167 2:1 4:0.0104167 6:1 8:0.0754717 9:1 11:1 13:1 16:1 17:1 19:1 21:1 25:1 26:1 30:1 31:1 33:1 36:1 37:1 
128 1:1 6:1 8:0.320755 9:1 11:1 13:1 15:1 17:1 19:1 21:1 24:1 26:1 29:1 31:1 33:1 35:1 37:1 
127.8028733844595 1:1 6:1 8:0.0943396 10:1 11:1 13:1 15:1 17:1 19:1 21:1 24:1 26:1 30:1 31:1 33:1 35:1 37:1 
128 1:1 6:1 8:0.132075 9:1 11:1 13:1 15:1 17:1 19:1 21:1 24:1 26:1 30:1 31:1 33:1 35:1 37:1 
128 1:1 4:0.00520833 6:1 8:0.264151 9:1 11:1 13:1 15:1 17:1 19:1 21:1 24:1 26:1 30:1 31:1 33:1 35:1 37:1 
128 1:1 4:0.046875 5:0.0632911 6:1 8:0.433962 9:1 11:1 13:1 15:1 17:1 19:1 21:1 24:1 26:1 30:1 31:1 33:1 35:1 37:1 
128 1:1 4:0.0416667 6:1 8:0.132075 9:1 11:1 13:1 15:1 17:1 19:1 21:1 24:1 26:1 30:1 31:1 33:1 35:1 37:1 
0.3562130250562909 2:1 4:0.552083 5:0.306329 7:1 9:1 11:1 13:1 15:1 17:1 19:1 21:1 24:1 26:1 29:1 31:1 33:1 36:1 37:1 
0.3967763159040208 1:1 4:0.197917 5:0.111392 6:1 8:0.113208 9:1 11:1 13:1 15:1 17:1 20:1 21:1 25:1 26:1 30:1 31:1 33:1 35:1 37:1 
0.2077993728764967 2:1 4:0.0989583 5:0.043038 6:1 8:0.0188679 9:1 11:1 13:1 16:1 17:1 19:1 21:1 24:1 26:1 30:1 31:1 33:1 35:1 37:1 
0.3965394860185532 1:1 4:0.015625 5:0.00506329 7:1 9:1 11:1 13:1 16:1 17:1 20:1 21:1 24:1 26:1 30:1 31:1 33:1 36:1 37:1 
128 1:1 6:1 8:0.283019 10:1 11:1 13:1 15:1 17:1 19:1 21:1 24:1 26:1 30:1 31:1 33:1 35:1 37:1 
128 1:1 4:0.03125 5:0.0455696 6:1 8:0.207547 9:1 11:1 13:1 15:1 17:1 19:1 21:1 25:1 26:1 30:1 31:1 33:1 35:1 37:1 
128 1:1 4:0.0104167 5:0.00253165 6:1 8:0.415094 9:1 11:1 13:1 15:1 17:1 19:1 21:1 25:1 26:1 30:1 31:1 33:1 35:1 37:1 
128 1:1 4:0.0364583 5:0.0151899 6:1 8:0.415094 9:1 11:1 13:1 15:1 17:1 19:1 21:1 25:1 26:1 30:1 31:1 33:1 35:1 37:1 
128 1:1 4:0.00520833 5:0.00253165 6:1 8:0.150943 9:1 11:1 13:1 15:1 17:1 19:1 21:1 25:1 26:1 29:1 31:1 33:1 35:1 37:1 
0.2012986374946121 1:1 7:1 9:1 11:1 13:1 15:1 17:1 19:1 21:1 24:1 26:1 29:1 31:1 33:1 35:1 37:1 
122.5203453620942 1:1 4:0.00520833 5:0.00253165 6:1 8:0.0377358 9:1 11:1 13:1 15:1 17:1 19:1 21:1 24:1 26:1 29:1 31:1 33:1 35:1 37:1 
128 1:1 4:0.00520833 5:0.0151899 6:1 8:0.0377358 9:1 11:1 13:1 15:1 17:1 19:1 21:1 24:1 26:1 29:1 31:1 33:1 36:1 37:1 
128 1:1 4:0.0104167 5:0.00506329 6:1 8:0.150943 9:1 11:1 13:1 15:1 17:1 19:1 21:1 25:1 26:1 29:1 31:1 33:1 35:1 37:1 
128 1:1 4:0.0104167 5:0.00253165 6:1 8:0.150943 9:1 11:1 13:1 15:1 17:1 19:1 21:1 25:1 26:1 29:1 31:1 33:1 35:1 37:1 
128 1:1 4:0.0104167 5:0.00759494 6:1 8:0.150943 9:1 11:1 13:1 15:1 17:1 19:1 21:1 25:1 26:1 29:1 31:1 33:1 35:1 37:1 
128 1:1 6:1 8:0.150943 9:1 11:1 13:1 15:1 17:1 19:1 21:1 25:1 26:1 29:1 31:1 33:1 35:1 37:1 
128 1:1 4:0.00520833 6:1 8:0.150943 9:1 11:1 13:1 15:1 17:1 19:1 21:1 25:1 26:1 29:1 31:1 33:1 35:1 37:1 
128 1:1 6:1 8:0.188679 9:1 11:1 13:1 15:1 17:1 19:1 21:1 25:1 26:1 28:1 31:1 33:1 35:1 37:1 
128 1:1 4:0.0208333 6:1 8:0.188679 9:1 11:1 13:1 15:1 17:1 19:1 21:1 25:1 26:1 28:1 31:1 33:1 35:1 37:1 
128 1:1 6:1 8:0.150943 9:1 11:1 13:1 15:1 17:1 19:1 21:1 25:1 26:1 29:1 31:1 33:1 35:1 37:1 
128 1:1 4:0.0208333 5:0.00506329 6:1 8:0.150943 9:1 11:1 13:1 15:1 17:1 19:1 21:1 25:1 26:1 29:1 31:1 33:1 35:1 37:1 
0.3384740217100812 1:1 4:0.0104167 5:0.00506329 7:1 9:1 11:1 13:1 15:1 17:1 19:1 21:1 25:1 26:1 29:1 31:1 33:1 35:1 37:1 
0.2451366543457721 2:1 5:0.00253165 6:1 8:0.264151 9:1 11:1 13:1 15:1 17:1 19:1 21:1 23:1 26:1 30:1 31:1 33:1 35:1 37:1 
128 1:1 4:0.104167 5:0.035443 6:1 8:0.283019 9:1 11:1 13:1 15:1 17:1 19:1 21:1 25:1 26:1 30:1 31:1 33:1 35:1 37:1 
128 1:1 6:1 8:0.188679 10:1 11:1 13:1 15:1 17:1 19:1 21:1 24:1 26:1 30:1 31:1 33:1 35:1 37:1 
128 1:1 4:0.0260417 5:0.0531646 6:1 8:0.188679 9:1 11:1 13:1 15:1 17:1 19:1 21:1 24:1 26:1 30:1 31:1 33:1 35:1 37:1 
128 1:1 6:1 8:0.188679 9:1 11:1 13:1 15:1 17:1 19:1 21:1 24:1 26:1 30:1 31:1 33:1 35:1 37:1 
128 1:1 4:0.015625 5:0.0101266 6:1 8:0.188679 9:1 11:1 13:1 15:1 17:1 19:1 21:1 24:1 26:1 30:1 31:1 33:1 35:1 37:1 
128 1:1 6:1 8:0.188679 9:1 11:1 13:1 15:1 17:1 19:1 21:1 24:1 26:1 30:1 31:1 33:1 35:1 37:1 
128 1:1 4:0.00520833 6:1 8:0.188679 9:1 11:1 13:1 15:1 17:1 19:1 21:1 24:1 26:1 30:1 31:1 33:1 35:1 37:1 
128 1:1 4:0.00520833 5:0.00506329 6:1 8:0.0566038 9:1 11:1 13:1 15:1 17:1 19:1 21:1 24:1 26:1 30:1 31:1 33:1 35:1 37:1 
3.674298954554487 1:1 6:1 8:0.792453 9:1 11:1 13:1 15:1 17:1 19:1 21:1 24:1 26:1 30:1 31:1 33:1 35:1 37:1 
128 1:1 4:0.00520833 6:1 8:0.301887 9:1 11:1 13:1 15:1 17:1 19:1 21:1 24:1 26:1 30:1 31:1 33:1 35:1 37:1 
128 1:1 4:0.0104167 5:0.0126582 6:1 8:0.188679 9:1 11:1 13:1 15:1 17:1 19:1 21:1 24:1 26:1 30:1 31:1 33:1 35:1 37:1 
128 1:1 4:0.00520833 6:1 8:0.245283 9:1 11:1 13:1 15:1 17:1 19:1 21:1 24:1 26:1 30:1 31:1 33:1 35:1 37:1 
128 1:1 4:0.015625 5:0.0202532 6:1 8:0.207547 9:1 11:1 13:1 15:1 17:1 19:1 21:1 24:1 26:1 30:1 31:1 33:1 35:1 37:1 
0.03642860315695923 2:1 5:0.0151899 7:1 9:1 11:1 13:1 16:1 17:1 19:1 21:1 24:1 26:1 30:1 31:1 33:1 36:1 37:1 
128 1:1 6:1 8:0.245283 10:1 11:1 13:1 15:1 17:1 19:1 21:1 24:1 26:1 30:1 31:1 33:1 35:1 37:1 
128 1:1 4:0.0989583 5:0.106329 6:1 8:0.377358 9:1 11:1 13:1 15:1 17:1 19:1 21:1 24:1 26:1 30:1 31:1 33:1 35:1 37:1 
128 1:1 4:0.0416667 5:0.0860759 6:1 8:0.0754717 9:1 11:1 13:1 15:1 17:1 19:1 21:1 25:1 26:1 30:1 31:1 33:1 35:1 37:1 
128 1:1 4:0.0260417 5:0.043038 6:1 8:0.0754717 9:1 11:1 13:1 15:1 17:1 19:1 21:1 25:1 26:1 30:1 31:1 33:1 35:1 37:1 
0.2208041712584374 1:1 4:0.00520833 5:0.00506329 7:1 9:1 11:1 13:1 15:1 17:1 19:1 21:1 24:1 26:1 29:1 31:1 33:1 35:1 38:1 
0.1980166534823615 2:1 4:0.00520833 5:0.00759494 7:1 9:1 11:1 13:1 15:1 17:1 19:1 21:1 24:1 26:1 30:1 31:1 34:1 35:1 37:1 
128 1:1 4:0.00520833 5:0.00759494 6:1 8:0.150943 9:1 11:1 13:1 15:1 17:1 19:1 21:1 24:1 26:1 29:1 31:1 33:1 35:1 37:1 
128 1:1 4:0.015625 5:0.0227848 6:1 8:0.0754717 9:1 11:1 13:1 15:1 17:1 19:1 21:1 24:1 26:1 29:1 31:1 33:1 35:1 37:1 
0.1987170219804989 2:1 4:0.00520833 5:0.00759494 7:1 9:1 11:1 13:1 15:1 17:1 19:1 21:1 25:1 26:1 29:1 31:1 33:1 35:1 37:1 
0.02540204524360287 1:1 4:0.255208 5:0.179747 7:1 9:1 11:1 13:1 15:1 17:1 19:1 21:1 24:1 26:1 29:1 31:1 33:1 36:1 38:1 
0.1980377590336196 2:1 4:0.00520833 5:0.00506329 6:1 8:0.150943 9:1 11:1 13:1 15:1 17:1 19:1 21:1 25:1 26:1 28:1 31:1 33:1 35:1 37:1 
0.06808825313335178 2:1 4:0.00520833 5:0.00759494 6:1 8:0.113208 9:1 11:1 13:1 15:1 17:1 19:1 21:1 25:1 26:1 28:1 31:1 33:1 35:1 37:1 
128 1:1 6:1 8:0.150943 9:1 11:1 13:1 15:1 17:1 19:1 21:1 25:1 26:1 30:1 31:1 33:1 35:1 37:1 
128 1:1 4:0.0989583 5:0.0886076 6:1 8:0.150943 9:1 11:1 13:1 15:1 17:1 19:1 21:1 25:1 26:1 30:1 31:1 33:1 35:1 37:1 
0.1327196968073055 2:1 4:0.00520833 6:1 8:0.113208 9:1 11:1 13:1 15:1 17:1 19:1 21:1 25:1 26:1 28:1 31:1 33:1 35:1 37:1 
23.09950700035663 1:1 4:0.223958 5:0.139241 6:1 8:0.0754717 9:1 11:1 13:1 15:1 17:1 19:1 21:1 24:1 26:1 29:1 31:1 33:1 35:1 37:1 
0.1988440705502763 2:1 7:1 9:1 11:1 13:1 15:1 17:1 19:1 21:1 25:1 26:1 29:1 31:1 34:1 35:1 37:1 
128 1:1 4:0.00520833 5:0.00506329 6:1 8:0.207547 9:1 11:1 13:1 15:1 17:1 19:1 21:1 25:1 26:1 30:1 31:1 33:1 35:1 37:1 
0.07874476021471188 1:1 4:0.114583 5:0.0405063 7:1 9:1 11:1 13:1 15:1 17:1 19:1 21:1 25:1 26:1 30:1 31:1 33:1 35:1 37:1 
128 1:1 6:1 8:0.301887 9:1 11:1 13:1 15:1 17:1 19:1 21:1 25:1 26:1 30:1 31:1 33:1 35:1 37:1 
0.2084325898748539 2:1 4:0.00520833 6:1 8:0.358491 9:1 11:1 13:1 15:1 17:1 19:1 21:1 24:1 26:1 30:1 32:1 33:1 35:1 37:1 
128 1:1 4:0.00520833 5:0.0151899 6:1 8:0.226415 9:1 11:1 13:1 15:1 17:1 19:1 21:1 25:1 26:1 30:1 31:1 33:1 35:1 37:1 
128 1:1 4:0.0520833 5:0.00506329 6:1 8:0.150943 9:1 11:1 13:1 15:1 17:1 19:1 21:1 24:1 26:1 30:1 31:1 33:1 35:1 37:1 
128 1:1 4:0.0416667 6:1 8:0.169811 9:1 11:1 13:1 15:1 17:1 19:1 21:1 24:1 26:1 29:1 31:1 33:1 35:1 37:1 
128 1:1 4:0.0989583 5:0.106329 6:1 8:0.283019 9:1 11:1 13:1 15:1 17:1 19:1 21:1 25:1 26:1 30:1 31:1 33:1 35:1 37:1 
128 1:1 6:1 8:0.320755 9:1 11:1 13:1 15:1 17:1 19:1 21:1 24:1 26:1 28:1 31:1 33:1 35:1 37:1 
0.3964464093842136 1:1 4:0.1875 5:0.212658 7:1 9:1 11:1 13:1 15:1 17:1 20:1 21:1 24:1 26:1 29:1 31:1 33:1 36:1 37:1 
128 1:1 4:0.151042 5:0.0607595 6:1 8:0.188679 9:1 11:1 13:1 15:1 17:1 19:1 21:1 24:1 26:1 30:1 31:1 33:1 35:1 37:1 
0.2589828417447893 1:1 4:0.00520833 5:0.00253165 7:1 9:1 12:1 13:1 15:1 17:1 19:1 22:1 24:1 26:1 30:1 31:1 33:1 35:1 37:1 
128 1:1 4:0.00520833 6:1 8:0.207547 9:1 11:1 13:1 15:1 17:1 19:1 21:1 24:1 26:1 30:1 31:1 33:1 35:1 37:1 
128 1:1 4:0.0104167 5:0.00253165 6:1 8:0.226415 9:1 11:1 13:1 15:1 17:1 19:1 21:1 24:1 26:1 30:1 31:1 33:1 35:1 37:1 
0.2052107917145433 2:1 4:0.286458 5:0.503797 7:1 9:1 11:1 13:1 15:1 17:1 19:1 21:1 24:1 26:1 30:1 31:1 33:1 35:1 37:1 
0.2064469053803658 1:1 4:0.260417 5:0.468354 7:1 9:1 11:1 13:1 15:1 17:1 19:1 21:1 24:1 26:1 30:1 31:1 33:1 35:1 37:1 
0.3963107289850511 1:1 4:0.182292 5:0.0658228 6:1 8:0.0566038 9:1 11:1 13:1 15:1 17:1 19:1 22:1 24:1 26:1 29:1 31:1 33:1 36:1 37:1 
128 1:1 6:1 8:0.415094 9:1 11:1 13:1 15:1 17:1 19:1 21:1 24:1 26:1 28:1 31:1 33:1 35:1 37:1 
128 1:1 4:0.00520833 5:0.0202532 6:1 8:0.415094 9:1 11:1 13:1 15:1 17:1 19:1 21:1 24:1 26:1 28:1 31:1 33:1 35:1 37:1 
0.3966098984328327 1:1 4:0.0260417 5:0.0303797 7:1 9:1 11:1 13:1 16:1 17:1 19:1 22:1 24:1 26:1 29:1 31:1 33:1 36:1 37:1 
128 1:1 4:0.0364583 5:0.0126582 6:1 8:0.54717 9:1 11:1 13:1 15:1 17:1 19:1 21:1 24:1 26:1 30:1 31:1 33:1 35:1 37:1 
128 1:1 4:0.0104167 6:1 8:0.54717 9:1 11:1 13:1 15:1 17:1 19:1 21:1 24:1 26:1 30:1 31:1 33:1 35:1 37:1 
128 1:1 4:0.00520833 5:0.00506329 6:1 8:0.0566038 9:1 11:1 13:1 15:1 17:1 19:1 21:1 25:1 26:1 30:1 31:1 33:1 35:1 37:1 
128 1:1 4:0.0104167 5:0.0101266 6:1 8:0.0566038 9:1 11:1 13:1 15:1 17:1 19:1 21:1 25:1 26:1 30:1 31:1 33:1 35:1 37:1 
128 1:1 4:0.0833333 5:0.136709 6:1 8:0.113208 9:1 11:1 13:1 15:1 17:1 19:1 21:1 24:1 26:1 29:1 31:1 33:1 36:1 37:1 
128 1:1 4:0.0729167 5:0.118987 6:1 8:0.301887 9:1 11:1 13:1 15:1 17:1 19:1 21:1 25:1 26:1 29:1 31:1 33:1 35:1 37:1 
128 1:1 6:1 8:0.339623 9:1 11:1 13:1 15:1 17:1 19:1 21:1 24:1 26:1 28:1 31:1 33:1 35:1 37:1 
128 1:1 4:0.03125 5:0.00253165 6:1 8:0.301887 9:1 11:1 13:1 15:1 17:1 19:1 21:1 24:1 26:1 29:1 31:1 33:1 35:1 37:1 
128 1:1 4:0.0104167 5:0.0227848 6:1 8:0.301887 9:1 11:1 13:1 15:1 17:1 19:1 21:1 24:1 26:1 28:1 31:1 33:1 35:1 37:1 
128 1:1 5:0.00253165 6:1 8:0.264151 9:1 11:1 13:1 15:1 17:1 19:1 21:1 24:1 26:1 30:1 31:1 33:1 35:1 37:1 
128 1:1 6:1 8:0.283019 9:1 11:1 13:1 15:1 17:1 19:1 21:1 24:1 26:1 29:1 31:1 33:1 36:1 37:1 
128 1:1 6:1 8:0.207547 9:1 11:1 13:1 15:1 17:1 19:1 21:1 24:1 26:1 30:1 31:1 33:1 35:1 37:1 
38.00603625862134 1:1 4:0.00520833 5:0.0253165 7:1 9:1 11:1 13:1 15:1 17:1 19:1 21:1 24:1 26:1 29:1 31:1 33:1 36:1 37:1 
128 1:1 4:0.0520833 5:0.00253165 6:1 8:0.0943396 9:1 11:1 13:1 15:1 17:1 19:1 21:1 24:1 26:1 30:1 31:1 33:1 35:1 37:1 
0.2079400025794905 2:1 4:0.00520833 6:1 8:0.245283 9:1 11:1 13:1 15:1 17:1 19:1 21:1 24:1 26:1 30:1 32:1 33:1 35:1 37:1 
128 1:1 4:0.00520833 5:0.0101266 6:1 8:0.113208 9:1 11:1 13:1 15:1 17:1 19:1 21:1 24:1 26:1 29:1 31:1 33:1 35:1 37:1 
128 1:1 4:0.0104167 5:0.00253165 6:1 8:0.0566038 9:1 11:1 13:1 15:1 17:1 19:1 21:1 24:1 26:1 29:1 31:1 33:1 35:1 37:1 
0.1999959920324739 2:1 4:0.0416667 5:0.0202532 6:1 8:0.0377358 9:1 11:1 13:1 15:1 17:1 19:1 21:1 25:1 26:1 29:1 31:1 33:1 36:1 37:1 
0.278491554349671 1:1 4:0.291667 5:0.156962 6:1 8:0.0754717 9:1 11:1 13:1 15:1 17:1 19:1 21:1 24:1 26:1 29:1 31:1 33:1 36:1 38:1 
0.1041328239488048 2:1 7:1 9:1 11:1 13:1 16:1 17:1 19:1 21:1 24:1 26:1 30:1 31:1 33:1 35:1 37:1 
128 1:1 4:0.00520833 6:1 8:0.188679 9:1 11:1 13:1 15:1 17:1 19:1 21:1 24:1 26:1 29:1 31:1 33:1 35:1 37:1 
128 1:1 6:1 8:0.339623 9:1 11:1 13:1 15:1 17:1 19:1 21:1 24:1 26:1 29:1 31:1 33:1 35:1 37:1 
128 1:1 6:1 8:0.339623 9:1 11:1 13:1 15:1 17:1 19:1 21:1 24:1 26:1 29:1 31:1 33:1 35:1 37:1 
0.04342659217939077 2:1 4:0.104167 5:0.0253165 6:1 8:0.207547 9:1 12:1 13:1 15:1 17:1 19:1 21:1 24:1 26:1 29:1 31:1 33:1 35:1 37:1 
3.120418629161219 1:1 4:0.00520833 6:1 8:0.226415 9:1 12:1 13:1 15:1 17:1 19:1 21:1 24:1 26:1 29:1 31:1 33:1 35:1 37:1 
0.3390946292748226 1:1 7:1 9:1 12:1 13:1 15:1 17:1 19:1 21:1 24:1 26:1 29:1 31:1 33:1 35:1 37:1 
0.2001702316896044 2:1 4:0.447917 5:0.167089 7:1 9:1 11:1 13:1 15:1 17:1 19:1 21:1 24:1 26:1 30:1 31:1 33:1 35:1 37:1 
128 1:1 4:0.00520833 6:1 8:0.415094 9:1 11:1 13:1 15:1 17:1 19:1 21:1 24:1 26:1 30:1 31:1 33:1 35:1 37:1 
128 1:1 4:0.0260417 5:0.0151899 6:1 8:0.169811 9:1 11:1 13:1 15:1 17:1 19:1 21:1 25:1 26:1 30:1 31:1 33:1 35:1 37:1 
128 1:1 6:1 8:0.0377358 9:1 11:1 13:1 15:1 17:1 19:1 21:1 25:1 26:1 29:1 31:1 33:1 35:1 37:1 
128 1:1 4:0.0677083 5:0.0658228 6:1 8:0.433962 9:1 11:1 13:1 15:1 17:1 19:1 21:1 24:1 26:1 28:1 31:1 33:1 35:1 37:1 
0.3963124445658492 1:1 4:0.958333 5:0.741772 6:1 8:0.0377358 9:1 11:1 14:1 15:1 17:1 19:1 21:1 24:1 26:1 30:1 31:1 33:1 35:1 37:1 
0.1481462362539538 1:1 4:0.53125 5:0.455696 7:1 9:1 11:1 13:1 15:1 17:1 19:1 21:1 24:1 26:1 30:1 31:1 33:1 35:1 37:1 
128 1:1 6:1 8:0.188679 9:1 11:1 13:1 15:1 17:1 19:1 21:1 25:1 26:1 30:1 31:1 33:1 35:1 37:1 
128 1:1 6:1 8:0.188679 10:1 11:1 13:1 15:1 17:1 19:1 21:1 24:1 26:1 28:1 31:1 33:1 35:1 37:1 
128 1:1 4:0.046875 5:0.0962025 6:1 8:0.396226 9:1 11:1 13:1 15:1 17:1 19:1 21:1 25:1 26:1 30:1 31:1 33:1 35:1 37:1 
128 1:1 4:0.00520833 5:0.00253165 6:1 8:0.188679 9:1 11:1 13:1 15:1 17:1 19:1 21:1 24:1 26:1 29:1 31:1 33:1 35:1 37:1 
0.1941024261264157 2:1 6:1 8:0.0566038 9:1 11:1 13:1 15:1 17:1 19:1 21:1 25:1 26:1 30:1 31:1 33:1 36:1 37:1 
128 1:1 4:0.046875 5:0.043038 6:1 8:0.207547 9:1 11:1 13:1 15:1 17:1 19:1 21:1 24:1 26:1 29:1 31:1 33:1 35:1 37:1 
128 1:1 4:0.00520833 5:0.00253165 6:1 8:0.0754717 9:1 11:1 13:1 15:1 17:1 19:1 21:1 24:1 26:1 29:1 31:1 33:1 35:1 37:1 
128 1:1 4:0.145833 5:0.0329114 6:1 8:0.132075 9:1 11:1 13:1 15:1 17:1 19:1 21:1 24:1 26:1 29:1 31:1 33:1 35:1 37:1 
128 1:1 4:0.00520833 5:0.00253165 6:1 8:0.132075 9:1 11:1 13:1 15:1 17:1 19:1 21:1 24:1 26:1 29:1 31:1 33:1 35:1 37:1 
128 1:1 4:0.015625 5:0.0151899 6:1 8:0.132075 9:1 11:1 13:1 15:1 17:1 19:1 21:1 24:1 26:1 29:1 31:1 33:1 35:1 37:1 
0.2019352506586698 1:1 4:0.046875 5:0.043038 7:1 9:1 11:1 13:1 15:1 17:1 19:1 21:1 24:1 26:1 29:1 31:1 33:1 35:1 37:1 
128 1:1 4:0.15625 5:0.0531646 6:1 8:0.132075 9:1 11:1 13:1 15:1 17:1 19:1 21:1 24:1 26:1 30:1 31:1 33:1 35:1 37:1 
128 1:1 6:1 8:0.113208 10:1 11:1 13:1 15:1 17:1 19:1 21:1 24:1 26:1 30:1 31:1 33:1 35:1 37:1 
128 1:1 4:0.00520833 6:1 8:0.0754717 9:1 11:1 13:1 15:1 17:1 19:1 21:1 24:1 26:1 30:1 31:1 33:1 35:1 37:1 
0.16843701373595 1:1 4:0.34375 5:0.121519 7:1 9:1 12:1 13:1 15:1 17:1 19:1 21:1 24:1 26:1 30:1 31:1 33:1 35:1 37:1 
0.2753512192254977 2:1 6:1 8:0.490566 10:1 11:1 13:1 15:1 17:1 19:1 21:1 24:1 26:1 30:1 31:1 33:1 35:1 37:1 
128 1:1 4:0.0104167 6:1 8:0.415094 9:1 11:1 13:1 15:1 17:1 19:1 21:1 24:1 26:1 30:1 31:1 33:1 35:1 37:1 
128 1:1 6:1 8:0.339623 9:1 11:1 13:1 15:1 17:1 19:1 21:1 25:1 26:1 30:1 31:1 33:1 35:1 37:1 
128 1:1 4:0.0104167 5:0.00253165 6:1 8:0.226415 9:1 11:1 13:1 15:1 17:1 19:1 21:1 24:1 26:1 30:1 31:1 33:1 35:1 37:1 
128 1:1 4:0.00520833 6:1 8:0.301887 9:1 11:1 13:1 15:1 17:1 19:1 21:1 24:1 26:1 30:1 31:1 33:1 35:1 37:1 
128 1:1 4:0.00520833 6:1 8:0.283019 9:1 11:1 13:1 15:1 17:1 19:1 21:1 24:1 26:1 30:1 31:1 33:1 35:1 37:1 
128 1:1 4:0.0104167 5:0.00253165 6:1 8:0.188679 9:1 11:1 13:1 15:1 17:1 19:1 21:1 25:1 26:1 30:1 31:1 33:1 35:1 37:1 
128 1:1 4:0.00520833 5:0.00506329 6:1 8:0.169811 9:1 11:1 13:1 15:1 17:1 19:1 21:1 24:1 26:1 30:1 31:1 33:1 35:1 37:1 
128 1:1 4:0.0104167 5:0.0202532 6:1 8:0.169811 9:1 11:1 13:1 15:1 17:1 19:1 21:1 24:1 26:1 30:1 31:1 33:1 35:1 37:1 
128 1:1 4:0.00520833 5:0.00506329 6:1 8:0.169811 9:1 11:1 13:1 15:1 17:1 19:1 21:1 24:1 26:1 30:1 31:1 33:1 35:1 37:1 
11.10428197227927 1:1 4:0.0104167 7:1 9:1 11:1 13:1 15:1 17:1 19:1 21:1 24:1 26:1 29:1 31:1 33:1 36:1 37:1 
128 1:1 6:1 8:0.132075 9:1 11:1 13:1 15:1 17:1 19:1 21:1 24:1 26:1 30:1 31:1 33:1 35:1 37:1 
128 1:1 4:0.046875 5:0.0455696 6:1 8:0.490566 9:1 11:1 13:1 15:1 17:1 19:1 21:1 24:1 26:1 30:1 31:1 33:1 35:1 37:1 
128 1:1 4:0.00520833 5:0.0101266 6:1 8:0.169811 9:1 11:1 13:1 15:1 17:1 19:1 21:1 24:1 26:1 30:1 31:1 33:1 35:1 37:1 
128 1:1 4:0.00520833 5:0.00253165 6:1 8:0.169811 9:1 11:1 13:1 15:1 17:1 19:1 21:1 24:1 26:1 30:1 31:1 33:1 35:1 37:1 
0.3157983997046678 1:1 4:0.00520833 5:0.00759494 7:1 9:1 11:1 13:1 15:1 17:1 19:1 21:1 24:1 26:1 29:1 31:1 33:1 36:1 38:1 
128 1:1 5:0.00253165 6:1 8:0.358491 9:1 11:1 13:1 15:1 17:1 19:1 21:1 24:1 26:1 30:1 31:1 33:1 35:1 37:1 
128 1:1 4:0.0520833 5:0.0177215 6:1 8:0.358491 9:1 11:1 13:1 15:1 17:1 19:1 21:1 24:1 26:1 30:1 31:1 33:1 35:1 37:1 
0.1982798631310624 2:1 4:0.00520833 5:0.00253165 7:1 9:1 12:1 13:1 15:1 17:1 19:1 21:1 24:1 26:1 29:1 31:1 33:1 36:1 37:1 
0.396538803129162 1:1 6:1 8:0.188679 10:1 11:1 13:1 15:1 17:1 19:1 21:1 25:1 26:1 30:1 32:1 33:1 36:1 37:1 
128 1:1 4:0.0572917 5:0.0126582 6:1 8:0.264151 9:1 11:1 13:1 15:1 17:1 19:1 21:1 24:1 26:1 30:1 31:1 33:1 35:1 37:1 
128 1:1 4:0.0520833 5:0.0126582 6:1 8:0.471698 9:1 11:1 13:1 15:1 17:1 19:1 21:1 25:1 26:1 30:1 31:1 33:1 35:1 37:1 
128 1:1 4:0.0416667 5:0.00506329 6:1 8:0.0566038 9:1 11:1 13:1 15:1 17:1 19:1 21:1 24:1 26:1 30:1 31:1 33:1 35:1 37:1 
0.1989719440869383 2:1 4:0.0208333 5:0.0253165 7:1 9:1 12:1 13:1 15:1 17:1 19:1 21:1 24:1 26:1 29:1 31:1 33:1 35:1 37:1 
128 1:1 4:0.0104167 6:1 8:0.0943396 9:1 11:1 13:1 15:1 17:1 19:1 21:1 24:1 26:1 29:1 31:1 33:1 35:1 37:1 
0.1984593435497587 2:1 4:0.00520833 5:0.00506329 7:1 9:1 12:1 13:1 15:1 17:1 19:1 21:1 24:1 26:1 29:1 31:1 33:1 35:1 37:1 
0.1834758052371348 2:1 4:0.0260417 5:0.0227848 6:1 8:0.188679 9:1 12:1 13:1 15:1 17:1 19:1 21:1 24:1 26:1 29:1 31:1 33:1 35:1 37:1 
0.2588825827013642 2:1 4:0.015625 5:0.0126582 6:1 8:0.396226 9:1 11:1 13:1 15:1 17:1 19:1 21:1 24:1 26:1 29:1 31:1 33:1 35:1 37:1 
128 1:1 6:1 8:0.207547 9:1 11:1 13:1 15:1 17:1 19:1 21:1 24:1 26:1 30:1 31:1 33:1 35:1 37:1 
0.2070357119133848 2:1 5:0.00253165 7:1 9:1 11:1 13:1 15:1 17:1 19:1 21:1 25:1 26:1 30:1 31:1 33:1 35:1 37:1 
128 1:1 4:0.109375 5:0.0405063 6:1 8:0.226415 9:1 11:1 13:1 15:1 17:1 19:1 21:1 24:1 26:1 30:1 31:1 33:1 35:1 37:1 
0.3099017198716179 2:1 4:0.286458 5:0.288608 6:1 8:0.0377358 9:1 11:1 13:1 15:1 17:1 19:1 21:1 24:1 26:1 29:1 31:1 33:1 36:1 37:1 
0.1962592552663775 2:1 4:0.0625 5:0.0101266 7:1 9:1 11:1 13:1 16:1 17:1 19:1 21:1 24:1 26:1 30:1 31:1 33:1 35:1 37:1 
0.2092514500179717 2:1 4:0.0260417 5:0.0303797 6:1 8:0.0754717 9:1 11:1 13:1 15:1 17:1 19:1 21:1 24:1 26:1 30:1 31:1 33:1 36:1 37:1 
128 1:1 6:1 8:0.245283 9:1 11:1 13:1 15:1 17:1 19:1 21:1 24:1 26:1 30:1 31:1 33:1 35:1 37:1 
0.2587434126527286 1:1 4:0.229167 5:0.172152 7:1 9:1 12:1 13:1 15:1 17:1 19:1 22:1 24:1 26:1 30:1 31:1 33:1 35:1 37:1 
128 1:1 4:0.0104167 5:0.0151899 6:1 8:0.301887 9:1 11:1 13:1 15:1 17:1 19:1 21:1 25:1 26:1 30:1 31:1 33:1 35:1 37:1 
19.66737030467861 1:1 4:0.0416667 5:0.0303797 6:1 8:0.264151 9:1 12:1 13:1 15:1 17:1 19:1 21:1 24:1 26:1 30:1 31:1 33:1 35:1 37:1 
128 1:1 6:1 8:0.792453 9:1 11:1 13:1 15:1 17:1 19:1 21:1 24:1 26:1 30:1 31:1 33:1 35:1 37:1 
128 1:1 4:0.00520833 6:1 8:0.264151 9:1 11:1 13:1 15:1 17:1 19:1 21:1 24:1 26:1 30:1 31:1 33:1 35:1 37:1 
128 1:1 4:0.00520833 6:1 8:0.226415 9:1 11:1 13:1 15:1 17:1 19:1 21:1 24:1 26:1 30:1 31:1 33:1 35:1 37:1 
0.3288608385070103 1:1 4:0.557292 5:0.463291 7:1 9:1 11:1 13:1 15:1 17:1 19:1 22:1 24:1 26:1 29:1 31:1 33:1 36:1 37:1 
87.97746336689114 1:1 6:1 8:0.264151 10:1 11:1 13:1 15:1 17:1 19:1 21:1 24:1 26:1 29:1 31:1 33:1 35:1 37:1 
128 1:1 4:0.00520833 5:0.00506329 6:1 8:0.264151 9:1 11:1 13:1 15:1 17:1 19:1 21:1 24:1 26:1 29:1 31:1 33:1 35:1 37:1 
128 1:1 6:1 8:0.113208 9:1 11:1 13:1 15:1 17:1 19:1 21:1 24:1 26:1 29:1 31:1 33:1 36:1 37:1 
128 1:1 4:0.00520833 5:0.0253165 6:1 8:0.0377358 9:1 11:1 13:1 15:1 17:1 19:1 21:1 25:1 26:1 30:1 31:1 33:1 35:1 37:1 
128 1:1 4:0.265625 5:0.258228 6:1 8:0.320755 9:1 11:1 13:1 15:1 17:1 19:1 21:1 24:1 26:1 30:1 31:1 33:1 35:1 37:1 
0.2091467531249831 2:1 4:0.140625 5:0.0582278 6:1 8:0.0754717 9:1 11:1 13:1 15:1 17:1 19:1 21:1 24:1 26:1 30:1 31:1 33:1 36:1 37:1 
0.1692068169129481 2:1 7:1 9:1 11:1 13:1 16:1 17:1 19:1 21:1 24:1 26:1 30:1 31:1 33:1 36:1 37:1 
0.1986474908879218 1:1 4:0.0104167 5:0.00253165 7:1 9:1 11:1 13:1 16:1 17:1 19:1 22:1 24:1 26:1 30:1 31:1 33:1 36:1 37:1 
128 1:1 4:0.15625 5:0.0683544 6:1 8:0.150943 9:1 11:1 13:1 15:1 17:1 19:1 21:1 24:1 26:1 30:1 31:1 33:1 35:1 37:1 
0.3963072674276867 1:1 4:0.0104167 7:1 9:1 11:1 13:1 15:1 17:1 19:1 22:1 24:1 26:1 29:1 31:1 33:1 35:1 37:1 
0.2037086876000157 1:1 4:0.0989583 5:0.0329114 6:1 8:0.0754717 9:1 11:1 13:1 15:1 17:1 19:1 22:1 24:1 26:1 29:1 31:1 33:1 35:1 37:1 
0.3963956723562737 2:1 4:0.00520833 7:1 9:1 11:1 13:1 15:1 17:1 19:1 21:1 24:1 26:1 30:1 32:1 33:1 35:1 37:1 
0.2040657144219274 1:1 4:0.015625 5:0.0202532 6:1 8:0.0754717 9:1 11:1 13:1 15:1 17:1 19:1 22:1 24:1 26:1 29:1 31:1 33:1 35:1 37:1 
128 1:1 4:0.00520833 6:1 8:0.603774 9:1 11:1 13:1 15:1 17:1 19:1 21:1 24:1 26:1 30:1 31:1 33:1 35:1 37:1 
128 1:1 4:0.078125 5:0.108861 6:1 8:0.45283 9:1 11:1 13:1 15:1 17:1 19:1 21:1 25:1 26:1 30:1 31:1 33:1 35:1 37:1 
0.3320667619348817 1:1 6:1 8:0.0566038 10:1 11:1 13:1 15:1 17:1 19:1 21:1 25:1 26:1 30:1 32:1 33:1 35:1 37:1 
128 1:1 4:0.0104167 6:1 8:0.113208 9:1 11:1 13:1 15:1 17:1 19:1 21:1 24:1 26:1 30:1 31:1 33:1 35:1 37:1 
128 1:1 4:0.307292 5:0.367089 6:1 8:0.207547 9:1 11:1 13:1 15:1 17:1 19:1 21:1 24:1 26:1 30:1 31:1 33:1 35:1 37:1 
128 1:1 4:0.00520833 5:0.0151899 6:1 8:0.207547 9:1 11:1 13:1 15:1 17:1 19:1 21:1 24:1 26:1 30:1 31:1 33:1 35:1 37:1 
128 1:1 4:0.00520833 5:0.00253165 6:1 8:0.113208 9:1 11:1 13:1 15:1 17:1 19:1 21:1 24:1 26:1 30:1 31:1 33:1 35:1 37:1 
128 1:1 4:0.00520833 5:0.00759494 6:1 8:0.113208 9:1 11:1 13:1 15:1 17:1 19:1 21:1 24:1 26:1 30:1 31:1 33:1 35:1 37:1 
128 1:1 4:0.0104167 5:0.0101266 6:1 8:0.113208 9:1 11:1 13:1 15:1 17:1 19:1 21:1 24:1 26:1 30:1 31:1 33:1 35:1 37:1 
128 1:1 4:0.0104167 5:0.00759494 6:1 8:0.113208 9:1 11:1 13:1 15:1 17:1 19:1 21:1 24:1 26:1 30:1 31:1 33:1 35:1 37:1 
128 1:1 4:0.0208333 5:0.0151899 6:1 8:0.113208 9:1 11:1 13:1 15:1 17:1 19:1 21:1 24:1 26:1 30:1 31:1 33:1 35:1 37:1 
128 1:1 4:0.177083 5:0.0607595 6:1 8:0.0566038 9:1 11:1 13:1 15:1 17:1 19:1 21:1 24:1 26:1 30:1 31:1 33:1 35:1 37:1 
15.49885244923551 1:1 4:0.00520833 6:1 8:0.0188679 9:1 11:1 13:1 16:1 17:1 19:1 21:1 24:1 26:1 30:1 31:1 33:1 35:1 37:1 
34.37270675996498 1:1 6:1 8:0.0188679 9:1 11:1 13:1 16:1 17:1 19:1 21:1 24:1 26:1 30:1 31:1 33:1 36:1 37:1 
62.90359287190876 1:1 4:0.0104167 5:0.00253165 6:1 8:0.0188679 9:1 11:1 13:1 16:1 17:1 19:1 21:1 24:1 26:1 30:1 31:1 33:1 36:1 37:1 
128 1:1 4:0.0416667 6:1 8:0.264151 9:1 12:1 13:1 15:1 17:1 19:1 21:1 24:1 26:1 30:1 31:1 33:1 35:1 37:1 
0.3963252851461248 2:1 4:0.00520833 5:0.00253165 7:1 9:1 12:1 13:1 15:1 17:1 19:1 21:1 24:1 26:1 30:1 31:1 33:1 35:1 37:1 
128 1:1 6:1 8:0.264151 9:1 11:1 13:1 15:1 17:1 19:1 21:1 24:1 26:1 30:1 31:1 33:1 35:1 37:1 
128 1:1 4:0.0104167 5:0.0126582 6:1 8:0.264151 9:1 11:1 13:1 15:1 17:1 19:1 21:1 25:1 26:1 30:1 31:1 33:1 35:1 37:1 
128 1:1 5:0.00253165 6:1 8:0.169811 9:1 11:1 13:1 15:1 17:1 19:1 21:1 25:1 26:1 30:1 31:1 33:1 35:1 37:1 
128 1:1 4:0.0364583 5:0.0607595 6:1 8:0.396226 9:1 11:1 13:1 15:1 17:1 19:1 21:1 25:1 26:1 30:1 31:1 33:1 35:1 37:1 
119.0929309965027 1:1 6:1 8:0.471698 10:1 11:1 13:1 15:1 17:1 19:1 21:1 24:1 26:1 30:1 31:1 33:1 35:1 37:1 
14.71838308400791 1:1 6:1 8:0.301887 10:1 11:1 13:1 15:1 17:1 19:1 21:1 24:1 26:1 30:1 31:1 33:1 35:1 37:1 
128 1:1 4:0.00520833 6:1 8:0.584906 9:1 11:1 13:1 15:1 17:1 19:1 21:1 24:1 26:1 30:1 31:1 33:1 35:1 37:1 
15.38400108066258 1:1 4:0.125 5:0.0759494 6:1 8:0.226415 9:1 12:1 13:1 15:1 17:1 19:1 21:1 24:1 26:1 30:1 31:1 33:1 35:1 37:1 
128 1:1 4:0.00520833 6:1 8:0.0377358 9:1 11:1 13:1 15:1 17:1 19:1 21:1 25:1 26:1 30:1 31:1 33:1 36:1 37:1 
2.054274066029969 1:1 4:0.078125 5:0.101266 7:1 9:1 11:1 13:1 15:1 18:1 19:1 21:1 24:1 26:1 30:1 31:1 33:1 36:1 37:1 
0.01602393160680621 1:1 4:0.364583 5:0.529114 7:1 9:1 12:1 13:1 15:1 17:1 19:1 21:1 24:1 26:1 30:1 31:1 33:1 35:1 37:1 
0.1982612842042525 1:1 4:0.00520833 5:0.00506329 7:1 9:1 11:1 13:1 15:1 17:1 19:1 21:1 24:1 26:1 30:1 31:1 33:1 36:1 37:1 
0.1984496386543379 1:1 4:0.00520833 5:0.0151899 7:1 9:1 11:1 13:1 15:1 17:1 19:1 21:1 24:1 26:1 30:1 31:1 33:1 36:1 37:1 
40.2071543216593 1:1 4:0.0520833 5:0.0556962 7:1 9:1 11:1 13:1 15:1 18:1 19:1 21:1 24:1 26:1 30:1 31:1 33:1 36:1 37:1 
128 1:1 4:0.166667 5:0.255696 6:1 8:0.283019 9:1 11:1 13:1 15:1 17:1 19:1 21:1 24:1 26:1 30:1 31:1 33:1 35:1 37:1 
128 1:1 4:0.0364583 5:0.0278481 6:1 8:0.245283 9:1 11:1 13:1 15:1 17:1 19:1 21:1 25:1 26:1 30:1 31:1 33:1 35:1 37:1 
128 1:1 6:1 8:0.283019 9:1 11:1 13:1 15:1 17:1 19:1 21:1 24:1 26:1 30:1 31:1 33:1 35:1 37:1 
128 1:1 6:1 8:0.415094 9:1 11:1 13:1 15:1 17:1 19:1 21:1 25:1 26:1 30:1 31:1 33:1 35:1 37:1 
128 1:1 4:0.00520833 5:0.00253165 6:1 8:0.0566038 9:1 11:1 13:1 15:1 17:1 19:1 21:1 25:1 26:1 30:1 31:1 33:1 36:1 37:1 
128 1:1 4:0.0104167 6:1 8:0.264151 9:1 11:1 13:1 15:1 17:1 19:1 21:1 24:1 26:1 30:1 31:1 33:1 35:1 37:1 
0.1200979018711331 2:1 4:0.00520833 6:1 8:0.226415 9:1 11:1 13:1 15:1 17:1 19:1 21:1 24:1 26:1 28:1 31:1 33:1 35:1 37:1 
128 1:1 4:0.140625 5:0.106329 6:1 8:0.113208 9:1 11:1 13:1 15:1 17:1 19:1 21:1 24:1 26:1 29:1 31:1 33:1 35:1 37:1 
128 1:1 4:0.0677083 5:0.0708861 6:1 8:0.245283 9:1 11:1 13:1 15:1 17:1 19:1 21:1 25:1 26:1 30:1 31:1 33:1 35:1 37:1 
128 1:1 6:1 8:0.301887 9:1 11:1 13:1 15:1 17:1 19:1 21:1 25:1 26:1 30:1 31:1 33:1 35:1 37:1 
128 1:1 4:0.00520833 5:0.00506329 6:1 8:0.169811 9:1 11:1 13:1 15:1 17:1 19:1 21:1 24:1 26:1 30:1 31:1 33:1 35:1 37:1 
0.193906783263312 2:1 4:0.0729167 5:0.0126582 6:1 8:0.301887 9:1 12:1 13:1 15:1 17:1 19:1 21:1 24:1 26:1 29:1 31:1 33:1 35:1 37:1 
0.01496219031711827 2:1 4:0.00520833 5:0.0303797 6:1 8:0.396226 9:1 11:1 13:1 15:1 17:1 19:1 21:1 24:1 26:1 29:1 31:1 33:1 35:1 37:1 
128 1:1 4:0.21875 5:0.0481013 6:1 8:0.377358 9:1 11:1 13:1 15:1 17:1 19:1 21:1 24:1 26:1 30:1 31:1 33:1 35:1 37:1 
128 1:1 4:0.00520833 6:1 8:0.377358 9:1 11:1 13:1 15:1 17:1 19:1 21:1 24:1 26:1 30:1 31:1 33:1 35:1 37:1 
128 1:1 5:0.00253165 6:1 8:0.339623 9:1 11:1 13:1 15:1 17:1 19:1 21:1 24:1 26:1 30:1 31:1 33:1 35:1 37:1 
128 1:1 4:0.130208 5:0.0911392 6:1 8:0.396226 9:1 11:1 13:1 15:1 17:1 19:1 21:1 24:1 26:1 30:1 31:1 33:1 35:1 37:1 
0.1988407608911713 1:1 4:0.0104167 5:0.0151899 6:1 8:0.0566038 9:1 11:1 13:1 15:1 18:1 19:1 21:1 25:1 26:1 30:1 31:1 33:1 35:1 37:1 
0.1991562951345573 1:1 4:0.0208333 5:0.043038 6:1 8:0.0566038 9:1 11:1 13:1 15:1 18:1 19:1 21:1 25:1 26:1 30:1 31:1 33:1 35:1 37:1 
0.3965158486423327 1:1 4:0.0520833 5:0.0835443 6:1 8:0.0566038 9:1 11:1 13:1 15:1 18:1 19:1 21:1 25:1 26:1 30:1 31:1 33:1 36:1 37:1 
0.3967118794252981 1:1 4:0.0208333 5:0.0329114 6:1 8:0.0377358 9:1 11:1 14:1 15:1 17:1 19:1 21:1 25:1 26:1 30:1 31:1 33:1 35:1 37:1 
87.64682115083508 1:1 6:1 8:0.433962 10:1 11:1 13:1 15:1 17:1 19:1 21:1 25:1 26:1 30:1 31:1 33:1 35:1 37:1 
128 1:1 4:0.00520833 6:1 8:0.433962 9:1 11:1 13:1 15:1 17:1 19:1 21:1 24:1 26:1 30:1 31:1 33:1 35:1 37:1 
128 1:1 4:0.255208 5:0.326582 6:1 8:0.377358 9:1 11:1 13:1 15:1 17:1 19:1 21:1 24:1 26:1 30:1 31:1 33:1 35:1 37:1 
0.1631515969627859 1:1 4:0.0885417 5:0.136709 7:1 9:1 11:1 13:1 15:1 18:1 19:1 21:1 24:1 26:1 30:1 31:1 33:1 36:1 37:1 
128 1:1 4:0.00520833 6:1 8:0.301887 9:1 11:1 13:1 15:1 17:1 19:1 21:1 24:1 26:1 28:1 31:1 33:1 35:1 37:1 
128 1:1 6:1 8:0.207547 9:1 11:1 13:1 15:1 17:1 19:1 21:1 24:1 26:1 30:1 31:1 33:1 35:1 37:1 
128 1:1 6:1 8:0.188679 9:1 11:1 13:1 15:1 17:1 19:1 21:1 24:1 26:1 30:1 31:1 33:1 35:1 37:1 
128 1:1 4:0.145833 5:0.101266 6:1 8:0.188679 9:1 11:1 13:1 15:1 17:1 19:1 21:1 24:1 26:1 30:1 31:1 33:1 35:1 37:1 
128 1:1 4:0.0364583 5:0.035443 6:1 8:0.396226 9:1 11:1 13:1 15:1 17:1 19:1 21:1 24:1 26:1 29:1 31:1 33:1 35:1 37:1 
128 1:1 4:0.00520833 5:0.0177215 6:1 8:0.283019 9:1 11:1 13:1 15:1 17:1 19:1 21:1 24:1 26:1 29:1 31:1 33:1 35:1 37:1 
128 1:1 6:1 8:0.264151 10:1 11:1 13:1 15:1 17:1 19:1 21:1 24:1 26:1 30:1 31:1 33:1 35:1 37:1 
128 1:1 6:1 8:0.264151 10:1 11:1 13:1 15:1 17:1 19:1 21:1 24:1 26:1 30:1 31:1 33:1 35:1 37:1 
128 1:1 4:0.0520833 5:0.0303797 6:1 8:0.264151 9:1 11:1 13:1 15:1 17:1 19:1 21:1 24:1 26:1 30:1 31:1 33:1 35:1 37:1 
128 1:1 6:1 8:0.207547 10:1 11:1 13:1 15:1 17:1 19:1 21:1 24:1 26:1 30:1 31:1 33:1 35:1 37:1 
0.1987238481883254 2:1 6:1 8:0.188679 9:1 11:1 13:1 15:1 17:1 19:1 21:1 25:1 26:1 30:1 32:1 33:1 35:1 37:1 
128 1:1 4:0.015625 5:0.00253165 6:1 8:0.264151 9:1 11:1 13:1 15:1 17:1 19:1 21:1 25:1 26:1 30:1 31:1 33:1 35:1 37:1 
0.1987701426411611 2:1 4:0.00520833 6:1 8:0.0943396 9:1 11:1 13:1 15:1 17:1 19:1 21:1 23:1 26:1 29:1 31:1 33:1 35:1 37:1 
0.1981682856970209 2:1 6:1 8:0.0943396 9:1 11:1 13:1 15:1 17:1 19:1 21:1 23:1 26:1 29:1 31:1 33:1 35:1 37:1 
128 1:1 4:0.145833 5:0.0632911 6:1 8:0.415094 9:1 11:1 13:1 15:1 17:1 19:1 21:1 24:1 26:1 30:1 31:1 33:1 35:1 37:1 
0.1985891798805061 1:1 4:0.015625 5:0.0126582 6:1 8:0.0943396 9:1 11:1 13:1 15:1 17:1 19:1 22:1 24:1 26:1 30:1 31:1 33:1 35:1 37:1 
128 1:1 4:0.00520833 6:1 8:0.528302 9:1 11:1 13:1 15:1 17:1 19:1 21:1 24:1 26:1 30:1 31:1 33:1 35:1 37:1 
0.05890881293775922 2:1 4:0.442708 5:0.275949 6:1 8:0.188679 9:1 11:1 13:1 15:1 17:1 19:1 21:1 24:1 26:1 30:1 31:1 33:1 35:1 37:1 
0.1982072909933189 2:1 4:0.00520833 5:0.00506329 6:1 8:0.0188679 9:1 11:1 13:1 15:1 17:1 19:1 21:1 24:1 27:1 30:1 31:1 33:1 35:1 37:1 
0.1985253350241932 2:1 5:0.00759494 6:1 8:0.0188679 9:1 11:1 13:1 15:1 17:1 19:1 21:1 24:1 27:1 30:1 31:1 33:1 35:1 37:1 
0.102438122829761 2:1 5:0.0202532 7:1 9:1 11:1 13:1 16:1 17:1 19:1 21:1 24:1 26:1 30:1 31:1 33:1 35:1 37:1 
128 1:1 6:1 8:0.132075 9:1 11:1 13:1 15:1 17:1 19:1 21:1 24:1 26:1 30:1 31:1 33:1 35:1 37:1 
128 1:1 4:0.15625 5:0.121519 6:1 8:0.150943 9:1 11:1 13:1 15:1 17:1 19:1 21:1 25:1 26:1 30:1 31:1 33:1 35:1 37:1 
94.91179838415603 1:1 4:0.15625 5:0.16962 6:1 8:0.0566038 9:1 11:1 13:1 15:1 17:1 19:1 21:1 25:1 26:1 29:1 31:1 33:1 35:1 37:1 
0.2836564334919999 1:1 6:1 8:0.132075 9:1 11:1 13:1 15:1 17:1 19:1 21:1 25:1 26:1 30:1 32:1 33:1 36:1 37:1 
7.094354148149108 1:1 5:0.00253165 6:1 8:0.415094 9:1 11:1 13:1 15:1 17:1 19:1 21:1 25:1 26:1 30:1 31:1 33:1 36:1 37:1 
0.04486116083508945 1:1 4:0.0885417 5:0.0962025 7:1 9:1 11:1 13:1 15:1 17:1 19:1 21:1 25:1 26:1 29:1 31:1 33:1 35:1 37:1 
0.3738498969239219 1:1 4:0.260417 5:0.567089 7:1 9:1 11:1 13:1 15:1 17:1 19:1 21:1 25:1 26:1 29:1 31:1 33:1 35:1 37:1 
128 1:1 4:0.0104167 5:0.0177215 6:1 8:0.113208 9:1 11:1 13:1 15:1 17:1 19:1 21:1 25:1 26:1 30:1 31:1 33:1 35:1 37:1 
128 1:1 4:0.015625 5:0.0202532 6:1 8:0.245283 9:1 11:1 13:1 15:1 17:1 19:1 21:1 25:1 26:1 30:1 31:1 33:1 35:1 37:1 
128 1:1 4:0.0416667 6:1 8:0.132075 9:1 11:1 13:1 15:1 17:1 19:1 21:1 24:1 26:1 30:1 31:1 33:1 35:1 37:1 
0.1493686611150021 2:1 4:0.5 5:0.460759 7:1 9:1 11:1 13:1 15:1 17:1 19:1 21:1 24:1 26:1 30:1 31:1 33:1 35:1 37:1 
128 1:1 4:0.015625 5:0.0126582 6:1 8:0.0188679 9:1 11:1 13:1 15:1 17:1 19:1 21:1 24:1 26:1 30:1 31:1 33:1 35:1 37:1 
0.2454767930640003 2:1 4:0.0104167 5:0.0151899 6:1 8:0.0188679 9:1 11:1 13:1 15:1 17:1 19:1 21:1 23:1 26:1 30:1 31:1 33:1 35:1 37:1 
0.3454510005479368 2:1 4:0.03125 6:1 8:0.54717 9:1 11:1 13:1 15:1 17:1 19:1 21:1 24:1 26:1 30:1 31:1 33:1 35:1 37:1 
128 1:1 6:1 8:0.150943 9:1 11:1 13:1 15:1 17:1 19:1 21:1 25:1 26:1 30:1 31:1 33:1 35:1 37:1 
4.319692423583112 1:1 4:0.385417 5:0.551899 6:1 8:0.716981 9:1 11:1 13:1 15:1 17:1 19:1 21:1 24:1 26:1 30:1 31:1 33:1 35:1 37:1 
128 1:1 5:0.00759494 6:1 8:0.226415 9:1 11:1 13:1 15:1 17:1 19:1 21:1 25:1 26:1 30:1 31:1 33:1 35:1 37:1 
128 1:1 4:0.00520833 6:1 8:0.150943 9:1 11:1 13:1 15:1 17:1 19:1 21:1 25:1 26:1 30:1 31:1 33:1 35:1 37:1 
128 1:1 4:0.00520833 5:0.0151899 6:1 8:0.169811 9:1 11:1 13:1 15:1 17:1 19:1 21:1 25:1 26:1 30:1 31:1 33:1 35:1 37:1 
128 1:1 5:0.00253165 6:1 8:0.433962 9:1 11:1 13:1 15:1 17:1 19:1 21:1 24:1 26:1 30:1 31:1 33:1 35:1 37:1 
128 1:1 4:0.0104167 5:0.0253165 6:1 8:0.0754717 9:1 11:1 13:1 15:1 17:1 19:1 21:1 25:1 26:1 30:1 31:1 33:1 35:1 37:1 
128 1:1 4:0.03125 5:0.0455696 6:1 8:0.113208 9:1 11:1 13:1 15:1 17:1 19:1 21:1 25:1 26:1 30:1 31:1 33:1 35:1 37:1 
128 1:1 4:0.130208 5:0.0481013 6:1 8:0.396226 9:1 11:1 13:1 15:1 17:1 19:1 21:1 24:1 26:1 30:1 31:1 33:1 35:1 37:1 
0.1979428148503967 1:1 4:0.0104167 5:0.0101266 7:1 9:1 11:1 13:1 15:1 17:1 19:1 22:1 24:1 26:1 30:1 31:1 33:1 35:1 37:1 
128 1:1 4:0.0104167 5:0.00253165 6:1 8:0.471698 9:1 11:1 13:1 15:1 17:1 19:1 21:1 24:1 26:1 30:1 31:1 33:1 35:1 37:1 
128 1:1 4:0.0364583 5:0.00253165 6:1 8:0.264151 9:1 11:1 13:1 15:1 17:1 19:1 21:1 24:1 26:1 29:1 31:1 33:1 35:1 37:1 
128 1:1 4:0.114583 5:0.0481013 6:1 8:0.396226 9:1 11:1 13:1 15:1 17:1 19:1 21:1 24:1 26:1 30:1 31:1 33:1 35:1 37:1 
0.1983879341110586 1:1 4:0.015625 5:0.0227848 6:1 8:0.0943396 9:1 11:1 13:1 15:1 17:1 19:1 22:1 24:1 26:1 30:1 31:1 33:1 35:1 37:1 
128 1:1 4:0.00520833 6:1 8:0.226415 9:1 11:1 13:1 15:1 17:1 19:1 21:1 24:1 26:1 30:1 31:1 33:1 35:1 37:1 
128 1:1 4:0.0104167 5:0.00253165 6:1 8:0.45283 9:1 11:1 13:1 15:1 17:1 19:1 21:1 24:1 26:1 30:1 31:1 33:1 35:1 37:1 
128 1:1 4:0.0416667 5:0.0227848 6:1 8:0.132075 9:1 11:1 13:1 15:1 17:1 19:1 21:1 25:1 26:1 30:1 31:1 33:1 35:1 37:1 
128 1:1 5:0.00253165 6:1 8:0.0566038 9:1 11:1 13:1 15:1 17:1 19:1 21:1 25:1 26:1 30:1 31:1 33:1 35:1 37:1 
128 1:1 4:0.00520833 6:1 8:0.0943396 9:1 11:1 13:1 15:1 17:1 19:1 21:1 25:1 26:1 28:1 31:1 33:1 35:1 37:1 
128 1:1 5:0.00253165 6:1 8:0.0943396 9:1 11:1 13:1 15:1 17:1 19:1 21:1 25:1 26:1 29:1 31:1 33:1 35:1 37:1 
0.3964622179042434 2:1 4:0.00520833 5:0.0151899 6:1 8:0.113208 9:1 11:1 13:1 15:1 17:1 19:1 21:1 24:1 26:1 29:1 31:1 33:1 35:1 38:1 
128 1:1 5:0.00506329 6:1 8:0.169811 9:1 11:1 13:1 15:1 17:1 19:1 21:1 24:1 26:1 28:1 31:1 33:1 35:1 37:1 
128 1:1 4:0.00520833 5:0.0126582 6:1 8:0.169811 9:1 11:1 13:1 15:1 17:1 19:1 21:1 24:1 26:1 28:1 31:1 33:1 35:1 37:1 
128 1:1 6:1 8:0.169811 9:1 11:1 13:1 15:1 17:1 19:1 21:1 24:1 26:1 28:1 31:1 33:1 35:1 37:1 
128 1:1 4:0.00520833 5:0.00506329 6:1 8:0.0754717 9:1 11:1 13:1 15:1 17:1 19:1 21:1 25:1 26:1 28:1 31:1 33:1 35:1 37:1 
128 1:1 5:0.00506329 6:1 8:0.132075 9:1 11:1 13:1 15:1 17:1 19:1 21:1 25:1 26:1 28:1 31:1 33:1 35:1 37:1 
128 1:1 4:0.00520833 6:1 8:0.113208 9:1 11:1 13:1 15:1 17:1 19:1 21:1 24:1 26:1 28:1 31:1 33:1 35:1 37:1 
128 1:1 5:0.00506329 6:1 8:0.169811 9:1 11:1 13:1 15:1 17:1 19:1 21:1 24:1 26:1 28:1 31:1 33:1 35:1 37:1 
0.2797843289385149 2:1 4:0.00520833 5:0.0151899 6:1 8:0.377358 9:1 11:1 13:1 15:1 17:1 19:1 21:1 24:1 26:1 29:1 31:1 33:1 36:1 37:1 
3.87937080147844 1:1 5:0.00759494 6:1 8:0.0188679 9:1 11:1 13:1 15:1 17:1 19:1 21:1 25:1 26:1 29:1 31:1 33:1 35:1 37:1 
128 1:1 4:0.00520833 5:0.00253165 6:1 8:0.0377358 9:1 11:1 13:1 15:1 17:1 19:1 21:1 25:1 26:1 29:1 31:1 33:1 35:1 37:1 
128 1:1 5:0.00759494 6:1 8:0.0377358 9:1 11:1 13:1 15:1 17:1 19:1 21:1 24:1 26:1 29:1 31:1 33:1 36:1 37:1 
128 1:1 6:1 8:0.0943396 9:1 11:1 13:1 15:1 17:1 19:1 21:1 25:1 26:1 28:1 31:1 33:1 35:1 37:1 
128 1:1 5:0.00506329 6:1 8:0.0754717 9:1 11:1 13:1 15:1 17:1 19:1 21:1 25:1 26:1 28:1 31:1 33:1 35:1 37:1 
128 1:1 4:0.00520833 5:0.00506329 6:1 8:0.0754717 9:1 11:1 13:1 15:1 17:1 19:1 21:1 25:1 26:1 28:1 31:1 33:1 35:1 37:1 
128 1:1 5:0.00506329 6:1 8:0.0943396 9:1 11:1 13:1 15:1 17:1 19:1 21:1 25:1 26:1 28:1 31:1 33:1 35:1 37:1 
128 1:1 4:0.00520833 6:1 8:0.113208 9:1 11:1 13:1 15:1 17:1 19:1 21:1 24:1 26:1 28:1 31:1 33:1 35:1 37:1 
128 1:1 4:0.0885417 5:0.0481013 6:1 8:0.113208 9:1 11:1 13:1 15:1 17:1 19:1 21:1 24:1 26:1 28:1 31:1 33:1 35:1 37:1 
128 1:1 4:0.255208 5:0.286076 6:1 8:0.207547 9:1 11:1 13:1 15:1 17:1 19:1 21:1 25:1 26:1 30:1 31:1 33:1 35:1 37:1 
0.1984525631221453 2:1 6:1 8:0.169811 9:1 11:1 13:1 15:1 17:1 19:1 21:1 25:1 26:1 30:1 32:1 33:1 35:1 37:1 
88.07632026278154 1:1 4:0.286458 5:0.36962 6:1 8:0.0754717 9:1 11:1 13:1 15:1 17:1 19:1 21:1 24:1 26:1 29:1 31:1 33:1 35:1 37:1 
128 1:1 5:0.0101266 6:1 8:0.207547 9:1 11:1 13:1 15:1 17:1 19:1 21:1 25:1 26:1 30:1 31:1 33:1 35:1 37:1 
128 1:1 4:0.00520833 5:0.00506329 6:1 8:0.0566038 9:1 11:1 13:1 15:1 17:1 19:1 21:1 24:1 26:1 28:1 31:1 33:1 35:1 37:1 
128 1:1 4:0.0104167 5:0.00506329 6:1 8:0.0377358 9:1 11:1 13:1 15:1 17:1 19:1 21:1 24:1 26:1 28:1 31:1 33:1 35:1 37:1 
38.90065597666421 1:1 6:1 8:0.0377358 9:1 11:1 13:1 15:1 17:1 19:1 21:1 25:1 26:1 29:1 31:1 33:1 36:1 37:1 
22.21502121936215 1:1 4:0.0208333 5:0.0126582 6:1 8:0.0377358 9:1 11:1 13:1 15:1 17:1 19:1 21:1 24:1 26:1 29:1 31:1 33:1 36:1 37:1 
104.4384939569661 1:1 5:0.00506329 6:1 8:0.0377358 9:1 11:1 13:1 15:1 17:1 19:1 21:1 24:1 26:1 29:1 31:1 33:1 36:1 37:1 
128 1:1 4:0.00520833 5:0.0253165 6:1 8:0.169811 9:1 11:1 13:1 15:1 17:1 19:1 21:1 24:1 26:1 28:1 31:1 33:1 35:1 37:1 
0.1164993722087854 2:1 5:0.00759494 6:1 8:0.0188679 9:1 11:1 13:1 15:1 17:1 19:1 21:1 25:1 26:1 29:1 31:1 33:1 35:1 37:1 
0.2839569899547233 1:1 6:1 8:0.471698 9:1 11:1 13:1 15:1 17:1 19:1 21:1 25:1 26:1 30:1 32:1 33:1 36:1 37:1 
128 1:1 4:0.333333 5:0.253165 6:1 8:0.0377358 9:1 11:1 13:1 15:1 17:1 19:1 21:1 25:1 26:1 30:1 31:1 33:1 35:1 37:1 
128 1:1 6:1 8:0.415094 9:1 11:1 13:1 15:1 17:1 19:1 21:1 24:1 26:1 30:1 31:1 33:1 35:1 37:1 
128 1:1 6:1 8:0.188679 9:1 11:1 13:1 15:1 17:1 19:1 21:1 24:1 26:1 30:1 31:1 33:1 35:1 37:1 
0.08884682895718726 2:1 4:0.291667 5:0.0455696 6:1 8:0.132075 9:1 11:1 13:1 15:1 17:1 19:1 21:1 24:1 26:1 30:1 31:1 33:1 35:1 37:1 
128 1:1 4:0.00520833 5:0.0126582 6:1 8:0.283019 9:1 11:1 13:1 15:1 17:1 19:1 21:1 24:1 26:1 29:1 31:1 33:1 35:1 37:1 
128 1:1 4:0.21875 5:0.146835 6:1 8:0.0754717 9:1 11:1 13:1 15:1 17:1 19:1 21:1 24:1 26:1 29:1 31:1 33:1 35:1 37:1 
128 1:1 6:1 8:0.188679 9:1 11:1 13:1 15:1 17:1 19:1 21:1 25:1 26:1 29:1 31:1 33:1 35:1 37:1 
0.03039822768540967 2:1 6:1 8:0.0377358 9:1 11:1 13:1 15:1 17:1 19:1 21:1 25:1 26:1 30:1 31:1 33:1 36:1 37:1 
128 1:1 4:0.015625 5:0.0151899 6:1 8:0.0377358 9:1 11:1 13:1 15:1 17:1 19:1 21:1 25:1 26:1 29:1 31:1 33:1 35:1 37:1 
0.1949379353492482 2:1 6:1 8:0.0188679 9:1 11:1 13:1 15:1 17:1 19:1 21:1 24:1 26:1 28:1 31:1 33:1 35:1 37:1 
0.09237863956044406 2:1 4:0.1875 5:0.156962 7:1 9:1 11:1 13:1 15:1 17:1 19:1 21:1 24:1 26:1 29:1 31:1 33:1 36:1 37:1 
128 1:1 4:0.00520833 5:0.00506329 6:1 8:0.207547 9:1 11:1 13:1 15:1 17:1 19:1 21:1 24:1 26:1 30:1 31:1 33:1 35:1 37:1 
128 1:1 4:0.046875 5:0.0632911 6:1 8:0.264151 9:1 11:1 13:1 15:1 17:1 19:1 21:1 24:1 26:1 30:1 31:1 33:1 35:1 37:1 
128 1:1 4:0.015625 5:0.0227848 6:1 8:0.150943 9:1 11:1 13:1 15:1 17:1 19:1 21:1 24:1 26:1 30:1 31:1 33:1 35:1 37:1 
128 1:1 4:0.0677083 5:0.0253165 6:1 8:0.150943 9:1 11:1 13:1 15:1 17:1 19:1 21:1 24:1 26:1 30:1 31:1 33:1 35:1 37:1 
128 1:1 6:1 8:0.150943 10:1 11:1 13:1 15:1 17:1 19:1 21:1 24:1 26:1 30:1 31:1 33:1 35:1 37:1 
128 1:1 4:0.0416667 5:0.00253165 6:1 8:0.301887 9:1 11:1 13:1 15:1 17:1 19:1 21:1 24:1 26:1 30:1 31:1 33:1 35:1 37:1 
86.83832479798723 1:1 6:1 8:0.301887 10:1 11:1 13:1 15:1 17:1 19:1 21:1 24:1 26:1 28:1 31:1 33:1 35:1 37:1 
128 1:1 4:0.25 5:0.18481 6:1 8:0.396226 9:1 11:1 13:1 15:1 17:1 19:1 21:1 24:1 26:1 30:1 31:1 33:1 35:1 37:1 
0.2241259402496886 2:1 4:0.15625 5:0.0911392 6:1 8:0.0377358 9:1 11:1 13:1 15:1 17:1 19:1 21:1 25:1 26:1 30:1 31:1 33:1 36:1 37:1 
128 1:1 6:1 8:0.245283 9:1 11:1 13:1 15:1 17:1 19:1 21:1 24:1 26:1 30:1 31:1 33:1 35:1 37:1 
0.1980316649530577 1:1 4:0.015625 5:0.0177215 7:1 9:1 11:1 13:1 16:1 17:1 19:1 21:1 24:1 26:1 30:1 31:1 33:1 35:1 37:1 
35.34137472631097 1:1 4:0.00520833 5:0.00759494 6:1 8:0.0188679 9:1 11:1 13:1 16:1 17:1 19:1 21:1 24:1 26:1 30:1 31:1 33:1 36:1 37:1 
0.3710368556502517 1:1 4:0.515625 5:0.802532 7:1 9:1 11:1 13:1 15:1 17:1 19:1 21:1 24:1 26:1 29:1 31:1 33:1 36:1 38:1 
0.3319160041973382 1:1 6:1 8:0.509434 10:1 11:1 13:1 15:1 17:1 19:1 21:1 25:1 26:1 30:1 32:1 33:1 35:1 37:1 
0.2838544974831095 1:1 4:0.00520833 6:1 8:0.132075 9:1 11:1 13:1 15:1 17:1 19:1 21:1 24:1 26:1 30:1 32:1 33:1 35:1 37:1 
128 1:1 4:0.151042 5:0.0632911 6:1 8:0.132075 9:1 11:1 13:1 15:1 17:1 19:1 21:1 24:1 26:1 30:1 31:1 33:1 35:1 37:1 
128 1:1 4:0.104167 5:0.0253165 6:1 8:0.45283 9:1 11:1 13:1 15:1 17:1 19:1 21:1 24:1 26:1 30:1 31:1 33:1 35:1 37:1 
128 1:1 4:0.0208333 5:0.0227848 6:1 8:0.45283 9:1 11:1 13:1 15:1 17:1 19:1 21:1 24:1 26:1 30:1 31:1 33:1 35:1 37:1 
128 1:1 4:0.00520833 6:1 8:0.415094 9:1 11:1 13:1 15:1 17:1 19:1 21:1 24:1 26:1 30:1 31:1 33:1 35:1 37:1 
128 1:1 4:0.0104167 5:0.0227848 6:1 8:0.150943 9:1 11:1 13:1 15:1 17:1 19:1 21:1 24:1 26:1 29:1 31:1 33:1 35:1 37:1 
128 1:1 6:1 8:0.150943 9:1 11:1 13:1 15:1 17:1 19:1 21:1 24:1 26:1 29:1 31:1 33:1 36:1 37:1 
128 1:1 4:0.0104167 5:0.0177215 6:1 8:0.150943 9:1 11:1 13:1 15:1 17:1 19:1 21:1 24:1 26:1 29:1 31:1 33:1 36:1 37:1 
128 1:1 4:0.00520833 5:0.00759494 6:1 8:0.132075 9:1 11:1 13:1 15:1 17:1 19:1 21:1 24:1 26:1 29:1 31:1 33:1 36:1 37:1 
1.142055047715274 1:1 6:1 8:0.0377358 9:1 11:1 13:1 15:1 17:1 19:1 21:1 24:1 26:1 29:1 31:1 33:1 36:1 37:1 
128 1:1 4:0.00520833 5:0.00759494 6:1 8:0.132075 9:1 11:1 13:1 15:1 17:1 19:1 21:1 24:1 26:1 29:1 31:1 33:1 36:1 37:1 
0.2599998759042801 2:1 4:0.614583 5:0.612658 6:1 8:0.207547 9:1 11:1 13:1 15:1 17:1 19:1 21:1 25:1 26:1 30:1 31:1 33:1 35:1 37:1 
0.3966894286834379 1:1 4:0.776042 5:0.941772 7:1 9:1 12:1 13:1 15:1 17:1 19:1 21:1 24:1 26:1 29:1 31:1 33:1 35:1 38:1 
128 1:1 5:0.00506329 6:1 8:0.207547 9:1 11:1 13:1 15:1 17:1 19:1 21:1 24:1 26:1 29:1 31:1 33:1 35:1 37:1 
128 1:1 6:1 8:0.339623 9:1 11:1 13:1 15:1 17:1 19:1 21:1 24:1 26:1 30:1 31:1 33:1 35:1 37:1 
128 1:1 6:1 8:0.471698 9:1 11:1 13:1 15:1 17:1 19:1 21:1 25:1 26:1 30:1 31:1 33:1 35:1 37:1 
128 1:1 4:0.00520833 6:1 8:0.0566038 9:1 11:1 13:1 15:1 17:1 19:1 21:1 24:1 26:1 30:1 31:1 33:1 35:1 37:1 
128 1:1 4:0.00520833 6:1 8:0.339623 9:1 11:1 13:1 15:1 17:1 19:1 21:1 24:1 26:1 30:1 31:1 33:1 35:1 37:1 
128 1:1 5:0.00253165 6:1 8:0.0566038 9:1 11:1 13:1 15:1 17:1 19:1 21:1 24:1 26:1 29:1 31:1 33:1 35:1 37:1 
128 1:1 4:0.00520833 5:0.00253165 6:1 8:0.150943 9:1 11:1 13:1 15:1 17:1 19:1 21:1 24:1 26:1 30:1 31:1 33:1 35:1 37:1 
128 1:1 4:0.00520833 5:0.0151899 6:1 8:0.0377358 9:1 11:1 13:1 15:1 17:1 19:1 21:1 24:1 26:1 29:1 31:1 33:1 35:1 37:1 
128 1:1 4:0.140625 5:0.0658228 6:1 8:0.245283 9:1 11:1 13:1 15:1 17:1 19:1 21:1 24:1 26:1 30:1 31:1 33:1 35:1 37:1 
128 1:1 4:0.00520833 6:1 8:0.264151 9:1 11:1 13:1 15:1 17:1 19:1 21:1 24:1 26:1 30:1 31:1 33:1 35:1 37:1 
128 1:1 6:1 8:0.113208 9:1 11:1 13:1 15:1 17:1 19:1 21:1 25:1 26:1 30:1 31:1 33:1 35:1 37:1 
128 1:1 4:0.00520833 5:0.00506329 6:1 8:0.169811 9:1 11:1 13:1 15:1 17:1 19:1 21:1 25:1 26:1 30:1 31:1 33:1 35:1 37:1 
128 1:1 4:0.03125 5:0.035443 6:1 8:0.113208 9:1 11:1 13:1 15:1 17:1 19:1 21:1 25:1 26:1 30:1 31:1 33:1 35:1 37:1 
128 1:1 6:1 8:0.113208 9:1 11:1 13:1 15:1 17:1 19:1 21:1 24:1 26:1 29:1 31:1 33:1 35:1 37:1 
128 1:1 4:0.0260417 5:0.0253165 6:1 8:0.113208 9:1 11:1 13:1 15:1 17:1 19:1 21:1 24:1 26:1 29:1 31:1 33:1 35:1 37:1 
128 1:1 4:0.0260417 5:0.0253165 6:1 8:0.188679 9:1 11:1 13:1 15:1 17:1 19:1 21:1 24:1 26:1 30:1 31:1 33:1 35:1 37:1 
128 1:1 4:0.213542 5:0.210127 6:1 8:0.132075 9:1 11:1 13:1 15:1 17:1 19:1 21:1 25:1 26:1 30:1 31:1 33:1 35:1 37:1 
128 1:1 4:0.0625 5:0.035443 6:1 8:0.113208 9:1 11:1 13:1 15:1 17:1 19:1 21:1 25:1 26:1 30:1 31:1 33:1 35:1 37:1 
128 1:1 4:0.1875 5:0.187342 6:1 8:0.226415 9:1 11:1 13:1 15:1 17:1 19:1 21:1 25:1 26:1 30:1 31:1 33:1 35:1 37:1 
0.3022068425911162 1:1 4:0.00520833 7:1 9:1 11:1 13:1 15:1 17:1 19:1 21:1 25:1 26:1 30:1 31:1 33:1 35:1 37:1 
128 1:1 6:1 8:0.301887 9:1 11:1 13:1 15:1 17:1 19:1 21:1 25:1 26:1 30:1 31:1 33:1 35:1 37:1 
128 1:1 6:1 8:0.150943 9:1 11:1 13:1 15:1 17:1 19:1 21:1 23:1 26:1 30:1 31:1 33:1 35:1 37:1 
128 1:1 4:0.0625 5:0.0202532 6:1 8:0.132075 9:1 11:1 13:1 15:1 17:1 19:1 21:1 25:1 26:1 30:1 31:1 33:1 35:1 37:1 
128 1:1 4:0.0520833 5:0.0253165 6:1 8:0.358491 9:1 11:1 13:1 15:1 17:1 19:1 21:1 24:1 26:1 30:1 31:1 33:1 35:1 37:1 
128 1:1 4:0.182292 5:0.0253165 6:1 8:0.226415 9:1 11:1 13:1 15:1 17:1 19:1 21:1 24:1 26:1 30:1 31:1 33:1 35:1 37:1 
128 1:1 5:0.00253165 6:1 8:0.0943396 9:1 11:1 13:1 15:1 17:1 19:1 21:1 24:1 26:1 29:1 31:1 33:1 35:1 37:1 
128 1:1 5:0.00253165 6:1 8:0.377358 9:1 11:1 13:1 15:1 17:1 19:1 21:1 24:1 26:1 30:1 31:1 33:1 35:1 37:1 
0.1730688201288683 1:1 4:0.229167 5:0.318987 7:1 9:1 11:1 13:1 15:1 17:1 19:1 22:1 24:1 26:1 29:1 31:1 33:1 36:1 37:1 
128 1:1 4:0.0625 5:0.00253165 6:1 8:0.150943 9:1 11:1 13:1 15:1 17:1 19:1 21:1 24:1 26:1 30:1 31:1 33:1 35:1 37:1 
128 1:1 4:0.0520833 5:0.00759494 6:1 8:0.245283 9:1 11:1 13:1 15:1 17:1 19:1 21:1 23:1 26:1 30:1 31:1 33:1 35:1 37:1 
76.79376871161067 1:1 4:0.15625 5:0.0151899 6:1 8:0.245283 9:1 11:1 13:1 15:1 17:1 19:1 21:1 23:1 26:1 30:1 31:1 33:1 35:1 37:1 
128 1:1 4:0.109375 5:0.0101266 6:1 8:0.566038 9:1 11:1 13:1 15:1 17:1 19:1 21:1 24:1 26:1 30:1 31:1 33:1 35:1 37:1 
128 1:1 4:0.0833333 5:0.00506329 6:1 8:0.566038 9:1 11:1 13:1 15:1 17:1 19:1 21:1 24:1 26:1 30:1 31:1 33:1 35:1 37:1 
128 1:1 4:0.00520833 6:1 8:0.490566 9:1 11:1 13:1 15:1 17:1 19:1 21:1 24:1 26:1 30:1 31:1 33:1 35:1 37:1 
128 1:1 4:0.00520833 5:0.00506329 6:1 8:0.169811 9:1 11:1 13:1 15:1 17:1 19:1 21:1 24:1 26:1 30:1 31:1 33:1 35:1 37:1 
128 1:1 4:0.0104167 5:0.00506329 6:1 8:0.169811 9:1 11:1 13:1 15:1 17:1 19:1 21:1 24:1 26:1 30:1 31:1 33:1 35:1 37:1 
107.6534087386345 1:1 6:1 8:0.0377358 9:1 11:1 13:1 15:1 17:1 19:1 21:1 24:1 26:1 29:1 31:1 33:1 36:1 37:1 
128 1:1 4:0.00520833 6:1 8:0.169811 9:1 11:1 13:1 15:1 17:1 19:1 21:1 24:1 26:1 30:1 31:1 33:1 35:1 37:1 
128 1:1 4:0.00520833 5:0.00253165 6:1 8:0.169811 9:1 11:1 13:1 15:1 17:1 19:1 21:1 24:1 26:1 30:1 31:1 33:1 35:1 37:1 
128 1:1 6:1 8:0.169811 9:1 11:1 13:1 15:1 17:1 19:1 21:1 24:1 26:1 30:1 31:1 33:1 35:1 37:1 
128 1:1 4:0.00520833 5:0.00253165 6:1 8:0.169811 9:1 11:1 13:1 15:1 17:1 19:1 21:1 24:1 26:1 30:1 31:1 33:1 35:1 37:1 
128 1:1 4:0.00520833 6:1 8:0.169811 9:1 11:1 13:1 15:1 17:1 19:1 21:1 24:1 26:1 30:1 31:1 33:1 35:1 37:1 
128 1:1 4:0.00520833 6:1 8:0.169811 9:1 11:1 13:1 15:1 17:1 19:1 21:1 24:1 26:1 30:1 31:1 33:1 35:1 37:1 
128 1:1 4:0.0104167 5:0.00506329 6:1 8:0.169811 9:1 11:1 13:1 15:1 17:1 19:1 21:1 24:1 26:1 30:1 31:1 33:1 35:1 37:1 
128 1:1 4:0.00520833 5:0.00759494 6:1 8:0.169811 9:1 11:1 13:1 15:1 17:1 19:1 21:1 24:1 26:1 30:1 31:1 33:1 35:1 37:1 
128 1:1 4:0.00520833 5:0.0101266 6:1 8:0.169811 9:1 11:1 13:1 15:1 17:1 19:1 21:1 24:1 26:1 30:1 31:1 33:1 35:1 37:1 
128 1:1 5:0.00253165 6:1 8:0.169811 9:1 11:1 13:1 15:1 17:1 19:1 21:1 24:1 26:1 30:1 31:1 33:1 35:1 37:1 
128 1:1 5:0.00253165 6:1 8:0.169811 9:1 11:1 13:1 15:1 17:1 19:1 21:1 24:1 26:1 30:1 31:1 33:1 35:1 37:1 
128 1:1 5:0.00253165 6:1 8:0.169811 9:1 11:1 13:1 15:1 17:1 19:1 21:1 24:1 26:1 30:1 31:1 33:1 35:1 37:1 
128 1:1 4:0.0104167 5:0.00253165 6:1 8:0.113208 9:1 11:1 13:1 15:1 17:1 19:1 21:1 24:1 26:1 30:1 31:1 33:1 35:1 37:1 
0.2211474686516197 1:1 4:0.09375 5:0.149367 7:1 9:1 11:1 13:1 15:1 17:1 19:1 21:1 24:1 26:1 29:1 31:1 33:1 35:1 38:1 
128 1:1 4:0.00520833 5:0.00506329 6:1 8:0.113208 9:1 11:1 13:1 15:1 17:1 19:1 21:1 24:1 26:1 30:1 31:1 33:1 35:1 37:1 
128 1:1 5:0.00253165 6:1 8:0.169811 9:1 11:1 13:1 15:1 17:1 19:1 21:1 24:1 26:1 30:1 31:1 33:1 35:1 37:1 
128 1:1 4:0.00520833 5:0.0151899 6:1 8:0.169811 9:1 11:1 13:1 15:1 17:1 19:1 21:1 24:1 26:1 30:1 31:1 33:1 35:1 37:1 
128 1:1 4:0.0104167 5:0.00506329 6:1 8:0.113208 9:1 11:1 13:1 15:1 17:1 19:1 21:1 24:1 26:1 30:1 31:1 33:1 35:1 37:1 
128 1:1 4:0.00520833 5:0.0101266 6:1 8:0.0754717 9:1 11:1 13:1 15:1 17:1 19:1 21:1 24:1 26:1 30:1 31:1 33:1 35:1 37:1 
128 1:1 4:0.00520833 5:0.0126582 6:1 8:0.169811 9:1 11:1 13:1 15:1 17:1 19:1 21:1 24:1 26:1 30:1 31:1 33:1 35:1 37:1 
128 1:1 4:0.00520833 5:0.00506329 6:1 8:0.169811 9:1 11:1 13:1 15:1 17:1 19:1 21:1 24:1 26:1 30:1 31:1 33:1 35:1 37:1 
128 1:1 5:0.00253165 6:1 8:0.169811 9:1 11:1 13:1 15:1 17:1 19:1 21:1 24:1 26:1 30:1 31:1 33:1 35:1 37:1 
128 1:1 4:0.00520833 6:1 8:0.169811 9:1 11:1 13:1 15:1 17:1 19:1 21:1 24:1 26:1 30:1 31:1 33:1 35:1 37:1 
128 1:1 5:0.00253165 6:1 8:0.169811 9:1 11:1 13:1 15:1 17:1 19:1 21:1 24:1 26:1 30:1 31:1 33:1 35:1 37:1 
128 1:1 5:0.00253165 6:1 8:0.169811 9:1 11:1 13:1 15:1 17:1 19:1 21:1 24:1 26:1 30:1 31:1 33:1 35:1 37:1 
0.3570813737053442 1:1 7:1 9:1 11:1 13:1 15:1 17:1 19:1 21:1 24:1 26:1 30:1 31:1 33:1 35:1 37:1 
128 1:1 6:1 8:0.169811 9:1 11:1 13:1 15:1 17:1 19:1 21:1 24:1 26:1 30:1 31:1 33:1 35:1 37:1 
128 1:1 6:1 8:0.169811 9:1 11:1 13:1 15:1 17:1 19:1 21:1 24:1 26:1 30:1 31:1 33:1 35:1 37:1 
128 1:1 4:0.0104167 5:0.0101266 6:1 8:0.169811 9:1 11:1 13:1 15:1 17:1 19:1 21:1 24:1 26:1 30:1 31:1 33:1 35:1 37:1 
128 1:1 4:0.00520833 5:0.00506329 6:1 8:0.169811 9:1 11:1 13:1 15:1 17:1 19:1 21:1 24:1 26:1 30:1 31:1 33:1 35:1 37:1 
128 1:1 4:0.00520833 6:1 8:0.226415 9:1 11:1 13:1 15:1 17:1 19:1 21:1 24:1 26:1 30:1 31:1 33:1 35:1 37:1 
128 1:1 6:1 8:0.0943396 9:1 11:1 13:1 15:1 17:1 19:1 21:1 24:1 26:1 29:1 31:1 33:1 35:1 37:1 
128 1:1 4:0.171875 5:0.278481 6:1 8:0.169811 9:1 11:1 13:1 15:1 17:1 19:1 21:1 25:1 26:1 30:1 31:1 33:1 35:1 37:1 
128 1:1 4:0.0104167 5:0.0202532 6:1 8:0.150943 9:1 11:1 13:1 15:1 17:1 19:1 21:1 25:1 26:1 30:1 31:1 33:1 35:1 37:1 
128 1:1 6:1 8:0.150943 9:1 11:1 13:1 15:1 17:1 19:1 21:1 25:1 26:1 30:1 31:1 33:1 35:1 37:1 
0.3966574857385394 1:1 4:0.244792 5:0.15443 6:1 8:0.169811 9:1 12:1 13:1 15:1 17:1 19:1 21:1 24:1 26:1 28:1 31:1 33:1 35:1 37:1 
128 1:1 5:0.00253165 6:1 8:0.226415 9:1 11:1 13:1 15:1 17:1 19:1 21:1 24:1 26:1 29:1 31:1 33:1 35:1 37:1 
128 1:1 4:0.307292 5:0.316456 6:1 8:0.264151 9:1 11:1 13:1 15:1 17:1 19:1 21:1 24:1 26:1 30:1 31:1 33:1 35:1 37:1 
128 1:1 6:1 8:0.264151 10:1 11:1 13:1 15:1 17:1 19:1 21:1 24:1 26:1 30:1 31:1 33:1 35:1 37:1 
96.4586995834909 1:1 4:0.0625 5:0.0202532 6:1 8:0.320755 9:1 12:1 13:1 15:1 17:1 19:1 21:1 24:1 26:1 30:1 31:1 33:1 35:1 37:1 
128 1:1 4:0.0416667 6:1 8:0.0754717 9:1 11:1 13:1 15:1 17:1 19:1 21:1 24:1 26:1 30:1 31:1 33:1 35:1 37:1 
128 1:1 6:1 8:0.188679 9:1 11:1 13:1 15:1 17:1 19:1 21:1 25:1 26:1 30:1 31:1 33:1 35:1 37:1 
128 1:1 4:0.00520833 5:0.00253165 6:1 8:0.188679 9:1 11:1 13:1 15:1 17:1 19:1 21:1 25:1 26:1 30:1 31:1 33:1 35:1 37:1 
128 1:1 4:0.00520833 5:0.00253165 6:1 8:0.169811 9:1 11:1 13:1 15:1 17:1 19:1 21:1 24:1 26:1 30:1 31:1 33:1 35:1 37:1 
0.3356299471083078 2:1 4:0.395833 5:0.455696 6:1 8:0.207547 9:1 11:1 13:1 15:1 17:1 19:1 21:1 24:1 26:1 29:1 31:1 33:1 35:1 37:1 
128 1:1 4:0.00520833 5:0.00253165 6:1 8:0.169811 9:1 11:1 13:1 15:1 17:1 19:1 21:1 24:1 26:1 30:1 31:1 33:1 35:1 37:1 
128 1:1 6:1 8:0.169811 9:1 11:1 13:1 15:1 17:1 19:1 21:1 24:1 26:1 30:1 31:1 33:1 35:1 37:1 
128 1:1 4:0.0104167 5:0.00506329 6:1 8:0.169811 9:1 11:1 13:1 15:1 17:1 19:1 21:1 24:1 26:1 30:1 31:1 33:1 35:1 37:1 
128 1:1 4:0.00520833 5:0.00759494 6:1 8:0.169811 9:1 11:1 13:1 15:1 17:1 19:1 21:1 24:1 26:1 30:1 31:1 33:1 35:1 37:1 
65.19072077089788 1:1 4:0.00520833 7:1 9:1 11:1 13:1 15:1 17:1 19:1 21:1 24:1 26:1 29:1 31:1 33:1 36:1 37:1 
128 1:1 4:0.0104167 5:0.0151899 6:1 8:0.0377358 9:1 11:1 13:1 15:1 17:1 19:1 21:1 24:1 26:1 29:1 31:1 33:1 36:1 37:1 
128 1:1 4:0.0104167 5:0.0151899 6:1 8:0.169811 9:1 11:1 13:1 15:1 17:1 19:1 21:1 24:1 26:1 30:1 31:1 33:1 35:1 37:1 
128 1:1 5:0.00253165 6:1 8:0.169811 9:1 11:1 13:1 15:1 17:1 19:1 21:1 24:1 26:1 30:1 31:1 33:1 35:1 37:1 
5.292326054397706 1:1 4:0.0625 5:0.0303797 7:1 9:1 11:1 13:1 15:1 17:1 19:1 21:1 24:1 26:1 29:1 31:1 33:1 36:1 37:1 
128 1:1 4:0.03125 5:0.0101266 6:1 8:0.169811 9:1 11:1 13:1 15:1 17:1 19:1 21:1 24:1 26:1 30:1 31:1 33:1 35:1 37:1 
128 1:1 4:0.00520833 6:1 8:0.169811 9:1 11:1 13:1 15:1 17:1 19:1 21:1 24:1 26:1 30:1 31:1 33:1 35:1 37:1 
0.2546646948394238 1:1 4:0.244792 5:0.334177 7:1 9:1 11:1 13:1 15:1 17:1 19:1 21:1 24:1 26:1 29:1 31:1 33:1 36:1 38:1 
128 1:1 4:0.00520833 7:1 9:1 11:1 13:1 15:1 17:1 19:1 21:1 24:1 26:1 29:1 31:1 33:1 36:1 37:1 
10.32089434904966 1:1 4:0.00520833 5:0.00253165 6:1 8:0.0754717 9:1 11:1 13:1 15:1 17:1 19:1 21:1 23:1 26:1 29:1 31:1 33:1 35:1 37:1 
128 1:1 4:0.0572917 5:0.0405063 6:1 8:0.0377358 9:1 11:1 13:1 15:1 17:1 19:1 21:1 24:1 26:1 29:1 31:1 33:1 36:1 37:1 
128 1:1 4:0.0104167 5:0.00506329 6:1 8:0.169811 9:1 11:1 13:1 15:1 17:1 19:1 21:1 24:1 26:1 30:1 31:1 33:1 35:1 37:1 
128 1:1 5:0.00506329 6:1 8:0.169811 9:1 11:1 13:1 15:1 17:1 19:1 21:1 24:1 26:1 30:1 31:1 33:1 35:1 37:1 
128 1:1 5:0.00759494 6:1 8:0.0377358 9:1 11:1 13:1 15:1 17:1 19:1 21:1 24:1 26:1 29:1 31:1 33:1 36:1 37:1 
128 1:1 5:0.00506329 6:1 8:0.0377358 9:1 11:1 13:1 15:1 17:1 19:1 21:1 24:1 26:1 29:1 31:1 33:1 36:1 37:1 
128 1:1 4:0.0104167 5:0.00506329 6:1 8:0.169811 9:1 11:1 13:1 15:1 17:1 19:1 21:1 24:1 26:1 30:1 31:1 33:1 35:1 37:1 
128 1:1 5:0.00253165 6:1 8:0.169811 9:1 11:1 13:1 15:1 17:1 19:1 21:1 24:1 26:1 30:1 31:1 33:1 35:1 37:1 
128 1:1 4:0.00520833 5:0.00253165 6:1 8:0.169811 9:1 11:1 13:1 15:1 17:1 19:1 21:1 24:1 26:1 30:1 31:1 33:1 35:1 37:1 
128 1:1 4:0.00520833 5:0.00506329 6:1 8:0.169811 9:1 11:1 13:1 15:1 17:1 19:1 21:1 24:1 26:1 30:1 31:1 33:1 35:1 37:1 
128 1:1 4:0.00520833 5:0.00759494 6:1 8:0.169811 9:1 11:1 13:1 15:1 17:1 19:1 21:1 24:1 26:1 30:1 31:1 33:1 35:1 37:1 
128 1:1 4:0.00520833 5:0.00506329 6:1 8:0.169811 9:1 11:1 13:1 15:1 17:1 19:1 21:1 24:1 26:1 30:1 31:1 33:1 35:1 37:1 
128 1:1 6:1 8:0.169811 9:1 11:1 13:1 15:1 17:1 19:1 21:1 24:1 26:1 30:1 31:1 33:1 35:1 37:1 
128 1:1 5:0.00253165 6:1 8:0.169811 9:1 11:1 13:1 15:1 17:1 19:1 21:1 24:1 26:1 30:1 31:1 33:1 35:1 37:1 
128 1:1 5:0.00759494 6:1 8:0.0377358 9:1 11:1 13:1 15:1 17:1 19:1 21:1 24:1 26:1 29:1 31:1 33:1 36:1 37:1 
128 1:1 4:0.015625 5:0.0126582 6:1 8:0.169811 9:1 11:1 13:1 15:1 17:1 19:1 21:1 24:1 26:1 30:1 31:1 33:1 35:1 37:1 
128 1:1 5:0.00253165 6:1 8:0.169811 9:1 11:1 13:1 15:1 17:1 19:1 21:1 24:1 26:1 30:1 31:1 33:1 35:1 37:1 
128 1:1 7:1 9:1 11:1 13:1 15:1 17:1 19:1 21:1 24:1 26:1 29:1 31:1 33:1 36:1 37:1 
128 1:1 4:0.00520833 5:0.00506329 6:1 8:0.169811 9:1 11:1 13:1 15:1 17:1 19:1 21:1 24:1 26:1 30:1 31:1 33:1 35:1 37:1 
128 1:1 6:1 8:0.169811 9:1 11:1 13:1 15:1 17:1 19:1 21:1 24:1 26:1 30:1 31:1 33:1 35:1 37:1 
128 1:1 4:0.00520833 5:0.00506329 6:1 8:0.169811 9:1 11:1 13:1 15:1 17:1 19:1 21:1 24:1 26:1 30:1 31:1 33:1 35:1 37:1 
0.2838245452443691 1:1 4:0.00520833 6:1 8:0.471698 9:1 11:1 13:1 15:1 17:1 19:1 21:1 24:1 26:1 30:1 32:1 33:1 35:1 37:1 
128 1:1 4:0.145833 5:0.0556962 6:1 8:0.490566 9:1 11:1 13:1 15:1 17:1 19:1 21:1 24:1 26:1 30:1 31:1 33:1 35:1 37:1 
128 1:1 4:0.0989583 5:0.0253165 6:1 8:0.169811 9:1 11:1 13:1 15:1 17:1 19:1 21:1 24:1 26:1 30:1 31:1 33:1 35:1 37:1 
128 1:1 4:0.0104167 5:0.0126582 6:1 8:0.169811 9:1 11:1 13:1 15:1 17:1 19:1 21:1 24:1 26:1 30:1 31:1 33:1 35:1 37:1 
128 1:1 4:0.00520833 6:1 8:0.339623 9:1 11:1 13:1 15:1 17:1 19:1 21:1 24:1 26:1 30:1 31:1 33:1 35:1 37:1 
128 1:1 4:0.00520833 5:0.00253165 6:1 8:0.245283 9:1 11:1 13:1 15:1 17:1 19:1 21:1 25:1 26:1 30:1 31:1 33:1 35:1 37:1 
128 1:1 4:0.0104167 5:0.0101266 6:1 8:0.188679 9:1 11:1 13:1 15:1 17:1 19:1 21:1 25:1 26:1 30:1 31:1 33:1 35:1 37:1 
128 1:1 4:0.00520833 6:1 8:0.339623 9:1 11:1 13:1 15:1 17:1 19:1 21:1 24:1 26:1 30:1 31:1 33:1 35:1 37:1 
0.1979805718474333 2:1 7:1 9:1 11:1 13:1 15:1 17:1 19:1 21:1 25:1 26:1 29:1 31:1 33:1 35:1 37:1 
128 1:1 4:0.151042 5:0.0658228 6:1 8:0.150943 9:1 11:1 13:1 15:1 17:1 19:1 21:1 24:1 26:1 30:1 31:1 33:1 35:1 37:1 
128 1:1 4:0.0104167 5:0.00253165 6:1 8:0.245283 9:1 11:1 13:1 15:1 17:1 19:1 21:1 24:1 26:1 30:1 31:1 33:1 35:1 37:1 
0.05738354698292007 2:1 4:0.270833 5:0.270886 6:1 8:0.113208 9:1 11:1 13:1 15:1 17:1 19:1 21:1 24:1 26:1 29:1 31:1 33:1 35:1 37:1 
0.2072003565501772 2:1 6:1 8:0.0188679 9:1 11:1 13:1 16:1 17:1 19:1 21:1 24:1 26:1 30:1 31:1 33:1 35:1 37:1 
0.1924900472976201 2:1 4:0.03125 5:0.0126582 7:1 9:1 11:1 13:1 16:1 17:1 19:1 21:1 24:1 26:1 30:1 31:1 33:1 36:1 37:1 
128 1:1 4:0.0104167 5:0.00253165 6:1 8:0.113208 9:1 11:1 13:1 15:1 17:1 19:1 21:1 25:1 26:1 30:1 31:1 33:1 35:1 37:1 
0.2075313146391529 2:1 4:0.104167 5:0.0278481 7:1 9:1 11:1 13:1 15:1 17:1 19:1 21:1 25:1 26:1 30:1 31:1 33:1 35:1 37:1 
128 1:1 5:0.00253165 6:1 8:0.396226 9:1 11:1 13:1 15:1 17:1 19:1 21:1 24:1 26:1 29:1 31:1 33:1 36:1 37:1 
111.717845555376 1:1 4:0.00520833 5:0.0101266 7:1 9:1 11:1 13:1 15:1 17:1 19:1 21:1 24:1 26:1 29:1 31:1 33:1 36:1 37:1 
128 1:1 5:0.00506329 6:1 8:0.358491 9:1 11:1 13:1 15:1 17:1 19:1 21:1 24:1 26:1 28:1 31:1 33:1 36:1 37:1 
128 1:1 4:0.338542 5:0.341772 6:1 8:0.0566038 9:1 11:1 13:1 15:1 17:1 19:1 21:1 24:1 26:1 30:1 31:1 33:1 35:1 37:1 
128 1:1 4:0.00520833 5:0.00759494 6:1 8:0.0566038 9:1 11:1 13:1 15:1 17:1 19:1 21:1 24:1 26:1 30:1 31:1 33:1 35:1 37:1 
128 1:1 4:0.00520833 5:0.0101266 6:1 8:0.0566038 9:1 11:1 13:1 15:1 17:1 19:1 21:1 24:1 26:1 30:1 31:1 33:1 35:1 37:1 
128 1:1 4:0.00520833 5:0.0101266 6:1 8:0.0566038 9:1 11:1 13:1 15:1 17:1 19:1 21:1 24:1 26:1 30:1 31:1 33:1 35:1 37:1 
128 1:1 4:0.00520833 5:0.00759494 6:1 8:0.0566038 9:1 11:1 13:1 15:1 17:1 19:1 21:1 24:1 26:1 30:1 31:1 33:1 35:1 37:1 
128 1:1 4:0.00520833 5:0.00506329 6:1 8:0.0566038 9:1 11:1 13:1 15:1 17:1 19:1 21:1 24:1 26:1 30:1 31:1 33:1 35:1 37:1 
11.50746449435445 1:1 5:0.0151899 7:1 9:1 11:1 13:1 15:1 17:1 19:1 21:1 24:1 26:1 29:1 31:1 33:1 36:1 37:1 
10.91084855453718 1:1 4:0.00520833 5:0.00506329 7:1 9:1 11:1 13:1 15:1 17:1 19:1 21:1 24:1 26:1 29:1 31:1 33:1 36:1 37:1 
74.91771737835745 1:1 4:0.00520833 5:0.0126582 7:1 9:1 11:1 13:1 15:1 17:1 19:1 21:1 24:1 26:1 29:1 31:1 33:1 36:1 37:1 
128 1:1 5:0.00506329 6:1 8:0.0377358 9:1 11:1 13:1 15:1 17:1 19:1 21:1 24:1 26:1 29:1 31:1 33:1 36:1 37:1 
128 1:1 4:0.00520833 5:0.00506329 6:1 8:0.0566038 9:1 11:1 13:1 15:1 17:1 19:1 21:1 24:1 26:1 30:1 31:1 33:1 35:1 37:1 
128 1:1 5:0.00506329 6:1 8:0.0566038 9:1 11:1 13:1 15:1 17:1 19:1 21:1 24:1 26:1 30:1 31:1 33:1 35:1 37:1 
56.05439631169591 1:1 5:0.00253165 7:1 9:1 11:1 13:1 15:1 17:1 19:1 21:1 24:1 26:1 29:1 31:1 33:1 36:1 37:1 
128 1:1 4:0.00520833 5:0.00253165 6:1 8:0.169811 9:1 11:1 13:1 15:1 17:1 19:1 21:1 24:1 26:1 30:1 31:1 33:1 35:1 37:1 
0.3962701752918475 1:1 4:0.166667 5:0.0734177 6:1 8:0.0754717 9:1 11:1 13:1 15:1 17:1 20:1 21:1 24:1 26:1 29:1 31:1 33:1 35:1 37:1 
128 1:1 4:0.0104167 5:0.00759494 6:1 8:0.169811 9:1 11:1 13:1 15:1 17:1 19:1 21:1 24:1 26:1 30:1 31:1 33:1 35:1 37:1 
128 1:1 4:0.151042 5:0.0556962 6:1 8:0.0754717 9:1 11:1 13:1 15:1 17:1 19:1 21:1 24:1 26:1 30:1 31:1 33:1 35:1 37:1 
128 1:1 6:1 8:0.377358 9:1 11:1 13:1 16:1 17:1 19:1 21:1 24:1 26:1 30:1 31:1 33:1 35:1 37:1 
78.72684954667626 1:1 5:0.00253165 6:1 8:0.396226 9:1 11:1 13:1 16:1 17:1 19:1 21:1 24:1 26:1 30:1 31:1 33:1 35:1 37:1 
128 1:1 6:1 8:0.377358 9:1 11:1 13:1 16:1 17:1 19:1 21:1 24:1 26:1 30:1 31:1 33:1 36:1 37:1 
128 1:1 6:1 8:0.358491 9:1 11:1 13:1 15:1 17:1 19:1 21:1 24:1 26:1 30:1 31:1 33:1 35:1 37:1 
128 1:1 4:0.00520833 6:1 8:0.226415 9:1 11:1 13:1 15:1 17:1 19:1 21:1 24:1 26:1 30:1 31:1 33:1 35:1 37:1 
0.2753804169293239 2:1 6:1 8:0.169811 10:1 11:1 13:1 15:1 17:1 19:1 21:1 24:1 26:1 30:1 31:1 33:1 35:1 37:1 
0.1862503376530462 1:1 4:0.0104167 5:0.0101266 6:1 8:0.0566038 9:1 11:1 13:1 15:1 17:1 19:1 21:1 24:1 26:1 29:1 31:1 33:1 35:1 38:1 
0.2234266484929198 1:1 4:0.151042 5:0.124051 6:1 8:0.0566038 9:1 11:1 13:1 15:1 17:1 19:1 21:1 24:1 26:1 29:1 31:1 33:1 35:1 38:1 
128 1:1 4:0.00520833 5:0.0101266 6:1 8:0.132075 9:1 11:1 13:1 15:1 17:1 19:1 21:1 25:1 26:1 30:1 31:1 33:1 35:1 37:1 
0.2782633760673988 1:1 4:0.00520833 6:1 8:0.0566038 9:1 11:1 13:1 15:1 17:1 19:1 21:1 24:1 26:1 29:1 31:1 33:1 36:1 38:1 
0.1972226747447643 2:1 4:0.171875 5:0.116456 6:1 8:0.169811 9:1 11:1 13:1 15:1 17:1 19:1 21:1 24:1 26:1 28:1 31:1 33:1 35:1 37:1 
0.2888251297446925 1:1 4:0.00520833 5:0.00759494 7:1 9:1 11:1 13:1 15:1 18:1 19:1 21:1 24:1 26:1 30:1 31:1 33:1 35:1 37:1 
30.73867675151745 1:1 4:0.03125 5:0.0810127 7:1 9:1 11:1 13:1 15:1 18:1 19:1 21:1 24:1 26:1 30:1 31:1 33:1 36:1 37:1 
0.00159354909635295 2:1 6:1 8:0.0377358 9:1 11:1 13:1 15:1 17:1 19:1 21:1 25:1 26:1 29:1 31:1 33:1 36:1 37:1 
128 1:1 4:0.00520833 5:0.00253165 6:1 8:0.377358 9:1 11:1 13:1 15:1 17:1 19:1 21:1 24:1 26:1 30:1 31:1 33:1 35:1 37:1 
0.3465799380979672 2:1 7:1 9:1 11:1 13:1 15:1 17:1 19:1 21:1 24:1 26:1 30:1 31:1 33:1 35:1 37:1 
0.2943039147230519 2:1 4:0.00520833 5:0.00253165 6:1 8:0.0188679 9:1 11:1 13:1 15:1 17:1 19:1 21:1 24:1 26:1 30:1 31:1 33:1 35:1 37:1 
0.08288544368168219 2:1 4:0.489583 5:0.303797 6:1 8:0.113208 9:1 11:1 13:1 15:1 17:1 19:1 21:1 24:1 26:1 30:1 31:1 33:1 35:1 37:1 
0.338903270006236 1:1 4:0.416667 5:0.220253 7:1 9:1 12:1 13:1 15:1 17:1 19:1 21:1 24:1 26:1 29:1 31:1 33:1 35:1 37:1 
0.3966320240450826 1:1 5:0.00253165 7:1 9:1 11:1 14:1 15:1 17:1 19:1 21:1 24:1 27:1 30:1 31:1 33:1 35:1 37:1 
128 1:1 4:0.00520833 5:0.00506329 6:1 8:0.320755 9:1 11:1 13:1 15:1 17:1 19:1 21:1 24:1 26:1 30:1 31:1 33:1 35:1 37:1 
128 1:1 4:0.140625 5:0.0506329 6:1 8:0.226415 9:1 11:1 13:1 15:1 17:1 19:1 21:1 24:1 26:1 30:1 31:1 33:1 35:1 37:1 
0.1985480725571953 1:1 4:0.00520833 5:0.00253165 7:1 9:1 11:1 13:1 15:1 17:1 19:1 22:1 24:1 26:1 30:1 31:1 33:1 35:1 37:1 
128 1:1 4:0.0989583 5:0.0202532 6:1 8:0.169811 9:1 11:1 13:1 15:1 17:1 19:1 21:1 24:1 26:1 30:1 31:1 33:1 35:1 37:1 
128 1:1 4:0.015625 5:0.0151899 6:1 8:0.169811 9:1 11:1 13:1 15:1 17:1 19:1 21:1 24:1 26:1 30:1 31:1 33:1 35:1 37:1 
128 1:1 4:0.00520833 6:1 8:0.283019 9:1 11:1 13:1 15:1 17:1 19:1 21:1 24:1 26:1 30:1 31:1 33:1 35:1 37:1 
128 1:1 4:0.0104167 5:0.00253165 6:1 8:0.301887 9:1 11:1 13:1 15:1 17:1 19:1 21:1 24:1 26:1 30:1 31:1 33:1 35:1 37:1 
0.2806727997826083 2:1 6:1 8:0.0188679 9:1 11:1 13:1 15:1 17:1 19:1 21:1 25:1 26:1 30:1 31:1 33:1 35:1 37:1 
128 1:1 4:0.0520833 5:0.0177215 6:1 8:0.207547 9:1 11:1 13:1 15:1 17:1 19:1 21:1 24:1 26:1 30:1 31:1 33:1 35:1 37:1 
128 1:1 4:0.307292 5:0.250633 6:1 8:0.283019 9:1 11:1 13:1 15:1 17:1 19:1 21:1 24:1 26:1 30:1 31:1 33:1 35:1 37:1 
128 1:1 4:0.0104167 5:0.00253165 6:1 8:0.283019 9:1 11:1 13:1 15:1 17:1 19:1 21:1 24:1 26:1 30:1 31:1 33:1 35:1 37:1 
128 1:1 4:0.0208333 5:0.00253165 6:1 8:0.264151 9:1 11:1 13:1 15:1 17:1 19:1 21:1 24:1 26:1 30:1 31:1 33:1 35:1 37:1 
128 1:1 5:0.00253165 6:1 8:0.245283 9:1 11:1 13:1 15:1 17:1 19:1 21:1 24:1 26:1 30:1 31:1 33:1 35:1 37:1 
0.1992418533387534 2:1 4:0.0208333 5:0.0278481 6:1 8:0.0188679 9:1 11:1 13:1 16:1 17:1 19:1 21:1 24:1 26:1 30:1 31:1 33:1 36:1 37:1 
0.199392626651842 2:1 6:1 8:0.0188679 9:1 11:1 13:1 16:1 17:1 19:1 21:1 24:1 26:1 30:1 31:1 33:1 36:1 37:1 
128 1:1 4:0.0260417 5:0.00506329 6:1 8:0.207547 9:1 11:1 13:1 15:1 17:1 19:1 21:1 24:1 26:1 30:1 31:1 33:1 35:1 37:1 
13.55985845885284 1:1 4:0.0260417 5:0.035443 6:1 8:0.0188679 9:1 11:1 13:1 16:1 17:1 19:1 21:1 24:1 26:1 30:1 31:1 33:1 35:1 37:1 
127.9537916377017 1:1 6:1 8:0.792453 9:1 11:1 13:1 15:1 17:1 19:1 21:1 24:1 26:1 30:1 31:1 33:1 35:1 37:1 
128 1:1 4:0.015625 5:0.0101266 6:1 8:0.339623 9:1 11:1 13:1 15:1 17:1 19:1 21:1 24:1 26:1 30:1 31:1 33:1 35:1 37:1 
128 1:1 4:0.00520833 6:1 8:0.339623 9:1 11:1 13:1 15:1 17:1 19:1 21:1 24:1 26:1 30:1 31:1 33:1 35:1 37:1 
34.69464076846673 1:1 5:0.00253165 6:1 8:0.0188679 9:1 11:1 13:1 16:1 17:1 19:1 21:1 24:1 26:1 30:1 31:1 33:1 35:1 37:1 
128 1:1 4:0.171875 5:0.194937 6:1 8:0.226415 9:1 11:1 13:1 15:1 17:1 19:1 21:1 25:1 26:1 30:1 31:1 33:1 35:1 37:1 
0.197943896114228 2:1 7:1 9:1 11:1 13:1 15:1 17:1 19:1 21:1 25:1 26:1 29:1 31:1 33:1 36:1 37:1 
128 1:1 6:1 8:0.245283 9:1 11:1 13:1 15:1 17:1 19:1 21:1 24:1 26:1 30:1 31:1 33:1 35:1 37:1 
0.3035685094110746 1:1 7:1 9:1 12:1 13:1 15:1 17:1 19:1 21:1 24:1 26:1 30:1 31:1 33:1 35:1 37:1 
0.2128107941792589 1:1 4:0.505208 5:0.6 6:1 8:0.226415 9:1 12:1 13:1 15:1 17:1 19:1 21:1 24:1 26:1 30:1 31:1 33:1 35:1 37:1 
128 1:1 4:0.00520833 6:1 8:0.150943 9:1 11:1 13:1 15:1 17:1 19:1 21:1 23:1 26:1 30:1 31:1 33:1 35:1 37:1 
128 1:1 5:0.00253165 6:1 8:0.0943396 9:1 11:1 13:1 15:1 17:1 19:1 21:1 24:1 26:1 29:1 31:1 33:1 35:1 37:1 
0.1150038126580627 2:1 5:0.00253165 6:1 8:0.226415 9:1 11:1 13:1 15:1 17:1 19:1 21:1 25:1 26:1 29:1 31:1 33:1 35:1 37:1 
0.1156919764692112 2:1 4:0.00520833 6:1 8:0.0188679 9:1 11:1 13:1 15:1 17:1 19:1 21:1 25:1 26:1 29:1 31:1 33:1 35:1 37:1 
128 1:1 4:0.0208333 5:0.0202532 6:1 8:0.264151 9:1 11:1 13:1 15:1 17:1 19:1 21:1 25:1 26:1 30:1 31:1 33:1 35:1 37:1 
0.1168664037026371 2:1 4:0.00520833 5:0.00253165 6:1 8:0.226415 9:1 11:1 13:1 15:1 17:1 19:1 21:1 25:1 26:1 29:1 31:1 33:1 35:1 37:1 
84.16485289370978 1:1 4:0.046875 6:1 8:0.0188679 9:1 12:1 13:1 15:1 17:1 19:1 21:1 24:1 26:1 29:1 31:1 33:1 35:1 37:1 
128 1:1 4:0.03125 5:0.0202532 6:1 8:0.339623 9:1 11:1 13:1 15:1 17:1 19:1 21:1 24:1 26:1 30:1 31:1 33:1 35:1 37:1 
0.1986809720378112 2:1 6:1 8:0.0188679 9:1 11:1 13:1 15:1 17:1 19:1 21:1 25:1 26:1 29:1 31:1 33:1 36:1 37:1 
128 1:1 6:1 8:0.169811 9:1 11:1 13:1 15:1 17:1 19:1 21:1 25:1 26:1 30:1 31:1 33:1 35:1 37:1 
128 1:1 6:1 8:0.169811 9:1 11:1 13:1 15:1 17:1 19:1 21:1 25:1 26:1 30:1 31:1 33:1 35:1 37:1 
0.2165635184390555 2:1 4:0.380208 5:0.121519 6:1 8:0.0943396 9:1 11:1 13:1 15:1 17:1 19:1 21:1 25:1 26:1 30:1 31:1 33:1 35:1 37:1 
128 1:1 4:0.00520833 6:1 8:0.0754717 9:1 11:1 13:1 15:1 17:1 19:1 21:1 25:1 26:1 29:1 31:1 33:1 35:1 37:1 
128 1:1 4:0.0104167 5:0.00506329 6:1 8:0.132075 9:1 11:1 13:1 15:1 17:1 19:1 21:1 24:1 26:1 30:1 31:1 33:1 35:1 37:1 
128 1:1 6:1 8:0.132075 9:1 11:1 13:1 15:1 17:1 19:1 21:1 24:1 26:1 30:1 31:1 33:1 35:1 37:1 
128 1:1 4:0.0208333 5:0.00759494 6:1 8:0.415094 9:1 11:1 13:1 15:1 17:1 19:1 21:1 24:1 26:1 30:1 31:1 33:1 35:1 37:1 
128 1:1 4:0.015625 5:0.00253165 6:1 8:0.0943396 9:1 11:1 13:1 15:1 17:1 19:1 21:1 24:1 26:1 30:1 31:1 33:1 35:1 37:1 
0.2031309583107586 2:1 6:1 8:0.0377358 9:1 11:1 13:1 15:1 17:1 19:1 21:1 24:1 26:1 29:1 31:1 33:1 36:1 37:1 
0.3243910696028827 2:1 7:1 9:1 11:1 13:1 15:1 17:1 19:1 21:1 24:1 26:1 29:1 31:1 33:1 36:1 37:1 
0.1976292318644735 1:1 4:0.515625 5:0.220253 7:1 9:1 11:1 13:1 15:1 17:1 19:1 21:1 24:1 26:1 30:1 31:1 33:1 35:1 37:1 
0.1997764896742477 2:1 4:0.03125 5:0.00506329 6:1 8:0.0754717 9:1 11:1 13:1 16:1 17:1 19:1 21:1 25:1 26:1 30:1 31:1 33:1 35:1 37:1 
128 1:1 4:0.00520833 5:0.00253165 6:1 8:0.0188679 9:1 11:1 13:1 15:1 17:1 19:1 21:1 24:1 26:1 30:1 31:1 33:1 35:1 37:1 
0.2670458435017859 2:1 6:1 8:0.0377358 9:1 11:1 13:1 15:1 17:1 19:1 21:1 24:1 26:1 29:1 31:1 33:1 35:1 37:1 
0.262163366824288 2:1 7:1 9:1 11:1 13:1 15:1 17:1 19:1 21:1 24:1 26:1 29:1 31:1 33:1 35:1 37:1 
-0.009504559355139979 1:1 4:0.0416667 5:0.0810127 6:1 8:0.169811 9:1 11:1 13:1 15:1 17:1 19:1 21:1 24:1 26:1 30:1 31:1 33:1 35:1 37:1 
-0.9959276238609728 1:1 4:0.0260417 5:0.0506329 6:1 8:0.169811 9:1 11:1 13:1 15:1 17:1 19:1 21:1 24:1 26:1 30:1 31:1 33:1 35:1 37:1 
-7.093860128205191 1:1 4:0.0208333 5:0.043038 6:1 8:0.169811 9:1 11:1 13:1 15:1 17:1 19:1 21:1 24:1 26:1 30:1 31:1 33:1 35:1 37:1 
-0.8605874684719442 1:1 4:0.0104167 5:0.0227848 6:1 8:0.132075 9:1 11:1 13:1 15:1 17:1 19:1 21:1 24:1 26:1 30:1 31:1 33:1 35:1 37:1 
-128 1:1 4:0.00520833 5:0.0101266 6:1 8:0.0377358 9:1 11:1 13:1 15:1 17:1 19:1 21:1 24:1 26:1 30:1 31:1 33:1 35:1 37:1 
-68.22245421780835 1:1 4:0.322917 5:0.288608 6:1 8:0.0377358 9:1 11:1 13:1 15:1 17:1 19:1 21:1 24:1 26:1 30:1 31:1 33:1 35:1 37:1 
-128 1:1 4:0.322917 5:0.283544 6:1 8:0.0566038 9:1 11:1 13:1 15:1 17:1 19:1 21:1 25:1 26:1 30:1 31:1 33:1 35:1 37:1 
-128 1:1 4:0.307292 5:0.23038 6:1 8:0.113208 9:1 11:1 13:1 15:1 17:1 19:1 21:1 25:1 26:1 30:1 31:1 33:1 35:1 37:1 
-88.34172770801538 1:1 4:0.21875 5:0.151899 6:1 8:0.0377358 9:1 11:1 13:1 15:1 17:1 19:1 21:1 25:1 26:1 30:1 31:1 33:1 35:1 37:1 
-14.26375384888495 1:1 4:0.0208333 5:0.0101266 6:1 8:0.169811 9:1 11:1 13:1 15:1 17:1 19:1 21:1 24:1 26:1 30:1 31:1 33:1 35:1 37:1 
-128 1:1 4:0.00520833 6:1 8:0.0377358 9:1 11:1 13:1 15:1 17:1 19:1 21:1 24:1 26:1 30:1 31:1 33:1 35:1 37:1 
-39.76523015387999 1:1 4:0.0260417 5:0.0303797 6:1 8:0.188679 9:1 11:1 13:1 15:1 17:1 19:1 21:1 24:1 26:1 30:1 31:1 33:1 35:1 37:1 
-128 1:1 4:0.0104167 5:0.0126582 6:1 8:0.188679 9:1 11:1 13:1 15:1 17:1 19:1 21:1 24:1 26:1 30:1 31:1 33:1 35:1 37:1 
-128 1:1 6:1 8:0.169811 10:1 11:1 13:1 15:1 17:1 19:1 21:1 24:1 26:1 30:1 31:1 33:1 35:1 37:1 
-15.34813199073533 1:1 4:0.0364583 5:0.0810127 6:1 8:0.169811 9:1 11:1 13:1 15:1 17:1 19:1 21:1 24:1 26:1 30:1 31:1 33:1 35:1 37:1 
-0.09207042570102963 1:1 4:0.0260417 5:0.0455696 6:1 8:0.169811 9:1 11:1 13:1 15:1 17:1 19:1 21:1 24:1 26:1 30:1 31:1 33:1 35:1 37:1 
-0.1727621155460788 1:1 4:0.0208333 5:0.0329114 6:1 8:0.169811 9:1 11:1 13:1 15:1 17:1 19:1 21:1 24:1 26:1 30:1 31:1 33:1 35:1 37:1 
-0.1180630764401148 1:1 4:0.0104167 5:0.0177215 6:1 8:0.169811 9:1 11:1 13:1 15:1 17:1 19:1 21:1 24:1 26:1 30:1 31:1 33:1 35:1 37:1 
-128 1:1 4:0.0104167 5:0.0151899 6:1 8:0.169811 9:1 11:1 13:1 15:1 17:1 19:1 21:1 24:1 26:1 30:1 31:1 33:1 35:1 37:1 
-38.06199230238759 1:1 4:0.015625 5:0.0253165 6:1 8:0.188679 9:1 11:1 13:1 15:1 17:1 19:1 21:1 24:1 26:1 30:1 31:1 33:1 35:1 37:1 
-7.125227085072524 1:1 4:0.0260417 5:0.0810127 6:1 8:0.150943 9:1 11:1 13:1 15:1 17:1 19:1 21:1 24:1 26:1 30:1 31:1 33:1 35:1 37:1 
-4.464344890568341 1:1 4:0.0364583 5:0.0582278 6:1 8:0.188679 9:1 11:1 13:1 15:1 17:1 19:1 21:1 24:1 26:1 30:1 31:1 33:1 35:1 37:1 
-5.756559227299947 1:1 4:0.03125 5:0.0531646 6:1 8:0.188679 9:1 11:1 13:1 15:1 17:1 19:1 21:1 24:1 26:1 30:1 31:1 33:1 35:1 37:1 
-0.1235712774687375 1:1 4:0.0260417 5:0.043038 6:1 8:0.188679 9:1 11:1 13:1 15:1 17:1 19:1 21:1 24:1 26:1 30:1 31:1 33:1 35:1 37:1 
-128 1:1 4:0.00520833 5:0.00506329 6:1 8:0.169811 9:1 11:1 13:1 15:1 17:1 19:1 21:1 24:1 26:1 30:1 31:1 33:1 35:1 37:1 
-3.298902962553405 1:1 4:0.00520833 5:0.00506329 6:1 8:0.113208 9:1 11:1 13:1 15:1 17:1 19:1 21:1 24:1 26:1 30:1 31:1 33:1 35:1 37:1 
-128 1:1 4:0.0104167 5:0.0379747 6:1 8:0.113208 9:1 11:1 13:1 15:1 17:1 19:1 21:1 25:1 26:1 30:1 31:1 33:1 35:1 37:1 
-128 1:1 4:0.0104167 5:0.035443 6:1 8:0.415094 9:1 11:1 13:1 15:1 17:1 19:1 21:1 25:1 26:1 30:1 31:1 33:1 35:1 37:1 
-128 1:1 6:1 8:0.169811 10:1 11:1 13:1 15:1 17:1 19:1 21:1 24:1 26:1 30:1 31:1 33:1 35:1 37:1 
-37.51380600456947 1:1 4:0.00520833 5:0.0101266 6:1 8:0.0754717 9:1 11:1 13:1 15:1 17:1 19:1 21:1 25:1 26:1 30:1 31:1 33:1 35:1 37:1 
-19.00162304774092 1:1 4:0.00520833 5:0.00759494 6:1 8:0.113208 9:1 11:1 13:1 15:1 17:1 19:1 21:1 24:1 26:1 30:1 31:1 33:1 35:1 37:1 
-128 1:1 4:0.0104167 6:1 8:0.358491 9:1 11:1 13:1 15:1 17:1 19:1 21:1 24:1 26:1 30:1 31:1 33:1 35:1 37:1 
-1.714932684914931 1:1 4:0.0677083 5:0.00253165 6:1 8:0.113208 9:1 11:1 13:1 15:1 17:1 19:1 21:1 24:1 26:1 30:1 31:1 33:1 35:1 37:1 
-2.324880086679545 1:1 4:0.0104167 5:0.00506329 6:1 8:0.169811 9:1 11:1 13:1 15:1 17:1 19:1 21:1 24:1 26:1 30:1 31:1 33:1 35:1 37:1 
-128 1:1 6:1 8:0.207547 10:1 11:1 13:1 15:1 17:1 19:1 21:1 24:1 26:1 30:1 31:1 33:1 35:1 37:1 
-0.1719920878426003 1:1 4:0.0364583 5:0.0379747 6:1 8:0.169811 9:1 11:1 13:1 15:1 17:1 19:1 21:1 24:1 26:1 30:1 31:1 33:1 35:1 37:1 
-128 1:1 4:0.015625 5:0.0177215 6:1 8:0.0754717 9:1 11:1 13:1 15:1 17:1 19:1 21:1 24:1 26:1 29:1 31:1 33:1 35:1 37:1 
-24.22881683376002 1:1 4:0.00520833 5:0.00253165 6:1 8:0.132075 9:1 11:1 13:1 15:1 17:1 19:1 21:1 25:1 26:1 29:1 31:1 33:1 35:1 37:1 
-128 1:1 4:0.03125 5:0.0227848 6:1 8:0.132075 9:1 11:1 13:1 15:1 17:1 19:1 21:1 25:1 26:1 30:1 31:1 33:1 35:1 37:1 
-128 1:1 4:0.109375 5:0.0151899 6:1 8:0.226415 9:1 11:1 13:1 15:1 17:1 19:1 21:1 24:1 26:1 30:1 31:1 33:1 35:1 37:1 
-128 1:1 6:1 8:0.320755 9:1 11:1 13:1 15:1 17:1 19:1 21:1 24:1 26:1 30:1 31:1 33:1 35:1 37:1 
-3.471163310043654 1:1 4:0.0364583 5:0.0607595 6:1 8:0.169811 9:1 11:1 13:1 15:1 17:1 19:1 21:1 24:1 26:1 30:1 31:1 33:1 35:1 37:1 
-10.59693946705199 1:1 4:0.015625 5:0.0329114 6:1 8:0.169811 9:1 11:1 13:1 15:1 17:1 19:1 21:1 24:1 26:1 30:1 31:1 33:1 35:1 37:1 
-1.03750560128567 1:1 5:0.0126582 6:1 8:0.0754717 9:1 11:1 13:1 15:1 17:1 19:1 21:1 24:1 26:1 29:1 31:1 33:1 36:1 37:1 
-2.713894575175892 1:1 5:0.00759494 6:1 8:0.0754717 9:1 11:1 13:1 15:1 17:1 19:1 21:1 24:1 26:1 29:1 31:1 33:1 36:1 37:1 
-128 1:1 5:0.00506329 6:1 8:0.0754717 9:1 11:1 13:1 15:1 17:1 19:1 21:1 24:1 26:1 29:1 31:1 33:1 36:1 37:1 
-1.087412174385809 1:1 4:0.03125 5:0.0658228 6:1 8:0.169811 9:1 11:1 13:1 15:1 17:1 19:1 21:1 24:1 26:1 30:1 31:1 33:1 35:1 37:1 
-50.81568922860682 1:1 4:0.03125 5:0.0607595 6:1 8:0.0754717 9:1 11:1 13:1 15:1 17:1 19:1 21:1 24:1 26:1 29:1 31:1 33:1 36:1 37:1 
-62.7322294182415 1:1 4:0.00520833 5:0.00759494 6:1 8:0.0754717 9:1 11:1 13:1 15:1 17:1 19:1 21:1 24:1 26:1 29:1 31:1 33:1 36:1 37:1 
-85.81867046534337 1:1 4:0.0104167 5:0.0329114 6:1 8:0.0377358 9:1 11:1 13:1 15:1 17:1 19:1 21:1 24:1 26:1 30:1 31:1 33:1 35:1 37:1 
-128 1:1 4:0.00520833 5:0.00759494 6:1 8:0.0377358 9:1 11:1 13:1 15:1 17:1 19:1 21:1 24:1 26:1 30:1 31:1 33:1 35:1 37:1 
-128 1:1 5:0.00506329 6:1 8:0.0943396 9:1 11:1 13:1 15:1 17:1 19:1 21:1 24:1 26:1 29:1 31:1 33:1 35:1 37:1 
-56.19508171214887 1:1 4:0.0260417 5:0.0303797 6:1 8:0.0754717 9:1 11:1 13:1 15:1 17:1 19:1 21:1 24:1 26:1 29:1 31:1 33:1 36:1 37:1 
-1.078679058575049 1:1 4:0.208333 5:0.24557 6:1 8:0.0377358 9:1 11:1 13:1 15:1 17:1 19:1 21:1 23:1 26:1 30:1 31:1 33:1 36:1 37:1 
-7.596865277460357 1:1 4:0.0260417 5:0.0278481 6:1 8:0.207547 9:1 11:1 13:1 15:1 17:1 19:1 21:1 24:1 26:1 30:1 31:1 33:1 35:1 37:1 
-128 1:1 4:0.00520833 5:0.0126582 6:1 8:0.0754717 9:1 11:1 13:1 15:1 17:1 19:1 21:1 25:1 26:1 30:1 31:1 33:1 35:1 37:1 
-128 1:1 4:0.00520833 5:0.0151899 6:1 8:0.0377358 9:1 11:1 13:1 15:1 17:1 19:1 21:1 25:1 26:1 30:1 31:1 33:1 35:1 37:1 
-128 1:1 6:1 8:0.301887 9:1 11:1 13:1 15:1 17:1 19:1 21:1 24:1 26:1 28:1 31:1 33:1 35:1 37:1 
-128 1:1 4:0.00520833 6:1 8:0.377358 9:1 11:1 13:1 15:1 17:1 19:1 21:1 24:1 26:1 30:1 31:1 33:1 35:1 37:1 
-119.6454882022184 1:1 4:0.0364583 5:0.043038 6:1 8:0.132075 9:1 11:1 13:1 15:1 17:1 19:1 21:1 25:1 26:1 30:1 31:1 33:1 35:1 37:1 
-128 1:1 4:0.00520833 6:1 8:0.339623 9:1 11:1 13:1 15:1 17:1 19:1 21:1 24:1 26:1 30:1 31:1 33:1 35:1 37:1 
-82.95520206568331 1:1 4:0.0104167 6:1 8:0.150943 9:1 11:1 13:1 15:1 17:1 19:1 21:1 24:1 26:1 30:1 31:1 33:1 35:1 37:1 
-22.85683843086608 1:1 4:0.015625 5:0.0227848 6:1 8:0.0566038 9:1 11:1 13:1 15:1 17:1 19:1 21:1 25:1 26:1 30:1 31:1 33:1 35:1 37:1 
-1.659161676590182 1:1 4:0.00520833 5:0.0101266 6:1 8:0.113208 9:1 11:1 13:1 15:1 17:1 19:1 21:1 25:1 26:1 30:1 31:1 33:1 35:1 37:1 
-128 1:1 6:1 8:0.283019 10:1 11:1 13:1 15:1 17:1 19:1 21:1 24:1 26:1 28:1 31:1 33:1 35:1 37:1 
-128 1:1 4:0.109375 5:0.0531646 6:1 8:0.396226 9:1 11:1 13:1 15:1 17:1 19:1 21:1 24:1 26:1 30:1 31:1 33:1 35:1 37:1 
-128 1:1 4:0.109375 5:0.0506329 6:1 8:0.396226 9:1 11:1 13:1 15:1 17:1 19:1 21:1 24:1 26:1 30:1 31:1 33:1 35:1 37:1 
-128 1:1 4:0.104167 5:0.0481013 6:1 8:0.396226 9:1 11:1 13:1 15:1 17:1 19:1 21:1 24:1 26:1 30:1 31:1 33:1 35:1 37:1 
-95.67143011811199 1:1 4:0.00520833 6:1 8:0.0566038 9:1 11:1 13:1 15:1 17:1 19:1 21:1 24:1 26:1 30:1 31:1 33:1 35:1 37:1 
-18.76901003458137 1:1 4:0.0364583 5:0.0151899 6:1 8:0.188679 9:1 11:1 13:1 15:1 17:1 19:1 21:1 24:1 26:1 30:1 31:1 33:1 35:1 37:1 
-128 1:1 4:0.0208333 5:0.0101266 6:1 8:0.207547 9:1 11:1 13:1 15:1 17:1 19:1 21:1 24:1 26:1 30:1 31:1 33:1 35:1 37:1 
-0.4067731901159246 1:1 4:0.0208333 5:0.043038 6:1 8:0.150943 9:1 11:1 13:1 15:1 17:1 19:1 21:1 24:1 26:1 30:1 31:1 33:1 35:1 37:1 
-56.53833077481892 1:1 4:0.00520833 5:0.0151899 6:1 8:0.169811 9:1 11:1 13:1 15:1 17:1 19:1 21:1 24:1 26:1 30:1 31:1 33:1 35:1 37:1 
-128 1:1 4:0.00520833 5:0.0151899 6:1 8:0.113208 9:1 11:1 13:1 15:1 17:1 19:1 21:1 24:1 26:1 29:1 31:1 33:1 35:1 37:1 
-128 1:1 5:0.00253165 6:1 8:0.113208 9:1 11:1 13:1 15:1 17:1 19:1 21:1 24:1 26:1 29:1 31:1 33:1 35:1 37:1 
-128 1:1 4:0.00520833 6:1 8:0.113208 9:1 11:1 13:1 15:1 17:1 19:1 21:1 24:1 26:1 29:1 31:1 33:1 35:1 37:1 
-7.826613693864116 1:1 4:0.015625 5:0.00506329 6:1 8:0.207547 9:1 11:1 13:1 15:1 17:1 19:1 21:1 24:1 26:1 30:1 31:1 33:1 35:1 37:1 
-128 1:1 4:0.00520833 5:0.00506329 6:1 8:0.113208 9:1 11:1 13:1 15:1 17:1 19:1 21:1 24:1 26:1 30:1 31:1 33:1 35:1 37:1 
-17.92834094308825 1:1 4:0.958333 5:0.632911 6:1 8:0.132075 9:1 11:1 13:1 15:1 17:1 19:1 21:1 25:1 26:1 30:1 31:1 33:1 35:1 37:1 
-8.940202449806595 1:1 4:0.0416667 5:0.0683544 6:1 8:0.132075 9:1 11:1 13:1 15:1 17:1 19:1 21:1 25:1 26:1 30:1 31:1 33:1 35:1 37:1 
-39.61723766690122 1:1 4:0.0416667 5:0.0632911 6:1 8:0.113208 9:1 11:1 13:1 15:1 17:1 19:1 21:1 25:1 26:1 30:1 31:1 33:1 35:1 37:1 
-128 1:1 4:0.00520833 5:0.0126582 6:1 8:0.113208 9:1 11:1 13:1 15:1 17:1 19:1 21:1 24:1 26:1 29:1 31:1 33:1 35:1 37:1 
-128 1:1 4:0.0104167 5:0.0202532 6:1 8:0.415094 9:1 11:1 13:1 15:1 17:1 19:1 21:1 25:1 26:1 30:1 31:1 33:1 35:1 37:1 
-104.7894278448932 1:1 4:0.00520833 5:0.0177215 6:1 8:0.113208 9:1 11:1 13:1 15:1 17:1 19:1 21:1 24:1 26:1 29:1 31:1 33:1 35:1 37:1 
-128 1:1 4:0.00520833 5:0.00759494 6:1 8:0.113208 9:1 11:1 13:1 15:1 17:1 19:1 21:1 24:1 26:1 29:1 31:1 33:1 35:1 37:1 
-128 1:1 4:0.00520833 5:0.00253165 6:1 8:0.113208 9:1 11:1 13:1 15:1 17:1 19:1 21:1 24:1 26:1 29:1 31:1 33:1 35:1 37:1 
-74.14192142600184 1:1 6:1 8:0.0943396 9:1 11:1 13:1 15:1 17:1 19:1 21:1 24:1 26:1 30:1 31:1 33:1 35:1 37:1 
-31.25524462825222 1:1 4:0.197917 5:0.205063 6:1 8:0.113208 9:1 11:1 13:1 15:1 17:1 19:1 21:1 24:1 26:1 29:1 31:1 33:1 35:1 37:1 
-38.28602986018642 1:1 4:0.177083 5:0.177215 6:1 8:0.113208 9:1 11:1 13:1 15:1 17:1 19:1 21:1 24:1 26:1 29:1 31:1 33:1 35:1 37:1 
-0.2532731597880504 1:1 4:0.114583 5:0.113924 6:1 8:0.490566 9:1 11:1 13:1 15:1 17:1 19:1 21:1 25:1 26:1 30:1 31:1 33:1 35:1 37:1 
-2.788198350281772 1:1 4:0.114583 5:0.106329 6:1 8:0.622642 9:1 11:1 13:1 15:1 17:1 19:1 21:1 24:1 26:1 29:1 31:1 33:1 35:1 37:1 
-19.58756483177831 1:1 4:0.0989583 5:0.0582278 6:1 8:0.113208 9:1 11:1 13:1 15:1 17:1 19:1 21:1 24:1 26:1 29:1 31:1 33:1 35:1 37:1 
-128 1:1 4:0.0989583 5:0.0531646 6:1 8:0.113208 9:1 11:1 13:1 15:1 17:1 19:1 21:1 24:1 26:1 29:1 31:1 33:1 35:1 37:1 
-41.93013042867545 1:1 4:0.0520833 5:0.0253165 6:1 8:0.150943 9:1 11:1 13:1 15:1 17:1 19:1 21:1 25:1 26:1 30:1 31:1 33:1 35:1 37:1 
-128 1:1 6:1 8:0.188679 9:1 11:1 13:1 15:1 17:1 19:1 21:1 25:1 26:1 30:1 31:1 33:1 35:1 37:1 
-19.79777695982952 1:1 5:0.00253165 6:1 8:0.169811 9:1 11:1 13:1 15:1 17:1 19:1 21:1 24:1 26:1 30:1 31:1 33:1 35:1 37:1 
-128 1:1 4:0.0104167 5:0.0177215 6:1 8:0.113208 9:1 11:1 13:1 15:1 17:1 19:1 21:1 25:1 26:1 30:1 31:1 33:1 35:1 37:1 
-0.8030784275290631 1:1 4:0.00520833 6:1 8:0.0188679 9:1 11:1 13:1 15:1 17:1 19:1 21:1 24:1 26:1 30:1 31:1 33:1 35:1 38:1 
-0.8003661579576051 1:1 5:0.00253165 6:1 8:0.0188679 9:1 11:1 13:1 15:1 17:1 19:1 21:1 24:1 26:1 30:1 31:1 33:1 35:1 38:1 
-128 1:1 4:0.125 5:0.0556962 6:1 8:0.0943396 9:1 11:1 13:1 15:1 17:1 19:1 21:1 23:1 26:1 30:1 31:1 33:1 35:1 37:1 
-0.9960020408862107 1:1 4:0.114583 5:0.0481013 6:1 8:0.0943396 9:1 11:1 13:1 15:1 17:1 19:1 21:1 23:1 26:1 30:1 31:1 33:1 35:1 37:1 
-128 1:1 4:0.0208333 5:0.0379747 6:1 8:0.113208 9:1 11:1 13:1 15:1 17:1 19:1 21:1 25:1 26:1 30:1 31:1 33:1 35:1 37:1 
-5.445994401779922 1:1 4:0.015625 5:0.0202532 6:1 8:0.0943396 9:1 11:1 13:1 15:1 17:1 19:1 21:1 25:1 26:1 30:1 31:1 33:1 35:1 37:1 
-128 1:1 5:0.00253165 6:1 8:0.301887 9:1 11:1 13:1 15:1 17:1 19:1 21:1 24:1 26:1 29:1 31:1 33:1 35:1 37:1 
-1.122080637411705 1:1 4:0.609375 5:0.997468 6:1 8:0.113208 9:1 11:1 13:1 15:1 17:1 19:1 21:1 24:1 26:1 30:1 31:1 33:1 35:1 37:1 
-0.712884382683565 1:1 4:0.369792 5:0.696203 6:1 8:0.188679 9:1 11:1 13:1 15:1 17:1 19:1 21:1 23:1 26:1 30:1 31:1 33:1 35:1 37:1 
-2.557103694076438 1:1 4:0.359375 5:0.675949 6:1 8:0.283019 9:1 11:1 13:1 15:1 17:1 19:1 21:1 25:1 26:1 30:1 31:1 33:1 35:1 37:1 
-64.85187615357464 1:1 4:0.354167 5:0.648101 6:1 8:0.150943 9:1 11:1 13:1 15:1 17:1 19:1 21:1 25:1 26:1 30:1 31:1 33:1 35:1 37:1 
-25.2641816053495 1:1 4:0.34375 5:0.63038 6:1 8:0.264151 9:1 11:1 13:1 15:1 17:1 19:1 21:1 25:1 26:1 30:1 31:1 33:1 35:1 37:1 
-7.652204442123232 1:1 4:0.333333 5:0.607595 6:1 8:0.132075 9:1 11:1 13:1 15:1 17:1 19:1 21:1 24:1 26:1 29:1 31:1 33:1 35:1 37:1 
-1.138031343992172 1:1 4:0.307292 5:0.564557 6:1 8:0.132075 9:1 11:1 13:1 15:1 17:1 19:1 21:1 24:1 26:1 29:1 31:1 33:1 35:1 37:1 
-0.1353592253253341 1:1 4:0.270833 5:0.481013 6:1 8:0.132075 9:1 11:1 13:1 15:1 17:1 19:1 21:1 24:1 26:1 28:1 31:1 33:1 35:1 37:1 
-43.76679944944569 1:1 4:0.270833 5:0.468354 6:1 8:0.150943 9:1 11:1 13:1 15:1 17:1 19:1 21:1 25:1 26:1 30:1 31:1 33:1 35:1 37:1 
-52.78940382070935 1:1 4:0.135417 5:0.205063 6:1 8:0.150943 9:1 11:1 13:1 15:1 17:1 19:1 21:1 25:1 26:1 30:1 31:1 33:1 35:1 37:1 
-32.8491953291678 1:1 5:0.00506329 6:1 8:0.188679 9:1 11:1 13:1 15:1 17:1 19:1 21:1 25:1 26:1 30:1 31:1 33:1 35:1 37:1 
-128 1:1 5:0.00253165 6:1 8:0.301887 9:1 11:1 13:1 15:1 17:1 19:1 21:1 25:1 26:1 30:1 31:1 33:1 35:1 37:1 
-49.18246214442276 1:1 5:0.00506329 6:1 8:0.283019 9:1 11:1 13:1 15:1 17:1 19:1 21:1 25:1 26:1 30:1 31:1 33:1 35:1 37:1 
-128 1:1 4:0.0104167 5:0.0202532 6:1 8:0.0754717 9:1 11:1 13:1 15:1 17:1 19:1 21:1 25:1 26:1 30:1 31:1 33:1 35:1 37:1 
-128 1:1 4:0.00520833 5:0.0126582 7:1 9:1 11:1 13:1 15:1 17:1 19:1 21:1 24:1 26:1 29:1 31:1 33:1 36:1 37:1 
-128 1:1 4:0.00520833 5:0.00506329 7:1 9:1 11:1 13:1 15:1 17:1 19:1 21:1 24:1 26:1 29:1 31:1 33:1 36:1 37:1 
-16.49803728206312 1:1 5:0.00759494 6:1 8:0.0754717 9:1 11:1 13:1 15:1 17:1 19:1 21:1 25:1 26:1 30:1 31:1 33:1 35:1 37:1 
-128 1:1 5:0.00759494 6:1 8:0.358491 9:1 11:1 13:1 15:1 17:1 19:1 21:1 24:1 26:1 30:1 31:1 33:1 35:1 37:1 
-128 1:1 5:0.00253165 6:1 8:0.207547 9:1 11:1 13:1 15:1 17:1 19:1 21:1 25:1 26:1 30:1 31:1 33:1 35:1 37:1 
-74.29983289732832 1:1 6:1 8:0.0377358 9:1 11:1 13:1 15:1 17:1 19:1 21:1 25:1 26:1 30:1 31:1 33:1 36:1 37:1 
-128 1:1 4:0.015625 5:0.0405063 6:1 8:0.0943396 9:1 11:1 13:1 15:1 17:1 19:1 21:1 25:1 26:1 30:1 31:1 33:1 35:1 37:1 
-74.42958705465878 1:1 4:0.322917 5:0.260759 6:1 8:0.377358 9:1 11:1 13:1 15:1 17:1 19:1 21:1 24:1 26:1 30:1 31:1 33:1 35:1 37:1 
-14.92286616844814 1:1 4:0.161458 5:0.126582 6:1 8:0.45283 9:1 11:1 13:1 15:1 17:1 19:1 21:1 24:1 26:1 30:1 31:1 33:1 35:1 37:1 
-128 1:1 4:0.0208333 5:0.00253165 6:1 8:0.0566038 9:1 11:1 13:1 15:1 17:1 19:1 21:1 24:1 26:1 29:1 31:1 33:1 35:1 37:1 
-42.13329196083637 1:1 6:1 8:0.113208 9:1 11:1 13:1 15:1 17:1 19:1 21:1 25:1 26:1 28:1 31:1 33:1 35:1 37:1 
-8.337590111400603 1:1 4:0.0104167 5:0.00253165 6:1 8:0.433962 9:1 11:1 13:1 15:1 17:1 19:1 21:1 25:1 26:1 30:1 31:1 33:1 35:1 37:1 
-128 1:1 4:0.0104167 6:1 8:0.226415 9:1 11:1 13:1 15:1 17:1 19:1 21:1 24:1 26:1 30:1 31:1 33:1 35:1 37:1 
-7.774014501234592 1:1 6:1 8:0.245283 9:1 11:1 13:1 15:1 17:1 19:1 21:1 24:1 26:1 30:1 31:1 33:1 36:1 37:1 
-128 1:1 6:1 8:0.339623 9:1 11:1 13:1 15:1 17:1 19:1 21:1 24:1 26:1 30:1 31:1 33:1 35:1 37:1 
-79.39868248858126 1:1 6:1 8:0.188679 9:1 11:1 13:1 15:1 17:1 19:1 21:1 25:1 26:1 28:1 31:1 33:1 35:1 37:1 
-51.72749663272771 1:1 5:0.0101266 6:1 8:0.0377358 9:1 11:1 13:1 15:1 17:1 19:1 21:1 25:1 26:1 28:1 31:1 33:1 35:1 37:1 
-1.603404140483192 1:1 6:1 8:0.113208 10:1 11:1 13:1 15:1 17:1 19:1 21:1 24:1 26:1 28:1 31:1 33:1 36:1 37:1 
-128 1:1 6:1 8:0.0566038 9:1 11:1 13:1 15:1 17:1 19:1 21:1 25:1 26:1 28:1 31:1 33:1 35:1 37:1 
-0.6433229704613642 1:1 6:1 8:0.0566038 9:1 11:1 13:1 15:1 17:1 19:1 21:1 25:1 26:1 28:1 31:1 33:1 36:1 37:1 
-0.347896299475788 1:1 4:0.03125 5:0.0531646 6:1 8:0.0566038 9:1 11:1 13:1 15:1 17:1 19:1 21:1 25:1 26:1 28:1 31:1 33:1 36:1 37:1 
-0.7374717358258118 1:1 4:0.380208 5:0.435443 6:1 8:0.0566038 9:1 11:1 13:1 15:1 17:1 19:1 21:1 24:1 26:1 28:1 31:1 33:1 36:1 37:1 
-1.307078614513665 1:1 4:0.0729167 5:0.0253165 6:1 8:0.207547 9:1 11:1 13:1 15:1 17:1 19:1 21:1 24:1 26:1 30:1 31:1 33:1 36:1 37:1 
-77.7837333169057 1:1 4:0.0104167 5:0.0151899 6:1 8:0.301887 9:1 11:1 13:1 16:1 17:1 19:1 21:1 24:1 26:1 30:1 31:1 33:1 35:1 37:1 
-1.603440328562597 1:1 4:0.0104167 5:0.00253165 6:1 8:0.283019 9:1 11:1 13:1 16:1 17:1 19:1 21:1 25:1 26:1 30:1 31:1 33:1 36:1 37:1 
-128 1:1 4:0.0729167 5:0.0835443 6:1 8:0.0754717 9:1 11:1 13:1 15:1 17:1 19:1 21:1 24:1 26:1 29:1 31:1 33:1 35:1 37:1 
-128 1:1 5:0.00506329 6:1 8:0.377358 9:1 11:1 13:1 15:1 17:1 19:1 21:1 24:1 26:1 30:1 31:1 33:1 35:1 37:1 
