svm_type c_svc
kernel_type rbf
gamma 0.03125
nr_class 2
total_sv 1251
rho -15.7766
label 1 0
probA -2.82773
probB 0.917881
nr_sv 630 621
SV
2048 1:1 3:0.272727 4:1 5:1 7:1 9:1 12:1 13:0.5 14:1 18:1 19:1 21:1 23:1 25:1 29:1 30:0.404187 31:1 33:1 35:1 39:1 
2048 1:1 3:0.243802 4:1 5:1 7:1 9:1 12:1 13:0.666667 14:1 18:1 19:1 21:1 23:1 25:1 29:1 30:0.421363 31:1 33:1 35:1 39:1 
750.615207165971 1:1 3:0.152893 4:0.25 5:1 8:1 9:1 12:1 13:0.447214 14:1 18:1 19:1 21:1 23:1 25:1 29:1 30:0.404724 31:1 33:1 35:1 39:1 
2048 1:1 3:0.00826446 4:1 5:1 7:1 9:1 11:1 14:1 18:1 19:1 21:1 23:1 25:1 29:1 30:0.0864198 31:1 33:1 35:1 39:1 
2048 1:1 3:0.0123967 4:1 5:1 7:1 9:1 11:1 14:1 18:1 19:1 21:1 23:1 25:1 29:1 30:0.0987654 31:1 33:1 35:1 39:1 
2048 1:1 3:0.107438 4:0.25 5:1 7:1 9:1 11:1 14:1 18:1 19:1 21:1 23:1 25:1 29:1 30:0.170156 31:1 33:1 35:1 39:1 
2048 1:1 3:0.00826446 4:0.75 5:1 7:1 9:1 11:1 14:1 18:1 19:1 21:1 23:1 25:1 29:1 30:0.173376 31:1 33:1 35:1 39:1 
26.44478036135074 1:1 3:0.165289 4:0.75 6:1 7:1 9:1 12:1 13:0.333333 14:1 18:1 19:1 21:1 23:1 25:1 29:1 30:0.24423 31:1 34:1 36:1 39:1 
2048 1:1 3:0.119835 4:1 5:1 7:1 9:1 11:1 14:1 18:1 19:1 21:1 23:1 25:1 29:1 30:0.185185 31:1 33:1 35:1 39:1 
2048 1:1 3:0.107438 4:1 5:1 8:1 9:1 12:1 13:0.5 14:1 18:1 19:1 21:1 23:1 25:1 29:1 30:0.185722 31:1 33:1 35:1 39:1 
2048 1:1 3:0.00826446 4:1 5:1 7:1 9:1 11:1 14:1 18:1 19:1 21:1 23:1 25:1 29:1 30:0.200751 31:1 33:1 35:1 39:1 
2048 2:1 3:0.00826446 4:1 5:1 8:1 9:1 12:1 13:1 15:1 18:1 20:1 21:1 23:1 25:1 29:1 30:0.200751 32:1 33:1 36:1 39:1 
2048 1:1 3:0.00826446 4:1 5:1 7:1 9:1 12:1 13:0.801784 14:1 18:1 19:1 21:1 23:1 25:1 29:1 30:0.0676329 31:1 33:1 35:1 39:1 
2048 1:1 3:0.00413223 4:1 5:1 7:1 9:1 11:1 14:1 18:1 19:1 21:1 23:1 25:1 29:1 30:0.0681696 31:1 33:1 35:1 39:1 
2048 1:1 3:0.140496 4:0.25 5:1 7:1 9:1 11:1 14:1 18:1 19:1 21:1 23:1 25:1 29:1 30:0.113795 31:1 33:1 35:1 39:1 
2048 1:1 3:0.0702479 4:1 5:1 7:1 9:1 11:1 14:1 18:1 19:1 21:1 23:1 25:1 29:1 30:0.125604 31:1 33:1 35:1 39:1 
2048 1:1 4:0.625 5:1 7:1 9:1 11:1 14:1 18:1 19:1 21:1 23:1 25:1 29:1 30:0.112185 31:1 33:1 35:1 39:1 
2048 1:1 3:0.165289 4:0.375 5:1 7:1 9:1 11:1 14:1 18:1 19:1 21:1 23:1 25:1 29:1 30:0.208266 31:1 33:1 35:1 39:1 
2048 1:1 3:0.00826446 4:0.875 5:1 7:1 9:1 12:1 13:0.408248 14:1 18:1 19:1 21:1 23:1 25:1 29:1 30:0.223296 31:1 33:1 35:1 39:1 
2048 1:1 3:0.107438 4:1 5:1 7:1 9:1 12:1 13:0.258199 14:1 18:1 19:1 21:1 23:1 25:1 29:1 30:0.237252 31:1 33:1 35:1 39:1 
2048 1:1 4:1 5:1 7:1 9:1 11:1 14:1 18:1 19:1 21:1 23:1 25:1 29:1 30:0.237789 31:1 33:1 35:1 39:1 
2048 1:1 4:0.875 6:1 7:1 9:1 12:1 13:0.408248 14:1 18:1 19:1 21:1 23:1 25:1 29:1 30:0.307568 31:1 34:1 35:1 39:1 
2048 1:1 3:0.231405 4:0.25 6:1 7:1 9:1 12:1 13:0.408248 14:1 18:1 19:1 21:1 23:1 25:1 29:1 30:0.17767 31:1 33:1 35:1 39:1 
2048 1:1 3:0.00413223 4:0.375 5:1 7:1 9:1 11:1 14:1 18:1 19:1 21:1 23:1 25:1 29:1 30:0.103596 31:1 33:1 35:1 39:1 
2048 1:1 3:0.268595 4:1 5:1 8:1 9:1 12:1 13:0.57735 14:1 18:1 20:1 21:1 23:1 25:1 29:1 30:0.190016 31:1 33:1 35:1 39:1 
2048 1:1 3:0.264463 4:0.125 5:1 7:1 9:1 11:1 14:1 18:1 19:1 21:1 23:1 25:1 29:1 30:0.190016 31:1 33:1 35:1 39:1 
2048 1:1 3:0.00413223 4:0.5 5:1 7:1 9:1 12:1 13:0.75 14:1 18:1 19:1 21:1 23:1 25:1 29:1 30:0.193773 31:1 33:1 35:1 39:1 
482.8772731216995 1:1 3:0.0289256 4:0.75 6:1 8:1 9:1 12:1 13:0.632456 14:1 18:1 19:1 21:1 23:1 25:1 29:1 30:0.0397209 31:1 33:1 35:1 38:1 
2048 1:1 3:0.0330579 4:0.25 5:1 7:1 9:1 11:1 14:1 18:1 19:1 21:1 23:1 25:1 29:1 30:0.0547504 31:1 33:1 35:1 39:1 
2048 1:1 4:0.125 5:1 7:1 9:1 11:1 14:1 18:1 19:1 21:1 23:1 25:1 29:1 30:0.0568975 31:1 33:1 35:1 39:1 
2048 1:1 3:0.00826446 4:0.75 5:1 7:1 9:1 11:1 14:1 18:1 19:1 21:1 23:1 25:1 29:1 30:0.0644122 31:1 33:1 35:1 39:1 
2048 1:1 3:0.0826446 4:1 6:1 7:1 9:1 12:1 13:0.408248 14:1 18:1 19:1 21:1 23:1 25:1 29:1 30:0.0901771 31:1 33:1 35:1 39:1 
2048 1:1 3:0.0991736 4:1 5:1 8:1 9:1 12:1 13:0.707107 14:1 18:1 19:1 21:1 23:1 25:1 29:1 30:0.117552 31:1 33:1 35:1 39:1 
2048 1:1 3:0.0495868 4:1 5:1 7:1 9:1 11:1 14:1 18:1 19:1 21:1 23:1 25:1 29:1 30:0.0982287 31:1 33:1 35:1 39:1 
2048 1:1 3:0.0702479 4:1 5:1 7:1 9:1 11:1 14:1 18:1 19:1 21:1 23:1 25:1 29:1 30:0.0982287 31:1 33:1 35:1 39:1 
2048 1:1 3:0.0371901 4:1 5:1 7:1 9:1 11:1 14:1 18:1 19:1 21:1 23:1 25:1 29:1 30:0.111111 31:1 33:1 35:1 39:1 
2048 2:1 3:0.264463 4:0.625 5:1 7:1 9:1 11:1 14:1 18:1 19:1 21:1 23:1 25:1 29:1 30:0.193773 31:1 34:1 35:1 39:1 
2048 1:1 3:0.00413223 4:1 5:1 7:1 9:1 11:1 14:1 18:1 19:1 21:1 23:1 25:1 29:1 30:0.198068 31:1 33:1 35:1 39:1 
2048 1:1 3:0.0826446 4:1 5:1 7:1 9:1 11:1 14:1 18:1 19:1 21:1 23:1 25:1 29:1 30:0.221685 31:1 33:1 35:1 39:1 
139.9267553887061 2:1 3:0.0661157 4:1 5:1 7:1 9:1 11:1 14:1 18:1 19:1 22:1 23:1 25:1 29:1 30:0.234568 31:1 34:1 35:1 39:1 
70.23649382523371 2:1 3:0.822314 4:1 5:1 8:1 9:1 12:1 13:1 15:1 18:1 19:1 21:1 23:1 25:1 29:1 30:0.284487 32:1 33:1 36:1 39:1 
2048 1:1 4:1 6:1 7:1 9:1 12:1 13:0.353553 14:1 18:1 19:1 21:1 23:1 25:1 29:1 30:0.130972 31:1 33:1 35:1 39:1 
2048 1:1 3:0.822314 4:1 6:1 7:1 9:1 12:1 13:0.353553 14:1 18:1 19:1 21:1 23:1 25:1 29:1 30:0.284487 31:1 33:1 35:1 39:1 
2048 1:1 3:0.268595 4:0.625 5:1 7:1 9:1 11:1 14:1 18:1 19:1 21:1 23:1 25:1 29:1 30:0.215781 31:1 33:1 35:1 39:1 
2048 1:1 3:0.0123967 4:1 5:1 7:1 9:1 11:1 14:1 18:1 19:1 21:1 23:1 25:1 29:1 30:0.232421 31:1 33:1 35:1 39:1 
2048 1:1 3:0.330579 4:1 5:1 7:1 9:1 11:1 14:1 18:1 19:1 21:1 23:1 25:1 29:1 30:0.288245 31:1 33:1 35:1 39:1 
2048 1:1 3:0.0247934 4:1 5:1 7:1 9:1 11:1 14:1 17:1 19:1 21:1 23:1 25:1 29:1 30:0.275362 31:1 33:1 35:1 39:1 
2048 1:1 3:0.00826446 4:0.875 5:1 7:1 9:1 11:1 14:1 18:1 19:1 21:1 23:1 25:1 29:1 30:0.290392 31:1 33:1 35:1 39:1 
2048 1:1 4:1 6:1 7:1 9:1 12:1 13:0.353553 14:1 18:1 19:1 21:1 23:1 25:1 29:1 30:0.290392 31:1 33:1 35:1 39:1 
10.55390428599645 1:1 3:0.00413223 4:0.25 5:1 8:1 9:1 12:1 13:0.5 14:1 18:1 19:1 21:1 23:1 25:1 29:1 30:0.0730005 31:1 33:1 36:1 39:1 
2048 1:1 3:0.00413223 4:0.375 5:1 7:1 9:1 11:1 14:1 18:1 19:1 21:1 23:1 25:1 29:1 30:0.0730005 31:1 33:1 35:1 39:1 
2048 1:1 4:0.875 5:1 7:1 9:1 11:1 14:1 18:1 19:1 21:1 23:1 25:1 29:1 30:0.0730005 31:1 33:1 35:1 39:1 
2048 1:1 4:0.625 5:1 7:1 9:1 11:1 14:1 18:1 19:1 21:1 23:1 25:1 28:1 30:0.0730005 31:1 34:1 35:1 39:1 
2048 1:1 3:0.0661157 4:1 6:1 7:1 9:1 12:1 13:0.408248 14:1 18:1 19:1 21:1 23:1 25:1 29:1 30:0.0542136 31:1 33:1 35:1 39:1 
2048 1:1 3:0.103306 4:1 5:1 7:1 9:1 11:1 14:1 18:1 19:1 21:1 23:1 25:1 29:1 30:0.0542136 31:1 33:1 35:1 39:1 
26.93816866298464 1:1 3:0.00413223 4:0.375 6:1 7:1 9:1 12:1 13:0.67082 14:1 17:1 19:1 21:1 23:1 25:1 29:1 30:0.0542136 31:1 33:1 35:1 38:1 
2048 1:1 3:0.0371901 4:1 6:1 7:1 9:1 12:1 13:0.408248 14:1 18:1 19:1 21:1 23:1 25:1 29:1 30:0.0542136 31:1 33:1 35:1 39:1 
2048 1:1 3:0.202479 4:1 5:1 8:1 9:1 12:1 13:0.57735 14:1 18:1 19:1 21:1 23:1 25:1 29:1 30:0.115405 31:1 33:1 35:1 39:1 
188.0376160848367 2:1 3:0.00413223 4:0.625 5:1 8:1 9:1 12:1 13:0.707107 15:1 18:1 19:1 21:1 23:1 26:1 29:1 30:0.118626 32:1 33:1 36:1 39:1 
2048 1:1 3:0.00413223 4:1 5:1 7:1 9:1 11:1 14:1 18:1 19:1 21:1 23:1 25:1 29:1 30:0.118626 31:1 33:1 35:1 39:1 
2048 1:1 4:0.25 5:1 7:1 9:1 11:1 14:1 18:1 19:1 21:1 23:1 25:1 29:1 30:0.118626 31:1 33:1 35:1 39:1 
2048 1:1 4:0.75 5:1 7:1 9:1 11:1 14:1 18:1 19:1 21:1 23:1 25:1 29:1 30:0.118626 31:1 33:1 35:1 39:1 
2048 1:1 3:0.00413223 4:0.625 5:1 7:1 9:1 12:1 13:0.333333 14:1 18:1 19:1 21:1 23:1 25:1 29:1 30:0.118626 31:1 33:1 35:1 39:1 
2048 1:1 4:1 5:1 7:1 9:1 11:1 14:1 18:1 19:1 21:1 23:1 25:1 29:1 30:0.118626 31:1 34:1 35:1 39:1 
2048 1:1 4:1 5:1 7:1 9:1 11:1 14:1 18:1 19:1 21:1 23:1 25:1 29:1 30:0.118626 31:1 34:1 35:1 39:1 
2048 1:1 3:0.0578512 4:1 5:1 7:1 9:1 12:1 13:0.408248 14:1 18:1 19:1 21:1 23:1 25:1 29:1 30:0.0746108 31:1 33:1 35:1 39:1 
2048 1:1 3:0.00826446 4:0.25 5:1 7:1 9:1 12:1 13:0.5 14:1 18:1 19:1 21:1 23:1 25:1 29:1 30:0.064949 31:1 33:1 35:1 39:1 
2048 1:1 3:0.214876 4:0.75 5:1 7:1 9:1 12:1 13:0.5 14:1 18:1 19:1 21:1 23:1 25:1 29:1 30:0.136339 31:1 33:1 35:1 39:1 
34.1597432155097 1:1 3:0.107438 6:1 8:1 10:1 12:1 13:1 15:1 18:1 19:1 21:1 23:1 25:1 29:1 30:0.170692 32:1 33:1 36:1 39:1 
2048 1:1 3:0.0123967 4:1 5:1 7:1 10:1 11:1 14:1 18:1 19:1 21:1 23:1 25:1 29:1 30:0.140097 31:1 33:1 35:1 39:1 
2048 1:1 3:0.0123967 4:0.625 5:1 7:1 9:1 11:1 14:1 18:1 19:1 21:1 23:1 25:1 29:1 30:0.140097 31:1 33:1 35:1 39:1 
2048 1:1 3:0.00826446 4:1 6:1 7:1 9:1 12:1 13:0.5 14:1 18:1 19:1 21:1 23:1 25:1 29:1 30:0.085883 31:1 33:1 35:1 39:1 
1108.963297659585 1:1 3:0.107438 4:0.25 5:1 8:1 9:1 12:1 13:0.377964 14:1 18:1 19:1 21:1 23:1 25:1 29:1 30:0.127214 31:1 33:1 35:1 39:1 
2048 1:1 3:0.00413223 4:0.625 5:1 7:1 9:1 11:1 14:1 18:1 19:1 21:1 23:1 25:1 29:1 30:0.0864198 31:1 33:1 35:1 39:1 
2048 1:1 3:0.0785124 4:0.875 5:1 7:1 9:1 11:1 14:1 18:1 19:1 21:1 23:1 25:1 29:1 30:0.127214 31:1 33:1 35:1 39:1 
2048 1:1 3:0.00413223 4:0.625 6:1 7:1 9:1 12:1 13:0.5 14:1 18:1 19:1 21:1 23:1 25:1 29:1 30:0.129361 31:1 33:1 35:1 39:1 
2048 1:1 3:0.0867769 4:1 5:1 7:1 9:1 12:1 13:0.353553 14:1 18:1 19:1 21:1 23:1 25:1 29:1 30:0.112721 31:1 33:1 35:1 39:1 
1769.329513230124 1:1 3:0.0165289 4:1 5:1 8:1 9:1 12:1 13:0.707107 14:1 18:1 19:1 21:1 23:1 25:1 29:1 30:0.255502 31:1 33:1 35:1 39:1 
2048 1:1 3:0.00826446 4:0.5 5:1 7:1 9:1 12:1 13:0.267261 14:1 18:1 19:1 21:1 23:1 25:1 29:1 30:0.255502 31:1 33:1 35:1 39:1 
2048 1:1 3:0.0371901 4:0.875 5:1 7:1 9:1 11:1 14:1 18:1 19:1 21:1 23:1 25:1 29:1 30:0.268384 31:1 33:1 35:1 39:1 
2048 1:1 3:0.219008 4:0.75 5:1 7:1 9:1 12:1 13:0.288675 14:1 18:1 19:1 21:1 23:1 25:1 29:1 30:0.152979 31:1 33:1 35:1 39:1 
2048 1:1 3:0.0206612 4:1 5:1 7:1 9:1 11:1 14:1 18:1 19:1 21:1 23:1 25:1 29:1 30:0.152979 31:1 33:1 35:1 39:1 
2048 1:1 3:0.0826446 4:1 5:1 8:1 9:1 12:1 13:0.707107 14:1 18:1 19:1 21:1 23:1 25:1 29:1 30:0.177134 31:1 33:1 35:1 39:1 
2048 1:1 3:0.00413223 4:1 5:1 7:1 9:1 11:1 14:1 18:1 19:1 21:1 23:1 25:1 29:1 30:0.407944 31:1 33:1 35:1 39:1 
2048 1:1 3:0.0743802 4:0.5 5:1 7:1 9:1 12:1 13:0.447214 14:1 18:1 19:1 21:1 23:1 25:1 29:1 30:0.0563607 31:1 33:1 35:1 39:1 
2048 1:1 3:0.00826446 5:1 7:1 9:1 12:1 13:0.707107 14:1 18:1 19:1 21:1 23:1 25:1 29:1 30:0.064949 31:1 33:1 35:1 39:1 
2048 1:1 3:0.0123967 4:0.375 5:1 7:1 9:1 11:1 14:1 18:1 19:1 21:1 23:1 25:1 29:1 30:0.064949 31:1 33:1 35:1 39:1 
2048 1:1 3:0.152893 4:0.125 5:1 7:1 9:1 11:1 14:1 18:1 19:1 21:1 23:1 25:1 29:1 30:0.139023 31:1 33:1 35:1 39:1 
2048 1:1 3:0.00413223 4:0.375 5:1 7:1 9:1 12:1 13:0.235702 14:1 18:1 19:1 21:1 23:1 25:1 29:1 30:0.142244 31:1 33:1 35:1 39:1 
2048 1:1 3:0.0702479 4:0.5 5:1 7:1 9:1 11:1 14:1 18:1 19:1 21:1 23:1 25:1 29:1 30:0.142244 31:1 33:1 35:1 39:1 
2048 1:1 3:0.123967 4:0.875 6:1 7:1 9:1 12:1 13:0.408248 14:1 18:1 19:1 21:1 23:1 25:1 29:1 30:0.216318 31:1 33:1 35:1 39:1 
2048 1:1 3:0.00413223 4:0.625 5:1 7:1 9:1 11:1 14:1 18:1 19:1 21:1 23:1 25:1 29:1 30:0.0606549 31:1 34:1 35:1 39:1 
2048 1:1 3:0.107438 4:0.25 5:1 7:1 9:1 12:1 13:0.67082 14:1 17:1 19:1 21:1 23:1 25:1 29:1 30:0.177134 31:1 33:1 35:1 39:1 
2048 1:1 3:0.00413223 4:0.375 5:1 7:1 9:1 11:1 14:1 18:1 19:1 21:1 23:1 25:1 29:1 30:0.193773 31:1 33:1 35:1 39:1 
2048 1:1 3:0.136364 4:0.875 5:1 7:1 9:1 11:1 14:1 18:1 19:1 21:1 23:1 25:1 29:1 30:0.230811 31:1 34:1 36:1 39:1 
2048 1:1 4:1 5:1 7:1 9:1 11:1 14:1 18:1 19:1 21:1 23:1 25:1 29:1 30:0.193773 31:1 33:1 35:1 39:1 
2048 1:1 3:0.0867769 4:1 5:1 7:1 9:1 11:1 14:1 18:1 19:1 21:1 23:1 25:1 29:1 30:0.218465 31:1 33:1 35:1 39:1 
2048 1:1 4:1 5:1 7:1 9:1 11:1 14:1 18:1 19:1 21:1 23:1 25:1 29:1 30:0.193773 31:1 33:1 35:1 39:1 
2048 1:1 4:1 5:1 7:1 9:1 11:1 14:1 18:1 19:1 21:1 23:1 25:1 29:1 30:0.232421 31:1 33:1 35:1 39:1 
2048 1:1 4:1 5:1 7:1 9:1 11:1 14:1 18:1 19:1 21:1 23:1 25:1 29:1 30:0.231347 31:1 33:1 35:1 39:1 
2048 1:1 3:1 4:1 5:1 7:1 9:1 11:1 14:1 18:1 19:1 21:1 23:1 25:1 29:1 30:0.727322 31:1 33:1 35:1 39:1 
2048 1:1 3:0.0289256 4:1 5:1 7:1 9:1 11:1 14:1 18:1 19:1 21:1 23:1 25:1 29:1 30:0.231347 31:1 33:1 35:1 39:1 
2048 1:1 3:0.979339 4:1 5:1 7:1 9:1 11:1 14:1 18:1 19:1 21:1 23:1 25:1 29:1 30:0.727322 31:1 33:1 35:1 39:1 
2048 1:1 3:0.107438 4:1 5:1 7:1 9:1 11:1 14:1 18:1 19:1 21:1 23:1 25:1 29:1 30:0.253892 31:1 33:1 35:1 39:1 
2048 1:1 3:0.00826446 4:1 5:1 7:1 9:1 12:1 13:0.288675 14:1 18:1 19:1 21:1 23:1 25:1 29:1 30:0.231347 31:1 33:1 35:1 39:1 
2048 1:1 3:0.417355 4:0.625 5:1 7:1 9:1 11:1 14:1 18:1 19:1 21:1 23:1 25:1 29:1 30:0.389157 31:1 33:1 35:1 39:1 
1798.919299091305 1:1 3:0.252066 4:1 5:1 8:1 9:1 12:1 13:1 15:1 18:1 19:1 21:1 23:1 25:1 29:1 30:0.344069 31:1 33:1 35:1 39:1 
2048 1:1 3:0.917355 4:1 5:1 8:1 9:1 12:1 13:1 15:1 18:1 19:1 21:1 23:1 25:1 29:1 30:0.727858 31:1 33:1 35:1 39:1 
2048 1:1 3:0.053719 4:1 5:1 7:1 9:1 11:1 14:1 18:1 19:1 21:1 23:1 25:1 29:1 30:0.369297 31:1 33:1 35:1 39:1 
2048 1:1 3:0.549587 4:1 5:1 7:1 9:1 11:1 14:1 18:1 19:1 21:1 23:1 25:1 29:1 30:0.730542 31:1 33:1 35:1 39:1 
2048 1:1 3:0.644628 4:0.75 5:1 7:1 9:1 12:1 13:0.288675 14:1 18:1 19:1 21:1 23:1 25:1 29:1 30:0.731079 31:1 33:1 35:1 39:1 
2048 1:1 3:0.0371901 4:0.875 5:1 7:1 9:1 11:1 14:1 18:1 19:1 21:1 23:1 25:1 29:1 30:0.392915 31:1 33:1 35:1 39:1 
2048 1:1 3:0.119835 4:1 5:1 7:1 9:1 11:1 14:1 18:1 19:1 21:1 23:1 25:1 29:1 30:0.460548 31:1 33:1 35:1 39:1 
2048 1:1 3:0.454545 4:1 5:1 7:1 9:1 12:1 13:0.5 14:1 18:1 19:1 21:1 23:1 25:1 29:1 30:0.732689 31:1 33:1 35:1 39:1 
2048 1:1 3:0.280992 4:1 5:1 8:1 9:1 12:1 13:0.707107 14:1 18:1 19:1 21:1 23:1 25:1 29:1 30:0.733226 31:1 33:1 35:1 38:1 
2048 1:1 4:1 5:1 7:1 9:1 11:1 14:1 18:1 19:1 21:1 23:1 25:1 29:1 30:0.73913 31:1 33:1 35:1 39:1 
1371.371960974406 1:1 3:0.256198 4:1 5:1 8:1 9:1 12:1 13:1 15:1 18:1 19:1 21:1 23:1 25:1 29:1 30:0.829308 31:1 33:1 35:1 39:1 
2048 1:1 3:0.161157 4:1 5:1 7:1 9:1 11:1 14:1 18:1 19:1 21:1 23:1 25:1 29:1 30:0.73913 31:1 33:1 35:1 39:1 
49.6990169696282 2:1 3:0.0289256 4:1 6:1 8:1 9:1 12:1 13:1 15:1 18:1 20:1 21:1 23:1 26:1 29:1 30:0.73913 32:1 33:1 36:1 39:1 
2048 1:1 3:0.18595 4:1 5:1 7:1 9:1 11:1 14:1 18:1 19:1 21:1 23:1 25:1 29:1 30:0.806763 31:1 33:1 35:1 39:1 
2048 1:1 3:0.103306 4:1 5:1 7:1 9:1 11:1 14:1 18:1 19:1 21:1 23:1 25:1 29:1 30:0.851852 31:1 33:1 35:1 39:1 
791.3541628919983 1:1 3:0.103306 4:1 6:1 8:1 9:1 12:1 13:0.816497 14:1 18:1 19:1 21:1 23:1 25:1 29:1 30:0.851852 31:1 33:1 35:1 39:1 
2048 1:1 3:0.0371901 4:1 5:1 7:1 9:1 11:1 14:1 18:1 19:1 21:1 23:1 25:1 29:1 30:0.853462 31:1 33:1 35:1 39:1 
820.6739642265049 1:1 3:0.00826446 4:1 5:1 8:1 9:1 12:1 13:1 15:1 18:1 19:1 21:1 23:1 25:1 29:1 30:0.853999 31:1 33:1 35:1 39:1 
2048 1:1 3:0.363636 4:0.5 5:1 7:1 10:1 12:1 13:0.666667 14:1 18:1 19:1 21:1 23:1 25:1 29:1 30:0.277509 31:1 33:1 35:1 39:1 
2048 1:1 3:0.0123967 4:1 5:1 7:1 9:1 11:1 14:1 18:1 19:1 21:1 23:1 25:1 29:1 30:0.100376 31:1 33:1 35:1 39:1 
2048 1:1 3:0.0247934 4:1 5:1 7:1 9:1 11:1 14:1 18:1 19:1 21:1 23:1 26:1 29:1 30:0.116479 31:1 33:1 35:1 39:1 
1453.551096377058 1:1 3:0.11157 4:1 5:1 8:1 9:1 12:1 13:0.707107 14:1 18:1 20:1 21:1 23:1 25:1 29:1 30:0.181428 31:1 33:1 35:1 39:1 
2048 1:1 3:0.11157 4:1 5:1 8:1 9:1 12:1 13:0.707107 14:1 18:1 20:1 21:1 23:1 25:1 29:1 30:0.181428 31:1 33:1 35:1 39:1 
2048 1:1 3:0.00826446 4:1 5:1 7:1 9:1 11:1 14:1 18:1 19:1 21:1 23:1 25:1 29:1 30:0.10306 31:1 33:1 35:1 39:1 
2048 1:1 3:0.0619835 4:0.875 5:1 7:1 9:1 12:1 13:0.288675 14:1 18:1 19:1 21:1 23:1 25:1 29:1 30:0.115942 31:1 33:1 35:1 39:1 
2048 1:1 3:0.128099 4:1 5:1 7:1 9:1 12:1 13:0.5 14:1 18:1 19:1 21:1 23:1 25:1 29:1 30:0.165325 31:1 33:1 35:1 39:1 
2048 1:1 3:0.210744 4:1 5:1 8:1 9:1 12:1 13:0.57735 14:1 18:1 19:1 21:1 23:1 25:1 29:1 30:0.202362 31:1 33:1 35:1 39:1 
2048 1:1 3:0.177686 4:1 5:1 8:1 9:1 12:1 13:0.408248 14:1 18:1 19:1 21:1 23:1 25:1 29:1 30:0.202899 31:1 33:1 35:1 39:1 
2048 1:1 3:0.177686 4:1 5:1 7:1 9:1 11:1 14:1 18:1 19:1 21:1 23:1 25:1 29:1 30:0.202899 31:1 33:1 35:1 39:1 
2048 1:1 3:0.297521 4:0.625 5:1 8:1 9:1 12:1 13:0.57735 14:1 18:1 19:1 21:1 23:1 25:1 29:1 30:0.205582 31:1 33:1 35:1 39:1 
2048 1:1 3:0.231405 4:1 5:1 7:1 9:1 11:1 14:1 18:1 19:1 21:1 23:1 25:1 29:1 30:0.206656 31:1 33:1 35:1 39:1 
2048 1:1 3:0.00826446 4:0.25 5:1 7:1 9:1 11:1 14:1 18:1 19:1 21:1 23:1 25:1 29:1 30:0.206656 31:1 33:1 35:1 39:1 
2048 1:1 3:0.053719 4:0.75 5:1 7:1 9:1 11:1 14:1 18:1 19:1 21:1 23:1 25:1 29:1 30:0.206656 31:1 33:1 35:1 39:1 
2048 1:1 3:0.206612 4:1 5:1 7:1 9:1 11:1 14:1 18:1 19:1 21:1 23:1 25:1 29:1 30:0.206656 31:1 33:1 35:1 39:1 
2048 1:1 3:0.0826446 4:1 5:1 7:1 9:1 11:1 14:1 18:1 19:1 21:1 23:1 25:1 29:1 30:0.206656 31:1 33:1 35:1 39:1 
2048 1:1 4:1 5:1 7:1 9:1 11:1 14:1 18:1 19:1 21:1 23:1 25:1 29:1 30:0.206656 31:1 33:1 35:1 39:1 
2048 1:1 3:0.00826446 4:1 5:1 7:1 9:1 11:1 14:1 18:1 19:1 21:1 23:1 25:1 29:1 30:0.206656 31:1 33:1 35:1 39:1 
2048 1:1 4:1 5:1 7:1 9:1 11:1 14:1 17:1 19:1 21:1 23:1 25:1 29:1 30:0.206656 31:1 33:1 35:1 39:1 
1047.988497143771 2:1 3:0.053719 4:1 5:1 8:1 9:1 12:1 13:1 15:1 18:1 19:1 21:1 23:1 25:1 29:1 30:0.206656 32:1 33:1 36:1 39:1 
2048 1:1 3:0.00413223 4:0.875 6:1 7:1 9:1 12:1 13:0.353553 14:1 18:1 19:1 21:1 23:1 25:1 29:1 30:0.206656 31:1 33:1 35:1 39:1 
2048 1:1 3:0.0165289 4:1 5:1 8:1 9:1 12:1 13:0.707107 14:1 18:1 19:1 21:1 23:1 25:1 29:1 30:0.206656 31:1 33:1 35:1 39:1 
2048 1:1 3:0.00413223 4:1 5:1 7:1 9:1 11:1 14:1 18:1 19:1 21:1 23:1 25:1 29:1 30:0.206656 31:1 33:1 35:1 39:1 
2048 1:1 3:0.272727 4:1 5:1 8:1 9:1 12:1 13:0.5 14:1 18:1 19:1 21:1 23:1 25:1 29:1 30:0.498658 31:1 33:1 35:1 39:1 
2048 1:1 3:0.173554 4:1 5:1 7:1 9:1 11:1 14:1 18:1 19:1 21:1 23:1 25:1 29:1 30:0.504563 31:1 33:1 35:1 39:1 
2048 1:1 3:0.053719 4:0.75 5:1 7:1 9:1 11:1 14:1 18:1 19:1 21:1 23:1 25:1 29:1 30:0.507783 31:1 33:1 35:1 39:1 
2048 1:1 3:0.0619835 4:0.875 5:1 7:1 9:1 11:1 14:1 18:1 19:1 21:1 23:1 25:1 28:1 30:0.0869565 31:1 33:1 35:1 39:1 
2033.584329326104 1:1 3:0.0661157 4:0.875 5:1 8:1 9:1 12:1 13:0.5 14:1 18:1 19:1 21:1 23:1 25:1 27:1 30:0.0869565 31:1 33:1 35:1 39:1 
73.2542712761079 2:1 3:0.169421 4:1 5:1 8:1 9:1 12:1 13:1 15:1 18:1 20:1 21:1 23:1 25:1 29:1 30:0.215244 32:1 33:1 36:1 39:1 
2048 1:1 3:0.210744 4:1 5:1 7:1 9:1 11:1 14:1 18:1 19:1 22:1 24:1 25:1 29:1 30:0.257112 31:1 34:1 35:1 39:1 
1939.759818260558 2:1 4:1 5:1 8:1 9:1 12:1 13:1 15:1 18:1 20:1 21:1 23:1 25:1 29:1 30:0.217928 32:1 34:1 36:1 39:1 
2048 1:1 3:0.0909091 4:0.875 5:1 7:1 9:1 11:1 14:1 18:1 19:1 22:1 24:1 25:1 29:1 30:0.259796 31:1 33:1 35:1 39:1 
425.9443346855574 1:1 3:0.309917 4:1 5:1 7:1 9:1 11:1 14:1 18:1 19:1 22:1 23:1 25:1 29:1 30:0.280193 31:1 34:1 36:1 39:1 
472.723331332566 1:1 3:0.103306 4:1 5:1 7:1 9:1 11:1 14:1 18:1 19:1 21:1 24:1 25:1 29:1 30:0.373054 31:1 34:1 36:1 39:1 
19.990093077578 1:1 3:0.0909091 4:1 5:1 7:1 9:1 11:1 14:1 18:1 19:1 22:1 24:1 25:1 29:1 30:0.373054 32:1 33:1 36:1 39:1 
2048 1:1 3:0.00413223 4:0.5 5:1 7:1 9:1 12:1 13:0.267261 14:1 18:1 19:1 21:1 23:1 25:1 29:1 30:0.112721 31:1 33:1 35:1 39:1 
2048 1:1 3:0.00413223 4:0.625 5:1 7:1 9:1 11:1 14:1 18:1 19:1 21:1 23:1 25:1 29:1 30:0.112721 31:1 33:1 35:1 39:1 
2048 1:1 4:1 5:1 7:1 9:1 11:1 14:1 18:1 19:1 21:1 23:1 25:1 29:1 30:0.0681696 31:1 33:1 35:1 39:1 
2048 1:1 4:1 5:1 7:1 9:1 11:1 14:1 18:1 19:1 21:1 23:1 25:1 28:1 30:0.0756844 31:1 33:1 35:1 39:1 
2048 1:1 3:0.0909091 4:1 5:1 8:1 9:1 12:1 13:0.447214 14:1 18:1 19:1 21:1 23:1 25:1 29:1 30:0.135802 31:1 33:1 35:1 39:1 
2048 2:1 4:1 5:1 8:1 9:1 12:1 13:1 15:1 18:1 19:1 21:1 23:1 25:1 29:1 30:0.140097 32:1 34:1 36:1 39:1 
2048 1:1 3:0.0413223 4:0.25 5:1 8:1 9:1 12:1 13:0.57735 14:1 18:1 19:1 21:1 23:1 25:1 29:1 30:0.0987654 31:1 33:1 35:1 39:1 
2048 1:1 3:0.355372 4:1 5:1 8:1 9:1 12:1 13:0.707107 14:1 18:1 19:1 21:1 23:1 25:1 29:1 30:0.170156 31:1 33:1 35:1 39:1 
2048 1:1 3:0.0743802 4:0.75 5:1 7:1 9:1 11:1 14:1 18:1 19:1 21:1 23:1 25:1 29:1 30:0.146538 31:1 33:1 35:1 39:1 
2048 1:1 3:0.0247934 4:1 5:1 7:1 9:1 11:1 14:1 18:1 19:1 21:1 23:1 25:1 29:1 30:0.185185 31:1 33:1 35:1 39:1 
2048 1:1 3:0.0289256 4:1 5:1 7:1 9:1 11:1 14:1 18:1 19:1 21:1 23:1 25:1 29:1 30:0.185722 31:1 33:1 35:1 39:1 
959.404762757086 1:1 4:1 6:1 8:1 10:1 12:1 13:1 15:1 18:1 19:1 21:1 23:1 25:1 29:1 30:0.185722 31:1 33:1 35:1 39:1 
2048 1:1 3:0.0371901 4:0.625 5:1 7:1 9:1 11:1 14:1 18:1 19:1 21:1 23:1 25:1 29:1 30:0.185722 31:1 33:1 35:1 39:1 
198.7666619370578 2:1 3:0.0702479 4:0.875 6:1 8:1 9:1 12:1 13:0.707107 15:1 18:1 20:1 21:1 23:1 25:1 29:1 30:0.197531 32:1 33:1 36:1 39:1 
2048 1:1 3:0.22314 4:0.375 6:1 7:1 9:1 12:1 13:0.408248 14:1 18:1 19:1 21:1 23:1 25:1 29:1 30:0.17767 31:1 33:1 35:1 39:1 
2048 1:1 3:0.0289256 4:1 6:1 7:1 9:1 12:1 13:0.408248 14:1 18:1 19:1 21:1 23:1 25:1 29:1 30:0.105743 31:1 33:1 35:1 39:1 
2048 1:1 3:0.0206612 4:1 5:1 7:1 9:1 11:1 14:1 18:1 19:1 21:1 23:1 25:1 29:1 30:0.120236 31:1 33:1 35:1 39:1 
1317.403102425976 2:1 3:0.0702479 4:1 5:1 7:1 9:1 11:1 14:1 18:1 19:1 21:1 23:1 25:1 29:1 30:0.285561 32:1 33:1 36:1 39:1 
2048 1:1 3:0.0123967 4:1 5:1 7:1 9:1 11:1 14:1 18:1 19:1 21:1 23:1 25:1 29:1 30:0.30059 31:1 33:1 35:1 39:1 
2048 1:1 3:0.107438 4:1 5:1 7:1 9:1 12:1 13:0.447214 14:1 18:1 19:1 21:1 23:1 25:1 29:1 30:0.0848094 31:1 33:1 35:1 39:1 
2048 1:1 3:0.103306 5:1 7:1 9:1 12:1 13:0.8 14:1 18:1 19:1 21:1 23:1 25:1 29:1 30:0.0848094 31:1 33:1 35:1 39:1 
2048 1:1 3:0.0495868 4:0.375 5:1 7:1 9:1 12:1 13:0.258199 14:1 18:1 19:1 21:1 23:1 25:1 29:1 30:0.0676329 31:1 33:1 35:1 39:1 
2048 1:1 3:0.0371901 4:1 6:1 7:1 9:1 12:1 13:0.5 14:1 18:1 19:1 21:1 23:1 25:1 29:1 30:0.0864198 31:1 33:1 35:1 39:1 
2048 1:1 3:0.0495868 4:1 5:1 7:1 9:1 11:1 14:1 18:1 19:1 21:1 23:1 25:1 29:1 30:0.0864198 31:1 34:1 35:1 39:1 
2048 1:1 3:0.00413223 4:1 5:1 7:1 9:1 11:1 14:1 18:1 19:1 21:1 23:1 25:1 29:1 30:0.0864198 31:1 33:1 35:1 39:1 
1997.664123903125 2:1 3:0.0413223 4:1 5:1 8:1 9:1 12:1 13:1 15:1 18:1 20:1 21:1 23:1 25:1 29:1 30:0.173913 32:1 33:1 36:1 39:1 
2048 1:1 4:0.25 5:1 7:1 9:1 11:1 14:1 18:1 19:1 21:1 23:1 25:1 29:1 30:0.173913 31:1 33:1 35:1 39:1 
2048 1:1 3:0.0371901 4:1 5:1 7:1 9:1 12:1 13:0.353553 14:1 18:1 19:1 21:1 23:1 25:1 29:1 30:0.120773 31:1 33:1 35:1 39:1 
2048 1:1 3:0.115702 4:0.75 5:1 7:1 9:1 12:1 13:0.408248 14:1 18:1 19:1 21:1 23:1 25:1 29:1 30:0.0552872 31:1 33:1 35:1 39:1 
2048 1:1 3:0.0867769 4:1 5:1 7:1 9:1 11:1 14:1 18:1 19:1 21:1 23:1 25:1 29:1 30:0.0810521 31:1 34:1 35:1 39:1 
2048 1:1 3:0.00413223 4:0.625 5:1 7:1 9:1 11:1 14:1 18:1 19:1 21:1 23:1 25:1 29:1 30:0.0831991 31:1 33:1 35:1 39:1 
2048 1:1 3:0.0289256 4:1 5:1 7:1 9:1 12:1 13:0.516398 14:1 18:1 19:1 21:1 23:1 25:1 29:1 30:0.168545 31:1 33:1 35:1 39:1 
2048 1:1 3:0.0165289 4:1 5:1 7:1 9:1 12:1 13:0.288675 14:1 18:1 19:1 21:1 23:1 25:1 29:1 30:0.169082 31:1 33:1 35:1 39:1 
2048 1:1 3:0.00413223 4:0.625 5:1 7:1 9:1 11:1 14:1 18:1 19:1 21:1 23:1 25:1 29:1 30:0.169619 31:1 33:1 35:1 39:1 
2048 1:1 3:0.322314 4:1 5:1 7:1 9:1 11:1 14:1 18:1 19:1 21:1 23:1 25:1 29:1 30:0.119163 31:1 33:1 35:1 39:1 
2048 1:1 3:0.252066 4:1 5:1 7:1 9:1 11:1 14:1 18:1 19:1 21:1 23:1 25:1 29:1 30:0.120773 31:1 34:1 35:1 39:1 
2048 1:1 3:0.272727 4:0.625 5:1 7:1 9:1 11:1 14:1 18:1 19:1 21:1 23:1 25:1 29:1 30:0.120773 31:1 34:1 35:1 39:1 
1599.351153655258 2:1 3:0.0206612 4:1 5:1 8:1 9:1 12:1 13:1 15:1 18:1 19:1 21:1 23:1 25:1 29:1 30:0.12292 32:1 33:1 36:1 39:1 
2048 1:1 3:0.0165289 4:1 5:1 7:1 9:1 11:1 14:1 18:1 19:1 21:1 23:1 25:1 29:1 30:0.0756844 31:1 33:1 35:1 39:1 
2048 1:1 4:1 5:1 7:1 9:1 11:1 14:1 18:1 19:1 21:1 23:1 25:1 29:1 30:0.0756844 31:1 33:1 35:1 39:1 
2048 1:1 3:0.00413223 4:1 5:1 7:1 9:1 11:1 14:1 18:1 19:1 21:1 23:1 25:1 29:1 30:0.116479 31:1 33:1 35:1 39:1 
2048 1:1 3:0.0165289 4:1 5:1 7:1 9:1 11:1 14:1 18:1 19:1 21:1 23:1 25:1 29:1 30:0.0837359 31:1 33:1 35:1 39:1 
2048 1:1 3:0.289256 4:1 5:1 8:1 9:1 12:1 13:0.707107 14:1 18:1 19:1 21:1 23:1 25:1 29:1 30:0.373591 31:1 33:1 35:1 39:1 
1417.613732961942 1:1 3:0.309917 4:1 5:1 8:1 9:1 12:1 13:0.707107 14:1 18:1 19:1 21:1 23:1 25:1 29:1 30:0.390231 31:1 33:1 35:1 39:1 
2048 1:1 3:0.190083 4:1 5:1 7:1 9:1 11:1 14:1 18:1 19:1 21:1 23:1 25:1 29:1 30:0.392378 31:1 34:1 35:1 39:1 
2048 1:1 3:0.18595 4:1 5:1 7:1 9:1 11:1 14:1 18:1 19:1 21:1 23:1 25:1 29:1 30:0.392378 31:1 34:1 35:1 39:1 
2048 1:1 3:0.0123967 4:1 5:1 7:1 9:1 11:1 14:1 18:1 19:1 21:1 23:1 25:1 29:1 30:0.399356 31:1 33:1 35:1 39:1 
2048 1:1 3:0.0826446 4:0.25 5:1 7:1 9:1 12:1 13:0.5 14:1 18:1 19:1 21:1 23:1 25:1 29:1 30:0.399893 31:1 33:1 35:1 39:1 
2048 1:1 3:0.119835 4:1 5:1 7:1 9:1 11:1 14:1 18:1 19:1 21:1 23:1 25:1 29:1 30:0.432099 31:1 34:1 35:1 39:1 
256.3375014900012 2:1 3:0.053719 4:0.625 6:1 8:1 9:1 12:1 13:0.816497 15:1 18:1 20:1 21:1 23:1 25:1 29:1 30:0.399893 32:1 33:1 36:1 39:1 
2048 1:1 3:0.0619835 4:0.875 5:1 7:1 9:1 11:1 14:1 18:1 19:1 21:1 23:1 25:1 29:1 30:0.432099 31:1 34:1 35:1 39:1 
2048 1:1 3:0.206612 4:0.25 5:1 7:1 9:1 12:1 13:0.447214 14:1 17:1 19:1 21:1 23:1 25:1 29:1 30:0.132582 31:1 33:1 35:1 39:1 
2048 1:1 3:0.0661157 5:1 7:1 9:1 12:1 13:0.223607 14:1 18:1 19:1 21:1 23:1 25:1 29:1 30:0.146538 31:1 33:1 35:1 39:1 
2048 1:1 4:1 5:1 7:1 9:1 11:1 14:1 18:1 19:1 21:1 23:1 25:1 29:1 30:0.0606549 31:1 33:1 35:1 39:1 
2048 1:1 3:0.177686 4:0.125 5:1 7:1 9:1 11:1 14:1 18:1 19:1 21:1 23:1 25:1 29:1 30:0.108964 31:1 33:1 35:1 39:1 
2048 1:1 3:0.0454545 4:1 5:1 7:1 9:1 12:1 13:0.316228 14:1 18:1 19:1 21:1 23:1 25:1 29:1 30:0.447128 31:1 33:1 35:1 39:1 
1260.962760176861 1:1 3:0.0413223 4:1 6:1 8:1 9:1 12:1 13:0.707107 14:1 18:1 19:1 21:1 23:1 25:1 29:1 30:0.471283 31:1 33:1 35:1 39:1 
132.2088116170956 2:1 3:0.268595 4:0.625 5:1 7:1 9:1 11:1 14:1 18:1 19:1 21:1 23:1 25:1 29:1 30:0.888352 32:1 33:1 36:1 39:1 
2048 1:1 3:0.0371901 4:1 5:1 7:1 9:1 11:1 14:1 18:1 19:1 21:1 23:1 25:1 29:1 30:0.613527 31:1 34:1 35:1 39:1 
2048 1:1 3:0.0165289 4:1 5:1 7:1 9:1 11:1 14:1 18:1 19:1 21:1 23:1 25:1 29:1 30:0.637681 31:1 34:1 35:1 39:1 
2048 1:1 3:0.0206612 4:1 5:1 7:1 9:1 11:1 14:1 18:1 19:1 21:1 23:1 25:1 29:1 30:0.68438 31:1 34:1 35:1 39:1 
2048 1:1 3:0.00413223 4:1 5:1 7:1 9:1 11:1 14:1 18:1 19:1 21:1 23:1 25:1 29:1 30:0.898014 31:1 33:1 35:1 39:1 
154.2635199356962 1:1 3:0.119835 4:1 5:1 7:1 9:1 11:1 14:1 18:1 19:1 21:1 23:1 25:1 29:1 30:0.967257 31:1 34:1 36:1 39:1 
2048 1:1 3:0.161157 4:0.75 6:1 7:1 9:1 12:1 13:0.408248 14:1 18:1 19:1 21:1 23:1 25:1 29:1 30:0.180354 31:1 33:1 35:1 39:1 
2048 1:1 3:0.14876 4:0.625 5:1 7:1 9:1 12:1 13:0.235702 14:1 18:1 19:1 21:1 23:1 25:1 29:1 30:0.232958 31:1 33:1 35:1 39:1 
2048 1:1 3:0.0165289 4:1 5:1 7:1 9:1 11:1 14:1 18:1 19:1 21:1 23:1 25:1 29:1 30:0.198068 31:1 34:1 35:1 39:1 
2048 1:1 4:1 5:1 7:1 9:1 11:1 14:1 18:1 19:1 21:1 23:1 25:1 29:1 30:0.210413 31:1 33:1 35:1 39:1 
2048 1:1 3:0.264463 4:1 5:1 7:1 9:1 11:1 14:1 18:1 19:1 21:1 23:1 25:1 29:1 30:0.486312 31:1 33:1 35:1 39:1 
2048 1:1 3:0.00826446 4:0.625 5:1 7:1 9:1 11:1 14:1 18:1 19:1 21:1 23:1 25:1 29:1 30:0.497048 31:1 34:1 35:1 39:1 
2048 1:1 3:0.115702 4:0.75 5:1 7:1 9:1 11:1 14:1 18:1 19:1 21:1 23:1 25:1 29:1 30:0.146538 31:1 33:1 35:1 39:1 
64.40232425287664 1:1 3:0.0578512 4:1 5:1 7:1 9:1 11:1 14:1 18:1 19:1 21:1 23:1 25:1 29:1 30:0.197531 32:1 34:1 36:1 39:1 
2048 1:1 3:0.0123967 4:0.625 5:1 7:1 9:1 12:1 13:0.235702 14:1 18:1 19:1 21:1 23:1 25:1 29:1 30:0.0644122 31:1 33:1 35:1 39:1 
2048 1:1 3:0.318182 4:1 5:1 7:1 9:1 12:1 13:0.408248 14:1 18:1 19:1 21:1 23:1 25:1 29:1 30:0.38701 31:1 33:1 35:1 39:1 
1735.459363832253 1:1 3:0.14876 4:1 5:1 8:1 9:1 12:1 13:0.57735 14:1 18:1 19:1 21:1 23:1 26:1 29:1 30:0.462158 31:1 33:1 35:1 39:1 
100.1878701221316 1:1 3:0.0950413 4:1 5:1 8:1 9:1 12:1 13:0.707107 14:1 17:1 19:1 21:1 23:1 25:1 29:1 30:0.0670961 31:1 34:1 35:1 38:1 
2048 1:1 3:0.0950413 4:1 5:1 8:1 9:1 12:1 13:0.707107 14:1 17:1 19:1 21:1 23:1 25:1 29:1 30:0.0670961 31:1 33:1 35:1 38:1 
2048 1:1 3:0.123967 4:0.875 5:1 7:1 9:1 12:1 13:0.333333 14:1 18:1 19:1 21:1 23:1 26:1 29:1 30:0.318841 31:1 33:1 35:1 39:1 
2048 1:1 3:0.00413223 4:1 5:1 7:1 9:1 11:1 14:1 18:1 19:1 21:1 23:1 25:1 29:1 30:0.321524 31:1 33:1 35:1 39:1 
2048 1:1 3:0.516529 4:1 6:1 7:1 9:1 12:1 13:0.816497 14:1 18:1 19:1 21:1 23:1 25:1 29:1 30:0.983897 31:1 33:1 35:1 39:1 
2048 1:1 3:0.0330579 4:1 5:1 7:1 9:1 12:1 13:0.408248 14:1 18:1 19:1 21:1 23:1 25:1 29:1 30:0.0499195 31:1 33:1 35:1 39:1 
2048 1:1 3:0.140496 4:0.25 5:1 7:1 9:1 12:1 13:0.666667 14:1 18:1 19:1 21:1 23:1 25:1 29:1 30:0.179817 31:1 33:1 35:1 39:1 
2048 1:1 3:0.0206612 4:1 5:1 7:1 9:1 12:1 13:0.408248 14:1 18:1 19:1 21:1 23:1 25:1 29:1 30:0.185722 31:1 33:1 35:1 39:1 
2048 1:1 3:0.0123967 4:1 5:1 7:1 9:1 11:1 14:1 18:1 19:1 21:1 23:1 25:1 29:1 30:0.185722 31:1 34:1 35:1 39:1 
2048 1:1 3:0.0165289 4:0.625 5:1 7:1 9:1 12:1 13:0.258199 14:1 18:1 19:1 21:1 23:1 25:1 29:1 30:0.185722 31:1 33:1 35:1 39:1 
2048 1:1 3:0.00826446 4:0.875 5:1 7:1 9:1 12:1 13:0.258199 14:1 18:1 19:1 21:1 23:1 25:1 29:1 30:0.185722 31:1 33:1 35:1 39:1 
115.6061172760397 2:1 3:0.0413223 4:1 6:1 8:1 9:1 12:1 13:1 15:1 18:1 20:1 21:1 23:1 26:1 29:1 30:0.0772947 32:1 33:1 36:1 39:1 
2048 1:1 3:0.115702 6:1 7:1 9:1 12:1 13:0.408248 14:1 18:1 19:1 21:1 23:1 25:1 29:1 30:0.130972 31:1 33:1 35:1 39:1 
966.2591057936726 1:1 3:0.0702479 4:0.625 6:1 7:1 9:1 12:1 13:0.57735 14:1 17:1 19:1 21:1 23:1 25:1 29:1 30:0.110574 31:1 33:1 35:1 39:1 
2048 1:1 3:0.00413223 4:0.375 5:1 7:1 9:1 11:1 14:1 18:1 19:1 21:1 23:1 25:1 29:1 30:0.147075 31:1 33:1 35:1 39:1 
2048 1:1 3:0.0165289 4:0.5 5:1 7:1 9:1 12:1 13:0.288675 14:1 18:1 19:1 21:1 23:1 25:1 29:1 30:0.147075 31:1 33:1 35:1 39:1 
2048 1:1 3:0.0371901 4:1 5:1 7:1 9:1 11:1 14:1 18:1 19:1 21:1 23:1 25:1 29:1 30:0.215244 31:1 33:1 35:1 39:1 
2048 1:1 3:0.0578512 4:1 5:1 7:1 9:1 11:1 14:1 18:1 19:1 21:1 23:1 25:1 29:1 30:0.215244 31:1 33:1 35:1 39:1 
2048 1:1 3:0.00826446 4:0.625 6:1 7:1 9:1 12:1 13:0.5 14:1 18:1 19:1 21:1 23:1 25:1 29:1 30:0.215244 31:1 33:1 35:1 39:1 
2048 1:1 3:0.00413223 4:1 5:1 7:1 9:1 11:1 14:1 18:1 19:1 21:1 23:1 25:1 29:1 30:0.12453 31:1 33:1 35:1 39:1 
317.2364057250315 1:1 3:0.0123967 4:1 5:1 8:1 9:1 12:1 13:0.707107 14:1 18:1 20:1 21:1 23:1 25:1 29:1 30:0.37037 31:1 33:1 35:1 39:1 
2048 1:1 3:0.00826446 4:0.625 5:1 7:1 9:1 12:1 13:0.5 14:1 18:1 19:1 21:1 23:1 25:1 29:1 30:0.169619 31:1 33:1 35:1 39:1 
2048 1:1 3:0.00413223 4:0.625 5:1 7:1 9:1 12:1 13:0.408248 14:1 18:1 19:1 21:1 23:1 25:1 29:1 30:0.169619 31:1 33:1 35:1 39:1 
2048 1:1 3:0.0165289 4:0.625 5:1 7:1 9:1 12:1 13:0.408248 14:1 18:1 19:1 21:1 23:1 25:1 29:1 30:0.169619 31:1 33:1 35:1 39:1 
2048 1:1 3:0.18595 4:1 5:1 7:1 9:1 11:1 14:1 18:1 19:1 21:1 23:1 25:1 29:1 30:0.200215 31:1 33:1 35:1 39:1 
1115.997609690284 2:1 3:0.0123967 4:1 6:1 8:1 9:1 12:1 13:1 15:1 18:1 20:1 21:1 23:1 25:1 29:1 30:0.219002 32:1 33:1 36:1 39:1 
1497.049182420417 2:1 3:0.0123967 4:1 5:1 8:1 9:1 12:1 13:1 15:1 18:1 20:1 21:1 23:1 26:1 29:1 30:0.219002 32:1 33:1 36:1 39:1 
2048 1:1 3:0.235537 4:0.25 5:1 7:1 9:1 12:1 13:0.67082 14:1 18:1 19:1 21:1 23:1 25:1 29:1 30:0.146538 31:1 33:1 35:1 39:1 
2048 1:1 3:0.0123967 4:1 5:1 7:1 9:1 11:1 14:1 18:1 19:1 21:1 23:1 25:1 29:1 30:0.150832 31:1 33:1 35:1 39:1 
1897.504734943875 1:1 4:1 5:1 8:1 9:1 12:1 13:0.707107 14:1 18:1 20:1 21:1 23:1 25:1 29:1 30:0.150832 31:1 33:1 35:1 39:1 
2048 1:1 3:0.136364 4:1 5:1 8:1 9:1 12:1 13:0.632456 14:1 18:1 19:1 21:1 23:1 25:1 29:1 30:0.364466 31:1 33:1 35:1 39:1 
2048 1:1 3:0.0785124 4:0.875 5:1 8:1 9:1 12:1 13:0.57735 14:1 18:1 19:1 21:1 23:1 25:1 29:1 30:0.327429 31:1 33:1 35:1 39:1 
2048 1:1 3:0.103306 4:0.25 5:1 7:1 9:1 11:1 14:1 18:1 19:1 21:1 23:1 25:1 29:1 30:0.100376 31:1 33:1 35:1 39:1 
2048 1:1 3:0.103306 4:1 5:1 7:1 9:1 11:1 14:1 18:1 19:1 21:1 23:1 25:1 29:1 30:0.100376 31:1 34:1 35:1 39:1 
2048 1:1 3:0.165289 4:1 5:1 7:1 9:1 11:1 14:1 18:1 19:1 21:1 23:1 25:1 29:1 30:0.416532 31:1 33:1 35:1 39:1 
2048 1:1 3:0.00826446 4:0.625 5:1 7:1 9:1 11:1 14:1 18:1 19:1 21:1 23:1 25:1 29:1 30:0.425658 31:1 33:1 35:1 39:1 
2048 1:1 3:0.181818 4:0.875 5:1 7:1 9:1 11:1 14:1 18:1 19:1 21:1 23:1 25:1 29:1 30:0.494364 31:1 33:1 35:1 39:1 
374.7519742303602 1:1 3:0.00826446 4:1 5:1 7:1 9:1 12:1 13:0.666667 14:1 18:1 19:1 21:1 23:1 25:1 29:1 30:0.050993 31:1 33:1 35:1 37:1 
1219.395108485647 1:1 3:0.0454545 4:1 5:1 7:1 9:1 12:1 13:0.666667 14:1 18:1 19:1 21:1 23:1 25:1 29:1 30:0.0805153 31:1 33:1 35:1 37:1 
2048 1:1 3:0.119835 4:0.25 5:1 7:1 9:1 12:1 13:0.288675 14:1 18:1 19:1 21:1 23:1 25:1 29:1 30:0.120773 31:1 33:1 35:1 37:1 
2048 1:1 3:0.119835 4:0.625 5:1 8:1 9:1 12:1 13:0.57735 14:1 18:1 19:1 21:1 23:1 25:1 29:1 30:0.132045 31:1 33:1 35:1 39:1 
1864.614918868479 1:1 3:0.0247934 4:0.375 5:1 7:1 9:1 12:1 13:0.5 14:1 18:1 19:1 21:1 23:1 25:1 29:1 30:0.12292 31:1 33:1 35:1 38:1 
2048 2:1 3:0.0165289 4:0.5 5:1 7:1 9:1 11:1 14:1 18:1 19:1 21:1 23:1 25:1 29:1 30:0.12292 31:1 33:1 35:1 39:1 
2048 1:1 3:0.0826446 4:1 5:1 8:1 9:1 12:1 13:0.707107 14:1 18:1 19:1 21:1 23:1 25:1 29:1 30:0.157273 31:1 33:1 35:1 39:1 
2048 1:1 3:0.00413223 4:0.625 5:1 7:1 9:1 12:1 13:0.408248 14:1 18:1 19:1 21:1 23:1 25:1 29:1 30:0.198068 31:1 33:1 35:1 39:1 
1071.015623670051 1:1 3:0.103306 4:1 5:1 8:1 9:1 12:1 13:0.707107 14:1 18:1 19:1 21:1 23:1 25:1 29:1 30:0.0971551 31:1 33:1 35:1 38:1 
18.2490597663555 1:1 3:0.0826446 4:1 6:1 8:1 9:1 12:1 13:0.816497 14:1 18:1 19:1 21:1 23:1 25:1 29:1 30:0.0976919 32:1 33:1 36:1 39:1 
2048 1:1 4:0.5 6:1 7:1 9:1 12:1 13:0.816497 14:1 18:1 19:1 21:1 23:1 25:1 29:1 30:0.412775 31:1 33:1 35:1 39:1 
1255.732903520528 2:1 3:0.446281 4:1 5:1 8:1 9:1 12:1 13:1 15:1 18:1 19:1 21:1 23:1 25:1 29:1 30:0.150295 32:1 34:1 36:1 39:1 
2048 1:1 3:0.169421 4:1 5:1 7:1 9:1 11:1 14:1 18:1 19:1 21:1 23:1 25:1 29:1 30:0.106817 31:1 33:1 35:1 39:1 
2048 1:1 3:0.0165289 4:1 5:1 7:1 9:1 12:1 13:0.353553 14:1 18:1 19:1 21:1 23:1 25:1 29:1 30:0.228663 31:1 33:1 35:1 39:1 
2048 1:1 4:1 5:1 7:1 9:1 11:1 14:1 18:1 19:1 21:1 23:1 25:1 29:1 30:0.228663 31:1 33:1 35:1 39:1 
2048 1:1 3:0.0495868 4:0.75 5:1 7:1 9:1 11:1 14:1 18:1 19:1 21:1 23:1 25:1 29:1 30:0.100376 31:1 34:1 35:1 39:1 
2048 1:1 3:0.00826446 4:1 5:1 8:1 9:1 12:1 13:0.707107 14:1 18:1 19:1 21:1 23:1 25:1 29:1 30:0.158347 31:1 33:1 35:1 39:1 
2048 1:1 3:0.00826446 4:0.5 5:1 7:1 9:1 12:1 13:0.408248 14:1 18:1 19:1 21:1 23:1 25:1 29:1 30:0.158347 31:1 33:1 35:1 39:1 
2048 1:1 3:0.00413223 4:0.875 5:1 8:1 9:1 12:1 13:0.57735 14:1 18:1 19:1 21:1 23:1 25:1 29:1 30:0.158347 31:1 33:1 35:1 39:1 
2048 1:1 3:0.00826446 4:0.625 6:1 7:1 9:1 12:1 13:0.408248 14:1 18:1 19:1 21:1 23:1 25:1 29:1 30:0.0907139 31:1 33:1 35:1 39:1 
2048 1:1 3:0.00413223 4:0.75 6:1 7:1 9:1 12:1 13:0.353553 14:1 18:1 19:1 21:1 23:1 25:1 29:1 30:0.0907139 31:1 34:1 35:1 39:1 
2048 1:1 4:0.375 5:1 7:1 9:1 11:1 14:1 18:1 19:1 21:1 23:1 25:1 29:1 30:0.0907139 31:1 33:1 35:1 39:1 
1286.360951822372 1:1 3:0.00413223 4:1 5:1 8:1 9:1 12:1 13:1 15:1 18:1 20:1 21:1 23:1 25:1 29:1 30:0.0907139 32:1 33:1 36:1 39:1 
2048 1:1 3:0.0165289 4:0.625 5:1 7:1 9:1 12:1 13:0.408248 14:1 18:1 19:1 21:1 23:1 25:1 29:1 30:0.0907139 31:1 33:1 35:1 39:1 
2048 1:1 3:0.0165289 4:0.875 6:1 7:1 9:1 12:1 13:0.5 14:1 18:1 19:1 21:1 23:1 25:1 29:1 30:0.0907139 31:1 33:1 35:1 39:1 
2048 1:1 3:0.00413223 4:0.75 5:1 7:1 9:1 12:1 13:0.288675 14:1 18:1 19:1 21:1 23:1 25:1 29:1 30:0.0461621 31:1 33:1 35:1 39:1 
2048 1:1 3:0.132231 4:1 5:1 7:1 9:1 11:1 14:1 18:1 19:1 21:1 23:1 25:1 29:1 30:0.0821256 31:1 33:1 35:1 39:1 
2048 1:1 3:0.0165289 4:0.25 5:1 7:1 9:1 12:1 13:0.53033 14:1 18:1 19:1 21:1 23:1 25:1 29:1 30:0.0826624 31:1 34:1 35:1 39:1 
2048 1:1 3:0.119835 4:0.75 5:1 7:1 9:1 12:1 13:0.53033 14:1 18:1 19:1 21:1 23:1 25:1 29:1 30:0.0826624 31:1 34:1 35:1 39:1 
1.913776272176647 2:1 3:0.0289256 4:0.5 5:1 7:1 9:1 12:1 13:0.5 14:1 18:1 19:1 21:1 23:1 25:1 29:1 30:0.0826624 31:1 33:1 35:1 39:1 
2048 1:1 3:0.00826446 4:0.75 5:1 7:1 9:1 11:1 14:1 18:1 19:1 21:1 23:1 25:1 29:1 30:0.0826624 31:1 33:1 35:1 39:1 
2048 1:1 3:0.0619835 4:0.875 5:1 7:1 9:1 11:1 14:1 18:1 19:1 21:1 23:1 25:1 29:1 30:0.0912507 31:1 33:1 35:1 39:1 
2048 1:1 3:0.0330579 4:1 5:1 7:1 9:1 12:1 13:0.566947 14:1 18:1 19:1 21:1 23:1 25:1 29:1 30:0.0912507 31:1 34:1 35:1 39:1 
2048 1:1 3:0.00413223 4:0.375 6:1 7:1 9:1 12:1 13:0.408248 14:1 18:1 19:1 21:1 23:1 25:1 29:1 30:0.0826624 31:1 33:1 35:1 39:1 
2048 1:1 3:0.136364 4:0.5 5:1 7:1 9:1 11:1 14:1 18:1 19:1 21:1 23:1 25:1 29:1 30:0.117016 31:1 33:1 35:1 39:1 
2048 1:1 4:1 5:1 7:1 10:1 12:1 13:0.5 14:1 18:1 19:1 21:1 23:1 25:1 29:1 30:0.100913 31:1 33:1 35:1 39:1 
2048 1:1 3:0.0165289 4:1 5:1 7:1 9:1 11:1 14:1 18:1 19:1 21:1 23:1 25:1 29:1 30:0.0826624 31:1 33:1 35:1 39:1 
2048 1:1 3:0.0289256 4:1 6:1 7:1 9:1 12:1 13:0.353553 14:1 18:1 19:1 21:1 23:1 25:1 29:1 30:0.116479 31:1 33:1 35:1 39:1 
2048 1:1 3:0.0123967 4:1 5:1 8:1 9:1 12:1 13:0.57735 14:1 18:1 19:1 21:1 23:1 25:1 29:1 30:0.133119 31:1 33:1 35:1 39:1 
2048 1:1 3:0.00826446 4:0.375 5:1 7:1 9:1 12:1 13:0.288675 14:1 18:1 19:1 21:1 23:1 25:1 29:1 30:0.337091 31:1 33:1 35:1 39:1 
499.7275315963907 1:1 3:0.00826446 4:0.25 6:1 8:1 9:1 12:1 13:0.707107 15:1 18:1 20:1 21:1 23:1 25:1 29:1 30:0.130972 32:1 34:1 36:1 39:1 
1955.628029379403 1:1 3:0.214876 4:1 6:1 8:1 9:1 12:1 13:1 15:1 18:1 20:1 22:1 24:1 25:1 29:1 30:0.123457 32:1 34:1 36:1 39:1 
504.2954689726367 1:1 3:0.00826446 4:0.625 5:1 8:1 9:1 12:1 13:0.707107 15:1 18:1 19:1 21:1 23:1 25:1 29:1 30:0.0874933 32:1 34:1 36:1 39:1 
2048 1:1 3:0.136364 4:0.625 6:1 7:1 9:1 12:1 13:0.408248 14:1 18:1 19:1 21:1 23:1 25:1 29:1 30:0.152442 31:1 33:1 35:1 39:1 
2048 1:1 3:0.152893 4:1 5:1 7:1 9:1 11:1 14:1 18:1 19:1 21:1 23:1 25:1 29:1 30:0.181428 31:1 33:1 35:1 39:1 
2048 1:1 3:0.107438 4:0.875 5:1 7:1 9:1 11:1 14:1 18:1 19:1 21:1 23:1 25:1 29:1 30:0.185722 31:1 33:1 35:1 39:1 
2048 1:1 3:0.00826446 4:1 6:1 7:1 9:1 12:1 13:0.666667 14:1 18:1 19:1 21:1 23:1 25:1 29:1 30:0.185722 31:1 33:1 35:1 39:1 
2048 1:1 3:0.00413223 4:0.625 5:1 7:1 9:1 11:1 14:1 18:1 19:1 21:1 23:1 25:1 29:1 30:0.185722 31:1 33:1 35:1 39:1 
2048 1:1 3:0.0247934 4:0.625 5:1 7:1 9:1 11:1 14:1 18:1 19:1 21:1 23:1 25:1 29:1 30:0.432636 31:1 33:1 35:1 39:1 
2048 1:1 3:0.00826446 4:0.5 6:1 7:1 9:1 12:1 13:0.816497 14:1 18:1 19:1 21:1 23:1 25:1 29:1 30:0.432636 31:1 33:1 35:1 39:1 
2048 1:1 3:0.053719 4:1 6:1 7:1 9:1 12:1 13:0.408248 14:1 18:1 19:1 21:1 23:1 25:1 29:1 30:0.0595813 31:1 33:1 35:1 39:1 
2048 1:1 3:0.0495868 4:0.25 5:1 7:1 9:1 11:1 14:1 18:1 19:1 21:1 23:1 25:1 29:1 30:0.0595813 31:1 33:1 35:1 39:1 
1646.924902325001 1:1 3:0.00413223 4:0.875 6:1 7:1 9:1 12:1 13:0.223607 14:1 18:1 19:1 21:1 23:1 25:1 29:1 30:0.116479 31:1 33:1 35:1 37:1 
3.331538958194505 1:1 3:0.0867769 4:1 6:1 8:1 10:1 12:1 13:1 15:1 17:1 19:1 21:1 23:1 25:1 28:1 30:0.130435 31:1 33:1 35:1 38:1 
2048 1:1 4:1 5:1 7:1 9:1 11:1 14:1 18:1 19:1 21:1 23:1 25:1 29:1 30:0.116479 31:1 33:1 35:1 39:1 
2048 1:1 3:0.400826 4:1 5:1 7:1 9:1 11:1 14:1 18:1 19:1 21:1 23:1 25:1 29:1 30:0.228127 31:1 33:1 35:1 39:1 
2048 1:1 3:0.330579 4:1 5:1 7:1 9:1 11:1 14:1 18:1 19:1 21:1 23:1 25:1 29:1 30:0.228127 31:1 33:1 35:1 39:1 
2048 1:1 3:0.00413223 4:1 5:1 7:1 9:1 11:1 14:1 18:1 19:1 21:1 23:1 25:1 29:1 30:0.348363 31:1 33:1 35:1 39:1 
2048 1:1 3:0.00413223 4:1 5:1 7:1 9:1 11:1 14:1 18:1 19:1 21:1 23:1 25:1 29:1 30:0.348363 31:1 33:1 35:1 39:1 
2048 1:1 3:0.00413223 4:0.75 6:1 7:1 9:1 12:1 13:0.408248 14:1 18:1 19:1 21:1 23:1 25:1 29:1 30:0.0628019 31:1 33:1 35:1 39:1 
1381.72934775791 1:1 3:0.165289 4:0.25 6:1 7:1 9:1 12:1 13:0.612372 14:1 17:1 19:1 21:1 23:1 25:1 29:1 30:0.303274 31:1 33:1 35:1 39:1 
2048 1:1 3:0.00413223 4:0.375 5:1 7:1 9:1 11:1 14:1 18:1 19:1 21:1 23:1 25:1 29:1 30:0.311863 31:1 33:1 35:1 39:1 
2048 1:1 3:0.00826446 4:0.5 5:1 7:1 9:1 12:1 13:0.408248 14:1 18:1 19:1 21:1 23:1 25:1 29:1 30:0.326892 31:1 33:1 35:1 39:1 
8.192872066550747 1:1 4:1 6:1 8:1 10:1 12:1 13:1 15:1 17:1 19:1 21:1 23:1 25:1 28:1 30:0.118626 31:1 33:1 35:1 39:1 
2048 1:1 3:0.227273 4:1 5:1 8:1 9:1 12:1 13:0.707107 14:1 18:1 19:1 21:1 23:1 25:1 29:1 30:0.120236 31:1 33:1 35:1 39:1 
2048 1:1 3:0.169421 4:0.75 5:1 7:1 9:1 11:1 14:1 18:1 19:1 21:1 23:1 25:1 29:1 30:0.120773 31:1 33:1 35:1 39:1 
2048 1:1 3:0.0702479 4:0.875 6:1 7:1 9:1 12:1 13:0.5 14:1 18:1 19:1 21:1 23:1 25:1 29:1 30:0.135266 31:1 33:1 35:1 39:1 
2048 1:1 3:0.0661157 4:0.375 5:1 7:1 9:1 12:1 13:0.67082 14:1 16:1 19:1 21:1 23:1 25:1 29:1 30:0.135266 31:1 33:1 35:1 39:1 
2048 1:1 3:0.00826446 4:0.375 6:1 7:1 9:1 12:1 13:0.353553 14:1 18:1 19:1 21:1 23:1 25:1 29:1 30:0.135802 31:1 33:1 35:1 39:1 
484.0129394708736 2:1 3:0.0289256 4:1 5:1 8:1 9:1 12:1 13:1 15:1 18:1 19:1 21:1 23:1 25:1 29:1 30:0.145464 32:1 34:1 36:1 39:1 
2048 1:1 3:0.00826446 4:0.625 5:1 8:1 9:1 12:1 13:0.57735 14:1 18:1 19:1 21:1 23:1 25:1 29:1 30:0.145464 31:1 33:1 35:1 39:1 
192.4379271509763 1:1 3:0.00413223 4:0.5 5:1 8:1 9:1 12:1 13:0.816497 14:1 18:1 20:1 21:1 23:1 26:1 29:1 30:0.145464 31:1 33:1 35:1 39:1 
2048 1:1 4:0.875 5:1 7:1 9:1 11:1 14:1 18:1 19:1 21:1 23:1 25:1 29:1 30:0.145464 31:1 33:1 35:1 39:1 
2048 1:1 3:0.0702479 4:1 5:1 7:1 9:1 12:1 13:0.408248 14:1 17:1 19:1 21:1 23:1 25:1 29:1 30:0.0842727 31:1 33:1 35:1 37:1 
2048 1:1 3:0.198347 4:0.625 5:1 8:1 9:1 12:1 13:0.5 14:1 18:1 19:1 21:1 23:1 25:1 29:1 30:0.139023 31:1 33:1 35:1 39:1 
4.309411405886087 2:1 3:0.0702479 4:1 5:1 8:1 9:1 12:1 13:1 15:1 18:1 19:1 21:1 23:1 25:1 29:1 30:0.139023 32:1 33:1 36:1 39:1 
2048 1:1 3:0.0123967 4:0.25 5:1 7:1 9:1 11:1 14:1 18:1 19:1 21:1 23:1 25:1 29:1 30:0.064949 31:1 33:1 35:1 39:1 
2048 1:1 3:0.0785124 4:0.75 5:1 7:1 9:1 11:1 14:1 18:1 19:1 21:1 23:1 25:1 29:1 30:0.14278 31:1 33:1 35:1 39:1 
31.02333304909799 2:1 4:0.25 5:1 8:1 9:1 12:1 13:0.408248 15:1 17:1 19:1 21:1 23:1 25:1 29:1 30:0.274289 32:1 33:1 36:1 39:1 
2048 1:1 3:0.00413223 4:0.375 5:1 7:1 9:1 11:1 14:1 18:1 19:1 21:1 23:1 25:1 29:1 30:0.274289 31:1 33:1 35:1 39:1 
2048 1:1 3:0.243802 4:0.5 5:1 7:1 9:1 11:1 14:1 18:1 19:1 21:1 23:1 25:1 29:1 30:0.289855 31:1 33:1 35:1 39:1 
2048 1:1 3:0.00413223 4:0.375 6:1 7:1 9:1 12:1 13:0.57735 14:1 18:1 19:1 21:1 23:1 25:1 29:1 30:0.290392 31:1 33:1 35:1 39:1 
2048 1:1 3:0.00826446 4:0.125 5:1 7:1 9:1 12:1 13:0.408248 14:1 18:1 19:1 21:1 23:1 25:1 29:1 30:0.290392 31:1 34:1 35:1 39:1 
2048 1:1 3:0.0413223 4:0.25 5:1 7:1 9:1 12:1 13:0.57735 14:1 18:1 19:1 21:1 23:1 25:1 29:1 30:0.10306 31:1 33:1 35:1 37:1 
2048 1:1 3:0.00413223 4:0.375 5:1 7:1 9:1 11:1 14:1 18:1 19:1 21:1 23:1 25:1 29:1 30:0.103596 31:1 33:1 35:1 39:1 
2048 1:1 3:0.0619835 4:0.875 6:1 7:1 9:1 12:1 13:0.316228 14:1 18:1 19:1 21:1 23:1 25:1 29:1 30:0.0563607 31:1 33:1 35:1 39:1 
2048 1:1 3:0.0661157 4:1 5:1 7:1 9:1 11:1 14:1 18:1 19:1 21:1 23:1 25:1 29:1 30:0.0993022 31:1 33:1 35:1 39:1 
2048 1:1 3:0.0123967 4:0.625 5:1 7:1 9:1 11:1 14:1 18:1 19:1 21:1 23:1 25:1 29:1 30:0.135802 31:1 33:1 35:1 39:1 
2048 1:1 3:0.198347 4:1 5:1 7:1 9:1 11:1 14:1 18:1 19:1 21:1 23:1 25:1 29:1 30:0.157273 31:1 33:1 35:1 39:1 
2048 1:1 4:1 5:1 7:1 9:1 11:1 14:1 18:1 19:1 21:1 23:1 25:1 29:1 30:0.135802 31:1 33:1 35:1 39:1 
2048 1:1 3:0.181818 4:1 5:1 7:1 9:1 12:1 13:0.666667 14:1 18:1 19:1 21:1 23:1 25:1 29:1 30:0.157273 31:1 33:1 35:1 39:1 
2048 1:1 3:0.00413223 4:0.625 5:1 7:1 9:1 11:1 14:1 18:1 19:1 21:1 23:1 25:1 29:1 30:0.135802 31:1 33:1 35:1 39:1 
2048 1:1 3:0.00413223 4:0.5 5:1 7:1 9:1 12:1 13:0.258199 14:1 18:1 19:1 21:1 23:1 25:1 29:1 30:0.135802 31:1 33:1 35:1 39:1 
2048 1:1 3:0.0909091 4:0.875 5:1 8:1 9:1 12:1 13:0.57735 14:1 18:1 19:1 21:1 23:1 25:1 29:1 30:0.157273 31:1 33:1 35:1 39:1 
2048 1:1 3:0.00413223 4:0.625 5:1 7:1 9:1 12:1 13:0.288675 14:1 18:1 19:1 21:1 23:1 25:1 29:1 30:0.135802 31:1 33:1 35:1 39:1 
2048 1:1 3:0.0785124 4:0.75 5:1 7:1 9:1 12:1 13:0.67082 14:1 18:1 19:1 21:1 23:1 25:1 29:1 30:0.157273 31:1 33:1 35:1 39:1 
2048 1:1 3:0.00826446 4:0.875 6:1 7:1 9:1 12:1 13:0.5 14:1 18:1 19:1 21:1 23:1 25:1 29:1 30:0.0563607 31:1 33:1 35:1 39:1 
589.439523193001 1:1 3:0.0991736 4:1 6:1 8:1 9:1 12:1 13:0.57735 14:1 18:1 20:1 21:1 23:1 25:1 29:1 30:0.188943 31:1 33:1 35:1 39:1 
2048 1:1 3:0.0247934 4:0.625 5:1 7:1 9:1 12:1 13:0.316228 14:1 18:1 19:1 21:1 23:1 25:1 29:1 30:0.188943 31:1 33:1 35:1 39:1 
2048 1:1 3:0.107438 4:0.375 5:1 7:1 9:1 11:1 14:1 18:1 19:1 21:1 23:1 25:1 29:1 30:0.188943 31:1 33:1 35:1 39:1 
2048 1:1 3:0.0289256 4:0.625 5:1 7:1 9:1 11:1 14:1 18:1 19:1 21:1 23:1 25:1 29:1 30:0.188943 31:1 33:1 35:1 39:1 
2048 1:1 3:0.0578512 4:1 5:1 7:1 9:1 12:1 13:0.666667 14:1 18:1 19:1 21:1 23:1 25:1 29:1 30:0.188943 31:1 33:1 35:1 39:1 
2048 1:1 3:0.318182 4:1 5:1 7:1 9:1 11:1 14:1 18:1 19:1 21:1 23:1 25:1 29:1 30:0.30059 31:1 34:1 35:1 39:1 
5.180023650333592 1:1 3:0.0123967 4:1 5:1 8:1 9:1 12:1 13:1 15:1 18:1 20:1 21:1 23:1 25:1 29:1 30:0.188943 31:1 33:1 35:1 39:1 
2048 1:1 3:0.268595 4:0.625 5:1 7:1 9:1 11:1 14:1 18:1 19:1 21:1 23:1 25:1 29:1 30:0.314546 31:1 33:1 35:1 39:1 
1038.630240363246 1:1 3:0.0413223 4:1 6:1 8:1 10:1 12:1 13:1 15:1 18:1 19:1 21:1 23:1 25:1 29:1 31:1 33:1 35:1 38:1 
2048 1:1 3:0.0123967 4:1 6:1 7:1 9:1 12:1 13:0.75 14:1 18:1 19:1 21:1 23:1 25:1 29:1 30:0.28234 31:1 33:1 35:1 39:1 
2048 1:1 3:0.0991736 4:0.625 5:1 7:1 9:1 11:1 14:1 18:1 19:1 21:1 23:1 25:1 29:1 30:0.0466989 31:1 33:1 35:1 39:1 
2048 1:1 3:0.00413223 4:0.625 5:1 7:1 9:1 11:1 14:1 18:1 19:1 21:1 23:1 25:1 29:1 30:0.0477724 31:1 34:1 35:1 39:1 
2048 1:1 3:0.0371901 4:0.875 5:1 7:1 9:1 11:1 14:1 18:1 19:1 21:1 23:1 25:1 29:1 30:0.0477724 31:1 34:1 35:1 39:1 
2048 1:1 3:0.128099 4:1 5:1 7:1 9:1 12:1 13:0.353553 14:1 18:1 19:1 21:1 23:1 25:1 29:1 30:0.173376 31:1 33:1 35:1 39:1 
2048 1:1 3:0.0371901 4:0.75 6:1 8:1 9:1 12:1 13:0.707107 14:1 18:1 19:1 21:1 23:1 25:1 29:1 30:0.117552 31:1 33:1 35:1 38:1 
2048 1:1 3:0.00413223 4:1 5:1 8:1 9:1 12:1 13:0.57735 14:1 18:1 19:1 21:1 23:1 25:1 29:1 30:0.0391841 31:1 33:1 35:1 39:1 
49.11223568946746 1:1 3:0.214876 4:1 5:1 8:1 9:1 12:1 13:0.57735 14:1 18:1 20:1 21:1 23:1 25:1 29:1 30:0.219002 31:1 33:1 35:1 39:1 
2048 1:1 3:0.00413223 4:0.625 5:1 7:1 9:1 11:1 14:1 18:1 19:1 21:1 23:1 25:1 29:1 30:0.219538 31:1 33:1 35:1 39:1 
2048 1:1 4:0.75 5:1 7:1 9:1 12:1 13:0.57735 14:1 18:1 19:1 21:1 23:1 25:1 28:1 30:0.0461621 31:1 33:1 35:1 39:1 
85.49935143155389 1:1 3:0.0826446 4:0.25 6:1 7:1 9:1 12:1 13:0.632456 14:1 18:1 19:1 21:1 23:1 25:1 28:1 30:0.0976919 31:1 33:1 35:1 39:1 
2048 1:1 3:0.0289256 4:0.625 6:1 7:1 9:1 12:1 13:0.258199 14:1 18:1 19:1 21:1 23:1 25:1 29:1 30:0.100913 31:1 33:1 35:1 39:1 
2048 1:1 4:1 5:1 7:1 9:1 12:1 13:0.333333 14:1 18:1 19:1 21:1 23:1 25:1 29:1 30:0.100913 31:1 33:1 35:1 39:1 
2048 1:1 3:0.115702 4:0.625 5:1 7:1 9:1 11:1 14:1 18:1 19:1 21:1 23:1 25:1 29:1 30:0.135266 31:1 33:1 35:1 39:1 
2048 1:1 3:0.00413223 4:0.875 5:1 7:1 9:1 12:1 13:0.408248 14:1 18:1 19:1 21:1 23:1 25:1 29:1 30:0.137413 31:1 33:1 35:1 39:1 
2048 1:1 3:0.243802 4:0.875 5:1 7:1 9:1 11:1 14:1 18:1 19:1 21:1 23:1 25:1 29:1 30:0.273752 31:1 33:1 35:1 39:1 
2048 1:1 3:0.0165289 4:1 5:1 7:1 9:1 12:1 13:0.547723 14:1 18:1 19:1 21:1 23:1 25:1 29:1 30:0.078905 31:1 33:1 35:1 39:1 
2048 1:1 3:0.206612 4:0.625 5:1 7:1 9:1 12:1 13:0.6 14:1 18:1 19:1 21:1 23:1 25:1 29:1 30:0.143854 31:1 33:1 35:1 39:1 
2048 1:1 3:0.00413223 4:0.5 5:1 7:1 9:1 12:1 13:0.316228 14:1 18:1 19:1 21:1 23:1 25:1 29:1 30:0.147075 31:1 34:1 35:1 39:1 
2048 1:1 3:0.00826446 4:0.125 5:1 7:1 9:1 11:1 14:1 18:1 19:1 21:1 23:1 25:1 29:1 30:0.147075 31:1 33:1 35:1 39:1 
2048 1:1 3:0.00413223 4:0.75 5:1 7:1 9:1 11:1 14:1 18:1 19:1 21:1 23:1 25:1 29:1 30:0.147075 31:1 33:1 35:1 39:1 
2048 1:1 3:0.0289256 4:1 5:1 7:1 9:1 11:1 14:1 18:1 19:1 21:1 23:1 25:1 29:1 30:0.0901771 31:1 33:1 35:1 39:1 
2048 1:1 3:0.0867769 4:1 5:1 7:1 9:1 11:1 14:1 18:1 19:1 21:1 23:1 25:1 29:1 30:0.133655 31:1 33:1 35:1 39:1 
2048 1:1 3:0.11157 4:1 5:1 7:1 9:1 11:1 14:1 18:1 19:1 21:1 23:1 25:1 29:1 30:0.155126 31:1 33:1 35:1 39:1 
2048 1:1 3:0.0289256 4:1 5:1 7:1 9:1 11:1 14:1 18:1 19:1 21:1 23:1 25:1 29:1 30:0.169082 31:1 33:1 35:1 39:1 
2048 1:1 3:0.0123967 4:1 5:1 7:1 9:1 11:1 14:1 18:1 19:1 21:1 23:1 25:1 29:1 30:0.191626 31:1 33:1 36:1 39:1 
2048 1:1 3:0.805785 4:1 5:1 7:1 9:1 11:1 14:1 18:1 19:1 21:1 23:1 25:1 29:1 30:0.517982 31:1 33:1 35:1 39:1 
2048 1:1 3:0.797521 4:1 5:1 8:1 9:1 12:1 13:0.707107 14:1 18:1 19:1 21:1 23:1 25:1 29:1 30:0.517982 31:1 33:1 35:1 39:1 
2048 1:1 3:0.0661157 4:1 5:1 7:1 9:1 11:1 14:1 17:1 19:1 21:1 23:1 25:1 29:1 30:0.164251 31:1 33:1 35:1 39:1 
2048 1:1 3:0.00413223 4:0.375 6:1 7:1 9:1 12:1 13:0.353553 14:1 18:1 19:1 21:1 23:1 25:1 29:1 30:0.146538 31:1 33:1 35:1 39:1 
2048 1:1 3:0.475207 4:0.25 5:1 7:1 9:1 12:1 13:0.666667 14:1 18:1 19:1 21:1 23:1 25:1 29:1 30:0.447665 31:1 33:1 35:1 39:1 
2048 1:1 3:0.00413223 4:1 5:1 7:1 9:1 11:1 14:1 18:1 19:1 21:1 23:1 25:1 29:1 30:0.45679 31:1 33:1 35:1 39:1 
2048 1:1 3:0.206612 4:1 5:1 7:1 9:1 11:1 14:1 18:1 19:1 21:1 23:1 25:1 29:1 30:0.527644 31:1 33:1 35:1 39:1 
1022.578581646424 1:1 3:0.0330579 4:0.5 6:1 8:1 10:1 12:1 13:1 15:1 18:1 19:1 21:1 23:1 25:1 29:1 30:0.45679 31:1 33:1 35:1 39:1 
2048 1:1 3:0.00413223 4:0.625 5:1 7:1 9:1 11:1 14:1 18:1 19:1 21:1 23:1 25:1 29:1 30:0.45679 31:1 33:1 35:1 39:1 
137.0071837778205 1:1 3:0.00413223 4:0.5 6:1 7:1 9:1 12:1 13:0.666667 15:1 18:1 19:1 21:1 23:1 25:1 29:1 30:0.45679 31:1 33:1 35:1 39:1 
2048 1:1 3:0.0247934 4:1 5:1 7:1 9:1 11:1 14:1 18:1 19:1 21:1 23:1 25:1 29:1 30:0.17767 31:1 33:1 35:1 39:1 
813.757913700107 2:1 3:0.0165289 4:1 5:1 8:1 9:1 12:1 13:1 15:1 18:1 20:1 21:1 23:1 25:1 29:1 30:0.17767 32:1 33:1 36:1 39:1 
728.8782680108191 2:1 3:0.0165289 4:1 5:1 8:1 9:1 12:1 13:1 15:1 18:1 20:1 21:1 23:1 25:1 29:1 30:0.17767 32:1 33:1 36:1 39:1 
15.95913728959079 1:1 3:0.0165289 4:1 6:1 8:1 10:1 12:1 13:1 15:1 18:1 20:1 21:1 23:1 26:1 29:1 30:0.17767 31:1 33:1 35:1 39:1 
2048 1:1 3:0.198347 4:0.625 5:1 7:1 9:1 11:1 14:1 18:1 19:1 21:1 23:1 25:1 29:1 30:0.250134 31:1 33:1 35:1 39:1 
2048 1:1 3:0.053719 4:1 5:1 7:1 9:1 12:1 13:0.5 14:1 18:1 19:1 21:1 23:1 25:1 29:1 30:0.251744 31:1 33:1 35:1 39:1 
2048 1:1 4:1 5:1 8:1 9:1 12:1 13:0.707107 14:1 18:1 20:1 21:1 23:1 25:1 29:1 30:0.251744 31:1 33:1 35:1 39:1 
2048 1:1 3:0.103306 4:1 5:1 8:1 9:1 12:1 13:0.57735 14:1 18:1 19:1 21:1 23:1 25:1 29:1 30:0.101986 31:1 33:1 35:1 39:1 
301.6688412203758 1:1 3:0.181818 4:0.875 5:1 7:1 9:1 11:1 14:1 18:1 19:1 21:1 23:1 25:1 29:1 30:0.13956 32:1 33:1 36:1 39:1 
2048 1:1 3:0.652893 4:1 5:1 7:1 9:1 11:1 14:1 18:1 19:1 21:1 23:1 25:1 29:1 30:0.188943 31:1 33:1 35:1 39:1 
2048 1:1 3:0.380165 4:1 5:1 7:1 9:1 11:1 14:1 18:1 19:1 21:1 23:1 25:1 29:1 30:0.17767 31:1 33:1 35:1 39:1 
17.46176213422727 2:1 3:0.524793 4:1 5:1 8:1 9:1 12:1 13:1 15:1 18:1 19:1 21:1 23:1 25:1 28:1 30:0.190016 32:1 33:1 36:1 39:1 
2048 1:1 3:0.0826446 4:1 5:1 7:1 9:1 12:1 13:0.353553 14:1 18:1 19:1 21:1 23:1 25:1 29:1 30:0.115942 31:1 33:1 35:1 39:1 
2048 1:1 3:0.00826446 4:1 5:1 7:1 9:1 12:1 13:0.5 14:1 18:1 19:1 21:1 23:1 25:1 29:1 30:0.103596 31:1 33:1 35:1 39:1 
2048 1:1 3:0.516529 4:1 5:1 7:1 9:1 12:1 13:0.5 14:1 18:1 19:1 21:1 23:1 25:1 29:1 30:0.190016 31:1 33:1 35:1 39:1 
2048 1:1 3:0.528926 4:0.75 5:1 7:1 9:1 12:1 13:0.5 14:1 18:1 19:1 21:1 23:1 25:1 29:1 30:0.190016 31:1 33:1 35:1 39:1 
2048 1:1 3:0.264463 4:1 5:1 8:1 9:1 12:1 13:0.707107 14:1 18:1 19:1 21:1 23:1 25:1 29:1 30:0.178207 31:1 33:1 35:1 39:1 
2048 1:1 3:0.681818 4:1 6:1 7:1 9:1 12:1 13:0.5 14:1 18:1 19:1 21:1 23:1 25:1 29:1 30:0.228663 31:1 33:1 35:1 39:1 
2048 1:1 3:0.00826446 4:1 5:1 7:1 9:1 11:1 14:1 18:1 19:1 21:1 23:1 25:1 29:1 30:0.180891 31:1 33:1 35:1 39:1 
144.6843566536461 2:1 3:0.504132 4:1 5:1 8:1 9:1 12:1 13:1 15:1 18:1 20:1 21:1 23:1 25:1 29:1 30:0.254965 32:1 33:1 36:1 39:1 
2048 1:1 3:0.252066 4:1 5:1 7:1 9:1 11:1 14:1 18:1 19:1 21:1 23:1 25:1 29:1 30:0.193237 31:1 33:1 35:1 39:1 
2048 1:1 3:0.11157 4:1 5:1 7:1 9:1 12:1 13:0.353553 14:1 18:1 19:1 21:1 23:1 25:1 29:1 30:0.193237 31:1 33:1 35:1 39:1 
2048 1:1 3:0.00826446 4:1 5:1 7:1 9:1 12:1 13:0.5 14:1 18:1 19:1 21:1 23:1 25:1 29:1 30:0.193773 31:1 33:1 35:1 39:1 
2048 1:1 3:0.053719 4:1 5:1 7:1 9:1 11:1 14:1 18:1 19:1 21:1 23:1 25:1 29:1 30:0.193773 31:1 33:1 35:1 39:1 
2048 1:1 3:0.140496 4:1 5:1 7:1 9:1 11:1 14:1 18:1 19:1 21:1 23:1 25:1 29:1 30:0.230811 31:1 33:1 35:1 39:1 
2048 1:1 3:0.140496 4:1 5:1 7:1 9:1 11:1 14:1 18:1 19:1 21:1 23:1 25:1 29:1 30:0.230811 31:1 33:1 35:1 39:1 
2048 1:1 3:0.00413223 4:1 5:1 7:1 9:1 11:1 14:1 18:1 19:1 21:1 23:1 25:1 29:1 30:0.193773 31:1 33:1 35:1 39:1 
2048 1:1 4:1 5:1 7:1 9:1 11:1 14:1 18:1 19:1 21:1 23:1 25:1 29:1 30:0.193773 31:1 33:1 35:1 39:1 
2.578162344195154 1:1 3:0.00826446 4:1 6:1 8:1 9:1 12:1 13:1 15:1 18:1 19:1 21:1 23:1 26:1 29:1 30:0.232421 32:1 33:1 35:1 39:1 
2048 1:1 3:0.0206612 4:1 5:1 7:1 9:1 11:1 14:1 18:1 19:1 21:1 23:1 25:1 29:1 30:0.232421 31:1 33:1 35:1 39:1 
2048 1:1 3:0.14876 4:1 5:1 7:1 9:1 11:1 14:1 18:1 19:1 21:1 23:1 25:1 29:1 30:0.257112 31:1 33:1 35:1 39:1 
2048 1:1 3:0.0206612 4:1 5:1 7:1 9:1 11:1 14:1 18:1 19:1 21:1 23:1 25:1 29:1 30:0.232421 31:1 33:1 35:1 39:1 
2048 1:1 3:0.0330579 4:1 5:1 8:1 9:1 12:1 13:0.707107 14:1 18:1 20:1 21:1 23:1 25:1 29:1 30:0.232421 31:1 33:1 35:1 39:1 
2022.41593796889 1:1 3:0.0165289 4:1 6:1 7:1 10:1 12:1 13:0.5 14:1 18:1 19:1 21:1 23:1 25:1 29:1 30:0.232421 31:1 33:1 35:1 39:1 
772.625722951864 1:1 3:0.0206612 4:1 5:1 7:1 9:1 11:1 14:1 18:1 19:1 21:1 23:1 25:1 29:1 30:0.217391 31:1 34:1 36:1 39:1 
2048 1:1 4:1 5:1 7:1 9:1 11:1 14:1 18:1 19:1 21:1 23:1 25:1 29:1 31:1 33:1 35:1 39:1 
332.5975760208644 1:1 3:0.400826 4:0.25 6:1 8:1 9:1 12:1 13:0.816497 15:1 18:1 19:1 21:1 23:1 25:1 29:1 30:0.383253 32:1 33:1 36:1 39:1 
2048 1:1 3:0.00413223 4:0.25 5:1 7:1 9:1 11:1 14:1 18:1 19:1 21:1 23:1 25:1 29:1 30:0.374128 31:1 33:1 35:1 39:1 
2048 1:1 3:0.00413223 4:0.625 5:1 7:1 9:1 12:1 13:0.5 14:1 18:1 19:1 21:1 23:1 25:1 29:1 30:0.374128 31:1 33:1 35:1 39:1 
1303.205430327186 1:1 3:0.0991736 4:1 5:1 8:1 9:1 12:1 13:0.816497 14:1 17:1 19:1 21:1 23:1 25:1 29:1 30:0.187869 31:1 33:1 35:1 39:1 
2048 1:1 3:0.0743802 4:0.75 6:1 7:1 9:1 12:1 13:0.447214 14:1 16:1 19:1 21:1 23:1 25:1 29:1 30:0.210413 31:1 33:1 35:1 39:1 
215.0230181078561 2:1 3:0.272727 4:0.625 5:1 8:1 9:1 12:1 13:0.707107 15:1 18:1 20:1 21:1 23:1 25:1 29:1 30:0.283414 32:1 33:1 36:1 39:1 
2048 1:1 3:0.0413223 4:0.25 5:1 7:1 9:1 12:1 13:0.5 14:1 18:1 19:1 21:1 23:1 25:1 29:1 30:0.290392 31:1 33:1 35:1 39:1 
2048 1:1 3:0.0206612 4:0.375 5:1 7:1 9:1 12:1 13:0.408248 14:1 18:1 19:1 21:1 23:1 25:1 29:1 30:0.290392 31:1 33:1 35:1 39:1 
2048 1:1 3:0.330579 4:1 6:1 7:1 9:1 12:1 13:0.408248 14:1 18:1 19:1 21:1 23:1 25:1 29:1 30:0.293612 31:1 33:1 35:1 39:1 
82.28770834703448 2:1 3:0.161157 4:0.875 5:1 7:1 9:1 11:1 14:1 18:1 19:1 21:1 23:1 25:1 29:1 30:0.330113 31:1 34:1 36:1 39:1 
593.6099365988481 1:1 4:0.75 5:1 7:1 9:1 12:1 13:0.632456 14:1 18:1 20:1 21:1 23:1 25:1 29:1 30:0.301127 31:1 33:1 35:1 39:1 
2048 1:1 3:0.285124 4:1 5:1 7:1 9:1 11:1 14:1 18:1 19:1 21:1 23:1 25:1 29:1 30:0.125604 31:1 33:1 35:1 39:1 
2048 1:1 3:0.00413223 4:0.75 5:1 7:1 9:1 11:1 14:1 18:1 19:1 21:1 23:1 25:1 29:1 30:0.0542136 31:1 33:1 35:1 39:1 
2048 1:1 3:0.00413223 4:0.25 5:1 7:1 9:1 11:1 14:1 18:1 19:1 21:1 23:1 25:1 29:1 30:0.0542136 31:1 33:1 35:1 39:1 
2048 1:1 3:0.0330579 4:0.75 5:1 7:1 9:1 11:1 14:1 18:1 19:1 21:1 23:1 25:1 29:1 30:0.129361 31:1 33:1 35:1 39:1 
2048 1:1 3:0.0702479 4:1 5:1 7:1 9:1 11:1 14:1 18:1 19:1 21:1 23:1 25:1 29:1 30:0.159957 31:1 33:1 35:1 39:1 
2048 1:1 3:0.119835 4:0.875 5:1 7:1 9:1 11:1 14:1 18:1 19:1 21:1 23:1 25:1 29:1 30:0.180354 31:1 34:1 35:1 39:1 
2048 1:1 3:0.123967 4:1 5:1 7:1 9:1 11:1 14:1 18:1 19:1 21:1 23:1 25:1 29:1 30:0.180354 31:1 34:1 35:1 39:1 
197.0802899568838 2:1 3:0.0950413 4:1 5:1 8:1 9:1 12:1 13:1 15:1 18:1 20:1 21:1 23:1 26:1 29:1 30:0.0944713 32:1 33:1 36:1 39:1 
2048 1:1 3:0.0123967 4:0.625 6:1 7:1 9:1 12:1 13:0.5 14:1 18:1 19:1 21:1 23:1 25:1 29:1 30:0.145464 31:1 33:1 35:1 39:1 
2048 1:1 3:0.0123967 4:1 5:1 7:1 9:1 11:1 14:1 18:1 19:1 21:1 23:1 25:1 29:1 30:0.145464 31:1 33:1 35:1 39:1 
2048 1:1 3:0.0330579 4:1 5:1 7:1 9:1 12:1 13:0.5 14:1 18:1 19:1 21:1 23:1 25:1 29:1 30:0.188943 31:1 33:1 35:1 39:1 
871.4488638496005 2:1 3:0.219008 4:1 5:1 8:1 9:1 12:1 13:1 15:1 18:1 20:1 21:1 23:1 25:1 29:1 30:0.155126 32:1 33:1 36:1 39:1 
2048 1:1 3:0.00826446 4:0.625 5:1 7:1 9:1 11:1 14:1 18:1 19:1 21:1 23:1 25:1 29:1 30:0.158347 31:1 33:1 35:1 39:1 
9.496162908102624 1:1 3:0.0206612 4:0.5 6:1 8:1 10:1 12:1 13:1 15:1 18:1 19:1 21:1 23:1 25:1 27:1 30:0.206656 31:1 33:1 35:1 39:1 
300.8287422481347 2:1 3:0.11157 4:0.625 5:1 8:1 9:1 12:1 13:0.707107 15:1 18:1 19:1 21:1 23:1 25:1 29:1 30:0.0198604 32:1 34:1 36:1 39:1 
2048 1:1 3:0.0371901 4:0.375 5:1 7:1 9:1 12:1 13:0.5 14:1 18:1 19:1 21:1 23:1 25:1 29:1 30:0.0198604 31:1 33:1 35:1 39:1 
204.7760850888417 1:1 3:0.0371901 4:0.375 6:1 7:1 9:1 12:1 13:0.408248 14:1 18:1 19:1 21:1 23:1 25:1 29:1 30:0.0198604 31:1 33:1 35:1 39:1 
2048 1:1 3:0.22314 4:0.875 5:1 7:1 9:1 11:1 14:1 18:1 19:1 21:1 23:1 25:1 29:1 30:0.0284487 31:1 33:1 35:1 39:1 
2048 1:1 3:0.22314 4:0.875 5:1 7:1 9:1 12:1 13:0.288675 14:1 18:1 19:1 21:1 23:1 25:1 29:1 30:0.0284487 31:1 33:1 35:1 39:1 
2048 1:1 3:0.00826446 4:0.625 5:1 7:1 9:1 11:1 14:1 18:1 19:1 21:1 23:1 25:1 29:1 30:0.0198604 31:1 33:1 35:1 39:1 
2048 1:1 3:0.214876 4:0.75 5:1 7:1 9:1 11:1 14:1 18:1 19:1 21:1 23:1 25:1 29:1 30:0.0284487 31:1 33:1 35:1 39:1 
2048 1:1 3:0.152893 4:0.75 6:1 7:1 9:1 12:1 13:0.353553 14:1 18:1 19:1 21:1 23:1 25:1 29:1 30:0.0241546 31:1 33:1 35:1 39:1 
2048 1:1 3:0.0991736 4:0.875 5:1 7:1 9:1 11:1 14:1 18:1 19:1 21:1 23:1 25:1 29:1 30:0.0241546 31:1 33:1 35:1 39:1 
335.2905210000525 1:1 3:0.0619835 4:1 5:1 8:1 9:1 12:1 13:0.707107 14:1 18:1 19:1 21:1 23:1 25:1 29:1 30:0.0241546 32:1 33:1 36:1 39:1 
2048 1:1 4:1 5:1 7:1 9:1 11:1 14:1 18:1 19:1 21:1 23:1 25:1 29:1 30:0.0246914 31:1 33:1 35:1 39:1 
2048 1:1 3:0.0206612 4:1 5:1 7:1 9:1 12:1 13:0.316228 14:1 18:1 19:1 21:1 23:1 25:1 29:1 30:0.0289855 31:1 33:1 35:1 39:1 
2048 1:1 3:0.00826446 4:0.625 5:1 7:1 9:1 11:1 14:1 18:1 19:1 21:1 23:1 25:1 29:1 30:0.0783682 31:1 33:1 35:1 39:1 
2048 1:1 3:0.268595 4:0.875 5:1 7:1 9:1 11:1 14:1 18:1 19:1 21:1 23:1 25:1 29:1 30:0.318841 31:1 33:1 35:1 39:1 
2048 1:1 3:0.264463 4:1 6:1 7:1 9:1 12:1 13:0.5 14:1 18:1 20:1 21:1 23:1 25:1 29:1 30:0.33387 31:1 33:1 35:1 39:1 
2048 1:1 3:0.0578512 4:0.625 5:1 8:1 9:1 12:1 13:0.57735 14:1 18:1 19:1 21:1 23:1 25:1 29:1 30:0.342458 31:1 33:1 35:1 39:1 
2048 1:1 3:0.0206612 4:0.5 5:1 7:1 9:1 12:1 13:0.408248 14:1 18:1 19:1 21:1 23:1 25:1 29:1 30:0.17767 31:1 34:1 35:1 39:1 
2048 1:1 3:0.0247934 4:1 5:1 8:1 9:1 12:1 13:0.707107 14:1 18:1 20:1 21:1 23:1 25:1 29:1 30:0.17767 31:1 33:1 35:1 39:1 
2048 1:1 3:0.00826446 4:1 5:1 7:1 9:1 11:1 14:1 18:1 19:1 21:1 23:1 25:1 29:1 30:0.17767 31:1 33:1 35:1 39:1 
1308.79525386325 1:1 3:0.00413223 4:0.5 6:1 7:1 9:1 12:1 13:0.447214 14:1 18:1 20:1 21:1 23:1 25:1 29:1 30:0.17767 31:1 33:1 35:1 39:1 
2048 1:1 3:0.140496 4:0.5 5:1 7:1 9:1 12:1 13:0.333333 14:1 18:1 19:1 21:1 23:1 25:1 29:1 30:0.17767 31:1 33:1 35:1 39:1 
2048 1:1 3:0.0289256 4:0.625 5:1 7:1 9:1 11:1 14:1 18:1 19:1 21:1 23:1 25:1 29:1 30:0.17767 31:1 33:1 35:1 39:1 
2048 1:1 3:0.00413223 4:0.75 6:1 7:1 9:1 12:1 13:0.25 14:1 18:1 19:1 21:1 23:1 25:1 29:1 30:0.17767 31:1 33:1 35:1 39:1 
2048 1:1 4:0.875 5:1 7:1 9:1 11:1 14:1 18:1 19:1 21:1 23:1 25:1 29:1 30:0.17767 31:1 33:1 35:1 39:1 
2048 1:1 3:0.00413223 4:0.875 5:1 7:1 9:1 12:1 13:0.408248 14:1 18:1 19:1 21:1 23:1 25:1 29:1 30:0.17767 31:1 33:1 35:1 39:1 
2048 1:1 4:0.625 5:1 7:1 9:1 11:1 14:1 18:1 19:1 21:1 23:1 25:1 29:1 30:0.17767 31:1 33:1 35:1 39:1 
2048 1:1 3:0.00413223 4:0.875 5:1 7:1 9:1 11:1 14:1 18:1 19:1 21:1 23:1 25:1 29:1 30:0.17767 31:1 33:1 35:1 39:1 
810.9665252934305 1:1 3:0.128099 4:1 5:1 7:1 9:1 12:1 13:0.5 14:1 18:1 20:1 21:1 23:1 25:1 29:1 30:0.17767 31:1 33:1 35:1 39:1 
2048 1:1 3:0.00413223 4:0.625 5:1 7:1 9:1 11:1 14:1 18:1 19:1 21:1 23:1 25:1 29:1 30:0.17767 31:1 33:1 35:1 39:1 
2048 1:1 3:0.00826446 4:0.875 5:1 7:1 9:1 11:1 14:1 18:1 19:1 21:1 23:1 25:1 29:1 30:0.17767 31:1 33:1 35:1 39:1 
2048 1:1 3:0.0123967 4:0.75 5:1 7:1 9:1 12:1 13:0.408248 14:1 18:1 19:1 21:1 23:1 25:1 29:1 30:0.17767 31:1 33:1 35:1 39:1 
2048 1:1 3:0.0785124 4:1 5:1 8:1 9:1 12:1 13:0.707107 14:1 18:1 19:1 21:1 23:1 25:1 29:1 30:0.222759 31:1 33:1 35:1 39:1 
2048 1:1 3:0.173554 4:1 5:1 7:1 9:1 11:1 14:1 18:1 19:1 21:1 23:1 25:1 29:1 30:0.170156 31:1 33:1 35:1 39:1 
2048 1:1 3:0.00826446 4:0.625 5:1 7:1 9:1 11:1 14:1 18:1 19:1 21:1 23:1 25:1 29:1 30:0.173376 31:1 33:1 35:1 39:1 
2048 1:1 3:0.177686 4:0.875 5:1 7:1 9:1 11:1 14:1 18:1 19:1 21:1 23:1 25:1 29:1 30:0.220612 31:1 33:1 35:1 39:1 
2048 1:1 3:0.0123967 4:0.625 6:1 7:1 9:1 12:1 13:0.353553 14:1 18:1 19:1 21:1 23:1 25:1 29:1 30:0.0177134 31:1 33:1 35:1 39:1 
2048 1:1 4:0.75 5:1 7:1 9:1 11:1 14:1 18:1 19:1 21:1 23:1 25:1 28:1 30:0.0177134 31:1 33:1 35:1 39:1 
2048 1:1 3:0.00413223 4:1 5:1 7:1 9:1 11:1 14:1 18:1 19:1 21:1 23:1 25:1 29:1 30:0.0177134 31:1 33:1 35:1 39:1 
2048 1:1 3:0.0743802 4:0.25 5:1 7:1 9:1 12:1 13:0.5 14:1 18:1 19:1 21:1 23:1 25:1 29:1 30:0.263553 31:1 33:1 35:1 39:1 
2048 1:1 4:1 5:1 7:1 9:1 11:1 14:1 18:1 19:1 21:1 23:1 25:1 29:1 30:0.0950081 31:1 34:1 35:1 39:1 
2048 1:1 3:0.231405 4:1 5:1 7:1 9:1 11:1 14:1 18:1 19:1 21:1 23:1 25:1 29:1 30:0.176597 31:1 34:1 35:1 39:1 
364.6637220868473 2:1 3:0.14876 4:0.25 6:1 8:1 9:1 12:1 13:0.894427 15:1 18:1 19:1 21:1 23:1 25:1 29:1 30:0.135802 32:1 34:1 36:1 39:1 
2048 1:1 3:0.00826446 4:0.375 5:1 7:1 9:1 11:1 14:1 18:1 19:1 21:1 23:1 25:1 29:1 30:0.140097 31:1 33:1 35:1 39:1 
2048 1:1 3:0.053719 4:0.875 5:1 7:1 9:1 11:1 14:1 18:1 19:1 21:1 23:1 25:1 29:1 30:0.170692 31:1 33:1 35:1 39:1 
2048 1:1 3:0.0289256 5:1 7:1 9:1 12:1 13:0.857143 14:1 18:1 19:1 21:1 23:1 25:1 29:1 30:0.0483092 31:1 33:1 35:1 39:1 
3.354041118023381 1:1 3:0.0454545 4:1 5:1 8:1 9:1 12:1 13:0.5 14:1 18:1 19:1 22:1 24:1 25:1 29:1 30:0.340311 31:1 33:1 35:1 39:1 
2048 1:1 4:1 5:1 7:1 9:1 11:1 14:1 18:1 19:1 21:1 23:1 25:1 28:1 30:0.0488459 31:1 33:1 35:1 39:1 
2048 1:1 3:0.0165289 4:1 5:1 7:1 9:1 11:1 14:1 18:1 19:1 21:1 23:1 25:1 29:1 30:0.0488459 31:1 33:1 35:1 39:1 
1777.021227677824 1:1 3:0.0330579 4:1 5:1 8:1 9:1 12:1 13:1 15:1 18:1 20:1 21:1 23:1 25:1 29:1 30:0.116479 32:1 34:1 36:1 39:1 
491.7769120294024 1:1 3:0.0123967 4:1 5:1 8:1 9:1 12:1 13:1 15:1 18:1 20:1 21:1 23:1 25:1 29:1 30:0.116479 32:1 33:1 36:1 39:1 
2048 1:1 3:0.00826446 4:0.75 5:1 7:1 9:1 11:1 14:1 18:1 19:1 21:1 23:1 25:1 29:1 30:0.129361 31:1 33:1 35:1 39:1 
65.03632177963834 1:1 3:0.0661157 4:0.375 6:1 7:1 9:1 12:1 13:0.763763 14:1 16:1 19:1 21:1 23:1 25:1 29:1 30:0.119699 31:1 33:1 35:1 38:1 
609.2323114921986 1:1 3:0.409091 4:1 5:1 7:1 9:1 11:1 14:1 18:1 19:1 21:1 23:1 25:1 29:1 30:0.36715 32:1 33:1 36:1 39:1 
268.6308574925575 1:1 3:0.00826446 4:0.25 5:1 7:1 9:1 12:1 13:0.67082 14:1 18:1 19:1 21:1 23:1 25:1 29:1 30:0.301127 32:1 34:1 36:1 39:1 
787.3625818090898 1:1 3:0.190083 4:1 5:1 7:1 9:1 12:1 13:0.894427 14:1 18:1 19:1 21:1 23:1 25:1 29:1 30:0.373591 31:1 33:1 35:1 39:1 
2005.413180929418 1:1 3:0.190083 4:1 5:1 7:1 9:1 12:1 13:0.894427 14:1 18:1 19:1 21:1 23:1 25:1 29:1 30:0.373591 31:1 33:1 35:1 39:1 
450.2924042057598 1:1 3:0.0206612 4:0.25 5:1 8:1 9:1 12:1 13:0.57735 14:1 18:1 19:1 21:1 23:1 25:1 29:1 30:0.301127 31:1 33:1 35:1 39:1 
2048 1:1 3:0.00826446 4:0.875 5:1 8:1 9:1 12:1 13:0.57735 14:1 18:1 19:1 21:1 23:1 25:1 29:1 30:0.301127 31:1 33:1 35:1 39:1 
25.77182597699554 1:1 3:0.00826446 4:0.5 6:1 8:1 10:1 12:1 13:1 15:1 18:1 19:1 21:1 23:1 25:1 27:1 30:0.301127 32:1 34:1 36:1 39:1 
2048 1:1 3:0.417355 4:1 5:1 7:1 9:1 11:1 14:1 16:1 19:1 21:1 23:1 25:1 29:1 30:0.130972 31:1 33:1 35:1 39:1 
2048 1:1 3:0.417355 4:1 5:1 7:1 9:1 11:1 14:1 16:1 19:1 21:1 23:1 25:1 29:1 30:0.130972 31:1 33:1 35:1 39:1 
2048 1:1 3:0.11157 4:0.625 5:1 7:1 9:1 11:1 14:1 18:1 19:1 21:1 23:1 25:1 29:1 30:0.0670961 31:1 33:1 35:1 39:1 
832.0988019233923 1:1 3:0.0991736 4:0.875 5:1 7:1 9:1 11:1 14:1 18:1 19:1 21:1 23:1 25:1 29:1 30:0.0681696 31:1 34:1 36:1 39:1 
2048 1:1 3:0.0371901 4:0.625 5:1 7:1 9:1 11:1 14:1 18:1 19:1 21:1 23:1 25:1 29:1 30:0.0772947 31:1 33:1 35:1 39:1 
2048 1:1 3:0.11157 4:0.875 5:1 7:1 9:1 11:1 14:1 18:1 19:1 21:1 23:1 25:1 29:1 30:0.123457 31:1 33:1 35:1 37:1 
2048 1:1 4:0.75 5:1 7:1 9:1 11:1 14:1 18:1 19:1 21:1 23:1 25:1 29:1 30:0.129361 31:1 33:1 35:1 39:1 
387.6282497279415 2:1 3:0.00413223 4:0.625 5:1 7:1 9:1 11:1 14:1 18:1 19:1 21:1 23:1 25:1 29:1 30:0.129361 31:1 33:1 35:1 39:1 
2048 1:1 3:0.0123967 4:0.625 6:1 7:1 9:1 12:1 13:0.353553 14:1 18:1 19:1 21:1 23:1 25:1 29:1 30:0.129361 31:1 33:1 35:1 39:1 
2048 1:1 3:0.214876 4:0.625 5:1 8:1 9:1 12:1 13:0.57735 14:1 18:1 19:1 21:1 23:1 25:1 29:1 30:0.153516 31:1 33:1 35:1 39:1 
2048 1:1 3:0.0247934 4:0.875 5:1 8:1 9:1 12:1 13:0.57735 14:1 18:1 19:1 21:1 23:1 25:1 29:1 30:0.169082 31:1 33:1 35:1 39:1 
2048 1:1 3:0.00826446 4:0.75 5:1 8:1 9:1 12:1 13:0.57735 14:1 18:1 19:1 21:1 23:1 25:1 29:1 30:0.169619 31:1 33:1 35:1 39:1 
2048 1:1 3:0.00413223 4:0.625 5:1 7:1 9:1 11:1 14:1 18:1 19:1 21:1 23:1 25:1 29:1 30:0.223833 31:1 33:1 35:1 39:1 
2048 1:1 3:0.0165289 4:1 5:1 7:1 9:1 12:1 13:0.408248 14:1 18:1 19:1 21:1 23:1 25:1 29:1 30:0.223833 31:1 33:1 35:1 39:1 
819.3844319939017 2:1 3:0.334711 4:0.625 5:1 8:1 9:1 12:1 13:0.707107 15:1 18:1 19:1 21:1 23:1 25:1 29:1 30:0.331186 32:1 33:1 36:1 39:1 
6.599056290949842 1:1 4:1 5:1 8:1 9:1 12:1 13:0.707107 14:1 18:1 20:1 22:1 23:1 25:1 29:1 30:0.237789 31:1 33:1 35:1 39:1 
2048 1:1 3:0.00413223 4:1 5:1 7:1 9:1 11:1 14:1 18:1 19:1 21:1 23:1 25:1 29:1 30:0.123994 31:1 33:1 35:1 39:1 
2048 1:1 3:0.0578512 4:0.25 5:1 7:1 9:1 11:1 14:1 17:1 19:1 21:1 23:1 25:1 29:1 30:0.0794418 31:1 33:1 35:1 39:1 
2048 1:1 3:0.00826446 4:0.375 5:1 7:1 9:1 11:1 14:1 18:1 19:1 21:1 23:1 25:1 29:1 30:0.0826624 31:1 33:1 35:1 39:1 
2048 1:1 3:0.00413223 4:0.625 5:1 7:1 9:1 11:1 14:1 18:1 19:1 21:1 23:1 25:1 29:1 30:0.154053 31:1 33:1 35:1 39:1 
2048 1:1 3:0.00826446 4:0.375 5:1 7:1 9:1 11:1 14:1 16:1 19:1 21:1 23:1 25:1 29:1 30:0.0874933 31:1 33:1 35:1 39:1 
2048 1:1 3:0.0495868 4:0.5 5:1 7:1 9:1 11:1 14:1 18:1 19:1 21:1 23:1 25:1 29:1 30:0.0874933 31:1 33:1 35:1 39:1 
2048 1:1 3:0.483471 4:1 5:1 7:1 9:1 11:1 14:1 17:1 19:1 21:1 23:1 25:1 29:1 30:0.311326 31:1 33:1 35:1 39:1 
2048 1:1 3:0.483471 4:1 6:1 8:1 9:1 12:1 13:0.816497 14:1 17:1 19:1 21:1 23:1 25:1 29:1 30:0.311326 31:1 33:1 35:1 38:1 
2048 1:1 3:0.202479 4:1 5:1 7:1 9:1 11:1 14:1 18:1 19:1 21:1 23:1 25:1 29:1 30:0.244767 31:1 33:1 35:1 39:1 
2048 1:1 3:0.0289256 4:0.75 5:1 7:1 9:1 12:1 13:0.471405 14:1 17:1 19:1 21:1 23:1 25:1 29:1 30:0.202899 31:1 33:1 35:1 39:1 
2048 1:1 3:0.0123967 4:1 5:1 7:1 9:1 11:1 14:1 18:1 19:1 21:1 23:1 25:1 29:1 30:0.26087 31:1 33:1 35:1 39:1 
1601.405441318418 1:1 3:0.293388 4:1 5:1 7:1 9:1 12:1 13:0.5 14:1 18:1 20:1 21:1 23:1 25:1 29:1 30:0.628019 31:1 33:1 35:1 39:1 
395.0352549571864 2:1 3:0.0413223 4:1 5:1 7:1 9:1 11:1 14:1 18:1 19:1 21:1 23:1 25:1 29:1 30:0.638755 32:1 33:1 36:1 39:1 
2048 1:1 3:0.18595 4:0.875 5:1 7:1 9:1 12:1 13:0.333333 14:1 18:1 19:1 21:1 23:1 25:1 29:1 30:0.767579 31:1 33:1 35:1 39:1 
2048 1:1 3:0.256198 4:0.75 5:1 7:1 9:1 12:1 13:0.19245 14:1 18:1 19:1 21:1 23:1 25:1 29:1 30:0.200215 31:1 33:1 35:1 39:1 
2048 2:1 3:0.0247934 4:1 5:1 8:1 9:1 12:1 13:1 15:1 18:1 20:1 21:1 23:1 25:1 29:1 30:0.219002 32:1 33:1 36:1 39:1 
2048 1:1 3:0.219008 4:1 5:1 7:1 9:1 11:1 14:1 18:1 19:1 21:1 23:1 25:1 29:1 30:0.326355 31:1 33:1 35:1 39:1 
2048 1:1 3:0.243802 4:0.75 5:1 7:1 9:1 11:1 14:1 18:1 19:1 21:1 23:1 25:1 29:1 30:0.343532 31:1 34:1 35:1 39:1 
2048 1:1 3:0.11157 4:1 5:1 7:1 9:1 11:1 14:1 18:1 19:1 21:1 23:1 25:1 29:1 30:0.413849 31:1 34:1 36:1 39:1 
2048 1:1 4:0.75 5:1 7:1 9:1 11:1 14:1 18:1 19:1 21:1 23:1 25:1 29:1 30:0.416532 31:1 33:1 35:1 39:1 
1442.585170702839 1:1 3:0.0991736 4:1 5:1 8:1 9:1 12:1 13:0.707107 14:1 18:1 19:1 21:1 23:1 25:1 29:1 30:0.0762211 31:1 33:1 35:1 39:1 
2048 1:1 3:0.0123967 4:1 5:1 7:1 9:1 11:1 14:1 17:1 19:1 21:1 23:1 25:1 29:1 30:0.064949 31:1 33:1 35:1 39:1 
2048 1:1 3:0.00413223 4:0.625 5:1 7:1 9:1 11:1 14:1 18:1 19:1 21:1 23:1 25:1 29:1 30:0.064949 31:1 33:1 35:1 39:1 
32.03361654086476 1:1 4:1 5:1 8:1 9:1 12:1 13:1 15:1 18:1 19:1 21:1 23:1 25:1 28:1 30:0.064949 32:1 33:1 36:1 39:1 
2048 1:1 3:0.00826446 4:0.25 5:1 7:1 9:1 11:1 14:1 18:1 19:1 21:1 23:1 25:1 29:1 30:0.0563607 31:1 33:1 35:1 39:1 
8.880438849634077 1:1 3:0.0371901 4:0.625 5:1 8:1 9:1 12:1 13:0.707107 15:1 18:1 20:1 21:1 23:1 26:1 29:1 30:0.0563607 32:1 33:1 36:1 39:1 
42.84844439013222 1:1 4:1 5:1 8:1 9:1 12:1 13:1 15:1 18:1 20:1 21:1 23:1 25:1 28:1 30:0.251744 32:1 33:1 36:1 39:1 
2048 1:1 4:1 5:1 7:1 9:1 11:1 14:1 18:1 19:1 21:1 23:1 25:1 29:1 30:0.100913 31:1 33:1 35:1 39:1 
2048 1:1 4:1 5:1 7:1 9:1 11:1 14:1 18:1 19:1 21:1 23:1 25:1 29:1 30:0.100913 31:1 33:1 35:1 39:1 
2048 1:1 3:0.0123967 4:1 5:1 7:1 9:1 11:1 14:1 18:1 19:1 21:1 23:1 25:1 29:1 30:0.100913 31:1 33:1 35:1 39:1 
2048 1:1 3:0.00413223 4:1 5:1 7:1 9:1 11:1 14:1 18:1 19:1 21:1 23:1 25:1 29:1 30:0.100913 31:1 33:1 35:1 39:1 
2048 1:1 3:0.0247934 4:1 5:1 7:1 9:1 11:1 14:1 18:1 19:1 21:1 23:1 25:1 29:1 30:0.118626 31:1 34:1 36:1 39:1 
1137.655013113227 1:1 3:0.0206612 4:1 5:1 7:1 9:1 11:1 14:1 18:1 19:1 21:1 23:1 25:1 29:1 30:0.118626 32:1 33:1 36:1 39:1 
2048 1:1 3:0.0165289 4:0.375 6:1 7:1 9:1 12:1 13:0.353553 14:1 18:1 19:1 21:1 23:1 25:1 29:1 30:0.21095 31:1 33:1 35:1 39:1 
349.8530869561083 1:1 3:0.0165289 4:0.25 5:1 8:1 9:1 12:1 13:0.816497 14:1 18:1 19:1 21:1 23:1 25:1 29:1 30:0.21095 31:1 34:1 35:1 39:1 
2048 1:1 3:0.0165289 4:0.75 5:1 7:1 9:1 12:1 13:0.288675 14:1 18:1 19:1 21:1 23:1 25:1 29:1 30:0.21095 31:1 33:1 35:1 39:1 
2048 1:1 3:0.260331 4:0.625 5:1 7:1 9:1 11:1 14:1 18:1 19:1 21:1 23:1 25:1 29:1 30:0.312399 31:1 33:1 35:1 39:1 
2048 1:1 3:0.00413223 6:1 7:1 9:1 12:1 13:0.516398 14:1 18:1 19:1 21:1 23:1 25:1 29:1 30:0.21095 31:1 33:1 35:1 39:1 
2048 1:1 3:0.280992 4:0.75 6:1 7:1 9:1 12:1 13:0.333333 14:1 18:1 19:1 21:1 23:1 25:1 29:1 30:0.355878 31:1 33:1 35:1 39:1 
2048 1:1 3:0.268595 4:1 5:1 7:1 9:1 12:1 13:0.353553 14:1 18:1 19:1 21:1 23:1 25:1 29:1 30:0.355878 31:1 34:1 35:1 39:1 
2048 1:1 3:0.00826446 4:0.375 6:1 7:1 9:1 12:1 13:0.57735 14:1 18:1 19:1 21:1 23:1 25:1 29:1 30:0.271068 31:1 33:1 35:1 39:1 
1078.196896398661 1:1 3:0.0991736 4:1 6:1 8:1 10:1 12:1 13:1 15:1 18:1 19:1 21:1 23:1 25:1 29:1 30:0.181428 31:1 33:1 35:1 38:1 
2048 1:1 3:0.0206612 4:0.25 5:1 7:1 9:1 12:1 13:0.5 14:1 18:1 19:1 21:1 23:1 25:1 29:1 30:0.185722 31:1 33:1 35:1 39:1 
2048 1:1 4:0.875 5:1 8:1 9:1 12:1 13:0.57735 14:1 18:1 19:1 21:1 23:1 25:1 29:1 30:0.198068 31:1 33:1 35:1 39:1 
2048 1:1 3:0.00826446 4:0.375 5:1 7:1 9:1 11:1 14:1 18:1 19:1 21:1 23:1 25:1 29:1 30:0.154053 31:1 33:1 35:1 39:1 
2048 1:1 3:0.190083 4:0.875 5:1 7:1 9:1 11:1 14:1 18:1 19:1 21:1 23:1 25:1 29:1 30:0.199141 31:1 33:1 35:1 39:1 
2048 1:1 3:0.00413223 4:1 5:1 7:1 9:1 11:1 14:1 18:1 19:1 21:1 23:1 25:1 29:1 30:0.154053 31:1 33:1 35:1 39:1 
2048 1:1 3:0.0165289 4:0.75 5:1 7:1 9:1 12:1 13:0.408248 14:1 18:1 20:1 21:1 23:1 25:1 29:1 30:0.154053 31:1 33:1 35:1 39:1 
2048 1:1 3:0.00413223 4:0.625 6:1 7:1 9:1 12:1 13:0.5 14:1 18:1 19:1 21:1 23:1 25:1 29:1 30:0.135802 31:1 33:1 35:1 39:1 
265.7904733118948 1:1 3:0.165289 4:1 6:1 8:1 9:1 12:1 13:1 15:1 18:1 19:1 21:1 23:1 25:1 29:1 30:0.0917874 32:1 34:1 36:1 39:1 
2048 1:1 3:0.144628 4:1 6:1 7:1 9:1 12:1 13:0.408248 14:1 18:1 19:1 21:1 23:1 25:1 29:1 30:0.503489 31:1 33:1 35:1 39:1 
50.94977544315411 1:1 3:0.128099 4:1 5:1 7:1 10:1 12:1 13:0.666667 14:1 18:1 19:1 21:1 23:1 25:1 29:1 30:0.64949 31:1 33:1 35:1 39:1 
2048 1:1 3:0.0619835 4:1 5:1 7:1 9:1 12:1 13:0.92582 14:1 18:1 19:1 21:1 23:1 25:1 29:1 30:0.0676329 31:1 33:1 35:1 38:1 
2048 1:1 3:0.0619835 4:1 6:1 7:1 9:1 12:1 13:0.730297 14:1 18:1 19:1 21:1 23:1 25:1 29:1 30:0.0676329 31:1 33:1 35:1 38:1 
1607.104082083593 1:1 3:0.268595 4:1 5:1 8:1 9:1 12:1 13:0.707107 14:1 18:1 20:1 21:1 23:1 25:1 29:1 30:0.164251 31:1 33:1 35:1 39:1 
2048 1:1 3:0.231405 4:1 5:1 8:1 9:1 12:1 13:0.845154 14:1 17:1 19:1 21:1 23:1 25:1 29:1 30:0.153516 31:1 33:1 35:1 38:1 
102.5128158990924 2:1 3:0.202479 4:1 5:1 7:1 9:1 11:1 14:1 18:1 19:1 21:1 23:1 25:1 29:1 30:0.166398 32:1 33:1 36:1 39:1 
2048 2:1 3:0.161157 4:1 5:1 8:1 9:1 12:1 13:1 15:1 18:1 20:1 21:1 23:1 25:1 29:1 30:0.167472 32:1 33:1 36:1 39:1 
2048 1:1 3:0.0165289 4:0.625 5:1 7:1 9:1 12:1 13:0.75 14:1 18:1 19:1 21:1 23:1 25:1 29:1 30:0.169082 31:1 33:1 35:1 39:1 
2048 2:1 3:0.0289256 4:1 5:1 8:1 9:1 12:1 13:1 15:1 18:1 20:1 21:1 23:1 25:1 29:1 30:0.214171 32:1 33:1 36:1 39:1 
2048 1:1 3:0.822314 4:1 5:1 7:1 9:1 11:1 14:1 18:1 19:1 21:1 23:1 25:1 29:1 30:0.703167 31:1 33:1 35:1 39:1 
2048 1:1 3:0.632231 4:0.25 5:1 7:1 9:1 12:1 13:0.57735 14:1 18:1 19:1 21:1 23:1 25:1 29:1 30:0.680623 31:1 33:1 35:1 39:1 
2048 1:1 3:0.326446 4:1 5:1 7:1 9:1 12:1 13:0.333333 14:1 18:1 19:1 21:1 23:1 25:1 29:1 30:0.545357 31:1 33:1 35:1 39:1 
2048 1:1 3:0.752066 4:1 5:1 7:1 9:1 11:1 14:1 18:1 19:1 21:1 23:1 25:1 29:1 30:0.703704 31:1 33:1 35:1 39:1 
2048 1:1 3:0.293388 4:0.25 5:1 7:1 9:1 11:1 14:1 18:1 19:1 21:1 23:1 25:1 29:1 30:0.54643 31:1 33:1 35:1 39:1 
2048 1:1 3:0.190083 4:1 5:1 7:1 9:1 11:1 14:1 18:1 19:1 21:1 23:1 25:1 29:1 30:0.554482 31:1 33:1 35:1 39:1 
2048 1:1 3:0.00826446 4:0.75 6:1 7:1 9:1 12:1 13:0.316228 14:1 18:1 19:1 21:1 23:1 25:1 29:1 30:0.554482 31:1 33:1 35:1 39:1 
1.081081468339143 1:1 3:0.00413223 4:0.375 6:1 7:1 9:1 12:1 13:0.666667 15:1 18:1 20:1 21:1 23:1 25:1 29:1 30:0.716049 31:1 33:1 35:1 39:1 
2048 1:1 4:1 5:1 7:1 9:1 11:1 14:1 18:1 19:1 21:1 23:1 25:1 29:1 30:0.716049 31:1 33:1 35:1 39:1 
2048 1:1 3:0.0123967 4:1 5:1 7:1 9:1 11:1 14:1 18:1 19:1 21:1 23:1 25:1 29:1 30:0.716049 31:1 33:1 35:1 39:1 
2048 1:1 3:0.00826446 4:1 5:1 7:1 9:1 11:1 14:1 17:1 19:1 21:1 23:1 25:1 29:1 30:0.716049 31:1 33:1 35:1 39:1 
2048 1:1 4:1 5:1 7:1 9:1 11:1 14:1 18:1 19:1 21:1 23:1 25:1 29:1 30:0.716049 31:1 33:1 35:1 39:1 
2048 1:1 3:0.128099 4:1 5:1 7:1 9:1 11:1 14:1 18:1 19:1 21:1 23:1 25:1 29:1 30:0.738594 31:1 33:1 35:1 39:1 
999.7337002495732 1:1 3:0.00413223 4:1 6:1 8:1 9:1 12:1 13:1 15:1 18:1 19:1 21:1 23:1 25:1 29:1 30:0.716049 32:1 34:1 36:1 39:1 
6.901215945187039 1:1 3:0.00413223 4:1 5:1 8:1 9:1 12:1 13:0.707107 14:1 17:1 19:1 21:1 23:1 25:1 29:1 30:0.716049 31:1 34:1 36:1 39:1 
2048 1:1 3:0.289256 4:1 5:1 7:1 9:1 11:1 14:1 18:1 19:1 21:1 23:1 25:1 29:1 30:0.761138 31:1 33:1 35:1 39:1 
77.93271514835902 1:1 3:0.115702 4:1 5:1 8:1 9:1 12:1 13:1 15:1 18:1 20:1 22:1 24:1 25:1 29:1 30:0.761675 32:1 33:1 36:1 39:1 
2048 1:1 3:0.206612 4:1 5:1 7:1 9:1 11:1 14:1 18:1 19:1 21:1 23:1 25:1 29:1 30:0.761675 31:1 33:1 35:1 39:1 
12.12615615014579 1:1 3:0.0826446 4:1 6:1 8:1 10:1 12:1 13:1 15:1 18:1 20:1 22:1 24:1 25:1 29:1 30:0.761675 32:1 33:1 36:1 39:1 
2048 1:1 3:0.11157 4:0.5 5:1 7:1 9:1 12:1 13:0.471405 14:1 18:1 19:1 21:1 23:1 25:1 29:1 30:0.0547504 31:1 33:1 35:1 39:1 
2048 1:1 3:0.293388 5:1 7:1 9:1 12:1 13:0.666667 14:1 18:1 19:1 21:1 23:1 25:1 29:1 30:0.199141 31:1 33:1 35:1 39:1 
-2048 1:1 3:0.0330579 4:1 5:1 7:1 9:1 12:1 13:0.353553 14:1 18:1 19:1 21:1 23:1 25:1 29:1 30:0.13795 31:1 33:1 35:1 39:1 
-2048 1:1 3:0.0330579 4:1 5:1 7:1 9:1 12:1 13:0.353553 14:1 18:1 19:1 21:1 23:1 25:1 29:1 30:0.13795 31:1 33:1 35:1 39:1 
-2048 1:1 4:1 5:1 7:1 9:1 12:1 13:0.5 14:1 18:1 19:1 21:1 23:1 25:1 29:1 30:0.13795 31:1 33:1 35:1 39:1 
-2048 1:1 3:0.272727 4:1 5:1 7:1 9:1 12:1 13:0.5 14:1 18:1 19:1 21:1 23:1 25:1 29:1 30:0.404187 31:1 33:1 35:1 39:1 
-2048 1:1 3:0.0578512 4:1 5:1 7:1 9:1 12:1 13:0.5 14:1 18:1 19:1 21:1 23:1 25:1 29:1 30:0.412775 31:1 33:1 35:1 39:1 
-2048 1:1 3:0.0371901 4:1 5:1 7:1 9:1 12:1 13:0.5 14:1 18:1 19:1 21:1 23:1 25:1 29:1 30:0.412775 31:1 33:1 35:1 39:1 
-2048 1:1 3:0.0206612 4:1 5:1 7:1 9:1 12:1 13:0.5 14:1 18:1 19:1 21:1 23:1 25:1 29:1 30:0.412775 31:1 33:1 35:1 39:1 
-359.7485630981938 1:1 3:0.132231 4:0.25 5:1 7:1 9:1 11:1 14:1 16:1 19:1 21:1 23:1 25:1 29:1 30:0.113795 31:1 33:1 35:1 39:1 
-1635.119167689576 1:1 3:0.260331 4:0.875 5:1 7:1 9:1 11:1 14:1 18:1 19:1 21:1 23:1 25:1 29:1 30:0.276973 31:1 33:1 36:1 39:1 
-662.9761889358977 1:1 3:0.18595 4:1 5:1 7:1 9:1 11:1 14:1 18:1 19:1 21:1 23:1 25:1 29:1 30:0.276973 31:1 33:1 36:1 39:1 
-2048 1:1 3:0.0123967 4:0.875 5:1 7:1 9:1 11:1 14:1 18:1 19:1 21:1 23:1 25:1 29:1 30:0.286098 31:1 33:1 35:1 39:1 
-2048 1:1 3:0.00413223 4:0.625 6:1 7:1 9:1 12:1 13:0.5 14:1 18:1 20:1 21:1 23:1 25:1 29:1 30:0.286098 31:1 33:1 35:1 39:1 
-2048 1:1 3:0.214876 4:1 5:1 8:1 9:1 12:1 13:0.57735 14:1 18:1 19:1 21:1 23:1 25:1 29:1 30:0.190553 31:1 33:1 35:1 39:1 
-2048 1:1 3:0.227273 4:0.25 5:1 8:1 9:1 12:1 13:0.5 14:1 18:1 19:1 21:1 23:1 25:1 29:1 30:0.190553 31:1 33:1 35:1 39:1 
-2048 1:1 3:0.0330579 4:0.25 6:1 7:1 9:1 12:1 13:0.25 14:1 18:1 19:1 21:1 23:1 25:1 29:1 30:0.193773 31:1 33:1 35:1 39:1 
-2048 1:1 3:0.00413223 4:0.5 5:1 7:1 9:1 12:1 13:0.5 14:1 18:1 19:1 21:1 23:1 25:1 29:1 30:0.193773 31:1 33:1 35:1 39:1 
-2048 1:1 3:0.0206612 4:1 5:1 7:1 9:1 12:1 13:0.5 14:1 18:1 19:1 21:1 23:1 25:1 29:1 30:0.0397209 31:1 33:1 35:1 39:1 
-2048 1:1 3:0.0165289 4:1 5:1 8:1 9:1 12:1 13:0.707107 14:1 18:1 19:1 21:1 23:1 25:1 29:1 30:0.0397209 31:1 33:1 35:1 39:1 
-2048 1:1 3:0.0165289 4:0.25 6:1 8:1 9:1 12:1 13:0.57735 14:1 18:1 19:1 21:1 23:1 25:1 29:1 30:0.0558239 31:1 33:1 35:1 39:1 
-2048 1:1 4:1 5:1 7:1 9:1 11:1 14:1 18:1 19:1 21:1 23:1 25:1 29:1 30:0.064949 31:1 33:1 35:1 39:1 
-1727.966034711864 1:1 3:0.0619835 4:1 5:1 7:1 9:1 11:1 14:1 18:1 19:1 21:1 23:1 25:1 29:1 30:0.0982287 31:1 34:1 35:1 39:1 
-2048 1:1 3:0.0785124 4:1 5:1 7:1 9:1 11:1 14:1 18:1 19:1 21:1 23:1 25:1 29:1 30:0.234568 31:1 33:1 35:1 39:1 
-2048 1:1 3:0.822314 4:0.625 5:1 7:1 9:1 12:1 13:0.53936 14:1 17:1 19:1 21:1 23:1 25:1 29:1 30:0.283951 31:1 33:1 35:1 39:1 
-110.7944810598323 1:1 3:0.752066 4:0.625 5:1 7:1 9:1 11:1 14:1 16:1 19:1 21:1 23:1 25:1 29:1 30:0.285561 31:1 33:1 35:1 39:1 
-2048 1:1 3:0.483471 4:0.5 5:1 7:1 9:1 12:1 13:0.4 14:1 18:1 19:1 21:1 23:1 25:1 29:1 30:0.287708 31:1 33:1 35:1 39:1 
-2048 1:1 3:0.466942 4:0.5 5:1 7:1 9:1 12:1 13:0.365148 14:1 18:1 19:1 21:1 23:1 25:1 29:1 30:0.288245 31:1 33:1 35:1 39:1 
-2048 1:1 3:0.818182 4:1 5:1 8:1 9:1 12:1 13:0.707107 14:1 18:1 19:1 21:1 23:1 25:1 29:1 30:0.284487 31:1 33:1 35:1 39:1 
-2048 1:1 3:0.818182 4:1 5:1 8:1 9:1 12:1 13:0.5 14:1 18:1 19:1 21:1 23:1 25:1 29:1 30:0.284487 31:1 33:1 35:1 39:1 
-2048 1:1 3:0.00413223 4:1 5:1 8:1 9:1 12:1 13:0.707107 14:1 18:1 19:1 21:1 23:1 25:1 29:1 30:0.290392 31:1 33:1 35:1 39:1 
-2048 1:1 3:0.181818 4:0.75 5:1 7:1 9:1 12:1 13:0.408248 14:1 18:1 19:1 21:1 23:1 25:1 29:1 30:0.289318 31:1 33:1 35:1 39:1 
-2048 1:1 3:0.173554 4:1 5:1 7:1 9:1 12:1 13:0.5 14:1 18:1 19:1 21:1 23:1 25:1 29:1 30:0.289318 31:1 33:1 35:1 39:1 
-597.5866150640746 1:1 4:0.625 5:1 7:1 9:1 11:1 14:1 18:1 19:1 21:1 23:1 25:1 28:1 30:0.0730005 31:1 33:1 35:1 39:1 
-2048 1:1 3:0.107438 4:1 5:1 7:1 9:1 11:1 14:1 18:1 19:1 21:1 23:1 25:1 29:1 30:0.10306 31:1 34:1 35:1 39:1 
-2048 1:1 3:0.103306 4:1 6:1 7:1 9:1 12:1 13:0.353553 14:1 18:1 19:1 21:1 23:1 25:1 29:1 30:0.0542136 31:1 33:1 35:1 39:1 
-1265.024006283822 1:1 3:0.00413223 4:0.625 6:1 7:1 9:1 12:1 13:0.258199 14:1 17:1 19:1 21:1 23:1 25:1 29:1 30:0.0542136 31:1 33:1 35:1 37:1 
-265.0910609025803 1:1 3:0.0123967 4:0.5 6:1 7:1 9:1 12:1 13:0.447214 14:1 16:1 19:1 21:1 23:1 25:1 29:1 30:0.0542136 31:1 33:1 35:1 37:1 
-2048 1:1 4:1 5:1 7:1 9:1 11:1 14:1 18:1 19:1 21:1 23:1 25:1 29:1 30:0.118626 31:1 33:1 35:1 39:1 
-2048 1:1 4:1 5:1 7:1 9:1 11:1 14:1 18:1 19:1 21:1 23:1 25:1 29:1 30:0.118626 31:1 33:1 35:1 39:1 
-2048 1:1 4:1 5:1 7:1 9:1 11:1 14:1 18:1 19:1 21:1 23:1 25:1 29:1 30:0.118626 31:1 33:1 35:1 39:1 
-2048 1:1 4:1 5:1 7:1 9:1 11:1 14:1 18:1 19:1 21:1 23:1 25:1 29:1 30:0.118626 31:1 33:1 35:1 39:1 
-2048 1:1 4:1 5:1 7:1 9:1 11:1 14:1 18:1 19:1 21:1 23:1 25:1 29:1 30:0.118626 31:1 33:1 35:1 39:1 
-2048 1:1 3:0.00826446 4:1 5:1 7:1 9:1 12:1 13:0.169031 14:1 18:1 19:1 21:1 23:1 25:1 29:1 30:0.173376 31:1 33:1 35:1 39:1 
-2048 1:1 3:0.0413223 4:0.5 5:1 7:1 9:1 12:1 13:0.5 14:1 18:1 19:1 21:1 23:1 25:1 29:1 30:0.173376 31:1 33:1 35:1 39:1 
-2048 1:1 4:1 5:1 7:1 9:1 11:1 14:1 18:1 19:1 21:1 23:1 25:1 29:1 30:0.064949 31:1 33:1 35:1 39:1 
-2048 1:1 4:1 5:1 7:1 9:1 11:1 14:1 18:1 19:1 21:1 23:1 25:1 29:1 30:0.064949 31:1 33:1 35:1 39:1 
-2048 1:1 4:1 5:1 7:1 9:1 11:1 14:1 18:1 19:1 21:1 23:1 25:1 29:1 30:0.064949 31:1 33:1 35:1 39:1 
-2048 1:1 4:1 5:1 7:1 9:1 11:1 14:1 18:1 19:1 21:1 23:1 25:1 29:1 30:0.064949 31:1 33:1 35:1 39:1 
-2048 1:1 3:0.0247934 4:0.75 5:1 7:1 9:1 11:1 14:1 18:1 19:1 21:1 23:1 25:1 29:1 30:0.0751476 31:1 33:1 35:1 39:1 
-2048 1:1 3:0.177686 4:1 5:1 7:1 9:1 11:1 14:1 18:1 19:1 21:1 23:1 25:1 29:1 30:0.136876 31:1 33:1 35:1 39:1 
-2048 1:1 3:0.177686 4:1 5:1 7:1 9:1 11:1 14:1 18:1 19:1 21:1 23:1 25:1 29:1 30:0.136876 31:1 33:1 35:1 39:1 
-2048 1:1 3:0.00413223 4:0.625 5:1 7:1 9:1 11:1 14:1 18:1 19:1 21:1 23:1 25:1 29:1 30:0.129361 31:1 34:1 35:1 39:1 
-2048 1:1 3:0.00413223 4:0.625 5:1 7:1 9:1 11:1 14:1 18:1 19:1 21:1 23:1 25:1 29:1 30:0.129361 31:1 34:1 35:1 39:1 
-1716.29305832742 1:1 4:1 5:1 7:1 9:1 11:1 14:1 18:1 19:1 21:1 23:1 25:1 29:1 30:0.0713902 31:1 34:1 35:1 39:1 
-2048 1:1 4:1 5:1 8:1 9:1 12:1 13:0.707107 14:1 18:1 19:1 21:1 23:1 25:1 29:1 30:0.154053 31:1 33:1 35:1 39:1 
-15.58923401997926 1:1 4:0.5 5:1 7:1 9:1 11:1 14:1 17:1 19:1 21:1 23:1 25:1 28:1 30:0.0585078 31:1 33:1 35:1 39:1 
-2048 1:1 3:0.00413223 4:0.625 6:1 7:1 9:1 12:1 13:0.353553 14:1 18:1 19:1 21:1 23:1 25:1 29:1 30:0.064949 31:1 34:1 35:1 39:1 
-2048 1:1 3:0.152893 5:1 7:1 9:1 11:1 14:1 18:1 19:1 21:1 23:1 25:1 29:1 30:0.230811 31:1 33:1 35:1 39:1 
-2048 1:1 3:0.0247934 4:1 5:1 7:1 9:1 11:1 14:1 18:1 19:1 21:1 23:1 25:1 29:1 30:0.219538 31:1 33:1 35:1 39:1 
-2048 1:1 3:0.00413223 4:1 5:1 7:1 9:1 11:1 14:1 18:1 19:1 21:1 23:1 25:1 29:1 30:0.232421 31:1 33:1 35:1 39:1 
-2048 1:1 3:0.00413223 4:1 5:1 7:1 9:1 11:1 14:1 18:1 19:1 21:1 23:1 25:1 29:1 30:0.232421 31:1 33:1 35:1 39:1 
-2048 1:1 3:0.00413223 4:1 5:1 7:1 9:1 11:1 14:1 18:1 19:1 21:1 23:1 25:1 29:1 30:0.232421 31:1 33:1 35:1 39:1 
-2048 1:1 3:0.85124 4:1 5:1 8:1 9:1 12:1 13:1 15:1 18:1 19:1 21:1 23:1 25:1 29:1 30:0.727322 31:1 33:1 35:1 39:1 
-2048 1:1 3:0.838843 4:1 5:1 7:1 9:1 11:1 14:1 18:1 19:1 21:1 23:1 25:1 29:1 30:0.727858 31:1 33:1 35:1 39:1 
-2048 1:1 3:0.838843 4:1 5:1 7:1 9:1 11:1 14:1 18:1 19:1 21:1 23:1 25:1 29:1 30:0.727858 31:1 33:1 35:1 39:1 
-2048 1:1 3:0.599174 4:1 5:1 8:1 9:1 12:1 13:1 15:1 18:1 19:1 21:1 23:1 25:1 29:1 30:0.730005 31:1 33:1 35:1 39:1 
-38.47378842438642 1:1 3:0.913223 4:1 5:1 7:1 9:1 11:1 14:1 18:1 19:1 21:1 23:1 25:1 29:1 30:0.727322 31:1 33:1 35:1 39:1 
-184.4590760948259 1:1 3:0.971074 4:1 5:1 7:1 9:1 11:1 14:1 18:1 20:1 21:1 23:1 25:1 29:1 30:0.727322 31:1 33:1 35:1 39:1 
-284.0138809669231 1:1 3:0.913223 4:1 5:1 7:1 9:1 11:1 14:1 18:1 19:1 21:1 23:1 25:1 29:1 30:0.727322 31:1 33:1 35:1 39:1 
-219.8690629198679 1:1 3:0.884298 4:1 5:1 7:1 9:1 11:1 14:1 18:1 19:1 21:1 23:1 26:1 29:1 30:0.727322 31:1 33:1 35:1 39:1 
-390.5305906018207 1:1 3:0.0619835 4:1 5:1 7:1 9:1 11:1 14:1 18:1 19:1 21:1 23:1 26:1 29:1 30:0.73913 31:1 33:1 35:1 39:1 
-1140.638557670301 1:1 3:0.673554 4:1 5:1 7:1 9:1 11:1 14:1 18:1 19:1 21:1 23:1 25:1 29:1 30:0.730005 31:1 33:1 35:1 39:1 
-2048 1:1 3:0.00413223 4:1 5:1 8:1 9:1 12:1 13:1 15:1 18:1 19:1 21:1 23:1 25:1 29:1 30:0.73913 31:1 33:1 35:1 39:1 
-2048 1:1 3:0.450413 4:0.875 5:1 7:1 9:1 11:1 14:1 18:1 19:1 21:1 23:1 25:1 29:1 30:0.732689 31:1 33:1 35:1 39:1 
-2048 1:1 3:0.169421 4:1 5:1 7:1 9:1 11:1 14:1 18:1 19:1 21:1 23:1 25:1 29:1 30:0.73913 31:1 33:1 35:1 39:1 
-454.7935034623346 1:1 3:0.119835 4:1 6:1 7:1 9:1 12:1 13:0.5 14:1 18:1 19:1 21:1 23:1 25:1 29:1 30:0.460548 31:1 33:1 35:1 39:1 
-2048 1:1 3:0.107438 4:1 5:1 8:1 9:1 12:1 13:0.707107 14:1 18:1 19:1 21:1 23:1 25:1 29:1 30:0.73913 31:1 33:1 35:1 39:1 
-2048 1:1 3:0.123967 4:1 5:1 7:1 9:1 11:1 14:1 18:1 19:1 21:1 23:1 25:1 29:1 30:0.829308 31:1 33:1 35:1 39:1 
-2048 1:1 3:0.123967 4:1 5:1 7:1 9:1 11:1 14:1 18:1 19:1 21:1 23:1 25:1 29:1 30:0.829308 31:1 33:1 35:1 39:1 
-2048 1:1 3:0.0909091 4:1 5:1 7:1 9:1 11:1 14:1 18:1 19:1 21:1 23:1 25:1 29:1 30:0.852389 31:1 33:1 35:1 39:1 
-2048 1:1 3:0.0289256 4:1 5:1 8:1 9:1 12:1 13:0.707107 14:1 18:1 19:1 21:1 23:1 25:1 29:1 30:0.0633387 31:1 33:1 35:1 39:1 
-2048 1:1 3:0.289256 4:0.625 6:1 7:1 9:1 12:1 13:0.408248 14:1 18:1 19:1 21:1 23:1 25:1 29:1 30:0.278046 31:1 33:1 35:1 39:1 
-2048 1:1 3:0.177686 4:0.625 6:1 7:1 9:1 12:1 13:0.408248 14:1 18:1 19:1 21:1 23:1 25:1 29:1 30:0.280193 31:1 33:1 35:1 39:1 
-2048 1:1 3:0.0909091 4:0.75 5:1 7:1 9:1 11:1 14:1 18:1 19:1 21:1 23:1 25:1 29:1 30:0.299517 31:1 33:1 35:1 39:1 
-2048 1:1 3:0.0619835 4:1 5:1 7:1 9:1 11:1 14:1 18:1 19:1 21:1 23:1 25:1 29:1 30:0.115942 31:1 33:1 35:1 39:1 
-2048 1:1 3:0.0413223 4:1 5:1 7:1 9:1 11:1 14:1 18:1 19:1 21:1 23:1 25:1 29:1 30:0.115942 31:1 33:1 35:1 39:1 
-2048 1:1 3:0.0371901 4:1 5:1 7:1 9:1 12:1 13:0.288675 14:1 18:1 19:1 21:1 23:1 25:1 29:1 30:0.115942 31:1 33:1 35:1 39:1 
-2048 1:1 3:0.0909091 4:1 5:1 7:1 9:1 12:1 13:0.288675 14:1 18:1 19:1 21:1 23:1 25:1 29:1 30:0.165862 31:1 33:1 35:1 39:1 
-2048 1:1 3:0.0867769 4:1 5:1 8:1 9:1 12:1 13:0.707107 14:1 18:1 19:1 21:1 23:1 25:1 29:1 30:0.205046 31:1 33:1 35:1 39:1 
-2048 2:1 3:0.0619835 4:1 5:1 8:1 9:1 12:1 13:1 15:1 18:1 19:1 21:1 23:1 25:1 29:1 30:0.205582 32:1 33:1 36:1 39:1 
-2048 1:1 3:0.235537 4:0.625 5:1 8:1 9:1 12:1 13:0.57735 14:1 18:1 19:1 21:1 23:1 25:1 29:1 30:0.206656 31:1 33:1 35:1 39:1 
-2048 1:1 3:0.190083 4:0.625 5:1 7:1 9:1 11:1 14:1 18:1 19:1 21:1 23:1 25:1 29:1 30:0.206656 31:1 33:1 35:1 39:1 
-2048 1:1 3:0.0454545 4:0.625 5:1 8:1 9:1 12:1 13:0.57735 14:1 18:1 19:1 21:1 23:1 25:1 29:1 30:0.206656 31:1 33:1 35:1 39:1 
-2048 1:1 3:0.00413223 4:0.625 5:1 8:1 9:1 12:1 13:0.57735 14:1 18:1 19:1 21:1 23:1 25:1 29:1 30:0.206656 31:1 33:1 35:1 39:1 
-2048 1:1 3:0.00413223 4:0.625 5:1 8:1 9:1 12:1 13:0.57735 14:1 18:1 19:1 21:1 23:1 25:1 29:1 30:0.206656 31:1 33:1 35:1 39:1 
-2048 1:1 3:0.0165289 4:1 5:1 7:1 9:1 11:1 14:1 18:1 19:1 21:1 23:1 25:1 29:1 30:0.206656 31:1 33:1 35:1 39:1 
-2048 1:1 3:0.0165289 4:1 5:1 7:1 9:1 11:1 14:1 18:1 19:1 21:1 23:1 25:1 29:1 30:0.206656 31:1 33:1 35:1 39:1 
-2048 1:1 3:0.0165289 4:1 5:1 7:1 9:1 11:1 14:1 18:1 19:1 21:1 23:1 25:1 29:1 30:0.206656 31:1 33:1 35:1 39:1 
-2048 1:1 3:0.0165289 4:1 5:1 7:1 9:1 11:1 14:1 18:1 19:1 21:1 23:1 25:1 29:1 30:0.206656 31:1 33:1 35:1 39:1 
-2048 1:1 3:0.0413223 4:1 5:1 8:1 9:1 12:1 13:0.707107 14:1 18:1 19:1 21:1 23:1 25:1 29:1 30:0.206656 31:1 33:1 35:1 39:1 
-2048 1:1 3:0.0165289 4:1 5:1 7:1 9:1 11:1 14:1 18:1 19:1 21:1 23:1 25:1 29:1 30:0.206656 31:1 33:1 35:1 39:1 
-2048 1:1 3:0.11157 4:1 5:1 8:1 9:1 12:1 13:0.707107 14:1 18:1 19:1 21:1 23:1 25:1 29:1 30:0.206656 31:1 33:1 35:1 39:1 
-2048 1:1 3:0.107438 4:1 5:1 7:1 9:1 11:1 14:1 17:1 19:1 21:1 23:1 25:1 29:1 30:0.206656 31:1 33:1 35:1 39:1 
-2048 1:1 3:0.0495868 4:1 5:1 8:1 9:1 12:1 13:0.707107 14:1 18:1 19:1 21:1 23:1 25:1 29:1 30:0.206656 31:1 33:1 35:1 39:1 
-2048 1:1 3:0.0413223 4:1 5:1 8:1 9:1 12:1 13:0.707107 14:1 17:1 19:1 21:1 23:1 25:1 29:1 30:0.206656 31:1 33:1 35:1 39:1 
-2048 1:1 3:0.0991736 4:1 5:1 7:1 9:1 12:1 13:0.57735 14:1 18:1 20:1 21:1 23:1 25:1 29:1 30:0.206656 31:1 33:1 35:1 39:1 
-2048 1:1 3:0.0909091 4:0.75 6:1 7:1 9:1 12:1 13:0.333333 14:1 18:1 19:1 21:1 23:1 25:1 29:1 30:0.206656 31:1 33:1 35:1 39:1 
-2048 1:1 3:0.0165289 4:1 5:1 7:1 9:1 11:1 14:1 18:1 19:1 21:1 23:1 25:1 29:1 30:0.206656 31:1 33:1 35:1 39:1 
-2048 1:1 3:0.107438 4:1 5:1 8:1 9:1 12:1 13:0.57735 14:1 18:1 20:1 21:1 23:1 25:1 29:1 30:0.206656 31:1 33:1 35:1 39:1 
-2048 1:1 3:0.103306 4:1 5:1 7:1 9:1 12:1 13:0.57735 14:1 18:1 20:1 21:1 23:1 25:1 29:1 30:0.206656 31:1 33:1 35:1 39:1 
-2048 1:1 3:0.0991736 4:0.875 6:1 7:1 9:1 12:1 13:0.666667 14:1 18:1 20:1 21:1 23:1 25:1 29:1 30:0.206656 31:1 33:1 35:1 39:1 
-2048 1:1 3:0.0454545 4:1 6:1 7:1 9:1 12:1 13:0.408248 14:1 18:1 19:1 21:1 23:1 25:1 29:1 30:0.206656 31:1 33:1 35:1 39:1 
-2048 1:1 3:0.0206612 4:0.75 5:1 7:1 9:1 11:1 14:1 18:1 19:1 21:1 23:1 25:1 29:1 30:0.206656 31:1 33:1 35:1 39:1 
-2048 1:1 3:0.0165289 4:1 5:1 7:1 9:1 11:1 14:1 18:1 19:1 21:1 23:1 25:1 29:1 30:0.206656 31:1 33:1 35:1 39:1 
-2048 1:1 3:0.0206612 4:0.75 5:1 7:1 9:1 11:1 14:1 18:1 19:1 21:1 23:1 25:1 29:1 30:0.206656 31:1 33:1 35:1 39:1 
-2048 1:1 3:0.0165289 4:1 5:1 7:1 9:1 11:1 14:1 18:1 19:1 21:1 23:1 25:1 29:1 30:0.206656 31:1 33:1 35:1 39:1 
-2048 1:1 3:0.0330579 4:1 5:1 8:1 9:1 12:1 13:0.707107 14:1 18:1 19:1 21:1 23:1 25:1 29:1 30:0.206656 31:1 33:1 35:1 39:1 
-2048 1:1 3:0.0165289 4:1 5:1 7:1 9:1 11:1 14:1 18:1 19:1 21:1 23:1 25:1 29:1 30:0.206656 31:1 33:1 35:1 39:1 
-2048 1:1 3:0.0165289 4:1 5:1 7:1 9:1 11:1 14:1 18:1 19:1 21:1 23:1 25:1 29:1 30:0.206656 31:1 33:1 35:1 39:1 
-2048 1:1 3:0.0165289 4:1 5:1 7:1 9:1 11:1 14:1 18:1 19:1 21:1 23:1 25:1 29:1 30:0.206656 31:1 33:1 35:1 39:1 
-2048 1:1 3:0.0165289 4:1 5:1 7:1 9:1 11:1 14:1 18:1 19:1 21:1 23:1 25:1 29:1 30:0.206656 31:1 33:1 35:1 39:1 
-2048 1:1 3:0.194215 4:1 5:1 8:1 9:1 12:1 13:0.707107 14:1 18:1 19:1 21:1 23:1 25:1 29:1 30:0.243693 31:1 33:1 35:1 39:1 
-2048 1:1 3:0.194215 4:1 5:1 8:1 9:1 12:1 13:0.707107 14:1 18:1 19:1 21:1 23:1 25:1 29:1 30:0.243693 31:1 33:1 35:1 39:1 
-2048 1:1 3:0.190083 4:0.875 5:1 7:1 9:1 12:1 13:0.408248 14:1 18:1 19:1 21:1 23:1 25:1 29:1 30:0.243693 31:1 33:1 35:1 39:1 
-2048 1:1 3:0.0165289 4:1 5:1 7:1 9:1 11:1 14:1 18:1 19:1 21:1 23:1 25:1 29:1 30:0.206656 31:1 33:1 35:1 39:1 
-2048 1:1 3:0.198347 4:1 5:1 7:1 9:1 11:1 14:1 18:1 19:1 21:1 23:1 25:1 29:1 30:0.502952 31:1 34:1 35:1 39:1 
-2008.929629495496 1:1 4:1 5:1 7:1 9:1 11:1 14:1 18:1 19:1 21:1 23:1 25:1 29:1 30:0.507783 31:1 33:1 35:1 39:1 
-2048 1:1 3:0.103306 4:1 5:1 7:1 9:1 11:1 14:1 18:1 19:1 21:1 23:1 25:1 29:1 30:0.259796 31:1 33:1 35:1 39:1 
-29.24380323512524 1:1 3:0.206612 4:1 5:1 7:1 9:1 11:1 14:1 18:1 19:1 22:1 24:1 25:1 29:1 30:0.257112 31:1 33:1 35:1 39:1 
-2048 1:1 3:0.0123967 4:0.875 5:1 7:1 9:1 11:1 14:1 18:1 19:1 21:1 23:1 25:1 29:1 30:0.217928 31:1 33:1 35:1 39:1 
-2048 1:1 3:0.103306 4:1 5:1 7:1 9:1 11:1 14:1 18:1 19:1 21:1 23:1 25:1 29:1 30:0.259796 31:1 33:1 35:1 39:1 
-2048 1:1 3:0.103306 4:1 5:1 7:1 9:1 11:1 14:1 18:1 19:1 21:1 23:1 25:1 29:1 30:0.259796 31:1 33:1 35:1 39:1 
-2048 1:1 3:0.103306 4:1 5:1 7:1 9:1 11:1 14:1 18:1 19:1 21:1 23:1 25:1 29:1 30:0.259796 31:1 33:1 35:1 39:1 
-2048 1:1 3:0.0909091 4:1 5:1 8:1 9:1 12:1 13:0.447214 14:1 18:1 19:1 21:1 23:1 25:1 29:1 30:0.135802 31:1 33:1 35:1 39:1 
-2048 1:1 3:0.0909091 4:1 5:1 8:1 9:1 12:1 13:0.632456 14:1 18:1 20:1 21:1 23:1 25:1 29:1 30:0.135802 31:1 33:1 35:1 39:1 
-2048 1:1 3:0.00826446 4:1 5:1 7:1 9:1 11:1 14:1 18:1 19:1 21:1 23:1 25:1 29:1 30:0.150295 31:1 33:1 35:1 39:1 
-2048 1:1 3:0.00826446 4:1 5:1 7:1 9:1 11:1 14:1 18:1 19:1 21:1 23:1 25:1 29:1 30:0.150295 31:1 33:1 35:1 39:1 
-2048 1:1 3:0.00826446 4:1 5:1 7:1 9:1 11:1 14:1 18:1 19:1 21:1 23:1 25:1 29:1 30:0.150295 31:1 33:1 35:1 39:1 
-2048 1:1 3:0.00826446 4:1 5:1 7:1 9:1 11:1 14:1 18:1 19:1 21:1 23:1 25:1 29:1 30:0.150295 31:1 33:1 35:1 39:1 
-2048 1:1 3:0.00826446 4:1 5:1 7:1 9:1 11:1 14:1 18:1 19:1 21:1 23:1 25:1 29:1 30:0.150295 31:1 33:1 35:1 39:1 
-2048 1:1 3:0.268595 4:1 5:1 7:1 9:1 11:1 14:1 18:1 19:1 21:1 23:1 25:1 29:1 30:0.171229 31:1 33:1 35:1 39:1 
-2048 1:1 3:0.0247934 4:1 5:1 7:1 9:1 11:1 14:1 18:1 19:1 21:1 23:1 25:1 29:1 30:0.123457 31:1 33:1 35:1 39:1 
-2048 1:1 3:0.0247934 4:1 5:1 7:1 9:1 11:1 14:1 18:1 19:1 21:1 23:1 25:1 29:1 30:0.123457 31:1 33:1 35:1 39:1 
-2048 1:1 3:0.0247934 4:1 5:1 7:1 9:1 11:1 14:1 18:1 19:1 21:1 23:1 25:1 29:1 30:0.123457 31:1 33:1 35:1 39:1 
-2048 1:1 3:0.0247934 4:1 5:1 7:1 9:1 11:1 14:1 18:1 19:1 21:1 23:1 25:1 29:1 30:0.123457 31:1 33:1 35:1 39:1 
-2048 1:1 3:0.0330579 4:0.5 5:1 7:1 9:1 12:1 13:0.5 14:1 18:1 19:1 21:1 23:1 25:1 29:1 30:0.185722 31:1 33:1 35:1 39:1 
-2048 1:1 3:0.0289256 4:0.5 5:1 7:1 9:1 12:1 13:0.5 14:1 18:1 19:1 21:1 23:1 25:1 29:1 30:0.185722 31:1 33:1 35:1 39:1 
-275.0052189660151 1:1 3:0.318182 4:1 5:1 7:1 9:1 11:1 14:1 16:1 19:1 21:1 23:1 25:1 29:1 30:0.236178 31:1 33:1 35:1 39:1 
-2048 2:1 3:0.0702479 4:1 5:1 7:1 9:1 11:1 14:1 18:1 19:1 21:1 23:1 25:1 29:1 30:0.373591 32:1 33:1 36:1 39:1 
-2048 1:1 3:0.00413223 4:0.75 5:1 7:1 9:1 11:1 14:1 18:1 19:1 21:1 23:1 25:1 29:1 30:0.0434783 31:1 34:1 35:1 39:1 
-2048 1:1 4:0.25 5:1 7:1 9:1 11:1 14:1 18:1 19:1 21:1 23:1 25:1 29:1 30:0.0864198 31:1 33:1 35:1 39:1 
-2048 1:1 3:0.0289256 4:0.75 5:1 7:1 9:1 11:1 14:1 18:1 19:1 21:1 23:1 25:1 29:1 30:0.0692432 31:1 33:1 35:1 39:1 
-2048 1:1 3:0.0289256 4:0.75 5:1 7:1 9:1 11:1 14:1 18:1 19:1 21:1 23:1 25:1 29:1 30:0.0692432 31:1 33:1 35:1 39:1 
-2048 1:1 3:0.115702 4:0.875 6:1 7:1 9:1 12:1 13:0.566947 14:1 18:1 19:1 21:1 23:1 25:1 29:1 30:0.0552872 31:1 33:1 35:1 39:1 
-2048 1:1 3:0.0413223 4:1 5:1 7:1 9:1 11:1 14:1 18:1 19:1 21:1 23:1 25:1 29:1 30:0.0552872 31:1 33:1 35:1 39:1 
-2048 1:1 3:0.0413223 4:1 5:1 7:1 9:1 11:1 14:1 18:1 19:1 21:1 23:1 25:1 29:1 30:0.0552872 31:1 33:1 35:1 39:1 
-2048 1:1 3:0.0413223 4:1 5:1 7:1 9:1 11:1 14:1 18:1 19:1 21:1 23:1 25:1 29:1 30:0.0552872 31:1 33:1 35:1 39:1 
-98.16707934386974 1:1 3:0.00413223 4:1 6:1 8:1 10:1 12:1 13:1 15:1 18:1 19:1 21:1 23:1 25:1 28:1 30:0.0563607 31:1 33:1 35:1 39:1 
-1380.23719373773 1:1 3:0.00413223 4:1 5:1 7:1 9:1 11:1 14:1 18:1 19:1 21:1 23:1 25:1 28:1 30:0.0563607 31:1 33:1 35:1 39:1 
-1904.489568917191 1:1 3:0.00413223 4:1 5:1 7:1 9:1 11:1 14:1 18:1 19:1 21:1 23:1 25:1 28:1 30:0.0563607 31:1 33:1 35:1 39:1 
-150.5459087563545 1:1 3:0.00413223 4:1 6:1 7:1 9:1 12:1 13:0.612372 15:1 18:1 19:1 21:1 23:1 25:1 28:1 30:0.0563607 32:1 33:1 36:1 39:1 
-2048 1:1 3:0.0619835 4:0.5 5:1 7:1 10:1 12:1 13:0.5 14:1 18:1 19:1 21:1 23:1 25:1 29:1 30:0.201825 31:1 33:1 35:1 39:1 
-2048 1:1 3:0.0371901 4:0.5 5:1 7:1 9:1 12:1 13:0.5 14:1 18:1 19:1 21:1 23:1 25:1 29:1 30:0.202362 31:1 33:1 35:1 39:1 
-2048 1:1 3:0.0371901 4:0.5 5:1 7:1 9:1 12:1 13:0.5 14:1 18:1 19:1 21:1 23:1 25:1 29:1 30:0.202362 31:1 33:1 35:1 39:1 
-817.3568093259623 1:1 3:0.00413223 4:0.5 5:1 7:1 9:1 12:1 13:0.408248 14:1 18:1 19:1 21:1 23:1 25:1 29:1 30:0.203435 31:1 34:1 35:1 39:1 
-2048 1:1 4:0.5 5:1 7:1 9:1 12:1 13:0.5 14:1 18:1 19:1 21:1 23:1 25:1 29:1 30:0.180891 31:1 33:1 35:1 39:1 
-2048 1:1 3:0.0330579 4:1 5:1 8:1 9:1 12:1 13:0.707107 14:1 18:1 19:1 21:1 23:1 25:1 29:1 30:0.12292 31:1 33:1 35:1 39:1 
-2048 1:1 3:0.00413223 4:1 5:1 8:1 9:1 12:1 13:0.707107 14:1 18:1 20:1 21:1 23:1 25:1 29:1 30:0.12292 31:1 33:1 35:1 39:1 
-2048 1:1 3:0.0247934 4:0.5 5:1 7:1 9:1 12:1 13:0.5 14:1 18:1 19:1 21:1 23:1 25:1 29:1 30:0.12292 31:1 33:1 35:1 39:1 
-2048 1:1 3:0.00413223 4:1 6:1 7:1 9:1 12:1 13:0.5 14:1 18:1 19:1 21:1 23:1 25:1 29:1 30:0.166935 31:1 33:1 35:1 39:1 
-1767.393746703634 1:1 3:0.00413223 4:0.75 5:1 7:1 9:1 11:1 14:1 18:1 19:1 21:1 23:1 25:1 29:1 30:0.0837359 31:1 33:1 35:1 39:1 
-223.0881074112206 1:1 3:0.14876 5:1 7:1 9:1 12:1 13:0.5 14:1 18:1 19:1 21:1 23:1 25:1 29:1 30:0.310252 31:1 33:1 35:1 39:1 
-2048 1:1 3:0.0702479 5:1 7:1 9:1 12:1 13:0.534522 14:1 17:1 19:1 21:1 23:1 25:1 29:1 30:0.312936 31:1 33:1 35:1 39:1 
-1786.462043394159 1:1 5:1 7:1 9:1 12:1 13:0.534522 14:1 17:1 19:1 21:1 23:1 25:1 29:1 30:0.316694 31:1 33:1 35:1 39:1 
-93.56684316097638 1:1 3:0.0785124 4:0.5 5:1 7:1 9:1 12:1 13:0.5 14:1 18:1 19:1 21:1 23:1 25:1 29:1 30:0.399893 31:1 34:1 35:1 39:1 
-2048 1:1 3:0.0206612 4:0.25 5:1 7:1 9:1 11:1 14:1 18:1 19:1 21:1 23:1 25:1 29:1 30:0.147075 31:1 33:1 35:1 39:1 
-2048 1:1 3:0.0206612 4:0.25 5:1 7:1 9:1 11:1 14:1 18:1 19:1 21:1 23:1 25:1 29:1 30:0.147075 31:1 33:1 35:1 39:1 
-2048 1:1 3:0.00413223 4:1 5:1 7:1 9:1 11:1 14:1 18:1 19:1 21:1 23:1 25:1 29:1 30:0.472893 31:1 34:1 36:1 39:1 
-1985.197256774328 1:1 3:0.157025 4:0.625 5:1 7:1 9:1 11:1 14:1 18:1 19:1 21:1 23:1 25:1 29:1 30:0.893183 31:1 33:1 35:1 39:1 
-2048 1:1 3:0.0289256 4:0.875 5:1 7:1 9:1 11:1 14:1 18:1 19:1 21:1 23:1 25:1 29:1 30:0.898014 31:1 33:1 35:1 39:1 
-2048 1:1 3:0.00413223 4:1 5:1 7:1 9:1 11:1 14:1 18:1 19:1 21:1 23:1 25:1 29:1 30:0.968867 31:1 33:1 35:1 39:1 
-2048 1:1 3:0.0123967 4:1 5:1 7:1 9:1 11:1 14:1 18:1 19:1 21:1 23:1 25:1 29:1 30:0.198068 31:1 34:1 35:1 39:1 
-2048 1:1 3:0.293388 4:1 5:1 7:1 9:1 11:1 14:1 18:1 19:1 21:1 23:1 25:1 29:1 30:0.194847 31:1 33:1 35:1 39:1 
-691.8832094030727 1:1 3:0.0413223 4:1 5:1 7:1 9:1 11:1 14:1 18:1 19:1 21:1 23:1 25:1 29:1 30:0.198068 31:1 34:1 35:1 39:1 
-2048 1:1 3:0.00826446 4:1 5:1 8:1 9:1 12:1 13:0.57735 14:1 18:1 19:1 21:1 23:1 26:1 29:1 30:0.395598 31:1 33:1 35:1 39:1 
-2048 1:1 3:0.00413223 4:0.625 5:1 7:1 9:1 11:1 14:1 18:1 19:1 21:1 23:1 25:1 29:1 30:0.0488459 31:1 33:1 35:1 39:1 
-2048 1:1 3:0.00413223 4:0.625 5:1 7:1 9:1 11:1 14:1 18:1 19:1 21:1 23:1 25:1 29:1 30:0.0488459 31:1 33:1 35:1 39:1 
-2048 1:1 3:0.00413223 4:0.625 5:1 7:1 9:1 11:1 14:1 18:1 19:1 21:1 23:1 25:1 29:1 30:0.0488459 31:1 33:1 35:1 39:1 
-2048 1:1 3:0.00413223 4:0.625 5:1 7:1 9:1 11:1 14:1 18:1 19:1 21:1 23:1 25:1 29:1 30:0.0488459 31:1 33:1 35:1 39:1 
-2048 1:1 3:0.0289256 4:0.5 5:1 7:1 9:1 12:1 13:0.408248 14:1 18:1 19:1 21:1 23:1 25:1 29:1 30:0.0488459 31:1 33:1 35:1 39:1 
-2048 1:1 3:0.00413223 4:0.625 5:1 7:1 9:1 11:1 14:1 18:1 19:1 21:1 23:1 25:1 29:1 30:0.0488459 31:1 33:1 35:1 39:1 
-46.90074092895223 1:1 3:0.0950413 4:1 5:1 7:1 9:1 11:1 14:1 17:1 19:1 21:1 23:1 25:1 29:1 30:0.0670961 31:1 34:1 35:1 37:1 
-520.1589975168284 1:1 3:0.0950413 4:1 5:1 7:1 9:1 11:1 14:1 17:1 19:1 21:1 23:1 25:1 29:1 30:0.0670961 31:1 33:1 35:1 37:1 
-1851.939747520372 1:1 3:0.0495868 4:1 5:1 7:1 9:1 11:1 14:1 16:1 19:1 21:1 23:1 25:1 29:1 30:0.0670961 31:1 33:1 35:1 39:1 
-2048 1:1 3:0.512397 4:1 5:1 7:1 9:1 12:1 13:0.5 14:1 18:1 19:1 21:1 23:1 25:1 29:1 30:0.983897 31:1 33:1 35:1 39:1 
-2048 1:1 3:0.0123967 4:1 5:1 8:1 9:1 12:1 13:0.816497 14:1 18:1 19:1 21:1 23:1 25:1 29:1 30:0.0499195 31:1 33:1 35:1 39:1 
-2048 1:1 3:0.00826446 4:0.125 6:1 7:1 9:1 12:1 13:0.333333 14:1 18:1 19:1 21:1 23:1 25:1 29:1 30:0.185722 31:1 33:1 35:1 39:1 
-2048 1:1 3:0.0165289 4:0.75 6:1 7:1 9:1 12:1 13:0.408248 14:1 18:1 19:1 21:1 23:1 25:1 29:1 30:0.0558239 31:1 33:1 35:1 39:1 
-2048 1:1 3:0.14876 4:1 5:1 7:1 9:1 11:1 14:1 18:1 19:1 21:1 23:1 25:1 29:1 30:0.347826 31:1 34:1 35:1 39:1 
-2048 1:1 3:0.0165289 4:1 5:1 7:1 9:1 11:1 14:1 18:1 19:1 21:1 23:1 25:1 29:1 30:0.206656 31:1 33:1 35:1 39:1 
-2048 1:1 3:0.0165289 4:1 5:1 7:1 9:1 11:1 14:1 18:1 19:1 21:1 23:1 25:1 29:1 30:0.206656 31:1 33:1 35:1 39:1 
-2048 1:1 3:0.0165289 4:1 5:1 7:1 9:1 11:1 14:1 18:1 19:1 21:1 23:1 25:1 29:1 30:0.206656 31:1 33:1 35:1 39:1 
-2048 1:1 3:0.0165289 4:1 5:1 7:1 9:1 11:1 14:1 18:1 19:1 21:1 23:1 25:1 29:1 30:0.206656 31:1 33:1 35:1 39:1 
-2048 1:1 3:0.0165289 4:1 5:1 7:1 9:1 11:1 14:1 18:1 19:1 21:1 23:1 25:1 29:1 30:0.206656 31:1 33:1 35:1 39:1 
-2048 2:1 3:0.0165289 4:1 5:1 8:1 9:1 12:1 13:1 15:1 18:1 20:1 21:1 23:1 25:1 29:1 30:0.206656 32:1 33:1 36:1 39:1 
-2048 1:1 3:0.0743802 4:1 5:1 8:1 9:1 12:1 13:0.707107 14:1 18:1 20:1 21:1 23:1 25:1 29:1 30:0.150832 31:1 33:1 35:1 39:1 
-2048 1:1 3:0.00413223 4:1 5:1 8:1 9:1 12:1 13:0.707107 14:1 18:1 20:1 21:1 23:1 25:1 29:1 30:0.150832 31:1 33:1 35:1 39:1 
-2048 2:1 3:0.00413223 4:1 5:1 8:1 9:1 12:1 13:1 15:1 18:1 20:1 21:1 23:1 25:1 29:1 30:0.150832 32:1 34:1 36:1 39:1 
-2048 1:1 3:0.285124 4:1 5:1 7:1 9:1 11:1 14:1 18:1 19:1 22:1 24:1 25:1 29:1 30:0.294149 31:1 33:1 35:1 39:1 
-1647.941913832833 1:1 3:0.297521 4:0.25 5:1 7:1 9:1 11:1 14:1 18:1 19:1 21:1 23:1 25:1 29:1 30:0.319377 31:1 34:1 35:1 39:1 
-2048 1:1 3:0.0165289 4:0.25 6:1 8:1 9:1 12:1 13:0.894427 15:1 18:1 19:1 21:1 23:1 25:1 29:1 30:0.327429 32:1 34:1 36:1 39:1 
-2048 1:1 3:0.330579 4:1 5:1 8:1 9:1 12:1 13:0.57735 14:1 18:1 20:1 21:1 23:1 25:1 29:1 30:0.319377 31:1 33:1 35:1 39:1 
-2048 2:1 3:0.202479 4:1 5:1 8:1 9:1 12:1 13:1 15:1 18:1 20:1 21:1 23:1 25:1 29:1 30:0.322598 32:1 33:1 36:1 39:1 
-2048 1:1 3:0.210744 4:1 6:1 7:1 9:1 12:1 13:0.5 14:1 18:1 19:1 21:1 23:1 25:1 29:1 30:0.322598 31:1 33:1 35:1 39:1 
-627.3905391547672 1:1 3:0.0743802 4:1 5:1 8:1 9:1 12:1 13:0.707107 14:1 18:1 19:1 21:1 23:1 25:1 29:1 30:0.327429 32:1 34:1 36:1 39:1 
-2000.321941224727 1:1 3:0.0454545 4:0.25 5:1 7:1 9:1 11:1 14:1 18:1 19:1 21:1 23:1 25:1 29:1 30:0.101449 31:1 33:1 35:1 39:1 
-1830.485678015936 1:1 3:0.0950413 4:0.5 5:1 7:1 9:1 12:1 13:0.408248 14:1 18:1 19:1 21:1 23:1 25:1 29:1 30:0.132582 31:1 33:1 35:1 39:1 
