svm_type c_svc
kernel_type rbf
gamma 0.5
nr_class 2
total_sv 1052
rho -0.26302
label 1 0
probA -3.40013
probB -0.0901686
nr_sv 446 606
SV
0.3117239559248656 1:1 3:1 5:1 11:1 14:1 17:1 27:1 91:1 93:1 97:1 98:0.0382775 102:1 108:1 110:1 113:1 115:1 116:0.75 118:1 
0.1727684445196884 1:1 3:1 5:1 11:1 13:1 17:1 22:1 27:1 91:1 94:1 97:1 98:0.272727 107:1 109:1 111:1 113:1 115:1 116:1 118:1 
2.105416084937545 1:1 3:1 5:1 11:1 12:1 17:1 36:1 49:1 91:1 94:1 97:1 98:0.229665 107:1 108:1 110:1 112:1 115:1 116:0.707107 117:1 
0.2962427118712327 1:1 3:1 5:1 11:1 12:1 17:1 49:1 91:1 93:1 97:1 98:0.0239234 107:1 109:1 111:1 113:1 115:1 116:1 118:1 
0.1529331468151787 1:1 3:1 5:1 11:1 12:1 17:1 49:1 91:1 93:1 97:1 98:0.00478469 107:1 109:1 111:1 113:1 115:1 116:1 118:1 
0.524004490299623 2:1 3:1 6:1 11:1 13:1 16:1 49:1 91:1 94:1 97:1 98:0.00478469 103:1 109:1 111:1 113:1 115:1 116:1 118:1 
0.3739619875217884 1:1 3:1 5:1 11:1 12:1 16:1 51:1 91:1 94:1 97:1 98:0.00956938 107:1 109:1 111:1 113:1 115:1 116:1 118:1 
0.2680445619158445 2:1 3:1 6:1 11:1 14:1 17:1 21:1 29:1 91:1 94:1 96:1 98:0.124402 104:1 108:1 111:1 113:1 115:1 116:0.707107 118:1 
32 1:1 3:1 5:1 11:1 14:1 17:1 52:1 91:1 94:1 97:1 98:0.00478469 102:1 108:1 110:1 112:1 114:1 117:1 
1.913522243319201 1:1 3:1 5:1 11:1 14:1 17:1 52:1 91:1 94:1 97:1 98:0.00478469 102:1 108:1 110:1 113:1 114:1 117:1 
32 1:1 3:1 5:1 11:1 14:1 16:1 27:1 91:1 94:1 97:1 107:1 108:1 110:1 112:1 114:1 117:1 
0.2146449820363132 2:1 4:1 6:1 11:1 14:1 16:1 27:1 91:1 94:1 97:1 98:0.0526316 102:1 108:1 110:1 113:1 115:1 116:0.471405 118:1 
0.3533116452939814 2:1 4:1 6:1 11:1 14:1 15:1 27:1 91:1 94:1 97:1 98:0.0334928 103:1 109:1 111:1 113:1 115:1 116:1 118:1 
0.7621636498288298 1:1 3:1 5:1 11:1 14:1 15:1 27:1 91:1 94:1 96:1 98:0.00478469 105:1 108:1 111:1 112:1 115:1 116:0.57735 117:1 
0.2874626569162552 2:1 4:1 6:1 11:1 14:1 15:1 27:1 91:1 94:1 97:1 98:0.0191388 102:1 108:1 110:1 113:1 115:1 116:0.471405 118:1 
0.006169240085785661 2:1 3:1 6:1 11:1 14:1 17:1 27:1 91:1 94:1 96:1 98:0.00478469 105:1 108:1 111:1 113:1 115:1 116:0.707107 118:1 
1.524293778509864 1:1 3:1 6:1 11:1 14:1 17:1 29:1 91:1 94:1 97:1 98:0.0861244 105:1 108:1 110:1 112:1 114:1 117:1 
0.1858922299947774 1:1 4:1 6:1 11:1 14:1 17:1 36:1 91:1 94:1 97:1 98:0.0143541 106:1 108:1 110:1 112:1 115:1 116:0.408248 117:1 
0.5435850054818514 1:1 3:1 5:1 11:1 14:1 16:1 52:1 91:1 94:1 96:1 98:0.00478469 102:1 108:1 110:1 112:1 115:1 116:0.408248 117:1 
0.377859996496219 2:1 3:1 6:1 11:1 14:1 15:1 52:1 91:1 94:1 96:1 98:0.00478469 99:1 109:1 111:1 113:1 115:1 116:1 118:1 
0.1634867800027803 2:1 3:1 6:1 11:1 14:1 17:1 47:1 52:1 91:1 94:1 97:1 98:0.952153 107:1 109:1 111:1 113:1 115:1 116:1 118:1 
32 1:1 3:1 5:1 11:1 14:1 15:1 51:1 69:1 91:1 94:1 97:1 98:0.162679 104:1 108:1 110:1 112:1 114:1 117:1 
32 1:1 3:1 5:1 11:1 14:1 17:1 51:1 69:1 91:1 94:1 97:1 98:0.0574163 103:1 108:1 110:1 112:1 115:1 116:0.267261 117:1 
2.02702929829055 1:1 3:1 5:1 11:1 14:1 17:1 69:1 91:1 94:1 97:1 98:0.0191388 104:1 108:1 110:1 112:1 115:1 116:0.408248 117:1 
32 1:1 3:1 5:1 11:1 14:1 17:1 51:1 69:1 91:1 94:1 97:1 98:0.143541 107:1 108:1 110:1 112:1 114:1 117:1 
32 1:1 3:1 5:1 11:1 14:1 17:1 51:1 69:1 91:1 94:1 97:1 98:0.0382775 106:1 108:1 110:1 112:1 114:1 117:1 
1.466320140318512 1:1 3:1 5:1 11:1 14:1 17:1 51:1 91:1 93:1 97:1 98:0.105263 104:1 108:1 110:1 112:1 115:1 116:0.566947 117:1 
32 1:1 3:1 5:1 11:1 14:1 17:1 51:1 91:1 94:1 97:1 98:0.076555 107:1 108:1 110:1 112:1 114:1 117:1 
32 1:1 3:1 5:1 11:1 14:1 17:1 51:1 91:1 94:1 97:1 98:0.0717703 107:1 108:1 110:1 112:1 114:1 117:1 
32 1:1 3:1 5:1 11:1 14:1 17:1 51:1 91:1 94:1 97:1 98:0.0239234 106:1 108:1 110:1 112:1 114:1 117:1 
0.2428809859355679 1:1 3:1 5:1 11:1 14:1 16:1 51:1 91:1 93:1 97:1 98:0.00478469 107:1 109:1 111:1 113:1 115:1 116:1 118:1 
2.479633817435243 1:1 3:1 5:1 11:1 14:1 15:1 22:1 51:1 91:1 94:1 97:1 98:0.258373 107:1 108:1 111:1 112:1 114:1 117:1 
0.7975147804571874 1:1 3:1 5:1 11:1 14:1 16:1 21:1 27:1 91:1 94:1 97:1 98:0.105263 103:1 108:1 110:1 112:1 115:1 116:0.894427 117:1 
0.02576881657883062 2:1 3:1 6:1 11:1 14:1 17:1 36:1 91:1 93:1 97:1 98:0.00478469 103:1 109:1 111:1 113:1 115:1 116:1 118:1 
1.198367010637272 1:1 3:1 5:1 11:1 14:1 16:1 36:1 91:1 94:1 97:1 98:0.00478469 101:1 108:1 110:1 112:1 115:1 116:0.408248 117:1 
0.1551054347176147 2:1 3:1 6:1 11:1 14:1 17:1 27:1 44:1 91:1 94:1 97:1 98:0.114833 103:1 109:1 111:1 113:1 115:1 116:1 118:1 
1.848801795134553 1:1 3:1 5:1 11:1 14:1 17:1 21:1 27:1 91:1 94:1 97:1 98:0.315789 102:1 108:1 110:1 113:1 115:1 116:0.333333 117:1 
0.3703050997669185 1:1 4:1 5:1 11:1 14:1 17:1 27:1 47:1 91:1 94:1 97:1 98:0.358852 104:1 108:1 111:1 112:1 115:1 116:0.5 117:1 
0.2235996184825256 2:1 3:1 6:1 11:1 14:1 16:1 21:1 27:1 91:1 94:1 96:1 98:0.349282 104:1 108:1 111:1 113:1 115:1 116:0.866025 118:1 
0.2726499709642306 2:1 3:1 6:1 11:1 14:1 16:1 21:1 27:1 91:1 94:1 96:1 98:0.325359 102:1 108:1 110:1 113:1 115:1 116:0.75 118:1 
0.4061280046362668 1:1 3:1 5:1 11:1 14:1 16:1 21:1 27:1 91:1 94:1 96:1 98:0.320574 102:1 108:1 110:1 112:1 115:1 116:0.67082 117:1 
0.2124929928719562 2:1 3:1 6:1 11:1 14:1 17:1 21:1 27:1 91:1 94:1 96:1 98:0.311005 103:1 108:1 110:1 113:1 115:1 116:0.75 118:1 
0.2359459653156147 2:1 3:1 6:1 11:1 14:1 15:1 27:1 91:1 94:1 96:1 98:0.0669856 102:1 108:1 110:1 113:1 115:1 116:0.75 118:1 
0.05112322612113147 2:1 3:1 6:1 11:1 14:1 15:1 27:1 91:1 94:1 96:1 98:0.0334928 104:1 108:1 111:1 113:1 115:1 116:0.866025 118:1 
0.1981286467406675 1:1 4:1 5:1 11:1 14:1 17:1 27:1 47:1 91:1 94:1 97:1 98:0.325359 107:1 108:1 111:1 112:1 115:1 116:0.57735 117:1 
0.4045834535184391 2:1 3:1 6:1 11:1 14:1 15:1 21:1 27:1 89:1 94:1 96:1 98:0.315789 107:1 109:1 111:1 113:1 115:1 116:1 118:1 
0.104839514910151 2:1 3:1 6:1 11:1 14:1 15:1 21:1 27:1 91:1 94:1 96:1 98:0.291866 105:1 108:1 111:1 113:1 115:1 116:0.866025 118:1 
1.346682834928351 1:1 3:1 5:1 11:1 14:1 15:1 21:1 27:1 91:1 94:1 96:1 98:0.287081 105:1 108:1 111:1 112:1 115:1 116:0.774597 117:1 
0.05101576986182189 2:1 3:1 6:1 11:1 14:1 17:1 21:1 27:1 91:1 94:1 96:1 98:0.277512 106:1 108:1 111:1 113:1 115:1 116:0.866025 118:1 
0.3816655549864883 2:1 3:1 6:1 11:1 14:1 15:1 27:1 89:1 94:1 96:1 98:0.0334928 105:1 108:1 111:1 113:1 115:1 116:0.866025 118:1 
0.4159411091389027 1:1 4:1 5:1 11:1 14:1 17:1 27:1 47:1 91:1 94:1 97:1 98:0.291866 101:1 108:1 111:1 112:1 115:1 116:0.5 117:1 
0.392640256781029 2:1 3:1 6:1 11:1 14:1 15:1 21:1 27:1 89:1 94:1 96:1 98:0.282297 101:1 108:1 111:1 113:1 115:1 116:0.866025 118:1 
0.2536065372580889 2:1 3:1 6:1 11:1 14:1 15:1 21:1 27:1 91:1 94:1 96:1 98:0.258373 99:1 109:1 111:1 113:1 115:1 116:1 118:1 
1.874478148564881 1:1 3:1 5:1 11:1 14:1 15:1 21:1 27:1 91:1 94:1 96:1 98:0.253589 99:1 108:1 110:1 112:1 115:1 116:0.67082 117:1 
0.2673861536819694 2:1 3:1 6:1 11:1 14:1 17:1 21:1 27:1 91:1 94:1 96:1 98:0.244019 100:1 108:1 110:1 113:1 115:1 116:0.75 118:1 
0.423348714933506 1:1 3:1 5:1 11:1 14:1 17:1 21:1 31:1 91:1 93:1 97:1 98:0.239234 105:1 108:1 111:1 113:1 115:1 116:0.816497 118:1 
0.0551123426478451 1:1 4:1 5:1 11:1 14:1 17:1 21:1 47:1 91:1 94:1 97:1 98:0.0478469 104:1 108:1 111:1 112:1 115:1 116:0.5 117:1 
0.2163706444856429 2:1 3:1 6:1 11:1 14:1 17:1 21:1 91:1 94:1 96:1 98:0.0143541 102:1 108:1 110:1 113:1 115:1 116:0.75 118:1 
0.1069669950915048 1:1 3:1 5:1 11:1 14:1 17:1 21:1 91:1 94:1 96:1 98:0.00956938 102:1 108:1 110:1 112:1 115:1 116:0.67082 117:1 
0.1519417280522551 1:1 3:1 5:1 11:1 14:1 17:1 21:1 47:1 91:1 94:1 97:1 98:0.0382775 101:1 108:1 111:1 112:1 115:1 116:0.447214 117:1 
0.347143680072814 1:1 3:1 5:1 11:1 14:1 16:1 21:1 91:1 94:1 96:1 98:0.0287081 101:1 108:1 111:1 112:1 115:1 116:0.774597 117:1 
0.7109080498596477 1:1 3:1 5:1 11:1 14:1 16:1 21:1 91:1 94:1 96:1 98:0.00478469 99:1 108:1 110:1 112:1 115:1 116:0.67082 117:1 
0.1957649633708795 1:1 4:1 5:1 11:1 14:1 17:1 21:1 47:1 91:1 94:1 97:1 98:0.0334928 101:1 108:1 111:1 112:1 115:1 116:0.5 117:1 
0.2839514938675411 2:1 3:1 6:1 11:1 14:1 16:1 21:1 91:1 94:1 96:1 98:0.0239234 101:1 108:1 111:1 113:1 115:1 116:0.866025 118:1 
0.164322543544987 1:1 4:1 5:1 11:1 14:1 17:1 21:1 47:1 91:1 94:1 97:1 98:0.00956938 107:1 108:1 111:1 112:1 115:1 116:0.57735 117:1 
0.5972167740213336 1:1 3:1 5:1 11:1 14:1 17:1 29:1 91:1 94:1 97:1 98:0.00478469 107:1 108:1 111:1 112:1 115:1 116:0.707107 117:1 
0.2656563512757061 1:1 3:1 6:1 11:1 13:1 17:1 29:1 91:1 94:1 97:1 98:0.100478 107:1 108:1 111:1 112:1 115:1 116:0.707107 117:1 
0.5411824359241657 1:1 3:1 5:1 11:1 13:1 17:1 36:1 89:1 94:1 97:1 98:0.124402 104:1 108:1 111:1 112:1 115:1 116:0.447214 117:1 
0.1582947876433162 2:1 4:1 6:1 11:1 14:1 17:1 29:1 91:1 94:1 97:1 98:0.100478 107:1 109:1 111:1 112:1 115:1 116:1 118:1 
3.137206648122388 1:1 3:1 5:1 11:1 14:1 17:1 27:1 91:1 94:1 97:1 98:0.00478469 105:1 108:1 110:1 112:1 115:1 116:0.408248 117:1 
32 1:1 3:1 5:1 11:1 14:1 17:1 27:1 36:1 91:1 94:1 97:1 98:0.296651 99:1 108:1 110:1 112:1 115:1 116:0.333333 117:1 
1.146705844355505 1:1 3:1 5:1 11:1 12:1 17:1 27:1 36:1 91:1 94:1 97:1 98:0.320574 104:1 108:1 111:1 112:1 115:1 116:0.5 117:1 
0.9343167920347856 1:1 3:1 5:1 11:1 14:1 17:1 21:1 27:1 91:1 94:1 97:1 98:0.497608 104:1 108:1 111:1 112:1 115:1 116:0.353553 117:1 
1.318887712400145 1:1 3:1 5:1 11:1 14:1 15:1 27:1 36:1 91:1 93:1 97:1 98:0.22488 103:1 108:1 110:1 112:1 115:1 116:0.57735 117:1 
0.1129585931014503 2:1 3:1 6:1 11:1 14:1 17:1 27:1 36:1 91:1 94:1 97:1 98:0.220096 103:1 108:1 110:1 113:1 115:1 116:0.666667 118:1 
32 1:1 3:1 5:1 11:1 14:1 17:1 27:1 91:1 94:1 97:1 98:0.076555 103:1 108:1 110:1 112:1 115:1 116:0.516398 117:1 
1.645042179598407 1:1 3:1 5:1 11:1 13:1 17:1 27:1 36:1 91:1 94:1 97:1 98:0.143541 103:1 108:1 110:1 112:1 115:1 116:0.774597 117:1 
1.22898733707971 1:1 3:1 5:1 11:1 14:1 17:1 21:1 36:1 91:1 94:1 97:1 98:0.272727 104:1 108:1 110:1 112:1 115:1 116:0.408248 117:1 
2.673363129796277 1:1 3:1 5:1 11:1 14:1 17:1 29:1 91:1 94:1 97:1 106:1 108:1 110:1 112:1 115:1 116:0.408248 117:1 
0.6821388624299237 1:1 3:1 5:1 11:1 14:1 17:1 21:1 52:1 91:1 94:1 97:1 98:0.291866 104:1 108:1 110:1 112:1 115:1 116:0.353553 117:1 
0.053554384699397 1:1 3:1 5:1 11:1 14:1 17:1 21:1 52:1 91:1 94:1 97:1 98:0.291866 104:1 108:1 111:1 112:1 115:1 116:0.5 117:1 
4.132416336548076 1:1 3:1 5:1 11:1 14:1 17:1 51:1 52:1 91:1 94:1 97:1 98:0.0956938 104:1 108:1 110:1 112:1 115:1 116:0.353553 117:1 
0.113458360297165 1:1 3:1 5:1 11:1 14:1 17:1 21:1 51:1 91:1 93:1 97:1 98:0.196172 107:1 109:1 111:1 113:1 115:1 116:1 118:1 
0.1912256756125471 1:1 3:1 5:1 11:1 14:1 17:1 21:1 51:1 91:1 94:1 97:1 98:0.196172 107:1 108:1 111:1 112:1 115:1 116:0.707107 117:1 
1.181802147521604 1:1 3:1 5:1 11:1 14:1 17:1 38:1 59:1 91:1 94:1 97:1 98:0.0526316 107:1 108:1 111:1 112:1 115:1 116:0.707107 117:1 
3.258490068389557 1:1 3:1 5:1 11:1 14:1 15:1 51:1 52:1 91:1 94:1 97:1 98:0.583732 107:1 108:1 111:1 112:1 114:1 117:1 
1.078475064405523 1:1 3:1 5:1 11:1 14:1 17:1 52:1 91:1 93:1 97:1 98:0.00478469 106:1 108:1 111:1 112:1 115:1 116:0.632456 117:1 
1.898014304906746 2:1 3:1 6:1 11:1 14:1 17:1 51:1 52:1 91:1 94:1 97:1 98:0.488038 107:1 109:1 111:1 112:1 115:1 116:1 118:1 
0.2217179241082238 1:1 3:1 5:1 11:1 14:1 17:1 51:1 52:1 91:1 93:1 97:1 98:0.626794 107:1 108:1 111:1 113:1 115:1 116:0.5 117:1 
0.1258544374861846 2:1 3:1 6:1 11:1 14:1 17:1 51:1 91:1 94:1 97:1 98:0.0334928 99:1 109:1 111:1 113:1 115:1 116:1 118:1 
0.2107859629180758 1:1 3:1 5:1 11:1 14:1 15:1 37:1 91:1 94:1 97:1 98:0.0143541 107:1 109:1 111:1 113:1 115:1 116:1 118:1 
0.369384046584204 2:1 3:1 6:1 11:1 13:1 17:1 27:1 29:1 91:1 94:1 97:1 98:0.133971 107:1 109:1 111:1 112:1 115:1 116:1 118:1 
0.4887944264593565 1:1 3:1 6:1 11:1 13:1 17:1 27:1 29:1 91:1 94:1 97:1 98:0.133971 107:1 108:1 111:1 112:1 115:1 116:0.707107 117:1 
0.1136119191287762 2:1 3:1 6:1 11:1 14:1 17:1 74:1 91:1 94:1 97:1 98:0.00478469 103:1 109:1 111:1 113:1 115:1 116:1 118:1 
0.7665042582369668 1:1 3:1 5:1 11:1 14:1 17:1 51:1 52:1 91:1 93:1 97:1 98:0.344498 107:1 108:1 110:1 113:1 115:1 116:0.5 117:1 
0.2708922006479793 2:1 3:1 5:1 11:1 14:1 17:1 21:1 52:1 91:1 94:1 97:1 98:0.421053 105:1 108:1 111:1 113:1 115:1 116:0.707107 118:1 
0.1470150040620997 2:1 3:1 5:1 11:1 14:1 17:1 51:1 52:1 91:1 94:1 97:1 98:0.272727 107:1 109:1 111:1 112:1 115:1 116:1 118:1 
0.4013127673888489 2:1 3:1 5:1 11:1 14:1 15:1 52:1 91:1 94:1 97:1 98:0.0239234 104:1 108:1 111:1 113:1 115:1 116:0.707107 118:1 
0.2908085254689038 2:1 4:1 6:1 11:1 14:1 16:1 51:1 52:1 91:1 94:1 97:1 98:0.0861244 107:1 109:1 111:1 112:1 115:1 116:1 118:1 
0.484763233286492 2:1 3:1 5:1 11:1 14:1 15:1 21:1 51:1 91:1 94:1 97:1 98:0.148325 105:1 108:1 111:1 113:1 115:1 116:0.707107 118:1 
1.146953162004528 1:1 3:1 5:1 11:1 14:1 17:1 21:1 91:1 93:1 97:1 98:0.325359 101:1 108:1 110:1 112:1 115:1 116:0.666667 117:1 
2.687815254486593 1:1 3:1 5:1 11:1 14:1 16:1 91:1 94:1 97:1 98:0.00956938 104:1 108:1 110:1 112:1 115:1 116:0.353553 117:1 
0.3284536852639907 2:1 3:1 6:1 11:1 13:1 17:1 27:1 36:1 91:1 94:1 97:1 98:0.00956938 104:1 108:1 111:1 113:1 115:1 116:0.707107 118:1 
32 1:1 3:1 5:1 11:1 14:1 17:1 21:1 52:1 91:1 94:1 97:1 98:0.473684 107:1 108:1 110:1 112:1 114:1 117:1 
32 1:1 3:1 5:1 11:1 14:1 17:1 52:1 91:1 94:1 97:1 98:0.00478469 107:1 108:1 111:1 112:1 114:1 117:1 
0.3915779309443033 1:1 4:1 6:1 11:1 14:1 17:1 51:1 52:1 91:1 94:1 97:1 98:0.354067 107:1 108:1 111:1 112:1 115:1 116:0.707107 117:1 
0.8076815331552054 1:1 3:1 5:1 11:1 14:1 17:1 29:1 89:1 94:1 97:1 106:1 108:1 111:1 112:1 115:1 116:0.5 117:1 
0.3193124150229746 2:1 3:1 6:1 11:1 14:1 17:1 29:1 91:1 93:1 97:1 98:0.0239234 100:1 108:1 110:1 113:1 115:1 116:0.666667 118:1 
0.1356691308570989 2:1 3:1 6:1 11:1 14:1 17:1 29:1 91:1 93:1 97:1 98:0.0334928 103:1 109:1 111:1 113:1 115:1 116:1 118:1 
0.347659490847347 2:1 3:1 6:1 11:1 14:1 16:1 29:1 91:1 93:1 97:1 98:0.0287081 104:1 108:1 111:1 113:1 115:1 116:0.816497 118:1 
0.01172877329505684 2:1 3:1 6:1 11:1 14:1 17:1 21:1 29:1 91:1 93:1 97:1 98:0.0382775 107:1 109:1 111:1 113:1 115:1 116:1 118:1 
0.1484967968103116 2:1 3:1 6:1 11:1 14:1 17:1 27:1 91:1 93:1 97:1 98:0.00956938 107:1 109:1 111:1 112:1 115:1 116:1 118:1 
0.3475416499774123 2:1 4:1 6:1 11:1 14:1 17:1 38:1 52:1 91:1 94:1 97:1 98:0.119617 101:1 108:1 111:1 113:1 115:1 116:0.57735 118:1 
0.4357070147275091 2:1 3:1 6:1 11:1 14:1 17:1 38:1 52:1 91:1 94:1 97:1 98:0.110048 103:1 108:1 110:1 113:1 115:1 116:0.5 118:1 
0.3033915609405565 1:1 3:1 5:1 11:1 14:1 17:1 21:1 91:1 93:1 97:1 98:0.0191388 105:1 108:1 111:1 112:1 115:1 116:0.707107 117:1 
32 1:1 3:1 5:1 11:1 14:1 17:1 27:1 91:1 94:1 97:1 98:0.0239234 103:1 108:1 110:1 112:1 115:1 116:0.353553 117:1 
0.05040267088616744 1:1 3:1 5:1 11:1 14:1 17:1 27:1 91:1 94:1 97:1 103:1 109:1 111:1 113:1 115:1 116:1 118:1 
0.4516645271973507 1:1 3:1 5:1 11:1 14:1 16:1 27:1 91:1 94:1 97:1 98:0.00956938 102:1 108:1 110:1 112:1 115:1 116:0.353553 117:1 
0.004374318763558508 2:1 3:1 6:1 11:1 14:1 16:1 27:1 91:1 94:1 97:1 98:0.0382775 107:1 109:1 111:1 112:1 115:1 116:1 118:1 
0.4727730822773224 1:1 3:1 5:1 11:1 14:1 15:1 27:1 91:1 94:1 96:1 98:0.0382775 103:1 109:1 111:1 113:1 115:1 116:1 118:1 
0.9212294200145388 1:1 3:1 5:1 11:1 14:1 17:1 27:1 36:1 91:1 94:1 96:1 98:0.0574163 104:1 108:1 111:1 112:1 115:1 116:0.5 117:1 
0.02616511641605769 2:1 3:1 6:1 11:1 14:1 17:1 27:1 36:1 91:1 93:1 97:1 98:0.0334928 107:1 109:1 111:1 113:1 115:1 116:1 118:1 
1.29372923259275 1:1 3:1 6:1 11:1 14:1 16:1 21:1 22:1 91:1 94:1 97:1 98:0.0909091 99:1 108:1 110:1 112:1 115:1 116:0.816497 117:1 
0.3642667193764881 2:1 3:1 6:1 11:1 14:1 16:1 21:1 22:1 91:1 94:1 97:1 98:0.0909091 99:1 109:1 111:1 113:1 115:1 116:1 118:1 
0.1462901477222966 2:1 3:1 6:1 11:1 14:1 17:1 29:1 91:1 94:1 97:1 98:0.00478469 102:1 108:1 110:1 113:1 115:1 116:0.5 118:1 
0.5684623672857484 2:1 3:1 6:1 11:1 14:1 17:1 29:1 91:1 93:1 97:1 105:1 108:1 110:1 113:1 115:1 116:0.408248 117:1 
0.4914463089632359 1:1 3:1 5:1 11:1 14:1 17:1 24:1 29:1 91:1 93:1 97:1 98:0.311005 107:1 108:1 111:1 112:1 115:1 116:0.707107 117:1 
1.160148490901757 1:1 4:1 6:1 11:1 14:1 17:1 69:1 91:1 94:1 97:1 98:0.0191388 107:1 108:1 110:1 112:1 114:1 117:1 
0.8712501400074666 1:1 4:1 6:1 11:1 14:1 17:1 69:1 91:1 94:1 97:1 98:0.0143541 106:1 108:1 110:1 113:1 114:1 117:1 
0.2388496097465035 2:1 3:1 6:1 11:1 14:1 17:1 69:1 91:1 94:1 96:1 98:0.00478469 104:1 108:1 111:1 113:1 115:1 116:0.707107 118:1 
0.6252146120908604 1:1 3:1 5:1 11:1 14:1 15:1 38:1 52:1 91:1 94:1 97:1 98:0.191388 105:1 108:1 110:1 112:1 115:1 116:0.666667 117:1 
0.7602049963352988 1:1 3:1 5:1 11:1 14:1 15:1 38:1 52:1 91:1 94:1 97:1 98:0.186603 107:1 108:1 110:1 112:1 115:1 116:0.866025 117:1 
0.4027638596185092 1:1 3:1 5:1 11:1 14:1 15:1 30:1 38:1 91:1 94:1 97:1 98:0.0382775 107:1 109:1 111:1 113:1 115:1 116:1 118:1 
0.03384836565274549 2:1 3:1 6:1 11:1 14:1 15:1 38:1 52:1 91:1 94:1 97:1 98:0.186603 107:1 109:1 111:1 112:1 115:1 116:1 118:1 
0.2957324999941386 2:1 3:1 6:1 11:1 14:1 15:1 30:1 38:1 91:1 94:1 97:1 98:0.0382775 107:1 109:1 111:1 112:1 115:1 116:1 118:1 
32 1:1 3:1 5:1 11:1 14:1 15:1 38:1 52:1 91:1 94:1 97:1 98:0.186603 107:1 108:1 110:1 112:1 114:1 117:1 
32 1:1 3:1 5:1 11:1 14:1 17:1 30:1 38:1 91:1 94:1 97:1 98:0.0430622 107:1 108:1 110:1 112:1 114:1 117:1 
0.5200174033882079 1:1 3:1 5:1 11:1 14:1 15:1 30:1 52:1 91:1 94:1 97:1 98:0.15311 105:1 108:1 110:1 112:1 115:1 116:0.666667 117:1 
0.6939978687258971 1:1 3:1 5:1 11:1 14:1 15:1 30:1 52:1 91:1 94:1 97:1 98:0.148325 107:1 108:1 110:1 112:1 115:1 116:0.866025 117:1 
32 1:1 3:1 5:1 11:1 14:1 15:1 30:1 52:1 91:1 94:1 97:1 98:0.148325 107:1 108:1 110:1 112:1 114:1 117:1 
0.04665055613376824 2:1 3:1 6:1 11:1 14:1 15:1 30:1 52:1 91:1 94:1 97:1 98:0.148325 107:1 109:1 111:1 112:1 115:1 116:1 118:1 
32 1:1 3:1 5:1 11:1 14:1 17:1 30:1 52:1 91:1 94:1 97:1 98:0.143541 107:1 108:1 110:1 112:1 114:1 117:1 
0.3611624098887466 2:1 3:1 6:1 11:1 14:1 15:1 52:1 91:1 94:1 97:1 98:0.00478469 105:1 108:1 110:1 113:1 115:1 116:0.57735 118:1 
0.9647873161730576 1:1 3:1 5:1 11:1 14:1 15:1 21:1 52:1 89:1 94:1 97:1 98:0.186603 105:1 108:1 110:1 112:1 115:1 116:0.57735 117:1 
0.7532603164603043 2:1 3:1 6:1 11:1 12:1 15:1 51:1 91:1 94:1 97:1 98:0.062201 107:1 109:1 111:1 112:1 115:1 116:1 118:1 
0.3067128673509537 1:1 3:1 5:1 11:1 14:1 15:1 51:1 91:1 94:1 97:1 98:0.0526316 107:1 109:1 111:1 112:1 115:1 116:1 118:1 
0.2420996395041953 1:1 3:1 5:1 11:1 13:1 15:1 51:1 91:1 94:1 97:1 98:0.0526316 107:1 109:1 111:1 112:1 115:1 116:1 118:1 
32 1:1 3:1 5:1 11:1 12:1 15:1 51:1 91:1 94:1 97:1 98:0.0430622 107:1 108:1 111:1 112:1 114:1 117:1 
0.07429090282203418 1:1 3:1 5:1 11:1 14:1 15:1 51:1 91:1 94:1 97:1 98:0.0334928 107:1 109:1 111:1 113:1 115:1 116:1 118:1 
32 1:1 3:1 5:1 11:1 12:1 15:1 51:1 91:1 94:1 97:1 98:0.0239234 107:1 109:1 111:1 113:1 115:1 116:1 118:1 
0.2138251661882103 1:1 3:1 5:1 11:1 13:1 15:1 51:1 91:1 94:1 97:1 98:0.0143541 107:1 109:1 111:1 113:1 115:1 116:1 118:1 
0.2779578596930149 2:1 4:1 6:1 11:1 13:1 15:1 51:1 91:1 94:1 97:1 98:0.0143541 107:1 109:1 111:1 112:1 115:1 116:1 118:1 
1.054374484611524 1:1 3:1 5:1 11:1 14:1 17:1 27:1 63:1 91:1 94:1 96:1 98:0.110048 107:1 108:1 111:1 112:1 115:1 116:0.707107 117:1 
0.3459414483153205 1:1 4:1 6:1 11:1 14:1 16:1 21:1 27:1 91:1 94:1 97:1 98:0.449761 107:1 108:1 111:1 112:1 115:1 116:0.707107 117:1 
31.80122958964631 2:1 3:1 6:1 11:1 14:1 17:1 27:1 36:1 91:1 94:1 97:1 98:0.148325 107:1 109:1 111:1 112:1 115:1 116:1 118:1 
0.1746908382444996 1:1 4:1 6:1 11:1 14:1 17:1 27:1 36:1 91:1 94:1 97:1 98:0.129187 107:1 108:1 111:1 112:1 115:1 116:0.707107 117:1 
1.599451662059967 1:1 3:1 5:1 11:1 14:1 17:1 27:1 36:1 91:1 94:1 97:1 98:0.119617 106:1 108:1 111:1 112:1 115:1 116:0.5 117:1 
0.32319474274005 1:1 4:1 6:1 11:1 14:1 16:1 27:1 36:1 91:1 94:1 97:1 98:0.110048 107:1 108:1 111:1 112:1 115:1 116:0.707107 117:1 
0.3142337149199039 2:1 3:1 6:1 11:1 14:1 17:1 27:1 89:1 94:1 97:1 98:0.00956938 103:1 109:1 111:1 113:1 115:1 116:1 118:1 
0.3296734858181787 2:1 3:1 6:1 11:1 13:1 17:1 27:1 36:1 91:1 94:1 97:1 98:0.129187 101:1 108:1 111:1 113:1 115:1 116:0.707107 118:1 
1.546916795430081 1:1 3:1 5:1 11:1 14:1 17:1 27:1 36:1 91:1 94:1 95:1 98:0.062201 99:1 108:1 110:1 112:1 115:1 116:0.666667 117:1 
1.307105412541671 1:1 3:1 5:1 11:1 14:1 16:1 21:1 36:1 91:1 94:1 97:1 98:0.334928 107:1 108:1 110:1 112:1 115:1 116:0.5 117:1 
0.5307915894354789 2:1 3:1 6:1 11:1 14:1 16:1 21:1 36:1 89:1 93:1 97:1 98:0.339713 107:1 109:1 111:1 113:1 115:1 116:1 118:1 
0.2250055949164392 1:1 4:1 6:1 11:1 14:1 17:1 21:1 36:1 91:1 94:1 97:1 98:0.320574 106:1 108:1 110:1 112:1 115:1 116:0.5 117:1 
0.3685033400171703 1:1 4:1 6:1 11:1 14:1 17:1 36:1 89:1 94:1 97:1 98:0.0382775 107:1 108:1 111:1 112:1 115:1 116:0.707107 117:1 
1.387111295041974 1:1 3:1 5:1 11:1 14:1 17:1 36:1 91:1 92:1 97:1 98:0.00956938 106:1 108:1 110:1 112:1 115:1 116:0.353553 117:1 
1.655496969916094 1:1 3:1 5:1 11:1 14:1 17:1 21:1 36:1 91:1 94:1 97:1 98:0.311005 103:1 108:1 110:1 112:1 115:1 116:0.707107 117:1 
0.6977113438142986 1:1 3:1 5:1 11:1 14:1 17:1 36:1 91:1 94:1 97:1 98:0.0287081 104:1 108:1 111:1 112:1 115:1 116:0.5 117:1 
3.654729011572159 1:1 3:1 5:1 11:1 14:1 17:1 36:1 91:1 92:1 97:1 98:0.00956938 104:1 108:1 110:1 112:1 115:1 116:0.353553 117:1 
0.1017452162220406 1:1 3:1 5:1 11:1 14:1 17:1 21:1 36:1 91:1 94:1 95:1 98:0.296651 99:1 108:1 110:1 112:1 115:1 116:0.866025 117:1 
0.3267934851996862 1:1 4:1 6:1 11:1 14:1 17:1 21:1 36:1 89:1 94:1 97:1 98:0.301435 107:1 108:1 111:1 112:1 115:1 116:0.707107 117:1 
0.1575330673258643 2:1 3:1 6:1 11:1 14:1 17:1 21:1 36:1 91:1 94:1 97:1 98:0.282297 106:1 108:1 111:1 113:1 115:1 116:0.707107 118:1 
2.41957467237814 1:1 3:1 5:1 11:1 14:1 17:1 36:1 89:1 94:1 97:1 98:0.00956938 103:1 108:1 110:1 112:1 115:1 116:0.816497 117:1 
0.3953694996473314 2:1 3:1 6:1 11:1 13:1 17:1 21:1 52:1 91:1 94:1 97:1 98:0.263158 107:1 109:1 111:1 112:1 115:1 116:1 118:1 
0.3244290456379242 2:1 3:1 5:1 11:1 13:1 17:1 21:1 52:1 91:1 94:1 97:1 98:0.263158 107:1 109:1 111:1 112:1 115:1 116:1 118:1 
0.3031625061296061 1:1 3:1 5:1 11:1 14:1 17:1 35:1 77:1 91:1 93:1 97:1 98:0.344498 107:1 109:1 111:1 113:1 115:1 116:1 118:1 
0.05290073986233425 1:1 3:1 5:1 11:1 14:1 17:1 27:1 35:1 91:1 93:1 97:1 98:0.177033 107:1 109:1 111:1 113:1 115:1 116:1 118:1 
0.9148291381292573 1:1 3:1 5:1 11:1 14:1 17:1 27:1 35:1 91:1 94:1 97:1 98:0.0574163 105:1 108:1 110:1 112:1 115:1 116:0.204124 117:1 
2.935453455575768 1:1 3:1 5:1 11:1 14:1 17:1 27:1 56:1 89:1 94:1 97:1 98:0.148325 107:1 108:1 110:1 112:1 114:1 117:1 
1.3840510552282 1:1 3:1 5:1 11:1 14:1 17:1 27:1 56:1 91:1 93:1 97:1 98:0.133971 107:1 108:1 110:1 112:1 115:1 116:0.288675 117:1 
0.1013955172901688 2:1 3:1 5:1 11:1 14:1 17:1 27:1 91:1 94:1 97:1 98:0.00478469 102:1 108:1 110:1 113:1 115:1 116:0.5 118:1 
0.8019428396264487 1:1 3:1 5:1 11:1 14:1 16:1 27:1 91:1 94:1 97:1 98:0.00478469 105:1 108:1 110:1 112:1 115:1 116:0.408248 117:1 
2.102294018399408 1:1 3:1 5:1 11:1 14:1 17:1 21:1 27:1 91:1 92:1 97:1 98:0.349282 106:1 108:1 110:1 112:1 115:1 116:0.353553 117:1 
0.6639042881181064 1:1 4:1 6:1 11:1 14:1 17:1 27:1 91:1 94:1 97:1 98:0.0909091 106:1 108:1 110:1 112:1 115:1 116:0.5 117:1 
32 1:1 3:1 5:1 11:1 14:1 17:1 21:1 27:1 91:1 94:1 97:1 98:0.287081 103:1 108:1 110:1 112:1 115:1 116:0.707107 117:1 
8.372542499618213 1:1 3:1 5:1 11:1 14:1 17:1 21:1 27:1 91:1 94:1 97:1 98:0.258373 103:1 108:1 110:1 112:1 115:1 116:0.707107 117:1 
0.4535147455089776 2:1 3:1 6:1 11:1 14:1 16:1 27:1 89:1 94:1 97:1 102:1 108:1 110:1 113:1 115:1 116:0.666667 118:1 
1.002922171825597 1:1 4:1 5:1 11:1 14:1 16:1 27:1 36:1 91:1 94:1 97:1 98:0.119617 104:1 108:1 110:1 112:1 115:1 116:0.5 117:1 
32 1:1 3:1 5:1 11:1 14:1 16:1 27:1 36:1 91:1 94:1 97:1 98:0.119617 104:1 108:1 110:1 112:1 114:1 117:1 
0.5470431740285657 1:1 4:1 5:1 11:1 14:1 16:1 27:1 36:1 91:1 94:1 97:1 98:0.114833 101:1 108:1 110:1 112:1 115:1 116:0.5 117:1 
32 1:1 3:1 5:1 11:1 14:1 16:1 27:1 36:1 91:1 94:1 97:1 98:0.114833 101:1 108:1 110:1 112:1 114:1 117:1 
3.809884275527813 1:1 3:1 5:1 11:1 14:1 17:1 27:1 91:1 94:1 97:1 98:0.0143541 107:1 108:1 110:1 112:1 115:1 116:0.353553 117:1 
1.215520565041596 1:1 3:1 5:1 11:1 14:1 15:1 27:1 36:1 91:1 93:1 97:1 98:0.0717703 101:1 108:1 110:1 112:1 115:1 116:0.235702 117:1 
32 1:1 3:1 5:1 11:1 14:1 16:1 36:1 91:1 94:1 97:1 107:1 108:1 110:1 112:1 114:1 117:1 
32 1:1 3:1 5:1 11:1 14:1 17:1 27:1 91:1 94:1 97:1 98:0.138756 107:1 108:1 111:1 112:1 115:1 116:0.707107 117:1 
1.134546757329765 1:1 3:1 5:1 11:1 14:1 17:1 27:1 70:1 91:1 94:1 97:1 98:0.330144 99:1 108:1 111:1 112:1 115:1 116:0.707107 117:1 
0.1992746516573268 1:1 3:1 5:1 11:1 14:1 17:1 27:1 70:1 91:1 94:1 97:1 98:0.239234 101:1 108:1 111:1 113:1 115:1 116:0.866025 118:1 
2.552058296896768 1:1 3:1 5:1 11:1 14:1 17:1 27:1 70:1 91:1 94:1 97:1 98:0.181818 101:1 108:1 110:1 112:1 115:1 116:0.408248 117:1 
32 1:1 3:1 5:1 11:1 14:1 17:1 51:1 52:1 91:1 94:1 97:1 98:0.100478 107:1 108:1 110:1 112:1 114:1 117:1 
1.952760559050129 1:1 3:1 5:1 11:1 14:1 17:1 52:1 91:1 94:1 97:1 98:0.00478469 107:1 108:1 111:1 112:1 115:1 116:0.707107 117:1 
32 1:1 3:1 5:1 11:1 14:1 17:1 51:1 52:1 91:1 93:1 97:1 98:0.0956938 107:1 108:1 110:1 112:1 115:1 116:0.5 117:1 
1.335236899961859 1:1 3:1 5:1 11:1 14:1 17:1 51:1 52:1 91:1 94:1 97:1 98:0.129187 107:1 108:1 111:1 112:1 115:1 116:0.707107 117:1 
0.5370071521401123 1:1 3:1 5:1 11:1 14:1 17:1 51:1 52:1 91:1 93:1 97:1 98:0.129187 107:1 108:1 110:1 112:1 115:1 116:1 117:1 
32 1:1 3:1 5:1 11:1 14:1 17:1 34:1 70:1 91:1 94:1 97:1 98:0.119617 106:1 108:1 110:1 112:1 114:1 117:1 
8.040822104022331 1:1 3:1 5:1 11:1 14:1 17:1 34:1 91:1 94:1 97:1 98:0.00478469 107:1 108:1 110:1 112:1 114:1 117:1 
0.6282893172465801 2:1 4:1 6:1 11:1 14:1 17:1 34:1 70:1 91:1 93:1 97:1 98:0.114833 106:1 108:1 110:1 113:1 115:1 116:0.866025 118:1 
32 1:1 3:1 5:1 11:1 14:1 17:1 34:1 70:1 91:1 94:1 97:1 98:0.114833 106:1 108:1 110:1 112:1 114:1 117:1 
0.5448707896262326 1:1 3:1 5:1 11:1 14:1 15:1 38:1 69:1 91:1 93:1 97:1 98:0.229665 104:1 108:1 110:1 112:1 115:1 116:0.4 117:1 
0.3760281663938732 2:1 3:1 6:1 11:1 14:1 17:1 38:1 52:1 91:1 93:1 97:1 98:0.0956938 102:1 108:1 110:1 113:1 115:1 116:0.8 118:1 
1.357783590574381 1:1 3:1 5:1 11:1 14:1 16:1 38:1 91:1 94:1 97:1 103:1 108:1 111:1 112:1 115:1 116:0.816497 117:1 
0.6276386337330579 1:1 3:1 5:1 11:1 14:1 16:1 38:1 91:1 94:1 97:1 104:1 108:1 110:1 112:1 115:1 116:0.408248 117:1 
3.345117497717145 1:1 3:1 5:1 11:1 14:1 16:1 38:1 91:1 94:1 97:1 106:1 108:1 110:1 112:1 114:1 117:1 
0.3615770188659996 1:1 3:1 5:1 11:1 14:1 17:1 52:1 69:1 91:1 93:1 97:1 98:0.133971 101:1 108:1 110:1 112:1 115:1 116:0.4 117:1 
0.3674179241364055 2:1 4:1 6:1 11:1 14:1 17:1 51:1 52:1 91:1 94:1 97:1 98:0.210526 101:1 108:1 111:1 113:1 115:1 116:0.707107 118:1 
0.5694354249876854 1:1 3:1 5:1 10:1 14:1 17:1 27:1 80:1 91:1 93:1 97:1 98:0.162679 107:1 108:1 110:1 112:1 115:1 116:0.8 117:1 
0.1984763404087364 1:1 3:1 5:1 11:1 14:1 17:1 27:1 80:1 91:1 94:1 97:1 98:0.157895 101:1 108:1 111:1 113:1 115:1 116:0.816497 118:1 
0.1507314230233611 1:1 4:1 6:1 11:1 14:1 17:1 27:1 80:1 91:1 94:1 97:1 98:0.167464 107:1 108:1 111:1 112:1 115:1 116:0.707107 117:1 
0.2152408600447406 2:1 3:1 6:1 11:1 14:1 17:1 27:1 80:1 91:1 93:1 97:1 98:0.162679 101:1 108:1 111:1 113:1 115:1 116:0.816497 118:1 
0.06637574391444109 2:1 3:1 6:1 11:1 14:1 17:1 21:1 36:1 91:1 93:1 97:1 98:0.110048 107:1 109:1 111:1 113:1 115:1 116:1 118:1 
0.08446530767028762 1:1 3:1 5:1 11:1 14:1 17:1 53:1 91:1 94:1 97:1 98:0.129187 99:1 109:1 111:1 113:1 115:1 116:1 118:1 
32 1:1 3:1 5:1 11:1 14:1 17:1 69:1 91:1 94:1 97:1 98:0.373206 107:1 108:1 110:1 112:1 114:1 117:1 
1.752826475347603 1:1 3:1 5:1 11:1 14:1 16:1 69:1 89:1 94:1 97:1 98:0.200957 104:1 108:1 110:1 112:1 115:1 116:0.408248 117:1 
0.3987843045541156 1:1 3:1 5:1 11:1 14:1 16:1 69:1 89:1 94:1 97:1 98:0.200957 103:1 109:1 111:1 113:1 115:1 116:1 118:1 
32 1:1 3:1 5:1 11:1 14:1 17:1 69:1 91:1 94:1 97:1 98:0.186603 107:1 108:1 110:1 112:1 114:1 117:1 
1.496390955011594 1:1 3:1 5:1 10:1 14:1 17:1 69:1 91:1 93:1 97:1 98:0.191388 107:1 108:1 110:1 112:1 115:1 116:0.408248 117:1 
1.649578079613254 1:1 3:1 5:1 11:1 14:1 17:1 69:1 91:1 94:1 97:1 98:0.119617 107:1 108:1 111:1 112:1 115:1 116:0.353553 117:1 
32 1:1 3:1 5:1 11:1 14:1 17:1 69:1 91:1 92:1 97:1 98:0.062201 107:1 108:1 110:1 112:1 114:1 117:1 
0.5178450428997694 2:1 3:1 6:1 11:1 13:1 17:1 24:1 29:1 91:1 93:1 97:1 98:0.0669856 107:1 109:1 111:1 113:1 115:1 116:1 118:1 
0.2370648118911756 2:1 3:1 6:1 11:1 14:1 17:1 27:1 36:1 91:1 93:1 97:1 98:0.0287081 103:1 108:1 110:1 113:1 115:1 116:0.666667 118:1 
0.2592860834936023 2:1 3:1 6:1 11:1 14:1 16:1 21:1 29:1 91:1 93:1 97:1 98:0.15311 107:1 109:1 111:1 113:1 115:1 116:1 118:1 
0.4202703532305743 1:1 3:1 5:1 11:1 14:1 15:1 21:1 22:1 91:1 93:1 97:1 98:0.0287081 107:1 109:1 111:1 113:1 115:1 116:1 118:1 
0.1501904303280597 2:1 3:1 6:1 11:1 14:1 15:1 22:1 52:1 91:1 94:1 97:1 98:0.449761 107:1 109:1 111:1 112:1 115:1 116:1 118:1 
0.9842432723525786 1:1 3:1 5:1 11:1 14:1 17:1 47:1 52:1 91:1 94:1 97:1 98:0.488038 101:1 108:1 110:1 112:1 115:1 116:0.516398 117:1 
1.234016125225379 1:1 3:1 5:1 11:1 14:1 17:1 52:1 69:1 91:1 94:1 97:1 98:0.0478469 101:1 108:1 110:1 112:1 115:1 116:0.408248 117:1 
2.512697130966294 1:1 3:1 5:1 11:1 14:1 17:1 47:1 69:1 91:1 94:1 97:1 98:0.440191 107:1 108:1 110:1 112:1 115:1 116:0.632456 117:1 
0.3229270582764613 2:1 3:1 6:1 11:1 14:1 16:1 51:1 91:1 93:1 97:1 98:0.00956938 107:1 109:1 111:1 112:1 115:1 116:1 118:1 
1.423326105716761 1:1 3:1 5:1 11:1 14:1 17:1 27:1 70:1 91:1 94:1 97:1 98:0.167464 104:1 108:1 110:1 112:1 115:1 116:0.258199 117:1 
32 1:1 3:1 5:1 11:1 14:1 17:1 27:1 91:1 94:1 97:1 98:0.0239234 102:1 108:1 110:1 112:1 115:1 116:0.235702 117:1 
0.5020646677945412 1:1 3:1 5:1 11:1 14:1 16:1 27:1 70:1 91:1 94:1 97:1 98:0.157895 101:1 108:1 110:1 112:1 115:1 116:0.223607 117:1 
32 1:1 3:1 5:1 11:1 14:1 17:1 27:1 91:1 94:1 97:1 98:0.0143541 99:1 108:1 110:1 112:1 115:1 116:0.204124 117:1 
0.08979908219199874 2:1 3:1 6:1 11:1 14:1 17:1 27:1 70:1 91:1 94:1 97:1 98:0.143541 101:1 108:1 111:1 113:1 115:1 116:0.912871 118:1 
0.6021786521965823 1:1 3:1 5:1 10:1 14:1 15:1 27:1 70:1 91:1 93:1 96:1 98:0.105263 107:1 109:1 111:1 113:1 115:1 116:1 118:1 
1.234067611210798 1:1 3:1 5:1 11:1 14:1 17:1 21:1 27:1 91:1 94:1 96:1 98:0.062201 107:1 108:1 111:1 112:1 115:1 116:0.447214 117:1 
0.2352930414826903 2:1 3:1 6:1 11:1 14:1 16:1 27:1 70:1 91:1 93:1 97:1 98:0.105263 107:1 109:1 111:1 113:1 115:1 116:1 118:1 
0.4867571343132612 1:1 3:1 5:1 11:1 14:1 17:1 21:1 70:1 91:1 94:1 96:1 98:0.0430622 107:1 108:1 111:1 112:1 115:1 116:0.447214 117:1 
0.2084477978733707 2:1 3:1 6:1 11:1 14:1 17:1 21:1 70:1 91:1 93:1 97:1 98:0.0191388 107:1 109:1 111:1 113:1 115:1 116:1 118:1 
0.1571565471128959 1:1 3:1 5:1 11:1 14:1 17:1 27:1 34:1 91:1 93:1 97:1 98:0.205742 107:1 109:1 111:1 113:1 115:1 116:1 118:1 
0.4624763645957365 1:1 3:1 5:1 11:1 14:1 17:1 27:1 91:1 93:1 97:1 98:0.00478469 107:1 108:1 111:1 112:1 115:1 116:0.816497 117:1 
0.1655484725688308 1:1 3:1 5:1 11:1 14:1 17:1 27:1 34:1 91:1 93:1 97:1 98:0.200957 107:1 108:1 111:1 112:1 115:1 116:0.816497 117:1 
24.63242086480838 1:1 3:1 5:1 11:1 14:1 17:1 27:1 80:1 91:1 94:1 97:1 98:0.358852 104:1 108:1 110:1 112:1 115:1 116:0.316228 117:1 
2.829992379335015 1:1 3:1 5:1 11:1 14:1 17:1 27:1 91:1 94:1 97:1 98:0.0287081 102:1 108:1 110:1 112:1 115:1 116:0.288675 117:1 
32 1:1 3:1 5:1 11:1 14:1 17:1 27:1 91:1 94:1 97:1 98:0.0143541 103:1 108:1 110:1 112:1 115:1 116:0.707107 117:1 
32 1:1 3:1 5:1 11:1 14:1 17:1 27:1 91:1 94:1 97:1 98:0.00956938 103:1 108:1 110:1 112:1 115:1 116:0.5 117:1 
32 1:1 3:1 5:1 11:1 14:1 17:1 27:1 80:1 91:1 94:1 97:1 98:0.349282 104:1 108:1 110:1 112:1 114:1 117:1 
32 1:1 3:1 5:1 11:1 14:1 17:1 27:1 91:1 94:1 97:1 98:0.0191388 102:1 108:1 110:1 112:1 114:1 117:1 
32 1:1 3:1 5:1 11:1 14:1 17:1 27:1 91:1 94:1 97:1 98:0.0143541 104:1 108:1 110:1 112:1 114:1 117:1 
32 1:1 3:1 5:1 11:1 14:1 17:1 27:1 91:1 94:1 97:1 98:0.00478469 103:1 108:1 110:1 112:1 115:1 116:0.353553 117:1 
0.3246871931491151 1:1 3:1 5:1 11:1 14:1 17:1 27:1 80:1 91:1 94:1 97:1 98:0.334928 107:1 108:1 110:1 112:1 115:1 116:0.258199 117:1 
2.319321674867407 1:1 3:1 5:1 11:1 14:1 17:1 27:1 80:1 91:1 94:1 97:1 98:0.330144 101:1 108:1 110:1 112:1 115:1 116:0.365148 117:1 
0.5489330206777328 1:1 3:1 5:1 11:1 14:1 16:1 21:1 49:1 91:1 94:1 96:1 98:0.00956938 105:1 108:1 111:1 113:1 115:1 116:0.816497 118:1 
0.1986270701418292 2:1 3:1 6:1 11:1 14:1 17:1 59:1 91:1 93:1 97:1 101:1 108:1 111:1 113:1 115:1 116:0.866025 118:1 
0.105079432587798 1:1 3:1 5:1 11:1 13:1 17:1 27:1 59:1 91:1 94:1 97:1 98:0.133971 107:1 109:1 111:1 113:1 115:1 116:1 118:1 
0.374826090788113 1:1 3:1 5:1 11:1 13:1 17:1 59:1 79:1 91:1 94:1 97:1 98:0.0382775 107:1 109:1 111:1 113:1 115:1 116:1 118:1 
0.1007060387868503 1:1 3:1 5:1 11:1 13:1 17:1 27:1 79:1 91:1 94:1 97:1 98:0.0956938 107:1 109:1 111:1 113:1 115:1 116:1 118:1 
0.2776780408610868 2:1 3:1 6:1 11:1 14:1 17:1 27:1 79:1 91:1 93:1 97:1 98:0.220096 106:1 108:1 111:1 113:1 115:1 116:0.816497 118:1 
32 1:1 3:1 5:1 11:1 14:1 17:1 27:1 91:1 94:1 97:1 98:0.00478469 104:1 108:1 110:1 112:1 114:1 117:1 
0.506049384944063 2:1 4:1 6:1 11:1 14:1 15:1 27:1 59:1 91:1 94:1 96:1 98:0.358852 106:1 108:1 111:1 113:1 115:1 116:0.707107 118:1 
0.3728061128086445 2:1 4:1 6:1 11:1 14:1 17:1 27:1 36:1 91:1 94:1 96:1 98:0.124402 106:1 108:1 111:1 113:1 115:1 116:0.707107 118:1 
0.5731049393195021 2:1 4:1 6:1 11:1 14:1 16:1 27:1 89:1 94:1 96:1 107:1 109:1 111:1 112:1 115:1 116:1 118:1 
0.1276421796153116 2:1 3:1 6:1 11:1 14:1 17:1 27:1 36:1 91:1 93:1 97:1 98:0.129187 105:1 108:1 111:1 113:1 115:1 116:0.816497 118:1 
0.7555125341942471 1:1 3:1 5:1 11:1 14:1 15:1 27:1 59:1 91:1 93:1 97:1 98:0.22488 107:1 108:1 111:1 112:1 115:1 116:0.816497 117:1 
0.4353943470767015 2:1 4:1 6:1 11:1 14:1 17:1 36:1 59:1 91:1 94:1 96:1 98:0.23445 103:1 109:1 111:1 113:1 115:1 116:1 118:1 
0.2840316669791343 1:1 3:1 5:1 11:1 14:1 17:1 27:1 80:1 91:1 94:1 97:1 98:0.124402 107:1 109:1 111:1 112:1 115:1 116:1 118:1 
8.878785655582783 1:1 3:1 5:1 11:1 14:1 17:1 27:1 80:1 91:1 94:1 97:1 98:0.511962 104:1 108:1 110:1 112:1 115:1 116:0.8 117:1 
30.10184070360398 1:1 3:1 5:1 11:1 14:1 17:1 27:1 36:1 91:1 94:1 97:1 98:0.0956938 104:1 108:1 110:1 112:1 115:1 116:0.8 117:1 
0.1101368746638484 2:1 3:1 6:1 11:1 14:1 17:1 27:1 80:1 91:1 94:1 96:1 98:0.488038 107:1 109:1 111:1 112:1 115:1 116:1 118:1 
0.3367777747280606 2:1 3:1 6:1 11:1 14:1 17:1 27:1 36:1 91:1 94:1 96:1 98:0.0287081 107:1 109:1 111:1 112:1 115:1 116:1 118:1 
0.08617882012466746 2:1 3:1 6:1 11:1 14:1 17:1 27:1 36:1 91:1 94:1 96:1 98:0.0143541 106:1 108:1 111:1 113:1 115:1 116:0.707107 118:1 
0.1060566590524609 1:1 3:1 5:1 11:1 14:1 17:1 27:1 80:1 91:1 94:1 96:1 98:0.488038 107:1 109:1 111:1 113:1 115:1 116:1 118:1 
0.2279108043760997 1:1 3:1 5:1 11:1 14:1 17:1 27:1 36:1 91:1 94:1 96:1 98:0.0574163 107:1 109:1 111:1 113:1 115:1 116:1 118:1 
0.02790896753520645 1:1 3:1 5:1 11:1 14:1 17:1 27:1 80:1 91:1 93:1 97:1 98:0.488038 107:1 109:1 111:1 113:1 115:1 116:1 118:1 
0.07695215085651398 1:1 3:1 5:1 11:1 14:1 17:1 27:1 36:1 91:1 93:1 97:1 98:0.0717703 107:1 109:1 111:1 113:1 115:1 116:1 118:1 
0.3442938803070554 2:1 3:1 6:1 11:1 14:1 17:1 36:1 80:1 91:1 94:1 96:1 98:0.473684 104:1 108:1 111:1 113:1 115:1 116:0.707107 118:1 
0.08137674958644017 2:1 3:1 6:1 11:1 14:1 17:1 36:1 80:1 91:1 94:1 97:1 98:0.449761 107:1 109:1 111:1 113:1 115:1 116:1 118:1 
0.2169973515348241 2:1 3:1 6:1 11:1 14:1 17:1 36:1 80:1 91:1 94:1 96:1 98:0.440191 107:1 109:1 111:1 112:1 115:1 116:1 118:1 
0.1749879457121726 1:1 3:1 5:1 11:1 14:1 17:1 36:1 80:1 91:1 94:1 96:1 98:0.430622 107:1 109:1 111:1 113:1 115:1 116:1 118:1 
0.2635067382900589 1:1 3:1 5:1 11:1 14:1 17:1 36:1 80:1 91:1 93:1 97:1 98:0.416268 107:1 109:1 111:1 113:1 115:1 116:1 118:1 
0.5300107827588461 1:1 3:1 5:1 11:1 14:1 17:1 36:1 80:1 91:1 94:1 96:1 98:0.416268 107:1 108:1 111:1 113:1 115:1 116:0.707107 118:1 
0.8115824822822555 1:1 3:1 5:1 11:1 14:1 17:1 36:1 80:1 91:1 94:1 95:1 98:0.401914 101:1 108:1 110:1 112:1 115:1 116:0.75 117:1 
0.05196212690215424 2:1 3:1 6:1 11:1 14:1 17:1 36:1 80:1 91:1 94:1 97:1 98:0.287081 107:1 109:1 111:1 112:1 115:1 116:1 118:1 
0.1122815326220838 2:1 3:1 6:1 11:1 14:1 17:1 21:1 27:1 91:1 93:1 97:1 98:0.339713 104:1 108:1 111:1 113:1 115:1 116:0.816497 118:1 
0.7659490507611842 1:1 3:1 5:1 11:1 14:1 17:1 27:1 70:1 91:1 92:1 96:1 98:0.157895 107:1 108:1 110:1 112:1 115:1 116:0.730297 117:1 
0.8136281723327687 1:1 4:1 5:1 11:1 14:1 17:1 59:1 91:1 94:1 97:1 98:0.0239234 104:1 108:1 111:1 112:1 115:1 116:0.57735 117:1 
1.279121239677839 1:1 3:1 5:1 11:1 14:1 17:1 59:1 91:1 93:1 97:1 98:0.0334928 107:1 108:1 110:1 112:1 115:1 116:0.5 117:1 
0.3131121529695775 2:1 3:1 6:1 11:1 14:1 15:1 59:1 91:1 93:1 97:1 98:0.0143541 103:1 109:1 111:1 113:1 115:1 116:1 118:1 
32 1:1 3:1 5:1 11:1 14:1 15:1 59:1 91:1 94:1 97:1 98:0.0191388 104:1 108:1 110:1 112:1 114:1 117:1 
32 1:1 3:1 5:1 11:1 14:1 16:1 59:1 91:1 94:1 97:1 98:0.00478469 105:1 108:1 110:1 112:1 114:1 117:1 
0.08423272100010207 2:1 3:1 6:1 11:1 14:1 17:1 59:1 91:1 93:1 97:1 98:0.0143541 103:1 109:1 111:1 113:1 115:1 116:1 118:1 
0.1530563911552597 2:1 3:1 6:1 11:1 14:1 17:1 59:1 91:1 93:1 97:1 98:0.00478469 104:1 108:1 111:1 113:1 115:1 116:0.816497 118:1 
1.592448178247686 1:1 3:1 5:1 11:1 14:1 17:1 21:1 59:1 89:1 94:1 97:1 98:0.105263 107:1 108:1 110:1 112:1 115:1 116:0.408248 117:1 
1.185278033923897 1:1 3:1 5:1 11:1 14:1 17:1 21:1 39:1 91:1 94:1 97:1 98:0.148325 104:1 108:1 110:1 112:1 115:1 116:0.316228 117:1 
2.314547960239421 1:1 3:1 5:1 11:1 14:1 17:1 27:1 39:1 91:1 94:1 97:1 98:0.0382775 103:1 108:1 110:1 112:1 115:1 116:0.5 117:1 
32 1:1 3:1 5:1 11:1 14:1 17:1 21:1 27:1 91:1 94:1 97:1 98:0.110048 104:1 108:1 110:1 112:1 114:1 117:1 
32 1:1 3:1 5:1 11:1 14:1 17:1 27:1 91:1 94:1 97:1 98:0.00478469 102:1 108:1 110:1 112:1 114:1 117:1 
0.9156947329650879 1:1 3:1 5:1 10:1 14:1 17:1 21:1 27:1 91:1 94:1 97:1 98:0.105263 101:1 108:1 110:1 112:1 115:1 116:0.676123 117:1 
2.56693269385674 1:1 3:1 5:1 11:1 14:1 17:1 27:1 59:1 91:1 94:1 97:1 98:0.196172 99:1 108:1 110:1 112:1 115:1 116:0.288675 117:1 
2.909632098633441 1:1 3:1 5:1 11:1 14:1 17:1 27:1 59:1 91:1 94:1 97:1 98:0.191388 100:1 108:1 110:1 112:1 114:1 117:1 
0.4633837036417083 1:1 4:1 6:1 11:1 14:1 16:1 27:1 91:1 94:1 97:1 98:0.00478469 102:1 108:1 110:1 112:1 115:1 116:0.408248 117:1 
0.3719962253910037 1:1 3:1 5:1 11:1 14:1 16:1 21:1 52:1 91:1 94:1 97:1 98:0.339713 107:1 109:1 111:1 112:1 115:1 116:1 118:1 
1.90427468060007 1:1 3:1 5:1 11:1 14:1 15:1 51:1 91:1 94:1 97:1 98:0.00956938 107:1 108:1 110:1 112:1 115:1 116:0.316228 117:1 
32 1:1 3:1 5:1 11:1 14:1 17:1 84:1 91:1 94:1 97:1 98:0.0574163 107:1 108:1 110:1 112:1 114:1 117:1 
0.9356747089113243 1:1 3:1 5:1 11:1 14:1 17:1 77:1 84:1 91:1 93:1 97:1 98:0.0717703 107:1 108:1 110:1 112:1 115:1 116:0.632456 117:1 
32 1:1 3:1 5:1 11:1 14:1 17:1 21:1 91:1 94:1 97:1 98:0.00478469 102:1 108:1 110:1 112:1 115:1 116:0.353553 117:1 
0.4085214974265432 1:1 3:1 5:1 11:1 14:1 16:1 27:1 70:1 91:1 94:1 96:1 98:0.186603 107:1 109:1 111:1 113:1 115:1 116:1 118:1 
0.5603610627730452 2:1 3:1 6:1 10:1 14:1 16:1 27:1 70:1 91:1 93:1 96:1 98:0.181818 107:1 109:1 111:1 113:1 115:1 116:1 118:1 
0.6670397226011981 2:1 3:1 6:1 11:1 14:1 15:1 27:1 70:1 91:1 93:1 96:1 98:0.244019 107:1 108:1 110:1 113:1 115:1 116:0.5 117:1 
0.5190412603285108 1:1 3:1 5:1 11:1 14:1 16:1 27:1 91:1 93:1 96:1 98:0.00478469 105:1 108:1 111:1 112:1 115:1 116:0.707107 117:1 
0.6748859887638659 1:1 3:1 5:1 11:1 14:1 15:1 27:1 70:1 91:1 93:1 96:1 98:0.239234 101:1 108:1 110:1 112:1 115:1 116:0.353553 117:1 
0.3349226067530072 2:1 4:1 6:1 11:1 14:1 17:1 21:1 36:1 91:1 94:1 96:1 98:0.15311 103:1 109:1 111:1 113:1 115:1 116:1 118:1 
0.3253627446798297 2:1 3:1 6:1 11:1 14:1 17:1 47:1 52:1 91:1 94:1 96:1 98:0.311005 107:1 109:1 111:1 112:1 115:1 116:1 118:1 
0.2834853537553935 1:1 3:1 5:1 11:1 14:1 17:1 51:1 52:1 91:1 93:1 97:1 98:0.114833 101:1 108:1 110:1 112:1 115:1 116:0.632456 117:1 
2.539210581599163 1:1 3:1 5:1 11:1 14:1 17:1 52:1 91:1 94:1 97:1 98:0.0191388 101:1 108:1 111:1 112:1 115:1 116:0.632456 117:1 
0.1654711548380301 2:1 4:1 6:1 11:1 14:1 15:1 51:1 52:1 91:1 94:1 97:1 98:0.0526316 107:1 109:1 111:1 112:1 115:1 116:1 118:1 
0.5437374525058282 1:1 3:1 5:1 11:1 14:1 15:1 51:1 52:1 91:1 94:1 97:1 98:0.0956938 107:1 108:1 110:1 112:1 115:1 116:0.5 117:1 
0.1752128687665164 1:1 3:1 5:1 11:1 14:1 16:1 51:1 91:1 94:1 97:1 98:0.062201 107:1 109:1 111:1 112:1 115:1 116:1 118:1 
0.2052347297039654 2:1 3:1 6:1 11:1 13:1 16:1 51:1 91:1 94:1 97:1 98:0.062201 107:1 109:1 111:1 112:1 115:1 116:1 118:1 
0.265831834436523 1:1 3:1 5:1 11:1 13:1 16:1 51:1 91:1 94:1 97:1 98:0.062201 107:1 109:1 111:1 112:1 115:1 116:1 118:1 
0.0483393792506613 1:1 3:1 5:1 11:1 13:1 16:1 51:1 91:1 94:1 97:1 98:0.0669856 107:1 109:1 111:1 113:1 115:1 116:1 118:1 
0.2970380798520719 2:1 4:1 6:1 11:1 13:1 16:1 51:1 91:1 94:1 97:1 98:0.0669856 107:1 109:1 111:1 112:1 115:1 116:1 118:1 
32 1:1 3:1 5:1 11:1 14:1 17:1 27:1 36:1 91:1 94:1 97:1 98:0.0956938 103:1 108:1 110:1 112:1 115:1 116:0.353553 117:1 
0.3653164039382689 1:1 3:1 5:1 11:1 14:1 17:1 27:1 44:1 91:1 93:1 97:1 98:0.0574163 105:1 108:1 111:1 113:1 115:1 116:0.866025 118:1 
32 1:1 3:1 5:1 11:1 14:1 17:1 27:1 91:1 94:1 97:1 98:0.119617 104:1 108:1 110:1 112:1 114:1 117:1 
0.5195532495464885 1:1 3:1 5:1 11:1 14:1 17:1 21:1 36:1 91:1 94:1 97:1 98:0.210526 105:1 108:1 111:1 112:1 115:1 116:0.707107 117:1 
0.1988358436702899 2:1 4:1 6:1 11:1 14:1 17:1 21:1 91:1 94:1 97:1 98:0.0669856 103:1 109:1 111:1 113:1 115:1 116:1 118:1 
0.4906334741946133 2:1 3:1 6:1 11:1 14:1 17:1 21:1 36:1 89:1 94:1 97:1 98:0.253589 99:1 108:1 111:1 113:1 115:1 116:0.707107 118:1 
32 1:1 3:1 5:1 11:1 14:1 17:1 29:1 91:1 94:1 97:1 107:1 108:1 110:1 112:1 114:1 117:1 
0.1229748972296594 1:1 3:1 5:1 11:1 14:1 17:1 35:1 52:1 91:1 94:1 97:1 98:0.397129 107:1 109:1 111:1 113:1 115:1 116:1 118:1 
1.721120275076683 1:1 3:1 5:1 11:1 14:1 17:1 35:1 52:1 91:1 94:1 97:1 98:0.330144 106:1 108:1 110:1 112:1 115:1 116:0.333333 117:1 
0.09323968594185272 2:1 3:1 6:1 11:1 14:1 15:1 52:1 91:1 94:1 96:1 98:0.177033 107:1 109:1 111:1 112:1 115:1 116:1 118:1 
0.3086453996198429 1:1 3:1 5:1 11:1 14:1 17:1 21:1 51:1 91:1 94:1 97:1 98:0.277512 107:1 108:1 110:1 112:1 115:1 116:0.5 117:1 
0.1963991837955184 2:1 4:1 6:1 11:1 14:1 17:1 27:1 36:1 91:1 94:1 97:1 98:0.181818 107:1 109:1 111:1 112:1 115:1 116:1 118:1 
32 1:1 3:1 5:1 11:1 14:1 17:1 27:1 91:1 94:1 97:1 98:0.0287081 104:1 108:1 110:1 112:1 115:1 116:0.353553 117:1 
2.856535612833992 1:1 3:1 5:1 11:1 14:1 16:1 27:1 91:1 94:1 97:1 98:0.00478469 107:1 108:1 110:1 112:1 115:1 116:0.353553 117:1 
1.415518554114313 1:1 3:1 5:1 11:1 14:1 17:1 27:1 58:1 91:1 93:1 97:1 98:0.205742 104:1 108:1 110:1 112:1 115:1 116:0.316228 117:1 
0.6283852077569743 2:1 3:1 6:1 11:1 14:1 17:1 27:1 91:1 94:1 97:1 98:0.0143541 104:1 108:1 110:1 112:1 115:1 116:0.5 117:1 
0.4611933122776126 1:1 3:1 5:1 11:1 13:1 17:1 27:1 38:1 91:1 94:1 97:1 98:0.133971 99:1 109:1 111:1 113:1 115:1 116:1 118:1 
0.8854522656989551 1:1 3:1 5:1 11:1 14:1 15:1 24:1 91:1 94:1 95:1 98:0.00478469 102:1 108:1 110:1 112:1 115:1 116:0.353553 117:1 
0.1021033317990843 2:1 3:1 6:1 11:1 14:1 15:1 27:1 91:1 94:1 97:1 98:0.00478469 106:1 108:1 111:1 113:1 115:1 116:0.707107 118:1 
0.1289252189085424 2:1 3:1 6:1 11:1 14:1 16:1 27:1 91:1 94:1 97:1 106:1 108:1 111:1 113:1 115:1 116:0.707107 118:1 
0.04914613690123797 2:1 3:1 6:1 11:1 14:1 16:1 27:1 91:1 94:1 97:1 103:1 109:1 111:1 113:1 115:1 116:1 118:1 
0.3093340482884854 2:1 3:1 6:1 11:1 14:1 17:1 34:1 47:1 91:1 94:1 97:1 98:0.933014 107:1 109:1 111:1 113:1 115:1 116:1 118:1 
1.23616417535818 1:1 3:1 5:1 11:1 14:1 17:1 34:1 69:1 91:1 94:1 97:1 98:0.248804 107:1 108:1 110:1 113:1 115:1 116:0.5 117:1 
0.371550524718449 1:1 3:1 5:1 11:1 14:1 17:1 47:1 69:1 91:1 94:1 97:1 98:0.684211 107:1 108:1 110:1 113:1 115:1 116:0.5 117:1 
0.4407541540289449 2:1 3:1 6:1 11:1 14:1 16:1 69:1 91:1 93:1 97:1 98:0.00478469 102:1 108:1 110:1 113:1 115:1 116:0.666667 118:1 
0.09123346073940887 1:1 3:1 5:1 11:1 14:1 16:1 69:1 91:1 94:1 97:1 98:0.210526 107:1 109:1 111:1 113:1 115:1 116:1 118:1 
0.6479369115147861 1:1 4:1 6:1 11:1 14:1 17:1 27:1 77:1 91:1 94:1 97:1 98:0.167464 107:1 108:1 111:1 112:1 114:1 117:1 
32 1:1 3:1 5:1 11:1 14:1 17:1 27:1 84:1 91:1 94:1 97:1 98:0.0909091 107:1 108:1 110:1 112:1 114:1 117:1 
0.2753729879579626 2:1 4:1 6:1 11:1 14:1 17:1 27:1 84:1 91:1 94:1 97:1 98:0.062201 107:1 109:1 111:1 112:1 115:1 116:1 118:1 
0.01310826894645392 2:1 3:1 6:1 11:1 14:1 17:1 27:1 84:1 91:1 94:1 97:1 98:0.076555 107:1 109:1 111:1 112:1 115:1 116:1 118:1 
0.01749564145867353 1:1 3:1 5:1 11:1 14:1 17:1 27:1 77:1 91:1 93:1 97:1 98:0.148325 107:1 109:1 111:1 113:1 115:1 116:1 118:1 
0.3377933703184859 1:1 4:1 6:1 11:1 14:1 17:1 77:1 84:1 91:1 94:1 97:1 98:0.105263 107:1 108:1 111:1 112:1 114:1 117:1 
32 1:1 3:1 5:1 11:1 14:1 17:1 84:1 91:1 94:1 97:1 98:0.0287081 107:1 108:1 110:1 112:1 114:1 117:1 
1.931119071238523 1:1 4:1 5:1 11:1 14:1 17:1 77:1 84:1 91:1 94:1 97:1 98:0.076555 107:1 108:1 110:1 112:1 114:1 117:1 
0.3720123805827227 2:1 4:1 6:1 11:1 14:1 17:1 27:1 58:1 91:1 94:1 97:1 98:0.00956938 102:1 108:1 110:1 113:1 115:1 116:0.5 118:1 
0.5576422360989791 2:1 3:1 6:1 11:1 14:1 16:1 58:1 80:1 91:1 94:1 97:1 98:0.373206 100:1 108:1 110:1 113:1 115:1 116:0.612372 118:1 
32 1:1 3:1 5:1 11:1 14:1 17:1 51:1 52:1 91:1 94:1 97:1 98:0.54067 107:1 108:1 110:1 112:1 114:1 117:1 
32 1:1 3:1 5:1 11:1 14:1 17:1 21:1 52:1 91:1 94:1 97:1 98:0.990431 105:1 108:1 110:1 112:1 115:1 116:0.316228 117:1 
32 1:1 3:1 5:1 11:1 14:1 15:1 51:1 52:1 91:1 94:1 97:1 98:0.569378 107:1 108:1 110:1 112:1 115:1 116:0.5 117:1 
1.167530649252632 1:1 3:1 5:1 11:1 14:1 15:1 21:1 52:1 91:1 94:1 97:1 98:1 106:1 108:1 110:1 112:1 115:1 116:0.353553 117:1 
32 1:1 3:1 5:1 11:1 14:1 17:1 52:1 91:1 94:1 97:1 98:0.0287081 107:1 108:1 110:1 112:1 114:1 117:1 
1.482881083282847 1:1 3:1 5:1 11:1 14:1 17:1 21:1 51:1 91:1 92:1 97:1 98:0.421053 105:1 108:1 110:1 112:1 115:1 116:0.316228 117:1 
0.2337287835001711 2:1 3:1 5:1 11:1 14:1 17:1 22:1 91:1 94:1 97:1 98:0.00478469 107:1 109:1 111:1 112:1 115:1 116:1 118:1 
0.3718047991223874 2:1 3:1 6:1 11:1 14:1 17:1 52:1 69:1 91:1 94:1 97:1 98:0.277512 100:1 108:1 110:1 113:1 115:1 116:0.5 118:1 
0.2348274625011371 1:1 3:1 5:1 11:1 14:1 17:1 27:1 91:1 94:1 97:1 98:0.0430622 104:1 108:1 110:1 112:1 115:1 116:0.408248 117:1 
0.3552270302446328 2:1 3:1 6:1 10:1 14:1 17:1 27:1 91:1 93:1 97:1 98:0.0526316 102:1 108:1 110:1 113:1 115:1 116:0.75 118:1 
0.2325011338402962 2:1 3:1 6:1 10:1 14:1 17:1 27:1 91:1 93:1 97:1 98:0.0430622 104:1 108:1 111:1 113:1 115:1 116:0.866025 118:1 
0.4361238086063516 2:1 3:1 6:1 10:1 14:1 16:1 27:1 91:1 93:1 97:1 98:0.00956938 105:1 108:1 111:1 113:1 115:1 116:0.866025 118:1 
32 1:1 3:1 5:1 11:1 14:1 16:1 27:1 91:1 94:1 97:1 98:0.00478469 107:1 108:1 110:1 112:1 114:1 117:1 
0.4330785709120551 2:1 3:1 6:1 11:1 13:1 17:1 21:1 22:1 91:1 94:1 97:1 98:0.0430622 99:1 109:1 111:1 113:1 115:1 116:1 118:1 
30.93071678450592 2:1 3:1 6:1 11:1 14:1 17:1 51:1 52:1 91:1 94:1 97:1 98:0.0287081 107:1 109:1 111:1 112:1 115:1 116:1 118:1 
32 1:1 3:1 5:1 11:1 14:1 17:1 40:1 91:1 94:1 97:1 98:0.0909091 102:1 108:1 110:1 112:1 114:1 117:1 
4.232686142575564 1:1 3:1 5:1 11:1 14:1 17:1 21:1 40:1 91:1 94:1 97:1 98:0.296651 105:1 108:1 110:1 112:1 114:1 117:1 
0.514578432008242 2:1 4:1 6:1 11:1 14:1 15:1 21:1 29:1 91:1 94:1 97:1 98:0.138756 105:1 108:1 111:1 113:1 115:1 116:0.57735 118:1 
0.2309443709933089 1:1 3:1 5:1 11:1 14:1 17:1 27:1 91:1 94:1 96:1 98:0.00956938 101:1 108:1 111:1 113:1 115:1 116:0.894427 118:1 
1.09636080821808 1:1 3:1 5:1 11:1 14:1 17:1 27:1 58:1 91:1 94:1 97:1 98:0.15311 104:1 108:1 110:1 112:1 115:1 116:0.5 117:1 
0.002934478324484307 2:1 3:1 6:1 11:1 14:1 17:1 22:1 27:1 91:1 94:1 97:1 98:0.248804 107:1 109:1 111:1 113:1 115:1 116:1 118:1 
0.04851219550765962 1:1 3:1 5:1 11:1 13:1 17:1 21:1 27:1 91:1 94:1 97:1 98:0.320574 107:1 109:1 111:1 113:1 115:1 116:1 118:1 
0.01497389735979179 2:1 3:1 6:1 11:1 14:1 17:1 21:1 22:1 91:1 94:1 97:1 98:0.0717703 107:1 109:1 111:1 113:1 115:1 116:1 118:1 
0.2432725587429363 1:1 3:1 5:1 11:1 13:1 17:1 21:1 22:1 91:1 94:1 97:1 98:0.0717703 107:1 109:1 111:1 113:1 115:1 116:1 118:1 
0.09607032702720159 2:1 3:1 6:1 10:1 14:1 17:1 27:1 91:1 93:1 97:1 98:0.119617 105:1 108:1 111:1 113:1 115:1 116:0.866025 118:1 
0.4196722501470952 1:1 3:1 5:1 11:1 14:1 15:1 27:1 91:1 94:1 96:1 98:0.0430622 99:1 108:1 111:1 113:1 115:1 116:0.707107 118:1 
32 1:1 3:1 5:1 11:1 14:1 17:1 27:1 91:1 94:1 97:1 98:0.00956938 99:1 108:1 110:1 112:1 115:1 116:0.258199 117:1 
0.4129855662209376 2:1 3:1 6:1 10:1 14:1 17:1 27:1 91:1 93:1 97:1 98:0.00478469 99:1 109:1 111:1 113:1 115:1 116:1 118:1 
1.022087008616453 2:1 3:1 6:1 11:1 14:1 17:1 27:1 91:1 92:1 97:1 98:0.00956938 103:1 108:1 110:1 113:1 115:1 116:0.707107 118:1 
0.4314556518161596 1:1 3:1 5:1 11:1 14:1 17:1 52:1 53:1 91:1 94:1 97:1 98:0.311005 99:1 109:1 111:1 113:1 115:1 116:1 118:1 
0.05529340434364535 2:1 3:1 6:1 11:1 14:1 17:1 52:1 69:1 91:1 94:1 97:1 98:0.301435 107:1 109:1 111:1 112:1 115:1 116:1 118:1 
3.902376298709565 1:1 3:1 5:1 11:1 14:1 16:1 69:1 91:1 94:1 97:1 104:1 108:1 110:1 112:1 114:1 117:1 
1.276922257267938 1:1 3:1 5:1 11:1 14:1 15:1 21:1 69:1 91:1 94:1 97:1 98:0.38756 102:1 108:1 110:1 112:1 115:1 116:0.408248 117:1 
2.298187912797697 1:1 3:1 5:1 11:1 14:1 15:1 51:1 69:1 89:1 94:1 97:1 98:0.0382775 103:1 109:1 111:1 113:1 115:1 116:1 118:1 
1.018727961816905 1:1 3:1 5:1 11:1 14:1 15:1 21:1 51:1 91:1 94:1 97:1 98:0.349282 102:1 108:1 110:1 112:1 115:1 116:0.408248 117:1 
1.409605441908644 1:1 4:1 6:1 11:1 14:1 17:1 21:1 91:1 94:1 97:1 98:0.0334928 104:1 108:1 110:1 112:1 115:1 116:0.5 117:1 
1.700351512399556 1:1 3:1 5:1 11:1 14:1 17:1 27:1 91:1 93:1 97:1 98:0.00956938 105:1 108:1 110:1 112:1 115:1 116:0.57735 117:1 
0.151806938822967 2:1 3:1 6:1 11:1 14:1 17:1 21:1 29:1 91:1 94:1 97:1 98:0.229665 101:1 108:1 111:1 113:1 115:1 116:0.707107 118:1 
3.605472492248992 1:1 3:1 5:1 11:1 14:1 16:1 27:1 91:1 94:1 97:1 98:0.00478469 99:1 108:1 110:1 112:1 114:1 117:1 
0.2974545384448048 2:1 3:1 6:1 11:1 14:1 15:1 36:1 91:1 93:1 97:1 98:0.076555 103:1 109:1 111:1 113:1 115:1 116:1 118:1 
0.5230040615646523 1:1 4:1 6:1 11:1 14:1 17:1 36:1 91:1 94:1 97:1 98:0.00956938 104:1 108:1 110:1 112:1 115:1 116:0.5 117:1 
0.4025590510355421 2:1 4:1 6:1 11:1 14:1 15:1 21:1 91:1 94:1 96:1 98:0.0239234 107:1 109:1 111:1 112:1 115:1 116:1 118:1 
32 1:1 3:1 5:1 11:1 14:1 17:1 27:1 91:1 94:1 97:1 98:0.119617 99:1 108:1 110:1 112:1 115:1 116:0.612372 117:1 
0.03893843876944426 1:1 3:1 5:1 11:1 14:1 17:1 27:1 91:1 94:1 97:1 98:0.0191388 104:1 108:1 111:1 113:1 115:1 116:0.816497 118:1 
32 1:1 3:1 5:1 11:1 14:1 17:1 51:1 52:1 91:1 94:1 97:1 98:0.0813397 101:1 108:1 110:1 112:1 114:1 117:1 
0.6176061866830634 1:1 3:1 5:1 10:1 14:1 15:1 21:1 91:1 93:1 97:1 98:0.0430622 107:1 108:1 111:1 112:1 115:1 116:0.866025 117:1 
0.1418334312021586 2:1 3:1 6:1 11:1 14:1 15:1 52:1 69:1 91:1 94:1 97:1 98:0.119617 107:1 109:1 111:1 112:1 115:1 116:1 118:1 
32 1:1 3:1 5:1 11:1 14:1 17:1 51:1 52:1 91:1 94:1 97:1 98:0.0430622 107:1 108:1 110:1 112:1 114:1 117:1 
0.1001989598699542 1:1 3:1 5:1 11:1 14:1 17:1 21:1 37:1 91:1 94:1 97:1 98:0.0956938 107:1 109:1 111:1 113:1 115:1 116:1 118:1 
0.1909540703659042 2:1 3:1 6:1 11:1 14:1 16:1 52:1 91:1 94:1 97:1 104:1 108:1 111:1 113:1 115:1 116:0.707107 118:1 
32 1:1 3:1 5:1 11:1 14:1 16:1 52:1 91:1 94:1 97:1 107:1 108:1 110:1 112:1 114:1 117:1 
0.1628704547856286 2:1 3:1 5:1 11:1 14:1 17:1 47:1 52:1 91:1 94:1 97:1 98:0.464115 107:1 109:1 111:1 112:1 115:1 116:1 118:1 
32 1:1 3:1 5:1 11:1 14:1 17:1 91:1 94:1 97:1 98:0.133971 107:1 108:1 110:1 112:1 114:1 117:1 
32 1:1 3:1 5:1 11:1 14:1 17:1 91:1 94:1 97:1 98:0.177033 107:1 108:1 110:1 112:1 114:1 117:1 
0.07346674359900698 2:1 3:1 6:1 11:1 14:1 15:1 27:1 91:1 94:1 96:1 98:0.0287081 107:1 109:1 111:1 112:1 115:1 116:1 118:1 
0.3105689107053111 1:1 4:1 6:1 11:1 14:1 17:1 27:1 91:1 94:1 97:1 98:0.0143541 105:1 108:1 111:1 112:1 115:1 116:0.408248 117:1 
1.14150102838525 1:1 3:1 5:1 11:1 14:1 17:1 27:1 77:1 91:1 93:1 97:1 98:0.110048 100:1 108:1 110:1 112:1 115:1 116:0.447214 117:1 
0.9933103566806354 1:1 3:1 5:1 11:1 14:1 17:1 27:1 77:1 91:1 94:1 97:1 98:0.105263 107:1 108:1 111:1 112:1 115:1 116:0.707107 117:1 
0.1479295694524389 2:1 3:1 6:1 11:1 14:1 17:1 27:1 77:1 91:1 93:1 97:1 98:0.0382775 107:1 109:1 111:1 113:1 115:1 116:1 118:1 
0.1581026015477615 2:1 3:1 6:1 11:1 14:1 17:1 39:1 91:1 94:1 97:1 98:0.00478469 99:1 109:1 111:1 113:1 115:1 116:1 118:1 
0.4668760237766875 1:1 3:1 5:1 11:1 14:1 17:1 52:1 91:1 94:1 97:1 105:1 108:1 111:1 113:1 115:1 116:0.816497 118:1 
0.4375699413297182 1:1 4:1 6:1 11:1 14:1 16:1 52:1 91:1 94:1 97:1 98:0.00478469 104:1 108:1 110:1 112:1 115:1 116:0.5 117:1 
0.3333307843415981 2:1 4:1 5:1 11:1 14:1 17:1 21:1 91:1 94:1 97:1 98:0.00478469 107:1 109:1 111:1 112:1 115:1 116:1 118:1 
0.6206485053305777 2:1 3:1 5:1 11:1 14:1 17:1 79:1 84:1 91:1 94:1 97:1 98:0.0239234 107:1 108:1 110:1 113:1 115:1 116:0.75 118:1 
2.129327610508176 1:1 3:1 5:1 11:1 14:1 17:1 79:1 84:1 91:1 94:1 97:1 98:0.0239234 107:1 108:1 111:1 112:1 115:1 116:0.707107 117:1 
0.2804237564401141 2:1 3:1 6:1 11:1 14:1 17:1 77:1 84:1 91:1 94:1 97:1 98:0.0526316 107:1 109:1 111:1 112:1 115:1 116:1 118:1 
0.6260871527979542 1:1 3:1 5:1 11:1 14:1 17:1 77:1 84:1 91:1 94:1 97:1 98:0.0526316 107:1 108:1 111:1 112:1 115:1 116:0.707107 117:1 
0.5057220138077828 2:1 3:1 6:1 11:1 14:1 15:1 25:1 27:1 89:1 94:1 97:1 98:0.0526316 107:1 109:1 111:1 112:1 115:1 116:1 118:1 
1.645342654384149 1:1 3:1 5:1 11:1 14:1 16:1 25:1 89:1 94:1 95:1 98:0.00478469 107:1 108:1 110:1 112:1 114:1 117:1 
0.2032577389592997 2:1 3:1 6:1 11:1 14:1 15:1 21:1 25:1 91:1 94:1 97:1 98:0.253589 107:1 109:1 111:1 112:1 115:1 116:1 118:1 
0.1686773961883117 2:1 3:1 6:1 11:1 14:1 17:1 52:1 69:1 91:1 94:1 97:1 98:0.358852 101:1 108:1 111:1 113:1 115:1 116:0.707107 118:1 
32 1:1 3:1 5:1 11:1 14:1 17:1 51:1 91:1 94:1 97:1 98:0.138756 104:1 108:1 110:1 112:1 114:1 117:1 
5.637206462584875 1:1 3:1 5:1 11:1 14:1 17:1 51:1 91:1 94:1 97:1 98:0.0956938 107:1 108:1 110:1 112:1 115:1 116:0.516398 117:1 
32 1:1 3:1 5:1 11:1 14:1 15:1 51:1 91:1 94:1 97:1 98:0.133971 104:1 108:1 110:1 112:1 114:1 117:1 
2.115876195019963 1:1 3:1 5:1 11:1 14:1 17:1 51:1 89:1 94:1 97:1 98:0.119617 104:1 108:1 110:1 112:1 114:1 117:1 
1.215330522925724 1:1 3:1 5:1 11:1 14:1 17:1 51:1 89:1 94:1 97:1 98:0.100478 103:1 109:1 111:1 113:1 115:1 116:1 118:1 
32 1:1 3:1 5:1 11:1 14:1 17:1 51:1 91:1 94:1 97:1 98:0.0334928 104:1 108:1 110:1 112:1 114:1 117:1 
1.777644577429482 1:1 3:1 5:1 11:1 14:1 17:1 51:1 89:1 94:1 97:1 98:0.0191388 104:1 108:1 110:1 112:1 114:1 117:1 
32 1:1 3:1 5:1 11:1 14:1 17:1 51:1 91:1 94:1 97:1 98:0.0143541 107:1 108:1 110:1 112:1 114:1 117:1 
0.6552867053426593 1:1 3:1 5:1 11:1 14:1 15:1 22:1 91:1 93:1 97:1 98:0.00478469 107:1 108:1 111:1 112:1 115:1 116:0.816497 117:1 
32 1:1 3:1 5:1 11:1 14:1 17:1 51:1 91:1 94:1 97:1 98:0.0287081 104:1 108:1 110:1 112:1 114:1 117:1 
-29.43609687999137 1:1 3:1 5:1 11:1 14:1 17:1 27:1 91:1 94:1 97:1 98:0.00956938 104:1 108:1 110:1 112:1 114:1 117:1 
-6.168529616726431 1:1 3:1 5:1 11:1 14:1 17:1 27:1 91:1 94:1 97:1 98:0.00478469 103:1 108:1 110:1 112:1 115:1 116:0.353553 117:1 
-32 1:1 3:1 5:1 11:1 14:1 17:1 27:1 91:1 94:1 97:1 98:0.00478469 104:1 108:1 110:1 112:1 114:1 117:1 
-2.387277447448815 1:1 3:1 5:1 11:1 14:1 17:1 22:1 27:1 91:1 94:1 97:1 98:0.277512 107:1 108:1 111:1 112:1 115:1 116:0.707107 117:1 
-0.2881980435747173 1:1 3:1 5:1 11:1 14:1 17:1 27:1 72:1 91:1 94:1 97:1 98:0.196172 107:1 108:1 110:1 112:1 114:1 117:1 
-32 2:1 3:1 6:1 11:1 14:1 17:1 27:1 36:1 91:1 94:1 97:1 98:0.100478 107:1 109:1 111:1 112:1 115:1 116:1 118:1 
-1.204384690845062 1:1 3:1 5:1 11:1 14:1 17:1 27:1 36:1 91:1 94:1 97:1 98:0.0956938 107:1 108:1 111:1 112:1 115:1 116:0.707107 117:1 
-32 1:1 3:1 5:1 11:1 14:1 17:1 27:1 91:1 94:1 97:1 98:0.00478469 107:1 108:1 111:1 112:1 115:1 116:0.707107 117:1 
-0.05750060312998259 1:1 3:1 5:1 11:1 14:1 17:1 27:1 72:1 91:1 94:1 97:1 98:0.191388 107:1 108:1 110:1 112:1 114:1 117:1 
-0.04939080019656329 1:1 3:1 5:1 11:1 12:1 17:1 27:1 72:1 91:1 94:1 97:1 98:0.191388 107:1 108:1 110:1 112:1 114:1 117:1 
-1.075576598773023 1:1 3:1 5:1 11:1 12:1 17:1 27:1 36:1 91:1 94:1 97:1 98:0.0956938 107:1 108:1 111:1 112:1 115:1 116:0.707107 117:1 
-0.4938511852810139 1:1 3:1 5:1 11:1 12:1 17:1 27:1 36:1 91:1 94:1 97:1 98:0.0909091 107:1 108:1 110:1 112:1 115:1 116:0.5 117:1 
-0.2020022491298049 1:1 3:1 5:1 11:1 14:1 17:1 27:1 91:1 94:1 97:1 98:0.0478469 107:1 108:1 110:1 113:1 114:1 117:1 
-0.6889690183085501 1:1 3:1 5:1 11:1 12:1 17:1 36:1 49:1 91:1 94:1 97:1 98:0.22488 107:1 108:1 110:1 112:1 114:1 117:1 
-1.163302418704144 1:1 3:1 5:1 11:1 14:1 17:1 36:1 49:1 91:1 94:1 97:1 98:0.220096 107:1 108:1 110:1 112:1 115:1 116:0.353553 117:1 
-0.3066237172391282 1:1 4:1 5:1 11:1 14:1 17:1 36:1 49:1 91:1 94:1 97:1 98:0.220096 107:1 108:1 110:1 112:1 114:1 117:1 
-0.1325278637507423 1:1 3:1 5:1 11:1 12:1 17:1 22:1 36:1 91:1 94:1 97:1 98:0.177033 107:1 108:1 110:1 112:1 114:1 117:1 
-0.2894980474880288 1:1 3:1 5:1 11:1 12:1 17:1 36:1 72:1 91:1 94:1 97:1 98:0.0956938 107:1 108:1 110:1 112:1 114:1 117:1 
-0.004496689899218965 1:1 3:1 5:1 11:1 14:1 15:1 49:1 91:1 94:1 97:1 98:0.00956938 106:1 108:1 110:1 112:1 114:1 117:1 
-0.2021107661388906 1:1 3:1 5:1 11:1 14:1 16:1 49:1 91:1 94:1 97:1 98:0.00478469 107:1 108:1 110:1 112:1 114:1 117:1 
-0.3870901286125805 1:1 3:1 5:1 11:1 14:1 17:1 49:1 91:1 94:1 97:1 98:0.0143541 107:1 108:1 110:1 112:1 114:1 117:1 
-31.48409495075835 1:1 3:1 5:1 11:1 14:1 17:1 52:1 91:1 94:1 97:1 98:0.00478469 107:1 108:1 110:1 112:1 114:1 117:1 
-0.4424722241443435 1:1 3:1 5:1 11:1 14:1 16:1 27:1 91:1 94:1 97:1 98:0.0526316 104:1 108:1 110:1 112:1 114:1 117:1 
-31.19678913533551 1:1 3:1 5:1 11:1 14:1 17:1 27:1 91:1 94:1 97:1 98:0.00956938 102:1 108:1 110:1 112:1 114:1 117:1 
-32 1:1 3:1 5:1 11:1 14:1 17:1 27:1 91:1 94:1 97:1 98:0.00478469 102:1 108:1 110:1 112:1 114:1 117:1 
-0.1123792285676275 1:1 3:1 5:1 11:1 14:1 16:1 29:1 91:1 94:1 97:1 98:0.00956938 107:1 108:1 110:1 112:1 114:1 117:1 
-0.6420705803264547 1:1 4:1 5:1 11:1 14:1 16:1 52:1 91:1 94:1 97:1 104:1 108:1 110:1 112:1 114:1 117:1 
-5.915842569319997 1:1 3:1 5:1 11:1 14:1 17:1 51:1 52:1 91:1 94:1 97:1 98:0.751196 107:1 108:1 110:1 112:1 114:1 117:1 
-0.2891772612806758 1:1 3:1 5:1 11:1 14:1 17:1 51:1 52:1 91:1 94:1 97:1 98:0.478469 107:1 108:1 110:1 112:1 114:1 117:1 
-0.08993706408937663 1:1 3:1 5:1 11:1 14:1 17:1 51:1 52:1 91:1 94:1 97:1 98:0.473684 107:1 108:1 110:1 112:1 114:1 117:1 
-25.71149147625958 1:1 3:1 5:1 11:1 14:1 17:1 51:1 52:1 91:1 94:1 97:1 98:0.449761 107:1 108:1 110:1 112:1 114:1 117:1 
-0.02320672990116491 1:1 3:1 5:1 11:1 14:1 17:1 51:1 52:1 91:1 94:1 97:1 98:0.435407 107:1 108:1 110:1 112:1 114:1 117:1 
-0.01788096428835834 1:1 3:1 5:1 11:1 14:1 17:1 51:1 52:1 91:1 94:1 97:1 98:0.425837 107:1 108:1 110:1 112:1 114:1 117:1 
-0.3210149099806735 1:1 3:1 5:1 11:1 14:1 17:1 51:1 52:1 91:1 94:1 97:1 98:0.411483 107:1 108:1 110:1 112:1 114:1 117:1 
-0.2591695065608395 1:1 3:1 5:1 11:1 14:1 17:1 51:1 52:1 91:1 94:1 97:1 98:0.38756 107:1 108:1 110:1 112:1 114:1 117:1 
-0.462231533927245 1:1 3:1 5:1 11:1 14:1 17:1 51:1 52:1 91:1 94:1 97:1 98:0.363636 107:1 108:1 110:1 112:1 114:1 117:1 
-0.2666166239600572 1:1 3:1 5:1 11:1 14:1 17:1 51:1 52:1 91:1 94:1 97:1 98:0.354067 107:1 108:1 110:1 112:1 114:1 117:1 
-0.03533302584554485 1:1 3:1 5:1 11:1 14:1 17:1 51:1 52:1 91:1 94:1 97:1 98:0.325359 107:1 108:1 110:1 112:1 114:1 117:1 
-0.03149840641689355 1:1 3:1 5:1 11:1 14:1 17:1 51:1 52:1 91:1 94:1 97:1 98:0.277512 107:1 108:1 110:1 112:1 114:1 117:1 
-31.01331266345203 1:1 3:1 5:1 11:1 14:1 17:1 51:1 69:1 91:1 94:1 97:1 98:0.114833 103:1 108:1 110:1 112:1 115:1 116:0.267261 117:1 
-0.9806271596752315 1:1 3:1 5:1 11:1 14:1 17:1 51:1 69:1 91:1 94:1 97:1 98:0.0909091 104:1 108:1 110:1 112:1 115:1 116:0.408248 117:1 
-13.24366399075127 1:1 3:1 5:1 11:1 14:1 17:1 51:1 69:1 91:1 94:1 97:1 98:0.114833 107:1 108:1 110:1 112:1 114:1 117:1 
-31.94868125162189 1:1 3:1 5:1 11:1 14:1 17:1 51:1 69:1 91:1 94:1 97:1 98:0.0956938 106:1 108:1 110:1 112:1 114:1 117:1 
-2.910835637073217 1:1 3:1 5:1 11:1 14:1 17:1 51:1 69:1 91:1 94:1 97:1 98:0.0717703 107:1 108:1 110:1 112:1 115:1 116:0.666667 117:1 
-1.829649610163411 1:1 3:1 5:1 11:1 14:1 17:1 51:1 91:1 94:1 97:1 98:0.076555 104:1 108:1 111:1 112:1 115:1 116:0.534522 117:1 
-1.892155525996078 2:1 3:1 6:1 11:1 14:1 17:1 51:1 91:1 92:1 97:1 98:0.0574163 103:1 108:1 110:1 113:1 115:1 116:0.857143 118:1 
-31.90461531071164 1:1 3:1 5:1 11:1 14:1 17:1 51:1 91:1 94:1 97:1 98:0.0334928 104:1 108:1 110:1 112:1 114:1 117:1 
-32 1:1 3:1 5:1 11:1 14:1 17:1 51:1 91:1 94:1 97:1 98:0.0717703 107:1 108:1 110:1 112:1 114:1 117:1 
-20.07055316823446 1:1 3:1 5:1 11:1 14:1 17:1 51:1 91:1 94:1 97:1 98:0.0287081 107:1 108:1 110:1 112:1 114:1 117:1 
-1.601253735487711 1:1 3:1 5:1 11:1 14:1 17:1 51:1 91:1 92:1 97:1 98:0.0478469 104:1 108:1 110:1 112:1 115:1 116:0.377964 117:1 
-4.511244012114592 1:1 3:1 5:1 11:1 14:1 17:1 51:1 91:1 94:1 97:1 98:0.00478469 104:1 108:1 110:1 112:1 115:1 116:0.377964 117:1 
-0.4736319277272396 1:1 3:1 5:1 11:1 14:1 15:1 22:1 51:1 91:1 94:1 97:1 98:0.253589 105:1 108:1 110:1 112:1 114:1 117:1 
-0.1797279347034043 1:1 3:1 5:1 11:1 14:1 17:1 40:1 51:1 91:1 94:1 97:1 98:0.162679 107:1 108:1 111:1 112:1 114:1 117:1 
-0.0009421197737865998 1:1 3:1 5:1 11:1 14:1 17:1 51:1 91:1 94:1 97:1 98:0.0574163 107:1 108:1 110:1 112:1 114:1 117:1 
-0.4011415929994923 1:1 3:1 5:1 11:1 14:1 16:1 51:1 91:1 94:1 97:1 98:0.00956938 106:1 108:1 110:1 112:1 114:1 117:1 
-1.122753894087972 1:1 3:1 5:1 11:1 14:1 17:1 21:1 27:1 91:1 94:1 97:1 98:0.311005 104:1 108:1 110:1 112:1 115:1 116:0.288675 117:1 
-32 1:1 3:1 5:1 11:1 14:1 17:1 27:1 91:1 94:1 97:1 104:1 108:1 110:1 112:1 114:1 117:1 
-31.57341783747015 1:1 3:1 5:1 11:1 14:1 16:1 27:1 91:1 94:1 97:1 98:0.00478469 107:1 108:1 110:1 112:1 114:1 117:1 
-0.3158365993065562 1:1 4:1 5:1 11:1 14:1 16:1 27:1 91:1 94:1 97:1 106:1 108:1 110:1 112:1 114:1 117:1 
-0.4675629742047411 1:1 3:1 5:1 11:1 14:1 17:1 27:1 31:1 91:1 94:1 95:1 98:0.110048 104:1 108:1 110:1 112:1 114:1 117:1 
-0.3552287373324849 1:1 3:1 5:1 11:1 14:1 17:1 27:1 31:1 91:1 94:1 97:1 98:0.0909091 104:1 108:1 110:1 112:1 114:1 117:1 
-0.7215004730600388 1:1 3:1 5:1 11:1 14:1 16:1 27:1 91:1 94:1 97:1 104:1 108:1 110:1 112:1 114:1 117:1 
-0.1305516946556653 1:1 3:1 5:1 11:1 14:1 17:1 27:1 31:1 91:1 94:1 95:1 98:0.076555 107:1 108:1 110:1 112:1 114:1 117:1 
-0.1514684573849761 1:1 3:1 5:1 11:1 14:1 17:1 27:1 31:1 91:1 94:1 95:1 98:0.0430622 101:1 108:1 110:1 112:1 114:1 117:1 
-0.4011477622130748 1:1 3:1 5:1 11:1 14:1 17:1 21:1 31:1 91:1 94:1 97:1 98:0.229665 105:1 108:1 110:1 112:1 114:1 117:1 
-0.1179875451467076 1:1 3:1 5:1 11:1 14:1 17:1 31:1 91:1 94:1 97:1 98:0.129187 107:1 108:1 110:1 112:1 114:1 117:1 
-0.3951207171614101 1:1 3:1 5:1 11:1 14:1 17:1 31:1 91:1 94:1 97:1 98:0.0191388 107:1 108:1 110:1 112:1 114:1 117:1 
-0.6985492610364907 1:1 3:1 5:1 11:1 14:1 16:1 21:1 91:1 94:1 97:1 98:0.00956938 99:1 108:1 110:1 112:1 114:1 117:1 
-0.7442739367178125 1:1 3:1 5:1 11:1 14:1 16:1 21:1 91:1 94:1 97:1 98:0.00478469 99:1 108:1 110:1 112:1 115:1 116:0.288675 117:1 
-31.82557367155707 1:1 3:1 5:1 11:1 14:1 17:1 29:1 91:1 94:1 97:1 107:1 108:1 110:1 112:1 114:1 117:1 
-0.3377150909587527 1:1 3:1 5:1 11:1 12:1 17:1 29:1 91:1 92:1 97:1 98:0.100478 107:1 108:1 110:1 112:1 114:1 117:1 
-1.44239667815406 1:1 3:1 5:1 11:1 14:1 17:1 89:1 94:1 97:1 98:0.0909091 104:1 108:1 110:1 112:1 114:1 117:1 
-0.4626817897256458 1:1 3:1 5:1 11:1 14:1 17:1 89:1 94:1 97:1 98:0.0143541 103:1 108:1 110:1 112:1 115:1 116:0.258199 117:1 
-0.3417711049246254 1:1 3:1 5:1 11:1 14:1 16:1 27:1 91:1 94:1 97:1 98:0.0143541 104:1 108:1 110:1 113:1 114:1 117:1 
-17.58884053930762 1:1 3:1 5:1 11:1 14:1 17:1 27:1 91:1 94:1 97:1 98:0.181818 99:1 108:1 110:1 112:1 115:1 116:0.408248 117:1 
-0.1535873372761575 1:1 3:1 5:1 11:1 14:1 17:1 27:1 91:1 94:1 97:1 98:0.129187 99:1 108:1 110:1 112:1 114:1 117:1 
-0.7793970806606385 1:1 3:1 5:1 11:1 12:1 17:1 27:1 36:1 91:1 94:1 97:1 98:0.315789 103:1 108:1 110:1 112:1 115:1 116:0.353553 117:1 
-3.961650250013305 1:1 3:1 5:1 11:1 14:1 17:1 27:1 36:1 91:1 94:1 97:1 98:0.30622 103:1 108:1 110:1 112:1 115:1 116:0.353553 117:1 
-0.2478951410352046 1:1 3:1 5:1 11:1 12:1 17:1 27:1 91:1 94:1 97:1 98:0.167464 103:1 108:1 110:1 112:1 115:1 116:0.67082 117:1 
-0.3887612869932218 1:1 3:1 5:1 11:1 12:1 17:1 27:1 91:1 94:1 97:1 98:0.105263 104:1 108:1 110:1 112:1 114:1 117:1 
-0.2519307887083859 1:1 3:1 5:1 11:1 12:1 17:1 27:1 91:1 94:1 97:1 98:0.0287081 102:1 108:1 110:1 112:1 114:1 117:1 
-0.3622748437840575 1:1 3:1 5:1 11:1 14:1 15:1 27:1 36:1 91:1 92:1 97:1 98:0.229665 103:1 108:1 110:1 112:1 114:1 117:1 
-1.605977597328077 1:1 3:1 5:1 11:1 14:1 16:1 27:1 91:1 93:1 97:1 98:0.00478469 104:1 108:1 110:1 112:1 115:1 116:0.353553 117:1 
-0.2400977304754967 1:1 4:1 5:1 11:1 14:1 17:1 27:1 36:1 91:1 94:1 97:1 98:0.220096 104:1 108:1 110:1 112:1 115:1 116:0.333333 117:1 
-0.5882939568847251 1:1 3:1 5:1 11:1 14:1 15:1 27:1 36:1 91:1 94:1 97:1 98:0.210526 104:1 108:1 111:1 112:1 114:1 117:1 
-1.206745711194099 1:1 4:1 5:1 11:1 14:1 17:1 27:1 91:1 94:1 97:1 98:0.076555 102:1 108:1 110:1 112:1 115:1 116:0.288675 117:1 
-1.497809958065338 1:1 3:1 5:1 11:1 14:1 16:1 27:1 91:1 94:1 97:1 98:0.00478469 103:1 108:1 110:1 112:1 115:1 116:0.408248 117:1 
-23.78357885417278 1:1 3:1 5:1 11:1 14:1 17:1 27:1 36:1 91:1 94:1 97:1 98:0.138756 99:1 108:1 110:1 112:1 115:1 116:0.288675 117:1 
-0.2883054990925638 1:1 3:1 5:1 11:1 14:1 17:1 27:1 36:1 91:1 94:1 97:1 98:0.133971 101:1 108:1 111:1 112:1 114:1 117:1 
-1.409904736726537 1:1 3:1 5:1 11:1 14:1 17:1 27:1 91:1 94:1 97:1 100:1 108:1 110:1 112:1 115:1 116:0.223607 117:1 
-0.1000033468957779 1:1 3:1 5:1 11:1 12:1 17:1 27:1 36:1 91:1 94:1 97:1 98:0.138756 102:1 108:1 110:1 112:1 114:1 117:1 
-0.5061407640677751 1:1 3:1 5:1 11:1 14:1 17:1 27:1 36:1 91:1 94:1 97:1 98:0.133971 104:1 108:1 111:1 112:1 114:1 117:1 
-20.27363323211449 1:1 3:1 5:1 11:1 14:1 17:1 27:1 36:1 91:1 94:1 97:1 98:0.110048 103:1 108:1 110:1 112:1 115:1 116:0.5 117:1 
-32 1:1 3:1 5:1 11:1 14:1 17:1 27:1 91:1 94:1 97:1 98:0.00478469 103:1 108:1 110:1 112:1 115:1 116:0.5 117:1 
-0.02881837046426068 1:1 3:1 5:1 11:1 14:1 17:1 29:1 36:1 91:1 92:1 97:1 98:0.186603 102:1 108:1 110:1 112:1 114:1 117:1 
-1.161681714089899 1:1 3:1 5:1 11:1 14:1 17:1 36:1 91:1 92:1 97:1 98:0.0334928 103:1 108:1 110:1 112:1 115:1 116:0.288675 117:1 
-0.7205639900974576 1:1 3:1 5:1 11:1 14:1 16:1 36:1 91:1 94:1 97:1 98:0.0143541 103:1 108:1 110:1 112:1 115:1 116:0.408248 117:1 
-0.4504018621928305 1:1 3:1 5:1 11:1 14:1 16:1 36:1 91:1 94:1 97:1 98:0.0143541 104:1 108:1 110:1 112:1 114:1 117:1 
-0.4587320618655519 1:1 3:1 5:1 11:1 14:1 16:1 36:1 91:1 92:1 97:1 98:0.00478469 103:1 108:1 110:1 112:1 115:1 116:0.333333 117:1 
-0.08946719819668231 1:1 3:1 5:1 11:1 14:1 17:1 52:1 91:1 94:1 97:1 98:0.172249 104:1 108:1 111:1 112:1 114:1 117:1 
-0.2808960055077306 1:1 3:1 5:1 11:1 14:1 17:1 52:1 71:1 91:1 94:1 97:1 98:0.105263 104:1 108:1 110:1 112:1 114:1 117:1 
-0.8782099662472791 1:1 3:1 5:1 11:1 14:1 17:1 51:1 52:1 91:1 94:1 97:1 98:0.0669856 103:1 108:1 110:1 112:1 115:1 116:0.223607 117:1 
-1.735557014658222 1:1 3:1 5:1 11:1 14:1 17:1 51:1 52:1 91:1 94:1 97:1 98:0.0478469 104:1 108:1 110:1 112:1 114:1 117:1 
-0.1210429556510299 1:1 3:1 5:1 11:1 14:1 17:1 22:1 51:1 91:1 94:1 97:1 98:0.148325 107:1 108:1 110:1 112:1 114:1 117:1 
-0.1945607995301649 1:1 3:1 5:1 11:1 14:1 17:1 51:1 91:1 94:1 97:1 98:0.0813397 107:1 108:1 110:1 112:1 114:1 117:1 
-32 1:1 3:1 5:1 11:1 14:1 17:1 51:1 91:1 94:1 97:1 98:0.076555 107:1 108:1 110:1 112:1 114:1 117:1 
-0.4911498643014073 1:1 3:1 5:1 11:1 14:1 17:1 51:1 71:1 91:1 94:1 97:1 98:0.00956938 107:1 108:1 110:1 112:1 114:1 117:1 
-0.4010478854438116 1:1 3:1 5:1 11:1 14:1 17:1 38:1 91:1 94:1 97:1 107:1 108:1 110:1 112:1 114:1 117:1 
-1.051821210900759 1:1 3:1 5:1 11:1 14:1 15:1 52:1 69:1 91:1 94:1 97:1 98:0.45933 107:1 108:1 111:1 112:1 114:1 117:1 
-0.6318458775627342 1:1 3:1 5:1 11:1 14:1 16:1 52:1 69:1 91:1 94:1 97:1 98:0.330144 107:1 108:1 110:1 112:1 114:1 117:1 
-0.2297043333384287 1:1 3:1 5:1 11:1 14:1 17:1 51:1 52:1 91:1 94:1 97:1 98:0.454545 107:1 108:1 110:1 112:1 114:1 117:1 
-0.08455025242637002 1:1 3:1 5:1 11:1 14:1 17:1 51:1 52:1 91:1 92:1 97:1 98:0.617225 106:1 108:1 110:1 112:1 114:1 117:1 
-3.514467457344918 1:1 3:1 5:1 11:1 14:1 17:1 51:1 52:1 91:1 94:1 97:1 98:0.569378 107:1 108:1 110:1 112:1 115:1 116:0.5 117:1 
-0.1586920378887132 1:1 3:1 5:1 11:1 14:1 17:1 52:1 69:1 91:1 92:1 97:1 98:0.248804 107:1 108:1 110:1 112:1 114:1 117:1 
-0.09783278258936125 1:1 3:1 5:1 11:1 14:1 17:1 51:1 91:1 94:1 97:1 98:0.00956938 100:1 108:1 110:1 112:1 114:1 117:1 
-0.02752448254377598 1:1 3:1 5:1 11:1 12:1 17:1 27:1 91:1 92:1 97:1 98:0.0143541 107:1 108:1 110:1 112:1 114:1 117:1 
-1.240372027685129 1:1 3:1 5:1 11:1 14:1 17:1 51:1 52:1 91:1 94:1 97:1 98:0.339713 107:1 108:1 110:1 112:1 114:1 117:1 
-0.2391864717100712 1:1 3:1 5:1 11:1 14:1 16:1 52:1 91:1 92:1 97:1 98:0.00478469 106:1 108:1 110:1 112:1 114:1 117:1 
-31.29371381046493 1:1 3:1 5:1 11:1 14:1 17:1 52:1 91:1 94:1 97:1 98:0.143541 102:1 108:1 110:1 112:1 114:1 117:1 
-0.3809579833668608 1:1 3:1 5:1 11:1 14:1 17:1 52:1 91:1 94:1 97:1 103:1 108:1 110:1 113:1 115:1 116:0.5 117:1 
-0.2569149605101486 1:1 3:1 5:1 11:1 14:1 15:1 52:1 91:1 94:1 97:1 98:0.0191388 102:1 108:1 110:1 112:1 114:1 117:1 
-0.04731856851081569 1:1 3:1 5:1 11:1 14:1 16:1 52:1 91:1 94:1 97:1 98:0.00478469 103:1 108:1 110:1 112:1 115:1 116:0.408248 117:1 
-0.001112205468376967 1:1 3:1 5:1 11:1 14:1 15:1 40:1 51:1 91:1 94:1 97:1 98:0.0334928 107:1 108:1 110:1 112:1 114:1 117:1 
-12.34005377919783 1:1 3:1 5:1 11:1 14:1 17:1 51:1 91:1 94:1 97:1 98:0.0143541 107:1 108:1 110:1 112:1 114:1 117:1 
-0.47177057885131 1:1 3:1 5:1 11:1 14:1 17:1 65:1 91:1 94:1 97:1 98:0.0526316 107:1 108:1 110:1 112:1 114:1 117:1 
-0.0305707243635785 1:1 3:1 5:1 11:1 14:1 17:1 65:1 91:1 94:1 97:1 98:0.0239234 107:1 108:1 110:1 112:1 114:1 117:1 
-1.017529387297412 1:1 3:1 5:1 11:1 14:1 16:1 91:1 94:1 97:1 98:0.00956938 104:1 108:1 110:1 112:1 114:1 117:1 
-22.76411505631929 1:1 3:1 5:1 11:1 14:1 17:1 21:1 52:1 91:1 94:1 97:1 98:0.454545 107:1 108:1 110:1 112:1 114:1 117:1 
-1.225576327459007 1:1 3:1 5:1 11:1 14:1 17:1 51:1 52:1 91:1 94:1 97:1 98:0.325359 107:1 108:1 111:1 112:1 114:1 117:1 
-1.155156152687741 1:1 3:1 5:1 11:1 14:1 17:1 51:1 52:1 91:1 94:1 97:1 98:0.315789 107:1 108:1 110:1 112:1 114:1 117:1 
-2.34624569595374 1:1 3:1 5:1 11:1 14:1 17:1 51:1 52:1 91:1 94:1 97:1 98:0.30622 107:1 108:1 110:1 112:1 114:1 117:1 
-1.6571459719415 1:1 3:1 5:1 11:1 14:1 17:1 51:1 52:1 91:1 94:1 97:1 98:0.301435 107:1 108:1 110:1 112:1 114:1 117:1 
-0.6033058175132386 1:1 3:1 5:1 11:1 14:1 17:1 51:1 52:1 91:1 94:1 97:1 98:0.330144 107:1 108:1 110:1 112:1 114:1 117:1 
-0.3995674576906016 1:1 4:1 5:1 11:1 14:1 17:1 51:1 52:1 91:1 92:1 97:1 98:0.301435 107:1 108:1 110:1 112:1 114:1 117:1 
-0.8269832456717831 1:1 3:1 5:1 11:1 14:1 17:1 51:1 52:1 91:1 93:1 97:1 98:0.291866 107:1 108:1 110:1 112:1 114:1 117:1 
-0.4517412500812983 1:1 3:1 5:1 11:1 14:1 17:1 51:1 52:1 91:1 94:1 97:1 98:0.0191388 107:1 108:1 110:1 112:1 114:1 117:1 
-32 1:1 3:1 5:1 11:1 14:1 17:1 51:1 52:1 91:1 94:1 97:1 98:0.00956938 107:1 108:1 110:1 112:1 114:1 117:1 
-0.2362129199427797 1:1 3:1 5:1 11:1 14:1 17:1 29:1 89:1 94:1 97:1 105:1 108:1 110:1 112:1 114:1 117:1 
-0.2825240819286013 1:1 3:1 5:1 11:1 14:1 17:1 29:1 91:1 92:1 97:1 98:0.00478469 101:1 108:1 110:1 112:1 115:1 116:0.333333 117:1 
-0.3514868754999284 1:1 3:1 5:1 11:1 14:1 17:1 29:1 89:1 94:1 97:1 100:1 108:1 110:1 112:1 114:1 117:1 
-0.04439472945656854 1:1 3:1 5:1 11:1 14:1 16:1 29:1 91:1 92:1 97:1 98:0.00478469 103:1 108:1 110:1 112:1 115:1 116:0.333333 117:1 
-0.3795848269866787 1:1 3:1 5:1 11:1 14:1 17:1 29:1 91:1 94:1 97:1 98:0.00478469 106:1 108:1 110:1 112:1 114:1 117:1 
-0.6857088995331105 1:1 3:1 5:1 11:1 14:1 16:1 38:1 52:1 91:1 94:1 97:1 98:0.114833 100:1 108:1 110:1 112:1 114:1 117:1 
-1.163300809479071 1:1 3:1 5:1 11:1 14:1 16:1 38:1 52:1 91:1 94:1 97:1 98:0.105263 99:1 108:1 110:1 112:1 115:1 116:0.365148 117:1 
-0.06647923653448087 1:1 3:1 5:1 11:1 14:1 17:1 30:1 38:1 91:1 94:1 97:1 98:0.076555 101:1 108:1 110:1 112:1 114:1 117:1 
-0.09944309378146469 1:1 3:1 5:1 11:1 14:1 17:1 38:1 91:1 94:1 97:1 98:0.00478469 100:1 108:1 110:1 112:1 115:1 116:0.288675 117:1 
-0.7907156314751831 1:1 3:1 5:1 11:1 14:1 17:1 38:1 52:1 91:1 94:1 97:1 98:0.100478 102:1 108:1 110:1 112:1 114:1 117:1 
-0.4371783021101006 1:1 3:1 5:1 11:1 14:1 17:1 30:1 38:1 91:1 94:1 97:1 98:0.0717703 104:1 108:1 110:1 112:1 114:1 117:1 
-0.1597123006897956 1:1 3:1 5:1 11:1 14:1 16:1 27:1 91:1 94:1 97:1 106:1 108:1 110:1 112:1 114:1 117:1 
-0.8310907427585557 1:1 3:1 5:1 11:1 14:1 17:1 27:1 91:1 94:1 97:1 98:0.00478469 103:1 108:1 110:1 113:1 115:1 116:0.75 117:1 
-0.3469829048902258 1:1 3:1 5:1 11:1 14:1 16:1 22:1 91:1 94:1 97:1 99:1 108:1 110:1 112:1 115:1 116:0.333333 117:1 
-0.9789674335361556 1:1 3:1 5:1 11:1 14:1 16:1 21:1 22:1 91:1 94:1 97:1 98:0.0909091 99:1 108:1 110:1 112:1 115:1 116:0.408248 117:1 
-0.3741933927252863 1:1 3:1 5:1 11:1 14:1 17:1 24:1 29:1 91:1 94:1 97:1 98:0.311005 107:1 108:1 110:1 112:1 114:1 117:1 
-0.1433893603195936 1:1 3:1 5:1 11:1 14:1 15:1 24:1 29:1 91:1 94:1 97:1 98:0.22488 107:1 108:1 110:1 112:1 114:1 117:1 
-1.034323912008803 1:1 3:1 5:1 11:1 14:1 17:1 29:1 91:1 93:1 97:1 98:0.0717703 107:1 108:1 110:1 112:1 115:1 116:0.353553 117:1 
-0.2702835811077253 1:1 3:1 5:1 11:1 14:1 16:1 29:1 91:1 92:1 97:1 98:0.00478469 105:1 108:1 110:1 112:1 114:1 117:1 
-32 1:1 3:1 5:1 11:1 14:1 15:1 38:1 52:1 91:1 94:1 97:1 98:0.186603 107:1 108:1 110:1 112:1 114:1 117:1 
-32 1:1 3:1 5:1 11:1 14:1 17:1 30:1 38:1 91:1 94:1 97:1 98:0.0430622 107:1 108:1 110:1 112:1 114:1 117:1 
-0.3612233919801833 1:1 3:1 5:1 11:1 14:1 15:1 30:1 38:1 91:1 94:1 97:1 98:0.0382775 107:1 108:1 110:1 112:1 114:1 117:1 
-1.105457961160738 1:1 3:1 5:1 11:1 14:1 16:1 38:1 91:1 94:1 97:1 107:1 108:1 110:1 112:1 114:1 117:1 
-32 1:1 3:1 5:1 11:1 14:1 15:1 30:1 52:1 91:1 94:1 97:1 98:0.148325 107:1 108:1 110:1 112:1 114:1 117:1 
-0.5324198794726576 1:1 3:1 5:1 11:1 14:1 17:1 30:1 91:1 94:1 97:1 98:0.00478469 107:1 108:1 110:1 112:1 114:1 117:1 
-0.1818716471401109 1:1 3:1 5:1 11:1 14:1 16:1 30:1 91:1 94:1 97:1 107:1 108:1 110:1 112:1 114:1 117:1 
-0.1226565432740707 1:1 3:1 5:1 11:1 12:1 17:1 30:1 91:1 94:1 97:1 98:0.00478469 107:1 108:1 110:1 112:1 114:1 117:1 
-32 1:1 3:1 5:1 11:1 14:1 17:1 30:1 52:1 91:1 94:1 97:1 98:0.143541 107:1 108:1 110:1 112:1 114:1 117:1 
-31.28785145263795 1:1 3:1 5:1 11:1 14:1 16:1 52:1 91:1 94:1 97:1 107:1 108:1 110:1 112:1 114:1 117:1 
-0.494056667535158 1:1 3:1 5:1 11:1 14:1 15:1 21:1 52:1 89:1 94:1 97:1 98:0.186603 106:1 108:1 110:1 112:1 114:1 117:1 
-0.1775092550249313 1:1 3:1 5:1 11:1 14:1 16:1 52:1 89:1 94:1 97:1 106:1 108:1 110:1 112:1 114:1 117:1 
-0.1042329913853535 1:1 3:1 5:1 11:1 14:1 16:1 52:1 89:1 94:1 97:1 105:1 108:1 110:1 112:1 114:1 117:1 
-0.0970327601041049 1:1 3:1 5:1 11:1 12:1 15:1 51:1 91:1 94:1 97:1 98:0.062201 107:1 108:1 110:1 112:1 114:1 117:1 
-0.03741355029802124 1:1 4:1 5:1 11:1 14:1 16:1 51:1 91:1 94:1 97:1 107:1 108:1 110:1 112:1 114:1 117:1 
-1.259211542960334 1:1 3:1 5:1 11:1 14:1 16:1 51:1 91:1 94:1 97:1 107:1 108:1 111:1 112:1 115:1 116:0.5 117:1 
-1.560592604566885 1:1 3:1 5:1 11:1 14:1 15:1 51:1 91:1 94:1 97:1 98:0.0334928 107:1 108:1 111:1 112:1 115:1 116:0.5 117:1 
-0.1969147051124114 1:1 4:1 5:1 11:1 12:1 16:1 51:1 91:1 94:1 97:1 107:1 108:1 110:1 112:1 114:1 117:1 
-32 1:1 3:1 5:1 11:1 12:1 15:1 51:1 91:1 94:1 97:1 98:0.0143541 107:1 108:1 111:1 112:1 114:1 117:1 
-0.3561362791651546 1:1 3:1 5:1 11:1 14:1 17:1 27:1 63:1 91:1 94:1 97:1 98:0.105263 107:1 108:1 110:1 112:1 114:1 117:1 
-0.6497507229588533 1:1 3:1 5:1 11:1 14:1 17:1 39:1 63:1 91:1 94:1 97:1 98:0.0239234 106:1 108:1 110:1 112:1 114:1 117:1 
-0.4536173838756976 1:1 3:1 5:1 11:1 14:1 16:1 27:1 36:1 91:1 94:1 97:1 98:0.110048 107:1 108:1 110:1 112:1 114:1 117:1 
-0.2532966399628616 1:1 3:1 5:1 11:1 14:1 17:1 27:1 91:1 94:1 97:1 98:0.0334928 105:1 108:1 110:1 113:1 114:1 117:1 
-0.5231484676329009 1:1 3:1 5:1 11:1 14:1 16:1 27:1 91:1 94:1 97:1 98:0.0191388 106:1 108:1 110:1 113:1 114:1 117:1 
-0.1814988625059614 1:1 3:1 5:1 11:1 14:1 17:1 27:1 36:1 89:1 94:1 97:1 98:0.138756 103:1 108:1 110:1 112:1 114:1 117:1 
-0.4737327165311436 1:1 3:1 5:1 11:1 14:1 17:1 27:1 36:1 89:1 94:1 97:1 98:0.129187 104:1 108:1 110:1 113:1 114:1 117:1 
-0.2237189488466328 1:1 3:1 5:1 11:1 14:1 16:1 27:1 36:1 89:1 94:1 97:1 98:0.0909091 104:1 108:1 110:1 112:1 114:1 117:1 
-0.1025009098948634 1:1 3:1 5:1 11:1 14:1 17:1 27:1 36:1 89:1 94:1 97:1 98:0.129187 102:1 108:1 110:1 112:1 114:1 117:1 
-0.04836830771964673 1:1 3:1 5:1 11:1 14:1 17:1 27:1 36:1 89:1 94:1 97:1 98:0.119617 103:1 108:1 110:1 112:1 114:1 117:1 
-0.6093826208157158 1:1 3:1 5:1 11:1 12:1 17:1 27:1 36:1 91:1 94:1 97:1 98:0.124402 99:1 108:1 110:1 112:1 115:1 116:0.5 117:1 
-7.940395526742211 1:1 3:1 5:1 11:1 14:1 17:1 27:1 36:1 91:1 94:1 97:1 98:0.110048 99:1 108:1 110:1 112:1 115:1 116:0.408248 117:1 
-0.4730946653375446 1:1 3:1 5:1 11:1 14:1 16:1 27:1 36:1 91:1 94:1 97:1 98:0.0287081 101:1 108:1 110:1 112:1 114:1 117:1 
-0.3084374091250598 1:1 3:1 5:1 11:1 14:1 16:1 21:1 36:1 91:1 94:1 97:1 98:0.330144 105:1 108:1 110:1 112:1 114:1 117:1 
-0.6325650041274787 1:1 3:1 5:1 11:1 14:1 16:1 21:1 36:1 91:1 94:1 97:1 98:0.334928 107:1 108:1 110:1 112:1 114:1 117:1 
-0.5776949527507623 1:1 3:1 5:1 11:1 14:1 17:1 36:1 58:1 89:1 92:1 97:1 98:0.076555 107:1 108:1 110:1 112:1 114:1 117:1 
-1.283128946500178 1:1 3:1 5:1 11:1 14:1 17:1 36:1 91:1 93:1 97:1 98:0.00956938 107:1 108:1 110:1 112:1 115:1 116:0.5 117:1 
-2.186834186155436 1:1 3:1 5:1 11:1 14:1 17:1 29:1 36:1 91:1 92:1 97:1 98:0.157895 104:1 108:1 110:1 112:1 115:1 116:0.353553 117:1 
-0.44350170409316 1:1 3:1 5:1 11:1 14:1 17:1 36:1 65:1 91:1 92:1 97:1 98:0.0861244 104:1 108:1 110:1 112:1 114:1 117:1 
-0.2353279342703293 1:1 3:1 5:1 11:1 14:1 17:1 36:1 58:1 91:1 92:1 97:1 98:0.0669856 104:1 108:1 110:1 112:1 114:1 117:1 
-0.06998237316270808 1:1 3:1 5:1 11:1 14:1 17:1 21:1 36:1 91:1 94:1 97:1 98:0.311005 105:1 108:1 110:1 112:1 114:1 117:1 
-0.1314345509987805 1:1 4:1 5:1 11:1 14:1 17:1 29:1 36:1 91:1 94:1 97:1 98:0.129187 107:1 108:1 110:1 112:1 114:1 117:1 
-0.07886797679676026 1:1 3:1 5:1 11:1 14:1 17:1 36:1 58:1 89:1 94:1 97:1 98:0.0382775 107:1 108:1 110:1 112:1 114:1 117:1 
-0.1898876079714667 1:1 3:1 5:1 11:1 14:1 17:1 36:1 91:1 94:1 97:1 98:0.0191388 106:1 108:1 110:1 113:1 114:1 117:1 
-0.2077611720831289 1:1 4:1 5:1 11:1 14:1 17:1 36:1 89:1 94:1 97:1 98:0.00956938 104:1 108:1 110:1 112:1 114:1 117:1 
-0.08924269146149851 1:1 3:1 5:1 11:1 14:1 17:1 36:1 89:1 94:1 97:1 98:0.00956938 102:1 108:1 110:1 112:1 114:1 117:1 
-1.041713208601525 1:1 4:1 6:1 11:1 14:1 17:1 36:1 89:1 94:1 97:1 98:0.00956938 104:1 108:1 110:1 112:1 114:1 117:1 
-32 2:1 3:1 6:1 11:1 14:1 17:1 51:1 52:1 91:1 94:1 97:1 98:0.0574163 107:1 109:1 111:1 112:1 115:1 116:1 118:1 
-0.2596915725214746 1:1 3:1 5:1 11:1 12:1 17:1 51:1 52:1 91:1 94:1 97:1 98:0.191388 107:1 108:1 110:1 112:1 114:1 117:1 
-2.051305583629173 2:1 3:1 6:1 11:1 12:1 17:1 51:1 52:1 91:1 94:1 97:1 98:0.181818 107:1 109:1 111:1 112:1 115:1 116:1 118:1 
-0.4175716286666036 1:1 3:1 5:1 11:1 12:1 17:1 21:1 52:1 91:1 94:1 97:1 98:0.258373 107:1 108:1 110:1 112:1 114:1 117:1 
-0.1342636982190293 1:1 3:1 5:1 11:1 14:1 17:1 51:1 52:1 91:1 94:1 97:1 98:0.0334928 106:1 108:1 110:1 112:1 114:1 117:1 
-0.3236000771297173 1:1 3:1 5:1 11:1 14:1 17:1 25:1 91:1 94:1 97:1 98:0.0191388 107:1 108:1 110:1 112:1 114:1 117:1 
-0.4071205304004308 1:1 3:1 5:1 11:1 14:1 17:1 35:1 56:1 91:1 92:1 97:1 98:0.311005 107:1 108:1 110:1 112:1 114:1 117:1 
-0.3082981906642208 1:1 3:1 5:1 11:1 14:1 17:1 35:1 56:1 91:1 94:1 97:1 98:0.30622 107:1 108:1 110:1 112:1 114:1 117:1 
-0.5764620217997088 1:1 3:1 5:1 11:1 14:1 17:1 35:1 56:1 91:1 94:1 97:1 98:0.272727 107:1 108:1 111:1 112:1 114:1 117:1 
-0.5475824566056032 1:1 3:1 5:1 11:1 14:1 17:1 35:1 76:1 91:1 94:1 97:1 98:0.215311 107:1 108:1 110:1 112:1 114:1 117:1 
-0.09592966672024396 1:1 3:1 5:1 11:1 14:1 17:1 27:1 35:1 91:1 92:1 97:1 98:0.0861244 106:1 108:1 110:1 112:1 114:1 117:1 
-0.582309173538234 1:1 3:1 5:1 11:1 14:1 17:1 27:1 35:1 91:1 94:1 97:1 98:0.0382775 105:1 108:1 110:1 112:1 114:1 117:1 
-0.2366091367172078 1:1 3:1 5:1 11:1 14:1 17:1 27:1 56:1 91:1 94:1 97:1 98:0.124402 107:1 108:1 111:1 112:1 114:1 117:1 
-0.3732537918690909 1:1 3:1 5:1 11:1 14:1 17:1 27:1 56:1 91:1 94:1 97:1 98:0.133971 107:1 108:1 110:1 112:1 114:1 117:1 
-0.09515551036952494 1:1 3:1 5:1 11:1 12:1 17:1 27:1 76:1 91:1 94:1 97:1 98:0.0526316 107:1 108:1 110:1 112:1 114:1 117:1 
-0.9592922632775952 1:1 3:1 5:1 11:1 14:1 17:1 27:1 56:1 91:1 94:1 97:1 98:0.0956938 107:1 108:1 110:1 112:1 114:1 117:1 
-0.7170041815932438 1:1 4:1 6:1 11:1 14:1 17:1 21:1 27:1 91:1 93:1 97:1 98:0.363636 107:1 108:1 110:1 112:1 114:1 117:1 
-1.508249826598761 1:1 3:1 5:1 11:1 14:1 17:1 21:1 27:1 91:1 94:1 97:1 98:0.354067 105:1 108:1 110:1 112:1 115:1 116:0.408248 117:1 
-2.09536454011556 1:1 3:1 5:1 11:1 14:1 17:1 21:1 27:1 91:1 93:1 97:1 98:0.349282 105:1 108:1 110:1 112:1 115:1 116:0.353553 117:1 
-0.3323581477853912 1:1 4:1 5:1 11:1 14:1 17:1 27:1 31:1 91:1 92:1 97:1 98:0.258373 107:1 108:1 110:1 112:1 114:1 117:1 
-0.1131311350302705 1:1 3:1 5:1 11:1 14:1 17:1 27:1 60:1 91:1 94:1 97:1 98:0.215311 107:1 108:1 110:1 112:1 114:1 117:1 
-0.02373194353398641 1:1 3:1 5:1 11:1 14:1 17:1 27:1 60:1 91:1 94:1 97:1 98:0.205742 107:1 108:1 110:1 112:1 114:1 117:1 
-32 1:1 3:1 5:1 11:1 14:1 17:1 27:1 91:1 94:1 97:1 103:1 108:1 110:1 112:1 115:1 116:0.353553 117:1 
-0.9685051428523024 1:1 4:1 6:1 11:1 14:1 17:1 21:1 27:1 91:1 94:1 97:1 98:0.272727 104:1 108:1 110:1 112:1 114:1 117:1 
-3.104606332083316 1:1 3:1 5:1 11:1 14:1 17:1 21:1 27:1 91:1 94:1 97:1 98:0.263158 102:1 108:1 110:1 112:1 115:1 116:0.408248 117:1 
-0.0105600892141762 1:1 4:1 5:1 11:1 14:1 17:1 27:1 31:1 91:1 94:1 97:1 98:0.167464 104:1 108:1 110:1 112:1 114:1 117:1 
-0.056186136787029 1:1 3:1 5:1 11:1 14:1 17:1 27:1 60:1 91:1 94:1 97:1 98:0.119617 103:1 108:1 110:1 112:1 114:1 117:1 
-0.6517822251657143 1:1 3:1 5:1 11:1 14:1 17:1 27:1 60:1 91:1 94:1 97:1 98:0.114833 104:1 108:1 110:1 112:1 114:1 117:1 
-32 1:1 3:1 5:1 11:1 14:1 17:1 27:1 91:1 94:1 97:1 103:1 108:1 110:1 112:1 115:1 116:0.408248 117:1 
-0.05696388892507503 1:1 3:1 5:1 11:1 14:1 17:1 21:1 91:1 92:1 97:1 98:0.0143541 104:1 108:1 110:1 112:1 114:1 117:1 
-32 1:1 3:1 5:1 11:1 14:1 17:1 21:1 91:1 94:1 97:1 98:0.00478469 102:1 108:1 110:1 112:1 115:1 116:0.288675 117:1 
-31.53690316778209 1:1 3:1 5:1 11:1 14:1 16:1 27:1 36:1 91:1 94:1 97:1 98:0.110048 104:1 108:1 110:1 112:1 114:1 117:1 
-32 1:1 3:1 5:1 11:1 14:1 16:1 27:1 36:1 91:1 94:1 97:1 98:0.105263 101:1 108:1 110:1 112:1 114:1 117:1 
-2.399941969859159 1:1 3:1 5:1 11:1 14:1 17:1 27:1 70:1 91:1 94:1 97:1 98:0.291866 99:1 108:1 110:1 112:1 115:1 116:0.408248 117:1 
-0.009204795952982153 1:1 3:1 5:1 11:1 14:1 17:1 27:1 70:1 91:1 94:1 97:1 98:0.22488 100:1 108:1 110:1 112:1 114:1 117:1 
-0.3433702633114951 1:1 4:1 5:1 11:1 14:1 17:1 27:1 70:1 91:1 94:1 97:1 98:0.215311 100:1 108:1 110:1 112:1 114:1 117:1 
-4.367254095660363 1:1 3:1 5:1 11:1 14:1 17:1 27:1 91:1 94:1 97:1 98:0.129187 101:1 108:1 110:1 112:1 115:1 116:0.333333 117:1 
-16.52952033208399 1:1 3:1 5:1 11:1 14:1 17:1 27:1 91:1 94:1 97:1 98:0.114833 99:1 108:1 110:1 112:1 115:1 116:0.866025 117:1 
-0.3377364404273289 1:1 3:1 5:1 11:1 14:1 15:1 27:1 70:1 91:1 94:1 97:1 98:0.196172 99:1 108:1 110:1 112:1 114:1 117:1 
-0.2630975433374929 1:1 3:1 5:1 11:1 14:1 15:1 27:1 70:1 91:1 94:1 97:1 98:0.191388 99:1 108:1 110:1 112:1 115:1 116:0.353553 117:1 
-0.1669696054352108 1:1 3:1 5:1 11:1 14:1 17:1 27:1 91:1 94:1 97:1 98:0.00956938 99:1 108:1 110:1 112:1 114:1 117:1 
-0.1647340375080471 1:1 4:1 5:1 11:1 14:1 17:1 27:1 70:1 91:1 94:1 97:1 98:0.177033 101:1 108:1 110:1 112:1 114:1 117:1 
-0.2934666755964663 1:1 3:1 5:1 11:1 14:1 17:1 27:1 70:1 91:1 94:1 97:1 98:0.076555 100:1 108:1 110:1 112:1 114:1 117:1 
-0.238819646616358 1:1 4:1 5:1 11:1 14:1 17:1 51:1 52:1 91:1 94:1 97:1 98:0.0574163 107:1 108:1 110:1 112:1 114:1 117:1 
-32 1:1 3:1 5:1 11:1 14:1 17:1 51:1 52:1 91:1 93:1 97:1 98:0.119617 107:1 108:1 110:1 112:1 115:1 116:0.5 117:1 
-32 1:1 3:1 5:1 11:1 14:1 17:1 34:1 70:1 91:1 94:1 97:1 98:0.100478 106:1 108:1 110:1 112:1 114:1 117:1 
-0.002436368115028154 1:1 3:1 5:1 11:1 14:1 17:1 34:1 70:1 91:1 94:1 97:1 98:0.0861244 106:1 108:1 110:1 112:1 114:1 117:1 
-0.4571118707513623 1:1 3:1 5:1 11:1 14:1 17:1 34:1 70:1 91:1 92:1 97:1 98:0.0956938 106:1 108:1 110:1 112:1 114:1 117:1 
-0.1920276505300876 1:1 3:1 5:1 11:1 14:1 17:1 34:1 70:1 91:1 92:1 97:1 98:0.0334928 107:1 108:1 110:1 112:1 114:1 117:1 
-32 1:1 3:1 5:1 11:1 14:1 17:1 34:1 70:1 91:1 94:1 97:1 98:0.0956938 106:1 108:1 110:1 112:1 114:1 117:1 
-2.41853738001088 1:1 3:1 5:1 11:1 14:1 17:1 34:1 70:1 91:1 94:1 97:1 98:0.0334928 107:1 108:1 110:1 112:1 114:1 117:1 
-0.2282701050465306 1:1 3:1 5:1 11:1 14:1 17:1 38:1 52:1 91:1 92:1 97:1 98:0.143541 103:1 108:1 110:1 112:1 114:1 117:1 
-0.8678933047735605 1:1 3:1 5:1 11:1 14:1 16:1 38:1 91:1 94:1 97:1 98:0.00478469 103:1 108:1 110:1 112:1 115:1 116:0.316228 117:1 
-0.6604438930200018 1:1 3:1 5:1 11:1 14:1 16:1 38:1 91:1 92:1 97:1 98:0.00478469 104:1 108:1 110:1 112:1 114:1 117:1 
-0.01058229244683643 1:1 3:1 5:1 11:1 14:1 17:1 51:1 52:1 91:1 94:1 97:1 98:0.186603 100:1 108:1 110:1 112:1 114:1 117:1 
-0.7341761150104027 1:1 3:1 5:1 11:1 14:1 17:1 51:1 52:1 91:1 94:1 97:1 98:0.181818 101:1 108:1 110:1 113:1 114:1 117:1 
-0.7090287806463307 1:1 3:1 5:1 11:1 14:1 17:1 52:1 69:1 91:1 94:1 97:1 98:0.110048 101:1 108:1 110:1 113:1 114:1 117:1 
-0.03140674286227788 1:1 3:1 5:1 11:1 14:1 17:1 52:1 91:1 94:1 97:1 98:0.00478469 101:1 108:1 110:1 113:1 114:1 117:1 
-0.03370589554293883 1:1 3:1 5:1 11:1 14:1 17:1 22:1 27:1 91:1 92:1 97:1 98:0.124402 105:1 108:1 110:1 112:1 114:1 117:1 
-0.1810113678224184 1:1 3:1 5:1 11:1 14:1 17:1 22:1 27:1 89:1 94:1 97:1 98:0.119617 99:1 108:1 110:1 112:1 114:1 117:1 
-0.3558429516940593 1:1 3:1 5:1 11:1 14:1 17:1 22:1 27:1 89:1 94:1 97:1 98:0.119617 99:1 108:1 110:1 112:1 115:1 116:0.333333 117:1 
-0.4400968204245415 1:1 3:1 5:1 11:1 14:1 17:1 22:1 27:1 89:1 94:1 97:1 98:0.114833 101:1 108:1 110:1 112:1 115:1 116:0.288675 117:1 
-0.2734631860673093 1:1 3:1 5:1 11:1 14:1 17:1 22:1 27:1 89:1 94:1 97:1 98:0.110048 100:1 108:1 110:1 112:1 114:1 117:1 
-1.046409749848594 1:1 3:1 5:1 11:1 14:1 17:1 27:1 80:1 91:1 94:1 97:1 98:0.157895 107:1 108:1 110:1 112:1 114:1 117:1 
-0.08954685099118456 1:1 3:1 5:1 11:1 14:1 17:1 22:1 27:1 89:1 94:1 97:1 98:0.110048 106:1 108:1 110:1 112:1 114:1 117:1 
-0.1213687927220591 1:1 3:1 5:1 11:1 14:1 17:1 22:1 27:1 89:1 94:1 97:1 98:0.110048 107:1 108:1 110:1 112:1 114:1 117:1 
-0.01992214696516395 1:1 3:1 5:1 11:1 14:1 17:1 22:1 27:1 89:1 94:1 97:1 98:0.110048 105:1 108:1 110:1 112:1 114:1 117:1 
-0.5334672207745865 1:1 3:1 5:1 11:1 14:1 17:1 27:1 80:1 91:1 94:1 97:1 98:0.15311 101:1 108:1 110:1 112:1 114:1 117:1 
-0.1671248851954208 1:1 3:1 5:1 11:1 14:1 17:1 27:1 80:1 91:1 92:1 97:1 98:0.15311 101:1 108:1 110:1 112:1 114:1 117:1 
-0.1316706154763202 1:1 3:1 5:1 11:1 14:1 17:1 22:1 27:1 91:1 94:1 97:1 98:0.114833 99:1 108:1 110:1 112:1 114:1 117:1 
-0.3696251430596271 1:1 3:1 5:1 11:1 14:1 17:1 22:1 27:1 91:1 92:1 97:1 98:0.114833 99:1 108:1 110:1 112:1 115:1 116:0.333333 117:1 
-0.05447859147283227 1:1 3:1 5:1 11:1 14:1 17:1 22:1 27:1 91:1 94:1 97:1 98:0.105263 100:1 108:1 110:1 112:1 114:1 117:1 
-0.2273914778470813 1:1 4:1 5:1 11:1 14:1 17:1 27:1 29:1 91:1 92:1 97:1 98:0.0813397 101:1 108:1 110:1 112:1 114:1 117:1 
-0.3704520731231962 1:1 3:1 5:1 11:1 14:1 17:1 27:1 65:1 91:1 94:1 97:1 98:0.0430622 100:1 108:1 110:1 112:1 114:1 117:1 
-0.3558982410915268 1:1 3:1 5:1 11:1 14:1 17:1 22:1 36:1 91:1 92:1 97:1 98:0.0956938 105:1 108:1 110:1 112:1 114:1 117:1 
-0.4760067521978963 1:1 3:1 5:1 11:1 14:1 17:1 53:1 91:1 94:1 97:1 98:0.129187 101:1 108:1 110:1 112:1 115:1 116:0.408248 117:1 
-31.98366872878733 1:1 3:1 5:1 11:1 14:1 17:1 69:1 91:1 94:1 97:1 98:0.368421 107:1 108:1 110:1 112:1 114:1 117:1 
-2.495014770217899 1:1 3:1 5:1 11:1 14:1 17:1 69:1 91:1 94:1 97:1 98:0.330144 107:1 108:1 110:1 112:1 114:1 117:1 
-0.05103720572824896 1:1 3:1 5:1 11:1 14:1 17:1 69:1 91:1 94:1 97:1 98:0.325359 107:1 108:1 110:1 112:1 114:1 117:1 
-0.1412703296141839 1:1 3:1 5:1 11:1 14:1 17:1 69:1 91:1 94:1 97:1 98:0.296651 107:1 108:1 110:1 112:1 114:1 117:1 
-2.766287965116051 1:1 3:1 5:1 11:1 14:1 17:1 69:1 91:1 94:1 97:1 98:0.267943 107:1 108:1 110:1 112:1 115:1 116:0.5 117:1 
-0.05133918199670659 1:1 3:1 5:1 11:1 14:1 17:1 69:1 91:1 94:1 97:1 98:0.248804 107:1 108:1 110:1 112:1 114:1 117:1 
-2.6032403495378 1:1 3:1 5:1 11:1 14:1 17:1 91:1 94:1 97:1 105:1 108:1 110:1 112:1 115:1 116:0.408248 117:1 
-0.5470577736241657 1:1 3:1 5:1 11:1 14:1 16:1 69:1 89:1 94:1 97:1 98:0.200957 103:1 108:1 110:1 112:1 115:1 116:0.666667 117:1 
-0.4097452933823209 1:1 3:1 5:1 11:1 14:1 17:1 69:1 91:1 94:1 97:1 98:0.062201 104:1 108:1 110:1 113:1 114:1 117:1 
-0.7125088172136422 1:1 3:1 5:1 11:1 14:1 17:1 69:1 91:1 94:1 97:1 98:0.0478469 104:1 108:1 110:1 112:1 114:1 117:1 
-0.4931179698847578 1:1 3:1 5:1 11:1 14:1 16:1 69:1 89:1 94:1 97:1 103:1 108:1 110:1 112:1 115:1 116:0.666667 117:1 
-23.68567196935345 1:1 3:1 5:1 11:1 14:1 17:1 69:1 91:1 94:1 97:1 98:0.181818 107:1 108:1 110:1 112:1 114:1 117:1 
-2.897511977154529 1:1 3:1 5:1 11:1 14:1 17:1 69:1 91:1 94:1 97:1 107:1 108:1 110:1 112:1 114:1 117:1 
-1.425966714400252 1:1 3:1 5:1 10:1 14:1 17:1 69:1 91:1 92:1 97:1 98:0.177033 107:1 108:1 110:1 112:1 115:1 116:0.223607 117:1 
-5.105980625154485 1:1 3:1 5:1 11:1 14:1 17:1 69:1 91:1 92:1 97:1 98:0.172249 107:1 108:1 110:1 112:1 114:1 117:1 
-0.08467088894946048 1:1 3:1 5:1 11:1 14:1 17:1 69:1 91:1 92:1 97:1 98:0.0430622 105:1 108:1 110:1 112:1 114:1 117:1 
-26.48621659710239 1:1 3:1 5:1 11:1 14:1 17:1 69:1 91:1 92:1 97:1 98:0.0382775 107:1 108:1 110:1 112:1 114:1 117:1 
-0.4661181336996257 1:1 3:1 5:1 11:1 14:1 17:1 69:1 91:1 94:1 97:1 98:0.0669856 107:1 108:1 110:1 112:1 115:1 116:0.316228 117:1 
-0.005707760568244566 1:1 3:1 5:1 11:1 14:1 17:1 24:1 29:1 91:1 92:1 97:1 98:0.0574163 107:1 108:1 110:1 112:1 114:1 117:1 
-0.1906046969713559 1:1 3:1 5:1 11:1 14:1 17:1 24:1 29:1 91:1 94:1 97:1 98:0.0526316 107:1 108:1 110:1 112:1 114:1 117:1 
-0.4247321328891922 1:1 3:1 5:1 11:1 12:1 17:1 24:1 29:1 91:1 94:1 97:1 98:0.00956938 107:1 108:1 110:1 112:1 114:1 117:1 
-0.3219867120338512 1:1 3:1 5:1 11:1 14:1 15:1 22:1 29:1 91:1 92:1 97:1 98:0.138756 107:1 108:1 110:1 112:1 114:1 117:1 
-0.4162070799817679 1:1 3:1 5:1 11:1 14:1 15:1 21:1 22:1 89:1 94:1 97:1 98:0.0239234 107:1 108:1 110:1 112:1 114:1 117:1 
-0.2932292353754604 1:1 3:1 5:1 11:1 14:1 15:1 21:1 22:1 91:1 92:1 97:1 98:0.0143541 107:1 108:1 110:1 112:1 114:1 117:1 
-0.2139450654464314 1:1 3:1 5:1 11:1 14:1 15:1 22:1 52:1 91:1 94:1 97:1 98:0.492823 107:1 108:1 110:1 112:1 114:1 117:1 
-0.1619112653362063 1:1 3:1 5:1 11:1 14:1 17:1 51:1 52:1 91:1 94:1 97:1 98:0.397129 107:1 108:1 110:1 112:1 114:1 117:1 
-0.3892275415393924 1:1 4:1 5:1 11:1 14:1 15:1 51:1 52:1 91:1 94:1 97:1 98:0.267943 107:1 108:1 110:1 112:1 114:1 117:1 
-0.1574239681226953 1:1 3:1 5:1 11:1 14:1 15:1 52:1 69:1 91:1 94:1 97:1 98:0.062201 107:1 108:1 111:1 112:1 114:1 117:1 
-0.2665521401258044 1:1 3:1 5:1 11:1 14:1 17:1 47:1 52:1 91:1 94:1 97:1 98:0.488038 101:1 108:1 110:1 112:1 114:1 117:1 
-0.9590243936476773 1:1 3:1 5:1 11:1 14:1 17:1 51:1 52:1 89:1 94:1 97:1 98:0.0717703 101:1 108:1 110:1 112:1 114:1 117:1 
-0.1025002220446387 1:1 3:1 5:1 11:1 14:1 17:1 52:1 69:1 91:1 94:1 97:1 98:0.0334928 101:1 108:1 110:1 112:1 114:1 117:1 
-1.607261169232018 1:1 3:1 5:1 11:1 14:1 17:1 47:1 69:1 91:1 94:1 97:1 98:0.440191 107:1 108:1 110:1 112:1 114:1 117:1 
-0.1036445205922222 1:1 3:1 5:1 11:1 14:1 15:1 22:1 69:1 91:1 94:1 97:1 98:0.373206 107:1 108:1 110:1 112:1 114:1 117:1 
-0.3181513691180656 1:1 3:1 5:1 11:1 14:1 17:1 51:1 69:1 91:1 94:1 97:1 98:0.277512 107:1 108:1 110:1 112:1 114:1 117:1 
-0.2142329870881896 1:1 3:1 5:1 11:1 14:1 17:1 51:1 69:1 91:1 94:1 97:1 98:0.267943 107:1 108:1 110:1 112:1 114:1 117:1 
-13.73576436239085 1:1 3:1 5:1 11:1 14:1 17:1 51:1 69:1 91:1 94:1 97:1 98:0.0239234 107:1 108:1 110:1 112:1 114:1 117:1 
-31.0835083788371 1:1 3:1 5:1 11:1 14:1 17:1 21:1 27:1 91:1 94:1 97:1 98:0.133971 104:1 108:1 110:1 112:1 114:1 117:1 
-0.5092401959293091 1:1 3:1 5:1 11:1 14:1 17:1 21:1 27:1 89:1 94:1 97:1 98:0.124402 104:1 108:1 110:1 112:1 114:1 117:1 
-0.6881272155880902 1:1 3:1 5:1 11:1 14:1 17:1 27:1 89:1 94:1 97:1 98:0.0334928 103:1 108:1 110:1 112:1 115:1 116:0.288675 117:1 
-0.1893680631675507 1:1 4:1 5:1 11:1 14:1 17:1 21:1 27:1 91:1 94:1 97:1 98:0.114833 99:1 108:1 110:1 112:1 115:1 116:0.288675 117:1 
-0.2973086116864862 1:1 3:1 5:1 11:1 14:1 15:1 27:1 70:1 91:1 93:1 97:1 98:0.105263 107:1 108:1 110:1 112:1 114:1 117:1 
-0.06503636286638048 1:1 4:1 5:1 11:1 14:1 17:1 21:1 91:1 94:1 97:1 98:0.0239234 107:1 108:1 110:1 112:1 114:1 117:1 
-0.7021886902778872 1:1 4:1 5:1 11:1 14:1 17:1 21:1 91:1 94:1 95:1 98:0.0143541 105:1 108:1 110:1 112:1 114:1 117:1 
-0.3671580175533138 1:1 3:1 5:1 11:1 14:1 17:1 21:1 70:1 91:1 93:1 97:1 98:0.0191388 107:1 108:1 110:1 112:1 114:1 117:1 
-0.162989377949752 1:1 3:1 5:1 11:1 14:1 17:1 27:1 29:1 91:1 94:1 97:1 98:0.191388 104:1 108:1 110:1 113:1 114:1 117:1 
-0.7977166195211224 1:1 3:1 5:1 11:1 14:1 15:1 21:1 27:1 91:1 94:1 97:1 98:0.267943 102:1 108:1 110:1 112:1 115:1 116:0.353553 117:1 
-8.094819667562611 1:1 3:1 5:1 11:1 14:1 17:1 27:1 36:1 91:1 94:1 97:1 98:0.0813397 103:1 108:1 110:1 112:1 115:1 116:0.25 117:1 
-0.7447705804391804 1:1 3:1 5:1 11:1 14:1 15:1 27:1 36:1 91:1 94:1 97:1 98:0.076555 103:1 108:1 110:1 112:1 115:1 116:0.353553 117:1 
-1.878509822154528 1:1 3:1 5:1 11:1 14:1 15:1 27:1 91:1 94:1 97:1 98:0.0239234 107:1 108:1 110:1 112:1 115:1 116:0.333333 117:1 
-0.9941073990042814 1:1 3:1 5:1 11:1 14:1 15:1 21:1 27:1 91:1 94:1 97:1 98:0.253589 99:1 108:1 110:1 112:1 115:1 116:0.721688 117:1 
-0.3245285203413256 1:1 3:1 5:1 11:1 14:1 17:1 27:1 29:1 91:1 94:1 97:1 98:0.162679 99:1 108:1 110:1 112:1 115:1 116:0.235702 117:1 
-0.5174925565904278 1:1 3:1 5:1 11:1 14:1 17:1 59:1 79:1 91:1 94:1 97:1 98:0.062201 107:1 108:1 110:1 112:1 114:1 117:1 
-2.615273846914875 1:1 3:1 5:1 11:1 14:1 17:1 59:1 79:1 91:1 94:1 97:1 98:0.0287081 107:1 108:1 111:1 112:1 115:1 116:0.707107 117:1 
-0.3391482786851305 1:1 4:1 5:1 11:1 14:1 17:1 27:1 79:1 91:1 92:1 97:1 98:0.205742 107:1 108:1 110:1 112:1 114:1 117:1 
-0.2227177688594397 1:1 3:1 5:1 11:1 14:1 17:1 27:1 79:1 91:1 94:1 97:1 98:0.0956938 105:1 108:1 110:1 112:1 114:1 117:1 
-0.2275687913632195 1:1 3:1 5:1 11:1 14:1 15:1 27:1 59:1 91:1 94:1 97:1 98:0.339713 105:1 108:1 110:1 112:1 114:1 117:1 
-0.993201979321892 1:1 4:1 5:1 11:1 14:1 15:1 27:1 59:1 91:1 94:1 95:1 98:0.334928 106:1 108:1 110:1 113:1 114:1 117:1 
-1.041428122603463 1:1 3:1 5:1 11:1 14:1 17:1 27:1 59:1 89:1 94:1 97:1 98:0.330144 107:1 108:1 110:1 112:1 114:1 117:1 
-0.04053749045051089 1:1 4:1 5:1 11:1 14:1 17:1 27:1 29:1 91:1 94:1 97:1 98:0.22488 106:1 108:1 110:1 112:1 114:1 117:1 
-0.1073959673071858 1:1 3:1 5:1 11:1 14:1 16:1 27:1 89:1 94:1 97:1 105:1 108:1 110:1 112:1 114:1 117:1 
-0.1789591080422553 1:1 3:1 5:1 11:1 14:1 15:1 27:1 89:1 92:1 97:1 98:0.0526316 107:1 108:1 110:1 112:1 114:1 117:1 
-0.3913088910950205 1:1 3:1 5:1 11:1 14:1 16:1 27:1 89:1 92:1 97:1 107:1 108:1 110:1 112:1 114:1 117:1 
-1.05185256185806 1:1 4:1 5:1 11:1 14:1 17:1 36:1 59:1 91:1 94:1 95:1 98:0.210526 103:1 108:1 110:1 113:1 115:1 116:0.5 117:1 
-0.5494958759550638 1:1 3:1 5:1 11:1 14:1 17:1 36:1 58:1 91:1 94:1 97:1 98:0.0191388 103:1 108:1 110:1 112:1 115:1 116:0.408248 117:1 
-32 1:1 3:1 5:1 11:1 14:1 17:1 27:1 80:1 91:1 94:1 97:1 98:0.511962 104:1 108:1 110:1 112:1 115:1 116:0.474342 117:1 
-32 1:1 3:1 5:1 11:1 14:1 17:1 27:1 80:1 91:1 94:1 97:1 98:0.502392 104:1 108:1 110:1 112:1 114:1 117:1 
-32 1:1 3:1 5:1 11:1 14:1 17:1 27:1 36:1 91:1 94:1 97:1 98:0.0956938 104:1 108:1 110:1 112:1 115:1 116:0.67082 117:1 
-0.1534476153064288 1:1 3:1 5:1 11:1 14:1 17:1 27:1 80:1 91:1 94:1 95:1 98:0.488038 107:1 108:1 110:1 112:1 114:1 117:1 
-0.2391229426066071 1:1 4:1 5:1 11:1 14:1 17:1 27:1 36:1 91:1 94:1 95:1 98:0.0909091 107:1 108:1 110:1 112:1 114:1 117:1 
-0.1171452020177617 1:1 3:1 5:1 11:1 14:1 17:1 27:1 36:1 91:1 94:1 95:1 98:0.0861244 105:1 108:1 110:1 112:1 114:1 117:1 
-1.271651135838572 1:1 3:1 5:1 11:1 14:1 17:1 27:1 36:1 91:1 94:1 96:1 98:0.0909091 107:1 108:1 111:1 112:1 115:1 116:0.707107 117:1 
-0.009968859926832791 1:1 3:1 5:1 11:1 14:1 17:1 36:1 80:1 91:1 94:1 95:1 98:0.473684 104:1 108:1 110:1 112:1 114:1 117:1 
-0.6227137790881332 1:1 3:1 5:1 11:1 14:1 17:1 36:1 80:1 91:1 94:1 95:1 98:0.473684 104:1 108:1 110:1 113:1 114:1 117:1 
-0.5836087583085428 1:1 4:1 5:1 11:1 14:1 17:1 36:1 91:1 94:1 95:1 98:0.076555 104:1 108:1 110:1 113:1 114:1 117:1 
-0.2173117110249473 1:1 3:1 5:1 11:1 14:1 17:1 36:1 91:1 94:1 95:1 98:0.0717703 102:1 108:1 110:1 112:1 114:1 117:1 
-0.02597450499701125 1:1 3:1 5:1 11:1 14:1 17:1 36:1 80:1 91:1 94:1 95:1 98:0.45933 107:1 108:1 110:1 112:1 114:1 117:1 
-0.711373598957434 1:1 3:1 5:1 11:1 14:1 17:1 36:1 89:1 94:1 95:1 98:0.0526316 107:1 108:1 110:1 112:1 114:1 117:1 
-0.1769905554326259 1:1 4:1 5:1 11:1 14:1 17:1 36:1 91:1 94:1 95:1 98:0.0430622 107:1 108:1 110:1 112:1 114:1 117:1 
-1.32629154382879 1:1 3:1 5:1 11:1 14:1 17:1 36:1 91:1 94:1 96:1 98:0.0334928 107:1 108:1 111:1 112:1 115:1 116:0.707107 117:1 
-1.110361316509711 1:1 3:1 5:1 11:1 14:1 16:1 36:1 89:1 94:1 97:1 107:1 108:1 110:1 112:1 115:1 116:0.67082 117:1 
-1.177119677509489 1:1 3:1 5:1 11:1 14:1 17:1 36:1 80:1 91:1 94:1 97:1 98:0.416268 107:1 108:1 110:1 112:1 115:1 116:0.474342 117:1 
-0.4123547217414662 1:1 3:1 5:1 11:1 14:1 17:1 36:1 80:1 91:1 93:1 97:1 98:0.406699 107:1 108:1 110:1 112:1 115:1 116:0.223607 117:1 
-1.041081795612459 1:1 3:1 5:1 11:1 14:1 17:1 29:1 36:1 91:1 93:1 97:1 98:0.253589 106:1 108:1 110:1 112:1 115:1 116:0.0932505 117:1 
-0.6287780856528054 1:1 3:1 5:1 11:1 14:1 17:1 36:1 80:1 91:1 94:1 95:1 98:0.401914 101:1 108:1 110:1 112:1 114:1 117:1 
-0.1781196573900628 1:1 3:1 5:1 11:1 14:1 17:1 27:1 29:1 91:1 94:1 97:1 98:0.00956938 104:1 108:1 110:1 112:1 114:1 117:1 
-0.4232998914138448 1:1 3:1 5:1 11:1 14:1 17:1 27:1 29:1 91:1 94:1 97:1 98:0.00956938 103:1 108:1 110:1 112:1 115:1 116:0.408248 117:1 
-0.4034713326846273 1:1 3:1 5:1 11:1 14:1 16:1 36:1 91:1 94:1 97:1 98:0.0143541 106:1 108:1 110:1 112:1 114:1 117:1 
-30.92637244685989 1:1 3:1 5:1 11:1 14:1 16:1 36:1 91:1 94:1 97:1 107:1 108:1 110:1 112:1 114:1 117:1 
-0.1170098710601579 1:1 3:1 5:1 11:1 14:1 17:1 22:1 27:1 91:1 94:1 97:1 98:0.287081 104:1 108:1 110:1 112:1 114:1 117:1 
-0.05097543554202916 1:1 3:1 5:1 11:1 14:1 17:1 27:1 60:1 91:1 92:1 97:1 98:0.157895 104:1 108:1 110:1 112:1 114:1 117:1 
-1.166160494284624 1:1 3:1 5:1 11:1 14:1 17:1 27:1 29:1 91:1 92:1 97:1 98:0.062201 106:1 108:1 110:1 112:1 115:1 116:0.0816497 117:1 
-0.101060982507332 1:1 3:1 5:1 11:1 14:1 17:1 27:1 58:1 91:1 92:1 97:1 98:0.0143541 105:1 108:1 110:1 112:1 114:1 117:1 
-0.4753209925925608 1:1 3:1 5:1 11:1 14:1 17:1 27:1 58:1 91:1 94:1 95:1 98:0.00956938 106:1 108:1 110:1 112:1 114:1 117:1 
-0.4447387752559715 1:1 4:1 5:1 11:1 14:1 15:1 59:1 91:1 92:1 97:1 98:0.0143541 106:1 108:1 110:1 112:1 114:1 117:1 
