svm_type c_svc
kernel_type rbf
gamma 0.125
nr_class 2
total_sv 1506
rho -1.24252
label 0 1
probA -1.44171
probB -1.20084
nr_sv 957 549
SV
128 1:1 3:1 5:1 7:1 9:0.00643087 18:1 19:1 21:1 23:1 25:1 28:1 
125.410615143879 1:1 3:1 5:1 7:1 9:0.0160772 15:1 19:1 21:1 23:1 25:1 28:1 
128 1:1 3:1 5:1 7:1 9:0.022508 15:1 19:1 21:1 23:1 25:1 28:1 
128 1:1 3:1 5:1 7:1 9:0.0257235 15:1 19:1 21:1 23:1 25:1 28:1 
128 1:1 3:1 5:1 7:1 9:0.0578778 18:1 19:1 21:1 23:1 25:1 28:1 
7.184273859827379 1:1 3:1 5:1 7:1 9:0.0707395 18:1 19:1 21:1 23:1 25:1 28:1 
50.23666460201139 1:1 3:1 5:1 7:1 9:0.073955 15:1 19:1 21:1 23:1 25:1 28:1 
12.49152820605115 1:1 3:1 5:1 7:1 9:0.0771704 18:1 19:1 21:1 23:1 25:1 28:1 
31.65974924937824 1:1 3:1 5:1 7:1 9:0.122186 18:1 19:1 21:1 23:1 25:1 28:1 
101.3198971333569 1:1 3:1 5:1 7:1 9:0.0192926 15:1 19:1 21:1 23:1 25:1 28:1 
128 1:1 3:1 5:1 7:1 9:0.0257235 18:1 19:1 21:1 23:1 25:1 28:1 
128 1:1 3:1 5:1 7:1 9:0.0385852 18:1 19:1 21:1 23:1 25:1 28:1 
0.08598666110448708 1:1 3:1 5:1 7:1 9:0.0418006 18:1 19:1 21:1 23:1 25:1 28:1 
128 1:1 3:1 5:1 7:1 9:0.0675241 18:1 19:1 21:1 23:1 25:1 28:1 
128 1:1 3:1 5:1 7:1 9:0.115756 18:1 19:1 21:1 23:1 25:1 28:1 
128 1:1 3:1 5:1 7:1 9:0.199357 18:1 19:1 21:1 23:1 25:1 28:1 
128 1:1 3:1 5:1 7:1 9:0.21865 18:1 19:1 21:1 23:1 25:1 28:1 
128 2:1 3:1 6:1 7:1 9:0.250804 18:1 20:1 22:1 24:1 26:1 27:1 29:1 
50.24110122744513 1:1 3:1 5:1 7:1 17:1 19:1 21:1 23:1 25:1 28:1 
128 1:1 3:1 5:1 7:1 9:0.0385852 17:1 19:1 21:1 23:1 25:1 28:1 
128 1:1 3:1 5:1 7:1 9:0.00643087 15:1 19:1 21:1 23:1 25:1 28:1 
1.020334366307809 1:1 3:1 5:1 7:1 9:0.0289389 18:1 19:1 21:1 23:1 25:1 28:1 
92.67994315517065 1:1 3:1 5:1 7:1 9:0.0385852 12:1 19:1 21:1 23:1 25:1 28:1 
128 1:1 3:1 5:1 7:1 9:0.0643087 18:1 19:1 21:1 23:1 25:1 28:1 
0.7554078053241042 1:1 3:1 5:1 7:1 9:0.212219 18:1 19:1 21:1 23:1 25:1 28:1 
105.4584906122318 1:1 3:1 5:1 7:1 9:0.0353698 17:1 19:1 21:1 23:1 25:1 28:1 
128 1:1 3:1 5:1 7:1 9:0.00643087 17:1 19:1 21:1 23:1 25:1 28:1 
55.09869168688686 1:1 3:1 5:1 7:1 9:0.196141 17:1 19:1 21:1 23:1 25:1 28:1 
0.07357763817905649 1:1 3:1 5:1 7:1 18:1 19:1 21:1 23:1 25:1 28:1 
15.84785159002519 1:1 3:1 5:1 7:1 9:0.022508 18:1 19:1 21:1 23:1 25:1 28:1 
91.44692283389978 2:1 3:1 6:1 7:1 9:0.192926 18:1 19:1 22:1 23:1 26:1 27:1 29:1 
65.88066635118567 1:1 3:1 5:1 7:1 9:0.196141 18:1 19:1 21:1 23:1 25:1 28:1 
59.0978452146325 1:1 3:1 5:1 7:1 9:0.0128617 18:1 19:1 21:1 23:1 25:1 28:1 
128 1:1 3:1 5:1 7:1 9:0.00321543 18:1 19:1 21:1 23:1 25:1 28:1 
128 1:1 3:1 5:1 7:1 9:0.180064 18:1 19:1 21:1 23:1 25:1 28:1 
128 2:1 3:1 6:1 7:1 9:0.180064 18:1 19:1 22:1 23:1 26:1 27:1 29:1 
7.2739721599126 1:1 3:1 5:1 7:1 9:0.18328 18:1 19:1 21:1 23:1 25:1 28:1 
114.2476630093194 1:1 3:1 5:1 7:1 9:0.0192926 18:1 19:1 21:1 23:1 25:1 28:1 
21.9737174047323 1:1 3:1 5:1 7:1 9:0.00321543 16:1 19:1 21:1 23:1 25:1 28:1 
128 1:1 3:1 5:1 7:1 9:0.00643087 16:1 19:1 21:1 23:1 25:1 28:1 
3.01714860385088 1:1 3:1 5:1 7:1 9:0.0675241 16:1 19:1 21:1 23:1 25:1 28:1 
5.520119069520107 1:1 3:1 5:1 7:1 9:0.176849 16:1 19:1 21:1 23:1 25:1 28:1 
7.234937356761894 1:1 3:1 5:1 7:1 9:0.215434 16:1 19:1 21:1 23:1 25:1 28:1 
30.14353956040312 1:1 3:1 5:1 7:1 9:0.234727 16:1 19:1 21:1 23:1 25:1 28:1 
7.47552289849678 1:1 3:1 5:1 7:1 9:0.241158 16:1 19:1 21:1 23:1 25:1 28:1 
1.878458291812175 2:1 3:1 6:1 8:1 9:0.176849 18:1 19:1 22:1 23:1 26:1 27:1 29:1 
128 1:1 3:1 5:1 7:1 9:0.215434 18:1 20:1 22:1 24:1 26:1 27:1 29:1 
31.5419387573394 1:1 3:1 5:1 7:1 9:0.102894 18:1 19:1 21:1 23:1 25:1 28:1 
86.87586434083703 1:1 3:1 5:1 7:1 9:0.14791 18:1 19:1 21:1 23:1 25:1 28:1 
128 1:1 3:1 5:1 7:1 9:0.212219 18:1 20:1 22:1 24:1 26:1 27:1 29:1 
43.92950384857639 1:1 3:1 5:1 7:1 9:0.0128617 15:1 19:1 21:1 23:1 25:1 28:1 
128 1:1 3:1 5:1 7:1 9:0.0996785 18:1 19:1 21:1 23:1 25:1 28:1 
128 1:1 3:1 5:1 7:1 9:0.163987 18:1 19:1 21:1 23:1 25:1 28:1 
59.5493537552625 1:1 3:1 5:1 7:1 9:0.18328 18:1 19:1 22:1 23:1 26:1 27:0.816497 28:1 
128 1:1 3:1 5:1 7:1 9:0.00321543 15:1 19:1 21:1 23:1 25:1 28:1 
128 1:1 3:1 5:1 7:1 9:0.199357 18:1 20:1 22:1 24:1 26:1 27:1 29:1 
60.40510064344399 1:1 3:1 5:1 7:1 9:0.228296 15:1 19:1 21:1 23:1 25:1 28:1 
128 1:1 3:1 5:1 7:1 9:0.00321543 17:1 19:1 21:1 23:1 25:1 28:1 
128 1:1 3:1 5:1 7:1 9:0.131833 18:1 19:1 21:1 23:1 25:1 28:1 
100.4179639491284 1:1 3:1 5:1 7:1 9:0.154341 18:1 19:1 22:1 23:1 26:1 27:0.707107 28:1 
128 1:1 3:1 5:1 7:1 9:0.0836013 18:1 19:1 21:1 23:1 25:1 28:1 
128 1:1 3:1 5:1 7:1 9:0.154341 18:1 20:1 21:1 23:1 26:1 27:0.75 28:1 
107.3021507390957 1:1 4:1 5:1 7:1 18:1 19:1 21:1 23:1 25:1 28:1 
128 1:1 3:1 5:1 7:1 9:0.096463 18:1 19:1 21:1 23:1 26:1 27:0.5 28:1 
91.97137852420347 1:1 3:1 5:1 7:1 9:0.096463 18:1 19:1 21:1 23:1 25:1 28:1 
4.906931796315107 1:1 3:1 5:1 7:1 9:0.11254 12:1 19:1 21:1 23:1 25:1 28:1 
128 1:1 3:1 5:1 7:1 9:0.0675241 12:1 19:1 21:1 23:1 25:1 28:1 
47.35035235986425 1:1 3:1 5:1 7:1 9:0.00321543 18:1 19:1 22:1 23:1 26:1 27:0.707107 28:1 
128 1:1 3:1 5:1 7:1 9:0.0643087 18:1 19:1 22:1 23:1 26:1 27:0.707107 28:1 
36.80654664175612 1:1 4:1 6:1 7:1 18:1 19:1 21:1 23:1 25:1 28:1 
0.2107125466426276 1:1 3:1 5:1 7:1 9:0.0514469 15:1 19:1 21:1 23:1 25:1 28:1 
128 1:1 3:1 5:1 7:1 9:0.0385852 15:1 19:1 21:1 23:1 25:1 28:1 
128 1:1 3:1 5:1 7:1 9:0.00643087 18:1 19:1 22:1 23:1 26:1 27:0.707107 28:1 
112.3619379982308 2:1 3:1 6:1 7:1 9:0.00321543 18:1 19:1 22:1 23:1 26:1 27:1 29:1 
49.11002499468371 2:1 3:1 6:1 8:1 9:0.00321543 18:1 19:1 22:1 23:1 26:1 27:1 29:1 
128 2:1 3:1 6:1 8:1 9:0.00643087 18:1 19:1 22:1 23:1 26:1 27:1 29:1 
128 2:1 3:1 6:1 8:1 9:0.0096463 18:1 19:1 22:1 23:1 26:1 27:1 29:1 
128 2:1 3:1 6:1 8:1 9:0.0128617 18:1 19:1 22:1 23:1 26:1 27:1 29:1 
128 1:1 3:1 5:1 7:1 18:1 19:1 22:1 23:1 25:1 28:1 
40.62738177730511 1:1 3:1 5:1 7:1 9:0.0385852 14:1 19:1 21:1 23:1 26:1 27:0.408248 28:1 
128 1:1 3:1 5:1 7:1 9:0.00643087 14:1 19:1 21:1 23:1 26:1 27:0.408248 28:1 
20.09831914616804 1:1 3:1 5:1 7:1 9:0.196141 16:1 19:1 21:1 23:1 25:1 28:1 
2.243300476537667 1:1 3:1 5:1 7:1 9:0.209003 16:1 19:1 21:1 23:1 25:1 28:1 
0.2882434913468046 1:1 3:1 5:1 7:1 9:0.180064 16:1 19:1 21:1 23:1 25:1 28:1 
0.07715342410216815 2:1 3:1 6:1 7:1 9:0.18328 18:1 20:1 22:1 23:1 26:1 27:1 29:1 
128 1:1 3:1 5:1 7:1 9:0.0128617 18:1 19:1 22:1 23:1 26:1 27:0.707107 28:1 
107.4434939575086 1:1 3:1 5:1 7:1 9:0.00643087 14:1 19:1 21:1 23:1 26:1 27:0.5 28:1 
128 2:1 3:1 6:1 8:1 9:0.154341 12:1 19:1 22:1 24:1 26:1 27:0.707107 29:1 
13.19053439241427 1:1 3:1 5:1 7:1 9:0.180064 15:1 19:1 21:1 23:1 25:1 28:1 
32.68973512008466 2:1 3:1 6:1 8:1 9:0.192926 18:1 19:1 22:1 23:1 26:1 27:1 29:1 
39.63018937047053 1:1 3:1 5:1 7:1 9:0.212219 15:1 19:1 21:1 23:1 25:1 28:1 
128 1:1 4:1 6:1 7:1 9:0.160772 18:1 19:1 22:1 23:1 26:1 27:0.707107 28:1 
34.58909628867098 1:1 4:1 5:1 7:1 9:0.212219 15:1 20:1 21:1 23:1 26:1 27:0.408248 28:1 
11.97142725264591 1:1 3:1 5:1 7:1 9:0.131833 12:1 19:1 21:1 23:1 25:1 28:1 
128 1:1 3:1 5:1 7:1 9:0.157556 15:1 19:1 21:1 23:1 25:1 28:1 
0.001493297037650681 1:1 3:1 5:1 7:1 9:0.14791 12:1 19:1 21:1 23:1 25:1 28:1 
1.226718902489863 1:1 3:1 5:1 7:1 9:0.163987 12:1 19:1 21:1 23:1 25:1 28:1 
31.34441930578377 1:1 3:1 5:1 7:1 9:0.109325 18:1 20:1 21:1 23:1 26:1 27:0.666667 28:1 
128 2:1 3:1 6:1 7:1 9:0.141479 18:1 20:1 22:1 24:1 26:1 27:1 29:1 
16.09022685058913 1:1 3:1 5:1 7:1 9:0.14791 15:1 19:1 21:1 23:1 25:1 28:1 
0.3468485425824216 1:1 3:1 5:1 7:1 9:0.00643087 10:1 19:1 21:1 23:1 25:1 28:1 
1.969478382031373 1:1 3:1 5:1 7:1 9:0.14791 16:1 19:1 21:1 23:1 25:1 28:1 
5.910341284560136 1:1 3:1 5:1 7:1 9:0.0385852 18:1 19:1 21:1 23:1 26:1 27:0.316228 28:1 
29.74614440936128 1:1 3:1 5:1 7:1 9:0.128617 18:1 20:1 22:1 23:1 26:1 27:0.774597 28:1 
128 1:1 3:1 5:1 7:1 9:0.138264 18:1 20:1 22:1 24:1 26:1 27:1 29:1 
128 2:1 3:1 6:1 7:1 9:0.138264 10:1 20:1 22:1 24:1 26:1 27:1 29:1 
107.3816064340609 2:1 4:1 6:1 8:1 9:0.0996785 18:1 19:1 22:1 23:1 26:1 27:1 29:1 
19.68510157808366 1:1 4:1 6:1 7:1 9:0.0996785 18:1 19:1 21:1 23:1 25:1 28:1 
128 2:1 4:1 6:1 8:1 9:0.144695 18:1 19:1 22:1 23:1 26:1 27:1 29:1 
16.77428578374975 1:1 3:1 5:1 7:1 9:0.0996785 12:1 19:1 21:1 23:1 25:1 28:1 
1.908153957673728 1:1 4:1 6:1 7:1 9:0.115756 18:1 19:1 22:1 23:1 25:1 28:1 
109.8701932646087 1:1 4:1 6:1 7:1 9:0.151125 18:1 19:1 22:1 23:1 25:1 28:1 
6.421551651994529 1:1 3:1 5:1 7:1 9:0.0996785 18:1 19:1 21:1 23:1 26:1 27:0.447214 28:1 
0.8444156909035482 1:1 3:1 5:1 7:1 9:0.0514469 12:1 19:1 21:1 23:1 25:1 28:1 
11.77665273092432 1:1 4:1 6:1 7:1 9:0.0321543 18:1 19:1 21:1 23:1 25:1 28:1 
9.34136662187322 2:1 4:1 6:1 8:1 9:0.0450161 18:1 19:1 22:1 23:1 26:1 27:1 29:1 
46.30862072576672 1:1 4:1 6:1 7:1 9:0.0450161 18:1 19:1 21:1 23:1 25:1 28:1 
4.643318697271593 1:1 3:1 5:1 7:1 9:0.0321543 12:1 19:1 22:1 23:1 26:1 27:0.57735 28:1 
123.4983720568128 2:1 3:1 6:1 8:1 9:0.0353698 18:1 19:1 22:1 23:1 26:1 27:1 29:1 
1.916462883474153 1:1 3:1 5:1 7:1 9:0.0771704 18:1 19:1 22:1 23:1 26:1 27:0.707107 28:1 
128 1:1 3:1 5:1 7:1 9:0.00321543 10:1 19:1 21:1 23:1 25:1 28:1 
122.7649354521056 1:1 3:1 5:1 7:1 9:0.00643087 13:1 19:1 21:1 23:1 25:1 28:1 
128 1:1 3:1 5:1 7:1 9:0.00321543 13:1 19:1 21:1 23:1 25:1 28:1 
2.766210683627168 2:1 3:1 6:1 7:1 9:0.0257235 17:1 20:1 22:1 24:1 26:1 27:0.816497 29:1 
2.165489890504833 1:1 3:1 5:1 7:1 9:0.14791 17:1 19:1 21:1 23:1 25:1 28:1 
128 2:1 3:1 6:1 7:1 9:0.0128617 14:1 20:1 22:1 24:1 26:1 27:1 29:1 
8.816706621606649 1:1 4:1 6:1 7:1 9:0.228296 13:1 19:1 21:1 24:1 25:1 28:1 
128 2:1 3:1 6:1 8:1 18:1 19:1 22:1 23:1 26:1 27:1 29:1 
3.74002843418566 1:1 3:1 5:1 7:1 9:0.205788 18:1 19:1 22:1 23:1 25:1 28:1 
125.8864614430217 2:1 3:1 6:1 8:1 9:0.0160772 18:1 19:1 22:1 23:1 26:1 27:1 29:1 
128 2:1 3:1 6:1 8:1 9:0.0192926 18:1 19:1 22:1 23:1 26:1 27:1 29:1 
128 2:1 3:1 6:1 8:1 9:0.022508 18:1 19:1 22:1 23:1 26:1 27:1 29:1 
80.28791004204847 1:1 3:1 5:1 7:1 9:0.0996785 15:1 19:1 21:1 23:1 25:1 28:1 
0.1849512191677997 1:1 3:1 5:1 7:1 9:0.00643087 18:1 19:1 22:1 23:1 25:1 28:1 
13.51602241738061 2:1 3:1 6:1 8:1 9:0.0996785 18:1 20:1 22:1 23:1 26:1 27:1 29:1 
93.76585087864777 1:1 3:1 5:1 7:1 9:0.00321543 18:1 19:1 22:1 23:1 25:1 28:1 
0.3272577220758822 1:1 3:1 5:1 7:1 9:0.00321543 14:1 19:1 21:1 23:1 25:1 28:1 
128 2:1 3:1 6:1 7:1 9:0.0192926 15:1 19:1 22:1 24:1 26:1 27:0.707107 29:1 
128 2:1 3:1 6:1 7:1 9:0.0096463 15:1 19:1 22:1 24:1 26:1 27:0.707107 29:1 
128 1:1 3:1 5:1 7:1 15:1 19:1 21:1 23:1 25:1 28:1 
63.82999765694713 2:1 3:1 6:1 8:1 9:0.276527 12:1 19:1 22:1 24:1 26:1 27:0.707107 29:1 
124.0621420881591 2:1 3:1 6:1 8:1 9:0.286174 15:1 19:1 22:1 24:1 26:1 27:0.707107 29:1 
13.87661581860151 1:1 3:1 5:1 7:1 14:1 19:1 21:1 23:1 26:1 27:0.408248 28:1 
128 1:1 3:1 5:1 7:1 13:1 20:1 21:1 23:1 26:1 27:0.408248 28:1 
128 2:1 3:1 6:1 7:1 9:0.0096463 13:1 20:1 21:1 24:1 26:1 27:0.5 29:1 
40.75201289048759 2:1 3:1 6:1 7:1 9:0.0128617 16:1 19:1 22:1 24:1 26:1 27:0.707107 29:1 
128 2:1 3:1 6:1 7:1 9:0.247588 10:1 20:1 22:1 24:1 26:1 27:1 29:1 
128 1:1 3:1 5:1 7:1 13:1 19:1 21:1 23:1 25:1 28:1 
0.002917620961043063 1:1 3:1 5:1 7:1 10:1 19:1 21:1 23:1 25:1 28:1 
11.03873033083005 1:1 3:1 5:1 7:1 9:0.163987 16:1 19:1 21:1 23:1 25:1 28:1 
29.16973883615255 2:1 3:1 6:1 7:1 9:0.14791 17:1 19:1 22:1 24:1 26:1 27:0.707107 29:1 
6.609998968998559 2:1 3:1 6:1 7:1 9:0.237942 11:1 20:1 21:1 24:1 26:1 27:0.5 29:1 
58.36809758170038 2:1 3:1 6:1 7:1 9:0.234727 12:1 19:1 22:1 24:1 26:1 27:0.707107 29:1 
42.9460076792355 1:1 3:1 5:1 7:1 9:0.196141 15:1 19:1 21:1 23:1 25:1 28:1 
0.6583618209994542 1:1 3:1 5:1 7:1 9:0.0257235 18:1 19:1 22:1 23:1 25:1 28:1 
65.05676173731433 1:1 3:1 5:1 7:1 9:0.382637 18:1 19:1 22:1 23:1 25:1 28:1 
17.54318304166604 1:1 4:1 6:1 7:1 9:0.594855 18:1 19:1 21:1 23:1 26:1 27:0.316228 28:1 
1.334723505061152 1:1 3:1 5:1 7:1 9:0.327974 16:1 19:1 21:1 23:1 25:1 28:1 
13.61466334724612 1:1 3:1 5:1 7:1 9:0.517685 16:1 19:1 21:1 23:1 25:1 28:1 
65.17910814292713 2:1 3:1 6:1 7:1 9:0.0868167 18:1 19:1 22:1 23:1 26:1 27:1 29:1 
7.266788255725699 1:1 3:1 5:1 7:1 9:0.209003 18:1 19:1 22:1 23:1 25:1 28:1 
5.96104136588176 1:1 3:1 5:1 7:1 9:0.257235 18:1 19:1 22:1 23:1 25:1 28:1 
6.118134000798789 1:1 3:1 5:1 7:1 9:0.289389 18:1 19:1 22:1 23:1 25:1 28:1 
103.3794021380056 2:1 3:1 6:1 8:1 9:0.286174 18:1 19:1 22:1 23:1 26:1 27:1 29:1 
1.987027832440183 1:1 3:1 6:1 7:1 9:0.286174 18:1 19:1 21:1 23:1 25:1 28:1 
5.631072500096304 1:1 3:1 5:1 7:1 9:0.26045 18:1 19:1 22:1 23:1 25:1 28:1 
3.739965552292042 1:1 3:1 5:1 7:1 9:0.199357 18:1 20:1 22:1 23:1 26:1 27:1 29:1 
7.533493425540343 1:1 3:1 5:1 7:1 9:0.215434 18:1 19:1 22:1 23:1 25:1 28:1 
128 2:1 3:1 5:1 7:1 9:0.212219 18:1 19:1 22:1 23:1 26:1 27:1 29:1 
128 2:1 3:1 6:1 8:1 9:0.128617 18:1 20:1 22:1 23:1 26:1 27:1 29:1 
3.513945684855061 2:1 3:1 6:1 7:1 9:0.128617 18:1 20:1 22:1 23:1 26:1 27:1 29:1 
73.91969013048171 2:1 3:1 6:1 7:1 9:0.135048 18:1 19:1 22:1 23:1 26:1 27:1 29:1 
8.408062055812684 1:1 3:1 5:1 7:1 9:0.247588 18:1 19:1 22:1 23:1 25:1 28:1 
128 1:1 3:1 5:1 7:1 9:0.141479 18:1 20:1 22:1 24:1 26:1 27:1 29:1 
107.0501809044353 1:1 3:1 5:1 7:1 9:0.141479 18:1 19:1 21:1 23:1 26:1 27:0.5 28:1 
6.840884607121921 1:1 3:1 5:1 7:1 9:0.327974 17:1 19:1 21:1 23:1 25:1 28:1 
38.66183006866989 1:1 3:1 5:1 7:1 9:0.0675241 17:1 19:1 21:1 23:1 25:1 28:1 
37.49635872438799 1:1 3:1 5:1 7:1 9:0.0675241 11:1 19:1 21:1 23:1 25:1 28:1 
42.79970703242542 1:1 3:1 5:1 7:1 9:0.366559 14:1 20:1 21:1 23:1 26:1 27:0.816497 28:1 
0.6053706923900233 1:1 3:1 5:1 7:1 9:0.26045 15:1 19:1 21:1 23:1 25:1 28:1 
17.33817001200045 1:1 3:1 5:1 7:1 9:0.022508 18:1 19:1 22:1 23:1 26:1 27:0.707107 28:1 
128 1:1 3:1 5:1 7:1 9:0.022508 18:1 20:1 22:1 24:1 26:1 27:1 29:1 
55.64392782222119 1:1 3:1 5:1 7:1 9:0.205788 15:1 19:1 21:1 23:1 25:1 28:1 
128 2:1 3:1 6:1 7:1 18:1 19:1 22:1 23:1 26:1 27:1 29:1 
43.24483121916393 1:1 3:1 5:1 7:1 9:0.205788 15:1 20:1 21:1 23:1 26:1 27:0.267261 28:1 
32.48341705454977 1:1 3:1 5:1 7:1 9:0.244373 15:1 20:1 21:1 23:1 26:1 27:0.267261 28:1 
128 2:1 3:1 6:1 8:1 9:0.0482315 18:1 19:1 22:1 23:1 26:1 27:1 29:1 
5.795516835719119 1:1 3:1 5:1 7:1 9:0.102894 18:1 19:1 22:1 23:1 26:1 27:0.707107 28:1 
23.59739245520024 2:1 3:1 6:1 8:1 9:0.0996785 18:1 19:1 22:1 23:1 26:1 27:1 29:1 
128 1:1 3:1 5:1 7:1 9:0.0096463 18:1 19:1 22:1 23:1 26:1 27:0.707107 28:1 
128 1:1 3:1 5:1 7:1 9:0.00321543 18:1 19:1 21:1 23:1 26:1 27:0.75 28:1 
4.207479349237275 1:1 3:1 5:1 7:1 9:0.073955 15:1 19:1 21:1 23:1 26:1 27:0.377964 28:1 
47.10827377938205 1:1 3:1 5:1 7:1 18:1 19:1 21:1 23:1 26:1 27:0.75 28:1 
2.869287638280613 1:1 3:1 5:1 7:1 9:0.0707395 15:1 19:1 21:1 23:1 26:1 27:0.377964 28:1 
123.5338671847185 1:1 3:1 5:1 7:1 9:0.0418006 15:1 19:1 21:1 23:1 26:1 27:0.377964 28:1 
41.95613255068522 2:1 3:1 6:1 8:1 9:0.0385852 14:1 20:1 21:1 24:1 26:1 27:0.857143 29:1 
52.16481406053887 1:1 4:1 6:1 7:1 9:0.0932476 17:1 19:1 21:1 23:1 26:1 27:0.267261 28:1 
27.35498735530598 1:1 3:1 5:1 7:1 9:0.073955 14:1 19:1 21:1 23:1 26:1 27:0.5 28:1 
119.3286843669353 1:1 3:1 5:1 7:1 9:0.073955 14:1 19:1 21:1 23:1 26:1 27:0.894427 28:1 
42.65127726580226 1:1 3:1 5:1 7:1 9:0.157556 18:1 19:1 22:1 23:1 25:1 28:1 
128 2:1 3:1 6:1 7:1 9:0.0546624 18:1 20:1 22:1 24:1 26:1 27:1 29:1 
37.30444474520493 2:1 3:1 5:1 7:1 16:1 20:1 22:1 24:1 26:1 27:0.707107 29:1 
128 2:1 3:1 6:1 7:1 9:0.173633 18:1 20:1 22:1 24:1 26:1 27:1 29:1 
128 2:1 3:1 6:1 7:1 9:0.266881 18:1 20:1 22:1 24:1 26:1 27:1 29:1 
128 1:1 3:1 5:1 7:1 9:0.221865 12:1 20:1 21:1 23:1 26:1 27:0.57735 28:1 
13.8362555577839 1:1 3:1 5:1 7:1 9:0.0546624 18:1 19:1 22:1 23:1 25:1 28:1 
34.77881790637938 1:1 3:1 5:1 7:1 9:0.0610932 18:1 19:1 22:1 23:1 25:1 28:1 
0.830310647747865 1:1 4:1 6:1 8:1 9:0.0868167 15:1 19:1 21:1 23:1 25:1 28:1 
128 2:1 3:1 6:1 7:1 9:0.0932476 18:1 20:1 22:1 24:1 26:1 27:1 29:1 
90.10007471274248 1:1 4:1 6:1 7:1 9:0.00643087 14:1 20:1 21:1 23:1 26:1 27:0.816497 28:1 
128 2:1 3:1 6:1 8:1 9:0.0096463 14:1 20:1 22:1 24:1 26:1 27:1 29:1 
128 2:1 3:1 6:1 8:1 9:0.00643087 14:1 20:1 22:1 24:1 26:1 27:1 29:1 
128 2:1 3:1 6:1 7:1 9:0.00321543 18:1 20:1 22:1 24:1 26:1 27:1 29:1 
6.532059318646718 2:1 3:1 6:1 7:1 9:0.221865 15:1 20:1 21:1 23:1 26:1 27:0.666667 28:1 
128 2:1 3:1 6:1 7:1 9:0.21865 15:1 20:1 21:1 23:1 26:1 27:0.666667 28:1 
0.2616625214186071 1:1 3:1 5:1 7:1 9:0.0192926 10:1 19:1 21:1 23:1 26:1 27:0.258199 28:1 
128 1:1 3:1 5:1 7:1 9:0.192926 16:1 20:1 22:1 24:1 26:1 27:0.894427 29:1 
2.611005957267297 1:1 3:1 5:1 7:1 9:0.180064 11:1 19:1 21:1 23:1 25:1 28:1 
53.0578847753502 2:1 3:1 6:1 8:1 9:0.186495 17:1 19:1 22:1 24:1 26:1 27:0.707107 29:1 
88.32594953222927 2:1 3:1 6:1 8:1 9:0.250804 14:1 20:1 22:1 24:1 26:1 27:1 29:1 
11.3099820673074 2:1 3:1 6:1 8:1 9:0.327974 14:1 20:1 22:1 24:1 26:1 27:1 29:1 
0.7561208291448542 1:1 3:1 5:1 7:1 9:0.0707395 10:1 19:1 21:1 23:1 26:1 27:0.288675 28:1 
6.651844050371289 1:1 3:1 5:1 7:1 9:0.180064 13:1 20:1 21:1 23:1 26:1 27:0.408248 28:1 
127.7632792366774 1:1 3:1 5:1 7:1 9:0.257235 13:1 20:1 21:1 23:1 26:1 27:0.408248 28:1 
35.2273989675389 1:1 3:1 6:1 7:1 9:0.0160772 18:1 19:1 22:1 23:1 26:1 27:0.707107 28:1 
128 1:1 4:1 6:1 7:1 15:1 20:1 21:1 23:1 26:1 27:0.5 28:1 
128 1:1 3:1 5:1 7:1 9:0.244373 10:1 20:1 22:1 24:1 26:1 27:1 29:1 
105.9848525801549 1:1 3:1 5:1 7:1 9:0.0610932 18:1 19:1 21:1 23:1 26:1 27:0.353553 28:1 
128 1:1 3:1 5:1 7:1 9:0.0707395 15:1 20:1 22:1 24:1 26:1 27:0.894427 29:1 
45.63155674315207 1:1 3:1 5:1 7:1 9:0.135048 15:1 19:1 22:1 23:1 26:1 27:0.5 28:1 
11.0051668800264 2:1 3:1 6:1 8:1 9:0.0450161 18:1 19:1 22:1 23:1 26:1 27:1 29:1 
128 1:1 3:1 5:1 7:1 9:0.0836013 12:1 20:1 22:1 24:1 26:1 27:0.816497 29:1 
1.055405081190338 2:1 3:1 6:1 8:1 9:0.0514469 15:1 19:1 22:1 24:1 26:1 27:0.707107 29:1 
128 2:1 3:1 6:1 8:1 9:0.0321543 18:1 19:1 22:1 23:1 26:1 27:1 29:1 
128 2:1 3:1 6:1 8:1 9:0.00643087 17:1 19:1 22:1 24:1 26:1 27:0.707107 29:1 
110.8241109256588 2:1 3:1 6:1 8:1 9:0.0192926 14:1 20:1 22:1 24:1 26:1 27:1 29:1 
128 1:1 3:1 5:1 7:1 9:0.0418006 14:1 19:1 21:1 23:1 26:1 27:0.5 28:1 
128 2:1 3:1 6:1 7:1 9:0.0578778 15:1 19:1 22:1 24:1 26:1 27:0.707107 29:1 
53.46876575152431 2:1 3:1 6:1 7:1 9:0.0610932 18:1 19:1 22:1 23:1 26:1 27:1 29:1 
128 1:1 4:1 6:1 7:1 9:0.0321543 16:1 19:1 22:1 23:1 26:1 27:0.57735 28:1 
84.13109946418439 1:1 3:1 5:1 7:1 9:0.00321543 13:1 19:1 21:1 23:1 26:1 27:0.25 28:1 
34.26412005953583 1:1 3:1 5:1 7:1 9:0.334405 10:1 20:1 21:1 23:1 26:1 27:0.666667 28:1 
27.43899176224118 1:1 3:1 5:1 7:1 9:0.196141 11:1 19:1 21:1 23:1 25:1 28:1 
6.541358089309267 1:1 3:1 5:1 7:1 9:0.131833 11:1 19:1 21:1 23:1 25:1 28:1 
67.22410794566646 1:1 3:1 5:1 7:1 9:0.115756 10:1 19:1 21:1 23:1 26:1 27:0.333333 28:1 
1.25618160555318 1:1 3:1 5:1 7:1 9:0.0932476 11:1 19:1 21:1 23:1 25:1 28:1 
9.688845346386112 1:1 3:1 5:1 7:1 9:0.102894 11:1 19:1 21:1 23:1 25:1 28:1 
11.27671415553416 1:1 3:1 5:1 7:1 9:0.118971 11:1 19:1 21:1 23:1 25:1 28:1 
37.43258007750002 1:1 3:1 5:1 7:1 9:0.215434 17:1 19:1 21:1 23:1 26:1 27:0.408248 28:1 
4.89727864539578 1:1 3:1 5:1 7:1 9:0.163987 11:1 19:1 21:1 23:1 25:1 28:1 
21.1848098479127 1:1 3:1 5:1 7:1 9:0.14791 11:1 19:1 21:1 23:1 25:1 28:1 
77.2437386640113 1:1 3:1 5:1 7:1 9:0.0771704 14:1 19:1 21:1 23:1 26:1 27:0.408248 28:1 
128 1:1 3:1 5:1 7:1 9:0.0643087 15:1 19:1 22:1 23:1 26:1 27:0.408248 28:1 
2.547717955108088 1:1 3:1 5:1 7:1 9:0.109325 11:1 19:1 21:1 23:1 25:1 28:1 
3.057880483759614 2:1 3:1 6:1 8:1 9:0.199357 15:1 19:1 22:1 24:1 26:1 27:0.707107 29:1 
128 2:1 3:1 6:1 8:1 9:0.199357 12:1 19:1 22:1 24:1 26:1 27:0.707107 29:1 
55.50840481822586 1:1 3:1 5:1 7:1 9:0.096463 15:1 20:1 21:1 23:1 26:1 27:0.258199 28:1 
12.63044654654903 1:1 3:1 5:1 7:1 9:0.135048 10:1 19:1 21:1 23:1 26:1 27:0.333333 28:1 
128 2:1 3:1 6:1 7:1 9:0.0610932 14:1 20:1 21:1 24:1 26:1 27:0.5 29:1 
128 1:1 3:1 5:1 7:1 9:0.00321543 13:1 20:1 21:1 23:1 26:1 27:0.333333 28:1 
42.14517035595286 1:1 3:1 5:1 7:1 9:0.196141 11:1 19:1 21:1 23:1 26:1 27:0.333333 28:1 
1.378429934639162 1:1 3:1 5:1 7:1 9:0.0128617 14:1 19:1 21:1 23:1 26:1 27:0.547723 28:1 
128 2:1 3:1 6:1 7:1 9:0.0096463 14:1 20:1 21:1 24:1 26:1 27:0.5 29:1 
3.649861858881077 1:1 3:1 5:1 7:1 9:0.151125 15:1 19:1 21:1 23:1 26:1 27:0.316228 28:1 
101.0830634523602 2:1 3:1 6:1 7:1 9:0.0321543 14:1 20:1 22:1 24:1 26:1 27:1 29:1 
128 1:1 3:1 5:1 7:1 9:0.00321543 13:1 20:1 21:1 23:1 26:1 27:0.408248 28:1 
128 2:1 3:1 6:1 7:1 9:0.0257235 14:1 20:1 22:1 24:1 26:1 27:1 29:1 
128 2:1 3:1 6:1 8:1 9:0.0353698 14:1 20:1 22:1 24:1 26:1 27:1 29:1 
128 2:1 3:1 6:1 7:1 9:0.00643087 17:1 20:1 22:1 24:1 26:1 27:0.816497 29:1 
128 2:1 3:1 6:1 8:1 9:0.321543 18:1 19:1 22:1 23:1 26:1 27:1 29:1 
128 2:1 3:1 6:1 8:1 9:0.212219 18:1 20:1 22:1 23:1 26:1 27:1 29:1 
121.6071781464706 2:1 3:1 6:1 8:1 9:0.250804 18:1 20:1 22:1 23:1 26:1 27:1 29:1 
24.60526442526578 1:1 3:1 5:1 7:1 9:0.324759 12:1 19:1 21:1 23:1 26:1 27:0.5 28:1 
48.39991130158722 1:1 3:1 5:1 7:1 9:0.536977 18:1 19:1 21:1 24:1 26:1 27:0.5 28:1 
128 1:1 3:1 5:1 7:1 9:0.540193 18:1 19:1 21:1 24:1 26:1 27:0.5 28:1 
128 1:1 3:1 5:1 7:1 9:0.543408 18:1 19:1 21:1 24:1 26:1 27:0.5 28:1 
6.193902267627354 1:1 3:1 5:1 7:1 9:0.176849 18:1 20:1 21:1 23:1 26:1 27:0.5 28:1 
25.2240472616008 1:1 3:1 5:1 7:1 9:0.517685 18:1 19:1 22:1 23:1 25:1 28:1 
8.746310028823126 1:1 3:1 5:1 7:1 9:0.594855 18:1 19:1 22:1 23:1 25:1 28:1 
0.5440184090370116 2:1 3:1 6:1 7:1 9:0.14791 18:1 20:1 22:1 23:1 26:1 27:1 29:1 
40.42766557720486 2:1 3:1 6:1 8:1 9:0.0385852 18:1 20:1 22:1 23:1 26:1 27:1 29:1 
0.3751229761241889 2:1 3:1 6:1 7:1 9:0.0385852 18:1 19:1 22:1 23:1 26:1 27:1 29:1 
128 2:1 3:1 6:1 8:1 9:0.0257235 18:1 19:1 22:1 23:1 26:1 27:1 29:1 
71.16210824679524 1:1 4:1 6:1 7:1 9:0.305466 18:1 19:1 22:1 23:1 26:1 27:0.707107 28:1 
128 1:1 4:1 6:1 7:1 9:0.29582 18:1 19:1 22:1 23:1 26:1 27:0.707107 28:1 
17.52289484232391 1:1 4:1 6:1 7:1 9:0.302251 18:1 19:1 22:1 23:1 26:1 27:0.707107 28:1 
44.96243147018543 1:1 4:1 6:1 7:1 9:0.292605 18:1 19:1 22:1 23:1 26:1 27:0.707107 28:1 
59.52139509405747 1:1 4:1 6:1 7:1 9:0.237942 18:1 19:1 22:1 23:1 26:1 27:0.707107 28:1 
128 1:1 4:1 6:1 7:1 9:0.241158 18:1 19:1 22:1 23:1 26:1 27:0.707107 28:1 
15.71336314721401 1:1 3:1 5:1 7:1 9:0.022508 14:1 20:1 21:1 23:1 26:1 27:0.447214 28:1 
0.7177651452967297 1:1 3:1 5:1 7:1 9:0.0192926 15:1 20:1 21:1 23:1 26:1 27:0.258199 28:1 
1.299116401293037 1:1 3:1 5:1 7:1 9:0.26045 16:1 19:1 21:1 23:1 25:1 28:1 
128 2:1 3:1 6:1 7:1 9:0.00321543 18:1 20:1 22:1 24:1 26:1 27:1 29:1 
128 2:1 3:1 6:1 7:1 9:0.00643087 18:1 20:1 22:1 24:1 26:1 27:1 29:1 
128 2:1 3:1 6:1 7:1 9:0.446945 18:1 20:1 22:1 24:1 26:1 27:1 29:1 
128 2:1 3:1 6:1 7:1 9:0.44373 18:1 20:1 22:1 24:1 26:1 27:1 29:1 
128 2:1 3:1 6:1 7:1 9:0.440514 18:1 20:1 22:1 24:1 26:1 27:1 29:1 
128 1:1 3:1 5:1 7:1 9:0.125402 18:1 20:1 22:1 24:1 26:1 27:1 29:1 
1.337130174308196 1:1 3:1 5:1 7:1 9:0.250804 17:1 19:1 21:1 23:1 26:1 27:0.333333 28:1 
12.50851094914668 2:1 3:1 6:1 8:1 9:0.395498 14:1 20:1 22:1 24:1 26:1 27:1 29:1 
6.591994247097966 1:1 3:1 5:1 7:1 9:0.160772 17:1 19:1 21:1 23:1 26:1 27:0.353553 28:1 
128 2:1 3:1 6:1 7:1 9:0.231511 17:1 20:1 22:1 24:1 26:1 27:0.866025 29:1 
128 2:1 3:1 6:1 7:1 9:0.273312 13:1 20:1 21:1 24:1 26:1 27:0.5 29:1 
29.65963492845474 2:1 3:1 6:1 7:1 9:0.276527 13:1 20:1 21:1 24:1 26:1 27:0.5 29:1 
6.246744985869633 1:1 3:1 5:1 7:1 9:0.0578778 18:1 19:1 21:1 23:1 26:1 27:0.25 28:1 
11.60389344950266 1:1 3:1 5:1 7:1 9:0.106109 15:1 19:1 21:1 23:1 26:1 27:0.25 28:1 
128 2:1 3:1 5:1 7:1 9:0.327974 16:1 19:1 22:1 24:1 26:1 27:0.707107 29:1 
7.72238210817381 2:1 3:1 6:1 7:1 9:0.0289389 18:1 20:1 22:1 23:1 26:1 27:1 29:1 
128 2:1 3:1 6:1 7:1 9:0.135048 12:1 20:1 22:1 24:1 26:1 27:0.707107 29:1 
128 2:1 3:1 5:1 7:1 9:0.228296 18:1 19:1 22:1 23:1 26:1 27:1 29:1 
17.33113066881453 1:1 4:1 6:1 7:1 9:0.0707395 18:1 19:1 22:1 23:1 25:1 28:1 
57.98736060959784 2:1 3:1 6:1 7:1 9:0.106109 12:1 20:1 22:1 24:1 26:1 27:0.707107 29:1 
32.28249803378423 2:1 4:1 6:1 7:1 9:0.00643087 17:1 20:1 22:1 24:1 26:1 27:0.816497 29:1 
120.1830203066682 1:1 4:1 6:1 7:1 9:0.0128617 18:1 19:1 22:1 23:1 25:1 28:1 
128 2:1 4:1 6:1 8:1 9:0.0321543 18:1 19:1 22:1 23:1 26:1 27:1 29:1 
5.41648442388305 1:1 4:1 6:1 7:1 9:0.0192926 18:1 19:1 22:1 23:1 25:1 28:1 
128 1:1 3:1 5:1 7:1 18:1 19:1 22:1 23:1 26:1 27:1 29:1 
2.097380137343523 1:1 3:1 5:1 7:1 9:0.0643087 13:1 20:1 21:1 23:1 26:1 27:0.408248 28:1 
128 2:1 3:1 6:1 7:1 9:0.157556 16:1 20:1 22:1 24:1 26:1 27:0.707107 29:1 
128 2:1 3:1 6:1 7:1 9:0.173633 16:1 20:1 22:1 24:1 26:1 27:0.707107 29:1 
127.0715456721539 1:1 3:1 5:1 7:1 9:0.0868167 14:1 19:1 22:1 23:1 26:1 27:0.816497 28:1 
128 2:1 3:1 5:1 7:1 9:0.0450161 18:1 19:1 22:1 23:1 26:1 27:1 29:1 
1.38691272513971 1:1 3:1 5:1 7:1 9:0.0707395 15:1 19:1 21:1 23:1 26:1 27:0.408248 28:1 
103.2157638915754 2:1 4:1 6:1 8:1 9:0.00643087 18:1 19:1 22:1 23:1 26:1 27:1 29:1 
128 1:1 3:1 5:1 7:1 9:0.0385852 18:1 20:1 22:1 23:1 26:1 27:0.707107 28:1 
1.323178377863637 2:1 3:1 6:1 7:1 9:0.154341 18:1 20:1 22:1 23:1 26:1 27:1 29:1 
0.9557435630282249 2:1 4:1 6:1 8:1 9:0.0514469 18:1 19:1 21:1 23:1 25:1 28:1 
8.647744567272319 1:1 4:1 6:1 7:1 17:1 19:1 21:1 23:1 25:1 28:1 
60.44872186545665 2:1 3:1 6:1 8:1 9:0.0996785 14:1 20:1 21:1 24:1 26:1 27:0.666667 29:1 
29.57363111011579 1:1 3:1 5:1 7:1 9:0.0160772 14:1 19:1 21:1 23:1 26:1 27:0.3849 28:1 
74.10288574016744 1:1 3:1 5:1 7:1 9:0.0160772 15:1 19:1 22:1 23:1 26:1 27:0.333333 28:1 
6.244387879621455 1:1 4:1 5:1 7:1 9:0.022508 18:1 19:1 22:1 23:1 26:1 27:0.707107 28:1 
7.808145675493688 1:1 3:1 5:1 7:1 9:0.0160772 17:1 19:1 22:1 23:1 26:1 27:0.208514 28:1 
128 2:1 4:1 6:1 8:1 9:0.0514469 18:1 19:1 22:1 23:1 26:1 27:1 29:1 
128 1:1 3:1 5:1 7:1 9:0.0514469 18:1 20:1 22:1 24:1 26:1 27:1 29:1 
82.01055433830558 1:1 4:1 5:1 7:1 9:0.167203 15:1 19:1 22:1 23:1 26:1 27:0.57735 28:1 
128 2:1 4:1 6:1 8:1 9:0.0192926 18:1 19:1 22:1 23:1 26:1 27:1 29:1 
0.9415336141930799 2:1 3:1 6:1 8:1 9:0.0932476 18:1 20:1 22:1 23:1 26:1 27:1 29:1 
128 2:1 3:1 6:1 8:1 9:0.0803859 18:1 19:1 22:1 23:1 26:1 27:1 29:1 
122.9401242516155 2:1 3:1 6:1 8:1 9:0.0289389 18:1 20:1 22:1 23:1 26:1 27:1 29:1 
43.580141184583 1:1 4:1 5:1 7:1 9:0.0643087 15:1 19:1 22:1 23:1 26:1 27:0.57735 28:1 
124.1545058961141 1:1 4:1 5:1 7:1 9:0.0610932 15:1 19:1 22:1 23:1 26:1 27:0.57735 28:1 
5.589704365559644 1:1 4:1 5:1 7:1 9:0.0578778 15:1 19:1 22:1 23:1 26:1 27:0.57735 28:1 
128 1:1 4:1 5:1 7:1 9:0.0546624 15:1 19:1 22:1 23:1 26:1 27:0.57735 28:1 
0.008633050319003155 1:1 4:1 5:1 7:1 9:0.0289389 14:1 19:1 22:1 23:1 26:1 27:0.816497 28:1 
128 2:1 3:1 6:1 7:1 9:0.00321543 14:1 20:1 22:1 24:1 26:1 27:1 29:1 
128 1:1 3:1 5:1 7:1 9:0.0836013 15:1 19:1 21:1 23:1 26:1 27:0.333333 28:1 
0.3029209350160555 1:1 3:1 5:1 7:1 9:0.0546624 14:1 20:1 21:1 23:1 26:1 27:0.57735 28:1 
128 1:1 4:1 6:1 7:1 9:0.118971 18:1 19:1 22:1 23:1 26:1 27:0.707107 28:1 
128 2:1 3:1 6:1 7:1 9:0.356913 18:1 20:1 22:1 24:1 26:1 27:1 29:1 
0.8943048734697561 1:1 3:1 5:1 7:1 9:0.0610932 18:1 20:1 21:1 23:1 26:1 27:0.353553 28:1 
128 1:1 3:1 5:1 7:1 9:0.106109 18:1 19:1 22:1 23:1 26:1 27:0.5 28:1 
35.34119554168326 1:1 3:1 5:1 7:1 9:0.115756 15:1 19:1 21:1 23:1 26:1 27:0.408248 28:1 
62.99459026795373 2:1 4:1 6:1 8:1 18:1 19:1 22:1 23:1 26:1 27:1 29:1 
10.46226286704085 1:1 3:1 5:1 7:1 9:0.0289389 14:1 19:1 21:1 23:1 26:1 27:0.353553 28:1 
64.98720670657768 2:1 3:1 6:1 8:1 9:0.0546624 17:1 20:1 22:1 24:1 26:1 27:0.866025 29:1 
27.64113480954421 2:1 3:1 6:1 8:1 9:0.00643087 15:1 20:1 22:1 24:1 26:1 27:0.816497 29:1 
2.44165087902337 2:1 3:1 6:1 7:1 9:0.106109 18:1 19:1 22:1 23:1 26:1 27:1 29:1 
2.993591616834864 1:1 4:1 6:1 7:1 9:0.0257235 15:1 19:1 21:1 24:1 25:1 28:1 
49.62307302136426 1:1 3:1 5:1 7:1 9:0.0868167 12:1 20:1 21:1 23:1 26:1 27:0.204124 28:1 
7.724053618265834 1:1 3:1 5:1 7:1 9:0.0257235 13:1 19:1 21:1 23:1 26:1 27:0.288675 28:1 
9.987167823044874 1:1 3:1 5:1 7:1 9:0.00643087 10:1 20:1 21:1 23:1 26:1 27:0.57735 28:1 
128 2:1 3:1 6:1 8:1 9:0.0192926 16:1 20:1 22:1 24:1 26:1 27:0.816497 29:1 
89.05594597243503 2:1 3:1 6:1 8:1 9:0.0385852 10:1 20:1 22:1 24:1 26:1 27:1 29:1 
10.64881267258083 1:1 4:1 5:1 7:1 9:0.00321543 15:1 19:1 21:1 23:1 26:1 27:0.223607 28:1 
14.11331305331312 1:1 3:1 6:1 7:1 9:0.135048 16:1 20:1 21:1 23:1 26:1 27:0.5 28:1 
14.12565983412984 2:1 3:1 6:1 8:1 9:0.073955 16:1 20:1 22:1 24:1 26:1 27:0.816497 29:1 
125.910558525561 1:1 3:1 5:1 7:1 9:0.115756 15:1 19:1 21:1 23:1 26:1 27:0.288675 28:1 
1.361400494398454 2:1 3:1 6:1 8:1 9:0.106109 15:1 19:1 22:1 24:1 26:1 27:0.707107 29:1 
128 1:1 3:1 5:1 7:1 9:0.0900322 15:1 19:1 22:1 23:1 26:1 27:0.408248 28:1 
18.68374388564946 1:1 3:1 5:1 7:1 9:0.212219 18:1 20:1 22:1 23:1 26:1 27:0.707107 28:1 
128 1:1 3:1 5:1 7:1 9:0.122186 15:1 20:1 21:1 23:1 26:1 27:0.5 28:1 
33.67570116511543 1:1 3:1 6:1 7:1 9:0.00321543 18:1 19:1 22:1 23:1 26:1 27:0.707107 28:1 
15.10201613038587 2:1 3:1 6:1 7:1 10:1 20:1 21:1 23:1 26:1 27:0.57735 28:1 
128 1:1 4:1 5:1 7:1 9:0.00321543 18:1 19:1 22:1 23:1 26:1 27:0.57735 28:1 
128 2:1 3:1 6:1 7:1 9:0.0803859 18:1 19:1 22:1 23:1 26:1 27:1 29:1 
71.44502474127825 2:1 3:1 6:1 7:1 9:0.14791 12:1 19:1 22:1 24:1 26:1 27:0.707107 29:1 
41.85308888704808 2:1 3:1 6:1 8:1 9:0.0128617 18:1 20:1 22:1 23:1 26:1 27:1 29:1 
128 2:1 3:1 6:1 8:1 9:0.022508 18:1 20:1 22:1 23:1 26:1 27:1 29:1 
17.74651884211977 2:1 3:1 6:1 7:1 9:0.11254 18:1 19:1 22:1 23:1 26:1 27:1 29:1 
128 2:1 3:1 6:1 7:1 9:0.0128617 18:1 20:1 22:1 23:1 26:1 27:1 29:1 
118.4577611429406 2:1 3:1 6:1 7:1 9:0.022508 18:1 20:1 22:1 23:1 26:1 27:1 29:1 
128 1:1 3:1 5:1 7:1 9:0.0289389 18:1 20:1 22:1 24:1 26:1 27:1 29:1 
2.31242044002089 1:1 3:1 5:1 7:1 9:0.231511 18:1 19:1 22:1 23:1 25:1 28:1 
1.28321481591192 1:1 4:1 6:1 8:1 9:0.257235 18:1 19:1 22:1 23:1 25:1 28:1 
128 2:1 3:1 6:1 7:1 9:0.257235 18:1 19:1 22:1 23:1 26:1 27:1 29:1 
10.19147149177394 2:1 3:1 6:1 7:1 9:0.0803859 15:1 19:1 22:1 24:1 26:1 27:0.707107 29:1 
34.05214129649114 1:1 3:1 5:1 7:1 9:0.0514469 12:1 19:1 21:1 23:1 26:1 27:0.25 28:1 
128 2:1 3:1 6:1 7:1 9:0.0707395 15:1 19:1 22:1 24:1 26:1 27:0.707107 29:1 
128 1:1 3:1 5:1 7:1 9:0.022508 13:1 19:1 21:1 23:1 26:1 27:0.25 28:1 
36.32337745951103 1:1 3:1 5:1 7:1 9:0.0289389 13:1 19:1 21:1 23:1 26:1 27:0.25 28:1 
83.04740744473773 1:1 3:1 5:1 7:1 9:0.0353698 13:1 19:1 21:1 23:1 26:1 27:0.204124 28:1 
107.1938512668029 1:1 3:1 5:1 7:1 9:0.0707395 16:1 19:1 21:1 23:1 26:1 27:0.176777 28:1 
17.17064777842608 2:1 3:1 5:1 7:1 9:0.0482315 17:1 19:1 22:1 24:1 26:1 27:0.707107 29:1 
128 2:1 3:1 6:1 7:1 9:0.00321543 13:1 20:1 21:1 24:1 26:1 27:0.5 29:1 
4.142357199973677 1:1 3:1 5:1 7:1 9:0.0096463 13:1 20:1 21:1 23:1 26:1 27:0.408248 28:1 
23.38449732768478 1:1 3:1 5:1 7:1 9:0.106109 15:1 19:1 21:1 23:1 26:1 27:0.353553 28:1 
13.9335183193641 1:1 4:1 6:1 7:1 9:0.00643087 15:1 19:1 21:1 23:1 25:1 28:1 
128 1:1 3:1 5:1 7:1 9:0.0610932 18:1 20:1 22:1 24:1 26:1 27:1 29:1 
14.28046424905507 2:1 3:1 5:1 7:1 9:0.205788 12:1 20:1 22:1 24:1 26:1 27:0.707107 29:1 
5.097536869860551 2:1 3:1 6:1 8:1 9:0.0546624 18:1 20:1 22:1 23:1 26:1 27:1 29:1 
17.12938116697876 1:1 4:1 6:1 7:1 9:0.0707395 18:1 19:1 22:1 23:1 26:1 27:0.707107 28:1 
128 1:1 4:1 6:1 7:1 9:0.0771704 18:1 19:1 22:1 23:1 26:1 27:0.707107 28:1 
128 2:1 4:1 6:1 7:1 9:0.00321543 18:1 20:1 22:1 23:1 26:1 27:1 29:1 
128 2:1 4:1 6:1 7:1 9:0.00643087 18:1 20:1 22:1 23:1 26:1 27:1 29:1 
126.6008385438512 2:1 3:1 6:1 7:1 9:0.00643087 18:1 19:1 22:1 23:1 26:1 27:1 29:1 
127.7264077599334 2:1 3:1 6:1 7:1 9:0.00321543 18:1 20:1 22:1 23:1 26:1 27:1 29:1 
128 2:1 3:1 6:1 7:1 9:0.00643087 18:1 20:1 22:1 23:1 26:1 27:1 29:1 
3.915064380157411 1:1 4:1 6:1 7:1 9:0.0482315 18:1 19:1 22:1 23:1 26:1 27:0.707107 28:1 
128 1:1 3:1 5:1 7:1 9:0.00643087 18:1 19:1 22:1 23:1 26:1 27:1 29:1 
3.594974663165222 1:1 4:1 6:1 7:1 9:0.0257235 18:1 19:1 22:1 23:1 26:1 27:0.707107 28:1 
19.34092256361481 2:1 3:1 5:1 7:1 9:0.0096463 18:1 19:1 22:1 23:1 26:1 27:1 29:1 
128 1:1 4:1 6:1 7:1 9:0.0096463 18:1 19:1 22:1 23:1 26:1 27:0.707107 28:1 
26.15622226788923 1:1 4:1 6:1 7:1 9:0.00321543 18:1 19:1 22:1 23:1 26:1 27:0.707107 28:1 
114.4343153273961 2:1 3:1 5:1 7:1 9:0.0160772 18:1 20:1 22:1 23:1 26:1 27:1 29:1 
128 2:1 3:1 5:1 7:1 9:0.0192926 18:1 20:1 22:1 23:1 26:1 27:1 29:1 
120.9342648533628 2:1 3:1 6:1 7:1 9:0.0096463 18:1 20:1 22:1 23:1 26:1 27:1 29:1 
128 2:1 3:1 6:1 7:1 9:0.0192926 18:1 20:1 22:1 23:1 26:1 27:1 29:1 
62.72878948681097 1:1 3:1 5:1 7:1 9:0.0192926 18:1 19:1 22:1 23:1 26:1 27:1 29:1 
128 1:1 3:1 5:1 7:1 9:0.0160772 18:1 20:1 22:1 24:1 26:1 27:1 29:1 
128 1:1 3:1 5:1 7:1 9:0.0192926 18:1 20:1 22:1 24:1 26:1 27:1 29:1 
128 2:1 3:1 6:1 7:1 9:0.0096463 12:1 20:1 22:1 24:1 26:1 27:0.707107 29:1 
49.0791319440224 2:1 3:1 6:1 7:1 17:1 19:1 22:1 24:1 26:1 27:0.707107 29:1 
128 2:1 3:1 6:1 7:1 9:0.0610932 15:1 19:1 22:1 24:1 26:1 27:0.707107 29:1 
49.0156519598025 1:1 3:1 5:1 7:1 9:0.00321543 15:1 20:1 21:1 23:1 26:1 27:0.5 28:1 
33.95381181259197 1:1 3:1 5:1 7:1 9:0.173633 17:1 19:1 21:1 23:1 26:1 27:0.408248 28:1 
128 1:1 3:1 5:1 7:1 9:0.00321543 13:1 20:1 21:1 23:1 26:1 27:0.288675 28:1 
15.43107336868779 1:1 3:1 5:1 7:1 9:0.196141 13:1 20:1 21:1 23:1 26:1 27:0.408248 28:1 
22.92907365888876 1:1 3:1 5:1 7:1 9:0.141479 10:1 19:1 21:1 23:1 26:1 27:0.288675 28:1 
128 1:1 3:1 5:1 7:1 9:0.0643087 12:1 20:1 21:1 23:1 26:1 27:0.666667 28:1 
37.26522912065483 1:1 3:1 5:1 7:1 9:0.0771704 12:1 19:1 21:1 23:1 26:1 27:0.204124 28:1 
103.7696710754903 1:1 3:1 5:1 7:1 9:0.135048 16:1 19:1 21:1 23:1 26:1 27:0.235702 28:1 
16.44300689580614 2:1 4:1 5:1 7:1 9:0.096463 16:1 19:1 22:1 24:1 26:1 27:0.707107 29:1 
0.9930149089517349 1:1 3:1 5:1 7:1 9:0.125402 10:1 19:1 21:1 23:1 26:1 27:0.316228 28:1 
1.176384775470718 1:1 3:1 5:1 7:1 9:0.154341 14:1 20:1 21:1 23:1 26:1 27:0.57735 28:1 
127.9324694196179 2:1 4:1 6:1 8:1 9:0.0868167 17:1 19:1 22:1 24:1 26:1 27:0.707107 29:1 
128 1:1 3:1 5:1 7:1 9:0.144695 18:1 19:1 21:1 23:1 26:1 27:0.666667 28:1 
48.91225322650772 1:1 3:1 5:1 7:1 9:0.0900322 13:1 20:1 21:1 23:1 26:1 27:0.57735 28:1 
128 2:1 3:1 6:1 7:1 9:0.0128617 13:1 20:1 21:1 24:1 26:1 27:0.666667 29:1 
121.3303431690286 1:1 3:1 5:1 7:1 9:0.0257235 17:1 20:1 22:1 23:1 26:1 27:0.707107 28:1 
128 1:1 3:1 5:1 7:1 9:0.0450161 18:1 20:1 21:1 23:1 26:1 27:0.816497 28:1 
128 2:1 3:1 6:1 7:1 9:0.0192926 18:1 19:1 22:1 23:1 26:1 27:1 29:1 
128 1:1 3:1 5:1 7:1 9:0.0353698 18:1 20:1 22:1 23:1 26:1 27:0.816497 28:1 
128 2:1 3:1 6:1 7:1 9:0.0192926 15:1 20:1 22:1 24:1 26:1 27:0.816497 29:1 
82.47279800353463 2:1 4:1 6:1 8:1 9:0.0643087 18:1 19:1 22:1 23:1 26:1 27:1 29:1 
1.753953480985315 2:1 3:1 6:1 8:1 9:0.0128617 13:1 20:1 21:1 24:1 26:1 27:0.666667 29:1 
128 2:1 3:1 6:1 8:1 9:0.0257235 13:1 20:1 21:1 24:1 26:1 27:0.666667 29:1 
1.482187843381455 1:1 3:1 5:1 7:1 9:0.102894 13:1 19:1 21:1 23:1 26:1 27:0.258199 28:1 
50.23274775667321 1:1 3:1 5:1 7:1 9:0.11254 13:1 19:1 21:1 23:1 26:1 27:0.333333 28:1 
127.5495553172918 2:1 3:1 6:1 8:1 9:0.00321543 13:1 20:1 21:1 24:1 26:1 27:0.666667 29:1 
72.72392997191871 1:1 3:1 5:1 7:1 9:0.102894 13:1 19:1 21:1 23:1 26:1 27:0.333333 28:1 
70.78002522327576 2:1 3:1 6:1 8:1 9:0.0128617 14:1 20:1 22:1 24:1 26:1 27:1 29:1 
128 2:1 3:1 6:1 8:1 9:0.128617 14:1 20:1 22:1 24:1 26:1 27:1 29:1 
3.436317243441113 1:1 3:1 5:1 7:1 9:0.0900322 13:1 19:1 21:1 23:1 26:1 27:0.258199 28:1 
18.07994408232385 1:1 3:1 5:1 7:1 9:0.125402 15:1 19:1 21:1 23:1 26:1 27:0.408248 28:1 
128 1:1 3:1 5:1 7:1 9:0.122186 18:1 19:1 21:1 23:1 26:1 27:0.67082 28:1 
20.67537456137024 1:1 3:1 5:1 7:1 9:0.073955 10:1 19:1 21:1 23:1 26:1 27:0.288675 28:1 
0.8127323236066343 1:1 3:1 5:1 7:1 9:0.0771704 15:1 19:1 21:1 23:1 26:1 27:0.288675 28:1 
6.281122018212042 1:1 4:1 6:1 7:1 9:0.0128617 16:1 19:1 21:1 23:1 25:1 28:1 
10.80764136785631 1:1 3:1 5:1 7:1 9:0.0160772 13:1 19:1 21:1 23:1 26:1 27:0.333333 28:1 
1.728325460342932 1:1 4:1 6:1 7:1 9:0.0096463 18:1 19:1 21:1 23:1 25:1 28:1 
115.0417200924031 1:1 3:1 5:1 7:1 9:0.0160772 12:1 20:1 21:1 23:1 26:1 27:0.57735 28:1 
37.98847920555212 1:1 3:1 5:1 7:1 9:0.00321543 18:1 20:1 21:1 23:1 26:1 27:0.833333 28:1 
1.348098303391739 1:1 3:1 5:1 7:1 9:0.0257235 12:1 19:1 21:1 23:1 26:1 27:0.182574 28:1 
0.2294996248655221 1:1 3:1 5:1 7:1 9:0.022508 12:1 19:1 21:1 23:1 26:1 27:0.182574 28:1 
128 1:1 3:1 5:1 7:1 9:0.0192926 12:1 19:1 21:1 23:1 26:1 27:0.182574 28:1 
27.93667432476161 1:1 3:1 5:1 7:1 9:0.0160772 12:1 19:1 21:1 23:1 26:1 27:0.2 28:1 
128 1:1 3:1 5:1 7:1 9:0.00321543 12:1 19:1 21:1 23:1 26:1 27:0.8 28:1 
128 1:1 3:1 5:1 7:1 9:0.00321543 16:1 20:1 21:1 23:1 26:1 27:0.6 28:1 
128 1:1 3:1 5:1 7:1 16:1 20:1 21:1 23:1 26:1 27:0.57735 28:1 
57.60300593587343 2:1 4:1 6:1 8:1 12:1 19:1 22:1 24:1 26:1 27:0.707107 29:1 
58.41230711499994 2:1 3:1 6:1 7:1 9:0.0257235 18:1 19:1 22:1 23:1 26:1 27:1 29:1 
12.31883953547031 2:1 3:1 6:1 7:1 9:0.00643087 17:1 19:1 22:1 24:1 26:1 27:0.707107 29:1 
120.4935361825788 2:1 3:1 6:1 8:1 9:0.00321543 16:1 19:1 22:1 24:1 26:1 27:0.707107 29:1 
128 2:1 3:1 6:1 7:1 9:0.00321543 16:1 19:1 22:1 24:1 26:1 27:0.707107 29:1 
15.84646197440513 1:1 3:1 5:1 7:1 9:0.176849 15:1 19:1 21:1 23:1 26:1 27:0.408248 28:1 
128 1:1 3:1 5:1 7:1 9:0.00321543 16:1 19:1 22:1 23:1 26:1 27:0.57735 28:1 
0.5161825922695823 1:1 3:1 5:1 7:1 9:0.376206 17:1 19:1 21:1 23:1 25:1 28:1 
128 1:1 3:1 5:1 7:1 9:0.0192926 18:1 20:1 22:1 24:1 26:1 27:1 29:1 
46.68775371300361 1:1 3:1 5:1 7:1 9:0.0128617 18:1 20:1 21:1 23:1 26:1 27:0.288675 28:1 
128 1:1 3:1 5:1 7:1 9:0.022508 18:1 20:1 22:1 24:1 26:1 27:1 29:1 
10.86461988417585 1:1 3:1 5:1 7:1 9:0.273312 18:1 19:1 22:1 23:1 25:1 28:1 
17.14037465834626 2:1 3:1 6:1 7:1 9:0.279743 18:1 19:1 22:1 23:1 26:1 27:1 29:1 
128 2:1 4:1 6:1 8:1 9:0.11254 18:1 19:1 22:1 23:1 26:1 27:1 29:1 
128 2:1 3:1 6:1 8:1 9:0.199357 18:1 19:1 22:1 23:1 26:1 27:1 29:1 
128 2:1 3:1 6:1 7:1 9:0.0160772 18:1 19:1 22:1 23:1 26:1 27:1 29:1 
105.2126074219844 1:1 3:1 5:1 7:1 9:0.0900322 15:1 19:1 21:1 23:1 26:1 27:0.447214 28:1 
112.4100807750478 1:1 3:1 5:1 7:1 10:1 19:1 21:1 23:1 26:1 27:0.258199 28:1 
16.5687641051487 1:1 3:1 5:1 7:1 9:0.163987 10:1 19:1 21:1 23:1 26:1 27:0.333333 28:1 
3.697248562463926 1:1 3:1 5:1 7:1 9:0.0418006 10:1 19:1 21:1 23:1 26:1 27:0.258199 28:1 
128 1:1 3:1 5:1 7:1 9:0.122186 13:1 20:1 21:1 23:1 26:1 27:0.67082 28:1 
128 2:1 3:1 6:1 7:1 9:0.115756 16:1 20:1 22:1 24:1 26:1 27:0.816497 29:1 
12.59933541055501 1:1 3:1 5:1 7:1 9:0.109325 13:1 19:1 21:1 23:1 26:1 27:0.25 28:1 
6.034738770874996 1:1 4:1 6:1 7:1 9:0.0257235 11:1 20:1 21:1 23:1 26:1 27:0.474342 28:1 
7.447366033938867 1:1 3:1 5:1 7:1 9:0.096463 10:1 19:1 21:1 23:1 26:1 27:0.258199 28:1 
110.6204442019531 1:1 3:1 5:1 7:1 9:0.122186 10:1 20:1 21:1 23:1 26:1 27:0.666667 28:1 
4.86060578247761 1:1 4:1 5:1 7:1 17:1 19:1 21:1 24:1 25:1 28:1 
42.5132900628201 2:1 3:1 6:1 8:1 9:0.122186 12:1 19:1 22:1 24:1 26:1 27:0.707107 29:1 
128 2:1 3:1 6:1 8:1 9:0.0321543 10:1 20:1 22:1 24:1 26:1 27:1 29:1 
128 1:1 3:1 5:1 7:1 9:0.0514469 12:1 20:1 22:1 23:1 26:1 27:0.790569 28:1 
128 1:1 3:1 5:1 7:1 9:0.170418 10:1 20:1 21:1 23:1 26:1 27:0.721688 28:1 
16.11097167625796 1:1 3:1 5:1 7:1 9:0.170418 16:1 19:1 21:1 23:1 26:1 27:0.25 28:1 
0.2649087793288814 1:1 3:1 5:1 7:1 9:0.189711 13:1 20:1 21:1 23:1 26:1 27:0.25 28:1 
128 1:1 3:1 5:1 7:1 9:0.154341 18:1 20:1 21:1 23:1 26:1 27:0.666667 28:1 
128 1:1 3:1 5:1 7:1 9:0.154341 15:1 20:1 21:1 23:1 26:1 27:0.57735 28:1 
0.5850022054241054 1:1 3:1 5:1 8:1 9:0.176849 15:1 19:1 21:1 23:1 25:1 28:1 
2.933605661658013 1:1 3:1 5:1 7:1 9:0.0836013 10:1 19:1 21:1 23:1 26:1 27:0.333333 28:1 
36.39290930943029 1:1 3:1 5:1 7:1 9:0.022508 10:1 20:1 21:1 23:1 26:1 27:0.666667 28:1 
128 1:1 3:1 5:1 7:1 15:1 20:1 21:1 23:1 26:1 27:0.57735 28:1 
8.066638243582716 1:1 3:1 5:1 7:1 9:0.00643087 15:1 20:1 22:1 23:1 26:1 27:0.707107 28:1 
128 1:1 3:1 5:1 7:1 9:0.0289389 16:1 20:1 22:1 24:1 26:1 27:0.816497 29:1 
128 2:1 3:1 6:1 7:1 9:0.151125 15:1 20:1 22:1 24:1 26:1 27:0.816497 29:1 
0.4857477478498885 1:1 3:1 5:1 7:1 9:0.11254 10:1 19:1 21:1 23:1 26:1 27:0.308607 28:1 
128 1:1 3:1 5:1 7:1 9:0.0096463 15:1 20:1 21:1 23:1 26:1 27:0.57735 28:1 
128 1:1 3:1 5:1 7:1 9:0.160772 12:1 19:1 21:1 23:1 26:1 27:0.408248 28:1 
128 2:1 3:1 6:1 7:1 9:0.115756 18:1 20:1 22:1 24:1 26:1 27:1 29:1 
28.13451203466095 1:1 3:1 5:1 7:1 9:0.0900322 10:1 19:1 21:1 23:1 26:1 27:0.288675 28:1 
19.9403453825602 2:1 4:1 6:1 7:1 9:0.00321543 18:1 20:1 22:1 24:1 26:1 27:1 29:1 
128 1:1 3:1 5:1 7:1 9:0.118971 18:1 20:1 21:1 23:1 26:1 27:0.666667 28:1 
128 1:1 3:1 5:1 7:1 9:0.0836013 18:1 20:1 22:1 24:1 26:1 27:1 29:1 
1.651843156325958 1:1 4:1 5:1 7:1 9:0.0546624 12:1 20:1 21:1 23:1 26:1 27:0.353553 28:1 
10.6652292487487 2:1 3:1 6:1 8:1 9:0.340836 18:1 20:1 22:1 24:1 26:1 27:1 29:1 
87.91581157099166 1:1 3:1 6:1 7:1 9:0.199357 18:1 19:1 22:1 23:1 26:1 27:0.707107 28:1 
128 1:1 3:1 5:1 7:1 9:0.0803859 18:1 19:1 21:1 23:1 26:1 27:0.666667 28:1 
0.8024437107450899 2:1 3:1 6:1 8:1 9:0.0546624 15:1 19:1 22:1 24:1 26:1 27:0.707107 29:1 
5.510950310929595 2:1 3:1 6:1 8:1 9:0.118971 15:1 19:1 22:1 24:1 26:1 27:0.707107 29:1 
27.39710024758206 1:1 3:1 5:1 7:1 9:0.176849 18:1 20:1 22:1 23:1 26:1 27:0.707107 28:1 
42.57937386349369 1:1 3:1 5:1 7:1 9:0.0675241 18:1 20:1 21:1 23:1 26:1 27:0.288675 28:1 
128 2:1 3:1 6:1 7:1 9:0.192926 17:1 20:1 21:1 23:1 26:1 27:0.666667 28:1 
128 1:1 3:1 5:1 7:1 9:0.0192926 18:1 20:1 22:1 23:1 26:1 27:0.707107 28:1 
128 1:1 3:1 5:1 7:1 9:0.0096463 18:1 20:1 22:1 23:1 26:1 27:0.816497 28:1 
83.3541696032879 1:1 3:1 5:1 7:1 9:0.0160772 18:1 20:1 22:1 23:1 26:1 27:0.816497 28:1 
128 2:1 3:1 6:1 7:1 9:0.167203 18:1 20:1 22:1 24:1 26:1 27:1 29:1 
128 2:1 3:1 6:1 7:1 9:0.154341 16:1 20:1 22:1 24:1 26:1 27:0.707107 29:1 
26.88413293718194 1:1 3:1 5:1 7:1 9:0.209003 16:1 19:1 21:1 23:1 26:1 27:0.5 28:1 
31.11267862478037 1:1 3:1 5:1 7:1 9:0.209003 18:1 20:1 22:1 23:1 26:1 27:0.816497 28:1 
5.65388473784235 1:1 3:1 5:1 7:1 9:0.0610932 12:1 19:1 22:1 23:1 26:1 27:0.57735 28:1 
107.5509381578044 1:1 3:1 5:1 7:1 9:0.0900322 18:1 19:1 22:1 23:1 26:1 27:0.816497 28:1 
128 1:1 3:1 5:1 7:1 9:0.0192926 18:1 20:1 22:1 23:1 26:1 27:0.816497 28:1 
126.3729725410538 1:1 3:1 5:1 7:1 9:0.0289389 12:1 20:1 22:1 24:1 26:1 27:0.816497 29:1 
128 1:1 4:1 6:1 7:1 9:0.0192926 15:1 20:1 21:1 23:1 26:1 27:0.353553 28:1 
4.303726493763474 1:1 3:1 5:1 7:1 9:0.0353698 13:1 20:1 21:1 23:1 26:1 27:0.408248 28:1 
38.64050966175612 1:1 3:1 5:1 7:1 9:0.00643087 18:1 19:1 21:1 23:1 26:1 27:0.223607 28:1 
128 1:1 3:1 5:1 7:1 9:0.279743 18:1 19:1 21:1 23:1 26:1 27:0.67082 28:1 
128 1:1 3:1 5:1 7:1 9:0.231511 18:1 20:1 21:1 23:1 26:1 27:0.707107 28:1 
27.76078576774495 1:1 3:1 5:1 7:1 9:0.176849 14:1 20:1 21:1 23:1 26:1 27:0.666667 28:1 
5.933994472707751 1:1 3:1 5:1 7:1 9:0.0932476 15:1 19:1 21:1 23:1 26:1 27:0.25 28:1 
128 1:1 3:1 5:1 7:1 9:0.0643087 15:1 19:1 21:1 23:1 26:1 27:0.67082 28:1 
35.38893626248068 1:1 3:1 6:1 7:1 9:0.0192926 17:1 20:1 21:1 23:1 26:1 27:0.408248 28:1 
0.9840888696078554 1:1 3:1 5:1 7:1 9:0.106109 18:1 19:1 22:1 23:1 26:1 27:0.707107 28:1 
128 1:1 3:1 5:1 7:1 9:0.118971 15:1 20:1 21:1 23:1 26:1 27:0.5 28:1 
14.3751549705973 1:1 3:1 5:1 7:1 9:0.14791 10:1 19:1 21:1 23:1 26:1 27:0.288675 28:1 
13.78452013674862 2:1 3:1 6:1 8:1 9:0.202572 12:1 20:1 22:1 24:1 26:1 27:0.816497 29:1 
13.72293141995936 2:1 3:1 6:1 8:1 9:0.209003 14:1 20:1 22:1 24:1 26:1 27:1 29:1 
128 2:1 3:1 6:1 8:1 9:0.0128617 15:1 19:1 22:1 24:1 26:1 27:0.707107 29:1 
128 2:1 3:1 6:1 8:1 9:0.0932476 14:1 20:1 22:1 24:1 26:1 27:1 29:1 
0.1310162212526894 1:1 3:1 5:1 7:1 9:0.0707395 15:1 19:1 21:1 23:1 26:1 27:0.316228 28:1 
128 2:1 3:1 6:1 8:1 9:0.0096463 14:1 20:1 22:1 24:1 26:1 27:1 29:1 
128 2:1 3:1 6:1 8:1 9:0.00643087 10:1 20:1 22:1 24:1 26:1 27:1 29:1 
128 1:1 4:1 6:1 7:1 9:0.138264 14:1 20:1 21:1 23:1 26:1 27:0.816497 28:1 
128 1:1 4:1 6:1 7:1 9:0.141479 14:1 20:1 21:1 23:1 26:1 27:0.707107 28:1 
128 1:1 3:1 5:1 7:1 9:0.0353698 16:1 20:1 22:1 24:1 26:1 27:0.866025 29:1 
126.2084832426425 2:1 3:1 6:1 7:1 9:0.0128617 16:1 19:1 21:1 24:1 26:1 27:0.408248 28:1 
1.715816091265977 2:1 4:1 6:1 7:1 9:0.125402 16:1 20:1 21:1 24:1 26:1 27:0.333333 28:1 
38.98992204135484 1:1 3:1 5:1 7:1 9:0.0610932 13:1 19:1 21:1 23:1 26:1 27:0.288675 28:1 
0.9646198428173738 1:1 3:1 5:1 7:1 9:0.00321543 18:1 19:1 22:1 23:1 26:1 27:0.632456 28:1 
87.63461110792288 1:1 3:1 5:1 7:1 9:0.0482315 15:1 19:1 21:1 23:1 26:1 27:0.516398 28:1 
25.07321442236321 1:1 3:1 5:1 7:1 9:0.170418 14:1 20:1 21:1 23:1 26:1 27:0.5 28:1 
88.2949931301914 1:1 3:1 5:1 7:1 9:0.00321543 18:1 19:1 21:1 24:1 26:1 27:0.408248 28:1 
6.058999595200635 1:1 3:1 5:1 7:1 9:0.14791 14:1 20:1 21:1 23:1 26:1 27:0.57735 28:1 
128 1:1 4:1 6:1 7:1 9:0.00643087 17:1 20:1 21:1 23:1 26:1 27:0.408248 28:1 
128 1:1 4:1 5:1 7:1 9:0.180064 12:1 20:1 21:1 23:1 26:1 27:0.408248 28:1 
128 1:1 3:1 5:1 7:1 9:0.0996785 10:1 20:1 22:1 24:1 26:1 27:1 29:1 
128 1:1 3:1 5:1 7:1 9:0.0450161 14:1 20:1 22:1 24:1 26:1 27:1 29:1 
60.71777990011813 1:1 3:1 5:1 7:1 9:0.0160772 15:1 20:1 21:1 23:1 26:1 27:0.5 28:1 
84.30618923734133 1:1 3:1 5:1 7:1 15:1 19:1 22:1 23:1 26:1 27:0.57735 28:1 
15.79063015176525 1:1 4:1 6:1 7:1 9:0.0932476 12:1 19:1 22:1 23:1 26:1 27:0.57735 28:1 
113.2666159426753 1:1 3:1 5:1 7:1 9:0.0996785 18:1 19:1 22:1 23:1 26:1 27:0.57735 28:1 
6.847258904307383 1:1 3:1 5:1 7:1 9:0.376206 16:1 19:1 21:1 23:1 25:1 28:1 
76.56113141148776 2:1 4:1 6:1 8:1 9:0.286174 17:1 19:1 22:1 24:1 26:1 27:0.707107 29:1 
128 2:1 3:1 6:1 8:1 9:0.282958 18:1 19:1 22:1 23:1 26:1 27:1 29:1 
11.20691137890285 2:1 3:1 6:1 8:1 9:0.302251 14:1 20:1 22:1 24:1 26:1 27:1 29:1 
128 2:1 3:1 6:1 8:1 9:0.305466 11:1 20:1 21:1 24:1 26:1 27:0.5 29:1 
16.90585300930582 2:1 3:1 6:1 8:1 9:0.350482 14:1 20:1 21:1 24:1 26:1 27:0.5 29:1 
128 1:1 3:1 5:1 7:1 9:0.0546624 18:1 20:1 21:1 23:1 26:1 27:0.316228 28:1 
36.17655759330124 1:1 4:1 6:1 7:1 9:0.0385852 15:1 19:1 22:1 23:1 26:1 27:0.57735 28:1 
128 2:1 3:1 6:1 8:1 9:0.00321543 11:1 20:1 21:1 24:1 26:1 27:0.5 29:1 
19.03302937423197 1:1 4:1 5:1 7:1 9:0.292605 18:1 19:1 22:1 23:1 25:1 28:1 
128 2:1 3:1 6:1 7:1 9:0.0160772 18:1 20:1 22:1 24:1 26:1 27:1 29:1 
6.476388321795127 1:1 3:1 5:1 7:1 9:0.0900322 18:1 20:1 21:1 23:1 26:1 27:0.316228 28:1 
128 1:1 3:1 5:1 7:1 9:0.0578778 18:1 20:1 22:1 24:1 26:1 27:1 29:1 
128 1:1 3:1 5:1 7:1 9:0.0418006 18:1 19:1 21:1 23:1 26:1 27:0.288675 28:1 
128 1:1 3:1 5:1 7:1 9:0.122186 18:1 20:1 21:1 23:1 26:1 27:0.707107 28:1 
128 1:1 3:1 5:1 7:1 9:0.131833 18:1 20:1 22:1 24:1 26:1 27:1 29:1 
14.45154376335242 1:1 4:1 6:1 7:1 9:0.154341 12:1 20:1 21:1 23:1 26:1 27:0.408248 28:1 
128 1:1 3:1 5:1 7:1 9:0.115756 18:1 20:1 21:1 23:1 26:1 27:0.707107 28:1 
128 1:1 3:1 5:1 7:1 9:0.14791 18:1 20:1 22:1 24:1 26:1 27:1 29:1 
128 1:1 3:1 5:1 7:1 9:0.0932476 18:1 19:1 22:1 23:1 26:1 27:0.5 28:1 
20.8824909869106 1:1 3:1 5:1 7:1 9:0.0932476 16:1 20:1 21:1 23:1 26:1 27:0.5 28:1 
67.37963109738619 1:1 3:1 5:1 7:1 9:0.0096463 18:1 20:1 22:1 23:1 26:1 27:0.707107 28:1 
2.78644953716283 1:1 3:1 5:1 7:1 9:0.0450161 12:1 19:1 21:1 23:1 26:1 27:0.188982 28:1 
128 1:1 3:1 5:1 7:1 13:1 20:1 21:1 23:1 26:1 27:0.333333 28:1 
128 2:1 3:1 6:1 8:1 9:0.0160772 14:1 20:1 22:1 24:1 26:1 27:1 29:1 
128 2:1 3:1 6:1 7:1 9:0.151125 18:1 20:1 22:1 24:1 26:1 27:1 29:1 
79.08511768479993 1:1 3:1 5:1 7:1 9:0.141479 18:1 20:1 22:1 23:1 26:1 27:0.816497 28:1 
56.24850553471887 1:1 3:1 5:1 7:1 9:0.0418006 13:1 19:1 21:1 23:1 26:1 27:0.288675 28:1 
2.824215849147146 1:1 3:1 5:1 7:1 9:0.0610932 15:1 19:1 21:1 23:1 26:1 27:0.408248 28:1 
0.2499999020476967 1:1 3:1 5:1 7:1 9:0.0514469 13:1 19:1 21:1 23:1 26:1 27:0.204124 28:1 
41.6688635870935 1:1 4:1 6:1 7:1 9:0.0353698 14:1 20:1 21:1 23:1 26:1 27:0.218218 28:1 
12.60406516548626 1:1 3:1 5:1 7:1 9:0.0289389 14:1 19:1 21:1 23:1 26:1 27:0.471405 28:1 
64.17526617422105 1:1 3:1 5:1 7:1 9:0.0321543 14:1 19:1 21:1 23:1 26:1 27:0.436436 28:1 
2.423519263986742 1:1 3:1 5:1 7:1 9:0.0385852 14:1 19:1 21:1 23:1 26:1 27:0.5 28:1 
3.573747998964353 1:1 3:1 5:1 7:1 9:0.11254 18:1 19:1 22:1 23:1 26:1 27:0.707107 28:1 
128 2:1 3:1 6:1 8:1 9:0.0192926 18:1 20:1 22:1 23:1 26:1 27:1 29:1 
128 2:1 3:1 6:1 7:1 9:0.0096463 15:1 20:1 22:1 24:1 26:1 27:0.707107 29:1 
128 1:1 3:1 5:1 7:1 9:0.0482315 18:1 20:1 22:1 24:1 26:1 27:1 29:1 
128 1:1 3:1 5:1 7:1 9:0.0385852 18:1 20:1 22:1 24:1 26:1 27:1 29:1 
7.236528272393483 1:1 3:1 5:1 7:1 9:0.109325 12:1 19:1 21:1 23:1 26:1 27:0.316228 28:1 
2.530540140133481 1:1 4:1 6:1 7:1 9:0.0257235 16:1 19:1 22:1 24:1 25:1 28:1 
42.55087712616972 1:1 3:1 5:1 7:1 9:0.0257235 18:1 20:1 22:1 23:1 26:1 27:0.816497 28:1 
128 2:1 3:1 6:1 7:1 9:0.0128617 16:1 20:1 22:1 24:1 26:1 27:0.816497 29:1 
3.140047126543188 1:1 4:1 5:1 7:1 9:0.00643087 12:1 19:1 21:1 23:1 26:1 27:0.288675 28:1 
125.3611567464649 1:1 3:1 5:1 7:1 9:0.157556 18:1 19:1 22:1 23:1 26:1 27:0.408248 28:1 
5.122140908963527 1:1 3:1 5:1 7:1 9:0.125402 13:1 19:1 21:1 23:1 26:1 27:0.288675 28:1 
42.20849103862828 2:1 3:1 6:1 8:1 9:0.247588 17:1 20:1 22:1 24:1 26:1 27:0.816497 29:1 
1.38311182006221 2:1 3:1 6:1 7:1 9:0.180064 12:1 19:1 22:1 24:1 26:1 27:0.707107 29:1 
128 1:1 3:1 5:1 7:1 9:0.0610932 15:1 20:1 21:1 23:1 26:1 27:0.223607 28:1 
128 2:1 3:1 6:1 8:1 9:0.154341 15:1 19:1 22:1 24:1 26:1 27:0.707107 29:1 
128 1:1 3:1 5:1 7:1 9:0.0353698 18:1 20:1 22:1 24:1 26:1 27:1 29:1 
128 2:1 3:1 6:1 7:1 9:0.0482315 15:1 20:1 22:1 24:1 26:1 27:0.707107 29:1 
4.641746767850774 2:1 3:1 6:1 7:1 9:0.141479 18:1 20:1 22:1 23:1 26:1 27:1 29:1 
126.9327579694117 2:1 3:1 6:1 8:1 9:0.0192926 15:1 19:1 22:1 24:1 26:1 27:0.707107 29:1 
128 2:1 3:1 6:1 7:1 9:0.0128617 15:1 20:1 22:1 24:1 26:1 27:0.707107 29:1 
39.30686840184769 1:1 3:1 5:1 7:1 9:0.0160772 14:1 20:1 21:1 23:1 26:1 27:0.516398 28:1 
17.78910469023125 2:1 3:1 6:1 8:1 9:0.0996785 14:1 20:1 22:1 24:1 26:1 27:1 29:1 
128 2:1 3:1 6:1 8:1 9:0.0707395 17:1 19:1 22:1 24:1 26:1 27:0.707107 29:1 
113.5843204588347 1:1 3:1 5:1 7:1 9:0.00643087 14:1 20:1 22:1 24:1 26:1 27:1 29:1 
128 1:1 3:1 5:1 7:1 9:0.0257235 14:1 20:1 22:1 24:1 26:1 27:1 29:1 
7.307408074571886 1:1 3:1 5:1 7:1 17:1 19:1 22:1 23:1 26:1 27:0.5 28:1 
128 1:1 3:1 5:1 7:1 9:0.0192926 14:1 20:1 22:1 24:1 26:1 27:1 29:1 
128 2:1 3:1 6:1 8:1 9:0.00643087 15:1 19:1 22:1 24:1 26:1 27:0.707107 29:1 
128 2:1 3:1 6:1 8:1 9:0.0160772 15:1 19:1 22:1 24:1 26:1 27:0.707107 29:1 
27.48366923301334 1:1 3:1 5:1 7:1 9:0.0643087 18:1 20:1 22:1 23:1 26:1 27:0.816497 28:1 
128 1:1 3:1 5:1 7:1 9:0.0096463 12:1 20:1 22:1 24:1 26:1 27:0.866025 29:1 
128 1:1 3:1 5:1 7:1 9:0.0482315 18:1 20:1 22:1 24:1 26:1 27:1 29:1 
45.39142368078798 1:1 3:1 6:1 7:1 9:0.11254 18:1 19:1 22:1 23:1 26:1 27:0.707107 28:1 
128 2:1 3:1 6:1 7:1 9:0.0353698 18:1 20:1 22:1 24:1 26:1 27:1 29:1 
56.6214992572575 2:1 3:1 6:1 8:1 9:0.221865 14:1 20:1 21:1 24:1 26:1 27:0.471405 29:1 
7.7550783251855 1:1 3:1 6:1 7:1 9:0.0771704 18:1 19:1 22:1 23:1 26:1 27:0.707107 28:1 
128 1:1 3:1 5:1 7:1 9:0.151125 12:1 19:1 21:1 23:1 26:1 27:0.5 28:1 
10.66174221416014 1:1 3:1 5:1 7:1 9:0.189711 15:1 19:1 21:1 23:1 26:1 27:0.57735 28:1 
112.782497585885 1:1 3:1 5:1 7:1 15:1 20:1 21:1 23:1 26:1 27:0.25 28:1 
8.411767588798773 2:1 3:1 6:1 7:1 16:1 20:1 21:1 23:1 26:1 27:0.408248 28:1 
6.863835692409937 1:1 3:1 5:1 7:1 9:0.106109 10:1 19:1 21:1 23:1 26:1 27:0.288675 28:1 
27.08351273479886 1:1 3:1 5:1 7:1 9:0.141479 15:1 19:1 21:1 23:1 26:1 27:0.288675 28:1 
23.75366701480194 2:1 3:1 6:1 8:1 9:0.212219 15:1 19:1 22:1 24:1 26:1 27:0.707107 29:1 
128 2:1 3:1 6:1 8:1 9:0.180064 18:1 19:1 22:1 23:1 26:1 27:1 29:1 
128 1:1 3:1 5:1 7:1 9:0.0128617 16:1 20:1 22:1 23:1 26:1 27:0.707107 28:1 
120.1121191892405 1:1 3:1 5:1 7:1 9:0.0385852 13:1 20:1 21:1 23:1 26:1 27:0.57735 28:1 
0.9390591643754188 2:1 3:1 6:1 8:1 9:0.0096463 14:1 19:1 21:1 24:1 26:1 27:0.603023 29:1 
128 2:1 4:1 6:1 7:1 9:0.14791 16:1 20:1 22:1 24:1 26:1 27:0.816497 29:1 
21.14577030121959 1:1 3:1 5:1 7:1 9:0.192926 10:1 20:1 21:1 23:1 26:1 27:0.666667 28:1 
1.774132852070836 1:1 3:1 5:1 7:1 9:0.196141 13:1 20:1 21:1 23:1 26:1 27:0.333333 28:1 
128 2:1 3:1 6:1 7:1 18:1 20:1 22:1 24:1 26:1 27:1 29:1 
42.32603674545283 2:1 3:1 6:1 8:1 18:1 20:1 22:1 23:1 26:1 27:1 29:1 
109.4107115837967 2:1 3:1 6:1 8:1 9:0.363344 18:1 19:1 22:1 23:1 26:1 27:1 29:1 
5.170614701950345 2:1 3:1 6:1 8:1 9:0.0321543 10:1 20:1 22:1 24:1 26:1 27:0.612372 29:1 
57.48829800238909 1:1 3:1 5:1 7:1 9:0.173633 10:1 20:1 22:1 24:1 26:1 27:1 29:1 
93.12084626326913 2:1 3:1 6:1 8:1 9:0.096463 17:1 19:1 22:1 24:1 26:1 27:0.707107 29:1 
128 2:1 3:1 6:1 8:1 9:0.0900322 17:1 19:1 22:1 24:1 26:1 27:0.707107 29:1 
51.48777567516981 1:1 3:1 5:1 7:1 9:0.0546624 14:1 20:1 21:1 23:1 26:1 27:0.816497 28:1 
10.41923146214249 1:1 3:1 6:1 7:1 9:0.00321543 15:1 20:1 21:1 23:1 26:1 27:0.5 28:1 
92.27629422735987 2:1 3:1 6:1 8:1 9:0.00321543 15:1 19:1 22:1 24:1 26:1 27:0.707107 29:1 
83.49510593553637 1:1 3:1 5:1 7:1 9:0.0096463 12:1 19:1 22:1 23:1 26:1 27:0.57735 28:1 
128 2:1 3:1 6:1 8:1 9:0.22508 17:1 19:1 22:1 24:1 26:1 27:0.707107 29:1 
8.952675894443615 2:1 3:1 6:1 8:1 9:0.234727 14:1 20:1 22:1 24:1 26:1 27:1 29:1 
98.31378961993278 2:1 4:1 6:1 7:1 9:0.244373 14:1 20:1 22:1 24:1 26:1 27:1 29:1 
23.84742283505609 1:1 3:1 5:1 7:1 9:0.163987 18:1 20:1 21:1 23:1 26:1 27:0.5 28:1 
1.115761788167851 1:1 3:1 5:1 7:1 9:0.0675241 15:1 19:1 21:1 23:1 26:1 27:0.333333 28:1 
128 2:1 3:1 6:1 8:1 9:0.0096463 15:1 19:1 22:1 24:1 26:1 27:0.707107 29:1 
10.70397568924694 2:1 3:1 6:1 8:1 9:0.0192926 10:1 20:1 21:1 24:1 26:1 27:0.447214 29:1 
125.8352321503005 1:1 3:1 5:1 7:1 9:0.29582 15:1 20:1 21:1 23:1 26:1 27:0.5 28:1 
39.74589105923922 2:1 3:1 6:1 7:1 9:0.163987 15:1 20:1 21:1 24:1 26:1 27:0.57735 29:1 
2.262526514210441 1:1 3:1 5:1 7:1 9:0.189711 18:1 19:1 22:1 23:1 25:1 28:1 
16.22293587906557 2:1 3:1 6:1 8:1 9:0.0096463 10:1 20:1 22:1 24:1 26:1 27:1 29:1 
128 2:1 3:1 6:1 7:1 9:0.00643087 14:1 20:1 22:1 24:1 26:1 27:1 29:1 
128 2:1 3:1 6:1 7:1 9:0.00321543 14:1 20:1 22:1 24:1 26:1 27:1 29:1 
128 1:1 3:1 5:1 7:1 9:0.0418006 18:1 20:1 22:1 24:1 26:1 27:1 29:1 
95.05114129683867 1:1 4:1 5:1 7:1 9:0.0096463 15:1 20:1 21:1 23:1 26:1 27:0.408248 28:1 
128 1:1 3:1 5:1 7:1 9:0.115756 18:1 20:1 22:1 24:1 26:1 27:1 29:1 
11.03670351416801 1:1 3:1 5:1 7:1 9:0.128617 15:1 20:1 22:1 24:1 26:1 27:0.816497 29:1 
128 2:1 3:1 6:1 7:1 9:0.0450161 10:1 20:1 22:1 24:1 26:1 27:1 29:1 
27.8640429711667 1:1 3:1 5:1 7:1 9:0.196141 15:1 19:1 21:1 23:1 26:1 27:0.5 28:1 
128 1:1 3:1 5:1 7:1 9:0.0128617 16:1 20:1 21:1 23:1 26:1 27:0.57735 28:1 
128 1:1 3:1 5:1 7:1 9:0.279743 16:1 20:1 21:1 23:1 26:1 27:0.57735 28:1 
35.33855017141756 1:1 3:1 5:1 7:1 9:0.270096 17:1 20:1 21:1 23:1 26:1 27:0.258199 28:1 
99.7470284342136 2:1 3:1 6:1 8:1 9:0.221865 18:1 19:1 22:1 23:1 26:1 27:1 29:1 
47.96979418318931 1:1 3:1 5:1 7:1 9:0.0900322 18:1 20:1 21:1 23:1 26:1 27:0.353553 28:1 
7.412655764558759 1:1 3:1 5:1 7:1 9:0.176849 18:1 20:1 21:1 23:1 26:1 27:0.288675 28:1 
3.446653766360808 1:1 3:1 5:1 7:1 9:0.141479 18:1 20:1 21:1 23:1 26:1 27:0.408248 28:1 
128 1:1 3:1 5:1 7:1 9:0.170418 12:1 19:1 21:1 23:1 26:1 27:0.408248 28:1 
99.27818862935251 1:1 3:1 5:1 7:1 9:0.0771704 13:1 19:1 21:1 24:1 25:1 28:1 
7.429720063394119 1:1 3:1 5:1 7:1 9:0.11254 15:1 20:1 21:1 23:1 26:1 27:0.258199 28:1 
61.55012437882072 1:1 3:1 5:1 7:1 9:0.115756 18:1 20:1 21:1 23:1 26:1 27:0.258199 28:1 
128 2:1 3:1 6:1 8:1 9:0.0836013 17:1 19:1 22:1 24:1 26:1 27:0.707107 29:1 
6.34554980918538 1:1 3:1 5:1 7:1 9:0.00643087 17:1 20:1 21:1 23:1 26:1 27:0.223607 28:1 
22.20858227468135 2:1 3:1 6:1 8:1 9:0.0096463 17:1 20:1 21:1 24:1 26:1 27:0.316228 29:1 
74.61515425992681 1:1 3:1 5:1 7:1 9:0.073955 14:1 20:1 21:1 23:1 26:1 27:0.447214 28:1 
128 1:1 3:1 5:1 7:1 9:0.00321543 12:1 19:1 22:1 23:1 26:1 27:0.57735 28:1 
128 2:1 3:1 6:1 7:1 9:0.00321543 15:1 20:1 22:1 24:1 26:1 27:0.816497 29:1 
6.975170966206039 1:1 3:1 5:1 7:1 9:0.469453 11:1 20:1 21:1 24:1 26:1 27:0.666667 29:1 
6.918857942673134 2:1 4:1 6:1 7:1 9:0.0096463 18:1 20:1 22:1 23:1 26:1 27:1 29:1 
128 1:1 3:1 5:1 7:1 9:0.315113 12:1 19:1 21:1 23:1 26:1 27:0.816497 28:1 
128 1:1 3:1 5:1 7:1 9:0.199357 18:1 20:1 22:1 24:1 26:1 27:1 29:1 
3.004580756748843 1:1 3:1 5:1 7:1 18:1 19:1 21:1 24:1 25:1 28:1 
128 2:1 3:1 6:1 7:1 9:0.106109 15:1 20:1 22:1 24:1 26:1 27:0.816497 29:1 
114.0216721142994 2:1 3:1 6:1 8:1 9:0.11254 18:1 20:1 22:1 23:1 26:1 27:1 29:1 
19.07862569652257 2:1 3:1 6:1 8:1 9:0.00643087 11:1 20:1 22:1 24:1 26:1 27:0.894427 29:1 
5.658982928046079 1:1 3:1 5:1 7:1 9:0.289389 17:1 19:1 21:1 23:1 26:1 27:0.353553 28:1 
119.5288574347658 1:1 3:1 5:1 7:1 9:0.672026 17:1 20:1 21:1 23:1 26:1 27:0.353553 28:1 
5.005935695263405 1:1 3:1 5:1 7:1 9:0.305466 16:1 19:1 21:1 23:1 26:1 27:0.182574 28:1 
92.35018816593264 1:1 3:1 5:1 7:1 9:0.665595 16:1 20:1 21:1 23:1 26:1 27:0.316228 28:1 
6.432985429950162 2:1 3:1 6:1 7:1 9:0.353698 18:1 19:1 21:1 23:1 25:1 28:1 
8.375904964797554 2:1 3:1 6:1 8:1 9:0.581994 18:1 19:1 22:1 23:1 26:1 27:1 29:1 
65.60596131259479 2:1 3:1 6:1 7:1 9:0.578778 18:1 20:1 22:1 23:1 26:1 27:1 29:1 
10.4220851162773 2:1 3:1 6:1 7:1 9:0.495177 18:1 19:1 22:1 23:1 26:1 27:1 29:1 
16.91284569156567 2:1 3:1 6:1 7:1 9:0.205788 18:1 20:1 22:1 23:1 26:1 27:1 29:1 
23.71876713451774 1:1 3:1 5:1 7:1 9:0.163987 10:1 19:1 21:1 23:1 26:1 27:0.288675 28:1 
92.15347362518399 1:1 3:1 5:1 7:1 9:0.128617 10:1 20:1 21:1 23:1 26:1 27:0.894427 28:1 
128 1:1 3:1 5:1 7:1 9:0.163987 13:1 20:1 21:1 23:1 26:1 27:0.676123 28:1 
2.160718143302527 2:1 4:1 6:1 7:1 9:0.128617 18:1 19:1 22:1 23:1 26:1 27:1 29:1 
106.3668929136712 2:1 3:1 6:1 8:1 9:0.00643087 15:1 20:1 21:1 24:1 26:1 27:0.771517 29:1 
128 1:1 3:1 5:1 7:1 9:0.160772 12:1 20:1 21:1 23:1 26:1 27:0.617213 28:1 
81.48059431243803 1:1 3:1 5:1 7:1 9:0.0900322 15:1 19:1 21:1 23:1 26:1 27:0.267261 28:1 
10.08942035063977 1:1 3:1 5:1 7:1 9:0.0353698 13:1 20:1 21:1 23:1 26:1 27:0.566947 28:1 
0.9095004720858763 1:1 3:1 5:1 7:1 9:0.0321543 10:1 19:1 21:1 23:1 26:1 27:0.288675 28:1 
100.3447884032216 1:1 3:1 5:1 7:1 9:0.00321543 14:1 20:1 21:1 23:1 26:1 27:0.377964 28:1 
14.72923274314146 1:1 3:1 5:1 7:1 9:0.0321543 13:1 19:1 21:1 23:1 26:1 27:0.235702 28:1 
5.19738997927322 1:1 3:1 5:1 7:1 9:0.189711 15:1 19:1 21:1 23:1 26:1 27:0.408248 28:1 
58.88297862797884 1:1 3:1 5:1 7:1 9:0.22508 18:1 20:1 22:1 23:1 26:1 27:0.816497 28:1 
6.86067825245538 1:1 3:1 5:1 7:1 9:0.135048 18:1 19:1 22:1 23:1 26:1 27:0.5 28:1 
1.26430660854763 2:1 3:1 6:1 8:1 9:0.122186 18:1 19:1 22:1 23:1 26:1 27:1 29:1 
15.2706421894388 1:1 3:1 5:1 7:1 9:0.0643087 18:1 19:1 21:1 23:1 26:1 27:0.57735 28:1 
1.226575850832982 2:1 3:1 6:1 8:1 18:1 19:1 21:1 23:1 25:1 28:1 
2.998980279810009 1:1 3:1 5:1 7:1 9:0.022508 15:1 19:1 22:1 23:1 26:1 27:0.447214 28:1 
74.30310862964018 1:1 3:1 5:1 7:1 9:0.0514469 18:1 19:1 22:1 23:1 26:1 27:0.5 28:1 
128 1:1 3:1 5:1 7:1 17:1 19:1 22:1 23:1 26:1 27:0.447214 28:1 
6.1822539287331 1:1 3:1 5:1 7:1 9:0.0418006 18:1 19:1 21:1 23:1 26:1 27:0.25 28:1 
13.99780449765216 1:1 3:1 5:1 7:1 9:0.0836013 12:1 19:1 21:1 23:1 26:1 27:0.53033 28:1 
21.19981344778811 1:1 3:1 5:1 7:1 9:0.115756 18:1 20:1 21:1 23:1 26:1 27:0.353553 28:1 
128 1:1 3:1 5:1 7:1 9:0.0321543 18:1 19:1 21:1 23:1 26:1 27:0.223607 28:1 
24.21065709245219 1:1 3:1 5:1 7:1 9:0.022508 18:1 20:1 21:1 23:1 26:1 27:0.316228 28:1 
33.54989939729143 1:1 3:1 5:1 7:1 9:0.0418006 12:1 19:1 21:1 23:1 26:1 27:0.158114 28:1 
18.14598119463648 1:1 3:1 5:1 7:1 9:0.0385852 12:1 19:1 22:1 23:1 26:1 27:0.57735 28:1 
128 2:1 3:1 6:1 7:1 9:0.180064 18:1 20:1 22:1 24:1 26:1 27:1 29:1 
1.891399984760328 2:1 3:1 6:1 7:1 9:0.189711 18:1 20:1 21:1 23:1 26:1 27:0.408248 28:1 
128 2:1 3:1 6:1 7:1 9:0.21865 15:1 20:1 21:1 23:1 26:1 27:0.353553 28:1 
128 2:1 3:1 6:1 7:1 9:0.0128617 12:1 20:1 22:1 24:1 26:1 27:0.866025 29:1 
128 2:1 3:1 6:1 7:1 9:0.0192926 18:1 20:1 22:1 24:1 26:1 27:1 29:1 
128 2:1 3:1 6:1 7:1 9:0.0482315 15:1 20:1 22:1 24:1 26:1 27:0.866025 29:1 
128 2:1 3:1 6:1 7:1 9:0.0385852 15:1 20:1 21:1 23:1 26:1 27:0.353553 28:1 
128 1:1 4:1 6:1 7:1 9:0.0900322 18:1 19:1 22:1 23:1 26:1 27:0.707107 28:1 
18.39735168318365 1:1 4:1 6:1 7:1 9:0.0868167 18:1 19:1 22:1 23:1 26:1 27:0.707107 28:1 
128 1:1 4:1 6:1 7:1 9:0.0836013 18:1 19:1 22:1 23:1 26:1 27:0.707107 28:1 
5.091788397856633 1:1 3:1 5:1 7:1 9:0.00321543 13:1 19:1 21:1 23:1 26:1 27:0.288675 28:1 
4.551861122005842 1:1 3:1 5:1 7:1 9:0.0096463 13:1 19:1 21:1 23:1 26:1 27:0.288675 28:1 
18.57443294333082 1:1 3:1 5:1 7:1 9:0.0096463 13:1 20:1 21:1 23:1 26:1 27:0.288675 28:1 
42.15029763363776 1:1 3:1 5:1 7:1 9:0.109325 16:1 19:1 21:1 23:1 26:1 27:0.408248 28:1 
128 2:1 3:1 6:1 8:1 9:0.160772 18:1 20:1 22:1 23:1 26:1 27:1 29:1 
128 2:1 3:1 6:1 8:1 9:0.189711 18:1 20:1 22:1 23:1 26:1 27:1 29:1 
23.47063438892757 1:1 3:1 6:1 7:1 9:0.0257235 18:1 19:1 22:1 23:1 26:1 27:0.707107 28:1 
12.41869177091033 1:1 3:1 5:1 7:1 9:0.0836013 13:1 19:1 21:1 23:1 26:1 27:0.235702 28:1 
2.065701483764169 1:1 3:1 5:1 7:1 9:0.109325 13:1 19:1 21:1 23:1 26:1 27:0.288675 28:1 
2.809571449563168 1:1 3:1 5:1 7:1 9:0.0546624 15:1 19:1 21:1 23:1 26:1 27:0.316228 28:1 
82.54972532838318 1:1 3:1 5:1 7:1 9:0.0514469 11:1 19:1 21:1 23:1 26:1 27:0.333333 28:1 
126.8118372676482 1:1 3:1 5:1 7:1 9:0.0257235 14:1 20:1 21:1 23:1 26:1 27:0.912871 28:1 
128 1:1 4:1 6:1 7:1 9:0.141479 15:1 20:1 21:1 23:1 26:1 27:0.5 28:1 
7.445462069334131 1:1 3:1 5:1 7:1 9:0.106109 14:1 20:1 21:1 23:1 26:1 27:0.408248 28:1 
128 1:1 3:1 5:1 7:1 9:0.0321543 18:1 20:1 22:1 24:1 26:1 27:1 29:1 
96.2343636096857 1:1 3:1 5:1 7:1 9:0.0514469 15:1 20:1 21:1 23:1 26:1 27:0.5 28:1 
56.96572252816858 1:1 3:1 5:1 7:1 16:1 19:1 21:1 23:1 26:1 27:0.67082 28:1 
128 2:1 3:1 6:1 8:1 9:0.202572 12:1 19:1 22:1 24:1 26:1 27:0.707107 29:1 
30.93575596106951 1:1 3:1 5:1 7:1 9:0.254019 15:1 19:1 22:1 23:1 26:1 27:0.5 28:1 
2.125983058299727 1:1 3:1 5:1 7:1 9:0.0836013 15:1 19:1 21:1 23:1 26:1 27:0.408248 28:1 
4.422766353518935 1:1 3:1 5:1 7:1 9:0.0643087 18:1 19:1 21:1 23:1 26:1 27:0.223607 28:1 
128 1:1 3:1 5:1 7:1 9:0.157556 18:1 20:1 22:1 24:1 26:1 27:1 29:1 
128 1:1 3:1 5:1 7:1 18:1 20:1 22:1 23:1 26:1 27:0.816497 28:1 
128 1:1 3:1 5:1 7:1 9:0.0353698 15:1 20:1 21:1 23:1 26:1 27:0.666667 28:1 
3.94025404722959 1:1 3:1 6:1 7:1 9:0.29582 18:1 20:1 21:1 23:1 26:1 27:0.5 28:1 
123.4034318500528 1:1 4:1 6:1 7:1 9:0.202572 18:1 19:1 22:1 23:1 26:1 27:0.707107 28:1 
8.505463272761979 1:1 3:1 5:1 7:1 9:0.154341 15:1 19:1 21:1 23:1 26:1 27:0.25 28:1 
2.867245148349839 1:1 3:1 5:1 7:1 9:0.170418 15:1 19:1 21:1 23:1 26:1 27:0.288675 28:1 
125.3043485924231 1:1 3:1 5:1 7:1 9:0.315113 15:1 19:1 22:1 23:1 26:1 27:0.5 28:1 
128 1:1 3:1 5:1 7:1 9:0.289389 15:1 19:1 22:1 23:1 26:1 27:0.5 28:1 
128 2:1 4:1 6:1 8:1 9:0.0578778 12:1 19:1 22:1 24:1 26:1 27:0.707107 29:1 
24.10491132577887 1:1 3:1 5:1 7:1 9:0.0803859 16:1 19:1 21:1 23:1 26:1 27:0.235702 28:1 
59.97674813868479 1:1 3:1 5:1 7:1 9:0.073955 10:1 19:1 21:1 23:1 26:1 27:0.258199 28:1 
5.683110465827248 1:1 3:1 5:1 7:1 9:0.202572 10:1 19:1 21:1 23:1 26:1 27:0.333333 28:1 
128 1:1 4:1 6:1 7:1 9:0.102894 16:1 19:1 22:1 23:1 26:1 27:0.5 28:1 
128 2:1 3:1 6:1 7:1 9:0.109325 13:1 20:1 21:1 24:1 26:1 27:0.75 29:1 
31.93766252613655 1:1 3:1 6:1 7:1 9:0.125402 10:1 19:1 22:1 23:1 26:1 27:0.707107 28:1 
11.36490733899204 1:1 3:1 5:1 7:1 9:0.128617 10:1 19:1 21:1 23:1 26:1 27:0.258199 28:1 
29.26253365550158 1:1 3:1 5:1 7:1 9:0.160772 10:1 19:1 21:1 23:1 26:1 27:0.316228 28:1 
18.33898404056178 1:1 3:1 5:1 7:1 9:0.125402 10:1 19:1 21:1 23:1 26:1 27:0.235702 28:1 
9.618175756709901 1:1 3:1 5:1 7:1 9:0.0707395 15:1 19:1 21:1 23:1 26:1 27:0.258199 28:1 
128 1:1 4:1 6:1 7:1 9:0.00643087 15:1 19:1 22:1 23:1 26:1 27:0.5 28:1 
128 1:1 4:1 6:1 7:1 9:0.022508 15:1 19:1 22:1 23:1 26:1 27:0.57735 28:1 
84.55404695247169 1:1 3:1 5:1 7:1 9:0.122186 14:1 20:1 21:1 23:1 26:1 27:0.516398 28:1 
59.73739354336227 1:1 3:1 5:1 7:1 9:0.135048 12:1 19:1 21:1 23:1 26:1 27:0.408248 28:1 
19.0794513966944 1:1 3:1 5:1 7:1 9:0.337621 18:1 19:1 22:1 23:1 25:1 28:1 
17.5916073906364 1:1 3:1 5:1 7:1 9:0.4791 13:1 20:1 21:1 23:1 26:1 27:0.408248 28:1 
128 2:1 3:1 6:1 7:1 9:0.0128617 18:1 20:1 22:1 24:1 26:1 27:1 29:1 
127.4866659343324 2:1 3:1 6:1 8:1 9:0.0160772 18:1 20:1 22:1 23:1 26:1 27:1 29:1 
0.8670726680327244 1:1 3:1 5:1 7:1 9:0.0578778 18:1 19:1 22:1 23:1 26:1 27:0.707107 28:1 
0.4679958483079344 1:1 3:1 5:1 7:1 9:0.0514469 18:1 19:1 22:1 23:1 26:1 27:0.707107 28:1 
118.6651990886972 1:1 3:1 5:1 7:1 9:0.0160772 18:1 20:1 22:1 24:1 26:1 27:1 29:1 
128 1:1 3:1 5:1 7:1 9:0.022508 18:1 20:1 22:1 24:1 26:1 27:1 29:1 
128 1:1 3:1 5:1 7:1 9:0.0257235 18:1 20:1 22:1 24:1 26:1 27:1 29:1 
128 1:1 3:1 5:1 7:1 9:0.273312 18:1 20:1 22:1 24:1 26:1 27:1 29:1 
46.25190799271481 1:1 3:1 5:1 7:1 9:0.276527 18:1 20:1 22:1 23:1 26:1 27:0.737865 28:1 
31.70171337202278 1:1 3:1 5:1 7:1 9:0.0096463 18:1 20:1 22:1 23:1 26:1 27:0.894427 28:1 
1.674646034409631 1:1 3:1 5:1 7:1 9:0.0096463 18:1 19:1 21:1 23:1 26:1 27:0.258199 28:1 
21.31612349286248 1:1 3:1 5:1 7:1 9:0.273312 18:1 19:1 21:1 23:1 26:1 27:0.632456 28:1 
128 1:1 3:1 5:1 7:1 9:0.279743 18:1 20:1 22:1 24:1 26:1 27:1 29:1 
128 1:1 3:1 5:1 7:1 9:0.266881 18:1 20:1 22:1 24:1 26:1 27:1 29:1 
116.8307461032276 1:1 3:1 5:1 7:1 9:0.244373 18:1 19:1 22:1 23:1 26:1 27:0.447214 28:1 
6.094440727223533 1:1 3:1 5:1 7:1 9:0.0160772 15:1 20:1 22:1 24:1 26:1 27:0.816497 29:1 
128 1:1 3:1 5:1 7:1 9:0.0546624 15:1 20:1 21:1 23:1 26:1 27:0.5 28:1 
53.75064061008325 1:1 3:1 5:1 7:1 9:0.0385852 14:1 20:1 21:1 23:1 26:1 27:0.408248 28:1 
4.785626437795004 1:1 3:1 6:1 7:1 9:0.00643087 17:1 19:1 21:1 24:1 25:1 28:1 
1.927895125520843 1:1 3:1 6:1 7:1 9:0.209003 17:1 19:1 21:1 24:1 25:1 28:1 
4.830369774075532 1:1 3:1 5:1 7:1 9:0.209003 13:1 20:1 21:1 23:1 26:1 27:0.288675 28:1 
119.4942433534253 1:1 3:1 5:1 7:1 9:0.0418006 16:1 20:1 22:1 23:1 26:1 27:0.57735 28:1 
1.468475779716307 1:1 3:1 5:1 7:1 9:0.0450161 13:1 20:1 21:1 23:1 26:1 27:0.333333 28:1 
128 2:1 3:1 6:1 7:1 9:0.0482315 18:1 20:1 22:1 24:1 26:1 27:1 29:1 
128 2:1 3:1 6:1 8:1 9:0.0353698 18:1 20:1 22:1 23:1 26:1 27:1 29:1 
128 2:1 3:1 6:1 8:1 9:0.0321543 18:1 20:1 22:1 23:1 26:1 27:1 29:1 
128 2:1 3:1 6:1 7:1 9:0.0321543 18:1 20:1 22:1 23:1 26:1 27:1 29:1 
128 2:1 3:1 6:1 7:1 14:1 20:1 22:1 24:1 26:1 27:1 29:1 
128 1:1 3:1 5:1 7:1 9:0.0096463 14:1 20:1 22:1 24:1 26:1 27:1 29:1 
1.282187921793615 1:1 3:1 5:1 7:1 9:0.173633 18:1 20:1 21:1 23:1 26:1 27:0.408248 28:1 
114.7067142962188 1:1 3:1 5:1 7:1 9:0.00321543 13:1 20:1 21:1 23:1 26:1 27:0.5 28:1 
11.99923530352198 2:1 4:1 6:1 8:1 9:0.00321543 10:1 20:1 22:1 24:1 26:1 27:1 29:1 
128 1:1 3:1 5:1 7:1 9:0.00643087 10:1 20:1 22:1 24:1 26:1 27:1 29:1 
128 1:1 3:1 5:1 7:1 10:1 20:1 21:1 23:1 26:1 27:0.6 28:1 
1.474534202572459 1:1 3:1 5:1 7:1 9:0.109325 18:1 19:1 21:1 23:1 26:1 27:0.5 28:1 
114.9583334121543 1:1 3:1 6:1 7:1 9:0.0257235 16:1 19:1 21:1 23:1 25:1 28:1 
3.07346099580762 1:1 4:1 6:1 7:1 10:1 19:1 21:1 23:1 26:1 27:0.408248 28:1 
72.01257388504763 2:1 3:1 6:1 7:1 12:1 20:1 22:1 24:1 26:1 27:0.707107 29:1 
128 1:1 3:1 5:1 7:1 9:0.282958 15:1 20:1 21:1 23:1 26:1 27:0.5 28:1 
1.066761299693605 1:1 3:1 5:1 7:1 9:0.176849 12:1 19:1 21:1 23:1 26:1 27:0.408248 28:1 
30.66036715853418 1:1 3:1 5:1 7:1 9:0.135048 13:1 19:1 21:1 24:1 25:1 28:1 
0.8655600174859899 1:1 3:1 5:1 7:1 9:0.0868167 15:1 19:1 21:1 23:1 26:1 27:0.288675 28:1 
128 1:1 3:1 5:1 7:1 9:0.122186 18:1 20:1 22:1 24:1 26:1 27:1 29:1 
128 2:1 4:1 6:1 7:1 9:0.122186 18:1 19:1 22:1 23:1 26:1 27:1 29:1 
128 2:1 3:1 6:1 8:1 9:0.00321543 13:1 20:1 21:1 24:1 26:1 27:0.75 29:1 
6.732726298606496 1:1 3:1 5:1 7:1 9:0.115756 14:1 19:1 21:1 24:1 26:1 27:0.160128 28:1 
128 1:1 3:1 5:1 7:1 9:0.115756 18:1 19:1 21:1 23:1 26:1 27:0.5 28:1 
9.382240157820405 1:1 3:1 5:1 7:1 9:0.0289389 12:1 19:1 21:1 23:1 26:1 27:0.25 28:1 
1.1357336437021 1:1 3:1 5:1 7:1 9:0.0932476 12:1 19:1 21:1 23:1 26:1 27:0.288675 28:1 
128 1:1 3:1 5:1 7:1 9:0.00643087 16:1 20:1 21:1 23:1 26:1 27:0.666667 28:1 
128 1:1 3:1 5:1 7:1 9:0.202572 10:1 20:1 21:1 23:1 26:1 27:0.866025 28:1 
9.216748100438304 1:1 4:1 5:1 7:1 9:0.212219 13:1 20:1 21:1 23:1 26:1 27:0.408248 28:1 
79.27494457272904 1:1 3:1 5:1 7:1 9:0.196141 12:1 20:1 21:1 23:1 26:1 27:0.57735 28:1 
128 2:1 3:1 6:1 7:1 9:0.00321543 10:1 20:1 22:1 24:1 26:1 27:1 29:1 
128 2:1 3:1 6:1 7:1 9:0.00321543 10:1 20:1 22:1 24:1 26:1 27:1 29:1 
5.85853331313997 1:1 3:1 5:1 7:1 9:0.109325 10:1 19:1 21:1 23:1 26:1 27:0.258199 28:1 
8.701161297600919 1:1 3:1 5:1 7:1 9:0.151125 10:1 19:1 21:1 23:1 26:1 27:0.316228 28:1 
42.14008655805142 1:1 3:1 5:1 7:1 9:0.115756 10:1 19:1 21:1 23:1 26:1 27:0.288675 28:1 
74.90941561887736 1:1 3:1 5:1 7:1 10:1 20:1 21:1 23:1 26:1 27:0.516398 28:1 
0.2873840074902474 1:1 3:1 5:1 7:1 9:0.096463 10:1 19:1 21:1 23:1 26:1 27:0.316228 28:1 
128 2:1 3:1 6:1 7:1 9:0.0675241 12:1 20:1 22:1 24:1 26:1 27:0.816497 29:1 
128 1:1 3:1 5:1 7:1 9:0.0096463 13:1 20:1 21:1 23:1 26:1 27:0.353553 28:1 
72.98019993440188 1:1 3:1 5:1 7:1 9:0.096463 10:1 20:1 22:1 24:1 26:1 27:1 29:1 
0.1891279435086342 1:1 3:1 5:1 7:1 9:0.173633 16:1 19:1 21:1 24:1 26:1 27:0.408248 28:1 
29.46752176393925 1:1 3:1 5:1 7:1 9:0.0450161 10:1 20:1 21:1 23:1 26:1 27:0.57735 28:1 
128 1:1 3:1 5:1 7:1 9:0.0096463 15:1 20:1 21:1 23:1 26:1 27:0.5 28:1 
3.399153429372824 1:1 3:1 5:1 7:1 9:0.176849 18:1 19:1 22:1 23:1 25:1 28:1 
126.7163351965753 1:1 3:1 5:1 7:1 9:0.302251 12:1 20:1 21:1 23:1 26:1 27:0.57735 28:1 
2.202755228645822 2:1 3:1 6:1 8:1 9:0.0643087 18:1 19:1 22:1 23:1 26:1 27:1 29:1 
1.249429079144104 1:1 3:1 5:1 7:1 9:0.131833 17:1 19:1 21:1 23:1 26:1 27:0.408248 28:1 
40.727212637261 1:1 3:1 5:1 7:1 9:0.212219 18:1 20:1 22:1 23:1 26:1 27:0.816497 28:1 
128 1:1 3:1 5:1 7:1 9:0.141479 18:1 19:1 22:1 23:1 26:1 27:0.57735 28:1 
128 1:1 3:1 5:1 7:1 9:0.115756 16:1 20:1 21:1 23:1 26:1 27:0.5 28:1 
115.655570485422 1:1 3:1 5:1 7:1 9:0.0385852 14:1 20:1 21:1 23:1 26:1 27:0.516398 28:1 
128 2:1 3:1 6:1 7:1 9:0.00321543 11:1 20:1 21:1 24:1 26:1 27:0.666667 29:1 
1.756312363766523 1:1 4:1 5:1 7:1 9:0.247588 18:1 19:1 22:1 23:1 25:1 28:1 
0.4243282293416774 2:1 4:1 6:1 8:1 9:0.0128617 16:1 19:1 21:1 24:1 25:1 28:1 
65.79151531035957 2:1 3:1 6:1 8:1 9:0.250804 18:1 19:1 22:1 23:1 26:1 27:1 29:1 
127.6418178482922 2:1 3:1 6:1 8:1 9:0.257235 15:1 19:1 22:1 24:1 26:1 27:0.707107 29:1 
48.7079486704999 2:1 3:1 6:1 7:1 9:0.0610932 18:1 20:1 22:1 23:1 26:1 27:1 29:1 
128 2:1 3:1 6:1 7:1 9:0.0610932 18:1 20:1 22:1 24:1 26:1 27:1 29:1 
128 2:1 3:1 6:1 7:1 9:0.292605 15:1 20:1 22:1 24:1 26:1 27:0.816497 29:1 
128 2:1 3:1 6:1 7:1 9:0.231511 15:1 20:1 22:1 24:1 26:1 27:0.816497 29:1 
128 2:1 3:1 6:1 8:1 9:0.0803859 18:1 20:1 22:1 23:1 26:1 27:1 29:1 
9.907347604592067 2:1 3:1 6:1 7:1 9:0.0803859 18:1 20:1 22:1 23:1 26:1 27:1 29:1 
128 1:1 3:1 5:1 7:1 9:0.0803859 18:1 20:1 22:1 24:1 26:1 27:1 29:1 
65.40538565525414 1:1 3:1 5:1 7:1 9:0.0803859 18:1 19:1 22:1 23:1 26:1 27:1 29:1 
50.395443722774 2:1 4:1 6:1 7:1 9:0.0771704 14:1 20:1 21:1 24:1 26:1 27:0.774597 29:1 
47.84077991503916 2:1 4:1 6:1 8:1 9:0.0514469 17:1 19:1 22:1 24:1 26:1 27:0.707107 29:1 
128 2:1 3:1 6:1 7:1 9:0.0160772 14:1 20:1 22:1 24:1 26:1 27:1 29:1 
13.18814826020851 2:1 3:1 6:1 7:1 9:0.228296 17:1 19:1 21:1 24:1 26:1 27:0.408248 28:1 
19.96162982027828 1:1 3:1 5:1 7:1 9:0.096463 13:1 19:1 21:1 23:1 26:1 27:0.288675 28:1 
128 2:1 3:1 6:1 7:1 9:0.109325 18:1 20:1 22:1 24:1 26:1 27:1 29:1 
128 2:1 3:1 6:1 7:1 9:0.0514469 15:1 20:1 22:1 24:1 26:1 27:0.707107 29:1 
7.709838149322086 1:1 3:1 5:1 7:1 9:0.14791 18:1 20:1 21:1 23:1 26:1 27:0.353553 28:1 
128 1:1 3:1 5:1 7:1 9:0.0257235 15:1 20:1 21:1 23:1 26:1 27:0.5 28:1 
9.937179968711725 1:1 3:1 5:1 7:1 9:0.128617 18:1 20:1 21:1 23:1 26:1 27:0.353553 28:1 
19.08275665838983 2:1 4:1 6:1 8:1 9:0.22508 18:1 19:1 22:1 23:1 26:1 27:1 29:1 
19.01627511657443 2:1 3:1 5:1 7:1 9:0.350482 18:1 19:1 22:1 23:1 26:1 27:1 29:1 
128 1:1 3:1 5:1 7:1 16:1 20:1 22:1 24:1 26:1 27:0.816497 29:1 
2.144805079090278 1:1 3:1 5:1 7:1 9:0.212219 16:1 20:1 22:1 24:1 26:1 27:0.816497 29:1 
128 1:1 3:1 5:1 7:1 9:0.212219 18:1 20:1 22:1 24:1 26:1 27:1 29:1 
128 1:1 3:1 5:1 7:1 9:0.221865 18:1 20:1 22:1 24:1 26:1 27:1 29:1 
120.5366082935279 2:1 3:1 6:1 7:1 9:0.0321543 18:1 19:1 21:1 24:1 26:1 27:0.666667 28:1 
84.98696105849895 1:1 4:1 5:1 7:1 9:0.228296 18:1 19:1 22:1 23:1 26:1 27:0.707107 28:1 
9.735759555638674 1:1 4:1 5:1 7:1 9:0.0900322 18:1 19:1 22:1 23:1 26:1 27:0.707107 28:1 
128 1:1 3:1 5:1 7:1 9:0.118971 12:1 20:1 21:1 23:1 26:1 27:0.57735 28:1 
128 2:1 3:1 6:1 8:1 15:1 20:1 22:1 24:1 26:1 27:0.816497 29:1 
27.96527433390933 1:1 4:1 5:1 7:1 9:0.215434 18:1 19:1 22:1 23:1 26:1 27:0.707107 28:1 
22.73513059706941 1:1 4:1 5:1 7:1 9:0.215434 17:1 19:1 22:1 23:1 26:1 27:0.57735 28:1 
128 1:1 3:1 5:1 7:1 9:0.0128617 16:1 20:1 22:1 23:1 26:1 27:0.57735 28:1 
128 2:1 4:1 6:1 8:1 9:0.173633 18:1 19:1 22:1 23:1 26:1 27:1 29:1 
126.7952734276602 1:1 3:1 5:1 7:1 9:0.00643087 18:1 19:1 22:1 24:1 26:1 27:0.5 28:1 
30.35416615826035 1:1 3:1 5:1 7:1 9:0.392283 15:1 20:1 21:1 23:1 26:1 27:0.25 28:1 
10.09776677054364 1:1 3:1 5:1 7:1 9:0.797428 18:1 20:1 22:1 23:1 26:1 27:0.5 28:1 
0.4312038659484165 1:1 3:1 5:1 7:1 9:0.405145 18:1 20:1 22:1 23:1 26:1 27:0.707107 28:1 
128 1:1 3:1 5:1 7:1 9:0.0996785 14:1 20:1 22:1 24:1 26:1 27:1 29:1 
128 1:1 3:1 5:1 7:1 9:0.0321543 14:1 20:1 22:1 24:1 26:1 27:1 29:1 
89.33728723436931 2:1 4:1 6:1 8:1 9:0.209003 12:1 19:1 22:1 24:1 26:1 27:0.707107 29:1 
128 1:1 3:1 5:1 7:1 9:0.202572 18:1 20:1 21:1 23:1 26:1 27:0.632456 28:1 
0.3644477238734619 2:1 3:1 6:1 7:1 9:0.279743 18:1 19:1 22:1 24:1 26:1 27:0.707107 29:1 
128 1:1 3:1 5:1 7:1 9:0.347267 18:1 20:1 22:1 23:1 26:1 27:1 29:1 
128 2:1 3:1 6:1 8:1 9:0.00643087 14:1 20:1 22:1 24:1 26:1 27:1 29:1 
60.09579363483306 1:1 3:1 5:1 7:1 9:0.138264 15:1 19:1 21:1 23:1 26:1 27:0.408248 28:1 
125.8967619105266 1:1 3:1 5:1 7:1 9:0.122186 15:1 19:1 21:1 23:1 26:1 27:0.333333 28:1 
128 1:1 3:1 5:1 7:1 9:0.102894 15:1 19:1 21:1 23:1 26:1 27:0.408248 28:1 
128 2:1 3:1 6:1 7:1 9:0.0450161 15:1 20:1 22:1 24:1 26:1 27:0.816497 29:1 
1.097365741093272 1:1 3:1 5:1 7:1 9:0.247588 16:1 19:1 21:1 23:1 26:1 27:0.288675 28:1 
7.741046251180964 1:1 3:1 5:1 7:1 9:0.237942 10:1 20:1 21:1 23:1 26:1 27:0.666667 28:1 
128 1:1 3:1 5:1 7:1 9:0.289389 16:1 20:1 22:1 23:1 26:1 27:0.707107 28:1 
11.99553812984997 1:1 3:1 5:1 7:1 9:0.315113 13:1 20:1 21:1 23:1 26:1 27:0.223607 28:1 
128 2:1 3:1 6:1 7:1 9:0.14791 18:1 20:1 22:1 24:1 26:1 27:1 29:1 
128 2:1 3:1 6:1 7:1 9:0.141479 15:1 20:1 22:1 24:1 26:1 27:0.816497 29:1 
0.1017158137005107 2:1 3:1 6:1 7:1 9:0.135048 15:1 20:1 22:1 24:1 26:1 27:0.707107 29:1 
34.45094372569429 1:1 3:1 5:1 7:1 9:0.0707395 12:1 19:1 22:1 23:1 26:1 27:0.57735 28:1 
2.753324715574562 2:1 3:1 6:1 8:1 9:0.14791 18:1 19:1 22:1 23:1 26:1 27:1 29:1 
7.269096709722447 2:1 3:1 6:1 8:1 9:0.141479 18:1 19:1 22:1 23:1 26:1 27:1 29:1 
128 2:1 3:1 6:1 8:1 9:0.144695 18:1 19:1 22:1 23:1 26:1 27:1 29:1 
128 1:1 3:1 5:1 7:1 9:0.144695 18:1 20:1 22:1 24:1 26:1 27:1 29:1 
104.4821059731782 1:1 3:1 5:1 7:1 9:0.0128617 17:1 20:1 21:1 23:1 26:1 27:0.204124 28:1 
119.1649075284942 1:1 3:1 5:1 7:1 9:0.0128617 13:1 19:1 21:1 24:1 26:1 27:0.544331 28:1 
50.29800214537566 1:1 3:1 5:1 7:1 9:0.0450161 18:1 20:1 22:1 23:1 26:1 27:0.816497 28:1 
1.949971609287985 1:1 3:1 5:1 7:1 9:0.0707395 15:1 20:1 21:1 23:1 26:1 27:0.258199 28:1 
128 1:1 3:1 5:1 7:1 9:0.00321543 13:1 20:1 21:1 24:1 26:1 27:0.666667 29:1 
20.68102265963493 1:1 3:1 5:1 7:1 9:0.0771704 16:1 19:1 22:1 23:1 26:1 27:0.57735 28:1 
128 2:1 3:1 6:1 7:1 9:0.151125 18:1 20:1 22:1 23:1 26:1 27:1 29:1 
-128 2:1 3:1 6:1 8:1 9:0.00321543 14:1 20:1 22:1 24:1 26:1 27:1 29:1 
-128 2:1 3:1 6:1 8:1 9:0.0257235 18:1 19:1 22:1 23:1 26:1 27:1 29:1 
-128 1:1 3:1 5:1 7:1 9:0.00321543 18:1 20:1 22:1 24:1 26:1 27:1 29:1 
-128 1:1 3:1 5:1 7:1 9:0.0160772 18:1 20:1 22:1 24:1 26:1 27:1 29:1 
-128 1:1 3:1 5:1 7:1 9:0.170418 18:1 20:1 21:1 23:1 26:1 27:0.707107 28:1 
-128 1:1 3:1 5:1 7:1 9:0.0128617 18:1 20:1 22:1 24:1 26:1 27:1 29:1 
-128 1:1 3:1 5:1 7:1 9:0.167203 18:1 20:1 21:1 23:1 26:1 27:0.707107 28:1 
-128 1:1 3:1 5:1 7:1 9:0.154341 18:1 20:1 21:1 23:1 26:1 27:0.707107 28:1 
-128 2:1 3:1 6:1 7:1 9:0.21865 18:1 19:1 22:1 23:1 26:1 27:1 29:1 
-128 1:1 3:1 5:1 7:1 9:0.18328 18:1 20:1 22:1 24:1 26:1 27:1 29:1 
-128 1:1 3:1 5:1 7:1 9:0.0257235 13:1 20:1 21:1 24:1 26:1 27:0.75 29:1 
-128 1:1 3:1 5:1 7:1 9:0.00643087 18:1 20:1 22:1 24:1 26:1 27:1 29:1 
-128 2:1 3:1 6:1 8:1 9:0.0836013 15:1 19:1 22:1 24:1 26:1 27:0.707107 29:1 
-128 2:1 3:1 6:1 7:1 9:0.0578778 18:1 20:1 22:1 23:1 26:1 27:1 29:1 
-128 1:1 3:1 5:1 7:1 9:0.00321543 13:1 19:1 21:1 24:1 25:1 28:1 
-128 1:1 3:1 5:1 7:1 9:0.00321543 13:1 19:1 21:1 23:1 25:1 28:1 
-128 2:1 3:1 6:1 8:1 9:0.00321543 16:1 19:1 22:1 24:1 26:1 27:0.707107 29:1 
-23.73267114524792 2:1 4:1 6:1 7:1 9:0.0353698 13:1 20:1 21:1 24:1 26:1 27:0.471405 29:1 
-128 1:1 3:1 5:1 7:1 9:0.0096463 18:1 20:1 22:1 23:1 26:1 27:0.774597 28:1 
-128 2:1 4:1 6:1 7:1 9:0.022508 14:1 20:1 22:1 24:1 26:1 27:1 29:1 
-128 1:1 3:1 5:1 7:1 9:0.00321543 16:1 19:1 22:1 23:1 26:1 27:0.57735 28:1 
-128 1:1 3:1 5:1 7:1 18:1 19:1 21:1 23:1 25:1 28:1 
-128 1:1 3:1 6:1 7:1 9:0.0578778 16:1 19:1 21:1 23:1 25:1 28:1 
-128 2:1 3:1 6:1 7:1 9:0.0450161 18:1 20:1 22:1 24:1 26:1 27:1 29:1 
-124.4376312801323 1:1 4:1 6:1 7:1 9:0.0096463 17:1 20:1 21:1 23:1 26:1 27:0.408248 28:1 
-128 2:1 3:1 6:1 8:1 9:0.00321543 10:1 20:1 22:1 24:1 26:1 27:1 29:1 
-128 1:1 3:1 5:1 7:1 9:0.00321543 13:1 20:1 21:1 23:1 26:1 27:0.408248 28:1 
-128 2:1 3:1 6:1 7:1 9:0.639871 18:1 20:1 22:1 24:1 26:1 27:1 29:1 
-128 1:1 3:1 5:1 7:1 9:0.173633 18:1 19:1 22:1 23:1 25:1 28:1 
-128 1:1 3:1 5:1 7:1 9:0.0353698 15:1 19:1 21:1 23:1 26:1 27:0.566947 28:1 
-128 1:1 3:1 5:1 7:1 9:0.0514469 18:1 19:1 21:1 23:1 25:1 28:1 
-128 1:1 3:1 5:1 7:1 9:0.0321543 15:1 19:1 21:1 23:1 26:1 27:0.566947 28:1 
-128 1:1 3:1 5:1 7:1 9:0.0482315 18:1 19:1 21:1 23:1 25:1 28:1 
-128 1:1 3:1 5:1 7:1 9:0.0707395 15:1 19:1 21:1 23:1 26:1 27:0.566947 28:1 
-128 1:1 3:1 5:1 7:1 9:0.096463 18:1 19:1 21:1 23:1 25:1 28:1 
-128 1:1 3:1 5:1 7:1 9:0.109325 15:1 19:1 21:1 23:1 25:1 28:1 
-128 1:1 3:1 5:1 7:1 9:0.0160772 17:1 19:1 21:1 23:1 25:1 28:1 
-128 1:1 3:1 5:1 7:1 9:0.0257235 17:1 19:1 21:1 23:1 25:1 28:1 
-128 1:1 3:1 5:1 7:1 9:0.0385852 14:1 19:1 21:1 23:1 26:1 27:0.267261 28:1 
-128 1:1 3:1 5:1 7:1 9:0.0128617 15:1 20:1 21:1 23:1 26:1 27:0.408248 28:1 
-128 1:1 3:1 5:1 7:1 9:0.0707395 14:1 19:1 21:1 23:1 26:1 27:0.894427 28:1 
-128 1:1 3:1 5:1 7:1 9:0.00321543 12:1 20:1 21:1 23:1 26:1 27:0.408248 28:1 
-128 2:1 3:1 6:1 8:1 9:0.00321543 14:1 20:1 22:1 24:1 26:1 27:1 29:1 
-128 2:1 3:1 6:1 7:1 9:0.212219 17:1 20:1 22:1 24:1 26:1 27:0.707107 29:1 
-128 1:1 3:1 5:1 7:1 9:0.212219 13:1 19:1 21:1 24:1 26:1 27:0.333333 28:1 
-128 2:1 3:1 6:1 8:1 9:0.0771704 14:1 20:1 22:1 24:1 26:1 27:1 29:1 
-128 1:1 4:1 5:1 7:1 9:0.00643087 18:1 19:1 22:1 23:1 26:1 27:0.57735 28:1 
-128 1:1 3:1 5:1 7:1 9:0.0257235 12:1 19:1 22:1 23:1 26:1 27:0.447214 28:1 
-128 1:1 4:1 5:1 7:1 9:0.0321543 15:1 19:1 22:1 23:1 26:1 27:0.5 28:1 
-32.79717300558065 1:1 4:1 5:1 7:1 9:0.196141 12:1 19:1 22:1 23:1 26:1 27:0.5 28:1 
-128 1:1 4:1 5:1 7:1 9:0.21865 18:1 19:1 22:1 23:1 26:1 27:0.57735 28:1 
-128 1:1 4:1 5:1 7:1 9:0.241158 15:1 19:1 22:1 23:1 26:1 27:0.5 28:1 
-128 2:1 3:1 6:1 7:1 9:0.0160772 12:1 20:1 22:1 24:1 26:1 27:0.866025 29:1 
-128 1:1 3:1 5:1 7:1 9:0.0192926 12:1 20:1 22:1 23:1 26:1 27:0.774597 28:1 
-128 2:1 3:1 6:1 7:1 9:0.0257235 15:1 20:1 22:1 24:1 26:1 27:0.866025 29:1 
-128 2:1 3:1 6:1 7:1 9:0.189711 12:1 20:1 22:1 24:1 26:1 27:0.866025 29:1 
-128 2:1 3:1 6:1 7:1 9:0.212219 18:1 20:1 22:1 24:1 26:1 27:1 29:1 
-128 2:1 3:1 6:1 7:1 9:0.234727 15:1 20:1 22:1 24:1 26:1 27:0.866025 29:1 
-128 1:1 3:1 5:1 7:1 9:0.160772 16:1 20:1 22:1 24:1 26:1 27:0.816497 29:1 
-128 1:1 3:1 5:1 7:1 9:0.00321543 10:1 20:1 21:1 23:1 26:1 27:0.67082 28:1 
-128 2:1 3:1 6:1 7:1 9:0.173633 10:1 20:1 22:1 24:1 26:1 27:1 29:1 
-128 2:1 3:1 6:1 7:1 9:0.196141 16:1 20:1 22:1 24:1 26:1 27:0.866025 29:1 
-128 2:1 3:1 6:1 7:1 9:0.21865 13:1 20:1 21:1 24:1 26:1 27:0.75 29:1 
-128 1:1 3:1 5:1 7:1 9:0.00643087 13:1 20:1 21:1 23:1 26:1 27:0.67082 28:1 
-128 1:1 3:1 5:1 7:1 9:0.170418 10:1 20:1 21:1 23:1 26:1 27:0.67082 28:1 
-128 1:1 3:1 5:1 7:1 9:0.192926 16:1 20:1 22:1 23:1 26:1 27:0.774597 28:1 
-128 1:1 3:1 5:1 7:1 9:0.215434 13:1 20:1 21:1 23:1 26:1 27:0.67082 28:1 
-121.1371632660577 2:1 3:1 6:1 7:1 9:0.163987 11:1 20:1 21:1 24:1 26:1 27:0.75 29:1 
-128 2:1 3:1 6:1 7:1 9:0.186495 17:1 20:1 22:1 24:1 26:1 27:0.866025 29:1 
-2.660185989528455 2:1 3:1 6:1 7:1 9:0.0450161 13:1 20:1 21:1 24:1 26:1 27:0.75 29:1 
-37.47242123283669 2:1 3:1 6:1 7:1 9:0.022508 15:1 20:1 22:1 24:1 26:1 27:0.866025 29:1 
-128 2:1 3:1 6:1 8:1 9:0.0128617 15:1 19:1 22:1 24:1 26:1 27:0.707107 29:1 
-128 2:1 3:1 6:1 8:1 9:0.0128617 18:1 19:1 22:1 23:1 26:1 27:1 29:1 
-128 1:1 3:1 6:1 7:1 9:0.0675241 18:1 19:1 22:1 23:1 26:1 27:0.707107 28:1 
-128 2:1 3:1 6:1 8:1 9:0.0353698 18:1 19:1 22:1 23:1 26:1 27:1 29:1 
-128 2:1 3:1 6:1 8:1 9:0.00321543 18:1 20:1 22:1 23:1 26:1 27:1 29:1 
-128 1:1 3:1 5:1 7:1 9:0.00643087 18:1 20:1 22:1 23:1 26:1 27:0.707107 28:1 
-128 2:1 3:1 6:1 7:1 9:0.00321543 18:1 20:1 22:1 24:1 26:1 27:1 29:1 
-128 1:1 3:1 5:1 7:1 9:0.00321543 18:1 20:1 22:1 23:1 26:1 27:0.707107 28:1 
-128 2:1 4:1 6:1 8:1 9:0.0675241 18:1 19:1 22:1 23:1 26:1 27:1 29:1 
-128 1:1 3:1 5:1 7:1 9:0.0836013 15:1 19:1 22:1 23:1 26:1 27:0.447214 28:1 
-128 2:1 3:1 6:1 7:1 9:0.0128617 18:1 20:1 22:1 24:1 26:1 27:1 29:1 
-128 1:1 3:1 5:1 7:1 9:0.00321543 16:1 20:1 21:1 23:1 26:1 27:0.408248 28:1 
-128 2:1 3:1 6:1 7:1 9:0.00321543 17:1 19:1 22:1 24:1 26:1 27:0.707107 29:1 
-128 2:1 3:1 6:1 7:1 9:0.0385852 14:1 20:1 22:1 24:1 26:1 27:1 29:1 
-128 2:1 3:1 6:1 7:1 9:0.0353698 15:1 19:1 22:1 24:1 26:1 27:0.707107 29:1 
-128 1:1 3:1 5:1 7:1 9:0.18328 15:1 19:1 21:1 23:1 26:1 27:0.408248 28:1 
-128 1:1 3:1 5:1 7:1 9:0.334405 15:1 19:1 22:1 23:1 26:1 27:0.353553 28:1 
-128 1:1 3:1 5:1 7:1 17:1 20:1 21:1 23:1 26:1 27:0.408248 28:1 
-128 1:1 3:1 5:1 7:1 9:0.215434 15:1 19:1 22:1 23:1 26:1 27:0.5 28:1 
-128 1:1 3:1 5:1 7:1 9:0.096463 14:1 20:1 21:1 23:1 26:1 27:0.774597 28:1 
-121.4136051030919 2:1 3:1 6:1 7:1 9:0.14791 14:1 20:1 21:1 24:1 26:1 27:0.666667 29:1 
-128 2:1 3:1 6:1 7:1 9:0.096463 12:1 20:1 22:1 24:1 26:1 27:0.866025 29:1 
-128 1:1 3:1 5:1 7:1 9:0.151125 14:1 19:1 21:1 23:1 26:1 27:0.57735 28:1 
-128 1:1 3:1 5:1 7:1 9:0.199357 10:1 19:1 21:1 23:1 26:1 27:0.333333 28:1 
-128 1:1 3:1 5:1 7:1 9:0.0514469 14:1 20:1 21:1 23:1 26:1 27:0.516398 28:1 
-128 1:1 3:1 5:1 7:1 18:1 19:1 22:1 23:1 26:1 27:0.707107 28:1 
-128 1:1 3:1 5:1 7:1 9:0.131833 18:1 20:1 22:1 24:1 26:1 27:1 29:1 
-128 1:1 3:1 5:1 7:1 9:0.196141 15:1 19:1 21:1 23:1 26:1 27:0.353553 28:1 
-128 1:1 3:1 5:1 7:1 9:0.131833 18:1 19:1 22:1 23:1 26:1 27:0.707107 28:1 
-128 1:1 3:1 5:1 7:1 9:0.196141 15:1 19:1 22:1 23:1 26:1 27:0.5 28:1 
-128 1:1 3:1 5:1 7:1 9:0.0643087 15:1 19:1 21:1 23:1 26:1 27:0.353553 28:1 
-128 1:1 3:1 5:1 7:1 9:0.0353698 18:1 19:1 22:1 23:1 26:1 27:0.707107 28:1 
-128 1:1 3:1 5:1 7:1 9:0.421222 18:1 19:1 22:1 24:1 26:1 27:0.5 28:1 
-128 2:1 3:1 6:1 8:1 9:0.022508 10:1 20:1 22:1 24:1 26:1 27:1 29:1 
-128 1:1 3:1 5:1 7:1 9:0.392283 18:1 19:1 22:1 23:1 25:1 28:1 
-128 2:1 3:1 6:1 8:1 9:0.327974 18:1 19:1 22:1 23:1 26:1 27:1 29:1 
-128 1:1 3:1 5:1 7:1 9:0.00321543 17:1 20:1 22:1 23:1 26:1 27:0.632456 28:1 
-128 1:1 3:1 6:1 7:1 9:0.0900322 18:1 19:1 22:1 23:1 26:1 27:0.707107 28:1 
-128 2:1 3:1 6:1 8:1 9:0.0900322 18:1 19:1 22:1 23:1 26:1 27:1 29:1 
-20.58384685486356 2:1 3:1 6:1 7:1 9:0.0932476 18:1 20:1 22:1 24:1 26:1 27:1 29:1 
-128 2:1 3:1 6:1 8:1 9:0.00321543 16:1 20:1 22:1 24:1 26:1 27:0.707107 29:1 
-128 1:1 3:1 5:1 7:1 9:0.0096463 18:1 20:1 22:1 24:1 26:1 27:1 29:1 
-128 2:1 3:1 6:1 7:1 9:0.00321543 14:1 20:1 22:1 24:1 26:1 27:1 29:1 
-51.06711942423624 2:1 3:1 5:1 7:1 9:0.0996785 16:1 19:1 22:1 24:1 26:1 27:0.707107 29:1 
-128 2:1 3:1 5:1 7:1 9:0.282958 16:1 19:1 22:1 24:1 26:1 27:0.707107 29:1 
-128 2:1 3:1 5:1 7:1 9:0.18328 18:1 19:1 22:1 23:1 26:1 27:1 29:1 
-128 2:1 4:1 6:1 8:1 9:0.0578778 18:1 19:1 22:1 23:1 26:1 27:1 29:1 
-128 1:1 3:1 5:1 7:1 9:0.231511 18:1 19:1 21:1 24:1 26:1 27:0.5 28:1 
-128 2:1 3:1 6:1 7:1 9:0.106109 15:1 19:1 22:1 24:1 26:1 27:0.707107 29:1 
-29.21953562195353 2:1 3:1 5:1 7:1 9:0.0160772 15:1 20:1 22:1 24:1 26:1 27:0.707107 29:1 
-128 1:1 3:1 5:1 7:1 9:0.21865 12:1 19:1 21:1 23:1 26:1 27:0.666667 28:1 
-128 1:1 3:1 5:1 7:1 9:0.221865 18:1 19:1 22:1 23:1 26:1 27:0.816497 28:1 
-128 2:1 3:1 6:1 7:1 9:0.00321543 16:1 20:1 22:1 24:1 26:1 27:0.816497 29:1 
-128 1:1 3:1 5:1 7:1 9:0.00643087 15:1 19:1 21:1 23:1 26:1 27:0.353553 28:1 
-128 2:1 3:1 6:1 8:1 9:0.00643087 15:1 19:1 22:1 24:1 26:1 27:0.707107 29:1 
-128 1:1 3:1 5:1 7:1 9:0.318328 18:1 19:1 21:1 23:1 25:1 28:1 
-128 1:1 4:1 6:1 7:1 9:0.237942 18:1 19:1 22:1 23:1 26:1 27:0.707107 28:1 
-128 1:1 3:1 5:1 7:1 9:0.00321543 18:1 19:1 22:1 23:1 25:1 28:1 
-128 2:1 3:1 6:1 7:1 9:0.0257235 18:1 20:1 22:1 24:1 26:1 27:1 29:1 
-128 2:1 3:1 6:1 7:1 9:0.0192926 15:1 20:1 22:1 24:1 26:1 27:0.816497 29:1 
-128 2:1 3:1 6:1 7:1 9:0.0418006 15:1 20:1 22:1 24:1 26:1 27:0.816497 29:1 
-128 2:1 3:1 6:1 7:1 9:0.022508 14:1 20:1 22:1 24:1 26:1 27:1 29:1 
-122.442208235363 2:1 3:1 6:1 8:1 9:0.0160772 11:1 20:1 21:1 24:1 26:1 27:0.666667 29:1 
-128 1:1 3:1 5:1 7:1 17:1 19:1 22:1 23:1 26:1 27:0.5 28:1 
-128 2:1 3:1 6:1 8:1 9:0.00321543 18:1 19:1 22:1 23:1 26:1 27:1 29:1 
-128 2:1 3:1 6:1 8:1 9:0.0096463 18:1 19:1 22:1 23:1 26:1 27:1 29:1 
-128 2:1 3:1 6:1 8:1 9:0.00643087 18:1 20:1 22:1 23:1 26:1 27:1 29:1 
-128 2:1 3:1 6:1 8:1 9:0.00643087 18:1 19:1 22:1 23:1 26:1 27:1 29:1 
-37.96013641200793 2:1 4:1 6:1 7:1 9:0.0803859 12:1 20:1 22:1 24:1 26:1 27:0.57735 29:1 
-128 2:1 3:1 6:1 8:1 9:0.073955 14:1 20:1 21:1 24:1 26:1 27:0.5 29:1 
-128 1:1 3:1 5:1 7:1 9:0.0128617 16:1 20:1 22:1 23:1 26:1 27:0.707107 28:1 
-128 2:1 3:1 6:1 7:1 9:0.0610932 10:1 20:1 22:1 24:1 26:1 27:1 29:1 
-55.71439783556909 1:1 3:1 6:1 7:1 9:0.0610932 10:1 20:1 21:1 23:1 26:1 27:0.816497 28:1 
-128 2:1 3:1 6:1 7:1 9:0.022508 18:1 20:1 22:1 24:1 26:1 27:1 29:1 
-128 2:1 3:1 6:1 7:1 9:0.0289389 18:1 20:1 22:1 24:1 26:1 27:1 29:1 
-128 1:1 3:1 5:1 7:1 9:0.0385852 15:1 19:1 22:1 23:1 26:1 27:0.5 28:1 
-128 1:1 3:1 5:1 7:1 9:0.0643087 15:1 19:1 22:1 23:1 26:1 27:0.5 28:1 
-128 2:1 3:1 6:1 7:1 9:0.00643087 18:1 20:1 22:1 24:1 26:1 27:1 29:1 
-128 1:1 3:1 5:1 7:1 9:0.0257235 14:1 20:1 22:1 24:1 26:1 27:1 29:1 
-128 1:1 3:1 5:1 7:1 9:0.00643087 13:1 20:1 21:1 23:1 26:1 27:0.353553 28:1 
-128 1:1 3:1 5:1 7:1 9:0.0096463 13:1 20:1 21:1 23:1 26:1 27:0.353553 28:1 
-128 1:1 3:1 5:1 7:1 9:0.00321543 14:1 20:1 22:1 24:1 26:1 27:1 29:1 
-128 1:1 3:1 5:1 7:1 14:1 20:1 22:1 24:1 26:1 27:1 29:1 
-128 1:1 3:1 5:1 7:1 9:0.0160772 14:1 20:1 21:1 23:1 26:1 27:0.353553 28:1 
-128 2:1 3:1 6:1 7:1 9:0.0128617 18:1 19:1 22:1 23:1 26:1 27:1 29:1 
-128 1:1 3:1 5:1 7:1 9:0.209003 18:1 20:1 22:1 23:1 26:1 27:0.707107 28:1 
-128 2:1 3:1 6:1 7:1 16:1 19:1 21:1 24:1 26:1 27:0.408248 28:1 
-128 2:1 3:1 6:1 8:1 9:0.00321543 13:1 20:1 21:1 24:1 26:1 27:0.5 29:1 
-128 2:1 3:1 6:1 7:1 9:0.00321543 15:1 19:1 22:1 24:1 26:1 27:0.707107 29:1 
-128 1:1 4:1 6:1 7:1 9:0.0128617 18:1 19:1 21:1 23:1 25:1 28:1 
-31.36014877686324 1:1 4:1 6:1 7:1 9:0.0096463 17:1 19:1 21:1 24:1 25:1 28:1 
-128 1:1 3:1 5:1 7:1 9:0.125402 16:1 20:1 21:1 23:1 26:1 27:0.57735 28:1 
-128 2:1 3:1 6:1 8:1 9:0.0096463 18:1 20:1 22:1 23:1 26:1 27:1 29:1 
-128 2:1 4:1 6:1 7:1 9:0.0096463 18:1 20:1 22:1 23:1 26:1 27:1 29:1 
-128 2:1 3:1 6:1 7:1 9:0.0096463 18:1 19:1 22:1 23:1 26:1 27:1 29:1 
-128 2:1 3:1 6:1 7:1 9:0.0096463 18:1 20:1 22:1 23:1 26:1 27:1 29:1 
-128 1:1 3:1 5:1 7:1 9:0.0096463 18:1 20:1 22:1 24:1 26:1 27:1 29:1 
-128 1:1 3:1 5:1 7:1 9:0.0160772 18:1 20:1 22:1 24:1 26:1 27:1 29:1 
-128 2:1 3:1 6:1 8:1 9:0.022508 18:1 19:1 22:1 23:1 26:1 27:1 29:1 
-128 2:1 3:1 6:1 7:1 9:0.022508 18:1 19:1 22:1 23:1 26:1 27:1 29:1 
-128 1:1 3:1 5:1 7:1 9:0.022508 18:1 20:1 22:1 24:1 26:1 27:1 29:1 
-128 1:1 3:1 5:1 7:1 9:0.0289389 18:1 19:1 22:1 23:1 25:1 28:1 
-128 1:1 3:1 5:1 7:1 9:0.0353698 18:1 19:1 22:1 23:1 26:1 27:1 29:1 
-128 2:1 3:1 6:1 8:1 9:0.0353698 18:1 20:1 22:1 23:1 26:1 27:1 29:1 
-128 2:1 3:1 6:1 7:1 9:0.0353698 18:1 20:1 22:1 23:1 26:1 27:1 29:1 
-128 2:1 3:1 6:1 8:1 9:0.0418006 18:1 19:1 22:1 23:1 26:1 27:1 29:1 
-128 2:1 3:1 6:1 7:1 9:0.0418006 18:1 19:1 22:1 23:1 26:1 27:1 29:1 
-10.01749242230121 2:1 3:1 6:1 7:1 9:0.00321543 16:1 20:1 21:1 24:1 26:1 27:0.57735 29:1 
-128 1:1 3:1 5:1 7:1 9:0.102894 16:1 20:1 21:1 23:1 26:1 27:0.666667 28:1 
-128 1:1 3:1 5:1 7:1 9:0.128617 16:1 20:1 21:1 23:1 26:1 27:0.666667 28:1 
-128 1:1 3:1 5:1 7:1 9:0.125402 18:1 19:1 21:1 23:1 25:1 28:1 
-128 1:1 3:1 5:1 7:1 9:0.0996785 18:1 20:1 21:1 23:1 26:1 27:0.866025 28:1 
-128 1:1 3:1 5:1 7:1 9:0.125402 18:1 20:1 21:1 23:1 26:1 27:0.866025 28:1 
-128 2:1 3:1 6:1 8:1 9:0.0996785 18:1 20:1 22:1 23:1 26:1 27:1 29:1 
-128 2:1 3:1 6:1 8:1 9:0.125402 18:1 20:1 22:1 23:1 26:1 27:1 29:1 
-128 1:1 3:1 5:1 7:1 9:0.0996785 18:1 19:1 21:1 23:1 25:1 28:1 
-128 1:1 3:1 5:1 7:1 9:0.0289389 18:1 19:1 21:1 23:1 25:1 28:1 
-128 2:1 3:1 6:1 8:1 9:0.0257235 18:1 20:1 22:1 23:1 26:1 27:1 29:1 
-128 1:1 3:1 5:1 7:1 9:0.0257235 18:1 20:1 22:1 24:1 26:1 27:1 29:1 
-128 1:1 4:1 6:1 7:1 9:0.205788 18:1 19:1 22:1 23:1 26:1 27:0.707107 28:1 
-128 2:1 3:1 6:1 7:1 9:0.21865 18:1 20:1 22:1 24:1 26:1 27:1 29:1 
-128 2:1 3:1 6:1 7:1 9:0.22508 15:1 20:1 21:1 23:1 26:1 27:0.353553 28:1 
-128 2:1 3:1 6:1 7:1 9:0.231511 18:1 20:1 22:1 24:1 26:1 27:1 29:1 
-128 1:1 4:1 6:1 7:1 9:0.305466 18:1 19:1 22:1 23:1 26:1 27:0.707107 28:1 
-52.63883714968589 1:1 4:1 6:1 7:1 9:0.0128617 15:1 20:1 21:1 23:1 26:1 27:0.5 28:1 
-128 1:1 4:1 6:1 7:1 9:0.202572 18:1 19:1 22:1 23:1 26:1 27:0.707107 28:1 
-128 2:1 3:1 6:1 7:1 9:0.215434 18:1 20:1 22:1 24:1 26:1 27:1 29:1 
-128 2:1 3:1 6:1 7:1 9:0.221865 15:1 20:1 21:1 23:1 26:1 27:0.353553 28:1 
-128 2:1 3:1 6:1 7:1 9:0.228296 18:1 20:1 22:1 24:1 26:1 27:1 29:1 
-128 1:1 4:1 6:1 7:1 9:0.302251 18:1 19:1 22:1 23:1 26:1 27:0.707107 28:1 
-128 1:1 3:1 5:1 7:1 9:0.22508 18:1 20:1 21:1 23:1 26:1 27:0.5 28:1 
-128 1:1 3:1 5:1 7:1 9:0.199357 10:1 20:1 21:1 23:1 26:1 27:0.866025 28:1 
-128 1:1 3:1 5:1 7:1 9:0.241158 10:1 20:1 21:1 23:1 26:1 27:0.866025 28:1 
-128 2:1 3:1 6:1 8:1 9:0.189711 17:1 19:1 22:1 24:1 26:1 27:0.707107 29:1 
-128 1:1 4:1 6:1 7:1 9:0.209003 14:1 20:1 21:1 23:1 26:1 27:0.707107 28:1 
-128 2:1 3:1 6:1 8:1 9:0.289389 17:1 19:1 22:1 24:1 26:1 27:0.707107 29:1 
-128 2:1 3:1 6:1 7:1 9:0.0868167 12:1 19:1 22:1 24:1 26:1 27:0.707107 29:1 
-128 2:1 3:1 6:1 7:1 9:0.0900322 15:1 19:1 22:1 24:1 26:1 27:0.707107 29:1 
-128 2:1 3:1 6:1 7:1 9:0.096463 15:1 19:1 22:1 24:1 26:1 27:0.707107 29:1 
-128 1:1 3:1 5:1 7:1 9:0.00643087 14:1 20:1 21:1 23:1 26:1 27:0.816497 28:1 
-128 1:1 4:1 6:1 7:1 9:0.0128617 18:1 19:1 22:1 23:1 26:1 27:0.707107 28:1 
-128 1:1 4:1 6:1 7:1 9:0.0192926 15:1 19:1 22:1 23:1 26:1 27:0.5 28:1 
-128 1:1 4:1 6:1 7:1 9:0.0257235 18:1 19:1 22:1 23:1 26:1 27:0.707107 28:1 
-128 2:1 3:1 6:1 8:1 9:0.0996785 18:1 19:1 22:1 23:1 26:1 27:1 29:1 
-128 1:1 3:1 5:1 7:1 9:0.0418006 10:1 20:1 21:1 23:1 26:1 27:0.666667 28:1 
-128 2:1 3:1 6:1 7:1 9:0.00643087 15:1 20:1 21:1 23:1 26:1 27:0.353553 28:1 
-128 1:1 4:1 6:1 7:1 9:0.0868167 18:1 19:1 22:1 23:1 26:1 27:0.707107 28:1 
-63.95177774100108 2:1 3:1 6:1 7:1 9:0.00643087 17:1 20:1 21:1 23:1 26:1 27:0.353553 28:1 
-43.33687182584189 1:1 4:1 6:1 7:1 9:0.0803859 17:1 19:1 22:1 23:1 26:1 27:0.5 28:1 
-128 1:1 4:1 6:1 7:1 9:0.073955 18:1 19:1 22:1 23:1 26:1 27:0.707107 28:1 
-128 2:1 3:1 6:1 7:1 9:0.00321543 13:1 20:1 21:1 24:1 26:1 27:0.5 29:1 
-128 2:1 3:1 6:1 7:1 9:0.0096463 13:1 20:1 21:1 24:1 26:1 27:0.5 29:1 
-128 2:1 3:1 6:1 7:1 9:0.00643087 14:1 20:1 22:1 24:1 26:1 27:1 29:1 
-128 1:1 3:1 5:1 7:1 9:0.073955 18:1 19:1 22:1 23:1 26:1 27:0.707107 28:1 
-128 2:1 3:1 5:1 7:1 9:0.176849 18:1 20:1 22:1 23:1 26:1 27:1 29:1 
-128 2:1 3:1 6:1 8:1 9:0.176849 18:1 20:1 22:1 23:1 26:1 27:1 29:1 
-128 1:1 3:1 5:1 7:1 9:0.0353698 18:1 20:1 22:1 24:1 26:1 27:1 29:1 
-128 1:1 3:1 5:1 7:1 9:0.11254 18:1 20:1 22:1 24:1 26:1 27:1 29:1 
-128 1:1 3:1 5:1 7:1 9:0.231511 18:1 20:1 22:1 24:1 26:1 27:1 29:1 
-128 1:1 3:1 5:1 7:1 9:0.0900322 18:1 19:1 21:1 23:1 26:1 27:0.288675 28:1 
-9.297847766116337 2:1 3:1 5:1 7:1 9:0.00321543 13:1 20:1 21:1 24:1 26:1 27:0.5 29:1 
-128 1:1 3:1 5:1 7:1 9:0.118971 18:1 20:1 22:1 24:1 26:1 27:1 29:1 
-128 1:1 3:1 5:1 7:1 9:0.0385852 16:1 19:1 21:1 23:1 26:1 27:0.204124 28:1 
-128 1:1 3:1 5:1 7:1 9:0.00321543 16:1 19:1 21:1 23:1 26:1 27:0.408248 28:1 
-128 1:1 4:1 6:1 7:1 9:0.0160772 15:1 19:1 22:1 23:1 26:1 27:0.5 28:1 
-128 2:1 3:1 6:1 8:1 9:0.189711 15:1 19:1 22:1 24:1 26:1 27:0.707107 29:1 
-128 2:1 3:1 6:1 8:1 9:0.209003 15:1 19:1 22:1 24:1 26:1 27:0.707107 29:1 
-128 1:1 4:1 6:1 7:1 9:0.250804 18:1 19:1 22:1 23:1 26:1 27:0.707107 28:1 
-128 1:1 4:1 6:1 7:1 9:0.173633 14:1 20:1 21:1 23:1 26:1 27:0.707107 28:1 
-128 1:1 4:1 6:1 7:1 9:0.192926 14:1 20:1 21:1 23:1 26:1 27:0.707107 28:1 
-92.20770559512312 2:1 3:1 6:1 7:1 9:0.234727 17:1 20:1 21:1 23:1 26:1 27:0.353553 28:1 
-128 2:1 3:1 6:1 7:1 13:1 20:1 21:1 24:1 26:1 27:0.666667 29:1 
-128 2:1 3:1 6:1 8:1 9:0.0192926 14:1 20:1 22:1 24:1 26:1 27:1 29:1 
-35.42337257991095 1:1 4:1 6:1 7:1 9:0.0418006 17:1 20:1 21:1 23:1 26:1 27:0.5 28:1 
-128 1:1 4:1 5:1 7:1 9:0.0771704 12:1 20:1 21:1 23:1 26:1 27:0.5 28:1 
-128 1:1 4:1 5:1 7:1 9:0.0803859 15:1 20:1 21:1 23:1 26:1 27:0.5 28:1 
-128 1:1 3:1 5:1 7:1 9:0.0771704 12:1 19:1 21:1 23:1 25:1 28:1 
-128 1:1 3:1 5:1 7:1 9:0.0803859 15:1 19:1 21:1 23:1 25:1 28:1 
-128 1:1 3:1 5:1 7:1 9:0.0482315 12:1 19:1 21:1 23:1 26:1 27:0.235702 28:1 
-128 1:1 3:1 5:1 7:1 9:0.0096463 18:1 19:1 21:1 23:1 26:1 27:0.353553 28:1 
-128 1:1 3:1 5:1 7:1 9:0.160772 12:1 20:1 22:1 24:1 26:1 27:0.866025 29:1 
-43.88559453390072 1:1 3:1 5:1 7:1 9:0.221865 10:1 19:1 22:1 23:1 26:1 27:0.707107 28:1 
-128 1:1 3:1 5:1 7:1 9:0.122186 12:1 19:1 21:1 23:1 26:1 27:0.408248 28:1 
-128 1:1 3:1 5:1 7:1 9:0.0932476 18:1 19:1 22:1 23:1 26:1 27:0.707107 28:1 
-128 1:1 3:1 5:1 7:1 9:0.096463 15:1 20:1 21:1 23:1 26:1 27:0.5 28:1 
-128 1:1 3:1 5:1 7:1 9:0.0160772 14:1 20:1 22:1 24:1 26:1 27:1 29:1 
-128 2:1 3:1 6:1 7:1 9:0.00321543 18:1 19:1 22:1 23:1 26:1 27:1 29:1 
-128 1:1 3:1 5:1 7:1 9:0.0868167 18:1 19:1 21:1 23:1 26:1 27:1 28:1 
-128 1:1 3:1 5:1 7:1 9:0.0868167 18:1 19:1 22:1 23:1 26:1 27:0.707107 28:1 
-128 1:1 3:1 5:1 7:1 9:0.0643087 18:1 19:1 21:1 23:1 26:1 27:0.5 28:1 
-128 1:1 3:1 5:1 7:1 9:0.0675241 18:1 19:1 21:1 23:1 25:1 28:1 
-128 1:1 3:1 5:1 7:1 9:0.00321543 18:1 19:1 22:1 23:1 26:1 27:0.707107 28:1 
-128 1:1 3:1 5:1 7:1 9:0.0771704 17:1 19:1 21:1 23:1 25:1 28:1 
-20.08108244133686 2:1 4:1 6:1 8:1 9:0.0771704 17:1 20:1 21:1 24:1 26:1 27:0.866025 29:1 
-128 1:1 3:1 5:1 7:1 9:0.0803859 17:1 19:1 21:1 23:1 25:1 28:1 
-128 1:1 3:1 5:1 7:1 9:0.00321543 18:1 19:1 21:1 23:1 25:1 28:1 
-128 2:1 4:1 6:1 8:1 9:0.141479 12:1 19:1 22:1 24:1 26:1 27:0.707107 29:1 
-128 1:1 3:1 5:1 7:1 9:0.0900322 12:1 20:1 21:1 23:1 26:1 27:0.4 28:1 
-128 1:1 3:1 5:1 7:1 9:0.154341 15:1 20:1 21:1 23:1 26:1 27:0.4 28:1 
-128 2:1 3:1 6:1 8:1 9:0.0643087 13:1 20:1 21:1 24:1 26:1 27:0.8 29:1 
-128 1:1 3:1 5:1 7:1 17:1 19:1 21:1 23:1 25:1 28:1 
-128 1:1 3:1 5:1 7:1 14:1 19:1 22:1 23:1 26:1 27:0.816497 28:1 
-128 1:1 3:1 5:1 7:1 15:1 20:1 21:1 23:1 26:1 27:0.408248 28:1 
-128 2:1 3:1 6:1 7:1 9:0.109325 12:1 20:1 22:1 24:1 26:1 27:0.816497 29:1 
-128 1:1 4:1 6:1 7:1 9:0.11254 18:1 19:1 22:1 23:1 26:1 27:0.707107 28:1 
-128 1:1 3:1 5:1 7:1 9:0.106109 12:1 20:1 22:1 24:1 26:1 27:0.816497 29:1 
-128 1:1 3:1 5:1 7:1 9:0.109325 18:1 19:1 21:1 23:1 26:1 27:0.8 28:1 
-128 2:1 3:1 6:1 7:1 9:0.073955 18:1 20:1 22:1 24:1 26:1 27:1 29:1 
-128 1:1 4:1 6:1 7:1 9:0.00321543 16:1 19:1 22:1 23:1 26:1 27:0.57735 28:1 
-128 1:1 3:1 5:1 7:1 9:0.250804 18:1 19:1 21:1 23:1 25:1 28:1 
-128 1:1 3:1 5:1 7:1 9:0.0482315 18:1 19:1 22:1 23:1 26:1 27:0.57735 28:1 
-128 1:1 3:1 5:1 7:1 9:0.128617 18:1 19:1 21:1 23:1 26:1 27:0.408248 28:1 
-128 1:1 3:1 5:1 7:1 9:0.0418006 18:1 19:1 21:1 23:1 25:1 28:1 
-128 1:1 3:1 5:1 7:1 9:0.135048 15:1 20:1 21:1 23:1 26:1 27:0.408248 28:1 
-128 1:1 3:1 5:1 7:1 9:0.135048 14:1 20:1 22:1 24:1 26:1 27:1 29:1 
-128 1:1 3:1 5:1 7:1 9:0.0803859 18:1 19:1 22:1 23:1 26:1 27:0.353553 28:1 
-128 1:1 3:1 5:1 7:1 9:0.0868167 10:1 20:1 22:1 24:1 26:1 27:1 29:1 
-110.2471843806321 2:1 3:1 6:1 7:1 9:0.0192926 14:1 20:1 21:1 24:1 26:1 27:0.666667 29:1 
-128 1:1 3:1 5:1 7:1 9:0.0192926 18:1 20:1 22:1 24:1 26:1 27:1 29:1 
-128 1:1 3:1 5:1 7:1 9:0.29582 18:1 19:1 21:1 23:1 26:1 27:0.632456 28:1 
-128 1:1 3:1 5:1 7:1 9:0.327974 12:1 20:1 21:1 23:1 26:1 27:0.516398 28:1 
-128 2:1 3:1 6:1 8:1 9:0.376206 18:1 19:1 22:1 23:1 26:1 27:1 29:1 
-128 2:1 3:1 6:1 7:1 9:0.302251 18:1 19:1 22:1 23:1 26:1 27:1 29:1 
-128 2:1 3:1 6:1 8:1 9:0.0192926 18:1 19:1 22:1 23:1 26:1 27:1 29:1 
-128 2:1 3:1 6:1 8:1 9:0.0321543 18:1 19:1 22:1 23:1 26:1 27:1 29:1 
-128 1:1 3:1 5:1 7:1 9:0.0321543 12:1 19:1 21:1 23:1 26:1 27:0.408248 28:1 
-128 2:1 4:1 6:1 8:1 18:1 19:1 22:1 23:1 26:1 27:1 29:1 
-128 2:1 3:1 6:1 7:1 9:0.0707395 18:1 20:1 22:1 24:1 26:1 27:1 29:1 
-128 1:1 3:1 5:1 7:1 9:0.0289389 18:1 19:1 22:1 23:1 26:1 27:0.447214 28:1 
-128 1:1 3:1 5:1 7:1 9:0.0707395 18:1 20:1 22:1 24:1 26:1 27:1 29:1 
-128 1:1 3:1 5:1 7:1 9:0.106109 12:1 19:1 21:1 23:1 26:1 27:0.223607 28:1 
-128 1:1 3:1 5:1 7:1 9:0.11254 15:1 19:1 21:1 23:1 26:1 27:0.258199 28:1 
-128 2:1 3:1 6:1 7:1 9:0.0578778 18:1 20:1 22:1 24:1 26:1 27:1 29:1 
-128 1:1 3:1 5:1 7:1 9:0.0418006 18:1 19:1 22:1 23:1 26:1 27:0.447214 28:1 
-128 1:1 3:1 5:1 7:1 9:0.0096463 10:1 19:1 21:1 23:1 26:1 27:0.204124 28:1 
-128 1:1 3:1 5:1 7:1 9:0.0160772 13:1 19:1 21:1 23:1 26:1 27:0.235702 28:1 
-128 1:1 3:1 5:1 7:1 9:0.00643087 13:1 19:1 21:1 23:1 26:1 27:0.288675 28:1 
-128 1:1 3:1 5:1 7:1 9:0.135048 18:1 20:1 22:1 23:1 26:1 27:0.816497 28:1 
-128 1:1 3:1 5:1 7:1 9:0.138264 18:1 20:1 22:1 24:1 26:1 27:1 29:1 
-128 1:1 3:1 5:1 7:1 9:0.00321543 18:1 20:1 22:1 23:1 26:1 27:0.816497 28:1 
-128 1:1 3:1 5:1 7:1 9:0.221865 12:1 20:1 21:1 23:1 26:1 27:0.365148 28:1 
-128 1:1 3:1 5:1 7:1 9:0.22508 18:1 20:1 21:1 23:1 26:1 27:0.258199 28:1 
-128 1:1 3:1 5:1 7:1 9:0.231511 15:1 20:1 21:1 23:1 26:1 27:0.447214 28:1 
-128 1:1 3:1 5:1 7:1 9:0.234727 15:1 19:1 21:1 23:1 25:1 28:1 
-128 1:1 3:1 5:1 7:1 9:0.241158 15:1 20:1 21:1 23:1 26:1 27:0.316228 28:1 
-128 1:1 3:1 5:1 7:1 9:0.00321543 16:1 20:1 21:1 23:1 26:1 27:0.471405 28:1 
-128 1:1 3:1 5:1 7:1 9:0.0096463 13:1 20:1 21:1 23:1 26:1 27:0.612372 28:1 
-128 1:1 3:1 5:1 7:1 9:0.0128617 13:1 19:1 21:1 23:1 25:1 28:1 
-128 1:1 3:1 5:1 7:1 9:0.0192926 13:1 20:1 21:1 23:1 26:1 27:0.288675 28:1 
-128 1:1 3:1 5:1 7:1 9:0.00643087 15:1 20:1 21:1 23:1 26:1 27:0.57735 28:1 
-128 1:1 3:1 5:1 7:1 9:0.0096463 15:1 19:1 21:1 23:1 25:1 28:1 
-128 1:1 3:1 5:1 7:1 9:0.0160772 15:1 20:1 21:1 23:1 26:1 27:0.408248 28:1 
-128 1:1 3:1 5:1 7:1 9:0.00321543 14:1 19:1 21:1 23:1 26:1 27:0.353553 28:1 
-128 1:1 3:1 5:1 7:1 9:0.0096463 14:1 20:1 21:1 23:1 26:1 27:0.707107 28:1 
-128 1:1 3:1 5:1 7:1 9:0.00643087 14:1 19:1 21:1 23:1 26:1 27:0.5 28:1 
-128 1:1 3:1 5:1 7:1 9:0.00643087 18:1 20:1 21:1 23:1 26:1 27:0.5 28:1 
-128 1:1 3:1 5:1 7:1 9:0.00643087 16:1 20:1 22:1 24:1 26:1 27:0.816497 29:1 
-128 2:1 3:1 6:1 7:1 9:0.102894 16:1 20:1 22:1 24:1 26:1 27:0.816497 29:1 
-128 2:1 3:1 6:1 7:1 9:0.0932476 16:1 19:1 22:1 24:1 26:1 27:0.707107 29:1 
-128 1:1 3:1 5:1 7:1 9:0.0900322 18:1 20:1 22:1 24:1 26:1 27:1 29:1 
-128 2:1 3:1 6:1 8:1 9:0.14791 17:1 20:1 22:1 24:1 26:1 27:0.816497 29:1 
-128 1:1 3:1 5:1 7:1 9:0.00321543 15:1 19:1 21:1 23:1 25:1 28:1 
-128 1:1 3:1 5:1 7:1 9:0.0643087 18:1 20:1 22:1 24:1 26:1 27:1 29:1 
-128 1:1 3:1 5:1 7:1 9:0.0257235 18:1 20:1 22:1 24:1 26:1 27:1 29:1 
-128 2:1 3:1 6:1 7:1 12:1 20:1 22:1 24:1 26:1 27:0.866025 29:1 
-19.06867505945508 2:1 4:1 6:1 8:1 9:0.157556 14:1 20:1 22:1 24:1 26:1 27:1 29:1 
-128 2:1 4:1 6:1 8:1 9:0.241158 17:1 19:1 22:1 24:1 26:1 27:0.707107 29:1 
