svm_type c_svc
kernel_type rbf
gamma 0.125
nr_class 2
total_sv 3568
rho -0.745549
label 0 1
probA -1.07045
probB -0.462784
nr_sv 1818 1750
SV
2048 1:1 3:1 5:1 7:1 9:0.0296736 18:1 19:1 21:1 23:1 25:1 28:1 30:1 
2048 1:1 3:1 5:1 7:1 9:0.0385757 18:1 19:1 21:1 23:1 25:1 28:1 30:1 
2048 1:1 3:1 5:1 7:1 9:0.0534125 18:1 19:1 21:1 23:1 25:1 28:1 30:1 
2048 1:1 3:1 5:1 7:1 9:0.0623145 18:1 19:1 21:1 23:1 25:1 28:1 30:1 
2048 1:1 4:1 5:1 7:1 9:0.0712166 18:1 19:1 21:1 23:1 25:1 28:1 30:1 
2048 1:1 3:1 5:1 7:1 9:0.0979228 18:1 19:1 21:1 23:1 25:1 28:1 30:1 
2048 1:1 3:1 5:1 7:1 9:0.10089 18:1 19:1 21:1 23:1 25:1 28:1 30:1 
2048 1:1 3:1 5:1 7:1 9:0.103858 18:1 19:1 21:1 23:1 25:1 28:1 30:1 
2048 1:1 3:1 5:1 7:1 9:0.121662 18:1 19:1 21:1 23:1 25:1 28:1 30:1 
2048 1:1 3:1 5:1 7:1 9:0.136499 18:1 19:1 21:1 23:1 25:1 28:1 30:1 
2048 1:1 3:1 5:1 7:1 9:0.166172 18:1 19:1 21:1 23:1 25:1 28:1 30:1 
2048 1:1 3:1 5:1 7:1 9:0.243323 18:1 19:1 21:1 23:1 25:1 28:1 30:1 
2048 1:1 3:1 5:1 7:1 9:0.278932 18:1 19:1 21:1 23:1 25:1 28:1 30:1 
2048 1:1 3:1 5:1 7:1 9:0.293769 18:1 19:1 21:1 23:1 25:1 28:1 30:1 
2048 1:1 3:1 5:1 7:1 9:0.305638 18:1 19:1 21:1 23:1 25:1 28:1 30:1 
2048 1:1 3:1 5:1 7:1 9:0.0148368 16:1 19:1 21:1 23:1 25:1 28:1 30:1 
2048 1:1 3:1 5:1 7:1 9:0.0296736 16:1 19:1 21:1 23:1 25:1 28:1 30:1 
1162.902727063573 1:1 3:1 5:1 7:1 9:0.0474777 16:1 19:1 21:1 23:1 25:1 28:1 30:1 
2048 1:1 3:1 5:1 7:1 9:0.0801187 16:1 19:1 21:1 23:1 25:1 28:1 30:1 
2048 1:1 3:1 5:1 7:1 9:0.142433 16:1 19:1 21:1 23:1 25:1 28:1 30:1 
2048 1:1 3:1 5:1 7:1 9:0.243323 16:1 19:1 21:1 23:1 25:1 28:1 30:1 
2048 1:1 3:1 5:1 7:1 18:1 19:1 21:1 23:1 25:1 28:1 30:1 
2048 1:1 3:1 5:1 7:1 9:0.00890208 18:1 19:1 21:1 23:1 25:1 28:1 30:1 
2048 1:1 3:1 5:1 7:1 9:0.0237389 18:1 19:1 21:1 23:1 25:1 28:1 30:1 
2048 1:1 3:1 5:1 7:1 9:0.0326409 18:1 19:1 21:1 23:1 25:1 28:1 30:1 
2048 1:1 3:1 5:1 7:1 9:0.041543 18:1 19:1 21:1 23:1 25:1 28:1 30:1 
2048 1:1 3:1 5:1 7:1 9:0.0445104 18:1 19:1 21:1 23:1 25:1 28:1 30:1 
2048 1:1 3:1 5:1 7:1 9:0.0682493 18:1 19:1 21:1 23:1 25:1 28:1 30:1 
2048 1:1 3:1 5:1 7:1 9:0.0919881 18:1 19:1 21:1 23:1 25:1 28:1 30:1 
2048 1:1 4:1 5:1 7:1 9:0.106825 18:1 19:1 21:1 23:1 25:1 28:1 30:1 
2048 1:1 3:1 5:1 7:1 9:0.106825 18:1 19:1 21:1 23:1 25:1 28:1 30:1 
2048 1:1 3:1 5:1 7:1 9:0.222552 18:1 19:1 21:1 23:1 25:1 28:1 30:1 
2048 1:1 3:1 5:1 7:1 9:0.225519 18:1 19:1 21:1 23:1 25:1 28:1 30:1 
2048 1:1 3:1 5:1 7:1 9:0.237389 18:1 19:1 21:1 23:1 25:1 28:1 30:1 
2048 1:1 4:1 5:1 7:1 9:0.0237389 18:1 19:1 21:1 23:1 25:1 28:1 30:1 
2048 2:1 3:1 6:1 8:1 9:0.0237389 18:1 19:1 22:1 23:1 26:1 27:1 29:1 30:1 
2048 1:1 4:1 5:1 7:1 9:0.0682493 18:1 19:1 21:1 23:1 25:1 28:1 30:1 
2048 2:1 3:1 6:1 8:1 9:0.0682493 18:1 19:1 22:1 23:1 26:1 27:1 29:1 30:1 
2048 2:1 3:1 6:1 8:1 9:0.106825 18:1 19:1 22:1 23:1 26:1 27:1 29:1 30:1 
2048 2:1 3:1 6:1 8:1 9:0.222552 18:1 19:1 22:1 23:1 26:1 27:1 29:1 30:1 
2048 1:1 3:1 5:1 7:1 9:0.216617 12:1 19:1 22:1 23:1 26:1 27:0.447214 28:1 30:1 
2048 1:1 3:1 5:1 7:1 9:0.0148368 18:1 19:1 21:1 23:1 25:1 28:1 30:1 
34.08947579146601 1:1 3:1 5:1 7:1 9:0.0207715 18:1 19:1 21:1 23:1 25:1 28:1 30:1 
2048 1:1 3:1 5:1 7:1 9:0.0356083 18:1 19:1 21:1 23:1 25:1 28:1 30:1 
2048 1:1 3:1 5:1 7:1 9:0.0652819 18:1 19:1 21:1 23:1 25:1 28:1 30:1 
2048 1:1 3:1 5:1 7:1 9:0.0830861 18:1 19:1 21:1 23:1 25:1 28:1 30:1 
2048 1:1 3:1 5:1 7:1 9:0.127596 18:1 19:1 21:1 23:1 25:1 28:1 30:1 
2048 1:1 3:1 5:1 7:1 9:0.216617 18:1 19:1 21:1 23:1 25:1 28:1 30:1 
2048 1:1 3:1 5:1 7:1 9:0.228487 18:1 19:1 21:1 23:1 25:1 28:1 30:1 
2048 1:1 3:1 5:1 7:1 9:0.272997 18:1 19:1 21:1 23:1 25:1 28:1 30:1 
2048 1:1 4:1 5:1 7:1 18:1 19:1 21:1 23:1 25:1 28:1 30:1 
2048 1:1 3:1 5:1 7:1 9:0.00593472 18:1 19:1 21:1 23:1 25:1 28:1 30:1 
2048 2:1 3:1 6:1 7:1 9:0.00890208 18:1 20:1 22:1 24:1 26:1 27:1 29:1 30:1 
2048 1:1 3:1 5:1 7:1 9:0.0178042 18:1 19:1 21:1 23:1 25:1 28:1 30:1 
2048 2:1 3:1 6:1 7:1 9:0.0445104 18:1 20:1 22:1 24:1 26:1 27:1 29:1 30:1 
2048 1:1 3:1 5:1 7:1 9:0.0474777 18:1 19:1 21:1 23:1 25:1 28:1 30:1 
2048 1:1 3:1 5:1 7:1 9:0.0504451 18:1 19:1 21:1 23:1 25:1 28:1 30:1 
2048 1:1 3:1 5:1 7:1 9:0.0771513 18:1 19:1 21:1 23:1 25:1 28:1 30:1 
2048 1:1 3:1 5:1 7:1 9:0.11276 18:1 19:1 21:1 23:1 25:1 28:1 30:1 
2048 1:1 3:1 5:1 7:1 9:0.189911 18:1 19:1 21:1 23:1 25:1 28:1 30:1 
2048 1:1 3:1 5:1 7:1 9:0.198813 18:1 19:1 21:1 23:1 26:1 27:0.5 28:1 30:1 
2048 1:1 4:1 5:1 7:1 9:0.198813 18:1 19:1 21:1 23:1 25:1 28:1 30:1 
2048 1:1 3:1 5:1 7:1 9:0.25816 18:1 19:1 21:1 23:1 25:1 28:1 30:1 
2048 1:1 3:1 5:1 7:1 9:0.0474777 18:1 20:1 22:1 23:1 26:1 27:0.707107 28:1 30:1 
2048 1:1 3:1 5:1 7:1 9:0.20178 18:1 20:1 22:1 23:1 26:1 27:0.707107 28:1 30:1 
2048 1:1 3:1 5:1 7:1 9:0.21365 18:1 20:1 22:1 23:1 26:1 27:0.707107 28:1 30:1 
2048 1:1 3:1 5:1 7:1 9:0.00296736 18:1 19:1 21:1 23:1 25:1 28:1 30:1 
2048 1:1 3:1 5:1 7:1 9:0.0118694 18:1 19:1 21:1 23:1 25:1 28:1 30:1 
2048 1:1 3:1 5:1 7:1 9:0.192878 18:1 19:1 21:1 23:1 25:1 28:1 30:1 
2048 1:1 3:1 5:1 7:1 9:0.195846 18:1 19:1 21:1 23:1 25:1 28:1 30:1 
2048 1:1 3:1 5:1 7:1 9:0.207715 18:1 19:1 21:1 23:1 25:1 28:1 30:1 
2048 1:1 3:1 5:1 7:1 9:0.234421 18:1 19:1 21:1 23:1 25:1 28:1 30:1 
2048 1:1 3:1 5:1 7:1 9:0.0356083 18:1 19:1 21:1 23:1 26:1 27:0.5 28:1 30:1 
2048 1:1 4:1 5:1 7:1 9:0.0356083 18:1 19:1 21:1 23:1 25:1 28:1 30:1 
2048 1:1 3:1 5:1 7:1 9:0.181009 18:1 19:1 21:1 23:1 25:1 28:1 30:1 
2048 1:1 4:1 5:1 7:1 9:0.189911 18:1 19:1 21:1 23:1 25:1 28:1 30:1 
2048 1:1 3:1 5:1 7:1 9:0.204748 18:1 19:1 21:1 23:1 26:1 27:0.5 28:1 30:1 
2048 1:1 3:1 5:1 7:1 9:0.0267062 18:1 19:1 21:1 23:1 25:1 28:1 30:1 
2048 1:1 3:1 5:1 7:1 9:0.0949555 18:1 19:1 21:1 23:1 25:1 28:1 30:1 
2048 1:1 3:1 5:1 7:1 9:0.172107 18:1 19:1 21:1 23:1 25:1 28:1 30:1 
2048 1:1 3:1 5:1 7:1 9:0.210682 18:1 19:1 21:1 23:1 25:1 28:1 30:1 
2048 1:1 3:1 5:1 7:1 9:0.0237389 18:1 19:1 21:1 23:1 26:1 27:0.353553 28:1 30:1 
2048 1:1 3:1 5:1 7:1 9:0.0563798 18:1 19:1 21:1 23:1 25:1 28:1 30:1 
822.8792787505301 1:1 3:1 5:1 7:1 9:0.169139 18:1 19:1 21:1 23:1 25:1 28:1 30:1 
2048 1:1 3:1 5:1 7:1 9:0.178042 18:1 19:1 21:1 23:1 26:1 27:0.353553 28:1 30:1 
2048 1:1 3:1 5:1 7:1 9:0.178042 18:1 19:1 21:1 23:1 25:1 28:1 30:1 
2048 1:1 3:1 5:1 7:1 9:0.192878 18:1 19:1 21:1 23:1 26:1 27:0.353553 28:1 30:1 
2048 1:1 3:1 5:1 7:1 9:0.145401 18:1 19:1 21:1 23:1 25:1 28:1 30:1 
1020.644945324069 1:1 3:1 5:1 7:1 9:0.148368 12:1 19:1 21:1 23:1 25:1 28:1 30:1 
2048 1:1 3:1 5:1 7:1 9:0.15727 18:1 19:1 21:1 23:1 25:1 28:1 30:1 
2048 1:1 4:1 5:1 7:1 9:0.21365 18:1 19:1 21:1 23:1 25:1 28:1 30:1 
1319.478064421462 1:1 3:1 5:1 7:1 9:0.195846 18:1 19:1 21:1 23:1 26:1 27:0.5 28:1 30:1 
2048 1:1 3:1 5:1 7:1 9:0.142433 18:1 19:1 21:1 23:1 25:1 28:1 30:1 
2048 1:1 3:1 5:1 7:1 9:0.145401 12:1 19:1 21:1 23:1 25:1 28:1 30:1 
2048 1:1 3:1 5:1 7:1 9:0.151335 18:1 19:1 21:1 23:1 25:1 28:1 30:1 
2048 1:1 3:1 5:1 7:1 9:0.148368 18:1 19:1 21:1 23:1 25:1 28:1 30:1 
2048 1:1 3:1 5:1 7:1 9:0.163205 18:1 19:1 21:1 23:1 25:1 28:1 30:1 
2048 1:1 3:1 5:1 7:1 9:0.175074 18:1 19:1 21:1 23:1 25:1 28:1 30:1 
2048 1:1 3:1 5:1 7:1 9:0.133531 18:1 19:1 21:1 23:1 25:1 28:1 30:1 
2048 1:1 3:1 5:1 7:1 9:0.160237 18:1 19:1 21:1 23:1 25:1 28:1 30:1 
2048 1:1 3:1 5:1 7:1 9:0.115727 12:1 19:1 21:1 23:1 25:1 28:1 30:1 
2048 1:1 3:1 5:1 7:1 9:0.115727 18:1 19:1 21:1 23:1 25:1 28:1 30:1 
2048 1:1 3:1 5:1 7:1 9:0.118694 18:1 19:1 21:1 23:1 25:1 28:1 30:1 
2048 1:1 3:1 5:1 7:1 18:1 19:1 22:1 23:1 25:1 28:1 30:1 
2048 1:1 4:1 5:1 7:1 9:0.115727 18:1 19:1 21:1 23:1 25:1 28:1 30:1 
2048 1:1 3:1 5:1 7:1 9:0.0801187 12:1 19:1 21:1 23:1 25:1 28:1 30:1 
2048 1:1 3:1 5:1 7:1 9:0.0860534 18:1 19:1 21:1 23:1 25:1 28:1 30:1 
2048 1:1 3:1 5:1 7:1 9:0.0890208 18:1 19:1 21:1 23:1 25:1 28:1 30:1 
2048 1:1 3:1 5:1 7:1 9:0.0326409 16:1 19:1 21:1 23:1 25:1 28:1 30:1 
2048 1:1 3:1 5:1 7:1 9:0.0148368 18:1 19:1 21:1 23:1 26:1 27:0.5 28:1 30:1 
509.4796546918089 1:1 3:1 5:1 7:1 18:1 19:1 21:1 24:1 25:1 28:1 30:1 
278.471369243031 1:1 3:1 5:1 7:1 9:0.109792 15:1 19:1 21:1 23:1 25:1 28:1 30:1 
2048 1:1 3:1 5:1 7:1 9:0.109792 18:1 19:1 21:1 23:1 25:1 28:1 30:1 
2048 1:1 3:1 5:1 7:1 9:0.186944 18:1 19:1 21:1 23:1 25:1 28:1 30:1 
2048 1:1 3:1 5:1 7:1 9:0.106825 15:1 19:1 21:1 23:1 25:1 28:1 30:1 
975.2130048712695 1:1 4:1 5:1 7:1 9:0.145401 18:1 19:1 21:1 23:1 25:1 28:1 30:1 
2048 1:1 3:1 5:1 7:1 9:0.0949555 15:1 19:1 21:1 23:1 25:1 28:1 30:1 
2048 1:1 3:1 5:1 7:1 9:0.0979228 15:1 19:1 21:1 23:1 25:1 28:1 30:1 
2048 1:1 3:1 5:1 7:1 9:0.225519 15:1 19:1 21:1 23:1 25:1 28:1 30:1 
2048 1:1 3:1 5:1 7:1 9:0.0623145 12:1 19:1 21:1 23:1 25:1 28:1 30:1 
2048 1:1 3:1 5:1 7:1 9:0.0801187 15:1 19:1 21:1 23:1 25:1 28:1 30:1 
2048 1:1 3:1 5:1 7:1 9:0.0801187 18:1 19:1 21:1 23:1 25:1 28:1 30:1 
2048 1:1 3:1 5:1 7:1 9:0.0504451 18:1 19:1 21:1 24:1 25:1 28:1 30:1 
2048 1:1 3:1 5:1 7:1 9:0.0623145 15:1 19:1 21:1 23:1 25:1 28:1 30:1 
2048 1:1 3:1 5:1 7:1 9:0.0652819 15:1 19:1 21:1 23:1 25:1 28:1 30:1 
2048 1:1 3:1 5:1 7:1 9:0.041543 16:1 19:1 21:1 23:1 25:1 28:1 30:1 
2048 1:1 3:1 5:1 7:1 9:0.0949555 16:1 19:1 21:1 23:1 25:1 28:1 30:1 
2048 1:1 3:1 5:1 7:1 9:0.0118694 15:1 19:1 21:1 23:1 25:1 28:1 30:1 
2048 1:1 3:1 5:1 7:1 9:0.0148368 15:1 19:1 21:1 23:1 25:1 28:1 30:1 
2048 1:1 3:1 5:1 7:1 9:0.142433 15:1 19:1 21:1 23:1 25:1 28:1 30:1 
2048 1:1 3:1 5:1 7:1 17:1 19:1 21:1 23:1 25:1 28:1 30:1 
2048 1:1 3:1 5:1 7:1 9:0.0118694 17:1 19:1 21:1 23:1 25:1 28:1 30:1 
95.91798216543131 1:1 3:1 5:1 7:1 9:0.0178042 17:1 19:1 21:1 23:1 25:1 28:1 30:1 
2048 1:1 3:1 5:1 7:1 9:0.0237389 17:1 19:1 21:1 23:1 25:1 28:1 30:1 
2048 1:1 3:1 5:1 7:1 9:0.0267062 17:1 19:1 21:1 23:1 25:1 28:1 30:1 
2048 1:1 3:1 5:1 7:1 9:0.0296736 17:1 19:1 21:1 23:1 25:1 28:1 30:1 
2048 1:1 3:1 5:1 7:1 9:0.0356083 17:1 19:1 21:1 23:1 25:1 28:1 30:1 
2048 1:1 3:1 5:1 7:1 9:0.041543 17:1 19:1 21:1 23:1 25:1 28:1 30:1 
2048 1:1 3:1 5:1 7:1 9:0.0474777 17:1 19:1 21:1 23:1 25:1 28:1 30:1 
2048 1:1 3:1 5:1 7:1 9:0.0623145 17:1 19:1 21:1 23:1 25:1 28:1 30:1 
2048 1:1 3:1 5:1 7:1 9:0.0771513 17:1 19:1 21:1 23:1 25:1 28:1 30:1 
494.633077837922 1:1 3:1 5:1 7:1 9:0.00296736 15:1 19:1 21:1 23:1 25:1 28:1 30:1 
2048 1:1 3:1 5:1 7:1 14:1 19:1 21:1 23:1 25:1 28:1 30:1 
2048 1:1 3:1 5:1 7:1 9:0.00890208 17:1 19:1 21:1 23:1 25:1 28:1 30:1 
2048 1:1 3:1 5:1 7:1 9:0.0148368 17:1 19:1 21:1 23:1 25:1 28:1 30:1 
2048 1:1 3:1 5:1 7:1 9:0.0326409 17:1 19:1 21:1 23:1 25:1 28:1 30:1 
2048 1:1 3:1 5:1 7:1 9:0.0504451 17:1 19:1 21:1 23:1 25:1 28:1 30:1 
2048 1:1 3:1 5:1 7:1 9:0.0801187 17:1 19:1 21:1 23:1 25:1 28:1 30:1 
2048 1:1 3:1 5:1 7:1 9:0.127596 14:1 19:1 21:1 23:1 25:1 28:1 30:1 
2048 2:1 3:1 6:1 7:1 9:0.0682493 17:1 19:1 21:1 23:1 25:1 28:1 30:1 
2048 1:1 3:1 5:1 7:1 9:0.0118694 16:1 19:1 21:1 23:1 25:1 28:1 30:1 
2048 1:1 3:1 5:1 7:1 9:0.118694 15:1 19:1 21:1 23:1 25:1 28:1 30:1 
2048 2:1 3:1 6:1 8:1 9:0.041543 18:1 19:1 22:1 23:1 26:1 27:1 29:1 30:1 
2048 1:1 3:1 5:1 7:1 9:0.0771513 15:1 19:1 21:1 23:1 25:1 28:1 30:1 
2048 1:1 3:1 5:1 7:1 9:0.0682493 15:1 19:1 21:1 23:1 25:1 28:1 30:1 
2048 1:1 3:1 5:1 7:1 9:0.0474777 15:1 19:1 21:1 23:1 25:1 28:1 30:1 
2048 1:1 3:1 5:1 7:1 9:0.041543 15:1 19:1 21:1 23:1 25:1 28:1 30:1 
2048 1:1 3:1 5:1 7:1 9:0.00890208 18:1 19:1 21:1 23:1 26:1 27:0.447214 28:1 30:1 
2048 1:1 4:1 5:1 7:1 9:0.0860534 18:1 19:1 21:1 23:1 25:1 28:1 30:1 
2048 1:1 3:1 5:1 7:1 9:0.148368 15:1 19:1 21:1 23:1 25:1 28:1 30:1 
2048 1:1 3:1 5:1 7:1 9:0.142433 12:1 19:1 21:1 23:1 25:1 28:1 30:1 
2048 1:1 3:1 5:1 7:1 9:0.136499 15:1 19:1 21:1 23:1 25:1 28:1 30:1 
2048 1:1 4:1 5:1 7:1 9:0.041543 18:1 19:1 21:1 23:1 25:1 28:1 30:1 
2048 1:1 3:1 5:1 7:1 9:0.0949555 12:1 19:1 21:1 23:1 25:1 28:1 30:1 
2048 1:1 3:1 5:1 7:1 9:0.0267062 16:1 19:1 21:1 23:1 25:1 28:1 30:1 
2048 1:1 3:1 5:1 7:1 9:0.115727 16:1 19:1 21:1 23:1 25:1 28:1 30:1 
2048 1:1 3:1 5:1 7:1 9:0.127596 13:1 19:1 21:1 23:1 25:1 28:1 30:1 
2048 1:1 3:1 5:1 7:1 9:0.121662 15:1 19:1 21:1 23:1 25:1 28:1 30:1 
2048 1:1 3:1 5:1 7:1 9:0.0979228 12:1 19:1 21:1 23:1 25:1 28:1 30:1 
2048 1:1 3:1 5:1 7:1 9:0.0207715 15:1 19:1 21:1 23:1 25:1 28:1 30:1 
2048 1:1 3:1 5:1 7:1 9:0.00593472 15:1 19:1 21:1 23:1 25:1 28:1 30:1 
2048 1:1 3:1 5:1 7:1 9:0.0504451 15:1 19:1 21:1 23:1 25:1 28:1 30:1 
2048 1:1 4:1 5:1 7:1 9:0.121662 18:1 19:1 21:1 23:1 25:1 28:1 30:1 
2048 1:1 3:1 5:1 7:1 9:0.27003 18:1 19:1 21:1 23:1 25:1 28:1 30:1 
2048 1:1 3:1 5:1 7:1 9:0.302671 18:1 19:1 21:1 23:1 25:1 28:1 30:1 
2048 1:1 3:1 5:1 7:1 9:0.31454 18:1 19:1 21:1 23:1 25:1 28:1 30:1 
2048 1:1 3:1 5:1 7:1 9:0.329377 18:1 19:1 21:1 23:1 25:1 28:1 30:1 
2048 1:1 3:1 5:1 7:1 9:0.335312 18:1 19:1 21:1 23:1 25:1 28:1 30:1 
2048 1:1 3:1 5:1 7:1 9:0.341246 18:1 19:1 21:1 23:1 25:1 28:1 30:1 
2048 1:1 3:1 5:1 7:1 9:0.350148 18:1 19:1 21:1 23:1 25:1 28:1 30:1 
2048 1:1 3:1 5:1 7:1 9:0.35905 18:1 19:1 21:1 23:1 25:1 28:1 30:1 
2048 1:1 3:1 5:1 7:1 9:0.382789 18:1 19:1 21:1 23:1 25:1 28:1 30:1 
2048 1:1 3:1 5:1 7:1 9:0.403561 18:1 19:1 21:1 23:1 25:1 28:1 30:1 
2048 1:1 3:1 5:1 7:1 9:0.412463 18:1 19:1 21:1 23:1 25:1 28:1 30:1 
2048 1:1 3:1 5:1 7:1 9:0.418398 18:1 19:1 21:1 23:1 25:1 28:1 30:1 
2048 1:1 3:1 5:1 7:1 9:0.243323 15:1 19:1 21:1 23:1 25:1 28:1 30:1 
2048 1:1 3:1 5:1 7:1 9:0.287834 18:1 19:1 21:1 23:1 25:1 28:1 30:1 
2048 1:1 3:1 5:1 7:1 9:0.326409 18:1 19:1 21:1 23:1 25:1 28:1 30:1 
2048 1:1 3:1 5:1 7:1 9:0.362018 18:1 19:1 21:1 23:1 25:1 28:1 30:1 
194.6356072552133 1:1 3:1 5:1 7:1 9:0.364985 18:1 19:1 21:1 23:1 25:1 28:1 30:1 
2048 1:1 3:1 5:1 7:1 9:0.409496 18:1 19:1 21:1 23:1 25:1 28:1 30:1 
2048 1:1 3:1 5:1 7:1 9:0.430267 18:1 19:1 21:1 23:1 25:1 28:1 30:1 
1548.993437845637 1:1 3:1 5:1 7:1 9:0.00593472 18:1 19:1 21:1 23:1 26:1 27:0.333333 28:1 30:1 
2048 1:1 3:1 5:1 7:1 9:0.0326409 15:1 19:1 21:1 23:1 25:1 28:1 30:1 
2048 1:1 3:1 5:1 7:1 9:0.0296736 15:1 19:1 21:1 23:1 25:1 28:1 30:1 
2048 1:1 3:1 5:1 7:1 9:0.0267062 15:1 19:1 21:1 23:1 25:1 28:1 30:1 
2048 1:1 3:1 5:1 7:1 9:0.0445104 15:1 19:1 21:1 23:1 25:1 28:1 30:1 
2048 1:1 3:1 5:1 7:1 9:0.293769 15:1 19:1 21:1 23:1 25:1 28:1 30:1 
2048 1:1 4:1 5:1 7:1 9:0.0207715 18:1 19:1 21:1 23:1 25:1 28:1 30:1 
2048 1:1 3:1 5:1 7:1 9:0.0237389 15:1 19:1 21:1 23:1 25:1 28:1 30:1 
2048 1:1 3:1 5:1 7:1 9:0.0385757 15:1 19:1 21:1 23:1 25:1 28:1 30:1 
2048 1:1 3:1 5:1 7:1 9:0.127596 12:1 19:1 21:1 23:1 25:1 28:1 30:1 
2048 1:1 3:1 5:1 7:1 9:0.0178042 15:1 19:1 21:1 23:1 25:1 28:1 30:1 
2048 1:1 3:1 5:1 7:1 9:0.222552 15:1 19:1 21:1 23:1 25:1 28:1 30:1 
2048 1:1 3:1 5:1 7:1 9:0.272997 15:1 19:1 21:1 23:1 25:1 28:1 30:1 
2048 1:1 3:1 5:1 7:1 9:0.278932 15:1 19:1 21:1 23:1 25:1 28:1 30:1 
21.17326069183013 1:1 3:1 5:1 7:1 9:0.00296736 15:1 19:1 21:1 24:1 25:1 28:1 30:1 
2048 1:1 3:1 5:1 7:1 9:0.278932 17:1 19:1 21:1 23:1 25:1 28:1 30:1 
1306.108080899725 1:1 3:1 5:1 7:1 9:0.287834 17:1 19:1 21:1 23:1 25:1 28:1 30:1 
2048 1:1 3:1 5:1 7:1 9:0.293769 17:1 19:1 21:1 23:1 25:1 28:1 30:1 
1294.381268586405 1:1 3:1 5:1 7:1 9:0.00593472 18:1 19:1 22:1 23:1 25:1 28:1 30:1 
2048 1:1 3:1 5:1 7:1 9:0.00890208 15:1 19:1 21:1 23:1 25:1 28:1 30:1 
2048 1:1 3:1 5:1 7:1 9:0.216617 15:1 19:1 21:1 23:1 25:1 28:1 30:1 
650.388912660899 1:1 3:1 5:1 7:1 9:0.207715 15:1 19:1 21:1 23:1 25:1 28:1 30:1 
2048 1:1 3:1 5:1 7:1 9:0.115727 17:1 19:1 21:1 23:1 25:1 28:1 30:1 
1961.624128201116 1:1 4:1 6:1 7:1 9:0.186944 14:1 19:1 21:1 23:1 26:1 27:0.5 28:1 30:1 
2048 1:1 4:1 6:1 7:1 9:0.243323 17:1 19:1 21:1 23:1 25:1 28:1 30:1 
2048 1:1 3:1 5:1 7:1 9:0.163205 12:1 19:1 21:1 23:1 25:1 28:1 30:1 
2048 1:1 4:1 5:1 7:1 9:0.222552 18:1 19:1 21:1 23:1 25:1 28:1 30:1 
2048 1:1 3:1 5:1 7:1 9:0.0979228 13:1 19:1 21:1 23:1 25:1 28:1 30:1 
2048 1:1 3:1 5:1 7:1 9:0.145401 16:1 19:1 21:1 23:1 25:1 28:1 30:1 
2048 1:1 3:1 5:1 7:1 9:0.172107 16:1 19:1 21:1 23:1 25:1 28:1 30:1 
2016.698574948908 1:1 3:1 5:1 7:1 9:0.222552 16:1 19:1 21:1 23:1 25:1 28:1 30:1 
2048 1:1 3:1 5:1 7:1 9:0.0919881 15:1 19:1 21:1 23:1 25:1 28:1 30:1 
2048 1:1 3:1 5:1 7:1 9:0.0326409 12:1 19:1 21:1 23:1 25:1 28:1 30:1 
14.13260831679725 2:1 4:1 6:1 7:1 9:0.00296736 14:1 19:1 21:1 24:1 26:1 27:0.5 28:1 30:1 
2048 2:1 4:1 6:1 7:1 9:0.0563798 17:1 19:1 21:1 24:1 25:1 28:1 30:1 
2048 1:1 3:1 5:1 7:1 9:0.0949555 17:1 19:1 21:1 23:1 25:1 28:1 30:1 
2048 1:1 3:1 5:1 7:1 9:0.0979228 17:1 19:1 21:1 23:1 25:1 28:1 30:1 
2048 1:1 3:1 5:1 7:1 9:0.118694 17:1 19:1 21:1 23:1 25:1 28:1 30:1 
688.9218316935226 1:1 3:1 5:1 7:1 9:0.121662 17:1 19:1 21:1 23:1 25:1 28:1 30:1 
2048 1:1 3:1 5:1 7:1 9:0.127596 17:1 19:1 21:1 23:1 25:1 28:1 30:1 
2048 1:1 3:1 5:1 7:1 9:0.142433 17:1 19:1 21:1 23:1 25:1 28:1 30:1 
2048 1:1 3:1 5:1 7:1 9:0.145401 17:1 19:1 21:1 23:1 25:1 28:1 30:1 
2048 1:1 3:1 5:1 7:1 9:0.148368 17:1 19:1 21:1 23:1 25:1 28:1 30:1 
2048 1:1 3:1 5:1 7:1 9:0.163205 17:1 19:1 21:1 23:1 25:1 28:1 30:1 
2048 1:1 3:1 5:1 7:1 9:0.172107 17:1 19:1 21:1 23:1 25:1 28:1 30:1 
29.71547009929407 1:1 3:1 6:1 7:1 9:0.189911 17:1 19:1 21:1 23:1 25:1 28:1 30:1 
2048 2:1 4:1 6:1 8:1 9:0.0534125 17:1 19:1 22:1 24:1 26:1 27:0.707107 29:1 30:1 
2048 1:1 3:1 5:1 7:1 9:0.0148368 13:1 19:1 21:1 23:1 25:1 28:1 30:1 
2048 1:1 3:1 5:1 7:1 9:0.0623145 13:1 19:1 21:1 23:1 25:1 28:1 30:1 
2048 1:1 3:1 5:1 7:1 9:0.127596 16:1 19:1 21:1 23:1 25:1 28:1 30:1 
2048 1:1 3:1 5:1 7:1 9:0.163205 16:1 19:1 21:1 23:1 25:1 28:1 30:1 
2048 1:1 3:1 5:1 7:1 9:0.0207715 10:1 20:1 21:1 23:1 26:1 27:0.666667 28:1 30:1 
2048 1:1 3:1 5:1 7:1 9:0.0118694 13:1 19:1 21:1 23:1 25:1 28:1 30:1 
2048 1:1 3:1 5:1 7:1 9:0.041543 14:1 19:1 21:1 23:1 25:1 28:1 30:1 
2048 1:1 3:1 5:1 7:1 9:0.041543 13:1 19:1 21:1 23:1 25:1 28:1 30:1 
2048 1:1 3:1 5:1 7:1 9:0.0623145 16:1 19:1 21:1 23:1 25:1 28:1 30:1 
2048 1:1 3:1 5:1 7:1 9:0.0118694 18:1 20:1 21:1 23:1 26:1 27:0.5 28:1 30:1 
2048 1:1 3:1 5:1 7:1 9:0.172107 15:1 19:1 21:1 23:1 25:1 28:1 30:1 
2048 1:1 3:1 5:1 7:1 9:0.163205 15:1 19:1 21:1 23:1 25:1 28:1 30:1 
2048 1:1 4:1 5:1 7:1 9:0.163205 18:1 19:1 21:1 23:1 25:1 28:1 30:1 
2048 1:1 3:1 5:1 7:1 9:0.15727 15:1 19:1 21:1 23:1 25:1 28:1 30:1 
2048 1:1 3:1 5:1 7:1 9:0.145401 15:1 19:1 21:1 23:1 25:1 28:1 30:1 
2048 1:1 4:1 5:1 7:1 9:0.0296736 18:1 19:1 21:1 23:1 25:1 28:1 30:1 
2048 1:1 3:1 5:1 7:1 9:0.127596 15:1 19:1 21:1 23:1 25:1 28:1 30:1 
2048 1:1 3:1 5:1 7:1 9:0.115727 15:1 19:1 21:1 23:1 25:1 28:1 30:1 
57.32639890587471 1:1 3:1 5:1 7:1 9:0.0504451 18:1 20:1 22:1 24:1 26:1 27:0.57735 28:1 30:1 
2048 1:1 4:1 5:1 7:1 9:0.0148368 18:1 19:1 21:1 23:1 25:1 28:1 30:1 
2048 2:1 3:1 6:1 7:1 9:0.00593472 18:1 20:1 22:1 23:1 26:1 27:1 29:1 30:1 
2048 1:1 3:1 5:1 7:1 9:0.0563798 15:1 19:1 21:1 23:1 25:1 28:1 30:1 
2048 1:1 3:1 5:1 7:1 18:1 19:1 22:1 23:1 26:1 27:0.408248 28:1 30:1 
2048 1:1 3:1 5:1 7:1 9:0.222552 18:1 19:1 21:1 23:1 26:1 27:0.408248 28:1 30:1 
2048 1:1 3:1 5:1 7:1 9:0.133531 15:1 19:1 21:1 23:1 25:1 28:1 30:1 
2048 1:1 3:1 5:1 7:1 9:0.181009 18:1 19:1 21:1 23:1 26:1 27:0.5 28:1 30:1 
2048 1:1 3:1 5:1 7:1 9:0.189911 18:1 19:1 21:1 24:1 26:1 27:0.5 28:1 30:1 
1058.616744110664 1:1 3:1 5:1 7:1 18:1 20:1 21:1 23:1 26:1 27:0.408248 28:1 30:1 
2048 2:1 3:1 6:1 7:1 9:0.186944 18:1 20:1 22:1 24:1 26:1 27:1 29:1 30:1 
2048 1:1 3:1 5:1 7:1 9:0.0801187 13:1 19:1 21:1 23:1 25:1 28:1 30:1 
1704.124499022099 1:1 3:1 5:1 7:1 17:1 20:1 21:1 23:1 26:1 27:0.353553 28:1 30:1 
2048 1:1 3:1 5:1 7:1 9:0.0267062 12:1 19:1 21:1 23:1 25:1 28:1 30:1 
2048 1:1 3:1 5:1 7:1 9:0.0534125 12:1 19:1 21:1 23:1 26:1 27:0.353553 28:1 30:1 
2048 1:1 3:1 5:1 7:1 9:0.041543 12:1 19:1 21:1 23:1 25:1 28:1 30:1 
2048 1:1 3:1 5:1 7:1 9:0.0474777 13:1 19:1 21:1 23:1 25:1 28:1 30:1 
2048 1:1 4:1 5:1 7:1 9:0.041543 15:1 19:1 21:1 23:1 25:1 28:1 30:1 
2048 1:1 3:1 5:1 7:1 9:0.041543 18:1 19:1 22:1 23:1 26:1 27:0.707107 28:1 30:1 
2048 1:1 3:1 5:1 7:1 9:0.0267062 18:1 19:1 22:1 23:1 26:1 27:0.707107 28:1 30:1 
2048 1:1 3:1 5:1 7:1 9:0.0296736 13:1 19:1 21:1 23:1 25:1 28:1 30:1 
2048 1:1 3:1 5:1 7:1 9:0.00296736 15:1 20:1 21:1 23:1 26:1 27:0.5 28:1 30:1 
2048 2:1 3:1 6:1 8:1 9:0.0534125 18:1 19:1 22:1 23:1 26:1 27:1 29:1 30:1 
2048 1:1 3:1 5:1 7:1 9:0.172107 12:1 19:1 21:1 23:1 25:1 28:1 30:1 
2048 1:1 3:1 5:1 7:1 9:0.0385757 16:1 19:1 22:1 23:1 26:1 27:0.5 28:1 30:1 
2048 1:1 3:1 5:1 7:1 15:1 19:1 21:1 23:1 25:1 28:1 30:1 
1400.099383416773 1:1 3:1 5:1 7:1 9:0.25816 17:1 19:1 21:1 23:1 25:1 28:1 30:1 
2048 2:1 3:1 6:1 8:1 9:0.0385757 18:1 19:1 22:1 23:1 26:1 27:1 29:1 30:1 
2048 2:1 3:1 6:1 8:1 9:0.228487 18:1 19:1 22:1 23:1 26:1 27:1 29:1 30:1 
2048 2:1 3:1 6:1 8:1 9:0.234421 18:1 19:1 22:1 23:1 26:1 27:1 29:1 30:1 
1046.302306271378 1:1 3:1 5:1 7:1 9:0.178042 12:1 19:1 21:1 23:1 25:1 28:1 30:1 
2048 1:1 3:1 5:1 7:1 9:0.0296736 18:1 19:1 22:1 23:1 25:1 28:1 30:1 
2048 2:1 3:1 6:1 7:1 9:0.21365 18:1 19:1 22:1 23:1 26:1 27:1 29:1 30:1 
2048 1:1 3:1 5:1 7:1 9:0.163205 12:1 19:1 22:1 23:1 26:1 27:0.5 28:1 30:1 
2048 1:1 3:1 5:1 7:1 9:0.169139 15:1 19:1 22:1 23:1 26:1 27:0.5 28:1 30:1 
2048 1:1 3:1 5:1 7:1 9:0.192878 18:1 19:1 22:1 23:1 25:1 28:1 30:1 
2048 2:1 3:1 6:1 7:1 9:0.195846 18:1 19:1 22:1 23:1 26:1 27:1 29:1 30:1 
2048 2:1 3:1 6:1 8:1 9:0.189911 18:1 19:1 22:1 23:1 26:1 27:1 29:1 30:1 
2048 2:1 3:1 6:1 8:1 9:0.195846 18:1 19:1 22:1 23:1 26:1 27:1 29:1 30:1 
320.9008629825048 1:1 3:1 5:1 7:1 9:0.0504451 13:1 19:1 21:1 23:1 25:1 28:1 30:1 
2048 1:1 3:1 5:1 7:1 9:0.0237389 13:1 19:1 21:1 23:1 25:1 28:1 30:1 
2048 1:1 3:1 5:1 7:1 9:0.0356083 18:1 19:1 22:1 23:1 26:1 27:0.57735 28:1 30:1 
2048 1:1 3:1 5:1 7:1 9:0.041543 18:1 19:1 22:1 23:1 26:1 27:0.57735 28:1 30:1 
2048 1:1 3:1 5:1 7:1 9:0.0296736 18:1 19:1 22:1 23:1 26:1 27:0.57735 28:1 30:1 
2048 2:1 3:1 6:1 8:1 9:0.00593472 18:1 19:1 22:1 23:1 26:1 27:1 29:1 30:1 
2048 1:1 3:1 5:1 7:1 9:0.0148368 15:1 19:1 22:1 23:1 26:1 27:0.57735 28:1 30:1 
2036.027560740957 1:1 3:1 5:1 7:1 9:0.00890208 13:1 19:1 21:1 23:1 25:1 28:1 30:1 
2048 1:1 3:1 5:1 7:1 9:0.00890208 16:1 19:1 22:1 23:1 26:1 27:0.447214 28:1 30:1 
2048 1:1 3:1 5:1 7:1 9:0.00296736 18:1 19:1 22:1 23:1 26:1 27:0.707107 28:1 30:1 
2048 1:1 3:1 5:1 7:1 9:0.041543 11:1 19:1 21:1 23:1 25:1 28:1 30:1 
2048 1:1 3:1 5:1 7:1 9:0.0118694 18:1 19:1 22:1 23:1 26:1 27:0.707107 28:1 30:1 
2048 1:1 3:1 5:1 7:1 9:0.0296736 12:1 19:1 21:1 23:1 25:1 28:1 30:1 
1412.207895624553 1:1 3:1 5:1 7:1 9:0.00593472 17:1 19:1 21:1 24:1 25:1 28:1 30:1 
2048 2:1 3:1 6:1 7:1 9:0.00296736 18:1 19:1 22:1 23:1 26:1 27:1 29:1 30:1 
0.3398064490729066 2:1 3:1 6:1 7:1 9:0.0326409 18:1 19:1 22:1 23:1 25:1 28:1 30:1 
2048 1:1 3:1 5:1 7:1 9:0.0148368 18:1 19:1 22:1 23:1 26:1 27:0.707107 28:1 30:1 
2048 1:1 3:1 5:1 7:1 18:1 20:1 21:1 24:1 26:1 27:0.5 28:1 30:1 
481.6707108841561 1:1 3:1 5:1 7:1 9:0.261128 15:1 19:1 22:1 23:1 26:1 27:0.5 28:1 30:1 
2048 2:1 3:1 6:1 7:1 9:0.332344 18:1 19:1 22:1 23:1 26:1 27:1 29:1 30:1 
919.0111557031915 1:1 3:1 5:1 7:1 9:0.278932 16:1 19:1 21:1 23:1 25:1 28:1 30:1 
2048 1:1 3:1 5:1 7:1 9:0.0712166 17:1 19:1 22:1 23:1 26:1 27:0.5 28:1 30:1 
2048 1:1 3:1 5:1 7:1 9:0.00890208 14:1 20:1 21:1 23:1 26:1 27:0.866025 28:1 30:1 
2048 2:1 4:1 6:1 8:1 9:0.0474777 18:1 19:1 22:1 23:1 26:1 27:1 29:1 30:1 
2048 1:1 3:1 5:1 7:1 9:0.0356083 17:1 19:1 22:1 23:1 26:1 27:0.5 28:1 30:1 
815.4985618801977 1:1 3:1 5:1 7:1 9:0.109792 17:1 19:1 22:1 23:1 26:1 27:0.5 28:1 30:1 
2048 1:1 3:1 5:1 7:1 9:0.11276 17:1 19:1 21:1 23:1 26:1 27:0.288675 28:1 30:1 
2048 1:1 3:1 5:1 7:1 9:0.0652819 18:1 19:1 22:1 23:1 25:1 28:1 30:1 
2048 2:1 3:1 6:1 8:1 9:0.0593472 18:1 20:1 22:1 23:1 26:1 27:1 29:1 30:1 
2048 2:1 3:1 6:1 7:1 9:0.0296736 18:1 19:1 21:1 23:1 25:1 28:1 30:1 
2048 2:1 3:1 6:1 7:1 18:1 19:1 22:1 23:1 26:1 27:1 29:1 30:1 
2048 1:1 3:1 5:1 7:1 9:0.540059 18:1 19:1 21:1 23:1 25:1 28:1 30:1 
2048 1:1 3:1 5:1 7:1 9:0.599407 18:1 19:1 21:1 23:1 25:1 28:1 30:1 
2048 1:1 3:1 5:1 7:1 9:0.602374 18:1 19:1 21:1 23:1 25:1 28:1 30:1 
2048 1:1 3:1 5:1 7:1 9:0.626113 18:1 19:1 21:1 23:1 25:1 28:1 30:1 
1949.917655115469 1:1 3:1 5:1 7:1 9:0.00296736 18:1 20:1 21:1 23:1 26:1 27:0.492366 28:1 30:1 
2048 1:1 3:1 5:1 7:1 9:0.590504 15:1 19:1 21:1 23:1 26:1 27:0.53936 28:1 30:1 
1435.15324453771 1:1 3:1 5:1 7:1 9:0.596439 18:1 19:1 21:1 23:1 25:1 28:1 30:1 
114.2071750499716 1:1 3:1 5:1 7:1 9:0.569733 18:1 19:1 21:1 24:1 25:1 28:1 30:1 
1176.063732733286 1:1 3:1 5:1 7:1 9:0.587537 15:1 19:1 21:1 23:1 26:1 27:0.365148 28:1 30:1 
2048 1:1 3:1 5:1 7:1 9:0.593472 18:1 19:1 22:1 23:1 26:1 27:0.5 28:1 30:1 
292.9919629997455 1:1 3:1 5:1 7:1 9:0.587537 18:1 19:1 22:1 23:1 26:1 27:0.5 28:1 30:1 
2048 1:1 3:1 5:1 7:1 9:0.459941 12:1 19:1 21:1 23:1 26:1 27:0.408248 28:1 30:1 
2048 1:1 3:1 5:1 7:1 9:0.178042 15:1 19:1 21:1 23:1 25:1 28:1 30:1 
2048 1:1 3:1 5:1 7:1 9:0.495549 18:1 19:1 21:1 23:1 25:1 28:1 30:1 
2048 1:1 3:1 5:1 7:1 9:0.543027 18:1 19:1 21:1 23:1 25:1 28:1 30:1 
2048 1:1 3:1 5:1 7:1 9:0.492582 18:1 19:1 21:1 23:1 25:1 28:1 30:1 
2048 1:1 3:1 5:1 7:1 9:0.498516 18:1 19:1 21:1 23:1 25:1 28:1 30:1 
3.612946373349647 1:1 4:1 6:1 7:1 9:0.275964 11:1 19:1 21:1 23:1 25:1 28:1 30:1 
2048 1:1 3:1 5:1 7:1 9:0.130564 16:1 19:1 21:1 23:1 26:1 27:0.408248 28:1 30:1 
2048 1:1 3:1 6:1 7:1 9:0.0504451 18:1 19:1 21:1 23:1 25:1 28:1 30:1 
2048 1:1 3:1 5:1 7:1 9:0.0385757 18:1 19:1 22:1 23:1 25:1 28:1 30:1 
2048 1:1 4:1 5:1 7:1 9:0.10089 18:1 19:1 22:1 23:1 26:1 27:0.707107 28:1 30:1 
2048 2:1 3:1 6:1 7:1 9:0.136499 18:1 19:1 22:1 23:1 26:1 27:1 29:1 30:1 
2048 1:1 4:1 5:1 7:1 9:0.0504451 18:1 19:1 21:1 23:1 25:1 28:1 30:1 
1227.884547716609 1:1 4:1 6:1 7:1 9:0.0504451 18:1 19:1 21:1 23:1 25:1 28:1 30:1 
2048 2:1 3:1 6:1 7:1 9:0.0296736 18:1 20:1 22:1 24:1 26:1 27:1 29:1 30:1 
2048 2:1 3:1 6:1 7:1 9:0.0504451 18:1 20:1 22:1 24:1 26:1 27:1 29:1 30:1 
2048 2:1 4:1 6:1 7:1 9:0.0296736 18:1 19:1 22:1 23:1 26:1 27:1 29:1 30:1 
2048 2:1 4:1 6:1 7:1 9:0.0504451 18:1 19:1 22:1 23:1 26:1 27:1 29:1 30:1 
2048 2:1 3:1 6:1 7:1 9:0.0296736 18:1 20:1 22:1 24:1 26:1 27:1 29:1 30:1 
1994.411276443208 1:1 3:1 5:1 7:1 9:0.0474777 12:1 19:1 21:1 23:1 25:1 28:1 30:1 
2048 1:1 3:1 5:1 7:1 9:0.0267062 13:1 19:1 21:1 23:1 25:1 28:1 30:1 
2048 1:1 4:1 5:1 7:1 9:0.0919881 16:1 19:1 21:1 23:1 25:1 28:1 30:1 
2048 2:1 3:1 6:1 7:1 9:0.0207715 18:1 20:1 22:1 24:1 26:1 27:1 29:1 30:1 
2048 2:1 4:1 6:1 7:1 9:0.0207715 18:1 19:1 22:1 23:1 26:1 27:1 29:1 30:1 
1793.877855996994 1:1 4:1 5:1 7:1 9:0.0178042 18:1 19:1 21:1 23:1 25:1 28:1 30:1 
2048 1:1 3:1 5:1 7:1 9:0.074184 16:1 19:1 22:1 23:1 26:1 27:0.57735 28:1 30:1 
2048 1:1 3:1 5:1 7:1 9:0.074184 18:1 19:1 22:1 23:1 26:1 27:0.707107 28:1 30:1 
2048 2:1 3:1 6:1 8:1 9:0.0474777 18:1 19:1 22:1 23:1 26:1 27:1 29:1 30:1 
2048 2:1 3:1 6:1 7:1 9:0.0534125 18:1 19:1 22:1 23:1 26:1 27:1 29:1 30:1 
2048 2:1 3:1 6:1 7:1 9:0.0445104 18:1 19:1 22:1 23:1 26:1 27:1 29:1 30:1 
134.3962627435949 1:1 3:1 5:1 7:1 16:1 20:1 21:1 23:1 26:1 27:0.288675 28:1 30:1 
2048 1:1 3:1 5:1 7:1 9:0.0949555 13:1 19:1 21:1 23:1 25:1 28:1 30:1 
2048 1:1 3:1 5:1 7:1 9:0.243323 13:1 19:1 21:1 23:1 25:1 28:1 30:1 
2048 1:1 3:1 5:1 7:1 9:0.222552 17:1 19:1 21:1 23:1 25:1 28:1 30:1 
2048 1:1 3:1 5:1 7:1 9:0.192878 15:1 20:1 21:1 23:1 26:1 27:0.408248 28:1 30:1 
2048 1:1 3:1 5:1 7:1 9:0.326409 18:1 20:1 21:1 23:1 26:1 27:0.408248 28:1 30:1 
2048 1:1 3:1 5:1 7:1 9:0.175074 18:1 19:1 22:1 23:1 26:1 27:1 29:1 30:1 
2048 1:1 3:1 5:1 7:1 9:0.115727 11:1 19:1 21:1 23:1 25:1 28:1 30:1 
2048 1:1 3:1 5:1 7:1 9:0.178042 17:1 19:1 21:1 23:1 25:1 28:1 30:1 
68.56610340650802 1:1 4:1 5:1 7:1 9:0.109792 18:1 19:1 21:1 23:1 25:1 28:1 30:1 
21.26933487065513 2:1 3:1 6:1 7:1 9:0.139466 15:1 19:1 21:1 24:1 25:1 28:1 30:1 
2048 1:1 3:1 5:1 7:1 9:0.0118694 18:1 19:1 22:1 23:1 26:1 27:0.57735 28:1 30:1 
2048 1:1 4:1 5:1 7:1 9:0.127596 18:1 19:1 21:1 23:1 25:1 28:1 30:1 
2048 1:1 3:1 5:1 7:1 9:0.0326409 13:1 19:1 21:1 23:1 25:1 28:1 30:1 
2048 1:1 3:1 5:1 7:1 9:0.0296736 14:1 19:1 21:1 23:1 26:1 27:0.408248 28:1 30:1 
2048 1:1 3:1 5:1 7:1 9:0.103858 18:1 19:1 22:1 23:1 26:1 27:0.707107 28:1 30:1 
2048 2:1 3:1 6:1 8:1 9:0.10089 18:1 19:1 22:1 23:1 26:1 27:1 29:1 30:1 
2048 1:1 3:1 5:1 7:1 9:0.10089 18:1 20:1 22:1 24:1 26:1 27:1 29:1 30:1 
1616.228091881404 1:1 3:1 5:1 7:1 9:0.0385757 14:1 19:1 21:1 23:1 26:1 27:0.218218 28:1 30:1 
1793.10630570421 1:1 3:1 5:1 7:1 9:0.0979228 17:1 20:1 22:1 24:1 26:1 27:0.816497 29:1 30:1 
2048 1:1 3:1 5:1 7:1 9:0.0296736 11:1 19:1 21:1 23:1 25:1 28:1 30:1 
2048 1:1 3:1 5:1 7:1 9:0.0949555 17:1 20:1 22:1 24:1 26:1 27:0.816497 29:1 30:1 
2048 2:1 3:1 6:1 8:1 9:0.0949555 17:1 19:1 22:1 24:1 26:1 27:0.707107 29:1 30:1 
2048 1:1 3:1 5:1 7:1 9:0.0445104 18:1 19:1 21:1 23:1 26:1 27:0.408248 28:1 30:1 
2048 1:1 3:1 5:1 7:1 9:0.041543 18:1 19:1 21:1 24:1 26:1 27:0.333333 28:1 30:1 
2048 2:1 3:1 6:1 8:1 9:0.0504451 18:1 19:1 22:1 23:1 26:1 27:1 29:1 30:1 
2048 2:1 3:1 6:1 8:1 9:0.0326409 18:1 20:1 22:1 23:1 26:1 27:1 29:1 30:1 
2048 2:1 3:1 6:1 8:1 9:0.0296736 18:1 20:1 22:1 23:1 26:1 27:1 29:1 30:1 
2048 1:1 3:1 5:1 7:1 9:0.0356083 18:1 19:1 21:1 23:1 26:1 27:0.333333 28:1 30:1 
2048 1:1 4:1 5:1 7:1 9:0.0979228 18:1 19:1 21:1 23:1 25:1 28:1 30:1 
1378.035662397476 2:1 3:1 6:1 7:1 9:0.20178 18:1 20:1 21:1 24:1 26:1 27:0.4 28:1 30:1 
1475.866377184318 1:1 4:1 5:1 7:1 9:0.249258 18:1 19:1 22:1 23:1 26:1 27:0.447214 28:1 30:1 
2048 2:1 3:1 6:1 8:1 9:0.0593472 18:1 19:1 22:1 23:1 26:1 27:1 29:1 30:1 
2048 1:1 4:1 5:1 7:1 9:0.172107 18:1 19:1 21:1 23:1 25:1 28:1 30:1 
2048 2:1 3:1 6:1 8:1 9:0.169139 18:1 19:1 22:1 23:1 26:1 27:1 29:1 30:1 
2048 1:1 3:1 5:1 7:1 9:0.169139 18:1 19:1 22:1 23:1 26:1 27:1 29:1 30:1 
2048 1:1 3:1 5:1 7:1 9:0.169139 18:1 20:1 22:1 24:1 26:1 27:1 29:1 30:1 
2048 2:1 3:1 6:1 7:1 9:0.169139 18:1 19:1 22:1 23:1 26:1 27:1 29:1 30:1 
2048 1:1 4:1 5:1 7:1 9:0.0534125 17:1 19:1 21:1 23:1 25:1 28:1 30:1 
2048 1:1 4:1 5:1 7:1 9:0.041543 17:1 19:1 21:1 23:1 25:1 28:1 30:1 
1064.95204414884 1:1 3:1 5:1 7:1 9:0.308605 15:1 19:1 21:1 23:1 26:1 27:0.353553 28:1 30:1 
1635.945002786833 1:1 3:1 5:1 7:1 9:0.302671 13:1 19:1 21:1 23:1 26:1 27:0.353553 28:1 30:1 
2048 2:1 3:1 6:1 7:1 9:0.261128 18:1 19:1 22:1 23:1 26:1 27:1 29:1 30:1 
2048 1:1 3:1 5:1 7:1 9:0.148368 15:1 19:1 21:1 23:1 26:1 27:0.353553 28:1 30:1 
2048 1:1 4:1 5:1 7:1 9:0.118694 18:1 19:1 21:1 23:1 25:1 28:1 30:1 
2048 1:1 3:1 5:1 7:1 9:0.0385757 18:1 20:1 22:1 24:1 26:1 27:1 29:1 30:1 
72.56683622478802 1:1 4:1 5:1 7:1 15:1 19:1 21:1 23:1 25:1 28:1 30:1 
2048 1:1 4:1 5:1 7:1 9:0.0890208 18:1 19:1 21:1 23:1 25:1 28:1 30:1 
2048 2:1 3:1 6:1 7:1 18:1 19:1 22:1 24:1 26:1 27:0.707107 29:1 30:1 
2048 1:1 3:1 5:1 7:1 9:0.0178042 18:1 19:1 21:1 23:1 26:1 27:0.316228 28:1 30:1 
2048 1:1 3:1 5:1 7:1 18:1 19:1 21:1 23:1 26:1 27:0.516398 28:1 30:1 
2048 2:1 3:1 6:1 7:1 9:0.00593472 18:1 20:1 22:1 24:1 26:1 27:1 29:1 30:1 
2048 1:1 3:1 5:1 7:1 9:0.0682493 18:1 19:1 22:1 23:1 26:1 27:0.353553 28:1 30:1 
2048 2:1 3:1 6:1 7:1 9:0.00296736 18:1 20:1 22:1 24:1 26:1 27:1 29:1 30:1 
2048 1:1 3:1 5:1 7:1 9:0.0652819 18:1 19:1 22:1 23:1 26:1 27:0.353553 28:1 30:1 
2048 2:1 3:1 6:1 8:1 9:0.0356083 18:1 19:1 22:1 23:1 26:1 27:1 29:1 30:1 
2048 2:1 4:1 6:1 8:1 9:0.210682 18:1 19:1 22:1 23:1 26:1 27:1 29:1 30:1 
1167.891502516215 1:1 4:1 5:1 7:1 9:0.237389 18:1 19:1 21:1 23:1 25:1 28:1 30:1 
2048 2:1 3:1 6:1 8:1 9:0.210682 18:1 19:1 22:1 23:1 26:1 27:1 29:1 30:1 
2048 2:1 3:1 6:1 8:1 9:0.376855 18:1 19:1 22:1 23:1 26:1 27:1 29:1 30:1 
2048 1:1 3:1 5:1 7:1 9:0.243323 17:1 19:1 21:1 23:1 25:1 28:1 30:1 
2048 2:1 3:1 6:1 8:1 9:0.338279 18:1 19:1 22:1 23:1 26:1 27:1 29:1 30:1 
2048 2:1 3:1 6:1 7:1 9:0.0237389 18:1 19:1 22:1 23:1 26:1 27:1 29:1 30:1 
2048 1:1 3:1 5:1 7:1 9:0.15727 18:1 19:1 22:1 23:1 26:1 27:0.707107 28:1 30:1 
2048 2:1 3:1 6:1 7:1 9:0.0979228 18:1 20:1 22:1 24:1 26:1 27:1 29:1 30:1 
2048 1:1 3:1 5:1 7:1 9:0.0712166 15:1 20:1 21:1 23:1 26:1 27:0.408248 28:1 30:1 
2048 2:1 3:1 6:1 8:1 9:0.0207715 18:1 20:1 22:1 23:1 26:1 27:1 29:1 30:1 
2048 1:1 3:1 5:1 7:1 18:1 19:1 22:1 23:1 26:1 27:0.707107 28:1 30:1 
541.203445727431 1:1 3:1 5:1 7:1 10:1 19:1 22:1 23:1 26:1 27:0.57735 28:1 30:1 
2048 1:1 3:1 5:1 7:1 13:1 19:1 21:1 23:1 25:1 28:1 30:1 
2048 1:1 4:1 5:1 7:1 9:0.103858 16:1 19:1 21:1 23:1 25:1 28:1 30:1 
2048 2:1 3:1 6:1 7:1 9:0.0830861 18:1 19:1 22:1 23:1 26:1 27:1 29:1 30:1 
2048 1:1 4:1 5:1 7:1 9:0.0949555 18:1 19:1 21:1 23:1 25:1 28:1 30:1 
2048 1:1 3:1 5:1 7:1 9:0.0148368 14:1 19:1 21:1 23:1 25:1 28:1 30:1 
606.1245158927562 1:1 3:1 5:1 7:1 9:0.0148368 14:1 19:1 21:1 23:1 26:1 27:0.408248 28:1 30:1 
854.4722577104494 1:1 4:1 5:1 7:1 9:0.0504451 17:1 19:1 21:1 23:1 25:1 28:1 30:1 
191.8432345448998 1:1 3:1 5:1 7:1 15:1 19:1 21:1 24:1 26:1 27:0.223607 28:1 30:1 
2048 1:1 4:1 5:1 7:1 9:0.0356083 16:1 19:1 21:1 23:1 25:1 28:1 30:1 
427.9917395508089 1:1 4:1 5:1 7:1 9:0.00296736 15:1 20:1 21:1 23:1 26:1 27:0.353553 28:1 30:1 
2048 1:1 3:1 5:1 7:1 9:0.166172 18:1 19:1 22:1 23:1 26:1 27:0.707107 28:1 30:1 
2048 1:1 3:1 5:1 7:1 9:0.166172 18:1 20:1 22:1 24:1 26:1 27:1 29:1 30:1 
2048 2:1 4:1 6:1 8:1 9:0.163205 18:1 19:1 22:1 23:1 26:1 27:1 29:1 30:1 
2048 2:1 3:1 6:1 7:1 9:0.166172 18:1 19:1 22:1 23:1 26:1 27:1 29:1 30:1 
2048 2:1 4:1 6:1 8:1 9:0.169139 18:1 19:1 22:1 23:1 26:1 27:1 29:1 30:1 
2048 1:1 3:1 5:1 7:1 9:0.0267062 14:1 19:1 21:1 23:1 25:1 28:1 30:1 
2048 2:1 3:1 6:1 7:1 9:0.0148368 18:1 19:1 22:1 23:1 26:1 27:1 29:1 30:1 
2048 2:1 3:1 6:1 7:1 9:0.0652819 18:1 19:1 22:1 23:1 26:1 27:1 29:1 30:1 
2048 2:1 3:1 6:1 7:1 9:0.0712166 18:1 19:1 22:1 23:1 26:1 27:1 29:1 30:1 
2048 1:1 3:1 5:1 7:1 18:1 19:1 22:1 23:1 26:1 27:0.57735 28:1 30:1 
2048 1:1 4:1 5:1 7:1 9:0.00593472 15:1 19:1 21:1 23:1 25:1 28:1 30:1 
636.9529728987112 1:1 3:1 5:1 7:1 9:0.00593472 14:1 19:1 21:1 23:1 26:1 27:0.333333 28:1 30:1 
2048 1:1 3:1 5:1 7:1 9:0.0237389 18:1 19:1 22:1 23:1 25:1 28:1 30:1 
2048 1:1 3:1 5:1 7:1 17:1 19:1 21:1 24:1 25:1 28:1 30:1 
2048 2:1 3:1 6:1 7:1 9:0.0623145 18:1 19:1 22:1 23:1 26:1 27:1 29:1 30:1 
2048 2:1 3:1 6:1 7:1 9:0.774481 18:1 19:1 22:1 23:1 26:1 27:1 29:1 30:1 
2048 1:1 3:1 5:1 7:1 9:0.777448 18:1 19:1 22:1 23:1 25:1 28:1 30:1 
2048 2:1 3:1 6:1 7:1 9:0.795252 18:1 19:1 22:1 23:1 26:1 27:1 29:1 30:1 
1693.224882216457 1:1 3:1 5:1 7:1 9:0.818991 18:1 19:1 21:1 23:1 25:1 28:1 30:1 
2048 1:1 3:1 5:1 7:1 9:0.845697 18:1 19:1 21:1 23:1 25:1 28:1 30:1 
2048 2:1 3:1 6:1 7:1 9:0.106825 18:1 19:1 22:1 23:1 26:1 27:1 29:1 30:1 
2048 2:1 3:1 6:1 7:1 9:0.287834 18:1 19:1 22:1 23:1 26:1 27:1 29:1 30:1 
2048 2:1 3:1 6:1 7:1 9:0.326409 18:1 19:1 21:1 23:1 25:1 28:1 30:1 
2048 2:1 3:1 6:1 7:1 9:0.721068 18:1 19:1 22:1 23:1 26:1 27:1 29:1 30:1 
824.725664697656 1:1 4:1 6:1 7:1 9:0.744807 18:1 19:1 21:1 23:1 25:1 28:1 30:1 
2048 2:1 3:1 6:1 7:1 9:0.905045 18:1 19:1 22:1 23:1 26:1 27:1 29:1 30:1 
2048 2:1 3:1 6:1 7:1 9:0.910979 18:1 19:1 22:1 23:1 26:1 27:1 29:1 30:1 
2048 1:1 3:1 5:1 7:1 9:0.824926 18:1 19:1 22:1 23:1 25:1 28:1 30:1 
2048 1:1 3:1 5:1 7:1 9:0.816024 18:1 19:1 22:1 23:1 25:1 28:1 30:1 
2048 1:1 3:1 5:1 7:1 9:0.706231 18:1 19:1 22:1 23:1 25:1 28:1 30:1 
2048 1:1 3:1 5:1 7:1 9:0.697329 18:1 19:1 22:1 23:1 25:1 28:1 30:1 
1394.080720130649 1:1 3:1 5:1 7:1 9:0.718101 18:1 19:1 22:1 23:1 25:1 28:1 30:1 
28.25214524679076 1:1 3:1 6:1 7:1 9:0.703264 18:1 19:1 21:1 23:1 25:1 28:1 30:1 
2048 1:1 3:1 5:1 7:1 9:0.670623 18:1 19:1 21:1 23:1 25:1 28:1 30:1 
2048 1:1 3:1 5:1 7:1 9:0.436202 15:1 19:1 21:1 23:1 26:1 27:0.408248 28:1 30:1 
1074.182192812209 1:1 3:1 5:1 7:1 9:0.68546 18:1 19:1 21:1 23:1 26:1 27:0.5 28:1 30:1 
2048 1:1 3:1 5:1 7:1 9:0.688427 18:1 19:1 22:1 23:1 26:1 27:0.707107 28:1 30:1 
655.699535695439 1:1 3:1 5:1 7:1 9:0.418398 15:1 19:1 21:1 23:1 25:1 28:1 30:1 
436.8760462703231 2:1 3:1 6:1 7:1 9:0.792285 18:1 19:1 21:1 23:1 25:1 28:1 30:1 
2048 1:1 4:1 5:1 7:1 9:0.207715 18:1 19:1 21:1 23:1 25:1 28:1 30:1 
2048 1:1 3:1 5:1 7:1 9:0.744807 18:1 19:1 22:1 23:1 25:1 28:1 30:1 
2048 2:1 3:1 6:1 7:1 9:0.611276 18:1 19:1 22:1 23:1 26:1 27:1 29:1 30:1 
2048 2:1 3:1 6:1 7:1 9:0.373887 18:1 19:1 22:1 23:1 26:1 27:1 29:1 30:1 
2048 2:1 3:1 6:1 7:1 9:0.430267 18:1 19:1 22:1 23:1 26:1 27:1 29:1 30:1 
283.7542674991323 1:1 3:1 5:1 7:1 9:0.566766 14:1 19:1 21:1 23:1 25:1 28:1 30:1 
2048 1:1 3:1 5:1 7:1 9:0.139466 16:1 20:1 21:1 23:1 26:1 27:0.471405 28:1 30:1 
2048 1:1 3:1 5:1 7:1 9:0.418398 17:1 19:1 21:1 23:1 25:1 28:1 30:1 
111.951424316898 1:1 3:1 5:1 7:1 9:0.109792 15:1 20:1 21:1 23:1 26:1 27:0.408248 28:1 30:1 
2048 1:1 3:1 5:1 7:1 9:0.35905 18:1 20:1 21:1 24:1 26:1 27:0.5 28:1 30:1 
493.6262663104936 1:1 3:1 5:1 7:1 9:0.362018 18:1 19:1 22:1 23:1 26:1 27:0.707107 28:1 30:1 
259.1768687046399 1:1 3:1 5:1 7:1 9:0.0267062 18:1 20:1 21:1 23:1 26:1 27:0.5 28:1 30:1 
2048 1:1 3:1 5:1 7:1 9:0.272997 18:1 20:1 21:1 23:1 26:1 27:0.5 28:1 30:1 
2048 1:1 3:1 5:1 7:1 9:0.275964 18:1 19:1 22:1 23:1 26:1 27:0.707107 28:1 30:1 
2048 1:1 3:1 5:1 7:1 9:0.353116 18:1 19:1 21:1 23:1 26:1 27:0.5 28:1 30:1 
2048 1:1 3:1 5:1 7:1 9:0.0207715 15:1 20:1 21:1 23:1 26:1 27:0.408248 28:1 30:1 
2048 1:1 3:1 5:1 7:1 9:0.27003 18:1 20:1 21:1 24:1 26:1 27:0.5 28:1 30:1 
2048 1:1 3:1 5:1 7:1 9:0.272997 18:1 19:1 22:1 23:1 26:1 27:0.707107 28:1 30:1 
1500.388795389346 1:1 3:1 5:1 7:1 9:0.252226 17:1 19:1 22:1 23:1 26:1 27:0.57735 28:1 30:1 
2048 1:1 3:1 5:1 7:1 9:0.246291 18:1 20:1 21:1 24:1 26:1 27:0.5 28:1 30:1 
2048 1:1 3:1 5:1 7:1 9:0.249258 18:1 19:1 22:1 23:1 26:1 27:0.707107 28:1 30:1 
2048 1:1 4:1 6:1 7:1 9:0.0267062 18:1 19:1 21:1 23:1 25:1 28:1 30:1 
2048 2:1 3:1 6:1 7:1 9:0.186944 18:1 19:1 22:1 23:1 26:1 27:1 29:1 30:1 
2048 2:1 3:1 6:1 7:1 9:0.192878 18:1 19:1 22:1 23:1 26:1 27:1 29:1 30:1 
479.0061213973117 1:1 3:1 5:1 7:1 9:0.0326409 17:1 19:1 21:1 24:1 25:1 28:1 30:1 
2048 1:1 4:1 6:1 7:1 9:0.0237389 18:1 19:1 21:1 23:1 25:1 28:1 30:1 
2048 1:1 3:1 5:1 7:1 9:0.0801187 18:1 19:1 21:1 23:1 26:1 27:0.5 28:1 30:1 
2048 1:1 3:1 5:1 7:1 9:0.0771513 18:1 19:1 22:1 23:1 26:1 27:0.707107 28:1 30:1 
323.7011146243818 1:1 4:1 5:1 7:1 17:1 19:1 21:1 23:1 25:1 28:1 30:1 
2048 1:1 3:1 5:1 7:1 9:0.0652819 18:1 19:1 21:1 23:1 26:1 27:0.408248 28:1 30:1 
2048 1:1 3:1 5:1 7:1 9:0.0118694 15:1 19:1 22:1 23:1 26:1 27:0.447214 28:1 30:1 
2048 1:1 3:1 5:1 7:1 9:0.00593472 15:1 19:1 22:1 23:1 26:1 27:0.447214 28:1 30:1 
2048 1:1 3:1 5:1 7:1 9:0.0207715 18:1 19:1 22:1 23:1 26:1 27:0.707107 28:1 30:1 
342.2345221582964 1:1 3:1 5:1 7:1 9:0.278932 14:1 19:1 21:1 23:1 25:1 28:1 30:1 
2048 2:1 3:1 6:1 8:1 9:0.311573 18:1 19:1 22:1 23:1 26:1 27:1 29:1 30:1 
1465.198279186168 2:1 3:1 6:1 8:1 9:0.136499 18:1 19:1 22:1 23:1 26:1 27:1 29:1 30:1 
0.4231139465327425 1:1 3:1 5:1 7:1 9:0.249258 18:1 19:1 21:1 23:1 26:1 27:0.333333 28:1 30:1 
2048 1:1 3:1 5:1 7:1 9:0.249258 18:1 20:1 21:1 23:1 26:1 27:0.666667 28:1 30:1 
2048 1:1 3:1 5:1 7:1 9:0.124629 18:1 19:1 22:1 23:1 26:1 27:0.707107 28:1 30:1 
238.7606364674569 1:1 4:1 5:1 7:1 9:0.0801187 16:1 19:1 21:1 23:1 25:1 28:1 30:1 
2048 2:1 3:1 6:1 8:1 9:0.207715 16:1 19:1 22:1 24:1 26:1 27:0.707107 29:1 30:1 
2048 1:1 3:1 5:1 7:1 9:0.287834 16:1 19:1 21:1 23:1 26:1 27:0.408248 28:1 30:1 
2048 1:1 3:1 5:1 7:1 9:0.207715 18:1 19:1 21:1 23:1 26:1 27:0.408248 28:1 30:1 
2048 1:1 3:1 5:1 7:1 9:0.207715 15:1 20:1 21:1 23:1 26:1 27:0.408248 28:1 30:1 
2048 1:1 3:1 5:1 7:1 9:0.252226 15:1 19:1 22:1 23:1 26:1 27:0.57735 28:1 30:1 
1590.298586350632 2:1 3:1 6:1 8:1 9:0.287834 18:1 19:1 22:1 23:1 26:1 27:1 29:1 30:1 
2047.005054288744 1:1 4:1 5:1 7:1 9:0.192878 18:1 19:1 21:1 23:1 25:1 28:1 30:1 
2048 2:1 3:1 6:1 8:1 9:0.192878 18:1 19:1 22:1 23:1 26:1 27:1 29:1 30:1 
2048 1:1 3:1 5:1 7:1 9:0.240356 15:1 19:1 22:1 23:1 26:1 27:0.57735 28:1 30:1 
2048 2:1 3:1 6:1 8:1 9:0.275964 18:1 19:1 22:1 23:1 26:1 27:1 29:1 30:1 
2048 2:1 3:1 6:1 8:1 9:0.127596 18:1 19:1 22:1 23:1 26:1 27:1 29:1 30:1 
2048 1:1 3:1 5:1 7:1 9:0.127596 15:1 20:1 21:1 23:1 26:1 27:0.408248 28:1 30:1 
2048 1:1 3:1 5:1 7:1 9:0.0801187 17:1 19:1 21:1 23:1 26:1 27:0.333333 28:1 30:1 
2048 1:1 3:1 5:1 7:1 9:0.0474777 15:1 19:1 22:1 23:1 26:1 27:0.57735 28:1 30:1 
2048 2:1 3:1 6:1 8:1 9:0.0830861 18:1 19:1 22:1 23:1 26:1 27:1 29:1 30:1 
2048 1:1 3:1 5:1 7:1 9:0.0356083 17:1 19:1 22:1 23:1 26:1 27:0.57735 28:1 30:1 
2048 1:1 3:1 5:1 7:1 9:0.0237389 18:1 19:1 22:1 23:1 26:1 27:0.707107 28:1 30:1 
2048 1:1 3:1 5:1 7:1 9:0.115727 18:1 19:1 22:1 23:1 26:1 27:0.707107 28:1 30:1 
2048 2:1 3:1 6:1 8:1 9:0.133531 18:1 19:1 22:1 23:1 26:1 27:1 29:1 30:1 
2048 1:1 3:1 5:1 7:1 9:0.320475 18:1 19:1 22:1 23:1 26:1 27:0.707107 28:1 30:1 
2032.443294581509 2:1 3:1 6:1 8:1 9:0.178042 18:1 19:1 22:1 23:1 26:1 27:1 29:1 30:1 
2048 1:1 3:1 5:1 7:1 9:0.0178042 17:1 19:1 21:1 23:1 26:1 27:0.5 28:1 30:1 
2048 1:1 3:1 5:1 7:1 9:0.109792 17:1 19:1 21:1 23:1 26:1 27:0.5 28:1 30:1 
2048 2:1 3:1 6:1 8:1 9:0.127596 17:1 19:1 22:1 24:1 26:1 27:0.707107 29:1 30:1 
1477.286777224458 1:1 3:1 5:1 7:1 9:0.31454 17:1 19:1 21:1 23:1 26:1 27:0.5 28:1 30:1 
564.8348801442284 1:1 3:1 5:1 7:1 9:0.341246 14:1 19:1 22:1 23:1 26:1 27:0.816497 28:1 30:1 
2048 1:1 3:1 5:1 7:1 9:0.172107 18:1 19:1 22:1 23:1 26:1 27:0.707107 28:1 30:1 
2048 1:1 3:1 5:1 7:1 9:0.31454 18:1 20:1 21:1 23:1 26:1 27:0.5 28:1 30:1 
2048 1:1 3:1 5:1 7:1 9:0.477745 18:1 20:1 21:1 23:1 26:1 27:0.5 28:1 30:1 
2048 1:1 3:1 5:1 7:1 9:0.154303 18:1 19:1 22:1 23:1 26:1 27:0.707107 28:1 30:1 
2048 1:1 3:1 5:1 7:1 9:0.290801 18:1 19:1 22:1 23:1 26:1 27:0.707107 28:1 30:1 
731.6473051168979 1:1 3:1 5:1 7:1 9:0.459941 18:1 19:1 21:1 23:1 26:1 27:0.5 28:1 30:1 
2048 2:1 3:1 6:1 8:1 9:0.151335 18:1 19:1 22:1 23:1 26:1 27:1 29:1 30:1 
2048 2:1 3:1 6:1 8:1 9:0.261128 18:1 19:1 22:1 23:1 26:1 27:1 29:1 30:1 
2048 1:1 3:1 5:1 7:1 9:0.0830861 18:1 19:1 22:1 23:1 26:1 27:0.408248 28:1 30:1 
2048 1:1 3:1 5:1 7:1 9:0.0623145 18:1 19:1 22:1 23:1 26:1 27:0.707107 28:1 30:1 
2048 1:1 3:1 5:1 7:1 9:0.198813 18:1 19:1 22:1 23:1 26:1 27:0.707107 28:1 30:1 
2048 1:1 3:1 5:1 7:1 9:0.228487 18:1 19:1 22:1 23:1 26:1 27:0.707107 28:1 30:1 
45.48263442818084 1:1 3:1 5:1 7:1 9:0.367953 18:1 19:1 21:1 23:1 26:1 27:0.5 28:1 30:1 
2048 2:1 3:1 6:1 8:1 9:0.0445104 18:1 19:1 22:1 23:1 26:1 27:1 29:1 30:1 
2048 2:1 3:1 6:1 8:1 9:0.181009 18:1 19:1 22:1 23:1 26:1 27:1 29:1 30:1 
2048 1:1 3:1 5:1 7:1 9:0.186944 18:1 19:1 22:1 23:1 26:1 27:0.707107 28:1 30:1 
2048 1:1 3:1 5:1 7:1 9:0.350148 18:1 19:1 22:1 23:1 26:1 27:0.707107 28:1 30:1 
2048 1:1 3:1 5:1 7:1 9:0.142433 18:1 19:1 22:1 23:1 26:1 27:0.707107 28:1 30:1 
2048 1:1 3:1 5:1 7:1 9:0.169139 15:1 19:1 22:1 23:1 26:1 27:0.57735 28:1 30:1 
2048 1:1 3:1 5:1 7:1 9:0.305638 18:1 19:1 22:1 23:1 26:1 27:0.707107 28:1 30:1 
2048 1:1 3:1 5:1 7:1 9:0.109792 18:1 19:1 22:1 23:1 26:1 27:0.57735 28:1 30:1 
31.23948743728075 1:1 3:1 5:1 8:1 9:0.0326409 18:1 19:1 21:1 23:1 25:1 28:1 30:1 
2048 1:1 3:1 5:1 7:1 9:0.0296736 18:1 19:1 22:1 23:1 26:1 27:0.707107 28:1 30:1 
2048 1:1 3:1 5:1 7:1 9:0.0801187 18:1 19:1 22:1 23:1 26:1 27:0.707107 28:1 30:1 
2048 1:1 3:1 5:1 7:1 16:1 19:1 21:1 23:1 26:1 27:0.5 28:1 30:1 
580.0846741623509 1:1 3:1 5:1 7:1 9:0.00593472 10:1 19:1 21:1 23:1 26:1 27:0.57735 28:1 30:1 
2048 1:1 3:1 5:1 7:1 9:0.0771513 16:1 19:1 22:1 23:1 26:1 27:0.5 28:1 30:1 
2048 1:1 3:1 5:1 7:1 9:0.0801187 16:1 19:1 21:1 23:1 26:1 27:0.5 28:1 30:1 
2048 1:1 3:1 5:1 7:1 9:0.0801187 18:1 19:1 21:1 23:1 26:1 27:0.5 28:1 30:1 
2048 1:1 3:1 5:1 7:1 9:0.0652819 16:1 20:1 21:1 23:1 26:1 27:0.333333 28:1 30:1 
2048 2:1 3:1 6:1 8:1 9:0.00296736 18:1 19:1 22:1 23:1 26:1 27:1 29:1 30:1 
1784.914984019928 1:1 3:1 5:1 7:1 9:0.163205 18:1 19:1 22:1 23:1 25:1 28:1 30:1 
2048 1:1 3:1 5:1 7:1 9:0.0356083 18:1 19:1 22:1 23:1 26:1 27:0.707107 28:1 30:1 
2048 1:1 3:1 5:1 7:1 9:0.00890208 18:1 20:1 21:1 23:1 26:1 27:0.408248 28:1 30:1 
2048 1:1 3:1 5:1 7:1 9:0.00593472 18:1 19:1 22:1 23:1 26:1 27:0.57735 28:1 30:1 
2048 1:1 3:1 5:1 7:1 9:0.0118694 15:1 19:1 21:1 23:1 26:1 27:0.333333 28:1 30:1 
2048 1:1 3:1 5:1 7:1 9:0.0949555 18:1 19:1 21:1 23:1 26:1 27:0.408248 28:1 30:1 
2048 1:1 3:1 5:1 7:1 9:0.0949555 18:1 19:1 22:1 23:1 25:1 28:1 30:1 
2048 1:1 3:1 5:1 7:1 9:0.00593472 15:1 19:1 22:1 23:1 26:1 27:0.57735 28:1 30:1 
2048 1:1 3:1 5:1 7:1 9:0.0771513 18:1 19:1 22:1 23:1 26:1 27:0.57735 28:1 30:1 
2048 1:1 3:1 5:1 7:1 9:0.0860534 18:1 19:1 21:1 23:1 26:1 27:0.353553 28:1 30:1 
2048 1:1 3:1 5:1 7:1 9:0.0712166 17:1 20:1 21:1 23:1 26:1 27:0.666667 28:1 30:1 
2048 1:1 3:1 5:1 7:1 9:0.00593472 18:1 19:1 22:1 23:1 26:1 27:0.707107 28:1 30:1 
2048 1:1 3:1 5:1 7:1 9:0.0326409 15:1 19:1 22:1 23:1 26:1 27:0.57735 28:1 30:1 
2048 1:1 3:1 5:1 7:1 9:0.169139 18:1 19:1 22:1 23:1 26:1 27:0.707107 28:1 30:1 
2048 1:1 3:1 5:1 7:1 9:0.0296736 14:1 19:1 21:1 23:1 25:1 28:1 30:1 
2048 1:1 3:1 5:1 7:1 9:0.0267062 15:1 19:1 21:1 23:1 26:1 27:0.408248 28:1 30:1 
2048 2:1 3:1 6:1 7:1 9:0.121662 18:1 19:1 22:1 23:1 26:1 27:1 29:1 30:1 
2048 2:1 3:1 6:1 8:1 9:0.118694 18:1 19:1 22:1 23:1 26:1 27:1 29:1 30:1 
2048 1:1 3:1 5:1 7:1 9:0.00296736 15:1 19:1 22:1 23:1 26:1 27:0.57735 28:1 30:1 
2048 1:1 3:1 5:1 7:1 9:0.139466 18:1 19:1 22:1 23:1 26:1 27:0.707107 28:1 30:1 
668.3053124043718 1:1 3:1 5:1 7:1 9:0.136499 17:1 19:1 21:1 23:1 26:1 27:0.408248 28:1 30:1 
2048 2:1 3:1 6:1 8:1 9:0.0919881 18:1 19:1 22:1 23:1 26:1 27:1 29:1 30:1 
2048 2:1 3:1 6:1 8:1 9:0.0979228 18:1 19:1 22:1 23:1 26:1 27:1 29:1 30:1 
2048 1:1 3:1 5:1 7:1 9:0.041543 18:1 20:1 22:1 24:1 26:1 27:1 29:1 30:1 
2048 1:1 3:1 5:1 7:1 9:0.0118694 15:1 20:1 21:1 23:1 26:1 27:0.408248 28:1 30:1 
863.629539742832 1:1 4:1 5:1 7:1 9:0.106825 17:1 19:1 21:1 23:1 25:1 28:1 30:1 
2048 1:1 4:1 5:1 7:1 9:0.183976 18:1 19:1 21:1 23:1 25:1 28:1 30:1 
2048 2:1 3:1 6:1 7:1 9:0.15727 18:1 19:1 22:1 23:1 26:1 27:1 29:1 30:1 
2048 1:1 4:1 5:1 7:1 9:0.103858 18:1 19:1 21:1 23:1 25:1 28:1 30:1 
2048 1:1 4:1 5:1 7:1 9:0.0890208 16:1 19:1 21:1 23:1 25:1 28:1 30:1 
1963.267534369134 2:1 3:1 6:1 7:1 9:0.00593472 17:1 19:1 21:1 23:1 25:1 28:1 30:1 
2048 2:1 3:1 6:1 8:1 9:0.00593472 14:1 20:1 22:1 24:1 26:1 27:1 29:1 31:1 
2048 1:1 3:1 5:1 7:1 9:0.0474777 16:1 19:1 22:1 23:1 26:1 27:0.57735 28:1 30:1 
2048 1:1 3:1 5:1 7:1 9:0.0563798 18:1 19:1 22:1 23:1 26:1 27:0.57735 28:1 30:1 
2048 1:1 3:1 5:1 7:1 9:0.148368 18:1 19:1 22:1 23:1 26:1 27:0.707107 28:1 30:1 
2048 2:1 3:1 6:1 7:1 9:0.00593472 18:1 19:1 22:1 23:1 26:1 27:1 29:1 30:1 
2048 2:1 3:1 6:1 7:1 9:0.0207715 18:1 19:1 22:1 23:1 25:1 28:1 30:1 
2048 2:1 3:1 6:1 7:1 9:0.0148368 18:1 19:1 22:1 23:1 25:1 28:1 30:1 
2048 1:1 3:1 5:1 7:1 9:0.00593472 18:1 19:1 22:1 23:1 26:1 27:0.447214 28:1 30:1 
13.25854494455136 1:1 3:1 5:1 7:1 9:0.00296736 18:1 19:1 22:1 23:1 26:1 27:0.447214 28:1 30:1 
2048 1:1 3:1 5:1 7:1 9:0.00296736 18:1 19:1 22:1 23:1 26:1 27:0.632456 28:1 30:1 
2048 1:1 3:1 5:1 7:1 9:0.0652819 18:1 19:1 22:1 23:1 26:1 27:0.447214 28:1 30:1 
2048 1:1 3:1 5:1 7:1 9:0.0652819 18:1 19:1 22:1 23:1 26:1 27:0.632456 28:1 30:1 
2048 1:1 3:1 5:1 7:1 9:0.0771513 15:1 19:1 21:1 23:1 26:1 27:0.4 28:1 30:1 
2048 1:1 3:1 5:1 7:1 9:0.0801187 18:1 19:1 22:1 23:1 26:1 27:0.447214 28:1 30:1 
2048 1:1 3:1 5:1 7:1 9:0.0118694 15:1 19:1 22:1 23:1 26:1 27:0.57735 28:1 30:1 
2048 2:1 4:1 6:1 8:1 9:0.0148368 18:1 19:1 22:1 23:1 26:1 27:1 29:1 30:1 
2048 1:1 3:1 5:1 7:1 14:1 19:1 21:1 23:1 26:1 27:0.258199 28:1 30:1 
2048 1:1 3:1 5:1 7:1 9:0.00296736 17:1 19:1 22:1 23:1 26:1 27:0.57735 28:1 30:1 
986.4024935152098 1:1 4:1 6:1 7:1 9:0.243323 15:1 19:1 21:1 23:1 25:1 28:1 30:1 
2048 1:1 3:1 5:1 7:1 9:0.10089 15:1 20:1 21:1 23:1 26:1 27:0.5 28:1 30:1 
0.009198024019651927 1:1 4:1 6:1 7:1 9:0.0296736 15:1 19:1 21:1 23:1 25:1 28:1 30:1 
1436.117804229641 1:1 4:1 5:1 7:1 9:0.172107 15:1 19:1 21:1 23:1 25:1 28:1 30:1 
1453.113283937206 1:1 3:1 5:1 7:1 9:0.00593472 15:1 19:1 21:1 23:1 26:1 27:0.144338 28:1 30:1 
2048 1:1 3:1 5:1 7:1 9:0.21365 18:1 19:1 21:1 23:1 26:1 27:0.365148 28:1 30:1 
1383.403766875025 1:1 3:1 5:1 7:1 9:0.178042 11:1 19:1 21:1 23:1 25:1 28:1 30:1 
497.03862198145 1:1 3:1 5:1 7:1 9:0.210682 17:1 19:1 21:1 23:1 26:1 27:0.258199 28:1 30:1 
476.7142774764698 1:1 3:1 5:1 7:1 13:1 20:1 21:1 23:1 26:1 27:0.294174 28:1 30:1 
2048 1:1 3:1 5:1 7:1 9:0.136499 13:1 20:1 21:1 23:1 26:1 27:0.334497 28:1 30:1 
2048 1:1 3:1 5:1 7:1 9:0.142433 13:1 20:1 21:1 23:1 26:1 27:0.392232 28:1 30:1 
2048 1:1 3:1 5:1 7:1 9:0.163205 13:1 19:1 21:1 23:1 25:1 28:1 30:1 
2048 1:1 3:1 5:1 7:1 11:1 20:1 21:1 23:1 26:1 27:0.824958 28:1 30:1 
2048 1:1 3:1 5:1 7:1 9:0.136499 14:1 20:1 21:1 23:1 26:1 27:0.852803 28:1 30:1 
1768.768745108811 1:1 3:1 5:1 7:1 9:0.142433 14:1 20:1 21:1 23:1 26:1 27:0.5 28:1 30:1 
8.762670582791451 1:1 4:1 6:1 7:1 9:0.124629 16:1 19:1 22:1 23:1 26:1 27:0.447214 28:1 30:1 
1709.809093861328 1:1 3:1 5:1 7:1 9:0.178042 13:1 19:1 21:1 23:1 25:1 28:1 30:1 
2048 1:1 3:1 5:1 7:1 9:0.142433 13:1 19:1 21:1 23:1 25:1 28:1 30:1 
1548.093018073381 1:1 3:1 5:1 7:1 9:0.0326409 14:1 19:1 21:1 23:1 25:1 28:1 30:1 
2048 1:1 3:1 5:1 7:1 9:0.0593472 14:1 19:1 21:1 23:1 26:1 27:0.426401 28:1 30:1 
2048 1:1 3:1 5:1 7:1 9:0.0712166 17:1 19:1 21:1 23:1 26:1 27:0.13484 28:1 30:1 
2011.917459706029 1:1 3:1 5:1 7:1 9:0.00296736 14:1 20:1 21:1 24:1 26:1 27:0.666667 28:1 30:1 
2048 1:1 3:1 5:1 7:1 9:0.0237389 18:1 20:1 21:1 23:1 26:1 27:0.333333 28:1 30:1 
2048 2:1 4:1 6:1 7:1 9:0.0771513 18:1 19:1 22:1 23:1 26:1 27:1 29:1 30:1 
2048 2:1 3:1 6:1 8:1 9:0.0979228 18:1 19:1 21:1 23:1 25:1 28:1 30:1 
2048 2:1 3:1 6:1 8:1 9:0.0356083 18:1 20:1 22:1 23:1 26:1 27:1 29:1 30:1 
2048 1:1 4:1 5:1 7:1 9:0.139466 18:1 19:1 21:1 23:1 25:1 28:1 30:1 
2048 2:1 3:1 6:1 8:1 9:0.0949555 18:1 19:1 22:1 23:1 26:1 27:1 29:1 30:1 
2048 1:1 3:1 5:1 7:1 9:0.0356083 18:1 20:1 21:1 23:1 26:1 27:0.408248 28:1 30:1 
2048 2:1 3:1 6:1 7:1 9:0.0563798 18:1 19:1 21:1 23:1 25:1 28:1 30:1 
299.5725402110774 2:1 3:1 6:1 8:1 9:0.0504451 18:1 19:1 21:1 23:1 25:1 28:1 30:1 
2048 1:1 3:1 5:1 7:1 9:0.0623145 18:1 20:1 22:1 23:1 26:1 27:0.866025 28:1 30:1 
2048 1:1 3:1 5:1 7:1 9:0.0682493 12:1 20:1 22:1 23:1 26:1 27:0.774597 28:1 30:1 
2048 1:1 3:1 5:1 7:1 9:0.0623145 18:1 20:1 22:1 23:1 26:1 27:0.894427 28:1 30:1 
2048 1:1 3:1 5:1 7:1 9:0.0682493 18:1 20:1 22:1 23:1 26:1 27:0.755929 28:1 30:1 
2048 1:1 3:1 5:1 7:1 9:0.0563798 16:1 19:1 21:1 23:1 26:1 27:0.6 28:1 30:1 
2048 1:1 3:1 5:1 7:1 9:0.0623145 16:1 19:1 21:1 23:1 26:1 27:0.507093 28:1 30:1 
2048 1:1 3:1 5:1 7:1 9:0.0623145 13:1 20:1 21:1 23:1 26:1 27:0.316228 28:1 30:1 
2048 1:1 3:1 5:1 7:1 9:0.0534125 18:1 20:1 21:1 23:1 26:1 27:0.75 28:1 30:1 
2048 1:1 3:1 5:1 7:1 9:0.0593472 12:1 20:1 21:1 23:1 26:1 27:0.67082 28:1 30:1 
2048 2:1 3:1 6:1 8:1 9:0.0207715 18:1 19:1 22:1 23:1 26:1 27:1 29:1 30:1 
1305.704190364205 1:1 3:1 5:1 7:1 9:0.00296736 11:1 19:1 21:1 23:1 26:1 27:0.649519 28:1 30:1 
2048 1:1 3:1 5:1 7:1 9:0.0593472 14:1 19:1 21:1 23:1 26:1 27:0.288675 28:1 30:1 
1507.991596817168 1:1 3:1 5:1 7:1 9:0.0237389 10:1 19:1 21:1 23:1 26:1 27:0.111803 28:1 30:1 
2048 1:1 3:1 5:1 7:1 9:0.0237389 13:1 19:1 21:1 23:1 26:1 27:0.441942 28:1 30:1 
2048 1:1 4:1 6:1 7:1 9:0.0771513 18:1 19:1 21:1 23:1 25:1 28:1 30:1 
2048 1:1 3:1 5:1 7:1 9:0.0474777 14:1 19:1 21:1 23:1 26:1 27:0.353553 28:1 30:1 
2048 1:1 3:1 5:1 7:1 15:1 19:1 21:1 23:1 26:1 27:0.133631 28:1 30:1 
2048 2:1 3:1 6:1 8:1 9:0.0890208 18:1 19:1 22:1 23:1 26:1 27:1 29:1 30:1 
2048 1:1 4:1 5:1 7:1 9:0.0356083 17:1 19:1 21:1 23:1 25:1 28:1 30:1 
649.4161800711453 2:1 3:1 6:1 8:1 9:0.0207715 18:1 19:1 21:1 23:1 25:1 28:1 30:1 
2048 2:1 3:1 6:1 7:1 9:0.109792 18:1 19:1 22:1 23:1 26:1 27:0.707107 28:1 30:1 
2048 1:1 4:1 5:1 7:1 9:0.00296736 18:1 19:1 22:1 23:1 26:1 27:0.707107 28:1 30:1 
2048 1:1 3:1 5:1 7:1 13:1 19:1 21:1 23:1 26:1 27:0.308607 28:1 30:1 
2048 1:1 3:1 5:1 7:1 9:0.0445104 13:1 19:1 21:1 23:1 26:1 27:0.288675 28:1 30:1 
2048 1:1 3:1 5:1 7:1 9:0.0830861 18:1 20:1 22:1 24:1 26:1 27:1 29:1 30:1 
2048 1:1 4:1 6:1 7:1 18:1 19:1 21:1 23:1 25:1 28:1 30:1 
2048 1:1 3:1 5:1 7:1 9:0.00296736 18:1 20:1 22:1 24:1 26:1 27:1 29:1 30:1 
2048 2:1 3:1 6:1 8:1 9:0.115727 18:1 19:1 22:1 23:1 26:1 27:1 29:1 30:1 
2048 1:1 4:1 5:1 7:1 18:1 19:1 21:1 23:1 26:1 27:0.377964 28:1 30:1 
571.0192491210219 1:1 3:1 5:1 7:1 17:1 20:1 21:1 23:1 26:1 27:0.666667 28:1 30:1 
20.38590813055043 2:1 3:1 6:1 7:1 17:1 20:1 21:1 24:1 26:1 27:0.617213 29:1 30:1 
2048 1:1 4:1 5:1 7:1 9:0.00296736 14:1 19:1 21:1 23:1 26:1 27:0.408248 28:1 30:1 
2048 1:1 4:1 5:1 7:1 9:0.243323 18:1 19:1 21:1 23:1 25:1 28:1 30:1 
2048 1:1 3:1 5:1 7:1 9:0.0207715 15:1 20:1 21:1 23:1 26:1 27:0.5 28:1 30:1 
2048 2:1 3:1 6:1 8:1 9:0.0712166 18:1 19:1 22:1 23:1 26:1 27:1 29:1 30:1 
2048 2:1 3:1 6:1 7:1 9:0.0237389 18:1 20:1 22:1 23:1 26:1 27:1 29:1 30:1 
2048 1:1 4:1 5:1 7:1 9:0.0148368 17:1 19:1 21:1 23:1 25:1 28:1 30:1 
2048 1:1 3:1 5:1 7:1 9:0.00296736 18:1 19:1 22:1 23:1 26:1 27:0.57735 28:1 30:1 
2048 1:1 3:1 5:1 7:1 9:0.00890208 18:1 19:1 22:1 23:1 26:1 27:0.57735 28:1 30:1 
2048 1:1 3:1 5:1 7:1 9:0.0178042 18:1 19:1 22:1 23:1 26:1 27:0.57735 28:1 30:1 
2048 2:1 3:1 6:1 7:1 9:0.0118694 18:1 19:1 22:1 23:1 26:1 27:1 29:1 30:1 
2048 1:1 3:1 5:1 7:1 9:0.0237389 18:1 19:1 22:1 23:1 26:1 27:0.57735 28:1 30:1 
2048 2:1 3:1 6:1 7:1 9:0.0326409 18:1 19:1 22:1 23:1 26:1 27:1 29:1 30:1 
2048 1:1 3:1 5:1 7:1 9:0.00890208 18:1 20:1 22:1 24:1 26:1 27:1 29:1 30:1 
2048 2:1 3:1 6:1 8:1 9:0.0118694 18:1 19:1 22:1 23:1 26:1 27:1 29:1 30:1 
2048 2:1 3:1 6:1 7:1 9:0.0207715 18:1 19:1 22:1 23:1 26:1 27:1 29:1 30:1 
2048 2:1 3:1 6:1 8:1 9:0.130564 18:1 19:1 22:1 23:1 26:1 27:1 29:1 30:1 
2048 2:1 3:1 6:1 8:1 9:0.142433 18:1 19:1 22:1 23:1 26:1 27:1 29:1 30:1 
2048 2:1 3:1 6:1 8:1 9:0.145401 18:1 19:1 22:1 23:1 26:1 27:1 29:1 30:1 
2048 2:1 3:1 6:1 7:1 9:0.0148368 18:1 19:1 21:1 23:1 25:1 28:1 30:1 
2048 1:1 3:1 5:1 7:1 9:0.261128 18:1 20:1 22:1 24:1 26:1 27:1 29:1 30:1 
3.508887252317713 1:1 3:1 5:1 7:1 9:0.27003 10:1 19:1 21:1 24:1 26:1 27:0.5 28:1 30:1 
2048 1:1 3:1 5:1 7:1 9:0.154303 18:1 20:1 22:1 23:1 26:1 27:0.707107 28:1 30:1 
2048 1:1 3:1 5:1 7:1 9:0.15727 18:1 20:1 22:1 23:1 26:1 27:0.707107 28:1 30:1 
2048 2:1 3:1 6:1 8:1 9:0.160237 15:1 20:1 22:1 24:1 26:1 27:0.707107 29:1 30:1 
2048 1:1 3:1 5:1 7:1 9:0.172107 13:1 19:1 21:1 23:1 25:1 28:1 30:1 
2048 1:1 3:1 5:1 7:1 9:0.172107 10:1 19:1 21:1 23:1 26:1 27:0.534522 28:1 30:1 
2048 1:1 3:1 5:1 7:1 9:0.139466 18:1 20:1 22:1 23:1 26:1 27:0.707107 28:1 30:1 
2048 1:1 3:1 5:1 7:1 9:0.0534125 18:1 20:1 22:1 24:1 26:1 27:1 29:1 30:1 
2048 1:1 3:1 5:1 7:1 9:0.00593472 15:1 20:1 21:1 23:1 26:1 27:0.5 28:1 30:1 
8.3111360950872 1:1 4:1 5:1 7:1 11:1 19:1 21:1 23:1 25:1 28:1 30:1 
10.954149806358 1:1 4:1 5:1 7:1 9:0.00296736 13:1 19:1 21:1 23:1 25:1 28:1 30:1 
2048 1:1 3:1 5:1 7:1 9:0.145401 18:1 20:1 22:1 23:1 26:1 27:0.707107 28:1 30:1 
2048 1:1 3:1 5:1 7:1 9:0.142433 18:1 20:1 22:1 23:1 26:1 27:0.707107 28:1 30:1 
2048 2:1 3:1 6:1 7:1 9:0.189911 18:1 19:1 22:1 23:1 26:1 27:1 29:1 30:1 
1191.222287605887 1:1 3:1 5:1 7:1 9:0.169139 12:1 19:1 21:1 23:1 26:1 27:0.353553 28:1 30:1 
2048 1:1 3:1 5:1 7:1 9:0.0504451 15:1 19:1 21:1 23:1 26:1 27:0.408248 28:1 30:1 
2048 2:1 3:1 6:1 7:1 9:0.0267062 18:1 19:1 22:1 23:1 26:1 27:1 29:1 30:1 
2048 1:1 3:1 5:1 7:1 9:0.0148368 17:1 19:1 21:1 24:1 26:1 27:0.288675 28:1 30:1 
2048 1:1 3:1 5:1 7:1 9:0.0326409 14:1 20:1 21:1 23:1 26:1 27:0.866025 28:1 30:1 
2048 1:1 3:1 5:1 7:1 9:0.041543 17:1 20:1 21:1 23:1 26:1 27:0.353553 28:1 30:1 
2048 1:1 3:1 5:1 7:1 9:0.0474777 14:1 19:1 21:1 23:1 26:1 27:0.288675 28:1 30:1 
2048 1:1 3:1 5:1 7:1 9:0.0652819 17:1 19:1 22:1 23:1 26:1 27:0.5 28:1 30:1 
1342.660999098944 1:1 3:1 5:1 7:1 9:0.0326409 17:1 20:1 21:1 23:1 26:1 27:0.288675 28:1 30:1 
2048 1:1 3:1 5:1 7:1 9:0.0178042 15:1 19:1 21:1 23:1 26:1 27:0.333333 28:1 30:1 
2048 1:1 3:1 5:1 7:1 9:0.0237389 18:1 19:1 21:1 23:1 26:1 27:0.408248 28:1 30:1 
2048 2:1 3:1 6:1 7:1 9:0.145401 18:1 19:1 22:1 23:1 26:1 27:0.707107 28:1 30:1 
2048 1:1 3:1 5:1 7:1 9:0.0534125 18:1 19:1 22:1 23:1 25:1 28:1 30:1 
2048 1:1 3:1 5:1 7:1 9:0.0326409 17:1 19:1 22:1 23:1 26:1 27:0.57735 28:1 30:1 
2048 1:1 3:1 5:1 7:1 9:0.0445104 14:1 19:1 21:1 23:1 26:1 27:0.408248 28:1 30:1 
2048 1:1 3:1 5:1 7:1 9:0.172107 11:1 19:1 21:1 23:1 25:1 28:1 30:1 
2048 2:1 3:1 6:1 7:1 9:0.0237389 18:1 19:1 22:1 24:1 26:1 27:0.707107 29:1 30:1 
737.3795336421329 1:1 3:1 5:1 7:1 9:0.0296736 18:1 19:1 21:1 23:1 26:1 27:0.408248 28:1 30:1 
2048 1:1 3:1 5:1 7:1 9:0.10089 18:1 19:1 22:1 23:1 26:1 27:0.707107 28:1 30:1 
2048 2:1 3:1 6:1 8:1 9:0.11276 18:1 19:1 22:1 23:1 26:1 27:1 29:1 30:1 
2048 1:1 4:1 6:1 7:1 9:0.0890208 18:1 19:1 21:1 23:1 25:1 28:1 30:1 
104.2541471948428 2:1 4:1 6:1 7:1 9:0.130564 18:1 19:1 22:1 24:1 26:1 27:0.707107 29:1 30:1 
2048 2:1 3:1 6:1 7:1 9:0.0771513 18:1 19:1 21:1 23:1 25:1 28:1 30:1 
32.57806022731461 2:1 4:1 6:1 8:1 9:0.275964 15:1 19:1 21:1 23:1 25:1 28:1 30:1 
2048 1:1 3:1 5:1 7:1 9:0.0356083 18:1 19:1 21:1 23:1 26:1 27:0.5 28:1 30:1 
2048 1:1 3:1 5:1 7:1 9:0.0207715 18:1 19:1 21:1 23:1 26:1 27:0.447214 28:1 30:1 
2048 1:1 4:1 6:1 7:1 9:0.0296736 18:1 19:1 21:1 23:1 25:1 28:1 30:1 
2048 1:1 4:1 6:1 7:1 9:0.00296736 18:1 19:1 21:1 23:1 25:1 28:1 30:1 
414.9334162042608 1:1 4:1 5:1 7:1 9:0.106825 12:1 19:1 21:1 23:1 25:1 28:1 30:1 
2048 2:1 4:1 6:1 8:1 9:0.00593472 18:1 19:1 22:1 23:1 26:1 27:1 29:1 30:1 
2048 1:1 3:1 5:1 7:1 9:0.127596 18:1 19:1 22:1 23:1 26:1 27:0.707107 28:1 30:1 
2048 1:1 3:1 5:1 7:1 9:0.246291 18:1 19:1 22:1 23:1 26:1 27:0.707107 28:1 30:1 
2048 2:1 3:1 6:1 7:1 9:0.145401 18:1 19:1 22:1 23:1 26:1 27:1 29:1 30:1 
2048 1:1 3:1 5:1 7:1 9:0.175074 15:1 20:1 21:1 23:1 26:1 27:0.5 28:1 30:1 
2048 1:1 4:1 5:1 7:1 9:0.106825 16:1 19:1 21:1 23:1 25:1 28:1 30:1 
2048 1:1 3:1 5:1 7:1 9:0.0148368 10:1 20:1 22:1 24:1 26:1 27:1 29:1 30:1 
51.40695168542928 1:1 4:1 6:1 7:1 9:0.00593472 15:1 19:1 21:1 23:1 26:1 27:0.408248 28:1 30:1 
2048 1:1 4:1 5:1 7:1 9:0.0682493 17:1 19:1 21:1 23:1 25:1 28:1 30:1 
2048 1:1 3:1 5:1 7:1 9:0.0474777 18:1 19:1 21:1 23:1 26:1 27:0.408248 28:1 30:1 
2048 1:1 3:1 5:1 7:1 9:0.0326409 18:1 19:1 22:1 23:1 26:1 27:0.707107 28:1 30:1 
2048 1:1 3:1 5:1 7:1 9:0.0296736 17:1 19:1 21:1 23:1 26:1 27:0.5 28:1 30:1 
2048 1:1 3:1 5:1 7:1 9:0.0267062 18:1 19:1 21:1 23:1 26:1 27:0.408248 28:1 30:1 
2048 1:1 3:1 5:1 7:1 9:0.222552 18:1 19:1 22:1 23:1 25:1 28:1 30:1 
2048 2:1 3:1 6:1 8:1 9:0.0178042 18:1 19:1 22:1 23:1 26:1 27:1 29:1 30:1 
2048 2:1 3:1 6:1 8:1 9:0.219585 18:1 19:1 22:1 23:1 26:1 27:1 29:1 30:1 
2048 1:1 3:1 5:1 7:1 9:0.195846 18:1 19:1 22:1 23:1 26:1 27:0.707107 28:1 30:1 
2048 1:1 3:1 6:1 7:1 18:1 19:1 21:1 23:1 25:1 28:1 30:1 
2048 2:1 3:1 6:1 8:1 9:0.0148368 18:1 19:1 22:1 23:1 26:1 27:1 29:1 30:1 
2048 1:1 3:1 5:1 7:1 9:0.222552 18:1 19:1 22:1 23:1 26:1 27:0.707107 28:1 30:1 
2048 2:1 3:1 6:1 7:1 9:0.11276 18:1 20:1 22:1 23:1 26:1 27:1 29:1 30:1 
2048 2:1 4:1 6:1 8:1 9:0.0593472 18:1 19:1 22:1 23:1 26:1 27:1 29:1 30:1 
2048 2:1 3:1 6:1 7:1 9:0.0623145 18:1 19:1 22:1 23:1 26:1 27:0.707107 28:1 30:1 
2048 1:1 4:1 6:1 7:1 9:0.0474777 17:1 19:1 21:1 23:1 25:1 28:1 30:1 
2048 1:1 3:1 5:1 7:1 9:0.00890208 14:1 19:1 21:1 23:1 26:1 27:0.447214 28:1 30:1 
2048 1:1 3:1 5:1 7:1 9:0.0830861 17:1 20:1 21:1 23:1 26:1 27:0.353553 28:1 30:1 
2048 2:1 3:1 6:1 8:1 9:0.0267062 18:1 19:1 22:1 23:1 26:1 27:1 29:1 30:1 
2048 1:1 4:1 6:1 7:1 9:0.0118694 18:1 19:1 21:1 23:1 25:1 28:1 30:1 
2048 2:1 3:1 6:1 7:1 9:0.0296736 18:1 19:1 22:1 23:1 26:1 27:1 29:1 30:1 
60.20470121136099 1:1 3:1 5:1 7:1 9:0.0771513 18:1 20:1 21:1 23:1 26:1 27:0.408248 28:1 30:1 
2048 1:1 3:1 5:1 7:1 9:0.0919881 18:1 19:1 22:1 23:1 26:1 27:0.707107 28:1 30:1 
2048 1:1 4:1 6:1 7:1 9:0.00296736 18:1 19:1 22:1 23:1 25:1 28:1 30:1 
2048 1:1 3:1 5:1 7:1 9:0.0593472 17:1 19:1 21:1 23:1 26:1 27:0.5 28:1 30:1 
2048 1:1 3:1 5:1 7:1 9:0.0207715 18:1 19:1 22:1 23:1 26:1 27:1 29:1 30:1 
2048 1:1 3:1 5:1 7:1 9:0.0474777 18:1 19:1 22:1 23:1 26:1 27:0.707107 28:1 30:1 
2048 2:1 3:1 6:1 8:1 9:0.0326409 18:1 19:1 22:1 23:1 26:1 27:1 29:1 30:1 
2048 1:1 3:1 5:1 7:1 9:0.0237389 18:1 20:1 22:1 24:1 26:1 27:1 29:1 30:1 
2048 2:1 3:1 6:1 8:1 18:1 19:1 22:1 23:1 26:1 27:1 29:1 30:1 
2048 1:1 3:1 5:1 7:1 9:0.00890208 15:1 19:1 22:1 23:1 26:1 27:0.57735 28:1 30:1 
2048 1:1 3:1 5:1 7:1 9:0.0385757 17:1 19:1 22:1 23:1 26:1 27:0.57735 28:1 30:1 
2048 2:1 3:1 6:1 8:1 9:0.124629 18:1 19:1 22:1 23:1 26:1 27:1 29:1 30:1 
2048 1:1 4:1 5:1 7:1 9:0.106825 15:1 19:1 21:1 23:1 25:1 28:1 30:1 
2048 1:1 3:1 5:1 7:1 9:0.121662 18:1 19:1 22:1 23:1 26:1 27:0.707107 28:1 30:1 
2048 1:1 3:1 5:1 7:1 9:0.0949555 11:1 19:1 21:1 23:1 25:1 28:1 30:1 
2048 1:1 3:1 5:1 7:1 9:0.00296736 18:1 19:1 22:1 23:1 26:1 27:0.816497 28:1 30:1 
2048 1:1 3:1 5:1 7:1 9:0.00890208 18:1 19:1 22:1 23:1 26:1 27:0.816497 28:1 30:1 
2048 2:1 3:1 6:1 7:1 9:0.0830861 18:1 20:1 22:1 24:1 26:1 27:1 29:1 30:1 
2048 1:1 3:1 5:1 7:1 9:0.0326409 18:1 19:1 21:1 23:1 26:1 27:0.5 28:1 30:1 
2048 1:1 3:1 5:1 7:1 9:0.0178042 18:1 19:1 22:1 23:1 26:1 27:0.866025 28:1 30:1 
2048 1:1 3:1 5:1 7:1 9:0.0830861 18:1 20:1 22:1 24:1 26:1 27:1 29:1 30:1 
2048 1:1 3:1 5:1 7:1 9:0.0801187 18:1 20:1 22:1 24:1 26:1 27:1 29:1 30:1 
2048 1:1 3:1 5:1 7:1 9:0.0890208 10:1 20:1 21:1 23:1 26:1 27:0.57735 28:1 30:1 
2048 2:1 3:1 6:1 8:1 9:0.0860534 18:1 19:1 22:1 23:1 26:1 27:1 29:1 30:1 
2048 1:1 3:1 5:1 7:1 9:0.0860534 18:1 19:1 22:1 23:1 26:1 27:0.707107 28:1 30:1 
2048 1:1 3:1 5:1 7:1 9:0.0118694 16:1 20:1 21:1 23:1 26:1 27:0.408248 28:1 30:1 
2048 1:1 3:1 5:1 7:1 18:1 20:1 22:1 24:1 26:1 27:1 29:1 30:1 
2048 2:1 3:1 6:1 8:1 9:0.103858 18:1 19:1 22:1 23:1 26:1 27:1 29:1 30:1 
1247.876904453556 2:1 4:1 6:1 7:1 9:0.284866 18:1 19:1 22:1 23:1 26:1 27:1 29:1 30:1 
2048 2:1 4:1 6:1 7:1 9:0.406528 18:1 19:1 22:1 23:1 26:1 27:1 29:1 30:1 
2048 1:1 3:1 5:1 7:1 9:0.278932 18:1 19:1 22:1 23:1 26:1 27:1 29:1 30:1 
801.6966415695061 1:1 3:1 5:1 7:1 9:0.299703 18:1 19:1 22:1 23:1 26:1 27:1 29:1 30:1 
2048 2:1 4:1 6:1 8:1 9:0.376855 18:1 19:1 22:1 23:1 26:1 27:1 29:1 30:1 
2048 2:1 3:1 6:1 8:1 9:0.353116 18:1 19:1 22:1 23:1 26:1 27:1 29:1 30:1 
2048 2:1 3:1 6:1 8:1 9:0.394659 18:1 19:1 22:1 23:1 26:1 27:1 29:1 30:1 
2048 1:1 3:1 5:1 7:1 9:0.181009 12:1 20:1 22:1 24:1 26:1 27:0.816497 29:1 30:1 
2048 2:1 4:1 6:1 7:1 9:0.00593472 18:1 19:1 22:1 23:1 26:1 27:1 29:1 30:1 
2048 2:1 4:1 6:1 7:1 9:0.127596 18:1 19:1 22:1 23:1 26:1 27:1 29:1 30:1 
2048 2:1 4:1 6:1 7:1 9:0.121662 18:1 19:1 22:1 23:1 26:1 27:1 29:1 30:1 
2048 2:1 3:1 6:1 8:1 9:0.160237 18:1 19:1 21:1 23:1 25:1 28:1 30:1 
1479.575129215344 1:1 4:1 5:1 7:1 9:0.204748 18:1 19:1 21:1 23:1 26:1 27:0.5 28:1 30:1 
2048 2:1 3:1 6:1 7:1 9:0.136499 15:1 19:1 22:1 24:1 26:1 27:0.707107 29:1 30:1 
2048 2:1 3:1 6:1 8:1 9:0.0771513 18:1 19:1 22:1 23:1 26:1 27:1 29:1 30:1 
2048 2:1 3:1 6:1 8:1 9:0.0385757 18:1 20:1 22:1 23:1 26:1 27:1 29:1 30:1 
2048 2:1 3:1 6:1 8:1 9:0.124629 15:1 20:1 22:1 24:1 26:1 27:0.707107 29:1 30:1 
2048 2:1 3:1 6:1 7:1 9:0.0356083 18:1 20:1 22:1 23:1 26:1 27:1 29:1 30:1 
2048 2:1 3:1 6:1 8:1 9:0.0860534 15:1 20:1 22:1 24:1 26:1 27:0.707107 29:1 30:1 
2048 2:1 3:1 6:1 7:1 9:0.0830861 15:1 19:1 22:1 24:1 26:1 27:0.707107 29:1 30:1 
2048 1:1 3:1 5:1 7:1 9:0.00296736 14:1 19:1 21:1 23:1 26:1 27:0.353553 28:1 30:1 
2048 1:1 3:1 5:1 7:1 9:0.0178042 18:1 19:1 22:1 23:1 26:1 27:0.707107 28:1 30:1 
2048 2:1 3:1 6:1 8:1 9:0.15727 18:1 19:1 22:1 23:1 26:1 27:1 29:1 30:1 
1235.025342889834 2:1 3:1 6:1 8:1 9:0.10089 18:1 19:1 21:1 23:1 25:1 28:1 30:1 
2048 1:1 4:1 5:1 7:1 9:0.0148368 15:1 19:1 21:1 23:1 25:1 28:1 30:1 
2048 2:1 3:1 6:1 7:1 9:0.183976 18:1 19:1 22:1 23:1 26:1 27:1 29:1 30:1 
2048 1:1 4:1 5:1 7:1 9:0.228487 18:1 19:1 21:1 23:1 25:1 28:1 30:1 
2048 2:1 4:1 6:1 8:1 9:0.192878 18:1 19:1 22:1 23:1 26:1 27:1 29:1 30:1 
2048 2:1 4:1 6:1 8:1 9:0.0267062 18:1 19:1 22:1 23:1 26:1 27:1 29:1 30:1 
2048 2:1 4:1 6:1 8:1 9:0.0801187 18:1 19:1 22:1 23:1 26:1 27:1 29:1 30:1 
2048 2:1 3:1 6:1 7:1 9:0.074184 18:1 19:1 22:1 23:1 26:1 27:1 29:1 30:1 
310.4646730885617 2:1 3:1 6:1 8:1 9:0.0623145 18:1 19:1 22:1 23:1 26:1 27:1 29:1 30:1 
2048 1:1 3:1 5:1 7:1 9:0.0830861 18:1 19:1 22:1 23:1 26:1 27:0.707107 28:1 30:1 
2048 1:1 3:1 5:1 7:1 9:0.0207715 18:1 19:1 22:1 23:1 26:1 27:0.57735 28:1 30:1 
2048 2:1 3:1 6:1 7:1 9:0.0593472 18:1 19:1 22:1 23:1 26:1 27:1 29:1 30:1 
2048 2:1 4:1 6:1 8:1 9:0.0118694 18:1 19:1 22:1 23:1 26:1 27:1 29:1 30:1 
2048 2:1 4:1 6:1 8:1 9:0.0652819 18:1 19:1 22:1 23:1 26:1 27:1 29:1 30:1 
2048 2:1 4:1 6:1 8:1 9:0.00296736 18:1 19:1 22:1 23:1 26:1 27:1 29:1 30:1 
2048 2:1 4:1 6:1 8:1 9:0.0563798 18:1 19:1 22:1 23:1 26:1 27:1 29:1 30:1 
2048 2:1 4:1 6:1 8:1 9:0.0534125 18:1 19:1 22:1 23:1 26:1 27:1 29:1 30:1 
2048 2:1 3:1 6:1 8:1 9:0.0860534 18:1 20:1 22:1 23:1 26:1 27:1 29:1 30:1 
2048 1:1 3:1 5:1 7:1 9:0.0623145 18:1 19:1 22:1 23:1 26:1 27:0.57735 28:1 30:1 
2048 1:1 3:1 5:1 7:1 9:0.0860534 18:1 20:1 22:1 24:1 26:1 27:1 29:1 30:1 
4.174438769854646 1:1 4:1 6:1 7:1 9:0.181009 13:1 19:1 21:1 23:1 26:1 27:0.25 28:1 30:1 
2048 2:1 3:1 6:1 7:1 9:0.136499 18:1 20:1 22:1 24:1 26:1 27:1 29:1 30:1 
40.80280155848349 2:1 3:1 6:1 7:1 9:0.15727 12:1 19:1 21:1 24:1 26:1 27:0.408248 28:1 30:1 
2048 2:1 3:1 6:1 7:1 9:0.166172 18:1 20:1 22:1 24:1 26:1 27:1 29:1 30:1 
4.726725302148227 2:1 3:1 6:1 7:1 9:0.169139 15:1 19:1 21:1 24:1 26:1 27:0.408248 28:1 30:1 
13.87421595548394 2:1 4:1 6:1 7:1 9:0.0326409 17:1 20:1 21:1 24:1 26:1 27:0.5 29:1 30:1 
2048 2:1 4:1 6:1 8:1 9:0.106825 18:1 19:1 22:1 23:1 26:1 27:1 29:1 30:1 
2048 2:1 4:1 6:1 8:1 9:0.181009 18:1 19:1 22:1 23:1 26:1 27:1 29:1 30:1 
2048 1:1 3:1 5:1 7:1 9:0.0830861 18:1 19:1 22:1 23:1 26:1 27:0.57735 28:1 30:1 
2048 2:1 4:1 6:1 7:1 9:0.115727 18:1 19:1 22:1 24:1 26:1 27:0.707107 29:1 30:1 
2048 2:1 4:1 6:1 8:1 9:0.074184 18:1 19:1 22:1 23:1 26:1 27:1 29:1 30:1 
2048 2:1 3:1 6:1 7:1 18:1 20:1 22:1 24:1 26:1 27:1 29:1 30:1 
2048 2:1 3:1 6:1 7:1 9:0.0326409 15:1 19:1 21:1 24:1 26:1 27:0.408248 28:1 30:1 
2048 2:1 3:1 6:1 7:1 9:0.0118694 13:1 19:1 21:1 24:1 26:1 27:0.333333 28:1 30:1 
2048 1:1 3:1 5:1 7:1 9:0.00593472 16:1 20:1 21:1 23:1 26:1 27:0.57735 28:1 30:1 
2048 1:1 3:1 5:1 7:1 9:0.00593472 18:1 20:1 22:1 23:1 26:1 27:0.816497 28:1 30:1 
386.3548052744175 1:1 3:1 5:1 7:1 9:0.0801187 18:1 19:1 21:1 23:1 26:1 27:0.566947 28:1 30:1 
2048 2:1 3:1 6:1 7:1 9:0.0237389 18:1 19:1 22:1 23:1 25:1 28:1 30:1 
2048 1:1 3:1 5:1 7:1 9:0.216617 18:1 19:1 22:1 23:1 26:1 27:0.707107 28:1 30:1 
2048 2:1 4:1 6:1 8:1 9:0.216617 18:1 19:1 22:1 23:1 26:1 27:1 29:1 30:1 
2048 2:1 4:1 6:1 8:1 9:0.0652819 17:1 19:1 22:1 24:1 26:1 27:0.707107 29:1 30:1 
2048 1:1 3:1 5:1 7:1 9:0.0534125 18:1 19:1 22:1 23:1 26:1 27:0.707107 28:1 30:1 
2048 2:1 3:1 6:1 8:1 9:0.376855 18:1 20:1 22:1 23:1 26:1 27:1 29:1 30:1 
2048 2:1 3:1 6:1 8:1 9:0.373887 18:1 19:1 22:1 23:1 26:1 27:1 29:1 30:1 
2048 1:1 3:1 5:1 7:1 9:0.323442 18:1 20:1 21:1 23:1 26:1 27:0.408248 28:1 30:1 
2048 2:1 3:1 6:1 8:1 9:0.207715 18:1 19:1 22:1 23:1 26:1 27:1 29:1 30:1 
2048 2:1 3:1 6:1 8:1 9:0.175074 18:1 19:1 22:1 23:1 26:1 27:1 29:1 30:1 
2048 2:1 3:1 6:1 8:1 9:0.133531 17:1 20:1 22:1 24:1 26:1 27:0.707107 29:1 30:1 
2007.941683167379 2:1 3:1 6:1 8:1 9:0.169139 17:1 20:1 22:1 24:1 26:1 27:0.707107 29:1 30:1 
2048 1:1 3:1 5:1 7:1 9:0.163205 16:1 20:1 21:1 23:1 26:1 27:0.408248 28:1 30:1 
2048 2:1 3:1 6:1 8:1 9:0.160237 18:1 19:1 22:1 23:1 26:1 27:1 29:1 30:1 
2048 1:1 3:1 5:1 7:1 9:0.0979228 18:1 19:1 22:1 23:1 26:1 27:0.707107 28:1 30:1 
2048 1:1 3:1 5:1 7:1 9:0.0979228 18:1 19:1 22:1 23:1 26:1 27:0.447214 28:1 30:1 
2048 2:1 3:1 6:1 8:1 9:0.121662 18:1 19:1 22:1 23:1 26:1 27:1 29:1 30:1 
2048 1:1 4:1 5:1 7:1 18:1 19:1 21:1 23:1 26:1 27:0.666667 28:1 30:1 
359.0016236609739 2:1 4:1 6:1 7:1 9:0.207715 18:1 19:1 21:1 23:1 26:1 27:0.75 28:1 30:1 
2048 1:1 3:1 5:1 7:1 9:0.178042 15:1 20:1 21:1 23:1 26:1 27:0.408248 28:1 30:1 
2048 2:1 3:1 6:1 8:1 9:0.15727 15:1 20:1 22:1 24:1 26:1 27:0.707107 29:1 30:1 
34.19675868223261 2:1 4:1 6:1 7:1 9:0.0534125 18:1 19:1 22:1 23:1 26:1 27:0.707107 28:1 30:1 
317.3096212084772 2:1 4:1 6:1 7:1 9:0.0118694 12:1 20:1 22:1 24:1 26:1 27:0.894427 29:1 30:1 
2048 1:1 3:1 5:1 7:1 9:0.0118694 15:1 19:1 21:1 23:1 26:1 27:0.121268 28:1 30:1 
1800.203526563904 1:1 3:1 5:1 7:1 9:0.041543 17:1 20:1 21:1 23:1 26:1 27:0.53033 28:1 30:1 
1605.162153580835 2:1 3:1 6:1 7:1 9:0.0534125 18:1 19:1 22:1 23:1 26:1 27:0.707107 28:1 30:1 
2048 2:1 3:1 6:1 8:1 9:0.0563798 18:1 19:1 22:1 23:1 26:1 27:1 29:1 30:1 
2048 1:1 3:1 5:1 7:1 9:0.0237389 18:1 20:1 21:1 23:1 26:1 27:0.5 28:1 30:1 
2048 1:1 3:1 5:1 7:1 9:0.0534125 18:1 20:1 21:1 23:1 26:1 27:0.5 28:1 30:1 
2048 1:1 4:1 5:1 7:1 9:0.0682493 18:1 19:1 22:1 23:1 26:1 27:0.707107 28:1 30:1 
2048 1:1 3:1 5:1 7:1 9:0.0593472 18:1 19:1 22:1 23:1 26:1 27:0.707107 28:1 30:1 
2048 1:1 4:1 6:1 7:1 9:0.0326409 18:1 19:1 21:1 23:1 25:1 28:1 30:1 
64.93550876454297 1:1 3:1 6:1 7:1 9:0.124629 18:1 19:1 22:1 23:1 25:1 28:1 30:1 
2048 1:1 3:1 5:1 7:1 9:0.127596 12:1 19:1 21:1 23:1 26:1 27:0.5 28:1 30:1 
2048 1:1 3:1 5:1 7:1 9:0.145401 15:1 19:1 21:1 23:1 26:1 27:0.75 28:1 30:1 
232.5976502493757 1:1 3:1 5:1 7:1 9:0.0801187 11:1 19:1 21:1 23:1 25:1 28:1 30:1 
2048 1:1 3:1 5:1 7:1 9:0.124629 18:1 19:1 21:1 23:1 26:1 27:0.288675 28:1 30:1 
2048 1:1 3:1 5:1 7:1 9:0.0178042 14:1 19:1 21:1 23:1 26:1 27:0.288675 28:1 30:1 
729.5186397117483 1:1 3:1 5:1 7:1 9:0.0860534 18:1 19:1 22:1 23:1 26:1 27:0.57735 28:1 30:1 
2048 2:1 3:1 6:1 7:1 9:0.0148368 18:1 20:1 22:1 23:1 26:1 27:1 29:1 30:1 
33.65157700068806 1:1 3:1 5:1 7:1 9:0.0178042 18:1 20:1 21:1 24:1 26:1 27:0.67082 29:1 30:1 
2048 1:1 3:1 5:1 7:1 9:0.0118694 18:1 20:1 21:1 23:1 26:1 27:0.408248 28:1 30:1 
2048 1:1 3:1 5:1 7:1 9:0.264095 15:1 20:1 22:1 23:1 26:1 27:0.707107 28:1 30:1 
753.2318335220943 1:1 3:1 5:1 7:1 9:0.267062 15:1 20:1 21:1 23:1 26:1 27:0.408248 28:1 30:1 
2048 1:1 3:1 5:1 7:1 9:0.267062 15:1 20:1 21:1 23:1 26:1 27:0.5 28:1 30:1 
2048 1:1 3:1 5:1 7:1 9:0.287834 18:1 19:1 22:1 23:1 26:1 27:0.707107 28:1 30:1 
1053.29619277993 1:1 3:1 5:1 7:1 9:0.290801 15:1 20:1 22:1 23:1 26:1 27:0.707107 28:1 30:1 
2048 2:1 3:1 6:1 8:1 9:0.284866 18:1 19:1 22:1 23:1 26:1 27:1 29:1 30:1 
454.8042906931367 1:1 3:1 5:1 7:1 9:0.00296736 14:1 20:1 21:1 23:1 26:1 27:0.866025 28:1 30:1 
2048 1:1 3:1 5:1 7:1 9:0.0237389 17:1 19:1 22:1 23:1 26:1 27:0.5 28:1 30:1 
2048 1:1 3:1 5:1 7:1 9:0.0207715 17:1 19:1 22:1 23:1 26:1 27:0.57735 28:1 30:1 
2048 1:1 3:1 5:1 7:1 9:0.0237389 14:1 20:1 21:1 23:1 26:1 27:0.866025 28:1 30:1 
2048 2:1 4:1 6:1 7:1 9:0.0207715 17:1 19:1 22:1 24:1 26:1 27:0.707107 29:1 30:1 
2048 1:1 3:1 5:1 7:1 9:0.0237389 14:1 20:1 21:1 23:1 26:1 27:0.707107 28:1 30:1 
2048 1:1 3:1 5:1 7:1 9:0.00296736 15:1 19:1 22:1 23:1 26:1 27:0.5 28:1 30:1 
2048 1:1 3:1 5:1 7:1 9:0.106825 18:1 20:1 22:1 24:1 26:1 27:1 29:1 30:1 
2048 1:1 3:1 5:1 7:1 9:0.347181 18:1 20:1 22:1 24:1 26:1 27:1 29:1 30:1 
2048 2:1 4:1 6:1 8:1 9:0.0207715 18:1 19:1 22:1 23:1 26:1 27:1 29:1 30:1 
2048 1:1 3:1 5:1 7:1 9:0.121662 12:1 19:1 22:1 23:1 26:1 27:0.57735 28:1 30:1 
2048 1:1 3:1 5:1 7:1 9:0.225519 18:1 19:1 22:1 23:1 26:1 27:0.5 28:1 30:1 
2048 1:1 3:1 5:1 7:1 18:1 20:1 21:1 23:1 26:1 27:0.333333 28:1 30:1 
2048 1:1 3:1 5:1 7:1 9:0.10089 18:1 19:1 21:1 23:1 26:1 27:0.365148 28:1 30:1 
2048 1:1 3:1 5:1 7:1 9:0.10089 12:1 19:1 22:1 23:1 26:1 27:0.57735 28:1 30:1 
2048 1:1 3:1 5:1 7:1 9:0.204748 18:1 19:1 22:1 23:1 26:1 27:0.5 28:1 30:1 
2048 2:1 4:1 6:1 8:1 9:0.299703 18:1 19:1 22:1 23:1 26:1 27:1 29:1 30:1 
2048 2:1 3:1 6:1 8:1 9:0.231454 18:1 19:1 22:1 23:1 26:1 27:1 29:1 30:1 
1527.687187108808 2:1 3:1 6:1 8:1 9:0.252226 18:1 19:1 21:1 23:1 25:1 28:1 30:1 
2048 1:1 3:1 5:1 7:1 9:0.148368 18:1 19:1 22:1 23:1 26:1 27:0.632456 28:1 30:1 
2048 1:1 3:1 5:1 7:1 9:0.148368 18:1 20:1 22:1 23:1 26:1 27:0.774597 28:1 30:1 
2048 1:1 3:1 5:1 7:1 9:0.240356 18:1 20:1 22:1 24:1 26:1 27:1 29:1 30:1 
1003.514350210733 1:1 3:1 5:1 7:1 9:0.10089 17:1 20:1 21:1 23:1 26:1 27:0.353553 28:1 30:1 
2048 1:1 3:1 5:1 7:1 9:0.127596 11:1 19:1 21:1 23:1 25:1 28:1 30:1 
136.2844843169215 1:1 4:1 5:1 7:1 16:1 20:1 21:1 23:1 26:1 27:0.2 28:1 30:1 
1970.842438548475 1:1 3:1 5:1 7:1 16:1 20:1 21:1 23:1 26:1 27:0.182574 28:1 30:1 
1435.31111807713 1:1 3:1 5:1 7:1 18:1 20:1 21:1 23:1 26:1 27:0.730297 28:1 30:1 
2048 1:1 3:1 5:1 7:1 18:1 20:1 21:1 23:1 26:1 27:0.8 28:1 30:1 
2048 1:1 3:1 5:1 7:1 9:0.0652819 14:1 19:1 21:1 23:1 26:1 27:0.408248 28:1 30:1 
2048 1:1 3:1 5:1 7:1 9:0.198813 16:1 19:1 22:1 23:1 26:1 27:0.57735 28:1 30:1 
2048 1:1 3:1 5:1 7:1 9:0.0682493 17:1 19:1 21:1 23:1 26:1 27:0.288675 28:1 30:1 
2048 1:1 3:1 5:1 7:1 9:0.00890208 18:1 20:1 22:1 24:1 26:1 27:1 29:1 30:1 
2048 1:1 3:1 5:1 7:1 9:0.074184 18:1 19:1 21:1 23:1 26:1 27:0.5 28:1 30:1 
2048 1:1 3:1 5:1 7:1 9:0.145401 18:1 19:1 22:1 23:1 26:1 27:0.707107 28:1 30:1 
57.1121701043842 1:1 3:1 5:1 7:1 9:0.0356083 14:1 19:1 21:1 23:1 26:1 27:0.333333 28:1 30:1 
2048 1:1 3:1 5:1 7:1 9:0.0445104 18:1 19:1 22:1 24:1 26:1 27:0.5 28:1 30:1 
2048 1:1 3:1 5:1 7:1 9:0.136499 18:1 19:1 22:1 23:1 26:1 27:0.707107 28:1 30:1 
933.9402061085783 1:1 3:1 5:1 7:1 9:0.0296736 18:1 19:1 22:1 24:1 26:1 27:0.5 28:1 30:1 
2048 1:1 3:1 5:1 7:1 9:0.0504451 18:1 19:1 22:1 23:1 26:1 27:0.707107 28:1 30:1 
2048 2:1 3:1 6:1 7:1 9:0.0860534 18:1 19:1 22:1 23:1 26:1 27:1 29:1 30:1 
2048 2:1 3:1 6:1 7:1 9:0.0801187 17:1 19:1 22:1 24:1 26:1 27:0.707107 29:1 30:1 
2048 2:1 3:1 6:1 7:1 9:0.0445104 10:1 20:1 22:1 24:1 26:1 27:1 29:1 30:1 
2048 1:1 3:1 5:1 7:1 9:0.0178042 14:1 19:1 21:1 23:1 26:1 27:0.333333 28:1 30:1 
2048 2:1 3:1 6:1 7:1 9:0.0771513 18:1 19:1 22:1 23:1 26:1 27:1 29:1 30:1 
1750.240251609268 1:1 3:1 5:1 7:1 9:0.0949555 18:1 19:1 22:1 23:1 26:1 27:0.5 28:1 30:1 
2048 1:1 3:1 5:1 7:1 9:0.00890208 18:1 19:1 22:1 23:1 26:1 27:0.707107 28:1 30:1 
2048 2:1 4:1 6:1 8:1 9:0.0178042 18:1 19:1 22:1 23:1 26:1 27:1 29:1 30:1 
2048 2:1 4:1 6:1 8:1 9:0.0504451 18:1 19:1 22:1 23:1 26:1 27:1 29:1 30:1 
2048 2:1 4:1 6:1 8:1 9:0.0326409 18:1 19:1 22:1 23:1 26:1 27:1 29:1 30:1 
2048 2:1 3:1 6:1 8:1 15:1 19:1 22:1 24:1 26:1 27:0.707107 29:1 30:1 
2048 1:1 3:1 5:1 7:1 9:0.0148368 18:1 19:1 22:1 23:1 26:1 27:0.408248 28:1 30:1 
2034.497531653354 1:1 3:1 5:1 7:1 9:0.189911 18:1 20:1 21:1 23:1 26:1 27:0.666667 28:1 30:1 
1942.727084027564 1:1 3:1 5:1 7:1 9:0.189911 18:1 20:1 21:1 24:1 26:1 27:0.666667 28:1 30:1 
2048 2:1 3:1 6:1 8:1 9:0.183976 18:1 19:1 22:1 23:1 26:1 27:1 29:1 30:1 
2048 1:1 3:1 5:1 7:1 9:0.163205 18:1 19:1 21:1 23:1 26:1 27:0.5 28:1 30:1 
2048 1:1 3:1 5:1 7:1 9:0.175074 18:1 19:1 22:1 23:1 26:1 27:0.408248 28:1 30:1 
2048 2:1 3:1 6:1 7:1 9:0.234421 18:1 19:1 22:1 23:1 26:1 27:1 29:1 30:1 
2048 2:1 3:1 6:1 7:1 9:0.240356 18:1 19:1 22:1 23:1 26:1 27:1 29:1 30:1 
2048 1:1 4:1 5:1 8:1 9:0.181009 18:1 19:1 21:1 23:1 25:1 28:1 30:1 
2048 2:1 3:1 6:1 8:1 9:0.183976 18:1 20:1 22:1 24:1 26:1 27:1 29:1 30:1 
2048 2:1 3:1 6:1 7:1 9:0.183976 18:1 19:1 21:1 23:1 25:1 28:1 30:1 
2048 2:1 3:1 6:1 7:1 9:0.115727 18:1 19:1 22:1 23:1 26:1 27:1 29:1 30:1 
2048 1:1 3:1 5:1 7:1 9:0.21365 18:1 19:1 22:1 23:1 26:1 27:0.707107 28:1 30:1 
2048 2:1 3:1 6:1 7:1 9:0.181009 18:1 19:1 21:1 23:1 25:1 28:1 30:1 
1917.173970021397 2:1 3:1 6:1 8:1 9:0.175074 18:1 19:1 21:1 23:1 25:1 28:1 30:1 
2048 2:1 3:1 6:1 7:1 9:0.172107 18:1 19:1 22:1 23:1 26:1 27:1 29:1 30:1 
2048 1:1 3:1 5:1 7:1 9:0.0118694 18:1 19:1 22:1 23:1 26:1 27:0.816497 28:1 30:1 
2048 2:1 3:1 6:1 8:1 9:0.272997 15:1 19:1 22:1 24:1 26:1 27:0.707107 29:1 30:1 
2048 1:1 3:1 5:1 7:1 9:0.284866 18:1 19:1 22:1 23:1 26:1 27:0.707107 28:1 30:1 
2048 2:1 3:1 6:1 8:1 9:0.290801 18:1 19:1 22:1 23:1 26:1 27:1 29:1 30:1 
2048 1:1 3:1 5:1 7:1 9:0.0207715 18:1 20:1 22:1 23:1 26:1 27:0.707107 28:1 30:1 
2048 1:1 3:1 5:1 7:1 9:0.121662 10:1 20:1 21:1 23:1 26:1 27:0.57735 28:1 30:1 
737.8031183005389 1:1 3:1 5:1 7:1 9:0.118694 11:1 20:1 21:1 23:1 26:1 27:0.288675 28:1 30:1 
2048 2:1 3:1 6:1 8:1 9:0.00890208 18:1 20:1 22:1 23:1 26:1 27:1 29:1 30:1 
2048 2:1 3:1 6:1 8:1 9:0.0237389 18:1 20:1 22:1 23:1 26:1 27:1 29:1 30:1 
2048 1:1 3:1 5:1 7:1 9:0.0296736 18:1 20:1 21:1 23:1 26:1 27:0.408248 28:1 30:1 
2048 1:1 3:1 5:1 7:1 9:0.0326409 15:1 20:1 21:1 23:1 26:1 27:0.5 28:1 30:1 
2048 1:1 3:1 5:1 7:1 9:0.0207715 10:1 20:1 21:1 23:1 26:1 27:0.612372 28:1 30:1 
2048 1:1 3:1 5:1 7:1 9:0.00296736 10:1 20:1 21:1 23:1 26:1 27:0.67082 28:1 30:1 
2048 2:1 4:1 6:1 8:1 9:0.0890208 18:1 19:1 22:1 23:1 26:1 27:1 29:1 30:1 
2048 2:1 4:1 6:1 8:1 9:0.0682493 18:1 19:1 22:1 23:1 26:1 27:1 29:1 30:1 
1699.178710037864 2:1 3:1 6:1 7:1 9:0.0326409 16:1 20:1 21:1 23:1 26:1 27:0.57735 28:1 30:1 
2048 1:1 3:1 5:1 7:1 9:0.216617 18:1 19:1 21:1 23:1 26:1 27:0.408248 28:1 30:1 
2048 1:1 3:1 5:1 7:1 9:0.00593472 13:1 20:1 21:1 23:1 26:1 27:0.408248 28:1 30:1 
2048 1:1 3:1 5:1 7:1 9:0.195846 10:1 20:1 22:1 24:1 26:1 27:1 29:1 30:1 
2048 1:1 3:1 5:1 7:1 9:0.189911 11:1 20:1 21:1 23:1 26:1 27:0.408248 28:1 30:1 
588.5920425978348 1:1 3:1 5:1 7:1 9:0.367953 11:1 19:1 21:1 23:1 26:1 27:0.25 28:1 30:1 
2048 1:1 3:1 5:1 7:1 9:0.163205 18:1 19:1 22:1 23:1 26:1 27:0.707107 28:1 30:1 
2048 1:1 3:1 5:1 7:1 9:0.183976 12:1 19:1 21:1 23:1 26:1 27:0.408248 28:1 30:1 
52.49664488275565 2:1 3:1 6:1 7:1 9:0.00593472 18:1 20:1 21:1 23:1 26:1 27:0.666667 28:1 30:1 
2048 2:1 4:1 6:1 8:1 9:0.255193 18:1 19:1 22:1 23:1 26:1 27:1 29:1 30:1 
2048 2:1 3:1 6:1 8:1 9:0.21365 18:1 19:1 22:1 23:1 26:1 27:1 29:1 30:1 
2048 1:1 3:1 5:1 7:1 9:0.207715 18:1 19:1 22:1 23:1 26:1 27:0.707107 28:1 30:1 
2048 1:1 3:1 5:1 7:1 9:0.151335 16:1 19:1 21:1 23:1 26:1 27:0.408248 28:1 30:1 
2048 1:1 3:1 5:1 7:1 9:0.216617 16:1 19:1 21:1 23:1 26:1 27:0.408248 28:1 30:1 
0.7568866547845245 1:1 4:1 6:1 8:1 9:0.222552 13:1 19:1 21:1 24:1 25:1 28:1 30:1 
1648.972610345963 1:1 4:1 5:1 7:1 9:0.0148368 12:1 19:1 21:1 23:1 25:1 28:1 30:1 
2048 1:1 3:1 5:1 7:1 9:0.130564 12:1 19:1 22:1 23:1 26:1 27:0.5 28:1 30:1 
790.4019343675158 1:1 3:1 5:1 7:1 9:0.00296736 10:1 20:1 21:1 23:1 26:1 27:0.235702 28:1 30:1 
316.2528123447597 1:1 3:1 5:1 7:1 9:0.228487 10:1 19:1 21:1 23:1 26:1 27:0.125 28:1 30:1 
2048 1:1 3:1 5:1 7:1 13:1 20:1 21:1 23:1 26:1 27:0.680414 28:1 30:1 
7.187743077704278 2:1 3:1 6:1 7:1 10:1 20:1 21:1 24:1 26:1 27:0.755929 29:1 30:1 
1499.236551270609 1:1 3:1 5:1 7:1 9:0.106825 16:1 20:1 21:1 23:1 26:1 27:0.125988 28:1 30:1 
1354.438815365117 1:1 3:1 5:1 7:1 11:1 20:1 21:1 23:1 26:1 27:0.771517 28:1 30:1 
2048 2:1 3:1 6:1 8:1 9:0.0652819 17:1 20:1 21:1 24:1 26:1 27:0.5 29:1 31:1 
2048 2:1 3:1 6:1 8:1 9:0.0682493 14:1 20:1 22:1 24:1 26:1 27:1 29:1 31:1 
2048 2:1 3:1 6:1 8:1 9:0.0623145 17:1 20:1 21:1 24:1 26:1 27:0.5 29:1 31:1 
2048 2:1 3:1 6:1 8:1 9:0.0652819 14:1 20:1 22:1 24:1 26:1 27:1 29:1 31:1 
2048 1:1 3:1 5:1 8:1 9:0.0445104 14:1 19:1 21:1 23:1 26:1 27:0.5 28:1 30:1 
2048 1:1 3:1 5:1 7:1 9:0.10089 18:1 19:1 21:1 23:1 26:1 27:0.5 28:1 30:1 
2048 1:1 3:1 5:1 7:1 9:0.103858 15:1 20:1 21:1 23:1 26:1 27:0.408248 28:1 30:1 
2.901217731556824 1:1 4:1 6:1 8:1 9:0.103858 14:1 19:1 22:1 24:1 26:1 27:0.5 28:1 30:1 
2048 1:1 3:1 5:1 7:1 9:0.0682493 15:1 19:1 21:1 23:1 26:1 27:0.408248 28:1 30:1 
2048 1:1 3:1 5:1 7:1 9:0.00296736 15:1 19:1 21:1 23:1 26:1 27:0.408248 28:1 30:1 
1337.808598697777 1:1 3:1 5:1 7:1 9:0.00890208 18:1 20:1 21:1 23:1 26:1 27:0.288675 28:1 30:1 
2048 1:1 3:1 5:1 7:1 9:0.21365 16:1 19:1 21:1 23:1 26:1 27:0.353553 28:1 30:1 
2048 1:1 3:1 5:1 7:1 9:0.109792 15:1 19:1 21:1 23:1 26:1 27:0.408248 28:1 30:1 
2048 1:1 3:1 5:1 7:1 9:0.240356 12:1 19:1 21:1 23:1 26:1 27:0.408248 28:1 30:1 
2048 1:1 3:1 5:1 7:1 9:0.246291 15:1 19:1 21:1 23:1 26:1 27:0.408248 28:1 30:1 
2048 1:1 3:1 5:1 7:1 9:0.249258 15:1 19:1 21:1 23:1 26:1 27:0.408248 28:1 30:1 
2048 1:1 3:1 5:1 7:1 9:0.255193 18:1 19:1 22:1 23:1 26:1 27:0.707107 28:1 30:1 
2048 1:1 3:1 5:1 7:1 9:0.25816 18:1 19:1 22:1 23:1 26:1 27:0.707107 28:1 30:1 
2048 2:1 3:1 6:1 7:1 9:0.278932 18:1 19:1 22:1 23:1 25:1 28:1 30:1 
2048 2:1 3:1 6:1 7:1 9:0.302671 18:1 19:1 22:1 23:1 26:1 27:0.707107 28:1 30:1 
2048 1:1 3:1 5:1 7:1 9:0.25816 15:1 19:1 22:1 23:1 26:1 27:0.5 28:1 30:1 
692.6732652037368 2:1 4:1 6:1 7:1 9:0.222552 18:1 19:1 22:1 23:1 26:1 27:1 29:1 30:1 
2048 1:1 3:1 5:1 7:1 9:0.252226 10:1 20:1 21:1 23:1 26:1 27:0.666667 28:1 30:1 
2048 2:1 3:1 6:1 8:1 9:0.255193 18:1 19:1 22:1 23:1 26:1 27:1 29:1 30:1 
2048 1:1 4:1 5:1 8:1 9:0.27003 18:1 19:1 21:1 23:1 25:1 28:1 30:1 
312.1955578873984 1:1 3:1 5:1 7:1 9:0.124629 18:1 19:1 21:1 23:1 26:1 27:0.408248 28:1 30:1 
2048 1:1 3:1 5:1 7:1 9:0.10089 17:1 19:1 21:1 23:1 26:1 27:0.408248 28:1 30:1 
2048 1:1 3:1 5:1 7:1 9:0.130564 11:1 20:1 21:1 23:1 26:1 27:0.333333 28:1 30:1 
2048 1:1 3:1 5:1 7:1 9:0.0296736 12:1 19:1 21:1 23:1 26:1 27:0.408248 28:1 30:1 
2048 1:1 3:1 5:1 7:1 9:0.0356083 15:1 19:1 21:1 23:1 26:1 27:0.408248 28:1 30:1 
2048 1:1 3:1 5:1 7:1 9:0.0385757 15:1 19:1 21:1 23:1 26:1 27:0.408248 28:1 30:1 
2048 1:1 3:1 5:1 7:1 9:0.0445104 18:1 19:1 22:1 23:1 26:1 27:0.707107 28:1 30:1 
2048 2:1 3:1 6:1 7:1 9:0.0919881 18:1 19:1 22:1 23:1 26:1 27:0.707107 28:1 30:1 
2048 1:1 3:1 5:1 7:1 9:0.0474777 15:1 19:1 22:1 23:1 26:1 27:0.5 28:1 30:1 
2048 2:1 4:1 6:1 7:1 9:0.0118694 18:1 19:1 22:1 23:1 26:1 27:1 29:1 30:1 
2048 1:1 3:1 5:1 7:1 9:0.041543 10:1 20:1 21:1 23:1 26:1 27:0.666667 28:1 30:1 
2048 2:1 4:1 6:1 7:1 9:0.0593472 18:1 19:1 21:1 23:1 25:1 28:1 30:1 
2048 2:1 3:1 6:1 8:1 9:0.00890208 17:1 19:1 22:1 24:1 26:1 27:0.707107 29:1 30:1 
1218.668158906548 1:1 4:1 5:1 8:1 9:0.0237389 17:1 19:1 21:1 23:1 25:1 28:1 30:1 
514.4348325172188 1:1 4:1 5:1 8:1 9:0.0148368 18:1 19:1 21:1 23:1 25:1 28:1 30:1 
2048 2:1 3:1 6:1 7:1 9:0.106825 18:1 20:1 22:1 23:1 26:1 27:1 29:1 30:1 
2048 2:1 3:1 6:1 7:1 9:0.15727 18:1 20:1 22:1 23:1 26:1 27:1 29:1 30:1 
1783.760452465752 2:1 4:1 6:1 7:1 9:0.0118694 12:1 20:1 22:1 24:1 26:1 27:0.707107 29:1 30:1 
2048 2:1 4:1 6:1 7:1 9:0.136499 18:1 20:1 22:1 23:1 26:1 27:1 29:1 30:1 
2048 2:1 4:1 6:1 7:1 9:0.216617 18:1 20:1 22:1 23:1 26:1 27:1 29:1 30:1 
406.3011501876132 2:1 4:1 6:1 7:1 9:0.219585 18:1 20:1 22:1 23:1 26:1 27:1 29:1 30:1 
2048 1:1 3:1 5:1 7:1 9:0.228487 15:1 19:1 22:1 23:1 26:1 27:0.57735 28:1 30:1 
2048 1:1 4:1 5:1 7:1 9:0.0860534 16:1 19:1 21:1 23:1 25:1 28:1 30:1 
7.003183454561772 2:1 4:1 6:1 7:1 9:0.124629 16:1 20:1 22:1 24:1 26:1 27:0.707107 29:1 30:1 
2048 1:1 3:1 5:1 7:1 9:0.15727 12:1 19:1 21:1 23:1 26:1 27:0.5 28:1 30:1 
2048 1:1 3:1 5:1 7:1 9:0.0652819 12:1 19:1 21:1 23:1 26:1 27:0.57735 28:1 30:1 
2048 1:1 3:1 5:1 7:1 9:0.041543 12:1 19:1 21:1 23:1 26:1 27:0.57735 28:1 30:1 
1887.223156651289 1:1 3:1 5:1 7:1 9:0.139466 15:1 19:1 21:1 24:1 26:1 27:0.408248 28:1 30:1 
2048 2:1 3:1 6:1 7:1 9:0.0504451 18:1 20:1 22:1 23:1 26:1 27:1 29:1 30:1 
2048 2:1 3:1 6:1 8:1 9:0.0801187 18:1 19:1 22:1 23:1 26:1 27:1 29:1 30:1 
2048 2:1 4:1 6:1 7:1 9:0.0801187 18:1 20:1 22:1 23:1 26:1 27:1 29:1 30:1 
2048 2:1 4:1 6:1 7:1 9:0.0830861 18:1 20:1 22:1 23:1 26:1 27:1 29:1 30:1 
2048 1:1 3:1 5:1 7:1 9:0.0385757 16:1 20:1 21:1 23:1 26:1 27:0.57735 28:1 30:1 
2048 1:1 3:1 5:1 7:1 9:0.0326409 17:1 19:1 21:1 23:1 26:1 27:0.5 28:1 30:1 
2048 2:1 4:1 6:1 7:1 9:0.00296736 18:1 20:1 22:1 23:1 26:1 27:1 29:1 30:1 
1945.288694049217 1:1 4:1 5:1 7:1 16:1 20:1 21:1 23:1 26:1 27:0.507093 28:1 30:1 
2048 1:1 3:1 5:1 7:1 9:0.0118694 14:1 19:1 21:1 23:1 26:1 27:0.547723 28:1 30:1 
2048 1:1 3:1 5:1 7:1 9:0.181009 12:1 19:1 21:1 23:1 26:1 27:0.57735 28:1 30:1 
2048 1:1 3:1 5:1 7:1 9:0.186944 12:1 19:1 21:1 23:1 26:1 27:0.57735 28:1 30:1 
2048 1:1 3:1 5:1 7:1 9:0.142433 12:1 19:1 21:1 23:1 26:1 27:0.353553 28:1 30:1 
2048 1:1 3:1 5:1 7:1 9:0.115727 13:1 19:1 21:1 23:1 25:1 28:1 30:1 
2048 2:1 3:1 6:1 7:1 9:0.0445104 14:1 20:1 22:1 24:1 26:1 27:1 29:1 30:1 
2048 1:1 3:1 5:1 7:1 9:0.11276 11:1 19:1 21:1 23:1 26:1 27:0.316228 28:1 30:1 
350.0392902399138 1:1 3:1 5:1 7:1 9:0.041543 12:1 19:1 21:1 23:1 26:1 27:0.353553 28:1 30:1 
2048 1:1 3:1 5:1 7:1 9:0.0474777 12:1 19:1 21:1 23:1 26:1 27:0.353553 28:1 30:1 
2048 2:1 3:1 6:1 8:1 9:0.186944 15:1 19:1 21:1 23:1 25:1 28:1 30:1 
2048 2:1 3:1 6:1 7:1 9:0.240356 18:1 19:1 21:1 23:1 25:1 28:1 30:1 
2048 2:1 3:1 6:1 8:1 9:0.240356 18:1 19:1 22:1 23:1 26:1 27:1 29:1 30:1 
909.2983157114561 1:1 4:1 5:1 7:1 9:0.118694 16:1 19:1 21:1 23:1 25:1 28:1 30:1 
2048 1:1 4:1 5:1 7:1 9:0.0860534 12:1 19:1 21:1 23:1 25:1 28:1 30:1 
2048 2:1 4:1 6:1 7:1 9:0.118694 18:1 19:1 22:1 23:1 26:1 27:1 29:1 30:1 
2048 1:1 3:1 5:1 7:1 9:0.118694 18:1 19:1 22:1 23:1 26:1 27:0.707107 28:1 30:1 
2048 2:1 4:1 6:1 7:1 9:0.0919881 18:1 19:1 22:1 23:1 26:1 27:1 29:1 30:1 
2048 2:1 4:1 6:1 7:1 9:0.0890208 18:1 19:1 22:1 23:1 26:1 27:1 29:1 30:1 
2048 2:1 3:1 6:1 7:1 9:0.0890208 18:1 20:1 22:1 24:1 26:1 27:1 29:1 30:1 
2048 2:1 3:1 6:1 7:1 9:0.0830861 18:1 20:1 22:1 23:1 26:1 27:1 29:1 30:1 
2048 1:1 4:1 5:1 7:1 9:0.0207715 18:1 19:1 22:1 23:1 26:1 27:0.707107 28:1 30:1 
2048 1:1 3:1 5:1 7:1 9:0.0593472 18:1 20:1 22:1 23:1 26:1 27:0.57735 28:1 30:1 
1159.152123601479 1:1 3:1 5:1 7:1 9:0.0356083 15:1 19:1 21:1 23:1 26:1 27:0.316228 28:1 30:1 
1546.318029362201 1:1 3:1 5:1 7:1 9:0.0385757 14:1 19:1 21:1 23:1 26:1 27:0.258199 28:1 30:1 
1213.985556237454 1:1 3:1 5:1 7:1 15:1 19:1 21:1 23:1 26:1 27:0.188982 28:1 30:1 
1052.72348917771 1:1 3:1 5:1 7:1 9:0.0593472 17:1 19:1 21:1 24:1 26:1 27:0.267261 28:1 30:1 
2048 1:1 3:1 5:1 7:1 9:0.145401 18:1 20:1 21:1 23:1 26:1 27:0.816497 28:1 30:1 
2048 1:1 3:1 5:1 7:1 9:0.0949555 15:1 19:1 21:1 23:1 26:1 27:0.353553 28:1 30:1 
2048 1:1 3:1 5:1 7:1 9:0.0118694 15:1 19:1 21:1 23:1 26:1 27:0.353553 28:1 30:1 
2048 2:1 3:1 6:1 8:1 9:0.272997 18:1 19:1 22:1 23:1 26:1 27:1 29:1 30:1 
21.48557010545585 1:1 3:1 5:1 7:1 9:0.00593472 15:1 19:1 22:1 23:1 25:1 28:1 30:1 
2048 1:1 3:1 5:1 7:1 9:0.0801187 15:1 19:1 22:1 23:1 26:1 27:0.57735 28:1 30:1 
2048 1:1 3:1 5:1 7:1 9:0.0148368 18:1 19:1 22:1 23:1 26:1 27:1 29:1 30:1 
2048 1:1 3:1 5:1 7:1 9:0.0296736 18:1 20:1 22:1 23:1 26:1 27:0.57735 28:1 30:1 
2048 1:1 4:1 6:1 7:1 9:0.00593472 18:1 19:1 21:1 23:1 25:1 28:1 30:1 
2048 1:1 3:1 5:1 7:1 9:0.041543 18:1 19:1 22:1 23:1 25:1 28:1 30:1 
2048 2:1 3:1 6:1 7:1 9:0.00890208 18:1 20:1 22:1 23:1 26:1 27:1 29:1 30:1 
2048 2:1 3:1 6:1 8:1 9:0.246291 18:1 19:1 22:1 23:1 26:1 27:1 29:1 30:1 
2048 2:1 3:1 6:1 8:1 9:0.308605 18:1 19:1 22:1 23:1 26:1 27:1 29:1 30:1 
1581.410040231585 2:1 4:1 6:1 7:1 9:0.0979228 18:1 19:1 21:1 23:1 25:1 28:1 30:1 
531.7277861493692 2:1 4:1 6:1 7:1 9:0.0623145 18:1 19:1 21:1 23:1 25:1 28:1 30:1 
2048 2:1 4:1 6:1 7:1 9:0.0237389 18:1 20:1 22:1 23:1 26:1 27:1 29:1 30:1 
2048 2:1 3:1 6:1 7:1 9:0.0237389 18:1 20:1 22:1 24:1 26:1 27:1 29:1 30:1 
1143.107048617062 2:1 4:1 6:1 7:1 9:0.0118694 18:1 19:1 21:1 24:1 25:1 28:1 30:1 
2048 2:1 4:1 6:1 8:1 9:0.00593472 18:1 20:1 22:1 24:1 26:1 27:1 29:1 30:1 
2048 2:1 4:1 6:1 8:1 9:0.00890208 18:1 20:1 22:1 24:1 26:1 27:1 29:1 30:1 
2048 1:1 3:1 5:1 7:1 15:1 19:1 21:1 23:1 26:1 27:0.408248 28:1 30:1 
2048 1:1 3:1 5:1 7:1 9:0.0178042 18:1 20:1 21:1 24:1 26:1 27:0.5 28:1 30:1 
2048 1:1 4:1 6:1 7:1 9:0.0801187 18:1 19:1 21:1 23:1 25:1 28:1 30:1 
2048 1:1 3:1 5:1 7:1 9:0.21365 18:1 20:1 21:1 23:1 26:1 27:0.666667 28:1 30:1 
2048 1:1 4:1 6:1 7:1 9:0.0504451 15:1 19:1 21:1 23:1 25:1 28:1 30:1 
2048 1:1 4:1 6:1 7:1 9:0.133531 15:1 19:1 21:1 23:1 25:1 28:1 30:1 
2048 1:1 4:1 5:1 7:1 9:0.0356083 15:1 19:1 21:1 23:1 25:1 28:1 30:1 
2048 1:1 3:1 5:1 7:1 9:0.103858 18:1 19:1 22:1 23:1 25:1 28:1 30:1 
2048 1:1 3:1 5:1 7:1 9:0.11276 12:1 19:1 22:1 23:1 26:1 27:0.5 28:1 30:1 
2048 1:1 3:1 5:1 7:1 9:0.109792 12:1 19:1 22:1 23:1 26:1 27:0.5 28:1 30:1 
2048 1:1 3:1 5:1 7:1 9:0.0771513 18:1 20:1 22:1 24:1 26:1 27:1 29:1 30:1 
2048 1:1 3:1 5:1 7:1 9:0.0919881 18:1 20:1 22:1 23:1 26:1 27:0.894427 28:1 30:1 
2048 1:1 3:1 5:1 7:1 9:0.0593472 17:1 20:1 21:1 23:1 26:1 27:0.666667 28:1 30:1 
2048 1:1 3:1 5:1 7:1 9:0.0623145 12:1 19:1 22:1 23:1 26:1 27:0.5 28:1 30:1 
2048 2:1 4:1 6:1 8:1 18:1 19:1 22:1 23:1 26:1 27:1 29:1 30:1 
2048 2:1 4:1 6:1 8:1 9:0.00593472 15:1 19:1 22:1 24:1 26:1 27:0.707107 29:1 30:1 
2048 1:1 3:1 5:1 7:1 9:0.0504451 18:1 19:1 22:1 23:1 25:1 28:1 30:1 
2048 1:1 3:1 5:1 7:1 9:0.0563798 18:1 19:1 22:1 23:1 26:1 27:0.707107 28:1 30:1 
2048 1:1 3:1 5:1 7:1 9:0.0593472 12:1 19:1 22:1 23:1 26:1 27:0.5 28:1 30:1 
2048 1:1 3:1 5:1 7:1 10:1 20:1 21:1 23:1 26:1 27:0.771517 28:1 30:1 
2048 1:1 3:1 5:1 7:1 9:0.0860534 18:1 20:1 21:1 23:1 26:1 27:0.866025 28:1 30:1 
2048 1:1 3:1 5:1 7:1 9:0.00890208 16:1 19:1 22:1 23:1 26:1 27:0.5 28:1 30:1 
2048 2:1 4:1 6:1 8:1 9:0.198813 18:1 19:1 22:1 23:1 26:1 27:1 29:1 30:1 
2048 1:1 3:1 5:1 7:1 9:0.0267062 15:1 19:1 21:1 23:1 26:1 27:0.333333 28:1 30:1 
2048 1:1 3:1 5:1 7:1 9:0.124629 18:1 19:1 22:1 23:1 26:1 27:0.57735 28:1 30:1 
2048 1:1 3:1 5:1 7:1 9:0.0771513 17:1 19:1 21:1 23:1 26:1 27:0.333333 28:1 30:1 
2048 1:1 3:1 5:1 7:1 9:0.136499 15:1 19:1 21:1 23:1 26:1 27:0.5 28:1 30:1 
2048 2:1 3:1 6:1 8:1 9:0.115727 15:1 19:1 22:1 24:1 26:1 27:0.707107 29:1 30:1 
2048 2:1 3:1 6:1 8:1 9:0.0623145 15:1 19:1 22:1 24:1 26:1 27:0.707107 29:1 30:1 
2048 2:1 3:1 6:1 8:1 9:0.0652819 18:1 19:1 22:1 23:1 26:1 27:1 29:1 30:1 
2048 2:1 3:1 6:1 8:1 9:0.074184 18:1 19:1 22:1 23:1 26:1 27:1 29:1 30:1 
99.2062073792723 1:1 3:1 5:1 7:1 9:0.00593472 17:1 20:1 21:1 24:1 26:1 27:0.408248 28:1 30:1 
2048 1:1 3:1 5:1 7:1 9:0.0148368 14:1 19:1 21:1 23:1 26:1 27:0.5 28:1 30:1 
2048 2:1 3:1 6:1 8:1 9:0.0118694 17:1 19:1 22:1 24:1 26:1 27:0.707107 29:1 30:1 
2015.638161883802 1:1 3:1 5:1 7:1 9:0.0207715 17:1 19:1 21:1 23:1 26:1 27:0.5 28:1 30:1 
2048 2:1 3:1 6:1 8:1 9:0.00890208 18:1 19:1 22:1 23:1 26:1 27:1 29:1 30:1 
2048 1:1 3:1 5:1 7:1 9:0.0860534 14:1 19:1 21:1 23:1 26:1 27:0.75 28:1 30:1 
2048 2:1 4:1 6:1 7:1 9:0.0178042 17:1 19:1 22:1 24:1 26:1 27:0.707107 29:1 30:1 
399.9835567358326 1:1 3:1 5:1 7:1 9:0.317507 16:1 19:1 21:1 23:1 26:1 27:0.316228 28:1 30:1 
2048 1:1 4:1 6:1 7:1 9:0.37092 18:1 19:1 21:1 23:1 25:1 28:1 30:1 
67.87420648226831 1:1 3:1 5:1 7:1 9:0.362018 10:1 19:1 21:1 23:1 26:1 27:0.5 28:1 30:1 
2048 1:1 3:1 5:1 7:1 9:0.219585 12:1 20:1 22:1 24:1 26:1 27:0.816497 29:1 30:1 
2048 1:1 3:1 5:1 7:1 9:0.237389 12:1 20:1 22:1 23:1 26:1 27:0.707107 28:1 30:1 
2048 1:1 3:1 5:1 7:1 9:0.240356 15:1 20:1 22:1 24:1 26:1 27:0.816497 29:1 30:1 
2048 2:1 3:1 6:1 8:1 9:0.219585 12:1 19:1 22:1 24:1 26:1 27:0.707107 29:1 30:1 
2048 1:1 3:1 5:1 7:1 9:0.344214 15:1 19:1 21:1 23:1 26:1 27:0.666667 28:1 30:1 
420.1404946919478 1:1 3:1 5:1 7:1 9:0.243323 11:1 19:1 21:1 23:1 25:1 28:1 30:1 
2048 1:1 3:1 5:1 7:1 9:0.139466 14:1 19:1 21:1 23:1 26:1 27:0.333333 28:1 30:1 
2048 1:1 3:1 5:1 7:1 9:0.0474777 16:1 20:1 21:1 23:1 26:1 27:0.408248 28:1 30:1 
2048 1:1 3:1 5:1 7:1 9:0.11276 16:1 19:1 21:1 23:1 26:1 27:0.408248 28:1 30:1 
2048 1:1 3:1 5:1 7:1 9:0.11276 13:1 20:1 21:1 23:1 26:1 27:0.333333 28:1 30:1 
2048 1:1 3:1 5:1 7:1 9:0.133531 13:1 19:1 21:1 23:1 26:1 27:0.333333 28:1 30:1 
2048 1:1 3:1 5:1 7:1 9:0.151335 13:1 20:1 21:1 23:1 26:1 27:0.333333 28:1 30:1 
2048 1:1 3:1 5:1 7:1 9:0.216617 16:1 20:1 21:1 23:1 26:1 27:0.408248 28:1 30:1 
66.94913279892518 1:1 3:1 5:1 7:1 9:0.225519 16:1 20:1 21:1 23:1 26:1 27:0.408248 28:1 30:1 
2048 2:1 3:1 6:1 8:1 9:0.207715 17:1 19:1 22:1 24:1 26:1 27:0.707107 29:1 30:1 
2048 2:1 3:1 6:1 8:1 9:0.186944 18:1 19:1 22:1 23:1 26:1 27:1 29:1 30:1 
2048 1:1 3:1 5:1 7:1 9:0.0860534 15:1 19:1 21:1 23:1 26:1 27:0.408248 28:1 30:1 
2048 2:1 4:1 6:1 8:1 9:0.186944 18:1 19:1 22:1 23:1 26:1 27:1 29:1 30:1 
2048 1:1 3:1 5:1 7:1 9:0.0178042 10:1 20:1 21:1 23:1 26:1 27:0.866025 28:1 30:1 
2048 1:1 3:1 5:1 7:1 9:0.0207715 13:1 20:1 21:1 24:1 26:1 27:0.666667 29:1 30:1 
1916.827377075968 1:1 3:1 5:1 7:1 9:0.115727 14:1 19:1 21:1 23:1 25:1 28:1 30:1 
2048 1:1 3:1 5:1 7:1 15:1 19:1 21:1 23:1 26:1 27:0.408248 28:1 30:1 
2048 1:1 3:1 5:1 7:1 9:0.0623145 15:1 19:1 21:1 23:1 26:1 27:0.408248 28:1 30:1 
2048 1:1 3:1 5:1 7:1 9:0.0207715 14:1 19:1 21:1 23:1 26:1 27:0.666667 28:1 30:1 
2048 1:1 3:1 5:1 7:1 9:0.0623145 14:1 20:1 21:1 23:1 26:1 27:0.666667 28:1 30:1 
2048 1:1 3:1 5:1 7:1 9:0.121662 18:1 19:1 22:1 23:1 25:1 28:1 30:1 
2048 1:1 3:1 5:1 7:1 9:0.041543 14:1 19:1 21:1 23:1 26:1 27:0.666667 28:1 30:1 
2048 1:1 3:1 5:1 7:1 9:0.0830861 17:1 19:1 21:1 23:1 26:1 27:0.408248 28:1 30:1 
2048 1:1 3:1 5:1 7:1 9:0.0919881 17:1 19:1 21:1 23:1 26:1 27:0.408248 28:1 30:1 
1454.413063017829 1:1 3:1 5:1 7:1 9:0.0237389 14:1 20:1 21:1 23:1 26:1 27:0.666667 28:1 30:1 
2048 1:1 3:1 5:1 7:1 9:0.0504451 17:1 20:1 21:1 23:1 26:1 27:0.408248 28:1 30:1 
2048 2:1 3:1 6:1 8:1 9:0.0296736 18:1 19:1 22:1 23:1 26:1 27:1 29:1 30:1 
2048 2:1 3:1 6:1 7:1 9:0.0801187 18:1 19:1 22:1 23:1 26:1 27:1 29:1 30:1 
2048 1:1 3:1 5:1 7:1 9:0.216617 10:1 19:1 21:1 23:1 26:1 27:0.57735 28:1 30:1 
11.41822289675614 1:1 4:1 6:1 7:1 9:0.219585 18:1 19:1 21:1 23:1 26:1 27:0.267261 28:1 30:1 
2048 2:1 3:1 6:1 8:1 9:0.0296736 18:1 20:1 22:1 24:1 26:1 27:1 29:1 30:1 
2048 2:1 4:1 6:1 8:1 9:0.0207715 18:1 20:1 22:1 24:1 26:1 27:1 29:1 30:1 
2048 2:1 4:1 6:1 8:1 9:0.267062 18:1 20:1 22:1 24:1 26:1 27:1 29:1 30:1 
2048 2:1 4:1 6:1 8:1 9:0.272997 15:1 20:1 22:1 24:1 26:1 27:0.816497 29:1 30:1 
2048 1:1 3:1 5:1 7:1 9:0.278932 18:1 19:1 22:1 23:1 26:1 27:0.707107 28:1 30:1 
2048 1:1 3:1 5:1 7:1 9:0.284866 15:1 19:1 22:1 23:1 26:1 27:0.57735 28:1 30:1 
1876.738590781674 1:1 3:1 5:1 7:1 9:0.287834 15:1 19:1 22:1 23:1 26:1 27:0.57735 28:1 30:1 
2048 2:1 4:1 6:1 8:1 9:0.353116 18:1 19:1 22:1 23:1 26:1 27:1 29:1 30:1 
529.8955065739895 1:1 3:1 5:1 7:1 9:0.267062 14:1 20:1 21:1 23:1 26:1 27:0.516398 28:1 30:1 
2048 1:1 3:1 5:1 7:1 9:0.243323 14:1 19:1 21:1 23:1 25:1 28:1 30:1 
2009.622070880873 2:1 3:1 6:1 8:1 9:0.166172 18:1 20:1 22:1 23:1 26:1 27:1 29:1 30:1 
2048 1:1 3:1 5:1 7:1 9:0.225519 18:1 19:1 22:1 23:1 26:1 27:0.707107 28:1 30:1 
2048 2:1 3:1 6:1 8:1 9:0.11276 18:1 20:1 22:1 23:1 26:1 27:1 29:1 30:1 
2048 1:1 3:1 5:1 7:1 9:0.198813 18:1 19:1 22:1 23:1 26:1 27:0.5 28:1 30:1 
2048 1:1 3:1 5:1 7:1 9:0.20178 15:1 19:1 22:1 23:1 26:1 27:0.57735 28:1 30:1 
2048 1:1 3:1 5:1 7:1 9:0.255193 18:1 19:1 22:1 23:1 26:1 27:0.447214 28:1 30:1 
2048 2:1 3:1 6:1 7:1 9:0.0356083 18:1 19:1 22:1 23:1 26:1 27:1 29:1 30:1 
2048 2:1 3:1 6:1 7:1 9:0.163205 18:1 19:1 22:1 23:1 26:1 27:1 29:1 30:1 
2048 2:1 3:1 6:1 8:1 9:0.00593472 18:1 20:1 22:1 23:1 26:1 27:1 29:1 30:1 
2048 2:1 3:1 6:1 8:1 9:0.0118694 18:1 20:1 22:1 23:1 26:1 27:1 29:1 30:1 
2048 2:1 3:1 6:1 8:1 9:0.0148368 15:1 20:1 22:1 24:1 26:1 27:0.707107 29:1 30:1 
2048 2:1 3:1 6:1 8:1 9:0.163205 18:1 20:1 22:1 23:1 26:1 27:1 29:1 30:1 
2048 2:1 3:1 6:1 7:1 9:0.00890208 18:1 19:1 22:1 23:1 26:1 27:1 29:1 30:1 
1977.737804351113 2:1 3:1 6:1 8:1 9:0.00890208 15:1 20:1 22:1 24:1 26:1 27:0.707107 29:1 30:1 
2048 1:1 3:1 5:1 7:1 9:0.00593472 15:1 19:1 21:1 23:1 26:1 27:0.408248 28:1 30:1 
2048 1:1 3:1 5:1 7:1 9:0.00890208 15:1 19:1 21:1 23:1 26:1 27:0.408248 28:1 30:1 
2048 1:1 3:1 5:1 7:1 9:0.0118694 18:1 19:1 21:1 24:1 26:1 27:0.353553 28:1 30:1 
2048 1:1 3:1 5:1 7:1 9:0.0563798 16:1 20:1 21:1 23:1 26:1 27:0.57735 28:1 30:1 
2048 1:1 3:1 5:1 7:1 9:0.0534125 17:1 19:1 21:1 23:1 26:1 27:0.258199 28:1 30:1 
496.4562815699394 1:1 3:1 5:1 7:1 9:0.00593472 15:1 20:1 21:1 23:1 26:1 27:0.408248 28:1 30:1 
2048 1:1 3:1 5:1 7:1 9:0.0563798 15:1 20:1 21:1 23:1 26:1 27:0.408248 28:1 30:1 
2048 1:1 3:1 5:1 7:1 9:0.0623145 18:1 20:1 21:1 23:1 26:1 27:0.408248 28:1 30:1 
2048 2:1 4:1 6:1 8:1 9:0.0504451 14:1 20:1 21:1 24:1 26:1 27:0.5 29:1 30:1 
21.61127414557783 1:1 3:1 6:1 7:1 9:0.489614 15:1 19:1 21:1 23:1 25:1 28:1 30:1 
2048 1:1 3:1 5:1 7:1 9:0.0801187 10:1 19:1 21:1 23:1 26:1 27:0.666667 28:1 30:1 
2048 1:1 3:1 5:1 7:1 9:0.0949555 13:1 19:1 21:1 23:1 26:1 27:0.333333 28:1 30:1 
2048 1:1 3:1 5:1 7:1 9:0.296736 18:1 19:1 22:1 23:1 26:1 27:0.707107 28:1 30:1 
2048 1:1 3:1 5:1 7:1 9:0.103858 18:1 20:1 21:1 23:1 26:1 27:0.408248 28:1 30:1 
2048 1:1 3:1 5:1 7:1 9:0.074184 15:1 19:1 21:1 23:1 26:1 27:0.408248 28:1 30:1 
2048 1:1 3:1 5:1 7:1 9:0.0890208 12:1 19:1 21:1 23:1 26:1 27:0.408248 28:1 30:1 
2048 1:1 3:1 5:1 7:1 9:0.0919881 18:1 20:1 22:1 24:1 26:1 27:1 29:1 30:1 
2048 1:1 3:1 5:1 7:1 9:0.0563798 14:1 19:1 21:1 23:1 26:1 27:0.258199 28:1 30:1 
2048 1:1 3:1 5:1 7:1 9:0.074184 17:1 19:1 21:1 23:1 26:1 27:0.316228 28:1 30:1 
2048 2:1 3:1 6:1 7:1 9:0.0118694 18:1 20:1 22:1 24:1 26:1 27:1 29:1 30:1 
2048 1:1 3:1 5:1 7:1 9:0.118694 14:1 19:1 21:1 23:1 26:1 27:0.408248 28:1 30:1 
2048 1:1 3:1 5:1 7:1 9:0.074184 18:1 19:1 22:1 23:1 26:1 27:0.57735 28:1 30:1 
1488.38398723256 1:1 3:1 5:1 7:1 9:0.0919881 14:1 19:1 21:1 23:1 26:1 27:0.408248 28:1 30:1 
2048 1:1 3:1 5:1 7:1 9:0.0267062 15:1 19:1 21:1 23:1 26:1 27:0.5 28:1 30:1 
2048 1:1 3:1 5:1 7:1 9:0.00593472 17:1 19:1 22:1 23:1 26:1 27:0.57735 28:1 30:1 
2048 1:1 3:1 5:1 7:1 9:0.118694 18:1 19:1 22:1 23:1 25:1 28:1 30:1 
1438.654706991176 1:1 3:1 5:1 7:1 9:0.041543 18:1 19:1 21:1 24:1 25:1 28:1 30:1 
2048 1:1 3:1 5:1 7:1 9:0.0267062 18:1 19:1 22:1 23:1 26:1 27:0.57735 28:1 30:1 
2048 1:1 4:1 5:1 7:1 9:0.0296736 18:1 19:1 22:1 23:1 26:1 27:0.707107 28:1 30:1 
2048 1:1 3:1 5:1 7:1 15:1 19:1 21:1 23:1 26:1 27:0.666667 28:1 30:1 
2048 2:1 3:1 6:1 7:1 9:0.0148368 18:1 20:1 22:1 24:1 26:1 27:1 29:1 30:1 
2048 1:1 3:1 5:1 7:1 9:0.106825 18:1 20:1 22:1 24:1 26:1 27:1 29:1 30:1 
2048 1:1 3:1 5:1 7:1 9:0.0919881 18:1 20:1 22:1 23:1 26:1 27:0.816497 28:1 30:1 
2048 1:1 3:1 5:1 7:1 9:0.0178042 18:1 20:1 22:1 24:1 26:1 27:1 29:1 30:1 
2048 2:1 3:1 6:1 7:1 9:0.0890208 18:1 19:1 22:1 23:1 26:1 27:1 29:1 30:1 
2048 1:1 3:1 5:1 7:1 9:0.0623145 15:1 19:1 22:1 23:1 26:1 27:0.447214 28:1 30:1 
2048 2:1 3:1 6:1 8:1 9:0.0652819 15:1 20:1 22:1 24:1 26:1 27:0.707107 29:1 30:1 
2048 1:1 3:1 5:1 7:1 9:0.228487 18:1 19:1 21:1 23:1 26:1 27:0.5 28:1 30:1 
2048 1:1 3:1 5:1 7:1 9:0.237389 18:1 19:1 22:1 23:1 26:1 27:0.707107 28:1 30:1 
2048 2:1 4:1 6:1 8:1 9:0.228487 18:1 19:1 22:1 23:1 26:1 27:1 29:1 30:1 
2048 1:1 3:1 5:1 7:1 9:0.240356 18:1 19:1 22:1 23:1 26:1 27:0.707107 28:1 30:1 
2048 2:1 3:1 6:1 8:1 9:0.25816 18:1 19:1 22:1 23:1 26:1 27:1 29:1 30:1 
1526.155977220271 1:1 4:1 5:1 8:1 9:0.302671 18:1 19:1 21:1 23:1 25:1 28:1 30:1 
2048 1:1 3:1 5:1 7:1 9:0.00593472 17:1 19:1 22:1 23:1 26:1 27:0.5 28:1 30:1 
2048 1:1 3:1 5:1 7:1 9:0.0682493 14:1 19:1 21:1 23:1 26:1 27:0.353553 28:1 30:1 
2048 1:1 3:1 5:1 7:1 9:0.160237 14:1 20:1 21:1 23:1 26:1 27:0.707107 28:1 30:1 
2048 2:1 3:1 6:1 8:1 9:0.109792 18:1 19:1 22:1 23:1 26:1 27:1 29:1 30:1 
1962.036881893975 1:1 4:1 5:1 7:1 18:1 20:1 21:1 23:1 26:1 27:0.5 28:1 30:1 
2048 2:1 4:1 6:1 8:1 9:0.151335 18:1 20:1 22:1 24:1 26:1 27:1 29:1 30:1 
2048 2:1 3:1 6:1 8:1 9:0.151335 18:1 20:1 22:1 24:1 26:1 27:1 29:1 30:1 
51.08283360322874 1:1 3:1 6:1 7:1 9:0.0207715 14:1 19:1 21:1 23:1 26:1 27:0.5 28:1 30:1 
1479.810454463258 1:1 4:1 6:1 7:1 9:0.0118694 18:1 19:1 22:1 23:1 26:1 27:0.707107 28:1 30:1 
9.075130102154061 1:1 3:1 5:1 7:1 9:0.0623145 13:1 20:1 21:1 23:1 26:1 27:0.288675 28:1 31:1 
2048 1:1 3:1 5:1 7:1 10:1 20:1 21:1 23:1 26:1 27:0.666667 28:1 30:1 
2048 1:1 3:1 5:1 7:1 10:1 20:1 21:1 23:1 26:1 27:0.75 28:1 30:1 
2048 1:1 3:1 5:1 7:1 9:0.0652819 18:1 20:1 21:1 23:1 26:1 27:0.666667 28:1 30:1 
2048 1:1 4:1 5:1 8:1 9:0.0207715 15:1 19:1 21:1 23:1 25:1 28:1 30:1 
226.8837550492879 2:1 3:1 6:1 7:1 9:0.186944 14:1 20:1 21:1 24:1 26:1 27:0.5 29:1 30:1 
2048 2:1 3:1 6:1 8:1 9:0.00593472 16:1 19:1 22:1 24:1 26:1 27:0.707107 29:1 30:1 
2048 1:1 3:1 5:1 7:1 9:0.169139 13:1 20:1 21:1 23:1 26:1 27:0.408248 28:1 30:1 
2048 1:1 3:1 5:1 7:1 9:0.163205 15:1 19:1 22:1 23:1 26:1 27:0.57735 28:1 30:1 
2048 1:1 3:1 5:1 7:1 9:0.00593472 18:1 20:1 21:1 23:1 26:1 27:0.771517 28:1 30:1 
2048 2:1 4:1 6:1 8:1 9:0.20178 18:1 19:1 22:1 23:1 26:1 27:1 29:1 30:1 
550.8210969711816 2:1 3:1 6:1 7:1 9:0.216617 18:1 19:1 21:1 23:1 25:1 28:1 30:1 
2048 1:1 3:1 5:1 7:1 9:0.181009 18:1 20:1 22:1 24:1 26:1 27:1 29:1 30:1 
131.9851976119112 1:1 4:1 5:1 7:1 9:0.00890208 14:1 19:1 21:1 23:1 26:1 27:0.119523 28:1 30:1 
2048 1:1 4:1 5:1 7:1 9:0.103858 17:1 19:1 21:1 23:1 25:1 28:1 30:1 
2048 1:1 3:1 5:1 7:1 16:1 20:1 21:1 23:1 26:1 27:0.154303 28:1 30:1 
42.49762159457931 1:1 3:1 5:1 7:1 9:0.0118694 13:1 20:1 21:1 24:1 26:1 27:0.333333 28:1 30:1 
2048 1:1 3:1 5:1 7:1 9:0.103858 14:1 19:1 21:1 23:1 26:1 27:0.408248 28:1 30:1 
2048 1:1 3:1 5:1 7:1 9:0.00593472 18:1 20:1 22:1 24:1 26:1 27:1 29:1 30:1 
2048 1:1 3:1 5:1 7:1 9:0.0118694 18:1 20:1 22:1 24:1 26:1 27:1 29:1 30:1 
575.3507557119277 1:1 3:1 5:1 7:1 9:0.0267062 18:1 20:1 21:1 23:1 26:1 27:0.333333 28:1 30:1 
2048 1:1 3:1 5:1 7:1 9:0.424332 18:1 20:1 21:1 23:1 26:1 27:0.5 28:1 30:1 
2048 1:1 3:1 5:1 7:1 9:0.575668 18:1 20:1 22:1 24:1 26:1 27:1 29:1 30:1 
2048 1:1 3:1 5:1 7:1 9:0.0623145 18:1 20:1 22:1 24:1 26:1 27:1 29:1 30:1 
2048 1:1 3:1 5:1 7:1 9:0.403561 12:1 19:1 21:1 23:1 26:1 27:0.666667 28:1 30:1 
