svm_type c_svc
kernel_type rbf
gamma 0.003663
nr_class 2
total_sv 1487
rho 0.805727
label 1 0
probA -16.6282
probB -11.0566
nr_sv 689 798
SV
1 1:1 3:0.0257235 7:1 14:1 15:1 17:1 20:1 21:0.75 23:1 26:1 29:1 32:1 130:1 261:1 262:1 264:1 266:1 269:1 273:1 
1 1:1 3:0.21865 12:1 13:1 16:1 17:1 20:1 21:1 23:1 26:1 29:1 32:1 126:1 261:1 263:1 264:1 267:1 270:1 273:1 
1 1:1 3:0.18328 12:1 14:1 16:1 18:1 20:1 21:1 23:1 26:1 28:1 32:1 127:1 261:1 262:1 264:1 266:1 270:1 273:1 
1 1:1 3:0.170418 12:1 14:1 15:1 17:1 20:1 21:0.707107 22:1 26:1 27:1 32:1 111:1 261:1 262:1 264:1 266:1 270:1 273:1 
1 1:1 3:0.167203 12:1 14:1 15:1 17:1 20:1 21:0.707107 22:1 26:1 29:1 32:1 111:1 261:1 262:1 264:1 266:1 270:1 273:1 
1 1:1 3:0.154341 12:1 14:1 15:1 17:1 20:1 21:0.707107 22:1 26:1 27:1 32:1 111:1 261:1 262:1 264:1 266:1 270:1 273:1 
1 2:1 3:0.0257235 12:1 13:1 16:1 17:1 20:1 21:1 23:1 26:1 29:1 32:1 66:1 261:1 263:1 264:1 267:1 270:1 273:1 
1 1:1 3:0.0160772 12:1 14:1 16:1 18:1 20:1 21:1 23:1 26:1 27:1 32:1 66:1 261:1 262:1 264:1 266:1 269:1 273:1 
1 1:1 3:0.0128617 12:1 14:1 16:1 18:1 20:1 21:1 23:1 26:1 29:1 32:1 66:1 261:1 262:1 264:1 266:1 269:1 273:1 
1 1:1 3:0.00321543 12:1 14:1 16:1 18:1 20:1 21:1 23:1 26:1 29:1 32:1 66:1 261:1 262:1 264:1 266:1 269:1 273:1 
1 2:1 3:0.00321543 8:1 14:1 16:1 18:1 20:1 21:1 23:1 26:1 28:1 31:1 66:1 261:1 263:1 264:1 267:1 270:1 273:1 
1 1:1 3:0.00643087 12:1 14:1 16:1 18:1 20:1 21:1 23:1 26:1 27:1 31:1 98:1 261:1 262:1 264:1 266:1 270:1 273:1 
1 2:1 3:0.0836013 9:1 13:1 16:1 17:1 20:1 21:0.707107 23:1 26:1 29:1 32:1 96:1 261:1 263:1 264:1 267:1 270:1 272:1 
1 1:1 3:0.00321543 7:1 13:1 15:1 17:1 19:1 22:1 26:1 29:1 32:1 130:1 261:1 262:1 264:1 266:1 270:1 273:1 
1 1:1 3:0.00321543 7:1 13:1 15:1 17:1 19:1 22:1 26:1 29:1 32:1 130:1 261:1 262:1 264:1 266:1 270:1 273:1 
1 1:1 3:0.0578778 12:1 14:1 16:1 17:1 20:1 21:1 23:1 26:1 29:1 32:1 128:1 261:1 262:1 264:1 266:1 270:1 273:1 
1 1:1 12:1 13:1 15:1 17:1 19:1 22:1 26:1 29:1 31:1 130:1 261:1 262:1 264:1 266:1 270:1 273:1 
1 1:1 3:0.0353698 7:1 14:1 15:1 17:1 20:1 21:0.471405 23:1 26:1 29:1 31:1 130:1 261:1 263:1 265:1 267:1 270:1 273:1 
1 1:1 3:0.022508 8:1 14:1 16:1 18:1 20:1 21:1 23:1 26:1 29:1 30:1 130:1 261:1 263:1 265:1 267:1 270:1 273:1 
1 1:1 3:0.00321543 10:1 13:1 16:1 17:1 20:1 21:0.57735 22:1 26:1 29:1 30:1 130:1 261:1 262:1 264:1 266:1 270:1 272:1 
1 1:1 3:0.0128617 7:1 14:1 15:1 17:1 20:1 21:0.471405 23:1 26:1 29:1 30:1 130:1 261:1 263:1 265:1 267:1 270:1 273:1 
1 1:1 3:0.0096463 12:1 14:1 16:1 17:1 20:1 21:0.774597 22:1 26:1 29:1 32:1 130:1 261:1 262:1 264:1 266:1 269:1 273:1 
1 2:1 3:0.00321543 10:1 13:1 16:1 17:1 20:1 21:0.707107 23:1 26:1 29:1 32:1 130:1 261:1 263:1 264:1 267:1 270:1 272:1 
1 1:1 3:0.0578778 10:1 13:1 15:1 17:1 19:1 22:1 26:1 29:1 32:1 128:1 261:1 262:1 264:1 267:1 270:1 273:1 
1 1:1 3:0.0450161 12:1 14:1 16:1 18:1 20:1 21:1 23:1 26:1 29:1 32:1 128:1 261:1 263:1 264:1 267:1 269:1 273:1 
1 1:1 3:0.0096463 11:1 14:1 15:1 17:1 20:1 21:0.408248 22:1 26:1 29:1 32:1 129:1 261:1 262:1 265:1 267:1 270:1 273:1 
1 1:1 3:0.00321543 7:1 14:1 15:1 17:1 20:1 21:0.408248 22:1 26:1 29:1 31:1 130:1 261:1 262:1 264:1 266:1 270:1 272:1 
1 2:1 3:0.00321543 4:1 14:1 16:1 18:1 20:1 21:1 23:1 26:1 29:1 30:1 130:1 261:1 263:1 264:1 267:1 270:1 272:1 
1 1:1 3:0.639871 12:1 14:1 16:1 18:1 20:1 21:1 23:1 26:1 29:1 32:1 125:1 261:1 263:1 264:1 267:1 270:1 273:1 
1 1:1 3:0.109325 9:1 13:1 15:1 17:1 19:1 22:1 26:1 29:1 30:1 184:1 261:1 262:1 264:1 266:1 270:1 273:1 
1 1:1 3:0.0385852 8:1 13:1 15:1 17:1 20:1 21:0.267261 22:1 26:1 29:1 32:1 194:1 261:1 262:1 264:1 266:1 270:1 273:1 
1 1:1 3:0.0128617 9:1 14:1 15:1 17:1 20:1 21:0.408248 22:1 26:1 29:1 32:1 194:1 261:1 262:1 264:1 266:1 270:1 273:1 
1 1:1 3:0.096463 12:1 13:1 15:1 17:1 19:1 22:1 26:1 29:1 32:1 184:1 261:1 262:1 264:1 266:1 270:1 273:1 
1 1:1 3:0.0257235 11:1 13:1 15:1 17:1 19:1 22:1 26:1 29:1 32:1 194:1 261:1 262:1 264:1 266:1 270:1 273:1 
1 1:1 3:0.0707395 9:1 13:1 15:1 17:1 20:1 21:0.566947 22:1 26:1 29:1 32:1 184:1 261:1 262:1 264:1 266:1 269:1 273:1 
1 1:1 3:0.0514469 12:1 13:1 15:1 17:1 19:1 22:1 26:1 29:1 32:1 184:1 261:1 262:1 264:1 266:1 270:1 273:1 
1 1:1 3:0.0482315 12:1 13:1 15:1 17:1 19:1 22:1 26:1 29:1 32:1 184:1 261:1 262:1 264:1 266:1 270:1 273:1 
1 1:1 3:0.0160772 11:1 13:1 15:1 17:1 19:1 22:1 26:1 29:1 32:1 194:1 261:1 262:1 264:1 266:1 270:1 273:1 
1 1:1 3:0.0353698 9:1 13:1 15:1 17:1 20:1 21:0.566947 22:1 26:1 29:1 32:1 184:1 261:1 262:1 264:1 266:1 269:1 273:1 
1 1:1 3:0.0321543 9:1 13:1 15:1 17:1 20:1 21:0.566947 22:1 26:1 29:1 32:1 184:1 261:1 262:1 264:1 266:1 269:1 273:1 
1 1:1 3:0.00321543 12:1 14:1 16:1 18:1 20:1 21:1 23:1 26:1 29:1 31:1 34:1 261:1 262:1 264:1 266:1 269:1 273:1 
1 1:1 3:0.173633 12:1 13:1 16:1 17:1 19:1 22:1 26:1 29:1 30:1 97:1 261:1 262:1 264:1 266:1 270:1 273:1 
1 1:1 3:0.0707395 8:1 13:1 15:1 17:1 20:1 21:0.894427 22:1 26:1 29:1 31:1 126:1 261:1 262:1 264:1 266:1 270:1 273:1 
1 2:1 3:0.00321543 8:1 14:1 16:1 18:1 20:1 21:1 23:1 26:1 29:1 32:1 114:1 261:1 263:1 264:1 267:1 269:1 273:1 
1 1:1 3:0.00321543 6:1 14:1 15:1 17:1 20:1 21:0.408248 22:1 26:1 29:1 31:1 114:1 261:1 262:1 264:1 266:1 270:1 273:1 
1 2:1 3:0.0771704 8:1 14:1 16:1 18:1 20:1 21:1 23:1 26:1 29:1 32:1 205:1 261:1 263:1 264:1 267:1 270:1 273:1 
1 1:1 3:0.212219 7:1 13:1 15:1 17:1 20:1 21:0.333333 22:1 26:1 29:1 32:1 126:1 261:1 262:1 264:1 266:1 270:1 273:1 
1 1:1 3:0.212219 11:1 14:1 16:1 17:1 20:1 21:0.707107 23:1 26:1 29:1 32:1 126:1 261:1 263:1 264:1 267:1 270:1 273:1 
1 2:1 3:0.0128617 12:1 13:1 16:1 17:1 20:1 21:1 23:1 26:1 29:1 32:1 130:1 261:1 263:1 264:1 267:1 270:1 273:1 
1 2:1 3:0.0128617 9:1 13:1 16:1 17:1 20:1 21:0.707107 23:1 26:1 29:1 32:1 130:1 261:1 263:1 264:1 267:1 270:1 273:1 
1 1:1 3:0.241158 9:1 13:1 16:1 17:1 20:1 21:0.5 22:1 26:1 29:1 32:1 133:1 261:1 262:1 265:1 266:1 270:1 273:1 
1 1:1 3:0.234727 9:1 14:1 16:1 17:1 20:1 21:0.866025 23:1 26:1 29:1 31:1 126:1 261:1 263:1 264:1 267:1 270:1 272:1 
1 1:1 3:0.21865 7:1 14:1 15:1 17:1 20:1 21:0.75 23:1 26:1 29:1 31:1 126:1 261:1 263:1 264:1 267:1 270:1 272:1 
1 1:1 3:0.215434 7:1 14:1 15:1 17:1 20:1 21:0.67082 22:1 26:1 29:1 31:1 126:1 261:1 262:1 264:1 266:1 270:1 272:1 
1 1:1 3:0.209003 8:1 14:1 15:1 17:1 20:1 21:0.75 23:1 26:1 29:1 32:1 126:1 261:1 263:1 264:1 267:1 270:1 272:1 
1 1:1 3:0.0450161 7:1 14:1 15:1 17:1 20:1 21:0.75 23:1 26:1 29:1 30:1 130:1 261:1 263:1 264:1 267:1 270:1 272:1 
1 1:1 3:0.022508 9:1 14:1 16:1 17:1 20:1 21:0.866025 23:1 26:1 29:1 30:1 130:1 261:1 263:1 264:1 267:1 270:1 272:1 
1 1:1 3:0.21865 12:1 13:1 16:1 17:1 20:1 21:0.57735 22:1 26:1 29:1 32:1 133:1 261:1 262:1 265:1 266:1 270:1 273:1 
1 1:1 3:0.212219 12:1 14:1 16:1 18:1 20:1 21:1 23:1 26:1 29:1 30:1 126:1 259:1 263:1 264:1 267:1 270:1 272:1 
1 1:1 3:0.196141 10:1 14:1 16:1 17:1 20:1 21:0.866025 23:1 26:1 29:1 30:1 126:1 261:1 263:1 264:1 267:1 270:1 272:1 
1 1:1 3:0.192926 10:1 14:1 16:1 17:1 20:1 21:0.774597 22:1 26:1 29:1 30:1 126:1 261:1 262:1 264:1 266:1 270:1 272:1 
1 1:1 3:0.186495 11:1 14:1 16:1 17:1 20:1 21:0.866025 23:1 26:1 29:1 32:1 126:1 261:1 263:1 264:1 267:1 270:1 272:1 
1 1:1 3:0.022508 10:1 14:1 16:1 17:1 20:1 21:0.866025 23:1 26:1 29:1 30:1 130:1 259:1 263:1 264:1 267:1 270:1 272:1 
1 1:1 3:0.196141 6:1 13:1 16:1 17:1 20:1 21:0.5 22:1 26:1 29:1 32:1 133:1 261:1 262:1 265:1 266:1 270:1 273:1 
1 1:1 3:0.189711 6:1 14:1 16:1 17:1 20:1 21:0.866025 23:1 26:1 29:1 30:1 126:1 259:1 263:1 264:1 267:1 270:1 272:1 
1 1:1 3:0.173633 4:1 14:1 16:1 18:1 20:1 21:1 23:1 26:1 29:1 30:1 126:1 261:1 263:1 264:1 267:1 270:1 272:1 
1 1:1 3:0.170418 4:1 14:1 15:1 17:1 20:1 21:0.67082 22:1 26:1 29:1 30:1 126:1 261:1 262:1 264:1 266:1 270:1 272:1 
1 1:1 3:0.163987 5:1 14:1 15:1 17:1 20:1 21:0.75 23:1 26:1 29:1 32:1 126:1 261:1 263:1 264:1 267:1 270:1 272:1 
1 1:1 3:0.160772 10:1 14:1 16:1 17:1 20:1 21:0.816497 23:1 26:1 29:1 32:1 111:1 261:1 262:1 264:1 266:1 269:1 273:1 
1 1:1 3:0.0321543 9:1 13:1 16:1 17:1 20:1 21:0.5 22:1 26:1 29:1 32:1 73:1 261:1 262:1 265:1 266:1 270:1 273:1 
1 1:1 3:0.0257235 9:1 14:1 16:1 17:1 20:1 21:0.866025 23:1 26:1 29:1 32:1 66:1 261:1 263:1 264:1 267:1 270:1 272:1 
1 1:1 3:0.0096463 7:1 14:1 15:1 17:1 20:1 21:0.75 23:1 26:1 29:1 32:1 66:1 261:1 263:1 264:1 267:1 270:1 272:1 
1 1:1 3:0.00643087 7:1 14:1 15:1 17:1 20:1 21:0.67082 22:1 26:1 29:1 32:1 66:1 261:1 262:1 264:1 266:1 270:1 272:1 
1 1:1 3:0.0257235 6:1 13:1 16:1 17:1 20:1 21:0.447214 22:1 26:1 29:1 32:1 73:1 261:1 262:1 264:1 266:1 270:1 273:1 
1 1:1 3:0.0192926 6:1 14:1 16:1 17:1 20:1 21:0.774597 22:1 26:1 29:1 31:1 66:1 261:1 262:1 264:1 266:1 270:1 272:1 
1 1:1 3:0.00321543 4:1 14:1 15:1 17:1 20:1 21:0.67082 22:1 26:1 29:1 31:1 66:1 261:1 262:1 264:1 266:1 270:1 272:1 
1 1:1 3:0.022508 6:1 13:1 16:1 17:1 20:1 21:0.5 22:1 26:1 29:1 32:1 73:1 261:1 262:1 265:1 266:1 270:1 273:1 
1 1:1 3:0.0160772 6:1 14:1 16:1 17:1 20:1 21:0.866025 23:1 26:1 29:1 31:1 66:1 261:1 263:1 264:1 267:1 270:1 272:1 
1 1:1 3:0.00643087 12:1 13:1 16:1 17:1 20:1 21:0.57735 22:1 26:1 29:1 32:1 73:1 261:1 262:1 265:1 266:1 270:1 273:1 
1 2:1 3:0.0353698 12:1 13:1 16:1 17:1 20:1 21:1 23:1 26:1 29:1 32:1 130:1 261:1 263:1 264:1 267:1 270:1 273:1 
1 1:1 3:0.00643087 12:1 14:1 16:1 17:1 20:1 21:0.707107 22:1 26:1 29:1 32:1 130:1 261:1 262:1 264:1 266:1 270:1 273:1 
1 1:1 3:0.00321543 12:1 14:1 16:1 17:1 20:1 21:0.707107 22:1 26:1 29:1 32:1 130:1 261:1 262:1 264:1 266:1 270:1 273:1 
1 1:1 3:0.00321543 12:1 14:1 16:1 18:1 20:1 21:1 23:1 26:1 29:1 32:1 130:1 261:1 263:1 264:1 267:1 269:1 273:1 
1 2:1 3:0.00321543 12:1 14:1 16:1 17:1 20:1 21:1 23:1 26:1 29:1 32:1 130:1 261:1 263:1 264:1 267:1 270:1 273:1 
1 1:1 3:0.0675241 12:1 13:1 16:1 17:1 20:1 21:0.707107 22:1 26:1 28:1 32:1 128:1 261:1 262:1 264:1 267:1 270:1 273:1 
1 1:1 3:0.0836013 9:1 13:1 16:1 17:1 20:1 21:0.447214 22:1 26:1 28:1 32:1 129:1 259:1 262:1 264:1 266:1 270:1 273:1 
1 2:1 3:0.0675241 12:1 13:1 16:1 17:1 20:1 21:1 23:1 26:1 29:1 32:1 128:1 261:1 263:1 265:1 267:1 270:1 273:1 
1 1:1 3:0.0128617 12:1 14:1 16:1 18:1 20:1 21:1 23:1 26:1 29:1 32:1 129:1 261:1 263:1 264:1 267:1 269:1 273:1 
1 1:1 3:0.0385852 8:1 14:1 16:1 18:1 20:1 21:1 23:1 26:1 29:1 32:1 130:1 261:1 263:1 264:1 267:1 270:1 273:1 
1 1:1 3:0.0353698 9:1 13:1 16:1 17:1 20:1 21:0.707107 23:1 26:1 29:1 32:1 130:1 261:1 263:1 264:1 267:1 270:1 273:1 
1 1:1 3:0.00321543 11:1 13:1 16:1 17:1 20:1 21:0.707107 23:1 26:1 29:1 32:1 130:1 261:1 263:1 264:1 267:1 270:1 273:1 
1 1:1 3:0.00321543 10:1 14:1 15:1 17:1 20:1 21:0.408248 22:1 26:1 29:1 32:1 130:1 261:1 262:1 264:1 266:1 270:1 273:1 
1 1:1 3:0.199357 4:1 13:1 15:1 17:1 20:1 21:0.333333 22:1 26:1 29:1 32:1 129:1 261:1 262:1 264:1 266:1 270:1 273:1 
1 1:1 3:0.215434 9:1 13:1 16:1 17:1 20:1 21:0.5 22:1 26:1 27:1 32:1 129:1 261:1 262:1 264:1 266:1 270:1 273:1 
1 1:1 3:0.334405 9:1 13:1 16:1 17:1 20:1 21:0.353553 22:1 26:1 29:1 32:1 126:1 261:1 262:1 264:1 266:1 270:1 273:1 
1 1:1 3:0.151125 8:1 13:1 15:1 17:1 20:1 21:0.57735 22:1 26:1 29:1 30:1 129:1 261:1 262:1 264:1 266:1 269:1 273:1 
1 1:1 3:0.14791 8:1 14:1 15:1 17:1 20:1 21:0.666667 23:1 26:1 29:1 32:1 129:1 261:1 263:1 264:1 267:1 270:1 273:1 
1 1:1 3:0.0514469 8:1 14:1 15:1 17:1 20:1 21:0.516398 22:1 26:1 29:1 32:1 130:1 261:1 262:1 264:1 266:1 270:1 273:1 
1 1:1 3:0.096463 6:1 14:1 16:1 17:1 20:1 21:0.866025 23:1 26:1 29:1 32:1 129:1 261:1 263:1 264:1 267:1 270:1 273:1 
1 1:1 3:0.096463 8:1 14:1 15:1 17:1 20:1 21:0.774597 22:1 26:1 28:1 32:1 129:1 261:1 262:1 264:1 266:1 270:1 273:1 
1 2:1 3:0.0771704 8:1 14:1 16:1 18:1 20:1 21:1 23:1 26:1 29:1 32:1 129:1 261:1 263:1 264:1 267:1 270:1 273:1 
1 1:1 3:0.18328 9:1 13:1 15:1 17:1 20:1 21:0.408248 22:1 26:1 29:1 32:1 111:1 261:1 262:1 264:1 266:1 270:1 273:1 
1 1:1 11:1 14:1 15:1 17:1 20:1 21:0.408248 22:1 26:1 29:1 32:1 98:1 261:1 262:1 264:1 266:1 270:1 273:1 
1 1:1 3:0.196141 9:1 13:1 15:1 17:1 20:1 21:0.353553 22:1 26:1 29:1 32:1 126:1 261:1 262:1 264:1 266:1 270:1 273:1 
1 1:1 3:0.196141 9:1 13:1 16:1 17:1 20:1 21:0.5 22:1 26:1 29:1 32:1 126:1 261:1 262:1 264:1 266:1 270:1 273:1 
1 1:1 3:0.0643087 9:1 13:1 15:1 17:1 20:1 21:0.353553 22:1 26:1 29:1 32:1 128:1 261:1 262:1 264:1 266:1 270:1 273:1 
1 1:1 3:0.131833 12:1 14:1 16:1 18:1 20:1 21:1 23:1 26:1 29:1 32:1 96:1 261:1 262:1 264:1 266:1 269:1 273:1 
1 1:1 3:0.131833 12:1 13:1 16:1 17:1 20:1 21:0.707107 22:1 26:1 29:1 32:1 96:1 261:1 262:1 264:1 266:1 270:1 273:1 
1 1:1 12:1 13:1 16:1 17:1 20:1 21:0.707107 22:1 26:1 29:1 32:1 66:1 261:1 262:1 264:1 266:1 270:1 273:1 
1 1:1 3:0.0353698 12:1 13:1 16:1 17:1 20:1 21:0.707107 22:1 26:1 29:1 32:1 224:1 261:1 262:1 264:1 266:1 270:1 273:1 
1 1:1 3:0.392283 12:1 13:1 16:1 17:1 19:1 22:1 26:1 29:1 30:1 128:1 261:1 262:1 264:1 266:1 270:1 273:1 
1 1:1 3:0.00321543 11:1 14:1 16:1 17:1 20:1 21:0.632456 22:1 26:1 29:1 32:1 130:1 261:1 262:1 264:1 266:1 269:1 273:1 
1 2:1 3:0.327974 12:1 13:1 16:1 17:1 20:1 21:1 23:1 26:1 29:1 32:1 128:1 261:1 263:1 264:1 267:1 270:1 273:1 
1 1:1 3:0.421222 12:1 13:1 16:1 18:1 20:1 21:0.5 22:1 26:1 29:1 32:1 128:1 261:1 262:1 264:1 266:1 269:1 273:1 
1 2:1 3:0.022508 4:1 14:1 16:1 18:1 20:1 21:1 23:1 26:1 29:1 32:1 98:1 261:1 263:1 264:1 267:1 270:1 273:1 
1 1:1 3:0.0096463 12:1 14:1 16:1 18:1 20:1 21:1 23:1 26:1 29:1 30:1 146:1 261:1 262:1 264:1 266:1 270:1 273:1 
1 2:1 3:0.00321543 10:1 14:1 16:1 17:1 20:1 21:0.707107 23:1 26:1 29:1 32:1 130:1 261:1 263:1 264:1 267:1 270:1 273:1 
1 1:1 3:0.0932476 12:1 14:1 16:1 18:1 20:1 21:1 23:1 26:1 29:1 32:1 128:1 261:1 263:1 264:1 267:1 269:1 273:1 
1 2:1 3:0.0900322 12:1 13:1 16:1 17:1 20:1 21:1 23:1 26:1 28:1 32:1 128:1 261:1 263:1 264:1 267:1 270:1 273:1 
1 1:1 3:0.0900322 12:1 13:1 16:1 17:1 20:1 21:0.707107 22:1 26:1 28:1 32:1 128:1 261:1 262:1 264:1 267:1 270:1 273:1 
1 1:1 3:0.00321543 8:1 14:1 16:1 18:1 20:1 21:1 23:1 26:1 29:1 32:1 130:1 261:1 262:1 264:1 266:1 270:1 273:1 
1 1:1 3:0.231511 12:1 13:1 15:1 18:1 20:1 21:0.5 22:1 26:1 29:1 32:1 128:1 261:1 262:1 264:1 266:1 269:1 273:1 
1 1:1 3:0.106109 9:1 13:1 16:1 17:1 20:1 21:0.707107 23:1 26:1 29:1 32:1 130:1 261:1 263:1 264:1 267:1 270:1 273:1 
1 1:1 3:0.282958 10:1 13:1 16:1 17:1 20:1 21:0.707107 23:1 26:1 29:1 32:1 126:1 261:1 262:1 264:1 266:1 270:1 273:1 
1 1:1 3:0.18328 12:1 13:1 16:1 17:1 20:1 21:1 23:1 26:1 29:1 32:1 128:1 261:1 262:1 264:1 266:1 270:1 273:1 
1 1:1 3:0.0160772 9:1 14:1 16:1 17:1 20:1 21:0.707107 23:1 26:1 29:1 30:1 130:1 261:1 263:1 264:1 266:1 270:1 273:1 
1 2:1 3:0.0578778 12:1 13:1 16:1 17:1 20:1 21:1 23:1 26:1 29:1 31:1 128:1 261:1 263:1 265:1 267:1 270:1 273:1 
1 1:1 3:0.0996785 10:1 13:1 16:1 17:1 20:1 21:0.707107 23:1 26:1 29:1 30:1 96:1 261:1 262:1 264:1 266:1 270:1 273:1 
1 1:1 3:0.221865 12:1 13:1 16:1 17:1 20:1 21:0.816497 22:1 26:1 29:1 32:1 126:1 261:1 262:1 264:1 266:1 269:1 273:1 
1 1:1 3:0.00321543 10:1 14:1 16:1 17:1 20:1 21:0.816497 23:1 26:1 29:1 32:1 130:1 261:1 263:1 264:1 267:1 269:1 273:1 
1 1:1 3:0.21865 6:1 13:1 15:1 17:1 20:1 21:0.666667 22:1 26:1 29:1 32:1 126:1 261:1 262:1 264:1 266:1 269:1 273:1 
1 1:1 3:0.00643087 9:1 13:1 15:1 17:1 20:1 21:0.353553 22:1 26:1 29:1 31:1 33:1 261:1 262:1 264:1 266:1 270:1 273:1 
1 2:1 3:0.00643087 9:1 13:1 16:1 17:1 20:1 21:0.707107 23:1 26:1 28:1 32:1 129:1 261:1 263:1 264:1 267:1 270:1 273:1 
1 1:1 3:0.318328 12:1 13:1 15:1 17:1 19:1 22:1 26:1 29:1 32:1 126:1 261:1 262:1 264:1 266:1 270:1 273:1 
1 1:1 3:0.00321543 12:1 13:1 16:1 17:1 19:1 22:1 26:1 29:1 32:1 130:1 261:1 262:1 264:1 266:1 270:1 273:1 
1 1:1 3:0.237942 12:1 13:1 16:1 17:1 20:1 21:0.707107 22:1 26:1 29:1 32:1 128:1 261:1 262:1 265:1 267:1 270:1 273:1 
1 1:1 11:1 13:1 16:1 17:1 20:1 21:0.5 22:1 26:1 29:1 32:1 98:1 259:1 262:1 264:1 266:1 270:1 273:1 
1 2:1 3:0.0160772 5:1 14:1 15:1 17:1 20:1 21:0.666667 23:1 26:1 29:1 32:1 98:1 261:1 263:1 264:1 267:1 269:1 273:1 
1 1:1 3:0.0418006 9:1 14:1 16:1 17:1 20:1 21:0.816497 23:1 26:1 29:1 32:1 98:1 261:1 263:1 264:1 267:1 269:1 273:1 
1 1:1 3:0.022508 8:1 14:1 16:1 18:1 20:1 21:1 23:1 26:1 29:1 32:1 98:1 261:1 263:1 264:1 267:1 269:1 273:1 
1 1:1 3:0.0192926 9:1 14:1 16:1 17:1 20:1 21:0.816497 23:1 26:1 29:1 31:1 98:1 261:1 263:1 264:1 267:1 269:1 273:1 
1 1:1 3:0.0257235 12:1 14:1 16:1 18:1 20:1 21:1 23:1 26:1 29:1 32:1 96:1 261:1 263:1 264:1 267:1 269:1 273:1 
1 2:1 3:0.0096463 12:1 13:1 16:1 17:1 20:1 21:1 23:1 26:1 29:1 32:1 194:1 261:1 263:1 264:1 267:1 270:1 273:1 
1 2:1 3:0.00643087 12:1 13:1 16:1 17:1 20:1 21:1 23:1 26:1 29:1 32:1 194:1 261:1 263:1 264:1 267:1 270:1 273:1 
1 2:1 3:0.00643087 12:1 13:1 16:1 17:1 20:1 21:1 23:1 26:1 29:1 32:1 194:1 261:1 263:1 264:1 267:1 269:1 273:1 
1 2:1 3:0.00643087 12:1 14:1 16:1 17:1 20:1 21:1 23:1 26:1 29:1 32:1 194:1 261:1 263:1 264:1 267:1 270:1 273:1 
1 2:1 3:0.00321543 12:1 13:1 16:1 17:1 20:1 21:1 23:1 26:1 29:1 32:1 194:1 261:1 263:1 264:1 267:1 270:1 273:1 
1 1:1 3:0.0803859 6:1 14:1 16:1 17:1 20:1 21:0.57735 23:1 26:1 29:1 32:1 220:1 261:1 263:1 265:1 267:1 270:1 273:1 
1 2:1 3:0.073955 11:1 14:1 15:1 17:1 20:1 21:0.5 23:1 26:1 29:1 32:1 220:1 261:1 263:1 264:1 267:1 270:1 273:1 
1 1:1 3:0.0128617 10:1 14:1 16:1 17:1 20:1 21:0.707107 22:1 26:1 29:1 32:1 66:1 261:1 262:1 264:1 266:1 269:1 273:1 
1 1:1 3:0.0128617 12:1 13:1 16:1 17:1 20:1 21:1 23:1 26:1 29:1 32:1 130:1 261:1 263:1 264:1 267:1 270:1 272:1 
1 1:1 3:0.0160772 8:1 14:1 15:1 17:1 20:1 21:0.353553 22:1 26:1 29:1 32:1 130:1 261:1 262:1 264:1 266:1 270:1 273:1 
1 1:1 3:0.0096463 7:1 14:1 15:1 17:1 20:1 21:0.353553 22:1 26:1 29:1 32:1 130:1 261:1 262:1 264:1 266:1 270:1 273:1 
1 1:1 3:0.00321543 8:1 14:1 16:1 18:1 20:1 21:1 23:1 26:1 29:1 32:1 130:1 261:1 262:1 264:1 266:1 270:1 273:1 
1 1:1 8:1 14:1 16:1 18:1 20:1 21:1 23:1 26:1 29:1 32:1 130:1 261:1 262:1 264:1 266:1 270:1 273:1 
1 1:1 3:0.0096463 7:1 14:1 15:1 17:1 20:1 21:0.353553 22:1 26:1 29:1 32:1 130:1 261:1 262:1 264:1 266:1 270:1 273:1 
1 1:1 3:0.00321543 8:1 14:1 16:1 18:1 20:1 21:1 23:1 26:1 29:1 32:1 130:1 261:1 262:1 264:1 266:1 270:1 273:1 
1 1:1 3:0.00643087 7:1 14:1 15:1 17:1 20:1 21:0.353553 22:1 26:1 29:1 31:1 130:1 261:1 262:1 264:1 266:1 270:1 273:1 
1 2:1 3:0.0257235 12:1 13:1 16:1 17:1 20:1 21:1 23:1 26:1 29:1 31:1 130:1 261:1 263:1 264:1 267:1 270:1 273:1 
1 1:1 3:0.0643087 9:1 13:1 16:1 17:1 20:1 21:0.5 22:1 26:1 29:1 32:1 129:1 261:1 262:1 264:1 266:1 270:1 272:1 
1 1:1 3:0.0257235 8:1 14:1 16:1 18:1 20:1 21:1 23:1 26:1 29:1 30:1 130:1 261:1 262:1 264:1 266:1 270:1 272:1 
1 1:1 3:0.0385852 9:1 13:1 16:1 17:1 20:1 21:0.5 22:1 26:1 29:1 32:1 129:1 261:1 262:1 264:1 266:1 270:1 272:1 
1 1:1 3:0.0289389 12:1 14:1 16:1 18:1 20:1 21:1 23:1 26:1 29:1 32:1 129:1 261:1 263:1 264:1 267:1 269:1 273:1 
1 1:1 3:0.00643087 12:1 14:1 16:1 18:1 20:1 21:1 23:1 26:1 29:1 32:1 130:1 261:1 263:1 264:1 267:1 269:1 273:1 
1 1:1 3:0.022508 12:1 14:1 16:1 18:1 20:1 21:1 23:1 26:1 29:1 32:1 129:1 261:1 263:1 264:1 267:1 269:1 273:1 
1 1:1 3:0.0610932 4:1 14:1 15:1 17:1 20:1 21:0.816497 22:1 26:1 29:1 31:1 81:1 261:1 262:1 264:1 267:1 270:1 273:1 
1 1:1 3:0.0610932 4:1 14:1 16:1 18:1 20:1 21:1 23:1 26:1 29:1 31:1 81:1 261:1 263:1 264:1 267:1 270:1 273:1 
1 2:1 3:0.00321543 7:1 14:1 15:1 17:1 20:1 21:0.5 23:1 26:1 29:1 32:1 130:1 261:1 263:1 264:1 267:1 270:1 273:1 
1 1:1 10:1 13:1 15:1 17:1 20:1 21:0.408248 22:1 26:1 29:1 32:1 130:1 261:1 263:1 264:1 267:1 269:1 273:1 
1 1:1 3:0.209003 12:1 14:1 16:1 17:1 20:1 21:0.707107 22:1 26:1 29:1 32:1 33:1 261:1 262:1 264:1 266:1 269:1 273:1 
1 1:1 3:0.0128617 12:1 13:1 15:1 17:1 19:1 22:1 26:1 29:1 32:1 130:1 261:1 262:1 264:1 266:1 270:1 273:1 
1 1:1 3:0.0096463 11:1 13:1 15:1 17:1 19:1 22:1 26:1 29:1 32:1 130:1 261:1 262:1 264:1 266:1 270:1 273:1 
1 1:1 3:0.00321543 9:1 13:1 16:1 17:1 20:1 21:0.707107 23:1 26:1 29:1 32:1 130:1 261:1 263:1 264:1 267:1 270:1 272:1 
1 1:1 3:0.128617 10:1 14:1 15:1 17:1 20:1 21:0.666667 22:1 26:1 29:1 30:1 220:1 261:1 262:1 264:1 266:1 270:1 273:1 
1 1:1 3:0.125402 12:1 14:1 15:1 17:1 20:1 21:0.866025 22:1 26:1 29:1 30:1 220:1 261:1 262:1 264:1 266:1 270:1 273:1 
1 1:1 3:0.0257235 12:1 14:1 16:1 18:1 20:1 21:1 23:1 26:1 29:1 30:1 224:1 261:1 262:1 264:1 266:1 270:1 273:1 
1 2:1 3:0.125402 12:1 14:1 16:1 17:1 20:1 21:1 23:1 26:1 29:1 30:1 220:1 261:1 263:1 264:1 267:1 270:1 273:1 
1 2:1 3:0.0257235 12:1 14:1 16:1 17:1 20:1 21:1 23:1 26:1 29:1 30:1 224:1 261:1 263:1 264:1 267:1 270:1 273:1 
1 1:1 3:0.125402 12:1 13:1 15:1 17:1 19:1 22:1 26:1 29:1 30:1 220:1 261:1 262:1 264:1 266:1 270:1 273:1 
1 1:1 3:0.0289389 12:1 13:1 15:1 17:1 19:1 22:1 26:1 29:1 32:1 224:1 261:1 262:1 264:1 266:1 270:1 273:1 
1 1:1 3:0.102894 10:1 14:1 15:1 17:1 20:1 21:0.666667 22:1 26:1 29:1 30:1 190:1 261:1 262:1 264:1 266:1 270:1 273:1 
1 1:1 3:0.0996785 12:1 14:1 15:1 17:1 20:1 21:0.866025 22:1 26:1 29:1 30:1 190:1 261:1 262:1 264:1 266:1 270:1 273:1 
1 1:1 3:0.0996785 12:1 13:1 15:1 17:1 19:1 22:1 26:1 29:1 30:1 190:1 261:1 262:1 264:1 266:1 270:1 273:1 
1 1:1 3:0.0996785 12:1 13:1 15:1 17:1 19:1 22:1 26:1 29:1 30:1 190:1 261:1 262:1 264:1 266:1 270:1 273:1 
1 2:1 3:0.0996785 12:1 14:1 16:1 17:1 20:1 21:1 23:1 26:1 29:1 30:1 190:1 261:1 263:1 264:1 267:1 270:1 273:1 
1 1:1 3:0.096463 12:1 13:1 15:1 17:1 19:1 22:1 26:1 29:1 32:1 190:1 261:1 262:1 264:1 266:1 270:1 273:1 
1 1:1 3:0.00321543 10:1 14:1 15:1 17:1 20:1 21:0.57735 23:1 26:1 29:1 30:1 130:1 261:1 263:1 264:1 267:1 270:1 273:1 
1 1:1 3:0.125402 10:1 14:1 15:1 17:1 20:1 21:0.57735 22:1 26:1 29:1 30:1 126:1 259:1 262:1 264:1 266:1 270:1 273:1 
1 2:1 3:0.0418006 12:1 13:1 16:1 17:1 20:1 21:1 23:1 26:1 28:1 32:1 114:1 261:1 263:1 264:1 267:1 270:1 273:1 
1 1:1 3:0.0418006 12:1 13:1 16:1 17:1 20:1 21:1 23:1 26:1 28:1 32:1 114:1 261:1 263:1 264:1 267:1 270:1 273:1 
1 2:1 3:0.0418006 12:1 13:1 16:1 17:1 20:1 21:1 23:1 26:1 27:1 32:1 114:1 261:1 263:1 264:1 267:1 270:1 273:1 
1 1:1 3:0.0353698 12:1 13:1 16:1 17:1 20:1 21:1 23:1 26:1 29:1 32:1 114:1 261:1 262:1 264:1 266:1 270:1 273:1 
1 1:1 3:0.0353698 12:1 14:1 16:1 17:1 20:1 21:1 23:1 26:1 28:1 32:1 114:1 261:1 263:1 264:1 267:1 270:1 273:1 
1 2:1 3:0.0353698 12:1 13:1 16:1 17:1 20:1 21:1 23:1 26:1 28:1 32:1 114:1 261:1 263:1 264:1 267:1 270:1 273:1 
1 2:1 3:0.0353698 12:1 13:1 16:1 17:1 20:1 21:1 23:1 26:1 28:1 32:1 114:1 261:1 263:1 264:1 267:1 270:1 273:1 
1 2:1 3:0.0353698 12:1 14:1 16:1 17:1 20:1 21:1 23:1 26:1 28:1 32:1 114:1 261:1 263:1 264:1 267:1 270:1 273:1 
1 1:1 3:0.0353698 12:1 13:1 16:1 17:1 20:1 21:1 23:1 26:1 28:1 32:1 114:1 261:1 262:1 264:1 266:1 270:1 273:1 
1 1:1 3:0.0353698 12:1 13:1 16:1 17:1 20:1 21:1 23:1 26:1 29:1 32:1 114:1 261:1 262:1 264:1 266:1 270:1 273:1 
1 2:1 3:0.0353698 12:1 13:1 16:1 17:1 20:1 21:1 23:1 26:1 28:1 32:1 114:1 261:1 263:1 264:1 267:1 270:1 273:1 
1 1:1 3:0.0289389 12:1 13:1 16:1 17:1 19:1 22:1 26:1 27:1 32:1 114:1 261:1 262:1 264:1 266:1 270:1 273:1 
1 1:1 3:0.022508 12:1 14:1 16:1 18:1 20:1 21:1 23:1 26:1 29:1 32:1 114:1 261:1 262:1 264:1 266:1 270:1 273:1 
1 1:1 3:0.022508 12:1 13:1 16:1 17:1 20:1 21:1 23:1 26:1 28:1 32:1 114:1 261:1 263:1 264:1 267:1 270:1 273:1 
1 2:1 3:0.022508 12:1 13:1 16:1 17:1 20:1 21:1 23:1 26:1 29:1 32:1 114:1 261:1 263:1 264:1 267:1 270:1 273:1 
1 1:1 3:0.0160772 12:1 14:1 16:1 18:1 20:1 21:1 23:1 26:1 27:1 32:1 114:1 261:1 262:1 264:1 266:1 270:1 273:1 
1 1:1 3:0.00643087 12:1 14:1 16:1 18:1 20:1 21:1 23:1 26:1 27:1 31:1 114:1 261:1 262:1 264:1 266:1 270:1 273:1 
1 1:1 3:0.0096463 12:1 14:1 16:1 18:1 20:1 21:1 23:1 26:1 28:1 32:1 114:1 261:1 262:1 264:1 266:1 270:1 273:1 
1 1:1 3:0.0096463 12:1 14:1 16:1 17:1 20:1 21:1 23:1 26:1 28:1 32:1 114:1 261:1 262:1 264:1 266:1 270:1 273:1 
1 1:1 3:0.0096463 12:1 14:1 16:1 17:1 20:1 21:1 23:1 26:1 28:1 32:1 114:1 261:1 262:1 264:1 266:1 270:1 273:1 
1 1:1 3:0.0096463 12:1 14:1 16:1 17:1 20:1 21:1 23:1 26:1 28:1 32:1 114:1 261:1 262:1 264:1 266:1 270:1 273:1 
1 1:1 3:0.0096463 12:1 14:1 16:1 17:1 20:1 21:1 23:1 26:1 28:1 32:1 114:1 261:1 262:1 264:1 266:1 270:1 273:1 
1 1:1 3:0.0096463 12:1 13:1 16:1 17:1 20:1 21:1 23:1 26:1 28:1 32:1 114:1 261:1 263:1 264:1 267:1 270:1 273:1 
1 1:1 3:0.0096463 12:1 14:1 16:1 17:1 20:1 21:1 23:1 26:1 28:1 32:1 114:1 261:1 263:1 265:1 267:1 270:1 273:1 
1 2:1 3:0.0096463 12:1 14:1 16:1 17:1 20:1 21:1 23:1 26:1 29:1 32:1 114:1 261:1 262:1 264:1 266:1 270:1 273:1 
1 2:1 3:0.0096463 12:1 14:1 16:1 17:1 20:1 21:1 23:1 26:1 28:1 32:1 114:1 261:1 262:1 264:1 266:1 270:1 273:1 
1 1:1 3:0.073955 12:1 13:1 16:1 17:1 20:1 21:0.707107 22:1 26:1 29:1 32:1 235:1 261:1 262:1 264:1 266:1 270:1 272:1 
1 1:1 3:0.305466 12:1 13:1 16:1 17:1 20:1 21:0.707107 22:1 26:1 29:1 32:1 126:1 261:1 262:1 265:1 267:1 270:1 273:1 
1 1:1 3:0.302251 12:1 13:1 16:1 17:1 20:1 21:0.707107 22:1 26:1 29:1 31:1 126:1 261:1 262:1 265:1 267:1 270:1 273:1 
1 2:1 3:0.289389 11:1 13:1 16:1 17:1 20:1 21:0.707107 23:1 26:1 29:1 32:1 126:1 261:1 263:1 264:1 267:1 270:1 273:1 
1 2:1 3:0.0996785 12:1 13:1 16:1 17:1 20:1 21:1 23:1 26:1 29:1 32:1 129:1 261:1 263:1 264:1 267:1 270:1 273:1 
1 1:1 3:0.0868167 12:1 13:1 16:1 17:1 20:1 21:0.707107 22:1 26:1 29:1 32:1 129:1 261:1 262:1 265:1 267:1 270:1 273:1 
1 1:1 3:0.0803859 11:1 13:1 16:1 17:1 20:1 21:0.5 22:1 26:1 29:1 32:1 129:1 261:1 262:1 264:1 266:1 270:1 273:1 
1 1:1 3:0.073955 12:1 13:1 16:1 17:1 20:1 21:0.707107 22:1 26:1 29:1 31:1 129:1 261:1 262:1 265:1 267:1 270:1 273:1 
1 1:1 3:0.096463 9:1 13:1 16:1 17:1 20:1 21:0.707107 23:1 26:1 29:1 32:1 129:1 261:1 263:1 264:1 267:1 270:1 273:1 
1 1:1 3:0.0096463 7:1 14:1 15:1 17:1 20:1 21:0.5 23:1 26:1 29:1 32:1 130:1 261:1 263:1 264:1 267:1 270:1 273:1 
1 1:1 3:0.00643087 8:1 14:1 16:1 18:1 20:1 21:1 23:1 26:1 29:1 32:1 130:1 259:1 263:1 264:1 267:1 270:1 273:1 
1 1:1 3:0.0900322 9:1 13:1 16:1 17:1 20:1 21:0.707107 23:1 26:1 29:1 32:1 129:1 261:1 263:1 264:1 267:1 270:1 273:1 
1 1:1 3:0.00321543 7:1 14:1 15:1 17:1 20:1 21:0.5 23:1 26:1 29:1 32:1 130:1 261:1 263:1 264:1 267:1 270:1 273:1 
1 1:1 3:0.0868167 6:1 13:1 16:1 17:1 20:1 21:0.707107 23:1 26:1 28:1 32:1 129:1 261:1 263:1 264:1 267:1 270:1 273:1 
1 1:1 3:0.241158 4:1 14:1 15:1 17:1 20:1 21:0.866025 22:1 26:1 29:1 31:1 126:1 261:1 262:1 264:1 266:1 270:1 272:1 
1 1:1 3:0.0418006 4:1 14:1 15:1 17:1 20:1 21:0.666667 22:1 26:1 29:1 32:1 129:1 261:1 262:1 264:1 266:1 270:1 271:1 
1 1:1 3:0.22508 12:1 14:1 15:1 17:1 20:1 21:0.5 22:1 26:1 29:1 31:1 111:1 261:1 262:1 264:1 266:1 270:1 273:1 
1 1:1 3:0.231511 12:1 14:1 16:1 18:1 20:1 21:1 23:1 26:1 29:1 32:1 111:1 261:1 263:1 264:1 267:1 269:1 273:1 
1 1:1 3:0.228296 12:1 14:1 16:1 18:1 20:1 21:1 23:1 26:1 29:1 31:1 111:1 259:1 263:1 264:1 267:1 269:1 273:1 
1 1:1 3:0.215434 11:1 14:1 15:1 17:1 20:1 21:0.5 22:1 26:1 29:1 32:1 111:1 261:1 262:1 265:1 267:1 270:1 273:1 
1 1:1 3:0.0257235 12:1 13:1 16:1 17:1 20:1 21:0.707107 22:1 26:1 29:1 32:1 114:1 259:1 262:1 265:1 267:1 270:1 273:1 
1 1:1 3:0.0128617 12:1 14:1 16:1 18:1 20:1 21:1 23:1 26:1 29:1 32:1 114:1 261:1 263:1 264:1 267:1 269:1 273:1 
1 1:1 3:0.00643087 11:1 14:1 15:1 17:1 20:1 21:0.353553 22:1 26:1 29:1 32:1 114:1 261:1 262:1 264:1 266:1 268:1 273:1 
1 1:1 3:0.22508 9:1 14:1 15:1 17:1 20:1 21:0.353553 22:1 26:1 29:1 32:1 111:1 261:1 262:1 264:1 266:1 268:1 273:1 
1 1:1 3:0.221865 9:1 14:1 15:1 17:1 20:1 21:0.353553 22:1 26:1 29:1 32:1 111:1 261:1 262:1 264:1 266:1 268:1 273:1 
1 1:1 3:0.209003 8:1 14:1 15:1 17:1 20:1 21:0.707107 22:1 26:1 29:1 32:1 111:1 261:1 262:1 264:1 266:1 270:1 273:1 
1 1:1 3:0.0192926 9:1 13:1 16:1 17:1 20:1 21:0.5 22:1 26:1 29:1 32:1 114:1 261:1 262:1 264:1 266:1 270:1 273:1 
1 1:1 3:0.00643087 9:1 14:1 15:1 17:1 20:1 21:0.353553 22:1 26:1 29:1 32:1 114:1 261:1 262:1 264:1 266:1 268:1 273:1 
1 1:1 3:0.21865 12:1 14:1 16:1 18:1 20:1 21:1 23:1 26:1 29:1 32:1 111:1 261:1 263:1 264:1 267:1 269:1 273:1 
1 1:1 3:0.215434 12:1 14:1 16:1 18:1 20:1 21:1 23:1 26:1 29:1 32:1 111:1 261:1 263:1 264:1 267:1 269:1 273:1 
1 1:1 3:0.202572 11:1 14:1 15:1 17:1 20:1 21:0.5 22:1 26:1 29:1 32:1 111:1 261:1 262:1 265:1 267:1 270:1 273:1 
1 1:1 3:0.0128617 12:1 13:1 16:1 17:1 20:1 21:0.707107 22:1 26:1 29:1 32:1 114:1 261:1 262:1 265:1 267:1 270:1 273:1 
1 1:1 3:0.199357 4:1 14:1 15:1 17:1 20:1 21:0.866025 22:1 26:1 29:1 32:1 111:1 261:1 262:1 264:1 266:1 270:1 271:1 
1 1:1 3:0.205788 12:1 13:1 16:1 17:1 20:1 21:0.707107 22:1 26:1 29:1 32:1 111:1 261:1 262:1 265:1 267:1 270:1 273:1 
1 1:1 3:0.202572 12:1 13:1 16:1 17:1 20:1 21:0.707107 22:1 26:1 29:1 32:1 111:1 259:1 262:1 265:1 267:1 270:1 273:1 
1 2:1 3:0.189711 11:1 13:1 16:1 17:1 20:1 21:0.707107 23:1 26:1 29:1 32:1 111:1 261:1 263:1 264:1 267:1 270:1 273:1 
1 1:1 3:0.00643087 8:1 14:1 15:1 17:1 20:1 21:0.816497 22:1 26:1 29:1 32:1 114:1 259:1 262:1 264:1 266:1 270:1 273:1 
1 1:1 3:0.0160772 9:1 14:1 15:1 17:1 20:1 21:0.5 22:1 26:1 29:1 32:1 66:1 261:1 262:1 265:1 267:1 270:1 273:1 
1 1:1 3:0.0128617 9:1 14:1 15:1 17:1 20:1 21:0.5 22:1 26:1 29:1 32:1 66:1 261:1 262:1 265:1 267:1 270:1 273:1 
1 1:1 3:0.00321543 12:1 14:1 16:1 18:1 20:1 21:1 23:1 26:1 29:1 32:1 66:1 261:1 263:1 264:1 267:1 269:1 273:1 
1 1:1 3:0.0578778 12:1 14:1 16:1 17:1 20:1 21:1 23:1 26:1 29:1 32:1 127:1 261:1 262:1 264:1 266:1 270:1 273:1 
1 2:1 3:0.176849 12:1 14:1 16:1 17:1 20:1 21:1 23:1 26:1 28:1 32:1 126:1 261:1 262:1 264:1 266:1 270:1 273:1 
1 1:1 3:0.176849 12:1 14:1 16:1 17:1 20:1 21:1 23:1 26:1 28:1 32:1 126:1 261:1 263:1 264:1 266:1 270:1 273:1 
1 1:1 3:0.0353698 12:1 14:1 16:1 18:1 20:1 21:1 23:1 26:1 29:1 32:1 162:1 261:1 262:1 264:1 266:1 270:1 273:1 
1 1:1 3:0.231511 12:1 14:1 16:1 18:1 20:1 21:1 23:1 26:1 29:1 32:1 200:1 261:1 262:1 264:1 266:1 269:1 273:1 
1 1:1 3:0.118971 12:1 14:1 16:1 18:1 20:1 21:1 23:1 26:1 29:1 32:1 205:1 261:1 262:1 264:1 266:1 269:1 273:1 
1 1:1 3:0.0385852 10:1 13:1 15:1 17:1 20:1 21:0.204124 22:1 26:1 29:1 32:1 205:1 261:1 262:1 264:1 266:1 270:1 273:1 
1 1:1 3:0.0996785 12:1 13:1 15:1 17:1 19:1 22:1 26:1 29:1 32:1 130:1 259:1 262:1 264:1 266:1 270:1 273:1 
1 1:1 3:0.0900322 12:1 13:1 15:1 17:1 20:1 21:0.288675 22:1 26:1 29:1 32:1 130:1 261:1 262:1 264:1 266:1 269:1 273:1 
1 1:1 3:0.11254 12:1 14:1 16:1 18:1 20:1 21:1 23:1 26:1 29:1 32:1 125:1 261:1 262:1 264:1 266:1 269:1 273:1 
1 1:1 3:0.00321543 7:1 14:1 15:1 17:1 20:1 21:0.5 23:1 26:1 29:1 32:1 130:1 261:1 262:1 264:1 266:1 270:1 273:1 
1 1:1 3:0.00321543 10:1 13:1 15:1 17:1 20:1 21:0.408248 22:1 26:1 29:1 31:1 130:1 261:1 262:1 264:1 266:1 270:1 273:1 
1 1:1 3:0.250804 12:1 13:1 16:1 17:1 20:1 21:0.707107 22:1 26:1 29:1 32:1 51:1 261:1 262:1 265:1 267:1 270:1 273:1 
1 1:1 3:0.234727 11:1 14:1 15:1 17:1 20:1 21:0.353553 22:1 26:1 29:1 32:1 51:1 261:1 262:1 264:1 266:1 268:1 273:1 
1 1:1 3:0.0610932 11:1 14:1 15:1 17:1 20:1 21:0.5 22:1 26:1 29:1 32:1 55:1 261:1 262:1 265:1 267:1 270:1 273:1 
1 1:1 3:0.0418006 11:1 14:1 15:1 17:1 20:1 21:0.5 22:1 26:1 29:1 32:1 55:1 261:1 262:1 265:1 267:1 270:1 273:1 
1 2:1 3:0.209003 9:1 13:1 16:1 17:1 20:1 21:0.707107 23:1 26:1 29:1 32:1 126:1 261:1 263:1 264:1 267:1 270:1 273:1 
1 1:1 3:0.192926 8:1 14:1 15:1 17:1 20:1 21:0.707107 22:1 26:1 29:1 32:1 126:1 261:1 262:1 264:1 266:1 270:1 273:1 
1 2:1 3:0.0192926 8:1 14:1 16:1 18:1 20:1 21:1 23:1 26:1 29:1 32:1 130:1 261:1 263:1 264:1 267:1 270:1 273:1 
1 2:1 3:0.189711 9:1 13:1 16:1 17:1 20:1 21:0.707107 23:1 26:1 29:1 32:1 126:1 261:1 263:1 264:1 267:1 270:1 273:1 
1 1:1 3:0.173633 8:1 14:1 15:1 17:1 20:1 21:0.707107 22:1 26:1 29:1 32:1 126:1 261:1 262:1 264:1 266:1 270:1 273:1 
1 1:1 7:1 14:1 15:1 17:1 20:1 21:0.666667 23:1 26:1 29:1 31:1 130:1 259:1 263:1 264:1 267:1 270:1 273:1 
1 1:1 3:0.0160772 9:1 13:1 16:1 17:1 20:1 21:0.5 22:1 26:1 29:1 32:1 66:1 261:1 262:1 264:1 266:1 270:1 273:1 
1 1:1 3:0.0803859 9:1 14:1 15:1 17:1 20:1 21:0.5 22:1 26:1 29:1 31:1 129:1 261:1 262:1 265:1 266:1 270:1 273:1 
1 1:1 3:0.0803859 9:1 13:1 15:1 17:1 19:1 22:1 26:1 29:1 31:1 129:1 261:1 262:1 264:1 266:1 270:1 273:1 
1 2:1 3:0.00321543 7:1 14:1 15:1 17:1 20:1 21:0.5 23:1 26:1 29:1 31:1 130:1 261:1 263:1 264:1 267:1 270:1 273:1 
1 1:1 3:0.0771704 6:1 14:1 15:1 18:1 20:1 21:0.5 22:1 26:1 29:1 31:1 129:1 261:1 262:1 265:1 266:1 270:1 273:1 
1 1:1 3:0.0771704 6:1 13:1 15:1 17:1 19:1 22:1 26:1 29:1 31:1 129:1 261:1 262:1 264:1 266:1 270:1 273:1 
1 1:1 3:0.0096463 12:1 13:1 15:1 17:1 20:1 21:0.353553 22:1 26:1 29:1 32:1 130:1 261:1 262:1 264:1 266:1 270:1 273:1 
1 1:1 3:0.0482315 6:1 13:1 15:1 17:1 20:1 21:0.235702 22:1 26:1 29:1 30:1 129:1 261:1 262:1 264:1 266:1 269:1 273:1 
1 1:1 12:1 13:1 15:1 17:1 19:1 22:1 26:1 29:1 31:1 114:1 261:1 262:1 264:1 266:1 270:1 273:1 
1 1:1 12:1 13:1 15:1 17:1 19:1 22:1 26:1 29:1 31:1 114:1 261:1 262:1 264:1 266:1 270:1 273:1 
1 1:1 3:0.096463 9:1 14:1 15:1 17:1 20:1 21:0.5 22:1 26:1 29:1 32:1 130:1 261:1 262:1 264:1 266:1 270:1 273:1 
1 1:1 3:0.00321543 9:1 13:1 16:1 17:1 20:1 21:0.707107 23:1 26:1 29:1 31:1 130:1 261:1 262:1 264:1 266:1 270:1 273:1 
1 1:1 3:0.0932476 12:1 13:1 16:1 17:1 20:1 21:0.707107 22:1 26:1 29:1 32:1 130:1 261:1 262:1 264:1 266:1 270:1 273:1 
1 1:1 3:0.221865 4:1 13:1 16:1 17:1 20:1 21:0.707107 22:1 26:1 29:1 32:1 125:1 261:1 262:1 264:1 266:1 270:1 273:1 
1 1:1 3:0.0160772 8:1 14:1 16:1 18:1 20:1 21:1 23:1 26:1 29:1 32:1 130:1 261:1 262:1 264:1 266:1 270:1 273:1 
1 1:1 3:0.160772 6:1 14:1 16:1 17:1 20:1 21:0.866025 23:1 26:1 29:1 32:1 125:1 261:1 262:1 264:1 266:1 270:1 273:1 
1 1:1 3:0.122186 6:1 13:1 15:1 17:1 20:1 21:0.408248 22:1 26:1 29:1 32:1 125:1 261:1 262:1 264:1 266:1 270:1 273:1 
1 1:1 3:0.00321543 12:1 13:1 16:1 17:1 20:1 21:1 23:1 26:1 29:1 32:1 66:1 261:1 263:1 264:1 267:1 270:1 273:1 
1 2:1 3:0.00321543 8:1 14:1 16:1 18:1 20:1 21:1 23:1 26:1 29:1 32:1 66:1 261:1 263:1 264:1 267:1 270:1 273:1 
1 1:1 3:0.0675241 12:1 13:1 15:1 17:1 19:1 22:1 26:1 29:1 32:1 128:1 261:1 262:1 264:1 266:1 270:1 273:1 
1 1:1 3:0.00321543 12:1 13:1 16:1 17:1 20:1 21:0.707107 22:1 26:1 29:1 32:1 130:1 261:1 262:1 264:1 266:1 270:1 273:1 
1 1:1 3:0.0643087 12:1 13:1 15:1 17:1 20:1 21:0.5 22:1 26:1 29:1 32:1 128:1 261:1 262:1 264:1 266:1 269:1 273:1 
1 1:1 3:0.0868167 12:1 13:1 16:1 17:1 20:1 21:0.707107 22:1 26:1 29:1 32:1 128:1 261:1 262:1 264:1 266:1 270:1 273:1 
1 1:1 3:0.0868167 12:1 13:1 15:1 17:1 20:1 21:1 22:1 26:1 29:1 32:1 128:1 261:1 262:1 264:1 266:1 269:1 273:1 
1 1:1 3:0.0803859 11:1 13:1 15:1 17:1 19:1 22:1 26:1 29:1 32:1 51:1 261:1 262:1 264:1 266:1 270:1 273:1 
1 1:1 3:0.00321543 12:1 14:1 16:1 18:1 20:1 21:1 23:1 26:1 29:1 32:1 50:1 261:1 263:1 264:1 267:1 270:1 273:1 
1 1:1 3:0.00321543 12:1 13:1 15:1 17:1 19:1 22:1 26:1 29:1 32:1 50:1 261:1 262:1 264:1 266:1 270:1 273:1 
1 2:1 3:0.0771704 11:1 14:1 15:1 17:1 20:1 21:0.866025 23:1 26:1 29:1 32:1 51:1 261:1 263:1 265:1 267:1 269:1 273:1 
1 1:1 12:1 13:1 15:1 17:1 19:1 22:1 26:1 29:1 32:1 50:1 261:1 262:1 264:1 266:1 270:1 273:1 
1 1:1 3:0.0771704 11:1 13:1 15:1 17:1 19:1 22:1 26:1 29:1 32:1 51:1 261:1 262:1 264:1 266:1 270:1 273:1 
1 1:1 3:0.154341 9:1 14:1 15:1 17:1 20:1 21:0.4 22:1 26:1 29:1 30:1 218:1 261:1 262:1 264:1 266:1 269:1 273:1 
1 2:1 3:0.0643087 7:1 14:1 15:1 17:1 20:1 21:0.8 23:1 26:1 29:1 32:1 220:1 261:1 263:1 264:1 267:1 269:1 273:1 
1 1:1 12:1 13:1 16:1 17:1 20:1 21:0.816497 22:1 26:1 29:1 31:1 226:1 261:1 262:1 264:1 266:1 270:1 273:1 
1 1:1 12:1 14:1 15:1 17:1 20:1 21:0.408248 22:1 26:1 29:1 31:1 226:1 261:1 262:1 264:1 266:1 270:1 273:1 
1 1:1 12:1 13:1 15:1 17:1 19:1 22:1 26:1 29:1 31:1 226:1 261:1 262:1 264:1 266:1 270:1 273:1 
1 1:1 3:0.0900322 6:1 14:1 15:1 17:1 20:1 21:0.4 22:1 26:1 29:1 32:1 128:1 261:1 262:1 264:1 266:1 269:1 273:1 
1 2:1 3:0.141479 6:1 13:1 16:1 17:1 20:1 21:0.707107 23:1 26:1 29:1 32:1 128:1 261:1 263:1 265:1 267:1 270:1 273:1 
1 1:1 3:0.109325 12:1 13:1 15:1 17:1 20:1 21:0.8 22:1 25:1 29:1 32:1 125:1 261:1 262:1 264:1 266:1 269:1 273:1 
1 1:1 3:0.106109 6:1 14:1 16:1 17:1 20:1 21:0.816497 23:1 26:1 29:1 32:1 125:1 261:1 262:1 264:1 266:1 270:1 273:1 
1 1:1 3:0.11254 12:1 13:1 16:1 17:1 20:1 21:0.707107 22:1 26:1 29:1 32:1 125:1 261:1 262:1 265:1 267:1 270:1 273:1 
1 1:1 3:0.00321543 10:1 13:1 16:1 17:1 20:1 21:0.57735 22:1 26:1 29:1 32:1 130:1 261:1 262:1 265:1 267:1 270:1 273:1 
1 1:1 3:0.109325 6:1 14:1 16:1 17:1 20:1 21:0.816497 23:1 26:1 29:1 32:1 125:1 261:1 263:1 264:1 267:1 269:1 273:1 
1 1:1 3:0.073955 12:1 14:1 16:1 18:1 20:1 21:1 23:1 26:1 29:1 32:1 111:1 261:1 263:1 264:1 267:1 269:1 273:1 
1 1:1 3:0.0868167 4:1 14:1 16:1 18:1 20:1 21:1 23:1 26:1 29:1 32:1 235:1 261:1 262:1 264:1 266:1 270:1 273:1 
1 1:1 3:0.250804 12:1 13:1 15:1 17:1 19:1 22:1 26:1 29:1 32:1 128:1 261:1 262:1 264:1 266:1 270:1 273:1 
1 1:1 3:0.135048 9:1 14:1 15:1 17:1 20:1 21:0.408248 22:1 26:1 29:1 31:1 98:1 259:1 262:1 264:1 266:1 270:1 273:1 
1 1:1 3:0.135048 8:1 14:1 16:1 18:1 20:1 21:1 23:1 26:1 29:1 31:1 98:1 259:1 262:1 264:1 266:1 270:1 273:1 
1 1:1 3:0.125402 12:1 13:1 15:1 17:1 19:1 22:1 26:1 29:1 32:1 98:1 261:1 262:1 264:1 266:1 270:1 273:1 
1 1:1 3:0.128617 12:1 13:1 15:1 17:1 20:1 21:0.408248 22:1 25:1 29:1 32:1 98:1 261:1 262:1 264:1 266:1 269:1 273:1 
1 1:1 3:0.0803859 12:1 13:1 16:1 17:1 20:1 21:0.353553 22:1 26:1 29:1 32:1 98:1 261:1 262:1 264:1 266:1 270:1 273:1 
1 1:1 3:0.0418006 12:1 13:1 15:1 17:1 19:1 22:1 26:1 29:1 32:1 98:1 261:1 262:1 264:1 266:1 268:1 273:1 
1 1:1 3:0.0482315 12:1 13:1 16:1 17:1 20:1 21:0.57735 22:1 26:1 29:1 32:1 98:1 261:1 262:1 264:1 266:1 270:1 273:1 
1 1:1 3:0.0450161 12:1 14:1 16:1 18:1 20:1 21:1 23:1 26:1 28:1 32:1 33:1 261:1 263:1 264:1 267:1 269:1 273:1 
1 1:1 3:0.0192926 8:1 14:1 15:1 17:1 20:1 21:0.666667 23:1 26:1 29:1 32:1 129:1 261:1 263:1 264:1 267:1 269:1 273:1 
1 1:1 3:0.102894 12:1 14:1 16:1 18:1 20:1 21:1 23:1 26:1 29:1 31:1 111:1 261:1 263:1 264:1 267:1 269:1 273:1 
1 1:1 3:0.0192926 12:1 14:1 16:1 18:1 20:1 21:1 23:1 26:1 29:1 30:1 81:1 261:1 262:1 264:1 266:1 269:1 273:1 
1 2:1 3:0.00643087 12:1 13:1 16:1 17:1 20:1 21:1 23:1 26:1 29:1 32:1 130:1 261:1 263:1 264:1 267:1 270:1 273:1 
1 2:1 3:0.00321543 12:1 13:1 16:1 17:1 20:1 21:1 23:1 26:1 29:1 32:1 130:1 261:1 263:1 264:1 267:1 270:1 273:1 
1 2:1 3:0.00321543 12:1 13:1 16:1 17:1 20:1 21:1 23:1 26:1 29:1 32:1 130:1 261:1 263:1 264:1 267:1 270:1 273:1 
1 2:1 3:0.376206 12:1 13:1 16:1 17:1 20:1 21:1 23:1 26:1 29:1 32:1 133:1 261:1 263:1 264:1 267:1 270:1 273:1 
1 1:1 3:0.302251 12:1 13:1 16:1 17:1 20:1 21:1 23:1 26:1 29:1 30:1 127:1 261:1 263:1 264:1 267:1 270:1 273:1 
1 1:1 3:0.327974 6:1 14:1 15:1 17:1 20:1 21:0.516398 22:1 26:1 29:1 32:1 133:1 261:1 262:1 264:1 266:1 270:1 273:1 
1 1:1 3:0.0321543 6:1 13:1 15:1 17:1 20:1 21:0.408248 22:1 26:1 29:1 32:1 128:1 261:1 262:1 264:1 266:1 270:1 273:1 
1 2:1 12:1 13:1 16:1 17:1 20:1 21:1 23:1 26:1 29:1 32:1 130:1 261:1 262:1 264:1 266:1 270:1 273:1 
1 1:1 3:0.29582 12:1 13:1 15:1 17:1 20:1 21:0.632456 22:1 26:1 29:1 32:1 103:1 261:1 262:1 264:1 266:1 270:1 273:1 
1 2:1 3:0.0321543 12:1 13:1 16:1 17:1 20:1 21:1 23:1 26:1 29:1 31:1 98:1 261:1 263:1 264:1 267:1 269:1 273:1 
1 2:1 3:0.0257235 12:1 13:1 16:1 17:1 20:1 21:1 23:1 26:1 29:1 31:1 98:1 261:1 263:1 264:1 267:1 269:1 273:1 
1 2:1 3:0.0128617 12:1 13:1 16:1 17:1 20:1 21:1 23:1 26:1 29:1 31:1 98:1 261:1 263:1 264:1 267:1 269:1 273:1 
1 2:1 3:0.00643087 12:1 13:1 16:1 17:1 20:1 21:1 23:1 26:1 29:1 31:1 98:1 261:1 263:1 264:1 267:1 269:1 273:1 
1 2:1 3:0.0257235 12:1 13:1 16:1 17:1 20:1 21:1 23:1 26:1 29:1 31:1 98:1 261:1 263:1 264:1 267:1 269:1 273:1 
1 2:1 3:0.0192926 12:1 13:1 16:1 17:1 20:1 21:1 23:1 26:1 29:1 31:1 98:1 261:1 263:1 264:1 267:1 269:1 273:1 
1 2:1 3:0.00643087 12:1 13:1 16:1 17:1 20:1 21:1 23:1 26:1 29:1 31:1 98:1 261:1 263:1 264:1 267:1 269:1 273:1 
1 2:1 3:0.0192926 12:1 13:1 16:1 17:1 20:1 21:1 23:1 26:1 29:1 31:1 98:1 261:1 263:1 264:1 267:1 269:1 273:1 
1 2:1 3:0.0128617 12:1 13:1 16:1 17:1 20:1 21:1 23:1 26:1 29:1 31:1 98:1 261:1 263:1 264:1 267:1 269:1 273:1 
1 2:1 3:0.00643087 12:1 13:1 16:1 17:1 20:1 21:1 23:1 26:1 29:1 31:1 98:1 261:1 263:1 264:1 267:1 269:1 273:1 
1 1:1 3:0.11254 9:1 13:1 15:1 17:1 20:1 21:0.258199 22:1 26:1 29:1 31:1 33:1 261:1 262:1 264:1 266:1 270:1 273:1 
1 1:1 3:0.0160772 7:1 13:1 15:1 17:1 20:1 21:0.235702 22:1 26:1 29:1 32:1 33:1 261:1 262:1 264:1 266:1 270:1 273:1 
1 1:1 3:0.00643087 7:1 13:1 15:1 17:1 20:1 21:0.288675 22:1 26:1 29:1 31:1 33:1 261:1 262:1 264:1 266:1 270:1 273:1 
1 1:1 3:0.106109 6:1 13:1 15:1 17:1 20:1 21:0.223607 22:1 26:1 29:1 31:1 33:1 261:1 262:1 264:1 266:1 270:1 273:1 
1 1:1 3:0.0096463 4:1 13:1 15:1 17:1 20:1 21:0.204124 22:1 26:1 29:1 32:1 33:1 261:1 262:1 264:1 266:1 270:1 273:1 
1 1:1 3:0.096463 6:1 14:1 16:1 17:1 20:1 21:0.912871 23:1 26:1 29:1 32:1 33:1 261:1 263:1 264:1 267:1 270:1 273:1 
1 1:1 3:0.0707395 12:1 14:1 16:1 18:1 20:1 21:1 23:1 25:1 29:1 30:1 33:1 261:1 262:1 264:1 266:1 269:1 272:1 
1 1:1 3:0.0418006 12:1 13:1 16:1 17:1 20:1 21:0.447214 22:1 26:1 29:1 30:1 33:1 261:1 262:1 264:1 266:1 270:1 272:1 
1 1:1 3:0.0707395 12:1 14:1 16:1 18:1 20:1 21:1 23:1 26:1 29:1 31:1 33:1 261:1 263:1 264:1 267:1 269:1 273:1 
1 1:1 3:0.0578778 12:1 14:1 16:1 18:1 20:1 21:1 23:1 26:1 29:1 32:1 33:1 261:1 263:1 264:1 267:1 269:1 273:1 
1 1:1 3:0.0289389 12:1 13:1 16:1 17:1 20:1 21:0.447214 22:1 26:1 29:1 30:1 33:1 261:1 262:1 264:1 266:1 270:1 272:1 
1 1:1 3:0.0128617 12:1 14:1 16:1 18:1 20:1 21:1 23:1 26:1 29:1 32:1 33:1 261:1 263:1 264:1 267:1 269:1 273:1 
1 1:1 3:0.138264 12:1 14:1 16:1 18:1 20:1 21:1 23:1 26:1 29:1 32:1 126:1 261:1 262:1 264:1 266:1 269:1 273:1 
1 1:1 3:0.00321543 12:1 14:1 16:1 17:1 20:1 21:0.816497 22:1 26:1 29:1 32:1 130:1 261:1 262:1 264:1 266:1 269:1 273:1 
1 1:1 3:0.135048 12:1 14:1 16:1 17:1 20:1 21:0.816497 22:1 26:1 29:1 32:1 126:1 261:1 262:1 264:1 266:1 269:1 273:1 
1 1:1 3:0.00643087 12:1 14:1 15:1 18:1 20:1 21:0.5 22:1 26:1 29:1 32:1 130:1 261:1 262:1 264:1 266:1 270:1 273:1 
1 1:1 3:0.241158 9:1 14:1 15:1 17:1 20:1 21:0.316228 22:1 26:1 29:1 32:1 125:1 261:1 262:1 264:1 266:1 270:1 273:1 
1 1:1 3:0.0192926 7:1 14:1 15:1 17:1 20:1 21:0.288675 22:1 26:1 29:1 32:1 130:1 261:1 262:1 264:1 266:1 270:1 273:1 
1 1:1 3:0.0160772 9:1 14:1 15:1 17:1 20:1 21:0.408248 22:1 26:1 29:1 32:1 130:1 261:1 262:1 264:1 266:1 270:1 273:1 
1 1:1 3:0.0096463 8:1 14:1 15:1 17:1 20:1 21:0.707107 22:1 26:1 29:1 32:1 130:1 261:1 262:1 264:1 266:1 270:1 273:1 
1 1:1 3:0.00643087 8:1 13:1 15:1 17:1 20:1 21:0.5 22:1 26:1 29:1 32:1 130:1 261:1 262:1 264:1 266:1 270:1 273:1 
1 1:1 3:0.234727 9:1 13:1 15:1 17:1 19:1 22:1 26:1 29:1 32:1 125:1 261:1 262:1 264:1 266:1 270:1 273:1 
1 1:1 3:0.0128617 7:1 13:1 15:1 17:1 19:1 22:1 26:1 29:1 32:1 130:1 261:1 262:1 264:1 266:1 270:1 273:1 
1 1:1 3:0.0096463 9:1 13:1 15:1 17:1 19:1 22:1 26:1 29:1 32:1 130:1 261:1 262:1 264:1 266:1 270:1 273:1 
1 1:1 3:0.00321543 8:1 13:1 15:1 17:1 20:1 21:0.353553 22:1 26:1 29:1 32:1 130:1 261:1 262:1 264:1 266:1 270:1 273:1 
1 1:1 3:0.231511 9:1 14:1 15:1 17:1 20:1 21:0.447214 22:1 26:1 29:1 32:1 125:1 261:1 262:1 264:1 266:1 270:1 273:1 
1 1:1 3:0.0096463 7:1 14:1 15:1 17:1 20:1 21:0.612372 22:1 26:1 29:1 31:1 130:1 261:1 262:1 264:1 266:1 270:1 273:1 
1 1:1 3:0.00643087 9:1 14:1 15:1 17:1 20:1 21:0.57735 22:1 26:1 29:1 31:1 130:1 261:1 262:1 264:1 266:1 270:1 273:1 
1 1:1 3:0.22508 12:1 14:1 15:1 17:1 20:1 21:0.258199 22:1 26:1 29:1 32:1 125:1 261:1 262:1 264:1 266:1 270:1 273:1 
1 1:1 3:0.00321543 10:1 14:1 15:1 17:1 20:1 21:0.471405 22:1 26:1 29:1 31:1 130:1 261:1 262:1 264:1 266:1 270:1 273:1 
1 1:1 3:0.221865 6:1 14:1 15:1 17:1 20:1 21:0.365148 22:1 26:1 29:1 32:1 125:1 261:1 262:1 264:1 266:1 270:1 273:1 
1 1:1 3:0.00643087 10:1 14:1 16:1 17:1 20:1 21:0.816497 23:1 26:1 29:1 31:1 65:1 261:1 262:1 264:1 266:1 270:1 272:1 
1 1:1 3:0.102894 10:1 14:1 16:1 17:1 20:1 21:0.816497 23:1 26:1 29:1 32:1 126:1 261:1 263:1 264:1 267:1 270:1 273:1 
1 1:1 6:1 14:1 16:1 17:1 20:1 21:0.866025 23:1 26:1 29:1 32:1 194:1 261:1 263:1 264:1 267:1 269:1 273:1 
1 1:1 3:0.0900322 12:1 14:1 16:1 18:1 20:1 21:1 23:1 26:1 28:1 32:1 190:1 261:1 262:1 264:1 266:1 270:1 273:1 
1 1:1 3:0.0257235 12:1 14:1 16:1 18:1 20:1 21:1 23:1 26:1 28:1 32:1 196:1 261:1 262:1 264:1 266:1 270:1 273:1 
1 1:1 3:0.0643087 12:1 14:1 16:1 18:1 20:1 21:1 23:1 26:1 28:1 32:1 220:1 261:1 262:1 264:1 266:1 270:1 273:1 
1 2:1 3:0.14791 11:1 14:1 16:1 17:1 20:1 21:0.816497 23:1 26:1 29:1 32:1 220:1 261:1 263:1 264:1 267:1 269:1 273:1 
1 1:1 3:0.0900322 12:1 14:1 16:1 18:1 20:1 21:1 23:1 26:1 29:1 32:1 130:1 261:1 262:1 264:1 266:1 269:1 273:1 
1 1:1 3:0.0932476 10:1 13:1 16:1 17:1 20:1 21:0.707107 23:1 26:1 29:1 32:1 130:1 261:1 263:1 264:1 267:1 270:1 273:1 
1 1:1 3:0.00321543 9:1 13:1 15:1 17:1 19:1 22:1 26:1 29:1 32:1 130:1 261:1 262:1 264:1 266:1 270:1 273:1 
1 2:1 3:0.241158 11:1 13:1 16:1 17:1 20:1 21:0.707107 23:1 26:1 29:1 30:1 134:1 261:1 263:1 265:1 267:1 270:1 272:1 
1 2:1 3:0.0836013 11:1 13:1 16:1 17:1 20:1 21:0.707107 23:1 26:1 29:1 32:1 129:1 261:1 263:1 265:1 267:1 270:1 272:1 
1 2:1 12:1 13:1 16:1 17:1 20:1 21:1 23:1 26:1 29:1 31:1 130:1 259:1 263:1 265:1 267:1 270:1 272:1 
1 2:1 3:0.241158 11:1 13:1 16:1 17:1 20:1 21:0.707107 23:1 26:1 29:1 30:1 134:1 261:1 263:1 265:1 267:1 270:1 272:1 
1 2:1 3:0.0836013 11:1 13:1 16:1 17:1 20:1 21:0.707107 23:1 26:1 29:1 32:1 129:1 261:1 263:1 265:1 267:1 270:1 272:1 
1 1:1 3:0.0868167 10:1 14:1 16:1 17:1 20:1 21:0.816497 23:1 26:1 29:1 32:1 129:1 261:1 263:1 264:1 267:1 269:1 273:1 
1 1:1 3:0.157556 12:1 14:1 16:1 17:1 20:1 21:0.816497 22:1 26:1 29:1 32:1 134:1 261:1 262:1 264:1 266:1 269:1 273:1 
1 1:1 3:0.151125 12:1 14:1 16:1 17:1 20:1 21:0.816497 22:1 26:1 29:1 30:1 134:1 261:1 262:1 264:1 266:1 269:1 273:1 
1 2:1 3:0.157556 8:1 14:1 16:1 18:1 20:1 21:1 23:1 26:1 29:1 32:1 119:1 261:1 263:1 265:1 267:1 270:1 272:1 
1 1:1 3:0.00643087 12:1 14:1 16:1 18:1 20:1 21:1 23:1 26:1 29:1 32:1 194:1 261:1 262:1 264:1 266:1 269:1 273:1 
1 2:1 3:0.00321543 8:1 14:1 16:1 18:1 20:1 21:1 23:1 26:1 29:1 32:1 130:1 261:1 263:1 264:1 267:1 270:1 273:1 
1 1:1 3:0.0836013 12:1 13:1 16:1 17:1 20:1 21:1 23:1 26:1 29:1 32:1 125:1 261:1 262:1 264:1 266:1 270:1 273:1 
1 1:1 3:0.344051 9:1 14:1 15:1 17:1 20:1 21:0.8 22:1 26:1 29:1 32:1 125:1 261:1 262:1 264:1 266:1 270:1 273:1 
1 1:1 3:0.0643087 9:1 14:1 15:1 17:1 20:1 21:0.8 22:1 26:1 29:1 32:1 129:1 261:1 262:1 264:1 266:1 270:1 273:1 
1 2:1 3:0.327974 12:1 13:1 16:1 17:1 20:1 21:1 23:1 26:1 29:1 32:1 125:1 261:1 263:1 264:1 267:1 270:1 272:1 
1 2:1 3:0.0192926 12:1 13:1 16:1 17:1 20:1 21:1 23:1 26:1 29:1 32:1 129:1 261:1 263:1 264:1 267:1 270:1 272:1 
1 2:1 3:0.0096463 11:1 13:1 16:1 17:1 20:1 21:0.707107 23:1 26:1 29:1 32:1 129:1 261:1 263:1 264:1 267:1 270:1 272:1 
1 1:1 3:0.327974 12:1 14:1 16:1 18:1 20:1 21:1 23:1 26:1 29:1 32:1 125:1 261:1 262:1 264:1 266:1 270:1 272:1 
1 1:1 3:0.0385852 12:1 14:1 16:1 18:1 20:1 21:1 23:1 26:1 29:1 32:1 129:1 261:1 262:1 264:1 266:1 270:1 272:1 
1 1:1 3:0.327974 12:1 14:1 16:1 18:1 20:1 21:1 23:1 26:1 29:1 32:1 125:1 261:1 262:1 264:1 266:1 270:1 273:1 
1 1:1 3:0.0450161 12:1 14:1 16:1 18:1 20:1 21:1 23:1 26:1 29:1 32:1 129:1 261:1 262:1 264:1 266:1 270:1 273:1 
1 1:1 3:0.327974 12:1 14:1 16:1 18:1 20:1 21:1 23:1 26:1 29:1 32:1 125:1 261:1 262:1 264:1 266:1 269:1 273:1 
1 1:1 3:0.0482315 12:1 14:1 16:1 18:1 20:1 21:1 23:1 26:1 29:1 32:1 129:1 261:1 262:1 264:1 266:1 269:1 273:1 
1 2:1 3:0.318328 9:1 13:1 16:1 17:1 20:1 21:0.707107 23:1 26:1 29:1 32:1 110:1 261:1 263:1 264:1 267:1 270:1 272:1 
1 2:1 3:0.0096463 9:1 13:1 16:1 17:1 20:1 21:0.707107 23:1 26:1 29:1 32:1 114:1 261:1 263:1 264:1 267:1 270:1 272:1 
1 2:1 3:0.308682 12:1 13:1 16:1 17:1 20:1 21:1 23:1 26:1 29:1 32:1 110:1 261:1 263:1 264:1 267:1 270:1 272:1 
1 1:1 3:0.302251 12:1 14:1 16:1 18:1 20:1 21:1 23:1 26:1 29:1 32:1 110:1 261:1 263:1 264:1 267:1 270:1 273:1 
1 2:1 3:0.29582 12:1 13:1 16:1 17:1 20:1 21:1 23:1 26:1 29:1 32:1 110:1 261:1 263:1 264:1 267:1 270:1 272:1 
1 1:1 3:0.289389 12:1 14:1 16:1 18:1 20:1 21:1 23:1 26:1 29:1 32:1 110:1 261:1 262:1 264:1 266:1 270:1 272:1 
1 1:1 3:0.282958 12:1 14:1 16:1 18:1 20:1 21:1 23:1 26:1 29:1 32:1 110:1 261:1 262:1 264:1 266:1 270:1 273:1 
1 1:1 3:0.279743 12:1 14:1 16:1 18:1 20:1 21:1 23:1 26:1 29:1 32:1 110:1 261:1 262:1 264:1 266:1 269:1 273:1 
1 1:1 3:0.279743 12:1 14:1 16:1 17:1 20:1 21:0.707107 23:1 26:1 29:1 32:1 110:1 261:1 262:1 264:1 266:1 270:1 272:1 
1 1:1 3:0.279743 12:1 14:1 16:1 18:1 20:1 21:1 23:1 26:1 29:1 32:1 110:1 261:1 262:1 264:1 266:1 269:1 273:1 
1 1:1 3:0.270096 6:1 14:1 15:1 17:1 20:1 21:0.75 22:1 26:1 29:1 32:1 110:1 261:1 262:1 264:1 266:1 270:1 271:1 
1 2:1 3:0.102894 7:1 14:1 15:1 17:1 20:1 21:0.666667 23:1 26:1 29:1 32:1 126:1 261:1 263:1 264:1 267:1 270:1 273:1 
1 1:1 3:0.192926 12:1 14:1 16:1 17:1 20:1 21:1 23:1 26:1 29:1 32:1 125:1 261:1 262:1 264:1 266:1 270:1 273:1 
1 2:1 3:0.192926 12:1 14:1 16:1 17:1 20:1 21:1 23:1 26:1 29:1 32:1 125:1 261:1 263:1 264:1 267:1 270:1 273:1 
1 1:1 3:0.228296 9:1 14:1 16:1 17:1 20:1 21:0.816497 23:1 26:1 29:1 32:1 126:1 261:1 263:1 264:1 267:1 269:1 273:1 
1 1:1 3:0.0321543 9:1 14:1 16:1 17:1 20:1 21:0.816497 23:1 26:1 29:1 32:1 130:1 261:1 263:1 264:1 267:1 269:1 273:1 
1 1:1 3:0.196141 12:1 14:1 16:1 18:1 20:1 21:1 23:1 26:1 29:1 32:1 126:1 261:1 263:1 264:1 267:1 269:1 273:1 
1 1:1 3:0.106109 12:1 14:1 15:1 17:1 20:1 21:0.730297 22:1 26:1 29:1 32:1 125:1 261:1 262:1 264:1 266:1 268:1 272:1 
1 1:1 3:0.0160772 9:1 13:1 16:1 17:1 20:1 21:0.57735 22:1 26:1 29:1 32:1 130:1 261:1 262:1 265:1 266:1 270:1 273:1 
1 1:1 3:0.022508 12:1 13:1 15:1 17:1 20:1 21:0.5 22:1 26:1 29:1 32:1 130:1 261:1 262:1 264:1 266:1 269:1 273:1 
1 1:1 3:0.0450161 9:1 14:1 16:1 17:1 20:1 21:0.816497 23:1 26:1 29:1 32:1 130:1 261:1 263:1 264:1 267:1 269:1 273:1 
1 1:1 3:0.0418006 8:1 14:1 16:1 18:1 20:1 21:1 23:1 26:1 29:1 32:1 130:1 261:1 263:1 264:1 267:1 269:1 273:1 
1 1:1 3:0.0321543 8:1 14:1 16:1 18:1 20:1 21:1 23:1 26:1 29:1 32:1 130:1 261:1 263:1 264:1 267:1 269:1 273:1 
1 1:1 3:0.0096463 8:1 14:1 16:1 18:1 20:1 21:1 23:1 26:1 29:1 30:1 130:1 261:1 263:1 264:1 267:1 269:1 273:1 
1 1:1 3:0.0128617 9:1 13:1 15:1 17:1 19:1 22:1 26:1 29:1 30:1 130:1 261:1 262:1 264:1 266:1 270:1 273:1 
1 1:1 3:0.00321543 10:1 13:1 15:1 17:1 19:1 22:1 26:1 29:1 31:1 130:1 261:1 262:1 264:1 266:1 270:1 273:1 
1 1:1 3:0.0353698 9:1 14:1 16:1 17:1 20:1 21:0.816497 23:1 26:1 29:1 32:1 130:1 261:1 263:1 264:1 267:1 269:1 273:1 
1 1:1 3:0.0321543 8:1 14:1 16:1 18:1 20:1 21:1 23:1 26:1 29:1 32:1 130:1 261:1 263:1 264:1 267:1 269:1 273:1 
1 1:1 3:0.022508 8:1 14:1 16:1 18:1 20:1 21:1 23:1 26:1 29:1 32:1 130:1 261:1 263:1 264:1 267:1 269:1 273:1 
1 1:1 3:0.0128617 9:1 14:1 16:1 17:1 20:1 21:0.816497 23:1 26:1 29:1 32:1 130:1 261:1 263:1 264:1 267:1 269:1 273:1 
1 1:1 3:0.0096463 8:1 14:1 16:1 18:1 20:1 21:1 23:1 26:1 29:1 32:1 130:1 261:1 263:1 264:1 267:1 269:1 273:1 
1 1:1 3:0.00321543 9:1 14:1 16:1 17:1 20:1 21:0.816497 23:1 26:1 29:1 32:1 130:1 261:1 263:1 264:1 267:1 269:1 273:1 
1 1:1 3:0.0707395 12:1 13:1 15:1 17:1 20:1 21:0.408248 22:1 26:1 29:1 32:1 96:1 259:1 262:1 264:1 266:1 270:1 273:1 
1 1:1 3:0.0996785 9:1 14:1 15:1 17:1 20:1 21:0.316228 22:1 26:1 29:1 32:1 33:1 261:1 262:1 264:1 266:1 270:1 273:1 
1 1:1 3:0.0289389 7:1 13:1 15:1 17:1 20:1 21:0.267261 22:1 26:1 29:1 32:1 33:1 261:1 262:1 264:1 266:1 270:1 273:1 
1 1:1 3:0.0257235 8:1 13:1 15:1 17:1 20:1 21:0.5 22:1 26:1 29:1 32:1 33:1 261:1 262:1 264:1 266:1 270:1 273:1 
1 1:1 3:0.073955 9:1 13:1 15:1 17:1 19:1 22:1 26:1 29:1 30:1 33:1 261:1 262:1 264:1 266:1 270:1 273:1 
1 1:1 3:0.00321543 7:1 13:1 15:1 17:1 19:1 22:1 26:1 29:1 31:1 33:1 261:1 262:1 264:1 266:1 270:1 273:1 
1 1:1 3:0.0707395 6:1 13:1 15:1 17:1 20:1 21:0.676123 22:1 25:1 29:1 30:1 33:1 261:1 262:1 264:1 266:1 270:1 273:1 
1 1:1 3:0.131833 4:1 13:1 15:1 17:1 20:1 21:0.288675 22:1 26:1 29:1 32:1 190:1 261:1 262:1 264:1 266:1 270:1 273:1 
1 1:1 3:0.128617 5:1 13:1 15:1 17:1 19:1 22:1 26:1 29:1 32:1 190:1 261:1 262:1 264:1 266:1 270:1 273:1 
1 1:1 3:0.00321543 7:1 14:1 15:1 17:1 20:1 21:0.408248 22:1 26:1 29:1 32:1 130:1 261:1 262:1 264:1 266:1 270:1 273:1 
1 1:1 3:0.00321543 7:1 14:1 15:1 17:1 20:1 21:0.408248 22:1 26:1 29:1 31:1 130:1 261:1 262:1 265:1 267:1 270:1 273:1 
1 1:1 3:0.228296 12:1 14:1 16:1 17:1 20:1 21:1 23:1 26:1 29:1 31:1 126:1 261:1 262:1 264:1 266:1 270:1 273:1 
1 1:1 3:0.00643087 12:1 13:1 15:1 17:1 20:1 21:0.316228 22:1 26:1 29:1 30:1 98:1 261:1 262:1 264:1 266:1 270:1 273:1 
1 1:1 3:0.0385852 12:1 13:1 15:1 17:1 19:1 22:1 26:1 29:1 32:1 130:1 261:1 262:1 264:1 266:1 270:1 273:1 
1 1:1 3:0.0482315 12:1 14:1 15:1 17:1 20:1 21:0.632456 22:1 26:1 29:1 32:1 125:1 261:1 262:1 264:1 266:1 269:1 273:1 
1 1:1 3:0.00321543 12:1 14:1 16:1 18:1 20:1 21:1 23:1 26:1 29:1 32:1 66:1 261:1 263:1 264:1 267:1 269:1 273:1 
1 1:1 3:0.00321543 7:1 14:1 15:1 17:1 20:1 21:0.353553 22:1 26:1 29:1 32:1 66:1 261:1 262:1 264:1 266:1 270:1 273:1 
1 1:1 3:0.125402 12:1 14:1 16:1 18:1 20:1 21:1 23:1 26:1 29:1 31:1 125:1 261:1 262:1 264:1 266:1 270:1 272:1 
1 1:1 3:0.125402 12:1 14:1 16:1 18:1 20:1 21:1 23:1 26:1 29:1 31:1 125:1 261:1 262:1 264:1 266:1 270:1 272:1 
1 1:1 3:0.125402 12:1 14:1 16:1 18:1 20:1 21:1 23:1 26:1 29:1 31:1 125:1 261:1 262:1 264:1 266:1 270:1 272:1 
1 1:1 3:0.122186 12:1 14:1 16:1 18:1 20:1 21:1 23:1 25:1 29:1 31:1 125:1 261:1 263:1 264:1 267:1 269:1 272:1 
1 1:1 3:0.163987 12:1 13:1 15:1 18:1 20:1 21:0.5 22:1 26:1 29:1 30:1 125:1 261:1 263:1 264:1 267:1 269:1 272:1 
1 1:1 3:0.00321543 10:1 14:1 16:1 17:1 20:1 21:0.707107 22:1 26:1 29:1 31:1 130:1 261:1 262:1 264:1 266:1 269:1 272:1 
1 1:1 3:0.160772 6:1 13:1 15:1 17:1 20:1 21:0.353553 22:1 26:1 29:1 30:1 125:1 261:1 262:1 264:1 266:1 269:1 272:1 
1 2:1 3:0.102894 8:1 14:1 16:1 18:1 20:1 21:1 23:1 26:1 29:1 32:1 111:1 261:1 263:1 265:1 267:1 270:1 272:1 
1 1:1 3:0.0803859 12:1 14:1 16:1 18:1 20:1 21:1 23:1 26:1 29:1 32:1 125:1 261:1 262:1 264:1 266:1 269:1 273:1 
1 2:1 3:0.00321543 9:1 13:1 16:1 17:1 20:1 21:0.707107 23:1 26:1 29:1 32:1 66:1 261:1 263:1 264:1 267:1 270:1 273:1 
1 2:1 3:0.209003 12:1 13:1 16:1 17:1 20:1 21:1 23:1 26:1 29:1 32:1 133:1 261:1 263:1 264:1 267:1 270:1 272:1 
1 1:1 3:0.0514469 6:1 14:1 15:1 17:1 20:1 21:0.707107 22:1 26:1 29:1 32:1 128:1 261:1 262:1 264:1 266:1 269:1 273:1 
1 1:1 3:0.0771704 6:1 14:1 15:1 17:1 20:1 21:0.632456 22:1 26:1 29:1 32:1 128:1 261:1 262:1 264:1 266:1 269:1 273:1 
1 1:1 3:0.0128617 6:1 13:1 16:1 17:1 20:1 21:0.632456 22:1 26:1 29:1 32:1 130:1 261:1 262:1 264:1 266:1 270:1 273:1 
1 2:1 3:0.0353698 12:1 13:1 16:1 17:1 20:1 21:1 23:1 26:1 29:1 30:1 128:1 261:1 263:1 265:1 267:1 270:1 273:1 
1 1:1 3:0.0643087 12:1 13:1 15:1 17:1 20:1 21:0.5 22:1 26:1 29:1 30:1 128:1 261:1 262:1 264:1 266:1 270:1 273:1 
1 1:1 3:0.0418006 12:1 13:1 16:1 17:1 20:1 21:1 23:1 26:1 29:1 31:1 98:1 261:1 262:1 264:1 266:1 270:1 273:1 
1 1:1 3:0.0418006 12:1 14:1 16:1 17:1 20:1 21:1 23:1 26:1 28:1 31:1 98:1 261:1 263:1 264:1 267:1 270:1 273:1 
1 2:1 3:0.0418006 12:1 13:1 16:1 17:1 20:1 21:1 23:1 26:1 28:1 31:1 98:1 261:1 263:1 264:1 267:1 270:1 273:1 
1 2:1 3:0.0418006 12:1 14:1 16:1 17:1 20:1 21:1 23:1 26:1 28:1 31:1 98:1 261:1 263:1 264:1 267:1 270:1 273:1 
1 1:1 3:0.0418006 12:1 13:1 16:1 17:1 20:1 21:1 23:1 26:1 28:1 31:1 98:1 261:1 262:1 264:1 266:1 270:1 273:1 
1 1:1 3:0.0418006 12:1 13:1 16:1 17:1 20:1 21:1 23:1 26:1 29:1 31:1 98:1 261:1 262:1 264:1 266:1 270:1 273:1 
1 2:1 3:0.0418006 12:1 13:1 16:1 17:1 20:1 21:1 23:1 26:1 28:1 31:1 98:1 261:1 263:1 264:1 267:1 270:1 273:1 
1 1:1 3:0.0450161 12:1 14:1 16:1 18:1 20:1 21:1 23:1 26:1 28:1 31:1 98:1 261:1 262:1 264:1 266:1 270:1 273:1 
1 1:1 3:0.0450161 12:1 14:1 16:1 17:1 20:1 21:1 23:1 26:1 28:1 31:1 98:1 261:1 262:1 264:1 266:1 270:1 273:1 
1 1:1 3:0.0450161 12:1 14:1 16:1 17:1 20:1 21:1 23:1 26:1 28:1 31:1 98:1 261:1 262:1 264:1 266:1 270:1 273:1 
1 1:1 3:0.0450161 12:1 14:1 16:1 17:1 20:1 21:1 23:1 26:1 28:1 31:1 98:1 261:1 262:1 264:1 266:1 270:1 273:1 
1 1:1 3:0.0450161 12:1 14:1 16:1 17:1 20:1 21:1 23:1 26:1 28:1 31:1 98:1 261:1 262:1 264:1 266:1 270:1 273:1 
1 1:1 3:0.0450161 12:1 13:1 16:1 17:1 20:1 21:1 23:1 26:1 28:1 31:1 98:1 261:1 263:1 264:1 267:1 270:1 273:1 
1 1:1 3:0.0450161 12:1 14:1 16:1 17:1 20:1 21:1 23:1 26:1 28:1 31:1 98:1 261:1 263:1 265:1 267:1 270:1 273:1 
1 2:1 3:0.0450161 12:1 14:1 16:1 17:1 20:1 21:1 23:1 26:1 29:1 31:1 98:1 261:1 262:1 264:1 266:1 270:1 273:1 
1 2:1 3:0.0450161 12:1 14:1 16:1 17:1 20:1 21:1 23:1 26:1 28:1 31:1 98:1 261:1 262:1 264:1 266:1 270:1 273:1 
1 1:1 3:0.00321543 8:1 14:1 16:1 18:1 20:1 21:1 23:1 26:1 29:1 32:1 130:1 261:1 263:1 264:1 267:1 270:1 273:1 
1 1:1 3:0.241158 12:1 13:1 16:1 17:1 20:1 21:1 23:1 26:1 29:1 32:1 126:1 261:1 262:1 264:1 266:1 270:1 273:1 
1 2:1 3:0.241158 8:1 14:1 16:1 18:1 20:1 21:1 23:1 26:1 29:1 32:1 126:1 261:1 263:1 264:1 267:1 270:1 273:1 
1 2:1 3:0.241158 8:1 14:1 16:1 18:1 20:1 21:1 23:1 26:1 29:1 32:1 126:1 261:1 263:1 264:1 267:1 270:1 273:1 
1 1:1 3:0.122186 7:1 13:1 15:1 17:1 20:1 21:0.745356 23:1 26:1 29:1 32:1 126:1 261:1 262:1 264:1 266:1 270:1 273:1 
1 1:1 3:0.0643087 8:1 14:1 15:1 17:1 20:1 21:0.353553 22:1 26:1 29:1 32:1 129:1 261:1 262:1 264:1 266:1 270:1 273:1 
1 1:1 3:0.0385852 10:1 14:1 16:1 17:1 20:1 21:0.866025 23:1 26:1 29:1 32:1 235:1 261:1 262:1 264:1 266:1 269:1 273:1 
1 1:1 3:0.0803859 9:1 13:1 15:1 17:1 19:1 22:1 26:1 29:1 32:1 130:1 261:1 262:1 264:1 266:1 270:1 273:1 
1 2:1 3:0.0257235 9:1 14:1 16:1 17:1 20:1 21:0.816497 23:1 26:1 29:1 32:1 130:1 261:1 263:1 264:1 267:1 269:1 273:1 
1 1:1 3:0.00321543 7:1 14:1 15:1 17:1 20:1 21:0.666667 23:1 26:1 29:1 32:1 130:1 261:1 263:1 264:1 267:1 270:1 273:1 
1 1:1 3:0.141479 10:1 14:1 16:1 17:1 20:1 21:0.707107 22:1 26:1 29:1 32:1 111:1 261:1 262:1 264:1 266:1 270:1 273:1 
1 2:1 3:0.0450161 8:1 14:1 16:1 18:1 20:1 21:1 23:1 26:1 29:1 32:1 128:1 261:1 263:1 265:1 267:1 270:1 273:1 
1 1:1 3:0.0418006 12:1 13:1 16:1 17:1 20:1 21:1 23:1 26:1 29:1 32:1 128:1 261:1 263:1 264:1 267:1 270:1 273:1 
1 1:1 3:0.163987 12:1 14:1 16:1 18:1 20:1 21:1 23:1 26:1 29:1 32:1 126:1 261:1 263:1 264:1 267:1 269:1 273:1 
1 1:1 3:0.160772 12:1 14:1 16:1 18:1 20:1 21:1 23:1 26:1 29:1 32:1 126:1 261:1 263:1 264:1 267:1 269:1 273:1 
1 2:1 3:0.170418 4:1 14:1 16:1 17:1 20:1 21:0.707107 23:1 26:1 29:1 32:1 111:1 259:1 263:1 264:1 267:1 270:1 273:1 
1 1:1 12:1 13:1 15:1 17:1 19:1 22:1 26:1 29:1 32:1 98:1 261:1 262:1 264:1 266:1 270:1 273:1 
1 1:1 3:0.00321543 12:1 14:1 16:1 18:1 20:1 21:1 23:1 26:1 29:1 32:1 66:1 261:1 263:1 264:1 267:1 269:1 273:1 
1 1:1 3:0.266881 12:1 14:1 16:1 18:1 20:1 21:1 23:1 26:1 29:1 32:1 205:1 261:1 262:1 264:1 266:1 270:1 273:1 
1 1:1 3:0.221865 11:1 13:1 15:1 17:1 20:1 21:0.333333 22:1 26:1 29:1 32:1 205:1 261:1 262:1 264:1 266:1 270:1 273:1 
1 1:1 3:0.0450161 9:1 13:1 15:1 17:1 20:1 21:0.333333 22:1 26:1 29:1 32:1 130:1 261:1 262:1 264:1 266:1 270:1 273:1 
1 2:1 3:0.118971 12:1 13:1 16:1 17:1 20:1 21:1 23:1 26:1 29:1 30:1 130:1 261:1 263:1 264:1 267:1 270:1 272:1 
1 1:1 3:0.186495 12:1 13:1 15:1 17:1 20:1 21:0.5 22:1 26:1 29:1 32:1 96:1 261:1 262:1 264:1 266:1 270:1 273:1 
1 1:1 3:0.0160772 12:1 13:1 16:1 17:1 20:1 21:1 23:1 26:1 29:1 32:1 66:1 261:1 263:1 264:1 266:1 270:1 273:1 
1 1:1 12:1 14:1 16:1 17:1 20:1 21:1 23:1 26:1 29:1 32:1 130:1 261:1 262:1 264:1 266:1 270:1 273:1 
1 1:1 3:0.00321543 7:1 14:1 15:1 17:1 20:1 21:0.5 23:1 26:1 29:1 31:1 130:1 261:1 263:1 264:1 267:1 270:1 273:1 
1 2:1 3:0.122186 12:1 13:1 16:1 17:1 20:1 21:1 23:1 26:1 29:1 32:1 129:1 261:1 262:1 264:1 266:1 270:1 273:1 
1 1:1 3:0.00321543 8:1 14:1 16:1 18:1 20:1 21:1 23:1 26:1 29:1 31:1 130:1 261:1 263:1 264:1 267:1 270:1 273:1 
1 1:1 3:0.0192926 9:1 14:1 15:1 17:1 20:1 21:0.353553 22:1 26:1 29:1 32:1 130:1 261:1 262:1 264:1 266:1 270:1 273:1 
1 2:1 3:0.0160772 9:1 14:1 15:1 17:1 20:1 21:0.5 23:1 26:1 29:1 32:1 130:1 261:1 263:1 264:1 267:1 270:1 273:1 
1 1:1 3:0.0610932 9:1 14:1 15:1 18:1 20:1 21:0.5 22:1 26:1 29:1 32:1 130:1 261:1 262:1 264:1 266:1 270:1 273:1 
1 1:1 3:0.00321543 12:1 14:1 15:1 17:1 20:1 21:0.353553 22:1 26:1 29:1 31:1 130:1 261:1 262:1 264:1 266:1 270:1 273:1 
1 1:1 3:0.138264 9:1 13:1 15:1 17:1 20:1 21:0.316228 22:1 26:1 29:1 32:1 128:1 261:1 262:1 264:1 266:1 269:1 273:1 
1 1:1 3:0.0096463 9:1 13:1 15:1 17:1 20:1 21:0.5 22:1 26:1 29:1 32:1 130:1 261:1 263:1 264:1 267:1 270:1 273:1 
1 2:1 3:0.00321543 9:1 13:1 16:1 17:1 20:1 21:0.707107 23:1 26:1 29:1 32:1 130:1 261:1 263:1 264:1 267:1 270:1 272:1 
1 1:1 3:0.0900322 4:1 14:1 16:1 18:1 20:1 21:1 23:1 26:1 28:1 32:1 220:1 261:1 262:1 264:1 266:1 270:1 273:1 
1 1:1 3:0.00321543 7:1 13:1 15:1 17:1 20:1 21:0.353553 22:1 26:1 29:1 30:1 66:1 261:1 262:1 264:1 266:1 270:1 271:1 
1 2:1 3:0.0128617 8:1 14:1 16:1 18:1 20:1 21:1 23:1 26:1 29:1 30:1 130:1 261:1 263:1 264:1 267:1 270:1 273:1 
1 2:1 3:0.0128617 8:1 14:1 16:1 18:1 20:1 21:1 23:1 26:1 29:1 30:1 130:1 261:1 263:1 264:1 267:1 270:1 273:1 
1 2:1 3:0.0096463 8:1 14:1 16:1 18:1 20:1 21:1 23:1 26:1 29:1 30:1 130:1 261:1 263:1 264:1 267:1 270:1 273:1 
1 2:1 3:0.00643087 8:1 14:1 16:1 18:1 20:1 21:1 23:1 26:1 29:1 31:1 130:1 261:1 263:1 264:1 267:1 270:1 273:1 
1 2:1 3:0.00643087 9:1 13:1 16:1 17:1 20:1 21:0.707107 23:1 26:1 29:1 31:1 130:1 261:1 263:1 264:1 267:1 270:1 273:1 
1 2:1 3:0.00643087 11:1 13:1 16:1 17:1 20:1 21:0.707107 23:1 26:1 29:1 30:1 130:1 261:1 263:1 264:1 267:1 270:1 273:1 
1 2:1 3:0.00643087 11:1 13:1 16:1 17:1 20:1 21:0.707107 23:1 26:1 29:1 30:1 130:1 261:1 263:1 264:1 267:1 270:1 273:1 
1 2:1 3:0.00321543 11:1 13:1 16:1 17:1 20:1 21:0.707107 23:1 26:1 29:1 30:1 130:1 261:1 263:1 264:1 267:1 270:1 273:1 
1 2:1 11:1 13:1 16:1 17:1 20:1 21:0.707107 23:1 26:1 29:1 31:1 130:1 261:1 263:1 264:1 267:1 270:1 273:1 
1 2:1 3:0.00643087 8:1 14:1 16:1 18:1 20:1 21:1 23:1 26:1 29:1 30:1 130:1 261:1 263:1 264:1 267:1 270:1 273:1 
1 2:1 3:0.00643087 8:1 14:1 16:1 18:1 20:1 21:1 23:1 26:1 29:1 30:1 130:1 261:1 263:1 264:1 267:1 270:1 273:1 
1 2:1 3:0.00321543 8:1 14:1 16:1 18:1 20:1 21:1 23:1 26:1 29:1 30:1 130:1 261:1 263:1 264:1 267:1 270:1 273:1 
1 2:1 3:0.00321543 8:1 14:1 16:1 18:1 20:1 21:1 23:1 26:1 29:1 30:1 130:1 261:1 263:1 264:1 267:1 270:1 273:1 
1 2:1 3:0.00321543 8:1 14:1 16:1 18:1 20:1 21:1 23:1 26:1 29:1 30:1 130:1 261:1 263:1 264:1 267:1 270:1 273:1 
1 2:1 8:1 14:1 16:1 18:1 20:1 21:1 23:1 26:1 29:1 31:1 130:1 261:1 263:1 264:1 267:1 270:1 273:1 
1 1:1 3:0.62701 12:1 14:1 16:1 18:1 20:1 21:1 23:1 26:1 29:1 32:1 43:1 261:1 263:1 264:1 267:1 270:1 273:1 
1 1:1 3:0.167203 12:1 13:1 15:1 18:1 20:1 21:0.5 22:1 26:1 29:1 32:1 38:1 261:1 262:1 264:1 266:1 270:1 273:1 
1 1:1 3:0.459807 12:1 13:1 15:1 18:1 20:1 21:0.5 22:1 26:1 29:1 32:1 103:1 261:1 262:1 264:1 266:1 270:1 273:1 
1 1:1 3:0.00321543 7:1 14:1 15:1 17:1 20:1 21:0.666667 23:1 26:1 29:1 31:1 98:1 261:1 263:1 264:1 267:1 269:1 273:1 
1 1:1 3:0.141479 12:1 14:1 16:1 18:1 20:1 21:1 23:1 26:1 29:1 31:1 98:1 261:1 262:1 264:1 266:1 270:1 273:1 
1 1:1 3:0.11254 12:1 13:1 16:1 17:1 19:1 22:1 26:1 29:1 32:1 125:1 261:1 262:1 265:1 267:1 270:1 273:1 
1 1:1 3:0.0610932 12:1 13:1 15:1 17:1 19:1 22:1 26:1 29:1 32:1 130:1 261:1 262:1 264:1 266:1 270:1 273:1 
1 2:1 3:0.0418006 12:1 13:1 16:1 17:1 20:1 21:1 23:1 26:1 29:1 32:1 130:1 261:1 263:1 265:1 267:1 270:1 273:1 
1 1:1 3:0.0514469 12:1 14:1 16:1 17:1 20:1 21:1 23:1 26:1 29:1 32:1 130:1 261:1 262:1 264:1 266:1 270:1 273:1 
1 1:1 3:0.0996785 12:1 14:1 16:1 18:1 20:1 21:1 23:1 26:1 29:1 32:1 125:1 261:1 262:1 264:1 266:1 269:1 273:1 
1 1:1 3:0.0707395 12:1 13:1 16:1 17:1 19:1 22:1 26:1 29:1 32:1 125:1 261:1 262:1 265:1 267:1 270:1 273:1 
1 1:1 3:0.0192926 12:1 13:1 15:1 17:1 19:1 22:1 26:1 29:1 32:1 130:1 261:1 262:1 264:1 266:1 270:1 273:1 
1 1:1 3:0.0514469 12:1 13:1 15:1 17:1 19:1 22:1 26:1 29:1 32:1 125:1 261:1 262:1 264:1 266:1 270:1 273:1 
1 2:1 3:0.00643087 7:1 14:1 15:1 17:1 20:1 21:0.5 23:1 26:1 29:1 32:1 129:1 261:1 262:1 264:1 266:1 270:1 273:1 
1 2:1 3:0.250804 5:1 14:1 15:1 17:1 20:1 21:0.612372 23:1 26:1 29:1 31:1 125:1 261:1 263:1 264:1 267:1 270:1 273:1 
1 1:1 3:0.363344 12:1 13:1 15:1 17:1 19:1 22:1 26:1 29:1 32:1 128:1 261:1 262:1 264:1 266:1 270:1 273:1 
1 1:1 3:0.665595 10:1 14:1 15:1 17:1 20:1 21:0.316228 22:1 26:1 29:1 32:1 126:1 261:1 262:1 264:1 266:1 270:1 273:1 
1 1:1 3:0.382637 12:1 13:1 15:1 17:1 20:1 21:0.5 22:1 26:1 29:1 30:1 128:1 261:1 262:1 264:1 266:1 270:1 273:1 
1 1:1 3:0.672026 11:1 14:1 15:1 17:1 20:1 21:0.353553 22:1 26:1 29:1 30:1 126:1 261:1 262:1 264:1 266:1 270:1 273:1 
1 1:1 3:0.0192926 12:1 13:1 15:1 17:1 19:1 22:1 26:1 29:1 32:1 130:1 261:1 262:1 264:1 266:1 270:1 273:1 
1 1:1 3:0.282958 10:1 13:1 15:1 17:1 20:1 21:0.316228 22:1 26:1 29:1 32:1 96:1 261:1 262:1 264:1 266:1 268:1 273:1 
1 2:1 3:0.022508 12:1 13:1 16:1 17:1 20:1 21:1 23:1 26:1 29:1 31:1 98:1 261:1 263:1 264:1 267:1 269:1 273:1 
1 2:1 3:0.0160772 12:1 13:1 16:1 17:1 20:1 21:1 23:1 26:1 29:1 31:1 98:1 261:1 263:1 264:1 267:1 269:1 273:1 
1 2:1 3:0.00643087 12:1 13:1 16:1 17:1 20:1 21:1 23:1 26:1 29:1 31:1 98:1 261:1 263:1 264:1 267:1 269:1 273:1 
1 2:1 3:0.0160772 12:1 13:1 16:1 17:1 20:1 21:1 23:1 26:1 29:1 31:1 98:1 261:1 263:1 264:1 267:1 269:1 273:1 
1 2:1 3:0.0096463 12:1 13:1 16:1 17:1 20:1 21:1 23:1 26:1 29:1 31:1 98:1 261:1 263:1 264:1 267:1 269:1 273:1 
1 2:1 3:0.00643087 12:1 13:1 16:1 17:1 20:1 21:1 23:1 26:1 29:1 31:1 98:1 261:1 263:1 264:1 267:1 269:1 273:1 
1 1:1 3:0.00321543 12:1 13:1 16:1 17:1 20:1 21:1 23:1 26:1 29:1 32:1 82:1 261:1 262:1 264:1 266:1 270:1 273:1 
1 1:1 3:0.0321543 4:1 14:1 16:1 18:1 20:1 21:1 23:1 26:1 29:1 32:1 130:1 261:1 263:1 264:1 267:1 269:1 273:1 
1 2:1 3:0.196141 6:1 13:1 16:1 17:1 20:1 21:0.707107 23:1 26:1 29:1 32:1 128:1 261:1 263:1 264:1 267:1 270:1 273:1 
1 2:1 3:0.186495 5:1 14:1 15:1 17:1 20:1 21:0.5 23:1 26:1 29:1 32:1 128:1 261:1 263:1 264:1 267:1 270:1 273:1 
1 2:1 3:0.0096463 9:1 13:1 16:1 17:1 20:1 21:0.707107 23:1 26:1 29:1 32:1 98:1 261:1 263:1 264:1 267:1 270:1 273:1 
1 1:1 3:0.0289389 9:1 14:1 15:1 17:1 20:1 21:0.408248 22:1 26:1 29:1 32:1 130:1 261:1 262:1 264:1 266:1 270:1 273:1 
1 1:1 3:0.0353698 7:1 14:1 15:1 17:1 20:1 21:0.75 23:1 25:1 29:1 32:1 130:1 261:1 262:1 264:1 266:1 269:1 273:1 
1 1:1 3:0.0289389 9:1 14:1 16:1 17:1 20:1 21:0.866025 23:1 25:1 29:1 32:1 130:1 261:1 262:1 264:1 266:1 269:1 273:1 
1 1:1 3:0.00643087 10:1 14:1 16:1 17:1 20:1 21:0.866025 23:1 25:1 29:1 31:1 130:1 261:1 262:1 264:1 266:1 269:1 273:1 
1 1:1 3:0.00321543 12:1 13:1 15:1 17:1 19:1 22:1 26:1 29:1 31:1 130:1 261:1 262:1 264:1 266:1 270:1 273:1 
1 1:1 3:0.0289389 4:1 14:1 16:1 18:1 20:1 21:1 23:1 26:1 28:1 32:1 81:1 261:1 263:1 264:1 267:1 270:1 273:1 
1 1:1 3:0.0192926 12:1 14:1 16:1 17:1 20:1 21:1 23:1 26:1 29:1 32:1 128:1 261:1 262:1 264:1 266:1 270:1 273:1 
1 1:1 3:0.0610932 7:1 13:1 15:1 17:1 19:1 22:1 26:1 29:1 32:1 114:1 261:1 262:1 264:1 266:1 270:1 273:1 
1 1:1 3:0.199357 10:1 13:1 15:1 17:1 19:1 22:1 26:1 29:1 32:1 111:1 261:1 262:1 264:1 266:1 270:1 273:1 
1 1:1 3:0.0932476 10:1 14:1 16:1 17:1 20:1 21:0.57735 23:1 26:1 29:1 30:1 96:1 261:1 263:1 265:1 267:1 270:1 273:1 
1 1:1 3:0.0096463 9:1 13:1 15:1 17:1 19:1 22:1 26:1 29:1 32:1 130:1 261:1 262:1 264:1 266:1 270:1 273:1 
1 1:1 3:0.00321543 7:1 13:1 15:1 17:1 19:1 22:1 26:1 29:1 32:1 130:1 261:1 262:1 264:1 266:1 270:1 273:1 
1 1:1 3:0.00643087 6:1 14:1 16:1 17:1 20:1 21:0.894427 23:1 26:1 29:1 32:1 130:1 261:1 262:1 264:1 266:1 270:1 272:1 
1 1:1 3:0.0514469 7:1 14:1 15:1 17:1 20:1 21:0.353553 22:1 26:1 29:1 32:1 130:1 261:1 262:1 264:1 266:1 270:1 273:1 
1 1:1 3:0.102894 9:1 14:1 15:1 17:1 20:1 21:0.5 22:1 26:1 29:1 32:1 128:1 261:1 262:1 264:1 266:1 270:1 273:1 
1 1:1 3:0.215434 12:1 14:1 16:1 18:1 20:1 21:1 23:1 26:1 29:1 32:1 126:1 261:1 263:1 264:1 267:1 270:1 273:1 
1 1:1 3:0.167203 12:1 14:1 16:1 18:1 20:1 21:1 23:1 26:1 29:1 32:1 127:1 261:1 263:1 264:1 267:1 270:1 273:1 
1 1:1 3:0.215434 12:1 14:1 16:1 18:1 20:1 21:1 23:1 26:1 28:1 32:1 126:1 261:1 262:1 264:1 266:1 270:1 273:1 
1 1:1 3:0.167203 12:1 14:1 16:1 18:1 20:1 21:1 23:1 26:1 28:1 32:1 127:1 261:1 262:1 264:1 266:1 270:1 273:1 
1 1:1 3:0.0482315 12:1 14:1 16:1 18:1 20:1 21:1 23:1 26:1 29:1 32:1 81:1 261:1 263:1 264:1 267:1 270:1 273:1 
1 1:1 3:0.0482315 12:1 14:1 16:1 18:1 20:1 21:1 23:1 26:1 28:1 32:1 81:1 261:1 262:1 264:1 266:1 270:1 273:1 
1 1:1 3:0.0803859 10:1 14:1 16:1 17:1 20:1 21:0.866025 23:1 25:1 29:1 32:1 130:1 261:1 262:1 264:1 266:1 269:1 273:1 
1 1:1 3:0.0771704 10:1 14:1 16:1 17:1 20:1 21:0.866025 23:1 25:1 29:1 32:1 130:1 261:1 262:1 264:1 266:1 269:1 273:1 
1 1:1 3:0.0289389 4:1 14:1 16:1 17:1 20:1 21:0.707107 23:1 26:1 29:1 30:1 130:1 261:1 262:1 264:1 266:1 270:1 272:1 
1 1:1 3:0.00643087 4:1 13:1 15:1 17:1 20:1 21:0.258199 22:1 26:1 29:1 32:1 130:1 261:1 262:1 264:1 266:1 270:1 273:1 
1 1:1 3:0.00321543 4:1 14:1 16:1 18:1 20:1 21:1 23:1 25:1 29:1 32:1 130:1 261:1 262:1 264:1 266:1 269:1 273:1 
1 1:1 3:0.0450161 7:1 13:1 15:1 17:1 20:1 21:0.333333 22:1 26:1 29:1 32:1 130:1 261:1 262:1 264:1 266:1 270:1 273:1 
1 1:1 3:0.00643087 8:1 14:1 15:1 17:1 20:1 21:0.707107 23:1 26:1 29:1 32:1 130:1 261:1 262:1 264:1 266:1 268:1 273:1 
1 2:1 3:0.00321543 7:1 14:1 15:1 17:1 20:1 21:0.5 23:1 26:1 29:1 32:1 130:1 261:1 263:1 264:1 267:1 270:1 273:1 
1 1:1 3:0.209003 4:1 14:1 16:1 18:1 20:1 21:1 23:1 26:1 29:1 32:1 235:1 261:1 262:1 264:1 266:1 270:1 273:1 
1 2:1 3:0.221865 12:1 14:1 16:1 17:1 20:1 21:1 23:1 26:1 29:1 32:1 128:1 261:1 263:1 264:1 267:1 270:1 273:1 
1 2:1 3:0.0192926 12:1 14:1 16:1 17:1 20:1 21:1 23:1 26:1 29:1 32:1 130:1 261:1 263:1 264:1 267:1 270:1 273:1 
1 2:1 3:0.202572 12:1 14:1 16:1 17:1 20:1 21:1 23:1 26:1 29:1 32:1 128:1 261:1 263:1 264:1 267:1 270:1 273:1 
1 1:1 9:1 13:1 15:1 17:1 19:1 22:1 26:1 29:1 31:1 98:1 261:1 262:1 264:1 266:1 270:1 273:1 
1 1:1 3:0.26045 7:1 14:1 15:1 17:1 20:1 21:0.408248 22:1 26:1 29:1 30:1 96:1 261:1 262:1 264:1 266:1 270:1 273:1 
1 1:1 3:0.0257235 8:1 14:1 16:1 18:1 20:1 21:1 23:1 26:1 29:1 30:1 98:1 259:1 262:1 264:1 266:1 270:1 273:1 
1 1:1 3:0.234727 7:1 14:1 15:1 17:1 20:1 21:0.408248 22:1 26:1 29:1 30:1 96:1 261:1 262:1 264:1 266:1 270:1 273:1 
1 1:1 3:0.109325 12:1 14:1 16:1 18:1 20:1 21:1 23:1 26:1 29:1 32:1 111:1 261:1 263:1 264:1 267:1 269:1 273:1 
1 1:1 3:0.0900322 12:1 14:1 16:1 18:1 20:1 21:1 23:1 26:1 29:1 32:1 111:1 261:1 263:1 264:1 267:1 269:1 273:1 
1 1:1 3:0.0868167 11:1 14:1 15:1 17:1 20:1 21:0.5 22:1 26:1 29:1 32:1 111:1 261:1 262:1 265:1 267:1 270:1 273:1 
1 1:1 3:0.022508 9:1 14:1 15:1 17:1 20:1 21:0.5 22:1 26:1 29:1 32:1 66:1 261:1 262:1 265:1 267:1 270:1 273:1 
1 1:1 3:0.00321543 9:1 14:1 15:1 17:1 20:1 21:0.5 22:1 26:1 29:1 32:1 66:1 261:1 262:1 265:1 267:1 270:1 273:1 
1 1:1 3:0.0192926 12:1 14:1 16:1 18:1 20:1 21:1 23:1 26:1 29:1 32:1 66:1 261:1 263:1 264:1 267:1 269:1 273:1 
1 1:1 3:0.00643087 10:1 14:1 15:1 17:1 20:1 21:0.57735 22:1 26:1 29:1 32:1 130:1 261:1 262:1 264:1 266:1 269:1 273:1 
1 2:1 3:0.0771704 6:1 13:1 16:1 17:1 20:1 21:0.707107 23:1 26:1 29:1 32:1 126:1 261:1 263:1 264:1 267:1 270:1 272:1 
1 2:1 3:0.00321543 7:1 14:1 15:1 17:1 20:1 21:0.5 23:1 26:1 29:1 32:1 130:1 261:1 263:1 264:1 267:1 270:1 272:1 
1 1:1 3:0.141479 9:1 14:1 16:1 17:1 20:1 21:0.816497 23:1 26:1 29:1 32:1 126:1 261:1 263:1 264:1 267:1 269:1 273:1 
1 2:1 3:0.154341 6:1 13:1 16:1 17:1 20:1 21:0.707107 23:1 26:1 29:1 32:1 111:1 261:1 263:1 264:1 267:1 270:1 273:1 
1 1:1 3:0.00321543 4:1 13:1 15:1 17:1 19:1 22:1 26:1 29:1 31:1 130:1 261:1 262:1 264:1 266:1 270:1 273:1 
1 2:1 3:0.0514469 8:1 14:1 16:1 18:1 20:1 21:1 23:1 26:1 29:1 30:1 114:1 261:1 263:1 264:1 267:1 269:1 273:1 
1 1:1 3:0.157556 9:1 14:1 15:1 17:1 20:1 21:0.5 22:1 26:1 29:1 32:1 111:1 261:1 262:1 265:1 267:1 270:1 273:1 
1 1:1 3:0.00643087 9:1 14:1 15:1 17:1 20:1 21:0.5 22:1 26:1 29:1 32:1 114:1 261:1 262:1 265:1 267:1 270:1 273:1 
1 1:1 3:0.151125 12:1 14:1 16:1 18:1 20:1 21:1 23:1 26:1 29:1 32:1 111:1 261:1 263:1 264:1 267:1 269:1 273:1 
1 1:1 3:0.0160772 12:1 13:1 16:1 17:1 20:1 21:1 23:1 26:1 29:1 30:1 66:1 261:1 263:1 265:1 267:1 270:1 272:1 
1 1:1 3:0.0803859 4:1 14:1 15:1 17:1 20:1 21:0.612372 22:1 26:1 29:1 32:1 130:1 261:1 262:1 264:1 266:1 270:1 273:1 
1 1:1 3:0.0128617 9:1 14:1 16:1 17:1 20:1 21:0.816497 23:1 26:1 29:1 32:1 130:1 261:1 262:1 264:1 266:1 270:1 273:1 
1 1:1 3:0.0546624 6:1 13:1 15:1 17:1 19:1 22:1 26:1 29:1 32:1 128:1 261:1 262:1 264:1 266:1 270:1 273:1 
1 1:1 3:0.0289389 12:1 14:1 16:1 17:1 20:1 21:0.866025 22:1 25:1 29:1 30:1 66:1 261:1 262:1 264:1 266:1 269:1 273:1 
1 1:1 3:0.0803859 12:1 13:1 16:1 17:1 20:1 21:1 23:1 26:1 29:1 30:1 128:1 261:1 263:1 264:1 267:1 270:1 273:1 
1 1:1 3:0.0289389 12:1 13:1 15:1 17:1 19:1 22:1 26:1 29:1 32:1 128:1 261:1 262:1 264:1 266:1 270:1 273:1 
1 1:1 3:0.0643087 12:1 14:1 16:1 18:1 20:1 21:1 23:1 26:1 29:1 32:1 145:1 261:1 262:1 264:1 266:1 270:1 273:1 
1 2:1 9:1 13:1 16:1 17:1 20:1 21:0.707107 23:1 26:1 29:1 31:1 130:1 261:1 263:1 264:1 267:1 270:1 273:1 
1 1:1 12:1 13:1 15:1 17:1 19:1 22:1 26:1 29:1 31:1 130:1 261:1 262:1 264:1 266:1 270:1 273:1 
1 1:1 3:0.311897 12:1 14:1 16:1 17:1 20:1 21:1 23:1 26:1 29:1 32:1 133:1 261:1 262:1 264:1 266:1 270:1 273:1 
1 1:1 7:1 14:1 15:1 17:1 20:1 21:0.408248 22:1 26:1 29:1 32:1 130:1 261:1 262:1 264:1 266:1 270:1 273:1 
1 2:1 3:0.102894 6:1 13:1 16:1 17:1 20:1 21:0.707107 23:1 26:1 29:1 32:1 128:1 261:1 263:1 265:1 267:1 270:1 273:1 
1 1:1 3:0.209003 12:1 13:1 16:1 17:1 20:1 21:1 23:1 26:1 29:1 32:1 126:1 261:1 263:1 264:1 267:1 270:1 273:1 
1 1:1 3:0.0900322 12:1 13:1 15:1 17:1 19:1 22:1 26:1 29:1 32:1 128:1 261:1 262:1 264:1 266:1 270:1 273:1 
1 2:1 3:0.212219 12:1 13:1 16:1 17:1 20:1 21:1 23:1 26:1 29:1 32:1 126:1 261:1 262:1 264:1 266:1 270:1 273:1 
1 2:1 3:0.0803859 12:1 13:1 16:1 17:1 20:1 21:1 23:1 26:1 29:1 32:1 128:1 261:1 262:1 264:1 266:1 270:1 273:1 
1 2:1 3:0.131833 12:1 13:1 16:1 17:1 20:1 21:1 23:1 26:1 29:1 32:1 96:1 261:1 262:1 264:1 266:1 270:1 273:1 
1 1:1 3:0.118971 12:1 13:1 15:1 17:1 19:1 22:1 26:1 29:1 32:1 96:1 261:1 262:1 264:1 266:1 270:1 273:1 
1 2:1 3:0.0192926 12:1 13:1 16:1 17:1 20:1 21:1 23:1 26:1 29:1 30:1 130:1 261:1 263:1 264:1 267:1 270:1 272:1 
1 1:1 3:0.0321543 10:1 13:1 16:1 17:1 20:1 21:0.408248 22:1 26:1 29:1 32:1 130:1 261:1 262:1 265:1 267:1 270:1 273:1 
1 2:1 3:0.022508 12:1 13:1 16:1 17:1 20:1 21:1 23:1 26:1 29:1 32:1 130:1 261:1 263:1 264:1 267:1 270:1 273:1 
1 1:1 3:0.0096463 10:1 13:1 16:1 17:1 20:1 21:0.408248 22:1 26:1 29:1 32:1 130:1 261:1 262:1 265:1 267:1 270:1 273:1 
1 1:1 3:0.073955 5:1 13:1 15:1 17:1 20:1 21:0.447214 22:1 26:1 29:1 32:1 125:1 261:1 262:1 264:1 266:1 269:1 273:1 
1 1:1 3:0.0707395 12:1 13:1 16:1 17:1 20:1 21:0.707107 22:1 26:1 29:1 32:1 125:1 261:1 262:1 264:1 266:1 270:1 273:1 
1 1:1 3:0.0353698 12:1 14:1 16:1 18:1 20:1 21:1 23:1 26:1 29:1 32:1 125:1 261:1 263:1 264:1 267:1 269:1 273:1 
1 1:1 3:0.0096463 12:1 14:1 16:1 18:1 20:1 21:1 23:1 26:1 29:1 31:1 130:1 261:1 263:1 264:1 267:1 269:1 273:1 
1 1:1 3:0.0257235 12:1 14:1 16:1 18:1 20:1 21:1 23:1 26:1 29:1 32:1 125:1 261:1 263:1 264:1 267:1 269:1 273:1 
1 2:1 3:0.00321543 4:1 14:1 16:1 18:1 20:1 21:1 23:1 26:1 29:1 32:1 146:1 261:1 263:1 264:1 267:1 270:1 273:1 
1 1:1 3:0.144695 9:1 14:1 16:1 17:1 20:1 21:0.866025 23:1 26:1 29:1 32:1 126:1 261:1 263:1 264:1 267:1 269:1 273:1 
1 1:1 10:1 14:1 16:1 17:1 20:1 21:0.816497 23:1 26:1 29:1 32:1 130:1 261:1 262:1 264:1 266:1 270:1 273:1 
1 1:1 3:0.00321543 9:1 13:1 15:1 17:1 20:1 21:0.5 22:1 26:1 29:1 31:1 130:1 261:1 262:1 265:1 267:1 270:1 273:1 
1 1:1 3:0.00321543 9:1 13:1 15:1 17:1 19:1 22:1 26:1 29:1 32:1 130:1 261:1 262:1 264:1 266:1 270:1 273:1 
1 1:1 3:0.00321543 12:1 13:1 16:1 17:1 20:1 21:1 23:1 26:1 29:1 32:1 66:1 261:1 263:1 265:1 266:1 270:1 273:1 
1 1:1 3:0.0160772 12:1 14:1 15:1 18:1 20:1 21:0.75 23:1 26:1 29:1 32:1 130:1 261:1 263:1 264:1 266:1 270:1 273:1 
1 1:1 3:0.0160772 12:1 14:1 16:1 17:1 20:1 21:0.707107 22:1 26:1 29:1 32:1 130:1 261:1 262:1 264:1 266:1 270:1 273:1 
1 2:1 3:0.0353698 12:1 13:1 16:1 17:1 20:1 21:1 23:1 26:1 29:1 32:1 125:1 261:1 263:1 264:1 267:1 270:1 273:1 
1 1:1 3:0.0353698 12:1 13:1 16:1 17:1 20:1 21:0.707107 22:1 26:1 29:1 32:1 125:1 261:1 262:1 264:1 266:1 270:1 273:1 
1 2:1 3:0.205788 12:1 13:1 16:1 17:1 20:1 21:1 23:1 26:1 29:1 30:1 126:1 261:1 263:1 264:1 267:1 270:1 273:1 
1 2:1 3:0.0353698 12:1 13:1 16:1 17:1 20:1 21:1 23:1 26:1 29:1 30:1 129:1 259:1 263:1 264:1 267:1 270:1 273:1 
1 1:1 3:0.00321543 12:1 13:1 15:1 17:1 19:1 22:1 26:1 29:1 31:1 114:1 259:1 262:1 264:1 266:1 270:1 271:1 
1 2:1 3:0.170418 12:1 13:1 16:1 17:1 20:1 21:1 23:1 26:1 29:1 30:1 111:1 261:1 263:1 264:1 267:1 270:1 273:1 
1 2:1 3:0.241158 6:1 13:1 16:1 17:1 20:1 21:0.707107 23:1 26:1 29:1 32:1 129:1 261:1 263:1 264:1 267:1 270:1 273:1 
1 1:1 3:0.276527 6:1 13:1 15:1 17:1 20:1 21:0.816497 22:1 26:1 29:1 32:1 129:1 261:1 262:1 264:1 266:1 269:1 273:1 
1 1:1 3:0.0932476 9:1 13:1 15:1 17:1 19:1 22:1 26:1 29:1 32:1 114:1 261:1 262:1 264:1 266:1 270:1 273:1 
1 1:1 3:0.0643087 12:1 14:1 15:1 17:1 20:1 21:0.516398 22:1 26:1 29:1 32:1 114:1 261:1 262:1 264:1 266:1 270:1 273:1 
1 1:1 3:0.0900322 9:1 13:1 15:1 17:1 19:1 22:1 26:1 29:1 30:1 114:1 261:1 262:1 264:1 266:1 270:1 273:1 
1 1:1 3:0.0803859 9:1 13:1 15:1 17:1 19:1 22:1 26:1 29:1 32:1 114:1 259:1 262:1 264:1 266:1 270:1 273:1 
1 1:1 3:0.0675241 8:1 14:1 16:1 18:1 20:1 21:1 23:1 26:1 29:1 32:1 114:1 259:1 262:1 264:1 266:1 270:1 273:1 
1 1:1 3:0.022508 9:1 13:1 15:1 17:1 19:1 22:1 26:1 29:1 32:1 114:1 261:1 262:1 264:1 266:1 270:1 273:1 
1 1:1 3:0.0128617 9:1 13:1 15:1 17:1 19:1 22:1 26:1 29:1 32:1 114:1 259:1 262:1 264:1 266:1 270:1 273:1 
1 1:1 3:0.0096463 12:1 13:1 15:1 17:1 19:1 22:1 26:1 29:1 32:1 114:1 261:1 262:1 264:1 266:1 270:1 273:1 
1 1:1 3:0.00321543 12:1 14:1 16:1 17:1 20:1 21:0.816497 22:1 26:1 29:1 30:1 82:1 261:1 262:1 264:1 266:1 269:1 273:1 
1 1:1 3:0.0160772 12:1 14:1 16:1 17:1 20:1 21:0.816497 22:1 26:1 29:1 32:1 66:1 261:1 262:1 264:1 266:1 269:1 273:1 
1 1:1 3:0.0836013 8:1 14:1 15:1 17:1 20:1 21:0.474342 23:1 26:1 29:1 32:1 130:1 261:1 263:1 264:1 267:1 270:1 273:1 
1 1:1 3:0.0192926 9:1 13:1 15:1 17:1 19:1 22:1 26:1 29:1 32:1 98:1 261:1 262:1 264:1 266:1 270:1 273:1 
-1 1:1 3:0.263666 12:1 13:1 16:1 17:1 20:1 21:1 23:1 26:1 29:1 32:1 126:1 261:1 263:1 264:1 267:1 270:1 273:1 
-1 1:1 3:0.250804 12:1 13:1 16:1 17:1 20:1 21:1 23:1 26:1 29:1 32:1 126:1 261:1 263:1 264:1 267:1 270:1 273:1 
-1 2:1 3:0.263666 8:1 14:1 16:1 18:1 20:1 21:1 23:1 26:1 29:1 32:1 126:1 261:1 263:1 264:1 267:1 270:1 273:1 
-1 2:1 3:0.221865 8:1 14:1 16:1 18:1 20:1 21:1 23:1 26:1 29:1 32:1 126:1 261:1 263:1 264:1 267:1 270:1 273:1 
-1 1:1 3:0.186495 12:1 13:1 16:1 17:1 20:1 21:0.707107 22:1 26:1 29:1 32:1 127:1 261:1 262:1 264:1 266:1 270:1 273:1 
-0.5072443428691646 1:1 3:0.0675241 12:1 13:1 16:1 17:1 20:1 21:1 23:1 26:1 29:1 32:1 129:1 261:1 263:1 264:1 267:1 270:1 273:1 
-1 1:1 3:0.0289389 12:1 13:1 15:1 18:1 20:1 21:0.5 22:1 26:1 29:1 32:1 129:1 261:1 262:1 264:1 266:1 269:1 273:1 
-1 1:1 3:0.250804 12:1 14:1 16:1 18:1 20:1 21:1 23:1 26:1 29:1 32:1 126:1 261:1 263:1 264:1 267:1 269:1 273:1 
-1 1:1 3:0.18328 12:1 13:1 16:1 17:1 20:1 21:0.816497 22:1 26:1 29:1 32:1 126:1 259:1 262:1 264:1 266:1 270:1 273:1 
-1 1:1 3:0.154341 12:1 14:1 15:1 17:1 20:1 21:0.5 22:1 26:1 29:1 32:1 111:1 261:1 262:1 264:1 266:1 269:1 273:1 
-1 1:1 3:0.154341 12:1 14:1 15:1 17:1 20:1 21:0.75 22:1 26:1 29:1 32:1 111:1 261:1 262:1 264:1 266:1 269:1 273:1 
-1 1:1 3:0.176849 10:1 14:1 15:1 17:1 20:1 21:0.408248 22:1 26:1 29:1 32:1 111:1 261:1 262:1 264:1 266:1 270:1 273:1 
-1 1:1 3:0.192926 12:1 13:1 16:1 17:1 20:1 21:1 23:1 26:1 29:1 32:1 111:1 261:1 263:1 264:1 267:1 270:1 273:1 
-1 1:1 3:0.180064 12:1 13:1 16:1 17:1 20:1 21:1 23:1 26:1 29:1 32:1 111:1 261:1 263:1 264:1 267:1 270:1 273:1 
-1 2:1 3:0.151125 11:1 13:1 16:1 17:1 20:1 21:0.707107 23:1 26:1 29:1 32:1 111:1 261:1 263:1 264:1 267:1 270:1 273:1 
-1 1:1 3:0.0128617 12:1 13:1 16:1 17:1 20:1 21:1 23:1 26:1 29:1 31:1 66:1 261:1 263:1 264:1 267:1 270:1 273:1 
-1 2:1 3:0.0257235 8:1 14:1 16:1 18:1 20:1 21:1 23:1 26:1 29:1 32:1 130:1 261:1 263:1 264:1 267:1 270:1 273:1 
-1 1:1 3:0.0610932 8:1 14:1 16:1 18:1 20:1 21:1 23:1 26:1 29:1 32:1 128:1 261:1 263:1 264:1 267:1 270:1 273:1 
-1 1:1 3:0.022508 12:1 13:1 16:1 18:1 20:1 21:0.5 22:1 26:1 29:1 32:1 130:1 261:1 263:1 264:1 267:1 269:1 273:1 
-0.0189765986304822 1:1 3:0.196141 12:1 13:1 16:1 17:1 19:1 22:1 26:1 29:1 32:1 103:1 261:1 262:1 264:1 266:1 270:1 273:1 
-1 1:1 3:0.00643087 12:1 14:1 16:1 18:1 20:1 21:1 23:1 26:1 29:1 31:1 66:1 261:1 262:1 264:1 266:1 269:1 273:1 
-1 1:1 3:0.0257235 11:1 14:1 16:1 17:1 20:1 21:0.816497 23:1 26:1 29:1 32:1 130:1 261:1 263:1 264:1 267:1 269:1 273:1 
-1 1:1 3:0.21865 12:1 13:1 16:1 17:1 20:1 21:0.707107 22:1 26:1 29:1 30:1 126:1 261:1 262:1 265:1 267:1 270:1 273:1 
-0.0638558101298351 1:1 3:0.0514469 9:1 13:1 16:1 17:1 20:1 21:0.57735 22:1 26:1 29:1 32:1 130:1 261:1 262:1 264:1 266:1 270:1 273:1 
-0.6273979685926233 1:1 3:0.209003 6:1 13:1 15:1 17:1 19:1 22:1 26:1 29:1 32:1 125:1 261:1 262:1 264:1 266:1 270:1 271:1 
-1 1:1 12:1 14:1 15:1 17:1 20:1 21:0.666667 22:1 25:1 29:1 31:1 130:1 261:1 262:1 264:1 266:1 268:1 273:1 
-1 2:1 3:0.144695 12:1 13:1 16:1 17:1 20:1 21:1 23:1 26:1 29:1 32:1 126:1 261:1 262:1 264:1 266:1 270:1 273:1 
-0.6124312058771685 2:1 3:0.0450161 12:1 13:1 16:1 17:1 20:1 21:1 23:1 26:1 29:1 32:1 129:1 261:1 262:1 264:1 266:1 270:1 273:1 
-0.6342286817146031 1:1 3:0.160772 12:1 13:1 16:1 17:1 20:1 21:0.707107 22:1 26:1 29:1 30:1 126:1 261:1 262:1 265:1 267:1 270:1 273:1 
-1 2:1 3:0.138264 4:1 14:1 16:1 18:1 20:1 21:1 23:1 26:1 29:1 32:1 126:1 261:1 263:1 265:1 267:1 270:1 273:1 
-1 1:1 3:0.141479 10:1 14:1 16:1 17:1 20:1 21:0.707107 23:1 26:1 29:1 32:1 126:1 261:1 262:1 264:1 266:1 270:1 273:1 
-1 1:1 3:0.141479 4:1 14:1 16:1 18:1 20:1 21:1 23:1 26:1 29:1 32:1 126:1 261:1 262:1 264:1 266:1 270:1 273:1 
-1 2:1 3:0.0996785 12:1 13:1 16:1 17:1 20:1 21:1 23:1 26:1 29:1 32:1 111:1 261:1 262:1 264:1 266:1 270:1 273:1 
-1 1:1 3:0.0192926 9:1 13:1 16:1 17:1 20:1 21:0.707107 23:1 26:1 29:1 32:1 130:1 261:1 263:1 264:1 267:1 270:1 273:1 
-1 1:1 3:0.0096463 9:1 13:1 16:1 17:1 20:1 21:0.707107 23:1 26:1 29:1 31:1 130:1 261:1 263:1 264:1 267:1 270:1 273:1 
-1 1:1 3:0.0096463 12:1 13:1 16:1 17:1 20:1 21:1 23:1 26:1 29:1 32:1 130:1 261:1 263:1 264:1 267:1 270:1 273:1 
-1 1:1 3:0.215434 12:1 13:1 16:1 17:1 20:1 21:1 23:1 26:1 29:1 32:1 126:1 261:1 263:1 264:1 267:1 270:1 273:1 
-0.9272055873987075 1:1 3:0.096463 11:1 14:1 16:1 17:1 20:1 21:0.707107 23:1 26:1 29:1 32:1 96:1 261:1 263:1 264:1 267:1 270:1 273:1 
-0.7338294675434567 2:1 3:0.0096463 12:1 13:1 16:1 17:1 20:1 21:1 23:1 26:1 27:1 31:1 130:1 259:1 263:1 264:1 267:1 270:1 273:1 
-1 1:1 3:0.247588 4:1 14:1 16:1 18:1 20:1 21:1 23:1 26:1 27:1 32:1 126:1 261:1 263:1 264:1 267:1 270:1 273:1 
-1 1:1 3:0.237942 5:1 14:1 15:1 17:1 20:1 21:0.5 23:1 26:1 29:1 32:1 126:1 261:1 263:1 264:1 267:1 270:1 273:1 
-1 1:1 3:0.234727 6:1 13:1 16:1 17:1 20:1 21:0.707107 23:1 26:1 29:1 32:1 126:1 261:1 263:1 264:1 267:1 270:1 273:1 
-0.7182573056987526 1:1 3:0.263666 6:1 13:1 15:1 17:1 19:1 22:1 26:1 29:1 32:1 133:1 261:1 262:1 264:1 266:1 270:1 271:1 
-1 1:1 3:0.26045 6:1 13:1 15:1 17:1 19:1 22:1 26:1 29:1 32:1 133:1 261:1 262:1 264:1 266:1 270:1 271:1 
-1 1:1 3:0.157556 10:1 13:1 16:1 17:1 20:1 21:0.707107 23:1 26:1 28:1 32:1 96:1 261:1 263:1 264:1 267:1 270:1 273:1 
-1 1:1 3:0.0128617 10:1 13:1 16:1 17:1 20:1 21:0.707107 23:1 26:1 29:1 32:1 66:1 261:1 263:1 264:1 267:1 270:1 273:1 
-1 1:1 3:0.0096463 7:1 14:1 15:1 17:1 20:1 21:0.5 23:1 26:1 29:1 31:1 66:1 261:1 263:1 264:1 267:1 270:1 273:1 
-0.1712791664861973 1:1 3:0.0096463 8:1 14:1 15:1 17:1 20:1 21:0.816497 22:1 26:1 29:1 31:1 66:1 261:1 262:1 264:1 266:1 270:1 273:1 
-0.6524634825257365 1:1 3:0.0160772 9:1 13:1 15:1 17:1 19:1 22:1 26:1 29:1 32:1 73:1 261:1 262:1 264:1 266:1 270:1 273:1 
-1 1:1 3:0.0160772 9:1 13:1 15:1 17:1 19:1 22:1 26:1 29:1 32:1 73:1 261:1 262:1 264:1 266:1 270:1 273:1 
-0.3915378522082179 1:1 3:0.659164 9:1 13:1 15:1 17:1 19:1 22:1 26:1 29:1 32:1 125:1 261:1 262:1 264:1 266:1 270:1 273:1 
-1 1:1 3:0.0610932 9:1 14:1 15:1 17:1 20:1 21:0.408248 22:1 26:1 29:1 32:1 194:1 261:1 262:1 264:1 266:1 270:1 273:1 
-1 1:1 3:0.0482315 12:1 14:1 15:1 17:1 20:1 21:0.666667 22:1 26:1 29:1 32:1 194:1 261:1 262:1 264:1 266:1 270:1 273:1 
-1 1:1 3:0.0514469 9:1 13:1 16:1 17:1 20:1 21:0.534522 22:1 26:1 29:1 32:1 194:1 261:1 262:1 264:1 266:1 270:1 273:1 
-0.8237624247460457 1:1 3:0.0418006 9:1 13:1 15:1 17:1 20:1 21:0.377964 22:1 26:1 29:1 32:1 194:1 261:1 262:1 264:1 266:1 270:1 273:1 
-1 2:1 3:0.0385852 8:1 14:1 15:1 17:1 20:1 21:0.857143 23:1 26:1 29:1 32:1 194:1 261:1 263:1 264:1 267:1 268:1 273:1 
-1 1:1 3:0.0482315 12:1 13:1 15:1 17:1 19:1 22:1 26:1 29:1 32:1 184:1 261:1 262:1 264:1 266:1 270:1 273:1 
-1 1:1 3:0.0321543 9:1 13:1 15:1 17:1 20:1 21:0.377964 22:1 26:1 29:1 32:1 184:1 261:1 262:1 264:1 266:1 268:1 273:1 
-1 1:1 3:0.0128617 9:1 13:1 16:1 17:1 20:1 21:0.534522 22:1 26:1 29:1 32:1 194:1 261:1 262:1 264:1 266:1 270:1 273:1 
-1 1:1 3:0.00321543 9:1 13:1 15:1 17:1 20:1 21:0.377964 22:1 26:1 29:1 32:1 194:1 261:1 262:1 264:1 266:1 270:1 273:1 
-1 1:1 3:0.160772 12:1 13:1 16:1 17:1 19:1 22:1 26:1 29:1 32:1 184:1 261:1 262:1 264:1 266:1 270:1 273:1 
-1 1:1 3:0.0096463 12:1 13:1 15:1 17:1 20:1 21:0.707107 22:1 26:1 29:1 32:1 194:1 261:1 262:1 264:1 266:1 270:1 273:1 
-1 1:1 3:0.0514469 12:1 13:1 15:1 17:1 19:1 22:1 26:1 29:1 32:1 184:1 261:1 262:1 264:1 266:1 270:1 273:1 
-1 1:1 3:0.151125 12:1 13:1 16:1 17:1 19:1 22:1 26:1 29:1 32:1 184:1 261:1 262:1 264:1 266:1 270:1 273:1 
-0.9544791457686199 1:1 3:0.096463 12:1 13:1 15:1 17:1 19:1 22:1 26:1 29:1 32:1 184:1 261:1 262:1 264:1 266:1 270:1 273:1 
-1 1:1 3:0.170418 12:1 14:1 16:1 17:1 20:1 21:1 23:1 26:1 29:1 32:1 34:1 261:1 263:1 265:1 267:1 270:1 273:1 
-1 1:1 3:0.022508 12:1 14:1 16:1 18:1 20:1 21:1 23:1 26:1 29:1 32:1 34:1 261:1 262:1 264:1 266:1 270:1 273:1 
-0.6870564633999884 1:1 3:0.128617 12:1 14:1 16:1 17:1 20:1 21:1 23:1 26:1 29:1 32:1 38:1 261:1 262:1 264:1 266:1 270:1 273:1 
-0.2142558955794806 1:1 3:0.215434 12:1 13:1 16:1 17:1 20:1 21:1 23:1 26:1 29:1 32:1 37:1 261:1 263:1 264:1 267:1 270:1 273:1 
-1 1:1 3:0.128617 12:1 14:1 16:1 17:1 20:1 21:1 23:1 26:1 29:1 32:1 38:1 261:1 263:1 265:1 267:1 270:1 273:1 
-0.547399396088871 1:1 3:0.173633 4:1 13:1 15:1 17:1 20:1 21:0.408248 22:1 26:1 29:1 32:1 97:1 261:1 262:1 264:1 266:1 270:1 273:1 
-0.6033441341185561 1:1 3:0.00321543 12:1 13:1 15:1 17:1 20:1 21:0.5 22:1 25:1 29:1 32:1 98:1 261:1 262:1 264:1 266:1 269:1 273:1 
-1 1:1 3:0.266881 12:1 14:1 16:1 18:1 20:1 21:1 23:1 26:1 29:1 32:1 111:1 261:1 263:1 264:1 267:1 269:1 273:1 
-1 1:1 3:0.0932476 12:1 14:1 16:1 18:1 20:1 21:1 23:1 26:1 29:1 32:1 114:1 261:1 263:1 264:1 267:1 269:1 273:1 
-1 1:1 3:0.00643087 8:1 14:1 15:1 17:1 20:1 21:0.816497 22:1 26:1 29:1 31:1 114:1 261:1 262:1 265:1 267:1 270:1 273:1 
-1 1:1 3:0.00643087 8:1 14:1 15:1 17:1 20:1 21:0.816497 22:1 26:1 29:1 31:1 114:1 261:1 262:1 265:1 266:1 270:1 273:1 
-1 1:1 3:0.173633 12:1 14:1 16:1 18:1 20:1 21:1 23:1 26:1 29:1 32:1 111:1 261:1 263:1 264:1 267:1 269:1 273:1 
-1 1:1 3:0.0546624 12:1 14:1 16:1 18:1 20:1 21:1 23:1 26:1 29:1 30:1 66:1 261:1 263:1 264:1 267:1 269:1 273:1 
-1 1:1 10:1 14:1 16:1 17:1 20:1 21:0.707107 23:1 26:1 28:1 32:1 66:1 261:1 263:1 264:1 266:1 270:1 273:1 
-1 1:1 3:0.00321543 10:1 13:1 15:1 17:1 19:1 22:1 26:1 29:1 30:1 66:1 261:1 263:1 264:1 267:1 270:1 272:1 
-1 1:1 3:0.221865 9:1 14:1 15:1 17:1 20:1 21:0.666667 22:1 26:1 29:1 32:1 126:1 261:1 263:1 264:1 267:1 269:1 273:1 
-1 1:1 3:0.21865 9:1 14:1 15:1 17:1 20:1 21:0.666667 22:1 26:1 29:1 32:1 126:1 261:1 263:1 264:1 267:1 269:1 273:1 
-0.9299576999039667 2:1 3:0.209003 9:1 14:1 16:1 17:1 20:1 21:0.816497 23:1 26:1 29:1 32:1 126:1 261:1 263:1 264:1 267:1 269:1 273:1 
-1 1:1 3:0.192926 12:1 13:1 16:1 17:1 20:1 21:1 23:1 26:1 29:1 32:1 111:1 261:1 263:1 264:1 267:1 270:1 273:1 
-0.7498670159090833 1:1 3:0.192926 10:1 14:1 16:1 17:1 20:1 21:0.894427 23:1 26:1 27:1 32:1 111:1 261:1 262:1 264:1 266:1 269:1 273:1 
-1 1:1 9:1 14:1 15:1 17:1 20:1 21:0.5 22:1 26:1 29:1 32:1 98:1 261:1 262:1 265:1 267:1 270:1 273:1 
-1 2:1 3:0.138264 12:1 14:1 16:1 18:1 20:1 21:1 23:1 26:1 29:1 32:1 96:1 261:1 263:1 264:1 267:1 269:1 273:1 
-0.6775036566979979 1:1 3:0.0096463 12:1 14:1 16:1 17:1 20:1 21:0.816497 22:1 26:1 29:1 32:1 66:1 261:1 263:1 264:1 267:1 269:1 273:1 
-1 2:1 7:1 14:1 15:1 17:1 20:1 21:0.5 23:1 26:1 29:1 32:1 66:1 261:1 263:1 264:1 267:1 270:1 273:1 
-1 1:1 3:0.00321543 12:1 14:1 16:1 18:1 20:1 21:1 23:1 26:1 29:1 32:1 66:1 261:1 263:1 264:1 267:1 269:1 273:1 
-1 1:1 3:0.151125 9:1 13:1 16:1 17:1 20:1 21:0.707107 23:1 26:1 29:1 32:1 129:1 261:1 263:1 264:1 267:1 270:1 273:1 
-1 2:1 3:0.0321543 12:1 13:1 16:1 17:1 20:1 21:1 23:1 26:1 29:1 32:1 130:1 261:1 263:1 264:1 267:1 270:1 273:1 
-1 2:1 3:0.0321543 9:1 13:1 16:1 17:1 20:1 21:0.707107 23:1 26:1 29:1 32:1 130:1 261:1 263:1 264:1 267:1 270:1 273:1 
-0.08380607756346664 1:1 3:0.131833 9:1 13:1 15:1 17:1 20:1 21:0.316228 22:1 26:1 29:1 32:1 134:1 261:1 262:1 264:1 266:1 269:1 273:1 
-1 1:1 3:0.0707395 9:1 14:1 16:1 17:1 20:1 21:0.894427 23:1 26:1 29:1 32:1 129:1 261:1 262:1 264:1 266:1 269:1 273:1 
-1 1:1 3:0.073955 9:1 13:1 15:1 17:1 20:1 21:0.333333 22:1 26:1 29:1 32:1 129:1 259:1 262:1 264:1 266:1 270:1 273:1 
-1 1:1 3:0.0321543 10:1 13:1 16:1 17:1 20:1 21:0.57735 22:1 26:1 29:1 32:1 130:1 261:1 262:1 265:1 267:1 270:1 273:1 
-0.6016309834271895 1:1 3:0.14791 9:1 14:1 15:1 17:1 20:1 21:0.333333 22:1 26:1 29:1 32:1 129:1 261:1 262:1 265:1 266:1 270:1 273:1 
-1 1:1 3:0.0514469 7:1 14:1 15:1 17:1 20:1 21:0.288675 22:1 26:1 29:1 32:1 130:1 261:1 262:1 265:1 266:1 270:1 273:1 
-0.5908242510265795 1:1 3:0.00321543 7:1 13:1 15:1 17:1 19:1 22:1 26:1 29:1 31:1 130:1 261:1 262:1 265:1 266:1 270:1 273:1 
-1 1:1 3:0.102894 9:1 13:1 16:1 17:1 20:1 21:0.707107 23:1 26:1 29:1 32:1 129:1 261:1 263:1 264:1 267:1 270:1 273:1 
-1 1:1 3:0.0096463 8:1 14:1 15:1 17:1 20:1 21:0.5 23:1 26:1 29:1 32:1 130:1 261:1 263:1 264:1 267:1 270:1 273:1 
-1 1:1 3:0.0610932 8:1 14:1 15:1 17:1 20:1 21:0.5 23:1 26:1 29:1 32:1 129:1 261:1 263:1 264:1 267:1 270:1 273:1 
-1 1:1 3:0.21865 11:1 14:1 16:1 17:1 20:1 21:0.816497 23:1 26:1 29:1 32:1 111:1 261:1 263:1 264:1 267:1 269:1 273:1 
-1 2:1 3:0.18328 10:1 13:1 16:1 17:1 20:1 21:0.707107 23:1 26:1 29:1 32:1 111:1 261:1 263:1 265:1 267:1 270:1 273:1 
-0.2060615818363387 1:1 3:0.186495 7:1 13:1 15:1 17:1 20:1 21:0.288675 22:1 26:1 29:1 32:1 111:1 261:1 262:1 264:1 266:1 269:1 273:1 
-0.1866351388283139 1:1 4:1 13:1 15:1 18:1 20:1 21:0.5 22:1 26:1 29:1 32:1 66:1 259:1 262:1 264:1 266:1 270:1 273:1 
-1 2:1 3:0.0257235 8:1 14:1 16:1 18:1 20:1 21:1 23:1 26:1 29:1 32:1 130:1 261:1 263:1 264:1 267:1 269:1 273:1 
-1 1:1 3:0.0192926 8:1 13:1 15:1 17:1 20:1 21:0.408248 22:1 26:1 29:1 32:1 130:1 261:1 262:1 264:1 266:1 270:1 271:1 
-1 1:1 3:0.189711 7:1 14:1 15:1 17:1 20:1 21:0.408248 22:1 26:1 29:1 32:1 126:1 261:1 262:1 264:1 266:1 270:1 273:1 
-1 1:1 3:0.0321543 11:1 14:1 16:1 17:1 20:1 21:0.816497 23:1 26:1 29:1 30:1 130:1 261:1 263:1 264:1 267:1 270:1 273:1 
-1 1:1 3:0.00643087 11:1 14:1 16:1 17:1 20:1 21:0.816497 23:1 26:1 29:1 30:1 130:1 261:1 263:1 264:1 267:1 270:1 273:1 
-1 1:1 3:0.0257235 8:1 14:1 16:1 18:1 20:1 21:1 23:1 26:1 29:1 30:1 130:1 261:1 263:1 264:1 267:1 270:1 273:1 
-0.1933790460943479 1:1 3:0.446945 12:1 14:1 16:1 18:1 20:1 21:1 23:1 26:1 29:1 30:1 218:1 261:1 263:1 264:1 267:1 269:1 273:1 
-1 1:1 3:0.44373 12:1 14:1 16:1 18:1 20:1 21:1 23:1 26:1 29:1 30:1 218:1 261:1 263:1 264:1 267:1 269:1 273:1 
-0.8678329321658615 1:1 3:0.440514 12:1 14:1 16:1 18:1 20:1 21:1 23:1 26:1 29:1 30:1 218:1 261:1 263:1 264:1 267:1 269:1 273:1 
-0.9661511545225223 1:1 3:0.0643087 12:1 13:1 15:1 17:1 20:1 21:0.5 22:1 26:1 29:1 30:1 224:1 261:1 262:1 264:1 266:1 269:1 273:1 
-1 2:1 3:0.0675241 12:1 14:1 16:1 18:1 20:1 21:1 23:1 26:1 29:1 31:1 98:1 261:1 263:1 264:1 267:1 270:1 273:1 
-0.889003277752368 1:1 3:0.00643087 12:1 14:1 16:1 18:1 20:1 21:1 23:1 26:1 29:1 30:1 98:1 261:1 263:1 264:1 267:1 269:1 273:1 
-1 1:1 3:0.00321543 12:1 14:1 16:1 18:1 20:1 21:1 23:1 26:1 29:1 30:1 98:1 261:1 263:1 264:1 267:1 269:1 273:1 
-1 1:1 3:0.00321543 12:1 14:1 16:1 18:1 20:1 21:1 23:1 26:1 29:1 30:1 98:1 261:1 263:1 264:1 267:1 269:1 273:1 
-1 1:1 3:0.0418006 12:1 14:1 16:1 17:1 20:1 21:1 23:1 26:1 28:1 32:1 98:1 261:1 262:1 264:1 266:1 270:1 273:1 
-1 1:1 3:0.00643087 12:1 13:1 16:1 18:1 20:1 21:0.5 22:1 26:1 29:1 32:1 130:1 261:1 263:1 264:1 267:1 269:1 273:1 
-0.7637490766635703 2:1 3:0.395498 8:1 14:1 16:1 18:1 20:1 21:1 23:1 26:1 29:1 32:1 186:1 261:1 263:1 264:1 267:1 269:1 273:1 
-0.2871954143651042 2:1 3:0.215434 9:1 14:1 16:1 17:1 20:1 21:0.816497 23:1 26:1 29:1 32:1 188:1 261:1 263:1 264:1 267:1 269:1 273:1 
-1 1:1 3:0.231511 11:1 14:1 16:1 17:1 20:1 21:0.866025 23:1 26:1 29:1 32:1 111:1 261:1 263:1 264:1 267:1 269:1 273:1 
-1 1:1 3:0.0482315 4:1 13:1 15:1 17:1 20:1 21:0.5 22:1 26:1 29:1 32:1 81:1 261:1 262:1 264:1 266:1 270:1 273:1 
-1 1:1 3:0.279743 12:1 14:1 16:1 17:1 20:1 21:1 23:1 26:1 29:1 32:1 128:1 261:1 262:1 264:1 266:1 270:1 273:1 
-0.4393787417869344 1:1 3:0.173633 10:1 14:1 16:1 17:1 20:1 21:0.707107 23:1 26:1 29:1 30:1 130:1 261:1 262:1 264:1 266:1 270:1 273:1 
-1 1:1 12:1 13:1 16:1 17:1 20:1 21:1 23:1 26:1 29:1 31:1 130:1 261:1 263:1 264:1 267:1 270:1 273:1 
-1 1:1 3:0.263666 12:1 14:1 16:1 17:1 20:1 21:1 23:1 26:1 29:1 32:1 128:1 261:1 262:1 264:1 266:1 270:1 273:1 
-1 2:1 3:0.0353698 12:1 13:1 16:1 17:1 20:1 21:1 23:1 26:1 29:1 32:1 130:1 261:1 263:1 265:1 267:1 270:1 273:1 
-1 1:1 3:0.106109 11:1 14:1 16:1 17:1 20:1 21:0.816497 23:1 26:1 29:1 32:1 130:1 261:1 262:1 264:1 266:1 269:1 273:1 
-0.05727293331721039 1:1 8:1 14:1 15:1 18:1 20:1 21:0.666667 22:1 26:1 29:1 30:1 130:1 259:1 262:1 264:1 266:1 270:1 273:1 
-0.5741952110668314 1:1 3:0.0643087 7:1 14:1 15:1 17:1 20:1 21:0.408248 22:1 26:1 29:1 30:1 130:1 261:1 262:1 264:1 266:1 270:1 273:1 
-1 1:1 3:0.106109 6:1 14:1 16:1 17:1 20:1 21:0.707107 23:1 26:1 29:1 32:1 128:1 261:1 262:1 264:1 266:1 270:1 273:1 
-1 1:1 12:1 13:1 16:1 17:1 20:1 21:1 23:1 26:1 29:1 31:1 130:1 261:1 262:1 264:1 266:1 270:1 273:1 
-1 1:1 3:0.00643087 11:1 14:1 16:1 17:1 20:1 21:0.816497 23:1 26:1 29:1 32:1 98:1 261:1 263:1 265:1 267:1 269:1 273:1 
-1 1:1 3:0.0418006 12:1 14:1 16:1 17:1 20:1 21:1 23:1 26:1 29:1 32:1 130:1 261:1 263:1 264:1 267:1 270:1 273:1 
-1 2:1 3:0.00643087 12:1 13:1 16:1 17:1 20:1 21:1 23:1 26:1 29:1 32:1 114:1 261:1 262:1 264:1 266:1 270:1 273:1 
-1 2:1 3:0.0996785 11:1 14:1 15:1 17:1 20:1 21:0.666667 23:1 26:1 29:1 32:1 220:1 261:1 263:1 264:1 267:1 269:1 273:1 
-0.06055596104867039 1:1 3:0.0996785 12:1 13:1 15:1 17:1 19:1 22:1 26:1 29:1 32:1 220:1 261:1 262:1 264:1 267:1 270:1 273:1 
-1 1:1 3:0.0996785 12:1 13:1 15:1 17:1 19:1 22:1 26:1 29:1 32:1 220:1 261:1 262:1 264:1 267:1 270:1 273:1 
-1 1:1 3:0.0996785 12:1 13:1 15:1 17:1 19:1 22:1 26:1 29:1 32:1 220:1 261:1 262:1 265:1 267:1 270:1 273:1 
-1 2:1 12:1 13:1 16:1 17:1 20:1 21:1 23:1 26:1 29:1 32:1 130:1 261:1 263:1 264:1 267:1 270:1 273:1 
-1 1:1 3:0.205788 11:1 14:1 16:1 17:1 20:1 21:0.707107 23:1 26:1 29:1 32:1 126:1 261:1 263:1 264:1 267:1 270:1 273:1 
-1 1:1 3:0.154341 12:1 14:1 16:1 17:1 20:1 21:1 23:1 26:1 29:1 32:1 128:1 261:1 263:1 264:1 267:1 270:1 273:1 
-0.01461367651008173 1:1 3:0.0514469 11:1 14:1 16:1 17:1 20:1 21:0.707107 23:1 26:1 29:1 32:1 96:1 261:1 263:1 264:1 267:1 270:1 273:1 
-0.1046334154214465 1:1 3:0.0257235 5:1 13:1 15:1 17:1 20:1 21:0.333333 22:1 25:1 29:1 32:1 128:1 261:1 262:1 264:1 266:1 269:1 273:1 
-1 1:1 3:0.00321543 8:1 14:1 16:1 18:1 20:1 21:1 23:1 26:1 29:1 30:1 130:1 261:1 263:1 264:1 267:1 270:1 273:1 
-1 1:1 3:0.189711 9:1 13:1 15:1 17:1 20:1 21:0.353553 22:1 25:1 29:1 32:1 125:1 261:1 262:1 264:1 266:1 270:1 273:1 
-1 1:1 3:0.186495 12:1 13:1 15:1 17:1 20:1 21:0.288675 22:1 26:1 29:1 32:1 125:1 261:1 262:1 264:1 266:1 268:1 273:1 
-0.9155714134238213 2:1 3:0.0482315 8:1 14:1 16:1 18:1 20:1 21:1 23:1 26:1 29:1 32:1 96:1 261:1 263:1 264:1 267:1 269:1 273:1 
-0.5802869060077257 1:1 12:1 14:1 15:1 17:1 20:1 21:0.288675 22:1 26:1 29:1 31:1 50:1 261:1 262:1 264:1 266:1 268:1 271:1 
-1 1:1 12:1 14:1 15:1 17:1 20:1 21:0.288675 22:1 26:1 29:1 31:1 50:1 261:1 262:1 264:1 266:1 270:1 271:1 
-1 1:1 12:1 14:1 15:1 17:1 20:1 21:0.333333 22:1 26:1 29:1 31:1 50:1 261:1 262:1 264:1 266:1 270:1 271:1 
-1 1:1 3:0.0610932 12:1 13:1 16:1 17:1 20:1 21:1 23:1 26:1 29:1 32:1 130:1 261:1 263:1 264:1 267:1 270:1 273:1 
-1 2:1 3:0.0900322 12:1 13:1 16:1 17:1 20:1 21:1 23:1 26:1 29:1 32:1 128:1 261:1 263:1 265:1 267:1 270:1 273:1 
-1 2:1 12:1 13:1 16:1 17:1 20:1 21:1 23:1 26:1 29:1 31:1 130:1 261:1 263:1 265:1 267:1 270:1 273:1 
-1 2:1 12:1 13:1 16:1 17:1 20:1 21:1 23:1 26:1 28:1 31:1 130:1 261:1 263:1 264:1 267:1 270:1 273:1 
-1 1:1 3:0.0707395 4:1 13:1 15:1 17:1 20:1 21:0.365148 22:1 26:1 29:1 31:1 220:1 261:1 262:1 264:1 266:1 270:1 273:1 
-0.3437262033994287 1:1 3:0.0514469 6:1 13:1 15:1 17:1 19:1 22:1 26:1 29:1 32:1 224:1 261:1 262:1 264:1 266:1 270:1 273:1 
-1 1:1 3:0.0128617 6:1 14:1 15:1 17:1 20:1 21:0.4 22:1 26:1 29:1 32:1 130:1 261:1 262:1 264:1 266:1 270:1 271:1 
-1 2:1 3:0.0514469 7:1 14:1 15:1 17:1 20:1 21:0.5 23:1 26:1 29:1 32:1 126:1 261:1 263:1 264:1 267:1 270:1 273:1 
-1 2:1 3:0.0128617 7:1 14:1 15:1 17:1 20:1 21:0.5 23:1 26:1 29:1 32:1 130:1 261:1 263:1 264:1 267:1 270:1 273:1 
-1 1:1 3:0.0289389 8:1 13:1 15:1 18:1 20:1 21:0.75 22:1 26:1 29:1 32:1 130:1 261:1 262:1 264:1 266:1 270:1 273:1 
-1 1:1 3:0.00321543 8:1 13:1 15:1 18:1 20:1 21:0.75 22:1 26:1 29:1 32:1 130:1 261:1 262:1 264:1 266:1 270:1 273:1 
-1 1:1 12:1 13:1 16:1 17:1 20:1 21:0.707107 22:1 26:1 29:1 32:1 114:1 261:1 262:1 264:1 266:1 270:1 273:1 
-1 1:1 3:0.0610932 4:1 13:1 15:1 17:1 20:1 21:0.408248 22:1 26:1 29:1 31:1 81:1 261:1 262:1 264:1 266:1 270:1 273:1 
-0.6771008470287005 1:1 3:0.00321543 12:1 13:1 16:1 17:1 20:1 21:0.707107 22:1 26:1 29:1 32:1 130:1 261:1 262:1 264:1 267:1 270:1 273:1 
-1 1:1 3:0.122186 9:1 14:1 15:1 17:1 20:1 21:0.5 22:1 26:1 29:1 32:1 33:1 261:1 262:1 264:1 266:1 270:1 273:1 
-0.7669730822198038 1:1 3:0.0289389 12:1 13:1 15:1 17:1 19:1 22:1 26:1 29:1 32:1 224:1 261:1 262:1 264:1 266:1 270:1 273:1 
-1 1:1 3:0.0289389 12:1 13:1 15:1 17:1 19:1 22:1 26:1 29:1 32:1 224:1 261:1 262:1 264:1 266:1 270:1 273:1 
-0.783196821107945 1:1 3:0.022508 10:1 13:1 16:1 17:1 20:1 21:0.707107 23:1 26:1 29:1 30:1 130:1 261:1 263:1 264:1 267:1 270:1 273:1 
-0.8573456107202876 1:1 3:0.163987 9:1 13:1 15:1 17:1 19:1 22:1 26:1 29:1 32:1 133:1 261:1 262:1 264:1 266:1 270:1 273:1 
-1 1:1 3:0.00321543 7:1 14:1 15:1 17:1 20:1 21:0.5 23:1 26:1 29:1 30:1 130:1 261:1 263:1 264:1 267:1 270:1 273:1 
-1 1:1 3:0.157556 9:1 13:1 15:1 17:1 19:1 22:1 26:1 29:1 32:1 133:1 261:1 262:1 264:1 266:1 270:1 273:1 
-0.07445873042093182 1:1 3:0.144695 12:1 13:1 15:1 17:1 19:1 22:1 26:1 29:1 32:1 133:1 261:1 262:1 264:1 266:1 270:1 273:1 
-1 1:1 3:0.135048 9:1 13:1 15:1 17:1 19:1 22:1 26:1 29:1 32:1 133:1 261:1 262:1 264:1 266:1 270:1 273:1 
-0.768859367660266 2:1 3:0.0321543 12:1 13:1 16:1 17:1 20:1 21:1 23:1 26:1 29:1 31:1 114:1 261:1 263:1 264:1 267:1 269:1 273:1 
-0.8419111971105082 2:1 3:0.0257235 12:1 13:1 16:1 17:1 20:1 21:1 23:1 26:1 29:1 31:1 114:1 261:1 263:1 264:1 267:1 269:1 273:1 
-0.23480990804592 2:1 3:0.0128617 12:1 13:1 16:1 17:1 20:1 21:1 23:1 26:1 29:1 31:1 114:1 261:1 263:1 264:1 267:1 269:1 273:1 
-1 2:1 3:0.00643087 12:1 13:1 16:1 17:1 20:1 21:1 23:1 26:1 29:1 31:1 114:1 261:1 263:1 264:1 267:1 269:1 273:1 
-1 2:1 3:0.0257235 12:1 13:1 16:1 17:1 20:1 21:1 23:1 26:1 29:1 31:1 114:1 261:1 263:1 264:1 267:1 269:1 273:1 
-1 2:1 3:0.0128617 12:1 13:1 16:1 17:1 20:1 21:1 23:1 26:1 29:1 31:1 114:1 261:1 263:1 264:1 267:1 269:1 273:1 
-1 2:1 3:0.00643087 12:1 13:1 16:1 17:1 20:1 21:1 23:1 26:1 29:1 31:1 114:1 261:1 263:1 264:1 267:1 269:1 273:1 
-1 2:1 3:0.0192926 12:1 13:1 16:1 17:1 20:1 21:1 23:1 26:1 29:1 31:1 114:1 261:1 263:1 264:1 267:1 269:1 273:1 
-1 2:1 3:0.0128617 12:1 13:1 16:1 17:1 20:1 21:1 23:1 26:1 29:1 31:1 114:1 261:1 263:1 264:1 267:1 269:1 273:1 
-1 2:1 3:0.00643087 12:1 13:1 16:1 17:1 20:1 21:1 23:1 26:1 29:1 31:1 114:1 261:1 263:1 264:1 267:1 269:1 273:1 
-1 1:1 3:0.022508 12:1 13:1 16:1 17:1 20:1 21:0.5 22:1 26:1 29:1 32:1 114:1 261:1 262:1 264:1 266:1 270:1 273:1 
-1 2:1 3:0.0128617 12:1 13:1 16:1 17:1 20:1 21:1 23:1 26:1 29:1 31:1 114:1 261:1 263:1 264:1 267:1 269:1 273:1 
-1 2:1 3:0.00643087 12:1 13:1 16:1 17:1 20:1 21:1 23:1 26:1 29:1 31:1 114:1 261:1 263:1 264:1 267:1 269:1 273:1 
-1 2:1 3:0.00643087 12:1 13:1 16:1 17:1 20:1 21:1 23:1 26:1 29:1 31:1 114:1 261:1 263:1 264:1 267:1 269:1 273:1 
