svm_type c_svc
kernel_type rbf
gamma 0.00364964
nr_class 2
total_sv 4772
rho 0.0116507
label 1 0
probA -2.73975
probB 1.57067
nr_sv 2336 2436
SV
1 1:1 3:0.210682 12:1 14:1 16:1 17:1 20:1 21:0.707107 22:1 26:1 27:1 29:1 31:1 33:1 37:1 146:1 264:1 266:1 268:1 272:1 273:1 
1 1:1 3:0.0563798 12:1 14:1 16:1 17:1 20:1 21:0.707107 22:1 26:1 27:1 29:1 31:1 33:1 37:1 150:1 264:1 266:1 268:1 272:1 273:1 
1 1:1 3:0.0445104 12:1 14:1 16:1 17:1 20:1 21:0.707107 22:1 26:1 27:1 29:1 31:1 33:1 37:1 150:1 264:1 266:1 268:1 272:1 273:1 
1 1:1 3:0.175074 12:1 13:1 16:1 17:1 20:1 21:0.666667 22:1 26:1 27:1 29:1 31:1 33:1 37:1 147:1 264:1 266:1 268:1 272:1 273:1 
1 1:1 3:0.231454 12:1 13:1 15:1 17:1 20:1 21:0.5 22:1 26:1 27:1 29:1 31:1 33:1 37:1 131:1 264:1 266:1 268:1 272:1 273:1 
1 1:1 3:0.195846 12:1 13:1 15:1 17:1 20:1 21:0.5 22:1 26:1 27:1 29:1 31:1 33:1 37:1 131:1 264:1 266:1 268:1 272:1 273:1 
1 1:1 3:0.130564 12:1 14:1 16:1 17:1 20:1 21:0.707107 22:1 26:1 27:1 29:1 31:1 33:1 37:1 132:1 264:1 266:1 268:1 272:1 273:1 
1 1:1 3:0.204748 12:1 13:1 16:1 17:1 20:1 21:0.707107 22:1 26:1 27:1 29:1 31:1 33:1 37:1 131:1 264:1 266:1 268:1 272:1 273:1 
1 1:1 3:0.118694 12:1 14:1 16:1 17:1 20:1 21:0.707107 22:1 26:1 27:1 29:1 31:1 33:1 37:1 132:1 264:1 266:1 268:1 272:1 273:1 
1 1:1 3:0.178042 12:1 13:1 16:1 17:1 20:1 21:0.5 22:1 26:1 27:1 29:1 31:1 33:1 37:1 131:1 264:1 266:1 268:1 272:1 273:1 
1 2:1 3:0.115727 12:1 13:1 16:1 17:1 20:1 21:1 23:1 26:1 27:1 29:1 31:1 33:1 37:1 132:1 265:1 266:1 269:1 272:1 273:1 
1 1:1 3:0.00593472 10:1 13:1 16:1 17:1 20:1 21:0.447214 22:1 26:1 28:1 29:1 31:1 33:1 37:1 135:1 264:1 266:1 268:1 272:1 273:1 
1 2:1 3:0.115727 12:1 13:1 16:1 17:1 20:1 21:1 23:1 26:1 27:1 29:1 31:1 33:1 37:1 132:1 265:1 266:1 269:1 272:1 273:1 
1 1:1 3:0.192878 12:1 13:1 16:1 17:1 20:1 21:0.707107 22:1 26:1 27:1 29:1 31:1 33:1 37:1 131:1 264:1 266:1 268:1 272:1 273:1 
1 1:1 3:0.154303 12:1 13:1 16:1 17:1 20:1 21:0.707107 22:1 26:1 28:1 29:1 31:1 33:1 37:1 131:1 264:1 266:1 268:1 272:1 273:1 
1 1:1 3:0.115727 12:1 13:1 16:1 17:1 20:1 21:0.707107 22:1 26:1 27:1 29:1 31:1 33:1 37:1 132:1 264:1 266:1 268:1 272:1 273:1 
1 1:1 3:0.172107 6:1 13:1 15:1 17:1 20:1 21:0.223607 22:1 26:1 27:1 29:1 31:1 33:1 37:1 131:1 264:1 266:1 268:1 272:1 273:1 
1 1:1 3:0.148368 6:1 13:1 16:1 17:1 20:1 21:0.447214 22:1 26:1 28:1 29:1 31:1 33:1 37:1 131:1 264:1 266:1 268:1 272:1 273:1 
1 1:1 3:0.109792 6:1 13:1 16:1 17:1 20:1 21:0.447214 22:1 26:1 27:1 29:1 31:1 33:1 37:1 132:1 264:1 266:1 268:1 272:1 273:1 
1 1:1 3:0.219585 10:1 14:1 15:1 17:1 20:1 21:0.316228 22:1 26:1 27:1 29:1 31:1 33:1 37:1 131:1 264:1 266:1 268:1 270:1 273:1 
1 1:1 3:0.0356083 12:1 14:1 16:1 17:1 20:1 21:0.707107 22:1 26:1 27:1 29:1 31:1 33:1 37:1 86:1 264:1 266:1 268:1 272:1 273:1 
1 1:1 3:0.0623145 12:1 13:1 16:1 17:1 20:1 21:0.5 22:1 26:1 27:1 29:1 31:1 33:1 37:1 86:1 264:1 266:1 268:1 272:1 273:1 
1 1:1 3:0.0979228 10:1 14:1 15:1 17:1 20:1 21:0.316228 22:1 26:1 27:1 29:1 31:1 33:1 37:1 86:1 264:1 266:1 268:1 270:1 273:1 
1 1:1 3:0.0237389 12:1 13:1 16:1 17:1 20:1 21:0.5 22:1 26:1 27:1 29:1 31:1 33:1 37:1 71:1 264:1 266:1 268:1 272:1 273:1 
1 1:1 3:0.0356083 12:1 13:1 16:1 17:1 20:1 21:0.707107 22:1 26:1 27:1 29:1 31:1 33:1 35:1 71:1 264:1 266:1 268:1 272:1 273:1 
1 1:1 3:0.118694 10:1 14:1 15:1 17:1 20:1 21:0.333333 22:1 26:1 27:1 29:1 31:1 33:1 37:1 225:1 264:1 267:1 269:1 272:1 273:1 
1 1:1 3:0.0979228 12:1 13:1 15:1 17:1 19:1 22:1 26:1 27:1 29:1 31:1 33:1 37:1 138:1 264:1 266:1 268:1 272:1 273:1 
1 1:1 3:0.0919881 12:1 13:1 15:1 17:1 19:1 22:1 26:1 27:1 29:1 31:1 33:1 37:1 138:1 264:1 266:1 268:1 272:1 273:1 
1 1:1 3:0.0830861 12:1 13:1 15:1 17:1 19:1 22:1 26:1 27:1 29:1 31:1 33:1 37:1 131:1 264:1 266:1 268:1 272:1 273:1 
1 1:1 3:0.00593472 10:1 13:1 15:1 17:1 19:1 22:1 26:1 27:1 29:1 31:1 33:1 36:1 135:1 264:1 266:1 268:1 272:1 273:1 
1 1:1 3:0.0919881 6:1 13:1 15:1 17:1 19:1 22:1 26:1 27:1 29:1 31:1 33:1 37:1 138:1 264:1 266:1 268:1 272:1 273:1 
1 2:1 3:0.0860534 6:1 13:1 16:1 17:1 20:1 21:0.707107 23:1 26:1 27:1 29:1 31:1 33:1 37:1 138:1 264:1 266:1 268:1 272:1 273:1 
1 1:1 3:0.0771513 6:1 13:1 15:1 17:1 19:1 22:1 26:1 27:1 29:1 31:1 33:1 37:1 131:1 264:1 266:1 268:1 272:1 273:1 
1 1:1 3:0.0148368 12:1 13:1 15:1 17:1 19:1 22:1 26:1 27:1 29:1 31:1 33:1 37:1 78:1 264:1 266:1 268:1 272:1 273:1 
1 1:1 3:0.00890208 12:1 13:1 15:1 17:1 19:1 22:1 26:1 27:1 29:1 31:1 33:1 37:1 78:1 264:1 266:1 268:1 272:1 273:1 
1 1:1 3:0.00593472 12:1 13:1 15:1 17:1 19:1 22:1 26:1 27:1 29:1 31:1 33:1 37:1 183:1 264:1 266:1 268:1 272:1 273:1 
1 1:1 3:0.0830861 12:1 13:1 16:1 17:1 20:1 21:0.5 22:1 26:1 27:1 29:1 31:1 33:1 35:1 139:1 264:1 266:1 268:1 272:1 273:1 
1 1:1 3:0.00593472 12:1 13:1 16:1 17:1 19:1 22:1 26:1 27:1 29:1 31:1 33:1 35:1 135:1 264:1 266:1 268:1 272:1 273:1 
1 1:1 3:0.0771513 12:1 13:1 16:1 17:1 20:1 21:0.5 22:1 26:1 27:1 29:1 31:1 33:1 36:1 139:1 264:1 266:1 268:1 272:1 273:1 
1 1:1 3:0.0860534 12:1 13:1 16:1 17:1 19:1 22:1 26:1 27:1 29:1 31:1 33:1 36:1 139:1 264:1 266:1 268:1 272:1 273:1 
1 1:1 3:0.106825 6:1 14:1 15:1 17:1 20:1 21:0.516398 22:1 26:1 27:1 29:1 31:1 33:1 37:1 131:1 264:1 266:1 268:1 272:1 273:1 
1 1:1 3:0.11276 6:1 14:1 15:1 17:1 20:1 21:0.824958 23:1 25:1 27:1 29:1 31:1 33:1 37:1 130:1 264:1 266:1 268:1 272:1 273:1 
1 1:1 3:0.106825 6:1 13:1 15:1 17:1 20:1 21:0.629941 22:1 26:1 27:1 29:1 31:1 33:1 37:1 131:1 264:1 266:1 268:1 272:1 273:1 
1 1:1 3:0.103858 6:1 13:1 15:1 17:1 19:1 22:1 26:1 27:1 29:1 31:1 33:1 37:1 131:1 264:1 266:1 268:1 272:1 273:1 
1 1:1 3:0.10089 6:1 13:1 15:1 17:1 19:1 22:1 26:1 27:1 29:1 31:1 33:1 37:1 131:1 264:1 266:1 268:1 272:1 273:1 
1 1:1 3:0.0118694 12:1 13:1 15:1 17:1 19:1 22:1 26:1 27:1 29:1 31:1 33:1 37:1 70:1 264:1 266:1 268:1 272:1 273:1 
1 1:1 3:0.00593472 12:1 13:1 15:1 17:1 19:1 22:1 26:1 27:1 29:1 31:1 33:1 37:1 71:1 264:1 266:1 268:1 272:1 273:1 
1 2:1 3:0.00296736 12:1 13:1 15:1 17:1 19:1 22:1 26:1 27:1 29:1 31:1 33:1 37:1 71:1 264:1 267:1 269:1 272:1 273:1 
1 1:1 3:0.00890208 12:1 13:1 15:1 17:1 19:1 22:1 26:1 27:1 29:1 31:1 33:1 37:1 70:1 264:1 266:1 268:1 272:1 273:1 
1 1:1 3:0.00296736 12:1 13:1 15:1 17:1 19:1 22:1 26:1 27:1 29:1 31:1 33:1 37:1 71:1 264:1 266:1 268:1 272:1 273:1 
1 1:1 3:0.00593472 12:1 13:1 15:1 17:1 20:1 21:0.801784 22:1 26:1 27:1 29:1 31:1 33:1 37:1 70:1 264:1 266:1 268:1 272:1 273:1 
1 1:1 11:1 14:1 15:1 17:1 20:1 21:0.408248 22:1 26:1 27:1 29:1 31:1 33:1 37:1 231:1 264:1 267:1 268:1 272:1 273:1 
1 1:1 3:0.400593 12:1 13:1 15:1 17:1 19:1 22:1 26:1 27:1 29:1 31:1 33:1 35:1 41:1 264:1 266:1 268:1 272:1 273:1 
1 1:1 3:0.0771513 12:1 13:1 15:1 17:1 20:1 21:0.408248 22:1 26:1 27:1 29:1 31:1 33:1 37:1 195:1 264:1 266:1 268:1 272:1 273:1 
1 1:1 12:1 13:1 15:1 17:1 19:1 22:1 26:1 27:1 29:1 31:1 33:1 37:1 199:1 264:1 266:1 268:1 272:1 273:1 
1 1:1 3:0.0771513 12:1 13:1 15:1 17:1 20:1 21:0.258199 22:1 26:1 27:1 29:1 31:1 33:1 37:1 195:1 264:1 266:1 268:1 272:1 273:1 
1 2:1 12:1 13:1 16:1 17:1 20:1 21:1 23:1 26:1 28:1 30:1 32:1 33:1 36:1 199:1 265:1 267:1 269:1 272:1 273:1 
1 2:1 3:0.0682493 12:1 13:1 16:1 17:1 20:1 21:1 23:1 26:1 28:1 30:1 31:1 33:1 37:1 195:1 265:1 266:1 269:1 272:1 273:1 
1 2:1 3:0.0237389 12:1 13:1 16:1 17:1 20:1 21:1 23:1 26:1 28:1 30:1 32:1 33:1 37:1 195:1 265:1 266:1 269:1 272:1 273:1 
1 1:1 3:0.11276 12:1 14:1 16:1 17:1 20:1 21:0.707107 22:1 26:1 28:1 29:1 31:1 33:1 37:1 135:1 264:1 266:1 268:1 272:1 273:1 
1 1:1 3:0.00593472 11:1 13:1 15:1 17:1 20:1 21:0.408248 22:1 26:1 27:1 29:1 31:1 33:1 37:1 135:1 264:1 266:1 268:1 272:1 273:1 
1 1:1 3:0.0118694 6:1 13:1 16:1 17:1 20:1 21:0.408248 22:1 26:1 28:1 29:1 31:1 33:1 37:1 135:1 264:1 266:1 268:1 272:1 273:1 
1 1:1 3:0.118694 7:1 13:1 15:1 17:1 19:1 22:1 26:1 27:1 29:1 31:1 33:1 37:1 133:1 264:1 266:1 268:1 272:1 273:1 
1 1:1 3:0.183976 12:1 14:1 16:1 17:1 20:1 21:0.707107 22:1 26:1 28:1 29:1 31:1 33:1 37:1 131:1 264:1 266:1 268:1 272:1 273:1 
1 1:1 3:0.0504451 12:1 13:1 15:1 17:1 19:1 22:1 26:1 27:1 29:1 31:1 33:1 35:1 86:1 264:1 266:1 268:1 272:1 273:1 
1 1:1 9:1 13:1 15:1 17:1 19:1 22:1 26:1 27:1 29:1 31:1 33:1 36:1 71:1 264:1 266:1 268:1 272:1 273:1 
1 1:1 3:0.0385757 12:1 13:1 16:1 17:1 20:1 21:0.707107 22:1 26:1 28:1 29:1 31:1 33:1 35:1 135:1 264:1 266:1 268:1 272:1 273:1 
1 1:1 3:0.041543 9:1 14:1 16:1 17:1 20:1 21:0.707107 23:1 26:1 27:1 29:1 31:1 33:1 35:1 135:1 264:1 266:1 268:1 272:1 273:1 
1 1:1 3:0.234421 9:1 13:1 15:1 17:1 19:1 22:1 26:1 27:1 29:1 31:1 33:1 37:1 138:1 264:1 266:1 268:1 272:1 273:1 
1 1:1 3:0.219585 7:1 13:1 15:1 17:1 19:1 22:1 26:1 27:1 29:1 31:1 33:1 37:1 131:1 264:1 266:1 268:1 272:1 273:1 
1 1:1 3:0.0178042 7:1 13:1 15:1 17:1 19:1 22:1 26:1 27:1 29:1 31:1 33:1 35:1 135:1 264:1 266:1 268:1 272:1 273:1 
1 1:1 3:0.0118694 8:1 13:1 15:1 17:1 20:1 21:0.353553 22:1 26:1 27:1 29:1 31:1 33:1 35:1 135:1 264:1 266:1 268:1 272:1 273:1 
1 1:1 3:0.00890208 8:1 14:1 15:1 17:1 20:1 21:0.707107 22:1 26:1 27:1 29:1 31:1 33:1 36:1 135:1 264:1 266:1 268:1 272:1 273:1 
1 1:1 3:0.225519 9:1 13:1 15:1 17:1 19:1 22:1 26:1 27:1 29:1 31:1 33:1 37:1 138:1 264:1 266:1 268:1 272:1 273:1 
1 1:1 3:0.210682 7:1 13:1 15:1 17:1 20:1 21:0.5 22:1 26:1 27:1 29:1 31:1 33:1 37:1 131:1 264:1 266:1 268:1 272:1 273:1 
1 1:1 3:0.207715 8:1 14:1 15:1 17:1 20:1 21:0.707107 22:1 26:1 27:1 29:1 31:1 33:1 37:1 131:1 264:1 266:1 268:1 272:1 273:1 
1 1:1 3:0.20178 8:1 14:1 15:1 17:1 20:1 21:0.707107 22:1 26:1 27:1 29:1 31:1 33:1 37:1 131:1 264:1 266:1 268:1 272:1 273:1 
1 1:1 3:0.198813 8:1 14:1 15:1 17:1 20:1 21:0.707107 22:1 26:1 27:1 29:1 31:1 33:1 37:1 131:1 264:1 266:1 268:1 272:1 273:1 
1 1:1 3:0.00890208 7:1 13:1 15:1 17:1 20:1 21:0.5 22:1 26:1 27:1 29:1 31:1 33:1 35:1 135:1 264:1 266:1 268:1 272:1 273:1 
1 1:1 3:0.00296736 8:1 13:1 15:1 17:1 20:1 21:0.75 22:1 26:1 27:1 29:1 31:1 33:1 35:1 135:1 264:1 266:1 268:1 272:1 273:1 
1 1:1 3:0.198813 12:1 13:1 16:1 17:1 20:1 21:0.57735 22:1 26:1 28:1 29:1 31:1 33:1 37:1 131:1 264:1 266:1 268:1 272:1 273:1 
1 1:1 3:0.222552 9:1 13:1 16:1 17:1 20:1 21:0.5 22:1 26:1 27:1 29:1 31:1 33:1 37:1 138:1 264:1 266:1 268:1 272:1 273:1 
1 1:1 3:0.207715 7:1 14:1 15:1 17:1 20:1 21:0.75 23:1 26:1 27:1 29:1 31:1 33:1 37:1 131:1 264:1 266:1 268:1 272:1 273:1 
1 1:1 3:0.204748 8:1 13:1 15:1 17:1 20:1 21:0.353553 22:1 26:1 27:1 29:1 31:1 33:1 37:1 131:1 264:1 266:1 268:1 272:1 273:1 
1 1:1 3:0.198813 8:1 13:1 15:1 17:1 20:1 21:0.353553 22:1 26:1 27:1 29:1 31:1 33:1 37:1 131:1 264:1 266:1 268:1 272:1 273:1 
1 1:1 3:0.195846 8:1 13:1 15:1 17:1 20:1 21:0.353553 22:1 26:1 27:1 29:1 31:1 33:1 37:1 131:1 264:1 266:1 268:1 272:1 273:1 
1 1:1 3:0.00593472 7:1 14:1 15:1 17:1 20:1 21:0.75 23:1 26:1 27:1 29:1 31:1 33:1 36:1 135:1 264:1 266:1 268:1 272:1 273:1 
1 1:1 3:0.192878 12:1 13:1 16:1 17:1 20:1 21:0.57735 22:1 26:1 28:1 29:1 31:1 33:1 37:1 131:1 264:1 266:1 268:1 272:1 273:1 
1 1:1 3:0.216617 6:1 13:1 16:1 17:1 20:1 21:0.5 22:1 26:1 27:1 29:1 31:1 33:1 37:1 138:1 264:1 266:1 268:1 272:1 273:1 
1 1:1 3:0.20178 4:1 14:1 16:1 18:1 20:1 21:1 23:1 26:1 27:1 29:1 31:1 33:1 37:1 131:1 264:1 266:1 268:1 272:1 273:1 
1 1:1 3:0.198813 5:1 13:1 15:1 17:1 19:1 22:1 26:1 27:1 29:1 31:1 33:1 37:1 131:1 264:1 266:1 268:1 272:1 273:1 
1 1:1 3:0.192878 5:1 13:1 15:1 17:1 19:1 22:1 26:1 27:1 29:1 31:1 33:1 37:1 131:1 264:1 266:1 268:1 272:1 273:1 
1 1:1 3:0.189911 5:1 13:1 15:1 17:1 19:1 22:1 26:1 27:1 29:1 31:1 33:1 37:1 131:1 264:1 266:1 268:1 272:1 273:1 
1 1:1 3:0.166172 6:1 14:1 15:1 17:1 20:1 21:0.408248 22:1 26:1 27:1 29:1 31:1 33:1 37:1 101:1 264:1 266:1 268:1 272:1 273:1 
1 1:1 3:0.0267062 9:1 13:1 15:1 17:1 19:1 22:1 26:1 27:1 29:1 31:1 33:1 37:1 78:1 264:1 266:1 268:1 272:1 273:1 
1 1:1 3:0.0118694 7:1 13:1 15:1 17:1 19:1 22:1 26:1 27:1 29:1 31:1 33:1 37:1 71:1 264:1 266:1 268:1 272:1 273:1 
1 1:1 3:0.0237389 9:1 13:1 15:1 17:1 19:1 22:1 26:1 27:1 29:1 31:1 33:1 37:1 78:1 264:1 266:1 268:1 272:1 273:1 
1 1:1 3:0.00890208 7:1 13:1 15:1 17:1 19:1 22:1 26:1 27:1 29:1 31:1 33:1 37:1 71:1 264:1 266:1 268:1 272:1 273:1 
1 1:1 3:0.0178042 9:1 13:1 15:1 17:1 19:1 22:1 26:1 27:1 29:1 31:1 33:1 37:1 78:1 264:1 266:1 268:1 272:1 273:1 
1 1:1 3:0.00296736 7:1 13:1 15:1 17:1 19:1 22:1 26:1 27:1 29:1 31:1 33:1 37:1 71:1 264:1 266:1 268:1 272:1 273:1 
1 1:1 3:0.0207715 12:1 14:1 16:1 17:1 20:1 21:0.707107 22:1 26:1 27:1 29:1 31:1 33:1 37:1 78:1 264:1 266:1 268:1 272:1 273:1 
1 1:1 3:0.0148368 6:1 13:1 16:1 17:1 20:1 21:0.5 22:1 26:1 27:1 29:1 31:1 33:1 37:1 78:1 264:1 266:1 268:1 272:1 273:1 
1 1:1 3:0.00593472 10:1 13:1 15:1 17:1 19:1 22:1 26:1 27:1 29:1 31:1 33:1 37:1 150:1 264:1 266:1 268:1 272:1 273:1 
1 1:1 5:1 13:1 15:1 17:1 19:1 22:1 26:1 27:1 29:1 31:1 33:1 36:1 135:1 264:1 266:1 268:1 272:1 273:1 
1 1:1 3:0.0237389 6:1 13:1 15:1 17:1 19:1 22:1 26:1 27:1 29:1 31:1 33:1 35:1 131:1 264:1 266:1 268:1 272:1 273:1 
1 1:1 3:0.0207715 10:1 14:1 16:1 17:1 20:1 21:0.632456 22:1 26:1 27:1 29:1 31:1 33:1 36:1 86:1 264:1 266:1 268:1 271:1 273:1 
1 1:1 3:0.0178042 12:1 13:1 16:1 17:1 20:1 21:0.447214 22:1 26:1 27:1 29:1 31:1 33:1 37:1 215:1 264:1 266:1 268:1 272:1 273:1 
1 1:1 12:1 13:1 16:1 17:1 20:1 21:0.707107 22:1 26:1 27:1 29:1 31:1 33:1 37:1 215:1 264:1 266:1 268:1 272:1 273:1 
1 1:1 3:0.0712166 12:1 13:1 16:1 17:1 20:1 21:0.707107 22:1 26:1 27:1 29:1 31:1 33:1 37:1 210:1 264:1 266:1 268:1 272:1 273:1 
1 1:1 3:0.0593472 12:1 14:1 15:1 17:1 20:1 21:0.408248 22:1 26:1 27:1 29:1 31:1 33:1 37:1 131:1 264:1 266:1 268:1 272:1 273:1 
1 1:1 3:0.391691 12:1 13:1 15:1 17:1 19:1 22:1 26:1 27:1 29:1 31:1 33:1 37:1 191:1 264:1 266:1 268:1 272:1 273:1 
1 2:1 3:0.341246 12:1 13:1 15:1 17:1 19:1 22:1 26:1 27:1 29:1 31:1 33:1 37:1 192:1 264:1 267:1 268:1 272:1 273:1 
1 2:1 3:0.151335 11:1 13:1 16:1 17:1 20:1 21:0.707107 23:1 26:1 28:1 29:1 31:1 33:1 37:1 195:1 265:1 266:1 269:1 272:1 273:1 
1 2:1 3:0.124629 12:1 13:1 16:1 17:1 20:1 21:1 23:1 26:1 27:1 29:1 31:1 33:1 37:1 195:1 265:1 266:1 269:1 272:1 273:1 
1 2:1 3:0.11276 12:1 13:1 16:1 17:1 20:1 21:1 23:1 26:1 28:1 29:1 31:1 33:1 37:1 195:1 265:1 266:1 269:1 272:1 273:1 
1 1:1 3:0.109792 12:1 13:1 15:1 17:1 19:1 22:1 26:1 27:1 29:1 31:1 33:1 37:1 195:1 264:1 266:1 268:1 272:1 273:1 
1 1:1 3:0.106825 12:1 13:1 15:1 17:1 19:1 22:1 26:1 27:1 29:1 31:1 33:1 37:1 195:1 264:1 266:1 268:1 272:1 273:1 
1 2:1 3:0.0474777 12:1 13:1 15:1 17:1 19:1 22:1 26:1 27:1 30:1 31:1 33:1 37:1 195:1 264:1 267:1 268:1 272:1 273:1 
1 1:1 3:0.0771513 12:1 13:1 16:1 17:1 20:1 21:0.57735 22:1 26:1 27:1 29:1 31:1 33:1 37:1 195:1 264:1 266:1 268:1 272:1 273:1 
1 1:1 3:0.00296736 12:1 13:1 16:1 17:1 20:1 21:0.57735 22:1 26:1 27:1 29:1 31:1 33:1 37:1 199:1 264:1 266:1 268:1 272:1 273:1 
1 2:1 3:0.074184 12:1 13:1 16:1 17:1 20:1 21:1 23:1 26:1 27:1 29:1 31:1 33:1 37:1 195:1 265:1 267:1 269:1 272:1 273:1 
1 2:1 3:0.0296736 12:1 13:1 16:1 17:1 20:1 21:1 23:1 26:1 28:1 30:1 32:1 33:1 37:1 195:1 265:1 266:1 269:1 272:1 273:1 
1 1:1 3:0.344214 12:1 13:1 15:1 17:1 19:1 22:1 26:1 27:1 29:1 31:1 33:1 37:1 131:1 264:1 266:1 268:1 272:1 273:1 
1 2:1 3:0.293769 12:1 13:1 16:1 17:1 20:1 21:1 23:1 26:1 28:1 29:1 31:1 33:1 37:1 132:1 265:1 266:1 269:1 272:1 273:1 
1 2:1 3:0.103858 11:1 13:1 15:1 17:1 19:1 22:1 26:1 27:1 29:1 31:1 33:1 37:1 135:1 264:1 267:1 268:1 272:1 273:1 
1 2:1 3:0.0771513 12:1 13:1 15:1 17:1 19:1 22:1 26:1 27:1 29:1 31:1 33:1 37:1 135:1 264:1 267:1 268:1 272:1 273:1 
1 2:1 3:0.0652819 12:1 13:1 15:1 17:1 19:1 22:1 26:1 27:1 29:1 31:1 33:1 37:1 135:1 264:1 267:1 268:1 272:1 273:1 
1 1:1 3:0.0623145 12:1 13:1 15:1 17:1 19:1 22:1 26:1 27:1 29:1 31:1 33:1 37:1 135:1 264:1 266:1 268:1 272:1 273:1 
1 1:1 3:0.0593472 12:1 13:1 15:1 17:1 19:1 22:1 26:1 27:1 29:1 31:1 33:1 37:1 135:1 264:1 266:1 268:1 272:1 273:1 
1 1:1 3:0.284866 12:1 13:1 15:1 17:1 19:1 22:1 26:1 27:1 29:1 31:1 33:1 37:1 131:1 264:1 266:1 268:1 272:1 273:1 
1 1:1 3:0.234421 12:1 13:1 15:1 17:1 19:1 22:1 26:1 27:1 29:1 31:1 33:1 37:1 132:1 264:1 266:1 268:1 272:1 273:1 
1 1:1 3:0.0445104 11:1 13:1 15:1 17:1 19:1 22:1 26:1 27:1 29:1 31:1 33:1 37:1 135:1 264:1 266:1 268:1 272:1 273:1 
1 1:1 3:0.0178042 12:1 13:1 15:1 17:1 19:1 22:1 26:1 27:1 29:1 31:1 33:1 37:1 135:1 264:1 266:1 268:1 272:1 273:1 
1 1:1 3:0.00593472 12:1 13:1 15:1 17:1 19:1 22:1 26:1 27:1 29:1 31:1 33:1 37:1 135:1 264:1 266:1 268:1 272:1 273:1 
1 1:1 3:0.00296736 12:1 14:1 15:1 18:1 20:1 21:0.5 22:1 26:1 28:1 29:1 31:1 33:1 37:1 135:1 264:1 266:1 268:1 272:1 273:1 
1 1:1 3:0.281899 12:1 13:1 15:1 17:1 19:1 22:1 26:1 27:1 29:1 31:1 33:1 37:1 131:1 264:1 266:1 268:1 272:1 273:1 
1 1:1 3:0.231454 12:1 13:1 15:1 17:1 19:1 22:1 26:1 27:1 29:1 31:1 33:1 37:1 132:1 264:1 266:1 268:1 272:1 273:1 
1 1:1 3:0.041543 11:1 13:1 15:1 17:1 19:1 22:1 26:1 27:1 29:1 31:1 33:1 37:1 135:1 264:1 266:1 268:1 272:1 273:1 
1 1:1 3:0.0148368 12:1 13:1 15:1 17:1 19:1 22:1 26:1 27:1 29:1 31:1 33:1 37:1 135:1 264:1 266:1 268:1 272:1 273:1 
1 1:1 3:0.00296736 12:1 13:1 15:1 17:1 19:1 22:1 26:1 27:1 29:1 31:1 33:1 37:1 135:1 264:1 266:1 268:1 272:1 273:1 
1 1:1 3:0.278932 12:1 13:1 15:1 17:1 19:1 22:1 26:1 27:1 29:1 31:1 33:1 37:1 131:1 264:1 266:1 268:1 272:1 273:1 
1 2:1 3:0.228487 12:1 13:1 15:1 17:1 19:1 22:1 26:1 27:1 29:1 31:1 33:1 37:1 132:1 264:1 267:1 268:1 272:1 273:1 
1 2:1 3:0.0118694 12:1 13:1 16:1 17:1 20:1 21:1 23:1 26:1 27:1 29:1 31:1 33:1 37:1 135:1 265:1 266:1 269:1 272:1 273:1 
1 1:1 3:0.267062 12:1 13:1 15:1 17:1 19:1 22:1 26:1 27:1 29:1 31:1 33:1 37:1 131:1 264:1 266:1 268:1 272:1 273:1 
1 2:1 3:0.216617 12:1 13:1 15:1 17:1 19:1 22:1 26:1 27:1 29:1 31:1 33:1 35:1 132:1 264:1 267:1 268:1 272:1 273:1 
1 2:1 3:0.0267062 11:1 13:1 16:1 17:1 20:1 21:0.707107 23:1 26:1 27:1 29:1 31:1 33:1 37:1 135:1 265:1 266:1 269:1 272:1 273:1 
1 1:1 3:0.240356 9:1 13:1 15:1 17:1 19:1 22:1 26:1 27:1 29:1 31:1 33:1 37:1 131:1 264:1 266:1 268:1 272:1 273:1 
1 2:1 3:0.189911 9:1 13:1 15:1 17:1 19:1 22:1 26:1 27:1 29:1 31:1 33:1 37:1 132:1 264:1 267:1 268:1 272:1 273:1 
0.4558081835645304 2:1 3:0.0623145 12:1 13:1 16:1 17:1 20:1 21:1 23:1 26:1 27:1 29:1 31:1 33:1 37:1 86:1 264:1 266:1 268:1 272:1 273:1 
1 1:1 3:0.0267062 12:1 13:1 16:1 17:1 19:1 22:1 26:1 27:1 29:1 31:1 33:1 37:1 87:1 264:1 266:1 268:1 272:1 273:1 
1 1:1 3:0.0504451 12:1 13:1 15:1 17:1 19:1 22:1 26:1 27:1 29:1 31:1 33:1 37:1 86:1 264:1 266:1 268:1 272:1 273:1 
1 1:1 3:0.0356083 12:1 13:1 16:1 17:1 19:1 22:1 26:1 27:1 29:1 31:1 33:1 37:1 86:1 264:1 266:1 268:1 272:1 273:1 
1 2:1 3:0.0593472 12:1 13:1 16:1 17:1 20:1 21:1 23:1 26:1 27:1 29:1 31:1 33:1 37:1 135:1 265:1 266:1 269:1 272:1 273:1 
1 2:1 3:0.0563798 12:1 13:1 16:1 17:1 20:1 21:1 23:1 26:1 27:1 29:1 31:1 33:1 37:1 135:1 265:1 266:1 269:1 272:1 273:1 
1 2:1 3:0.041543 12:1 13:1 16:1 17:1 20:1 21:1 23:1 26:1 27:1 29:1 31:1 33:1 37:1 135:1 265:1 266:1 269:1 272:1 273:1 
1 1:1 3:0.237389 12:1 13:1 16:1 17:1 19:1 22:1 26:1 27:1 29:1 31:1 33:1 37:1 129:1 264:1 266:1 268:1 272:1 273:1 
1 1:1 3:0.590504 12:1 14:1 15:1 17:1 20:1 21:0.353553 22:1 26:1 27:1 29:1 31:1 33:1 37:1 130:1 264:1 266:1 268:1 272:1 273:1 
1 1:1 12:1 14:1 15:1 17:1 20:1 21:0.353553 22:1 26:1 27:1 29:1 31:1 33:1 37:1 135:1 264:1 266:1 268:1 272:1 273:1 
1 1:1 3:0.590504 12:1 14:1 15:1 17:1 20:1 21:0.353553 22:1 26:1 27:1 29:1 31:1 33:1 37:1 130:1 264:1 266:1 268:1 272:1 273:1 
1 1:1 3:0.596439 12:1 13:1 15:1 17:1 19:1 22:1 26:1 27:1 29:1 31:1 33:1 37:1 130:1 264:1 266:1 268:1 272:1 273:1 
1 1:1 3:0.00593472 11:1 13:1 15:1 17:1 19:1 22:1 26:1 27:1 29:1 31:1 33:1 37:1 135:1 264:1 266:1 268:1 272:1 273:1 
1 1:1 3:0.590504 9:1 13:1 15:1 17:1 20:1 21:0.6 22:1 25:1 27:1 29:1 31:1 33:1 37:1 130:1 264:1 266:1 268:1 272:1 273:1 
1 1:1 3:0.0178042 12:1 13:1 15:1 17:1 19:1 22:1 26:1 27:1 29:1 31:1 33:1 37:1 199:1 264:1 266:1 268:1 272:1 273:1 
1 1:1 3:0.00593472 10:1 14:1 16:1 17:1 20:1 21:0.816497 23:1 26:1 27:1 29:1 31:1 33:1 37:1 199:1 265:1 266:1 269:1 272:1 273:1 
1 1:1 3:0.394659 6:1 13:1 16:1 17:1 20:1 21:0.5 22:1 26:1 27:1 29:1 31:1 33:1 37:1 192:1 264:1 266:1 268:1 272:1 273:1 
1 1:1 3:0.394659 6:1 14:1 15:1 17:1 20:1 21:0.612372 22:1 26:1 27:1 29:1 31:1 33:1 37:1 192:1 264:1 266:1 268:1 272:1 273:1 
1 1:1 3:0.00890208 12:1 13:1 16:1 17:1 19:1 22:1 26:1 27:1 29:1 31:1 33:1 37:1 39:1 264:1 266:1 268:1 272:1 273:1 
1 1:1 3:0.204748 9:1 13:1 15:1 17:1 19:1 22:1 26:1 27:1 29:1 31:1 33:1 37:1 42:1 264:1 266:1 268:1 272:1 273:1 
1 1:1 3:0.0118694 8:1 14:1 16:1 17:1 20:1 21:0.912871 22:1 26:1 27:1 29:1 31:1 33:1 37:1 43:1 264:1 266:1 268:1 272:1 273:1 
1 1:1 12:1 14:1 16:1 17:1 20:1 21:0.707107 22:1 26:1 27:1 29:1 31:1 33:1 37:1 103:1 264:1 266:1 268:1 272:1 273:1 
1 1:1 3:0.192878 9:1 13:1 15:1 17:1 19:1 22:1 26:1 27:1 29:1 31:1 33:1 37:1 102:1 264:1 266:1 268:1 272:1 273:1 
1 1:1 12:1 13:1 16:1 17:1 20:1 21:0.408248 22:1 26:1 27:1 29:1 31:1 33:1 36:1 87:1 264:1 266:1 268:1 272:1 273:1 
1 1:1 12:1 14:1 15:1 17:1 20:1 21:0.353553 22:1 26:1 27:1 29:1 31:1 33:1 37:1 55:1 264:1 266:1 268:1 272:1 273:1 
1 1:1 3:0.118694 12:1 13:1 16:1 17:1 20:1 21:0.707107 22:1 26:1 27:1 29:1 31:1 33:1 36:1 60:1 264:1 266:1 269:1 272:1 273:1 
1 1:1 3:0.115727 10:1 14:1 16:1 17:1 20:1 21:0.707107 22:1 26:1 27:1 29:1 31:1 33:1 36:1 60:1 265:1 266:1 269:1 272:1 273:1 
1 1:1 3:0.11276 11:1 13:1 15:1 17:1 19:1 22:1 26:1 27:1 29:1 31:1 33:1 36:1 60:1 264:1 266:1 268:1 272:1 273:1 
1 1:1 3:0.103858 11:1 13:1 15:1 17:1 19:1 22:1 26:1 27:1 29:1 31:1 33:1 37:1 60:1 264:1 266:1 268:1 272:1 273:1 
1 1:1 3:0.103858 11:1 13:1 15:1 17:1 19:1 22:1 26:1 27:1 29:1 31:1 33:1 37:1 60:1 264:1 266:1 268:1 272:1 273:1 
1 1:1 3:0.0860534 12:1 13:1 15:1 17:1 19:1 22:1 26:1 27:1 29:1 31:1 33:1 35:1 60:1 264:1 267:1 268:1 272:1 273:1 
1 1:1 3:0.0326409 9:1 13:1 16:1 17:1 20:1 21:0.57735 22:1 26:1 27:1 29:1 31:1 33:1 35:1 135:1 264:1 266:1 269:1 272:1 273:1 
1 1:1 3:0.0296736 7:1 14:1 15:1 17:1 20:1 21:0.57735 22:1 26:1 27:1 29:1 31:1 33:1 35:1 135:1 265:1 266:1 269:1 272:1 273:1 
1 1:1 3:0.0267062 8:1 13:1 15:1 17:1 20:1 21:0.408248 22:1 26:1 27:1 29:1 31:1 33:1 35:1 135:1 264:1 266:1 268:1 272:1 273:1 
1 1:1 3:0.0178042 8:1 13:1 15:1 17:1 20:1 21:0.408248 22:1 26:1 27:1 29:1 31:1 33:1 37:1 135:1 264:1 266:1 268:1 272:1 273:1 
1 1:1 3:0.0178042 8:1 13:1 15:1 17:1 20:1 21:0.408248 22:1 26:1 27:1 29:1 31:1 33:1 37:1 135:1 264:1 266:1 268:1 272:1 273:1 
1 1:1 9:1 13:1 15:1 17:1 19:1 22:1 26:1 27:1 29:1 31:1 33:1 36:1 135:1 264:1 267:1 268:1 272:1 273:1 
1 1:1 3:0.0326409 12:1 13:1 15:1 17:1 19:1 22:1 26:1 27:1 29:1 31:1 33:1 35:1 135:1 264:1 266:1 268:1 272:1 273:1 
1 1:1 3:0.0296736 10:1 13:1 15:1 17:1 19:1 22:1 26:1 27:1 29:1 31:1 33:1 35:1 135:1 264:1 267:1 268:1 272:1 273:1 
1 1:1 3:0.0267062 11:1 13:1 15:1 17:1 19:1 22:1 26:1 27:1 29:1 31:1 33:1 35:1 135:1 264:1 267:1 269:1 272:1 273:1 
1 1:1 3:0.0178042 11:1 13:1 15:1 17:1 19:1 22:1 26:1 27:1 29:1 31:1 33:1 37:1 135:1 264:1 267:1 269:1 272:1 273:1 
1 1:1 3:0.0178042 11:1 13:1 15:1 17:1 19:1 22:1 26:1 27:1 29:1 31:1 33:1 37:1 135:1 264:1 267:1 269:1 272:1 273:1 
1 1:1 11:1 13:1 15:1 17:1 19:1 22:1 26:1 27:1 29:1 31:1 33:1 36:1 135:1 264:1 266:1 268:1 272:1 273:1 
1 1:1 3:0.0148368 9:1 13:1 15:1 17:1 19:1 22:1 26:1 27:1 29:1 31:1 33:1 37:1 135:1 264:1 266:1 268:1 272:1 273:1 
1 1:1 3:0.0118694 7:1 13:1 15:1 17:1 19:1 22:1 26:1 27:1 29:1 31:1 33:1 37:1 135:1 264:1 266:1 268:1 272:1 273:1 
1 1:1 3:0.0148368 9:1 13:1 15:1 17:1 19:1 22:1 26:1 27:1 29:1 31:1 33:1 37:1 135:1 264:1 266:1 268:1 272:1 273:1 
1 1:1 3:0.0118694 7:1 13:1 15:1 17:1 19:1 22:1 26:1 27:1 29:1 31:1 33:1 37:1 135:1 264:1 266:1 268:1 272:1 273:1 
1 1:1 3:0.00593472 9:1 13:1 15:1 17:1 19:1 22:1 26:1 27:1 29:1 31:1 33:1 36:1 135:1 264:1 266:1 268:1 272:1 273:1 
1 1:1 3:0.00296736 7:1 13:1 15:1 17:1 19:1 22:1 26:1 27:1 29:1 31:1 33:1 36:1 135:1 264:1 266:1 268:1 272:1 273:1 
1 1:1 3:0.00296736 6:1 13:1 16:1 17:1 20:1 21:0.5 22:1 26:1 27:1 29:1 31:1 33:1 36:1 135:1 264:1 266:1 269:1 272:1 273:1 
1 1:1 3:0.041543 12:1 13:1 16:1 17:1 20:1 21:0.707107 22:1 26:1 28:1 29:1 31:1 33:1 37:1 139:1 264:1 266:1 268:1 272:1 273:1 
0.5909002743538447 2:1 3:0.00890208 9:1 13:1 16:1 17:1 20:1 21:0.707107 23:1 26:1 27:1 29:1 31:1 33:1 37:1 119:1 265:1 266:1 269:1 272:1 273:1 
1 1:1 3:0.0356083 11:1 14:1 16:1 17:1 20:1 21:0.534522 23:1 26:1 27:1 29:1 31:1 33:1 37:1 119:1 264:1 266:1 268:1 272:1 273:1 
1 1:1 12:1 13:1 15:1 17:1 19:1 22:1 26:1 27:1 29:1 31:1 33:1 36:1 119:1 264:1 267:1 268:1 272:1 273:1 
1 1:1 12:1 13:1 15:1 17:1 19:1 22:1 26:1 27:1 29:1 31:1 33:1 36:1 119:1 264:1 267:1 268:1 272:1 273:1 
1 1:1 3:0.00890208 9:1 14:1 16:1 17:1 20:1 21:0.534522 23:1 26:1 27:1 29:1 31:1 33:1 37:1 119:1 264:1 266:1 268:1 272:1 273:1 
1 1:1 3:0.00890208 9:1 13:1 15:1 17:1 20:1 21:0.5 22:1 26:1 28:1 29:1 31:1 33:1 37:1 119:1 264:1 266:1 268:1 272:1 273:1 
1 1:1 3:0.00296736 12:1 13:1 16:1 17:1 20:1 21:0.707107 22:1 26:1 28:1 29:1 31:1 33:1 37:1 119:1 264:1 266:1 268:1 272:1 273:1 
1 1:1 3:0.246291 12:1 13:1 15:1 17:1 20:1 21:0.5 22:1 26:1 27:1 29:1 31:1 33:1 37:1 116:1 265:1 266:1 269:1 272:1 273:1 
1 1:1 3:0.00593472 12:1 13:1 15:1 17:1 20:1 21:0.5 22:1 26:1 27:1 29:1 31:1 33:1 37:1 119:1 265:1 266:1 269:1 272:1 273:1 
1 1:1 12:1 13:1 15:1 17:1 20:1 21:0.5 22:1 26:1 27:1 29:1 31:1 33:1 37:1 119:1 265:1 266:1 269:1 272:1 273:1 
1 1:1 3:0.00296736 9:1 13:1 15:1 17:1 20:1 21:0.333333 22:1 26:1 27:1 29:1 31:1 33:1 36:1 119:1 264:1 266:1 268:1 272:1 273:1 
1 1:1 12:1 13:1 15:1 17:1 19:1 22:1 26:1 27:1 29:1 31:1 33:1 37:1 119:1 264:1 266:1 268:1 272:1 273:1 
1 1:1 10:1 13:1 15:1 17:1 19:1 22:1 26:1 27:1 29:1 31:1 33:1 37:1 119:1 264:1 266:1 268:1 272:1 273:1 
1 1:1 6:1 13:1 15:1 17:1 19:1 22:1 26:1 27:1 29:1 31:1 33:1 37:1 119:1 264:1 266:1 268:1 272:1 273:1 
1 1:1 3:0.00296736 12:1 13:1 15:1 17:1 19:1 22:1 26:1 27:1 29:1 31:1 33:1 37:1 119:1 264:1 266:1 268:1 272:1 273:1 
1 2:1 3:0.00296736 9:1 13:1 16:1 17:1 20:1 21:0.707107 23:1 26:1 27:1 29:1 31:1 34:1 37:1 119:1 265:1 266:1 269:1 272:1 273:1 
1 1:1 3:0.225519 12:1 13:1 16:1 17:1 20:1 21:0.57735 22:1 26:1 27:1 29:1 31:1 33:1 37:1 116:1 264:1 266:1 268:1 272:1 273:1 
1 1:1 3:0.178042 12:1 13:1 16:1 17:1 20:1 21:0.707107 22:1 26:1 27:1 29:1 31:1 33:1 37:1 116:1 264:1 266:1 268:1 272:1 273:1 
1 1:1 3:0.151335 12:1 13:1 16:1 17:1 20:1 21:0.57735 22:1 26:1 27:1 29:1 31:1 33:1 37:1 116:1 264:1 266:1 268:1 272:1 273:1 
1 1:1 3:0.145401 12:1 13:1 16:1 17:1 20:1 21:0.57735 22:1 26:1 27:1 29:1 31:1 33:1 37:1 116:1 264:1 266:1 268:1 272:1 273:1 
1 1:1 3:0.0326409 12:1 14:1 15:1 17:1 20:1 21:0.408248 22:1 26:1 27:1 29:1 31:1 33:1 37:1 71:1 264:1 266:1 268:1 272:1 273:1 
1 1:1 3:0.074184 12:1 13:1 15:1 17:1 19:1 22:1 26:1 27:1 29:1 31:1 33:1 35:1 71:1 264:1 266:1 268:1 272:1 273:1 
1 1:1 3:0.0267062 12:1 14:1 15:1 17:1 20:1 21:0.408248 22:1 26:1 27:1 29:1 31:1 33:1 37:1 71:1 264:1 266:1 268:1 272:1 273:1 
1 1:1 3:0.0474777 12:1 14:1 15:1 17:1 20:1 21:0.408248 22:1 26:1 27:1 29:1 31:1 33:1 37:1 71:1 264:1 266:1 268:1 272:1 273:1 
1 1:1 3:0.00296736 7:1 14:1 15:1 17:1 20:1 21:0.67082 22:1 25:1 27:1 29:1 31:1 33:1 36:1 71:1 264:1 266:1 268:1 271:1 273:1 
1 1:1 3:0.169139 12:1 13:1 16:1 17:1 20:1 21:1 23:1 26:1 28:1 30:1 32:1 33:1 37:1 199:1 265:1 266:1 269:1 272:1 273:1 
1 2:1 3:0.27003 12:1 13:1 16:1 17:1 20:1 21:1 23:1 26:1 27:1 29:1 31:1 33:1 37:1 191:1 265:1 266:1 269:1 272:1 273:1 
1 1:1 3:0.228487 12:1 13:1 16:1 17:1 20:1 21:0.707107 22:1 26:1 28:1 29:1 31:1 33:1 37:1 191:1 264:1 266:1 268:1 272:1 273:1 
1 2:1 3:0.169139 12:1 13:1 16:1 17:1 20:1 21:1 23:1 26:1 28:1 30:1 32:1 33:1 37:1 199:1 265:1 266:1 269:1 272:1 273:1 
1 1:1 3:0.169139 12:1 13:1 16:1 17:1 20:1 21:1 23:1 26:1 28:1 30:1 32:1 33:1 37:1 199:1 265:1 266:1 269:1 272:1 273:1 
1 2:1 3:0.10089 12:1 13:1 16:1 17:1 20:1 21:1 23:1 26:1 27:1 29:1 31:1 33:1 37:1 191:1 265:1 266:1 269:1 272:1 273:1 
1 1:1 3:0.0593472 12:1 13:1 16:1 17:1 20:1 21:0.707107 22:1 26:1 28:1 29:1 31:1 33:1 37:1 191:1 264:1 266:1 268:1 272:1 273:1 
1 1:1 3:0.041543 12:1 13:1 16:1 17:1 20:1 21:0.707107 22:1 26:1 27:1 29:1 31:1 33:1 35:1 71:1 264:1 266:1 268:1 272:1 273:1 
1 1:1 3:0.041543 12:1 13:1 15:1 17:1 20:1 21:0.408248 22:1 26:1 27:1 29:1 31:1 33:1 35:1 71:1 264:1 266:1 268:1 272:1 273:1 
1 1:1 3:0.0356083 12:1 13:1 16:1 17:1 20:1 21:0.5 22:1 26:1 27:1 29:1 31:1 33:1 35:1 71:1 264:1 266:1 268:1 271:1 273:1 
1 1:1 3:0.0623145 9:1 13:1 15:1 17:1 20:1 21:0.333333 22:1 26:1 27:1 29:1 31:1 33:1 37:1 135:1 264:1 266:1 268:1 272:1 273:1 
1 1:1 3:0.0178042 9:1 13:1 15:1 17:1 19:1 22:1 26:1 27:1 29:1 31:1 33:1 37:1 135:1 264:1 266:1 268:1 272:1 273:1 
1 1:1 3:0.00890208 9:1 13:1 15:1 17:1 19:1 22:1 26:1 27:1 29:1 31:1 33:1 37:1 135:1 264:1 266:1 268:1 272:1 273:1 
1 1:1 3:0.0534125 12:1 13:1 16:1 17:1 20:1 21:1 23:1 26:1 27:1 29:1 31:1 33:1 37:1 135:1 264:1 266:1 268:1 272:1 273:1 
1 1:1 3:0.0534125 12:1 13:1 15:1 17:1 19:1 22:1 26:1 27:1 29:1 31:1 33:1 37:1 135:1 264:1 266:1 268:1 272:1 273:1 
1 1:1 3:0.00890208 12:1 13:1 15:1 18:1 19:1 22:1 26:1 27:1 29:1 31:1 33:1 35:1 135:1 264:1 266:1 268:1 272:1 273:1 
1 1:1 3:0.0445104 12:1 14:1 15:1 17:1 20:1 21:0.816497 22:1 26:1 27:1 29:1 31:1 33:1 37:1 135:1 264:1 266:1 268:1 272:1 273:1 
1 1:1 3:0.175074 12:1 13:1 16:1 17:1 20:1 21:1 23:1 26:1 27:1 29:1 31:1 33:1 37:1 131:1 265:1 266:1 269:1 272:1 273:1 
1 1:1 3:0.183976 12:1 13:1 16:1 17:1 20:1 21:0.707107 22:1 26:1 27:1 29:1 31:1 33:1 35:1 131:1 264:1 266:1 268:1 272:1 273:1 
1 1:1 3:0.178042 10:1 13:1 15:1 17:1 19:1 22:1 26:1 27:1 29:1 31:1 33:1 35:1 131:1 264:1 266:1 268:1 272:1 273:1 
1 1:1 3:0.0237389 12:1 13:1 16:1 17:1 20:1 21:0.707107 22:1 26:1 27:1 29:1 31:1 33:1 35:1 135:1 264:1 266:1 268:1 272:1 273:1 
1 1:1 3:0.15727 12:1 13:1 16:1 17:1 20:1 21:1 23:1 26:1 27:1 29:1 31:1 33:1 37:1 131:1 265:1 266:1 269:1 272:1 273:1 
0.6923975869815053 2:1 3:0.183976 12:1 13:1 16:1 17:1 20:1 21:1 23:1 26:1 27:1 29:1 31:1 33:1 37:1 138:1 265:1 267:1 269:1 272:1 273:1 
1 1:1 3:0.154303 10:1 13:1 15:1 17:1 20:1 21:0.5 22:1 26:1 27:1 29:1 31:1 33:1 35:1 131:1 264:1 266:1 268:1 272:1 273:1 
1 2:1 3:0.0682493 12:1 13:1 16:1 17:1 20:1 21:1 23:1 26:1 27:1 29:1 31:1 33:1 37:1 168:1 265:1 267:1 269:1 272:1 273:1 
1 2:1 3:0.0356083 12:1 13:1 16:1 17:1 20:1 21:1 23:1 26:1 27:1 29:1 31:1 33:1 37:1 161:1 265:1 267:1 269:1 272:1 273:1 
1 2:1 3:0.0326409 12:1 13:1 16:1 17:1 20:1 21:1 23:1 26:1 27:1 29:1 31:1 33:1 37:1 78:1 265:1 267:1 269:1 272:1 273:1 
1 1:1 3:0.00593472 6:1 13:1 15:1 17:1 20:1 21:0.5 22:1 26:1 27:1 29:1 31:1 33:1 36:1 71:1 264:1 266:1 268:1 272:1 273:1 
1 1:1 3:0.0771513 6:1 13:1 16:1 17:1 20:1 21:0.377964 22:1 26:1 27:1 29:1 31:1 33:1 37:1 131:1 264:1 266:1 268:1 272:1 273:1 
1 1:1 3:0.0178042 12:1 14:1 16:1 17:1 20:1 21:0.816497 22:1 26:1 28:1 29:1 31:1 33:1 37:1 135:1 264:1 266:1 268:1 272:1 273:1 
1 1:1 3:0.0148368 12:1 14:1 16:1 17:1 20:1 21:0.816497 22:1 26:1 28:1 29:1 31:1 33:1 37:1 135:1 264:1 266:1 268:1 272:1 273:1 
1 1:1 3:0.0623145 12:1 13:1 16:1 17:1 20:1 21:0.353553 22:1 26:1 27:1 29:1 31:1 33:1 37:1 210:1 264:1 266:1 268:1 272:1 273:1 
1 2:1 3:0.00890208 12:1 13:1 16:1 17:1 20:1 21:1 23:1 26:1 27:1 29:1 31:1 33:1 37:1 71:1 265:1 266:1 269:1 272:1 273:1 
1 1:1 3:0.0326409 11:1 13:1 15:1 17:1 20:1 21:0.566947 22:1 25:1 27:1 29:1 31:1 33:1 37:1 45:1 264:1 266:1 268:1 272:1 273:1 
1 1:1 3:0.0267062 11:1 13:1 15:1 17:1 19:1 22:1 26:1 27:1 29:1 31:1 33:1 37:1 45:1 264:1 266:1 268:1 272:1 273:1 
1 1:1 3:0.00593472 8:1 13:1 15:1 17:1 20:1 21:0.267261 22:1 26:1 27:1 29:1 31:1 33:1 36:1 135:1 264:1 266:1 268:1 272:1 273:1 
1 1:1 3:0.0118694 12:1 13:1 16:1 17:1 20:1 21:0.707107 22:1 26:1 27:1 29:1 31:1 33:1 37:1 135:1 264:1 266:1 268:1 272:1 273:1 
1 1:1 3:0.0148368 12:1 13:1 15:1 17:1 19:1 22:1 26:1 27:1 29:1 31:1 33:1 37:1 60:1 264:1 266:1 268:1 272:1 273:1 
1 1:1 3:0.15727 10:1 13:1 15:1 17:1 20:1 21:0.288675 22:1 26:1 27:1 29:1 31:1 33:1 37:1 60:1 264:1 266:1 268:1 272:1 273:1 
1 2:1 3:0.237389 12:1 13:1 16:1 17:1 20:1 21:1 23:1 26:1 28:1 29:1 31:1 33:1 37:1 139:1 265:1 266:1 269:1 272:1 273:1 
1 2:1 3:0.186944 12:1 13:1 16:1 17:1 20:1 21:1 23:1 26:1 28:1 29:1 31:1 33:1 37:1 139:1 265:1 266:1 269:1 272:1 273:1 
1 2:1 3:0.0445104 12:1 13:1 16:1 17:1 20:1 21:1 23:1 26:1 28:1 29:1 31:1 33:1 37:1 191:1 265:1 266:1 269:1 272:1 273:1 
1 1:1 3:0.00296736 12:1 13:1 15:1 17:1 19:1 22:1 26:1 27:1 29:1 31:1 33:1 37:1 135:1 264:1 266:1 268:1 272:1 273:1 
1 1:1 3:0.0593472 12:1 13:1 16:1 17:1 20:1 21:0.707107 22:1 26:1 27:1 29:1 31:1 33:1 35:1 86:1 264:1 266:1 268:1 272:1 273:1 
1 1:1 3:0.0534125 8:1 13:1 15:1 17:1 20:1 21:0.447214 22:1 26:1 27:1 29:1 31:1 33:1 35:1 131:1 264:1 266:1 268:1 272:1 273:1 
1 1:1 3:0.267062 10:1 14:1 15:1 17:1 20:1 21:0.57735 22:1 26:1 27:1 29:1 31:1 33:1 37:1 41:1 264:1 266:1 268:1 272:1 273:1 
1 1:1 3:0.261128 10:1 13:1 15:1 17:1 19:1 22:1 26:1 27:1 29:1 31:1 33:1 37:1 41:1 264:1 266:1 268:1 272:1 273:1 
1 1:1 3:0.252226 11:1 13:1 15:1 17:1 19:1 22:1 26:1 27:1 29:1 31:1 33:1 37:1 41:1 264:1 266:1 268:1 272:1 273:1 
1 1:1 3:0.142433 10:1 14:1 16:1 17:1 20:1 21:0.57735 22:1 26:1 27:1 29:1 31:1 33:1 37:1 45:1 264:1 266:1 268:1 272:1 273:1 
1 1:1 3:0.139466 11:1 13:1 15:1 17:1 19:1 22:1 26:1 27:1 29:1 31:1 33:1 37:1 45:1 264:1 266:1 268:1 272:1 273:1 
1 1:1 3:0.0890208 11:1 14:1 15:1 17:1 20:1 21:0.408248 22:1 26:1 27:1 29:1 31:1 33:1 37:1 45:1 264:1 266:1 268:1 272:1 273:1 
1 1:1 3:0.00593472 7:1 14:1 15:1 17:1 20:1 21:0.666667 23:1 26:1 28:1 29:1 31:1 33:1 37:1 135:1 264:1 266:1 268:1 272:1 273:1 
1 1:1 3:0.178042 7:1 14:1 15:1 17:1 20:1 21:0.353553 22:1 26:1 27:1 29:1 31:1 33:1 37:1 131:1 264:1 266:1 268:1 272:1 273:1 
1 1:1 3:0.172107 7:1 13:1 15:1 17:1 19:1 22:1 26:1 27:1 29:1 31:1 33:1 37:1 131:1 264:1 266:1 268:1 272:1 273:1 
1 1:1 3:0.163205 8:1 13:1 15:1 17:1 20:1 21:0.5 22:1 26:1 27:1 29:1 31:1 33:1 37:1 131:1 264:1 266:1 268:1 272:1 273:1 
1 1:1 3:0.0534125 7:1 14:1 15:1 17:1 20:1 21:0.235702 22:1 26:1 27:1 29:1 31:1 33:1 37:1 135:1 264:1 266:1 268:1 272:1 273:1 
1 1:1 3:0.0504451 8:1 13:1 15:1 17:1 19:1 22:1 26:1 27:1 29:1 31:1 33:1 37:1 135:1 264:1 266:1 268:1 272:1 273:1 
1 1:1 3:0.127596 7:1 13:1 15:1 17:1 19:1 22:1 26:1 27:1 29:1 31:1 33:1 37:1 131:1 264:1 266:1 268:1 272:1 273:1 
1 1:1 3:0.121662 7:1 13:1 15:1 17:1 19:1 22:1 26:1 27:1 29:1 31:1 33:1 37:1 131:1 264:1 266:1 268:1 272:1 273:1 
1 2:1 3:0.11276 8:1 13:1 15:1 17:1 19:1 22:1 26:1 27:1 29:1 31:1 33:1 37:1 131:1 264:1 267:1 269:1 272:1 273:1 
1 1:1 3:0.00296736 7:1 13:1 15:1 17:1 20:1 21:0.235702 22:1 26:1 27:1 29:1 31:1 33:1 37:1 135:1 264:1 266:1 268:1 272:1 273:1 
1 1:1 3:0.124629 4:1 14:1 15:1 17:1 20:1 21:0.5 22:1 26:1 27:1 29:1 31:1 33:1 37:1 131:1 264:1 266:1 268:1 272:1 273:1 
1 1:1 3:0.118694 4:1 13:1 15:1 17:1 20:1 21:0.235702 22:1 26:1 27:1 29:1 31:1 33:1 37:1 131:1 264:1 266:1 268:1 272:1 273:1 
1 1:1 3:0.109792 5:1 13:1 15:1 17:1 19:1 22:1 26:1 27:1 29:1 31:1 33:1 37:1 131:1 264:1 266:1 268:1 272:1 273:1 
1 1:1 12:1 13:1 16:1 17:1 20:1 21:0.707107 22:1 26:1 28:1 30:1 32:1 33:1 37:1 199:1 264:1 266:1 268:1 272:1 273:1 
1 2:1 3:0.0118694 12:1 13:1 16:1 17:1 20:1 21:1 23:1 26:1 27:1 29:1 31:1 33:1 35:1 87:1 265:1 266:1 269:1 272:1 273:1 
1 1:1 3:0.0148368 7:1 13:1 15:1 17:1 19:1 22:1 26:1 27:1 29:1 31:1 33:1 37:1 71:1 264:1 266:1 268:1 272:1 273:1 
1 1:1 3:0.00890208 7:1 13:1 15:1 17:1 19:1 22:1 26:1 27:1 29:1 31:1 33:1 37:1 71:1 264:1 266:1 268:1 272:1 273:1 
1 1:1 3:0.00593472 4:1 13:1 15:1 17:1 20:1 21:0.707107 22:1 26:1 27:1 29:1 31:1 33:1 37:1 71:1 264:1 266:1 268:1 272:1 273:1 
1 1:1 3:0.0207715 9:1 13:1 15:1 17:1 19:1 22:1 26:1 27:1 29:1 31:1 33:1 37:1 129:1 264:1 266:1 268:1 272:1 273:1 
1 1:1 3:0.00593472 9:1 13:1 15:1 17:1 19:1 22:1 26:1 27:1 29:1 31:1 33:1 36:1 135:1 264:1 266:1 268:1 272:1 273:1 
1 1:1 3:0.00296736 8:1 13:1 15:1 17:1 20:1 21:0.5 22:1 26:1 27:1 29:1 31:1 33:1 36:1 135:1 264:1 267:1 269:1 272:1 273:1 
1 1:1 3:0.0178042 9:1 13:1 15:1 17:1 19:1 22:1 26:1 27:1 29:1 31:1 33:1 37:1 129:1 264:1 267:1 268:1 272:1 273:1 
1 1:1 3:0.00296736 9:1 13:1 15:1 17:1 19:1 22:1 26:1 27:1 29:1 31:1 33:1 36:1 135:1 264:1 267:1 268:1 272:1 273:1 
1 1:1 3:0.195846 12:1 13:1 15:1 17:1 19:1 22:1 26:1 27:1 29:1 31:1 33:1 37:1 220:1 264:1 266:1 268:1 272:1 273:1 
1 1:1 3:0.118694 10:1 13:1 15:1 17:1 19:1 22:1 26:1 27:1 29:1 31:1 33:1 37:1 223:1 264:1 266:1 268:1 272:1 273:1 
1 1:1 3:0.11276 10:1 13:1 15:1 17:1 19:1 22:1 26:1 27:1 29:1 31:1 33:1 37:1 225:1 264:1 266:1 268:1 272:1 273:1 
1 1:1 3:0.109792 11:1 13:1 15:1 17:1 19:1 22:1 26:1 27:1 29:1 31:1 33:1 37:1 225:1 264:1 267:1 269:1 272:1 273:1 
1 2:1 3:0.0118694 12:1 13:1 16:1 17:1 20:1 21:1 23:1 26:1 27:1 29:1 31:1 33:1 37:1 231:1 265:1 267:1 269:1 272:1 273:1 
1 2:1 3:0.00890208 12:1 13:1 16:1 17:1 20:1 21:1 23:1 26:1 27:1 29:1 31:1 33:1 37:1 231:1 265:1 267:1 269:1 272:1 273:1 
1 2:1 3:0.00296736 12:1 13:1 16:1 17:1 20:1 21:1 23:1 26:1 27:1 29:1 31:1 33:1 37:1 231:1 265:1 267:1 269:1 272:1 273:1 
1 1:1 3:0.0949555 12:1 13:1 15:1 17:1 19:1 22:1 26:1 27:1 29:1 31:1 33:1 37:1 225:1 264:1 266:1 268:1 272:1 273:1 
1 1:1 3:0.0949555 12:1 13:1 15:1 17:1 19:1 22:1 26:1 27:1 29:1 31:1 33:1 37:1 225:1 264:1 266:1 268:1 272:1 273:1 
1 1:1 3:0.0326409 12:1 13:1 15:1 17:1 19:1 22:1 26:1 27:1 29:1 31:1 33:1 37:1 229:1 264:1 266:1 268:1 272:1 273:1 
1 1:1 12:1 13:1 15:1 17:1 19:1 22:1 26:1 27:1 29:1 31:1 33:1 37:1 231:1 264:1 266:1 268:1 272:1 273:1 
1 1:1 3:0.0949555 12:1 13:1 15:1 17:1 19:1 22:1 26:1 27:1 29:1 31:1 33:1 37:1 225:1 264:1 266:1 268:1 272:1 273:1 
1 1:1 3:0.192878 12:1 13:1 15:1 17:1 19:1 22:1 26:1 27:1 29:1 31:1 33:1 37:1 220:1 264:1 266:1 268:1 272:1 273:1 
1 1:1 3:0.115727 10:1 13:1 15:1 17:1 19:1 22:1 26:1 27:1 29:1 31:1 33:1 37:1 223:1 264:1 266:1 268:1 272:1 273:1 
1 1:1 3:0.109792 10:1 13:1 15:1 17:1 19:1 22:1 26:1 27:1 29:1 31:1 33:1 37:1 225:1 264:1 266:1 268:1 272:1 273:1 
1 1:1 3:0.106825 11:1 13:1 15:1 17:1 19:1 22:1 26:1 27:1 29:1 31:1 33:1 37:1 225:1 264:1 267:1 269:1 272:1 273:1 
1 2:1 3:0.00890208 12:1 13:1 16:1 17:1 20:1 21:1 23:1 26:1 27:1 29:1 31:1 33:1 37:1 231:1 265:1 267:1 269:1 272:1 273:1 
1 2:1 3:0.00593472 12:1 13:1 16:1 17:1 20:1 21:1 23:1 26:1 27:1 29:1 31:1 33:1 37:1 231:1 265:1 267:1 269:1 272:1 273:1 
1 1:1 3:0.186944 12:1 13:1 15:1 17:1 19:1 22:1 26:1 27:1 29:1 31:1 33:1 37:1 220:1 264:1 266:1 268:1 272:1 273:1 
1 1:1 3:0.109792 10:1 13:1 15:1 17:1 19:1 22:1 26:1 27:1 29:1 31:1 33:1 37:1 223:1 264:1 266:1 268:1 272:1 273:1 
1 1:1 3:0.103858 10:1 13:1 15:1 17:1 19:1 22:1 26:1 27:1 29:1 31:1 33:1 37:1 225:1 264:1 266:1 268:1 272:1 273:1 
1 1:1 3:0.10089 11:1 13:1 15:1 17:1 19:1 22:1 26:1 27:1 29:1 31:1 33:1 37:1 225:1 264:1 267:1 269:1 272:1 273:1 
1 2:1 3:0.00296736 12:1 13:1 16:1 17:1 20:1 21:1 23:1 26:1 27:1 29:1 31:1 33:1 37:1 231:1 265:1 267:1 269:1 272:1 273:1 
1 1:1 3:0.183976 12:1 13:1 15:1 17:1 19:1 22:1 26:1 27:1 29:1 31:1 33:1 37:1 220:1 264:1 266:1 268:1 272:1 273:1 
1 1:1 3:0.106825 10:1 13:1 15:1 17:1 19:1 22:1 26:1 27:1 29:1 31:1 33:1 37:1 223:1 264:1 266:1 268:1 272:1 273:1 
1 1:1 3:0.10089 10:1 13:1 15:1 17:1 19:1 22:1 26:1 27:1 29:1 31:1 33:1 37:1 225:1 264:1 266:1 268:1 272:1 273:1 
1 1:1 3:0.0979228 11:1 13:1 15:1 17:1 19:1 22:1 26:1 27:1 29:1 31:1 33:1 37:1 225:1 264:1 267:1 269:1 272:1 273:1 
1 1:1 3:0.127596 12:1 13:1 16:1 17:1 20:1 21:1 23:1 26:1 27:1 29:1 31:1 33:1 37:1 199:1 265:1 266:1 269:1 272:1 273:1 
1 2:1 3:0.0623145 12:1 13:1 16:1 17:1 20:1 21:1 23:1 26:1 27:1 29:1 31:1 33:1 37:1 195:1 265:1 266:1 269:1 272:1 273:1 
1 1:1 3:0.0623145 12:1 13:1 15:1 17:1 19:1 22:1 26:1 27:1 29:1 31:1 33:1 37:1 195:1 264:1 266:1 268:1 272:1 273:1 
1 1:1 12:1 13:1 15:1 17:1 19:1 22:1 26:1 27:1 29:1 31:1 33:1 37:1 135:1 264:1 266:1 268:1 272:1 273:1 
1 1:1 12:1 13:1 15:1 17:1 19:1 22:1 26:1 27:1 29:1 31:1 33:1 37:1 135:1 264:1 266:1 268:1 272:1 273:1 
1 1:1 3:0.0860534 9:1 13:1 15:1 17:1 19:1 22:1 26:1 27:1 29:1 31:1 33:1 37:1 130:1 264:1 266:1 268:1 272:1 273:1 
1 1:1 3:0.00890208 7:1 13:1 15:1 17:1 19:1 22:1 26:1 27:1 29:1 31:1 33:1 37:1 133:1 264:1 266:1 268:1 272:1 273:1 
1 1:1 3:0.00296736 7:1 13:1 15:1 17:1 19:1 22:1 26:1 27:1 29:1 31:1 33:1 36:1 135:1 264:1 266:1 268:1 272:1 273:1 
1 1:1 3:0.0830861 6:1 13:1 15:1 17:1 20:1 21:0.612372 22:1 25:1 27:1 29:1 31:1 33:1 37:1 130:1 264:1 266:1 268:1 272:1 273:1 
1 1:1 3:0.00593472 4:1 14:1 15:1 17:1 20:1 21:0.730297 22:1 25:1 27:1 29:1 31:1 33:1 37:1 133:1 264:1 266:1 268:1 272:1 273:1 
1 1:1 3:0.0771513 6:1 13:1 15:1 17:1 20:1 21:0.67082 22:1 25:1 27:1 29:1 31:1 33:1 37:1 100:1 264:1 266:1 268:1 272:1 273:1 
1 1:1 3:0.89911 12:1 13:1 16:1 17:1 19:1 22:1 26:1 27:1 29:1 31:1 33:1 35:1 221:1 264:1 266:1 268:1 272:1 273:1 
1 1:1 3:0.890208 12:1 13:1 16:1 17:1 19:1 22:1 26:1 27:1 29:1 31:1 33:1 35:1 221:1 264:1 266:1 268:1 272:1 273:1 
1 1:1 3:0.160237 12:1 13:1 16:1 17:1 20:1 21:0.707107 23:1 26:1 27:1 29:1 31:1 33:1 35:1 225:1 265:1 266:1 269:1 272:1 273:1 
1 1:1 3:0.0267062 12:1 13:1 15:1 17:1 19:1 22:1 26:1 27:1 29:1 31:1 33:1 37:1 219:1 264:1 266:1 268:1 272:1 273:1 
1 1:1 3:0.189911 12:1 14:1 16:1 17:1 20:1 21:0.816497 22:1 26:1 27:1 29:1 31:1 33:1 37:1 225:1 264:1 266:1 268:1 272:1 273:1 
1 1:1 3:0.074184 12:1 14:1 16:1 17:1 20:1 21:0.816497 22:1 26:1 27:1 29:1 31:1 33:1 37:1 225:1 264:1 266:1 268:1 272:1 273:1 
1 1:1 3:0.074184 12:1 13:1 16:1 17:1 19:1 22:1 26:1 27:1 29:1 31:1 33:1 37:1 225:1 264:1 266:1 268:1 272:1 273:1 
1 1:1 3:0.804154 12:1 13:1 16:1 17:1 20:1 21:1 23:1 26:1 27:1 29:1 31:1 33:1 37:1 221:1 264:1 266:1 268:1 272:1 273:1 
1 1:1 3:0.623145 12:1 13:1 16:1 17:1 20:1 21:1 23:1 26:1 27:1 29:1 31:1 33:1 37:1 223:1 264:1 266:1 268:1 272:1 273:1 
1 1:1 3:0.58457 12:1 13:1 15:1 17:1 19:1 22:1 26:1 27:1 29:1 31:1 33:1 37:1 223:1 264:1 266:1 268:1 272:1 273:1 
1 1:1 3:0.00593472 12:1 13:1 16:1 17:1 20:1 21:1 23:1 26:1 27:1 29:1 31:1 33:1 37:1 230:1 264:1 266:1 268:1 272:1 273:1 
1 1:1 3:0.79822 12:1 13:1 16:1 17:1 20:1 21:1 23:1 26:1 27:1 29:1 31:1 33:1 37:1 206:1 264:1 266:1 268:1 272:1 273:1 
1 1:1 3:0.617211 12:1 13:1 16:1 17:1 20:1 21:1 23:1 26:1 27:1 29:1 31:1 33:1 37:1 208:1 264:1 266:1 268:1 272:1 273:1 
1 1:1 3:0.578635 12:1 13:1 15:1 17:1 19:1 22:1 26:1 27:1 29:1 31:1 33:1 37:1 208:1 264:1 266:1 268:1 272:1 273:1 
0.5297470712344945 1:1 3:0.183976 12:1 13:1 16:1 17:1 20:1 21:1 23:1 26:1 27:1 29:1 31:1 33:1 37:1 210:1 264:1 266:1 268:1 272:1 273:1 
1 1:1 3:0.133531 12:1 13:1 15:1 17:1 19:1 22:1 26:1 27:1 29:1 31:1 33:1 37:1 45:1 264:1 266:1 268:1 272:1 273:1 
1 1:1 3:0.115727 12:1 13:1 16:1 17:1 19:1 22:1 26:1 27:1 29:1 31:1 33:1 37:1 135:1 264:1 266:1 268:1 272:1 273:1 
1 1:1 3:0.465875 11:1 13:1 15:1 17:1 19:1 22:1 26:1 27:1 29:1 31:1 33:1 37:1 133:1 264:1 266:1 268:1 272:1 273:1 
1 1:1 3:0.439169 12:1 13:1 15:1 17:1 20:1 21:0.5 22:1 26:1 27:1 29:1 31:1 33:1 37:1 133:1 264:1 266:1 268:1 272:1 273:1 
1 1:1 3:0.350148 12:1 13:1 15:1 17:1 20:1 21:0.5 22:1 26:1 27:1 29:1 31:1 33:1 37:1 133:1 264:1 266:1 268:1 272:1 273:1 
1 1:1 3:0.326409 12:1 13:1 15:1 17:1 20:1 21:0.5 22:1 26:1 27:1 29:1 31:1 33:1 37:1 133:1 264:1 266:1 268:1 272:1 273:1 
1 1:1 3:0.462908 10:1 13:1 15:1 17:1 20:1 21:0.288675 22:1 26:1 27:1 29:1 31:1 33:1 37:1 133:1 264:1 266:1 268:1 272:1 273:1 
0.6334266858932539 1:1 3:0.4273 12:1 14:1 16:1 18:1 20:1 21:1 23:1 26:1 27:1 29:1 31:1 33:1 37:1 133:1 264:1 266:1 268:1 272:1 273:1 
1 1:1 3:0.658754 12:1 13:1 16:1 17:1 20:1 21:1 23:1 26:1 27:1 29:1 31:1 33:1 37:1 132:1 265:1 266:1 269:1 272:1 273:1 
1 1:1 3:0.658754 12:1 13:1 16:1 17:1 20:1 21:1 23:1 26:1 27:1 29:1 31:1 33:1 37:1 132:1 264:1 266:1 268:1 272:1 273:1 
1 1:1 3:0.655786 12:1 13:1 16:1 17:1 20:1 21:1 23:1 26:1 27:1 29:1 31:1 33:1 37:1 132:1 265:1 266:1 269:1 272:1 273:1 
1 1:1 3:0.732938 12:1 13:1 16:1 17:1 19:1 22:1 26:1 27:1 29:1 31:1 33:1 37:1 131:1 264:1 266:1 268:1 272:1 273:1 
1 1:1 3:0.724036 12:1 13:1 16:1 17:1 19:1 22:1 26:1 27:1 29:1 31:1 33:1 37:1 131:1 264:1 266:1 268:1 272:1 273:1 
1 1:1 3:0.732938 12:1 13:1 16:1 17:1 20:1 21:1 23:1 26:1 27:1 29:1 31:1 33:1 37:1 131:1 265:1 266:1 269:1 272:1 273:1 
1 1:1 3:0.204748 12:1 13:1 15:1 17:1 19:1 22:1 26:1 27:1 29:1 31:1 33:1 35:1 133:1 264:1 266:1 268:1 272:1 273:1 
1 1:1 3:0.00296736 12:1 13:1 16:1 17:1 20:1 21:0.707107 22:1 26:1 27:1 29:1 31:1 33:1 36:1 135:1 264:1 266:1 268:1 272:1 273:1 
1 1:1 3:0.20178 12:1 13:1 16:1 17:1 20:1 21:0.707107 22:1 26:1 27:1 29:1 31:1 33:1 35:1 133:1 264:1 266:1 268:1 271:1 273:1 
1 1:1 3:0.712166 12:1 13:1 16:1 17:1 20:1 21:1 23:1 26:1 27:1 29:1 31:1 33:1 37:1 131:1 265:1 266:1 269:1 272:1 273:1 
1 2:1 3:0.712166 12:1 13:1 16:1 17:1 19:1 22:1 26:1 27:1 29:1 31:1 33:1 37:1 131:1 265:1 266:1 269:1 272:1 273:1 
1 2:1 3:0.703264 12:1 13:1 16:1 17:1 19:1 22:1 26:1 27:1 29:1 31:1 33:1 37:1 131:1 265:1 266:1 269:1 272:1 273:1 
1 1:1 3:0.712166 12:1 13:1 16:1 17:1 19:1 22:1 26:1 27:1 29:1 31:1 33:1 37:1 131:1 264:1 266:1 268:1 272:1 273:1 
1 1:1 3:0.703264 12:1 13:1 16:1 17:1 19:1 22:1 26:1 27:1 29:1 31:1 33:1 37:1 131:1 264:1 266:1 268:1 272:1 273:1 
1 1:1 3:0.614243 12:1 13:1 16:1 17:1 20:1 21:1 23:1 26:1 27:1 29:1 31:1 33:1 37:1 131:1 264:1 266:1 268:1 272:1 273:1 
1 1:1 3:0.433234 12:1 13:1 16:1 17:1 20:1 21:1 23:1 26:1 27:1 29:1 31:1 33:1 37:1 133:1 264:1 266:1 268:1 272:1 273:1 
1 1:1 3:0.394659 12:1 13:1 15:1 17:1 19:1 22:1 26:1 27:1 29:1 31:1 33:1 37:1 133:1 264:1 266:1 268:1 272:1 273:1 
1 1:1 3:0.718101 12:1 13:1 15:1 17:1 19:1 22:1 26:1 27:1 29:1 31:1 33:1 37:1 131:1 264:1 266:1 268:1 272:1 273:1 
1 1:1 12:1 13:1 15:1 17:1 19:1 22:1 26:1 27:1 29:1 31:1 33:1 37:1 135:1 264:1 266:1 268:1 272:1 273:1 
1 1:1 3:0.718101 12:1 13:1 16:1 17:1 20:1 21:1 23:1 26:1 27:1 29:1 31:1 33:1 37:1 131:1 264:1 266:1 268:1 272:1 273:1 
1 1:1 3:0.718101 12:1 13:1 15:1 17:1 19:1 22:1 26:1 27:1 29:1 31:1 33:1 37:1 131:1 264:1 266:1 268:1 272:1 273:1 
1 1:1 3:0.439169 12:1 13:1 15:1 17:1 20:1 21:0.5 22:1 26:1 27:1 29:1 31:1 33:1 37:1 101:1 264:1 266:1 268:1 272:1 273:1 
1 1:1 3:0.139466 11:1 13:1 15:1 17:1 19:1 22:1 26:1 27:1 29:1 31:1 33:1 37:1 103:1 264:1 266:1 268:1 272:1 273:1 
1 1:1 3:0.11276 12:1 14:1 15:1 18:1 20:1 21:0.5 22:1 26:1 27:1 29:1 31:1 33:1 37:1 103:1 265:1 266:1 269:1 272:1 273:1 
1 1:1 3:0.142433 8:1 13:1 15:1 17:1 20:1 21:0.408248 22:1 26:1 27:1 29:1 31:1 33:1 37:1 103:1 264:1 266:1 268:1 272:1 273:1 
1 1:1 3:0.109792 9:1 13:1 15:1 17:1 19:1 22:1 26:1 27:1 29:1 31:1 33:1 37:1 103:1 264:1 266:1 268:1 272:1 273:1 
1 1:1 3:0.41543 12:1 13:1 15:1 17:1 20:1 21:0.5 22:1 26:1 27:1 29:1 31:1 33:1 37:1 101:1 264:1 266:1 268:1 272:1 273:1 
1 1:1 3:0.115727 11:1 13:1 15:1 17:1 19:1 22:1 26:1 27:1 29:1 31:1 33:1 37:1 103:1 264:1 266:1 268:1 272:1 273:1 
1 1:1 3:0.0890208 12:1 14:1 15:1 18:1 20:1 21:0.5 22:1 26:1 27:1 29:1 31:1 33:1 37:1 103:1 265:1 266:1 269:1 272:1 273:1 
1 1:1 3:0.118694 11:1 13:1 15:1 17:1 19:1 22:1 26:1 27:1 29:1 31:1 33:1 37:1 103:1 264:1 266:1 268:1 272:1 273:1 
1 1:1 3:0.0860534 12:1 13:1 15:1 17:1 19:1 22:1 26:1 27:1 29:1 31:1 33:1 37:1 103:1 264:1 266:1 268:1 272:1 273:1 
1 1:1 3:0.326409 12:1 13:1 15:1 17:1 20:1 21:0.5 22:1 26:1 27:1 29:1 31:1 33:1 35:1 101:1 264:1 266:1 268:1 272:1 273:1 
1 1:1 3:0.0267062 11:1 13:1 15:1 17:1 19:1 22:1 26:1 27:1 29:1 31:1 33:1 37:1 103:1 264:1 266:1 268:1 272:1 273:1 
1 1:1 3:0.0326409 11:1 13:1 16:1 17:1 20:1 21:0.707107 23:1 26:1 27:1 29:1 31:1 33:1 37:1 103:1 264:1 266:1 268:1 272:1 273:1 
1 1:1 3:0.299703 9:1 13:1 15:1 17:1 19:1 22:1 26:1 27:1 29:1 31:1 33:1 37:1 101:1 264:1 266:1 268:1 272:1 273:1 
1 1:1 3:0.219585 12:1 13:1 15:1 17:1 19:1 22:1 26:1 27:1 29:1 31:1 33:1 37:1 101:1 264:1 266:1 268:1 272:1 273:1 
1 1:1 3:0.0385757 12:1 13:1 15:1 17:1 19:1 22:1 26:1 27:1 29:1 31:1 33:1 37:1 103:1 264:1 266:1 268:1 272:1 273:1 
1 1:1 3:0.0771513 12:1 13:1 15:1 17:1 19:1 22:1 26:1 27:1 29:1 31:1 33:1 37:1 86:1 264:1 266:1 268:1 272:1 273:1 
1 1:1 3:0.00593472 12:1 13:1 15:1 17:1 20:1 21:0.288675 22:1 26:1 27:1 29:1 31:1 33:1 37:1 71:1 264:1 266:1 268:1 272:1 273:1 
1 1:1 3:0.0207715 12:1 13:1 15:1 17:1 19:1 22:1 26:1 27:1 29:1 31:1 33:1 35:1 71:1 264:1 266:1 268:1 272:1 273:1 
1 1:1 12:1 13:1 15:1 17:1 19:1 22:1 26:1 27:1 29:1 31:1 33:1 36:1 71:1 264:1 266:1 268:1 272:1 273:1 
1 1:1 3:0.00593472 12:1 13:1 16:1 17:1 20:1 21:1 23:1 26:1 27:1 29:1 31:1 33:1 35:1 151:1 265:1 266:1 269:1 272:1 273:1 
1 1:1 3:0.00593472 12:1 13:1 16:1 17:1 20:1 21:0.707107 23:1 26:1 27:1 29:1 31:1 33:1 35:1 151:1 265:1 266:1 269:1 272:1 273:1 
1 1:1 12:1 13:1 16:1 17:1 20:1 21:0.707107 23:1 26:1 27:1 29:1 31:1 33:1 36:1 151:1 265:1 266:1 269:1 272:1 273:1 
1 1:1 3:0.0771513 12:1 13:1 16:1 17:1 20:1 21:0.866025 22:1 26:1 28:1 29:1 32:1 33:1 37:1 150:1 264:1 266:1 268:1 272:1 273:1 
1 1:1 3:0.00296736 12:1 14:1 16:1 17:1 20:1 21:0.816497 22:1 26:1 27:1 29:1 31:1 33:1 35:1 135:1 264:1 266:1 268:1 272:1 273:1 
1 1:1 3:0.0563798 12:1 13:1 16:1 17:1 20:1 21:0.707107 22:1 26:1 27:1 29:1 31:1 33:1 37:1 133:1 264:1 266:1 268:1 272:1 273:1 
1 1:1 3:0.00593472 12:1 13:1 16:1 17:1 20:1 21:1 23:1 26:1 27:1 29:1 31:1 33:1 37:1 135:1 264:1 266:1 268:1 272:1 273:1 
1 1:1 3:0.0504451 12:1 13:1 16:1 17:1 20:1 21:0.707107 22:1 26:1 27:1 29:1 31:1 33:1 37:1 133:1 264:1 266:1 268:1 272:1 273:1 
1 1:1 3:0.302671 12:1 13:1 16:1 17:1 20:1 21:1 23:1 26:1 28:1 29:1 31:1 33:1 37:1 192:1 265:1 266:1 269:1 272:1 273:1 
1 1:1 3:0.231454 12:1 13:1 16:1 17:1 20:1 21:1 23:1 26:1 28:1 29:1 31:1 33:1 37:1 199:1 265:1 266:1 269:1 272:1 273:1 
1 2:1 3:0.0385757 12:1 13:1 16:1 17:1 20:1 21:1 23:1 26:1 28:1 30:1 31:1 33:1 37:1 195:1 265:1 266:1 269:1 272:1 273:1 
1 1:1 3:0.0860534 12:1 13:1 16:1 17:1 20:1 21:1 23:1 26:1 28:1 30:1 31:1 33:1 37:1 195:1 265:1 266:1 269:1 272:1 273:1 
1 1:1 3:0.293769 12:1 13:1 16:1 17:1 20:1 21:1 23:1 26:1 28:1 29:1 31:1 33:1 37:1 192:1 265:1 266:1 269:1 272:1 273:1 
1 1:1 3:0.21365 12:1 13:1 16:1 17:1 20:1 21:0.707107 22:1 26:1 28:1 29:1 31:1 33:1 37:1 199:1 264:1 266:1 268:1 272:1 273:1 
1 2:1 3:0.0237389 12:1 13:1 16:1 17:1 20:1 21:1 23:1 26:1 27:1 29:1 31:1 33:1 37:1 195:1 265:1 266:1 269:1 272:1 273:1 
1 1:1 3:0.00593472 7:1 14:1 15:1 17:1 20:1 21:0.666667 23:1 26:1 27:1 29:1 31:1 33:1 37:1 135:1 265:1 266:1 269:1 272:1 273:1 
1 1:1 3:0.130564 12:1 13:1 16:1 17:1 20:1 21:0.707107 22:1 26:1 28:1 29:1 31:1 33:1 37:1 139:1 264:1 266:1 268:1 272:1 273:1 
1 1:1 3:0.261128 8:1 13:1 16:1 18:1 20:1 21:0.666667 22:1 26:1 27:1 29:1 31:1 33:1 35:1 131:1 264:1 266:1 268:1 272:1 273:1 
1 1:1 3:0.0801187 12:1 13:1 16:1 17:1 20:1 21:1 23:1 26:1 28:1 29:1 31:1 33:1 37:1 192:1 265:1 266:1 269:1 272:1 273:1 
1 1:1 3:0.0801187 12:1 13:1 16:1 17:1 20:1 21:0.707107 22:1 26:1 28:1 29:1 31:1 33:1 37:1 192:1 264:1 266:1 268:1 272:1 273:1 
1 2:1 3:0.0801187 10:1 13:1 16:1 17:1 20:1 21:0.707107 23:1 26:1 28:1 29:1 31:1 33:1 37:1 192:1 265:1 266:1 269:1 272:1 273:1 
1 1:1 3:0.0801187 12:1 13:1 16:1 17:1 20:1 21:0.707107 22:1 26:1 28:1 29:1 31:1 33:1 37:1 192:1 264:1 266:1 268:1 272:1 273:1 
1 1:1 3:0.0712166 12:1 13:1 16:1 17:1 20:1 21:1 23:1 26:1 28:1 29:1 31:1 33:1 37:1 192:1 265:1 266:1 269:1 272:1 273:1 
1 1:1 3:0.041543 12:1 13:1 15:1 17:1 19:1 22:1 26:1 27:1 29:1 31:1 33:1 37:1 86:1 264:1 266:1 268:1 272:1 273:1 
1 1:1 3:0.0326409 12:1 13:1 15:1 17:1 19:1 22:1 26:1 27:1 29:1 31:1 34:1 35:1 86:1 264:1 267:1 269:1 272:1 273:1 
1 1:1 3:0.0148368 12:1 13:1 16:1 17:1 20:1 21:0.57735 22:1 26:1 28:1 29:1 31:1 33:1 35:1 87:1 264:1 266:1 268:1 272:1 273:1 
1 2:1 3:0.0118694 12:1 13:1 16:1 17:1 20:1 21:1 23:1 26:1 28:1 29:1 31:1 33:1 37:1 87:1 265:1 266:1 269:1 272:1 273:1 
1 1:1 3:0.0296736 12:1 13:1 15:1 17:1 19:1 22:1 26:1 27:1 29:1 31:1 33:1 37:1 86:1 264:1 266:1 268:1 272:1 273:1 
1 1:1 3:0.0207715 12:1 13:1 15:1 17:1 19:1 22:1 26:1 27:1 29:1 31:1 34:1 37:1 86:1 264:1 267:1 269:1 272:1 273:1 
1 1:1 3:0.00296736 12:1 13:1 16:1 17:1 20:1 21:0.57735 22:1 26:1 28:1 29:1 31:1 33:1 37:1 87:1 264:1 266:1 268:1 272:1 273:1 
1 1:1 3:0.0267062 12:1 14:1 15:1 17:1 20:1 21:0.333333 22:1 26:1 27:1 29:1 31:1 33:1 37:1 86:1 264:1 266:1 268:1 272:1 273:1 
1 1:1 3:0.0178042 12:1 13:1 15:1 17:1 19:1 22:1 26:1 27:1 29:1 31:1 34:1 35:1 86:1 264:1 266:1 268:1 272:1 273:1 
1 1:1 3:0.00890208 12:1 13:1 15:1 17:1 19:1 22:1 26:1 27:1 29:1 31:1 33:1 37:1 71:1 264:1 266:1 268:1 272:1 273:1 
1 1:1 3:0.166172 11:1 14:1 15:1 17:1 20:1 21:0.353553 22:1 26:1 27:1 29:1 31:1 33:1 37:1 45:1 264:1 266:1 268:1 272:1 273:1 
1 1:1 3:0.00296736 12:1 13:1 15:1 17:1 19:1 22:1 26:1 27:1 29:1 31:1 33:1 35:1 135:1 264:1 266:1 268:1 272:1 273:1 
1 1:1 3:0.154303 12:1 13:1 16:1 17:1 20:1 21:0.5 23:1 26:1 27:1 29:1 31:1 33:1 37:1 135:1 264:1 266:1 268:1 272:1 273:1 
1 1:1 3:0.0830861 12:1 13:1 16:1 17:1 20:1 21:1 23:1 26:1 27:1 29:1 31:1 33:1 37:1 135:1 264:1 266:1 268:1 272:1 273:1 
1 1:1 3:0.154303 10:1 13:1 15:1 17:1 20:1 21:0.57735 22:1 26:1 28:1 29:1 31:1 33:1 37:1 135:1 264:1 266:1 268:1 272:1 273:1 
1 1:1 3:0.0830861 12:1 13:1 15:1 17:1 20:1 21:0.666667 22:1 26:1 28:1 29:1 31:1 33:1 37:1 135:1 264:1 266:1 268:1 272:1 273:1 
1 1:1 3:0.178042 12:1 13:1 16:1 17:1 20:1 21:0.707107 22:1 26:1 27:1 29:1 31:1 33:1 37:1 135:1 264:1 266:1 268:1 272:1 273:1 
1 1:1 3:0.0830861 12:1 13:1 16:1 17:1 20:1 21:0.707107 22:1 26:1 27:1 29:1 31:1 33:1 37:1 135:1 264:1 266:1 268:1 272:1 273:1 
1 1:1 3:0.0445104 12:1 13:1 16:1 17:1 20:1 21:0.707107 22:1 26:1 27:1 29:1 31:1 33:1 37:1 135:1 264:1 266:1 268:1 272:1 273:1 
1 1:1 3:0.0118694 12:1 13:1 16:1 17:1 20:1 21:0.707107 22:1 26:1 27:1 29:1 31:1 33:1 37:1 135:1 264:1 266:1 268:1 272:1 273:1 
1 1:1 3:0.148368 12:1 13:1 16:1 17:1 19:1 22:1 26:1 27:1 29:1 31:1 33:1 37:1 135:1 264:1 266:1 268:1 272:1 273:1 
1 2:1 3:0.166172 12:1 13:1 16:1 17:1 20:1 21:1 23:1 26:1 27:1 29:1 31:1 33:1 37:1 135:1 265:1 266:1 269:1 272:1 273:1 
0.6848451367688988 2:1 3:0.0712166 12:1 13:1 16:1 17:1 20:1 21:1 23:1 26:1 27:1 29:1 31:1 33:1 35:1 135:1 265:1 266:1 269:1 272:1 273:1 
1 2:1 3:0.0326409 12:1 13:1 16:1 17:1 20:1 21:1 23:1 26:1 27:1 29:1 31:1 33:1 37:1 135:1 265:1 266:1 269:1 272:1 273:1 
1 1:1 3:0.323442 9:1 13:1 16:1 17:1 20:1 21:0.408248 22:1 26:1 27:1 29:1 31:1 33:1 35:1 131:1 264:1 266:1 268:1 272:1 273:1 
1 1:1 3:0.231454 9:1 13:1 15:1 17:1 20:1 21:0.408248 22:1 26:1 27:1 29:1 31:1 33:1 35:1 133:1 264:1 266:1 268:1 272:1 273:1 
1 1:1 3:0.21365 9:1 13:1 16:1 17:1 20:1 21:0.57735 22:1 26:1 27:1 29:1 31:1 33:1 37:1 133:1 264:1 266:1 268:1 272:1 273:1 
1 2:1 3:0.338279 11:1 13:1 16:1 17:1 20:1 21:0.707107 23:1 26:1 27:1 29:1 31:1 33:1 35:1 131:1 265:1 266:1 269:1 272:1 273:1 
1 1:1 3:0.293769 12:1 13:1 16:1 17:1 20:1 21:0.408248 22:1 26:1 27:1 29:1 31:1 33:1 36:1 132:1 264:1 266:1 268:1 272:1 273:1 
1 2:1 3:0.0296736 12:1 13:1 16:1 17:1 20:1 21:1 23:1 26:1 27:1 29:1 31:1 33:1 37:1 135:1 265:1 266:1 269:1 272:1 273:1 
1 1:1 3:0.293769 12:1 13:1 16:1 17:1 20:1 21:0.707107 22:1 26:1 27:1 29:1 31:1 33:1 36:1 132:1 264:1 266:1 268:1 272:1 273:1 
1 1:1 3:0.166172 12:1 13:1 15:1 17:1 19:1 22:1 26:1 27:1 29:1 31:1 33:1 36:1 135:1 264:1 266:1 268:1 272:1 273:1 
1 1:1 12:1 13:1 16:1 17:1 20:1 21:0.707107 22:1 26:1 27:1 29:1 31:1 33:1 36:1 135:1 264:1 266:1 268:1 272:1 273:1 
1 1:1 3:0.166172 12:1 13:1 15:1 17:1 19:1 22:1 26:1 27:1 29:1 31:1 33:1 36:1 135:1 264:1 266:1 268:1 272:1 273:1 
1 2:1 3:0.338279 11:1 13:1 16:1 17:1 20:1 21:0.707107 23:1 26:1 27:1 29:1 31:1 33:1 35:1 131:1 265:1 266:1 269:1 272:1 273:1 
1 1:1 3:0.293769 12:1 13:1 16:1 17:1 20:1 21:0.408248 22:1 26:1 27:1 29:1 31:1 33:1 36:1 132:1 264:1 266:1 268:1 272:1 273:1 
1 2:1 3:0.0296736 12:1 13:1 16:1 17:1 20:1 21:1 23:1 26:1 27:1 29:1 31:1 33:1 37:1 135:1 265:1 266:1 269:1 272:1 273:1 
1 2:1 3:0.133531 12:1 13:1 16:1 17:1 20:1 21:1 23:1 26:1 27:1 29:1 31:1 33:1 37:1 135:1 265:1 266:1 269:1 272:1 273:1 
1 2:1 3:0.0385757 12:1 13:1 16:1 17:1 20:1 21:1 23:1 26:1 27:1 29:1 31:1 33:1 37:1 135:1 265:1 266:1 269:1 272:1 273:1 
1 1:1 3:0.00296736 11:1 14:1 15:1 17:1 20:1 21:0.353553 22:1 26:1 27:1 29:1 31:1 33:1 37:1 135:1 264:1 266:1 268:1 272:1 273:1 
1 2:1 3:0.31454 12:1 13:1 16:1 17:1 20:1 21:1 23:1 26:1 27:1 29:1 31:1 33:1 37:1 131:1 265:1 266:1 269:1 272:1 273:1 
1 2:1 3:0.308605 11:1 13:1 16:1 17:1 20:1 21:0.707107 23:1 26:1 27:1 29:1 31:1 33:1 37:1 131:1 265:1 266:1 269:1 272:1 273:1 
1 1:1 3:0.264095 12:1 13:1 16:1 17:1 20:1 21:0.408248 22:1 26:1 27:1 29:1 31:1 33:1 37:1 132:1 264:1 266:1 268:1 272:1 273:1 
1 2:1 3:0.136499 12:1 13:1 16:1 17:1 20:1 21:1 23:1 26:1 27:1 29:1 31:1 33:1 37:1 135:1 265:1 266:1 269:1 272:1 273:1 
1 1:1 3:0.0593472 12:1 13:1 16:1 17:1 19:1 22:1 26:1 27:1 29:1 31:1 33:1 35:1 135:1 264:1 266:1 268:1 272:1 273:1 
1 1:1 3:0.0712166 12:1 13:1 16:1 17:1 20:1 21:0.5 23:1 26:1 27:1 29:1 31:1 33:1 37:1 135:1 264:1 266:1 268:1 272:1 273:1 
1 1:1 3:0.0712166 10:1 13:1 15:1 17:1 20:1 21:0.866025 22:1 26:1 28:1 29:1 31:1 33:1 37:1 135:1 264:1 266:1 268:1 272:1 273:1 
1 2:1 3:0.0949555 12:1 13:1 16:1 17:1 20:1 21:1 23:1 26:1 27:1 29:1 31:1 33:1 37:1 135:1 265:1 266:1 269:1 272:1 273:1 
1 2:1 3:0.109792 12:1 13:1 16:1 17:1 20:1 21:1 23:1 26:1 27:1 29:1 31:1 33:1 35:1 135:1 265:1 266:1 269:1 272:1 273:1 
1 1:1 3:0.00890208 12:1 14:1 16:1 18:1 20:1 21:1 23:1 25:1 27:1 29:1 31:1 33:1 37:1 135:1 264:1 266:1 268:1 272:1 273:1 
1 1:1 3:0.25816 12:1 13:1 15:1 17:1 19:1 22:1 26:1 27:1 29:1 31:1 33:1 37:1 131:1 264:1 266:1 268:1 272:1 273:1 
1 1:1 3:0.231454 12:1 13:1 15:1 17:1 19:1 22:1 26:1 27:1 29:1 31:1 33:1 37:1 131:1 264:1 266:1 268:1 272:1 273:1 
1 1:1 3:0.0801187 12:1 13:1 15:1 17:1 19:1 22:1 26:1 27:1 29:1 31:1 33:1 37:1 135:1 264:1 266:1 268:1 272:1 273:1 
1 1:1 3:0.0504451 12:1 13:1 15:1 17:1 19:1 22:1 26:1 27:1 29:1 31:1 33:1 37:1 135:1 264:1 266:1 268:1 272:1 273:1 
1 1:1 3:0.0445104 10:1 13:1 16:1 17:1 20:1 21:0.57735 22:1 26:1 27:1 29:1 31:1 33:1 37:1 135:1 264:1 266:1 268:1 272:1 273:1 
1 1:1 3:0.00593472 12:1 13:1 15:1 17:1 19:1 22:1 26:1 27:1 29:1 31:1 33:1 37:1 135:1 264:1 266:1 268:1 272:1 273:1 
1 1:1 3:0.00593472 12:1 13:1 15:1 17:1 19:1 22:1 26:1 27:1 29:1 31:1 33:1 37:1 135:1 264:1 266:1 268:1 272:1 273:1 
1 1:1 12:1 13:1 15:1 17:1 19:1 22:1 26:1 27:1 29:1 31:1 33:1 37:1 135:1 264:1 266:1 268:1 272:1 273:1 
1 1:1 3:0.264095 12:1 13:1 15:1 17:1 19:1 22:1 26:1 27:1 29:1 31:1 33:1 37:1 138:1 264:1 266:1 268:1 272:1 273:1 
1 1:1 3:0.25816 12:1 13:1 16:1 17:1 20:1 21:0.707107 22:1 26:1 27:1 29:1 31:1 33:1 37:1 131:1 264:1 266:1 268:1 272:1 273:1 
1 1:1 3:0.231454 12:1 13:1 16:1 17:1 20:1 21:0.707107 22:1 26:1 27:1 29:1 31:1 33:1 37:1 131:1 264:1 266:1 268:1 272:1 273:1 
1 1:1 3:0.0801187 12:1 14:1 15:1 17:1 20:1 21:0.816497 22:1 26:1 27:1 29:1 31:1 33:1 37:1 135:1 264:1 266:1 268:1 272:1 273:1 
1 1:1 3:0.0445104 10:1 13:1 15:1 17:1 19:1 22:1 26:1 27:1 29:1 31:1 33:1 37:1 135:1 264:1 266:1 268:1 272:1 273:1 
1 1:1 3:0.00593472 12:1 13:1 15:1 17:1 19:1 22:1 26:1 27:1 29:1 31:1 33:1 37:1 135:1 264:1 266:1 268:1 272:1 273:1 
1 1:1 3:0.25816 12:1 13:1 15:1 17:1 19:1 22:1 26:1 27:1 29:1 31:1 33:1 37:1 138:1 264:1 266:1 268:1 272:1 273:1 
1 1:1 3:0.252226 12:1 13:1 15:1 17:1 19:1 22:1 26:1 27:1 29:1 31:1 33:1 35:1 131:1 264:1 266:1 268:1 272:1 273:1 
1 1:1 3:0.225519 12:1 13:1 15:1 17:1 19:1 22:1 26:1 27:1 29:1 31:1 33:1 35:1 131:1 264:1 266:1 268:1 272:1 273:1 
1 1:1 3:0.074184 12:1 13:1 15:1 17:1 19:1 22:1 26:1 27:1 29:1 31:1 33:1 35:1 135:1 264:1 266:1 268:1 272:1 273:1 
1 1:1 3:0.0445104 12:1 13:1 15:1 17:1 19:1 22:1 26:1 27:1 29:1 31:1 33:1 37:1 135:1 264:1 266:1 268:1 272:1 273:1 
1 1:1 3:0.0385757 10:1 13:1 15:1 17:1 19:1 22:1 26:1 27:1 29:1 31:1 33:1 37:1 135:1 264:1 266:1 268:1 272:1 273:1 
1 1:1 12:1 13:1 15:1 17:1 19:1 22:1 26:1 27:1 29:1 31:1 33:1 36:1 135:1 264:1 266:1 268:1 272:1 273:1 
1 1:1 3:0.25816 12:1 13:1 15:1 17:1 19:1 22:1 26:1 27:1 29:1 31:1 33:1 37:1 138:1 264:1 266:1 268:1 272:1 273:1 
1 1:1 3:0.252226 12:1 13:1 16:1 17:1 20:1 21:0.707107 22:1 26:1 27:1 29:1 31:1 33:1 35:1 131:1 264:1 266:1 268:1 272:1 273:1 
1 1:1 3:0.225519 12:1 13:1 16:1 17:1 20:1 21:0.707107 22:1 26:1 27:1 29:1 31:1 33:1 35:1 131:1 264:1 266:1 268:1 272:1 273:1 
1 1:1 3:0.074184 12:1 14:1 15:1 17:1 20:1 21:0.816497 22:1 26:1 27:1 29:1 31:1 33:1 35:1 135:1 264:1 266:1 268:1 272:1 273:1 
1 1:1 3:0.0385757 10:1 13:1 15:1 17:1 19:1 22:1 26:1 27:1 29:1 31:1 33:1 37:1 135:1 264:1 266:1 268:1 272:1 273:1 
1 1:1 3:0.219585 6:1 13:1 16:1 17:1 20:1 21:0.57735 22:1 26:1 27:1 29:1 31:1 33:1 37:1 138:1 264:1 266:1 268:1 272:1 273:1 
1 1:1 3:0.21365 6:1 13:1 15:1 17:1 19:1 22:1 26:1 27:1 29:1 31:1 33:1 37:1 131:1 264:1 266:1 268:1 272:1 273:1 
1 1:1 3:0.186944 6:1 13:1 15:1 17:1 19:1 22:1 26:1 27:1 29:1 31:1 33:1 37:1 131:1 264:1 266:1 268:1 272:1 273:1 
1 1:1 3:0.0356083 6:1 13:1 15:1 17:1 19:1 22:1 26:1 27:1 29:1 31:1 33:1 37:1 135:1 264:1 266:1 268:1 272:1 273:1 
1 1:1 3:0.00593472 6:1 13:1 15:1 17:1 19:1 22:1 26:1 27:1 29:1 31:1 33:1 37:1 135:1 264:1 266:1 268:1 272:1 273:1 
1 1:1 3:0.21365 12:1 13:1 15:1 17:1 19:1 22:1 26:1 27:1 29:1 31:1 33:1 37:1 138:1 264:1 266:1 268:1 272:1 273:1 
1 1:1 3:0.207715 12:1 13:1 16:1 17:1 20:1 21:0.707107 22:1 26:1 27:1 29:1 31:1 33:1 37:1 131:1 264:1 266:1 268:1 272:1 273:1 
1 1:1 3:0.181009 12:1 13:1 16:1 17:1 20:1 21:0.707107 22:1 26:1 27:1 29:1 31:1 33:1 37:1 131:1 264:1 266:1 268:1 272:1 273:1 
1 1:1 3:0.0296736 12:1 14:1 15:1 17:1 20:1 21:0.816497 22:1 26:1 27:1 29:1 31:1 33:1 37:1 135:1 264:1 266:1 268:1 272:1 273:1 
1 2:1 3:0.151335 12:1 13:1 16:1 17:1 20:1 21:1 23:1 26:1 27:1 29:1 31:1 33:1 35:1 131:1 265:1 266:1 269:1 272:1 273:1 
1 1:1 3:0.183976 12:1 13:1 15:1 17:1 19:1 22:1 26:1 27:1 29:1 31:1 33:1 37:1 138:1 264:1 266:1 268:1 272:1 273:1 
1 1:1 3:0.178042 12:1 13:1 16:1 17:1 20:1 21:0.57735 22:1 26:1 27:1 29:1 31:1 33:1 35:1 131:1 264:1 266:1 268:1 272:1 273:1 
1 1:1 3:0.151335 12:1 13:1 16:1 17:1 20:1 21:0.57735 22:1 26:1 27:1 29:1 31:1 33:1 35:1 131:1 264:1 266:1 268:1 272:1 273:1 
1 1:1 3:0.127596 12:1 13:1 15:1 17:1 19:1 22:1 26:1 27:1 29:1 31:1 33:1 36:1 132:1 264:1 266:1 268:1 272:1 273:1 
1 2:1 3:0.172107 11:1 13:1 16:1 17:1 20:1 21:0.707107 23:1 26:1 27:1 29:1 31:1 33:1 35:1 131:1 265:1 266:1 269:1 272:1 273:1 
1 1:1 3:0.127596 12:1 13:1 16:1 17:1 20:1 21:0.408248 22:1 26:1 27:1 29:1 31:1 33:1 36:1 132:1 264:1 266:1 268:1 272:1 273:1 
1 1:1 3:0.109792 12:1 13:1 16:1 17:1 20:1 21:0.707107 22:1 26:1 27:1 29:1 31:1 33:1 37:1 101:1 264:1 266:1 268:1 272:1 273:1 
1 1:1 3:0.0178042 12:1 13:1 16:1 17:1 20:1 21:0.707107 22:1 26:1 27:1 29:1 31:1 33:1 37:1 103:1 264:1 266:1 268:1 272:1 273:1 
1 1:1 3:0.0919881 12:1 13:1 15:1 17:1 20:1 21:0.5 22:1 26:1 27:1 29:1 31:1 33:1 36:1 101:1 264:1 266:1 268:1 272:1 273:1 
1 1:1 3:0.0504451 12:1 13:1 16:1 17:1 20:1 21:0.408248 22:1 26:1 27:1 29:1 31:1 33:1 36:1 86:1 264:1 266:1 268:1 272:1 273:1 
1 1:1 3:0.0445104 11:1 13:1 15:1 17:1 20:1 21:0.288675 22:1 26:1 27:1 29:1 31:1 33:1 35:1 86:1 264:1 266:1 268:1 272:1 273:1 
1 1:1 3:0.0326409 12:1 13:1 15:1 17:1 19:1 22:1 26:1 27:1 29:1 31:1 33:1 37:1 78:1 264:1 266:1 268:1 272:1 273:1 
1 2:1 3:0.00593472 9:1 13:1 16:1 17:1 20:1 21:0.707107 23:1 26:1 27:1 29:1 31:1 33:1 35:1 71:1 265:1 266:1 269:1 272:1 273:1 
1 1:1 3:0.00593472 12:1 13:1 15:1 17:1 19:1 22:1 26:1 27:1 29:1 31:1 33:1 37:1 78:1 264:1 266:1 268:1 272:1 273:1 
1 1:1 3:0.0385757 10:1 13:1 15:1 17:1 19:1 22:1 26:1 27:1 29:1 31:1 33:1 37:1 135:1 264:1 266:1 268:1 272:1 273:1 
1 1:1 3:0.195846 12:1 13:1 16:1 17:1 20:1 21:0.5 22:1 26:1 27:1 29:1 31:1 33:1 37:1 139:1 264:1 266:1 268:1 272:1 273:1 
1 1:1 3:0.178042 12:1 13:1 16:1 17:1 19:1 22:1 26:1 27:1 29:1 31:1 33:1 37:1 139:1 264:1 266:1 268:1 272:1 273:1 
1 1:1 3:0.166172 12:1 13:1 16:1 17:1 19:1 22:1 26:1 27:1 29:1 31:1 33:1 37:1 139:1 264:1 266:1 268:1 272:1 273:1 
1 1:1 3:0.160237 12:1 13:1 16:1 17:1 19:1 22:1 26:1 27:1 29:1 31:1 33:1 37:1 139:1 264:1 266:1 268:1 272:1 273:1 
1 1:1 3:0.142433 12:1 13:1 16:1 17:1 19:1 22:1 26:1 27:1 29:1 31:1 33:1 37:1 139:1 264:1 266:1 268:1 272:1 273:1 
1 1:1 3:0.124629 12:1 13:1 16:1 17:1 19:1 22:1 26:1 27:1 29:1 31:1 33:1 37:1 139:1 264:1 266:1 268:1 272:1 273:1 
1 2:1 3:0.041543 12:1 13:1 16:1 17:1 20:1 21:1 23:1 26:1 28:1 29:1 31:1 33:1 35:1 199:1 265:1 266:1 269:1 272:1 273:1 
1 2:1 3:0.0356083 12:1 13:1 16:1 17:1 20:1 21:1 23:1 26:1 28:1 29:1 31:1 33:1 35:1 199:1 265:1 266:1 269:1 272:1 273:1 
1 2:1 3:0.0178042 12:1 13:1 16:1 17:1 20:1 21:1 23:1 26:1 28:1 29:1 31:1 33:1 36:1 199:1 265:1 266:1 269:1 272:1 273:1 
1 1:1 3:0.0534125 12:1 14:1 16:1 17:1 20:1 21:0.707107 22:1 26:1 27:1 29:1 31:1 33:1 35:1 199:1 264:1 266:1 268:1 272:1 273:1 
1 2:1 3:0.0237389 12:1 13:1 16:1 17:1 20:1 21:1 23:1 26:1 28:1 29:1 31:1 33:1 35:1 199:1 265:1 266:1 269:1 272:1 273:1 
1 2:1 3:0.0178042 12:1 13:1 16:1 17:1 20:1 21:1 23:1 26:1 28:1 29:1 31:1 33:1 35:1 199:1 265:1 266:1 269:1 272:1 273:1 
1 1:1 3:0.0356083 12:1 14:1 16:1 17:1 20:1 21:0.707107 22:1 26:1 27:1 29:1 31:1 33:1 35:1 199:1 264:1 266:1 268:1 272:1 273:1 
1 1:1 3:0.0178042 12:1 14:1 16:1 17:1 20:1 21:0.707107 22:1 26:1 27:1 29:1 31:1 33:1 35:1 199:1 264:1 266:1 268:1 272:1 273:1 
1 2:1 3:0.00593472 12:1 13:1 16:1 17:1 20:1 21:1 23:1 26:1 28:1 29:1 31:1 33:1 36:1 199:1 265:1 266:1 269:1 272:1 273:1 
1 1:1 3:0.0118694 12:1 14:1 16:1 17:1 20:1 21:0.707107 22:1 26:1 27:1 29:1 31:1 33:1 35:1 199:1 264:1 266:1 268:1 272:1 273:1 
1 2:1 3:0.178042 12:1 13:1 16:1 17:1 20:1 21:1 23:1 26:1 28:1 29:1 31:1 33:1 37:1 199:1 265:1 266:1 269:1 272:1 273:1 
1 2:1 3:0.0860534 12:1 13:1 16:1 17:1 20:1 21:1 23:1 26:1 28:1 29:1 31:1 33:1 37:1 195:1 265:1 266:1 269:1 272:1 273:1 
1 2:1 3:0.0830861 11:1 13:1 16:1 17:1 20:1 21:0.707107 23:1 26:1 28:1 29:1 31:1 33:1 37:1 195:1 265:1 266:1 269:1 272:1 273:1 
1 2:1 3:0.225519 12:1 13:1 16:1 17:1 20:1 21:1 23:1 26:1 27:1 29:1 31:1 33:1 37:1 197:1 265:1 267:1 269:1 272:1 273:1 
1 2:1 3:0.0890208 12:1 13:1 16:1 17:1 20:1 21:1 23:1 26:1 28:1 29:1 31:1 33:1 37:1 195:1 265:1 267:1 269:1 272:1 273:1 
1 2:1 3:0.0890208 12:1 13:1 16:1 17:1 20:1 21:1 23:1 26:1 28:1 29:1 31:1 33:1 37:1 195:1 265:1 267:1 269:1 272:1 273:1 
1 1:1 3:0.0860534 12:1 13:1 16:1 17:1 20:1 21:0.57735 22:1 26:1 28:1 29:1 31:1 33:1 37:1 195:1 264:1 266:1 268:1 272:1 273:1 
1 2:1 3:0.0801187 11:1 13:1 16:1 17:1 20:1 21:0.707107 23:1 26:1 28:1 29:1 31:1 33:1 37:1 195:1 265:1 267:1 269:1 272:1 273:1 
1 2:1 3:0.0771513 12:1 13:1 16:1 17:1 20:1 21:1 23:1 26:1 28:1 29:1 31:1 33:1 37:1 195:1 265:1 267:1 269:1 272:1 273:1 
1 2:1 3:0.21365 12:1 13:1 15:1 17:1 19:1 22:1 26:1 27:1 29:1 32:1 33:1 37:1 199:1 265:1 266:1 269:1 272:1 273:1 
1 1:1 3:0.0652819 11:1 13:1 15:1 17:1 19:1 22:1 26:1 27:1 30:1 32:1 33:1 37:1 195:1 264:1 266:1 268:1 272:1 273:1 
1 2:1 3:0.181009 12:1 13:1 15:1 17:1 19:1 22:1 26:1 27:1 30:1 32:1 33:1 37:1 199:1 265:1 266:1 269:1 272:1 273:1 
1 2:1 3:0.0563798 12:1 13:1 15:1 17:1 19:1 22:1 26:1 27:1 29:1 31:1 33:1 37:1 195:1 265:1 266:1 269:1 272:1 273:1 
1 1:1 3:0.186944 12:1 13:1 16:1 17:1 20:1 21:1 23:1 26:1 27:1 29:1 31:1 33:1 37:1 199:1 265:1 266:1 269:1 272:1 273:1 
1 1:1 3:0.0534125 12:1 13:1 16:1 17:1 20:1 21:1 23:1 26:1 27:1 29:1 31:1 33:1 37:1 195:1 265:1 266:1 269:1 272:1 273:1 
1 2:1 3:0.151335 12:1 13:1 15:1 17:1 19:1 22:1 26:1 27:1 30:1 32:1 33:1 37:1 199:1 265:1 266:1 269:1 272:1 273:1 
1 1:1 3:0.151335 12:1 13:1 15:1 17:1 19:1 22:1 26:1 27:1 30:1 32:1 33:1 37:1 199:1 264:1 267:1 268:1 272:1 273:1 
1 1:1 3:0.163205 12:1 13:1 15:1 17:1 19:1 22:1 26:1 27:1 30:1 32:1 33:1 37:1 199:1 265:1 266:1 269:1 272:1 273:1 
1 2:1 3:0.169139 12:1 13:1 16:1 17:1 20:1 21:1 23:1 26:1 28:1 30:1 32:1 33:1 37:1 199:1 265:1 267:1 269:1 272:1 273:1 
1 1:1 3:0.175074 12:1 13:1 16:1 17:1 20:1 21:1 23:1 26:1 27:1 30:1 32:1 33:1 37:1 199:1 265:1 266:1 269:1 272:1 273:1 
1 2:1 3:0.169139 12:1 13:1 16:1 17:1 20:1 21:1 23:1 26:1 28:1 30:1 32:1 33:1 37:1 199:1 265:1 266:1 269:1 272:1 273:1 
1 2:1 3:0.0474777 12:1 13:1 16:1 17:1 20:1 21:1 23:1 26:1 28:1 29:1 31:1 33:1 37:1 195:1 265:1 266:1 269:1 272:1 273:1 
1 2:1 3:0.148368 12:1 13:1 16:1 17:1 20:1 21:1 23:1 26:1 27:1 29:1 31:1 33:1 37:1 137:1 265:1 267:1 269:1 272:1 273:1 
1 1:1 3:0.00890208 12:1 13:1 16:1 17:1 20:1 21:0.57735 22:1 26:1 28:1 29:1 31:1 33:1 37:1 135:1 264:1 266:1 268:1 272:1 273:1 
1 2:1 3:0.145401 9:1 13:1 16:1 17:1 20:1 21:0.707107 23:1 26:1 27:1 29:1 31:1 33:1 37:1 137:1 265:1 267:1 269:1 272:1 273:1 
1 1:1 3:0.00593472 9:1 13:1 15:1 17:1 20:1 21:0.408248 22:1 26:1 28:1 29:1 31:1 33:1 37:1 135:1 264:1 266:1 268:1 272:1 273:1 
1 1:1 3:0.139466 12:1 13:1 16:1 17:1 20:1 21:0.57735 22:1 26:1 27:1 29:1 31:1 33:1 37:1 137:1 264:1 266:1 268:1 272:1 273:1 
1 1:1 3:0.00296736 12:1 13:1 16:1 17:1 20:1 21:0.57735 22:1 26:1 28:1 29:1 31:1 33:1 37:1 135:1 264:1 266:1 268:1 272:1 273:1 
1 1:1 3:0.00296736 12:1 13:1 16:1 17:1 20:1 21:0.57735 22:1 26:1 28:1 29:1 31:1 33:1 37:1 135:1 264:1 266:1 268:1 272:1 273:1 
1 2:1 3:0.136499 12:1 13:1 16:1 17:1 20:1 21:1 23:1 26:1 27:1 29:1 31:1 33:1 37:1 137:1 265:1 267:1 269:1 272:1 273:1 
1 2:1 3:0.136499 12:1 13:1 16:1 17:1 20:1 21:1 23:1 26:1 27:1 29:1 31:1 33:1 37:1 137:1 265:1 267:1 269:1 272:1 273:1 
1 1:1 3:0.0474777 11:1 13:1 16:1 17:1 20:1 21:0.5 22:1 26:1 27:1 29:1 31:1 33:1 36:1 86:1 264:1 266:1 268:1 272:1 273:1 
1 1:1 3:0.0445104 11:1 13:1 15:1 17:1 19:1 22:1 26:1 27:1 29:1 31:1 33:1 36:1 86:1 264:1 266:1 268:1 272:1 273:1 
1 1:1 3:0.0178042 12:1 13:1 16:1 17:1 20:1 21:0.707107 22:1 26:1 28:1 29:1 31:1 33:1 37:1 71:1 264:1 266:1 268:1 272:1 273:1 
1 1:1 3:0.0178042 12:1 13:1 16:1 17:1 20:1 21:0.707107 23:1 26:1 27:1 29:1 31:1 33:1 37:1 231:1 265:1 267:1 269:1 272:1 273:1 
1 1:1 3:0.074184 12:1 13:1 15:1 17:1 19:1 22:1 26:1 27:1 29:1 32:1 33:1 37:1 229:1 264:1 267:1 269:1 272:1 273:1 
1 2:1 3:0.0623145 12:1 13:1 16:1 17:1 20:1 21:1 23:1 26:1 28:1 29:1 32:1 33:1 37:1 229:1 265:1 266:1 269:1 272:1 273:1 
1 1:1 3:0.0652819 12:1 13:1 15:1 17:1 19:1 22:1 26:1 27:1 30:1 32:1 33:1 37:1 229:1 265:1 266:1 269:1 272:1 273:1 
1 2:1 3:0.0504451 12:1 13:1 16:1 17:1 20:1 21:1 23:1 26:1 28:1 30:1 32:1 33:1 37:1 229:1 265:1 266:1 269:1 272:1 273:1 
1 2:1 3:0.0504451 12:1 13:1 16:1 17:1 20:1 21:1 23:1 26:1 28:1 29:1 31:1 33:1 37:1 195:1 265:1 266:1 269:1 272:1 273:1 
1 2:1 3:0.0445104 12:1 13:1 16:1 17:1 20:1 21:1 23:1 26:1 28:1 29:1 31:1 33:1 37:1 195:1 265:1 266:1 269:1 272:1 273:1 
1 1:1 3:0.222552 12:1 13:1 15:1 17:1 19:1 22:1 26:1 27:1 30:1 31:1 33:1 37:1 191:1 264:1 267:1 269:1 272:1 273:1 
1 1:1 3:0.00296736 9:1 13:1 15:1 17:1 19:1 22:1 26:1 27:1 29:1 31:1 33:1 37:1 135:1 264:1 266:1 268:1 272:1 273:1 
1 1:1 3:0.00296736 8:1 13:1 15:1 17:1 20:1 21:0.267261 22:1 26:1 27:1 29:1 31:1 33:1 37:1 135:1 264:1 266:1 268:1 272:1 273:1 
1 1:1 3:0.00296736 12:1 13:1 16:1 17:1 20:1 21:0.707107 22:1 26:1 27:1 29:1 31:1 33:1 37:1 38:1 264:1 266:1 268:1 272:1 273:1 
1 1:1 12:1 13:1 15:1 17:1 19:1 22:1 26:1 27:1 29:1 31:1 33:1 36:1 135:1 264:1 266:1 268:1 272:1 273:1 
1 1:1 3:0.00593472 12:1 13:1 15:1 17:1 19:1 22:1 26:1 27:1 29:1 31:1 33:1 35:1 135:1 264:1 266:1 268:1 272:1 273:1 
1 1:1 12:1 13:1 15:1 17:1 19:1 22:1 26:1 27:1 29:1 31:1 33:1 36:1 135:1 264:1 266:1 268:1 272:1 273:1 
1 2:1 3:0.0682493 12:1 13:1 16:1 17:1 20:1 21:1 23:1 26:1 28:1 29:1 31:1 33:1 37:1 199:1 265:1 266:1 269:1 272:1 273:1 
1 2:1 3:0.0682493 12:1 14:1 16:1 17:1 20:1 21:1 23:1 26:1 28:1 29:1 31:1 33:1 37:1 199:1 265:1 266:1 269:1 272:1 273:1 
1 2:1 3:0.0682493 12:1 13:1 16:1 17:1 20:1 21:1 23:1 26:1 28:1 30:1 31:1 33:1 37:1 199:1 265:1 266:1 269:1 272:1 273:1 
1 2:1 3:0.0178042 12:1 13:1 16:1 17:1 20:1 21:1 23:1 26:1 28:1 29:1 31:1 33:1 37:1 195:1 265:1 266:1 269:1 272:1 273:1 
1 1:1 3:0.0801187 9:1 13:1 16:1 17:1 20:1 21:0.632456 22:1 26:1 28:1 29:1 31:1 33:1 35:1 131:1 264:1 266:1 268:1 272:1 273:1 
1 1:1 3:0.0118694 9:1 13:1 16:1 17:1 20:1 21:0.632456 22:1 26:1 28:1 29:1 31:1 33:1 37:1 135:1 264:1 266:1 268:1 272:1 273:1 
1 1:1 3:0.0652819 12:1 13:1 16:1 17:1 20:1 21:0.447214 22:1 26:1 27:1 29:1 31:1 33:1 37:1 131:1 264:1 266:1 268:1 272:1 273:1 
1 2:1 12:1 13:1 16:1 17:1 20:1 21:1 23:1 26:1 27:1 29:1 31:1 33:1 37:1 135:1 265:1 267:1 269:1 272:1 273:1 
1 1:1 3:0.0652819 12:1 13:1 16:1 17:1 20:1 21:0.447214 22:1 26:1 27:1 29:1 31:1 33:1 37:1 131:1 264:1 266:1 268:1 272:1 273:1 
1 1:1 3:0.00296736 6:1 13:1 16:1 17:1 20:1 21:0.408248 22:1 26:1 27:1 29:1 31:1 33:1 37:1 71:1 264:1 266:1 268:1 272:1 273:1 
1 2:1 3:0.0356083 12:1 13:1 16:1 17:1 20:1 21:1 23:1 26:1 27:1 29:1 31:1 33:1 37:1 135:1 265:1 267:1 269:1 272:1 273:1 
1 1:1 3:0.317507 12:1 13:1 16:1 17:1 20:1 21:1 23:1 26:1 27:1 29:1 31:1 33:1 37:1 131:1 264:1 266:1 268:1 272:1 273:1 
1 1:1 3:0.0771513 12:1 13:1 16:1 17:1 20:1 21:1 23:1 26:1 27:1 29:1 31:1 33:1 37:1 135:1 264:1 266:1 268:1 272:1 273:1 
1 1:1 3:0.0474777 9:1 13:1 16:1 17:1 20:1 21:0.707107 23:1 26:1 27:1 29:1 31:1 33:1 35:1 135:1 265:1 266:1 269:1 272:1 273:1 
1 1:1 3:0.0267062 9:1 13:1 15:1 17:1 19:1 22:1 26:1 27:1 29:1 31:1 33:1 35:1 135:1 264:1 266:1 268:1 272:1 273:1 
1 2:1 3:0.00593472 11:1 13:1 16:1 17:1 20:1 21:0.707107 23:1 26:1 27:1 29:1 31:1 33:1 36:1 135:1 265:1 267:1 269:1 272:1 273:1 
1 1:1 3:0.0207715 12:1 13:1 15:1 17:1 19:1 22:1 26:1 27:1 29:1 31:1 33:1 36:1 135:1 264:1 266:1 268:1 272:1 273:1 
1 1:1 3:0.299703 12:1 13:1 15:1 17:1 19:1 22:1 26:1 27:1 29:1 31:1 33:1 37:1 138:1 264:1 266:1 268:1 272:1 273:1 
1 1:1 3:0.27003 10:1 13:1 15:1 17:1 19:1 22:1 26:1 27:1 29:1 31:1 33:1 37:1 131:1 264:1 266:1 268:1 272:1 273:1 
1 1:1 3:0.216617 12:1 13:1 16:1 17:1 20:1 21:1 23:1 26:1 27:1 29:1 31:1 33:1 37:1 133:1 264:1 266:1 268:1 272:1 273:1 
1 1:1 3:0.21365 12:1 13:1 16:1 17:1 20:1 21:1 23:1 26:1 27:1 29:1 31:1 33:1 37:1 133:1 264:1 266:1 268:1 272:1 273:1 
1 1:1 3:0.246291 12:1 14:1 16:1 17:1 20:1 21:0.707107 22:1 26:1 27:1 29:1 31:1 33:1 35:1 131:1 264:1 266:1 268:1 272:1 273:1 
1 1:1 3:0.272997 12:1 13:1 15:1 17:1 19:1 22:1 26:1 27:1 29:1 31:1 33:1 37:1 131:1 264:1 266:1 268:1 272:1 273:1 
1 1:1 3:0.0178042 12:1 13:1 15:1 17:1 19:1 22:1 26:1 27:1 29:1 31:1 33:1 37:1 135:1 264:1 266:1 268:1 272:1 273:1 
1 1:1 3:0.240356 12:1 13:1 16:1 17:1 20:1 21:1 23:1 26:1 27:1 29:1 31:1 33:1 37:1 131:1 264:1 266:1 268:1 272:1 273:1 
1 1:1 3:0.198813 12:1 13:1 16:1 17:1 20:1 21:1 23:1 26:1 27:1 29:1 31:1 33:1 37:1 132:1 264:1 266:1 268:1 272:1 273:1 
1 1:1 3:0.255193 12:1 13:1 16:1 17:1 20:1 21:0.707107 22:1 26:1 27:1 29:1 31:1 33:1 37:1 131:1 264:1 266:1 268:1 272:1 273:1 
1 1:1 3:0.0860534 12:1 13:1 15:1 17:1 19:1 22:1 26:1 27:1 29:1 31:1 33:1 37:1 108:1 264:1 266:1 268:1 272:1 273:1 
1 1:1 3:0.0563798 10:1 13:1 15:1 17:1 19:1 22:1 26:1 27:1 29:1 31:1 33:1 37:1 101:1 264:1 266:1 268:1 272:1 273:1 
1 1:1 3:0.00296736 12:1 13:1 16:1 17:1 20:1 21:1 23:1 26:1 27:1 29:1 31:1 33:1 37:1 103:1 264:1 266:1 268:1 272:1 273:1 
1 1:1 3:0.0830861 12:1 13:1 15:1 17:1 19:1 22:1 26:1 27:1 29:1 31:1 33:1 37:1 108:1 264:1 266:1 268:1 272:1 273:1 
1 1:1 3:0.0534125 10:1 13:1 15:1 17:1 19:1 22:1 26:1 27:1 29:1 31:1 33:1 37:1 101:1 264:1 266:1 268:1 272:1 273:1 
0.5330892446204718 1:1 3:0.041543 12:1 13:1 16:1 17:1 20:1 21:1 23:1 26:1 27:1 29:1 31:1 33:1 37:1 86:1 264:1 266:1 268:1 272:1 273:1 
1 1:1 3:0.0296736 6:1 13:1 16:1 17:1 20:1 21:0.57735 22:1 26:1 27:1 29:1 31:1 33:1 37:1 78:1 264:1 266:1 268:1 272:1 273:1 
1 2:1 3:0.172107 12:1 13:1 16:1 17:1 20:1 21:1 23:1 26:1 27:1 29:1 31:1 33:1 37:1 42:1 265:1 266:1 269:1 272:1 273:1 
1 2:1 3:0.0534125 12:1 13:1 16:1 17:1 20:1 21:1 23:1 26:1 27:1 29:1 31:1 33:1 37:1 195:1 265:1 266:1 269:1 272:1 273:1 
1 2:1 3:0.0474777 12:1 13:1 16:1 17:1 20:1 21:1 23:1 26:1 27:1 29:1 31:1 33:1 37:1 195:1 265:1 266:1 269:1 272:1 273:1 
1 1:1 3:0.0118694 12:1 13:1 15:1 17:1 19:1 22:1 26:1 27:1 29:1 31:1 33:1 37:1 195:1 265:1 266:1 269:1 272:1 273:1 
1 1:1 3:0.00593472 12:1 13:1 15:1 17:1 19:1 22:1 26:1 27:1 29:1 31:1 33:1 37:1 195:1 264:1 267:1 269:1 272:1 273:1 
1 2:1 3:0.0830861 6:1 13:1 16:1 17:1 20:1 21:0.707107 23:1 26:1 27:1 29:1 31:1 33:1 35:1 138:1 264:1 266:1 268:1 272:1 273:1 
1 1:1 3:0.0207715 7:1 13:1 15:1 17:1 20:1 21:0.333333 22:1 26:1 27:1 29:1 31:1 33:1 37:1 135:1 265:1 266:1 269:1 272:1 273:1 
1 1:1 3:0.0207715 7:1 13:1 15:1 17:1 20:1 21:0.333333 22:1 26:1 27:1 29:1 31:1 33:1 37:1 135:1 265:1 266:1 269:1 272:1 273:1 
1 1:1 3:0.0118694 7:1 13:1 15:1 17:1 20:1 21:0.333333 22:1 26:1 27:1 29:1 31:1 33:1 37:1 135:1 265:1 266:1 269:1 272:1 273:1 
1 1:1 3:0.172107 7:1 14:1 15:1 17:1 20:1 21:0.408248 22:1 26:1 27:1 29:1 31:1 33:1 37:1 131:1 264:1 266:1 268:1 272:1 273:1 
1 1:1 3:0.166172 7:1 14:1 15:1 17:1 20:1 21:0.408248 22:1 26:1 27:1 29:1 31:1 33:1 37:1 131:1 264:1 266:1 268:1 272:1 273:1 
1 1:1 3:0.160237 7:1 14:1 15:1 17:1 20:1 21:0.408248 22:1 26:1 27:1 29:1 31:1 33:1 37:1 131:1 264:1 266:1 268:1 272:1 273:1 
1 1:1 3:0.142433 7:1 14:1 15:1 17:1 20:1 21:0.471405 22:1 26:1 27:1 29:1 31:1 33:1 37:1 131:1 264:1 266:1 268:1 272:1 273:1 
1 1:1 3:0.00593472 8:1 14:1 15:1 17:1 20:1 21:0.639602 22:1 26:1 27:1 29:1 31:1 33:1 37:1 135:1 264:1 266:1 268:1 272:1 273:1 
1 1:1 3:0.136499 7:1 14:1 15:1 17:1 20:1 21:0.80403 22:1 26:1 27:1 29:1 31:1 33:1 37:1 131:1 264:1 266:1 268:1 272:1 273:1 
1 1:1 3:0.115727 12:1 13:1 16:1 17:1 19:1 22:1 26:1 27:1 29:1 31:1 33:1 37:1 225:1 265:1 266:1 269:1 272:1 273:1 
1 1:1 3:0.11276 12:1 13:1 16:1 17:1 19:1 22:1 26:1 27:1 29:1 31:1 33:1 37:1 225:1 265:1 266:1 269:1 272:1 273:1 
1 1:1 3:0.0593472 12:1 13:1 15:1 17:1 19:1 22:1 26:1 27:1 29:1 31:1 33:1 37:1 195:1 264:1 266:1 268:1 272:1 273:1 
1 1:1 3:0.00890208 12:1 13:1 15:1 17:1 19:1 22:1 26:1 27:1 29:1 31:1 33:1 37:1 195:1 264:1 266:1 268:1 272:1 273:1 
1 2:1 3:0.0504451 12:1 13:1 15:1 17:1 19:1 22:1 26:1 27:1 29:1 31:1 33:1 37:1 135:1 265:1 266:1 269:1 272:1 273:1 
1 2:1 3:0.0207715 12:1 13:1 16:1 17:1 20:1 21:1 23:1 26:1 28:1 30:1 31:1 33:1 37:1 135:1 265:1 266:1 269:1 272:1 273:1 
1 1:1 3:0.0356083 12:1 13:1 15:1 17:1 20:1 21:0.333333 22:1 26:1 27:1 29:1 31:1 33:1 36:1 86:1 265:1 266:1 269:1 272:1 273:1 
1 1:1 3:0.0148368 12:1 13:1 15:1 17:1 19:1 22:1 26:1 27:1 29:1 31:1 33:1 35:1 86:1 264:1 266:1 268:1 272:1 273:1 
1 1:1 3:0.0207715 12:1 14:1 15:1 17:1 20:1 21:0.408248 22:1 26:1 27:1 29:1 31:1 33:1 35:1 71:1 264:1 266:1 268:1 272:1 273:1 
1 1:1 3:0.00296736 12:1 13:1 16:1 17:1 20:1 21:0.707107 22:1 26:1 27:1 29:1 31:1 33:1 37:1 151:1 264:1 266:1 268:1 272:1 273:1 
1 1:1 3:0.074184 4:1 13:1 15:1 17:1 20:1 21:0.8 22:1 26:1 27:1 29:1 31:1 33:1 37:1 150:1 264:1 266:1 268:1 272:1 273:1 
1 1:1 3:0.0771513 12:1 13:1 15:1 17:1 20:1 21:0.447214 22:1 26:1 27:1 29:1 31:1 33:1 37:1 150:1 264:1 266:1 268:1 272:1 273:1 
1 1:1 3:0.0118694 12:1 13:1 15:1 17:1 19:1 22:1 26:1 27:1 29:1 31:1 33:1 37:1 103:1 264:1 266:1 268:1 272:1 273:1 
1 1:1 3:0.00890208 12:1 13:1 16:1 17:1 20:1 21:1 23:1 26:1 27:1 29:1 31:1 33:1 37:1 103:1 264:1 266:1 268:1 272:1 273:1 
1 1:1 3:0.00296736 12:1 13:1 15:1 17:1 19:1 22:1 26:1 27:1 29:1 31:1 33:1 36:1 103:1 264:1 266:1 268:1 272:1 273:1 
1 1:1 3:0.0356083 12:1 13:1 15:1 17:1 19:1 22:1 26:1 27:1 29:1 31:1 33:1 35:1 103:1 264:1 267:1 268:1 272:1 273:1 
1 1:1 3:0.0267062 12:1 14:1 15:1 17:1 20:1 21:0.5 22:1 26:1 27:1 29:1 31:1 33:1 35:1 103:1 264:1 266:1 268:1 272:1 273:1 
1 1:1 3:0.0237389 7:1 14:1 16:1 17:1 20:1 21:0.894427 22:1 26:1 27:1 29:1 31:1 33:1 37:1 103:1 264:1 266:1 268:1 272:1 273:1 
1 1:1 3:0.00593472 12:1 14:1 16:1 17:1 20:1 21:0.845154 22:1 26:1 27:1 29:1 31:1 33:1 35:1 103:1 264:1 266:1 268:1 272:1 273:1 
1 2:1 3:0.0385757 12:1 13:1 16:1 17:1 20:1 21:1 23:1 26:1 27:1 29:1 31:1 33:1 37:1 109:1 265:1 266:1 269:1 272:1 273:1 
1 1:1 3:0.041543 9:1 13:1 15:1 17:1 20:1 21:0.144338 22:1 26:1 27:1 29:1 31:1 33:1 37:1 38:1 264:1 266:1 268:1 272:1 273:1 
1 1:1 3:0.0356083 7:1 13:1 15:1 17:1 20:1 21:0.258199 22:1 26:1 27:1 29:1 31:1 33:1 37:1 101:1 264:1 266:1 268:1 272:1 273:1 
1 1:1 3:0.00890208 12:1 14:1 16:1 17:1 20:1 21:0.866025 22:1 26:1 27:1 29:1 31:1 33:1 37:1 38:1 264:1 266:1 268:1 272:1 273:1 
1 1:1 3:0.00593472 6:1 13:1 15:1 17:1 20:1 21:0.67082 22:1 26:1 27:1 29:1 31:1 33:1 37:1 38:1 265:1 267:1 269:1 272:1 273:1 
1 1:1 3:0.00296736 12:1 13:1 16:1 17:1 20:1 21:1 23:1 26:1 27:1 29:1 31:1 33:1 35:1 199:1 265:1 266:1 269:1 272:1 273:1 
1 1:1 3:0.0474777 6:1 13:1 15:1 17:1 19:1 22:1 26:1 27:1 29:1 31:1 33:1 35:1 199:1 264:1 266:1 268:1 272:1 273:1 
1 1:1 6:1 13:1 15:1 17:1 19:1 22:1 26:1 27:1 29:1 31:1 33:1 36:1 199:1 264:1 266:1 268:1 272:1 273:1 
1 1:1 3:0.0474777 12:1 14:1 16:1 18:1 20:1 21:1 23:1 26:1 27:1 29:1 31:1 33:1 35:1 199:1 264:1 266:1 268:1 272:1 273:1 
1 2:1 3:0.0296736 12:1 13:1 16:1 17:1 20:1 21:1 23:1 26:1 28:1 29:1 31:1 33:1 37:1 199:1 265:1 266:1 269:1 272:1 273:1 
1 1:1 3:0.151335 12:1 14:1 15:1 18:1 20:1 21:0.5 22:1 26:1 27:1 29:1 31:1 33:1 37:1 191:1 264:1 266:1 268:1 272:1 273:1 
1 2:1 3:0.151335 12:1 13:1 16:1 17:1 20:1 21:1 23:1 26:1 27:1 29:1 31:1 33:1 37:1 191:1 265:1 267:1 269:1 272:1 273:1 
1 2:1 3:0.0385757 12:1 13:1 16:1 17:1 20:1 21:1 23:1 26:1 28:1 29:1 31:1 33:1 37:1 191:1 265:1 267:1 269:1 272:1 273:1 
1 1:1 3:0.074184 12:1 13:1 16:1 17:1 20:1 21:0.707107 23:1 26:1 27:1 29:1 31:1 33:1 37:1 225:1 265:1 266:1 269:1 272:1 273:1 
1 1:1 3:0.0593472 12:1 13:1 16:1 17:1 20:1 21:0.707107 23:1 26:1 27:1 29:1 31:1 33:1 37:1 225:1 265:1 266:1 269:1 272:1 273:1 
1 1:1 3:0.0504451 12:1 13:1 16:1 17:1 20:1 21:0.707107 23:1 26:1 27:1 29:1 31:1 33:1 37:1 225:1 265:1 266:1 269:1 272:1 273:1 
1 1:1 3:0.0267062 12:1 13:1 15:1 17:1 20:1 21:0.353553 22:1 26:1 27:1 29:1 31:1 33:1 37:1 86:1 264:1 266:1 268:1 272:1 273:1 
1 2:1 3:0.041543 12:1 13:1 16:1 17:1 20:1 21:1 23:1 26:1 28:1 29:1 31:1 33:1 37:1 195:1 265:1 266:1 269:1 272:1 273:1 
1 1:1 3:0.0860534 11:1 14:1 15:1 17:1 20:1 21:0.92582 23:1 26:1 27:1 29:1 31:1 33:1 37:1 60:1 265:1 266:1 269:1 272:1 273:1 
1 1:1 3:0.0830861 10:1 13:1 15:1 17:1 20:1 21:0.408248 22:1 26:1 27:1 29:1 31:1 33:1 37:1 60:1 264:1 266:1 268:1 272:1 273:1 
0.9759049266863671 2:1 3:0.0445104 12:1 14:1 16:1 18:1 20:1 21:1 23:1 26:1 27:1 29:1 31:1 33:1 37:1 135:1 265:1 267:1 269:1 272:1 273:1 
1 2:1 3:0.11276 12:1 13:1 16:1 17:1 20:1 21:1 23:1 26:1 28:1 30:1 32:1 33:1 37:1 199:1 265:1 267:1 269:1 272:1 273:1 
1 1:1 3:0.0207715 12:1 13:1 15:1 17:1 20:1 21:0.516398 22:1 26:1 27:1 29:1 31:1 33:1 37:1 129:1 264:1 266:1 268:1 272:1 273:1 
1 2:1 3:0.0148368 12:1 13:1 16:1 17:1 20:1 21:1 23:1 26:1 27:1 29:1 31:1 33:1 37:1 135:1 265:1 266:1 269:1 272:1 273:1 
1 1:1 3:0.198813 12:1 13:1 15:1 17:1 19:1 22:1 26:1 27:1 29:1 31:1 33:1 37:1 139:1 264:1 267:1 268:1 272:1 273:1 
1 1:1 3:0.195846 9:1 13:1 15:1 17:1 19:1 22:1 26:1 27:1 29:1 31:1 33:1 37:1 139:1 264:1 267:1 268:1 272:1 273:1 
1 1:1 3:0.181009 12:1 13:1 15:1 17:1 19:1 22:1 26:1 27:1 29:1 31:1 33:1 37:1 139:1 264:1 267:1 268:1 272:1 273:1 
1 1:1 3:0.0207715 4:1 14:1 15:1 17:1 20:1 21:0.755929 22:1 26:1 27:1 29:1 31:1 33:1 35:1 135:1 264:1 266:1 268:1 272:1 273:1 
1 1:1 3:0.0237389 4:1 14:1 15:1 17:1 20:1 21:0.866025 22:1 26:1 27:1 29:1 31:1 33:1 36:1 135:1 264:1 266:1 268:1 272:1 273:1 
1 2:1 3:0.15727 12:1 13:1 16:1 17:1 20:1 21:1 23:1 26:1 28:1 29:1 31:1 33:1 37:1 139:1 265:1 266:1 269:1 272:1 273:1 
1 1:1 3:0.231454 12:1 13:1 15:1 17:1 19:1 22:1 26:1 27:1 29:1 31:1 33:1 35:1 131:1 264:1 266:1 268:1 272:1 273:1 
1 1:1 3:0.0207715 12:1 13:1 15:1 17:1 19:1 22:1 26:1 27:1 29:1 31:1 33:1 37:1 38:1 264:1 266:1 268:1 272:1 273:1 
1 1:1 3:0.0148368 12:1 13:1 15:1 17:1 19:1 22:1 26:1 27:1 29:1 31:1 33:1 37:1 38:1 264:1 266:1 268:1 272:1 273:1 
1 1:1 3:0.00296736 12:1 13:1 15:1 17:1 19:1 22:1 26:1 27:1 29:1 31:1 33:1 37:1 38:1 264:1 266:1 268:1 272:1 273:1 
1 1:1 12:1 13:1 15:1 17:1 19:1 22:1 26:1 27:1 29:1 31:1 33:1 37:1 38:1 264:1 266:1 268:1 272:1 273:1 
1 1:1 3:0.0326409 12:1 13:1 15:1 17:1 19:1 22:1 26:1 27:1 29:1 31:1 33:1 37:1 38:1 264:1 266:1 268:1 272:1 273:1 
1 1:1 3:0.0296736 12:1 13:1 15:1 17:1 19:1 22:1 26:1 27:1 29:1 31:1 33:1 37:1 38:1 264:1 266:1 268:1 272:1 273:1 
1 1:1 3:0.0178042 12:1 13:1 15:1 17:1 19:1 22:1 26:1 27:1 29:1 31:1 33:1 37:1 38:1 264:1 266:1 268:1 272:1 273:1 
1 1:1 3:0.0118694 12:1 13:1 15:1 17:1 19:1 22:1 26:1 27:1 29:1 31:1 33:1 37:1 38:1 264:1 266:1 268:1 272:1 273:1 
1 1:1 3:0.00890208 12:1 13:1 15:1 17:1 19:1 22:1 26:1 27:1 29:1 31:1 33:1 37:1 133:1 264:1 266:1 268:1 272:1 273:1 
1 1:1 3:0.00296736 12:1 13:1 15:1 17:1 19:1 22:1 26:1 27:1 29:1 31:1 33:1 36:1 135:1 264:1 266:1 268:1 272:1 273:1 
1 1:1 3:0.00593472 12:1 14:1 16:1 17:1 20:1 21:0.866025 22:1 26:1 27:1 29:1 31:1 33:1 37:1 133:1 264:1 266:1 268:1 272:1 273:1 
1 2:1 3:0.0148368 12:1 13:1 16:1 17:1 20:1 21:1 23:1 26:1 27:1 29:1 31:1 33:1 37:1 246:1 265:1 266:1 269:1 272:1 273:1 
1 2:1 3:0.00296736 12:1 13:1 16:1 17:1 20:1 21:1 23:1 26:1 27:1 29:1 31:1 33:1 37:1 247:1 265:1 266:1 269:1 272:1 273:1 
1 2:1 3:0.0118694 12:1 13:1 16:1 17:1 20:1 21:1 23:1 26:1 27:1 29:1 31:1 33:1 37:1 246:1 265:1 266:1 269:1 272:1 273:1 
1 2:1 3:0.234421 12:1 13:1 16:1 17:1 20:1 21:1 23:1 26:1 28:1 30:1 32:1 33:1 37:1 199:1 265:1 267:1 269:1 272:1 273:1 
1 2:1 3:0.0949555 12:1 13:1 16:1 17:1 20:1 21:1 23:1 26:1 28:1 29:1 31:1 33:1 37:1 195:1 265:1 267:1 269:1 272:1 273:1 
1 2:1 3:0.0356083 11:1 13:1 16:1 17:1 20:1 21:0.707107 23:1 26:1 28:1 29:1 31:1 33:1 37:1 195:1 265:1 267:1 269:1 272:1 273:1 
1 1:1 3:0.0652819 12:1 13:1 16:1 17:1 20:1 21:0.707107 22:1 26:1 28:1 29:1 31:1 33:1 37:1 195:1 264:1 266:1 268:1 272:1 273:1 
1 1:1 3:0.0890208 12:1 13:1 15:1 17:1 19:1 22:1 26:1 27:1 29:1 31:1 33:1 37:1 195:1 264:1 267:1 268:1 272:1 273:1 
1 1:1 3:0.0504451 11:1 13:1 15:1 17:1 19:1 22:1 26:1 27:1 29:1 31:1 33:1 37:1 195:1 264:1 267:1 268:1 272:1 273:1 
1 1:1 3:0.0474777 11:1 13:1 15:1 17:1 19:1 22:1 26:1 27:1 29:1 31:1 33:1 37:1 195:1 264:1 267:1 268:1 272:1 273:1 
1 1:1 3:0.0445104 11:1 13:1 15:1 17:1 19:1 22:1 26:1 27:1 29:1 31:1 33:1 37:1 195:1 264:1 267:1 268:1 272:1 273:1 
1 2:1 3:0.219585 12:1 13:1 16:1 17:1 20:1 21:1 23:1 26:1 28:1 30:1 32:1 33:1 37:1 199:1 265:1 266:1 269:1 272:1 273:1 
1 1:1 3:0.0860534 12:1 13:1 15:1 17:1 19:1 22:1 26:1 27:1 29:1 31:1 33:1 37:1 195:1 264:1 267:1 268:1 272:1 273:1 
1 1:1 3:0.10089 12:1 13:1 15:1 17:1 19:1 22:1 26:1 27:1 29:1 31:1 33:1 37:1 44:1 264:1 266:1 268:1 272:1 273:1 
1 1:1 3:0.0771513 12:1 13:1 15:1 17:1 19:1 22:1 26:1 27:1 29:1 31:1 33:1 37:1 44:1 264:1 266:1 268:1 272:1 273:1 
1 2:1 3:0.198813 9:1 13:1 16:1 17:1 20:1 21:0.707107 23:1 26:1 28:1 29:1 31:1 33:1 37:1 139:1 265:1 267:1 269:1 272:1 273:1 
1 1:1 3:0.278932 6:1 13:1 15:1 17:1 20:1 21:0.5 22:1 26:1 27:1 29:1 31:1 33:1 36:1 131:1 264:1 266:1 268:1 272:1 273:1 
1 1:1 3:0.267062 6:1 13:1 15:1 17:1 19:1 22:1 26:1 27:1 29:1 31:1 33:1 37:1 131:1 265:1 266:1 269:1 272:1 273:1 
1 2:1 3:0.0801187 6:1 13:1 16:1 17:1 20:1 21:0.707107 23:1 26:1 27:1 29:1 31:1 33:1 37:1 134:1 265:1 266:1 269:1 272:1 273:1 
1 1:1 3:0.0593472 6:1 13:1 15:1 17:1 20:1 21:0.5 22:1 26:1 27:1 29:1 31:1 33:1 37:1 135:1 264:1 266:1 268:1 272:1 273:1 
1 1:1 3:0.222552 12:1 13:1 16:1 17:1 20:1 21:0.707107 22:1 26:1 27:1 29:1 31:1 33:1 37:1 132:1 264:1 266:1 268:1 272:1 273:1 
1 1:1 3:0.133531 12:1 13:1 15:1 17:1 19:1 22:1 26:1 27:1 29:1 31:1 33:1 37:1 139:1 264:1 267:1 268:1 272:1 273:1 
1 1:1 3:0.136499 12:1 13:1 15:1 17:1 19:1 22:1 26:1 27:1 29:1 31:1 33:1 37:1 139:1 264:1 267:1 268:1 272:1 273:1 
1 2:1 3:0.139466 12:1 13:1 16:1 17:1 20:1 21:1 23:1 26:1 28:1 29:1 31:1 33:1 37:1 139:1 265:1 267:1 269:1 272:1 273:1 
1 1:1 3:0.207715 12:1 13:1 15:1 17:1 19:1 22:1 26:1 27:1 29:1 31:1 33:1 37:1 131:1 264:1 266:1 268:1 272:1 273:1 
1 1:1 3:0.0207715 12:1 13:1 16:1 17:1 20:1 21:0.707107 22:1 26:1 27:1 29:1 31:1 33:1 37:1 134:1 264:1 266:1 268:1 272:1 273:1 
1 1:1 3:0.0326409 12:1 13:1 15:1 17:1 19:1 22:1 26:1 27:1 29:1 31:1 33:1 37:1 134:1 264:1 266:1 268:1 272:1 273:1 
1 1:1 3:0.00890208 12:1 13:1 15:1 17:1 19:1 22:1 26:1 27:1 29:1 31:1 33:1 37:1 134:1 264:1 266:1 268:1 272:1 273:1 
1 1:1 3:0.207715 12:1 13:1 16:1 17:1 20:1 21:0.707107 22:1 26:1 27:1 29:1 31:1 33:1 36:1 116:1 264:1 266:1 268:1 272:1 273:1 
1 1:1 3:0.198813 12:1 13:1 16:1 17:1 20:1 21:0.707107 22:1 26:1 27:1 29:1 31:1 33:1 37:1 116:1 264:1 266:1 268:1 272:1 273:1 
1 1:1 3:0.186944 12:1 13:1 16:1 17:1 19:1 22:1 26:1 27:1 29:1 31:1 33:1 37:1 116:1 265:1 266:1 269:1 272:1 273:1 
1 1:1 3:0.0504451 4:1 14:1 16:1 18:1 20:1 21:1 23:1 25:1 27:1 29:1 31:1 33:1 37:1 103:1 264:1 266:1 268:1 272:1 273:1 
1 1:1 3:0.106825 12:1 13:1 16:1 17:1 20:1 21:0.707107 22:1 26:1 28:1 29:1 31:1 33:1 37:1 191:1 264:1 266:1 268:1 272:1 273:1 
1 1:1 3:0.103858 12:1 13:1 16:1 17:1 20:1 21:0.707107 22:1 26:1 28:1 29:1 31:1 33:1 37:1 191:1 264:1 266:1 268:1 272:1 273:1 
1 1:1 3:0.0118694 12:1 13:1 15:1 17:1 19:1 22:1 26:1 27:1 29:1 31:1 33:1 37:1 71:1 264:1 266:1 268:1 272:1 273:1 
1 2:1 3:0.00296736 12:1 13:1 16:1 17:1 20:1 21:1 23:1 26:1 28:1 29:1 31:1 33:1 37:1 199:1 265:1 266:1 269:1 272:1 273:1 
1 2:1 3:0.0148368 12:1 13:1 16:1 17:1 20:1 21:1 23:1 26:1 28:1 29:1 31:1 33:1 37:1 199:1 265:1 266:1 269:1 272:1 273:1 
1 2:1 3:0.00593472 12:1 13:1 16:1 17:1 20:1 21:1 23:1 26:1 28:1 30:1 31:1 33:1 37:1 189:1 265:1 266:1 269:1 272:1 273:1 
1 1:1 3:0.195846 6:1 13:1 15:1 17:1 19:1 22:1 26:1 27:1 29:1 31:1 33:1 37:1 137:1 264:1 266:1 268:1 272:1 273:1 
1 1:1 3:0.0474777 4:1 13:1 15:1 17:1 20:1 21:0.223607 22:1 26:1 27:1 29:1 31:1 33:1 37:1 132:1 264:1 266:1 268:1 272:1 273:1 
1 1:1 3:0.163205 12:1 13:1 16:1 17:1 20:1 21:1 23:1 26:1 27:1 29:1 31:1 33:1 37:1 131:1 265:1 266:1 269:1 272:1 273:1 
1 1:1 3:0.148368 6:1 13:1 15:1 17:1 20:1 21:0.447214 22:1 25:1 27:1 29:1 31:1 33:1 37:1 92:1 264:1 266:1 268:1 272:1 273:1 
1 2:1 3:0.041543 12:1 13:1 16:1 17:1 20:1 21:0.707107 23:1 26:1 28:1 29:1 31:1 33:1 37:1 229:1 265:1 267:1 269:1 272:1 273:1 
1 1:1 3:0.127596 5:1 13:1 15:1 17:1 19:1 22:1 26:1 27:1 29:1 31:1 33:1 37:1 227:1 264:1 266:1 268:1 272:1 273:1 
1 1:1 12:1 13:1 15:1 17:1 19:1 22:1 26:1 27:1 29:1 31:1 33:1 37:1 167:1 264:1 266:1 268:1 272:1 273:1 
1 1:1 3:0.0178042 12:1 13:1 16:1 17:1 20:1 21:1 23:1 26:1 27:1 29:1 31:1 33:1 37:1 167:1 265:1 266:1 269:1 272:1 273:1 
1 2:1 3:0.0771513 11:1 13:1 16:1 17:1 20:1 21:0.707107 23:1 26:1 27:1 29:1 31:1 33:1 37:1 210:1 265:1 266:1 269:1 272:1 273:1 
1 2:1 3:0.243323 12:1 13:1 16:1 17:1 20:1 21:1 23:1 26:1 27:1 29:1 31:1 33:1 37:1 214:1 265:1 266:1 269:1 272:1 273:1 
1 1:1 3:0.216617 12:1 13:1 15:1 17:1 19:1 22:1 26:1 27:1 29:1 31:1 33:1 37:1 204:1 264:1 267:1 268:1 272:1 273:1 
1 2:1 3:0.204748 12:1 13:1 16:1 17:1 20:1 21:1 23:1 26:1 27:1 29:1 31:1 33:1 37:1 205:1 265:1 266:1 269:1 272:1 273:1 
1 1:1 3:0.189911 12:1 13:1 15:1 17:1 19:1 22:1 26:1 27:1 29:1 31:1 33:1 37:1 210:1 264:1 267:1 268:1 272:1 273:1 
1 1:1 3:0.0890208 12:1 13:1 15:1 17:1 19:1 22:1 26:1 27:1 29:1 31:1 33:1 37:1 210:1 264:1 267:1 268:1 272:1 273:1 
1 1:1 3:0.0860534 12:1 13:1 16:1 17:1 19:1 22:1 26:1 27:1 29:1 31:1 33:1 37:1 210:1 264:1 267:1 269:1 272:1 273:1 
1 1:1 3:0.264095 12:1 13:1 16:1 17:1 20:1 21:0.707107 22:1 26:1 27:1 29:1 31:1 33:1 37:1 139:1 264:1 266:1 268:1 272:1 273:1 
1 1:1 3:0.246291 12:1 13:1 16:1 17:1 20:1 21:0.5 22:1 26:1 27:1 29:1 31:1 33:1 37:1 139:1 264:1 266:1 268:1 272:1 273:1 
1 2:1 3:0.219585 9:1 13:1 15:1 17:1 19:1 22:1 26:1 27:1 29:1 31:1 33:1 37:1 139:1 265:1 266:1 269:1 272:1 273:1 
1 1:1 3:0.210682 9:1 14:1 15:1 17:1 20:1 21:0.353553 22:1 26:1 27:1 29:1 31:1 33:1 37:1 139:1 264:1 266:1 268:1 272:1 273:1 
1 2:1 3:0.192878 9:1 13:1 15:1 17:1 19:1 22:1 26:1 27:1 29:1 31:1 33:1 37:1 139:1 265:1 266:1 269:1 272:1 273:1 
1 1:1 3:0.15727 12:1 13:1 16:1 17:1 19:1 22:1 26:1 27:1 29:1 31:1 33:1 37:1 139:1 264:1 267:1 269:1 272:1 273:1 
1 1:1 3:0.130564 12:1 13:1 15:1 17:1 19:1 22:1 26:1 27:1 29:1 31:1 33:1 37:1 129:1 264:1 266:1 268:1 272:1 273:1 
1 1:1 3:0.118694 12:1 13:1 16:1 17:1 19:1 22:1 26:1 27:1 29:1 31:1 33:1 37:1 130:1 264:1 267:1 269:1 272:1 273:1 
1 1:1 3:0.103858 12:1 13:1 15:1 17:1 19:1 22:1 26:1 27:1 29:1 31:1 33:1 35:1 135:1 264:1 266:1 268:1 272:1 273:1 
1 1:1 3:0.00296736 12:1 13:1 15:1 17:1 19:1 22:1 26:1 27:1 29:1 31:1 33:1 36:1 135:1 264:1 266:1 268:1 272:1 273:1 
1 1:1 3:0.154303 12:1 13:1 15:1 17:1 19:1 22:1 26:1 27:1 29:1 31:1 33:1 37:1 139:1 264:1 267:1 268:1 272:1 273:1 
1 1:1 3:0.115727 12:1 13:1 15:1 17:1 19:1 22:1 26:1 27:1 29:1 31:1 33:1 37:1 130:1 264:1 267:1 268:1 272:1 273:1 
1 2:1 3:0.106825 9:1 13:1 16:1 17:1 20:1 21:0.707107 23:1 26:1 27:1 29:1 31:1 33:1 37:1 129:1 265:1 266:1 269:1 272:1 273:1 
1 1:1 3:0.0534125 12:1 13:1 15:1 17:1 19:1 22:1 26:1 27:1 29:1 31:1 33:1 37:1 139:1 264:1 267:1 268:1 272:1 273:1 
1 1:1 3:0.0148368 12:1 13:1 15:1 17:1 19:1 22:1 26:1 27:1 29:1 31:1 33:1 37:1 130:1 264:1 267:1 268:1 272:1 273:1 
1 2:1 3:0.0385757 12:1 13:1 16:1 17:1 20:1 21:1 23:1 26:1 27:1 29:1 31:1 33:1 37:1 64:1 265:1 266:1 269:1 272:1 273:1 
1 1:1 3:0.0118694 12:1 13:1 15:1 17:1 19:1 22:1 26:1 27:1 29:1 31:1 33:1 37:1 54:1 264:1 267:1 268:1 272:1 273:1 
1 1:1 3:0.0267062 12:1 13:1 15:1 17:1 19:1 22:1 26:1 27:1 29:1 31:1 33:1 37:1 49:1 264:1 267:1 268:1 272:1 273:1 
1 1:1 3:0.0296736 12:1 14:1 16:1 17:1 20:1 21:0.707107 22:1 26:1 27:1 29:1 31:1 33:1 36:1 199:1 264:1 266:1 268:1 272:1 273:1 
1 2:1 3:0.0267062 12:1 14:1 16:1 17:1 20:1 21:1 23:1 26:1 27:1 29:1 31:1 33:1 36:1 199:1 265:1 266:1 269:1 272:1 273:1 
1 2:1 3:0.0267062 12:1 13:1 16:1 17:1 20:1 21:1 23:1 26:1 27:1 29:1 31:1 33:1 36:1 199:1 265:1 266:1 269:1 272:1 273:1 
1 1:1 3:0.0178042 12:1 13:1 16:1 17:1 20:1 21:0.5 22:1 26:1 27:1 29:1 31:1 33:1 37:1 199:1 264:1 266:1 268:1 272:1 273:1 
1 1:1 3:0.0326409 12:1 13:1 15:1 17:1 20:1 21:0.316228 22:1 26:1 27:1 29:1 31:1 33:1 37:1 199:1 264:1 266:1 268:1 272:1 273:1 
1 1:1 3:0.00890208 12:1 13:1 16:1 17:1 20:1 21:0.5 22:1 26:1 27:1 29:1 31:1 33:1 37:1 199:1 264:1 266:1 268:1 272:1 273:1 
1 1:1 3:0.0801187 4:1 14:1 15:1 17:1 20:1 21:0.866025 22:1 26:1 28:1 29:1 31:1 33:1 37:1 195:1 264:1 266:1 268:1 272:1 273:1 
1 2:1 3:0.106825 12:1 13:1 16:1 17:1 20:1 21:1 23:1 26:1 28:1 30:1 31:1 33:1 37:1 195:1 265:1 266:1 269:1 272:1 273:1 
1 2:1 3:0.106825 12:1 13:1 16:1 17:1 20:1 21:1 23:1 26:1 28:1 30:1 31:1 33:1 37:1 195:1 265:1 266:1 269:1 272:1 273:1 
1 2:1 3:0.109792 12:1 13:1 16:1 17:1 20:1 21:1 23:1 26:1 28:1 29:1 31:1 33:1 37:1 195:1 265:1 267:1 269:1 272:1 273:1 
1 1:1 3:0.222552 7:1 13:1 15:1 17:1 20:1 21:0.19245 22:1 26:1 27:1 29:1 31:1 33:1 37:1 56:1 264:1 266:1 268:1 272:1 273:1 
1 1:1 3:0.106825 9:1 13:1 15:1 17:1 20:1 21:0.235702 22:1 26:1 27:1 29:1 31:1 33:1 37:1 58:1 264:1 266:1 268:1 272:1 273:1 
1 1:1 12:1 13:1 15:1 17:1 19:1 22:1 26:1 27:1 29:1 31:1 33:1 37:1 135:1 264:1 266:1 268:1 272:1 273:1 
1 1:1 3:0.0118694 12:1 13:1 15:1 17:1 19:1 22:1 26:1 27:1 29:1 31:1 33:1 37:1 135:1 264:1 267:1 268:1 272:1 273:1 
1 1:1 3:0.115727 10:1 14:1 15:1 17:1 20:1 21:0.408248 22:1 26:1 27:1 29:1 31:1 33:1 37:1 101:1 264:1 266:1 268:1 272:1 273:1 
1 2:1 3:0.246291 12:1 13:1 16:1 17:1 20:1 21:1 23:1 26:1 27:1 29:1 31:1 33:1 37:1 199:1 265:1 266:1 269:1 272:1 273:1 
1 1:1 3:0.00593472 9:1 13:1 15:1 17:1 19:1 22:1 26:1 27:1 29:1 31:1 33:1 37:1 135:1 264:1 267:1 268:1 272:1 273:1 
1 1:1 3:0.189911 12:1 13:1 15:1 17:1 19:1 22:1 26:1 27:1 29:1 31:1 33:1 37:1 131:1 264:1 266:1 268:1 272:1 273:1 
1 1:1 3:0.041543 12:1 13:1 15:1 17:1 19:1 22:1 26:1 27:1 29:1 31:1 33:1 37:1 195:1 265:1 267:1 269:1 272:1 273:1 
1 1:1 3:0.216617 12:1 14:1 16:1 18:1 20:1 21:1 23:1 26:1 28:1 30:1 32:1 33:1 37:1 199:1 265:1 266:1 269:1 272:1 273:1 
1 1:1 3:0.21365 12:1 14:1 16:1 17:1 20:1 21:1 23:1 26:1 28:1 30:1 32:1 33:1 37:1 199:1 265:1 267:1 269:1 272:1 273:1 
1 2:1 3:0.210682 12:1 13:1 16:1 17:1 20:1 21:1 23:1 26:1 28:1 30:1 32:1 33:1 37:1 199:1 265:1 266:1 269:1 272:1 273:1 
1 2:1 3:0.204748 12:1 13:1 16:1 17:1 20:1 21:1 23:1 26:1 28:1 30:1 32:1 33:1 37:1 199:1 265:1 266:1 269:1 272:1 273:1 
1 2:1 3:0.20178 12:1 13:1 16:1 17:1 20:1 21:1 23:1 26:1 28:1 30:1 32:1 33:1 37:1 199:1 265:1 266:1 269:1 272:1 273:1 
1 1:1 3:0.198813 12:1 13:1 16:1 17:1 20:1 21:1 23:1 26:1 28:1 30:1 32:1 33:1 37:1 199:1 265:1 266:1 269:1 272:1 273:1 
1 1:1 3:0.0830861 10:1 13:1 15:1 17:1 19:1 22:1 26:1 27:1 29:1 31:1 33:1 37:1 131:1 264:1 266:1 268:1 272:1 273:1 
1 1:1 3:0.0356083 9:1 13:1 15:1 17:1 20:1 21:0.408248 22:1 26:1 27:1 29:1 31:1 33:1 37:1 129:1 264:1 266:1 268:1 272:1 273:1 
1 1:1 3:0.00890208 9:1 13:1 15:1 17:1 20:1 21:0.235702 22:1 26:1 27:1 29:1 31:1 33:1 37:1 131:1 264:1 266:1 268:1 272:1 273:1 
1 1:1 3:0.0267062 12:1 14:1 16:1 17:1 20:1 21:0.866025 22:1 26:1 27:1 29:1 31:1 33:1 37:1 69:1 264:1 266:1 268:1 272:1 273:1 
1 1:1 3:0.335312 12:1 13:1 16:1 17:1 20:1 21:0.707107 22:1 26:1 28:1 29:1 31:1 33:1 37:1 48:1 264:1 266:1 268:1 272:1 273:1 
1 1:1 3:0.106825 12:1 13:1 16:1 17:1 20:1 21:0.57735 22:1 26:1 27:1 29:1 31:1 34:1 37:1 45:1 264:1 266:1 268:1 272:1 273:1 
1 1:1 3:0.00296736 12:1 13:1 16:1 17:1 20:1 21:0.5 22:1 26:1 27:1 29:1 31:1 33:1 35:1 135:1 264:1 266:1 268:1 272:1 273:1 
1 1:1 3:0.00296736 12:1 13:1 16:1 17:1 20:1 21:0.707107 22:1 26:1 27:1 29:1 31:1 33:1 37:1 135:1 264:1 266:1 268:1 272:1 273:1 
1 1:1 3:0.228487 12:1 13:1 15:1 17:1 20:1 21:0.408248 22:1 26:1 27:1 29:1 31:1 33:1 37:1 138:1 264:1 266:1 268:1 272:1 273:1 
1 1:1 3:0.0682493 10:1 13:1 15:1 17:1 20:1 21:0.730297 22:1 25:1 27:1 29:1 31:1 33:1 37:1 56:1 264:1 266:1 268:1 272:1 273:1 
1 1:1 3:0.0682493 12:1 13:1 16:1 17:1 20:1 21:0.707107 22:1 26:1 27:1 29:1 31:1 33:1 37:1 56:1 264:1 266:1 268:1 271:1 273:1 
1 1:1 3:0.0682493 12:1 13:1 16:1 17:1 20:1 21:0.707107 22:1 26:1 27:1 29:1 31:1 33:1 37:1 56:1 264:1 267:1 268:1 271:1 273:1 
1 1:1 3:0.0237389 9:1 14:1 15:1 17:1 20:1 21:0.516398 22:1 26:1 27:1 29:1 31:1 33:1 37:1 71:1 264:1 266:1 268:1 272:1 273:1 
1 1:1 3:0.0949555 12:1 13:1 15:1 17:1 19:1 22:1 26:1 27:1 29:1 31:1 33:1 37:1 225:1 264:1 266:1 268:1 272:1 273:1 
1 1:1 3:0.0919881 11:1 13:1 15:1 17:1 19:1 22:1 26:1 27:1 29:1 31:1 34:1 37:1 225:1 264:1 266:1 268:1 272:1 273:1 
1 1:1 3:0.00296736 12:1 13:1 15:1 17:1 19:1 22:1 26:1 27:1 29:1 31:1 33:1 37:1 231:1 264:1 266:1 268:1 272:1 273:1 
1 1:1 3:0.0919881 12:1 13:1 15:1 17:1 20:1 21:0.408248 22:1 26:1 27:1 29:1 31:1 33:1 37:1 225:1 264:1 266:1 268:1 272:1 273:1 
1 1:1 3:0.0890208 11:1 13:1 15:1 17:1 20:1 21:0.333333 22:1 26:1 27:1 29:1 31:1 34:1 37:1 225:1 264:1 266:1 268:1 272:1 273:1 
1 2:1 3:0.0504451 12:1 13:1 16:1 17:1 20:1 21:1 23:1 26:1 27:1 29:1 31:1 33:1 37:1 135:1 265:1 266:1 269:1 272:1 273:1 
1 1:1 3:0.00296736 9:1 13:1 15:1 17:1 20:1 21:0.408248 22:1 26:1 28:1 29:1 31:1 33:1 37:1 135:1 264:1 266:1 268:1 272:1 273:1 
1 1:1 3:0.37092 12:1 14:1 15:1 17:1 20:1 21:0.816497 22:1 26:1 27:1 29:1 31:1 33:1 37:1 131:1 264:1 266:1 268:1 272:1 273:1 
1 1:1 3:0.148368 9:1 13:1 15:1 17:1 20:1 21:0.408248 22:1 26:1 27:1 29:1 31:1 33:1 37:1 147:1 264:1 266:1 268:1 272:1 273:1 
1 1:1 3:0.0474777 7:1 13:1 15:1 17:1 20:1 21:0.408248 22:1 26:1 27:1 29:1 31:1 33:1 37:1 150:1 264:1 267:1 268:1 272:1 273:1 
1 1:1 3:0.0118694 8:1 13:1 16:1 17:1 20:1 21:0.816497 22:1 26:1 27:1 29:1 31:1 33:1 37:1 151:1 264:1 267:1 268:1 272:1 273:1 
1 1:1 3:0.160237 12:1 14:1 15:1 17:1 20:1 21:0.5 22:1 26:1 27:1 29:1 31:1 33:1 37:1 147:1 264:1 266:1 268:1 272:1 273:1 
1 1:1 3:0.136499 12:1 13:1 15:1 17:1 19:1 22:1 26:1 27:1 29:1 31:1 33:1 37:1 147:1 264:1 266:1 268:1 272:1 273:1 
1 1:1 3:0.0623145 12:1 13:1 15:1 17:1 19:1 22:1 26:1 27:1 29:1 31:1 33:1 37:1 150:1 264:1 266:1 268:1 272:1 273:1 
1 1:1 3:0.0474777 12:1 13:1 15:1 17:1 19:1 22:1 26:1 27:1 29:1 31:1 33:1 37:1 150:1 264:1 266:1 268:1 272:1 273:1 
1 1:1 3:0.0356083 11:1 14:1 15:1 17:1 20:1 21:0.316228 22:1 26:1 27:1 29:1 31:1 33:1 37:1 150:1 264:1 266:1 268:1 272:1 273:1 
1 1:1 3:0.0296736 12:1 13:1 16:1 17:1 20:1 21:0.816497 22:1 26:1 27:1 29:1 31:1 33:1 37:1 150:1 264:1 266:1 268:1 272:1 273:1 
1 1:1 3:0.0178042 12:1 14:1 16:1 18:1 20:1 21:1 23:1 26:1 27:1 29:1 31:1 33:1 37:1 151:1 264:1 266:1 268:1 272:1 273:1 
1 1:1 3:0.136499 9:1 13:1 15:1 17:1 20:1 21:0.666667 22:1 26:1 27:1 29:1 31:1 33:1 37:1 147:1 264:1 266:1 268:1 272:1 273:1 
1 1:1 3:0.0356083 7:1 14:1 15:1 17:1 20:1 21:0.666667 23:1 26:1 27:1 29:1 31:1 33:1 37:1 150:1 265:1 266:1 269:1 272:1 273:1 
1 1:1 3:0.142433 12:1 14:1 15:1 17:1 20:1 21:0.5 22:1 26:1 27:1 29:1 31:1 33:1 37:1 147:1 264:1 266:1 268:1 272:1 273:1 
1 1:1 3:0.118694 12:1 13:1 15:1 17:1 19:1 22:1 26:1 27:1 29:1 31:1 33:1 37:1 147:1 264:1 266:1 268:1 272:1 273:1 
1 1:1 3:0.0445104 12:1 13:1 15:1 17:1 19:1 22:1 26:1 27:1 29:1 31:1 33:1 37:1 150:1 264:1 266:1 268:1 272:1 273:1 
1 1:1 3:0.0296736 12:1 13:1 15:1 17:1 19:1 22:1 26:1 27:1 29:1 31:1 33:1 37:1 150:1 264:1 266:1 268:1 272:1 273:1 
1 1:1 3:0.0178042 11:1 14:1 15:1 17:1 20:1 21:0.316228 22:1 26:1 27:1 29:1 31:1 33:1 37:1 150:1 264:1 266:1 268:1 272:1 273:1 
1 1:1 3:0.0118694 12:1 13:1 16:1 17:1 20:1 21:0.816497 22:1 26:1 27:1 29:1 31:1 33:1 37:1 150:1 264:1 266:1 268:1 272:1 273:1 
1 1:1 3:0.130564 12:1 13:1 15:1 17:1 20:1 21:0.408248 22:1 26:1 27:1 29:1 31:1 33:1 35:1 132:1 264:1 266:1 268:1 272:1 273:1 
1 1:1 3:0.106825 12:1 14:1 15:1 17:1 20:1 21:0.333333 22:1 26:1 27:1 29:1 31:1 33:1 35:1 132:1 264:1 266:1 268:1 272:1 273:1 
