svm_type c_svc
kernel_type rbf
gamma 0.00383142
nr_class 2
total_sv 7137
rho 0.00997521
label 0 1
probA -2.71022
probB -0.704496
nr_sv 3605 3532
SV
1 1:1 3:0.242236 12:1 13:1 15:1 17:1 20:1 21:0.5 22:1 26:1 120:1 253:1 255:1 257:1 260:1 
1 1:1 3:0.0496894 12:1 13:1 16:1 17:1 19:1 22:1 26:1 124:1 253:1 255:1 257:1 261:1 
1 1:1 3:0.142857 12:1 13:1 15:1 17:1 20:1 21:0.408248 22:1 25:1 121:1 253:1 255:1 257:1 261:1 
1 1:1 3:0.00931677 12:1 13:1 16:1 17:1 19:1 22:1 26:1 124:1 253:1 255:1 257:1 261:1 
1 1:1 3:0.192547 12:1 14:1 15:1 17:1 20:1 21:0.353553 22:1 26:1 120:1 253:1 255:1 257:1 261:1 
1 1:1 3:0.189441 12:1 13:1 16:1 17:1 19:1 22:1 26:1 120:1 253:1 255:1 257:1 261:1 
1 1:1 3:0.167702 12:1 13:1 16:1 17:1 19:1 22:1 26:1 120:1 253:1 255:1 257:1 261:1 
1 2:1 3:0.10559 12:1 13:1 16:1 17:1 20:1 21:1 23:1 26:1 75:1 254:1 255:1 258:1 261:1 
1 1:1 3:0.0993789 12:1 13:1 15:1 17:1 20:1 21:0.408248 22:1 26:1 75:1 253:1 255:1 257:1 261:1 
1 1:1 3:0.0962733 11:1 13:1 15:1 17:1 19:1 22:1 26:1 75:1 253:1 255:1 257:1 261:1 
1 1:1 10:1 13:1 15:1 17:1 19:1 22:1 26:1 60:1 253:1 255:1 257:1 261:1 
1 1:1 3:0.0993789 12:1 13:1 16:1 17:1 20:1 21:0.57735 22:1 26:1 128:1 253:1 255:1 257:1 261:1 
1 1:1 3:0.0714286 12:1 13:1 16:1 17:1 20:1 21:0.707107 22:1 26:1 91:1 253:1 255:1 257:1 261:1 
1 1:1 3:0.0962733 12:1 14:1 15:1 17:1 20:1 21:0.408248 22:1 26:1 90:1 253:1 255:1 257:1 261:1 
1 1:1 3:0.0931677 6:1 13:1 15:1 17:1 20:1 21:0.333333 22:1 26:1 90:1 253:1 255:1 257:1 261:1 
1 1:1 3:0.00310559 12:1 14:1 16:1 18:1 20:1 21:1 23:1 26:1 92:1 253:1 255:1 257:1 261:1 
1 1:1 3:0.0838509 8:1 13:1 15:1 17:1 20:1 21:0.5 22:1 25:1 88:1 253:1 255:1 257:1 261:1 
1 1:1 3:0.00310559 7:1 13:1 15:1 17:1 19:1 22:1 26:1 60:1 253:1 255:1 257:1 261:1 
1 1:1 3:0.419255 12:1 13:1 15:1 17:1 20:1 21:0.612372 22:1 26:1 210:1 253:1 255:1 257:1 260:1 
1 2:1 3:0.428571 12:1 13:1 16:1 17:1 20:1 21:0.5 23:1 26:1 210:1 254:1 256:1 258:1 261:1 
1 1:1 3:0.108696 12:1 13:1 16:1 17:1 20:1 21:0.707107 22:1 26:1 218:1 253:1 255:1 257:1 261:1 
1 1:1 3:0.0931677 12:1 13:1 16:1 17:1 20:1 21:0.707107 22:1 26:1 218:1 253:1 255:1 257:1 261:1 
1 1:1 3:0.00310559 12:1 14:1 15:1 17:1 20:1 21:0.5 22:1 26:1 220:1 253:1 255:1 257:1 261:1 
1 1:1 3:0.10559 12:1 13:1 16:1 17:1 20:1 21:0.707107 22:1 26:1 218:1 253:1 256:1 257:1 261:1 
1 1:1 3:0.0900621 12:1 13:1 16:1 17:1 20:1 21:0.707107 22:1 26:1 218:1 253:1 256:1 257:1 261:1 
1 2:1 3:0.102484 12:1 13:1 16:1 17:1 20:1 21:1 23:1 26:1 218:1 254:1 255:1 258:1 261:1 
1 2:1 3:0.015528 12:1 13:1 16:1 17:1 20:1 21:1 23:1 26:1 188:1 254:1 256:1 258:1 261:1 
1 1:1 3:0.267081 12:1 14:1 15:1 17:1 20:1 21:0.408248 22:1 26:1 120:1 253:1 255:1 257:1 259:1 
1 2:1 3:0.052795 12:1 13:1 16:1 17:1 20:1 21:1 23:1 26:1 92:1 254:1 255:1 258:1 261:1 
0.7811160208467547 1:1 6:1 13:1 15:1 17:1 19:1 22:1 26:1 60:1 253:1 256:1 257:1 261:1 
0.2421646638395774 1:1 6:1 13:1 15:1 17:1 19:1 22:1 26:1 60:1 253:1 255:1 257:1 261:1 
1 1:1 6:1 13:1 15:1 17:1 19:1 22:1 26:1 60:1 253:1 255:1 257:1 261:1 
1 1:1 3:0.015528 12:1 13:1 16:1 17:1 20:1 21:1 23:1 26:1 184:1 254:1 255:1 258:1 261:1 
1 1:1 3:0.189441 7:1 13:1 15:1 17:1 19:1 22:1 26:1 121:1 253:1 255:1 257:1 261:1 
1 1:1 3:0.00621118 12:1 13:1 16:1 17:1 20:1 21:0.707107 22:1 26:1 124:1 253:1 255:1 257:1 261:1 
1 1:1 3:0.186335 12:1 13:1 15:1 17:1 19:1 22:1 26:1 120:1 253:1 256:1 258:1 261:1 
1 1:1 3:0.0621118 12:1 13:1 15:1 17:1 19:1 22:1 26:1 124:1 253:1 256:1 258:1 261:1 
1 1:1 3:0.180124 7:1 13:1 15:1 17:1 19:1 22:1 26:1 120:1 253:1 255:1 257:1 261:1 
1 1:1 3:0.161491 7:1 13:1 15:1 17:1 19:1 22:1 26:1 121:1 253:1 255:1 257:1 261:1 
1 1:1 3:0.111801 12:1 13:1 16:1 17:1 20:1 21:0.707107 22:1 26:1 122:1 253:1 255:1 257:1 261:1 
1 1:1 3:0.0124224 9:1 14:1 15:1 17:1 20:1 21:0.235702 22:1 26:1 124:1 253:1 255:1 257:1 261:1 
1 1:1 3:0.0341615 12:1 13:1 15:1 17:1 20:1 21:0.5 22:1 26:1 124:1 253:1 255:1 257:1 259:1 
1 1:1 8:1 13:1 15:1 17:1 20:1 21:0.67082 22:1 26:1 124:1 253:1 255:1 257:1 259:1 
1 1:1 3:0.158385 7:1 13:1 15:1 17:1 19:1 22:1 26:1 120:1 253:1 255:1 257:1 261:1 
1 1:1 3:0.145963 7:1 13:1 15:1 17:1 19:1 22:1 26:1 120:1 253:1 255:1 257:1 261:1 
1 1:1 3:0.127329 7:1 13:1 15:1 17:1 19:1 22:1 26:1 121:1 253:1 255:1 257:1 261:1 
1 1:1 9:1 13:1 15:1 17:1 19:1 22:1 26:1 124:1 253:1 255:1 257:1 261:1 
0.4462257187485627 1:1 3:0.136646 11:1 13:1 15:1 17:1 19:1 22:1 26:1 120:1 253:1 255:1 257:1 261:1 
1 2:1 3:0.0745342 12:1 13:1 16:1 17:1 20:1 21:1 23:1 26:1 122:1 254:1 255:1 258:1 261:1 
1 1:1 3:0.121118 6:1 13:1 16:1 17:1 20:1 21:0.5 22:1 26:1 120:1 253:1 255:1 257:1 261:1 
1 2:1 3:0.124224 12:1 14:1 16:1 17:1 20:1 21:1 23:1 26:1 120:1 254:1 256:1 258:1 261:1 
1 1:1 3:0.111801 11:1 13:1 15:1 17:1 19:1 22:1 26:1 120:1 253:1 255:1 257:1 261:1 
1 1:1 3:0.102484 11:1 13:1 15:1 17:1 19:1 22:1 26:1 120:1 253:1 255:1 257:1 261:1 
1 1:1 3:0.0993789 12:1 13:1 16:1 17:1 20:1 21:0.5 22:1 26:1 90:1 253:1 255:1 257:1 261:1 
1 2:1 3:0.0124224 12:1 13:1 16:1 17:1 20:1 21:1 23:1 26:1 92:1 254:1 255:1 258:1 261:1 
1 2:1 3:0.00621118 12:1 13:1 16:1 17:1 20:1 21:1 23:1 26:1 92:1 254:1 255:1 258:1 261:1 
1 1:1 3:0.0931677 12:1 13:1 16:1 17:1 20:1 21:0.5 22:1 26:1 90:1 253:1 255:1 257:1 261:1 
1 2:1 3:0.00621118 12:1 13:1 16:1 17:1 20:1 21:1 23:1 26:1 92:1 254:1 255:1 258:1 261:1 
1 1:1 3:0.0869565 12:1 13:1 16:1 17:1 20:1 21:0.5 22:1 26:1 90:1 253:1 255:1 257:1 261:1 
1 1:1 3:0.0559006 11:1 13:1 15:1 17:1 19:1 22:1 26:1 90:1 253:1 255:1 257:1 261:1 
1 1:1 3:0.052795 12:1 13:1 15:1 17:1 19:1 22:1 26:1 90:1 253:1 255:1 257:1 261:1 
1 1:1 3:0.052795 12:1 13:1 15:1 17:1 19:1 22:1 26:1 90:1 253:1 255:1 257:1 261:1 
0.259685184646924 1:1 3:0.052795 10:1 13:1 15:1 17:1 19:1 22:1 26:1 90:1 253:1 255:1 257:1 261:1 
1 1:1 3:0.0496894 11:1 13:1 15:1 17:1 19:1 22:1 26:1 90:1 253:1 255:1 257:1 261:1 
1 1:1 3:0.00310559 7:1 13:1 15:1 17:1 19:1 22:1 26:1 60:1 253:1 255:1 257:1 261:1 
1 1:1 12:1 13:1 15:1 17:1 19:1 22:1 26:1 28:1 253:1 256:1 258:1 261:1 
1 1:1 3:0.102484 12:1 13:1 15:1 17:1 19:1 22:1 26:1 27:1 253:1 256:1 258:1 261:1 
1 1:1 3:0.00310559 12:1 13:1 15:1 17:1 19:1 22:1 26:1 28:1 253:1 256:1 258:1 261:1 
1 1:1 3:0.00931677 12:1 13:1 16:1 17:1 20:1 21:1 23:1 26:1 124:1 253:1 255:1 257:1 260:1 
1 1:1 3:0.068323 9:1 13:1 15:1 17:1 20:1 21:0.408248 22:1 26:1 122:1 253:1 255:1 257:1 261:1 
1 2:1 3:0.00621118 11:1 13:1 16:1 17:1 20:1 21:0.5 23:1 26:1 124:1 254:1 255:1 258:1 261:1 
1 1:1 3:0.173913 12:1 14:1 16:1 17:1 20:1 21:1 23:1 26:1 120:1 253:1 255:1 257:1 261:1 
1 1:1 3:0.0310559 12:1 14:1 16:1 17:1 20:1 21:1 23:1 26:1 124:1 253:1 255:1 257:1 261:1 
1 1:1 3:0.186335 12:1 13:1 15:1 17:1 19:1 22:1 26:1 120:1 253:1 255:1 257:1 260:1 
1 1:1 3:0.167702 12:1 13:1 15:1 17:1 19:1 22:1 26:1 120:1 253:1 255:1 257:1 260:1 
1 1:1 3:0.142857 12:1 13:1 15:1 17:1 20:1 21:0.408248 22:1 26:1 120:1 253:1 255:1 257:1 260:1 
1 1:1 3:0.142857 11:1 13:1 15:1 17:1 20:1 21:0.333333 22:1 26:1 120:1 253:1 255:1 257:1 260:1 
1 1:1 3:0.142857 12:1 14:1 16:1 17:1 20:1 21:1 23:1 26:1 120:1 253:1 255:1 257:1 261:1 
1 1:1 3:0.0962733 12:1 13:1 16:1 17:1 20:1 21:0.707107 22:1 26:1 91:1 254:1 255:1 258:1 261:1 
1 1:1 3:0.0403727 12:1 14:1 15:1 17:1 20:1 21:0.408248 22:1 26:1 92:1 253:1 255:1 257:1 260:1 
1 1:1 3:0.13354 12:1 14:1 15:1 17:1 20:1 21:0.353553 22:1 26:1 90:1 253:1 255:1 257:1 261:1 
1 1:1 9:1 13:1 15:1 17:1 19:1 22:1 26:1 60:1 253:1 255:1 257:1 261:1 
1 2:1 3:0.00621118 12:1 13:1 16:1 17:1 20:1 21:1 23:1 26:1 60:1 253:1 255:1 257:1 261:1 
0.7903641663870888 1:1 3:0.0124224 11:1 13:1 15:1 17:1 19:1 22:1 26:1 34:1 253:1 255:1 257:1 261:1 
1 1:1 3:0.0124224 11:1 13:1 15:1 17:1 19:1 22:1 26:1 34:1 253:1 255:1 257:1 261:1 
1 1:1 3:0.052795 10:1 13:1 15:1 17:1 19:1 22:1 26:1 30:1 253:1 255:1 257:1 261:1 
1 1:1 3:0.0124224 11:1 13:1 15:1 17:1 19:1 22:1 26:1 34:1 253:1 255:1 257:1 261:1 
1 1:1 3:0.0124224 11:1 13:1 15:1 17:1 19:1 22:1 26:1 34:1 253:1 255:1 257:1 261:1 
1 1:1 3:0.0124224 11:1 13:1 15:1 17:1 19:1 22:1 26:1 34:1 253:1 255:1 257:1 261:1 
1 1:1 3:0.0124224 11:1 13:1 15:1 17:1 19:1 22:1 26:1 34:1 253:1 255:1 257:1 261:1 
1 1:1 9:1 13:1 15:1 17:1 19:1 22:1 26:1 124:1 253:1 255:1 257:1 261:1 
1 1:1 9:1 13:1 15:1 17:1 19:1 22:1 26:1 124:1 253:1 255:1 257:1 261:1 
1 1:1 3:0.0186335 9:1 13:1 15:1 17:1 19:1 22:1 26:1 90:1 253:1 255:1 257:1 261:1 
1 1:1 3:0.15528 11:1 13:1 15:1 17:1 20:1 21:0.288675 22:1 26:1 34:1 253:1 255:1 257:1 261:1 
1 1:1 3:0.18323 12:1 13:1 16:1 17:1 20:1 21:0.707107 22:1 26:1 182:1 253:1 256:1 258:1 261:1 
1 1:1 3:0.0186335 11:1 13:1 16:1 17:1 20:1 21:0.5 22:1 26:1 124:1 253:1 255:1 257:1 261:1 
1 1:1 3:0.0807453 4:1 13:1 15:1 17:1 20:1 21:0.5 22:1 26:1 122:1 253:1 255:1 257:1 261:1 
1 1:1 3:0.189441 12:1 13:1 16:1 17:1 19:1 22:1 26:1 122:1 253:1 255:1 257:1 261:1 
1 1:1 3:0.236025 12:1 13:1 16:1 17:1 19:1 22:1 26:1 121:1 253:1 255:1 257:1 261:1 
1 1:1 3:0.295031 9:1 13:1 15:1 17:1 20:1 21:0.353553 22:1 26:1 127:1 253:1 255:1 257:1 261:1 
1 1:1 3:0.0279503 9:1 13:1 15:1 17:1 20:1 21:0.5 22:1 26:1 124:1 253:1 255:1 257:1 261:1 
1 1:1 9:1 13:1 15:1 17:1 19:1 22:1 26:1 124:1 253:1 255:1 257:1 261:1 
1 1:1 3:0.236025 12:1 13:1 16:1 17:1 19:1 22:1 26:1 121:1 253:1 255:1 257:1 261:1 
1 1:1 3:0.0372671 12:1 13:1 16:1 17:1 19:1 22:1 26:1 124:1 253:1 255:1 257:1 261:1 
1 1:1 3:0.0590062 12:1 13:1 16:1 17:1 20:1 21:0.707107 22:1 26:1 122:1 253:1 256:1 258:1 261:1 
1 1:1 3:0.052795 12:1 13:1 16:1 17:1 20:1 21:0.57735 22:1 26:1 122:1 253:1 255:1 257:1 261:1 
1 1:1 3:0.267081 12:1 13:1 15:1 17:1 20:1 21:0.353553 22:1 26:1 127:1 253:1 255:1 257:1 261:1 
1 1:1 3:0.0186335 8:1 13:1 15:1 17:1 20:1 21:0.188982 22:1 25:1 122:1 253:1 255:1 257:1 260:1 
0.2134759971974195 1:1 3:0.0124224 7:1 13:1 15:1 17:1 19:1 22:1 26:1 122:1 253:1 255:1 257:1 261:1 
1 1:1 3:0.00310559 9:1 13:1 15:1 17:1 20:1 21:0.288675 22:1 25:1 124:1 253:1 255:1 257:1 260:1 
1 1:1 9:1 13:1 15:1 17:1 19:1 22:1 26:1 124:1 253:1 255:1 257:1 261:1 
0.8585550769843886 1:1 3:0.0124224 10:1 13:1 15:1 17:1 19:1 22:1 26:1 122:1 253:1 255:1 257:1 261:1 
1 1:1 3:0.015528 11:1 13:1 15:1 17:1 20:1 21:0.218218 22:1 25:1 122:1 253:1 255:1 257:1 260:1 
1 1:1 3:0.0124224 11:1 13:1 15:1 17:1 19:1 22:1 26:1 122:1 253:1 255:1 257:1 261:1 
1 1:1 3:0.0124224 11:1 13:1 15:1 17:1 19:1 22:1 26:1 122:1 253:1 255:1 257:1 261:1 
1 1:1 3:0.0124224 11:1 13:1 15:1 17:1 19:1 22:1 26:1 122:1 253:1 255:1 257:1 261:1 
1 1:1 3:0.00310559 8:1 14:1 15:1 17:1 20:1 21:0.46291 22:1 26:1 92:1 253:1 255:1 257:1 259:1 
1 1:1 3:0.21118 4:1 13:1 15:1 17:1 20:1 21:0.5 22:1 26:1 90:1 253:1 255:1 257:1 261:1 
1 1:1 3:0.161491 9:1 13:1 16:1 17:1 19:1 22:1 26:1 91:1 253:1 255:1 257:1 261:1 
1 1:1 3:0.10559 9:1 13:1 16:1 17:1 19:1 22:1 26:1 92:1 253:1 255:1 257:1 261:1 
1 1:1 3:0.0652174 12:1 13:1 15:1 17:1 20:1 21:0.353553 22:1 26:1 34:1 253:1 255:1 257:1 260:1 
1 1:1 3:0.0962733 10:1 13:1 16:1 17:1 20:1 21:0.534522 22:1 26:1 128:1 253:1 255:1 257:1 261:1 
1 1:1 3:0.10559 10:1 13:1 15:1 17:1 20:1 21:0.288675 22:1 26:1 128:1 253:1 255:1 257:1 260:1 
1 1:1 3:0.627329 12:1 14:1 15:1 17:1 20:1 21:0.408248 22:1 26:1 127:1 253:1 255:1 257:1 259:1 
1 1:1 3:0.565217 6:1 13:1 15:1 17:1 19:1 22:1 26:1 121:1 253:1 255:1 257:1 261:1 
1 1:1 3:0.565217 6:1 13:1 15:1 17:1 19:1 22:1 26:1 121:1 253:1 255:1 257:1 261:1 
1 1:1 3:0.562112 6:1 13:1 15:1 17:1 19:1 22:1 26:1 121:1 253:1 255:1 257:1 261:1 
1 1:1 3:0.559006 6:1 13:1 15:1 17:1 19:1 22:1 26:1 121:1 253:1 255:1 257:1 261:1 
1 1:1 3:0.555901 6:1 13:1 15:1 17:1 19:1 22:1 26:1 121:1 253:1 255:1 257:1 261:1 
1 1:1 3:0.0496894 11:1 14:1 15:1 17:1 20:1 21:0.223607 22:1 26:1 128:1 253:1 255:1 257:1 261:1 
1 1:1 3:0.599379 9:1 13:1 15:1 17:1 20:1 21:0.288675 22:1 26:1 127:1 253:1 255:1 257:1 259:1 
1 1:1 3:0.543478 5:1 13:1 15:1 17:1 20:1 21:0.507093 22:1 26:1 120:1 253:1 255:1 257:1 259:1 
1 1:1 3:0.450311 6:1 13:1 15:1 17:1 20:1 21:0.447214 22:1 26:1 122:1 253:1 255:1 257:1 259:1 
1 1:1 3:0.0372671 4:1 14:1 15:1 17:1 20:1 21:0.338062 22:1 26:1 128:1 253:1 255:1 257:1 259:1 
1 1:1 3:0.0186335 6:1 14:1 15:1 17:1 20:1 21:0.223607 22:1 26:1 128:1 253:1 255:1 257:1 259:1 
1 1:1 3:0.068323 11:1 14:1 15:1 17:1 20:1 21:0.436436 22:1 26:1 188:1 253:1 255:1 257:1 261:1 
1 1:1 3:0.068323 12:1 14:1 16:1 18:1 20:1 21:1 23:1 26:1 188:1 253:1 255:1 257:1 260:1 
1 1:1 3:0.186335 6:1 13:1 15:1 17:1 19:1 22:1 26:1 178:1 253:1 255:1 257:1 261:1 
1 1:1 3:0.406832 12:1 14:1 15:1 17:1 20:1 21:0.408248 22:1 26:1 182:1 253:1 255:1 257:1 261:1 
1 1:1 3:0.00931677 4:1 14:1 15:1 17:1 20:1 21:0.92582 23:1 26:1 188:1 253:1 255:1 257:1 261:1 
1 1:1 3:0.00621118 4:1 14:1 15:1 17:1 20:1 21:0.771517 23:1 26:1 188:1 253:1 255:1 257:1 261:1 
1 2:1 3:0.413043 12:1 13:1 16:1 17:1 20:1 21:1 23:1 26:1 181:1 254:1 255:1 258:1 261:1 
1 1:1 3:0.0279503 12:1 14:1 15:1 17:1 20:1 21:0.316228 22:1 26:1 32:1 253:1 255:1 257:1 261:1 
1 1:1 3:0.0217391 12:1 14:1 15:1 17:1 20:1 21:0.316228 22:1 26:1 32:1 253:1 255:1 257:1 261:1 
1 1:1 3:0.167702 12:1 14:1 15:1 17:1 20:1 21:0.5 22:1 26:1 91:1 253:1 255:1 257:1 261:1 
1 1:1 3:0.00621118 12:1 14:1 15:1 17:1 20:1 21:0.5 22:1 26:1 92:1 253:1 255:1 257:1 261:1 
1 1:1 3:0.00621118 12:1 13:1 16:1 18:1 20:1 21:1 23:1 26:1 92:1 253:1 255:1 257:1 261:1 
1 1:1 3:0.0900621 12:1 13:1 15:1 17:1 20:1 21:0.707107 22:1 26:1 90:1 253:1 255:1 257:1 259:1 
1 1:1 3:0.0372671 12:1 13:1 16:1 17:1 20:1 21:0.57735 22:1 26:1 75:1 253:1 255:1 257:1 261:1 
1 1:1 3:0.00310559 11:1 13:1 15:1 17:1 20:1 21:0.534522 22:1 26:1 60:1 253:1 255:1 257:1 259:1 
1 1:1 9:1 13:1 15:1 17:1 19:1 22:1 26:1 60:1 253:1 255:1 257:1 261:1 
1 1:1 9:1 13:1 15:1 17:1 19:1 22:1 26:1 60:1 253:1 255:1 257:1 261:1 
1 1:1 9:1 13:1 15:1 17:1 19:1 22:1 26:1 60:1 253:1 255:1 257:1 261:1 
1 1:1 9:1 13:1 15:1 17:1 19:1 22:1 26:1 60:1 253:1 255:1 257:1 261:1 
1 1:1 3:0.0962733 8:1 13:1 15:1 17:1 20:1 21:0.5 22:1 26:1 198:1 253:1 255:1 257:1 261:1 
1 1:1 3:0.0590062 8:1 13:1 15:1 17:1 20:1 21:0.5 22:1 26:1 198:1 253:1 255:1 257:1 261:1 
1 1:1 3:0.192547 9:1 13:1 16:1 17:1 20:1 21:0.57735 22:1 26:1 197:1 253:1 255:1 257:1 261:1 
1 1:1 3:0.0341615 9:1 14:1 15:1 17:1 20:1 21:0.258199 22:1 26:1 198:1 253:1 255:1 257:1 261:1 
1 1:1 3:0.0341615 8:1 14:1 15:1 17:1 20:1 21:0.436436 22:1 26:1 198:1 253:1 255:1 257:1 261:1 
1 1:1 3:0.198758 12:1 13:1 15:1 17:1 20:1 21:0.5 22:1 26:1 197:1 253:1 255:1 257:1 261:1 
1 2:1 3:0.248447 7:1 14:1 15:1 17:1 20:1 21:0.267261 23:1 26:1 136:1 254:1 255:1 258:1 261:1 
1 1:1 3:0.142857 12:1 13:1 15:1 17:1 19:1 22:1 26:1 108:1 253:1 256:1 257:1 260:1 
1 1:1 3:0.385093 9:1 13:1 15:1 17:1 19:1 22:1 26:1 103:1 253:1 255:1 257:1 261:1 
1 1:1 3:0.385093 9:1 13:1 15:1 17:1 19:1 22:1 26:1 103:1 253:1 255:1 257:1 261:1 
1 1:1 3:0.385093 9:1 13:1 15:1 17:1 19:1 22:1 26:1 103:1 253:1 255:1 257:1 261:1 
0.2327508512647818 1:1 3:0.385093 9:1 13:1 15:1 17:1 19:1 22:1 26:1 103:1 253:1 255:1 257:1 261:1 
1 1:1 3:0.295031 9:1 13:1 16:1 17:1 20:1 21:0.707107 23:1 26:1 105:1 254:1 255:1 258:1 261:1 
1 1:1 3:0.13354 9:1 13:1 15:1 17:1 19:1 22:1 26:1 108:1 253:1 256:1 257:1 260:1 
1 1:1 3:0.158385 9:1 13:1 16:1 17:1 20:1 21:0.377964 22:1 26:1 107:1 253:1 255:1 257:1 261:1 
1 1:1 9:1 14:1 15:1 17:1 20:1 21:0.338062 22:1 26:1 108:1 253:1 255:1 257:1 259:1 
1 1:1 3:0.158385 12:1 13:1 16:1 17:1 20:1 21:0.447214 22:1 26:1 107:1 253:1 255:1 257:1 261:1 
1 1:1 3:0.295031 8:1 13:1 15:1 17:1 20:1 21:0.5 22:1 26:1 105:1 253:1 255:1 257:1 261:1 
1 1:1 3:0.291925 10:1 13:1 16:1 17:1 19:1 22:1 26:1 105:1 253:1 255:1 257:1 261:1 
1 1:1 3:0.229814 12:1 13:1 16:1 17:1 19:1 22:1 26:1 105:1 253:1 255:1 257:1 261:1 
1 1:1 3:0.214286 12:1 13:1 16:1 17:1 19:1 22:1 26:1 106:1 253:1 255:1 257:1 261:1 
1 1:1 3:0.21118 12:1 13:1 16:1 17:1 19:1 22:1 26:1 106:1 253:1 255:1 257:1 261:1 
1 1:1 3:0.00310559 10:1 13:1 16:1 17:1 19:1 22:1 26:1 108:1 253:1 255:1 257:1 261:1 
1 1:1 3:0.257764 8:1 13:1 15:1 17:1 20:1 21:0.5 22:1 26:1 105:1 253:1 255:1 257:1 261:1 
1 2:1 3:0.068323 12:1 13:1 16:1 17:1 20:1 21:1 23:1 26:1 108:1 254:1 255:1 258:1 261:1 
0.07882586059763781 1:1 3:0.248447 9:1 13:1 15:1 17:1 19:1 22:1 26:1 103:1 253:1 255:1 257:1 261:1 
1 1:1 3:0.13354 12:1 13:1 15:1 17:1 19:1 22:1 26:1 105:1 253:1 256:1 258:1 261:1 
1 1:1 12:1 13:1 15:1 17:1 19:1 22:1 26:1 108:1 253:1 256:1 258:1 261:1 
1 1:1 3:0.245342 12:1 13:1 15:1 17:1 19:1 22:1 26:1 103:1 253:1 256:1 258:1 261:1 
1 1:1 3:0.13354 12:1 13:1 15:1 17:1 19:1 22:1 26:1 105:1 253:1 256:1 258:1 261:1 
1 2:1 3:0.177019 12:1 13:1 16:1 17:1 20:1 21:1 23:1 26:1 105:1 254:1 255:1 258:1 261:1 
1 2:1 3:0.139752 12:1 13:1 16:1 17:1 20:1 21:1 23:1 26:1 105:1 254:1 255:1 258:1 261:1 
1 2:1 3:0.124224 12:1 13:1 16:1 17:1 20:1 21:1 23:1 26:1 106:1 254:1 255:1 258:1 261:1 
1 1:1 3:0.114907 7:1 13:1 15:1 17:1 20:1 21:0.333333 22:1 26:1 90:1 253:1 255:1 257:1 259:1 
1 1:1 3:0.0900621 12:1 13:1 15:1 17:1 20:1 21:0.408248 22:1 26:1 90:1 253:1 255:1 257:1 261:1 
1 1:1 3:0.0900621 12:1 13:1 15:1 18:1 20:1 21:0.5 22:1 26:1 90:1 253:1 255:1 257:1 261:1 
1 1:1 3:0.0372671 4:1 13:1 15:1 17:1 20:1 21:0.5 22:1 26:1 75:1 253:1 255:1 257:1 261:1 
1 2:1 3:0.052795 12:1 13:1 16:1 17:1 20:1 21:1 23:1 26:1 75:1 254:1 255:1 258:1 261:1 
1 2:1 3:0.015528 12:1 13:1 16:1 17:1 20:1 21:1 23:1 26:1 75:1 254:1 255:1 258:1 261:1 
1 1:1 3:0.0372671 12:1 13:1 15:1 17:1 20:1 21:0.408248 22:1 26:1 75:1 253:1 256:1 257:1 261:1 
1 1:1 12:1 13:1 15:1 17:1 19:1 22:1 26:1 60:1 253:1 256:1 258:1 261:1 
1 1:1 3:0.111801 12:1 13:1 15:1 17:1 19:1 22:1 26:1 58:1 253:1 256:1 258:1 261:1 
1 2:1 3:0.0403727 12:1 13:1 16:1 17:1 20:1 21:1 23:1 26:1 60:1 254:1 255:1 258:1 261:1 
1 2:1 3:0.00310559 12:1 13:1 16:1 17:1 20:1 21:1 23:1 26:1 60:1 254:1 255:1 258:1 261:1 
1 1:1 3:0.00621118 7:1 13:1 15:1 17:1 20:1 21:0.365148 22:1 26:1 60:1 253:1 255:1 257:1 259:1 
1 2:1 3:0.0372671 12:1 13:1 16:1 17:1 20:1 21:1 23:1 26:1 60:1 254:1 255:1 258:1 261:1 
1 1:1 3:0.0217391 12:1 14:1 15:1 17:1 20:1 21:0.5 22:1 26:1 60:1 253:1 255:1 257:1 261:1 
1 1:1 12:1 13:1 15:1 17:1 20:1 21:0.408248 22:1 26:1 60:1 253:1 255:1 257:1 261:1 
1 1:1 3:0.0248447 12:1 13:1 16:1 17:1 20:1 21:1 23:1 26:1 60:1 254:1 255:1 258:1 260:1 
1 1:1 3:0.0248447 12:1 13:1 16:1 17:1 20:1 21:1 23:1 26:1 60:1 254:1 255:1 258:1 261:1 
1 1:1 3:0.052795 11:1 14:1 15:1 17:1 20:1 21:0.235702 22:1 26:1 60:1 253:1 255:1 257:1 261:1 
1 1:1 3:0.0217391 11:1 13:1 15:1 17:1 20:1 21:0.5 22:1 26:1 60:1 253:1 255:1 257:1 261:1 
1 1:1 3:0.015528 7:1 13:1 15:1 17:1 19:1 22:1 26:1 60:1 253:1 255:1 258:1 261:1 
1 1:1 9:1 13:1 15:1 17:1 19:1 22:1 26:1 60:1 253:1 255:1 257:1 261:1 
1 1:1 10:1 13:1 15:1 17:1 19:1 22:1 26:1 60:1 253:1 255:1 257:1 261:1 
0.5098256347682898 1:1 3:0.232919 6:1 13:1 15:1 17:1 19:1 22:1 26:1 30:1 253:1 255:1 257:1 261:1 
1 1:1 3:0.226708 6:1 13:1 15:1 17:1 19:1 22:1 26:1 30:1 253:1 255:1 257:1 261:1 
1 1:1 3:0.223602 6:1 13:1 15:1 17:1 19:1 22:1 26:1 30:1 253:1 255:1 257:1 261:1 
1 1:1 3:0.108696 4:1 13:1 15:1 17:1 20:1 21:0.5 22:1 26:1 34:1 253:1 255:1 257:1 261:1 
1 1:1 3:0.108696 6:1 13:1 15:1 17:1 19:1 22:1 26:1 34:1 253:1 255:1 257:1 261:1 
1 1:1 3:0.108696 6:1 13:1 15:1 17:1 19:1 22:1 26:1 34:1 253:1 255:1 257:1 261:1 
1 1:1 3:0.0776398 5:1 13:1 15:1 17:1 19:1 22:1 26:1 34:1 253:1 255:1 257:1 261:1 
0.07650536454412582 1:1 3:0.0776398 4:1 13:1 15:1 17:1 20:1 21:0.408248 22:1 26:1 34:1 253:1 255:1 257:1 261:1 
1 1:1 3:0.0714286 6:1 13:1 15:1 17:1 19:1 22:1 26:1 34:1 253:1 256:1 257:1 261:1 
1 1:1 3:0.052795 6:1 13:1 15:1 17:1 19:1 22:1 26:1 34:1 253:1 255:1 257:1 261:1 
1 1:1 3:0.0496894 6:1 13:1 15:1 17:1 19:1 22:1 26:1 34:1 253:1 255:1 257:1 261:1 
1 1:1 3:0.00931677 10:1 13:1 15:1 17:1 19:1 22:1 26:1 124:1 253:1 256:1 257:1 261:1 
1 1:1 5:1 13:1 15:1 17:1 19:1 22:1 26:1 124:1 253:1 255:1 257:1 261:1 
1 1:1 3:0.00310559 7:1 13:1 15:1 17:1 19:1 22:1 26:1 124:1 253:1 255:1 257:1 261:1 
1 1:1 3:0.0279503 4:1 13:1 15:1 17:1 20:1 21:0.5 22:1 26:1 124:1 253:1 255:1 257:1 261:1 
1 1:1 3:0.0621118 12:1 14:1 16:1 17:1 20:1 21:0.707107 22:1 26:1 128:1 253:1 255:1 257:1 260:1 
1 1:1 3:0.00621118 12:1 13:1 15:1 17:1 19:1 22:1 26:1 67:1 253:1 255:1 257:1 261:1 
1 1:1 3:0.139752 12:1 13:1 16:1 17:1 20:1 21:0.707107 22:1 26:1 128:1 253:1 255:1 257:1 261:1 
1 1:1 3:0.26087 12:1 13:1 16:1 17:1 20:1 21:0.707107 22:1 26:1 120:1 253:1 255:1 258:1 261:1 
1 1:1 3:0.0124224 11:1 13:1 16:1 17:1 20:1 21:0.5 22:1 26:1 124:1 253:1 255:1 257:1 261:1 
1 1:1 3:0.248447 9:1 14:1 15:1 17:1 20:1 21:0.353553 22:1 26:1 120:1 253:1 255:1 257:1 261:1 
1 1:1 3:0.0124224 12:1 13:1 16:1 17:1 20:1 21:0.707107 22:1 26:1 124:1 253:1 255:1 257:1 261:1 
1 1:1 3:0.15528 11:1 13:1 15:1 17:1 19:1 22:1 26:1 120:1 253:1 256:1 257:1 261:1 
0.5657355383630758 1:1 3:0.152174 6:1 13:1 15:1 17:1 19:1 22:1 26:1 120:1 253:1 256:1 257:1 261:1 
0.4854461576027963 1:1 3:0.142857 9:1 13:1 15:1 17:1 19:1 22:1 26:1 105:1 253:1 255:1 257:1 261:1 
0.233884095739704 1:1 3:0.0341615 8:1 13:1 15:1 17:1 20:1 21:0.5 22:1 26:1 150:1 253:1 255:1 257:1 261:1 
1 1:1 9:1 13:1 15:1 17:1 19:1 22:1 26:1 156:1 253:1 255:1 257:1 261:1 
1 1:1 3:0.0248447 12:1 13:1 16:1 17:1 20:1 21:0.707107 22:1 26:1 34:1 253:1 255:1 257:1 261:1 
1 1:1 3:0.0900621 10:1 13:1 15:1 17:1 19:1 22:1 26:1 30:1 253:1 255:1 257:1 261:1 
1 1:1 3:0.00310559 12:1 13:1 15:1 17:1 20:1 21:0.5 22:1 26:1 124:1 253:1 255:1 257:1 261:1 
1 1:1 3:0.0124224 6:1 14:1 15:1 17:1 20:1 21:0.353553 22:1 26:1 60:1 253:1 255:1 257:1 261:1 
1 1:1 9:1 13:1 15:1 17:1 19:1 22:1 26:1 60:1 253:1 255:1 257:1 261:1 
1 1:1 3:0.114907 12:1 13:1 15:1 17:1 20:1 21:0.408248 22:1 26:1 34:1 253:1 255:1 257:1 261:1 
0.8991979441670748 1:1 3:0.121118 11:1 13:1 15:1 17:1 20:1 21:0.267261 22:1 25:1 120:1 253:1 255:1 257:1 261:1 
1 1:1 3:0.0372671 11:1 13:1 15:1 17:1 19:1 22:1 26:1 34:1 253:1 256:1 257:1 261:1 
1 1:1 3:0.00621118 12:1 14:1 15:1 17:1 20:1 21:0.235702 22:1 26:1 28:1 253:1 255:1 257:1 259:1 
1 1:1 3:0.0465839 12:1 14:1 15:1 17:1 20:1 21:0.67082 22:1 26:1 34:1 253:1 255:1 257:1 259:1 
1 1:1 3:0.0434783 11:1 14:1 15:1 17:1 20:1 21:0.474342 22:1 26:1 34:1 253:1 255:1 257:1 259:1 
1 1:1 3:0.0900621 12:1 13:1 15:1 17:1 20:1 21:0.612372 22:1 26:1 34:1 253:1 255:1 257:1 261:1 
1 1:1 3:0.0279503 11:1 13:1 15:1 17:1 19:1 22:1 26:1 34:1 253:1 255:1 257:1 260:1 
1 1:1 3:0.13354 9:1 14:1 15:1 17:1 20:1 21:0.666667 22:1 26:1 128:1 253:1 256:1 258:1 259:1 
1 1:1 3:0.00310559 9:1 14:1 15:1 17:1 20:1 21:0.565685 22:1 24:1 124:1 253:1 255:1 257:1 259:1 
1 1:1 7:1 13:1 15:1 17:1 19:1 22:1 26:1 124:1 253:1 255:1 257:1 261:1 
1 1:1 3:0.13354 12:1 14:1 15:1 17:1 20:1 21:0.408248 22:1 26:1 240:1 253:1 255:1 257:1 261:1 
1 1:1 3:0.0559006 12:1 13:1 15:1 17:1 20:1 21:0.5 22:1 26:1 242:1 253:1 255:1 257:1 261:1 
1 1:1 3:0.00310559 12:1 14:1 15:1 17:1 20:1 21:0.408248 22:1 26:1 60:1 253:1 256:1 257:1 259:1 
1 1:1 3:0.0124224 11:1 13:1 15:1 17:1 19:1 22:1 26:1 34:1 253:1 255:1 257:1 261:1 
1 1:1 3:0.00621118 12:1 13:1 15:1 17:1 19:1 22:1 26:1 34:1 253:1 255:1 257:1 261:1 
1 1:1 3:0.00621118 12:1 13:1 15:1 17:1 19:1 22:1 26:1 34:1 253:1 255:1 257:1 261:1 
1 1:1 3:0.0124224 11:1 13:1 15:1 17:1 19:1 22:1 26:1 34:1 253:1 255:1 257:1 261:1 
1 1:1 3:0.00621118 12:1 13:1 15:1 17:1 19:1 22:1 26:1 34:1 253:1 255:1 257:1 261:1 
0.6762634728089207 1:1 3:0.00621118 12:1 13:1 15:1 17:1 19:1 22:1 26:1 34:1 253:1 256:1 257:1 261:1 
1 1:1 3:0.0124224 11:1 13:1 15:1 17:1 19:1 22:1 26:1 34:1 253:1 255:1 257:1 261:1 
1 1:1 3:0.00621118 12:1 13:1 15:1 17:1 19:1 22:1 26:1 34:1 253:1 255:1 257:1 261:1 
1 1:1 3:0.00621118 12:1 13:1 15:1 17:1 19:1 22:1 26:1 34:1 253:1 255:1 257:1 261:1 
1 1:1 3:0.0124224 11:1 13:1 15:1 17:1 19:1 22:1 26:1 34:1 253:1 255:1 257:1 261:1 
1 1:1 3:0.00621118 12:1 13:1 15:1 17:1 19:1 22:1 26:1 34:1 253:1 255:1 257:1 261:1 
1 1:1 3:0.00621118 12:1 13:1 15:1 17:1 19:1 22:1 26:1 34:1 253:1 255:1 257:1 261:1 
1 1:1 3:0.0714286 12:1 13:1 16:1 17:1 19:1 22:1 26:1 34:1 253:1 255:1 257:1 260:1 
1 1:1 3:0.0652174 10:1 13:1 16:1 17:1 20:1 21:0.5 22:1 26:1 34:1 253:1 255:1 257:1 260:1 
1 1:1 3:0.0124224 12:1 13:1 16:1 17:1 20:1 21:0.707107 22:1 26:1 34:1 253:1 255:1 257:1 260:1 
1 1:1 3:0.00621118 12:1 13:1 15:1 17:1 19:1 22:1 26:1 34:1 253:1 255:1 257:1 261:1 
1 1:1 3:0.00621118 12:1 13:1 15:1 17:1 19:1 22:1 26:1 34:1 253:1 256:1 257:1 261:1 
1 1:1 3:0.177019 11:1 14:1 15:1 17:1 20:1 21:0.316228 22:1 26:1 34:1 253:1 255:1 257:1 259:1 
1 1:1 3:0.167702 12:1 14:1 15:1 17:1 20:1 21:0.5 22:1 26:1 34:1 253:1 255:1 257:1 259:1 
1 1:1 3:0.0652174 11:1 14:1 15:1 17:1 20:1 21:0.408248 22:1 26:1 34:1 253:1 255:1 258:1 259:1 
1 1:1 3:0.0186335 12:1 13:1 15:1 17:1 20:1 21:0.5 22:1 26:1 34:1 253:1 256:1 258:1 260:1 
0.9248246405217243 1:1 3:0.0124224 11:1 13:1 15:1 17:1 20:1 21:0.316228 22:1 26:1 34:1 253:1 255:1 257:1 259:1 
1 1:1 3:0.00621118 12:1 13:1 15:1 17:1 19:1 22:1 26:1 34:1 253:1 255:1 257:1 261:1 
1 1:1 3:0.00621118 12:1 13:1 15:1 17:1 19:1 22:1 26:1 34:1 253:1 255:1 257:1 261:1 
1 1:1 12:1 14:1 15:1 17:1 20:1 21:0.5 22:1 26:1 28:1 253:1 255:1 258:1 259:1 
1 1:1 3:0.0279503 12:1 13:1 15:1 18:1 19:1 22:1 26:1 34:1 253:1 255:1 257:1 261:1 
1 1:1 3:0.0124224 11:1 13:1 15:1 17:1 19:1 22:1 26:1 34:1 253:1 255:1 257:1 261:1 
1 1:1 3:0.00621118 12:1 13:1 15:1 17:1 19:1 22:1 26:1 34:1 253:1 255:1 257:1 261:1 
1 1:1 3:0.00621118 12:1 13:1 15:1 17:1 19:1 22:1 26:1 34:1 253:1 255:1 257:1 261:1 
1 1:1 3:0.136646 11:1 13:1 15:1 17:1 19:1 22:1 26:1 34:1 253:1 256:1 258:1 261:1 
1 1:1 3:0.0124224 11:1 13:1 15:1 17:1 19:1 22:1 26:1 34:1 253:1 255:1 257:1 261:1 
1 1:1 3:0.00621118 12:1 13:1 15:1 17:1 19:1 22:1 26:1 34:1 253:1 255:1 257:1 261:1 
1 1:1 3:0.00621118 12:1 13:1 15:1 17:1 19:1 22:1 26:1 34:1 253:1 255:1 257:1 261:1 
1 1:1 3:0.208075 12:1 14:1 15:1 17:1 20:1 21:0.5 22:1 26:1 34:1 253:1 255:1 258:1 259:1 
1 1:1 3:0.136646 12:1 14:1 15:1 17:1 20:1 21:0.5 22:1 26:1 34:1 253:1 255:1 258:1 259:1 
1 1:1 3:0.114907 12:1 14:1 15:1 17:1 20:1 21:0.5 22:1 26:1 34:1 253:1 255:1 258:1 259:1 
1 1:1 3:0.102484 12:1 14:1 15:1 17:1 20:1 21:0.5 22:1 26:1 34:1 253:1 255:1 257:1 259:1 
1 1:1 3:0.0776398 12:1 14:1 15:1 17:1 20:1 21:0.5 22:1 26:1 34:1 253:1 255:1 258:1 259:1 
1 1:1 3:0.052795 11:1 13:1 15:1 17:1 19:1 22:1 26:1 34:1 253:1 256:1 257:1 261:1 
1 1:1 3:0.0186335 11:1 14:1 15:1 17:1 20:1 21:0.353553 22:1 26:1 34:1 253:1 255:1 257:1 259:1 
1 1:1 3:0.00621118 12:1 13:1 15:1 17:1 19:1 22:1 26:1 34:1 253:1 255:1 257:1 261:1 
1 1:1 3:0.00621118 12:1 13:1 15:1 17:1 19:1 22:1 26:1 34:1 253:1 255:1 257:1 261:1 
1 1:1 3:0.052795 11:1 13:1 15:1 17:1 19:1 22:1 26:1 34:1 253:1 256:1 257:1 261:1 
0.9433324924975838 1:1 3:0.0124224 12:1 13:1 15:1 17:1 19:1 22:1 26:1 34:1 253:1 255:1 257:1 261:1 
1 1:1 3:0.0124224 12:1 13:1 15:1 17:1 19:1 22:1 26:1 34:1 253:1 255:1 257:1 261:1 
1 1:1 3:0.0124224 11:1 13:1 15:1 17:1 19:1 22:1 26:1 34:1 253:1 255:1 257:1 261:1 
1 1:1 3:0.00621118 12:1 13:1 15:1 17:1 19:1 22:1 26:1 34:1 253:1 255:1 257:1 261:1 
1 1:1 3:0.00621118 12:1 13:1 15:1 17:1 19:1 22:1 26:1 34:1 253:1 256:1 257:1 261:1 
1 1:1 9:1 14:1 15:1 17:1 20:1 21:0.223607 22:1 26:1 124:1 253:1 255:1 257:1 261:1 
1 1:1 3:0.0776398 12:1 13:1 15:1 17:1 20:1 21:0.5 22:1 26:1 124:1 253:1 255:1 257:1 261:1 
1 1:1 3:0.158385 8:1 14:1 15:1 17:1 20:1 21:0.223607 22:1 26:1 124:1 253:1 255:1 257:1 259:1 
1 1:1 3:0.149068 9:1 14:1 15:1 17:1 20:1 21:0.353553 22:1 26:1 124:1 253:1 255:1 257:1 259:1 
1 1:1 3:0.124224 9:1 13:1 15:1 17:1 20:1 21:0.353553 22:1 26:1 124:1 253:1 255:1 257:1 261:1 
1 1:1 3:0.0465839 8:1 14:1 15:1 17:1 20:1 21:0.57735 22:1 26:1 124:1 253:1 255:1 257:1 259:1 
1 1:1 3:0.0279503 8:1 13:1 15:1 17:1 20:1 21:0.57735 22:1 26:1 124:1 253:1 255:1 257:1 261:1 
1 1:1 3:0.152174 8:1 13:1 15:1 17:1 20:1 21:0.6 22:1 26:1 124:1 253:1 255:1 257:1 261:1 
1 1:1 3:0.00621118 7:1 13:1 15:1 17:1 19:1 22:1 26:1 124:1 253:1 255:1 257:1 261:1 
1 2:1 3:0.114907 12:1 13:1 16:1 17:1 20:1 21:1 23:1 26:1 124:1 254:1 255:1 258:1 261:1 
1 1:1 3:0.304348 12:1 13:1 15:1 18:1 20:1 21:0.5 22:1 26:1 122:1 253:1 255:1 257:1 261:1 
1 1:1 3:0.245342 12:1 13:1 15:1 17:1 20:1 21:0.5 22:1 26:1 122:1 253:1 255:1 257:1 261:1 
1 1:1 3:0.0962733 9:1 13:1 15:1 17:1 20:1 21:0.408248 22:1 26:1 124:1 253:1 255:1 257:1 261:1 
1 1:1 9:1 13:1 15:1 17:1 19:1 22:1 26:1 124:1 253:1 255:1 257:1 261:1 
1 1:1 3:0.118012 8:1 13:1 15:1 17:1 20:1 21:0.408248 22:1 26:1 124:1 253:1 255:1 257:1 261:1 
1 1:1 3:0.0838509 8:1 13:1 15:1 17:1 20:1 21:0.5 22:1 26:1 124:1 253:1 255:1 257:1 261:1 
1 1:1 3:0.142857 9:1 14:1 15:1 17:1 20:1 21:0.408248 22:1 26:1 124:1 253:1 255:1 258:1 259:1 
1 1:1 3:0.0714286 9:1 14:1 15:1 17:1 20:1 21:0.408248 22:1 26:1 124:1 253:1 255:1 258:1 259:1 
1 1:1 3:0.0496894 9:1 14:1 15:1 17:1 20:1 21:0.408248 22:1 26:1 124:1 253:1 255:1 258:1 259:1 
1 1:1 3:0.0372671 9:1 14:1 15:1 17:1 20:1 21:0.408248 22:1 26:1 124:1 253:1 255:1 257:1 259:1 
1 1:1 3:0.0124224 9:1 14:1 15:1 17:1 20:1 21:0.408248 22:1 26:1 124:1 253:1 255:1 258:1 259:1 
1 1:1 12:1 13:1 15:1 17:1 20:1 21:0.408248 22:1 26:1 124:1 253:1 255:1 257:1 261:1 
1 1:1 3:0.0993789 11:1 14:1 15:1 17:1 20:1 21:0.316228 22:1 26:1 124:1 253:1 255:1 257:1 259:1 
1 1:1 3:0.0900621 12:1 14:1 15:1 17:1 20:1 21:0.5 22:1 26:1 124:1 253:1 255:1 257:1 259:1 
1 1:1 3:0.0745342 11:1 14:1 15:1 17:1 20:1 21:0.316228 22:1 26:1 124:1 253:1 255:1 257:1 259:1 
1 1:1 3:0.0652174 12:1 14:1 15:1 17:1 20:1 21:0.5 22:1 26:1 124:1 253:1 255:1 257:1 259:1 
1 1:1 3:0.0621118 11:1 14:1 15:1 17:1 20:1 21:0.316228 22:1 26:1 124:1 253:1 255:1 257:1 259:1 
1 1:1 3:0.052795 12:1 14:1 15:1 17:1 20:1 21:0.5 22:1 26:1 124:1 253:1 255:1 257:1 259:1 
1 1:1 3:0.00621118 12:1 14:1 15:1 17:1 20:1 21:0.353553 22:1 26:1 124:1 253:1 255:1 257:1 261:1 
1 1:1 3:0.0403727 11:1 14:1 15:1 17:1 20:1 21:0.316228 22:1 26:1 124:1 253:1 255:1 257:1 259:1 
1 1:1 3:0.0310559 12:1 14:1 15:1 17:1 20:1 21:0.5 22:1 26:1 124:1 253:1 255:1 257:1 259:1 
1 2:1 3:0.189441 12:1 13:1 16:1 17:1 20:1 21:1 23:1 26:1 122:1 254:1 255:1 258:1 261:1 
1 2:1 3:0.186335 12:1 13:1 16:1 17:1 20:1 21:1 23:1 26:1 122:1 254:1 255:1 258:1 261:1 
1 1:1 3:0.0403727 12:1 14:1 15:1 17:1 20:1 21:0.5 22:1 26:1 124:1 253:1 255:1 257:1 259:1 
1 1:1 3:0.0310559 9:1 14:1 15:1 17:1 20:1 21:0.316228 22:1 26:1 124:1 253:1 255:1 257:1 259:1 
1 1:1 3:0.0962733 12:1 14:1 15:1 17:1 20:1 21:0.408248 22:1 26:1 107:1 253:1 255:1 257:1 261:1 
1 1:1 3:0.00621118 12:1 14:1 15:1 17:1 20:1 21:0.333333 22:1 26:1 108:1 253:1 255:1 257:1 261:1 
1 1:1 3:0.121118 12:1 14:1 15:1 17:1 20:1 21:0.408248 22:1 26:1 107:1 253:1 255:1 257:1 259:1 
1 1:1 3:0.0900621 12:1 14:1 15:1 17:1 20:1 21:0.408248 22:1 26:1 107:1 253:1 255:1 257:1 261:1 
1 1:1 3:0.0559006 12:1 13:1 16:1 17:1 20:1 21:0.707107 22:1 26:1 92:1 253:1 255:1 257:1 261:1 
1 2:1 3:0.00931677 12:1 13:1 16:1 17:1 20:1 21:1 23:1 26:1 92:1 254:1 255:1 258:1 261:1 
1 1:1 3:0.00310559 12:1 13:1 16:1 17:1 20:1 21:1 23:1 26:1 92:1 253:1 255:1 257:1 261:1 
1 1:1 3:0.00310559 12:1 13:1 16:1 17:1 20:1 21:0.707107 22:1 26:1 92:1 253:1 256:1 258:1 261:1 
1 1:1 12:1 14:1 15:1 17:1 20:1 21:0.5 22:1 26:1 92:1 253:1 255:1 257:1 261:1 
1 1:1 3:0.00310559 12:1 13:1 16:1 17:1 20:1 21:0.707107 22:1 26:1 92:1 253:1 255:1 257:1 261:1 
1 1:1 12:1 13:1 16:1 17:1 20:1 21:0.57735 22:1 26:1 92:1 253:1 255:1 257:1 261:1 
1 2:1 3:0.00310559 12:1 13:1 16:1 17:1 20:1 21:1 23:1 26:1 92:1 254:1 255:1 258:1 261:1 
1 1:1 3:0.0124224 8:1 13:1 15:1 17:1 20:1 21:0.447214 22:1 26:1 124:1 253:1 255:1 257:1 261:1 
1 1:1 3:0.251553 9:1 13:1 15:1 17:1 19:1 22:1 26:1 127:1 253:1 255:1 257:1 261:1 
1 1:1 3:0.245342 9:1 13:1 15:1 17:1 19:1 22:1 26:1 127:1 253:1 255:1 257:1 261:1 
1 1:1 3:0.00310559 12:1 14:1 15:1 17:1 20:1 21:0.408248 22:1 26:1 124:1 253:1 255:1 257:1 261:1 
1 1:1 11:1 13:1 15:1 17:1 20:1 21:0.353553 22:1 26:1 124:1 253:1 255:1 257:1 261:1 
1 1:1 3:0.00310559 9:1 13:1 15:1 17:1 20:1 21:0.288675 22:1 26:1 124:1 253:1 255:1 257:1 261:1 
1 1:1 3:0.158385 12:1 13:1 15:1 17:1 20:1 21:0.408248 22:1 26:1 121:1 253:1 255:1 257:1 260:1 
1 1:1 3:0.118012 12:1 13:1 15:1 17:1 20:1 21:0.5 22:1 26:1 121:1 253:1 255:1 257:1 260:1 
1 1:1 3:0.0776398 12:1 13:1 16:1 17:1 20:1 21:0.471405 22:1 26:1 122:1 253:1 255:1 257:1 260:1 
1 1:1 3:0.00931677 12:1 13:1 15:1 17:1 20:1 21:0.408248 22:1 26:1 122:1 253:1 255:1 257:1 260:1 
1 1:1 3:0.15528 12:1 13:1 15:1 17:1 20:1 21:0.333333 22:1 26:1 121:1 253:1 255:1 257:1 260:1 
1 1:1 3:0.114907 12:1 13:1 15:1 17:1 20:1 21:0.408248 22:1 26:1 121:1 253:1 255:1 257:1 260:1 
1 1:1 3:0.0745342 12:1 13:1 15:1 17:1 20:1 21:0.57735 22:1 26:1 122:1 253:1 255:1 257:1 260:1 
1 1:1 3:0.00621118 12:1 13:1 15:1 17:1 20:1 21:0.333333 22:1 26:1 122:1 253:1 255:1 257:1 260:1 
1 1:1 3:0.220497 9:1 14:1 15:1 17:1 20:1 21:0.218218 22:1 26:1 90:1 253:1 255:1 257:1 259:1 
1 1:1 3:0.108696 12:1 14:1 15:1 17:1 20:1 21:0.408248 22:1 26:1 91:1 253:1 255:1 257:1 259:1 
1 1:1 3:0.152174 12:1 13:1 15:1 17:1 20:1 21:0.19245 22:1 26:1 90:1 253:1 255:1 257:1 260:1 
1 1:1 3:0.0403727 12:1 13:1 15:1 17:1 20:1 21:0.235702 22:1 26:1 91:1 253:1 255:1 257:1 260:1 
1 1:1 3:0.00621118 12:1 14:1 15:1 17:1 20:1 21:0.5 22:1 26:1 76:1 253:1 255:1 257:1 261:1 
1 1:1 3:0.00310559 12:1 14:1 15:1 17:1 20:1 21:0.5 22:1 26:1 76:1 253:1 255:1 257:1 261:1 
1 1:1 3:0.00310559 12:1 14:1 15:1 17:1 20:1 21:0.5 22:1 26:1 76:1 253:1 255:1 257:1 259:1 
1 1:1 3:0.111801 12:1 13:1 15:1 17:1 20:1 21:0.408248 22:1 26:1 75:1 253:1 255:1 257:1 260:1 
1 1:1 3:0.0714286 12:1 13:1 15:1 17:1 20:1 21:0.333333 22:1 26:1 75:1 253:1 255:1 257:1 260:1 
1 2:1 3:0.0372671 12:1 13:1 16:1 17:1 20:1 21:1 23:1 26:1 60:1 254:1 255:1 258:1 261:1 
1 1:1 3:0.052795 12:1 13:1 15:1 17:1 20:1 21:0.408248 22:1 26:1 60:1 253:1 255:1 257:1 260:1 
1 1:1 3:0.052795 12:1 13:1 15:1 17:1 19:1 22:1 26:1 67:1 253:1 255:1 257:1 261:1 
1 1:1 3:0.0465839 12:1 13:1 15:1 17:1 19:1 22:1 26:1 67:1 253:1 255:1 257:1 261:1 
1 1:1 3:0.0434783 12:1 13:1 15:1 17:1 19:1 22:1 26:1 67:1 253:1 255:1 257:1 261:1 
1 1:1 3:0.0124224 12:1 13:1 15:1 17:1 20:1 21:0.408248 22:1 26:1 60:1 253:1 255:1 257:1 261:1 
1 1:1 3:0.0124224 12:1 13:1 15:1 17:1 19:1 22:1 26:1 67:1 253:1 255:1 257:1 261:1 
1 1:1 3:0.00621118 12:1 13:1 15:1 17:1 19:1 22:1 26:1 67:1 253:1 255:1 257:1 261:1 
1 1:1 3:0.00621118 12:1 13:1 15:1 17:1 19:1 22:1 26:1 67:1 253:1 255:1 257:1 261:1 
1 1:1 3:0.108696 12:1 13:1 16:1 17:1 20:1 21:0.707107 22:1 26:1 120:1 253:1 256:1 257:1 261:1 
1 1:1 3:0.0372671 12:1 14:1 15:1 17:1 20:1 21:0.333333 22:1 26:1 180:1 253:1 255:1 257:1 261:1 
1 1:1 12:1 14:1 15:1 18:1 20:1 21:0.5 22:1 26:1 28:1 253:1 256:1 257:1 259:1 
1 1:1 3:0.0403727 9:1 14:1 15:1 17:1 20:1 21:0.204124 22:1 26:1 124:1 253:1 255:1 257:1 261:1 
1 1:1 3:0.0341615 12:1 14:1 15:1 17:1 20:1 21:0.333333 22:1 26:1 75:1 253:1 255:1 257:1 259:1 
1 1:1 3:0.00310559 12:1 14:1 15:1 17:1 20:1 21:0.333333 22:1 26:1 76:1 253:1 255:1 257:1 259:1 
1 1:1 3:0.068323 9:1 13:1 15:1 17:1 19:1 22:1 26:1 214:1 253:1 255:1 257:1 261:1 
1 2:1 3:0.00931677 12:1 13:1 16:1 17:1 20:1 21:1 23:1 26:1 188:1 254:1 256:1 258:1 261:1 
1 2:1 3:0.0310559 12:1 13:1 16:1 17:1 20:1 21:1 23:1 26:1 124:1 254:1 255:1 258:1 261:1 
1 2:1 3:0.00931677 12:1 13:1 16:1 17:1 20:1 21:1 23:1 26:1 124:1 254:1 255:1 258:1 261:1 
1 2:1 3:0.0217391 12:1 13:1 16:1 17:1 20:1 21:1 23:1 26:1 124:1 254:1 255:1 258:1 261:1 
1 1:1 3:0.0745342 9:1 13:1 15:1 17:1 20:1 21:0.471405 22:1 25:1 97:1 253:1 255:1 257:1 260:1 
1 1:1 3:0.068323 8:1 13:1 15:1 17:1 20:1 21:0.408248 22:1 25:1 90:1 253:1 255:1 257:1 260:1 
1 1:1 3:0.068323 9:1 13:1 15:1 17:1 20:1 21:0.471405 22:1 25:1 97:1 253:1 255:1 257:1 260:1 
1 1:1 3:0.0621118 8:1 13:1 15:1 17:1 20:1 21:0.612372 22:1 25:1 90:1 253:1 255:1 257:1 260:1 
0.7104913229304842 1:1 3:0.0372671 9:1 13:1 15:1 17:1 19:1 22:1 26:1 91:1 253:1 255:1 257:1 261:1 
1 1:1 3:0.0372671 9:1 13:1 15:1 17:1 19:1 22:1 26:1 91:1 253:1 255:1 257:1 261:1 
1 1:1 3:0.835404 11:1 13:1 15:1 17:1 19:1 22:1 26:1 30:1 253:1 255:1 257:1 261:1 
0.6731461446441147 1:1 3:0.832298 11:1 13:1 15:1 17:1 19:1 22:1 26:1 30:1 253:1 255:1 257:1 261:1 
1 1:1 3:0.593168 12:1 13:1 15:1 17:1 20:1 21:0.408248 22:1 26:1 32:1 253:1 255:1 257:1 260:1 
1 1:1 3:0.748447 11:1 13:1 15:1 17:1 19:1 22:1 26:1 120:1 253:1 255:1 257:1 261:1 
1 1:1 3:0.729814 12:1 13:1 15:1 17:1 19:1 22:1 26:1 121:1 253:1 255:1 257:1 261:1 
1 1:1 3:0.723602 12:1 13:1 15:1 17:1 19:1 22:1 26:1 121:1 253:1 255:1 257:1 261:1 
1 1:1 3:0.720497 12:1 13:1 15:1 17:1 19:1 22:1 26:1 121:1 253:1 255:1 257:1 261:1 
1 1:1 3:0.850932 12:1 13:1 15:1 17:1 19:1 22:1 26:1 120:1 253:1 255:1 257:1 261:1 
1 1:1 3:0.850932 12:1 13:1 15:1 17:1 19:1 22:1 26:1 120:1 253:1 255:1 257:1 261:1 
1 1:1 3:0.841615 12:1 13:1 15:1 17:1 19:1 22:1 26:1 120:1 253:1 256:1 257:1 261:1 
1 1:1 3:0.841615 12:1 13:1 15:1 17:1 19:1 22:1 26:1 120:1 253:1 255:1 257:1 261:1 
1 1:1 3:0.835404 12:1 13:1 15:1 17:1 19:1 22:1 26:1 120:1 253:1 255:1 257:1 261:1 
1 1:1 3:0.835404 12:1 13:1 15:1 17:1 19:1 22:1 26:1 120:1 253:1 255:1 257:1 261:1 
1 1:1 3:0.829193 12:1 13:1 15:1 17:1 19:1 22:1 26:1 120:1 253:1 255:1 257:1 261:1 
1 1:1 3:0.829193 12:1 13:1 15:1 17:1 19:1 22:1 26:1 120:1 253:1 255:1 257:1 261:1 
1 1:1 3:0.826087 12:1 13:1 15:1 17:1 19:1 22:1 26:1 120:1 253:1 255:1 257:1 261:1 
1 1:1 3:0.822981 12:1 13:1 15:1 17:1 19:1 22:1 26:1 120:1 253:1 255:1 257:1 261:1 
1 1:1 3:0.810559 12:1 13:1 15:1 17:1 19:1 22:1 26:1 120:1 253:1 255:1 257:1 261:1 
1 1:1 3:0.804348 12:1 13:1 15:1 17:1 19:1 22:1 26:1 120:1 253:1 255:1 257:1 261:1 
1 1:1 3:0.804348 12:1 13:1 15:1 17:1 19:1 22:1 26:1 120:1 253:1 255:1 257:1 261:1 
1 1:1 3:0.801242 12:1 13:1 15:1 17:1 19:1 22:1 26:1 120:1 253:1 255:1 257:1 261:1 
1 1:1 3:0.795031 12:1 13:1 15:1 17:1 19:1 22:1 26:1 120:1 253:1 255:1 257:1 261:1 
1 1:1 3:0.795031 12:1 13:1 15:1 17:1 19:1 22:1 26:1 120:1 253:1 255:1 257:1 261:1 
1 1:1 3:0.748447 11:1 13:1 15:1 17:1 19:1 22:1 26:1 120:1 253:1 255:1 257:1 261:1 
1 1:1 3:0.729814 12:1 13:1 15:1 17:1 19:1 22:1 26:1 121:1 253:1 255:1 257:1 261:1 
1 1:1 3:0.723602 12:1 13:1 15:1 17:1 19:1 22:1 26:1 121:1 253:1 255:1 257:1 261:1 
1 1:1 3:0.720497 12:1 13:1 15:1 17:1 19:1 22:1 26:1 121:1 253:1 255:1 257:1 261:1 
0.8379627258221172 1:1 3:0.52795 11:1 13:1 15:1 17:1 19:1 22:1 26:1 122:1 253:1 255:1 257:1 261:1 
0.2479270095902704 1:1 3:0.465839 10:1 13:1 15:1 17:1 19:1 22:1 26:1 122:1 253:1 255:1 257:1 261:1 
1 1:1 3:0.801242 12:1 13:1 15:1 17:1 19:1 22:1 26:1 120:1 253:1 255:1 257:1 261:1 
1 1:1 3:0.795031 12:1 13:1 15:1 17:1 19:1 22:1 26:1 120:1 253:1 255:1 257:1 261:1 
1 1:1 3:0.795031 12:1 13:1 15:1 17:1 19:1 22:1 26:1 120:1 253:1 255:1 257:1 261:1 
1 1:1 3:0.748447 11:1 13:1 15:1 17:1 19:1 22:1 26:1 120:1 253:1 255:1 257:1 261:1 
1 1:1 3:0.723602 12:1 13:1 15:1 17:1 19:1 22:1 26:1 121:1 253:1 255:1 257:1 261:1 
1 1:1 3:0.720497 12:1 13:1 15:1 17:1 19:1 22:1 26:1 121:1 253:1 255:1 257:1 261:1 
0.2656922165385471 1:1 3:0.52795 11:1 13:1 15:1 17:1 19:1 22:1 26:1 122:1 253:1 255:1 257:1 259:1 
1 1:1 3:0.0993789 12:1 14:1 15:1 17:1 20:1 21:0.408248 22:1 26:1 124:1 253:1 255:1 257:1 261:1 
1 1:1 3:0.832298 12:1 13:1 15:1 17:1 19:1 22:1 26:1 120:1 253:1 255:1 257:1 261:1 
1 1:1 3:0.822981 12:1 13:1 15:1 17:1 19:1 22:1 26:1 120:1 253:1 255:1 257:1 261:1 
1 1:1 3:0.822981 12:1 13:1 15:1 17:1 19:1 22:1 26:1 120:1 253:1 255:1 257:1 261:1 
1 1:1 3:0.822981 12:1 13:1 15:1 17:1 19:1 22:1 26:1 120:1 253:1 255:1 257:1 261:1 
1 1:1 3:0.822981 12:1 13:1 15:1 17:1 19:1 22:1 26:1 120:1 253:1 255:1 257:1 261:1 
1 1:1 3:0.822981 12:1 13:1 15:1 17:1 19:1 22:1 26:1 120:1 253:1 255:1 257:1 261:1 
1 1:1 3:0.813665 12:1 13:1 15:1 17:1 19:1 22:1 26:1 120:1 253:1 255:1 257:1 261:1 
1 1:1 3:0.813665 12:1 13:1 15:1 17:1 19:1 22:1 26:1 120:1 253:1 255:1 257:1 261:1 
1 1:1 3:0.807453 12:1 13:1 15:1 17:1 19:1 22:1 26:1 120:1 253:1 255:1 257:1 261:1 
1 1:1 3:0.801242 12:1 13:1 15:1 17:1 19:1 22:1 26:1 120:1 253:1 255:1 257:1 261:1 
1 1:1 3:0.801242 12:1 13:1 15:1 17:1 19:1 22:1 26:1 120:1 253:1 255:1 257:1 261:1 
1 1:1 3:0.798137 12:1 13:1 15:1 17:1 19:1 22:1 26:1 120:1 253:1 255:1 257:1 261:1 
1 1:1 3:0.795031 12:1 13:1 15:1 17:1 19:1 22:1 26:1 120:1 253:1 255:1 257:1 261:1 
1 1:1 3:0.695652 12:1 13:1 15:1 17:1 19:1 22:1 26:1 121:1 253:1 255:1 257:1 261:1 
1 1:1 3:0.692547 12:1 13:1 15:1 17:1 19:1 22:1 26:1 121:1 253:1 255:1 257:1 261:1 
1 1:1 3:0.795031 9:1 13:1 15:1 17:1 19:1 22:1 26:1 120:1 253:1 255:1 257:1 261:1 
1 1:1 3:0.78882 9:1 13:1 15:1 17:1 19:1 22:1 26:1 120:1 253:1 255:1 257:1 261:1 
1 1:1 3:0.78882 9:1 13:1 15:1 17:1 19:1 22:1 26:1 120:1 253:1 255:1 257:1 261:1 
1 1:1 3:0.785714 9:1 13:1 15:1 17:1 19:1 22:1 26:1 120:1 253:1 255:1 257:1 261:1 
1 1:1 3:0.782609 9:1 13:1 15:1 17:1 19:1 22:1 26:1 120:1 253:1 255:1 257:1 261:1 
1 1:1 3:0.770186 9:1 13:1 15:1 17:1 19:1 22:1 26:1 120:1 253:1 255:1 257:1 261:1 
1 1:1 3:0.763975 9:1 13:1 15:1 17:1 19:1 22:1 26:1 120:1 253:1 255:1 257:1 261:1 
1 1:1 3:0.763975 9:1 13:1 15:1 17:1 19:1 22:1 26:1 120:1 253:1 255:1 257:1 261:1 
1 1:1 3:0.76087 9:1 13:1 15:1 17:1 19:1 22:1 26:1 120:1 253:1 255:1 257:1 261:1 
1 1:1 3:0.754658 9:1 13:1 15:1 17:1 19:1 22:1 26:1 120:1 253:1 255:1 257:1 261:1 
1 1:1 3:0.754658 9:1 13:1 15:1 17:1 19:1 22:1 26:1 120:1 253:1 255:1 257:1 261:1 
0.7864124806433681 1:1 3:0.742236 9:1 13:1 15:1 17:1 19:1 22:1 26:1 120:1 253:1 255:1 257:1 261:1 
1 1:1 3:0.732919 9:1 13:1 15:1 17:1 19:1 22:1 26:1 120:1 253:1 256:1 257:1 261:1 
0.2353970033342183 1:1 3:0.68323 9:1 13:1 15:1 17:1 19:1 22:1 26:1 121:1 253:1 255:1 257:1 261:1 
1 1:1 3:0.680124 9:1 13:1 15:1 17:1 19:1 22:1 26:1 121:1 253:1 255:1 257:1 261:1 
1 1:1 3:0.475155 9:1 13:1 15:1 17:1 20:1 21:0.353553 22:1 26:1 122:1 253:1 255:1 257:1 261:1 
0.07380340976745459 1:1 3:0.425466 7:1 13:1 15:1 17:1 19:1 22:1 26:1 122:1 253:1 255:1 257:1 261:1 
1 1:1 3:0.78882 12:1 13:1 15:1 17:1 19:1 22:1 26:1 120:1 253:1 255:1 257:1 261:1 
1 1:1 3:0.726708 12:1 13:1 15:1 17:1 19:1 22:1 26:1 120:1 253:1 256:1 257:1 261:1 
1 1:1 3:0.701863 11:1 13:1 15:1 17:1 19:1 22:1 26:1 120:1 253:1 255:1 257:1 261:1 
1 1:1 3:0.677019 12:1 13:1 15:1 17:1 19:1 22:1 26:1 121:1 253:1 255:1 257:1 261:1 
1 1:1 3:0.673913 12:1 13:1 15:1 17:1 19:1 22:1 26:1 121:1 253:1 255:1 257:1 261:1 
1 1:1 3:0.0186335 12:1 13:1 16:1 17:1 20:1 21:0.57735 22:1 26:1 124:1 253:1 256:1 257:1 261:1 
1 1:1 3:0.798137 9:1 13:1 15:1 17:1 19:1 22:1 26:1 120:1 253:1 255:1 257:1 261:1 
1 1:1 3:0.798137 9:1 13:1 15:1 17:1 19:1 22:1 26:1 120:1 253:1 255:1 257:1 261:1 
1 1:1 3:0.798137 9:1 13:1 15:1 17:1 19:1 22:1 26:1 120:1 253:1 255:1 257:1 261:1 
0.4380111800146106 1:1 3:0.78882 9:1 13:1 15:1 17:1 19:1 22:1 26:1 120:1 253:1 255:1 257:1 261:1 
1 1:1 3:0.782609 9:1 13:1 15:1 17:1 19:1 22:1 26:1 120:1 253:1 255:1 257:1 261:1 
1 1:1 3:0.782609 9:1 13:1 15:1 17:1 19:1 22:1 26:1 120:1 253:1 255:1 257:1 261:1 
1 1:1 3:0.776398 9:1 13:1 15:1 17:1 19:1 22:1 26:1 120:1 253:1 255:1 257:1 261:1 
1 1:1 3:0.776398 9:1 13:1 15:1 17:1 19:1 22:1 26:1 120:1 253:1 255:1 257:1 261:1 
0.9566464349542068 1:1 3:0.773292 9:1 13:1 15:1 17:1 19:1 22:1 26:1 120:1 253:1 255:1 257:1 261:1 
1 1:1 3:0.770186 9:1 13:1 15:1 17:1 19:1 22:1 26:1 120:1 253:1 255:1 257:1 261:1 
1 1:1 3:0.751553 9:1 13:1 15:1 17:1 19:1 22:1 26:1 120:1 253:1 255:1 257:1 261:1 
1 1:1 3:0.751553 9:1 13:1 15:1 17:1 19:1 22:1 26:1 120:1 253:1 255:1 257:1 261:1 
1 1:1 3:0.695652 8:1 13:1 15:1 17:1 20:1 21:0.5 22:1 26:1 120:1 253:1 255:1 257:1 261:1 
1 1:1 3:0.677019 9:1 13:1 15:1 17:1 19:1 22:1 26:1 121:1 253:1 255:1 257:1 261:1 
0.4895776036850478 1:1 3:0.670807 9:1 13:1 15:1 17:1 19:1 22:1 26:1 121:1 253:1 255:1 257:1 261:1 
1 1:1 3:0.667702 9:1 13:1 15:1 17:1 19:1 22:1 26:1 121:1 253:1 255:1 257:1 261:1 
1 1:1 3:0.0124224 9:1 13:1 15:1 17:1 19:1 22:1 26:1 124:1 253:1 256:1 257:1 261:1 
1 1:1 9:1 13:1 15:1 17:1 19:1 22:1 26:1 124:1 253:1 255:1 257:1 261:1 
1 1:1 3:0.791925 12:1 13:1 15:1 17:1 19:1 22:1 26:1 120:1 253:1 255:1 257:1 261:1 
1 1:1 3:0.791925 12:1 13:1 15:1 17:1 19:1 22:1 26:1 120:1 253:1 255:1 257:1 261:1 
1 1:1 3:0.791925 12:1 13:1 15:1 17:1 19:1 22:1 26:1 120:1 253:1 255:1 257:1 261:1 
1 1:1 3:0.689441 11:1 13:1 15:1 17:1 19:1 22:1 26:1 120:1 253:1 255:1 257:1 261:1 
1 1:1 3:0.670807 12:1 13:1 15:1 17:1 19:1 22:1 26:1 121:1 253:1 255:1 257:1 261:1 
1 1:1 3:0.0279503 12:1 13:1 16:1 17:1 19:1 22:1 26:1 124:1 253:1 255:1 257:1 261:1 
1 1:1 3:0.801242 12:1 13:1 15:1 17:1 19:1 22:1 26:1 120:1 253:1 255:1 257:1 261:1 
1 1:1 3:0.801242 12:1 13:1 15:1 17:1 19:1 22:1 26:1 120:1 253:1 255:1 257:1 261:1 
1 1:1 3:0.801242 12:1 13:1 15:1 17:1 19:1 22:1 26:1 120:1 253:1 255:1 257:1 261:1 
1 1:1 3:0.795031 12:1 13:1 15:1 17:1 19:1 22:1 26:1 120:1 253:1 255:1 257:1 261:1 
1 1:1 3:0.795031 12:1 13:1 15:1 17:1 19:1 22:1 26:1 120:1 253:1 255:1 257:1 261:1 
1 1:1 3:0.795031 12:1 13:1 15:1 17:1 19:1 22:1 26:1 120:1 253:1 255:1 257:1 261:1 
1 1:1 3:0.785714 12:1 13:1 15:1 17:1 19:1 22:1 26:1 120:1 253:1 256:1 257:1 261:1 
0.3053068814932805 1:1 3:0.68323 11:1 13:1 15:1 17:1 19:1 22:1 26:1 120:1 253:1 255:1 257:1 261:1 
0.7738575319459852 1:1 3:0.664596 12:1 13:1 15:1 17:1 19:1 22:1 26:1 121:1 253:1 255:1 257:1 261:1 
1 1:1 3:0.795031 12:1 13:1 15:1 17:1 19:1 22:1 26:1 120:1 253:1 255:1 257:1 261:1 
0.3191764924903092 1:1 3:0.785714 12:1 13:1 15:1 17:1 19:1 22:1 26:1 120:1 253:1 255:1 257:1 261:1 
1 1:1 3:0.785714 12:1 13:1 15:1 17:1 19:1 22:1 26:1 120:1 253:1 255:1 257:1 261:1 
1 1:1 3:0.785714 12:1 13:1 15:1 17:1 19:1 22:1 26:1 120:1 253:1 255:1 257:1 261:1 
1 1:1 3:0.785714 12:1 13:1 15:1 17:1 19:1 22:1 26:1 120:1 253:1 255:1 257:1 261:1 
1 1:1 3:0.785714 12:1 13:1 15:1 17:1 19:1 22:1 26:1 120:1 253:1 255:1 257:1 261:1 
1 1:1 3:0.785714 12:1 13:1 15:1 17:1 19:1 22:1 26:1 120:1 253:1 255:1 257:1 261:1 
1 1:1 3:0.68323 11:1 13:1 15:1 17:1 19:1 22:1 26:1 120:1 253:1 255:1 257:1 261:1 
1 1:1 3:0.664596 12:1 13:1 15:1 17:1 19:1 22:1 26:1 121:1 253:1 255:1 257:1 261:1 
1 1:1 3:0.0217391 12:1 13:1 16:1 17:1 19:1 22:1 26:1 124:1 253:1 255:1 257:1 261:1 
1 1:1 3:0.680124 11:1 13:1 15:1 17:1 19:1 22:1 26:1 120:1 253:1 255:1 257:1 261:1 
1 1:1 3:0.0124224 12:1 13:1 16:1 17:1 19:1 22:1 26:1 124:1 253:1 255:1 257:1 261:1 
1 1:1 3:0.375776 12:1 13:1 15:1 17:1 19:1 22:1 26:1 122:1 253:1 255:1 257:1 260:1 
1 1:1 3:0.372671 12:1 13:1 15:1 17:1 19:1 22:1 26:1 122:1 253:1 256:1 257:1 260:1 
1 1:1 3:0.263975 11:1 13:1 15:1 17:1 19:1 22:1 26:1 122:1 253:1 255:1 257:1 260:1 
1 1:1 3:0.263975 12:1 13:1 15:1 17:1 19:1 22:1 26:1 122:1 253:1 255:1 257:1 260:1 
1 1:1 3:0.180124 12:1 13:1 16:1 17:1 20:1 21:0.707107 22:1 26:1 122:1 253:1 256:1 258:1 261:1 
1 1:1 3:0.164596 12:1 13:1 16:1 17:1 20:1 21:0.707107 22:1 26:1 122:1 253:1 256:1 258:1 261:1 
1 1:1 3:0.145963 12:1 13:1 16:1 17:1 20:1 21:0.707107 22:1 26:1 122:1 253:1 256:1 258:1 261:1 
1 1:1 3:0.388199 12:1 13:1 15:1 17:1 20:1 21:0.408248 22:1 26:1 122:1 253:1 255:1 257:1 260:1 
0.6995472258640865 1:1 3:0.723602 12:1 13:1 15:1 17:1 19:1 22:1 26:1 120:1 253:1 256:1 257:1 261:1 
1 1:1 3:0.397516 11:1 13:1 15:1 17:1 19:1 22:1 26:1 122:1 254:1 255:1 258:1 261:1 
1 1:1 3:0.214286 12:1 13:1 16:1 17:1 19:1 22:1 26:1 122:1 253:1 255:1 257:1 261:1 
1 1:1 3:0.397516 11:1 13:1 16:1 17:1 20:1 21:0.447214 22:1 26:1 122:1 253:1 255:1 257:1 261:1 
1 1:1 3:0.378882 12:1 13:1 15:1 17:1 20:1 21:0.408248 22:1 26:1 122:1 253:1 255:1 257:1 260:1 
1 1:1 3:0.170807 12:1 13:1 16:1 17:1 20:1 21:0.707107 22:1 26:1 92:1 253:1 255:1 257:1 261:1 
1 1:1 3:0.167702 12:1 13:1 16:1 17:1 20:1 21:0.707107 22:1 26:1 92:1 253:1 255:1 257:1 261:1 
1 1:1 3:0.164596 12:1 13:1 16:1 17:1 20:1 21:0.707107 22:1 26:1 92:1 253:1 255:1 257:1 261:1 
1 1:1 3:0.158385 12:1 13:1 16:1 17:1 20:1 21:0.707107 22:1 26:1 92:1 253:1 255:1 257:1 261:1 
1 1:1 3:0.15528 12:1 13:1 16:1 17:1 20:1 21:0.707107 22:1 26:1 92:1 253:1 255:1 257:1 261:1 
1 1:1 3:0.152174 12:1 13:1 16:1 17:1 20:1 21:0.707107 22:1 26:1 92:1 253:1 255:1 257:1 261:1 
1 1:1 3:0.114907 12:1 14:1 15:1 17:1 20:1 21:0.5 22:1 26:1 92:1 253:1 255:1 257:1 261:1 
1 1:1 3:0.108696 12:1 14:1 15:1 18:1 20:1 21:0.5 22:1 26:1 92:1 253:1 255:1 257:1 261:1 
1 1:1 3:0.102484 12:1 14:1 15:1 17:1 20:1 21:0.5 22:1 26:1 92:1 253:1 255:1 257:1 261:1 
1 1:1 3:0.0559006 12:1 13:1 16:1 17:1 20:1 21:0.707107 22:1 26:1 92:1 253:1 255:1 257:1 261:1 
1 2:1 3:0.114907 12:1 13:1 16:1 17:1 20:1 21:1 23:1 26:1 92:1 254:1 255:1 258:1 261:1 
1 2:1 3:0.111801 12:1 13:1 16:1 17:1 20:1 21:1 23:1 26:1 92:1 254:1 255:1 258:1 261:1 
1 2:1 3:0.108696 12:1 13:1 16:1 17:1 20:1 21:1 23:1 26:1 92:1 254:1 255:1 258:1 261:1 
1 2:1 3:0.102484 12:1 13:1 16:1 17:1 20:1 21:1 23:1 26:1 92:1 254:1 255:1 258:1 261:1 
1 2:1 3:0.0993789 12:1 13:1 16:1 17:1 20:1 21:1 23:1 26:1 92:1 254:1 255:1 258:1 261:1 
1 2:1 3:0.0962733 12:1 13:1 16:1 17:1 20:1 21:1 23:1 26:1 92:1 254:1 255:1 258:1 261:1 
1 1:1 3:0.0590062 12:1 13:1 16:1 17:1 20:1 21:0.707107 22:1 26:1 92:1 253:1 255:1 257:1 261:1 
1 1:1 3:0.052795 12:1 13:1 16:1 17:1 20:1 21:0.707107 22:1 26:1 92:1 253:1 255:1 257:1 261:1 
1 1:1 3:0.0465839 12:1 13:1 16:1 17:1 20:1 21:0.707107 22:1 26:1 92:1 253:1 255:1 257:1 261:1 
1 1:1 3:0.0652174 12:1 13:1 16:1 17:1 20:1 21:1 23:1 26:1 92:1 254:1 256:1 258:1 261:1 
1 1:1 3:0.068323 12:1 13:1 16:1 17:1 20:1 21:0.707107 22:1 26:1 92:1 253:1 255:1 257:1 261:1 
1 1:1 3:0.0652174 12:1 13:1 16:1 17:1 20:1 21:0.707107 22:1 26:1 92:1 253:1 255:1 257:1 261:1 
1 1:1 3:0.0621118 12:1 13:1 16:1 17:1 20:1 21:0.707107 22:1 26:1 92:1 253:1 255:1 257:1 261:1 
1 1:1 3:0.0559006 12:1 13:1 16:1 17:1 20:1 21:0.707107 22:1 26:1 92:1 253:1 255:1 257:1 261:1 
1 1:1 3:0.052795 12:1 13:1 16:1 17:1 20:1 21:0.707107 22:1 26:1 92:1 253:1 255:1 257:1 261:1 
1 1:1 3:0.0496894 12:1 13:1 16:1 17:1 20:1 21:0.707107 22:1 26:1 92:1 253:1 255:1 257:1 261:1 
1 1:1 3:0.0124224 12:1 14:1 16:1 18:1 20:1 21:1 23:1 26:1 92:1 253:1 255:1 257:1 261:1 
1 1:1 3:0.00621118 12:1 14:1 15:1 17:1 20:1 21:0.5 22:1 26:1 92:1 253:1 255:1 257:1 261:1 
1 1:1 3:0.0621118 12:1 13:1 16:1 17:1 20:1 21:0.707107 22:1 26:1 92:1 253:1 255:1 257:1 261:1 
1 1:1 3:0.0590062 12:1 13:1 16:1 17:1 20:1 21:0.707107 22:1 26:1 92:1 253:1 255:1 257:1 261:1 
1 1:1 3:0.0559006 12:1 13:1 16:1 17:1 20:1 21:0.707107 22:1 26:1 92:1 253:1 255:1 257:1 261:1 
1 1:1 3:0.0496894 12:1 13:1 16:1 17:1 20:1 21:0.707107 22:1 26:1 92:1 253:1 255:1 257:1 261:1 
1 1:1 3:0.0465839 12:1 13:1 16:1 17:1 20:1 21:0.707107 22:1 26:1 92:1 253:1 255:1 257:1 261:1 
1 1:1 3:0.0434783 12:1 13:1 16:1 17:1 20:1 21:0.707107 22:1 26:1 92:1 253:1 255:1 257:1 261:1 
1 1:1 3:0.00621118 12:1 14:1 15:1 17:1 20:1 21:0.5 22:1 26:1 92:1 253:1 255:1 257:1 261:1 
1 1:1 3:0.0559006 12:1 13:1 16:1 17:1 20:1 21:0.707107 22:1 26:1 92:1 253:1 255:1 257:1 261:1 
1 1:1 3:0.052795 12:1 13:1 16:1 17:1 20:1 21:0.707107 22:1 26:1 92:1 253:1 255:1 257:1 261:1 
1 1:1 3:0.0496894 12:1 13:1 16:1 17:1 20:1 21:0.707107 22:1 26:1 92:1 253:1 255:1 257:1 261:1 
1 1:1 3:0.0434783 12:1 13:1 16:1 17:1 20:1 21:0.707107 22:1 26:1 92:1 253:1 255:1 257:1 261:1 
1 1:1 3:0.0403727 12:1 13:1 16:1 17:1 20:1 21:0.707107 22:1 26:1 92:1 253:1 255:1 257:1 261:1 
1 1:1 3:0.0372671 12:1 13:1 16:1 17:1 20:1 21:0.707107 22:1 26:1 92:1 253:1 255:1 257:1 261:1 
1 1:1 3:0.00310559 12:1 14:1 16:1 18:1 20:1 21:1 23:1 26:1 92:1 253:1 255:1 257:1 261:1 
1 2:1 3:0.0186335 12:1 13:1 16:1 17:1 20:1 21:1 23:1 26:1 92:1 254:1 255:1 258:1 261:1 
1 2:1 3:0.015528 12:1 13:1 16:1 17:1 20:1 21:1 23:1 26:1 92:1 254:1 255:1 258:1 261:1 
1 2:1 3:0.0124224 12:1 13:1 16:1 17:1 20:1 21:1 23:1 26:1 92:1 254:1 255:1 258:1 261:1 
1 2:1 3:0.00621118 12:1 13:1 16:1 17:1 20:1 21:1 23:1 26:1 92:1 254:1 255:1 258:1 261:1 
1 2:1 3:0.00310559 12:1 13:1 16:1 17:1 20:1 21:1 23:1 26:1 92:1 254:1 255:1 258:1 261:1 
1 2:1 3:0.015528 12:1 13:1 16:1 17:1 20:1 21:1 23:1 26:1 92:1 254:1 255:1 258:1 261:1 
1 2:1 3:0.0124224 12:1 13:1 16:1 17:1 20:1 21:1 23:1 26:1 92:1 254:1 255:1 258:1 261:1 
1 2:1 3:0.00931677 12:1 13:1 16:1 17:1 20:1 21:1 23:1 26:1 92:1 254:1 255:1 258:1 261:1 
1 2:1 3:0.00310559 12:1 13:1 16:1 17:1 20:1 21:1 23:1 26:1 92:1 254:1 255:1 258:1 261:1 
1 2:1 3:0.0124224 12:1 13:1 16:1 17:1 20:1 21:1 23:1 26:1 92:1 254:1 255:1 258:1 261:1 
1 2:1 3:0.00931677 12:1 13:1 16:1 17:1 20:1 21:1 23:1 26:1 92:1 254:1 255:1 258:1 261:1 
1 2:1 3:0.00621118 12:1 13:1 16:1 17:1 20:1 21:1 23:1 26:1 92:1 254:1 255:1 258:1 261:1 
1 2:1 3:0.00621118 12:1 13:1 16:1 17:1 20:1 21:1 23:1 26:1 92:1 254:1 255:1 258:1 261:1 
1 2:1 3:0.00310559 12:1 13:1 16:1 17:1 20:1 21:1 23:1 26:1 92:1 254:1 255:1 258:1 261:1 
1 2:1 3:0.00310559 12:1 13:1 16:1 17:1 20:1 21:1 23:1 26:1 92:1 254:1 255:1 258:1 261:1 
1 1:1 3:0.431677 12:1 13:1 15:1 18:1 20:1 21:0.5 22:1 26:1 90:1 253:1 255:1 257:1 261:1 
1 1:1 3:0.413043 12:1 13:1 15:1 17:1 19:1 22:1 26:1 90:1 253:1 255:1 257:1 261:1 
1 1:1 3:0.0962733 11:1 14:1 15:1 17:1 20:1 21:0.316228 22:1 26:1 92:1 253:1 256:1 257:1 261:1 
1 1:1 3:0.0217391 11:1 14:1 15:1 17:1 20:1 21:0.316228 22:1 26:1 92:1 253:1 256:1 257:1 261:1 
1 1:1 3:0.0745342 11:1 13:1 15:1 17:1 19:1 22:1 26:1 90:1 253:1 255:1 257:1 261:1 
1 1:1 3:0.0590062 11:1 13:1 15:1 17:1 19:1 22:1 26:1 90:1 253:1 255:1 257:1 261:1 
1 1:1 12:1 14:1 15:1 17:1 20:1 21:0.408248 22:1 26:1 140:1 253:1 255:1 257:1 261:1 
1 1:1 3:0.00310559 4:1 13:1 15:1 17:1 20:1 21:0.75 22:1 26:1 60:1 253:1 255:1 257:1 261:1 
1 1:1 3:0.0248447 9:1 13:1 15:1 17:1 19:1 22:1 26:1 58:1 253:1 256:1 257:1 261:1 
1 1:1 3:0.0248447 9:1 13:1 15:1 17:1 19:1 22:1 26:1 58:1 253:1 255:1 257:1 261:1 
1 1:1 3:0.347826 10:1 13:1 15:1 17:1 19:1 22:1 26:1 31:1 253:1 255:1 257:1 261:1 
1 1:1 3:0.307453 12:1 13:1 16:1 17:1 20:1 21:0.707107 22:1 26:1 31:1 253:1 255:1 257:1 261:1 
1 1:1 3:0.354037 6:1 13:1 15:1 17:1 20:1 21:0.516398 22:1 25:1 120:1 253:1 255:1 257:1 261:1 
1 1:1 3:0.322981 4:1 13:1 15:1 17:1 20:1 21:0.516398 22:1 26:1 120:1 253:1 255:1 257:1 261:1 
1 1:1 3:0.354037 9:1 14:1 15:1 17:1 20:1 21:0.408248 22:1 26:1 120:1 253:1 255:1 257:1 261:1 
1 1:1 3:0.177019 9:1 14:1 15:1 17:1 20:1 21:0.408248 22:1 26:1 128:1 253:1 255:1 257:1 261:1 
0.404233779428145 1:1 3:0.329193 9:1 13:1 15:1 17:1 19:1 22:1 26:1 120:1 253:1 256:1 257:1 261:1 
1 1:1 3:0.319876 9:1 13:1 15:1 17:1 19:1 22:1 26:1 120:1 253:1 256:1 258:1 261:1 
1 1:1 3:0.276398 9:1 13:1 15:1 17:1 19:1 22:1 26:1 121:1 253:1 256:1 258:1 261:1 
1 1:1 3:0.223602 9:1 13:1 15:1 17:1 19:1 22:1 26:1 121:1 253:1 256:1 258:1 261:1 
1 1:1 3:0.00310559 7:1 13:1 15:1 17:1 19:1 22:1 26:1 124:1 253:1 255:1 257:1 261:1 
1 1:1 3:0.214286 12:1 14:1 15:1 17:1 20:1 21:0.333333 22:1 26:1 121:1 253:1 255:1 257:1 261:1 
1 1:1 3:0.242236 4:1 14:1 15:1 17:1 20:1 21:0.333333 22:1 26:1 121:1 253:1 255:1 257:1 261:1 
1 1:1 3:0.257764 12:1 14:1 16:1 17:1 20:1 21:0.816497 22:1 26:1 240:1 254:1 255:1 258:1 260:1 
1 1:1 3:0.177019 12:1 14:1 15:1 17:1 20:1 21:0.333333 22:1 26:1 180:1 253:1 255:1 257:1 261:1 
1 1:1 3:0.0621118 12:1 13:1 16:1 17:1 20:1 21:0.707107 22:1 26:1 181:1 253:1 255:1 257:1 261:1 
1 1:1 3:0.152174 9:1 13:1 15:1 17:1 19:1 22:1 26:1 180:1 253:1 256:1 258:1 261:1 
1 1:1 3:0.108696 9:1 13:1 15:1 17:1 19:1 22:1 26:1 181:1 253:1 256:1 258:1 261:1 
1 1:1 3:0.0559006 9:1 13:1 15:1 17:1 19:1 22:1 26:1 181:1 253:1 256:1 258:1 261:1 
1 1:1 3:0.00310559 12:1 13:1 15:1 17:1 20:1 21:0.5 22:1 26:1 188:1 254:1 255:1 258:1 260:1 
1 1:1 3:0.0310559 6:1 13:1 15:1 17:1 20:1 21:0.333333 22:1 26:1 60:1 253:1 255:1 257:1 261:1 
1 1:1 3:0.00931677 12:1 14:1 15:1 17:1 20:1 21:0.333333 22:1 26:1 28:1 253:1 255:1 257:1 261:1 
0.467547709497501 1:1 3:0.468944 11:1 13:1 15:1 17:1 19:1 22:1 26:1 30:1 253:1 255:1 257:1 261:1 
1 1:1 3:0.298137 12:1 14:1 15:1 17:1 20:1 21:0.288675 22:1 26:1 34:1 253:1 255:1 257:1 259:1 
1 1:1 3:0.273292 11:1 14:1 15:1 17:1 20:1 21:0.353553 22:1 26:1 34:1 253:1 255:1 257:1 259:1 
1 1:1 3:0.195652 12:1 13:1 15:1 17:1 20:1 21:0.288675 22:1 26:1 34:1 253:1 255:1 257:1 260:1 
1 1:1 3:0.189441 12:1 13:1 16:1 17:1 19:1 22:1 26:1 34:1 253:1 255:1 257:1 259:1 
1 1:1 3:0.189441 12:1 13:1 15:1 17:1 20:1 21:0.288675 22:1 26:1 34:1 253:1 255:1 257:1 260:1 
0.8098927307610827 1:1 3:0.47205 11:1 13:1 15:1 17:1 19:1 22:1 26:1 30:1 253:1 255:1 257:1 261:1 
1 1:1 3:0.192547 12:1 14:1 15:1 17:1 20:1 21:0.333333 22:1 26:1 34:1 253:1 255:1 257:1 259:1 
1 1:1 3:0.186335 12:1 13:1 16:1 17:1 20:1 21:0.57735 22:1 26:1 34:1 253:1 255:1 257:1 259:1 
1 1:1 3:0.186335 12:1 14:1 15:1 17:1 20:1 21:0.333333 22:1 26:1 34:1 253:1 255:1 257:1 259:1 
1 1:1 3:0.139752 12:1 13:1 15:1 18:1 19:1 22:1 26:1 34:1 253:1 255:1 257:1 259:1 
1 1:1 3:0.192547 11:1 13:1 15:1 17:1 19:1 22:1 26:1 124:1 253:1 255:1 257:1 261:1 
0.6899952909832532 1:1 3:0.10559 11:1 13:1 15:1 17:1 19:1 22:1 26:1 124:1 253:1 256:1 257:1 261:1 
1 1:1 3:0.369565 4:1 13:1 15:1 17:1 20:1 21:0.5 22:1 26:1 120:1 253:1 255:1 257:1 261:1 
1 1:1 3:0.0403727 4:1 13:1 15:1 17:1 20:1 21:0.5 22:1 26:1 124:1 253:1 255:1 257:1 261:1 
1 1:1 3:0.142857 11:1 13:1 15:1 17:1 19:1 22:1 26:1 124:1 253:1 255:1 257:1 261:1 
1 1:1 3:0.236025 12:1 13:1 15:1 18:1 19:1 22:1 26:1 122:1 253:1 255:1 257:1 259:1 
1 1:1 3:0.152174 12:1 14:1 15:1 17:1 20:1 21:0.408248 22:1 26:1 124:1 253:1 255:1 257:1 259:1 
1 1:1 3:0.127329 11:1 14:1 15:1 17:1 20:1 21:0.5 22:1 26:1 124:1 253:1 255:1 257:1 259:1 
1 1:1 3:0.0496894 12:1 13:1 15:1 17:1 20:1 21:0.408248 22:1 26:1 124:1 253:1 255:1 257:1 260:1 
1 1:1 3:0.0434783 12:1 13:1 16:1 17:1 19:1 22:1 26:1 124:1 253:1 255:1 257:1 259:1 
1 1:1 3:0.0434783 12:1 13:1 15:1 17:1 20:1 21:0.408248 22:1 26:1 124:1 253:1 255:1 257:1 260:1 
0.6138407767513385 1:1 3:0.0217391 12:1 13:1 15:1 18:1 19:1 22:1 26:1 124:1 253:1 255:1 257:1 259:1 
1 1:1 3:0.13354 12:1 13:1 16:1 17:1 19:1 22:1 26:1 124:1 253:1 255:1 257:1 261:1 
1 1:1 3:0.0341615 9:1 14:1 15:1 17:1 20:1 21:0.288675 22:1 26:1 124:1 253:1 255:1 257:1 259:1 
1 1:1 3:0.0279503 9:1 13:1 16:1 17:1 20:1 21:0.5 22:1 26:1 124:1 253:1 255:1 257:1 259:1 
1 1:1 3:0.0279503 9:1 14:1 15:1 17:1 20:1 21:0.288675 22:1 26:1 124:1 253:1 255:1 257:1 259:1 
1 1:1 3:0.0279503 12:1 14:1 15:1 17:1 20:1 21:0.408248 22:1 26:1 124:1 253:1 255:1 257:1 259:1 
1 1:1 3:0.0217391 12:1 13:1 16:1 17:1 20:1 21:0.707107 22:1 26:1 124:1 253:1 255:1 257:1 259:1 
1 1:1 3:0.0217391 12:1 14:1 15:1 17:1 20:1 21:0.408248 22:1 26:1 124:1 253:1 255:1 257:1 259:1 
1 1:1 3:0.111801 12:1 14:1 15:1 17:1 20:1 21:0.333333 22:1 26:1 124:1 253:1 255:1 257:1 259:1 
1 1:1 3:0.0869565 11:1 14:1 15:1 17:1 20:1 21:0.408248 22:1 26:1 124:1 253:1 255:1 257:1 259:1 
1 1:1 3:0.00931677 12:1 13:1 15:1 17:1 20:1 21:0.333333 22:1 26:1 124:1 253:1 255:1 257:1 260:1 
1 1:1 3:0.00310559 12:1 13:1 16:1 17:1 19:1 22:1 26:1 124:1 253:1 255:1 257:1 259:1 
1 1:1 3:0.00310559 12:1 13:1 15:1 17:1 20:1 21:0.333333 22:1 26:1 124:1 253:1 255:1 257:1 260:1 
1 1:1 3:0.28882 8:1 13:1 15:1 17:1 20:1 21:0.5 22:1 26:1 120:1 253:1 255:1 257:1 261:1 
1 1:1 3:0.282609 8:1 13:1 15:1 17:1 20:1 21:0.5 22:1 26:1 120:1 253:1 255:1 257:1 261:1 
1 1:1 3:0.273292 8:1 13:1 15:1 17:1 20:1 21:0.5 22:1 26:1 120:1 253:1 255:1 257:1 261:1 
1 1:1 3:0.267081 8:1 13:1 15:1 17:1 20:1 21:0.5 22:1 26:1 120:1 253:1 255:1 257:1 261:1 
1 1:1 3:0.267081 8:1 13:1 15:1 17:1 20:1 21:0.5 22:1 26:1 120:1 253:1 255:1 257:1 261:1 
1 1:1 3:0.0714286 8:1 13:1 15:1 17:1 20:1 21:0.5 22:1 26:1 124:1 253:1 255:1 257:1 261:1 
1 1:1 9:1 13:1 15:1 17:1 19:1 22:1 26:1 124:1 253:1 255:1 257:1 261:1 
1 1:1 9:1 13:1 15:1 17:1 19:1 22:1 26:1 124:1 253:1 255:1 257:1 261:1 
1 1:1 3:0.285714 8:1 13:1 15:1 17:1 20:1 21:0.408248 22:1 26:1 120:1 253:1 255:1 257:1 261:1 
1 1:1 3:0.279503 8:1 13:1 15:1 17:1 20:1 21:0.408248 22:1 26:1 120:1 253:1 255:1 257:1 261:1 
1 1:1 3:0.270186 8:1 13:1 15:1 17:1 20:1 21:0.408248 22:1 26:1 120:1 253:1 255:1 257:1 261:1 
1 1:1 3:0.263975 8:1 13:1 15:1 17:1 20:1 21:0.408248 22:1 26:1 120:1 253:1 255:1 257:1 261:1 
1 1:1 3:0.0465839 12:1 14:1 15:1 17:1 20:1 21:0.258199 22:1 26:1 124:1 253:1 255:1 257:1 259:1 
1 1:1 3:0.0217391 11:1 14:1 15:1 17:1 20:1 21:0.316228 22:1 26:1 124:1 253:1 255:1 257:1 259:1 
1 1:1 3:0.0962733 12:1 13:1 15:1 17:1 20:1 21:0.288675 22:1 26:1 122:1 253:1 255:1 257:1 260:1 
1 1:1 3:0.217391 8:1 13:1 15:1 17:1 20:1 21:0.5 22:1 26:1 120:1 253:1 255:1 257:1 261:1 
1 1:1 3:0.21118 8:1 13:1 15:1 17:1 20:1 21:0.5 22:1 26:1 120:1 253:1 255:1 257:1 261:1 
1 1:1 3:0.204969 9:1 14:1 15:1 17:1 20:1 21:0.408248 22:1 26:1 120:1 253:1 255:1 257:1 259:1 
1 1:1 3:0.201863 8:1 13:1 15:1 17:1 20:1 21:0.5 22:1 26:1 120:1 253:1 255:1 257:1 261:1 
1 1:1 3:0.195652 8:1 13:1 15:1 17:1 20:1 21:0.5 22:1 26:1 120:1 253:1 255:1 257:1 261:1 
1 1:1 3:0.0776398 9:1 14:1 15:1 17:1 20:1 21:0.408248 22:1 26:1 122:1 253:1 255:1 257:1 259:1 
1 1:1 3:0.0652174 9:1 14:1 15:1 17:1 20:1 21:0.316228 22:1 26:1 122:1 253:1 255:1 257:1 259:1 
1 1:1 3:0.0372671 9:1 14:1 15:1 17:1 20:1 21:0.408248 22:1 26:1 124:1 253:1 255:1 257:1 259:1 
1 1:1 3:0.0372671 9:1 14:1 15:1 17:1 20:1 21:0.408248 22:1 26:1 124:1 253:1 255:1 257:1 259:1 
1 1:1 3:0.00621118 9:1 13:1 15:1 17:1 19:1 22:1 26:1 124:1 253:1 255:1 257:1 260:1 
1 1:1 3:0.0745342 12:1 13:1 16:1 17:1 20:1 21:0.5 22:1 26:1 122:1 253:1 255:1 257:1 259:1 
1 1:1 3:0.015528 12:1 13:1 16:1 17:1 19:1 22:1 26:1 124:1 253:1 255:1 257:1 261:1 
1 1:1 3:0.180124 12:1 14:1 15:1 17:1 20:1 21:0.333333 22:1 26:1 120:1 253:1 255:1 257:1 259:1 
1 1:1 3:0.052795 12:1 14:1 15:1 17:1 20:1 21:0.333333 22:1 26:1 122:1 253:1 255:1 257:1 259:1 
1 1:1 3:0.0403727 12:1 14:1 15:1 17:1 20:1 21:0.258199 22:1 26:1 122:1 253:1 255:1 257:1 259:1 
1 1:1 3:0.0124224 12:1 14:1 15:1 17:1 20:1 21:0.333333 22:1 26:1 124:1 253:1 255:1 257:1 259:1 
1 1:1 3:0.0124224 12:1 14:1 15:1 17:1 20:1 21:0.333333 22:1 26:1 124:1 253:1 255:1 257:1 259:1 
0.440138057796566 1:1 10:1 13:1 15:1 17:1 19:1 22:1 26:1 124:1 253:1 255:1 257:1 261:1 
1 1:1 3:0.0434783 12:1 13:1 16:1 17:1 20:1 21:0.707107 22:1 26:1 91:1 253:1 255:1 257:1 261:1 
1 1:1 3:0.0838509 11:1 13:1 15:1 17:1 19:1 22:1 26:1 90:1 253:1 255:1 257:1 261:1 
1 1:1 3:0.0776398 11:1 13:1 15:1 17:1 19:1 22:1 26:1 90:1 253:1 255:1 257:1 261:1 
1 1:1 3:0.068323 11:1 13:1 15:1 17:1 19:1 22:1 26:1 90:1 253:1 255:1 257:1 261:1 
1 1:1 3:0.0621118 11:1 13:1 15:1 17:1 19:1 22:1 26:1 90:1 253:1 255:1 257:1 261:1 
1 1:1 3:0.052795 12:1 13:1 15:1 17:1 20:1 21:0.5 22:1 26:1 75:1 253:1 255:1 257:1 261:1 
0.7427317850813624 1:1 11:1 13:1 15:1 17:1 19:1 22:1 26:1 60:1 253:1 255:1 257:1 261:1 
1 1:1 11:1 13:1 15:1 17:1 19:1 22:1 26:1 60:1 253:1 255:1 257:1 261:1 
1 1:1 3:0.0217391 8:1 13:1 15:1 17:1 20:1 21:0.5 22:1 26:1 60:1 253:1 255:1 257:1 261:1 
1 1:1 3:0.015528 8:1 13:1 15:1 17:1 20:1 21:0.5 22:1 26:1 60:1 253:1 255:1 257:1 261:1 
1 1:1 3:0.00621118 8:1 13:1 15:1 17:1 20:1 21:0.5 22:1 26:1 60:1 253:1 255:1 257:1 261:1 
1 1:1 8:1 13:1 15:1 17:1 20:1 21:0.5 22:1 26:1 60:1 253:1 255:1 257:1 261:1 
1 1:1 3:0.0217391 8:1 13:1 15:1 17:1 20:1 21:0.5 22:1 26:1 60:1 253:1 255:1 257:1 261:1 
1 1:1 3:0.015528 8:1 13:1 15:1 17:1 20:1 21:0.5 22:1 26:1 60:1 253:1 255:1 257:1 261:1 
1 1:1 3:0.00621118 8:1 13:1 15:1 17:1 20:1 21:0.5 22:1 26:1 60:1 253:1 255:1 257:1 261:1 
1 1:1 3:0.015528 8:1 13:1 15:1 17:1 20:1 21:0.5 22:1 26:1 60:1 253:1 255:1 257:1 261:1 
1 1:1 3:0.00931677 8:1 13:1 15:1 17:1 20:1 21:0.5 22:1 26:1 60:1 253:1 255:1 257:1 261:1 
1 1:1 3:0.00310559 7:1 13:1 15:1 17:1 19:1 22:1 26:1 60:1 253:1 255:1 257:1 261:1 
1 1:1 6:1 13:1 15:1 17:1 19:1 22:1 26:1 60:1 253:1 255:1 257:1 261:1 
1 1:1 3:0.00310559 9:1 13:1 15:1 17:1 19:1 22:1 26:1 60:1 253:1 256:1 258:1 261:1 
1 2:1 3:0.118012 12:1 13:1 16:1 17:1 20:1 21:1 23:1 26:1 199:1 254:1 255:1 258:1 261:1 
1 1:1 3:0.10559 12:1 14:1 15:1 17:1 20:1 21:0.5 22:1 26:1 139:1 253:1 255:1 257:1 261:1 
0.9373190868836999 1:1 3:0.0341615 6:1 13:1 15:1 17:1 19:1 22:1 26:1 139:1 253:1 255:1 257:1 261:1 
1 1:1 3:0.0434783 12:1 13:1 16:1 17:1 20:1 21:0.57735 22:1 26:1 185:1 253:1 256:1 257:1 261:1 
1 1:1 3:0.177019 7:1 13:1 15:1 17:1 19:1 22:1 26:1 121:1 253:1 255:1 257:1 261:1 
1 1:1 3:0.173913 7:1 13:1 15:1 17:1 19:1 22:1 26:1 121:1 253:1 255:1 257:1 261:1 
1 1:1 3:0.232919 9:1 13:1 16:1 17:1 19:1 22:1 26:1 120:1 253:1 255:1 257:1 261:1 
1 1:1 3:0.161491 7:1 13:1 15:1 17:1 19:1 22:1 26:1 121:1 253:1 255:1 257:1 261:1 
1 1:1 3:0.167702 12:1 13:1 16:1 17:1 20:1 21:0.57735 22:1 26:1 121:1 253:1 256:1 257:1 261:1 
1 1:1 3:0.00621118 12:1 14:1 15:1 17:1 20:1 21:0.5 22:1 26:1 76:1 253:1 255:1 257:1 261:1 
1 1:1 11:1 13:1 15:1 17:1 19:1 22:1 26:1 60:1 253:1 255:1 257:1 261:1 
1 1:1 3:0.341615 12:1 14:1 16:1 17:1 20:1 21:0.707107 22:1 26:1 210:1 253:1 255:1 257:1 260:1 
1 1:1 3:0.341615 12:1 14:1 15:1 17:1 20:1 21:0.5 22:1 26:1 210:1 253:1 256:1 257:1 259:1 
1 1:1 3:0.0807453 12:1 13:1 15:1 17:1 20:1 21:0.408248 22:1 26:1 214:1 253:1 255:1 257:1 261:1 
1 1:1 3:0.282609 12:1 14:1 15:1 17:1 20:1 21:0.408248 22:1 26:1 30:1 253:1 255:1 257:1 261:1 
1 1:1 3:0.161491 12:1 14:1 15:1 17:1 20:1 21:0.333333 22:1 26:1 32:1 253:1 255:1 257:1 259:1 
1 1:1 3:0.145963 12:1 13:1 15:1 17:1 20:1 21:0.408248 22:1 26:1 32:1 253:1 255:1 257:1 261:1 
1 1:1 3:0.0559006 12:1 13:1 15:1 17:1 20:1 21:0.408248 22:1 26:1 34:1 253:1 255:1 257:1 261:1 
1 1:1 3:0.204969 9:1 14:1 15:1 17:1 20:1 21:0.353553 22:1 26:1 120:1 253:1 255:1 257:1 261:1 
1 1:1 3:0.0838509 9:1 14:1 15:1 17:1 20:1 21:0.288675 22:1 26:1 122:1 253:1 255:1 257:1 259:1 
1 1:1 3:0.00621118 10:1 13:1 15:1 17:1 19:1 22:1 26:1 122:1 253:1 255:1 257:1 261:1 
1 1:1 3:0.186335 12:1 14:1 15:1 17:1 20:1 21:0.5 22:1 26:1 120:1 253:1 255:1 257:1 261:1 
1 1:1 3:0.0652174 12:1 14:1 15:1 17:1 20:1 21:0.408248 22:1 26:1 122:1 253:1 255:1 257:1 261:1 
1 1:1 3:0.00621118 10:1 13:1 15:1 17:1 19:1 22:1 26:1 122:1 253:1 255:1 257:1 261:1 
1 1:1 3:0.00931677 12:1 14:1 15:1 17:1 20:1 21:0.408248 22:1 26:1 92:1 253:1 255:1 257:1 261:1 
1 1:1 6:1 14:1 15:1 17:1 20:1 21:0.408248 22:1 26:1 92:1 253:1 255:1 257:1 260:1 
1 1:1 3:0.0248447 12:1 14:1 15:1 17:1 20:1 21:0.5 22:1 26:1 92:1 253:1 255:1 257:1 261:1 
1 1:1 3:0.0745342 12:1 14:1 15:1 17:1 20:1 21:0.288675 22:1 26:1 90:1 253:1 255:1 257:1 261:1 
1 1:1 3:0.0403727 12:1 14:1 15:1 17:1 20:1 21:0.5 22:1 26:1 75:1 253:1 255:1 257:1 261:1 
1 1:1 12:1 14:1 15:1 17:1 20:1 21:0.353553 22:1 26:1 60:1 253:1 255:1 257:1 259:1 
1 1:1 3:0.015528 9:1 13:1 15:1 17:1 19:1 22:1 26:1 34:1 253:1 255:1 257:1 261:1 
1 1:1 3:0.0248447 12:1 13:1 16:1 17:1 20:1 21:0.707107 22:1 26:1 122:1 253:1 255:1 257:1 261:1 
1 1:1 10:1 13:1 15:1 17:1 19:1 22:1 26:1 124:1 253:1 255:1 257:1 261:1 
1 2:1 3:0.00310559 4:1 14:1 15:1 17:1 20:1 21:0.333333 23:1 26:1 124:1 254:1 255:1 258:1 259:1 
1 1:1 3:0.0621118 9:1 13:1 15:1 17:1 19:1 22:1 26:1 90:1 253:1 255:1 257:1 261:1 
0.2413502294836623 1:1 3:0.0559006 7:1 13:1 15:1 17:1 19:1 22:1 26:1 91:1 253:1 255:1 257:1 261:1 
1 1:1 4:1 14:1 15:1 17:1 20:1 21:0.67082 22:1 24:1 60:1 253:1 255:1 257:1 260:1 
1 2:1 3:0.0652174 11:1 13:1 16:1 17:1 20:1 21:0.408248 23:1 26:1 27:1 254:1 256:1 258:1 261:1 
1 2:1 3:0.0590062 12:1 13:1 16:1 17:1 20:1 21:1 23:1 26:1 27:1 254:1 256:1 258:1 261:1 
1 2:1 3:0.00621118 11:1 13:1 16:1 17:1 20:1 21:0.408248 23:1 26:1 27:1 254:1 256:1 258:1 261:1 
1 1:1 3:0.068323 8:1 13:1 15:1 17:1 20:1 21:0.333333 22:1 24:1 27:1 253:1 255:1 258:1 261:1 
1 1:1 3:0.0217391 12:1 13:1 16:1 17:1 20:1 21:1 23:1 26:1 27:1 254:1 255:1 258:1 261:1 
1 1:1 3:0.015528 12:1 13:1 16:1 17:1 20:1 21:1 23:1 26:1 27:1 254:1 255:1 258:1 261:1 
1 1:1 3:0.00310559 12:1 13:1 16:1 17:1 20:1 21:1 23:1 26:1 27:1 254:1 255:1 258:1 261:1 
1 2:1 3:0.0186335 9:1 13:1 16:1 17:1 20:1 21:0.447214 23:1 26:1 27:1 254:1 255:1 258:1 261:1 
1 1:1 3:0.015528 8:1 13:1 15:1 17:1 20:1 21:0.182574 22:1 26:1 27:1 253:1 255:1 258:1 261:1 
1 1:1 3:0.00621118 12:1 13:1 16:1 17:1 20:1 21:1 23:1 26:1 27:1 254:1 255:1 258:1 261:1 
1 1:1 3:0.015528 12:1 13:1 16:1 17:1 20:1 21:0.5 22:1 26:1 27:1 253:1 255:1 257:1 261:1 
1 1:1 3:0.0124224 12:1 13:1 15:1 17:1 19:1 22:1 26:1 34:1 253:1 255:1 257:1 261:1 
1 1:1 3:0.0807453 12:1 13:1 16:1 17:1 20:1 21:0.707107 22:1 26:1 124:1 253:1 255:1 257:1 261:1 
1 1:1 3:0.0993789 10:1 13:1 15:1 17:1 20:1 21:0.316228 22:1 26:1 120:1 253:1 255:1 257:1 261:1 
1 1:1 6:1 14:1 15:1 17:1 20:1 21:0.408248 22:1 26:1 188:1 253:1 255:1 257:1 261:1 
1 1:1 3:0.301242 12:1 13:1 15:1 17:1 20:1 21:0.288675 22:1 26:1 212:1 253:1 255:1 257:1 260:1 
1 1:1 12:1 14:1 15:1 17:1 20:1 21:0.5 22:1 26:1 220:1 253:1 256:1 257:1 259:1 
1 1:1 9:1 13:1 15:1 17:1 19:1 22:1 26:1 124:1 253:1 255:1 257:1 261:1 
1 1:1 10:1 13:1 15:1 17:1 19:1 22:1 26:1 124:1 253:1 255:1 257:1 261:1 
1 1:1 12:1 13:1 15:1 17:1 19:1 22:1 26:1 124:1 253:1 255:1 257:1 260:1 
1 1:1 3:0.15528 6:1 14:1 16:1 17:1 20:1 21:0.632456 22:1 26:1 120:1 253:1 255:1 257:1 261:1 
1 1:1 3:0.0652174 8:1 13:1 15:1 17:1 20:1 21:0.447214 22:1 26:1 124:1 253:1 255:1 257:1 261:1 
1 1:1 3:0.0652174 8:1 13:1 15:1 17:1 20:1 21:0.5 22:1 26:1 124:1 253:1 255:1 257:1 261:1 
1 1:1 3:0.198758 12:1 14:1 15:1 17:1 20:1 21:0.5 22:1 26:1 120:1 253:1 255:1 257:1 261:1 
1 1:1 3:0.0403727 12:1 13:1 15:1 17:1 20:1 21:0.5 22:1 26:1 124:1 253:1 255:1 257:1 261:1 
1 1:1 3:0.00931677 12:1 13:1 15:1 17:1 20:1 21:0.408248 22:1 26:1 124:1 253:1 255:1 257:1 261:1 
1 1:1 3:0.242236 12:1 14:1 15:1 17:1 20:1 21:0.333333 22:1 26:1 118:1 253:1 255:1 257:1 261:1 
1 1:1 3:0.0310559 12:1 13:1 15:1 17:1 20:1 21:0.408248 22:1 26:1 124:1 253:1 255:1 257:1 261:1 
1 1:1 3:0.111801 9:1 14:1 15:1 17:1 20:1 21:0.333333 22:1 26:1 120:1 253:1 255:1 257:1 261:1 
1 1:1 3:0.10559 9:1 14:1 15:1 17:1 20:1 21:0.333333 22:1 26:1 120:1 253:1 255:1 257:1 261:1 
1 1:1 3:0.13354 6:1 13:1 15:1 17:1 20:1 21:0.353553 22:1 26:1 120:1 253:1 255:1 257:1 260:1 
1 1:1 3:0.13354 12:1 14:1 15:1 17:1 20:1 21:0.353553 22:1 26:1 120:1 253:1 255:1 257:1 261:1 
1 1:1 3:0.13354 12:1 14:1 15:1 17:1 20:1 21:0.353553 22:1 26:1 120:1 253:1 255:1 257:1 261:1 
1 2:1 3:0.145963 12:1 13:1 16:1 17:1 20:1 21:1 23:1 26:1 120:1 253:1 255:1 257:1 261:1 
1 2:1 3:0.00621118 12:1 13:1 16:1 17:1 20:1 21:1 23:1 26:1 124:1 253:1 255:1 257:1 261:1 
1 2:1 3:0.00310559 12:1 13:1 16:1 17:1 20:1 21:1 23:1 26:1 124:1 253:1 255:1 257:1 261:1 
1 2:1 3:0.142857 12:1 13:1 16:1 17:1 20:1 21:1 23:1 26:1 120:1 253:1 255:1 257:1 261:1 
1 2:1 3:0.00310559 12:1 13:1 16:1 17:1 20:1 21:1 23:1 26:1 124:1 253:1 255:1 257:1 261:1 
1 2:1 3:0.139752 12:1 13:1 16:1 17:1 20:1 21:1 23:1 26:1 120:1 253:1 255:1 257:1 261:1 
1 1:1 8:1 13:1 15:1 17:1 20:1 21:0.447214 22:1 26:1 124:1 253:1 255:1 257:1 261:1 
1 1:1 3:0.114907 9:1 14:1 15:1 17:1 20:1 21:0.258199 22:1 26:1 120:1 253:1 255:1 257:1 261:1 
1 1:1 3:0.0496894 10:1 13:1 15:1 17:1 19:1 22:1 26:1 90:1 253:1 255:1 257:1 261:1 
1 1:1 3:0.00621118 12:1 14:1 15:1 17:1 20:1 21:0.333333 22:1 26:1 60:1 253:1 255:1 257:1 261:1 
1 1:1 3:0.10559 12:1 13:1 15:1 17:1 20:1 21:0.516398 22:1 26:1 58:1 253:1 255:1 257:1 259:1 
1 1:1 12:1 14:1 15:1 17:1 20:1 21:0.25 22:1 26:1 60:1 253:1 255:1 257:1 261:1 
1 1:1 3:0.0714286 12:1 13:1 15:1 17:1 20:1 21:0.333333 22:1 26:1 58:1 253:1 255:1 257:1 260:1 
1 1:1 3:0.428571 12:1 13:1 16:1 17:1 20:1 21:0.707107 22:1 26:1 211:1 253:1 255:1 257:1 261:1 
1 1:1 3:0.301242 12:1 13:1 16:1 17:1 19:1 22:1 26:1 121:1 253:1 255:1 257:1 261:1 
1 2:1 3:0.270186 12:1 13:1 16:1 17:1 20:1 21:1 23:1 26:1 121:1 254:1 255:1 257:1 261:1 
1 1:1 3:0.242236 10:1 14:1 15:1 17:1 20:1 21:0.790569 22:1 26:1 90:1 253:1 255:1 257:1 260:1 
1 1:1 3:0.242236 12:1 13:1 16:1 17:1 20:1 21:0.632456 22:1 26:1 90:1 253:1 255:1 257:1 261:1 
1 1:1 3:0.0652174 12:1 13:1 16:1 17:1 20:1 21:0.5 22:1 26:1 90:1 253:1 255:1 257:1 261:1 
1 1:1 3:0.00310559 12:1 13:1 16:1 17:1 19:1 22:1 26:1 76:1 253:1 255:1 257:1 261:1 
1 1:1 12:1 14:1 15:1 17:1 20:1 21:0.67082 22:1 26:1 60:1 253:1 255:1 257:1 261:1 
1 1:1 3:0.102484 12:1 13:1 16:1 17:1 20:1 21:0.57735 22:1 26:1 34:1 253:1 255:1 257:1 261:1 
1 1:1 3:0.00310559 12:1 14:1 16:1 18:1 20:1 21:1 23:1 26:1 140:1 253:1 255:1 257:1 260:1 
1 2:1 3:0.0434783 12:1 13:1 16:1 17:1 20:1 21:1 23:1 26:1 122:1 254:1 255:1 258:1 261:1 
1 1:1 3:0.0372671 12:1 14:1 15:1 17:1 20:1 21:0.408248 22:1 26:1 91:1 253:1 255:1 257:1 259:1 
1 1:1 3:0.0372671 12:1 14:1 15:1 17:1 20:1 21:0.288675 22:1 26:1 91:1 253:1 255:1 257:1 259:1 
1 1:1 3:0.0434783 10:1 13:1 15:1 17:1 19:1 22:1 26:1 90:1 253:1 255:1 257:1 261:1 
1 1:1 3:0.0372671 10:1 13:1 15:1 17:1 19:1 22:1 26:1 90:1 253:1 255:1 257:1 261:1 
1 1:1 3:0.0372671 10:1 13:1 15:1 17:1 19:1 22:1 26:1 90:1 253:1 255:1 257:1 261:1 
1 1:1 3:0.0279503 10:1 13:1 15:1 17:1 19:1 22:1 26:1 90:1 253:1 255:1 257:1 261:1 
1 1:1 12:1 14:1 15:1 17:1 20:1 21:0.353553 22:1 26:1 76:1 253:1 255:1 257:1 259:1 
1 1:1 3:0.00621118 12:1 13:1 15:1 17:1 20:1 21:0.666667 22:1 26:1 188:1 253:1 255:1 257:1 261:1 
1 2:1 3:0.00621118 12:1 14:1 15:1 17:1 20:1 21:0.474342 23:1 26:1 108:1 254:1 255:1 258:1 261:1 
1 1:1 3:0.161491 12:1 13:1 15:1 17:1 19:1 22:1 26:1 211:1 253:1 256:1 258:1 261:1 
0.702990405507956 1:1 3:0.0186335 10:1 13:1 15:1 17:1 20:1 21:0.408248 22:1 26:1 220:1 253:1 255:1 257:1 259:1 
1 2:1 3:0.145963 12:1 13:1 16:1 17:1 20:1 21:1 23:1 26:1 211:1 254:1 255:1 258:1 261:1 
0.02973516164540135 1:1 3:0.0745342 10:1 13:1 15:1 17:1 19:1 22:1 26:1 214:1 253:1 255:1 257:1 261:1 
1 1:1 3:0.0714286 10:1 13:1 15:1 17:1 19:1 22:1 26:1 214:1 253:1 255:1 257:1 261:1 
1 1:1 3:0.00310559 10:1 13:1 16:1 17:1 20:1 21:0.408248 22:1 26:1 220:1 253:1 255:1 257:1 261:1 
1 2:1 3:0.145963 9:1 13:1 16:1 17:1 20:1 21:0.707107 23:1 26:1 211:1 254:1 255:1 258:1 261:1 
0.4405137628953637 1:1 3:0.0807453 9:1 13:1 15:1 17:1 19:1 22:1 26:1 214:1 253:1 255:1 257:1 261:1 
0.9454659790993049 1:1 3:0.0776398 9:1 13:1 15:1 17:1 19:1 22:1 26:1 214:1 253:1 255:1 257:1 261:1 
1 1:1 3:0.0745342 7:1 13:1 15:1 17:1 19:1 22:1 26:1 214:1 253:1 255:1 257:1 261:1 
1 1:1 3:0.102484 12:1 13:1 16:1 17:1 19:1 22:1 26:1 32:1 253:1 255:1 257:1 261:1 
1 1:1 3:0.0962733 12:1 13:1 16:1 17:1 19:1 22:1 26:1 32:1 253:1 255:1 257:1 261:1 
1 1:1 3:0.0931677 12:1 13:1 16:1 17:1 19:1 22:1 26:1 32:1 253:1 255:1 257:1 261:1 
1 1:1 3:0.0621118 12:1 13:1 16:1 17:1 20:1 21:0.57735 22:1 26:1 121:1 253:1 255:1 257:1 261:1 
1 1:1 3:0.0341615 12:1 13:1 16:1 17:1 19:1 22:1 26:1 122:1 253:1 255:1 257:1 261:1 
1 1:1 3:0.0434783 12:1 13:1 16:1 17:1 19:1 22:1 26:1 122:1 253:1 255:1 257:1 261:1 
1 1:1 3:0.0372671 12:1 13:1 16:1 17:1 19:1 22:1 26:1 122:1 253:1 255:1 257:1 261:1 
0.4223538575165396 1:1 3:0.0248447 11:1 13:1 15:1 17:1 19:1 22:1 26:1 178:1 253:1 255:1 257:1 261:1 
1 1:1 3:0.0590062 9:1 13:1 15:1 17:1 19:1 22:1 26:1 34:1 253:1 255:1 257:1 261:1 
1 1:1 3:0.0465839 9:1 13:1 15:1 17:1 19:1 22:1 26:1 34:1 253:1 255:1 257:1 261:1 
1 1:1 3:0.0465839 9:1 13:1 15:1 17:1 19:1 22:1 26:1 34:1 253:1 255:1 257:1 261:1 
1 1:1 3:0.0434783 9:1 13:1 15:1 17:1 19:1 22:1 26:1 34:1 253:1 255:1 257:1 261:1 
1 1:1 3:0.0403727 9:1 13:1 15:1 17:1 19:1 22:1 26:1 34:1 253:1 255:1 257:1 261:1 
1 1:1 3:0.0310559 9:1 13:1 15:1 17:1 19:1 22:1 26:1 34:1 253:1 255:1 257:1 261:1 
1 1:1 3:0.0403727 10:1 13:1 15:1 17:1 20:1 21:0.25 22:1 26:1 34:1 253:1 255:1 257:1 260:1 
0.7818009048251529 1:1 3:0.127329 10:1 13:1 15:1 17:1 19:1 22:1 26:1 30:1 253:1 255:1 257:1 261:1 
1 1:1 3:0.108696 10:1 13:1 15:1 17:1 19:1 22:1 26:1 30:1 253:1 255:1 257:1 261:1 
1 1:1 3:0.102484 11:1 13:1 15:1 17:1 19:1 22:1 26:1 30:1 253:1 255:1 257:1 261:1 
1 1:1 3:0.0962733 10:1 13:1 15:1 17:1 19:1 22:1 26:1 30:1 253:1 255:1 257:1 261:1 
1 1:1 3:0.0931677 11:1 13:1 15:1 17:1 19:1 22:1 26:1 30:1 253:1 255:1 257:1 261:1 
1 1:1 3:0.0869565 10:1 13:1 15:1 17:1 19:1 22:1 26:1 30:1 253:1 255:1 257:1 261:1 
1 1:1 3:0.0838509 10:1 13:1 15:1 17:1 19:1 22:1 26:1 30:1 253:1 255:1 257:1 261:1 
1 1:1 3:0.0838509 10:1 13:1 15:1 17:1 19:1 22:1 26:1 30:1 253:1 255:1 257:1 261:1 
1 1:1 3:0.068323 11:1 13:1 15:1 17:1 20:1 21:0.288675 22:1 26:1 34:1 253:1 255:1 257:1 261:1 
1 1:1 3:0.00621118 7:1 13:1 15:1 17:1 20:1 21:0.288675 22:1 26:1 124:1 253:1 255:1 257:1 260:1 
1 1:1 3:0.0496894 12:1 13:1 15:1 17:1 20:1 21:0.353553 22:1 26:1 120:1 253:1 255:1 257:1 260:1 
1 1:1 3:0.164596 12:1 13:1 16:1 17:1 20:1 21:0.57735 22:1 26:1 180:1 253:1 255:1 257:1 261:1 
1 1:1 3:0.0559006 12:1 13:1 15:1 17:1 20:1 21:0.408248 22:1 26:1 91:1 253:1 255:1 257:1 260:1 
1 1:1 3:0.0590062 10:1 13:1 15:1 17:1 20:1 21:0.316228 22:1 26:1 90:1 253:1 255:1 257:1 261:1 
1 1:1 3:0.0217391 12:1 14:1 15:1 17:1 20:1 21:0.408248 22:1 26:1 181:1 253:1 255:1 257:1 259:1 
1 2:1 3:0.0403727 12:1 13:1 16:1 17:1 20:1 21:1 23:1 26:1 199:1 254:1 256:1 258:1 261:1 
1 1:1 3:0.00310559 12:1 13:1 16:1 17:1 20:1 21:0.707107 22:1 26:1 204:1 253:1 255:1 258:1 261:1 
0.06563793127893264 1:1 3:0.0403727 9:1 13:1 15:1 17:1 19:1 22:1 26:1 199:1 253:1 255:1 257:1 261:1 
1 1:1 3:0.0217391 11:1 13:1 15:1 17:1 19:1 22:1 26:1 199:1 253:1 255:1 257:1 261:1 
1 1:1 12:1 13:1 16:1 17:1 20:1 21:0.707107 22:1 26:1 204:1 253:1 256:1 257:1 261:1 
1 1:1 3:0.0434783 12:1 13:1 16:1 17:1 20:1 21:0.5 22:1 26:1 199:1 253:1 255:1 257:1 261:1 
1 1:1 3:0.0621118 12:1 13:1 15:1 17:1 19:1 22:1 26:1 124:1 253:1 255:1 257:1 260:1 
1 1:1 3:0.00931677 4:1 13:1 15:1 17:1 20:1 21:0.223607 22:1 26:1 124:1 253:1 255:1 257:1 260:1 
1 1:1 3:0.00931677 10:1 13:1 15:1 17:1 20:1 21:0.316228 22:1 26:1 124:1 253:1 255:1 257:1 260:1 
1 1:1 3:0.267081 9:1 14:1 15:1 17:1 20:1 21:0.258199 22:1 26:1 120:1 253:1 255:1 257:1 259:1 
1 1:1 3:0.208075 9:1 14:1 15:1 17:1 20:1 21:0.258199 22:1 26:1 121:1 253:1 255:1 257:1 259:1 
1 1:1 3:0.0279503 9:1 13:1 15:1 17:1 19:1 22:1 26:1 124:1 253:1 256:1 257:1 260:1 
1 1:1 3:0.0217391 12:1 13:1 15:1 17:1 19:1 22:1 26:1 124:1 253:1 255:1 257:1 260:1 
0.5743628238864084 1:1 6:1 14:1 15:1 17:1 20:1 21:0.223607 22:1 24:1 108:1 253:1 255:1 257:1 259:1 
1 1:1 3:0.145963 12:1 13:1 15:1 17:1 20:1 21:0.408248 22:1 25:1 106:1 253:1 255:1 257:1 261:1 
1 1:1 3:0.0279503 12:1 14:1 15:1 17:1 20:1 21:0.288675 22:1 26:1 76:1 253:1 255:1 257:1 259:1 
1 1:1 3:0.0310559 12:1 14:1 15:1 17:1 20:1 21:0.288675 22:1 26:1 75:1 253:1 255:1 257:1 259:1 
1 1:1 12:1 14:1 15:1 17:1 20:1 21:0.5 22:1 26:1 60:1 253:1 256:1 257:1 259:1 
1 1:1 3:0.00310559 12:1 13:1 16:1 17:1 20:1 21:0.447214 22:1 26:1 60:1 253:1 255:1 257:1 261:1 
1 1:1 3:0.204969 12:1 14:1 15:1 17:1 20:1 21:0.5 22:1 26:1 34:1 253:1 255:1 257:1 261:1 
1 1:1 3:0.0869565 12:1 14:1 15:1 17:1 20:1 21:0.5 22:1 26:1 124:1 253:1 255:1 257:1 261:1 
1 1:1 3:0.0434783 12:1 14:1 15:1 17:1 20:1 21:0.408248 22:1 26:1 124:1 253:1 255:1 257:1 261:1 
1 1:1 3:0.0993789 12:1 13:1 16:1 17:1 20:1 21:0.707107 22:1 26:1 27:1 253:1 255:1 257:1 261:1 
1 1:1 3:0.00310559 6:1 14:1 15:1 17:1 20:1 21:0.408248 22:1 26:1 27:1 253:1 255:1 257:1 261:1 
1 1:1 3:0.052795 12:1 13:1 15:1 17:1 20:1 21:0.408248 22:1 26:1 124:1 253:1 255:1 257:1 261:1 
1 1:1 3:0.0248447 12:1 13:1 16:1 17:1 20:1 21:1 23:1 26:1 76:1 253:1 255:1 257:1 261:1 
1 1:1 3:0.00931677 12:1 14:1 15:1 17:1 20:1 21:0.288675 22:1 26:1 28:1 253:1 255:1 257:1 259:1 
1 1:1 3:0.0186335 10:1 13:1 15:1 17:1 19:1 22:1 26:1 34:1 253:1 255:1 257:1 261:1 
1 1:1 3:0.0124224 12:1 13:1 15:1 17:1 19:1 22:1 26:1 34:1 253:1 255:1 257:1 261:1 
1 1:1 3:0.0279503 12:1 13:1 16:1 17:1 19:1 22:1 26:1 34:1 253:1 255:1 257:1 261:1 
1 1:1 3:0.015528 10:1 13:1 15:1 17:1 19:1 22:1 26:1 34:1 253:1 255:1 257:1 261:1 
1 1:1 3:0.307453 12:1 14:1 16:1 17:1 20:1 21:0.707107 22:1 26:1 30:1 253:1 255:1 257:1 261:1 
1 1:1 3:0.015528 10:1 13:1 15:1 17:1 19:1 22:1 26:1 34:1 253:1 255:1 257:1 261:1 
1 1:1 3:0.279503 12:1 13:1 16:1 17:1 19:1 22:1 26:1 120:1 253:1 255:1 257:1 261:1 
1 2:1 3:0.279503 12:1 13:1 15:1 17:1 19:1 22:1 26:1 120:1 253:1 256:1 258:1 261:1 
1 1:1 3:0.052795 12:1 13:1 16:1 17:1 19:1 22:1 26:1 123:1 253:1 255:1 257:1 261:1 
1 1:1 3:0.0434783 10:1 13:1 16:1 17:1 19:1 22:1 26:1 124:1 253:1 255:1 257:1 261:1 
1 1:1 3:0.0559006 10:1 14:1 15:1 17:1 20:1 21:0.235702 22:1 26:1 123:1 253:1 255:1 257:1 261:1 
1 1:1 10:1 14:1 15:1 17:1 20:1 21:0.235702 22:1 26:1 124:1 253:1 255:1 257:1 261:1 
1 2:1 3:0.26087 12:1 14:1 16:1 18:1 20:1 21:1 23:1 26:1 120:1 253:1 255:1 257:1 260:1 
1 1:1 3:0.267081 12:1 14:1 15:1 17:1 20:1 21:0.333333 22:1 26:1 120:1 253:1 255:1 257:1 259:1 
1 1:1 3:0.00931677 6:1 13:1 15:1 17:1 20:1 21:0.353553 22:1 26:1 124:1 253:1 255:1 257:1 261:1 
1 1:1 3:0.00310559 9:1 13:1 15:1 17:1 20:1 21:0.408248 22:1 26:1 124:1 253:1 255:1 257:1 261:1 
1 1:1 3:0.0434783 8:1 14:1 15:1 17:1 20:1 21:0.771517 22:1 26:1 121:1 253:1 255:1 257:1 259:1 
0.434339299440138 1:1 3:0.0186335 6:1 13:1 15:1 17:1 19:1 22:1 26:1 121:1 253:1 255:1 257:1 261:1 
1 1:1 3:0.0124224 12:1 13:1 15:1 17:1 19:1 22:1 26:1 121:1 253:1 255:1 257:1 261:1 
1 1:1 3:0.0124224 12:1 13:1 15:1 17:1 19:1 22:1 26:1 121:1 253:1 255:1 257:1 261:1 
1 1:1 3:0.0124224 12:1 13:1 15:1 17:1 19:1 22:1 26:1 121:1 253:1 255:1 257:1 261:1 
1 1:1 3:0.015528 12:1 13:1 15:1 17:1 19:1 22:1 26:1 121:1 253:1 255:1 257:1 261:1 
1 1:1 3:0.015528 12:1 13:1 15:1 17:1 19:1 22:1 26:1 121:1 253:1 255:1 257:1 261:1 
0.06675059081834685 1:1 3:0.00621118 11:1 13:1 15:1 17:1 19:1 22:1 26:1 121:1 253:1 255:1 257:1 261:1 
0.07679228628638882 1:1 3:0.0186335 12:1 13:1 15:1 17:1 19:1 22:1 26:1 121:1 253:1 255:1 257:1 261:1 
1 1:1 3:0.00621118 11:1 13:1 15:1 17:1 19:1 22:1 26:1 121:1 253:1 255:1 257:1 261:1 
1 1:1 3:0.108696 12:1 14:1 15:1 17:1 20:1 21:0.408248 22:1 26:1 76:1 253:1 255:1 257:1 261:1 
1 1:1 3:0.173913 11:1 14:1 15:1 17:1 20:1 21:0.288675 22:1 26:1 36:1 253:1 255:1 257:1 261:1 
1 1:1 3:0.173913 10:1 14:1 15:1 17:1 20:1 21:0.408248 22:1 26:1 36:1 253:1 255:1 257:1 261:1 
1 1:1 3:0.00931677 11:1 13:1 15:1 17:1 20:1 21:0.333333 22:1 26:1 156:1 253:1 255:1 257:1 261:1 
0.6233940833686269 1:1 9:1 13:1 15:1 17:1 19:1 22:1 26:1 156:1 253:1 255:1 257:1 261:1 
1 1:1 3:0.00621118 12:1 14:1 15:1 17:1 20:1 21:0.408248 22:1 26:1 156:1 253:1 255:1 257:1 259:1 
1 1:1 3:0.0403727 12:1 13:1 15:1 18:1 19:1 22:1 26:1 156:1 253:1 255:1 257:1 261:1 
1 1:1 3:0.00621118 6:1 13:1 15:1 17:1 20:1 21:0.408248 22:1 26:1 156:1 253:1 255:1 257:1 261:1 
1 1:1 5:1 14:1 15:1 17:1 20:1 21:0.235702 22:1 26:1 156:1 253:1 255:1 257:1 261:1 
1 2:1 3:0.357143 12:1 13:1 16:1 17:1 20:1 21:1 23:1 26:1 128:1 254:1 255:1 258:1 261:1 
1 1:1 3:0.0465839 4:1 13:1 15:1 17:1 20:1 21:0.5 22:1 26:1 124:1 253:1 255:1 257:1 261:1 
1 1:1 9:1 13:1 15:1 17:1 19:1 22:1 26:1 124:1 253:1 255:1 257:1 261:1 
1 1:1 9:1 13:1 15:1 17:1 19:1 22:1 26:1 124:1 253:1 255:1 257:1 261:1 
1 1:1 3:0.0962733 12:1 13:1 15:1 17:1 20:1 21:0.408248 22:1 26:1 124:1 253:1 255:1 257:1 261:1 
1 1:1 12:1 13:1 15:1 17:1 20:1 21:0.5 22:1 26:1 124:1 253:1 255:1 257:1 261:1 
1 1:1 12:1 13:1 15:1 17:1 20:1 21:0.5 22:1 26:1 124:1 253:1 255:1 257:1 261:1 
1 1:1 3:0.118012 12:1 14:1 16:1 17:1 20:1 21:0.707107 22:1 26:1 118:1 253:1 255:1 257:1 261:1 
1 1:1 12:1 13:1 15:1 17:1 20:1 21:0.5 22:1 26:1 124:1 253:1 255:1 257:1 261:1 
1 1:1 3:0.0279503 12:1 14:1 16:1 18:1 20:1 21:1 23:1 26:1 188:1 253:1 255:1 257:1 261:1 
1 1:1 3:0.0776398 6:1 14:1 15:1 17:1 20:1 21:0.288675 22:1 26:1 121:1 253:1 255:1 257:1 259:1 
1 1:1 3:0.0186335 12:1 13:1 15:1 17:1 19:1 22:1 26:1 178:1 253:1 255:1 258:1 261:1 
1 1:1 3:0.21118 12:1 13:1 15:1 17:1 19:1 22:1 26:1 30:1 253:1 255:1 258:1 261:1 
1 1:1 3:0.0186335 12:1 13:1 15:1 17:1 19:1 22:1 26:1 34:1 253:1 255:1 258:1 261:1 
1 2:1 3:0.195652 12:1 13:1 16:1 17:1 20:1 21:1 23:1 26:1 120:1 254:1 255:1 258:1 261:1 
1 1:1 12:1 13:1 15:1 17:1 20:1 21:0.408248 22:1 26:1 124:1 253:1 255:1 257:1 260:1 
1 1:1 3:0.0807453 12:1 13:1 16:1 17:1 20:1 21:0.57735 22:1 26:1 122:1 253:1 256:1 257:1 261:1 
1 1:1 3:0.015528 9:1 13:1 15:1 17:1 19:1 22:1 26:1 124:1 253:1 256:1 257:1 261:1 
1 1:1 3:0.00621118 7:1 13:1 15:1 17:1 19:1 22:1 26:1 124:1 253:1 255:1 257:1 261:1 
1 1:1 3:0.00621118 7:1 13:1 15:1 17:1 19:1 22:1 26:1 124:1 253:1 255:1 257:1 261:1 
1 1:1 3:0.00621118 7:1 13:1 15:1 17:1 19:1 22:1 26:1 124:1 253:1 255:1 257:1 261:1 
1 1:1 4:1 13:1 15:1 17:1 20:1 21:0.6 22:1 26:1 124:1 253:1 255:1 257:1 259:1 
1 1:1 3:0.149068 12:1 13:1 16:1 17:1 19:1 22:1 26:1 120:1 253:1 255:1 257:1 261:1 
1 1:1 3:0.13354 12:1 13:1 16:1 17:1 19:1 22:1 26:1 120:1 253:1 255:1 257:1 261:1 
1 2:1 3:0.10559 10:1 13:1 16:1 17:1 20:1 21:0.707107 23:1 26:1 126:1 254:1 255:1 258:1 261:1 
1 1:1 3:0.0590062 12:1 13:1 16:1 17:1 19:1 22:1 26:1 122:1 253:1 255:1 257:1 261:1 
1 1:1 3:0.0372671 12:1 13:1 16:1 17:1 19:1 22:1 26:1 122:1 253:1 255:1 257:1 261:1 
1 1:1 3:0.130435 12:1 13:1 15:1 17:1 19:1 22:1 26:1 120:1 253:1 255:1 258:1 261:1 
1 2:1 3:0.15528 9:1 14:1 16:1 17:1 20:1 21:0.866025 23:1 26:1 120:1 254:1 255:1 258:1 260:1 
1 1:1 3:0.108696 12:1 13:1 16:1 17:1 20:1 21:0.57735 22:1 26:1 90:1 253:1 255:1 257:1 261:1 
1 1:1 3:0.0807453 4:1 14:1 15:1 17:1 20:1 21:0.707107 22:1 26:1 96:1 253:1 255:1 257:1 261:1 
1 1:1 3:0.10559 12:1 13:1 15:1 17:1 19:1 22:1 26:1 90:1 253:1 255:1 258:1 261:1 
1 1:1 3:0.0217391 12:1 13:1 16:1 17:1 20:1 21:0.57735 22:1 26:1 92:1 253:1 255:1 257:1 261:1 
1 1:1 3:0.0217391 12:1 13:1 16:1 17:1 20:1 21:0.707107 22:1 26:1 92:1 253:1 255:1 257:1 261:1 
1 1:1 3:0.0217391 12:1 13:1 16:1 17:1 20:1 21:0.707107 22:1 26:1 92:1 253:1 255:1 257:1 261:1 
1 1:1 3:0.00621118 12:1 13:1 15:1 17:1 19:1 22:1 26:1 75:1 253:1 255:1 258:1 261:1 
1 1:1 3:0.263975 9:1 13:1 16:1 17:1 20:1 21:0.57735 22:1 26:1 120:1 253:1 255:1 258:1 261:1 
1 1:1 3:0.124224 9:1 13:1 16:1 17:1 20:1 21:0.57735 22:1 26:1 122:1 253:1 255:1 258:1 261:1 
1 2:1 3:0.257764 9:1 13:1 16:1 17:1 20:1 21:0.707107 23:1 26:1 120:1 254:1 256:1 258:1 261:1 
1 1:1 3:0.152174 9:1 13:1 15:1 17:1 19:1 22:1 26:1 122:1 253:1 255:1 258:1 261:1 
1 2:1 3:0.118012 9:1 13:1 16:1 17:1 20:1 21:0.707107 23:1 26:1 122:1 254:1 256:1 258:1 261:1 
1 1:1 3:0.279503 8:1 14:1 15:1 17:1 20:1 21:0.547723 22:1 24:1 120:1 253:1 255:1 257:1 261:1 
1 1:1 3:0.254658 12:1 13:1 16:1 17:1 20:1 21:0.707107 22:1 26:1 120:1 253:1 255:1 258:1 261:1 
1 1:1 3:0.114907 12:1 13:1 16:1 17:1 20:1 21:0.707107 22:1 26:1 122:1 253:1 255:1 258:1 261:1 
1 1:1 3:0.0279503 12:1 13:1 15:1 17:1 20:1 21:0.5 22:1 26:1 124:1 253:1 255:1 257:1 261:1 
1 2:1 3:0.00621118 12:1 13:1 16:1 17:1 20:1 21:1 23:1 26:1 124:1 254:1 255:1 258:1 260:1 
1 1:1 3:0.00621118 7:1 13:1 15:1 17:1 19:1 22:1 26:1 124:1 253:1 255:1 257:1 260:1 
1 1:1 3:0.0590062 4:1 13:1 15:1 17:1 20:1 21:0.333333 22:1 26:1 123:1 253:1 255:1 257:1 260:1 
1 1:1 3:0.217391 9:1 13:1 16:1 17:1 20:1 21:0.447214 22:1 26:1 120:1 253:1 255:1 257:1 261:1 
1 1:1 3:0.0776398 9:1 13:1 16:1 17:1 20:1 21:0.447214 22:1 26:1 122:1 253:1 255:1 257:1 261:1 
1 1:1 3:0.204969 12:1 13:1 16:1 17:1 20:1 21:0.408248 22:1 26:1 120:1 253:1 255:1 257:1 261:1 
1 1:1 3:0.0652174 12:1 13:1 16:1 17:1 20:1 21:0.408248 22:1 26:1 122:1 253:1 255:1 257:1 261:1 
1 1:1 3:0.201863 9:1 13:1 16:1 17:1 20:1 21:0.57735 22:1 26:1 120:1 253:1 255:1 258:1 261:1 
1 1:1 3:0.0621118 9:1 13:1 16:1 17:1 20:1 21:0.57735 22:1 26:1 122:1 253:1 255:1 258:1 261:1 
1 1:1 3:0.00621118 9:1 13:1 15:1 17:1 19:1 22:1 26:1 124:1 253:1 256:1 257:1 261:1 
1 2:1 3:0.139752 12:1 13:1 16:1 17:1 20:1 21:1 23:1 26:1 90:1 254:1 256:1 258:1 261:1 
1 1:1 3:0.254658 12:1 14:1 16:1 17:1 20:1 21:0.816497 22:1 26:1 180:1 253:1 255:1 257:1 260:1 
1 1:1 3:0.220497 11:1 14:1 15:1 17:1 20:1 21:0.5 22:1 26:1 180:1 253:1 256:1 257:1 261:1 
1 2:1 3:0.139752 12:1 14:1 16:1 18:1 20:1 21:1 23:1 26:1 184:1 254:1 255:1 258:1 260:1 
1 1:1 3:0.0124224 11:1 13:1 15:1 17:1 20:1 21:0.408248 22:1 26:1 184:1 253:1 255:1 257:1 260:1 
1 1:1 3:0.242236 9:1 13:1 15:1 17:1 20:1 21:0.333333 22:1 26:1 120:1 253:1 255:1 257:1 260:1 
1 1:1 3:0.208075 8:1 13:1 15:1 17:1 20:1 21:0.408248 22:1 26:1 120:1 253:1 255:1 257:1 261:1 
1 1:1 3:0.127329 9:1 13:1 15:1 17:1 20:1 21:0.408248 22:1 26:1 124:1 253:1 255:1 257:1 260:1 
1 1:1 3:0.00621118 12:1 14:1 15:1 17:1 20:1 21:0.333333 22:1 26:1 124:1 253:1 255:1 257:1 261:1 
1 1:1 3:0.00310559 12:1 13:1 15:1 17:1 20:1 21:0.408248 22:1 26:1 124:1 253:1 255:1 257:1 260:1 
1 1:1 3:0.152174 10:1 14:1 15:1 17:1 20:1 21:0.408248 22:1 26:1 120:1 253:1 255:1 257:1 261:1 
1 1:1 3:0.114907 12:1 14:1 16:1 17:1 20:1 21:0.816497 22:1 26:1 120:1 253:1 255:1 257:1 260:1 
1 1:1 3:0.0807453 11:1 14:1 15:1 17:1 20:1 21:0.5 22:1 26:1 120:1 253:1 256:1 257:1 261:1 
1 2:1 9:1 14:1 15:1 17:1 20:1 21:0.5 23:1 26:1 124:1 254:1 255:1 258:1 261:1 
1 1:1 12:1 13:1 15:1 17:1 20:1 21:0.5 22:1 26:1 124:1 253:1 255:1 257:1 261:1 
0.7072300365404649 1:1 3:0.00931677 11:1 13:1 15:1 17:1 19:1 22:1 26:1 75:1 253:1 256:1 257:1 261:1 
1 1:1 3:0.0341615 9:1 14:1 15:1 17:1 20:1 21:0.408248 22:1 26:1 60:1 253:1 255:1 257:1 261:1 
1 1:1 3:0.0621118 12:1 14:1 15:1 17:1 20:1 21:0.408248 22:1 26:1 118:1 253:1 255:1 257:1 261:1 
1 1:1 3:0.00310559 12:1 13:1 15:1 17:1 20:1 21:0.408248 22:1 26:1 124:1 253:1 255:1 257:1 261:1 
1 1:1 3:0.0279503 8:1 14:1 15:1 17:1 20:1 21:0.102598 22:1 26:1 120:1 253:1 255:1 257:1 259:1 
1 1:1 3:0.0124224 8:1 14:1 15:1 17:1 20:1 21:0.223607 22:1 26:1 120:1 253:1 256:1 257:1 259:1 
1 1:1 3:0.015528 8:1 14:1 15:1 17:1 20:1 21:0.344124 22:1 26:1 60:1 253:1 255:1 257:1 259:1 
1 1:1 3:0.0372671 12:1 13:1 15:1 17:1 20:1 21:0.408248 22:1 26:1 58:1 253:1 255:1 257:1 261:1 
1 1:1 3:0.0248447 9:1 13:1 15:1 17:1 19:1 22:1 26:1 58:1 253:1 255:1 257:1 261:1 
1 1:1 3:0.0217391 9:1 13:1 15:1 17:1 19:1 22:1 26:1 58:1 253:1 255:1 257:1 261:1 
1 1:1 3:0.0186335 9:1 13:1 15:1 17:1 19:1 22:1 26:1 58:1 253:1 255:1 257:1 261:1 
1 1:1 3:0.015528 9:1 13:1 15:1 17:1 19:1 22:1 26:1 58:1 253:1 255:1 257:1 261:1 
1 1:1 3:0.0124224 9:1 13:1 15:1 17:1 19:1 22:1 26:1 58:1 253:1 255:1 257:1 261:1 
1 1:1 3:0.0248447 12:1 14:1 15:1 17:1 20:1 21:0.353553 22:1 26:1 120:1 253:1 255:1 257:1 260:1 
1 1:1 3:0.00621118 12:1 13:1 16:1 17:1 20:1 21:0.707107 22:1 26:1 124:1 253:1 255:1 257:1 260:1 
1 1:1 3:0.0217391 12:1 13:1 15:1 17:1 20:1 21:0.408248 22:1 26:1 120:1 253:1 255:1 257:1 259:1 
1 1:1 3:0.0186335 12:1 13:1 15:1 17:1 19:1 22:1 26:1 120:1 253:1 255:1 257:1 260:1 
1 1:1 3:0.015528 12:1 13:1 15:1 17:1 19:1 22:1 26:1 120:1 253:1 255:1 257:1 260:1 
1 1:1 3:0.0124224 12:1 13:1 15:1 17:1 19:1 22:1 26:1 120:1 253:1 255:1 257:1 261:1 
1 1:1 3:0.00931677 12:1 13:1 15:1 17:1 19:1 22:1 26:1 120:1 253:1 256:1 258:1 261:1 
1 1:1 3:0.0124224 12:1 13:1 15:1 17:1 19:1 22:1 26:1 120:1 253:1 255:1 257:1 261:1 
1 1:1 3:0.00931677 12:1 13:1 15:1 17:1 19:1 22:1 26:1 120:1 253:1 255:1 257:1 261:1 
1 1:1 3:0.015528 12:1 13:1 15:1 17:1 19:1 22:1 26:1 120:1 253:1 255:1 257:1 261:1 
1 1:1 3:0.0124224 12:1 13:1 15:1 17:1 19:1 22:1 26:1 120:1 253:1 255:1 257:1 261:1 
1 1:1 3:0.00931677 12:1 13:1 15:1 17:1 19:1 22:1 26:1 120:1 253:1 255:1 257:1 261:1 
1 1:1 3:0.015528 12:1 13:1 15:1 17:1 19:1 22:1 26:1 120:1 253:1 255:1 257:1 261:1 
1 1:1 3:0.015528 12:1 13:1 15:1 17:1 19:1 22:1 26:1 120:1 253:1 255:1 257:1 261:1 
1 1:1 3:0.015528 12:1 13:1 15:1 17:1 19:1 22:1 26:1 120:1 253:1 255:1 257:1 261:1 
0.5316753708996558 1:1 3:0.015528 12:1 13:1 15:1 17:1 19:1 22:1 26:1 120:1 253:1 255:1 257:1 261:1 
1 1:1 3:0.0124224 12:1 13:1 15:1 17:1 19:1 22:1 26:1 120:1 253:1 255:1 257:1 261:1 
1 1:1 3:0.0124224 12:1 13:1 15:1 17:1 19:1 22:1 26:1 120:1 253:1 255:1 257:1 261:1 
1 1:1 3:0.0124224 12:1 13:1 15:1 17:1 19:1 22:1 26:1 120:1 253:1 255:1 257:1 261:1 
1 1:1 3:0.0124224 12:1 13:1 15:1 17:1 19:1 22:1 26:1 120:1 253:1 255:1 257:1 261:1 
1 1:1 3:0.0124224 12:1 13:1 15:1 17:1 19:1 22:1 26:1 120:1 253:1 255:1 257:1 261:1 
1 1:1 3:0.0124224 12:1 13:1 15:1 17:1 19:1 22:1 26:1 120:1 253:1 255:1 257:1 261:1 
1 1:1 3:0.0124224 12:1 13:1 15:1 17:1 19:1 22:1 26:1 120:1 253:1 255:1 257:1 261:1 
1 1:1 3:0.0124224 12:1 13:1 15:1 17:1 19:1 22:1 26:1 120:1 253:1 255:1 257:1 261:1 
1 1:1 3:0.00931677 12:1 13:1 15:1 17:1 19:1 22:1 26:1 120:1 253:1 255:1 257:1 261:1 
1 1:1 3:0.00621118 12:1 13:1 15:1 17:1 19:1 22:1 26:1 120:1 253:1 255:1 257:1 261:1 
1 1:1 3:0.015528 12:1 13:1 15:1 17:1 19:1 22:1 26:1 60:1 253:1 256:1 258:1 261:1 
1 1:1 3:0.0124224 12:1 13:1 15:1 17:1 19:1 22:1 26:1 60:1 253:1 256:1 258:1 261:1 
1 1:1 3:0.0279503 12:1 14:1 15:1 17:1 20:1 21:0.353553 22:1 26:1 60:1 253:1 255:1 257:1 259:1 
1 1:1 3:0.0279503 12:1 13:1 15:1 17:1 20:1 21:0.353553 22:1 26:1 60:1 253:1 255:1 257:1 260:1 
1 1:1 3:0.00931677 12:1 13:1 15:1 17:1 19:1 22:1 26:1 60:1 253:1 255:1 257:1 260:1 
1 1:1 3:0.00310559 12:1 13:1 15:1 17:1 20:1 21:0.288675 22:1 26:1 60:1 253:1 255:1 257:1 260:1 
1 1:1 12:1 13:1 15:1 17:1 20:1 21:0.5 22:1 25:1 60:1 253:1 255:1 257:1 259:1 
1 1:1 12:1 14:1 15:1 17:1 20:1 21:0.408248 22:1 26:1 60:1 253:1 255:1 257:1 261:1 
1 1:1 3:0.00621118 12:1 13:1 15:1 17:1 20:1 21:0.408248 22:1 26:1 60:1 253:1 256:1 257:1 260:1 
1 1:1 12:1 14:1 15:1 18:1 20:1 21:0.5 22:1 26:1 60:1 253:1 256:1 257:1 259:1 
1 1:1 12:1 13:1 15:1 17:1 20:1 21:0.5 22:1 26:1 60:1 253:1 255:1 257:1 260:1 
1 1:1 3:0.381988 12:1 13:1 16:1 17:1 20:1 21:0.707107 22:1 26:1 217:1 253:1 255:1 257:1 261:1 
1 2:1 3:0.245342 12:1 13:1 16:1 17:1 20:1 21:1 23:1 26:1 212:1 254:1 256:1 258:1 261:1 
1 1:1 3:0.0962733 12:1 13:1 15:1 17:1 20:1 21:0.408248 22:1 26:1 199:1 253:1 255:1 257:1 261:1 
1 1:1 3:0.329193 12:1 13:1 16:1 17:1 19:1 22:1 26:1 196:1 253:1 255:1 257:1 261:1 
1 1:1 3:0.0962733 12:1 13:1 15:1 17:1 20:1 21:0.408248 22:1 26:1 199:1 253:1 255:1 257:1 261:1 
1 1:1 3:0.068323 12:1 14:1 15:1 17:1 20:1 21:0.5 22:1 26:1 199:1 253:1 255:1 257:1 261:1 
1 1:1 3:0.198758 12:1 14:1 15:1 17:1 20:1 21:0.333333 22:1 26:1 32:1 253:1 255:1 257:1 259:1 
1 1:1 3:0.319876 12:1 13:1 16:1 17:1 19:1 22:1 26:1 31:1 253:1 255:1 257:1 261:1 
1 1:1 3:0.052795 12:1 13:1 15:1 18:1 20:1 21:0.5 22:1 26:1 34:1 253:1 255:1 257:1 261:1 
1 1:1 3:0.180124 10:1 14:1 15:1 17:1 20:1 21:0.133631 22:1 24:1 32:1 253:1 255:1 257:1 259:1 
1 1:1 3:0.00310559 11:1 14:1 15:1 17:1 20:1 21:0.333333 22:1 26:1 124:1 253:1 255:1 257:1 261:1 
1 1:1 3:0.267081 12:1 14:1 15:1 17:1 20:1 21:0.5 22:1 26:1 121:1 253:1 255:1 257:1 261:1 
1 1:1 3:0.263975 12:1 14:1 15:1 17:1 20:1 21:0.408248 22:1 26:1 121:1 253:1 255:1 257:1 261:1 
1 1:1 3:0.226708 12:1 13:1 16:1 17:1 20:1 21:0.707107 22:1 26:1 121:1 253:1 255:1 257:1 261:1 
1 1:1 3:0.223602 9:1 13:1 16:1 17:1 19:1 22:1 26:1 121:1 253:1 255:1 257:1 261:1 
1 1:1 3:0.0403727 9:1 14:1 15:1 17:1 20:1 21:0.408248 22:1 26:1 124:1 253:1 255:1 257:1 261:1 
1 1:1 3:0.142857 12:1 13:1 16:1 17:1 20:1 21:0.816497 22:1 26:1 122:1 253:1 255:1 257:1 261:1 
1 1:1 12:1 13:1 15:1 17:1 20:1 21:0.408248 22:1 26:1 124:1 253:1 255:1 257:1 261:1 
1 1:1 3:0.232919 12:1 13:1 16:1 17:1 19:1 22:1 26:1 121:1 253:1 255:1 257:1 261:1 
0.222232123144014 1:1 3:0.00310559 5:1 13:1 15:1 17:1 19:1 22:1 26:1 124:1 253:1 255:1 257:1 261:1 
1 1:1 8:1 13:1 15:1 17:1 20:1 21:0.471405 22:1 26:1 124:1 253:1 255:1 257:1 261:1 
1 1:1 3:0.00310559 9:1 13:1 15:1 17:1 19:1 22:1 26:1 124:1 253:1 256:1 257:1 261:1 
1 1:1 3:0.214286 12:1 13:1 16:1 17:1 20:1 21:0.707107 22:1 26:1 121:1 253:1 255:1 257:1 261:1 
1 1:1 3:0.0807453 11:1 13:1 16:1 17:1 20:1 21:0.377964 22:1 26:1 122:1 253:1 255:1 257:1 261:1 
1 1:1 3:0.0776398 10:1 13:1 16:1 17:1 19:1 22:1 26:1 122:1 253:1 255:1 257:1 261:1 
1 1:1 3:0.130435 12:1 13:1 15:1 17:1 20:1 21:0.447214 22:1 25:1 122:1 253:1 255:1 257:1 261:1 
1 1:1 3:0.111801 12:1 13:1 16:1 17:1 20:1 21:0.5 22:1 26:1 122:1 253:1 255:1 257:1 261:1 
1 1:1 3:0.0310559 12:1 14:1 15:1 17:1 20:1 21:0.316228 22:1 26:1 122:1 253:1 255:1 257:1 261:1 
1 1:1 3:0.0621118 11:1 14:1 15:1 17:1 20:1 21:0.188982 22:1 24:1 122:1 253:1 255:1 257:1 259:1 
1 1:1 3:0.189441 12:1 13:1 16:1 17:1 19:1 22:1 26:1 121:1 253:1 255:1 257:1 261:1 
1 1:1 3:0.0465839 12:1 13:1 15:1 17:1 20:1 21:0.288675 22:1 26:1 122:1 253:1 255:1 257:1 260:1 
1 1:1 3:0.139752 6:1 14:1 15:1 17:1 20:1 21:0.218218 22:1 26:1 91:1 253:1 255:1 257:1 260:1 
1 2:1 3:0.00310559 5:1 13:1 15:1 17:1 20:1 21:0.571429 23:1 25:1 92:1 254:1 255:1 258:1 259:1 
1 1:1 3:0.136646 12:1 13:1 16:1 17:1 20:1 21:0.707107 22:1 26:1 97:1 253:1 255:1 257:1 261:1 
1 1:1 3:0.0403727 12:1 13:1 16:1 17:1 20:1 21:0.707107 22:1 26:1 76:1 253:1 256:1 257:1 261:1 
1 1:1 3:0.0372671 12:1 13:1 16:1 17:1 20:1 21:0.57735 22:1 26:1 76:1 253:1 255:1 257:1 261:1 
1 1:1 3:0.00310559 12:1 13:1 16:1 17:1 19:1 22:1 26:1 76:1 253:1 255:1 257:1 261:1 
1 1:1 3:0.00310559 12:1 14:1 15:1 17:1 20:1 21:0.408248 22:1 26:1 76:1 253:1 255:1 257:1 261:1 
1 1:1 3:0.130435 10:1 14:1 15:1 17:1 20:1 21:0.547723 22:1 26:1 45:1 253:1 255:1 257:1 260:1 
1 1:1 3:0.111801 11:1 13:1 15:1 17:1 20:1 21:0.26968 22:1 26:1 45:1 253:1 255:1 257:1 260:1 
0.9425834815283552 1:1 3:0.111801 11:1 13:1 15:1 17:1 20:1 21:0.348155 22:1 26:1 45:1 253:1 255:1 257:1 259:1 
1 1:1 3:0.00621118 12:1 13:1 15:1 17:1 20:1 21:0.162221 22:1 26:1 43:1 253:1 255:1 257:1 260:1 
1 1:1 3:0.0279503 12:1 13:1 16:1 17:1 20:1 21:0.707107 22:1 26:1 60:1 253:1 255:1 257:1 261:1 
1 1:1 3:0.068323 12:1 14:1 15:1 17:1 20:1 21:0.5 22:1 26:1 60:1 253:1 255:1 257:1 261:1 
1 1:1 3:0.0279503 12:1 14:1 16:1 18:1 20:1 21:1 23:1 26:1 60:1 253:1 255:1 257:1 261:1 
1 1:1 3:0.00621118 9:1 14:1 15:1 17:1 20:1 21:0.408248 22:1 26:1 60:1 253:1 255:1 257:1 261:1 
1 1:1 3:0.0217391 12:1 13:1 15:1 17:1 20:1 21:0.408248 22:1 26:1 60:1 253:1 255:1 257:1 261:1 
1 1:1 3:0.0434783 10:1 13:1 15:1 17:1 20:1 21:0.223607 22:1 26:1 60:1 253:1 255:1 257:1 260:1 
1 1:1 3:0.0372671 12:1 13:1 15:1 17:1 20:1 21:0.258199 22:1 26:1 60:1 253:1 255:1 257:1 260:1 
1 1:1 3:0.0403727 12:1 14:1 15:1 17:1 20:1 21:0.5 22:1 26:1 60:1 253:1 255:1 257:1 261:1 
1 1:1 3:0.0124224 9:1 14:1 15:1 17:1 20:1 21:0.288675 22:1 26:1 60:1 253:1 255:1 257:1 259:1 
1 1:1 3:0.102484 6:1 14:1 15:1 17:1 20:1 21:0.223607 22:1 26:1 58:1 253:1 255:1 257:1 261:1 
1 1:1 3:0.00931677 4:1 13:1 15:1 17:1 20:1 21:0.447214 22:1 26:1 60:1 253:1 255:1 257:1 261:1 
1 1:1 3:0.00931677 4:1 13:1 15:1 17:1 20:1 21:0.447214 22:1 26:1 60:1 253:1 255:1 257:1 261:1 
1 1:1 3:0.00621118 10:1 13:1 15:1 17:1 20:1 21:0.288675 22:1 26:1 60:1 253:1 255:1 257:1 260:1 
1 2:1 4:1 14:1 16:1 18:1 20:1 21:1 23:1 26:1 60:1 254:1 255:1 258:1 261:1 
1 1:1 3:0.068323 12:1 13:1 15:1 17:1 20:1 21:0.408248 22:1 26:1 60:1 253:1 255:1 257:1 261:1 
1 1:1 3:0.0621118 9:1 13:1 15:1 17:1 19:1 22:1 26:1 58:1 253:1 255:1 257:1 261:1 
1 1:1 3:0.0186335 8:1 13:1 15:1 17:1 20:1 21:0.223607 22:1 26:1 60:1 253:1 256:1 258:1 259:1 
1 1:1 3:0.015528 9:1 13:1 15:1 17:1 20:1 21:0.353553 22:1 26:1 60:1 253:1 255:1 257:1 261:1 
1 1:1 3:0.00931677 9:1 13:1 15:1 17:1 20:1 21:0.353553 22:1 26:1 60:1 253:1 255:1 257:1 261:1 
1 1:1 3:0.0559006 9:1 13:1 15:1 17:1 19:1 22:1 26:1 58:1 253:1 255:1 257:1 261:1 
1 1:1 3:0.00931677 7:1 13:1 15:1 17:1 20:1 21:0.471405 22:1 25:1 60:1 253:1 255:1 257:1 259:1 
1 1:1 4:1 14:1 15:1 17:1 20:1 21:0.645497 22:1 26:1 60:1 253:1 255:1 257:1 260:1 
1 1:1 6:1 13:1 15:1 17:1 19:1 22:1 26:1 60:1 253:1 255:1 257:1 261:1 
1 1:1 3:0.0496894 6:1 14:1 15:1 17:1 20:1 21:0.547723 22:1 26:1 58:1 253:1 255:1 257:1 260:1 
1 1:1 3:0.338509 12:1 13:1 15:1 17:1 20:1 21:0.57735 22:1 26:1 210:1 253:1 255:1 257:1 260:1 
1 1:1 3:0.310559 12:1 13:1 15:1 17:1 20:1 21:0.5 22:1 26:1 210:1 253:1 255:1 257:1 260:1 
1 1:1 3:0.145963 6:1 14:1 15:1 17:1 20:1 21:0.516398 22:1 26:1 212:1 253:1 255:1 257:1 260:1 
1 1:1 3:0.142857 6:1 14:1 15:1 17:1 20:1 21:0.408248 22:1 26:1 212:1 253:1 255:1 257:1 260:1 
1 1:1 3:0.158385 6:1 13:1 15:1 17:1 20:1 21:0.333333 22:1 26:1 212:1 253:1 255:1 257:1 260:1 
1 1:1 3:0.136646 6:1 13:1 15:1 17:1 19:1 22:1 26:1 212:1 254:1 255:1 258:1 261:1 
0.4971712279152228 1:1 3:0.068323 6:1 13:1 15:1 17:1 19:1 22:1 26:1 214:1 253:1 255:1 257:1 261:1 
1 1:1 3:0.068323 6:1 13:1 15:1 17:1 19:1 22:1 26:1 214:1 253:1 255:1 257:1 261:1 
1 1:1 3:0.0590062 6:1 13:1 15:1 17:1 19:1 22:1 26:1 214:1 253:1 255:1 257:1 261:1 
1 1:1 3:0.0559006 6:1 13:1 15:1 17:1 19:1 22:1 26:1 214:1 253:1 255:1 257:1 261:1 
1 1:1 3:0.118012 12:1 13:1 15:1 17:1 20:1 21:0.447214 22:1 26:1 32:1 253:1 255:1 257:1 260:1 
1 1:1 3:0.114907 12:1 13:1 15:1 17:1 20:1 21:0.353553 22:1 26:1 32:1 253:1 255:1 257:1 260:1 
1 1:1 3:0.142857 12:1 13:1 15:1 17:1 20:1 21:0.408248 22:1 26:1 32:1 253:1 255:1 257:1 260:1 
1 1:1 3:0.121118 12:1 13:1 15:1 17:1 19:1 22:1 26:1 32:1 254:1 255:1 258:1 261:1 
1 1:1 3:0.0807453 12:1 14:1 16:1 17:1 20:1 21:0.632456 22:1 26:1 122:1 253:1 255:1 257:1 260:1 
1 1:1 3:0.0776398 12:1 14:1 15:1 17:1 20:1 21:0.5 22:1 26:1 122:1 253:1 255:1 257:1 260:1 
1 1:1 3:0.204969 10:1 13:1 15:1 17:1 20:1 21:0.5 22:1 26:1 120:1 253:1 255:1 257:1 260:1 
1 1:1 10:1 13:1 15:1 17:1 19:1 22:1 26:1 124:1 253:1 255:1 257:1 261:1 
1 1:1 3:0.10559 12:1 13:1 16:1 17:1 19:1 22:1 26:1 122:1 253:1 255:1 257:1 261:1 
1 1:1 3:0.0838509 12:1 13:1 16:1 17:1 19:1 22:1 26:1 122:1 253:1 255:1 257:1 261:1 
1 1:1 3:0.0807453 12:1 13:1 16:1 17:1 19:1 22:1 26:1 122:1 253:1 255:1 257:1 261:1 
1 1:1 3:0.0776398 12:1 13:1 16:1 17:1 19:1 22:1 26:1 122:1 253:1 255:1 257:1 261:1 
1 1:1 3:0.0776398 12:1 13:1 16:1 17:1 19:1 22:1 26:1 122:1 253:1 255:1 257:1 261:1 
1 1:1 3:0.0559006 12:1 13:1 15:1 17:1 19:1 22:1 26:1 122:1 253:1 256:1 258:1 261:1 
1 1:1 3:0.0496894 11:1 13:1 16:1 17:1 19:1 22:1 26:1 122:1 253:1 255:1 257:1 261:1 
