solver_type L2R_L2LOSS_SVC
nr_class 2
label 1 0
nr_feature 253
bias -1
w
0.1866393453376301 
-0.1169440570573944 
0.03292964817540599 
-0.02365604426156147 
-0.2786687814448297 
0.3483640697251154 
-0.256307781549678 
0.3260030698298309 
-0.1166035415736108 
0.1862988298538574 
-0.06822264630302374 
0.1379179345838906 
0.9184220574286142 
0.1644901026810873 
-0.09479481440085297 
-0.08745493618552813 
0.1754803357862857 
-0.01833011132065393 
0.1783180857159237 
-0.2791842575518824 
0 
0.02995375502598864 
-0.01381905359320225 
-0.0400982495346373 
-0.0605895460340742 
-0.01276687536591138 
-0.00303718713953616 
-0.0263521227152535 
0.03499148857353827 
-0.04889364488456707 
-0.001501747286906431 
0.000197655308073244 
0 
-0.008166810861801852 
-0.005358449082752559 
0.001826196984340852 
-0.01808187145832915 
0 
0 
0 
0.0002142215490823917 
0 
0 
0 
-0.0003504767481769668 
0 
0 
0 
0 
0.1240373059408884 
-0.01430596215884165 
0.0977190703119287 
0 
0 
0 
0 
0 
0.01148549350808449 
0.1714815296014897 
0 
0 
0 
0 
0 
0.01882077168176797 
-0.0079421641760976 
-0.001161663766034517 
-0.03323436031277783 
0 
0 
0 
0 
-0.002363822027751156 
0.008046980301438956 
-0.02169928872904383 
0 
0 
0 
0 
0.0470979934480727 
0 
0.07171424016236221 
-0.01805765629936089 
-0.03856066719609935 
0 
0.01016329883763331 
0 
0.003806282651215946 
0.02236801726186441 
-0.0008278738637758009 
0 
0 
0 
0 
0.09250154047348984 
-0.0008146733092239001 
-0.01111097972137095 
-0.05260584368925053 
-0.1672237186408218 
0.03287219666728643 
0 
0 
-0.03034094551518302 
0 
0.0009174650013680546 
0 
0 
0 
0 
0.09733851712412718 
0.04650169692151451 
0.002197920369294425 
-0.02347862363996984 
-0.03728484327540878 
0.002448236650176537 
0.002979158056083325 
0 
-0.03089383497080715 
0.1189770526386939 
-0.1547473106274396 
0 
0 
0 
-0.01427160457224768 
0.029745589215404 
0 
0.01319591102635692 
-0.01031640105233298 
-0.05330425006396495 
-0.0006802125144664498 
-0.04267751276994521 
-0.002862929661722023 
-0.0003360186160781424 
0 
0.01182894132660717 
0 
0 
0 
0 
0.01018596663517664 
0 
-0.01595348251525791 
0.02227664120037233 
0 
0 
0 
0 
-0.006792618544540271 
0 
-0.00139351907249409 
0 
0 
0 
0 
-0.0009257983643392321 
0 
0 
0 
0 
0 
0 
0 
0 
0 
0 
0 
0 
0 
0 
-0.005739091322418617 
-0.000904619163034045 
0.05715296008877743 
-0.03851397273066808 
-0.0320919731290746 
0 
-0.001212762211892236 
0 
-0.00673047710320261 
0.008499315996221954 
-0.01887131159736268 
-0.0003751484331857327 
0.002640964945364503 
0 
0 
0.01751835630991765 
0.009985622371883579 
0.02609696340748653 
-0.01582877902233303 
0.00165536093240498 
-0.04230245760797887 
0.003217975286279686 
-0.007342981218601572 
0 
0.008889475856495145 
-0.004842795019319335 
-0.03926455235174701 
0 
0 
0 
0.0520098255078583 
0 
0.07975682240605699 
-0.05965427230793731 
0.02530337539944834 
-0.01844435572718688 
0.05872038624100622 
0 
0 
0.03032017942854483 
-0.01802196147064413 
-0.003784752129686812 
0.05516088902719371 
0 
0 
-0.02065142899083526 
0 
-0.004293506900354903 
-0.002405322946851275 
-0.003170857558034397 
0 
-0.07485144949653776 
0 
0.02029808603318994 
0 
-0.0006308478547876653 
0 
0.02043002658033576 
-0.0006889646954092221 
0 
0 
0 
0.006827676810504618 
-0.0005386885812800888 
0.005128300173368522 
-0.0001838572355280874 
0 
0 
-0.000177434961451763 
0 
-0.0001782519466855131 
0 
0 
0 
-6.074905276842987e-005 
-0.1010512434687977 
0.1707465317489788 
0.005847706454297281 
0.06384758182571533 
-0.3279817750914933 
0.3976770633711256 
-0.2967514356986711 
0.4957343440185635 
-0.1292876200396262 
