svm_type c_svc
kernel_type rbf
gamma 0.0263158
nr_class 2
total_sv 1763
rho 1.01743
label 0 1
probA -4.32714
probB -0.121401
nr_sv 887 876
SV
1 1:1 6:1 8:0.140351 9:1 11:1 13:1 16:1 17:1 19:1 21:1 24:1 26:1 30:1 31:1 33:1 35:1 37:1 
1 1:1 4:0.0057971 5:0.0017301 7:1 9:1 11:1 13:1 15:1 17:1 19:1 22:1 24:1 26:1 30:1 31:1 33:1 35:1 37:1 
1 1:1 4:0.0057971 5:0.0017301 6:1 8:0.105263 9:1 11:1 13:1 15:1 17:1 19:1 21:1 24:1 26:1 30:1 31:1 33:1 35:1 37:1 
1 1:1 4:0.00869565 5:0.00346021 6:1 8:0.0877193 9:1 11:1 13:1 15:1 17:1 19:1 21:1 24:1 26:1 29:1 31:1 33:1 35:1 37:1 
1 1:1 4:0.185507 5:0.140138 6:1 8:0.0701754 9:1 11:1 13:1 15:1 17:1 20:1 21:1 24:1 26:1 29:1 31:1 33:1 36:1 37:1 
1 1:1 6:1 8:0.157895 10:1 11:1 13:1 15:1 17:1 19:1 21:1 24:1 26:1 30:1 31:1 33:1 35:1 37:1 
1 1:1 4:0.00289855 5:0.0017301 6:1 8:0.0877193 9:1 11:1 13:1 15:1 17:1 19:1 21:1 24:1 26:1 30:1 31:1 33:1 35:1 37:1 
1 1:1 4:0.00289855 6:1 8:0.0350877 9:1 11:1 13:1 15:1 17:1 19:1 21:1 24:1 26:1 30:1 31:1 33:1 35:1 37:1 
1 1:1 4:0.0057971 6:1 8:0.105263 9:1 11:1 13:1 15:1 17:1 19:1 21:1 24:1 26:1 30:1 31:1 33:1 35:1 37:1 
1 1:1 6:1 8:0.0526316 9:1 11:1 13:1 15:1 17:1 19:1 21:1 25:1 26:1 28:1 31:1 33:1 35:1 37:1 
1 1:1 6:1 8:0.0350877 9:1 11:1 13:1 15:1 17:1 19:1 21:1 24:1 26:1 28:1 31:1 33:1 35:1 37:1 
1 1:1 6:1 8:0.0175439 9:1 11:1 13:1 15:1 17:1 19:1 21:1 24:1 26:1 28:1 31:1 33:1 35:1 37:1 
1 1:1 5:0.0017301 6:1 8:0.0175439 9:1 11:1 13:1 15:1 17:1 19:1 21:1 24:1 26:1 28:1 31:1 33:1 35:1 37:1 
1 1:1 6:1 8:0.0701754 9:1 11:1 13:1 15:1 17:1 19:1 21:1 24:1 26:1 30:1 31:1 33:1 35:1 37:1 
1 1:1 4:0.00289855 5:0.00519031 6:1 8:0.0350877 9:1 11:1 13:1 15:1 17:1 19:1 21:1 25:1 26:1 30:1 31:1 33:1 35:1 37:1 
1 1:1 4:0.00289855 5:0.00692042 6:1 8:0.0350877 9:1 11:1 13:1 15:1 17:1 19:1 21:1 24:1 26:1 30:1 31:1 33:1 35:1 37:1 
1 1:1 4:0.0057971 5:0.0138408 6:1 8:0.0350877 9:1 11:1 13:1 15:1 17:1 19:1 21:1 24:1 26:1 30:1 31:1 33:1 35:1 37:1 
1 1:1 4:0.0376812 5:0.121107 7:1 9:1 11:1 13:1 15:1 17:1 19:1 21:1 24:1 26:1 30:1 31:1 33:1 35:1 37:1 
1 1:1 6:1 8:0.0526316 9:1 11:1 13:1 15:1 17:1 19:1 21:1 25:1 26:1 30:1 31:1 33:1 35:1 37:1 
1 1:1 6:1 8:0.105263 9:1 11:1 13:1 15:1 17:1 19:1 21:1 24:1 26:1 30:1 31:1 33:1 35:1 37:1 
1 1:1 5:0.0017301 6:1 8:0.105263 9:1 11:1 13:1 15:1 17:1 19:1 21:1 24:1 26:1 30:1 31:1 33:1 35:1 37:1 
1 1:1 6:1 8:0.0701754 9:1 11:1 13:1 15:1 17:1 19:1 21:1 24:1 26:1 29:1 31:1 33:1 36:1 37:1 
1 1:1 5:0.00519031 6:1 8:0.0701754 9:1 11:1 13:1 15:1 17:1 19:1 21:1 24:1 26:1 29:1 31:1 33:1 36:1 37:1 
1 1:1 4:0.00289855 5:0.0155709 6:1 8:0.0701754 9:1 11:1 13:1 15:1 17:1 19:1 21:1 24:1 26:1 29:1 31:1 33:1 36:1 37:1 
1 1:1 6:1 8:0.157895 10:1 11:1 13:1 15:1 17:1 19:1 21:1 24:1 26:1 30:1 31:1 33:1 35:1 37:1 
1 1:1 6:1 8:0.508772 10:1 11:1 13:1 15:1 17:1 19:1 21:1 25:1 26:1 30:1 31:1 33:1 35:1 37:1 
1 1:1 4:0.00289855 5:0.0017301 6:1 8:0.105263 9:1 11:1 13:1 15:1 17:1 19:1 21:1 24:1 26:1 30:1 31:1 33:1 35:1 37:1 
1 1:1 4:0.00289855 6:1 8:0.105263 9:1 11:1 13:1 15:1 17:1 19:1 21:1 24:1 26:1 30:1 31:1 33:1 35:1 37:1 
1 1:1 4:0.00289855 5:0.0017301 6:1 8:0.105263 9:1 11:1 13:1 15:1 17:1 19:1 21:1 24:1 26:1 30:1 31:1 33:1 35:1 37:1 
1 1:1 4:0.00289855 5:0.0017301 6:1 8:0.0701754 9:1 11:1 13:1 15:1 17:1 19:1 21:1 24:1 26:1 29:1 31:1 33:1 35:1 37:1 
1 1:1 4:0.0057971 5:0.00346021 6:1 8:0.0877193 9:1 11:1 13:1 15:1 17:1 19:1 21:1 24:1 26:1 30:1 31:1 33:1 35:1 37:1 
1 1:1 4:0.00289855 6:1 8:0.0350877 9:1 11:1 13:1 15:1 17:1 19:1 21:1 24:1 26:1 28:1 31:1 33:1 35:1 37:1 
1 1:1 4:0.0057971 5:0.0017301 6:1 8:0.105263 9:1 11:1 13:1 15:1 17:1 19:1 21:1 24:1 26:1 30:1 31:1 33:1 35:1 37:1 
1 1:1 6:1 8:0.192982 10:1 11:1 13:1 15:1 17:1 19:1 21:1 24:1 26:1 30:1 31:1 33:1 35:1 37:1 
1 1:1 4:0.00289855 5:0.00346021 6:1 8:0.0701754 9:1 11:1 13:1 15:1 17:1 19:1 21:1 25:1 26:1 30:1 31:1 33:1 35:1 37:1 
1 1:1 4:0.0144928 5:0.00346021 6:1 8:0.0350877 9:1 11:1 13:1 15:1 17:1 19:1 21:1 25:1 26:1 30:1 31:1 33:1 35:1 37:1 
1 1:1 4:0.0115942 5:0.00346021 6:1 8:0.0701754 9:1 11:1 13:1 15:1 17:1 19:1 21:1 24:1 26:1 30:1 31:1 33:1 35:1 37:1 
1 1:1 4:0.00289855 5:0.0017301 6:1 8:0.122807 9:1 11:1 13:1 15:1 17:1 19:1 21:1 25:1 26:1 29:1 31:1 33:1 35:1 37:1 
1 1:1 6:1 8:0.105263 9:1 11:1 13:1 15:1 17:1 19:1 21:1 24:1 26:1 30:1 31:1 33:1 35:1 37:1 
1 1:1 6:1 8:0.596491 9:1 11:1 13:1 15:1 17:1 19:1 21:1 24:1 26:1 28:1 31:1 33:1 35:1 37:1 
1 1:1 6:1 8:0.0526316 9:1 11:1 13:1 15:1 17:1 19:1 21:1 24:1 26:1 30:1 31:1 33:1 35:1 37:1 
1 1:1 4:0.00289855 6:1 8:0.0701754 9:1 11:1 13:1 15:1 17:1 19:1 21:1 25:1 26:1 30:1 31:1 33:1 35:1 37:1 
1 1:1 5:0.0017301 6:1 8:0.105263 9:1 11:1 13:1 15:1 17:1 19:1 21:1 24:1 26:1 29:1 31:1 33:1 36:1 37:1 
1 1:1 6:1 8:0.0701754 9:1 11:1 13:1 15:1 17:1 19:1 21:1 24:1 26:1 29:1 31:1 33:1 36:1 37:1 
1 1:1 4:0.00289855 5:0.0103806 7:1 9:1 11:1 13:1 15:1 17:1 19:1 21:1 24:1 26:1 30:1 31:1 33:1 35:1 37:1 
1 1:1 4:0.0115942 5:0.0207612 7:1 9:1 11:1 13:1 15:1 17:1 19:1 21:1 24:1 26:1 30:1 31:1 33:1 35:1 37:1 
1 1:1 4:0.0202899 5:0.050173 7:1 9:1 11:1 13:1 15:1 17:1 19:1 21:1 24:1 26:1 30:1 31:1 33:1 35:1 37:1 
1 1:1 4:0.0231884 5:0.0570934 7:1 9:1 11:1 13:1 15:1 17:1 19:1 21:1 24:1 26:1 30:1 31:1 33:1 35:1 37:1 
1 1:1 4:0.0347826 5:0.083045 7:1 9:1 11:1 13:1 15:1 17:1 19:1 21:1 24:1 26:1 30:1 31:1 33:1 35:1 37:1 
1 1:1 4:0.0376812 5:0.0882353 7:1 9:1 11:1 13:1 15:1 17:1 19:1 21:1 24:1 26:1 30:1 31:1 33:1 35:1 37:1 
1 1:1 4:0.0405797 5:0.102076 7:1 9:1 11:1 13:1 15:1 17:1 19:1 21:1 24:1 26:1 30:1 31:1 33:1 35:1 37:1 
1 1:1 4:0.0463768 5:0.119377 7:1 9:1 11:1 13:1 15:1 17:1 19:1 21:1 24:1 26:1 30:1 31:1 33:1 35:1 37:1 
1 1:1 4:0.0521739 5:0.129758 7:1 9:1 11:1 13:1 15:1 17:1 19:1 21:1 24:1 26:1 30:1 31:1 33:1 35:1 37:1 
1 1:1 4:0.0637681 5:0.148789 7:1 9:1 11:1 13:1 15:1 17:1 19:1 21:1 24:1 26:1 30:1 31:1 33:1 35:1 37:1 
1 1:1 4:0.0782609 5:0.1609 7:1 9:1 11:1 13:1 15:1 17:1 19:1 21:1 24:1 26:1 30:1 31:1 33:1 35:1 37:1 
1 1:1 6:1 8:0.122807 10:1 11:1 13:1 15:1 17:1 19:1 21:1 24:1 26:1 29:1 31:1 33:1 35:1 37:1 
1 1:1 6:1 8:0.0701754 9:1 11:1 13:1 15:1 17:1 19:1 21:1 24:1 26:1 29:1 31:1 33:1 36:1 37:1 
1 1:1 4:0.0115942 5:0.0138408 6:1 8:0.0701754 9:1 11:1 13:1 15:1 17:1 19:1 21:1 24:1 26:1 29:1 31:1 33:1 36:1 37:1 
1 1:1 5:0.00346021 6:1 8:0.0877193 9:1 11:1 13:1 15:1 17:1 19:1 21:1 24:1 26:1 29:1 31:1 33:1 35:1 37:1 
1 1:1 5:0.00519031 6:1 8:0.105263 9:1 11:1 13:1 15:1 17:1 19:1 21:1 24:1 26:1 29:1 31:1 33:1 36:1 37:1 
1 1:1 6:1 8:0.105263 10:1 11:1 13:1 15:1 17:1 19:1 21:1 24:1 26:1 29:1 31:1 33:1 35:1 37:1 
1 1:1 5:0.0017301 6:1 8:0.0701754 9:1 11:1 13:1 15:1 17:1 19:1 21:1 24:1 26:1 29:1 31:1 33:1 35:1 37:1 
1 1:1 4:0.00289855 5:0.00692042 6:1 8:0.0701754 9:1 11:1 13:1 15:1 17:1 19:1 21:1 24:1 26:1 29:1 31:1 33:1 35:1 37:1 
1 1:1 4:0.00289855 5:0.0121107 6:1 8:0.0701754 9:1 11:1 13:1 15:1 17:1 19:1 21:1 24:1 26:1 29:1 31:1 33:1 35:1 37:1 
1 1:1 6:1 8:0.0701754 9:1 11:1 13:1 15:1 17:1 19:1 21:1 24:1 26:1 29:1 31:1 33:1 36:1 37:1 
1 1:1 4:0.00289855 5:0.00519031 6:1 8:0.0701754 9:1 11:1 13:1 15:1 17:1 19:1 21:1 24:1 26:1 29:1 31:1 33:1 36:1 37:1 
1 1:1 4:0.00289855 5:0.0103806 6:1 8:0.0701754 9:1 11:1 13:1 15:1 17:1 19:1 21:1 24:1 26:1 29:1 31:1 33:1 36:1 37:1 
1 1:1 4:0.00289855 5:0.00519031 6:1 8:0.0350877 9:1 11:1 13:1 15:1 17:1 19:1 21:1 24:1 26:1 30:1 31:1 33:1 35:1 37:1 
1 1:1 4:0.00289855 5:0.00865052 6:1 8:0.0350877 9:1 11:1 13:1 15:1 17:1 19:1 21:1 24:1 26:1 30:1 31:1 33:1 35:1 37:1 
1 1:1 6:1 8:0.105263 9:1 11:1 13:1 15:1 17:1 19:1 21:1 24:1 26:1 30:1 31:1 33:1 35:1 37:1 
1 1:1 5:0.0017301 6:1 8:0.0350877 9:1 11:1 13:1 15:1 17:1 19:1 21:1 24:1 26:1 30:1 31:1 33:1 35:1 37:1 
1 1:1 5:0.00519031 6:1 8:0.0350877 9:1 11:1 13:1 15:1 17:1 19:1 21:1 24:1 26:1 30:1 31:1 33:1 35:1 37:1 
1 1:1 5:0.00692042 6:1 8:0.0350877 9:1 11:1 13:1 15:1 17:1 19:1 21:1 24:1 26:1 30:1 31:1 33:1 35:1 37:1 
1 1:1 5:0.0103806 6:1 8:0.0350877 9:1 11:1 13:1 15:1 17:1 19:1 21:1 24:1 26:1 30:1 31:1 33:1 35:1 37:1 
1 1:1 6:1 8:0.0701754 9:1 11:1 13:1 15:1 17:1 19:1 21:1 24:1 26:1 29:1 31:1 33:1 36:1 37:1 
1 1:1 5:0.00346021 6:1 8:0.0701754 9:1 11:1 13:1 15:1 17:1 19:1 21:1 24:1 26:1 29:1 31:1 33:1 36:1 37:1 
1 1:1 5:0.00519031 6:1 8:0.0701754 9:1 11:1 13:1 15:1 17:1 19:1 21:1 24:1 26:1 29:1 31:1 33:1 36:1 37:1 
1 1:1 5:0.00865052 6:1 8:0.0701754 9:1 11:1 13:1 15:1 17:1 19:1 21:1 24:1 26:1 29:1 31:1 33:1 36:1 37:1 
1 1:1 4:0.00289855 5:0.00346021 6:1 8:0.105263 9:1 11:1 13:1 15:1 17:1 19:1 21:1 24:1 26:1 29:1 31:1 33:1 36:1 37:1 
1 1:1 6:1 8:0.0701754 9:1 11:1 13:1 15:1 17:1 19:1 21:1 24:1 26:1 29:1 31:1 33:1 35:1 37:1 
1 1:1 4:0.00289855 5:0.0017301 6:1 8:0.105263 9:1 11:1 13:1 15:1 17:1 19:1 21:1 24:1 26:1 29:1 31:1 33:1 36:1 37:1 
1 1:1 4:0.00289855 5:0.0017301 6:1 8:0.105263 9:1 11:1 13:1 15:1 17:1 19:1 21:1 24:1 26:1 30:1 31:1 33:1 35:1 37:1 
1 1:1 4:0.0376812 5:0.0484429 6:1 8:0.561404 9:1 12:1 13:1 15:1 17:1 19:1 21:1 24:1 26:1 30:1 31:1 33:1 35:1 37:1 
1 1:1 4:0.0550725 5:0.0865052 6:1 8:0.561404 9:1 12:1 13:1 15:1 17:1 19:1 21:1 24:1 26:1 30:1 31:1 33:1 35:1 37:1 
1 1:1 4:0.0057971 5:0.0017301 6:1 8:0.736842 9:1 11:1 13:1 15:1 17:1 19:1 21:1 24:1 26:1 30:1 31:1 33:1 35:1 37:1 
1 1:1 4:0.0057971 5:0.00519031 6:1 8:0.736842 9:1 11:1 13:1 15:1 17:1 19:1 21:1 24:1 26:1 30:1 31:1 33:1 35:1 37:1 
1 1:1 4:0.0057971 5:0.00692042 6:1 8:0.754386 9:1 11:1 13:1 15:1 17:1 19:1 21:1 24:1 26:1 30:1 31:1 33:1 35:1 37:1 
1 1:1 4:0.0057971 5:0.00865052 6:1 8:0.701754 9:1 11:1 13:1 15:1 17:1 19:1 21:1 24:1 26:1 30:1 31:1 33:1 35:1 37:1 
1 1:1 4:0.0115942 5:0.0103806 6:1 8:0.701754 9:1 11:1 13:1 15:1 17:1 19:1 21:1 24:1 26:1 30:1 31:1 33:1 35:1 37:1 
1 1:1 4:0.0144928 5:0.0138408 6:1 8:0.754386 9:1 11:1 13:1 15:1 17:1 19:1 21:1 24:1 26:1 30:1 31:1 33:1 35:1 37:1 
0.6340939934590989 1:1 4:0.0173913 5:0.0207612 6:1 8:0.754386 9:1 11:1 13:1 15:1 17:1 19:1 21:1 24:1 26:1 30:1 31:1 33:1 35:1 37:1 
1 1:1 4:0.0318841 5:0.0467128 6:1 8:0.77193 9:1 12:1 13:1 15:1 17:1 19:1 21:1 24:1 26:1 30:1 31:1 33:1 35:1 37:1 
0.7045824803564827 1:1 4:0.0347826 5:0.0553633 6:1 8:0.77193 9:1 11:1 13:1 15:1 17:1 19:1 21:1 23:1 26:1 30:1 31:1 33:1 35:1 37:1 
0.331310295453439 1:1 4:0.0492754 5:0.0847751 6:1 8:0.77193 9:1 12:1 13:1 15:1 17:1 19:1 21:1 24:1 26:1 30:1 31:1 33:1 35:1 37:1 
1 1:1 4:0.00289855 5:0.00519031 6:1 8:0.0526316 9:1 11:1 13:1 15:1 17:1 19:1 21:1 24:1 26:1 30:1 31:1 33:1 35:1 37:1 
1 1:1 4:0.00289855 5:0.00692042 6:1 8:0.0526316 9:1 11:1 13:1 15:1 17:1 19:1 21:1 24:1 26:1 30:1 31:1 33:1 35:1 37:1 
1 1:1 4:0.00289855 5:0.0103806 6:1 8:0.0526316 9:1 11:1 13:1 15:1 17:1 19:1 21:1 24:1 26:1 30:1 31:1 33:1 35:1 37:1 
1 1:1 6:1 8:0.0526316 9:1 11:1 13:1 15:1 17:1 19:1 21:1 24:1 26:1 30:1 31:1 33:1 35:1 37:1 
1 1:1 4:0.00289855 5:0.0017301 6:1 8:0.0526316 9:1 11:1 13:1 15:1 17:1 19:1 21:1 24:1 26:1 30:1 31:1 33:1 35:1 37:1 
1 1:1 4:0.0057971 5:0.00519031 6:1 8:0.0526316 9:1 11:1 13:1 15:1 17:1 19:1 21:1 24:1 26:1 30:1 31:1 33:1 35:1 37:1 
1 1:1 4:0.00289855 5:0.0103806 6:1 8:0.0350877 9:1 11:1 13:1 15:1 17:1 19:1 21:1 25:1 26:1 30:1 31:1 33:1 35:1 37:1 
1 1:1 4:0.00289855 6:1 8:0.0526316 9:1 11:1 13:1 15:1 17:1 19:1 21:1 25:1 26:1 30:1 31:1 33:1 35:1 37:1 
1 1:1 4:0.00289855 5:0.00519031 6:1 8:0.0350877 9:1 11:1 13:1 15:1 17:1 19:1 21:1 25:1 26:1 30:1 31:1 33:1 35:1 37:1 
1 1:1 6:1 8:0.0350877 9:1 11:1 13:1 15:1 17:1 19:1 21:1 25:1 26:1 30:1 31:1 33:1 36:1 37:1 
1 1:1 4:0.269565 5:0.491349 7:1 9:1 11:1 13:1 15:1 17:1 19:1 21:1 25:1 26:1 30:1 31:1 33:1 35:1 37:1 
1 1:1 4:0.00289855 6:1 8:0.0877193 9:1 11:1 13:1 15:1 17:1 19:1 21:1 24:1 26:1 30:1 31:1 33:1 35:1 37:1 
1 1:1 6:1 8:0.0877193 9:1 11:1 13:1 15:1 17:1 19:1 21:1 24:1 26:1 30:1 31:1 33:1 35:1 37:1 
1 1:1 6:1 8:0.192982 10:1 11:1 13:1 15:1 17:1 19:1 21:1 24:1 26:1 30:1 31:1 33:1 35:1 37:1 
1 1:1 4:0.278261 5:0.451557 6:1 8:0.280702 9:1 12:1 13:1 15:1 17:1 19:1 21:1 24:1 26:1 28:1 31:1 33:1 35:1 37:1 
1 1:1 6:1 8:0.0877193 9:1 11:1 13:1 15:1 17:1 19:1 21:1 24:1 26:1 29:1 31:1 33:1 35:1 37:1 
1 1:1 4:0.00289855 5:0.0017301 6:1 8:0.0877193 9:1 11:1 13:1 15:1 17:1 19:1 21:1 24:1 26:1 30:1 31:1 33:1 35:1 37:1 
1 1:1 6:1 8:0.0877193 9:1 11:1 13:1 15:1 17:1 19:1 21:1 24:1 26:1 30:1 31:1 33:1 35:1 37:1 
1 1:1 6:1 8:0.105263 9:1 11:1 13:1 15:1 17:1 19:1 21:1 25:1 26:1 30:1 31:1 33:1 35:1 37:1 
1 1:1 4:0.00289855 5:0.00692042 7:1 9:1 11:1 13:1 15:1 17:1 19:1 21:1 25:1 26:1 30:1 31:1 33:1 36:1 37:1 
0.9009075863173946 1:1 4:0.00289855 5:0.00865052 6:1 8:0.0526316 9:1 11:1 13:1 15:1 17:1 19:1 21:1 25:1 26:1 30:1 31:1 33:1 35:1 37:1 
1 1:1 4:0.228986 5:0.288927 7:1 9:1 11:1 13:1 15:1 17:1 19:1 21:1 25:1 26:1 30:1 31:1 33:1 35:1 37:1 
1 1:1 6:1 8:0.0877193 9:1 11:1 13:1 15:1 17:1 19:1 21:1 24:1 26:1 30:1 31:1 33:1 35:1 37:1 
1 1:1 6:1 8:0.0526316 9:1 11:1 13:1 15:1 17:1 19:1 21:1 25:1 26:1 30:1 31:1 33:1 35:1 37:1 
1 1:1 4:0.226087 5:0.280277 7:1 9:1 11:1 13:1 15:1 17:1 19:1 21:1 25:1 26:1 30:1 31:1 33:1 35:1 37:1 
1 1:1 6:1 8:0.140351 9:1 11:1 13:1 15:1 18:1 19:1 21:1 25:1 26:1 30:1 31:1 33:1 35:1 37:1 
1 1:1 5:0.00346021 6:1 8:0.0526316 9:1 11:1 13:1 15:1 17:1 19:1 21:1 25:1 26:1 30:1 31:1 33:1 35:1 37:1 
1 1:1 4:0.0057971 5:0.00519031 6:1 8:0.0526316 9:1 11:1 13:1 15:1 17:1 19:1 21:1 24:1 26:1 29:1 31:1 33:1 35:1 37:1 
1 1:1 4:0.0057971 5:0.00519031 7:1 9:1 11:1 13:1 15:1 17:1 19:1 21:1 24:1 26:1 29:1 31:1 33:1 35:1 38:1 
1 1:1 4:0.00289855 5:0.0017301 6:1 8:0.0526316 9:1 11:1 13:1 15:1 17:1 19:1 21:1 24:1 26:1 30:1 31:1 33:1 35:1 37:1 
1 1:1 6:1 8:0.0526316 9:1 11:1 13:1 15:1 17:1 19:1 21:1 24:1 26:1 30:1 31:1 33:1 35:1 37:1 
1 1:1 4:0.00289855 5:0.00519031 6:1 8:0.0526316 9:1 11:1 13:1 15:1 17:1 19:1 21:1 24:1 26:1 30:1 31:1 33:1 35:1 37:1 
1 1:1 6:1 8:0.0701754 9:1 11:1 13:1 15:1 17:1 19:1 21:1 24:1 26:1 29:1 31:1 33:1 36:1 37:1 
1 1:1 6:1 8:0.0701754 9:1 11:1 13:1 15:1 17:1 19:1 21:1 24:1 26:1 29:1 31:1 33:1 36:1 37:1 
1 1:1 6:1 8:0.263158 10:1 11:1 13:1 15:1 17:1 19:1 21:1 24:1 26:1 30:1 31:1 33:1 35:1 37:1 
1 1:1 5:0.0103806 6:1 8:0.140351 9:1 11:1 13:1 16:1 17:1 19:1 21:1 24:1 26:1 30:1 31:1 33:1 35:1 37:1 
1 1:1 4:0.00289855 6:1 8:0.140351 9:1 11:1 13:1 16:1 17:1 19:1 21:1 24:1 26:1 30:1 31:1 33:1 35:1 37:1 
1 1:1 6:1 8:0.122807 9:1 11:1 13:1 16:1 17:1 19:1 21:1 24:1 26:1 30:1 31:1 33:1 35:1 37:1 
1 1:1 4:0.0202899 6:1 8:0.105263 9:1 11:1 13:1 15:1 17:1 19:1 21:1 24:1 26:1 30:1 31:1 33:1 35:1 37:1 
1 1:1 4:0.00289855 6:1 8:0.0526316 9:1 11:1 13:1 15:1 17:1 19:1 21:1 24:1 26:1 30:1 31:1 33:1 35:1 37:1 
1 1:1 6:1 8:0.0526316 9:1 11:1 13:1 15:1 17:1 19:1 21:1 24:1 26:1 30:1 31:1 33:1 35:1 37:1 
1 1:1 4:0.00289855 5:0.0017301 6:1 8:0.105263 9:1 11:1 13:1 15:1 17:1 19:1 21:1 24:1 26:1 30:1 31:1 33:1 35:1 37:1 
1 1:1 4:0.00289855 5:0.00346021 6:1 8:0.0877193 9:1 11:1 13:1 15:1 17:1 19:1 21:1 24:1 26:1 30:1 31:1 33:1 35:1 37:1 
1 1:1 6:1 8:0.0701754 9:1 11:1 13:1 15:1 17:1 19:1 21:1 24:1 26:1 30:1 31:1 33:1 35:1 37:1 
0.009603855918353358 1:1 4:0.927536 5:0.937716 6:1 8:0.368421 9:1 11:1 13:1 15:1 17:1 19:1 21:1 23:1 26:1 30:1 31:1 33:1 35:1 37:1 
1 1:1 4:0.686957 5:0.645329 7:1 9:1 11:1 13:1 15:1 17:1 19:1 21:1 24:1 26:1 30:1 31:1 33:1 35:1 37:1 
1 1:1 6:1 8:0.0877193 9:1 11:1 13:1 15:1 17:1 19:1 21:1 24:1 26:1 30:1 31:1 33:1 35:1 37:1 
1 1:1 6:1 8:0.157895 10:1 11:1 13:1 15:1 17:1 19:1 21:1 24:1 26:1 29:1 31:1 33:1 36:1 37:1 
1 1:1 4:0.00869565 5:0.00346021 6:1 8:0.0877193 9:1 11:1 13:1 15:1 17:1 19:1 21:1 24:1 26:1 30:1 31:1 33:1 35:1 37:1 
1 1:1 4:0.101449 5:0.143599 7:1 9:1 11:1 13:1 15:1 17:1 19:1 21:1 24:1 26:1 30:1 31:1 33:1 35:1 37:1 
1 1:1 4:0.00289855 6:1 8:0.105263 9:1 11:1 13:1 15:1 17:1 19:1 21:1 24:1 26:1 29:1 31:1 33:1 35:1 37:1 
1 1:1 5:0.0017301 6:1 8:0.0175439 9:1 11:1 13:1 15:1 17:1 19:1 21:1 24:1 26:1 30:1 31:1 33:1 35:1 38:1 
1 1:1 4:0.00289855 6:1 8:0.0175439 9:1 11:1 13:1 15:1 17:1 19:1 21:1 24:1 26:1 30:1 31:1 33:1 35:1 38:1 
0.1184455845605173 1:1 6:1 8:0.508772 9:1 11:1 13:1 15:1 17:1 19:1 21:1 25:1 26:1 30:1 31:1 33:1 35:1 37:1 
1 1:1 6:1 8:0.105263 9:1 11:1 13:1 15:1 17:1 19:1 21:1 24:1 26:1 30:1 31:1 33:1 35:1 37:1 
1 1:1 5:0.0017301 6:1 8:0.105263 9:1 11:1 13:1 15:1 17:1 19:1 21:1 24:1 26:1 30:1 31:1 33:1 35:1 37:1 
1 1:1 4:0.0057971 5:0.00519031 6:1 8:0.578947 9:1 11:1 13:1 15:1 17:1 19:1 21:1 25:1 26:1 30:1 31:1 33:1 35:1 37:1 
1 1:1 6:1 8:0.578947 9:1 11:1 13:1 15:1 17:1 19:1 21:1 25:1 26:1 30:1 31:1 33:1 35:1 37:1 
1 1:1 6:1 8:0.0877193 9:1 11:1 13:1 15:1 17:1 19:1 21:1 25:1 26:1 30:1 31:1 33:1 35:1 37:1 
1 1:1 6:1 8:0.157895 10:1 11:1 13:1 15:1 17:1 19:1 21:1 25:1 26:1 30:1 31:1 33:1 35:1 37:1 
1 1:1 4:0.00289855 5:0.0017301 6:1 8:0.0877193 9:1 11:1 13:1 15:1 17:1 19:1 21:1 25:1 26:1 30:1 31:1 33:1 35:1 37:1 
1 1:1 4:0.173913 5:0.202422 6:1 8:0.263158 9:1 12:1 13:1 15:1 17:1 19:1 21:1 24:1 26:1 30:1 31:1 33:1 35:1 37:1 
1 1:1 5:0.00692042 6:1 8:0.0350877 9:1 11:1 13:1 15:1 17:1 19:1 21:1 24:1 26:1 30:1 31:1 33:1 35:1 37:1 
0.3468758835791628 1:1 6:1 8:0.0350877 9:1 11:1 13:1 15:1 17:1 19:1 21:1 23:1 26:1 30:1 31:1 33:1 35:1 37:1 
1 1:1 6:1 8:0.0350877 9:1 11:1 13:1 15:1 17:1 19:1 21:1 25:1 26:1 30:1 31:1 33:1 36:1 37:1 
1 1:1 4:0.00289855 5:0.00346021 6:1 8:0.0701754 9:1 11:1 13:1 15:1 17:1 19:1 21:1 25:1 26:1 30:1 31:1 33:1 35:1 37:1 
1 1:1 6:1 8:0.0877193 9:1 11:1 13:1 15:1 17:1 19:1 21:1 25:1 26:1 30:1 31:1 33:1 35:1 37:1 
1 1:1 4:0.00289855 6:1 8:0.0877193 9:1 11:1 13:1 15:1 17:1 19:1 21:1 25:1 26:1 30:1 31:1 33:1 35:1 37:1 
1 1:1 5:0.00519031 6:1 8:0.0701754 9:1 11:1 13:1 15:1 17:1 19:1 21:1 25:1 26:1 30:1 31:1 33:1 35:1 37:1 
1 1:1 5:0.0017301 6:1 8:0.0877193 9:1 11:1 13:1 15:1 17:1 19:1 21:1 24:1 26:1 30:1 31:1 33:1 35:1 37:1 
1 1:1 4:0.00289855 5:0.00519031 6:1 8:0.0526316 9:1 11:1 13:1 15:1 17:1 19:1 21:1 24:1 26:1 30:1 31:1 33:1 35:1 37:1 
1 1:1 4:0.00289855 5:0.00346021 7:1 9:1 11:1 13:1 15:1 17:1 19:1 21:1 24:1 26:1 29:1 31:1 33:1 36:1 37:1 
1 1:1 4:0.00289855 5:0.00865052 7:1 9:1 11:1 13:1 15:1 17:1 19:1 21:1 24:1 26:1 29:1 31:1 33:1 36:1 37:1 
1 1:1 6:1 8:0.0701754 9:1 11:1 13:1 15:1 17:1 19:1 21:1 25:1 26:1 30:1 31:1 33:1 35:1 37:1 
1 1:1 5:0.0017301 6:1 8:0.0701754 9:1 11:1 13:1 15:1 17:1 19:1 21:1 25:1 26:1 30:1 31:1 33:1 35:1 37:1 
1 1:1 4:0.00289855 5:0.0017301 6:1 8:0.0701754 9:1 11:1 13:1 15:1 17:1 19:1 21:1 24:1 26:1 30:1 31:1 33:1 35:1 37:1 
1 1:1 4:0.00289855 5:0.00519031 6:1 8:0.0526316 9:1 11:1 13:1 15:1 17:1 19:1 21:1 24:1 26:1 30:1 31:1 33:1 35:1 37:1 
1 1:1 4:0.0057971 5:0.0103806 6:1 8:0.0526316 9:1 11:1 13:1 15:1 17:1 19:1 21:1 24:1 26:1 30:1 31:1 33:1 35:1 37:1 
1 1:1 4:0.00289855 5:0.0017301 6:1 8:0.105263 9:1 11:1 13:1 15:1 17:1 19:1 21:1 24:1 26:1 30:1 31:1 33:1 35:1 37:1 
1 1:1 5:0.00346021 6:1 8:0.122807 9:1 11:1 13:1 16:1 17:1 19:1 21:1 24:1 26:1 30:1 31:1 33:1 35:1 37:1 
1 1:1 6:1 8:0.105263 9:1 11:1 13:1 16:1 17:1 19:1 21:1 24:1 26:1 30:1 31:1 33:1 35:1 37:1 
1 1:1 6:1 8:0.0701754 9:1 11:1 13:1 15:1 17:1 19:1 21:1 24:1 26:1 29:1 31:1 33:1 36:1 37:1 
1 1:1 4:0.0115942 5:0.0017301 6:1 8:0.0526316 9:1 11:1 13:1 15:1 17:1 19:1 21:1 24:1 26:1 29:1 31:1 33:1 35:1 37:1 
1 1:1 6:1 8:0.105263 9:1 11:1 13:1 15:1 17:1 19:1 21:1 25:1 26:1 28:1 31:1 33:1 35:1 37:1 
0.7262724366743795 1:1 4:0.0057971 5:0.0017301 6:1 8:0.263158 9:1 11:1 13:1 16:1 17:1 19:1 21:1 25:1 26:1 30:1 31:1 33:1 36:1 37:1 
1 1:1 6:1 8:0.140351 9:1 11:1 13:1 16:1 17:1 19:1 21:1 24:1 26:1 30:1 31:1 33:1 35:1 37:1 
1 1:1 5:0.00346021 6:1 8:0.122807 9:1 11:1 13:1 16:1 17:1 19:1 21:1 24:1 26:1 30:1 31:1 33:1 35:1 37:1 
0.2636986583058039 1:1 6:1 8:0.0526316 9:1 11:1 13:1 15:1 17:1 19:1 21:1 25:1 26:1 28:1 31:1 33:1 36:1 37:1 
1 1:1 6:1 8:0.0526316 9:1 11:1 13:1 15:1 17:1 19:1 21:1 25:1 26:1 28:1 31:1 33:1 35:1 37:1 
1 1:1 4:0.00289855 6:1 8:0.0175439 9:1 11:1 13:1 15:1 17:1 19:1 21:1 24:1 26:1 28:1 31:1 33:1 35:1 37:1 
1 1:1 6:1 8:0.105263 10:1 11:1 13:1 15:1 17:1 19:1 21:1 24:1 26:1 28:1 31:1 33:1 36:1 37:1 
1 1:1 4:0.00289855 6:1 8:0.0350877 9:1 11:1 13:1 15:1 17:1 19:1 21:1 24:1 26:1 28:1 31:1 33:1 35:1 37:1 
1 1:1 5:0.00346021 6:1 8:0.0175439 9:1 11:1 13:1 15:1 17:1 19:1 21:1 24:1 26:1 28:1 31:1 33:1 35:1 37:1 
1 1:1 5:0.00692042 6:1 8:0.0350877 9:1 11:1 13:1 15:1 17:1 19:1 21:1 25:1 26:1 28:1 31:1 33:1 35:1 37:1 
1 1:1 4:0.00289855 6:1 8:0.105263 9:1 11:1 13:1 15:1 17:1 19:1 21:1 24:1 26:1 30:1 31:1 33:1 35:1 37:1 
1 1:1 6:1 8:0.0701754 9:1 11:1 13:1 15:1 17:1 19:1 21:1 24:1 26:1 30:1 31:1 33:1 35:1 37:1 
1 1:1 4:0.00289855 5:0.00346021 6:1 8:0.0526316 9:1 11:1 13:1 15:1 17:1 19:1 21:1 24:1 26:1 30:1 31:1 33:1 35:1 37:1 
1 1:1 4:0.00289855 5:0.00519031 6:1 8:0.0526316 9:1 11:1 13:1 15:1 17:1 19:1 21:1 24:1 26:1 30:1 31:1 33:1 35:1 37:1 
1 1:1 5:0.0017301 6:1 8:0.0350877 9:1 11:1 13:1 15:1 17:1 19:1 21:1 25:1 26:1 30:1 31:1 33:1 35:1 37:1 
1 1:1 4:0.00869565 5:0.0017301 6:1 8:0.0175439 9:1 11:1 13:1 15:1 17:1 19:1 21:1 24:1 26:1 28:1 31:1 33:1 35:1 37:1 
1 1:1 4:0.00289855 5:0.00346021 6:1 8:0.0701754 9:1 11:1 13:1 15:1 17:1 19:1 21:1 24:1 26:1 29:1 31:1 33:1 35:1 37:1 
1 1:1 6:1 8:0.0877193 10:1 11:1 13:1 15:1 17:1 19:1 21:1 24:1 26:1 29:1 31:1 33:1 35:1 37:1 
1 1:1 5:0.00346021 6:1 8:0.0701754 9:1 11:1 13:1 15:1 17:1 19:1 21:1 24:1 26:1 29:1 31:1 33:1 35:1 37:1 
1 1:1 4:0.00289855 5:0.00865052 6:1 8:0.0701754 9:1 11:1 13:1 15:1 17:1 19:1 21:1 24:1 26:1 29:1 31:1 33:1 35:1 37:1 
1 1:1 5:0.0017301 6:1 8:0.105263 9:1 11:1 13:1 15:1 17:1 19:1 21:1 24:1 26:1 29:1 31:1 33:1 35:1 37:1 
1 1:1 6:1 8:0.105263 9:1 11:1 13:1 15:1 17:1 19:1 21:1 24:1 26:1 30:1 31:1 33:1 35:1 37:1 
1 1:1 6:1 8:0.438596 10:1 11:1 13:1 15:1 17:1 19:1 21:1 24:1 26:1 30:1 31:1 33:1 35:1 37:1 
1 1:1 4:0.0057971 6:1 8:0.0877193 9:1 11:1 13:1 15:1 17:1 19:1 21:1 25:1 26:1 29:1 31:1 33:1 35:1 37:1 
0.01387751766414544 1:1 4:0.0057971 5:0.00692042 6:1 8:0.105263 9:1 11:1 13:1 15:1 17:1 19:1 21:1 25:1 26:1 29:1 31:1 33:1 35:1 37:1 
1 1:1 5:0.00519031 6:1 8:0.105263 9:1 11:1 13:1 15:1 17:1 19:1 21:1 25:1 26:1 29:1 31:1 33:1 35:1 37:1 
1 1:1 4:0.0115942 5:0.0017301 6:1 8:0.122807 9:1 11:1 13:1 15:1 17:1 19:1 21:1 25:1 26:1 29:1 31:1 33:1 35:1 37:1 
1 1:1 5:0.0017301 6:1 8:0.122807 9:1 11:1 13:1 15:1 17:1 19:1 21:1 25:1 26:1 29:1 31:1 33:1 35:1 37:1 
1 1:1 6:1 8:0.0877193 9:1 11:1 13:1 15:1 17:1 19:1 21:1 25:1 26:1 29:1 31:1 33:1 35:1 37:1 
1 1:1 4:0.0115942 5:0.00692042 6:1 8:0.0877193 9:1 11:1 13:1 15:1 17:1 19:1 21:1 25:1 26:1 29:1 31:1 33:1 35:1 37:1 
1 1:1 5:0.00346021 6:1 8:0.0175439 9:1 12:1 13:1 15:1 17:1 19:1 21:1 24:1 26:1 30:1 31:1 33:1 35:1 38:1 
1 1:1 4:0.00289855 5:0.0121107 6:1 8:0.0701754 9:1 11:1 13:1 15:1 17:1 19:1 21:1 24:1 26:1 29:1 31:1 33:1 35:1 37:1 
0.0917823675609756 1:1 4:0.00289855 6:1 8:0.333333 9:1 11:1 13:1 15:1 17:1 19:1 21:1 23:1 26:1 28:1 31:1 33:1 35:1 37:1 
1 1:1 4:0.0057971 6:1 8:0.0701754 9:1 11:1 13:1 16:1 17:1 19:1 21:1 24:1 26:1 30:1 31:1 33:1 36:1 37:1 
1 1:1 6:1 8:0.0701754 9:1 11:1 13:1 16:1 17:1 19:1 21:1 24:1 26:1 30:1 31:1 33:1 36:1 37:1 
1 1:1 5:0.0017301 6:1 8:0.0701754 9:1 11:1 13:1 16:1 17:1 19:1 21:1 24:1 26:1 30:1 31:1 33:1 36:1 37:1 
1 1:1 4:0.00289855 6:1 8:0.0701754 9:1 11:1 13:1 16:1 17:1 19:1 21:1 24:1 26:1 30:1 31:1 33:1 36:1 37:1 
1 1:1 6:1 8:0.0701754 9:1 11:1 13:1 16:1 17:1 19:1 21:1 24:1 26:1 30:1 31:1 33:1 36:1 37:1 
1 1:1 4:0.00289855 5:0.00346021 6:1 8:0.0701754 9:1 11:1 13:1 16:1 17:1 19:1 21:1 24:1 26:1 30:1 31:1 33:1 36:1 37:1 
1 1:1 4:0.0057971 5:0.0103806 6:1 8:0.0701754 9:1 11:1 13:1 16:1 17:1 19:1 21:1 24:1 26:1 30:1 31:1 33:1 36:1 37:1 
1 1:1 6:1 8:0.0701754 9:1 11:1 13:1 16:1 17:1 19:1 21:1 24:1 26:1 30:1 31:1 33:1 36:1 37:1 
1 1:1 5:0.00346021 6:1 8:0.0701754 9:1 11:1 13:1 16:1 17:1 19:1 21:1 24:1 26:1 30:1 31:1 33:1 35:1 37:1 
1 1:1 5:0.00519031 6:1 8:0.0877193 9:1 11:1 13:1 16:1 17:1 19:1 21:1 24:1 26:1 30:1 31:1 33:1 35:1 37:1 
1 1:1 4:0.00289855 6:1 8:0.0526316 9:1 11:1 13:1 15:1 17:1 19:1 21:1 24:1 26:1 30:1 31:1 33:1 35:1 37:1 
1 1:1 4:0.00869565 5:0.00692042 6:1 8:0.859649 9:1 11:1 13:1 15:1 17:1 19:1 21:1 24:1 26:1 30:1 31:1 33:1 35:1 37:1 
1 1:1 4:0.0057971 5:0.00519031 6:1 8:0.877193 9:1 11:1 13:1 15:1 17:1 19:1 21:1 24:1 26:1 30:1 31:1 33:1 35:1 37:1 
1 1:1 6:1 8:0.701754 9:1 11:1 13:1 15:1 17:1 19:1 21:1 24:1 26:1 30:1 31:1 33:1 35:1 37:1 
1 1:1 4:0.00289855 5:0.0017301 6:1 8:0.701754 9:1 11:1 13:1 15:1 17:1 19:1 21:1 24:1 26:1 30:1 31:1 33:1 35:1 37:1 
1 1:1 4:0.0057971 5:0.0103806 6:1 8:0.701754 9:1 11:1 13:1 15:1 17:1 19:1 21:1 24:1 26:1 30:1 31:1 33:1 35:1 37:1 
1 1:1 4:0.00869565 5:0.0121107 6:1 8:0.754386 9:1 11:1 13:1 15:1 17:1 19:1 21:1 24:1 26:1 30:1 31:1 33:1 35:1 37:1 
1 1:1 4:0.00869565 5:0.0138408 6:1 8:0.77193 9:1 11:1 13:1 15:1 17:1 19:1 21:1 24:1 26:1 30:1 31:1 33:1 35:1 37:1 
1 1:1 4:0.00869565 5:0.0155709 6:1 8:0.859649 9:1 11:1 13:1 15:1 17:1 19:1 21:1 24:1 26:1 30:1 31:1 33:1 35:1 37:1 
1 1:1 4:0.00869565 5:0.0190311 6:1 8:0.877193 9:1 11:1 13:1 15:1 17:1 19:1 21:1 24:1 26:1 30:1 31:1 33:1 35:1 37:1 
1 1:1 6:1 8:0.140351 9:1 11:1 13:1 16:1 17:1 19:1 21:1 24:1 26:1 30:1 31:1 33:1 35:1 37:1 
1 1:1 5:0.0017301 6:1 8:0.0350877 9:1 11:1 13:1 15:1 17:1 19:1 21:1 25:1 26:1 30:1 31:1 33:1 35:1 37:1 
1 1:1 6:1 8:0.526316 9:1 11:1 13:1 15:1 17:1 19:1 21:1 25:1 26:1 30:1 31:1 33:1 35:1 37:1 
0.5756831943872398 1:1 6:1 8:0.105263 9:1 11:1 13:1 15:1 17:1 19:1 21:1 25:1 26:1 28:1 31:1 33:1 35:1 37:1 
1 1:1 6:1 8:0.122807 9:1 11:1 13:1 16:1 17:1 19:1 21:1 24:1 26:1 30:1 31:1 33:1 35:1 37:1 
1 1:1 4:0.0057971 5:0.0017301 6:1 8:0.0526316 9:1 11:1 13:1 15:1 17:1 19:1 21:1 24:1 26:1 30:1 31:1 33:1 35:1 37:1 
1 1:1 5:0.00519031 6:1 8:0.578947 9:1 11:1 13:1 15:1 17:1 19:1 21:1 25:1 26:1 30:1 31:1 33:1 35:1 37:1 
1 1:1 4:0.0376812 5:0.0155709 6:1 8:0.807018 9:1 11:1 13:1 15:1 17:1 19:1 21:1 24:1 26:1 30:1 31:1 33:1 35:1 37:1 
1 1:1 4:0.0231884 5:0.0138408 6:1 8:0.807018 9:1 11:1 13:1 15:1 17:1 19:1 21:1 24:1 26:1 30:1 31:1 33:1 35:1 37:1 
1 1:1 4:0.0202899 5:0.0121107 6:1 8:0.824561 9:1 11:1 13:1 15:1 17:1 19:1 21:1 25:1 26:1 30:1 31:1 33:1 35:1 37:1 
1 1:1 4:0.00869565 5:0.00346021 6:1 8:0.929825 9:1 11:1 13:1 15:1 17:1 19:1 21:1 24:1 26:1 30:1 31:1 33:1 35:1 37:1 
1 1:1 5:0.0017301 6:1 8:0.912281 9:1 11:1 13:1 15:1 17:1 19:1 21:1 25:1 26:1 30:1 31:1 33:1 35:1 37:1 
1 1:1 4:0.0057971 6:1 8:0.982456 9:1 11:1 13:1 15:1 17:1 19:1 21:1 24:1 26:1 30:1 31:1 33:1 35:1 37:1 
1 1:1 4:0.00869565 5:0.0017301 6:1 8:0.929825 9:1 11:1 13:1 15:1 17:1 19:1 21:1 24:1 26:1 30:1 31:1 33:1 35:1 37:1 
1 1:1 4:0.00869565 5:0.00346021 6:1 8:0.912281 9:1 11:1 13:1 15:1 17:1 19:1 21:1 24:1 26:1 30:1 31:1 33:1 35:1 37:1 
1 1:1 4:0.0144928 5:0.00519031 6:1 8:0.912281 9:1 11:1 13:1 15:1 17:1 19:1 21:1 24:1 26:1 30:1 31:1 33:1 35:1 37:1 
1 1:1 4:0.0144928 5:0.00692042 6:1 8:0.929825 9:1 11:1 13:1 15:1 17:1 19:1 21:1 24:1 26:1 30:1 31:1 33:1 35:1 37:1 
1 1:1 4:0.0463768 5:0.017301 6:1 8:0.894737 9:1 11:1 13:1 15:1 17:1 19:1 21:1 24:1 26:1 30:1 31:1 33:1 35:1 37:1 
1 1:1 4:0.0463768 5:0.0190311 6:1 8:0.77193 9:1 11:1 13:1 15:1 17:1 19:1 21:1 25:1 26:1 30:1 31:1 33:1 35:1 37:1 
1 1:1 4:0.0492754 5:0.0207612 6:1 8:0.929825 9:1 11:1 13:1 15:1 17:1 19:1 21:1 24:1 26:1 30:1 31:1 33:1 35:1 37:1 
1 1:1 4:0.0608696 5:0.0224913 6:1 8:0.982456 9:1 11:1 13:1 15:1 17:1 19:1 21:1 24:1 26:1 30:1 31:1 33:1 35:1 37:1 
1 1:1 4:0.0637681 5:0.0242215 6:1 8:0.912281 9:1 11:1 13:1 15:1 17:1 19:1 21:1 25:1 26:1 30:1 31:1 33:1 35:1 37:1 
1 1:1 4:0.0637681 5:0.0276817 6:1 8:0.877193 9:1 11:1 13:1 15:1 17:1 19:1 21:1 25:1 26:1 30:1 31:1 33:1 35:1 37:1 
1 1:1 4:0.0724638 5:0.0380623 6:1 8:0.912281 9:1 11:1 13:1 15:1 17:1 19:1 21:1 24:1 26:1 30:1 31:1 33:1 35:1 37:1 
1 1:1 4:0.0753623 5:0.0415225 6:1 8:0.912281 9:1 11:1 13:1 15:1 17:1 19:1 21:1 24:1 26:1 30:1 31:1 33:1 35:1 37:1 
1 1:1 4:0.0811594 5:0.0432526 6:1 8:0.982456 9:1 11:1 13:1 15:1 17:1 19:1 21:1 24:1 26:1 30:1 31:1 33:1 35:1 37:1 
1 1:1 4:0.0985507 5:0.0553633 6:1 8:0.947368 9:1 11:1 13:1 15:1 17:1 19:1 21:1 25:1 26:1 30:1 31:1 33:1 35:1 37:1 
1 1:1 4:0.0985507 5:0.0570934 6:1 8:0.947368 9:1 11:1 13:1 15:1 17:1 19:1 21:1 25:1 26:1 30:1 31:1 33:1 35:1 37:1 
0.3835753423999878 1:1 4:0.0985507 5:0.0588235 6:1 8:0.929825 9:1 11:1 13:1 15:1 17:1 19:1 21:1 24:1 26:1 30:1 31:1 33:1 35:1 37:1 
1 1:1 4:0.0115942 6:1 8:0.105263 9:1 11:1 13:1 15:1 17:1 19:1 21:1 24:1 26:1 30:1 31:1 33:1 35:1 37:1 
1 1:1 4:0.00289855 5:0.0017301 6:1 8:0.105263 9:1 11:1 13:1 15:1 17:1 19:1 21:1 24:1 26:1 30:1 31:1 33:1 35:1 37:1 
1 1:1 5:0.0017301 6:1 8:0.0701754 9:1 11:1 13:1 15:1 17:1 19:1 21:1 24:1 26:1 29:1 31:1 33:1 36:1 37:1 
1 1:1 6:1 8:0.0701754 9:1 11:1 13:1 15:1 17:1 19:1 21:1 24:1 26:1 29:1 31:1 33:1 36:1 37:1 
1 1:1 5:0.0017301 6:1 8:0.105263 9:1 11:1 13:1 15:1 17:1 19:1 21:1 24:1 26:1 29:1 31:1 33:1 36:1 37:1 
1 1:1 4:0.00289855 5:0.00519031 6:1 8:0.105263 9:1 11:1 13:1 15:1 17:1 19:1 21:1 24:1 26:1 29:1 31:1 33:1 36:1 37:1 
1 1:1 6:1 8:0.122807 9:1 11:1 13:1 15:1 17:1 19:1 21:1 25:1 26:1 29:1 31:1 33:1 35:1 37:1 
1 1:1 4:0.00289855 5:0.0017301 6:1 8:0.122807 9:1 11:1 13:1 15:1 17:1 19:1 21:1 25:1 26:1 29:1 31:1 33:1 35:1 37:1 
1 1:1 6:1 8:0.105263 9:1 11:1 13:1 15:1 17:1 19:1 21:1 25:1 26:1 29:1 31:1 33:1 35:1 37:1 
1 1:1 6:1 8:0.140351 9:1 11:1 13:1 15:1 17:1 19:1 21:1 25:1 26:1 29:1 31:1 33:1 35:1 37:1 
1 1:1 4:0.00289855 5:0.00519031 6:1 8:0.0175439 9:1 11:1 13:1 15:1 17:1 19:1 21:1 25:1 26:1 29:1 31:1 33:1 35:1 37:1 
1 1:1 4:0.00289855 5:0.00692042 6:1 8:0.0877193 9:1 11:1 13:1 15:1 17:1 19:1 21:1 25:1 26:1 29:1 31:1 33:1 35:1 37:1 
1 1:1 4:0.00289855 5:0.0017301 6:1 8:0.0701754 9:1 11:1 13:1 15:1 17:1 19:1 21:1 24:1 26:1 30:1 31:1 33:1 35:1 37:1 
0.01894523581146066 1:1 4:0.00289855 5:0.00346021 6:1 8:0.122807 9:1 11:1 13:1 15:1 17:1 19:1 21:1 25:1 26:1 29:1 31:1 33:1 35:1 37:1 
1 1:1 6:1 8:0.0877193 9:1 11:1 13:1 15:1 17:1 19:1 21:1 25:1 26:1 29:1 31:1 33:1 35:1 37:1 
1 1:1 5:0.0017301 6:1 8:0.0350877 9:1 11:1 13:1 15:1 17:1 19:1 21:1 24:1 26:1 30:1 31:1 33:1 35:1 37:1 
1 1:1 4:0.0057971 5:0.00692042 6:1 8:0.0350877 9:1 11:1 13:1 15:1 17:1 19:1 21:1 24:1 26:1 30:1 31:1 33:1 35:1 37:1 
1 1:1 4:0.00869565 5:0.00865052 6:1 8:0.0350877 9:1 11:1 13:1 15:1 17:1 19:1 21:1 24:1 26:1 30:1 31:1 33:1 35:1 37:1 
1 1:1 4:0.00289855 5:0.00346021 6:1 8:0.0350877 9:1 11:1 13:1 15:1 17:1 19:1 21:1 25:1 26:1 30:1 31:1 33:1 35:1 37:1 
1 1:1 6:1 8:0.0526316 9:1 11:1 13:1 15:1 17:1 19:1 21:1 25:1 26:1 30:1 31:1 33:1 35:1 37:1 
1 1:1 4:0.00289855 6:1 8:0.105263 9:1 11:1 13:1 15:1 17:1 19:1 21:1 24:1 26:1 29:1 31:1 33:1 36:1 37:1 
1 1:1 6:1 8:0.0701754 9:1 11:1 13:1 15:1 17:1 19:1 21:1 24:1 26:1 29:1 31:1 33:1 36:1 37:1 
1 1:1 5:0.00346021 6:1 8:0.0877193 9:1 11:1 13:1 15:1 17:1 19:1 21:1 25:1 26:1 29:1 31:1 33:1 36:1 37:1 
1 1:1 4:0.00289855 5:0.0017301 6:1 8:0.0701754 9:1 11:1 13:1 15:1 17:1 19:1 21:1 24:1 26:1 29:1 31:1 33:1 36:1 37:1 
1 1:1 6:1 8:0.0701754 9:1 11:1 13:1 15:1 17:1 19:1 21:1 24:1 26:1 29:1 31:1 33:1 36:1 37:1 
1 1:1 5:0.00346021 6:1 8:0.0877193 9:1 11:1 13:1 15:1 17:1 19:1 21:1 25:1 26:1 29:1 31:1 33:1 35:1 37:1 
1 1:1 4:0.00289855 5:0.00692042 6:1 8:0.0701754 9:1 11:1 13:1 15:1 17:1 19:1 21:1 24:1 26:1 29:1 31:1 33:1 36:1 37:1 
1 1:1 4:0.00289855 5:0.017301 6:1 8:0.0701754 9:1 11:1 13:1 15:1 17:1 19:1 21:1 24:1 26:1 29:1 31:1 33:1 36:1 37:1 
1 1:1 4:0.00289855 6:1 8:0.105263 9:1 11:1 13:1 15:1 17:1 19:1 21:1 24:1 26:1 30:1 31:1 33:1 35:1 37:1 
1 1:1 4:0.00289855 5:0.00346021 6:1 8:0.0701754 9:1 11:1 13:1 15:1 17:1 19:1 21:1 24:1 26:1 30:1 31:1 33:1 35:1 37:1 
1 1:1 4:0.026087 6:1 8:0.105263 9:1 11:1 13:1 15:1 17:1 19:1 21:1 24:1 26:1 30:1 31:1 33:1 35:1 37:1 
1 1:1 4:0.00289855 6:1 8:0.0526316 9:1 11:1 13:1 15:1 17:1 19:1 21:1 24:1 26:1 30:1 31:1 33:1 35:1 37:1 
1 1:1 6:1 8:0.0526316 9:1 11:1 13:1 15:1 17:1 19:1 21:1 24:1 26:1 30:1 31:1 33:1 35:1 37:1 
1 1:1 4:0.00289855 5:0.0017301 6:1 8:0.105263 9:1 11:1 13:1 15:1 17:1 19:1 21:1 24:1 26:1 30:1 31:1 33:1 35:1 37:1 
1 1:1 6:1 8:0.105263 9:1 11:1 13:1 15:1 17:1 19:1 21:1 25:1 26:1 30:1 31:1 33:1 35:1 37:1 
1 1:1 4:0.0115942 5:0.0103806 6:1 8:0.22807 9:1 12:1 13:1 15:1 17:1 19:1 21:1 24:1 26:1 30:1 31:1 33:1 35:1 37:1 
1 1:1 5:0.0017301 6:1 8:0.105263 9:1 11:1 13:1 15:1 17:1 19:1 21:1 24:1 26:1 30:1 31:1 33:1 35:1 37:1 
1 1:1 6:1 8:0.0701754 9:1 11:1 13:1 16:1 17:1 19:1 21:1 24:1 26:1 30:1 31:1 33:1 36:1 37:1 
1 1:1 4:0.00869565 5:0.0121107 6:1 8:0.0701754 9:1 11:1 13:1 16:1 17:1 19:1 21:1 24:1 26:1 30:1 31:1 33:1 36:1 37:1 
1 1:1 4:0.00289855 6:1 8:0.0877193 9:1 11:1 13:1 16:1 17:1 19:1 21:1 24:1 26:1 30:1 31:1 33:1 36:1 37:1 
1 1:1 6:1 8:0.0701754 9:1 11:1 13:1 16:1 17:1 19:1 21:1 24:1 26:1 30:1 31:1 33:1 36:1 37:1 
0.1976019911260157 1:1 5:0.0017301 6:1 8:0.0877193 9:1 11:1 13:1 16:1 17:1 19:1 21:1 24:1 26:1 30:1 31:1 33:1 36:1 37:1 
1 1:1 5:0.0121107 6:1 8:0.0877193 9:1 11:1 13:1 16:1 17:1 19:1 21:1 24:1 26:1 30:1 31:1 33:1 35:1 37:1 
1 1:1 4:0.00289855 5:0.0017301 6:1 8:0.0877193 9:1 11:1 13:1 16:1 17:1 19:1 21:1 24:1 26:1 30:1 31:1 33:1 35:1 37:1 
1 1:1 6:1 8:0.0701754 9:1 11:1 13:1 16:1 17:1 19:1 21:1 24:1 26:1 30:1 31:1 33:1 35:1 37:1 
1 1:1 6:1 8:0.0701754 9:1 11:1 13:1 15:1 17:1 19:1 21:1 24:1 26:1 29:1 31:1 33:1 36:1 37:1 
1 1:1 4:0.00289855 5:0.0103806 6:1 8:0.0701754 9:1 11:1 13:1 15:1 17:1 19:1 21:1 24:1 26:1 29:1 31:1 33:1 36:1 37:1 
1 1:1 5:0.00346021 6:1 8:0.0701754 9:1 11:1 13:1 15:1 17:1 19:1 21:1 24:1 26:1 29:1 31:1 33:1 36:1 37:1 
1 1:1 6:1 8:0.0701754 9:1 11:1 13:1 15:1 17:1 19:1 21:1 24:1 26:1 29:1 31:1 33:1 36:1 37:1 
1 1:1 5:0.0017301 6:1 8:0.105263 9:1 11:1 13:1 15:1 17:1 19:1 21:1 24:1 26:1 29:1 31:1 33:1 36:1 37:1 
1 1:1 4:0.0057971 5:0.0155709 6:1 8:0.0701754 9:1 11:1 13:1 15:1 17:1 19:1 21:1 24:1 26:1 29:1 31:1 33:1 36:1 37:1 
1 1:1 6:1 8:0.45614 10:1 11:1 13:1 15:1 17:1 19:1 21:1 25:1 26:1 30:1 31:1 33:1 35:1 37:1 
1 1:1 6:1 8:0.0877193 9:1 11:1 13:1 15:1 17:1 19:1 21:1 24:1 26:1 30:1 31:1 33:1 35:1 37:1 
1 1:1 6:1 8:0.0877193 9:1 11:1 13:1 15:1 17:1 19:1 21:1 25:1 26:1 30:1 31:1 33:1 35:1 37:1 
1 1:1 4:0.00289855 5:0.0017301 6:1 8:0.0877193 9:1 11:1 13:1 15:1 17:1 19:1 21:1 25:1 26:1 30:1 31:1 33:1 35:1 37:1 
1 1:1 6:1 8:0.0877193 9:1 11:1 13:1 15:1 17:1 19:1 21:1 25:1 26:1 30:1 31:1 33:1 35:1 37:1 
1 1:1 6:1 8:0.105263 9:1 11:1 13:1 15:1 17:1 19:1 21:1 25:1 26:1 30:1 31:1 33:1 35:1 37:1 
1 1:1 6:1 8:0.0701754 9:1 11:1 13:1 15:1 17:1 19:1 21:1 24:1 26:1 29:1 31:1 33:1 36:1 37:1 
1 1:1 5:0.0017301 6:1 8:0.105263 9:1 11:1 13:1 15:1 17:1 19:1 21:1 24:1 26:1 29:1 31:1 33:1 36:1 37:1 
1 1:1 4:0.00289855 5:0.0103806 6:1 8:0.0701754 9:1 11:1 13:1 15:1 17:1 19:1 21:1 24:1 26:1 29:1 31:1 33:1 36:1 37:1 
1 1:1 6:1 8:0.245614 10:1 11:1 13:1 15:1 17:1 19:1 21:1 24:1 26:1 30:1 31:1 33:1 35:1 37:1 
1 1:1 4:0.00289855 5:0.0017301 6:1 8:0.105263 9:1 11:1 13:1 15:1 17:1 19:1 21:1 24:1 26:1 29:1 31:1 33:1 36:1 37:1 
1 1:1 6:1 8:0.0701754 9:1 11:1 13:1 15:1 17:1 19:1 21:1 24:1 26:1 29:1 31:1 33:1 36:1 37:1 
1 1:1 5:0.00519031 6:1 8:0.0701754 9:1 11:1 13:1 15:1 17:1 19:1 21:1 24:1 26:1 29:1 31:1 33:1 36:1 37:1 
1 1:1 6:1 8:0.0701754 9:1 11:1 13:1 15:1 17:1 19:1 21:1 24:1 26:1 29:1 31:1 33:1 36:1 37:1 
1 1:1 5:0.0017301 6:1 8:0.105263 9:1 11:1 13:1 15:1 17:1 19:1 21:1 24:1 26:1 29:1 31:1 33:1 36:1 37:1 
1 1:1 4:0.00289855 5:0.00692042 6:1 8:0.0877193 9:1 11:1 13:1 15:1 17:1 19:1 21:1 25:1 26:1 29:1 31:1 33:1 35:1 37:1 
1 1:1 5:0.0017301 6:1 8:0.0175439 9:1 11:1 13:1 15:1 17:1 19:1 21:1 24:1 26:1 28:1 31:1 33:1 35:1 37:1 
1 1:1 4:0.00289855 5:0.0017301 6:1 8:0.0701754 9:1 11:1 13:1 15:1 17:1 19:1 21:1 24:1 26:1 30:1 31:1 33:1 35:1 37:1 
1 1:1 6:1 8:0.105263 9:1 11:1 13:1 15:1 17:1 19:1 21:1 24:1 26:1 29:1 31:1 33:1 35:1 37:1 
1 1:1 6:1 8:0.0175439 9:1 11:1 13:1 15:1 17:1 19:1 21:1 24:1 26:1 28:1 31:1 33:1 35:1 37:1 
1 1:1 4:0.00289855 5:0.00519031 6:1 8:0.0526316 9:1 11:1 13:1 15:1 17:1 19:1 21:1 25:1 26:1 28:1 31:1 33:1 35:1 37:1 
1 1:1 6:1 8:0.385965 9:1 11:1 13:1 15:1 17:1 19:1 21:1 25:1 26:1 30:1 32:1 33:1 35:1 37:1 
1 1:1 4:0.00869565 5:0.0121107 7:1 9:1 11:1 13:1 16:1 17:1 19:1 22:1 24:1 26:1 29:1 31:1 33:1 36:1 37:1 
1 1:1 4:0.0115942 5:0.017301 6:1 8:0.245614 9:1 11:1 13:1 15:1 17:1 19:1 21:1 25:1 27:1 30:1 31:1 33:1 35:1 37:1 
1 1:1 4:0.22029 5:0.237024 6:1 8:0.245614 9:1 11:1 13:1 15:1 17:1 19:1 21:1 25:1 27:1 30:1 31:1 33:1 35:1 37:1 
1 1:1 4:0.257971 5:0.304498 6:1 8:0.245614 9:1 11:1 13:1 15:1 17:1 19:1 21:1 25:1 27:1 30:1 31:1 33:1 35:1 37:1 
1 1:1 4:0.130435 5:0.110727 6:1 8:0.157895 9:1 12:1 13:1 15:1 17:1 19:1 21:1 24:1 26:1 30:1 31:1 33:1 35:1 37:1 
1 1:1 4:0.0057971 5:0.00346021 6:1 8:0.175439 9:1 12:1 13:1 15:1 17:1 19:1 21:1 24:1 26:1 30:1 31:1 33:1 35:1 37:1 
1 1:1 4:0.0057971 5:0.00346021 6:1 8:0.0175439 9:1 11:1 13:1 15:1 17:1 19:1 21:1 24:1 26:1 30:1 31:1 33:1 35:1 37:1 
1 1:1 4:0.0144928 5:0.00519031 6:1 8:0.0526316 9:1 11:1 13:1 15:1 17:1 19:1 21:1 24:1 26:1 30:1 31:1 33:1 35:1 37:1 
1 1:1 4:0.0144928 5:0.00692042 6:1 8:0.0526316 9:1 11:1 13:1 15:1 17:1 19:1 21:1 24:1 26:1 30:1 31:1 33:1 35:1 37:1 
1 1:1 4:0.00869565 6:1 8:0.0526316 9:1 11:1 13:1 15:1 17:1 19:1 21:1 24:1 26:1 30:1 31:1 33:1 35:1 37:1 
1 1:1 4:0.00869565 5:0.0017301 6:1 8:0.0701754 9:1 11:1 13:1 15:1 17:1 19:1 21:1 24:1 26:1 30:1 31:1 33:1 35:1 37:1 
1 1:1 4:0.0231884 5:0.0103806 6:1 8:0.0350877 9:1 11:1 13:1 15:1 17:1 19:1 21:1 24:1 26:1 30:1 31:1 33:1 35:1 37:1 
1 1:1 4:0.0434783 5:0.0519031 6:1 8:0.157895 9:1 12:1 13:1 15:1 17:1 19:1 21:1 24:1 26:1 30:1 31:1 33:1 35:1 37:1 
1 1:1 4:0.0144928 5:0.00865052 6:1 8:0.0526316 9:1 11:1 13:1 15:1 17:1 19:1 21:1 24:1 26:1 30:1 31:1 33:1 35:1 37:1 
1 1:1 4:0.00289855 5:0.00692042 6:1 8:0.0175439 9:1 11:1 13:1 15:1 17:1 19:1 21:1 24:1 26:1 29:1 31:1 33:1 35:1 37:1 
0.3366065625076232 1:1 4:0.0144928 5:0.0294118 6:1 8:0.0175439 9:1 11:1 13:1 15:1 17:1 19:1 21:1 24:1 26:1 29:1 31:1 33:1 35:1 37:1 
1 1:1 6:1 8:0.0701754 9:1 11:1 13:1 16:1 17:1 19:1 21:1 24:1 26:1 30:1 31:1 33:1 36:1 37:1 
1 1:1 4:0.0115942 5:0.017301 6:1 8:0.0877193 9:1 11:1 13:1 16:1 17:1 19:1 21:1 24:1 26:1 30:1 31:1 33:1 35:1 37:1 
1 1:1 4:0.0115942 5:0.0207612 6:1 8:0.0701754 9:1 11:1 13:1 16:1 17:1 19:1 21:1 24:1 26:1 30:1 31:1 33:1 35:1 37:1 
1 1:1 6:1 8:0.140351 9:1 11:1 13:1 16:1 17:1 19:1 21:1 24:1 26:1 30:1 31:1 33:1 35:1 37:1 
1 1:1 6:1 8:0.122807 9:1 11:1 13:1 16:1 17:1 19:1 21:1 24:1 26:1 30:1 31:1 33:1 35:1 37:1 
1 1:1 4:0.278261 5:0.204152 6:1 8:0.140351 9:1 11:1 13:1 15:1 17:1 19:1 22:1 24:1 26:1 30:1 31:1 33:1 35:1 37:1 
1 1:1 4:0.00289855 6:1 8:0.0877193 9:1 11:1 13:1 15:1 17:1 19:1 21:1 24:1 26:1 30:1 31:1 33:1 35:1 37:1 
1 1:1 4:0.00289855 5:0.0017301 6:1 8:0.105263 9:1 11:1 13:1 15:1 17:1 19:1 21:1 24:1 26:1 30:1 31:1 33:1 35:1 37:1 
1 1:1 4:0.00289855 6:1 8:0.0526316 9:1 11:1 13:1 15:1 17:1 19:1 21:1 24:1 26:1 30:1 31:1 33:1 35:1 37:1 
1 1:1 4:0.0057971 5:0.00692042 6:1 8:0.0701754 9:1 11:1 13:1 15:1 17:1 19:1 21:1 24:1 26:1 30:1 31:1 33:1 35:1 37:1 
1 1:1 6:1 8:0.140351 9:1 11:1 13:1 16:1 17:1 19:1 21:1 24:1 26:1 30:1 31:1 33:1 35:1 37:1 
1 1:1 4:0.0057971 5:0.0017301 6:1 8:0.0701754 9:1 11:1 13:1 15:1 17:1 19:1 21:1 25:1 26:1 30:1 31:1 33:1 35:1 37:1 
1 1:1 4:0.0057971 5:0.0017301 6:1 8:0.105263 9:1 11:1 13:1 15:1 17:1 19:1 21:1 24:1 26:1 30:1 31:1 33:1 35:1 37:1 
1 1:1 4:0.0057971 5:0.0017301 6:1 8:0.105263 9:1 11:1 13:1 15:1 17:1 19:1 21:1 24:1 26:1 30:1 31:1 33:1 35:1 37:1 
1 1:1 6:1 8:0.0701754 9:1 11:1 13:1 15:1 17:1 19:1 21:1 24:1 26:1 30:1 31:1 33:1 35:1 37:1 
1 1:1 4:0.00289855 5:0.0017301 6:1 8:0.0526316 9:1 11:1 13:1 16:1 17:1 19:1 21:1 24:1 26:1 30:1 31:1 33:1 36:1 37:1 
1 1:1 4:0.00289855 5:0.0017301 6:1 8:0.0701754 9:1 11:1 13:1 15:1 17:1 19:1 21:1 24:1 26:1 30:1 31:1 33:1 35:1 37:1 
1 1:1 6:1 8:0.0526316 9:1 11:1 13:1 16:1 17:1 19:1 21:1 24:1 26:1 30:1 31:1 33:1 35:1 37:1 
1 1:1 5:0.0103806 6:1 8:0.0701754 9:1 11:1 13:1 16:1 17:1 19:1 21:1 24:1 26:1 30:1 31:1 33:1 35:1 37:1 
1 1:1 4:0.00869565 5:0.00346021 6:1 8:0.0877193 9:1 11:1 13:1 15:1 17:1 19:1 21:1 24:1 26:1 30:1 31:1 33:1 35:1 37:1 
1 1:1 6:1 8:0.0350877 9:1 11:1 13:1 15:1 17:1 19:1 21:1 24:1 26:1 28:1 31:1 33:1 35:1 37:1 
1 1:1 5:0.0017301 6:1 8:0.105263 9:1 11:1 13:1 15:1 17:1 19:1 21:1 24:1 26:1 30:1 31:1 33:1 35:1 37:1 
1 1:1 6:1 8:0.0701754 9:1 11:1 13:1 15:1 17:1 19:1 21:1 24:1 26:1 30:1 31:1 33:1 35:1 37:1 
1 1:1 6:1 8:0.210526 10:1 11:1 13:1 15:1 17:1 19:1 21:1 24:1 26:1 30:1 31:1 33:1 35:1 37:1 
1 1:1 6:1 8:0.140351 10:1 11:1 13:1 15:1 17:1 19:1 21:1 24:1 26:1 30:1 31:1 33:1 35:1 37:1 
1 1:1 4:0.00289855 5:0.00692042 6:1 8:0.0701754 9:1 11:1 13:1 15:1 17:1 20:1 21:1 24:1 26:1 29:1 31:1 33:1 35:1 37:1 
1 1:1 6:1 8:0.0701754 9:1 11:1 13:1 15:1 17:1 19:1 21:1 24:1 26:1 29:1 31:1 33:1 36:1 37:1 
1 1:1 5:0.00346021 6:1 8:0.105263 9:1 11:1 13:1 15:1 17:1 19:1 21:1 24:1 26:1 29:1 31:1 33:1 36:1 37:1 
1 1:1 4:0.00289855 5:0.00692042 6:1 8:0.0701754 9:1 11:1 13:1 15:1 17:1 19:1 21:1 24:1 26:1 29:1 31:1 33:1 36:1 37:1 
1 1:1 6:1 8:0.105263 9:1 11:1 13:1 15:1 17:1 19:1 21:1 24:1 26:1 30:1 31:1 33:1 35:1 37:1 
1 1:1 6:1 8:0.157895 10:1 11:1 13:1 15:1 17:1 19:1 21:1 25:1 26:1 30:1 31:1 33:1 35:1 37:1 
1 1:1 4:0.0057971 6:1 8:0.0877193 9:1 11:1 13:1 15:1 17:1 19:1 21:1 24:1 26:1 30:1 31:1 33:1 35:1 37:1 
1 1:1 4:0.00289855 6:1 8:0.105263 9:1 11:1 13:1 15:1 17:1 19:1 21:1 24:1 26:1 30:1 31:1 33:1 35:1 37:1 
1 1:1 6:1 8:0.105263 9:1 11:1 13:1 15:1 17:1 19:1 21:1 24:1 26:1 30:1 31:1 33:1 35:1 37:1 
0.4685159441297919 1:1 5:0.0017301 6:1 8:0.0350877 9:1 11:1 13:1 15:1 17:1 19:1 21:1 25:1 26:1 30:1 31:1 33:1 36:1 37:1 
1 1:1 6:1 8:0.0350877 9:1 11:1 13:1 15:1 17:1 19:1 21:1 24:1 26:1 28:1 31:1 33:1 35:1 37:1 
1 1:1 6:1 8:0.0175439 9:1 11:1 13:1 15:1 17:1 19:1 21:1 24:1 26:1 28:1 31:1 33:1 35:1 37:1 
1 1:1 5:0.0017301 6:1 8:0.0175439 9:1 11:1 13:1 15:1 17:1 19:1 21:1 24:1 26:1 28:1 31:1 33:1 35:1 37:1 
1 1:1 4:0.00289855 5:0.00346021 6:1 8:0.0877193 9:1 11:1 13:1 15:1 17:1 19:1 21:1 24:1 26:1 30:1 31:1 33:1 35:1 37:1 
1 1:1 6:1 8:0.0877193 9:1 11:1 13:1 15:1 17:1 19:1 21:1 24:1 26:1 30:1 31:1 33:1 35:1 37:1 
1 1:1 4:0.00289855 6:1 8:0.105263 9:1 11:1 13:1 15:1 17:1 19:1 21:1 24:1 26:1 30:1 31:1 33:1 35:1 37:1 
1 1:1 6:1 8:0.140351 9:1 11:1 13:1 16:1 17:1 19:1 21:1 24:1 26:1 30:1 31:1 33:1 35:1 37:1 
1 1:1 4:0.0057971 6:1 8:0.666667 9:1 11:1 13:1 15:1 17:1 19:1 21:1 25:1 26:1 30:1 31:1 33:1 35:1 37:1 
1 1:1 4:0.00869565 5:0.00346021 6:1 8:0.736842 9:1 11:1 13:1 15:1 17:1 19:1 21:1 24:1 26:1 30:1 31:1 33:1 35:1 37:1 
1 1:1 4:0.00869565 5:0.00519031 6:1 8:0.649123 9:1 11:1 13:1 15:1 17:1 19:1 21:1 25:1 26:1 30:1 31:1 33:1 35:1 37:1 
1 1:1 4:0.0057971 6:1 8:0.105263 9:1 11:1 13:1 15:1 17:1 19:1 21:1 24:1 26:1 30:1 31:1 33:1 35:1 37:1 
1 1:1 5:0.0017301 6:1 8:0.105263 9:1 11:1 13:1 15:1 17:1 19:1 21:1 24:1 26:1 30:1 31:1 33:1 35:1 37:1 
1 1:1 4:0.00289855 6:1 8:0.0877193 9:1 11:1 13:1 15:1 17:1 19:1 21:1 24:1 26:1 30:1 31:1 33:1 35:1 37:1 
1 1:1 6:1 8:0.105263 9:1 11:1 13:1 15:1 17:1 19:1 21:1 24:1 26:1 30:1 31:1 33:1 35:1 37:1 
1 1:1 5:0.0017301 6:1 8:0.105263 9:1 11:1 13:1 15:1 17:1 19:1 21:1 24:1 26:1 30:1 31:1 33:1 35:1 37:1 
1 1:1 6:1 8:0.105263 9:1 11:1 13:1 15:1 17:1 19:1 21:1 24:1 26:1 30:1 31:1 33:1 35:1 37:1 
1 1:1 4:0.00289855 6:1 8:0.0526316 9:1 11:1 13:1 15:1 17:1 19:1 21:1 24:1 26:1 30:1 31:1 33:1 35:1 37:1 
1 1:1 6:1 8:0.140351 9:1 11:1 13:1 16:1 17:1 19:1 21:1 24:1 26:1 30:1 31:1 33:1 35:1 37:1 
1 1:1 5:0.00346021 6:1 8:0.157895 9:1 11:1 13:1 16:1 17:1 19:1 21:1 24:1 26:1 30:1 31:1 33:1 35:1 37:1 
0.7181588367728108 1:1 4:0.0057971 6:1 8:0.0350877 9:1 11:1 13:1 15:1 17:1 19:1 21:1 24:1 26:1 28:1 31:1 33:1 35:1 37:1 
1 1:1 4:0.0695652 5:0.0899654 7:1 9:1 11:1 13:1 15:1 17:1 19:1 21:1 25:1 26:1 30:1 31:1 33:1 36:1 37:1 
1 1:1 4:0.0695652 5:0.0951557 7:1 9:1 11:1 13:1 15:1 17:1 19:1 21:1 25:1 26:1 30:1 31:1 33:1 35:1 37:1 
1 1:1 6:1 8:0.350877 9:1 11:1 13:1 15:1 17:1 19:1 21:1 25:1 26:1 30:1 32:1 33:1 35:1 37:1 
1 1:1 6:1 8:0.385965 10:1 11:1 13:1 15:1 17:1 19:1 21:1 24:1 26:1 30:1 31:1 33:1 35:1 37:1 
1 1:1 6:1 8:0.666667 9:1 11:1 13:1 15:1 17:1 19:1 21:1 24:1 26:1 30:1 31:1 33:1 35:1 37:1 
1 1:1 5:0.0017301 6:1 8:0.631579 9:1 11:1 13:1 15:1 17:1 19:1 21:1 24:1 26:1 30:1 31:1 33:1 35:1 37:1 
1 1:1 5:0.0017301 6:1 8:0.0175439 9:1 11:1 13:1 15:1 17:1 19:1 21:1 23:1 26:1 30:1 31:1 33:1 35:1 37:1 
0.7838715869526963 1:1 5:0.0017301 6:1 8:0.0350877 9:1 11:1 13:1 15:1 17:1 19:1 21:1 24:1 26:1 30:1 31:1 33:1 36:1 37:1 
1 1:1 4:0.00289855 6:1 8:0.0350877 9:1 11:1 13:1 15:1 17:1 19:1 21:1 24:1 26:1 30:1 31:1 33:1 36:1 37:1 
1 1:1 6:1 8:0.0350877 9:1 11:1 13:1 15:1 17:1 19:1 21:1 25:1 26:1 30:1 31:1 33:1 36:1 37:1 
1 1:1 4:0.0115942 5:0.0294118 7:1 9:1 11:1 13:1 15:1 17:1 19:1 21:1 25:1 26:1 30:1 31:1 33:1 36:1 37:1 
1 1:1 4:0.185507 5:0.307958 7:1 9:1 11:1 13:1 15:1 17:1 19:1 21:1 25:1 26:1 30:1 31:1 33:1 35:1 37:1 
1 1:1 6:1 8:0.0701754 9:1 11:1 13:1 15:1 17:1 19:1 21:1 24:1 26:1 29:1 31:1 33:1 35:1 37:1 
1 1:1 5:0.0017301 6:1 8:0.0175439 9:1 11:1 13:1 15:1 17:1 19:1 21:1 23:1 26:1 30:1 31:1 33:1 35:1 37:1 
1 1:1 4:0.0956522 5:0.107266 7:1 9:1 11:1 13:1 15:1 17:1 20:1 21:1 24:1 26:1 29:1 31:1 33:1 36:1 37:1 
1 1:1 4:0.176812 5:0.223183 7:1 9:1 12:1 13:1 15:1 17:1 19:1 21:1 24:1 26:1 30:1 31:1 33:1 35:1 37:1 
1 1:1 4:0.185507 5:0.242215 7:1 9:1 12:1 13:1 15:1 17:1 19:1 21:1 24:1 26:1 30:1 31:1 33:1 35:1 37:1 
1 1:1 6:1 8:0.0526316 9:1 11:1 13:1 15:1 17:1 19:1 21:1 25:1 26:1 30:1 31:1 33:1 35:1 37:1 
1 1:1 4:0.00289855 5:0.00346021 6:1 8:0.0701754 9:1 11:1 13:1 15:1 17:1 19:1 21:1 24:1 26:1 30:1 31:1 33:1 35:1 37:1 
1 1:1 4:0.00289855 5:0.00692042 6:1 8:0.0701754 9:1 11:1 13:1 15:1 17:1 19:1 21:1 24:1 26:1 30:1 31:1 33:1 35:1 37:1 
0.09132996622879243 1:1 5:0.0017301 6:1 8:0.0350877 9:1 11:1 13:1 15:1 17:1 19:1 21:1 25:1 26:1 30:1 31:1 33:1 36:1 37:1 
1 1:1 4:0.0521739 5:0.0622837 7:1 9:1 11:1 13:1 15:1 17:1 19:1 21:1 25:1 26:1 30:1 31:1 33:1 36:1 37:1 
1 1:1 4:0.144928 5:0.155709 7:1 9:1 11:1 13:1 15:1 17:1 19:1 21:1 25:1 26:1 30:1 31:1 33:1 35:1 37:1 
1 1:1 4:0.0057971 5:0.00865052 6:1 8:0.0175439 9:1 11:1 13:1 15:1 17:1 19:1 21:1 24:1 26:1 29:1 31:1 33:1 35:1 37:1 
1 1:1 6:1 8:0.0175439 9:1 11:1 13:1 15:1 17:1 19:1 21:1 24:1 26:1 29:1 31:1 33:1 35:1 37:1 
1 1:1 4:0.0405797 5:0.00865052 6:1 8:0.0350877 9:1 11:1 13:1 15:1 17:1 19:1 21:1 24:1 26:1 30:1 31:1 33:1 35:1 37:1 
1 1:1 4:0.00289855 5:0.0017301 6:1 8:0.0701754 9:1 11:1 13:1 15:1 17:1 19:1 21:1 24:1 26:1 30:1 31:1 33:1 35:1 37:1 
1 1:1 4:0.00289855 6:1 8:0.0526316 9:1 11:1 13:1 15:1 17:1 19:1 21:1 24:1 26:1 30:1 31:1 33:1 35:1 37:1 
1 1:1 4:0.00869565 5:0.00692042 6:1 8:0.859649 9:1 11:1 13:1 15:1 17:1 19:1 21:1 24:1 26:1 30:1 31:1 33:1 35:1 37:1 
1 1:1 4:0.0057971 5:0.00519031 6:1 8:0.877193 9:1 11:1 13:1 15:1 17:1 19:1 21:1 24:1 26:1 30:1 31:1 33:1 35:1 37:1 
1 1:1 6:1 8:0.701754 9:1 11:1 13:1 15:1 17:1 19:1 21:1 24:1 26:1 30:1 31:1 33:1 35:1 37:1 
1 1:1 4:0.00289855 5:0.0017301 6:1 8:0.701754 9:1 11:1 13:1 15:1 17:1 19:1 21:1 24:1 26:1 30:1 31:1 33:1 35:1 37:1 
1 1:1 4:0.0057971 5:0.00865052 6:1 8:0.701754 9:1 11:1 13:1 15:1 17:1 19:1 21:1 24:1 26:1 30:1 31:1 33:1 35:1 37:1 
1 1:1 4:0.00869565 5:0.0103806 6:1 8:0.736842 9:1 11:1 13:1 15:1 17:1 19:1 21:1 24:1 26:1 30:1 31:1 33:1 35:1 37:1 
1 1:1 4:0.00869565 5:0.0121107 6:1 8:0.77193 9:1 11:1 13:1 15:1 17:1 19:1 21:1 24:1 26:1 30:1 31:1 33:1 35:1 37:1 
1 1:1 4:0.00869565 5:0.0138408 6:1 8:0.859649 9:1 11:1 13:1 15:1 17:1 19:1 21:1 24:1 26:1 30:1 31:1 33:1 35:1 37:1 
1 1:1 4:0.00869565 5:0.017301 6:1 8:0.877193 9:1 11:1 13:1 15:1 17:1 19:1 21:1 24:1 26:1 30:1 31:1 33:1 35:1 37:1 
1 1:1 6:1 8:0.140351 9:1 11:1 13:1 16:1 17:1 19:1 21:1 24:1 26:1 30:1 31:1 33:1 35:1 37:1 
1 1:1 5:0.00346021 6:1 8:0.157895 9:1 11:1 13:1 16:1 17:1 19:1 21:1 24:1 26:1 30:1 31:1 33:1 35:1 37:1 
1 1:1 6:1 8:0.0701754 9:1 11:1 13:1 15:1 17:1 19:1 21:1 24:1 26:1 29:1 31:1 33:1 36:1 37:1 
1 1:1 5:0.0017301 6:1 8:0.105263 9:1 11:1 13:1 15:1 17:1 19:1 21:1 24:1 26:1 29:1 31:1 33:1 36:1 37:1 
1 1:1 4:0.00289855 5:0.0017301 6:1 8:0.105263 9:1 11:1 13:1 15:1 17:1 19:1 21:1 24:1 26:1 29:1 31:1 33:1 36:1 37:1 
1 1:1 6:1 8:0.0701754 9:1 11:1 13:1 15:1 17:1 19:1 21:1 24:1 26:1 29:1 31:1 33:1 36:1 37:1 
1 1:1 6:1 8:0.0701754 9:1 11:1 13:1 15:1 17:1 19:1 21:1 24:1 26:1 29:1 31:1 33:1 35:1 37:1 
1 1:1 4:0.00289855 5:0.00692042 7:1 9:1 11:1 13:1 15:1 17:1 19:1 21:1 24:1 26:1 29:1 31:1 33:1 36:1 37:1 
1 1:1 5:0.00865052 6:1 8:0.0350877 9:1 11:1 13:1 15:1 17:1 19:1 21:1 25:1 26:1 30:1 31:1 33:1 35:1 37:1 
1 1:1 6:1 8:0.0701754 9:1 11:1 13:1 16:1 17:1 19:1 21:1 24:1 26:1 30:1 31:1 33:1 36:1 37:1 
1 1:1 4:0.0057971 6:1 8:0.0701754 9:1 11:1 13:1 16:1 17:1 19:1 21:1 24:1 26:1 30:1 31:1 33:1 36:1 37:1 
1 1:1 6:1 8:0.0701754 9:1 11:1 13:1 16:1 17:1 19:1 21:1 24:1 26:1 30:1 31:1 33:1 36:1 37:1 
1 1:1 4:0.00289855 6:1 8:0.0877193 9:1 11:1 13:1 16:1 17:1 19:1 21:1 24:1 26:1 30:1 31:1 33:1 36:1 37:1 
1 1:1 6:1 8:0.0701754 9:1 11:1 13:1 16:1 17:1 19:1 21:1 24:1 26:1 30:1 31:1 33:1 36:1 37:1 
1 1:1 5:0.0017301 6:1 8:0.0877193 9:1 11:1 13:1 16:1 17:1 19:1 21:1 24:1 26:1 30:1 31:1 33:1 36:1 37:1 
1 1:1 5:0.00519031 6:1 8:0.0701754 9:1 11:1 13:1 16:1 17:1 19:1 21:1 24:1 26:1 30:1 31:1 33:1 36:1 37:1 
1 1:1 4:0.00289855 5:0.0138408 6:1 8:0.0877193 9:1 11:1 13:1 16:1 17:1 19:1 21:1 24:1 26:1 30:1 31:1 33:1 35:1 37:1 
1 1:1 6:1 8:0.192982 10:1 11:1 13:1 15:1 17:1 19:1 21:1 24:1 26:1 30:1 31:1 33:1 35:1 37:1 
1 1:1 6:1 8:0.0701754 9:1 11:1 13:1 15:1 17:1 19:1 21:1 24:1 26:1 29:1 31:1 33:1 35:1 37:1 
1 1:1 4:0.026087 6:1 8:0.105263 9:1 11:1 13:1 15:1 17:1 19:1 21:1 24:1 26:1 30:1 31:1 33:1 35:1 37:1 
1 1:1 4:0.0057971 5:0.0017301 7:1 9:1 12:1 13:1 15:1 17:1 19:1 22:1 24:1 26:1 30:1 31:1 33:1 35:1 37:1 
1 1:1 4:0.00289855 6:1 8:0.0350877 9:1 11:1 13:1 15:1 17:1 19:1 21:1 25:1 26:1 30:1 31:1 33:1 36:1 37:1 
1 1:1 4:0.00289855 5:0.0017301 6:1 8:0.0526316 9:1 11:1 13:1 15:1 17:1 19:1 21:1 24:1 26:1 29:1 31:1 33:1 35:1 37:1 
1 1:1 5:0.0017301 6:1 8:0.0526316 9:1 11:1 13:1 15:1 17:1 19:1 21:1 24:1 26:1 29:1 31:1 33:1 35:1 37:1 
1 1:1 5:0.00346021 6:1 8:0.0526316 9:1 11:1 13:1 15:1 17:1 19:1 21:1 24:1 26:1 29:1 31:1 33:1 35:1 37:1 
1 1:1 4:0.00869565 5:0.0103806 6:1 8:0.0526316 9:1 11:1 13:1 15:1 17:1 19:1 21:1 24:1 26:1 29:1 31:1 33:1 35:1 37:1 
1 1:1 4:0.0115942 5:0.0155709 6:1 8:0.0526316 9:1 11:1 13:1 15:1 17:1 19:1 21:1 24:1 26:1 29:1 31:1 33:1 35:1 37:1 
1 1:1 4:0.0753623 5:0.124567 7:1 9:1 11:1 13:1 15:1 17:1 19:1 21:1 24:1 26:1 29:1 31:1 33:1 36:1 38:1 
1 1:1 5:0.0017301 6:1 8:0.0350877 9:1 11:1 13:1 15:1 17:1 19:1 21:1 24:1 26:1 29:1 31:1 33:1 36:1 37:1 
1 1:1 5:0.00346021 7:1 9:1 11:1 13:1 15:1 17:1 19:1 21:1 24:1 26:1 29:1 31:1 33:1 36:1 37:1 
1 1:1 5:0.00692042 6:1 8:0.0175439 9:1 11:1 13:1 15:1 17:1 19:1 21:1 25:1 26:1 30:1 31:1 33:1 35:1 37:1 
1 1:1 5:0.00865052 7:1 9:1 11:1 13:1 15:1 17:1 19:1 21:1 24:1 26:1 29:1 31:1 33:1 36:1 37:1 
1 1:1 4:0.00289855 5:0.0155709 7:1 9:1 11:1 13:1 15:1 17:1 19:1 21:1 24:1 26:1 29:1 31:1 33:1 36:1 37:1 
1 1:1 4:0.0057971 5:0.0207612 7:1 9:1 11:1 13:1 15:1 17:1 19:1 21:1 24:1 26:1 29:1 31:1 33:1 36:1 37:1 
1 1:1 4:0.0115942 5:0.0294118 6:1 8:0.0350877 9:1 11:1 13:1 15:1 17:1 19:1 21:1 24:1 26:1 29:1 31:1 33:1 36:1 37:1 
1 1:1 4:0.0115942 5:0.0311419 7:1 9:1 11:1 13:1 15:1 17:1 19:1 21:1 24:1 26:1 29:1 31:1 33:1 36:1 37:1 
1 1:1 4:0.0144928 5:0.0380623 7:1 9:1 11:1 13:1 15:1 17:1 19:1 21:1 24:1 26:1 29:1 31:1 33:1 36:1 37:1 
1 1:1 4:0.0173913 5:0.0415225 7:1 9:1 11:1 13:1 15:1 17:1 19:1 21:1 24:1 26:1 29:1 31:1 33:1 36:1 37:1 
1 1:1 4:0.0173913 5:0.0449827 7:1 9:1 11:1 13:1 15:1 17:1 19:1 21:1 24:1 26:1 29:1 31:1 33:1 36:1 37:1 
1 1:1 4:0.0231884 5:0.0553633 7:1 9:1 11:1 13:1 15:1 17:1 19:1 21:1 24:1 26:1 29:1 31:1 33:1 36:1 37:1 
1 1:1 4:0.0231884 5:0.0605536 7:1 9:1 11:1 13:1 15:1 17:1 19:1 21:1 24:1 26:1 29:1 31:1 33:1 35:1 37:1 
1 1:1 5:0.0017301 6:1 8:0.0175439 9:1 11:1 13:1 15:1 17:1 19:1 21:1 25:1 26:1 30:1 31:1 33:1 35:1 37:1 
1 1:1 6:1 8:0.0175439 9:1 11:1 13:1 15:1 17:1 19:1 21:1 25:1 26:1 30:1 31:1 33:1 35:1 37:1 
1 1:1 4:0.00289855 5:0.00692042 6:1 8:0.0175439 9:1 11:1 13:1 15:1 17:1 19:1 21:1 25:1 26:1 30:1 31:1 33:1 35:1 37:1 
1 1:1 4:0.0057971 5:0.0121107 6:1 8:0.0175439 9:1 11:1 13:1 15:1 17:1 19:1 21:1 25:1 26:1 30:1 31:1 33:1 35:1 37:1 
1 1:1 4:0.00869565 5:0.0017301 6:1 8:0.0877193 9:1 11:1 13:1 15:1 17:1 19:1 21:1 24:1 26:1 30:1 31:1 33:1 35:1 37:1 
1 1:1 4:0.00289855 6:1 8:0.0701754 9:1 11:1 13:1 15:1 17:1 19:1 21:1 24:1 26:1 30:1 31:1 33:1 35:1 37:1 
1 1:1 4:0.00289855 5:0.0017301 6:1 8:0.105263 9:1 11:1 13:1 15:1 17:1 19:1 21:1 24:1 26:1 30:1 31:1 33:1 35:1 37:1 
1 1:1 6:1 8:0.0701754 9:1 11:1 13:1 15:1 17:1 19:1 21:1 24:1 26:1 30:1 31:1 33:1 35:1 37:1 
1 1:1 4:0.0289855 5:0.00346021 6:1 8:0.0701754 9:1 11:1 13:1 15:1 17:1 19:1 21:1 24:1 26:1 30:1 31:1 33:1 35:1 37:1 
1 1:1 4:0.0347826 5:0.00519031 6:1 8:0.0701754 9:1 11:1 13:1 15:1 17:1 19:1 21:1 24:1 26:1 30:1 31:1 33:1 35:1 37:1 
0.2758389296759616 1:1 4:0.0376812 5:0.0121107 6:1 8:0.614035 9:1 11:1 13:1 15:1 17:1 19:1 21:1 24:1 26:1 28:1 31:1 33:1 35:1 37:1 
1 1:1 6:1 8:0.0526316 9:1 11:1 13:1 15:1 17:1 19:1 21:1 25:1 26:1 30:1 31:1 33:1 35:1 37:1 
1 1:1 6:1 8:0.0350877 9:1 11:1 13:1 15:1 17:1 19:1 21:1 23:1 26:1 30:1 31:1 33:1 35:1 37:1 
1 1:1 4:0.0057971 5:0.00519031 6:1 8:0.0526316 9:1 11:1 13:1 15:1 17:1 19:1 21:1 24:1 26:1 29:1 31:1 33:1 35:1 37:1 
1 1:1 4:0.00869565 5:0.00346021 6:1 8:0.0701754 9:1 11:1 13:1 15:1 17:1 19:1 21:1 24:1 26:1 29:1 31:1 33:1 35:1 37:1 
1 1:1 4:0.0115942 5:0.00519031 6:1 8:0.0701754 9:1 11:1 13:1 15:1 17:1 19:1 21:1 24:1 26:1 29:1 31:1 33:1 35:1 37:1 
1 1:1 4:0.0144928 5:0.00692042 6:1 8:0.0701754 9:1 11:1 13:1 15:1 17:1 19:1 21:1 24:1 26:1 29:1 31:1 33:1 35:1 37:1 
1 1:1 6:1 8:0.140351 9:1 11:1 13:1 16:1 17:1 19:1 21:1 24:1 26:1 30:1 31:1 33:1 35:1 37:1 
1 1:1 5:0.00346021 6:1 8:0.157895 9:1 11:1 13:1 16:1 17:1 19:1 21:1 24:1 26:1 30:1 31:1 33:1 35:1 37:1 
1 1:1 4:0.00289855 6:1 8:0.0526316 9:1 11:1 13:1 15:1 17:1 19:1 21:1 24:1 26:1 30:1 31:1 33:1 35:1 37:1 
1 1:1 4:0.00869565 5:0.00692042 6:1 8:0.859649 9:1 11:1 13:1 15:1 17:1 19:1 21:1 24:1 26:1 30:1 31:1 33:1 35:1 37:1 
1 1:1 4:0.0057971 5:0.00519031 6:1 8:0.877193 9:1 11:1 13:1 15:1 17:1 19:1 21:1 24:1 26:1 30:1 31:1 33:1 35:1 37:1 
1 1:1 6:1 8:0.701754 9:1 11:1 13:1 15:1 17:1 19:1 21:1 24:1 26:1 30:1 31:1 33:1 35:1 37:1 
1 1:1 4:0.00289855 5:0.0017301 6:1 8:0.701754 9:1 11:1 13:1 15:1 17:1 19:1 21:1 24:1 26:1 30:1 31:1 33:1 35:1 37:1 
1 1:1 4:0.0057971 5:0.00865052 6:1 8:0.701754 9:1 11:1 13:1 15:1 17:1 19:1 21:1 24:1 26:1 30:1 31:1 33:1 35:1 37:1 
1 1:1 4:0.00869565 5:0.0103806 6:1 8:0.807018 9:1 11:1 13:1 15:1 17:1 19:1 21:1 24:1 26:1 30:1 31:1 33:1 35:1 37:1 
1 1:1 4:0.00869565 5:0.0121107 6:1 8:0.77193 9:1 11:1 13:1 15:1 17:1 19:1 21:1 24:1 26:1 30:1 31:1 33:1 35:1 37:1 
1 1:1 4:0.00869565 5:0.0138408 6:1 8:0.859649 9:1 11:1 13:1 15:1 17:1 19:1 21:1 24:1 26:1 30:1 31:1 33:1 35:1 37:1 
1 1:1 4:0.00869565 5:0.017301 6:1 8:0.877193 9:1 11:1 13:1 15:1 17:1 19:1 21:1 24:1 26:1 30:1 31:1 33:1 35:1 37:1 
1 1:1 4:0.0318841 5:0.0207612 6:1 8:0.807018 9:1 11:1 13:1 15:1 17:1 19:1 21:1 24:1 26:1 30:1 31:1 33:1 35:1 37:1 
1 1:1 4:0.00289855 6:1 8:0.0350877 9:1 11:1 14:1 15:1 17:1 19:1 21:1 24:1 26:1 30:1 31:1 33:1 35:1 37:1 
1 1:1 4:0.0057971 5:0.00346021 6:1 8:0.0526316 9:1 11:1 13:1 15:1 17:1 19:1 21:1 25:1 26:1 30:1 31:1 33:1 35:1 37:1 
1 1:1 4:0.0057971 5:0.00692042 6:1 8:0.0350877 9:1 11:1 14:1 15:1 17:1 19:1 21:1 24:1 26:1 30:1 31:1 33:1 35:1 37:1 
1 1:1 4:0.0057971 5:0.0103806 6:1 8:0.0526316 9:1 11:1 13:1 15:1 17:1 19:1 21:1 24:1 26:1 30:1 31:1 33:1 35:1 37:1 
1 1:1 4:0.0115942 5:0.017301 6:1 8:0.0526316 9:1 11:1 13:1 15:1 17:1 19:1 21:1 24:1 26:1 29:1 31:1 33:1 35:1 37:1 
1 1:1 4:0.0985507 5:0.185121 6:1 8:0.0350877 9:1 11:1 14:1 15:1 17:1 19:1 21:1 24:1 26:1 30:1 31:1 33:1 35:1 37:1 
1 1:1 5:0.0017301 6:1 8:0.0526316 9:1 11:1 13:1 15:1 17:1 19:1 21:1 24:1 26:1 30:1 31:1 33:1 35:1 37:1 
1 1:1 4:0.00289855 5:0.0017301 6:1 8:0.0526316 9:1 11:1 13:1 15:1 17:1 19:1 21:1 24:1 26:1 30:1 31:1 33:1 35:1 37:1 
1 1:1 4:0.0057971 5:0.00692042 6:1 8:0.0526316 9:1 11:1 13:1 15:1 17:1 19:1 21:1 24:1 26:1 30:1 31:1 33:1 35:1 37:1 
1 1:1 4:0.00869565 5:0.0103806 6:1 8:0.0526316 9:1 11:1 13:1 15:1 17:1 19:1 21:1 24:1 26:1 30:1 31:1 33:1 35:1 37:1 
1 1:1 4:0.0231884 5:0.0467128 7:1 9:1 11:1 13:1 15:1 18:1 19:1 21:1 24:1 26:1 30:1 31:1 33:1 36:1 37:1 
1 1:1 4:0.0173913 5:0.0207612 7:1 9:1 11:1 13:1 15:1 18:1 19:1 21:1 24:1 26:1 30:1 31:1 33:1 35:1 37:1 
1 1:1 4:0.00289855 5:0.00692042 6:1 8:0.614035 9:1 11:1 13:1 15:1 17:1 19:1 21:1 25:1 26:1 30:1 31:1 33:1 35:1 37:1 
1 1:1 6:1 8:0.0701754 9:1 11:1 13:1 15:1 17:1 19:1 21:1 24:1 26:1 29:1 31:1 33:1 36:1 37:1 
1 1:1 5:0.0017301 6:1 8:0.105263 9:1 11:1 13:1 15:1 17:1 19:1 21:1 24:1 26:1 29:1 31:1 33:1 36:1 37:1 
1 1:1 4:0.00289855 5:0.00346021 6:1 8:0.105263 9:1 11:1 13:1 15:1 17:1 19:1 21:1 24:1 26:1 29:1 31:1 33:1 36:1 37:1 
1 1:1 4:0.00289855 5:0.00519031 6:1 8:0.105263 9:1 11:1 13:1 15:1 17:1 19:1 21:1 24:1 26:1 29:1 31:1 33:1 36:1 37:1 
1 1:1 6:1 8:0.0526316 9:1 11:1 13:1 15:1 17:1 19:1 21:1 25:1 26:1 30:1 31:1 33:1 35:1 37:1 
1 1:1 4:0.00289855 5:0.00346021 6:1 8:0.0175439 9:1 11:1 13:1 15:1 17:1 19:1 21:1 25:1 26:1 29:1 31:1 33:1 35:1 37:1 
1 1:1 4:0.0057971 5:0.00865052 6:1 8:0.0350877 9:1 11:1 13:1 15:1 17:1 19:1 21:1 25:1 26:1 29:1 31:1 33:1 35:1 37:1 
1 1:1 4:0.0057971 5:0.0138408 6:1 8:0.0175439 9:1 11:1 13:1 15:1 17:1 19:1 21:1 25:1 26:1 29:1 31:1 33:1 35:1 37:1 
1 1:1 5:0.0017301 6:1 8:0.0350877 9:1 11:1 13:1 15:1 17:1 19:1 21:1 25:1 26:1 30:1 31:1 33:1 35:1 37:1 
1 1:1 4:0.0057971 5:0.0103806 6:1 8:0.0350877 9:1 11:1 13:1 15:1 17:1 19:1 21:1 24:1 26:1 30:1 31:1 33:1 35:1 37:1 
1 1:1 4:0.0956522 5:0.145329 7:1 9:1 11:1 13:1 15:1 17:1 19:1 21:1 23:1 26:1 30:1 31:1 33:1 35:1 37:1 
1 1:1 6:1 8:0.210526 10:1 11:1 13:1 15:1 17:1 19:1 21:1 24:1 26:1 30:1 31:1 33:1 35:1 37:1 
1 1:1 6:1 8:0.245614 10:1 11:1 13:1 15:1 17:1 19:1 21:1 24:1 26:1 30:1 31:1 33:1 35:1 37:1 
1 1:1 4:0.00869565 5:0.0017301 6:1 8:0.719298 9:1 11:1 13:1 15:1 17:1 19:1 21:1 24:1 26:1 30:1 31:1 33:1 35:1 37:1 
1 1:1 4:0.00869565 5:0.00346021 6:1 8:0.77193 9:1 11:1 13:1 15:1 17:1 19:1 21:1 24:1 26:1 30:1 31:1 33:1 35:1 37:1 
1 1:1 4:0.0115942 5:0.00865052 6:1 8:0.736842 9:1 11:1 13:1 15:1 17:1 19:1 21:1 24:1 26:1 30:1 31:1 33:1 35:1 37:1 
1 1:1 4:0.0115942 5:0.0103806 6:1 8:0.77193 9:1 11:1 13:1 15:1 17:1 19:1 21:1 24:1 26:1 30:1 31:1 33:1 35:1 37:1 
1 1:1 4:0.0173913 5:0.017301 6:1 8:0.754386 9:1 11:1 13:1 15:1 17:1 19:1 21:1 24:1 26:1 30:1 31:1 33:1 35:1 37:1 
1 1:1 4:0.0202899 5:0.0190311 6:1 8:0.77193 9:1 11:1 13:1 15:1 17:1 19:1 21:1 24:1 26:1 30:1 31:1 33:1 35:1 37:1 
1 1:1 6:1 8:0.105263 9:1 11:1 13:1 15:1 17:1 19:1 21:1 24:1 26:1 30:1 31:1 33:1 35:1 37:1 
1 1:1 4:0.00289855 5:0.00346021 6:1 8:0.0877193 9:1 11:1 13:1 15:1 17:1 19:1 21:1 24:1 26:1 30:1 31:1 33:1 35:1 37:1 
1 1:1 6:1 8:0.0877193 9:1 11:1 13:1 15:1 17:1 19:1 21:1 24:1 26:1 30:1 31:1 33:1 35:1 37:1 
1 1:1 4:0.0144928 5:0.00346021 6:1 8:0.0526316 9:1 11:1 13:1 15:1 17:1 19:1 21:1 24:1 26:1 29:1 31:1 33:1 35:1 37:1 
1 1:1 4:0.0115942 6:1 8:0.0701754 9:1 11:1 13:1 15:1 17:1 19:1 21:1 24:1 26:1 29:1 31:1 33:1 35:1 37:1 
1 1:1 4:0.00289855 5:0.0017301 6:1 8:0.105263 9:1 11:1 13:1 15:1 17:1 19:1 21:1 24:1 26:1 30:1 31:1 33:1 35:1 37:1 
1 1:1 4:0.00289855 5:0.0017301 6:1 8:0.0701754 9:1 11:1 13:1 15:1 17:1 19:1 21:1 24:1 26:1 30:1 31:1 33:1 35:1 37:1 
1 1:1 4:0.00869565 5:0.00865052 6:1 8:0.0526316 9:1 11:1 13:1 15:1 17:1 19:1 21:1 24:1 26:1 30:1 31:1 33:1 35:1 37:1 
1 1:1 6:1 8:0.105263 9:1 11:1 13:1 15:1 17:1 19:1 21:1 24:1 26:1 30:1 31:1 33:1 35:1 37:1 
0.7048034087593122 1:1 4:0.17971 5:0.252595 6:1 8:0.280702 9:1 12:1 13:1 15:1 17:1 19:1 21:1 24:1 26:1 30:1 31:1 33:1 35:1 37:1 
1 1:1 6:1 8:0.0526316 9:1 11:1 13:1 15:1 17:1 19:1 21:1 24:1 26:1 30:1 31:1 33:1 35:1 37:1 
1 1:1 4:0.00289855 5:0.0017301 6:1 8:0.0526316 9:1 11:1 13:1 15:1 17:1 19:1 21:1 24:1 26:1 30:1 31:1 33:1 35:1 37:1 
1 1:1 4:0.00289855 5:0.00692042 6:1 8:0.0526316 9:1 11:1 13:1 15:1 17:1 19:1 21:1 24:1 26:1 30:1 31:1 33:1 35:1 37:1 
1 1:1 6:1 8:0.0701754 9:1 11:1 13:1 15:1 17:1 19:1 21:1 24:1 26:1 29:1 31:1 33:1 36:1 37:1 
1 1:1 6:1 8:0.0526316 9:1 11:1 13:1 15:1 17:1 19:1 21:1 25:1 26:1 30:1 31:1 33:1 35:1 37:1 
1 1:1 5:0.0017301 6:1 8:0.0877193 9:1 11:1 13:1 15:1 17:1 19:1 21:1 24:1 26:1 30:1 31:1 33:1 35:1 37:1 
1 1:1 4:0.0115942 5:0.0155709 6:1 8:0.649123 9:1 11:1 13:1 15:1 17:1 19:1 21:1 25:1 26:1 30:1 31:1 33:1 35:1 37:1 
1 1:1 4:0.00289855 6:1 8:0.0877193 9:1 11:1 13:1 15:1 17:1 19:1 21:1 25:1 26:1 30:1 31:1 33:1 35:1 37:1 
1 1:1 6:1 8:0.0877193 9:1 11:1 13:1 15:1 17:1 19:1 21:1 25:1 26:1 30:1 31:1 33:1 35:1 37:1 
1 1:1 4:0.0057971 5:0.0017301 6:1 8:0.0877193 9:1 11:1 13:1 15:1 17:1 19:1 21:1 25:1 26:1 30:1 31:1 33:1 35:1 37:1 
1 1:1 4:0.0057971 5:0.00519031 6:1 8:0.0350877 9:1 11:1 13:1 15:1 17:1 19:1 21:1 25:1 26:1 30:1 31:1 33:1 35:1 37:1 
1 1:1 4:0.0753623 5:0.153979 6:1 8:0.333333 9:1 12:1 13:1 15:1 17:1 19:1 21:1 24:1 26:1 30:1 31:1 33:1 35:1 37:1 
1 1:1 4:0.00289855 6:1 8:0.0877193 9:1 11:1 13:1 15:1 17:1 19:1 21:1 25:1 26:1 30:1 31:1 33:1 35:1 37:1 
1 1:1 6:1 8:0.0877193 9:1 11:1 13:1 15:1 17:1 19:1 21:1 25:1 26:1 30:1 31:1 33:1 35:1 37:1 
1 1:1 6:1 8:0.0877193 9:1 11:1 13:1 15:1 17:1 19:1 21:1 24:1 26:1 30:1 31:1 33:1 35:1 37:1 
0.8958840486198912 1:1 4:0.00869565 5:0.00865052 6:1 8:0.140351 9:1 11:1 13:1 15:1 17:1 19:1 21:1 23:1 26:1 29:1 31:1 33:1 35:1 37:1 
1 1:1 4:0.00289855 6:1 8:0.0877193 9:1 11:1 13:1 15:1 17:1 19:1 21:1 24:1 26:1 30:1 31:1 33:1 35:1 37:1 
1 1:1 4:0.00289855 6:1 8:0.105263 9:1 11:1 13:1 15:1 17:1 19:1 21:1 24:1 26:1 30:1 31:1 33:1 35:1 37:1 
1 1:1 4:0.0057971 5:0.00346021 6:1 8:0.0877193 9:1 11:1 13:1 15:1 17:1 19:1 21:1 24:1 26:1 30:1 31:1 33:1 35:1 37:1 
1 1:1 4:0.00289855 6:1 8:0.105263 9:1 11:1 13:1 15:1 17:1 19:1 21:1 24:1 26:1 29:1 31:1 33:1 35:1 37:1 
1 1:1 6:1 8:0.0701754 9:1 11:1 13:1 15:1 17:1 19:1 21:1 24:1 26:1 29:1 31:1 33:1 36:1 37:1 
1 1:1 5:0.0017301 6:1 8:0.122807 9:1 11:1 13:1 15:1 17:1 19:1 21:1 23:1 26:1 29:1 31:1 33:1 35:1 37:1 
1 1:1 4:0.00289855 5:0.00346021 6:1 8:0.0701754 9:1 11:1 13:1 15:1 17:1 19:1 21:1 24:1 26:1 29:1 31:1 33:1 35:1 37:1 
1 1:1 4:0.00869565 5:0.00692042 6:1 8:0.0701754 9:1 11:1 13:1 15:1 17:1 19:1 21:1 24:1 26:1 30:1 31:1 33:1 35:1 37:1 
1 1:1 6:1 8:0.0701754 9:1 11:1 13:1 16:1 17:1 19:1 21:1 24:1 26:1 30:1 31:1 33:1 36:1 37:1 
1 1:1 6:1 8:0.0701754 9:1 11:1 13:1 16:1 17:1 19:1 21:1 24:1 26:1 30:1 31:1 33:1 35:1 37:1 
1 1:1 5:0.0017301 6:1 8:0.0877193 9:1 11:1 13:1 15:1 17:1 19:1 21:1 25:1 26:1 28:1 31:1 33:1 35:1 37:1 
1 1:1 6:1 8:0.140351 9:1 11:1 13:1 15:1 17:1 19:1 21:1 25:1 26:1 29:1 31:1 33:1 35:1 37:1 
1 1:1 5:0.00346021 6:1 8:0.631579 9:1 11:1 13:1 15:1 17:1 19:1 21:1 25:1 26:1 28:1 31:1 33:1 35:1 37:1 
1 1:1 6:1 8:0.631579 9:1 11:1 13:1 15:1 17:1 19:1 21:1 25:1 26:1 28:1 31:1 33:1 35:1 37:1 
1 1:1 4:0.0057971 5:0.00346021 6:1 8:0.631579 9:1 11:1 13:1 15:1 17:1 19:1 21:1 25:1 26:1 28:1 31:1 33:1 35:1 37:1 
1 1:1 4:0.0057971 5:0.00692042 6:1 8:0.631579 9:1 11:1 13:1 15:1 17:1 19:1 21:1 25:1 26:1 28:1 31:1 33:1 35:1 37:1 
0.601908865720118 1:1 4:0.00869565 5:0.0155709 6:1 8:0.631579 9:1 11:1 13:1 15:1 17:1 19:1 21:1 25:1 26:1 28:1 31:1 33:1 35:1 37:1 
0.2660608642206373 1:1 4:0.00289855 6:1 8:0.140351 9:1 11:1 13:1 15:1 17:1 19:1 21:1 25:1 26:1 29:1 31:1 33:1 35:1 37:1 
1 1:1 6:1 8:0.105263 9:1 11:1 13:1 15:1 17:1 19:1 21:1 24:1 26:1 29:1 31:1 33:1 35:1 37:1 
1 1:1 4:0.00289855 5:0.0017301 6:1 8:0.105263 9:1 11:1 13:1 15:1 17:1 19:1 21:1 24:1 26:1 30:1 31:1 33:1 35:1 37:1 
1 1:1 6:1 8:0.105263 9:1 11:1 13:1 15:1 17:1 19:1 21:1 24:1 26:1 30:1 31:1 33:1 35:1 37:1 
1 1:1 4:0.00289855 5:0.0017301 6:1 8:0.105263 9:1 11:1 13:1 15:1 17:1 19:1 21:1 24:1 26:1 30:1 31:1 33:1 35:1 37:1 
1 1:1 5:0.0017301 6:1 8:0.105263 9:1 11:1 13:1 15:1 17:1 19:1 21:1 24:1 26:1 30:1 31:1 33:1 35:1 37:1 
1 1:1 6:1 8:0.0350877 9:1 11:1 13:1 15:1 17:1 19:1 21:1 24:1 26:1 30:1 31:1 33:1 35:1 37:1 
1 1:1 4:0.00289855 5:0.0017301 6:1 8:0.0350877 9:1 11:1 13:1 15:1 17:1 19:1 21:1 24:1 26:1 30:1 31:1 33:1 35:1 37:1 
1 1:1 4:0.00289855 5:0.0103806 6:1 8:0.0350877 9:1 11:1 13:1 15:1 17:1 19:1 21:1 24:1 26:1 30:1 31:1 33:1 35:1 37:1 
1 1:1 5:0.0017301 6:1 8:0.105263 9:1 11:1 13:1 15:1 17:1 19:1 21:1 24:1 26:1 30:1 31:1 33:1 35:1 37:1 
1 1:1 6:1 8:0.105263 9:1 11:1 13:1 15:1 17:1 19:1 21:1 24:1 26:1 30:1 31:1 33:1 35:1 37:1 
1 1:1 6:1 8:0.122807 10:1 11:1 13:1 15:1 17:1 19:1 21:1 24:1 26:1 30:1 31:1 33:1 35:1 37:1 
1 1:1 4:0.00289855 6:1 8:0.0877193 9:1 11:1 13:1 15:1 17:1 19:1 21:1 24:1 26:1 29:1 31:1 33:1 36:1 37:1 
1 1:1 6:1 8:0.122807 10:1 11:1 13:1 15:1 17:1 19:1 21:1 24:1 26:1 30:1 31:1 33:1 35:1 37:1 
1 1:1 6:1 8:0.0526316 9:1 11:1 13:1 15:1 17:1 19:1 21:1 25:1 26:1 30:1 31:1 33:1 35:1 37:1 
1 1:1 4:0.00289855 5:0.00519031 6:1 8:0.0877193 9:1 12:1 13:1 15:1 17:1 19:1 21:1 24:1 26:1 30:1 31:1 33:1 35:1 37:1 
1 1:1 6:1 8:0.157895 10:1 11:1 13:1 15:1 17:1 19:1 21:1 24:1 26:1 30:1 31:1 33:1 35:1 37:1 
1 1:1 4:0.00289855 6:1 8:0.0877193 9:1 11:1 13:1 15:1 17:1 19:1 21:1 24:1 26:1 30:1 31:1 33:1 35:1 37:1 
1 1:1 4:0.00289855 6:1 8:0.0350877 9:1 11:1 13:1 15:1 17:1 19:1 21:1 24:1 26:1 30:1 31:1 33:1 35:1 37:1 
1 1:1 4:0.00289855 5:0.00519031 6:1 8:0.0350877 9:1 11:1 13:1 15:1 17:1 19:1 21:1 24:1 26:1 30:1 31:1 33:1 35:1 37:1 
1 1:1 4:0.00289855 6:1 8:0.105263 9:1 11:1 13:1 15:1 17:1 19:1 21:1 24:1 26:1 30:1 31:1 33:1 35:1 37:1 
1 1:1 4:0.0202899 6:1 8:0.105263 9:1 11:1 13:1 15:1 17:1 19:1 21:1 24:1 26:1 30:1 31:1 33:1 35:1 37:1 
1 1:1 4:0.00289855 6:1 8:0.0526316 9:1 11:1 13:1 15:1 17:1 19:1 21:1 24:1 26:1 30:1 31:1 33:1 35:1 37:1 
1 1:1 6:1 8:0.0526316 9:1 11:1 13:1 15:1 17:1 19:1 21:1 24:1 26:1 30:1 31:1 33:1 35:1 37:1 
1 1:1 6:1 8:0.0701754 9:1 11:1 13:1 16:1 17:1 19:1 21:1 24:1 26:1 30:1 31:1 33:1 35:1 37:1 
1 1:1 4:0.00289855 5:0.00346021 6:1 8:0.122807 9:1 11:1 13:1 15:1 17:1 19:1 21:1 25:1 26:1 29:1 31:1 33:1 36:1 37:1 
1 1:1 5:0.0017301 6:1 8:0.0701754 9:1 11:1 13:1 15:1 17:1 19:1 21:1 25:1 26:1 29:1 31:1 33:1 35:1 37:1 
1 1:1 6:1 8:0.0175439 9:1 11:1 13:1 15:1 17:1 19:1 21:1 24:1 26:1 28:1 31:1 33:1 36:1 37:1 
1 1:1 4:0.00289855 6:1 8:0.0526316 9:1 11:1 13:1 15:1 17:1 19:1 21:1 25:1 26:1 28:1 31:1 33:1 35:1 37:1 
1 1:1 6:1 8:0.0701754 9:1 11:1 13:1 15:1 17:1 19:1 21:1 25:1 26:1 29:1 31:1 33:1 35:1 37:1 
1 1:1 5:0.0017301 6:1 8:0.0701754 9:1 11:1 13:1 15:1 17:1 19:1 21:1 25:1 26:1 29:1 31:1 33:1 35:1 37:1 
0.2386590757228646 1:1 4:0.00289855 6:1 8:0.0175439 9:1 11:1 13:1 15:1 17:1 19:1 21:1 24:1 26:1 28:1 31:1 33:1 36:1 37:1 
1 1:1 6:1 8:0.210526 10:1 11:1 13:1 15:1 17:1 19:1 21:1 24:1 26:1 29:1 31:1 33:1 35:1 37:1 
1 1:1 6:1 8:0.54386 9:1 11:1 13:1 15:1 17:1 19:1 21:1 25:1 26:1 30:1 31:1 33:1 35:1 37:1 
1 1:1 6:1 8:0.0526316 9:1 11:1 13:1 15:1 17:1 19:1 21:1 25:1 26:1 28:1 31:1 33:1 35:1 37:1 
1 1:1 4:0.00289855 6:1 8:0.0877193 9:1 11:1 13:1 15:1 17:1 19:1 21:1 24:1 26:1 30:1 31:1 33:1 35:1 37:1 
1 1:1 6:1 8:0.0526316 9:1 11:1 13:1 15:1 17:1 19:1 21:1 25:1 26:1 30:1 31:1 33:1 35:1 37:1 
1 1:1 5:0.0017301 6:1 8:0.0526316 9:1 11:1 13:1 15:1 17:1 19:1 21:1 25:1 26:1 30:1 31:1 33:1 35:1 37:1 
1 1:1 6:1 8:0.0350877 9:1 11:1 13:1 15:1 17:1 19:1 21:1 24:1 26:1 28:1 31:1 33:1 35:1 37:1 
1 1:1 4:0.00289855 6:1 8:0.0877193 9:1 11:1 13:1 15:1 17:1 19:1 21:1 25:1 26:1 30:1 31:1 33:1 35:1 37:1 
1 1:1 6:1 8:0.0701754 9:1 11:1 13:1 15:1 17:1 19:1 21:1 24:1 26:1 30:1 31:1 33:1 35:1 37:1 
1 1:1 6:1 8:0.122807 10:1 11:1 13:1 15:1 17:1 19:1 21:1 24:1 26:1 29:1 31:1 33:1 36:1 37:1 
1 1:1 5:0.0017301 6:1 8:0.105263 9:1 11:1 13:1 15:1 17:1 19:1 21:1 24:1 26:1 29:1 31:1 33:1 35:1 37:1 
1 1:1 4:0.0057971 6:1 8:0.0350877 9:1 11:1 13:1 15:1 17:1 19:1 21:1 25:1 26:1 30:1 31:1 33:1 36:1 37:1 
1 1:1 4:0.130435 5:0.129758 7:1 9:1 11:1 13:1 15:1 17:1 19:1 21:1 25:1 26:1 30:1 31:1 33:1 35:1 37:1 
1 1:1 6:1 8:0.0526316 9:1 11:1 13:1 15:1 17:1 19:1 21:1 24:1 26:1 29:1 31:1 33:1 35:1 37:1 
1 1:1 6:1 8:0.0350877 9:1 11:1 13:1 15:1 17:1 19:1 21:1 24:1 26:1 30:1 31:1 33:1 35:1 37:1 
1 1:1 4:0.00289855 5:0.00865052 6:1 8:0.0350877 9:1 11:1 13:1 15:1 17:1 19:1 21:1 24:1 26:1 30:1 31:1 33:1 35:1 37:1 
1 1:1 4:0.00289855 6:1 8:0.0701754 9:1 11:1 13:1 15:1 17:1 19:1 21:1 24:1 26:1 30:1 31:1 33:1 35:1 37:1 
1 1:1 4:0.00289855 5:0.0017301 6:1 8:0.0701754 9:1 11:1 13:1 15:1 17:1 19:1 21:1 24:1 26:1 30:1 31:1 33:1 35:1 37:1 
1 1:1 6:1 8:0.0175439 9:1 11:1 13:1 15:1 17:1 19:1 21:1 24:1 26:1 30:1 31:1 33:1 35:1 37:1 
1 1:1 5:0.0017301 6:1 8:0.0701754 9:1 11:1 13:1 15:1 17:1 19:1 21:1 24:1 26:1 30:1 31:1 33:1 35:1 37:1 
1 1:1 6:1 8:0.0701754 9:1 11:1 13:1 15:1 17:1 19:1 21:1 24:1 26:1 30:1 31:1 33:1 35:1 37:1 
1 1:1 6:1 8:0.0701754 9:1 11:1 13:1 15:1 17:1 19:1 21:1 24:1 26:1 29:1 31:1 33:1 36:1 37:1 
0.9745380887282785 1:1 4:0.0057971 5:0.00519031 6:1 8:0.105263 9:1 11:1 13:1 15:1 17:1 19:1 21:1 24:1 26:1 29:1 31:1 33:1 36:1 37:1 
1 1:1 4:0.00289855 5:0.00346021 6:1 8:0.0701754 9:1 11:1 13:1 15:1 17:1 19:1 21:1 24:1 26:1 29:1 31:1 33:1 36:1 37:1 
1 1:1 6:1 8:0.0701754 9:1 11:1 13:1 15:1 17:1 19:1 21:1 24:1 26:1 29:1 31:1 33:1 35:1 37:1 
1 1:1 6:1 8:0.140351 9:1 11:1 13:1 16:1 17:1 19:1 21:1 24:1 26:1 30:1 31:1 33:1 35:1 37:1 
1 1:1 5:0.00346021 6:1 8:0.157895 9:1 11:1 13:1 16:1 17:1 19:1 21:1 24:1 26:1 30:1 31:1 33:1 35:1 37:1 
1 1:1 4:0.00289855 6:1 8:0.105263 9:1 11:1 13:1 15:1 17:1 19:1 21:1 24:1 26:1 30:1 31:1 33:1 35:1 37:1 
1 1:1 4:0.0057971 5:0.0017301 6:1 8:0.0877193 9:1 11:1 13:1 15:1 17:1 19:1 21:1 25:1 26:1 30:1 31:1 33:1 35:1 37:1 
1 1:1 4:0.00289855 5:0.0017301 6:1 8:0.0526316 9:1 11:1 13:1 15:1 17:1 19:1 21:1 24:1 26:1 30:1 31:1 33:1 35:1 37:1 
1 1:1 4:0.00289855 5:0.00519031 6:1 8:0.0701754 9:1 11:1 13:1 15:1 17:1 19:1 21:1 24:1 26:1 30:1 31:1 33:1 35:1 37:1 
1 1:1 5:0.0017301 6:1 8:0.105263 9:1 11:1 13:1 15:1 17:1 19:1 21:1 24:1 26:1 30:1 31:1 33:1 35:1 37:1 
1 1:1 4:0.00289855 5:0.0017301 6:1 8:0.105263 9:1 11:1 13:1 15:1 17:1 19:1 21:1 24:1 26:1 30:1 31:1 33:1 35:1 37:1 
1 1:1 4:0.026087 6:1 8:0.105263 9:1 11:1 13:1 15:1 17:1 19:1 21:1 24:1 26:1 30:1 31:1 33:1 35:1 37:1 
1 1:1 4:0.00289855 6:1 8:0.0526316 9:1 11:1 13:1 15:1 17:1 19:1 21:1 24:1 26:1 30:1 31:1 33:1 35:1 37:1 
1 1:1 6:1 8:0.0526316 9:1 11:1 13:1 15:1 17:1 19:1 21:1 24:1 26:1 30:1 31:1 33:1 35:1 37:1 
1 1:1 4:0.0057971 5:0.0017301 6:1 8:0.0877193 9:1 11:1 13:1 15:1 17:1 19:1 21:1 24:1 26:1 30:1 31:1 33:1 35:1 37:1 
1 1:1 6:1 8:0.0877193 9:1 11:1 13:1 15:1 17:1 19:1 21:1 24:1 26:1 30:1 31:1 33:1 35:1 37:1 
1 1:1 6:1 8:0.105263 10:1 11:1 13:1 15:1 17:1 19:1 21:1 24:1 26:1 30:1 31:1 33:1 35:1 37:1 
1 1:1 6:1 8:0.0701754 9:1 11:1 13:1 15:1 17:1 19:1 21:1 24:1 26:1 30:1 31:1 33:1 35:1 37:1 
1 1:1 4:0.0057971 5:0.0017301 6:1 8:0.0877193 9:1 11:1 13:1 15:1 17:1 19:1 21:1 24:1 26:1 30:1 31:1 33:1 35:1 37:1 
1 1:1 4:0.0434783 5:0.0449827 6:1 8:0.157895 9:1 11:1 13:1 15:1 17:1 19:1 21:1 24:1 26:1 29:1 31:1 33:1 35:1 38:1 
1 1:1 4:0.0492754 5:0.0622837 6:1 8:0.157895 9:1 11:1 13:1 15:1 17:1 19:1 21:1 24:1 26:1 29:1 31:1 33:1 35:1 38:1 
1 1:1 4:0.0521739 5:0.0778547 6:1 8:0.157895 9:1 11:1 13:1 15:1 17:1 19:1 21:1 24:1 26:1 29:1 31:1 33:1 35:1 38:1 
1 1:1 4:0.057971 5:0.0934256 6:1 8:0.157895 9:1 11:1 13:1 15:1 17:1 19:1 21:1 24:1 26:1 29:1 31:1 33:1 35:1 38:1 
1 1:1 4:0.0985507 5:0.202422 6:1 8:0.157895 9:1 11:1 13:1 15:1 17:1 19:1 21:1 24:1 26:1 29:1 31:1 33:1 35:1 38:1 
1 1:1 6:1 8:0.157895 10:1 11:1 13:1 15:1 17:1 19:1 21:1 24:1 26:1 30:1 31:1 33:1 35:1 37:1 
1 1:1 4:0.00289855 6:1 8:0.0701754 9:1 11:1 13:1 15:1 17:1 19:1 21:1 24:1 26:1 30:1 31:1 33:1 35:1 37:1 
1 1:1 6:1 8:0.0350877 9:1 11:1 13:1 15:1 17:1 19:1 21:1 24:1 26:1 29:1 31:1 33:1 36:1 37:1 
1 1:1 6:1 8:0.140351 10:1 11:1 13:1 15:1 17:1 19:1 21:1 24:1 26:1 30:1 31:1 33:1 35:1 37:1 
1 1:1 7:1 9:1 11:1 13:1 15:1 17:1 19:1 21:1 24:1 26:1 29:1 31:1 33:1 36:1 37:1 
1 1:1 4:0.00289855 5:0.0017301 6:1 8:0.0175439 9:1 11:1 13:1 15:1 17:1 19:1 21:1 24:1 26:1 28:1 31:1 33:1 35:1 37:1 
1 1:1 6:1 8:0.140351 10:1 11:1 13:1 15:1 17:1 19:1 21:1 24:1 26:1 30:1 31:1 33:1 35:1 37:1 
1 1:1 6:1 8:0.157895 10:1 11:1 13:1 15:1 17:1 19:1 21:1 24:1 26:1 28:1 31:1 33:1 35:1 37:1 
1 1:1 6:1 8:0.140351 9:1 11:1 13:1 16:1 17:1 19:1 21:1 24:1 26:1 30:1 31:1 33:1 35:1 37:1 
1 1:1 5:0.00346021 6:1 8:0.157895 9:1 11:1 13:1 16:1 17:1 19:1 21:1 24:1 26:1 30:1 31:1 33:1 35:1 37:1 
1 1:1 4:0.00289855 6:1 8:0.105263 9:1 11:1 13:1 15:1 17:1 19:1 21:1 24:1 26:1 30:1 31:1 33:1 35:1 37:1 
1 1:1 4:0.00869565 5:0.00519031 6:1 8:0.0701754 9:1 11:1 13:1 15:1 17:1 19:1 21:1 24:1 26:1 29:1 31:1 33:1 35:1 37:1 
1 1:1 4:0.0318841 5:0.00346021 6:1 8:0.0701754 9:1 11:1 13:1 15:1 17:1 19:1 21:1 24:1 26:1 30:1 31:1 33:1 35:1 37:1 
1 1:1 4:0.00289855 5:0.00346021 6:1 8:0.0526316 9:1 11:1 13:1 15:1 17:1 19:1 21:1 24:1 26:1 30:1 31:1 33:1 35:1 37:1 
1 1:1 4:0.0057971 5:0.00519031 6:1 8:0.0526316 9:1 11:1 13:1 15:1 17:1 19:1 21:1 24:1 26:1 30:1 31:1 33:1 35:1 37:1 
1 1:1 4:0.0057971 5:0.0103806 6:1 8:0.0526316 9:1 11:1 13:1 15:1 17:1 19:1 21:1 24:1 26:1 30:1 31:1 33:1 35:1 37:1 
1 1:1 4:0.197101 5:0.198962 7:1 9:1 11:1 13:1 15:1 17:1 19:1 21:1 25:1 26:1 30:1 31:1 33:1 35:1 37:1 
1 1:1 5:0.0017301 6:1 8:0.0877193 9:1 11:1 13:1 15:1 17:1 19:1 21:1 25:1 26:1 30:1 31:1 33:1 35:1 37:1 
1 1:1 5:0.00346021 6:1 8:0.0175439 9:1 11:1 13:1 15:1 17:1 19:1 21:1 25:1 26:1 30:1 31:1 33:1 35:1 37:1 
1 1:1 6:1 8:0.0701754 9:1 11:1 13:1 15:1 17:1 19:1 21:1 25:1 26:1 30:1 31:1 33:1 35:1 37:1 
1 1:1 4:0.00869565 5:0.00692042 6:1 8:0.0175439 9:1 11:1 13:1 15:1 17:1 19:1 21:1 25:1 26:1 30:1 31:1 33:1 35:1 37:1 
1 1:1 4:0.0202899 5:0.017301 6:1 8:0.0175439 9:1 11:1 13:1 15:1 17:1 19:1 21:1 24:1 26:1 30:1 31:1 33:1 35:1 38:1 
1 1:1 4:0.0405797 5:0.050173 6:1 8:0.0175439 9:1 11:1 13:1 15:1 17:1 19:1 21:1 24:1 26:1 30:1 31:1 33:1 35:1 38:1 
1 1:1 4:0.00289855 5:0.0017301 6:1 8:0.0350877 9:1 11:1 13:1 15:1 17:1 19:1 21:1 24:1 26:1 30:1 31:1 33:1 35:1 37:1 
1 1:1 4:0.00289855 5:0.0017301 6:1 8:0.105263 9:1 11:1 13:1 15:1 17:1 19:1 21:1 24:1 26:1 30:1 31:1 33:1 35:1 37:1 
1 1:1 4:0.00289855 5:0.00346021 6:1 8:0.0526316 9:1 11:1 13:1 15:1 17:1 19:1 21:1 24:1 26:1 30:1 31:1 33:1 35:1 37:1 
1 1:1 6:1 8:0.210526 10:1 11:1 13:1 15:1 17:1 19:1 21:1 24:1 26:1 30:1 31:1 33:1 35:1 37:1 
1 1:1 4:0.0289855 5:0.00346021 6:1 8:0.0175439 9:1 11:1 13:1 15:1 17:1 19:1 21:1 24:1 26:1 30:1 31:1 33:1 35:1 37:1 
1 1:1 4:0.0057971 6:1 8:0.105263 9:1 11:1 13:1 15:1 17:1 19:1 21:1 24:1 26:1 30:1 31:1 33:1 35:1 37:1 
1 1:1 6:1 8:0.0350877 9:1 11:1 13:1 15:1 17:1 19:1 21:1 24:1 26:1 29:1 31:1 33:1 36:1 37:1 
1 1:1 5:0.0017301 7:1 9:1 11:1 13:1 15:1 17:1 19:1 21:1 24:1 26:1 29:1 31:1 33:1 36:1 37:1 
1 1:1 4:0.00289855 5:0.0121107 6:1 8:0.0350877 9:1 11:1 13:1 15:1 17:1 19:1 21:1 24:1 26:1 29:1 31:1 33:1 36:1 37:1 
1 1:1 4:0.00289855 5:0.0138408 7:1 9:1 11:1 13:1 15:1 17:1 19:1 21:1 24:1 26:1 29:1 31:1 33:1 36:1 37:1 
1 1:1 4:0.0115942 5:0.0415225 7:1 9:1 11:1 13:1 15:1 17:1 19:1 21:1 24:1 26:1 29:1 31:1 33:1 36:1 37:1 
1 1:1 4:0.0144928 5:0.0449827 7:1 9:1 11:1 13:1 15:1 17:1 19:1 21:1 24:1 26:1 29:1 31:1 33:1 36:1 37:1 
1 1:1 4:0.0231884 5:0.0588235 7:1 9:1 11:1 13:1 15:1 17:1 19:1 21:1 24:1 26:1 29:1 31:1 33:1 36:1 37:1 
1 1:1 4:0.0318841 5:0.0709343 7:1 9:1 11:1 13:1 15:1 17:1 19:1 21:1 24:1 26:1 29:1 31:1 33:1 36:1 37:1 
1 1:1 4:0.0550725 5:0.115917 7:1 9:1 11:1 13:1 15:1 17:1 19:1 21:1 24:1 26:1 29:1 31:1 33:1 36:1 37:1 
1 1:1 4:0.057971 5:0.124567 7:1 9:1 11:1 13:1 15:1 17:1 19:1 21:1 24:1 26:1 29:1 31:1 33:1 36:1 37:1 
1 1:1 4:0.162319 5:0.257785 7:1 9:1 11:1 13:1 15:1 17:1 19:1 21:1 24:1 26:1 29:1 31:1 33:1 36:1 37:1 
1 1:1 4:0.168116 5:0.271626 7:1 9:1 11:1 13:1 15:1 17:1 19:1 21:1 24:1 26:1 29:1 31:1 33:1 36:1 37:1 
1 1:1 4:0.171014 5:0.275087 7:1 9:1 11:1 13:1 15:1 17:1 19:1 21:1 24:1 26:1 29:1 31:1 33:1 36:1 37:1 
1 1:1 4:0.173913 5:0.290657 7:1 9:1 11:1 13:1 15:1 17:1 19:1 21:1 24:1 26:1 29:1 31:1 33:1 36:1 37:1 
1 1:1 4:0.176812 5:0.295848 7:1 9:1 11:1 13:1 15:1 17:1 19:1 21:1 24:1 26:1 29:1 31:1 33:1 36:1 37:1 
1 1:1 4:0.176812 5:0.306228 7:1 9:1 11:1 13:1 15:1 17:1 19:1 21:1 24:1 26:1 29:1 31:1 33:1 36:1 37:1 
1 1:1 4:0.182609 5:0.318339 7:1 9:1 11:1 13:1 15:1 17:1 19:1 21:1 24:1 26:1 29:1 31:1 33:1 35:1 37:1 
1 1:1 6:1 8:0.105263 9:1 11:1 13:1 15:1 17:1 19:1 21:1 24:1 26:1 30:1 31:1 33:1 35:1 37:1 
1 1:1 4:0.00289855 6:1 8:0.0701754 9:1 11:1 13:1 15:1 17:1 19:1 21:1 24:1 26:1 30:1 31:1 33:1 35:1 37:1 
1 1:1 4:0.0057971 5:0.0017301 6:1 8:0.0701754 9:1 11:1 13:1 15:1 17:1 19:1 21:1 24:1 26:1 29:1 31:1 33:1 35:1 37:1 
1 1:1 4:0.00289855 6:1 8:0.105263 9:1 11:1 13:1 15:1 17:1 19:1 21:1 24:1 26:1 30:1 31:1 33:1 35:1 37:1 
1 1:1 6:1 8:0.0526316 9:1 11:1 13:1 15:1 17:1 19:1 21:1 25:1 26:1 30:1 31:1 33:1 35:1 37:1 
1 1:1 6:1 8:0.175439 10:1 11:1 13:1 15:1 17:1 19:1 21:1 24:1 26:1 30:1 31:1 33:1 35:1 37:1 
1 1:1 4:0.00289855 6:1 8:0.105263 9:1 11:1 13:1 15:1 17:1 19:1 21:1 24:1 26:1 30:1 31:1 33:1 35:1 37:1 
1 1:1 6:1 8:0.105263 9:1 11:1 13:1 15:1 17:1 19:1 21:1 25:1 26:1 30:1 31:1 33:1 35:1 37:1 
1 1:1 6:1 8:0.105263 9:1 11:1 13:1 15:1 17:1 19:1 21:1 25:1 26:1 30:1 31:1 33:1 35:1 37:1 
1 1:1 4:0.0057971 5:0.00519031 6:1 8:0.0526316 9:1 11:1 13:1 15:1 17:1 19:1 21:1 25:1 26:1 30:1 31:1 33:1 35:1 37:1 
1 1:1 4:0.00869565 5:0.0224913 6:1 8:0.0350877 9:1 11:1 13:1 15:1 17:1 20:1 21:1 25:1 26:1 29:1 31:1 33:1 35:1 37:1 
1 1:1 6:1 8:0.0526316 9:1 11:1 13:1 15:1 17:1 19:1 21:1 25:1 26:1 30:1 31:1 33:1 35:1 37:1 
1 1:1 4:0.00289855 6:1 8:0.0877193 9:1 11:1 13:1 15:1 17:1 19:1 21:1 25:1 26:1 30:1 31:1 33:1 35:1 37:1 
1 1:1 6:1 8:0.0701754 9:1 11:1 13:1 15:1 17:1 19:1 21:1 24:1 26:1 29:1 31:1 33:1 36:1 37:1 
1 1:1 6:1 8:0.0701754 9:1 11:1 13:1 15:1 17:1 19:1 21:1 24:1 26:1 29:1 31:1 33:1 36:1 37:1 
1 1:1 5:0.0017301 6:1 8:0.105263 9:1 11:1 13:1 15:1 17:1 19:1 21:1 24:1 26:1 29:1 31:1 33:1 36:1 37:1 
1 1:1 5:0.00346021 6:1 8:0.0701754 9:1 11:1 13:1 15:1 17:1 19:1 21:1 24:1 26:1 29:1 31:1 33:1 36:1 37:1 
1 1:1 5:0.00519031 6:1 8:0.0701754 9:1 11:1 13:1 15:1 17:1 19:1 21:1 24:1 26:1 29:1 31:1 33:1 36:1 37:1 
1 1:1 4:0.00289855 5:0.0017301 6:1 8:0.0175439 9:1 11:1 13:1 15:1 17:1 19:1 21:1 23:1 26:1 30:1 31:1 33:1 35:1 37:1 
1 1:1 4:0.00869565 5:0.0103806 6:1 8:0.0701754 9:1 11:1 13:1 15:1 17:1 19:1 21:1 23:1 26:1 29:1 31:1 33:1 35:1 37:1 
0.1964163433478758 1:1 4:0.00289855 5:0.00346021 6:1 8:0.175439 9:1 11:1 13:1 15:1 17:1 19:1 21:1 23:1 26:1 29:1 31:1 33:1 35:1 37:1 
1 1:1 4:0.00289855 6:1 8:0.175439 9:1 11:1 13:1 15:1 17:1 19:1 21:1 23:1 26:1 29:1 31:1 33:1 35:1 37:1 
1 1:1 4:0.00289855 6:1 8:0.105263 9:1 11:1 13:1 15:1 17:1 19:1 21:1 24:1 26:1 29:1 31:1 33:1 36:1 37:1 
1 1:1 6:1 8:0.0701754 9:1 11:1 13:1 15:1 17:1 19:1 21:1 24:1 26:1 29:1 31:1 33:1 36:1 37:1 
1 1:1 4:0.0202899 5:0.0138408 6:1 8:0.0701754 9:1 11:1 13:1 15:1 17:1 19:1 21:1 24:1 26:1 29:1 31:1 33:1 36:1 37:1 
0.4802358880676143 1:1 6:1 8:0.192982 10:1 11:1 13:1 15:1 17:1 19:1 21:1 24:1 26:1 29:1 31:1 33:1 36:1 37:1 
1 1:1 4:0.00289855 5:0.00692042 6:1 8:0.0526316 9:1 11:1 13:1 15:1 17:1 19:1 21:1 24:1 26:1 30:1 31:1 33:1 35:1 37:1 
1 1:1 4:0.026087 6:1 8:0.105263 9:1 11:1 13:1 15:1 17:1 19:1 21:1 24:1 26:1 30:1 31:1 33:1 35:1 37:1 
1 1:1 4:0.00289855 6:1 8:0.0526316 9:1 11:1 13:1 15:1 17:1 19:1 21:1 24:1 26:1 30:1 31:1 33:1 35:1 37:1 
1 1:1 6:1 8:0.0526316 9:1 11:1 13:1 15:1 17:1 19:1 21:1 24:1 26:1 30:1 31:1 33:1 35:1 37:1 
1 1:1 4:0.00289855 6:1 8:0.0877193 9:1 11:1 13:1 15:1 17:1 19:1 21:1 24:1 26:1 30:1 31:1 33:1 35:1 37:1 
1 1:1 4:0.00289855 5:0.00519031 6:1 8:0.0526316 9:1 11:1 13:1 15:1 17:1 19:1 21:1 25:1 26:1 30:1 31:1 33:1 35:1 37:1 
1 1:1 6:1 8:0.0526316 9:1 11:1 13:1 15:1 17:1 19:1 21:1 25:1 26:1 30:1 31:1 33:1 35:1 37:1 
1 1:1 4:0.00289855 6:1 8:0.0526316 9:1 11:1 13:1 15:1 17:1 19:1 21:1 24:1 26:1 30:1 31:1 33:1 35:1 37:1 
1 1:1 6:1 8:0.140351 9:1 11:1 13:1 16:1 17:1 19:1 21:1 24:1 26:1 30:1 31:1 33:1 35:1 37:1 
0.8109561228087093 1:1 5:0.00346021 6:1 8:0.157895 9:1 11:1 13:1 16:1 17:1 19:1 21:1 24:1 26:1 30:1 31:1 33:1 35:1 37:1 
0.6839507996758707 1:1 4:0.272464 5:0.297578 6:1 8:0.140351 9:1 11:1 13:1 15:1 17:1 20:1 21:1 24:1 26:1 29:1 31:1 33:1 36:1 37:1 
0.8313955642476313 1:1 5:0.0017301 6:1 8:0.245614 9:1 11:1 13:1 15:1 17:1 19:1 21:1 25:1 26:1 29:1 31:1 33:1 36:1 37:1 
1 1:1 6:1 8:0.0877193 10:1 11:1 13:1 15:1 17:1 19:1 21:1 24:1 26:1 29:1 31:1 33:1 35:1 37:1 
1 1:1 4:0.0057971 6:1 8:0.0877193 9:1 11:1 13:1 15:1 17:1 19:1 21:1 25:1 26:1 30:1 31:1 33:1 35:1 37:1 
1 1:1 6:1 8:0.368421 10:1 11:1 13:1 15:1 17:1 19:1 21:1 24:1 26:1 30:1 31:1 33:1 35:1 37:1 
1 1:1 6:1 8:0.0701754 9:1 11:1 13:1 15:1 17:1 19:1 21:1 24:1 26:1 29:1 31:1 33:1 36:1 37:1 
1 1:1 4:0.00289855 5:0.0017301 6:1 8:0.0701754 9:1 11:1 13:1 15:1 17:1 19:1 21:1 24:1 26:1 29:1 31:1 33:1 36:1 37:1 
1 1:1 4:0.00289855 5:0.00865052 6:1 8:0.0701754 9:1 11:1 13:1 15:1 17:1 19:1 21:1 24:1 26:1 29:1 31:1 33:1 36:1 37:1 
1 1:1 4:0.00289855 5:0.0103806 6:1 8:0.0701754 9:1 11:1 13:1 15:1 17:1 19:1 21:1 24:1 26:1 29:1 31:1 33:1 36:1 37:1 
1 1:1 4:0.00289855 7:1 9:1 11:1 13:1 15:1 17:1 19:1 21:1 24:1 26:1 29:1 31:1 33:1 36:1 37:1 
1 1:1 6:1 8:0.333333 9:1 11:1 13:1 15:1 17:1 19:1 21:1 24:1 26:1 29:1 31:1 33:1 36:1 38:1 
1 1:1 7:1 9:1 11:1 13:1 15:1 17:1 19:1 21:1 24:1 26:1 29:1 31:1 33:1 36:1 37:1 
1 1:1 4:0.0057971 5:0.00519031 6:1 8:0.0350877 9:1 11:1 13:1 15:1 17:1 19:1 21:1 24:1 26:1 29:1 31:1 33:1 36:1 37:1 
1 1:1 4:0.00869565 5:0.00692042 6:1 8:0.0701754 9:1 11:1 13:1 15:1 17:1 19:1 21:1 24:1 26:1 29:1 31:1 33:1 36:1 37:1 
1 1:1 4:0.00869565 5:0.00865052 7:1 9:1 11:1 13:1 15:1 17:1 19:1 21:1 24:1 26:1 29:1 31:1 33:1 36:1 37:1 
1 1:1 4:0.00869565 5:0.0103806 6:1 8:0.0350877 9:1 11:1 13:1 15:1 17:1 19:1 21:1 24:1 26:1 29:1 31:1 33:1 36:1 37:1 
1 1:1 4:0.0115942 5:0.0121107 6:1 8:0.0350877 9:1 11:1 13:1 15:1 17:1 19:1 21:1 24:1 26:1 29:1 31:1 33:1 36:1 37:1 
1 1:1 4:0.0144928 5:0.0138408 6:1 8:0.0350877 9:1 11:1 13:1 15:1 17:1 19:1 21:1 24:1 26:1 29:1 31:1 33:1 36:1 37:1 
1 1:1 4:0.0347826 5:0.0449827 7:1 9:1 11:1 13:1 15:1 17:1 19:1 21:1 24:1 26:1 29:1 31:1 33:1 36:1 37:1 
1 1:1 4:0.00289855 6:1 8:0.105263 9:1 11:1 13:1 15:1 17:1 19:1 21:1 24:1 26:1 29:1 31:1 33:1 36:1 37:1 
1 1:1 6:1 8:0.0701754 9:1 11:1 13:1 15:1 17:1 19:1 21:1 24:1 26:1 29:1 31:1 33:1 36:1 37:1 
1 1:1 5:0.0017301 6:1 8:0.105263 9:1 11:1 13:1 15:1 17:1 19:1 21:1 24:1 26:1 29:1 31:1 33:1 36:1 37:1 
1 1:1 4:0.00289855 5:0.00346021 6:1 8:0.105263 9:1 11:1 13:1 15:1 17:1 19:1 21:1 24:1 26:1 29:1 31:1 33:1 36:1 37:1 
1 1:1 4:0.0057971 5:0.00519031 6:1 8:0.105263 9:1 11:1 13:1 15:1 17:1 19:1 21:1 24:1 26:1 29:1 31:1 33:1 36:1 37:1 
0.8600007374950668 1:1 4:0.0057971 5:0.0017301 6:1 8:0.0175439 9:1 11:1 13:1 15:1 17:1 19:1 21:1 23:1 26:1 30:1 31:1 33:1 36:1 37:1 
1 1:1 4:0.00289855 5:0.0017301 6:1 8:0.0877193 9:1 11:1 13:1 15:1 17:1 19:1 21:1 24:1 26:1 30:1 31:1 33:1 35:1 37:1 
1 1:1 4:0.00289855 6:1 8:0.0877193 9:1 11:1 13:1 15:1 17:1 19:1 21:1 24:1 26:1 30:1 31:1 33:1 35:1 37:1 
1 1:1 4:0.00289855 6:1 8:0.105263 9:1 11:1 13:1 15:1 17:1 19:1 21:1 24:1 26:1 30:1 31:1 33:1 35:1 37:1 
1 1:1 6:1 8:0.105263 9:1 11:1 13:1 15:1 17:1 19:1 21:1 24:1 26:1 29:1 31:1 33:1 35:1 37:1 
1 1:1 4:0.00289855 5:0.00346021 6:1 8:0.0350877 9:1 11:1 13:1 15:1 17:1 19:1 21:1 25:1 26:1 30:1 31:1 33:1 35:1 37:1 
1 1:1 6:1 8:0.105263 9:1 11:1 13:1 15:1 17:1 19:1 21:1 25:1 26:1 30:1 31:1 33:1 35:1 37:1 
1 1:1 4:0.057971 5:0.0449827 6:1 8:0.333333 9:1 12:1 13:1 15:1 17:1 19:1 21:1 24:1 26:1 30:1 31:1 33:1 35:1 37:1 
1 1:1 6:1 8:0.105263 9:1 11:1 13:1 15:1 17:1 19:1 21:1 24:1 26:1 30:1 31:1 33:1 35:1 37:1 
1 1:1 6:1 8:0.0526316 9:1 12:1 13:1 15:1 17:1 19:1 21:1 24:1 26:1 30:1 31:1 33:1 35:1 37:1 
1 1:1 6:1 8:0.350877 10:1 11:1 13:1 15:1 17:1 19:1 21:1 24:1 26:1 28:1 31:1 33:1 35:1 37:1 
1 1:1 6:1 8:0.0526316 9:1 11:1 13:1 15:1 17:1 19:1 21:1 25:1 26:1 30:1 31:1 33:1 35:1 37:1 
1 1:1 4:0.00869565 5:0.0017301 6:1 8:0.0877193 9:1 11:1 13:1 15:1 17:1 19:1 21:1 24:1 26:1 30:1 31:1 33:1 35:1 37:1 
1 1:1 4:0.026087 6:1 8:0.105263 9:1 11:1 13:1 15:1 17:1 19:1 21:1 24:1 26:1 30:1 31:1 33:1 35:1 37:1 
1 1:1 4:0.00289855 6:1 8:0.0526316 9:1 11:1 13:1 15:1 17:1 19:1 21:1 24:1 26:1 30:1 31:1 33:1 35:1 37:1 
1 1:1 6:1 8:0.0526316 9:1 11:1 13:1 15:1 17:1 19:1 21:1 24:1 26:1 30:1 31:1 33:1 35:1 37:1 
0.9369570430423664 1:1 6:1 8:0.0350877 9:1 11:1 13:1 15:1 17:1 19:1 21:1 23:1 26:1 30:1 31:1 33:1 35:1 37:1 
1 1:1 4:0.0057971 6:1 8:0.0526316 9:1 11:1 13:1 15:1 17:1 19:1 21:1 24:1 26:1 30:1 31:1 33:1 35:1 37:1 
1 1:1 4:0.0057971 5:0.00346021 6:1 8:0.0526316 9:1 11:1 13:1 15:1 17:1 19:1 21:1 24:1 26:1 30:1 31:1 33:1 35:1 37:1 
1 1:1 4:0.00869565 5:0.00692042 6:1 8:0.0526316 9:1 11:1 13:1 15:1 17:1 19:1 21:1 24:1 26:1 30:1 31:1 33:1 35:1 37:1 
0.7947204336797937 1:1 4:0.00869565 5:0.0103806 6:1 8:0.0526316 9:1 11:1 13:1 15:1 17:1 19:1 21:1 24:1 26:1 30:1 31:1 33:1 35:1 37:1 
1 1:1 4:0.00869565 5:0.0121107 6:1 8:0.0350877 9:1 11:1 13:1 15:1 17:1 19:1 21:1 24:1 26:1 30:1 31:1 33:1 35:1 37:1 
1 1:1 5:0.0017301 6:1 8:0.0701754 9:1 11:1 13:1 15:1 17:1 19:1 21:1 24:1 26:1 30:1 31:1 33:1 35:1 37:1 
1 1:1 4:0.00289855 5:0.00519031 6:1 8:0.0701754 9:1 11:1 13:1 15:1 17:1 19:1 21:1 24:1 26:1 30:1 31:1 33:1 35:1 37:1 
1 1:1 4:0.00289855 5:0.0103806 6:1 8:0.0526316 9:1 11:1 13:1 15:1 17:1 19:1 21:1 24:1 26:1 30:1 31:1 33:1 35:1 37:1 
1 1:1 4:0.00289855 6:1 8:0.0701754 9:1 11:1 13:1 15:1 17:1 19:1 21:1 24:1 26:1 30:1 31:1 33:1 35:1 37:1 
1 1:1 6:1 8:0.122807 10:1 11:1 13:1 15:1 17:1 19:1 21:1 24:1 26:1 30:1 31:1 33:1 35:1 37:1 
1 1:1 6:1 8:0.105263 9:1 11:1 13:1 15:1 17:1 19:1 21:1 25:1 26:1 30:1 31:1 33:1 35:1 37:1 
1 1:1 4:0.00289855 6:1 8:0.0526316 9:1 11:1 13:1 15:1 17:1 19:1 21:1 24:1 26:1 30:1 31:1 33:1 35:1 37:1 
1 1:1 4:0.0057971 5:0.00692042 6:1 8:0.877193 9:1 11:1 13:1 15:1 17:1 19:1 21:1 24:1 26:1 30:1 31:1 33:1 35:1 37:1 
1 1:1 6:1 8:0.701754 9:1 11:1 13:1 15:1 17:1 19:1 21:1 24:1 26:1 30:1 31:1 33:1 35:1 37:1 
1 1:1 4:0.00289855 5:0.0017301 6:1 8:0.701754 9:1 11:1 13:1 15:1 17:1 19:1 21:1 24:1 26:1 30:1 31:1 33:1 35:1 37:1 
1 1:1 4:0.0057971 5:0.0103806 6:1 8:0.701754 9:1 11:1 13:1 15:1 17:1 19:1 21:1 24:1 26:1 30:1 31:1 33:1 35:1 37:1 
1 1:1 4:0.00869565 5:0.0121107 6:1 8:0.77193 9:1 11:1 13:1 15:1 17:1 19:1 21:1 24:1 26:1 30:1 31:1 33:1 35:1 37:1 
1 1:1 4:0.00869565 5:0.0138408 6:1 8:0.77193 9:1 11:1 13:1 15:1 17:1 19:1 21:1 24:1 26:1 30:1 31:1 33:1 35:1 37:1 
1 1:1 4:0.00869565 5:0.0155709 6:1 8:0.859649 9:1 11:1 13:1 15:1 17:1 19:1 21:1 24:1 26:1 30:1 31:1 33:1 35:1 37:1 
1 1:1 4:0.00869565 5:0.0190311 6:1 8:0.877193 9:1 11:1 13:1 15:1 17:1 19:1 21:1 24:1 26:1 30:1 31:1 33:1 35:1 37:1 
1 1:1 4:0.0318841 5:0.0224913 6:1 8:0.77193 9:1 11:1 13:1 15:1 17:1 19:1 21:1 24:1 26:1 30:1 31:1 33:1 35:1 37:1 
1 1:1 6:1 8:0.140351 9:1 11:1 13:1 16:1 17:1 19:1 21:1 24:1 26:1 30:1 31:1 33:1 35:1 37:1 
1 1:1 6:1 8:0.140351 9:1 11:1 13:1 16:1 17:1 19:1 21:1 24:1 26:1 30:1 31:1 33:1 35:1 37:1 
1 1:1 6:1 8:0.105263 9:1 11:1 13:1 15:1 17:1 19:1 21:1 24:1 26:1 30:1 31:1 33:1 35:1 37:1 
1 1:1 4:0.00289855 5:0.00346021 6:1 8:0.0350877 9:1 11:1 13:1 15:1 17:1 19:1 21:1 24:1 26:1 29:1 31:1 33:1 36:1 37:1 
1 1:1 6:1 8:0.0877193 9:1 11:1 13:1 15:1 17:1 19:1 21:1 24:1 26:1 30:1 31:1 33:1 35:1 37:1 
0.8991966660588682 1:1 6:1 8:0.122807 9:1 11:1 13:1 15:1 17:1 19:1 21:1 24:1 26:1 30:1 31:1 33:1 35:1 37:1 
1 1:1 4:0.00289855 5:0.00692042 6:1 8:0.0526316 9:1 11:1 13:1 15:1 17:1 19:1 21:1 24:1 26:1 30:1 31:1 33:1 35:1 37:1 
1 1:1 6:1 8:0.0526316 9:1 11:1 13:1 15:1 17:1 19:1 21:1 24:1 26:1 30:1 31:1 33:1 35:1 37:1 
1 1:1 4:0.0057971 6:1 8:0.0526316 9:1 11:1 13:1 15:1 17:1 19:1 21:1 25:1 26:1 30:1 31:1 33:1 35:1 37:1 
1 1:1 6:1 8:0.0526316 9:1 11:1 13:1 15:1 17:1 19:1 21:1 25:1 26:1 30:1 31:1 33:1 35:1 37:1 
1 1:1 6:1 8:0.122807 9:1 11:1 13:1 15:1 17:1 19:1 21:1 24:1 26:1 30:1 31:1 33:1 35:1 37:1 
1 1:1 4:0.0057971 5:0.0017301 6:1 8:0.0877193 9:1 11:1 13:1 15:1 17:1 19:1 21:1 25:1 26:1 30:1 31:1 33:1 35:1 37:1 
1 1:1 6:1 8:0.122807 9:1 11:1 13:1 15:1 17:1 19:1 21:1 24:1 26:1 30:1 31:1 33:1 35:1 37:1 
1 1:1 4:0.0144928 5:0.0017301 6:1 8:0.0526316 9:1 11:1 13:1 15:1 17:1 19:1 21:1 24:1 26:1 30:1 31:1 33:1 35:1 37:1 
1 1:1 4:0.00289855 6:1 8:0.0526316 9:1 11:1 13:1 15:1 17:1 19:1 21:1 25:1 26:1 30:1 31:1 33:1 35:1 37:1 
1 1:1 6:1 8:0.0526316 9:1 11:1 13:1 15:1 17:1 19:1 21:1 25:1 26:1 30:1 31:1 33:1 35:1 37:1 
1 1:1 4:0.00289855 5:0.0017301 6:1 8:0.0175439 9:1 11:1 13:1 15:1 17:1 19:1 21:1 23:1 26:1 30:1 31:1 33:1 35:1 37:1 
1 1:1 4:0.00289855 6:1 8:0.105263 9:1 11:1 13:1 15:1 17:1 19:1 21:1 24:1 26:1 30:1 31:1 33:1 35:1 37:1 
1 1:1 5:0.0017301 6:1 8:0.0877193 9:1 11:1 13:1 15:1 17:1 19:1 21:1 25:1 26:1 30:1 31:1 33:1 35:1 37:1 
1 1:1 6:1 8:0.105263 9:1 11:1 13:1 15:1 17:1 19:1 21:1 24:1 26:1 30:1 31:1 33:1 35:1 37:1 
1 1:1 4:0.00289855 6:1 8:0.0350877 9:1 11:1 13:1 15:1 17:1 19:1 21:1 24:1 26:1 30:1 31:1 33:1 35:1 37:1 
1 1:1 4:0.0057971 6:1 8:0.0350877 9:1 11:1 13:1 15:1 17:1 19:1 21:1 24:1 26:1 30:1 31:1 33:1 35:1 37:1 
1 1:1 4:0.0057971 5:0.0017301 6:1 8:0.0350877 9:1 11:1 13:1 15:1 17:1 19:1 21:1 25:1 26:1 30:1 31:1 33:1 35:1 37:1 
1 1:1 4:0.0057971 5:0.00346021 6:1 8:0.0350877 9:1 11:1 13:1 15:1 17:1 19:1 21:1 24:1 26:1 30:1 31:1 33:1 35:1 37:1 
1 1:1 4:0.0057971 5:0.00865052 6:1 8:0.0350877 9:1 11:1 13:1 15:1 17:1 19:1 21:1 24:1 26:1 30:1 31:1 33:1 35:1 37:1 
1 1:1 4:0.0057971 5:0.0103806 6:1 8:0.0350877 9:1 11:1 13:1 15:1 17:1 19:1 21:1 24:1 26:1 30:1 31:1 33:1 35:1 37:1 
1 1:1 6:1 8:0.122807 9:1 11:1 13:1 15:1 17:1 19:1 21:1 24:1 26:1 30:1 31:1 33:1 35:1 37:1 
1 1:1 6:1 8:0.122807 9:1 11:1 13:1 15:1 17:1 19:1 21:1 24:1 26:1 30:1 31:1 33:1 35:1 37:1 
1 1:1 4:0.0057971 5:0.0138408 6:1 8:0.0350877 9:1 11:1 13:1 15:1 17:1 19:1 21:1 24:1 26:1 30:1 31:1 33:1 35:1 37:1 
1 1:1 4:0.00289855 5:0.00346021 6:1 8:0.0350877 9:1 11:1 13:1 15:1 17:1 19:1 21:1 24:1 26:1 30:1 31:1 33:1 35:1 37:1 
1 1:1 6:1 8:0.0350877 9:1 11:1 13:1 15:1 17:1 19:1 21:1 24:1 26:1 30:1 31:1 33:1 35:1 37:1 
1 1:1 4:0.00289855 5:0.00865052 6:1 8:0.0350877 9:1 11:1 13:1 15:1 17:1 19:1 21:1 24:1 26:1 30:1 31:1 33:1 35:1 37:1 
1 1:1 4:0.00289855 5:0.00865052 6:1 8:0.0350877 9:1 11:1 13:1 15:1 17:1 19:1 21:1 24:1 26:1 30:1 31:1 33:1 35:1 37:1 
1 1:1 6:1 8:0.0350877 9:1 11:1 13:1 15:1 17:1 19:1 21:1 24:1 26:1 30:1 31:1 33:1 35:1 37:1 
1 1:1 4:0.0057971 5:0.0103806 6:1 8:0.0526316 9:1 11:1 13:1 15:1 17:1 19:1 21:1 24:1 26:1 30:1 31:1 33:1 35:1 37:1 
1 1:1 4:0.0057971 6:1 8:0.0877193 9:1 11:1 13:1 15:1 17:1 19:1 21:1 24:1 26:1 30:1 31:1 33:1 35:1 37:1 
1 1:1 4:0.0057971 5:0.0017301 6:1 8:0.105263 9:1 11:1 13:1 15:1 17:1 19:1 21:1 24:1 26:1 30:1 31:1 33:1 35:1 37:1 
1 1:1 4:0.00289855 6:1 8:0.105263 9:1 11:1 13:1 15:1 17:1 19:1 21:1 24:1 26:1 30:1 31:1 33:1 35:1 37:1 
1 1:1 4:0.00289855 5:0.0017301 6:1 8:0.105263 9:1 11:1 13:1 15:1 17:1 19:1 21:1 24:1 26:1 30:1 31:1 33:1 35:1 37:1 
1 1:1 4:0.00289855 6:1 8:0.105263 9:1 11:1 13:1 15:1 17:1 19:1 21:1 24:1 26:1 30:1 31:1 33:1 35:1 37:1 
0.6481170519867318 1:1 4:0.997101 5:0.99481 6:1 8:0.298246 9:1 11:1 13:1 15:1 17:1 19:1 21:1 24:1 26:1 30:1 31:1 33:1 35:1 37:1 
0.009190246785182554 1:1 4:0.997101 5:0.99654 6:1 8:0.315789 9:1 11:1 13:1 15:1 17:1 19:1 21:1 25:1 26:1 30:1 31:1 33:1 35:1 37:1 
1 1:1 4:1 5:1 6:1 8:0.298246 9:1 11:1 13:1 15:1 17:1 19:1 21:1 24:1 26:1 30:1 31:1 33:1 35:1 37:1 
1 1:1 4:0.994203 5:0.99481 6:1 8:0.175439 9:1 11:1 13:1 15:1 17:1 19:1 21:1 25:1 26:1 30:1 31:1 33:1 35:1 37:1 
1 1:1 4:0.997101 5:0.99827 6:1 8:0.157895 9:1 11:1 13:1 15:1 17:1 19:1 21:1 24:1 26:1 30:1 31:1 33:1 35:1 37:1 
0.3192870324352763 1:1 4:0.95942 5:0.958478 6:1 8:0.245614 9:1 11:1 13:1 15:1 17:1 19:1 21:1 24:1 26:1 28:1 31:1 33:1 35:1 37:1 
0.3107281286149721 1:1 4:0.991304 5:0.991349 6:1 8:0.22807 9:1 11:1 13:1 15:1 17:1 19:1 21:1 24:1 26:1 29:1 31:1 33:1 35:1 37:1 
0.2519734551539219 1:1 4:0.991304 5:0.99308 6:1 8:0.22807 9:1 11:1 13:1 15:1 17:1 19:1 21:1 25:1 26:1 30:1 31:1 33:1 35:1 37:1 
1 1:1 4:0.994203 5:0.99654 6:1 8:0.22807 9:1 11:1 13:1 15:1 17:1 19:1 21:1 24:1 26:1 30:1 31:1 33:1 35:1 37:1 
1 1:1 4:0.00289855 6:1 8:0.0877193 9:1 11:1 13:1 15:1 17:1 19:1 21:1 24:1 26:1 30:1 31:1 33:1 35:1 37:1 
1 1:1 4:0.00289855 5:0.0017301 6:1 8:0.105263 9:1 11:1 13:1 15:1 17:1 19:1 21:1 24:1 26:1 30:1 31:1 33:1 35:1 37:1 
1 1:1 4:0.0057971 5:0.00346021 6:1 8:0.0701754 9:1 11:1 13:1 15:1 17:1 19:1 21:1 24:1 26:1 30:1 31:1 33:1 35:1 37:1 
1 1:1 4:0.00289855 5:0.0017301 6:1 8:0.0701754 9:1 11:1 13:1 15:1 17:1 19:1 21:1 24:1 26:1 30:1 31:1 33:1 35:1 37:1 
1 1:1 4:0.985507 5:0.987889 6:1 8:0.157895 9:1 11:1 13:1 15:1 17:1 19:1 21:1 25:1 26:1 30:1 31:1 33:1 35:1 37:1 
1 1:1 4:0.988406 5:0.991349 6:1 8:0.140351 9:1 11:1 13:1 15:1 17:1 19:1 21:1 24:1 26:1 30:1 31:1 33:1 35:1 37:1 
0.5189201017849023 1:1 4:0.982609 5:0.986159 6:1 8:0.157895 9:1 11:1 13:1 15:1 17:1 19:1 21:1 25:1 26:1 30:1 31:1 33:1 35:1 37:1 
1 1:1 4:0.985507 5:0.989619 6:1 8:0.140351 9:1 11:1 13:1 15:1 17:1 19:1 21:1 24:1 26:1 30:1 31:1 33:1 35:1 37:1 
1 1:1 4:0.985507 5:0.987889 6:1 8:0.140351 9:1 11:1 13:1 15:1 17:1 19:1 21:1 24:1 26:1 30:1 31:1 33:1 35:1 37:1 
1 1:1 4:0.0057971 5:0.0121107 7:1 9:1 11:1 13:1 16:1 17:1 19:1 22:1 24:1 26:1 30:1 31:1 33:1 36:1 37:1 
0.4028023256653132 1:1 4:0.0231884 5:0.0190311 6:1 8:0.263158 9:1 11:1 13:1 16:1 17:1 19:1 21:1 25:1 26:1 30:1 31:1 33:1 35:1 37:1 
1 1:1 4:0.0173913 5:0.00519031 6:1 8:0.263158 9:1 11:1 13:1 16:1 17:1 19:1 21:1 25:1 26:1 30:1 31:1 33:1 35:1 37:1 
1 1:1 4:0.0173913 5:0.0017301 6:1 8:0.0701754 9:1 11:1 13:1 15:1 17:1 19:1 21:1 24:1 26:1 30:1 31:1 33:1 35:1 37:1 
1 1:1 4:0.00289855 5:0.00346021 6:1 8:0.0526316 9:1 11:1 13:1 15:1 17:1 19:1 21:1 24:1 26:1 30:1 31:1 33:1 35:1 37:1 
1 1:1 6:1 8:0.122807 9:1 11:1 13:1 15:1 17:1 19:1 21:1 24:1 26:1 30:1 31:1 33:1 35:1 37:1 
1 1:1 4:0.0057971 5:0.00519031 6:1 8:0.0350877 9:1 11:1 13:1 15:1 17:1 19:1 21:1 24:1 26:1 30:1 31:1 33:1 35:1 37:1 
1 1:1 4:0.00289855 5:0.0017301 6:1 8:0.105263 9:1 11:1 13:1 15:1 17:1 19:1 21:1 24:1 26:1 30:1 31:1 33:1 35:1 37:1 
1 1:1 4:0.00289855 6:1 8:0.105263 9:1 11:1 13:1 15:1 17:1 19:1 21:1 24:1 26:1 30:1 31:1 33:1 35:1 37:1 
1 1:1 6:1 8:0.105263 9:1 11:1 13:1 15:1 17:1 19:1 21:1 24:1 26:1 30:1 31:1 33:1 35:1 37:1 
0.7001719704102778 1:1 4:0.0289855 6:1 8:0.105263 9:1 11:1 13:1 15:1 17:1 19:1 21:1 24:1 26:1 30:1 31:1 33:1 35:1 37:1 
1 1:1 4:0.00289855 5:0.0017301 6:1 8:0.0877193 9:1 11:1 13:1 15:1 17:1 19:1 21:1 24:1 26:1 29:1 31:1 33:1 35:1 37:1 
1 1:1 4:0.00289855 5:0.00346021 6:1 8:0.0701754 9:1 11:1 13:1 15:1 17:1 19:1 21:1 24:1 26:1 29:1 31:1 33:1 35:1 37:1 
1 1:1 6:1 8:0.0526316 9:1 11:1 13:1 15:1 17:1 19:1 21:1 24:1 26:1 29:1 31:1 33:1 35:1 37:1 
1 1:1 6:1 8:0.105263 10:1 11:1 13:1 15:1 17:1 19:1 21:1 24:1 26:1 28:1 31:1 33:1 35:1 37:1 
1 1:1 5:0.0017301 6:1 8:0.0877193 9:1 11:1 13:1 15:1 17:1 19:1 21:1 24:1 26:1 29:1 31:1 33:1 35:1 37:1 
1 1:1 5:0.00346021 6:1 8:0.0701754 9:1 11:1 13:1 15:1 17:1 19:1 21:1 24:1 26:1 30:1 31:1 33:1 35:1 37:1 
1 1:1 5:0.0017301 6:1 8:0.0701754 9:1 11:1 13:1 15:1 17:1 19:1 21:1 25:1 26:1 30:1 31:1 33:1 35:1 37:1 
1 1:1 4:0.00289855 6:1 8:0.0526316 9:1 11:1 13:1 15:1 17:1 19:1 21:1 25:1 26:1 30:1 31:1 33:1 35:1 37:1 
1 1:1 6:1 8:0.0877193 9:1 11:1 13:1 15:1 17:1 19:1 21:1 24:1 26:1 30:1 31:1 33:1 35:1 37:1 
-1 1:1 4:0.00869565 5:0.0121107 6:1 8:0.0175439 9:1 11:1 13:1 16:1 17:1 19:1 21:1 24:1 26:1 30:1 31:1 33:1 35:1 37:1 
-1 1:1 5:0.0017301 6:1 8:0.0175439 9:1 11:1 13:1 16:1 17:1 19:1 21:1 24:1 26:1 30:1 31:1 33:1 35:1 37:1 
-1 1:1 4:0.0231884 6:1 8:0.0350877 9:1 11:1 13:1 15:1 17:1 19:1 21:1 24:1 26:1 30:1 31:1 33:1 35:1 37:1 
-1 1:1 4:0.0057971 6:1 8:0.0350877 9:1 11:1 13:1 15:1 17:1 19:1 21:1 24:1 26:1 30:1 31:1 33:1 35:1 37:1 
-1 1:1 4:0.13913 5:0.238754 7:1 9:1 12:1 13:1 15:1 17:1 19:1 21:1 24:1 26:1 30:1 31:1 33:1 35:1 37:1 
-1 1:1 4:0.391304 5:0.358131 7:1 9:1 12:1 13:1 15:1 17:1 19:1 21:1 24:1 26:1 30:1 31:1 33:1 35:1 37:1 
-1 1:1 4:0.182609 5:0.204152 6:1 8:0.0526316 9:1 11:1 13:1 15:1 17:1 19:1 21:1 25:1 26:1 30:1 31:1 33:1 35:1 37:1 
-1 1:1 5:0.0017301 6:1 8:0.0350877 9:1 11:1 13:1 15:1 17:1 19:1 21:1 24:1 26:1 29:1 31:1 33:1 35:1 37:1 
-1 1:1 4:0.00289855 5:0.00519031 6:1 8:0.122807 9:1 11:1 13:1 15:1 17:1 19:1 21:1 24:1 26:1 29:1 31:1 33:1 35:1 37:1 
-0.1276715723891976 1:1 6:1 8:0.0877193 9:1 11:1 13:1 15:1 17:1 19:1 21:1 25:1 26:1 30:1 32:1 33:1 35:1 37:1 
-1 1:1 6:1 8:0.0526316 9:1 11:1 13:1 15:1 17:1 19:1 21:1 25:1 26:1 30:1 32:1 33:1 35:1 37:1 
-1 1:1 4:0.00869565 5:0.0224913 6:1 8:0.298246 9:1 11:1 13:1 15:1 17:1 19:1 21:1 24:1 26:1 30:1 31:1 33:1 35:1 37:1 
-1 1:1 4:0.208696 5:0.413495 6:1 8:0.175439 9:1 11:1 13:1 15:1 17:1 19:1 21:1 25:1 26:1 30:1 31:1 33:1 35:1 37:1 
-1 1:1 6:1 8:0.140351 9:1 11:1 13:1 15:1 17:1 19:1 21:1 25:1 26:1 30:1 31:1 33:1 35:1 37:1 
-1 1:1 6:1 8:0.175439 9:1 11:1 13:1 15:1 17:1 19:1 21:1 25:1 26:1 30:1 31:1 33:1 35:1 37:1 
-1 1:1 4:0.00289855 6:1 8:0.315789 9:1 11:1 13:1 15:1 17:1 19:1 21:1 24:1 26:1 30:1 31:1 33:1 35:1 37:1 
-1 1:1 4:0.00289855 6:1 8:0.0526316 9:1 11:1 13:1 15:1 17:1 19:1 21:1 24:1 26:1 30:1 31:1 33:1 35:1 37:1 
-1 1:1 4:0.00869565 5:0.0103806 6:1 8:0.0175439 9:1 11:1 13:1 16:1 17:1 19:1 21:1 24:1 26:1 30:1 31:1 33:1 35:1 37:1 
-1 1:1 5:0.0017301 6:1 8:0.0175439 9:1 11:1 13:1 16:1 17:1 19:1 21:1 24:1 26:1 30:1 31:1 33:1 35:1 37:1 
-1 1:1 4:0.0550725 5:0.103806 6:1 8:0.0701754 9:1 11:1 13:1 15:1 17:1 19:1 21:1 25:1 26:1 30:1 31:1 33:1 35:1 37:1 
-1 1:1 4:0.0057971 5:0.0294118 6:1 8:0.0701754 9:1 11:1 13:1 15:1 17:1 19:1 21:1 25:1 26:1 30:1 31:1 33:1 35:1 37:1 
-1 1:1 6:1 8:0.122807 10:1 11:1 13:1 15:1 17:1 19:1 21:1 24:1 26:1 30:1 31:1 33:1 35:1 37:1 
-1 1:1 6:1 8:0.22807 10:1 11:1 13:1 15:1 17:1 19:1 21:1 24:1 26:1 30:1 31:1 33:1 35:1 37:1 
-1 1:1 4:0.0956522 5:0.16436 7:1 9:1 11:1 13:1 15:1 17:1 19:1 21:1 24:1 26:1 30:1 31:1 33:1 35:1 37:1 
-1 1:1 4:0.0347826 5:0.0346021 6:1 8:0.192982 9:1 11:1 13:1 15:1 17:1 19:1 21:1 24:1 26:1 30:1 31:1 33:1 35:1 37:1 
-1 1:1 4:0.0898551 5:0.0484429 6:1 8:0.245614 9:1 11:1 13:1 15:1 17:1 19:1 21:1 24:1 26:1 30:1 31:1 33:1 35:1 37:1 
-1 1:1 4:0.00869565 5:0.00346021 6:1 8:0.192982 9:1 11:1 13:1 15:1 17:1 19:1 21:1 24:1 26:1 30:1 31:1 33:1 35:1 37:1 
-1 1:1 5:0.0017301 6:1 8:0.0877193 9:1 11:1 13:1 15:1 17:1 19:1 21:1 24:1 26:1 30:1 31:1 33:1 35:1 37:1 
-1 1:1 4:0.00289855 5:0.0017301 6:1 8:0.0877193 9:1 11:1 13:1 15:1 17:1 19:1 21:1 24:1 26:1 30:1 31:1 33:1 35:1 37:1 
-1 1:1 5:0.00346021 6:1 8:0.0877193 9:1 11:1 13:1 15:1 17:1 19:1 21:1 24:1 26:1 30:1 31:1 33:1 35:1 37:1 
-1 1:1 6:1 8:0.192982 9:1 11:1 13:1 15:1 17:1 19:1 21:1 24:1 26:1 29:1 31:1 33:1 35:1 37:1 
-1 1:1 6:1 8:0.175439 9:1 11:1 13:1 15:1 17:1 19:1 21:1 25:1 26:1 30:1 31:1 33:1 35:1 37:1 
-1 1:1 4:0.0927536 5:0.0865052 6:1 8:0.0701754 9:1 11:1 13:1 15:1 17:1 19:1 21:1 24:1 26:1 29:1 31:1 33:1 35:1 37:1 
-1 1:1 4:0.0144928 5:0.017301 6:1 8:0.0701754 9:1 11:1 13:1 15:1 17:1 19:1 21:1 24:1 26:1 29:1 31:1 33:1 35:1 37:1 
-1 1:1 4:0.00289855 5:0.0017301 6:1 8:0.0701754 9:1 11:1 13:1 15:1 17:1 19:1 21:1 24:1 26:1 29:1 31:1 33:1 35:1 38:1 
-1 1:1 4:0.00869565 5:0.00519031 6:1 8:0.54386 9:1 11:1 13:1 15:1 17:1 19:1 21:1 24:1 26:1 29:1 31:1 33:1 35:1 38:1 
-1 1:1 4:0.0434783 5:0.017301 6:1 8:0.421053 9:1 11:1 13:1 15:1 17:1 19:1 21:1 24:1 26:1 30:1 31:1 33:1 35:1 37:1 
-1 1:1 4:0.00289855 6:1 8:0.298246 9:1 11:1 13:1 15:1 17:1 19:1 21:1 24:1 26:1 30:1 31:1 33:1 35:1 37:1 
-1 1:1 4:0.00289855 6:1 8:0.0526316 9:1 11:1 13:1 15:1 17:1 19:1 21:1 24:1 26:1 30:1 31:1 33:1 35:1 37:1 
-1 1:1 4:0.00289855 5:0.0017301 6:1 8:0.192982 9:1 11:1 13:1 15:1 17:1 19:1 21:1 24:1 26:1 30:1 31:1 33:1 35:1 37:1 
-1 1:1 4:0.0608696 5:0.0121107 6:1 8:0.210526 9:1 11:1 13:1 15:1 17:1 19:1 21:1 24:1 26:1 30:1 31:1 33:1 35:1 37:1 
-1 1:1 4:0.0231884 5:0.0017301 6:1 8:0.157895 9:1 11:1 13:1 15:1 17:1 19:1 21:1 24:1 26:1 30:1 31:1 33:1 35:1 37:1 
-1 1:1 4:0.00869565 5:0.00519031 6:1 8:0.368421 9:1 11:1 13:1 15:1 17:1 19:1 21:1 24:1 26:1 30:1 31:1 33:1 35:1 37:1 
-1 1:1 4:0.00289855 6:1 8:0.350877 9:1 11:1 13:1 15:1 17:1 19:1 21:1 24:1 26:1 30:1 31:1 33:1 35:1 37:1 
-1 1:1 4:0.0173913 5:0.0155709 7:1 9:1 11:1 13:1 16:1 17:1 19:1 21:1 24:1 26:1 30:1 31:1 33:1 36:1 37:1 
-1 1:1 6:1 8:0.263158 9:1 11:1 13:1 15:1 17:1 19:1 21:1 25:1 26:1 30:1 31:1 33:1 35:1 37:1 
-1 1:1 4:0.0057971 6:1 8:0.0701754 9:1 11:1 13:1 15:1 17:1 19:1 21:1 24:1 26:1 29:1 31:1 33:1 35:1 37:1 
-1 1:1 5:0.00346021 6:1 8:0.0175439 9:1 11:1 13:1 16:1 17:1 19:1 21:1 24:1 26:1 30:1 31:1 33:1 35:1 37:1 
-1 1:1 4:0.127536 5:0.0692042 6:1 8:0.0526316 9:1 11:1 13:1 15:1 17:1 19:1 21:1 24:1 26:1 30:1 31:1 33:1 35:1 37:1 
-1 1:1 4:0.00289855 5:0.0017301 6:1 8:0.0350877 9:1 11:1 13:1 15:1 17:1 19:1 21:1 24:1 26:1 29:1 31:1 33:1 36:1 37:1 
-1 1:1 5:0.00346021 6:1 8:0.0350877 9:1 11:1 13:1 15:1 17:1 19:1 21:1 24:1 26:1 29:1 31:1 33:1 36:1 37:1 
-1 1:1 5:0.00346021 6:1 8:0.157895 9:1 11:1 13:1 15:1 17:1 19:1 21:1 24:1 26:1 30:1 31:1 33:1 35:1 37:1 
