svm_type c_svc
kernel_type rbf
gamma 0.5
nr_class 2
total_sv 840
rho -0.307886
label 1 0
probA -3.70899
probB 0.502791
nr_sv 378 462
SV
0.1345221544920173 2:1 3:0.0382775 4:1 5:1 8:1 9:1 12:1 13:1 15:1 18:1 19:1 23:1 57:1 252:1 254:1 255:1 258:1 260:1 264:1 
0.797965314412406 1:1 3:0.00956938 4:1 6:1 8:1 10:1 12:1 13:1 15:1 18:1 20:1 22:1 89:1 252:1 253:1 255:1 257:1 261:1 264:1 
32 1:1 3:0.00478469 4:0.375 5:1 7:1 9:1 11:1 14:1 18:1 19:1 23:1 121:1 252:1 253:1 255:1 257:1 261:1 264:1 
32 1:1 3:0.00478469 4:0.375 5:1 7:1 9:1 11:1 14:1 18:1 19:1 23:1 121:1 252:1 253:1 255:1 257:1 261:1 264:1 
0.2228615205741445 1:1 3:0.0334928 4:0.5 6:1 8:1 10:1 12:1 13:1 15:1 18:1 19:1 23:1 121:1 252:1 254:1 256:1 258:1 261:1 264:1 
32 1:1 4:1 5:1 7:1 9:1 11:1 14:1 18:1 19:1 23:1 121:1 252:1 253:1 255:1 257:1 261:1 264:1 
2.145868000473732 1:1 3:0.0861244 4:0.75 5:1 7:1 9:1 11:1 14:1 18:1 19:1 23:1 119:1 252:1 253:1 255:1 258:1 261:1 264:1 
0.3471582375319319 1:1 3:0.0143541 4:0.875 6:1 7:1 9:1 12:1 13:0.408248 14:1 18:1 19:1 23:1 120:1 252:1 253:1 256:1 258:1 261:1 264:1 
0.05143278380156711 2:1 3:0.00478469 6:1 8:1 10:1 12:1 13:1 15:1 18:1 19:1 23:1 121:1 252:1 254:1 255:1 258:1 261:1 264:1 
0.1746839272224789 1:1 3:0.952153 4:1 6:1 8:1 10:1 12:1 13:1 15:1 18:1 19:1 23:1 116:1 252:1 254:1 255:1 258:1 261:1 264:1 
3.044717051718218 1:1 3:0.258373 4:1 5:1 8:1 9:1 11:1 14:1 18:1 19:1 23:1 88:1 252:1 253:1 255:1 257:1 261:1 264:1 
0.05650961094347652 1:1 3:0.00478469 4:1 6:1 8:1 10:1 12:1 13:1 15:1 18:1 19:1 23:1 25:1 252:1 253:1 255:1 257:1 260:1 264:1 
31.29393422092413 1:1 3:0.0478469 4:0.625 5:1 7:1 9:1 12:1 13:0.566947 14:1 18:1 19:1 23:1 175:1 252:1 253:1 255:1 257:1 261:1 264:1 
23.18610206426827 1:1 3:0.0717703 4:1 5:1 7:1 9:1 11:1 14:1 18:1 19:1 23:1 175:1 252:1 253:1 255:1 257:1 261:1 264:1 
32 1:1 3:0.0239234 4:0.875 5:1 7:1 9:1 11:1 14:1 18:1 19:1 23:1 185:1 252:1 253:1 255:1 257:1 261:1 264:1 
32 1:1 3:0.0478469 4:0.625 5:1 7:1 9:1 12:1 13:0.566947 14:1 18:1 19:1 23:1 175:1 252:1 253:1 255:1 257:1 261:1 264:1 
31.99669682056322 1:1 3:0.0717703 4:1 5:1 7:1 9:1 11:1 14:1 18:1 19:1 23:1 175:1 252:1 253:1 255:1 257:1 261:1 264:1 
32 1:1 3:0.0239234 4:0.875 5:1 7:1 9:1 11:1 14:1 18:1 19:1 23:1 185:1 252:1 253:1 255:1 257:1 261:1 264:1 
0.1825242029447333 1:1 3:0.105263 4:0.625 5:1 7:1 9:1 12:1 13:0.566947 14:1 18:1 19:1 23:1 175:1 252:1 253:1 255:1 257:1 261:1 264:1 
32 1:1 3:0.0382775 4:0.875 5:1 7:1 9:1 11:1 14:1 18:1 19:1 23:1 185:1 252:1 253:1 255:1 257:1 261:1 264:1 
32 1:1 3:0.162679 4:0.625 5:1 7:1 9:1 11:1 14:1 18:1 19:1 23:1 175:1 252:1 253:1 255:1 257:1 261:1 264:1 
32 1:1 3:0.0574163 4:0.5 5:1 7:1 9:1 12:1 13:0.267261 14:1 18:1 19:1 23:1 185:1 252:1 253:1 255:1 257:1 261:1 264:1 
32 1:1 3:0.0239234 4:0.875 5:1 7:1 9:1 11:1 14:1 18:1 19:1 23:1 185:1 252:1 253:1 255:1 257:1 261:1 264:1 
32 1:1 3:0.0382775 4:0.875 5:1 7:1 9:1 11:1 14:1 18:1 19:1 23:1 185:1 252:1 253:1 255:1 257:1 261:1 264:1 
32 1:1 3:0.0574163 4:0.5 5:1 7:1 9:1 12:1 13:0.267261 14:1 18:1 19:1 23:1 185:1 252:1 253:1 255:1 257:1 261:1 264:1 
7.827869740627949 1:1 3:0.0191388 4:0.625 6:1 7:1 9:1 12:1 13:0.408248 14:1 18:1 19:1 23:1 185:1 252:1 253:1 255:1 257:1 261:1 264:1 
31.36999028896712 1:1 3:0.0191388 4:0.625 6:1 7:1 9:1 12:1 13:0.408248 14:1 18:1 19:1 23:1 185:1 252:1 253:1 255:1 257:1 261:1 264:1 
16.08021178814348 1:1 3:0.105263 4:0.5 5:1 7:1 9:1 12:1 13:0.894427 14:1 18:1 19:1 23:1 117:1 252:1 253:1 255:1 257:1 261:1 264:1 
0.2684916787346149 2:1 3:0.00478469 4:0.5 6:1 8:1 10:1 12:1 13:1 15:1 18:1 19:1 23:1 105:1 252:1 254:1 255:1 258:1 260:1 264:1 
32 1:1 3:0.315789 4:0.375 5:1 7:1 9:1 12:1 13:0.333333 14:1 18:1 19:1 23:1 117:1 252:1 253:1 255:1 257:1 261:1 264:1 
0.03411456564045049 2:1 3:0.114833 4:0.5 6:1 8:1 10:1 12:1 13:1 15:1 18:1 19:1 23:1 196:1 252:1 254:1 255:1 258:1 261:1 264:1 
0.4577848500725699 1:1 3:0.00956938 4:1 5:1 8:1 9:1 12:1 13:0.57735 14:1 18:1 19:1 23:1 64:1 252:1 253:1 256:1 257:1 261:1 264:1 
0.5002499506620932 1:1 3:0.325359 4:1 5:1 8:1 9:1 12:1 13:0.57735 14:1 18:1 19:1 23:1 124:1 252:1 253:1 256:1 257:1 261:1 264:1 
0.5319238860831569 1:1 3:0.0287081 4:0.25 6:1 8:1 9:1 12:1 13:0.774597 14:1 18:1 19:1 23:1 57:1 252:1 253:1 255:1 257:1 261:1 264:1 
0.08773727560724673 1:1 3:0.282297 4:0.25 6:1 8:1 9:1 12:1 13:0.866025 15:1 18:1 19:1 23:1 117:1 250:1 254:1 255:1 258:1 261:1 264:1 
0.2601316618554149 1:1 3:0.315789 4:1 6:1 8:1 10:1 12:1 13:1 15:1 18:1 19:1 23:1 117:1 250:1 254:1 255:1 258:1 261:1 264:1 
0.04820320177694556 1:1 3:0.0143541 4:0.375 6:1 7:1 9:1 12:1 13:0.75 15:1 18:1 19:1 23:1 57:1 252:1 254:1 255:1 258:1 261:1 264:1 
12.76831454320229 1:1 3:0.253589 6:1 7:1 9:1 12:1 13:0.67082 14:1 18:1 19:1 23:1 117:1 252:1 253:1 255:1 257:1 261:1 264:1 
21.38665747492261 1:1 3:0.253589 6:1 7:1 9:1 12:1 13:0.67082 14:1 18:1 19:1 23:1 117:1 252:1 253:1 255:1 257:1 261:1 264:1 
1.541823041740018 1:1 3:0.287081 4:0.75 6:1 8:1 9:1 12:1 13:0.774597 14:1 18:1 19:1 23:1 117:1 252:1 253:1 255:1 257:1 261:1 264:1 
0.03550465377116242 1:1 3:0.311005 4:0.5 6:1 7:1 9:1 12:1 13:0.75 15:1 18:1 19:1 23:1 117:1 252:1 254:1 255:1 258:1 261:1 264:1 
0.05365054806902675 1:1 3:0.0334928 4:0.75 6:1 8:1 9:1 12:1 13:0.866025 15:1 18:1 19:1 23:1 121:1 250:1 254:1 255:1 258:1 261:1 264:1 
32 1:1 3:0.00956938 4:1 6:1 8:1 9:1 12:1 13:0.707107 14:1 18:1 19:1 23:1 121:1 252:1 253:1 255:1 257:1 261:1 264:1 
22.40609574620841 1:1 3:0.00478469 4:1 6:1 8:1 9:1 12:1 13:0.707107 14:1 18:1 19:1 23:1 121:1 252:1 253:1 255:1 257:1 261:1 264:1 
7.050057751805919 1:1 3:0.124402 4:0.625 5:1 8:1 9:1 12:1 13:0.447214 14:1 18:1 19:1 23:1 120:1 250:1 253:1 255:1 257:1 261:1 264:1 
0.1581121440139022 1:1 3:0.0191388 4:1 6:1 8:1 10:1 12:1 13:1 15:1 18:1 19:1 23:1 120:1 252:1 254:1 255:1 258:1 260:1 264:1 
32 1:1 3:0.00478469 4:0.75 6:1 7:1 9:1 12:1 13:0.408248 14:1 18:1 19:1 23:1 121:1 252:1 253:1 255:1 257:1 261:1 264:1 
22.01977303393347 1:1 3:0.272727 4:0.625 5:1 7:1 9:1 12:1 13:0.408248 14:1 18:1 19:1 23:1 102:1 252:1 253:1 255:1 257:1 261:1 264:1 
32 1:1 3:0.22488 4:0.5 5:1 7:1 9:1 12:1 13:0.57735 14:1 18:1 19:1 23:1 120:1 252:1 253:1 255:1 257:1 261:1 264:1 
16.54935363955236 1:1 4:0.875 6:1 7:1 9:1 12:1 13:0.408248 14:1 18:1 19:1 23:1 89:1 252:1 253:1 255:1 257:1 261:1 264:1 
0.01220716457840569 1:1 3:0.220096 4:0.5 6:1 7:1 9:1 12:1 13:0.666667 15:1 18:1 19:1 23:1 120:1 252:1 254:1 255:1 258:1 261:1 264:1 
32 1:1 3:0.22488 4:0.5 5:1 7:1 9:1 12:1 13:0.57735 14:1 18:1 19:1 23:1 120:1 252:1 253:1 255:1 257:1 261:1 264:1 
32 1:1 3:0.296651 5:1 7:1 9:1 12:1 13:0.333333 14:1 18:1 19:1 23:1 120:1 252:1 253:1 255:1 257:1 261:1 264:1 
1.290808575773714 1:1 4:1 5:1 8:1 9:1 12:1 13:0.707107 14:1 18:1 19:1 23:1 57:1 252:1 253:1 255:1 257:1 261:1 264:1 
0.00799257748567952 1:1 3:0.196172 4:1 6:1 8:1 10:1 12:1 13:1 15:1 18:1 19:1 23:1 87:1 252:1 253:1 255:1 257:1 260:1 264:1 
32 1:1 3:0.291866 4:0.625 5:1 7:1 9:1 12:1 13:0.353553 14:1 18:1 19:1 23:1 117:1 252:1 253:1 255:1 257:1 261:1 264:1 
32 1:1 3:0.0956938 4:0.625 5:1 7:1 9:1 12:1 13:0.353553 14:1 18:1 19:1 23:1 119:1 252:1 253:1 255:1 257:1 261:1 264:1 
0.4563596020424794 1:1 3:0.196172 4:1 5:1 8:1 9:1 12:1 13:0.707107 14:1 18:1 19:1 23:1 87:1 252:1 253:1 255:1 257:1 261:1 264:1 
8.692500378128159 1:1 3:0.291866 4:0.625 5:1 8:1 9:1 12:1 13:0.5 14:1 18:1 19:1 23:1 117:1 252:1 253:1 255:1 257:1 261:1 264:1 
32 1:1 3:0.0956938 4:0.625 5:1 7:1 9:1 12:1 13:0.353553 14:1 18:1 19:1 23:1 119:1 252:1 253:1 255:1 257:1 261:1 264:1 
32 1:1 3:0.0956938 4:0.625 5:1 7:1 9:1 12:1 13:0.353553 14:1 18:1 19:1 23:1 119:1 252:1 253:1 255:1 257:1 261:1 264:1 
1.169083840465477 1:1 3:0.0526316 4:1 5:1 8:1 9:1 12:1 13:0.707107 14:1 18:1 20:1 23:1 215:1 252:1 253:1 255:1 257:1 261:1 264:1 
0.1260304717049052 1:1 3:0.626794 4:1 5:1 8:1 10:1 12:1 13:0.5 14:1 18:1 19:1 23:1 119:1 252:1 253:1 255:1 257:1 260:1 264:1 
0.116841823555322 2:1 3:0.0334928 6:1 8:1 10:1 12:1 13:1 15:1 18:1 19:1 23:1 89:1 252:1 254:1 255:1 258:1 261:1 264:1 
32 1:1 3:0.583732 4:1 5:1 8:1 9:1 11:1 14:1 18:1 19:1 23:1 119:1 252:1 253:1 255:1 257:1 261:1 264:1 
32 1:1 3:0.00478469 4:0.875 6:1 8:1 9:1 12:1 13:0.632456 14:1 18:1 19:1 23:1 121:1 252:1 253:1 255:1 257:1 261:1 264:1 
0.6334721152109447 1:1 3:0.133971 4:1 5:1 8:1 9:1 12:1 13:0.707107 14:1 18:1 19:1 23:1 119:1 252:1 253:1 255:1 258:1 261:1 264:1 
0.05294216614887863 1:1 3:0.138756 4:1 6:1 8:1 10:1 12:1 13:1 15:1 18:1 19:1 23:1 119:1 252:1 254:1 255:1 258:1 260:1 264:1 
0.7721725096716963 1:1 3:0.0143541 4:1 6:1 8:1 10:1 12:1 13:1 15:1 18:1 19:1 21:1 137:1 252:1 253:1 255:1 257:1 261:1 264:1 
1.35796767433912 1:1 3:0.344498 4:1 5:1 7:1 10:1 12:1 13:0.5 14:1 18:1 19:1 23:1 119:1 252:1 253:1 255:1 257:1 260:1 264:1 
0.9623949129323665 1:1 3:0.325359 4:0.25 5:1 7:1 9:1 12:1 13:0.666667 14:1 18:1 19:1 23:1 117:1 252:1 253:1 255:1 257:1 260:1 264:1 
1.259189044184079 1:1 3:0.330144 4:1 5:1 8:1 9:1 12:1 13:0.816497 14:1 18:1 19:1 23:1 117:1 252:1 253:1 255:1 257:1 260:1 264:1 
18.57086558444378 1:1 3:0.00956938 4:0.625 5:1 7:1 9:1 12:1 13:0.353553 14:1 18:1 19:1 23:1 24:1 252:1 253:1 255:1 257:1 261:1 264:1 
32 1:1 3:0.473684 4:1 5:1 7:1 9:1 11:1 14:1 18:1 19:1 23:1 117:1 252:1 253:1 255:1 257:1 261:1 264:1 
32 1:1 3:0.00478469 4:1 5:1 8:1 9:1 11:1 14:1 18:1 19:1 23:1 121:1 252:1 253:1 255:1 257:1 261:1 264:1 
0.1074214349913045 1:1 3:0.0382775 4:1 6:1 8:1 10:1 12:1 13:1 15:1 18:1 19:1 23:1 87:1 252:1 254:1 255:1 258:1 260:1 264:1 
0.03495872380040633 1:1 3:0.0334928 4:0.5 6:1 8:1 10:1 12:1 13:1 15:1 18:1 19:1 23:1 89:1 252:1 254:1 255:1 258:1 260:1 264:1 
0.3402674922936939 2:1 3:0.0239234 4:0.125 6:1 7:1 9:1 12:1 13:0.666667 15:1 18:1 19:1 23:1 89:1 252:1 254:1 255:1 258:1 260:1 264:1 
1.495930150023103 1:1 4:0.875 5:1 8:1 9:1 12:1 13:0.5 14:1 18:1 19:1 23:1 89:1 250:1 253:1 255:1 257:1 261:1 264:1 
0.1368814683439767 2:1 3:0.00956938 4:1 6:1 8:1 9:1 12:1 13:1 15:1 18:1 19:1 23:1 185:1 252:1 254:1 255:1 258:1 261:1 264:1 
0.2298829369387385 2:1 3:0.00956938 4:1 5:1 8:1 9:1 12:1 13:1 15:1 18:1 19:1 23:1 185:1 252:1 254:1 255:1 258:1 260:1 264:1 
0.1885076407796535 2:1 3:0.110048 4:0.875 6:1 7:1 9:1 12:1 13:0.5 15:1 18:1 19:1 23:1 211:1 252:1 254:1 255:1 258:1 261:1 264:1 
0.4313115376632597 1:1 3:0.0909091 6:1 8:1 10:1 12:1 13:1 15:1 18:1 19:1 22:1 72:1 252:1 254:1 255:1 258:1 261:1 264:1 
1.099595892493967 1:1 3:0.0909091 6:1 7:1 9:1 12:1 13:0.816497 14:1 18:1 19:1 22:1 72:1 252:1 253:1 255:1 258:1 261:1 264:1 
0.2553693482395132 1:1 3:0.0191388 4:1 5:1 8:1 9:1 12:1 13:1 15:1 18:1 19:1 23:1 121:1 252:1 254:1 255:1 258:1 261:1 264:1 
0.07786492343214181 1:1 3:0.311005 4:1 6:1 8:1 9:1 12:1 13:0.707107 14:1 18:1 19:1 23:1 24:1 252:1 253:1 255:1 257:1 260:1 264:1 
0.6103572383619549 1:1 4:0.75 5:1 7:1 9:1 12:1 13:0.408248 14:1 18:1 19:1 23:1 121:1 252:1 254:1 255:1 258:1 260:1 264:1 
32 1:1 3:0.0191388 4:1 5:1 7:1 9:1 11:1 14:1 18:1 19:1 23:1 121:1 252:1 253:1 255:1 257:1 261:1 264:1 
32 1:1 3:0.0143541 4:0.875 5:1 7:1 9:1 11:1 14:1 18:1 19:1 23:1 121:1 252:1 253:1 255:1 257:1 261:1 264:1 
32 1:1 3:0.0143541 4:0.875 5:1 7:1 9:1 11:1 14:1 18:1 19:1 23:1 121:1 252:1 253:1 255:1 257:1 261:1 264:1 
2.329307532735735 1:1 3:0.186603 4:0.75 6:1 7:1 9:1 12:1 13:0.57735 14:1 18:1 19:1 23:1 117:1 250:1 253:1 255:1 257:1 261:1 264:1 
0.8241559181291749 2:1 3:0.0143541 4:1 6:1 8:1 9:1 12:1 13:1 15:1 18:1 20:1 23:1 105:1 252:1 253:1 255:1 257:1 261:1 264:1 
0.375749643419436 1:1 3:0.0143541 4:1 6:1 8:1 9:1 12:1 13:1 15:1 18:1 20:1 23:1 105:1 252:1 254:1 256:1 258:1 261:1 264:1 
0.2328205297782134 1:1 3:0.0143541 4:1 5:1 8:1 9:1 12:1 13:1 15:1 18:1 20:1 23:1 105:1 252:1 254:1 255:1 258:1 261:1 264:1 
0.1351904093537198 2:1 3:0.0334928 4:1 5:1 8:1 9:1 12:1 13:1 15:1 18:1 20:1 23:1 105:1 252:1 254:1 255:1 258:1 261:1 264:1 
32 1:1 3:0.0430622 4:1 5:1 8:1 9:1 11:1 14:1 18:1 19:1 23:1 105:1 252:1 253:1 255:1 257:1 261:1 264:1 
0.7657140019871383 1:1 3:0.0526316 4:1 5:1 8:1 9:1 12:1 13:1 15:1 18:1 20:1 23:1 105:1 252:1 253:1 255:1 257:1 261:1 264:1 
0.1273340002971861 2:1 3:0.0526316 4:1 6:1 8:1 9:1 12:1 13:1 15:1 18:1 20:1 23:1 105:1 252:1 254:1 255:1 258:1 261:1 264:1 
0.0718069576676558 1:1 3:0.0526316 4:1 6:1 8:1 9:1 12:1 13:1 15:1 18:1 20:1 23:1 105:1 252:1 254:1 255:1 258:1 261:1 264:1 
0.5653778253226005 1:1 3:0.0526316 4:1 5:1 8:1 9:1 12:1 13:1 15:1 18:1 19:1 23:1 105:1 252:1 253:1 255:1 257:1 261:1 264:1 
0.3785999548776167 1:1 3:0.062201 4:1 5:1 8:1 9:1 12:1 13:1 15:1 18:1 19:1 23:1 105:1 252:1 254:1 255:1 258:1 261:1 264:1 
0.08280710630700425 1:1 3:0.00956938 4:1 6:1 8:1 10:1 12:1 13:1 15:1 18:1 20:1 23:1 105:1 252:1 253:1 255:1 257:1 261:1 264:1 
0.1185024218598158 1:1 3:0.00478469 4:0.75 6:1 7:1 9:1 12:1 13:0.57735 15:1 18:1 19:1 23:1 121:1 252:1 254:1 255:1 258:1 261:1 264:1 
32 1:1 3:0.143541 4:1 5:1 7:1 9:1 11:1 14:1 18:1 19:1 23:1 181:1 252:1 253:1 255:1 257:1 261:1 264:1 
32 1:1 3:0.186603 4:1 5:1 7:1 9:1 11:1 14:1 18:1 19:1 23:1 211:1 252:1 253:1 255:1 257:1 261:1 264:1 
32 1:1 3:0.0430622 4:1 5:1 7:1 9:1 11:1 14:1 18:1 19:1 23:1 215:1 252:1 253:1 255:1 257:1 261:1 264:1 
1.119373415331507 1:1 3:0.148325 4:1 6:1 7:1 9:1 12:1 13:0.866025 14:1 18:1 19:1 23:1 181:1 252:1 253:1 255:1 257:1 261:1 264:1 
1.718145236180081 1:1 3:0.186603 4:1 6:1 7:1 9:1 12:1 13:0.866025 14:1 18:1 19:1 23:1 211:1 252:1 253:1 255:1 257:1 261:1 264:1 
0.0201178086409861 2:1 3:0.148325 4:1 6:1 8:1 9:1 12:1 13:1 15:1 18:1 19:1 23:1 181:1 252:1 254:1 255:1 258:1 261:1 264:1 
32 1:1 3:0.148325 4:1 5:1 7:1 9:1 11:1 14:1 18:1 19:1 23:1 181:1 252:1 253:1 255:1 257:1 261:1 264:1 
32 1:1 3:0.148325 4:1 5:1 7:1 9:1 11:1 14:1 18:1 19:1 23:1 181:1 252:1 253:1 255:1 257:1 261:1 264:1 
32 1:1 3:0.0430622 4:1 5:1 7:1 9:1 11:1 14:1 18:1 19:1 23:1 215:1 252:1 253:1 255:1 257:1 261:1 264:1 
0.03375733542552295 2:1 3:0.0382775 4:1 6:1 8:1 9:1 12:1 13:1 15:1 18:1 19:1 23:1 215:1 252:1 254:1 255:1 258:1 261:1 264:1 
0.06634340969430159 1:1 3:0.30622 4:1 5:1 8:1 9:1 12:1 13:0.707107 14:1 18:1 19:1 23:1 102:1 252:1 253:1 256:1 258:1 261:1 264:1 
0.3812739810230512 1:1 3:0.454545 4:1 5:1 8:1 9:1 12:1 13:0.707107 14:1 18:1 19:1 23:1 117:1 252:1 253:1 256:1 258:1 261:1 264:1 
0.3753863954540557 1:1 3:0.301435 4:1 5:1 8:1 9:1 12:1 13:0.707107 14:1 18:1 19:1 23:1 102:1 250:1 253:1 256:1 258:1 261:1 264:1 
0.4058638403529338 1:1 3:0.339713 4:1 6:1 8:1 10:1 12:1 13:1 15:1 18:1 19:1 23:1 102:1 250:1 254:1 255:1 258:1 260:1 264:1 
1.740496074962201 1:1 3:0.334928 4:1 6:1 7:1 9:1 12:1 13:0.5 14:1 18:1 19:1 23:1 102:1 252:1 253:1 255:1 257:1 261:1 264:1 
0.2218890572799646 1:1 3:0.320574 4:0.875 6:1 7:1 9:1 12:1 13:0.5 14:1 18:1 19:1 23:1 102:1 252:1 253:1 256:1 258:1 261:1 264:1 
8.063359191626521 1:1 3:0.133971 4:0.625 5:1 8:1 9:1 12:1 13:0.707107 15:1 18:1 19:1 23:1 120:1 252:1 254:1 255:1 258:1 261:1 264:1 
0.6604023936637374 1:1 3:0.00956938 4:0.5 6:1 7:1 9:1 12:1 13:0.816497 14:1 18:1 19:1 23:1 105:1 250:1 253:1 255:1 257:1 261:1 264:1 
0.01031082216150094 1:1 3:0.0191388 4:1 5:1 8:1 9:1 12:1 13:0.707107 14:1 18:1 19:1 23:1 105:1 252:1 253:1 256:1 258:1 261:1 264:1 
8.458807777939903 1:1 3:0.0287081 4:0.625 5:1 8:1 9:1 12:1 13:0.5 14:1 18:1 19:1 23:1 105:1 252:1 253:1 255:1 257:1 261:1 264:1 
0.5208985653009631 1:1 3:0.0382775 4:1 5:1 8:1 9:1 12:1 13:0.707107 14:1 18:1 19:1 23:1 105:1 250:1 253:1 256:1 258:1 261:1 264:1 
7.650063467424025 1:1 3:0.119617 4:0.875 5:1 8:1 9:1 12:1 13:0.5 14:1 18:1 19:1 23:1 120:1 252:1 253:1 255:1 257:1 261:1 264:1 
0.1031562923062303 1:1 3:0.00956938 4:0.875 6:1 7:1 9:1 12:1 13:0.353553 14:1 18:1 19:1 23:1 105:1 252:1 253:1 255:1 257:1 259:1 264:1 
32 1:1 3:0.119617 4:0.875 5:1 8:1 9:1 12:1 13:0.5 14:1 18:1 19:1 23:1 120:1 252:1 253:1 255:1 257:1 261:1 264:1 
0.1757013190102365 1:1 3:0.110048 4:1 5:1 8:1 9:1 12:1 13:0.707107 14:1 18:1 19:1 23:1 120:1 252:1 253:1 256:1 258:1 261:1 264:1 
0.1429748463509939 1:1 3:0.00956938 4:0.5 6:1 8:1 10:1 12:1 13:1 15:1 18:1 19:1 23:1 121:1 250:1 254:1 255:1 258:1 261:1 264:1 
1.929445429255598 1:1 3:0.110048 4:1 5:1 8:1 9:1 12:1 13:0.707107 14:1 18:1 19:1 23:1 226:1 252:1 253:1 255:1 257:1 261:1 264:1 
0.8724860666287597 2:1 3:0.263158 4:1 6:1 8:1 9:1 12:1 13:1 15:1 18:1 20:1 23:1 117:1 252:1 253:1 255:1 257:1 261:1 264:1 
31.90271109436062 1:1 3:0.0861244 4:1 6:1 8:1 9:1 12:1 13:1 15:1 18:1 19:1 23:1 118:1 252:1 253:1 255:1 257:1 261:1 264:1 
32 1:1 3:0.133971 4:1 5:1 7:1 9:1 12:1 13:0.288675 14:1 18:1 19:1 23:1 121:1 252:1 253:1 255:1 257:1 260:1 264:1 
32 1:1 3:0.148325 4:1 5:1 7:1 9:1 11:1 14:1 18:1 19:1 23:1 121:1 250:1 253:1 255:1 257:1 261:1 264:1 
0.8398971725409541 1:1 3:0.0574163 4:0.75 5:1 7:1 9:1 12:1 13:0.204124 14:1 18:1 19:1 23:1 196:1 252:1 253:1 255:1 257:1 261:1 264:1 
32 1:1 3:0.00478469 4:0.75 5:1 7:1 9:1 12:1 13:0.408248 14:1 18:1 19:1 23:1 121:1 252:1 253:1 255:1 257:1 261:1 264:1 
25.09437298627068 1:1 3:0.258373 4:0.5 6:1 7:1 9:1 12:1 13:0.707107 14:1 18:1 19:1 23:1 117:1 252:1 253:1 255:1 257:1 261:1 264:1 
0.07876212757498223 1:1 3:0.373206 4:1 5:1 8:1 9:1 12:1 13:0.707107 14:1 18:1 19:1 23:1 42:1 252:1 253:1 256:1 258:1 261:1 264:1 
31.63973236326054 1:1 3:0.258373 4:0.5 6:1 7:1 9:1 12:1 13:0.707107 14:1 18:1 19:1 23:1 117:1 252:1 253:1 255:1 257:1 261:1 264:1 
1.744185340022919 1:1 3:0.349282 4:0.875 6:1 7:1 9:1 12:1 13:0.353553 14:1 18:1 19:1 23:1 42:1 252:1 253:1 255:1 257:1 259:1 264:1 
0.4185218538233059 1:1 4:0.375 6:1 7:1 9:1 12:1 13:0.666667 15:1 18:1 19:1 23:1 121:1 250:1 254:1 255:1 258:1 261:1 264:1 
0.3462254757463808 1:1 3:0.0909091 4:0.875 6:1 7:1 9:1 12:1 13:0.5 14:1 18:1 19:1 23:1 46:1 252:1 253:1 256:1 258:1 261:1 264:1 
32 1:1 4:1 5:1 7:1 9:1 11:1 14:1 18:1 19:1 23:1 105:1 252:1 253:1 255:1 257:1 261:1 264:1 
32 1:1 4:1 5:1 7:1 9:1 11:1 14:1 18:1 19:1 23:1 105:1 252:1 253:1 255:1 257:1 261:1 264:1 
0.6086726410001272 1:1 3:0.114833 4:0.25 6:1 7:1 10:1 12:1 13:0.5 14:1 18:1 19:1 23:1 120:1 252:1 253:1 256:1 257:1 261:1 264:1 
32 1:1 3:0.114833 4:0.25 5:1 7:1 9:1 11:1 14:1 18:1 19:1 23:1 120:1 252:1 253:1 255:1 257:1 261:1 264:1 
32 1:1 3:0.119617 4:0.625 6:1 7:1 9:1 12:1 13:0.5 14:1 18:1 19:1 23:1 120:1 252:1 253:1 256:1 257:1 261:1 264:1 
32 1:1 3:0.119617 4:0.625 5:1 7:1 9:1 11:1 14:1 18:1 19:1 23:1 120:1 252:1 253:1 255:1 257:1 261:1 264:1 
32 1:1 3:0.114833 4:0.25 5:1 7:1 9:1 11:1 14:1 18:1 19:1 23:1 120:1 252:1 253:1 255:1 257:1 261:1 264:1 
32 1:1 3:0.119617 4:0.625 5:1 7:1 9:1 11:1 14:1 18:1 19:1 23:1 120:1 252:1 253:1 255:1 257:1 261:1 264:1 
5.637637037983909 1:1 3:0.0717703 4:0.25 5:1 7:1 9:1 12:1 13:0.235702 14:1 18:1 19:1 23:1 120:1 252:1 253:1 255:1 257:1 260:1 264:1 
32 1:1 3:0.0143541 4:1 5:1 7:1 9:1 12:1 13:0.353553 14:1 18:1 19:1 23:1 121:1 252:1 253:1 255:1 257:1 261:1 264:1 
13.75602685173052 1:1 3:0.181818 4:0.25 5:1 7:1 9:1 12:1 13:0.408248 14:1 18:1 19:1 23:1 116:1 252:1 253:1 255:1 257:1 261:1 264:1 
15.80082805218727 1:1 3:0.138756 4:1 5:1 8:1 9:1 12:1 13:0.707107 14:1 18:1 19:1 23:1 121:1 252:1 253:1 255:1 257:1 261:1 264:1 
22.50314182332005 1:1 3:0.143541 4:0.625 6:1 7:1 9:1 12:1 13:0.5 14:1 18:1 19:1 23:1 121:1 252:1 253:1 255:1 257:1 261:1 264:1 
0.405890287351261 2:1 3:0.00478469 4:0.5 6:1 8:1 10:1 12:1 13:1 15:1 18:1 20:1 23:1 57:1 252:1 254:1 255:1 258:1 261:1 264:1 
0.3192007505147318 1:1 3:0.00478469 4:1 5:1 8:1 9:1 12:1 13:1 15:1 18:1 19:1 23:1 57:1 252:1 254:1 255:1 258:1 261:1 264:1 
10.19127299585341 1:1 3:0.129187 4:1 5:1 7:1 9:1 12:1 13:1 14:1 18:1 19:1 23:1 119:1 252:1 253:1 255:1 257:1 260:1 264:1 
1.62429147560263 1:1 3:0.129187 4:1 5:1 8:1 9:1 12:1 13:0.707107 14:1 18:1 19:1 23:1 119:1 252:1 253:1 255:1 257:1 261:1 264:1 
32 1:1 3:0.0956938 4:1 5:1 7:1 9:1 12:1 13:0.5 14:1 18:1 19:1 23:1 119:1 252:1 253:1 255:1 257:1 260:1 264:1 
32 1:1 3:0.100478 4:1 5:1 7:1 9:1 11:1 14:1 18:1 19:1 23:1 119:1 252:1 253:1 255:1 257:1 261:1 264:1 
32 1:1 3:0.00478469 4:1 5:1 8:1 9:1 12:1 13:0.707107 14:1 18:1 19:1 23:1 121:1 252:1 253:1 255:1 257:1 261:1 264:1 
18.0326580763277 1:1 3:0.00478469 4:1 5:1 8:1 9:1 12:1 13:0.707107 14:1 18:1 19:1 23:1 121:1 252:1 253:1 255:1 257:1 261:1 264:1 
32 1:1 3:0.114833 4:0.875 5:1 7:1 9:1 11:1 14:1 18:1 19:1 23:1 42:1 252:1 253:1 255:1 257:1 261:1 264:1 
1.060975452954239 2:1 3:0.114833 4:0.875 6:1 7:1 9:1 12:1 13:0.866025 15:1 18:1 19:1 23:1 42:1 252:1 253:1 255:1 257:1 261:1 264:1 
32 1:1 3:0.119617 4:0.875 5:1 7:1 9:1 11:1 14:1 18:1 19:1 23:1 42:1 252:1 253:1 255:1 257:1 261:1 264:1 
2.990974481233375 1:1 4:1 5:1 7:1 9:1 11:1 14:1 18:1 19:1 23:1 41:1 252:1 253:1 255:1 257:1 261:1 264:1 
0.06498683481214243 1:1 3:0.00478469 4:1 6:1 8:1 10:1 12:1 13:1 15:1 18:1 19:1 23:1 41:1 252:1 254:1 255:1 258:1 261:1 264:1 
0.02819442454649509 2:1 3:0.210526 4:0.25 5:1 8:1 9:1 12:1 13:0.707107 15:1 18:1 19:1 23:1 119:1 252:1 254:1 256:1 258:1 261:1 264:1 
1.11331162969826 1:1 3:0.133971 4:0.25 6:1 7:1 9:1 12:1 13:0.4 14:1 18:1 19:1 23:1 119:1 252:1 253:1 255:1 257:1 261:1 264:1 
0.618805123732021 1:1 3:0.229665 4:0.625 6:1 7:1 9:1 12:1 13:0.4 14:1 18:1 19:1 23:1 209:1 252:1 253:1 255:1 257:1 261:1 264:1 
0.4919297114182358 2:1 3:0.0956938 4:0.375 6:1 7:1 9:1 12:1 13:0.8 15:1 18:1 19:1 23:1 211:1 252:1 253:1 255:1 257:1 261:1 264:1 
32 1:1 4:1 5:1 7:1 9:1 11:1 14:1 18:1 19:1 23:1 217:1 252:1 253:1 255:1 257:1 261:1 264:1 
1.309266270794036 1:1 4:1 5:1 8:1 9:1 12:1 13:0.816497 14:1 18:1 20:1 23:1 217:1 252:1 253:1 255:1 257:1 261:1 264:1 
2.135209731121702 1:1 4:1 6:1 7:1 9:1 12:1 13:0.408248 14:1 18:1 19:1 23:1 217:1 252:1 253:1 255:1 257:1 261:1 264:1 
0.04824299968825717 1:1 3:0.162679 4:0.25 6:1 8:1 9:1 12:1 13:0.816497 15:1 18:1 19:1 23:1 116:1 252:1 254:1 255:1 258:1 260:1 264:1 
1.034077906695843 1:1 3:0.162679 4:1 5:1 7:1 9:1 12:1 13:0.8 14:1 17:1 19:1 23:1 116:1 252:1 253:1 255:1 257:1 260:1 264:1 
32 1:1 3:0.373206 4:1 5:1 7:1 9:1 11:1 14:1 18:1 19:1 23:1 119:1 252:1 253:1 255:1 257:1 261:1 264:1 
1.038075568415412 1:1 3:0.0717703 4:1 5:1 8:1 9:1 12:1 13:0.57735 14:1 18:1 19:1 23:1 89:1 252:1 253:1 255:1 257:1 261:1 264:1 
32 1:1 3:0.191388 4:1 5:1 7:1 9:1 12:1 13:0.408248 14:1 17:1 19:1 23:1 89:1 252:1 253:1 255:1 257:1 259:1 264:1 
32 1:1 3:0.062201 4:1 5:1 7:1 9:1 11:1 14:1 18:1 19:1 23:1 89:1 252:1 253:1 255:1 257:1 259:1 264:1 
32 1:1 3:0.186603 4:1 5:1 7:1 9:1 11:1 14:1 18:1 19:1 23:1 89:1 252:1 253:1 255:1 257:1 261:1 264:1 
23.98648422594049 1:1 3:0.200957 4:0.625 6:1 7:1 9:1 12:1 13:0.408248 14:1 18:1 19:1 22:1 89:1 250:1 253:1 255:1 257:1 261:1 264:1 
0.719321226229498 1:1 3:0.200957 4:0.5 6:1 8:1 10:1 12:1 13:1 15:1 18:1 19:1 22:1 89:1 250:1 253:1 255:1 257:1 261:1 264:1 
0.008927299887988904 1:1 3:0.0669856 4:1 6:1 8:1 10:1 12:1 13:1 15:1 18:1 19:1 23:1 24:1 252:1 254:1 255:1 258:1 261:1 264:1 
0.1472051185437237 1:1 3:0.0287081 4:0.5 6:1 7:1 9:1 12:1 13:0.666667 15:1 18:1 19:1 23:1 120:1 252:1 254:1 255:1 258:1 260:1 264:1 
0.09315229130580396 1:1 3:0.0287081 4:1 6:1 8:1 10:1 12:1 13:1 15:1 18:1 19:1 23:1 72:1 252:1 253:1 255:1 257:1 260:1 264:1 
2.560491813979691 1:1 3:0.440191 4:1 5:1 7:1 9:1 12:1 13:0.632456 14:1 18:1 19:1 23:1 94:1 252:1 253:1 255:1 257:1 261:1 264:1 
0.372923852238483 1:1 3:0.488038 4:0.25 6:1 7:1 9:1 12:1 13:0.516398 14:1 18:1 19:1 23:1 124:1 252:1 253:1 255:1 257:1 261:1 264:1 
32 1:1 3:0.0478469 4:0.25 5:1 7:1 9:1 12:1 13:0.408248 14:1 18:1 19:1 23:1 119:1 252:1 253:1 255:1 257:1 261:1 264:1 
0.2601124726941186 2:1 3:0.559809 4:1 5:1 8:1 9:1 12:1 13:1 15:1 18:1 19:1 23:1 124:1 252:1 254:1 255:1 258:1 260:1 264:1 
0.5482952123337954 1:1 3:0.449761 4:1 5:1 8:1 9:1 12:1 13:1 15:1 18:1 19:1 23:1 118:1 252:1 254:1 255:1 258:1 261:1 264:1 
32 1:1 3:0.0478469 4:0.25 5:1 7:1 9:1 12:1 13:0.408248 14:1 18:1 19:1 23:1 119:1 252:1 253:1 255:1 257:1 261:1 264:1 
0.09863109190268256 1:1 3:0.0191388 4:1 6:1 8:1 10:1 12:1 13:1 15:1 18:1 19:1 23:1 24:1 252:1 254:1 255:1 258:1 260:1 264:1 
0.5254869560963513 1:1 3:0.105263 4:1 6:1 8:1 10:1 12:1 13:1 15:1 17:1 19:1 23:1 24:1 252:1 253:1 255:1 257:1 260:1 263:1 
10.60188108764948 1:1 3:0.157895 4:0.25 5:1 7:1 9:1 12:1 13:0.223607 14:1 18:1 19:1 23:1 24:1 252:1 253:1 255:1 257:1 261:1 264:1 
32 1:1 3:0.167464 4:0.625 5:1 7:1 9:1 12:1 13:0.258199 14:1 18:1 19:1 23:1 24:1 252:1 253:1 255:1 257:1 261:1 264:1 
6.868830121225854 1:1 3:0.0143541 5:1 7:1 9:1 12:1 13:0.204124 14:1 18:1 19:1 23:1 24:1 252:1 253:1 255:1 257:1 261:1 264:1 
0.0819599507160693 1:1 3:0.0239234 4:0.375 5:1 7:1 9:1 12:1 13:0.235702 14:1 18:1 19:1 23:1 24:1 252:1 253:1 255:1 257:1 261:1 264:1 
19.37728879253823 1:1 3:0.334928 4:1 6:1 7:1 9:1 12:1 13:0.258199 14:1 18:1 19:1 23:1 116:1 252:1 253:1 255:1 257:1 261:1 264:1 
32 1:1 3:0.00478469 4:0.75 6:1 7:1 9:1 12:1 13:0.471405 14:1 18:1 19:1 23:1 121:1 252:1 253:1 255:1 257:1 261:1 264:1 
32 1:1 3:0.349282 4:0.625 5:1 7:1 9:1 11:1 14:1 18:1 19:1 23:1 116:1 252:1 253:1 255:1 257:1 261:1 264:1 
32 1:1 3:0.0191388 4:0.375 5:1 7:1 9:1 11:1 14:1 18:1 19:1 23:1 121:1 252:1 253:1 255:1 257:1 261:1 264:1 
32 1:1 3:0.0143541 4:0.625 5:1 7:1 9:1 11:1 14:1 18:1 19:1 23:1 121:1 252:1 253:1 255:1 257:1 261:1 264:1 
32 1:1 3:0.00478469 4:0.5 5:1 7:1 9:1 12:1 13:0.353553 14:1 18:1 19:1 23:1 121:1 252:1 253:1 255:1 257:1 261:1 264:1 
32 1:1 3:0.0287081 4:0.375 6:1 7:1 9:1 12:1 13:0.288675 14:1 18:1 19:1 23:1 121:1 252:1 253:1 255:1 257:1 261:1 264:1 
4.148226452512433 1:1 3:0.0239234 4:0.625 6:1 7:1 9:1 12:1 13:0.408248 14:1 18:1 19:1 23:1 121:1 252:1 253:1 255:1 257:1 261:1 264:1 
32 1:1 3:0.00956938 4:0.5 5:1 7:1 9:1 12:1 13:0.5 14:1 18:1 19:1 23:1 121:1 252:1 253:1 255:1 257:1 261:1 264:1 
32 1:1 3:0.00478469 4:0.75 6:1 7:1 9:1 12:1 13:0.471405 14:1 18:1 19:1 23:1 121:1 252:1 253:1 255:1 257:1 261:1 264:1 
32 1:1 3:0.0191388 4:0.375 5:1 7:1 9:1 11:1 14:1 18:1 19:1 23:1 121:1 252:1 253:1 255:1 257:1 261:1 264:1 
32 1:1 3:0.0143541 4:0.625 5:1 7:1 9:1 11:1 14:1 18:1 19:1 23:1 121:1 252:1 253:1 255:1 257:1 261:1 264:1 
32 1:1 3:0.00478469 4:0.5 5:1 7:1 9:1 12:1 13:0.353553 14:1 18:1 19:1 23:1 121:1 252:1 253:1 255:1 257:1 261:1 264:1 
32 1:1 3:0.0287081 4:0.375 6:1 7:1 9:1 12:1 13:0.288675 14:1 18:1 19:1 23:1 121:1 252:1 253:1 255:1 257:1 261:1 264:1 
32 1:1 3:0.0239234 4:0.625 6:1 7:1 9:1 12:1 13:0.408248 14:1 18:1 19:1 23:1 121:1 252:1 253:1 255:1 257:1 261:1 264:1 
32 1:1 3:0.00956938 4:0.5 5:1 7:1 9:1 12:1 13:0.5 14:1 18:1 19:1 23:1 121:1 252:1 253:1 255:1 257:1 261:1 264:1 
32 1:1 3:0.0143541 4:0.625 5:1 7:1 9:1 11:1 14:1 18:1 19:1 23:1 121:1 252:1 253:1 255:1 257:1 261:1 264:1 
32 1:1 3:0.00478469 4:0.5 5:1 7:1 9:1 12:1 13:0.353553 14:1 18:1 19:1 23:1 121:1 252:1 253:1 255:1 257:1 261:1 264:1 
32 1:1 3:0.0239234 4:0.625 6:1 7:1 9:1 12:1 13:0.408248 14:1 18:1 19:1 23:1 121:1 252:1 253:1 255:1 257:1 261:1 264:1 
32 1:1 3:0.00956938 4:0.5 5:1 7:1 9:1 12:1 13:0.5 14:1 18:1 19:1 23:1 121:1 252:1 253:1 255:1 257:1 261:1 264:1 
32 1:1 3:0.00478469 4:0.5 5:1 7:1 9:1 12:1 13:0.353553 14:1 18:1 19:1 23:1 121:1 252:1 253:1 255:1 257:1 261:1 264:1 
32 1:1 3:0.00956938 4:0.5 5:1 7:1 9:1 12:1 13:0.5 14:1 18:1 19:1 23:1 121:1 252:1 253:1 255:1 257:1 261:1 264:1 
32 1:1 3:0.00956938 4:0.5 5:1 7:1 9:1 12:1 13:0.5 14:1 18:1 19:1 23:1 121:1 252:1 253:1 255:1 257:1 261:1 264:1 
1.66229973293817 1:1 3:0.00956938 4:1 6:1 7:1 10:1 12:1 13:0.5 14:1 18:1 19:1 23:1 121:1 252:1 253:1 255:1 257:1 261:1 264:1 
0.1622435175337806 2:1 3:0.220096 4:0.875 6:1 8:1 9:1 12:1 13:0.816497 15:1 18:1 19:1 23:1 211:1 252:1 254:1 255:1 258:1 260:1 264:1 
32 1:1 3:0.00478469 4:0.625 5:1 7:1 9:1 11:1 14:1 18:1 19:1 23:1 121:1 252:1 253:1 255:1 257:1 261:1 264:1 
0.04303836994379311 1:1 3:0.0956938 4:1 6:1 8:1 10:1 12:1 13:1 15:1 18:1 20:1 23:1 211:1 252:1 253:1 255:1 257:1 261:1 264:1 
0.253008289034073 1:1 3:0.133971 4:1 6:1 8:1 10:1 12:1 13:1 15:1 18:1 20:1 23:1 181:1 252:1 253:1 255:1 257:1 261:1 264:1 
0.4885903299342012 1:1 3:0.0382775 4:1 6:1 8:1 10:1 12:1 13:1 15:1 18:1 20:1 23:1 187:1 252:1 253:1 255:1 257:1 261:1 264:1 
0.1117391782003125 1:1 4:0.25 6:1 8:1 9:1 12:1 13:0.866025 15:1 18:1 19:1 23:1 185:1 252:1 254:1 255:1 258:1 260:1 264:1 
0.2574568462597483 2:1 3:0.23445 4:0.5 6:1 8:1 10:1 12:1 13:1 15:1 18:1 19:1 23:1 110:1 252:1 254:1 256:1 258:1 261:1 264:1 
0.1882697484671979 2:1 3:0.358852 4:0.875 5:1 8:1 9:1 12:1 13:0.707107 15:1 18:1 19:1 23:1 125:1 252:1 254:1 256:1 258:1 261:1 264:1 
0.1745645515248076 1:1 3:0.00956938 4:1 6:1 8:1 10:1 12:1 13:1 15:1 18:1 19:1 23:1 185:1 252:1 253:1 255:1 257:1 260:1 264:1 
0.005171371691668611 1:1 3:0.23445 4:1 6:1 8:1 9:1 12:1 13:0.816497 14:1 18:1 19:1 23:1 125:1 252:1 253:1 255:1 257:1 260:1 264:1 
0.1731639474776055 1:1 3:0.129187 4:0.75 6:1 8:1 9:1 12:1 13:0.816497 15:1 18:1 19:1 23:1 120:1 252:1 254:1 255:1 258:1 260:1 264:1 
0.03833212681869629 2:1 3:0.124402 4:0.875 5:1 8:1 9:1 12:1 13:0.707107 15:1 18:1 19:1 23:1 120:1 252:1 254:1 256:1 258:1 261:1 264:1 
0.4128584897872165 2:1 4:1 5:1 8:1 9:1 12:1 13:1 15:1 18:1 19:1 23:1 121:1 250:1 254:1 256:1 258:1 261:1 264:1 
0.07978334469515166 1:1 3:0.416268 4:1 6:1 8:1 10:1 12:1 13:1 15:1 18:1 19:1 23:1 101:1 252:1 253:1 255:1 257:1 260:1 264:1 
0.03142804084590779 1:1 3:0.488038 4:1 6:1 8:1 10:1 12:1 13:1 15:1 18:1 19:1 23:1 116:1 252:1 253:1 255:1 257:1 260:1 264:1 
0.03741574452414342 1:1 3:0.449761 4:1 6:1 8:1 10:1 12:1 13:1 15:1 18:1 19:1 23:1 101:1 252:1 254:1 255:1 258:1 261:1 264:1 
0.05382346800929201 1:1 3:0.0717703 4:1 6:1 8:1 10:1 12:1 13:1 15:1 18:1 19:1 23:1 120:1 252:1 253:1 255:1 257:1 260:1 264:1 
0.7804791451296704 2:1 3:0.0287081 4:1 5:1 8:1 9:1 12:1 13:1 15:1 18:1 19:1 23:1 120:1 252:1 254:1 255:1 258:1 261:1 264:1 
0.1445305872505294 2:1 3:0.15311 4:0.375 6:1 7:1 9:1 12:1 13:0.666667 15:1 18:1 19:1 23:1 117:1 252:1 254:1 255:1 258:1 261:1 264:1 
0.02756345497233145 1:1 3:0.291866 4:1 6:1 8:1 10:1 12:1 13:1 15:1 18:1 19:1 23:1 117:1 252:1 254:1 255:1 258:1 260:1 264:1 
0.4533871390460357 1:1 3:0.157895 4:1 6:1 7:1 9:1 12:1 13:0.730297 14:1 18:1 19:1 23:1 116:1 252:1 253:1 255:1 257:1 259:1 262:1 
1.975524578100463 1:1 3:0.105263 4:1 5:1 7:1 9:1 12:1 13:0.408248 14:1 18:1 19:1 23:1 87:1 250:1 253:1 255:1 257:1 261:1 264:1 
32 1:1 3:0.0334928 4:1 5:1 7:1 9:1 12:1 13:0.5 14:1 18:1 19:1 23:1 121:1 252:1 253:1 255:1 257:1 261:1 264:1 
32 1:1 3:0.0191388 4:0.625 5:1 7:1 9:1 11:1 14:1 18:1 19:1 23:1 121:1 252:1 253:1 255:1 257:1 261:1 264:1 
32 1:1 3:0.00478469 4:0.75 5:1 7:1 9:1 11:1 14:1 18:1 19:1 23:1 121:1 252:1 253:1 255:1 257:1 261:1 264:1 
0.4291022536097898 1:1 3:0.0239234 4:0.625 5:1 8:1 9:1 12:1 13:0.57735 14:1 18:1 19:1 23:1 121:1 252:1 253:1 256:1 257:1 261:1 264:1 
0.4481876513379481 1:1 3:0.105263 4:0.25 5:1 7:1 9:1 12:1 13:0.676123 14:1 17:1 19:1 23:1 24:1 252:1 253:1 255:1 257:1 261:1 264:1 
32 1:1 3:0.110048 4:0.625 5:1 7:1 9:1 11:1 14:1 18:1 19:1 23:1 24:1 252:1 253:1 255:1 257:1 261:1 264:1 
12.74348124246409 1:1 3:0.00478469 4:0.375 5:1 7:1 9:1 11:1 14:1 18:1 19:1 23:1 24:1 252:1 253:1 255:1 257:1 259:1 264:1 
1.401109816144832 1:1 3:0.0382775 4:0.5 5:1 7:1 9:1 12:1 13:0.5 14:1 18:1 19:1 23:1 24:1 252:1 253:1 255:1 257:1 261:1 264:1 
1.884823443671472 1:1 3:0.00478469 4:0.375 6:1 7:1 9:1 12:1 13:0.408248 14:1 18:1 19:1 23:1 121:1 252:1 253:1 256:1 258:1 261:1 264:1 
0.6051587577424095 1:1 3:0.196172 5:1 7:1 9:1 12:1 13:0.288675 14:1 18:1 19:1 23:1 181:1 252:1 253:1 255:1 257:1 261:1 264:1 
30.81832399046813 1:1 3:0.191388 4:0.125 5:1 7:1 9:1 11:1 14:1 18:1 19:1 23:1 181:1 252:1 253:1 255:1 257:1 261:1 264:1 
32 1:1 3:0.191388 4:0.125 5:1 7:1 9:1 11:1 14:1 18:1 19:1 23:1 181:1 252:1 253:1 255:1 257:1 261:1 264:1 
32 1:1 3:0.00956938 4:1 5:1 7:1 9:1 12:1 13:0.316228 14:1 18:1 19:1 23:1 89:1 252:1 253:1 255:1 257:1 261:1 264:1 
15.78555249839478 1:1 3:0.0717703 4:1 6:1 7:1 9:1 12:1 13:0.632456 14:1 18:1 19:1 23:1 116:1 252:1 253:1 255:1 257:1 261:1 264:1 
32 1:1 3:0.0574163 4:1 5:1 7:1 9:1 11:1 14:1 18:1 19:1 23:1 121:1 252:1 253:1 255:1 257:1 261:1 264:1 
32 1:1 3:0.00478469 4:0.375 6:1 7:1 9:1 12:1 13:0.353553 14:1 18:1 19:1 23:1 57:1 252:1 253:1 255:1 257:1 261:1 264:1 
0.562430273792463 1:1 3:0.181818 4:1 6:1 8:1 10:1 12:1 13:1 15:1 17:1 19:1 23:1 116:1 252:1 254:1 255:1 258:1 260:1 263:1 
0.7030871577320672 1:1 3:0.239234 4:0.25 5:1 7:1 9:1 12:1 13:0.353553 14:1 18:1 19:1 22:1 116:1 252:1 253:1 255:1 257:1 260:1 263:1 
0.6108877159106803 1:1 3:0.244019 4:1 5:1 7:1 10:1 12:1 13:0.5 14:1 18:1 19:1 23:1 116:1 252:1 254:1 255:1 258:1 260:1 263:1 
0.2257509319125685 2:1 3:0.15311 4:0.5 6:1 8:1 10:1 12:1 13:1 15:1 18:1 19:1 23:1 102:1 252:1 254:1 256:1 258:1 261:1 264:1 
0.5626594157775692 1:1 3:0.00478469 4:0.75 6:1 8:1 9:1 12:1 13:0.707107 14:1 18:1 19:1 23:1 121:1 252:1 253:1 255:1 257:1 260:1 263:1 
0.5022717765075145 2:1 3:0.0669856 4:1 6:1 8:1 9:1 12:1 13:1 15:1 18:1 20:1 22:1 89:1 252:1 253:1 255:1 257:1 261:1 264:1 
0.4300480502222324 1:1 3:0.0669856 4:1 6:1 8:1 9:1 12:1 13:1 15:1 18:1 20:1 22:1 89:1 252:1 254:1 256:1 258:1 261:1 264:1 
0.2947930316401813 1:1 3:0.0669856 4:1 5:1 8:1 9:1 12:1 13:1 15:1 18:1 20:1 22:1 89:1 252:1 254:1 255:1 258:1 261:1 264:1 
0.1187563008095351 1:1 3:0.0669856 4:1 6:1 8:1 9:1 12:1 13:1 15:1 18:1 20:1 22:1 89:1 252:1 253:1 255:1 257:1 261:1 264:1 
0.1395427933769334 1:1 3:0.0669856 4:1 6:1 8:1 10:1 12:1 13:1 15:1 18:1 20:1 22:1 89:1 252:1 253:1 255:1 257:1 261:1 264:1 
0.1851669494203499 1:1 3:0.062201 4:1 5:1 8:1 9:1 12:1 13:1 15:1 18:1 20:1 22:1 89:1 252:1 253:1 255:1 257:1 261:1 264:1 
0.2334035599804598 2:1 3:0.062201 4:1 6:1 8:1 9:1 12:1 13:1 15:1 18:1 20:1 22:1 89:1 252:1 254:1 255:1 258:1 261:1 264:1 
0.1896156091077087 2:1 3:0.062201 4:1 5:1 8:1 9:1 12:1 13:1 15:1 18:1 20:1 22:1 89:1 252:1 254:1 255:1 258:1 261:1 264:1 
0.09872397781541514 1:1 3:0.062201 4:1 6:1 8:1 9:1 12:1 13:1 15:1 18:1 20:1 22:1 89:1 252:1 254:1 255:1 258:1 261:1 264:1 
0.3449753706635034 1:1 3:0.062201 4:1 5:1 8:1 9:1 12:1 13:1 15:1 18:1 19:1 22:1 89:1 252:1 253:1 255:1 257:1 261:1 264:1 
32 1:1 3:0.0956938 4:1 5:1 7:1 9:1 12:1 13:0.5 14:1 18:1 19:1 23:1 119:1 252:1 253:1 255:1 257:1 261:1 264:1 
0.1254062081502013 2:1 3:0.0526316 4:1 5:1 8:1 9:1 12:1 13:1 15:1 18:1 19:1 23:1 119:1 252:1 254:1 256:1 258:1 261:1 264:1 
0.2056808820397152 1:1 3:0.0191388 4:0.25 5:1 8:1 9:1 12:1 13:0.632456 14:1 18:1 19:1 23:1 121:1 252:1 253:1 255:1 257:1 261:1 264:1 
0.6064884494313907 1:1 3:0.358852 4:1 5:1 8:1 9:1 12:1 13:1 15:1 18:1 19:1 23:1 117:1 252:1 253:1 255:1 257:1 261:1 264:1 
0.2645548181615291 1:1 3:0.181818 4:0.375 5:1 7:1 9:1 12:1 13:0.745356 15:1 18:1 19:1 23:1 117:1 252:1 253:1 255:1 257:1 261:1 264:1 
32 1:1 3:0.0956938 4:0.5 6:1 7:1 9:1 12:1 13:0.353553 14:1 18:1 19:1 23:1 120:1 252:1 253:1 255:1 257:1 261:1 264:1 
0.06614443017660096 1:1 3:0.0574163 4:0.75 6:1 8:1 9:1 12:1 13:0.866025 15:1 18:1 19:1 23:1 226:1 252:1 253:1 255:1 257:1 260:1 264:1 
32 1:1 3:0.119617 4:0.625 5:1 7:1 9:1 11:1 14:1 18:1 19:1 23:1 121:1 252:1 253:1 255:1 257:1 261:1 264:1 
0.08552140928207104 2:1 3:0.0382775 4:0.625 6:1 8:1 9:1 12:1 13:0.816497 15:1 18:1 19:1 23:1 121:1 252:1 254:1 255:1 258:1 260:1 264:1 
0.6264022522672139 1:1 3:0.210526 4:0.75 6:1 8:1 9:1 12:1 13:0.707107 14:1 18:1 19:1 23:1 102:1 252:1 253:1 255:1 257:1 261:1 264:1 
0.40045710328067 1:1 3:0.062201 4:1 5:1 8:1 9:1 12:1 13:1 15:1 18:1 19:1 23:1 119:1 252:1 254:1 255:1 258:1 261:1 264:1 
0.2143595658934812 2:1 3:0.0669856 4:0.5 6:1 8:1 10:1 12:1 13:1 15:1 18:1 19:1 23:1 119:1 252:1 254:1 256:1 258:1 261:1 264:1 
0.3568255485981157 2:1 3:0.253589 6:1 8:1 9:1 12:1 13:0.707107 15:1 18:1 19:1 23:1 102:1 250:1 254:1 255:1 258:1 261:1 264:1 
0.05820214383481943 1:1 3:0.00478469 4:1 6:1 8:1 10:1 12:1 13:1 15:1 18:1 19:1 23:1 57:1 252:1 254:1 255:1 258:1 260:1 264:1 
32 1:1 4:1 5:1 7:1 9:1 11:1 14:1 18:1 19:1 23:1 89:1 252:1 253:1 255:1 257:1 261:1 264:1 
32 1:1 3:0.0669856 4:0.625 5:1 7:1 9:1 12:1 13:0.333333 14:1 18:1 19:1 23:1 121:1 252:1 253:1 255:1 257:1 261:1 264:1 
2.364591654180483 1:1 3:0.330144 4:0.875 5:1 7:1 9:1 12:1 13:0.333333 14:1 18:1 19:1 23:1 196:1 252:1 253:1 255:1 257:1 261:1 264:1 
0.06041409626092449 1:1 3:0.0239234 4:1 5:1 8:1 9:1 12:1 13:1 15:1 18:1 19:1 23:1 57:1 252:1 254:1 255:1 257:1 261:1 264:1 
32 1:1 3:0.205742 4:0.625 5:1 7:1 9:1 12:1 13:0.316228 14:1 18:1 19:1 23:1 119:1 252:1 253:1 255:1 257:1 261:1 264:1 
0.6403590839833692 2:1 3:0.181818 4:1 5:1 8:1 9:1 12:1 13:1 15:1 18:1 19:1 23:1 120:1 252:1 253:1 255:1 257:1 261:1 264:1 
0.5470607908685813 1:1 3:0.0143541 4:0.625 5:1 7:1 9:1 12:1 13:0.5 14:1 18:1 19:1 23:1 121:1 252:1 254:1 255:1 258:1 261:1 264:1 
32 1:1 3:0.00478469 4:1 6:1 7:1 9:1 12:1 13:0.353553 14:1 18:1 19:1 23:1 121:1 252:1 253:1 255:1 257:1 261:1 264:1 
32 1:1 3:0.0287081 4:0.625 6:1 7:1 9:1 12:1 13:0.353553 14:1 18:1 19:1 23:1 121:1 252:1 253:1 255:1 257:1 261:1 264:1 
0.09836605224192646 2:1 3:0.0239234 4:0.625 6:1 7:1 9:1 12:1 13:0.5 15:1 18:1 19:1 23:1 121:1 252:1 254:1 255:1 258:1 261:1 264:1 
1.893741108214574 1:1 3:0.00478469 4:0.375 5:1 7:1 9:1 12:1 13:0.353553 14:1 18:1 19:1 21:1 57:1 252:1 253:1 255:1 257:1 261:1 264:1 
0.3872533798990577 1:1 3:0.133971 6:1 8:1 10:1 12:1 13:1 15:1 18:1 20:1 23:1 211:1 252:1 253:1 255:1 257:1 261:1 264:1 
0.5490300229629325 1:1 3:0.684211 4:1 5:1 7:1 10:1 12:1 13:0.5 14:1 18:1 19:1 23:1 94:1 252:1 253:1 255:1 257:1 261:1 264:1 
0.2031893708573089 1:1 3:0.933014 4:1 6:1 8:1 10:1 12:1 13:1 15:1 18:1 19:1 23:1 34:1 252:1 254:1 255:1 258:1 261:1 264:1 
0.2183018858323955 1:1 3:0.00478469 4:0.375 6:1 7:1 9:1 12:1 13:0.666667 15:1 18:1 19:1 23:1 89:1 252:1 254:1 255:1 258:1 260:1 264:1 
1.415249377665916 1:1 3:0.248804 4:1 5:1 7:1 10:1 12:1 13:0.5 14:1 18:1 19:1 23:1 29:1 252:1 253:1 255:1 257:1 261:1 264:1 
32 1:1 3:0.076555 4:1 5:1 7:1 9:1 11:1 14:1 18:1 19:1 23:1 116:1 252:1 253:1 255:1 257:1 261:1 264:1 
32 1:1 3:0.0287081 4:1 5:1 7:1 9:1 11:1 14:1 18:1 19:1 23:1 121:1 252:1 253:1 255:1 257:1 261:1 264:1 
0.9942615433978068 1:1 3:0.167464 4:1 5:1 8:1 9:1 11:1 14:1 18:1 19:1 23:1 116:1 252:1 253:1 256:1 258:1 261:1 264:1 
32 1:1 3:0.0909091 4:1 5:1 7:1 9:1 11:1 14:1 18:1 19:1 23:1 121:1 252:1 253:1 255:1 257:1 261:1 264:1 
32 1:1 3:0.0287081 4:1 5:1 7:1 9:1 11:1 14:1 18:1 19:1 23:1 121:1 252:1 253:1 255:1 257:1 261:1 264:1 
32 1:1 3:0.0909091 4:1 5:1 7:1 9:1 11:1 14:1 18:1 19:1 23:1 121:1 252:1 253:1 255:1 257:1 261:1 264:1 
0.4505948177667346 2:1 3:0.00956938 4:0.375 6:1 7:1 9:1 12:1 13:0.5 15:1 18:1 19:1 23:1 120:1 252:1 253:1 255:1 257:1 261:1 264:1 
0.4672149239451268 2:1 3:0.373206 4:0.125 6:1 7:1 9:1 12:1 13:0.612372 15:1 18:1 19:1 23:1 116:1 252:1 253:1 255:1 257:1 261:1 264:1 
12.66442672196277 1:1 3:1 4:0.875 6:1 7:1 9:1 12:1 13:0.353553 14:1 18:1 19:1 23:1 117:1 252:1 253:1 255:1 257:1 261:1 264:1 
2.278144240203971 1:1 3:0.421053 4:0.75 5:1 7:1 9:1 12:1 13:0.316228 14:1 18:1 19:1 23:1 87:1 252:1 253:1 255:1 257:1 261:1 264:1 
32 1:1 3:0.990431 4:0.75 6:1 7:1 9:1 12:1 13:0.316228 14:1 18:1 19:1 23:1 117:1 252:1 253:1 255:1 257:1 261:1 264:1 
32 1:1 3:0.569378 4:1 5:1 7:1 9:1 12:1 13:0.5 14:1 18:1 19:1 23:1 119:1 252:1 253:1 255:1 257:1 261:1 264:1 
0.1160824518753201 1:1 3:0.00478469 4:1 5:1 8:1 9:1 12:1 13:1 15:1 18:1 19:1 23:1 73:1 252:1 253:1 255:1 257:1 261:1 264:1 
0.2470407857182678 2:1 3:0.00956938 4:1 5:1 8:1 9:1 12:1 13:1 15:1 18:1 19:1 22:1 89:1 252:1 254:1 255:1 258:1 261:1 264:1 
32 1:1 3:0.569378 4:1 5:1 7:1 9:1 12:1 13:0.5 14:1 18:1 19:1 23:1 119:1 252:1 253:1 255:1 257:1 261:1 264:1 
32 1:1 3:0.54067 4:1 5:1 7:1 9:1 11:1 14:1 18:1 19:1 23:1 119:1 252:1 253:1 255:1 257:1 261:1 264:1 
32 1:1 3:0.0287081 4:1 5:1 7:1 9:1 11:1 14:1 18:1 19:1 23:1 121:1 252:1 253:1 255:1 257:1 261:1 264:1 
0.2154727739465437 2:1 3:0.277512 4:0.125 6:1 7:1 9:1 12:1 13:0.5 15:1 18:1 19:1 23:1 119:1 252:1 254:1 255:1 258:1 261:1 264:1 
0.3487759224106705 1:1 3:0.0526316 4:0.375 6:1 7:1 9:1 12:1 13:0.75 15:1 17:1 19:1 23:1 121:1 252:1 253:1 255:1 257:1 260:1 264:1 
32 1:1 3:0.00478469 4:1 5:1 7:1 9:1 11:1 14:1 18:1 19:1 23:1 121:1 252:1 253:1 255:1 257:1 261:1 264:1 
0.04180582889452032 1:1 3:0.0430622 4:0.625 6:1 8:1 9:1 12:1 13:0.866025 15:1 17:1 19:1 23:1 121:1 252:1 253:1 255:1 257:1 260:1 264:1 
32 1:1 3:0.0430622 4:0.625 6:1 7:1 9:1 12:1 13:0.408248 14:1 18:1 19:1 23:1 121:1 252:1 253:1 255:1 257:1 261:1 264:1 
32 1:1 3:0.296651 4:0.75 5:1 7:1 9:1 11:1 14:1 18:1 19:1 23:1 102:1 252:1 253:1 255:1 257:1 261:1 264:1 
32 1:1 3:0.0909091 4:0.375 5:1 7:1 9:1 11:1 14:1 18:1 19:1 23:1 105:1 252:1 253:1 255:1 257:1 261:1 264:1 
32 1:1 3:0.0143541 4:0.625 5:1 7:1 9:1 11:1 14:1 18:1 19:1 23:1 121:1 252:1 253:1 255:1 257:1 261:1 264:1 
32 1:1 3:0.00478469 4:0.375 5:1 7:1 9:1 11:1 14:1 18:1 19:1 23:1 121:1 252:1 253:1 255:1 257:1 261:1 264:1 
32 1:1 3:0.00478469 4:0.375 5:1 7:1 9:1 11:1 14:1 18:1 19:1 23:1 121:1 252:1 253:1 255:1 257:1 261:1 264:1 
11.0756187551695 1:1 3:0.076555 4:0.375 6:1 7:1 9:1 12:1 13:0.353553 14:1 18:1 19:1 23:1 121:1 252:1 253:1 255:1 257:1 261:1 264:1 
32 1:1 3:0.0669856 4:0.375 5:1 7:1 9:1 12:1 13:0.333333 14:1 18:1 19:1 23:1 121:1 252:1 253:1 255:1 257:1 261:1 264:1 
1.83899585050088 1:1 3:0.0430622 6:1 8:1 9:1 12:1 13:0.707107 15:1 18:1 19:1 23:1 121:1 252:1 253:1 255:1 257:1 261:1 264:1 
0.3985957263913643 1:1 3:0.00478469 6:1 8:1 10:1 12:1 13:1 15:1 17:1 19:1 23:1 121:1 252:1 253:1 255:1 257:1 260:1 264:1 
32 1:1 3:0.00956938 5:1 7:1 9:1 12:1 13:0.258199 14:1 18:1 19:1 23:1 121:1 252:1 253:1 255:1 257:1 261:1 264:1 
0.1661398952426848 1:1 3:0.0382775 4:0.5 6:1 8:1 10:1 12:1 13:1 15:1 18:1 19:1 23:1 89:1 250:1 253:1 255:1 257:1 261:1 264:1 
32 1:1 4:0.625 5:1 7:1 9:1 11:1 14:1 18:1 19:1 23:1 89:1 252:1 253:1 255:1 257:1 261:1 264:1 
0.1307403025838509 1:1 3:0.311005 6:1 8:1 10:1 12:1 13:1 15:1 18:1 19:1 23:1 226:1 252:1 253:1 255:1 257:1 261:1 264:1 
0.1019036311269141 1:1 3:0.0334928 4:0.625 6:1 7:1 9:1 12:1 13:0.5 14:1 18:1 19:1 23:1 57:1 252:1 253:1 256:1 258:1 261:1 264:1 
0.7811458529214511 1:1 3:0.00956938 4:0.75 6:1 7:1 9:1 12:1 13:0.57735 14:1 18:1 19:1 23:1 121:1 252:1 253:1 255:1 257:1 260:1 264:1 
32 1:1 3:0.00478469 5:1 7:1 9:1 11:1 14:1 18:1 19:1 23:1 121:1 252:1 253:1 255:1 257:1 261:1 264:1 
0.1724389431269135 1:1 3:0.0239234 4:1 5:1 8:1 9:1 12:1 13:1 15:1 18:1 19:1 23:1 57:1 252:1 254:1 256:1 258:1 261:1 264:1 
32 1:1 3:0.119617 6:1 7:1 9:1 12:1 13:0.612372 14:1 18:1 19:1 23:1 121:1 252:1 253:1 255:1 257:1 261:1 264:1 
32 1:1 3:0.0813397 4:0.25 5:1 7:1 9:1 11:1 14:1 18:1 19:1 23:1 119:1 252:1 253:1 255:1 257:1 261:1 264:1 
0.2667027234248739 1:1 3:0.0430622 4:1 6:1 8:1 9:1 12:1 13:0.866025 14:1 17:1 19:1 23:1 57:1 252:1 253:1 255:1 257:1 260:1 264:1 
32 1:1 3:0.0430622 4:1 5:1 7:1 9:1 11:1 14:1 18:1 19:1 23:1 119:1 252:1 253:1 255:1 257:1 261:1 264:1 
32 1:1 4:1 5:1 7:1 9:1 11:1 14:1 18:1 19:1 23:1 121:1 252:1 253:1 255:1 257:1 261:1 264:1 
0.04626932443180098 2:1 3:0.196172 4:1 5:1 8:1 9:1 12:1 13:1 15:1 18:1 19:1 23:1 87:1 252:1 253:1 255:1 257:1 261:1 264:1 
0.1291211109165359 2:1 3:0.315789 4:1 5:1 8:1 9:1 12:1 13:1 15:1 18:1 19:1 23:1 117:1 252:1 253:1 255:1 257:1 261:1 264:1 
32 1:1 3:0.177033 4:1 5:1 7:1 9:1 11:1 14:1 18:1 19:1 23:1 87:1 252:1 253:1 255:1 257:1 261:1 264:1 
0.4334040330583666 1:1 3:0.311005 4:1 5:1 8:1 9:1 12:1 13:1 15:1 18:1 19:1 23:1 117:1 252:1 254:1 255:1 258:1 261:1 264:1 
32 1:1 3:0.133971 4:1 5:1 7:1 9:1 11:1 14:1 18:1 19:1 23:1 119:1 252:1 253:1 255:1 257:1 261:1 264:1 
32 1:1 3:0.133971 4:1 5:1 7:1 9:1 11:1 14:1 18:1 19:1 23:1 119:1 252:1 253:1 255:1 257:1 261:1 264:1 
0.02855167715467782 2:1 3:0.119617 4:1 5:1 8:1 9:1 12:1 13:1 15:1 18:1 19:1 23:1 119:1 252:1 253:1 255:1 257:1 261:1 264:1 
1.848181006872266 1:1 3:0.105263 4:1 5:1 8:1 9:1 12:1 13:0.707107 14:1 18:1 19:1 23:1 116:1 252:1 253:1 255:1 257:1 261:1 264:1 
0.1456347792484377 2:1 3:0.00478469 6:1 8:1 10:1 12:1 13:1 15:1 18:1 19:1 23:1 137:1 252:1 254:1 255:1 258:1 261:1 264:1 
0.7782651790309879 1:1 3:0.00478469 4:0.625 5:1 7:1 9:1 12:1 13:0.5 14:1 18:1 19:1 23:1 121:1 252:1 253:1 256:1 258:1 261:1 264:1 
32 1:1 3:0.00478469 4:0.625 5:1 7:1 9:1 11:1 14:1 18:1 19:1 23:1 121:1 252:1 253:1 255:1 257:1 261:1 264:1 
0.3353862802423009 1:1 3:0.00478469 4:1 5:1 8:1 9:1 12:1 13:1 15:1 18:1 19:1 23:1 57:1 252:1 254:1 256:1 257:1 261:1 264:1 
32 1:1 3:0.0239234 4:1 6:1 8:1 9:1 12:1 13:0.707107 14:1 18:1 19:1 23:1 121:1 252:1 253:1 255:1 257:1 261:1 264:1 
0.3478788184356299 1:1 3:0.0239234 4:1 6:1 7:1 10:1 12:1 13:0.75 15:1 18:1 19:1 23:1 121:1 252:1 254:1 255:1 257:1 261:1 264:1 
32 1:1 3:0.00478469 4:1 5:1 7:1 9:1 11:1 14:1 18:1 19:1 23:1 105:1 250:1 253:1 255:1 257:1 261:1 264:1 
0.4207442154635008 2:1 3:0.0526316 4:1 5:1 8:1 9:1 12:1 13:1 15:1 18:1 19:1 23:1 120:1 250:1 254:1 255:1 258:1 261:1 264:1 
0.4586227557164572 1:1 3:0.00478469 4:1 6:1 8:1 9:1 12:1 13:0.816497 14:1 18:1 19:1 21:1 73:1 252:1 253:1 255:1 257:1 260:1 264:1 
32 1:1 3:0.0143541 4:1 5:1 7:1 9:1 11:1 14:1 18:1 19:1 23:1 105:1 252:1 253:1 255:1 257:1 261:1 264:1 
32 1:1 3:0.0334928 4:0.625 5:1 7:1 9:1 11:1 14:1 18:1 19:1 23:1 105:1 252:1 253:1 255:1 257:1 261:1 264:1 
32 1:1 3:0.0191388 4:0.625 5:1 7:1 9:1 11:1 14:1 18:1 19:1 23:1 105:1 250:1 253:1 255:1 257:1 261:1 264:1 
32 1:1 3:0.133971 4:0.625 5:1 7:1 9:1 11:1 14:1 18:1 19:1 21:1 105:1 252:1 253:1 255:1 257:1 261:1 264:1 
32 1:1 3:0.119617 4:0.625 5:1 7:1 9:1 11:1 14:1 18:1 19:1 23:1 105:1 250:1 253:1 255:1 257:1 261:1 264:1 
32 1:1 3:0.0191388 4:0.625 5:1 7:1 9:1 11:1 14:1 18:1 19:1 23:1 105:1 250:1 253:1 255:1 257:1 261:1 264:1 
32 1:1 3:0.119617 4:0.625 5:1 7:1 9:1 11:1 14:1 18:1 19:1 23:1 105:1 250:1 253:1 255:1 257:1 261:1 264:1 
0.8881486769177169 1:1 3:0.100478 4:0.5 6:1 8:1 10:1 12:1 13:1 15:1 18:1 19:1 23:1 105:1 250:1 253:1 255:1 257:1 261:1 264:1 
3.03845066320809 1:1 3:0.138756 4:0.625 5:1 7:1 9:1 11:1 14:1 18:1 19:1 22:1 105:1 252:1 253:1 255:1 257:1 261:1 264:1 
2.094904801488016 1:1 3:0.0956938 4:1 6:1 7:1 9:1 12:1 13:0.516398 14:1 18:1 19:1 23:1 105:1 252:1 253:1 255:1 257:1 261:1 264:1 
32 1:1 3:0.0287081 4:0.625 5:1 7:1 9:1 11:1 14:1 18:1 19:1 23:1 89:1 252:1 253:1 255:1 257:1 261:1 264:1 
-20.81715584620594 1:1 3:0.220096 4:1 5:1 7:1 9:1 12:1 13:0.353553 14:1 18:1 19:1 23:1 102:1 252:1 253:1 255:1 257:1 261:1 264:1 
-0.2077471571544241 1:1 3:0.177033 4:1 5:1 7:1 9:1 11:1 14:1 18:1 19:1 23:1 103:1 252:1 253:1 255:1 257:1 261:1 264:1 
-1.658484280528883 1:1 3:0.277512 4:1 5:1 8:1 9:1 12:1 13:0.707107 14:1 18:1 19:1 23:1 118:1 252:1 253:1 255:1 257:1 261:1 264:1 
-10.09007094500958 1:1 3:0.100478 4:1 5:1 8:1 9:1 12:1 13:1 15:1 18:1 19:1 23:1 120:1 252:1 254:1 255:1 258:1 261:1 264:1 
-7.246350836082463 1:1 3:0.0956938 4:1 5:1 8:1 9:1 12:1 13:0.707107 14:1 18:1 19:1 23:1 120:1 252:1 253:1 255:1 257:1 261:1 264:1 
-32 1:1 3:0.00478469 4:1 5:1 8:1 9:1 12:1 13:0.707107 14:1 18:1 19:1 23:1 121:1 252:1 253:1 255:1 257:1 261:1 264:1 
-31.3519021249346 1:1 3:0.0956938 4:1 5:1 8:1 9:1 12:1 13:0.707107 14:1 18:1 19:1 23:1 120:1 252:1 253:1 255:1 257:1 261:1 264:1 
-0.5889727155338926 1:1 3:0.0478469 4:1 5:1 7:1 10:1 11:1 14:1 18:1 19:1 23:1 121:1 252:1 253:1 255:1 257:1 261:1 264:1 
-0.01153001750415384 1:1 3:0.885167 4:1 5:1 7:1 9:1 11:1 14:1 18:1 19:1 23:1 118:1 252:1 253:1 255:1 257:1 261:1 264:1 
-14.31399354940802 1:1 3:0.789474 4:1 5:1 8:1 9:1 11:1 14:1 18:1 19:1 23:1 119:1 252:1 253:1 255:1 257:1 261:1 264:1 
-0.2798287956445445 1:1 3:0.545455 4:1 5:1 7:1 9:1 11:1 14:1 18:1 19:1 23:1 115:1 252:1 253:1 255:1 257:1 261:1 264:1 
-32 1:1 3:0.0478469 4:0.625 5:1 7:1 9:1 12:1 13:0.377964 14:1 18:1 19:1 23:1 175:1 252:1 253:1 255:1 257:1 261:1 264:1 
-13.84139314046492 1:1 3:0.00956938 4:0.625 5:1 7:1 9:1 11:1 14:1 18:1 19:1 23:1 185:1 252:1 253:1 255:1 257:1 261:1 264:1 
-32 1:1 3:0.0717703 4:1 5:1 7:1 9:1 11:1 14:1 18:1 19:1 23:1 175:1 252:1 253:1 255:1 257:1 261:1 264:1 
-32 1:1 3:0.0478469 4:0.625 5:1 7:1 9:1 12:1 13:0.377964 14:1 18:1 19:1 23:1 175:1 252:1 253:1 255:1 257:1 261:1 264:1 
-2.30461932991011 1:1 3:0.0191388 4:0.625 5:1 8:1 9:1 12:1 13:0.534522 14:1 18:1 19:1 23:1 185:1 252:1 253:1 255:1 257:1 261:1 264:1 
-28.71684056416323 1:1 3:0.00956938 4:0.625 5:1 7:1 9:1 11:1 14:1 18:1 19:1 23:1 185:1 252:1 253:1 255:1 257:1 261:1 264:1 
-31.59673073752451 1:1 3:0.00478469 4:0.625 5:1 7:1 9:1 12:1 13:0.377964 14:1 18:1 19:1 23:1 185:1 252:1 253:1 255:1 257:1 261:1 264:1 
-32 1:1 3:0.0717703 4:1 5:1 7:1 9:1 11:1 14:1 18:1 19:1 23:1 175:1 252:1 253:1 255:1 257:1 261:1 264:1 
-1.228610775389105 1:1 3:0.076555 4:0.625 5:1 8:1 9:1 12:1 13:0.534522 14:1 18:1 19:1 23:1 185:1 252:1 253:1 255:1 257:1 261:1 264:1 
-2.523198768976351 2:1 3:0.0574163 4:0.5 6:1 7:1 9:1 12:1 13:0.857143 15:1 18:1 19:1 23:1 185:1 252:1 253:1 255:1 257:1 261:1 264:1 
-32 1:1 3:0.0956938 4:0.875 5:1 7:1 9:1 11:1 14:1 18:1 19:1 23:1 185:1 252:1 253:1 255:1 257:1 261:1 264:1 
-6.820052995033385 1:1 3:0.0717703 4:1 6:1 7:1 9:1 12:1 13:0.666667 14:1 18:1 19:1 23:1 185:1 252:1 253:1 255:1 257:1 261:1 264:1 
-4.587252410667054 1:1 3:0.133971 4:0.625 5:1 7:1 9:1 11:1 14:1 18:1 19:1 23:1 185:1 252:1 253:1 255:1 257:1 261:1 264:1 
-32 1:1 3:0.114833 4:0.5 5:1 7:1 9:1 12:1 13:0.267261 14:1 18:1 19:1 23:1 185:1 252:1 253:1 255:1 257:1 261:1 264:1 
-32 1:1 3:0.0909091 4:0.625 6:1 7:1 9:1 12:1 13:0.408248 14:1 18:1 19:1 23:1 185:1 252:1 253:1 255:1 257:1 261:1 264:1 
-5.187159130481515 1:1 3:0.0239234 4:0.5 5:1 7:1 9:1 11:1 14:1 18:1 19:1 23:1 121:1 252:1 253:1 255:1 257:1 261:1 264:1 
-2.001836052210584 1:1 3:0.00478469 5:1 7:1 9:1 12:1 13:0.288675 14:1 18:1 19:1 23:1 57:1 252:1 253:1 255:1 257:1 261:1 264:1 
-0.1530581207056828 1:1 3:0.129187 4:1 5:1 7:1 9:1 11:1 14:1 18:1 19:1 23:1 110:1 252:1 253:1 255:1 257:1 261:1 264:1 
-8.143608929656221 1:1 3:0.0191388 4:0.75 5:1 7:1 9:1 11:1 14:1 18:1 19:1 23:1 121:1 252:1 253:1 255:1 257:1 261:1 264:1 
-0.05436362740721228 1:1 3:0.0143541 4:0.5 5:1 7:1 9:1 12:1 13:0.258199 14:1 18:1 19:1 23:1 121:1 250:1 253:1 255:1 257:1 261:1 264:1 
-0.4252599942704415 1:1 3:0.411483 4:0.375 5:1 7:1 9:1 11:1 14:1 18:1 19:1 23:1 119:1 252:1 253:1 255:1 257:1 261:1 264:1 
-0.01210895176478472 1:1 3:0.287081 4:0.5 5:1 7:1 9:1 11:1 14:1 18:1 19:1 23:1 119:1 252:1 253:1 255:1 257:1 261:1 264:1 
-1.945191577980035 1:1 3:0.277512 4:0.625 5:1 7:1 9:1 11:1 14:1 18:1 19:1 23:1 119:1 252:1 253:1 255:1 257:1 261:1 264:1 
-32 1:1 3:0.00478469 4:0.625 5:1 7:1 9:1 12:1 13:0.353553 14:1 18:1 19:1 23:1 121:1 252:1 253:1 255:1 257:1 261:1 264:1 
-14.33260542477096 1:1 3:0.315789 4:0.5 5:1 7:1 9:1 12:1 13:0.353553 14:1 18:1 19:1 23:1 120:1 252:1 253:1 255:1 257:1 261:1 264:1 
-0.8703508192832009 1:1 3:0.239234 4:0.5 5:1 7:1 9:1 12:1 13:0.612372 14:1 18:1 19:1 23:1 121:1 252:1 253:1 255:1 257:1 261:1 264:1 
-16.84983431254005 1:1 3:0.23445 4:0.5 5:1 7:1 9:1 12:1 13:0.353553 14:1 18:1 19:1 23:1 121:1 252:1 253:1 255:1 257:1 261:1 264:1 
-0.1144263268648682 1:1 3:0.0956938 4:0.5 5:1 7:1 9:1 11:1 14:1 18:1 19:1 23:1 121:1 252:1 253:1 255:1 257:1 261:1 264:1 
-32 1:1 3:0.143541 4:0.625 6:1 7:1 9:1 12:1 13:0.258199 14:1 18:1 19:1 23:1 120:1 252:1 253:1 255:1 257:1 261:1 264:1 
-0.007275833602076128 1:1 3:0.0717703 4:0.625 5:1 7:1 9:1 11:1 14:1 18:1 19:1 23:1 121:1 252:1 253:1 255:1 257:1 261:1 264:1 
-0.3054673612356928 1:1 3:0.0430622 4:0.5 5:1 7:1 9:1 11:1 14:1 18:1 19:1 23:1 121:1 252:1 253:1 255:1 257:1 261:1 264:1 
-32 1:1 3:0.220096 4:0.625 6:1 7:1 9:1 12:1 13:0.333333 14:1 18:1 19:1 23:1 120:1 252:1 253:1 256:1 257:1 261:1 264:1 
-14.36425002266097 1:1 3:0.00478469 4:0.5 5:1 7:1 9:1 12:1 13:0.408248 14:1 18:1 19:1 23:1 121:1 252:1 253:1 255:1 257:1 261:1 264:1 
-3.261590661782086 1:1 3:0.133971 4:0.25 5:1 8:1 9:1 11:1 14:1 18:1 19:1 23:1 120:1 252:1 253:1 255:1 257:1 261:1 264:1 
-11.30588461558316 1:1 3:0.114833 5:1 7:1 9:1 11:1 14:1 18:1 19:1 23:1 120:1 252:1 253:1 255:1 257:1 261:1 264:1 
-32 1:1 4:0.125 6:1 7:1 9:1 12:1 13:0.223607 14:1 18:1 19:1 23:1 121:1 252:1 253:1 255:1 257:1 261:1 264:1 
-32 1:1 3:0.00478469 4:0.5 5:1 7:1 9:1 12:1 13:0.5 14:1 18:1 19:1 23:1 121:1 252:1 253:1 255:1 257:1 261:1 264:1 
-32 1:1 3:0.00478469 4:0.625 5:1 7:1 9:1 12:1 13:0.353553 14:1 18:1 19:1 23:1 121:1 252:1 253:1 255:1 257:1 261:1 264:1 
-32 1:1 3:0.291866 4:0.125 5:1 7:1 9:1 12:1 13:0.333333 14:1 18:1 19:1 23:1 120:1 252:1 253:1 255:1 257:1 261:1 264:1 
-28.2711859677624 1:1 3:0.0143541 4:0.5 5:1 7:1 9:1 11:1 14:1 18:1 19:1 23:1 121:1 252:1 253:1 255:1 257:1 261:1 264:1 
-32 1:1 3:0.00478469 4:0.5 5:1 7:1 9:1 12:1 13:0.408248 14:1 18:1 19:1 23:1 121:1 252:1 253:1 255:1 257:1 261:1 264:1 
-6.140791473891911 1:1 3:0.0669856 4:0.5 5:1 7:1 9:1 12:1 13:0.223607 14:1 18:1 19:1 23:1 119:1 252:1 253:1 255:1 257:1 261:1 264:1 
-0.9707456137616681 1:1 3:0.172249 4:0.625 5:1 8:1 9:1 11:1 14:1 18:1 19:1 23:1 119:1 252:1 253:1 255:1 257:1 261:1 264:1 
-32 1:1 3:0.0669856 4:0.5 5:1 7:1 9:1 12:1 13:0.223607 14:1 18:1 19:1 23:1 119:1 252:1 253:1 255:1 257:1 261:1 264:1 
-31.9889519850994 1:1 3:0.0669856 4:0.5 5:1 7:1 9:1 12:1 13:0.223607 14:1 18:1 19:1 23:1 119:1 252:1 253:1 255:1 257:1 261:1 264:1 
-32 1:1 3:0.569378 4:1 5:1 7:1 9:1 12:1 13:0.5 14:1 18:1 19:1 23:1 119:1 252:1 253:1 255:1 257:1 261:1 264:1 
-1.168689169308584 1:1 3:0.440191 4:1 5:1 7:1 9:1 11:1 14:1 18:1 19:1 23:1 119:1 252:1 253:1 255:1 257:1 261:1 264:1 
-16.95549775024636 1:1 3:0.45933 4:1 5:1 8:1 9:1 11:1 14:1 18:1 19:1 23:1 119:1 252:1 253:1 255:1 257:1 261:1 264:1 
-28.74094311143004 1:1 3:0.444976 4:1 5:1 7:1 9:1 11:1 14:1 18:1 19:1 23:1 119:1 252:1 253:1 255:1 257:1 261:1 264:1 
-0.6915234782931661 1:1 4:0.5 5:1 7:1 10:1 12:1 13:0.5 14:1 18:1 19:1 23:1 121:1 252:1 253:1 255:1 257:1 261:1 264:1 
-32 1:1 3:0.00478469 4:0.5 5:1 7:1 9:1 12:1 13:0.408248 14:1 18:1 19:1 23:1 121:1 252:1 253:1 255:1 257:1 261:1 264:1 
-6.556979419706223 1:1 3:0.00956938 4:0.625 5:1 7:1 9:1 11:1 14:1 18:1 19:1 23:1 24:1 252:1 253:1 255:1 257:1 261:1 264:1 
-0.00871218162301781 1:1 3:0.382775 4:1 5:1 7:1 9:1 11:1 14:1 18:1 19:1 23:1 119:1 252:1 253:1 255:1 257:1 261:1 264:1 
-20.91769049265175 1:1 3:0.00956938 4:1 5:1 7:1 9:1 11:1 14:1 18:1 19:1 23:1 119:1 252:1 253:1 255:1 257:1 261:1 264:1 
-0.8766509391476892 1:1 3:0.00478469 4:0.5 5:1 7:1 9:1 12:1 13:0.333333 14:1 18:1 19:1 23:1 89:1 252:1 253:1 255:1 257:1 261:1 264:1 
-0.9445488988493528 1:1 3:0.0239234 4:0.625 5:1 7:1 9:1 11:1 14:1 18:1 19:1 23:1 89:1 252:1 253:1 255:1 257:1 261:1 264:1 
-1.132455725627572 1:1 3:0.0143541 4:0.125 5:1 7:1 9:1 11:1 14:1 18:1 19:1 23:1 89:1 252:1 253:1 255:1 257:1 261:1 264:1 
-0.4286310187783929 1:1 3:0.00478469 4:0.25 5:1 7:1 9:1 12:1 13:0.333333 14:1 18:1 19:1 23:1 89:1 252:1 253:1 255:1 257:1 259:1 264:1 
-0.01017027090516195 1:1 4:0.125 5:1 7:1 9:1 11:1 14:1 18:1 19:1 23:1 89:1 250:1 253:1 255:1 257:1 261:1 264:1 
-1.86655234788994 1:1 3:0.0143541 4:1 5:1 7:1 9:1 11:1 14:1 18:1 19:1 23:1 185:1 252:1 253:1 255:1 257:1 261:1 264:1 
-31.95272400111235 1:1 3:0.0143541 4:1 5:1 7:1 9:1 11:1 14:1 18:1 19:1 23:1 185:1 252:1 253:1 255:1 257:1 261:1 264:1 
-32 1:1 4:1 5:1 7:1 9:1 11:1 14:1 18:1 19:1 23:1 185:1 252:1 253:1 255:1 257:1 261:1 264:1 
-0.6365490341960198 1:1 3:0.114833 4:0.125 5:1 7:1 9:1 11:1 14:1 18:1 19:1 22:1 211:1 252:1 253:1 255:1 257:1 261:1 264:1 
-1.398509485354745 1:1 3:0.105263 5:1 7:1 9:1 12:1 13:0.365148 14:1 18:1 19:1 23:1 211:1 252:1 253:1 255:1 257:1 261:1 264:1 
-0.9998090587671691 1:1 3:0.00478469 4:0.25 5:1 7:1 9:1 12:1 13:0.288675 14:1 18:1 19:1 23:1 217:1 252:1 253:1 255:1 257:1 261:1 264:1 
-9.064103303558147 1:1 3:0.0717703 4:1 5:1 7:1 9:1 11:1 14:1 18:1 19:1 23:1 215:1 252:1 253:1 255:1 257:1 261:1 264:1 
-0.9341713618571721 1:1 3:0.0909091 5:1 7:1 9:1 12:1 13:0.408248 14:1 18:1 19:1 22:1 72:1 252:1 253:1 255:1 257:1 261:1 264:1 
-1.004720503014644 1:1 5:1 7:1 9:1 12:1 13:0.333333 14:1 18:1 19:1 22:1 73:1 252:1 253:1 255:1 257:1 261:1 264:1 
-1.090534663768296 1:1 3:0.0430622 4:0.5 5:1 7:1 10:1 12:1 13:0.75 14:1 18:1 19:1 23:1 121:1 252:1 253:1 255:1 257:1 261:1 264:1 
-0.002361912153307983 1:1 3:0.311005 4:1 5:1 7:1 9:1 11:1 14:1 18:1 19:1 23:1 24:1 252:1 253:1 255:1 257:1 261:1 264:1 
-30.39762965815061 1:1 3:0.0717703 4:1 5:1 7:1 9:1 12:1 13:0.353553 14:1 18:1 19:1 23:1 121:1 252:1 253:1 255:1 257:1 260:1 264:1 
-29.84690982325412 1:1 3:0.0334928 4:1 5:1 8:1 9:1 11:1 14:1 18:1 19:1 23:1 105:1 252:1 253:1 255:1 257:1 261:1 264:1 
-2.106434438524406 1:1 3:0.0334928 4:1 5:1 8:1 9:1 12:1 13:0.5 14:1 18:1 20:1 23:1 105:1 252:1 253:1 255:1 257:1 261:1 264:1 
-2.313546711368477 1:1 4:1 5:1 8:1 9:1 11:1 14:1 18:1 19:1 23:1 105:1 252:1 253:1 255:1 257:1 261:1 264:1 
-0.2123932742674455 1:1 4:1 5:1 7:1 9:1 11:1 14:1 18:1 19:1 23:1 105:1 252:1 253:1 256:1 257:1 261:1 264:1 
-30.02878333140044 1:1 4:1 5:1 7:1 9:1 11:1 14:1 18:1 19:1 23:1 105:1 252:1 253:1 255:1 257:1 261:1 264:1 
-32 1:1 4:1 5:1 7:1 9:1 11:1 14:1 18:1 19:1 23:1 105:1 252:1 253:1 255:1 257:1 261:1 264:1 
-31.28617180584531 1:1 4:1 5:1 7:1 9:1 11:1 14:1 18:1 19:1 23:1 105:1 252:1 253:1 255:1 257:1 261:1 264:1 
-32 1:1 3:0.0430622 4:1 5:1 7:1 9:1 11:1 14:1 18:1 19:1 23:1 215:1 252:1 253:1 255:1 257:1 261:1 264:1 
-26.92618655070433 1:1 3:0.148325 4:1 5:1 7:1 9:1 11:1 14:1 18:1 19:1 23:1 181:1 252:1 253:1 255:1 257:1 261:1 264:1 
-32 1:1 3:0.148325 4:1 5:1 7:1 9:1 11:1 14:1 18:1 19:1 23:1 181:1 252:1 253:1 255:1 257:1 261:1 264:1 
-8.317886676025539 1:1 3:0.0430622 4:1 5:1 7:1 9:1 11:1 14:1 18:1 19:1 23:1 215:1 252:1 253:1 255:1 257:1 261:1 264:1 
-32 1:1 3:0.148325 4:1 5:1 7:1 9:1 11:1 14:1 18:1 19:1 23:1 181:1 252:1 253:1 255:1 257:1 261:1 264:1 
-0.9446087830666691 1:1 4:1 5:1 7:1 9:1 11:1 14:1 18:1 19:1 22:1 185:1 252:1 253:1 255:1 257:1 261:1 264:1 
-14.84854968619802 1:1 3:0.0382775 4:1 5:1 7:1 9:1 11:1 14:1 18:1 19:1 23:1 215:1 252:1 253:1 255:1 257:1 261:1 264:1 
-24.52333083082617 1:1 4:1 5:1 7:1 9:1 11:1 14:1 18:1 19:1 23:1 217:1 252:1 253:1 255:1 257:1 261:1 264:1 
-32 1:1 3:0.0478469 4:0.75 5:1 7:1 9:1 11:1 14:1 18:1 19:1 23:1 105:1 250:1 253:1 255:1 257:1 261:1 264:1 
-8.936904487308162 1:1 3:0.291866 4:0.75 5:1 7:1 9:1 11:1 14:1 18:1 19:1 23:1 102:1 252:1 253:1 255:1 257:1 261:1 264:1 
-19.08585784884195 1:1 3:0.325359 4:0.625 5:1 7:1 9:1 11:1 14:1 18:1 19:1 23:1 102:1 252:1 253:1 255:1 257:1 261:1 264:1 
-32 1:1 3:0.0478469 4:0.75 5:1 7:1 9:1 11:1 14:1 18:1 19:1 23:1 105:1 250:1 253:1 255:1 257:1 261:1 264:1 
-4.650949925199707 1:1 3:0.330144 4:0.75 5:1 7:1 9:1 11:1 14:1 18:1 19:1 23:1 102:1 252:1 253:1 255:1 257:1 261:1 264:1 
-32 1:1 3:0.0478469 4:0.75 5:1 7:1 9:1 11:1 14:1 18:1 19:1 23:1 105:1 250:1 253:1 255:1 257:1 261:1 264:1 
-0.1122995419325005 1:1 3:0.157895 4:0.625 5:1 7:1 9:1 12:1 13:0.353553 14:1 18:1 19:1 23:1 104:1 252:1 253:1 255:1 257:1 259:1 264:1 
-0.07861525953971499 1:1 3:0.167464 4:1 5:1 7:1 9:1 11:1 14:1 18:1 19:1 23:1 104:1 252:1 253:1 255:1 257:1 260:1 264:1 
-0.2279663322873252 1:1 3:0.076555 4:1 5:1 7:1 9:1 11:1 14:1 18:1 19:1 23:1 104:1 250:1 253:1 255:1 257:1 259:1 264:1 
-30.06981026203135 1:1 3:0.0478469 4:0.75 5:1 7:1 9:1 11:1 14:1 18:1 19:1 23:1 105:1 250:1 253:1 255:1 257:1 261:1 264:1 
-0.3603099006279278 1:1 3:0.0478469 4:1 5:1 7:1 9:1 11:1 14:1 18:1 19:1 23:1 105:1 250:1 253:1 255:1 257:1 259:1 264:1 
-23.37758223612597 1:1 3:0.124402 5:1 7:1 9:1 12:1 13:0.5 14:1 18:1 19:1 23:1 120:1 252:1 253:1 255:1 257:1 261:1 264:1 
-0.2659963577043393 1:1 3:0.138756 4:0.375 5:1 7:1 9:1 11:1 14:1 18:1 19:1 23:1 120:1 250:1 253:1 255:1 257:1 261:1 264:1 
-32 1:1 3:0.100478 4:0.5 5:1 7:1 9:1 11:1 14:1 18:1 19:1 23:1 120:1 252:1 253:1 255:1 257:1 261:1 264:1 
-27.19954252707513 1:1 3:0.00956938 4:0.375 5:1 7:1 9:1 11:1 14:1 18:1 19:1 23:1 105:1 250:1 253:1 255:1 257:1 261:1 264:1 
-1.708111365175622 1:1 3:0.0382775 5:1 7:1 9:1 11:1 14:1 18:1 19:1 23:1 120:1 252:1 253:1 255:1 257:1 261:1 264:1 
-0.01033460918827897 1:1 3:0.105263 4:1 5:1 7:1 9:1 11:1 14:1 18:1 19:1 23:1 226:1 252:1 253:1 255:1 257:1 261:1 264:1 
-0.1530039711213377 1:1 3:0.0239234 4:0.875 5:1 7:1 9:1 11:1 14:1 18:1 19:1 23:1 227:1 252:1 253:1 255:1 257:1 261:1 264:1 
-2.203106996989154 2:1 3:0.191388 4:1 6:1 8:1 9:1 12:1 13:1 15:1 18:1 20:1 23:1 118:1 252:1 253:1 255:1 257:1 261:1 264:1 
-32 1:1 3:0.0574163 4:1 6:1 8:1 9:1 12:1 13:1 15:1 18:1 19:1 23:1 118:1 252:1 253:1 255:1 257:1 261:1 264:1 
-0.1802833311758039 1:1 3:0.0382775 4:1 5:1 7:1 9:1 11:1 14:1 18:1 19:1 23:1 153:1 252:1 253:1 255:1 257:1 261:1 264:1 
-0.6125520900053921 1:1 3:0.272727 4:1 5:1 8:1 9:1 11:1 14:1 18:1 19:1 23:1 196:1 252:1 253:1 255:1 257:1 261:1 264:1 
-0.2159029435532947 1:1 3:0.215311 4:1 5:1 7:1 9:1 11:1 14:1 18:1 19:1 23:1 195:1 252:1 253:1 255:1 257:1 261:1 264:1 
-0.1733307378980872 1:1 3:0.00478469 4:1 5:1 7:1 9:1 11:1 14:1 18:1 19:1 23:1 201:1 252:1 253:1 255:1 257:1 261:1 264:1 
-32 1:1 3:0.00478469 4:0.375 6:1 7:1 9:1 12:1 13:0.288675 14:1 18:1 19:1 23:1 57:1 252:1 253:1 255:1 257:1 261:1 264:1 
-1.148102275434076 1:1 3:0.272727 4:0.625 5:1 7:1 9:1 11:1 14:1 18:1 19:1 23:1 117:1 252:1 253:1 256:1 258:1 261:1 264:1 
-9.396655908572868 1:1 3:0.263158 4:0.375 6:1 7:1 9:1 12:1 13:0.408248 14:1 18:1 19:1 23:1 117:1 252:1 253:1 255:1 257:1 261:1 264:1 
-32 1:1 4:0.5 5:1 7:1 9:1 12:1 13:0.408248 14:1 18:1 19:1 23:1 121:1 252:1 253:1 255:1 257:1 261:1 264:1 
-32 1:1 3:0.291866 4:0.375 6:1 7:1 9:1 12:1 13:0.408248 14:1 18:1 19:1 23:1 117:1 252:1 253:1 255:1 257:1 261:1 264:1 
-0.8412598898023735 1:1 3:0.363636 4:1 5:1 7:1 9:1 11:1 14:1 18:1 19:1 23:1 42:1 252:1 253:1 256:1 258:1 259:1 264:1 
-4.560024438425296 1:1 3:0.358852 4:1 5:1 7:1 9:1 11:1 14:1 18:1 19:1 23:1 42:1 252:1 253:1 255:1 257:1 261:1 264:1 
-2.881991577701636 1:1 3:0.354067 4:0.75 6:1 7:1 9:1 12:1 13:0.408248 14:1 18:1 19:1 23:1 42:1 252:1 253:1 255:1 257:1 261:1 264:1 
-18.93718336485859 1:1 4:0.5 5:1 7:1 9:1 11:1 14:1 18:1 19:1 23:1 121:1 252:1 253:1 255:1 257:1 261:1 264:1 
-32 1:1 4:0.5 5:1 7:1 9:1 12:1 13:0.408248 14:1 18:1 19:1 23:1 121:1 252:1 253:1 255:1 257:1 261:1 264:1 
-0.5459920974746261 1:1 3:0.196172 4:0.625 5:1 7:1 9:1 11:1 14:1 18:1 19:1 23:1 119:1 252:1 253:1 255:1 257:1 261:1 264:1 
-1.218062159473279 1:1 3:0.0287081 4:0.5 5:1 7:1 9:1 11:1 14:1 18:1 19:1 23:1 121:1 252:1 253:1 255:1 257:1 261:1 264:1 
-0.8688238495084614 1:1 3:0.349282 4:0.75 5:1 7:1 9:1 12:1 13:0.353553 14:1 18:1 19:1 23:1 42:1 252:1 253:1 255:1 257:1 260:1 264:1 
-0.1827204729906411 1:1 3:0.258373 4:1 5:1 7:1 9:1 11:1 14:1 18:1 19:1 23:1 44:1 252:1 253:1 256:1 257:1 259:1 264:1 
-0.1995202097060833 1:1 3:0.258373 4:1 5:1 7:1 9:1 11:1 14:1 18:1 19:1 23:1 44:1 252:1 253:1 255:1 257:1 261:1 264:1 
-0.1844734265866711 1:1 3:0.138756 4:1 5:1 7:1 9:1 11:1 14:1 18:1 19:1 23:1 46:1 252:1 253:1 255:1 257:1 261:1 264:1 
-0.05728416652664314 1:1 3:0.119617 4:0.75 5:1 7:1 9:1 11:1 14:1 18:1 19:1 23:1 46:1 252:1 253:1 256:1 257:1 261:1 264:1 
-0.5031848589230556 1:1 4:0.625 5:1 7:1 9:1 11:1 14:1 18:1 19:1 23:1 121:1 252:1 253:1 255:1 257:1 261:1 264:1 
-0.08921404424782284 1:1 3:0.0382775 5:1 7:1 9:1 11:1 14:1 18:1 19:1 23:1 121:1 252:1 253:1 256:1 257:1 261:1 264:1 
-10.44681489382595 1:1 3:0.00956938 5:1 7:1 9:1 11:1 14:1 18:1 19:1 23:1 121:1 252:1 253:1 255:1 257:1 261:1 264:1 
-32 1:1 3:0.129187 4:0.25 6:1 7:1 9:1 12:1 13:0.333333 14:1 18:1 19:1 23:1 121:1 252:1 253:1 255:1 257:1 261:1 264:1 
-32 1:1 3:0.114833 6:1 7:1 9:1 12:1 13:0.866025 14:1 18:1 19:1 23:1 121:1 252:1 253:1 255:1 257:1 261:1 264:1 
-0.1714346624008081 1:1 3:0.177033 4:0.25 5:1 7:1 9:1 11:1 14:1 18:1 19:1 23:1 116:1 252:1 253:1 256:1 257:1 261:1 264:1 
-8.247380769485639 1:1 3:0.15311 5:1 7:1 9:1 12:1 13:0.408248 14:1 18:1 19:1 23:1 117:1 252:1 253:1 255:1 257:1 261:1 264:1 
-5.678649508008671 1:1 3:0.114833 4:0.625 5:1 7:1 9:1 11:1 14:1 18:1 19:1 23:1 121:1 252:1 253:1 255:1 257:1 261:1 264:1 
-32 1:1 3:0.119617 4:1 5:1 7:1 9:1 12:1 13:0.5 14:1 18:1 19:1 23:1 119:1 252:1 253:1 255:1 257:1 260:1 264:1 
-27.38725282493949 1:1 3:0.0956938 4:0.875 5:1 7:1 9:1 11:1 14:1 18:1 19:1 23:1 42:1 252:1 253:1 255:1 257:1 261:1 264:1 
-32 1:1 3:0.100478 4:0.875 5:1 7:1 9:1 11:1 14:1 18:1 19:1 23:1 42:1 252:1 253:1 255:1 257:1 261:1 264:1 
-0.8347589139329803 1:1 3:0.00478469 4:0.625 5:1 7:1 9:1 12:1 13:0.316228 14:1 18:1 19:1 23:1 217:1 252:1 253:1 255:1 257:1 261:1 264:1 
-0.6779197473260664 1:1 3:0.15311 4:0.25 5:1 7:1 9:1 11:1 14:1 18:1 19:1 23:1 116:1 252:1 253:1 255:1 257:1 259:1 264:1 
-0.3726429556633625 1:1 3:0.114833 5:1 7:1 9:1 12:1 13:0.333333 14:1 18:1 19:1 23:1 118:1 252:1 253:1 255:1 257:1 261:1 264:1 
-0.6944342778311685 1:1 3:0.114833 5:1 7:1 9:1 12:1 13:0.333333 14:1 18:1 19:1 23:1 118:1 252:1 253:1 255:1 257:1 259:1 264:1 
-0.209508571826653 1:1 3:0.105263 4:0.25 5:1 7:1 9:1 11:1 14:1 18:1 19:1 23:1 118:1 252:1 253:1 255:1 257:1 259:1 264:1 
-0.3624320173906569 1:1 3:0.0813397 4:0.25 5:1 7:1 9:1 11:1 14:1 18:1 19:1 23:1 119:1 252:1 253:1 256:1 257:1 259:1 264:1 
-0.1121569372549456 1:1 3:0.0813397 4:0.25 5:1 7:1 9:1 11:1 14:1 18:1 19:1 23:1 119:1 252:1 253:1 255:1 257:1 260:1 264:1 
-11.10729980229832 1:1 3:0.157895 4:1 5:1 7:1 9:1 11:1 14:1 18:1 19:1 23:1 116:1 252:1 253:1 255:1 257:1 261:1 264:1 
-0.07387191701117819 1:1 3:0.0861244 4:1 5:1 7:1 9:1 11:1 14:1 18:1 19:1 23:1 119:1 252:1 253:1 256:1 257:1 261:1 264:1 
-0.005848581662094091 1:1 3:0.119617 5:1 7:1 9:1 12:1 13:0.333333 14:1 18:1 19:1 23:1 118:1 250:1 253:1 255:1 257:1 261:1 264:1 
-1.648033095370923 1:1 3:0.114833 4:0.25 6:1 7:1 9:1 12:1 13:0.288675 14:1 18:1 19:1 23:1 118:1 250:1 253:1 255:1 257:1 261:1 264:1 
-0.1101865538664104 1:1 4:0.25 5:1 7:1 9:1 11:1 14:1 18:1 19:1 23:1 121:1 250:1 253:1 255:1 257:1 261:1 264:1 
-0.06607631560337547 1:1 3:0.330144 4:1 5:1 7:1 9:1 11:1 14:1 18:1 19:1 23:1 119:1 252:1 253:1 255:1 257:1 261:1 264:1 
-32 1:1 3:0.267943 4:1 5:1 7:1 9:1 12:1 13:0.5 14:1 18:1 19:1 23:1 119:1 252:1 253:1 255:1 257:1 261:1 264:1 
-32 1:1 4:0.75 6:1 7:1 9:1 12:1 13:0.408248 14:1 18:1 19:1 23:1 121:1 252:1 253:1 255:1 257:1 261:1 264:1 
-32 1:1 3:0.0669856 4:1 5:1 7:1 9:1 12:1 13:0.316228 14:1 18:1 19:1 23:1 89:1 252:1 253:1 255:1 257:1 261:1 264:1 
-0.9786951189303488 1:1 3:0.0430622 4:0.75 5:1 7:1 9:1 11:1 14:1 18:1 19:1 23:1 89:1 252:1 253:1 255:1 257:1 261:1 264:1 
-32 1:1 3:0.186603 4:1 5:1 7:1 9:1 12:1 13:0.223607 14:1 17:1 19:1 23:1 89:1 252:1 253:1 255:1 257:1 259:1 264:1 
-0.1513014358268852 1:1 3:0.181818 4:1 5:1 7:1 9:1 12:1 13:0.223607 14:1 17:1 19:1 23:1 89:1 252:1 253:1 255:1 257:1 259:1 264:1 
-4.344199655390613 1:1 3:0.172249 4:1 5:1 7:1 9:1 11:1 14:1 18:1 19:1 23:1 89:1 252:1 253:1 255:1 257:1 259:1 264:1 
-4.613922643401373 1:1 3:0.0430622 4:0.75 5:1 7:1 9:1 11:1 14:1 18:1 19:1 23:1 89:1 252:1 253:1 255:1 257:1 259:1 264:1 
-21.99624267987955 1:1 3:0.0382775 4:1 5:1 7:1 9:1 11:1 14:1 18:1 19:1 23:1 89:1 252:1 253:1 255:1 257:1 259:1 264:1 
-1.057519800631049 1:1 3:0.172249 4:0.75 5:1 7:1 9:1 11:1 14:1 18:1 19:1 23:1 89:1 252:1 253:1 255:1 257:1 261:1 264:1 
-23.24453135343907 1:1 3:0.200957 4:0.5 6:1 7:1 9:1 12:1 13:0.666667 14:1 18:1 19:1 22:1 89:1 250:1 253:1 255:1 257:1 261:1 264:1 
-0.8926988335438586 1:1 4:0.5 6:1 7:1 9:1 12:1 13:0.666667 14:1 18:1 19:1 22:1 89:1 250:1 253:1 255:1 257:1 261:1 264:1 
-2.401264526832569 1:1 3:0.129187 4:0.25 6:1 7:1 9:1 12:1 13:0.408248 14:1 18:1 19:1 23:1 226:1 252:1 253:1 255:1 257:1 261:1 264:1 
-1.095554890559376 1:1 3:0.440191 4:1 5:1 7:1 9:1 11:1 14:1 18:1 19:1 23:1 94:1 252:1 253:1 255:1 257:1 261:1 264:1 
-1.360404286393805 1:1 3:0.373206 4:1 5:1 7:1 9:1 11:1 14:1 18:1 19:1 23:1 88:1 252:1 253:1 255:1 257:1 261:1 264:1 
-0.08747974458013727 1:1 3:0.330144 4:1 5:1 7:1 9:1 11:1 14:1 18:1 19:1 23:1 89:1 252:1 253:1 255:1 257:1 261:1 264:1 
-0.2215206339659859 1:1 3:0.277512 4:1 5:1 7:1 9:1 11:1 14:1 18:1 19:1 23:1 89:1 252:1 253:1 255:1 257:1 261:1 264:1 
-1.978471957807354 1:1 3:0.23445 4:1 5:1 7:1 9:1 11:1 14:1 18:1 19:1 23:1 89:1 252:1 253:1 255:1 257:1 261:1 264:1 
-19.03140964517128 1:1 3:0.196172 4:1 5:1 7:1 9:1 11:1 14:1 18:1 19:1 23:1 89:1 252:1 253:1 255:1 257:1 261:1 264:1 
-0.2366770166477104 1:1 3:0.488038 4:0.25 5:1 7:1 9:1 11:1 14:1 18:1 19:1 23:1 124:1 252:1 253:1 255:1 257:1 261:1 264:1 
-0.6482069348618977 1:1 3:0.37799 4:0.25 5:1 7:1 9:1 11:1 14:1 18:1 19:1 23:1 119:1 252:1 253:1 255:1 257:1 261:1 264:1 
-0.2183799034044881 1:1 3:0.397129 4:1 5:1 7:1 9:1 11:1 14:1 18:1 19:1 23:1 119:1 252:1 253:1 255:1 257:1 261:1 264:1 
-0.07600177534082035 1:1 3:0.37799 4:1 5:1 7:1 9:1 11:1 14:1 18:1 19:1 23:1 119:1 252:1 253:1 255:1 257:1 261:1 264:1 
-31.32746766994453 1:1 3:0.368421 4:1 5:1 7:1 9:1 11:1 14:1 18:1 19:1 23:1 119:1 252:1 253:1 255:1 257:1 261:1 264:1 
-0.4279561337687453 1:1 3:0.363636 4:1 5:1 7:1 9:1 11:1 14:1 18:1 19:1 21:1 119:1 252:1 253:1 255:1 257:1 261:1 264:1 
-0.07236976763561173 1:1 3:0.277512 4:1 5:1 7:1 9:1 11:1 14:1 18:1 19:1 23:1 119:1 252:1 253:1 255:1 257:1 261:1 264:1 
-0.1396791757258875 1:1 3:0.406699 4:1 5:1 7:1 9:1 11:1 14:1 18:1 19:1 23:1 119:1 252:1 253:1 255:1 257:1 261:1 264:1 
-0.1906686271435063 1:1 3:0.354067 4:1 5:1 7:1 9:1 11:1 14:1 18:1 19:1 23:1 119:1 252:1 253:1 255:1 257:1 261:1 264:1 
-0.1510988017604095 1:1 3:0.344498 4:1 5:1 7:1 9:1 11:1 14:1 18:1 19:1 23:1 119:1 252:1 253:1 255:1 257:1 261:1 264:1 
-0.3132499561400426 1:1 3:0.334928 4:1 5:1 7:1 9:1 11:1 14:1 18:1 19:1 23:1 119:1 252:1 253:1 255:1 257:1 261:1 264:1 
-0.05637930508360839 1:1 3:0.325359 4:1 5:1 7:1 9:1 11:1 14:1 18:1 19:1 23:1 119:1 252:1 253:1 255:1 257:1 261:1 264:1 
-0.373574337240582 1:1 3:0.301435 4:1 5:1 7:1 9:1 11:1 14:1 18:1 19:1 23:1 119:1 252:1 253:1 255:1 257:1 261:1 264:1 
-0.1291806343731335 1:1 3:0.258373 4:1 5:1 7:1 9:1 11:1 14:1 18:1 19:1 23:1 119:1 252:1 253:1 255:1 257:1 261:1 264:1 
-0.06416916516749813 1:1 3:0.0287081 4:0.75 5:1 7:1 9:1 11:1 14:1 18:1 19:1 23:1 121:1 252:1 253:1 255:1 257:1 261:1 264:1 
-3.42483482522161 1:1 3:0.0334928 4:0.25 5:1 7:1 9:1 11:1 14:1 18:1 19:1 23:1 119:1 252:1 253:1 255:1 257:1 261:1 264:1 
-1.372381580215787 1:1 3:0.114833 5:1 7:1 9:1 12:1 13:0.288675 14:1 18:1 19:1 23:1 24:1 252:1 253:1 256:1 257:1 261:1 264:1 
-3.209640598464492 1:1 3:0.129187 5:1 7:1 9:1 11:1 14:1 18:1 19:1 23:1 24:1 252:1 253:1 255:1 257:1 261:1 264:1 
-24.69971730033952 1:1 3:0.148325 4:0.625 5:1 7:1 9:1 11:1 14:1 18:1 19:1 23:1 24:1 252:1 253:1 255:1 257:1 261:1 264:1 
-32 1:1 3:0.100478 4:0.5 5:1 7:1 9:1 12:1 13:0.288675 14:1 18:1 19:1 23:1 24:1 252:1 253:1 255:1 257:1 261:1 264:1 
-32 1:1 3:0.0956938 4:0.5 5:1 7:1 9:1 12:1 13:0.333333 14:1 18:1 19:1 23:1 24:1 252:1 253:1 255:1 257:1 261:1 264:1 
-1.818533279577355 1:1 3:0.0334928 4:0.5 5:1 7:1 9:1 12:1 13:0.288675 14:1 18:1 19:1 23:1 24:1 250:1 253:1 255:1 257:1 261:1 264:1 
-0.02981873038131191 1:1 3:0.076555 4:0.75 5:1 7:1 9:1 11:1 14:1 18:1 19:1 23:1 24:1 252:1 253:1 255:1 257:1 261:1 264:1 
-0.02852804804552575 1:1 3:0.0526316 4:1 5:1 7:1 9:1 11:1 14:1 18:1 19:1 23:1 24:1 252:1 253:1 256:1 257:1 259:1 264:1 
-10.66591664221912 1:1 3:0.0382775 4:0.875 5:1 7:1 9:1 11:1 14:1 18:1 19:1 23:1 24:1 252:1 253:1 255:1 257:1 259:1 264:1 
-0.490266360504829 1:1 3:0.0334928 4:0.875 5:1 7:1 9:1 11:1 14:1 18:1 19:1 23:1 24:1 252:1 253:1 255:1 257:1 260:1 264:1 
-32 1:1 3:0.253589 6:1 7:1 9:1 12:1 13:0.721688 14:1 18:1 19:1 23:1 117:1 252:1 253:1 255:1 257:1 261:1 264:1 
-1.719838928801261 1:1 3:0.162679 5:1 7:1 9:1 12:1 13:0.235702 14:1 18:1 19:1 23:1 119:1 252:1 253:1 255:1 257:1 261:1 264:1 
-0.7605631815293629 1:1 3:0.0430622 4:0.75 5:1 7:1 9:1 11:1 14:1 18:1 19:1 23:1 121:1 252:1 253:1 255:1 257:1 261:1 264:1 
-32 1:1 3:0.0239234 4:1 5:1 7:1 9:1 12:1 13:0.333333 14:1 18:1 19:1 23:1 121:1 252:1 253:1 255:1 257:1 261:1 264:1 
-0.009081300673106625 1:1 3:0.0574163 4:0.5 5:1 7:1 9:1 11:1 14:1 18:1 19:1 23:1 121:1 252:1 253:1 255:1 257:1 261:1 264:1 
-1.496332179806304 1:1 3:0.0334928 4:0.5 5:1 7:1 9:1 11:1 14:1 18:1 19:1 23:1 121:1 252:1 253:1 255:1 257:1 261:1 264:1 
-0.8905855847346644 2:1 3:0.263158 4:0.625 5:1 7:1 9:1 11:1 14:1 18:1 19:1 23:1 117:1 252:1 253:1 255:1 257:1 261:1 264:1 
-32 1:1 3:0.110048 4:0.5 5:1 7:1 9:1 12:1 13:0.5 14:1 18:1 19:1 23:1 119:1 252:1 253:1 255:1 257:1 261:1 264:1 
-32 1:1 3:0.100478 4:0.5 5:1 7:1 9:1 12:1 13:0.408248 14:1 18:1 19:1 23:1 119:1 252:1 253:1 255:1 257:1 261:1 264:1 
-1.047487807362815 1:1 3:0.0813397 4:0.5 5:1 7:1 9:1 11:1 14:1 18:1 19:1 23:1 120:1 252:1 253:1 255:1 257:1 261:1 264:1 
-1.084620212700207 1:1 3:0.0382775 4:0.5 5:1 7:1 9:1 11:1 14:1 18:1 19:1 23:1 121:1 252:1 253:1 255:1 257:1 261:1 264:1 
-26.6300329553793 1:1 3:0.119617 4:0.5 5:1 7:1 9:1 12:1 13:0.5 14:1 18:1 19:1 23:1 119:1 252:1 253:1 255:1 257:1 261:1 264:1 
-31.74843950423788 1:1 3:0.0909091 4:0.5 5:1 7:1 9:1 11:1 14:1 18:1 19:1 23:1 120:1 252:1 253:1 255:1 257:1 261:1 264:1 
-0.695164826237752 1:1 3:0.062201 4:0.75 5:1 7:1 9:1 11:1 14:1 18:1 19:1 23:1 121:1 252:1 253:1 255:1 257:1 261:1 264:1 
-0.1817416581895259 1:1 3:0.205742 4:1 5:1 7:1 9:1 11:1 14:1 18:1 19:1 23:1 211:1 252:1 253:1 256:1 257:1 259:1 264:1 
-31.85588845630102 1:1 3:0.186603 4:1 5:1 7:1 9:1 11:1 14:1 18:1 19:1 23:1 211:1 252:1 253:1 255:1 257:1 261:1 264:1 
-7.425922303042002 1:1 3:0.0239234 4:1 5:1 7:1 9:1 11:1 14:1 18:1 19:1 23:1 217:1 252:1 253:1 255:1 257:1 261:1 264:1 
-0.1622321996322283 1:1 3:0.062201 4:1 5:1 7:1 9:1 11:1 14:1 18:1 19:1 23:1 187:1 252:1 253:1 255:1 257:1 261:1 264:1 
-1.62235281211991 1:1 3:0.0287081 4:1 6:1 8:1 9:1 12:1 13:0.707107 14:1 18:1 20:1 23:1 187:1 252:1 253:1 255:1 257:1 261:1 264:1 
-1.145091314713411 1:1 3:0.210526 4:0.5 5:1 7:1 10:1 12:1 13:0.5 14:1 18:1 19:1 23:1 110:1 252:1 253:1 256:1 257:1 261:1 264:1 
-0.1311139438979338 1:1 3:0.344498 4:1 5:1 7:1 9:1 11:1 14:1 18:1 19:1 23:1 125:1 252:1 253:1 255:1 257:1 261:1 264:1 
-0.07811988185166313 1:1 3:0.334928 4:0.875 5:1 7:1 9:1 11:1 14:1 18:1 19:1 23:1 125:1 252:1 253:1 256:1 257:1 261:1 264:1 
-0.2262422478243615 1:1 3:0.330144 4:1 5:1 7:1 9:1 11:1 14:1 18:1 19:1 23:1 125:1 250:1 253:1 255:1 257:1 261:1 264:1 
-16.84929403485965 1:1 3:0.00478469 4:1 5:1 7:1 9:1 11:1 14:1 18:1 19:1 23:1 185:1 252:1 253:1 255:1 257:1 261:1 264:1 
-0.1459144800839608 1:1 3:0.0526316 4:1 5:1 7:1 9:1 11:1 14:1 18:1 19:1 23:1 121:1 250:1 253:1 255:1 257:1 259:1 264:1 
-23.03483467028289 1:1 3:0.0526316 4:1 5:1 7:1 9:1 11:1 14:1 18:1 19:1 23:1 121:1 250:1 253:1 255:1 257:1 261:1 264:1 
-0.3547219288757166 1:1 3:0.416268 4:1 5:1 7:1 9:1 12:1 13:0.474342 14:1 18:1 19:1 23:1 101:1 252:1 253:1 255:1 257:1 261:1 264:1 
-0.3076210002799019 1:1 3:0.406699 4:1 5:1 7:1 9:1 12:1 13:0.223607 14:1 18:1 19:1 23:1 101:1 252:1 253:1 255:1 257:1 260:1 264:1 
-14.52153712007249 1:1 3:0.511962 4:0.625 5:1 7:1 9:1 12:1 13:0.474342 14:1 18:1 19:1 23:1 116:1 252:1 253:1 255:1 257:1 261:1 264:1 
-8.713767557492538 1:1 3:0.502392 4:0.625 5:1 7:1 9:1 11:1 14:1 18:1 19:1 23:1 116:1 252:1 253:1 255:1 257:1 261:1 264:1 
-0.07336400477001481 1:1 3:0.200957 4:0.625 5:1 7:1 9:1 11:1 14:1 18:1 19:1 23:1 119:1 252:1 253:1 255:1 257:1 261:1 264:1 
-0.7559635233895554 1:1 3:0.133971 4:0.625 5:1 7:1 9:1 11:1 14:1 18:1 19:1 23:1 120:1 252:1 253:1 255:1 257:1 261:1 264:1 
-0.4239181545614485 1:1 3:0.0956938 4:0.625 5:1 7:1 9:1 12:1 13:0.67082 14:1 18:1 19:1 23:1 120:1 252:1 253:1 255:1 257:1 261:1 264:1 
-4.149443164248057 1:1 3:0.00478469 4:0.75 5:1 7:1 9:1 11:1 14:1 18:1 19:1 23:1 105:1 252:1 253:1 255:1 257:1 261:1 264:1 
-0.2271585645245736 1:1 4:1 5:1 7:1 9:1 12:1 13:0.67082 14:1 18:1 19:1 23:1 105:1 250:1 253:1 255:1 257:1 261:1 264:1 
-0.1071971690502594 1:1 3:0.45933 4:1 5:1 7:1 9:1 11:1 14:1 18:1 19:1 23:1 101:1 252:1 253:1 255:1 257:1 261:1 264:1 
-6.343026533313261 1:1 3:0.0526316 4:1 5:1 7:1 9:1 11:1 14:1 18:1 19:1 23:1 105:1 250:1 253:1 255:1 257:1 261:1 264:1 
-0.814802761649091 1:1 3:0.119617 4:0.625 5:1 7:1 9:1 11:1 14:1 18:1 19:1 23:1 105:1 252:1 253:1 255:1 257:1 261:1 264:1 
-28.91322245393584 1:1 3:0.0717703 4:0.375 5:1 7:1 9:1 11:1 14:1 18:1 19:1 23:1 105:1 252:1 253:1 255:1 257:1 261:1 264:1 
-8.313231855481931 1:1 3:0.0334928 4:1 5:1 8:1 9:1 12:1 13:0.707107 14:1 18:1 19:1 23:1 105:1 252:1 253:1 255:1 257:1 261:1 264:1 
-0.06567255138625459 1:1 3:0.30622 4:1 5:1 7:1 9:1 11:1 14:1 18:1 19:1 23:1 119:1 252:1 253:1 255:1 257:1 261:1 264:1 
-0.4907124519452135 1:1 3:0.296651 4:1 5:1 7:1 9:1 11:1 14:1 18:1 19:1 23:1 119:1 252:1 253:1 255:1 257:1 261:1 264:1 
-31.76498185007043 1:1 3:0.0956938 4:0.625 5:1 7:1 9:1 12:1 13:0.67082 14:1 18:1 19:1 23:1 120:1 252:1 253:1 255:1 257:1 261:1 264:1 
-1.345762605106726 1:1 3:0.00956938 4:0.625 5:1 7:1 9:1 11:1 14:1 18:1 19:1 23:1 105:1 252:1 253:1 255:1 257:1 261:1 264:1 
-6.955214632008394 1:1 3:0.0191388 4:0.5 5:1 7:1 9:1 11:1 14:1 18:1 19:1 23:1 119:1 252:1 253:1 255:1 257:1 261:1 264:1 
-0.6015849429190343 1:1 3:0.00956938 4:0.5 5:1 7:1 9:1 11:1 14:1 18:1 19:1 23:1 120:1 252:1 253:1 255:1 257:1 261:1 264:1 
-2.008871114839943 1:1 3:0.210526 4:0.625 5:1 7:1 9:1 11:1 14:1 18:1 19:1 23:1 119:1 252:1 253:1 255:1 257:1 261:1 264:1 
-0.6678579203847211 1:1 3:0.105263 4:0.75 5:1 7:1 9:1 11:1 14:1 18:1 19:1 23:1 87:1 250:1 253:1 255:1 257:1 261:1 264:1 
-1.145204920650164 1:1 3:0.0334928 4:1 5:1 7:1 10:1 12:1 13:0.5 14:1 18:1 19:1 23:1 89:1 250:1 253:1 255:1 257:1 261:1 264:1 
-1.574264591207826 1:1 3:0.0143541 4:0.625 5:1 7:1 9:1 11:1 14:1 18:1 19:1 23:1 121:1 252:1 253:1 255:1 257:1 261:1 264:1 
-32 1:1 3:0.0143541 4:0.625 5:1 7:1 9:1 11:1 14:1 18:1 19:1 23:1 121:1 252:1 253:1 255:1 257:1 261:1 264:1 
-3.349000980096935 1:1 3:0.0334928 4:0.5 6:1 7:1 9:1 12:1 13:0.57735 14:1 18:1 19:1 23:1 121:1 252:1 253:1 256:1 257:1 261:1 264:1 
-32 1:1 3:0.0143541 4:0.625 5:1 7:1 9:1 11:1 14:1 18:1 19:1 23:1 121:1 252:1 253:1 255:1 257:1 261:1 264:1 
-32 1:1 3:0.0143541 4:0.875 6:1 7:1 9:1 12:1 13:0.408248 14:1 18:1 19:1 23:1 121:1 252:1 253:1 255:1 257:1 261:1 264:1 
-18.60065444066416 1:1 3:0.00478469 4:1 6:1 7:1 9:1 12:1 13:0.5 14:1 18:1 19:1 23:1 121:1 252:1 253:1 255:1 257:1 261:1 264:1 
-32 1:1 3:0.00478469 4:0.875 6:1 7:1 9:1 12:1 13:0.408248 14:1 18:1 19:1 23:1 121:1 252:1 253:1 255:1 257:1 261:1 264:1 
-32 1:1 3:0.00956938 4:0.5 6:1 7:1 9:1 12:1 13:0.333333 14:1 18:1 19:1 23:1 121:1 252:1 253:1 255:1 257:1 261:1 264:1 
-32 1:1 3:0.00478469 4:0.375 5:1 7:1 9:1 11:1 14:1 18:1 19:1 23:1 121:1 252:1 253:1 255:1 257:1 261:1 264:1 
-32 1:1 4:0.625 6:1 7:1 9:1 12:1 13:0.408248 14:1 18:1 19:1 23:1 121:1 252:1 253:1 255:1 257:1 261:1 264:1 
-15.72433322686767 1:1 3:0.00478469 4:0.5 5:1 7:1 9:1 11:1 14:1 18:1 19:1 23:1 121:1 252:1 253:1 255:1 257:1 261:1 264:1 
-32 1:1 3:0.138756 4:0.25 5:1 7:1 9:1 11:1 14:1 18:1 19:1 23:1 181:1 252:1 253:1 255:1 257:1 261:1 264:1 
-32 1:1 3:0.138756 4:0.25 5:1 7:1 9:1 11:1 14:1 18:1 19:1 23:1 181:1 252:1 253:1 255:1 257:1 261:1 264:1 
-21.21777531137182 1:1 3:0.0956938 4:0.25 5:1 7:1 9:1 11:1 14:1 18:1 19:1 23:1 175:1 252:1 253:1 255:1 257:1 261:1 264:1 
-32 1:1 3:0.186603 4:1 6:1 7:1 9:1 12:1 13:0.5 14:1 18:1 19:1 23:1 116:1 252:1 253:1 255:1 257:1 261:1 264:1 
-32 1:1 3:0.0143541 4:1 6:1 8:1 9:1 12:1 13:0.707107 14:1 18:1 19:1 23:1 121:1 252:1 253:1 255:1 257:1 261:1 264:1 
-0.4832476060669717 1:1 3:0.186603 4:1 5:1 7:1 9:1 11:1 14:1 18:1 19:1 23:1 116:1 252:1 253:1 255:1 257:1 261:1 264:1 
-12.76217599473786 1:1 3:0.0143541 4:1 5:1 7:1 9:1 12:1 13:0.353553 14:1 18:1 19:1 23:1 121:1 252:1 253:1 255:1 257:1 261:1 264:1 
-9.938601281397942 1:1 4:1 5:1 7:1 9:1 12:1 13:0.5 14:1 18:1 19:1 23:1 121:1 252:1 253:1 255:1 257:1 261:1 264:1 
-5.783543769075293 1:1 3:0.15311 4:1 5:1 8:1 9:1 12:1 13:0.707107 14:1 18:1 19:1 23:1 117:1 252:1 253:1 255:1 257:1 261:1 264:1 
-29.1117384760453 1:1 3:0.0143541 4:1 6:1 7:1 9:1 12:1 13:0.707107 14:1 18:1 19:1 23:1 121:1 252:1 253:1 255:1 257:1 261:1 264:1 
-32 1:1 4:1 6:1 7:1 9:1 12:1 13:0.5 14:1 18:1 19:1 23:1 121:1 252:1 253:1 255:1 257:1 261:1 264:1 
-0.01566618907325277 1:1 3:0.191388 4:0.25 5:1 7:1 9:1 11:1 14:1 18:1 19:1 21:1 117:1 252:1 253:1 255:1 257:1 261:1 264:1 
-0.4255018661321574 1:1 3:0.181818 5:1 7:1 9:1 12:1 13:0.204124 14:1 18:1 19:1 23:1 117:1 252:1 253:1 255:1 257:1 259:1 264:1 
-0.2929002635824415 1:1 3:0.15311 4:0.125 5:1 7:1 9:1 11:1 14:1 18:1 19:1 23:1 117:1 252:1 253:1 255:1 257:1 259:1 264:1 
-0.5508770642395038 1:1 3:0.0909091 4:0.125 5:1 7:1 9:1 11:1 14:1 18:1 19:1 23:1 119:1 252:1 253:1 255:1 257:1 259:1 264:1 
-0.7736586168803775 1:1 4:0.125 5:1 7:1 9:1 11:1 14:1 18:1 19:1 22:1 121:1 252:1 253:1 255:1 257:1 259:1 264:1 
-0.4133644408615665 1:1 3:0.186603 4:1 5:1 7:1 9:1 11:1 14:1 18:1 19:1 23:1 117:1 252:1 253:1 256:1 258:1 259:1 264:1 
-0.04615042839557544 1:1 3:0.100478 4:0.5 5:1 7:1 9:1 11:1 14:1 18:1 19:1 23:1 102:1 252:1 253:1 256:1 257:1 261:1 264:1 
-0.1517086009189378 1:1 3:0.0669856 4:0.5 5:1 7:1 9:1 12:1 13:0.408248 14:1 18:1 19:1 23:1 104:1 252:1 253:1 256:1 257:1 261:1 264:1 
-1.183237624984131 1:1 3:0.0574163 4:0.5 5:1 7:1 9:1 12:1 13:0.5 14:1 18:1 19:1 23:1 104:1 252:1 253:1 255:1 257:1 261:1 264:1 
-0.4532064272034246 1:1 3:0.100478 4:0.75 5:1 7:1 9:1 11:1 14:1 18:1 19:1 21:1 117:1 252:1 253:1 255:1 257:1 259:1 264:1 
-26.89048587061392 1:1 3:0.0430622 4:1 5:1 7:1 9:1 11:1 14:1 18:1 19:1 23:1 119:1 252:1 253:1 255:1 257:1 261:1 264:1 
-0.05385868198873331 1:1 3:0.0669856 4:1 5:1 8:1 9:1 11:1 14:1 18:1 19:1 22:1 89:1 252:1 253:1 255:1 257:1 261:1 264:1 
-0.5581576321064536 1:1 4:1 5:1 8:1 9:1 11:1 14:1 18:1 19:1 22:1 89:1 252:1 253:1 255:1 257:1 261:1 264:1 
-1.997551931132431 1:1 3:0.0574163 4:1 6:1 8:1 10:1 12:1 13:1 15:1 18:1 20:1 21:1 89:1 252:1 253:1 255:1 257:1 261:1 264:1 
-0.4793602269510429 1:1 3:0.0430622 4:1 5:1 8:1 9:1 11:1 14:1 18:1 19:1 21:1 89:1 252:1 253:1 255:1 257:1 261:1 264:1 
-0.4457911875965059 1:1 3:0.0334928 4:1 5:1 7:1 9:1 11:1 14:1 18:1 19:1 21:1 89:1 252:1 253:1 256:1 257:1 261:1 264:1 
-0.5300159494491428 1:1 3:0.0143541 4:1 5:1 7:1 9:1 11:1 14:1 18:1 19:1 22:1 89:1 252:1 253:1 256:1 257:1 261:1 264:1 
-15.33607516865746 1:1 3:0.105263 5:1 7:1 9:1 11:1 14:1 18:1 19:1 23:1 119:1 252:1 253:1 255:1 257:1 261:1 264:1 
-0.6320298956693684 1:1 3:0.0239234 5:1 7:1 9:1 11:1 14:1 18:1 19:1 23:1 121:1 252:1 253:1 255:1 257:1 259:1 264:1 
-6.243052475964603 1:1 3:0.358852 4:0.5 5:1 7:1 9:1 12:1 13:0.408248 14:1 18:1 19:1 23:1 117:1 252:1 253:1 255:1 257:1 261:1 264:1 
-32 1:1 3:0.334928 4:0.5 5:1 7:1 9:1 12:1 13:0.5 14:1 18:1 19:1 23:1 117:1 252:1 253:1 255:1 257:1 261:1 264:1 
-1.602750560372835 1:1 3:0.177033 4:0.5 5:1 7:1 9:1 11:1 14:1 18:1 19:1 23:1 120:1 252:1 253:1 255:1 257:1 261:1 264:1 
-1.541169773052322 1:1 3:0.133971 4:0.5 5:1 7:1 9:1 12:1 13:0.408248 14:1 18:1 19:1 23:1 121:1 252:1 253:1 255:1 257:1 261:1 264:1 
-4.158273016036448 1:1 3:0.124402 4:0.5 5:1 7:1 9:1 12:1 13:0.5 14:1 18:1 19:1 23:1 121:1 252:1 253:1 255:1 257:1 261:1 264:1 
-32 1:1 3:0.334928 4:0.5 5:1 7:1 9:1 12:1 13:0.408248 14:1 18:1 19:1 23:1 117:1 252:1 253:1 255:1 257:1 261:1 264:1 
-31.6494027729446 1:1 3:0.177033 4:0.5 5:1 7:1 9:1 11:1 14:1 18:1 19:1 23:1 120:1 252:1 253:1 255:1 257:1 261:1 264:1 
-32 1:1 4:0.5 5:1 7:1 9:1 12:1 13:0.408248 14:1 18:1 19:1 23:1 121:1 252:1 253:1 255:1 257:1 261:1 264:1 
-0.7459667589044309 1:1 3:0.334928 4:1 5:1 7:1 9:1 11:1 14:1 18:1 19:1 23:1 117:1 252:1 253:1 255:1 257:1 261:1 264:1 
-3.410615584627853 1:1 3:0.0717703 4:0.5 5:1 7:1 9:1 11:1 14:1 18:1 19:1 23:1 120:1 252:1 253:1 255:1 257:1 261:1 264:1 
-26.32135049199132 1:1 3:0.105263 4:0.625 5:1 7:1 9:1 11:1 14:1 18:1 19:1 23:1 121:1 252:1 253:1 255:1 257:1 261:1 264:1 
-0.07963533198226332 1:1 3:0.0478469 4:0.5 5:1 7:1 9:1 11:1 14:1 18:1 19:1 23:1 121:1 252:1 253:1 255:1 257:1 261:1 264:1 
-0.1890520131242002 1:1 3:0.00478469 4:0.625 5:1 7:1 9:1 11:1 14:1 18:1 19:1 23:1 121:1 252:1 253:1 255:1 257:1 261:1 264:1 
-32 1:1 3:0.0526316 4:0.5 5:1 7:1 9:1 12:1 13:0.5 14:1 18:1 19:1 23:1 119:1 252:1 253:1 255:1 257:1 261:1 264:1 
-32 1:1 3:0.0143541 4:0.625 5:1 7:1 9:1 11:1 14:1 18:1 19:1 23:1 121:1 252:1 253:1 255:1 257:1 261:1 264:1 
-3.228888090750673 1:1 3:0.00478469 4:0.625 6:1 7:1 9:1 12:1 13:0.5 14:1 18:1 19:1 23:1 121:1 252:1 253:1 255:1 258:1 261:1 264:1 
-0.3556706351967129 1:1 3:0.196172 5:1 7:1 9:1 11:1 14:1 18:1 19:1 23:1 102:1 250:1 253:1 255:1 257:1 261:1 264:1 
-10.47766779779603 1:1 3:0.138756 4:1 5:1 7:1 9:1 12:1 13:0.5 14:1 18:1 19:1 23:1 119:1 252:1 253:1 255:1 257:1 260:1 264:1 
-3.796615757163039 1:1 3:0.062201 4:1 5:1 7:1 9:1 12:1 13:0.353553 14:1 18:1 19:1 23:1 120:1 252:1 253:1 255:1 257:1 260:1 264:1 
-8.790506244154816 1:1 3:0.0239234 4:0.875 5:1 7:1 9:1 11:1 14:1 18:1 19:1 23:1 121:1 252:1 253:1 255:1 257:1 261:1 264:1 
-0.583155946719993 1:1 3:0.325359 4:1 5:1 7:1 9:1 11:1 14:1 18:1 19:1 23:1 196:1 252:1 253:1 255:1 257:1 261:1 264:1 
-0.533800495676279 1:1 3:0.315789 4:0.875 5:1 7:1 9:1 11:1 14:1 18:1 19:1 23:1 196:1 252:1 253:1 255:1 257:1 261:1 264:1 
-0.09158180111149662 1:1 3:0.177033 4:0.625 5:1 7:1 9:1 11:1 14:1 18:1 19:1 23:1 119:1 252:1 253:1 255:1 257:1 261:1 264:1 
-32 1:1 3:0.0143541 4:0.625 5:1 7:1 9:1 11:1 14:1 18:1 19:1 23:1 121:1 252:1 253:1 255:1 257:1 261:1 264:1 
-32 1:1 3:0.00478469 4:0.625 5:1 7:1 9:1 11:1 14:1 18:1 19:1 23:1 121:1 252:1 253:1 255:1 257:1 261:1 264:1 
-32 1:1 3:0.00956938 4:0.5 5:1 7:1 9:1 12:1 13:0.5 14:1 18:1 19:1 23:1 121:1 252:1 253:1 255:1 257:1 261:1 264:1 
-32 1:1 3:0.00478469 4:0.625 5:1 7:1 9:1 11:1 14:1 18:1 19:1 23:1 121:1 252:1 253:1 255:1 257:1 261:1 264:1 
-32 1:1 3:0.00956938 4:0.5 5:1 7:1 9:1 12:1 13:0.5 14:1 18:1 19:1 23:1 121:1 252:1 253:1 255:1 257:1 261:1 264:1 
-8.504348523643554 1:1 3:0.00956938 4:0.5 5:1 7:1 9:1 12:1 13:0.5 14:1 18:1 19:1 23:1 121:1 252:1 253:1 255:1 257:1 261:1 264:1 
-0.5479029842974483 1:1 3:0.00478469 4:0.375 5:1 7:1 9:1 11:1 14:1 18:1 19:1 21:1 57:1 252:1 253:1 255:1 257:1 261:1 264:1 
-0.5694285555983233 1:1 4:0.375 5:1 7:1 9:1 11:1 14:1 18:1 19:1 22:1 57:1 252:1 253:1 255:1 257:1 261:1 264:1 
-1.376853549587744 1:1 3:0.105263 4:0.125 6:1 7:1 9:1 12:1 13:0.288675 14:1 18:1 20:1 23:1 211:1 252:1 253:1 255:1 257:1 261:1 264:1 
-0.8500962070895268 1:1 3:0.626794 4:0.875 5:1 7:1 9:1 11:1 14:1 18:1 19:1 23:1 87:1 252:1 253:1 255:1 257:1 261:1 264:1 
-0.20931165371621 1:1 3:0.61244 4:1 5:1 7:1 9:1 11:1 14:1 18:1 19:1 23:1 87:1 252:1 253:1 255:1 257:1 261:1 264:1 
-0.07193344273304124 1:1 3:0.478469 4:1 5:1 7:1 9:1 11:1 14:1 18:1 19:1 23:1 89:1 252:1 253:1 255:1 257:1 261:1 264:1 
-0.120624026311432 1:1 3:0.425837 4:1 5:1 7:1 9:1 11:1 14:1 18:1 19:1 23:1 89:1 252:1 253:1 255:1 257:1 261:1 264:1 
-0.9264466406747096 1:1 3:0.397129 4:1 5:1 7:1 9:1 11:1 14:1 18:1 19:1 23:1 89:1 252:1 253:1 255:1 257:1 261:1 264:1 
-0.06258341668124204 1:1 3:0.363636 4:1 5:1 7:1 9:1 11:1 14:1 18:1 19:1 23:1 89:1 252:1 253:1 255:1 257:1 261:1 264:1 
-20.23905128881805 1:1 3:0.00956938 4:0.75 5:1 7:1 9:1 11:1 14:1 18:1 19:1 23:1 89:1 252:1 253:1 255:1 257:1 261:1 264:1 
-1.86137323905053 1:1 3:0.00478469 4:0.875 5:1 7:1 9:1 11:1 14:1 18:1 19:1 23:1 89:1 252:1 253:1 255:1 257:1 261:1 264:1 
-0.03619261473785547 1:1 3:0.875598 4:0.875 5:1 7:1 9:1 11:1 14:1 18:1 19:1 23:1 27:1 252:1 253:1 255:1 257:1 261:1 264:1 
-0.2976042174786449 1:1 3:0.861244 4:1 5:1 7:1 9:1 11:1 14:1 18:1 19:1 23:1 27:1 252:1 253:1 255:1 257:1 261:1 264:1 
-0.293390654179657 1:1 3:0.727273 4:1 5:1 7:1 9:1 11:1 14:1 18:1 19:1 23:1 29:1 252:1 253:1 255:1 257:1 261:1 264:1 
-0.461601960173944 1:1 3:0.617225 4:0.875 5:1 7:1 9:1 11:1 14:1 18:1 19:1 23:1 29:1 250:1 253:1 255:1 257:1 261:1 264:1 
-0.1494939979178602 1:1 3:0.200957 4:0.75 5:1 7:1 9:1 11:1 14:1 18:1 19:1 23:1 89:1 252:1 253:1 255:1 257:1 261:1 264:1 
-2.518946777204099 1:1 3:0.105263 4:1 5:1 7:1 9:1 11:1 14:1 18:1 19:1 23:1 116:1 252:1 253:1 255:1 257:1 261:1 264:1 
-0.00711551004917335 1:1 3:0.167464 4:1 5:1 7:1 9:1 11:1 14:1 18:1 19:1 23:1 116:1 252:1 253:1 255:1 257:1 261:1 264:1 
-32 1:1 3:0.0430622 4:1 5:1 8:1 9:1 12:1 13:0.707107 14:1 18:1 19:1 23:1 121:1 252:1 253:1 255:1 257:1 261:1 264:1 
-17.82127903643001 1:1 3:0.0861244 4:1 5:1 7:1 9:1 11:1 14:1 18:1 19:1 23:1 121:1 252:1 253:1 255:1 257:1 261:1 264:1 
-0.2802380544085248 1:1 3:0.062201 4:1 5:1 8:1 9:1 11:1 14:1 18:1 19:1 23:1 121:1 252:1 253:1 255:1 257:1 261:1 264:1 
-32 1:1 3:0.062201 4:1 5:1 8:1 9:1 11:1 14:1 18:1 19:1 23:1 121:1 252:1 253:1 255:1 257:1 261:1 264:1 
-8.506138325555073 1:1 3:0.363636 4:0.25 5:1 7:1 9:1 11:1 14:1 18:1 19:1 23:1 116:1 252:1 253:1 255:1 257:1 261:1 264:1 
-3.784369271473517 1:1 3:0.995215 4:1 5:1 7:1 9:1 11:1 14:1 18:1 19:1 23:1 117:1 252:1 253:1 255:1 257:1 261:1 264:1 
-32 1:1 3:0.990431 4:0.75 6:1 7:1 9:1 12:1 13:0.316228 14:1 18:1 19:1 23:1 117:1 252:1 253:1 255:1 257:1 261:1 264:1 
-29.3987527065876 1:1 3:0.569378 4:1 5:1 7:1 9:1 12:1 13:0.5 14:1 18:1 19:1 23:1 119:1 252:1 253:1 255:1 257:1 261:1 264:1 
-0.6497188519180137 1:1 3:0.114833 4:1 5:1 7:1 9:1 11:1 14:1 18:1 19:1 22:1 89:1 252:1 253:1 255:1 257:1 261:1 264:1 
-0.7456698838157541 1:1 3:0.00956938 4:1 5:1 7:1 10:1 11:1 14:1 18:1 19:1 23:1 89:1 252:1 253:1 255:1 257:1 259:1 264:1 
-4.043041953332636 1:1 3:0.799043 4:1 5:1 7:1 9:1 11:1 14:1 18:1 19:1 23:1 119:1 252:1 253:1 255:1 257:1 261:1 264:1 
-0.4165042100156792 1:1 3:0.578947 4:1 5:1 7:1 9:1 11:1 14:1 18:1 19:1 23:1 119:1 250:1 253:1 255:1 257:1 261:1 264:1 
-9.063252849166275 1:1 3:0.483254 4:1 5:1 7:1 9:1 11:1 14:1 18:1 19:1 23:1 121:1 250:1 253:1 255:1 257:1 261:1 264:1 
-1.459382969263798 1:1 4:1 6:1 7:1 9:1 12:1 13:0.5 14:1 18:1 19:1 23:1 121:1 250:1 253:1 255:1 257:1 261:1 264:1 
-0.7285645888863884 1:1 4:1 5:1 8:1 9:1 11:1 14:1 18:1 19:1 23:1 121:1 250:1 253:1 255:1 257:1 261:1 264:1 
-1.180340175967776 1:1 3:0.0526316 4:0.625 5:1 7:1 9:1 11:1 14:1 18:1 19:1 23:1 121:1 252:1 253:1 255:1 257:1 261:1 264:1 
-1.415195172096002 1:1 3:0.0478469 4:0.625 5:1 7:1 9:1 11:1 14:1 18:1 19:1 23:1 121:1 252:1 253:1 255:1 257:1 261:1 264:1 
-0.7488594116108526 1:1 3:0.0430622 4:0.625 5:1 7:1 9:1 12:1 13:0.288675 14:1 17:1 19:1 23:1 121:1 252:1 253:1 255:1 257:1 259:1 264:1 
-0.3175061343667481 1:1 3:0.0191388 4:0.625 5:1 7:1 9:1 11:1 14:1 18:1 19:1 23:1 121:1 252:1 253:1 255:1 257:1 261:1 264:1 
-32 1:1 3:0.0191388 4:0.625 5:1 7:1 9:1 11:1 14:1 18:1 19:1 23:1 121:1 252:1 253:1 255:1 257:1 261:1 264:1 
-10.2587287200724 1:1 3:0.0382775 4:0.625 5:1 7:1 9:1 11:1 14:1 18:1 19:1 23:1 121:1 252:1 253:1 255:1 257:1 261:1 264:1 
-13.53983831860771 1:1 3:0.0239234 4:0.625 5:1 7:1 9:1 11:1 14:1 18:1 19:1 23:1 121:1 252:1 253:1 255:1 257:1 261:1 264:1 
-4.437760426541153 1:1 3:0.129187 4:0.625 5:1 7:1 9:1 11:1 14:1 18:1 19:1 23:1 120:1 252:1 253:1 255:1 257:1 261:1 264:1 
-2.6103595209574 1:1 3:0.0191388 4:0.875 6:1 7:1 9:1 12:1 13:0.666667 14:1 18:1 19:1 23:1 72:1 252:1 253:1 255:1 257:1 261:1 264:1 
-0.08835119204982694 1:1 3:0.320574 4:1 5:1 7:1 9:1 11:1 14:1 18:1 19:1 23:1 117:1 252:1 253:1 255:1 257:1 261:1 264:1 
-32 1:1 3:0.267943 4:0.875 6:1 7:1 9:1 12:1 13:0.666667 14:1 18:1 19:1 23:1 117:1 252:1 253:1 255:1 257:1 261:1 264:1 
-0.1007607705852021 1:1 4:1 5:1 7:1 9:1 11:1 14:1 18:1 19:1 23:1 73:1 252:1 253:1 255:1 257:1 261:1 264:1 
-0.443045270969163 1:1 3:0.272727 4:1 5:1 7:1 9:1 11:1 14:1 18:1 19:1 23:1 117:1 250:1 253:1 255:1 257:1 261:1 264:1 
-0.429961444171943 1:1 3:0.0574163 4:0.625 5:1 7:1 9:1 11:1 14:1 18:1 19:1 23:1 121:1 252:1 253:1 255:1 257:1 261:1 264:1 
-32 1:1 3:0.00478469 4:0.375 5:1 7:1 9:1 11:1 14:1 18:1 19:1 23:1 121:1 252:1 253:1 255:1 257:1 261:1 264:1 
-32 1:1 3:0.00478469 4:0.375 5:1 7:1 9:1 11:1 14:1 18:1 19:1 23:1 121:1 252:1 253:1 255:1 257:1 261:1 264:1 
-10.96205259884794 1:1 3:0.00956938 5:1 7:1 9:1 12:1 13:0.204124 14:1 18:1 19:1 23:1 121:1 252:1 253:1 255:1 257:1 261:1 264:1 
-14.65730054328842 1:1 3:0.00478469 5:1 7:1 9:1 12:1 13:0.182574 14:1 18:1 19:1 23:1 121:1 252:1 253:1 255:1 257:1 261:1 264:1 
-32 1:1 3:0.00478469 4:0.5 5:1 7:1 9:1 12:1 13:0.5 14:1 18:1 19:1 23:1 121:1 252:1 253:1 255:1 257:1 261:1 264:1 
-0.4500120601670886 1:1 3:0.258373 4:0.625 5:1 7:1 9:1 11:1 14:1 18:1 19:1 23:1 89:1 252:1 253:1 255:1 257:1 261:1 264:1 
-0.7115583970426551 1:1 3:0.239234 4:0.625 5:1 7:1 9:1 11:1 14:1 18:1 19:1 23:1 89:1 252:1 253:1 255:1 257:1 261:1 264:1 
-0.7601444756100882 1:1 4:0.625 5:1 7:1 9:1 12:1 13:0.408248 14:1 18:1 19:1 23:1 89:1 250:1 253:1 255:1 257:1 261:1 264:1 
-2.401549786788155 1:1 3:0.282297 4:0.625 5:1 7:1 9:1 11:1 14:1 18:1 19:1 23:1 89:1 252:1 253:1 255:1 257:1 261:1 264:1 
-0.4416901819204213 1:1 3:0.277512 4:0.625 5:1 7:1 9:1 11:1 14:1 18:1 19:1 23:1 89:1 252:1 253:1 255:1 257:1 261:1 264:1 
-0.2549530410653804 1:1 3:0.215311 4:0.625 5:1 7:1 9:1 11:1 14:1 18:1 19:1 23:1 89:1 252:1 253:1 255:1 257:1 261:1 264:1 
-0.02701834698486724 1:1 3:0.191388 4:0.625 5:1 7:1 9:1 11:1 14:1 18:1 19:1 23:1 89:1 252:1 253:1 255:1 257:1 261:1 264:1 
-5.083007421312686 1:1 3:0.00478469 4:0.625 5:1 7:1 9:1 11:1 14:1 18:1 19:1 23:1 89:1 252:1 253:1 255:1 257:1 261:1 264:1 
-31.97849651712504 1:1 3:0.00478469 4:0.625 5:1 7:1 9:1 11:1 14:1 18:1 19:1 23:1 89:1 252:1 253:1 255:1 257:1 261:1 264:1 
-0.125307144326075 1:1 3:0.291866 4:1 5:1 7:1 9:1 11:1 14:1 18:1 19:1 23:1 119:1 252:1 253:1 255:1 257:1 261:1 264:1 
-2.026206161937294 1:1 3:0.244019 4:1 5:1 8:1 9:1 11:1 14:1 18:1 19:1 23:1 119:1 252:1 253:1 255:1 258:1 261:1 264:1 
-24.10813109268825 1:1 3:0.062201 4:0.75 6:1 8:1 9:1 12:1 13:0.57735 14:1 18:1 19:1 23:1 121:1 252:1 253:1 255:1 257:1 261:1 264:1 
-5.261436091814484 1:1 3:0.320574 4:1 5:1 7:1 9:1 11:1 14:1 18:1 19:1 23:1 119:1 252:1 253:1 255:1 257:1 261:1 264:1 
-30.11942860754666 1:1 3:0.0861244 4:1 5:1 7:1 9:1 11:1 14:1 18:1 19:1 23:1 121:1 252:1 253:1 255:1 257:1 261:1 264:1 
-0.2975148675768089 1:1 3:0.062201 4:1 5:1 7:1 9:1 11:1 14:1 18:1 19:1 23:1 121:1 252:1 253:1 255:1 257:1 261:1 264:1 
-5.469912403814913 1:1 3:0.0478469 4:1 5:1 7:1 9:1 11:1 14:1 18:1 19:1 23:1 121:1 252:1 253:1 255:1 257:1 261:1 264:1 
-0.4300867876977686 1:1 3:0.0430622 4:1 5:1 7:1 9:1 11:1 14:1 18:1 19:1 23:1 121:1 252:1 253:1 255:1 257:1 261:1 264:1 
-7.29400221546044 1:1 3:0.0382775 4:1 5:1 7:1 9:1 11:1 14:1 18:1 19:1 23:1 121:1 252:1 253:1 255:1 257:1 261:1 264:1 
-32 1:1 3:0.0239234 4:0.875 6:1 8:1 9:1 12:1 13:0.57735 14:1 18:1 19:1 23:1 121:1 252:1 253:1 255:1 257:1 261:1 264:1 
-16.31077878120418 1:1 3:0.0191388 4:1 5:1 7:1 9:1 11:1 14:1 18:1 19:1 23:1 121:1 252:1 253:1 255:1 257:1 261:1 264:1 
-0.8949807470507558 1:1 3:0.220096 4:0.25 6:1 8:1 9:1 12:1 13:0.57735 14:1 18:1 19:1 23:1 226:1 252:1 253:1 255:1 257:1 261:1 264:1 
-0.6323783124996406 1:1 3:0.196172 5:1 7:1 9:1 12:1 13:0.333333 14:1 18:1 19:1 23:1 226:1 252:1 253:1 255:1 257:1 261:1 264:1 
-32 1:1 3:0.0239234 4:0.875 6:1 8:1 9:1 12:1 13:0.57735 14:1 18:1 19:1 23:1 121:1 252:1 253:1 255:1 257:1 261:1 264:1 
-32 1:1 3:0.0191388 4:1 5:1 7:1 9:1 11:1 14:1 18:1 19:1 23:1 121:1 252:1 253:1 255:1 257:1 261:1 264:1 
-0.05092029799309632 1:1 3:0.0478469 4:1 5:1 7:1 9:1 11:1 14:1 18:1 19:1 23:1 104:1 252:1 253:1 256:1 257:1 259:1 264:1 
-2.677778453547822 1:1 3:0.00478469 5:1 7:1 9:1 12:1 13:0.5 14:1 18:1 19:1 23:1 105:1 252:1 253:1 255:1 257:1 261:1 264:1 
-0.4209312622256745 1:1 3:0.0239234 4:1 5:1 7:1 10:1 11:1 14:1 18:1 19:1 23:1 104:1 252:1 253:1 255:1 257:1 259:1 264:1 
-10.44788280182252 1:1 3:0.00478469 4:0.375 5:1 7:1 9:1 11:1 14:1 18:1 19:1 23:1 121:1 252:1 253:1 255:1 257:1 261:1 264:1 
-32 1:1 3:0.0287081 4:1 5:1 7:1 9:1 11:1 14:1 18:1 19:1 23:1 121:1 252:1 253:1 255:1 257:1 261:1 264:1 
-0.1897855568360071 1:1 3:0.0909091 4:1 5:1 7:1 9:1 11:1 14:1 18:1 19:1 23:1 136:1 252:1 253:1 255:1 257:1 261:1 264:1 
-27.15579748217524 1:1 3:0.425837 4:1 5:1 7:1 9:1 11:1 14:1 18:1 19:1 23:1 117:1 252:1 253:1 255:1 257:1 261:1 264:1 
-0.02398568764484186 1:1 3:0.311005 4:1 5:1 7:1 9:1 11:1 14:1 18:1 19:1 23:1 119:1 252:1 253:1 255:1 257:1 261:1 264:1 
-0.9896931181286654 1:1 3:0.272727 4:1 5:1 7:1 9:1 11:1 14:1 18:1 19:1 23:1 119:1 252:1 253:1 255:1 257:1 261:1 264:1 
-0.07060124827247431 1:1 3:0.220096 4:1 5:1 7:1 9:1 11:1 14:1 18:1 19:1 23:1 119:1 252:1 253:1 255:1 257:1 261:1 264:1 
-19.99597131889336 1:1 3:0.181818 4:1 5:1 7:1 9:1 11:1 14:1 18:1 19:1 23:1 87:1 252:1 253:1 255:1 257:1 261:1 264:1 
-0.7774009895908801 1:1 3:0.0239234 4:1 5:1 8:1 9:1 11:1 14:1 18:1 19:1 23:1 89:1 252:1 253:1 255:1 257:1 261:1 264:1 
-12.0664179801634 1:1 3:0.167464 4:1 5:1 7:1 9:1 11:1 14:1 18:1 19:1 23:1 87:1 252:1 253:1 255:1 257:1 261:1 264:1 
-7.115022780795311 1:1 4:1 5:1 7:1 9:1 11:1 14:1 18:1 19:1 23:1 89:1 252:1 253:1 255:1 257:1 261:1 264:1 
-30.33494816662222 1:1 4:1 5:1 7:1 9:1 11:1 14:1 18:1 19:1 23:1 89:1 252:1 253:1 255:1 257:1 261:1 264:1 
-0.4622465448367294 1:1 3:0.23445 4:1 5:1 7:1 9:1 11:1 14:1 18:1 19:1 23:1 119:1 252:1 253:1 255:1 257:1 261:1 264:1 
-32 1:1 3:0.133971 4:1 5:1 7:1 9:1 11:1 14:1 18:1 19:1 23:1 119:1 252:1 253:1 255:1 257:1 261:1 264:1 
-26.434583730891 1:1 3:0.133971 4:1 5:1 7:1 9:1 11:1 14:1 18:1 19:1 23:1 119:1 252:1 253:1 255:1 257:1 261:1 264:1 
-0.8396310222169194 1:1 3:0.0239234 4:1 5:1 8:1 9:1 11:1 14:1 18:1 19:1 23:1 119:1 252:1 253:1 255:1 257:1 261:1 264:1 
-32 1:1 3:0.0287081 4:1 5:1 7:1 9:1 11:1 14:1 18:1 19:1 23:1 121:1 252:1 253:1 255:1 257:1 261:1 264:1 
-32 1:1 3:0.0287081 4:1 5:1 7:1 9:1 11:1 14:1 18:1 19:1 23:1 121:1 252:1 253:1 255:1 257:1 261:1 264:1 
-0.06555560586168788 1:1 4:1 5:1 7:1 9:1 11:1 14:1 18:1 19:1 23:1 121:1 252:1 253:1 255:1 257:1 261:1 264:1 
-1.463848156877843 1:1 3:0.0526316 4:0.875 5:1 7:1 9:1 11:1 14:1 18:1 19:1 23:1 116:1 252:1 253:1 255:1 257:1 261:1 264:1 
-0.3030070963006141 1:1 3:0.00478469 4:0.75 5:1 7:1 9:1 11:1 14:1 18:1 19:1 23:1 121:1 252:1 253:1 255:1 257:1 261:1 264:1 
-32 1:1 3:0.105263 4:0.875 5:1 7:1 9:1 11:1 14:1 18:1 19:1 23:1 116:1 252:1 253:1 255:1 257:1 261:1 264:1 
-0.008179739547233436 1:1 3:0.0669856 4:1 5:1 7:1 9:1 11:1 14:1 18:1 19:1 23:1 121:1 252:1 253:1 255:1 257:1 261:1 264:1 
-32 1:1 3:0.0574163 4:1 5:1 7:1 9:1 11:1 14:1 18:1 19:1 23:1 121:1 252:1 253:1 255:1 257:1 261:1 264:1 
-1.231531315599338 1:1 3:0.00956938 4:1 5:1 7:1 9:1 11:1 14:1 18:1 19:1 23:1 121:1 252:1 253:1 255:1 257:1 261:1 264:1 
-2.741066933480269 1:1 3:0.062201 4:0.25 5:1 7:1 9:1 12:1 13:0.353553 14:1 18:1 19:1 23:1 121:1 252:1 253:1 255:1 257:1 260:1 264:1 
-23.8448301771847 1:1 3:0.00478469 4:0.75 5:1 7:1 9:1 11:1 14:1 18:1 19:1 23:1 121:1 252:1 253:1 255:1 257:1 261:1 264:1 
-0.0655125118399576 1:1 3:0.0287081 4:0.5 5:1 7:1 9:1 12:1 13:0.353553 14:1 18:1 19:1 23:1 120:1 252:1 253:1 256:1 257:1 261:1 264:1 
-0.1829292762452328 1:1 3:0.0191388 4:0.5 5:1 7:1 9:1 12:1 13:0.288675 14:1 18:1 19:1 23:1 120:1 252:1 253:1 255:1 257:1 259:1 264:1 
-0.3649641728291924 1:1 3:0.00956938 4:0.625 5:1 7:1 9:1 11:1 14:1 18:1 19:1 23:1 121:1 252:1 253:1 255:1 257:1 261:1 264:1 
-15.85048607241393 1:1 3:0.0334928 4:1 5:1 7:1 9:1 11:1 14:1 18:1 19:1 23:1 121:1 252:1 253:1 255:1 257:1 261:1 264:1 
-32 1:1 4:1 5:1 7:1 9:1 11:1 14:1 18:1 19:1 23:1 121:1 252:1 253:1 255:1 257:1 261:1 264:1 
-1.139787376171172 1:1 3:0.0239234 4:1 5:1 7:1 9:1 11:1 14:1 18:1 19:1 23:1 121:1 252:1 253:1 255:1 257:1 261:1 264:1 
-13.30912521414575 1:1 3:0.00478469 4:1 5:1 7:1 9:1 11:1 14:1 18:1 19:1 23:1 121:1 252:1 253:1 255:1 257:1 261:1 264:1 
-32 1:1 3:0.00478469 4:1 5:1 7:1 9:1 11:1 14:1 18:1 19:1 23:1 121:1 252:1 253:1 255:1 257:1 261:1 264:1 
-10.5212683527667 1:1 4:1 5:1 7:1 9:1 11:1 14:1 18:1 19:1 23:1 121:1 252:1 253:1 255:1 257:1 261:1 264:1 
-2.363486606626814 1:1 3:0.248804 4:1 5:1 8:1 9:1 12:1 13:0.707107 14:1 18:1 19:1 23:1 102:1 252:1 253:1 255:1 257:1 261:1 264:1 
-5.699025699547983 1:1 3:0.301435 4:1 5:1 8:1 9:1 12:1 13:0.707107 14:1 18:1 19:1 23:1 117:1 252:1 253:1 255:1 257:1 261:1 264:1 
-0.5362883830805901 1:1 3:0.196172 4:1 5:1 7:1 9:1 11:1 14:1 18:1 19:1 23:1 119:1 252:1 253:1 255:1 257:1 261:1 264:1 
-11.95402652898956 1:1 3:0.100478 4:1 5:1 7:1 9:1 11:1 14:1 18:1 19:1 23:1 119:1 252:1 253:1 255:1 257:1 261:1 264:1 
-1.004707115800507 1:1 3:0.00478469 4:1 5:1 8:1 9:1 12:1 13:0.57735 14:1 18:1 19:1 23:1 105:1 250:1 253:1 255:1 257:1 261:1 264:1 
-7.702348767762875 1:1 3:0.0478469 4:1 5:1 8:1 9:1 12:1 13:0.57735 14:1 18:1 19:1 23:1 120:1 250:1 253:1 255:1 257:1 261:1 264:1 
-32 1:1 3:0.124402 4:0.625 5:1 7:1 9:1 11:1 14:1 18:1 19:1 21:1 105:1 252:1 253:1 255:1 257:1 261:1 264:1 
-1.121194218595984 1:1 3:0.0909091 4:0.625 5:1 7:1 9:1 11:1 14:1 18:1 19:1 21:1 105:1 252:1 253:1 255:1 257:1 261:1 264:1 
-31.43551160296303 1:1 3:0.119617 4:0.625 5:1 7:1 9:1 11:1 14:1 18:1 19:1 23:1 105:1 252:1 253:1 255:1 257:1 261:1 264:1 
-1.885242599449824 1:1 3:0.0478469 4:0.5 6:1 8:1 10:1 12:1 13:1 15:1 18:1 19:1 21:1 105:1 250:1 253:1 255:1 257:1 261:1 264:1 
-1.285384074135446 1:1 3:0.0478469 4:0.875 5:1 7:1 9:1 12:1 13:0.4 14:1 17:1 19:1 23:1 105:1 252:1 253:1 255:1 257:1 260:1 264:1 
-0.3973652272014725 1:1 3:0.0191388 4:1 5:1 8:1 9:1 11:1 14:1 18:1 19:1 23:1 105:1 252:1 253:1 255:1 257:1 261:1 264:1 
